{
 "pi.0.weight": [
  [
   -0.9944286942481995,
   1.4127391576766968,
   -1.1062132120132446
  ],
  [
   1.4828017950057983,
   0.4949503242969513,
   -0.445285439491272
  ],
  [
   -3.957151174545288,
   0.2998814880847931,
   0.06172022596001625
  ],
  [
   1.40052330493927,
   1.6677207946777344,
   -1.7767703533172607
  ],
  [
   0.3037892282009125,
   -0.8687700629234314,
   0.541254460811615
  ],
  [
   0.9248077273368835,
   0.41590335965156555,
   -0.16253861784934998
  ],
  [
   -0.3360080122947693,
   0.053969137370586395,
   0.13638027012348175
  ],
  [
   1.1973234415054321,
   -0.06000935658812523,
   -0.1418590098619461
  ],
  [
   -0.7524560689926147,
   -1.0146079063415527,
   0.8412278890609741
  ],
  [
   -1.67592191696167,
   -0.3337848484516144,
   -0.5771008133888245
  ],
  [
   -0.968439519405365,
   0.10319389402866364,
   -0.5662769079208374
  ],
  [
   -0.9224287867546082,
   0.04832538589835167,
   -0.42120274901390076
  ],
  [
   -1.2343039512634277,
   1.3100277185440063,
   -0.6434165239334106
  ],
  [
   0.17457090318202972,
   0.5496870279312134,
   0.17699000239372253
  ],
  [
   0.08610653132200241,
   0.9527996182441711,
   -0.8366559147834778
  ],
  [
   -0.39506298303604126,
   -0.06574331223964691,
   -0.12470101565122604
  ],
  [
   1.176012396812439,
   0.4701940715312958,
   0.4538307189941406
  ],
  [
   1.173666000366211,
   -0.04712046682834625,
   0.09197451174259186
  ],
  [
   -1.5821349620819092,
   1.1856975555419922,
   -0.7422752380371094
  ],
  [
   2.495065689086914,
   0.4881545901298523,
   -1.3469806909561157
  ],
  [
   1.469908595085144,
   0.5278639197349548,
   0.24354848265647888
  ],
  [
   1.0229527950286865,
   -0.10273347795009613,
   -0.37905755639076233
  ],
  [
   1.2785043716430664,
   0.25614845752716064,
   0.2636401355266571
  ],
  [
   0.5952328443527222,
   2.4029860496520996,
   -1.2857719659805298
  ],
  [
   1.0349745750427246,
   -0.026831824332475662,
   -0.6231667399406433
  ],
  [
   -1.0585885047912598,
   0.5399032831192017,
   -0.45300036668777466
  ],
  [
   -0.9309183955192566,
   1.3199105262756348,
   -0.9493424296379089
  ],
  [
   1.6506370306015015,
   2.054387331008911,
   -1.960624098777771
  ],
  [
   0.2359752058982849,
   -0.047341614961624146,
   -0.567802369594574
  ],
  [
   0.9696351289749146,
   0.9448084831237793,
   -1.8042073249816895
  ]
 ],
 "pi.0.bias": [
  0.2422199696302414,
  -0.011106097139418125,
  -0.1152949333190918,
  0.5384892821311951,
  0.6080635190010071,
  -0.235273078083992,
  0.8599451780319214,
  0.03157516196370125,
  0.04737662896513939,
  1.5094534158706665,
  -1.5438055992126465,
  1.0296306610107422,
  -1.9536110162734985,
  -2.423865795135498,
  -0.8439558148384094,
  -0.08118287473917007,
  -1.6194573640823364,
  -1.6533825397491455,
  0.3988870680332184,
  2.1584832668304443,
  -1.3785555362701416,
  0.02844320423901081,
  -2.5614051818847656,
  -1.9215644598007202,
  0.24549366533756256,
  -3.2099483013153076,
  0.08540207147598267,
  0.28828510642051697,
  0.07041329890489578,
  0.0513400100171566
 ],
 "pi.2.weight": [
  [
   0.7503331303596497,
   -1.9672008752822876,
   -2.1571028232574463,
   2.413942813873291,
   -1.9132015705108643,
   -0.313020795583725,
   -0.18073101341724396,
   -0.5230473875999451,
   2.4230237007141113,
   -2.2237632274627686,
   0.4597643315792084,
   0.7083978056907654,
   -4.359928131103516,
   0.8230084776878357,
   2.724346160888672,
   0.05584122613072395,
   -1.4424479007720947,
   3.6604628562927246,
   0.70560222864151,
   1.5231233835220337,
   3.3913028240203857,
   0.19291532039642334,
   12.004583358764648,
   2.0280206203460693,
   0.7716704607009888,
   -4.169143199920654,
   0.32456767559051514,
   -3.0771543979644775,
   -0.3460129499435425,
   -1.8631247282028198
  ]
 ],
 "pi.2.bias": [
  -0.13737376034259796
 ]
}