{
 "pi.0.weight": [
  [
   -3.2225513458251953,
   1.2677868604660034,
   -1.0979347229003906
  ],
  [
   -1.2600418329238892,
   -1.5281732082366943,
   1.7748223543167114
  ],
  [
   0.4536733627319336,
   1.6738595962524414,
   -1.4538447856903076
  ],
  [
   -2.2744572162628174,
   -0.169186070561409,
   1.2652915716171265
  ],
  [
   2.0592782497406006,
   -0.4942397177219391,
   -0.000612206815276295
  ],
  [
   -0.1426195651292801,
   -0.9605624675750732,
   1.3364589214324951
  ],
  [
   -2.3231468200683594,
   -0.32220587134361267,
   1.1075845956802368
  ],
  [
   3.331913709640503,
   -0.42440053820610046,
   0.00541530130431056
  ],
  [
   -2.141960382461548,
   0.064266137778759,
   1.3163203001022339
  ],
  [
   -0.5005282163619995,
   -1.8105006217956543,
   0.617356538772583
  ],
  [
   -0.24794217944145203,
   0.3648458421230316,
   0.09134313464164734
  ],
  [
   -0.38442838191986084,
   -0.5384567379951477,
   0.011659943498671055
  ],
  [
   0.7770794630050659,
   0.7321469783782959,
   -1.6348263025283813
  ],
  [
   -0.8977870345115662,
   0.7058379650115967,
   -1.5865384340286255
  ],
  [
   1.5556282997131348,
   -1.5110409259796143,
   1.7984477281570435
  ],
  [
   0.24905291199684143,
   1.1710951328277588,
   -1.6774855852127075
  ],
  [
   1.6685863733291626,
   0.5487059354782104,
   0.7522306442260742
  ],
  [
   1.0919119119644165,
   0.5129434466362,
   -1.7800337076187134
  ],
  [
   0.8900365829467773,
   -1.2623597383499146,
   0.8924016952514648
  ],
  [
   -3.5785677433013916,
   -0.016817796975374222,
   1.7869452238082886
  ],
  [
   -2.2343270778656006,
   0.06367095559835434,
   -1.2166670560836792
  ],
  [
   -3.050428628921509,
   1.3848332166671753,
   -1.7326271533966064
  ],
  [
   1.737100601196289,
   0.17493411898612976,
   0.4760117530822754
  ],
  [
   2.5632987022399902,
   -0.7176805138587952,
   0.15244115889072418
  ],
  [
   2.2596540451049805,
   -0.3300342857837677,
   0.19538018107414246
  ],
  [
   1.1555615663528442,
   0.6319822072982788,
   -1.1450546979904175
  ],
  [
   -2.7735729217529297,
   0.3941880464553833,
   -1.2841416597366333
  ],
  [
   0.867119550704956,
   0.5775326490402222,
   -1.44248366355896
  ],
  [
   0.6144011616706848,
   -0.8688380718231201,
   1.255902647972107
  ],
  [
   1.4495335817337036,
   0.10581944137811661,
   -0.773792564868927
  ]
 ],
 "pi.0.bias": [
  0.03595925122499466,
  -0.12475992739200592,
  1.1218055486679077,
  -0.7393954396247864,
  -0.36641985177993774,
  0.11528278887271881,
  0.02224341593682766,
  0.7925382852554321,
  -1.2645617723464966,
  0.2243596315383911,
  1.7991899251937866,
  1.4114394187927246,
  -1.257544994354248,
  0.22320230305194855,
  -0.4771471321582794,
  -0.4214799106121063,
  -2.2253172397613525,
  -0.9676038026809692,
  1.4003856182098389,
  -1.0970749855041504,
  -0.541459321975708,
  0.5322429537773132,
  -2.244386672973633,
  0.5643512606620789,
  0.9368229508399963,
  -0.8438535928726196,
  -0.040094174444675446,
  -0.7444474101066589,
  0.5923417806625366,
  0.1231144517660141
 ],
 "pi.2.weight": [
  [
   0.3555302917957306,
   1.9466761350631714,
   0.1316937506198883,
   6.213108539581299,
   -4.370308876037598,
   0.5067236423492432,
   1.7744730710983276,
   -1.354651689529419,
   2.4677560329437256,
   -1.3090285062789917,
   0.6501786112785339,
   0.8216602206230164,
   -1.7947288751602173,
   1.929797649383545,
   0.8258801698684692,
   -2.0648603439331055,
   2.721959114074707,
   -2.521453857421875,
   0.43749484419822693,
   7.729813098907471,
   -0.4242038130760193,
   1.5792018175125122,
   1.8099089860916138,
   -0.7829519510269165,
   -1.231414556503296,
   -0.4563238322734833,
   0.2562803626060486,
   -0.23194485902786255,
   -1.4323818683624268,
   0.0611773319542408
  ],
  [
   -1.4530240297317505,
   -0.275228887796402,
   0.4644666314125061,
   1.785329818725586,
   0.023458268493413925,
   -1.0832538604736328,
   0.4703356921672821,
   -1.1478211879730225,
   4.777678966522217,
   -0.6743347644805908,
   0.45756837725639343,
   0.813114583492279,
   1.357688069343567,
   0.8033949732780457,
   1.9793648719787598,
   -0.6935355067253113,
   2.4758622646331787,
   -1.2408992052078247,
   -1.0200868844985962,
   4.999316692352295,
   -0.023141874000430107,
   0.9345120787620544,
   2.858565092086792,
   0.5438228249549866,
   -0.5503028035163879,
   0.05579359456896782,
   -0.7453392744064331,
   -0.646867036819458,
   0.44641631841659546,
   0.19140861928462982
  ],
  [
   -1.425183653831482,
   0.011707542464137077,
   0.526118278503418,
   1.1964242458343506,
   -0.659469485282898,
   0.1359611302614212,
   -0.07168474048376083,
   -0.4104606509208679,
   -2.499995470046997,
   -1.3678549528121948,
   -0.04240595921874046,
   0.438618928194046,
   -0.3463670015335083,
   -1.6284364461898804,
   1.4564882516860962,
   -0.7623458504676819,
   1.3722370862960815,
   -0.13625992834568024,
   -0.2930406928062439,
   0.34488192200660706,
   -6.349343776702881,
   1.5987087488174438,
   2.1875298023223877,
   -0.16700845956802368,
   -0.5848459005355835,
   1.4453949928283691,
   -2.584252119064331,
   0.08232929557561874,
   0.06635782122612,
   0.6763617396354675
  ]
 ],
 "pi.2.bias": [
  0.6442674994468689,
  0.4483869969844818,
  -0.3611062169075012
 ]
}