{
 "pi.0.weight": [
  [
   0.41043511033058167,
   -0.416792094707489,
   -1.429211139678955,
   -1.0151474475860596,
   -0.529583215713501,
   0.11558838933706284
  ],
  [
   -1.0967885255813599,
   -0.5590549111366272,
   -0.1912834495306015,
   -0.3630988597869873,
   0.5992153882980347,
   -0.8438850045204163
  ],
  [
   -0.5145981311798096,
   1.4008597135543823,
   -0.3783188760280609,
   0.5238385200500488,
   -0.020998429507017136,
   -0.38036414980888367
  ],
  [
   -0.6931747198104858,
   1.2517157793045044,
   0.3956056535243988,
   0.5714700818061829,
   0.7236908674240112,
   -0.9123872518539429
  ],
  [
   0.6179755926132202,
   -1.293688416481018,
   -1.039279580116272,
   0.03469789773225784,
   -0.3274475336074829,
   -0.27004677057266235
  ],
  [
   -0.5301668643951416,
   0.08149340003728867,
   -0.2991829514503479,
   0.0542459599673748,
   -0.45288142561912537,
   -1.2121297121047974
  ],
  [
   0.058648332953453064,
   0.511337399482727,
   0.30659157037734985,
   0.22876639664173126,
   0.6153998970985413,
   0.21190404891967773
  ],
  [
   -0.6321734189987183,
   1.1031368970870972,
   0.5540403723716736,
   0.2803914248943329,
   0.9553380608558655,
   -0.7819797992706299
  ],
  [
   -0.7907875180244446,
   0.7368258237838745,
   -0.10703928023576736,
   0.02072327956557274,
   -0.6514816880226135,
   -0.36595618724823
  ],
  [
   -0.6069057583808899,
   -0.49477890133857727,
   0.02600937709212303,
   0.27692946791648865,
   0.516224205493927,
   0.24996435642242432
  ],
  [
   0.6782163977622986,
   -0.5361202955245972,
   -0.27396610379219055,
   -0.40749475359916687,
   0.5719559192657471,
   0.30613964796066284
  ],
  [
   1.4432727098464966,
   -0.3032515347003937,
   -0.45536863803863525,
   0.09171731770038605,
   -0.5841034650802612,
   -0.4804287254810333
  ],
  [
   0.681879460811615,
   0.7999086976051331,
   0.462891161441803,
   1.2114473581314087,
   0.1682521104812622,
   -0.12543992698192596
  ],
  [
   -0.9747151732444763,
   -0.4918472468852997,
   0.4249833822250366,
   0.012648100033402443,
   0.6397098302841187,
   -0.7313987612724304
  ],
  [
   -0.3876485228538513,
   -0.4857861399650574,
   -0.4474637508392334,
   -0.37965258955955505,
   0.3156972825527191,
   1.1014341115951538
  ],
  [
   0.17441314458847046,
   0.7186240553855896,
   1.2355154752731323,
   1.4753695726394653,
   -0.10495730489492416,
   -0.7238136529922485
  ],
  [
   -1.6176506280899048,
   0.6689151525497437,
   0.023706477135419846,
   -0.34683823585510254,
   1.146129846572876,
   -0.31392765045166016
  ],
  [
   -0.9007821679115295,
   -0.3674476146697998,
   -1.483297348022461,
   -1.1256000995635986,
   0.545853316783905,
   0.3424677550792694
  ],
  [
   1.413864016532898,
   0.2961569130420685,
   0.43733420968055725,
   0.2796381115913391,
   -0.9808983206748962,
   0.37358593940734863
  ],
  [
   0.6436993479728699,
   -0.14879830181598663,
   -0.14141464233398438,
   0.040980540215969086,
   -0.03227803856134415,
   0.6155543327331543
  ],
  [
   0.14178156852722168,
   -0.056161023676395416,
   0.12132298201322556,
   0.48581722378730774,
   -1.1871522665023804,
   -1.3630160093307495
  ],
  [
   -1.3685349225997925,
   -1.016151785850525,
   0.4821622669696808,
   -0.11198174953460693,
   0.6898927092552185,
   -0.18199926614761353
  ],
  [
   0.5336147546768188,
   -0.04925670102238655,
   0.9845169186592102,
   -0.3516981601715088,
   -0.0419316440820694,
   -0.06855645030736923
  ],
  [
   0.5723795294761658,
   -0.6383671760559082,
   0.9428974390029907,
   0.0851840078830719,
   0.8457973599433899,
   -0.4996464252471924
  ],
  [
   -0.015227329917252064,
   0.28906580805778503,
   -0.21753212809562683,
   -0.06369055807590485,
   -0.9718148112297058,
   -0.35562270879745483
  ],
  [
   0.746671736240387,
   -0.6261192560195923,
   0.6396506428718567,
   0.5011568665504456,
   -1.474591851234436,
   -0.5100303888320923
  ],
  [
   0.7785390019416809,
   -1.2799776792526245,
   0.18849235773086548,
   0.006769820116460323,
   -0.5596320629119873,
   1.0042285919189453
  ],
  [
   -1.3107932806015015,
   -0.1702089011669159,
   0.5110247731208801,
   0.022478343918919563,
   0.02071281336247921,
   -0.4687403440475464
  ],
  [
   0.38754478096961975,
   0.10052681714296341,
   0.3911841809749603,
   0.23455248773097992,
   -1.3138452768325806,
   -0.37110766768455505
  ],
  [
   -0.7810184359550476,
   0.7656602263450623,
   0.16135205328464508,
   -0.7326434850692749,
   1.3180115222930908,
   -0.09188545495271683
  ],
  [
   -0.6327840685844421,
   0.3390338718891144,
   -0.9794629216194153,
   0.07107401639223099,
   0.2713102102279663,
   -0.1923891305923462
  ],
  [
   -0.5402012467384338,
   -0.36899659037590027,
   -0.8682003021240234,
   -0.6626780033111572,
   1.081145167350769,
   0.22643880546092987
  ],
  [
   -0.012025794014334679,
   0.38429516553878784,
   0.3859848380088806,
   0.18114933371543884,
   -0.9161138534545898,
   0.07685515284538269
  ],
  [
   0.8501061797142029,
   -1.4357199668884277,
   -0.24683687090873718,
   -0.21542786061763763,
   -0.051141299307346344,
   0.8346429467201233
  ],
  [
   -0.5099964141845703,
   0.5283845663070679,
   -0.061384834349155426,
   -0.06643034517765045,
   -1.1366313695907593,
   0.9830306172370911
  ],
  [
   0.510989785194397,
   -0.2797090709209442,
   0.5537234544754028,
   0.3498854637145996,
   -0.18504127860069275,
   0.5882048606872559
  ],
  [
   -0.3731260299682617,
   -0.45250990986824036,
   -0.5451909899711609,
   -0.18802933394908905,
   -0.2524721920490265,
   1.3517112731933594
  ],
  [
   -0.385864794254303,
   0.654282808303833,
   -0.5869612097740173,
   -0.08289959281682968,
   -0.23899400234222412,
   -0.05474527180194855
  ],
  [
   0.06161586567759514,
   1.161285638809204,
   -0.035611964762210846,
   0.2728276550769806,
   0.07584167271852493,
   -1.1567591428756714
  ],
  [
   0.7540064454078674,
   0.20718078315258026,
   0.4835912883281708,
   0.18088148534297943,
   -1.5587388277053833,
   0.9545117616653442
  ],
  [
   0.46614429354667664,
   -0.8078650236129761,
   0.36819949746131897,
   0.46919143199920654,
   0.23482832312583923,
   0.892090380191803
  ],
  [
   -0.620059609413147,
   -1.123131275177002,
   -0.031317662447690964,
   -0.5708671808242798,
   -0.32439255714416504,
   0.8475096225738525
  ],
  [
   -0.620972216129303,
   0.015843208879232407,
   -0.8448830842971802,
   -0.3202378451824188,
   0.3652014136314392,
   0.05069715157151222
  ],
  [
   0.8619484901428223,
   -0.8275192379951477,
   0.08465727418661118,
   0.03948548063635826,
   -0.14482533931732178,
   0.7534071207046509
  ],
  [
   0.7853205800056458,
   -0.5058220624923706,
   0.37984800338745117,
   0.42158037424087524,
   -0.62052983045578,
   -0.02222314663231373
  ],
  [
   -0.2779594361782074,
   0.1727905571460724,
   -0.5778697729110718,
   0.9279901385307312,
   -0.1658645123243332,
   -0.14172951877117157
  ],
  [
   -0.5835733413696289,
   0.5813954472541809,
   -0.2760227620601654,
   -0.003023560391739011,
   0.41103047132492065,
   -1.448486566543579
  ],
  [
   -0.6396816968917847,
   0.28053420782089233,
   0.7141509056091309,
   0.8118577003479004,
   0.5491666197776794,
   0.20511864125728607
  ],
  [
   -0.3009065091609955,
   0.9230788946151733,
   -0.32071664929389954,
   0.056974343955516815,
   1.3399064540863037,
   -0.39650842547416687
  ],
  [
   0.7929640412330627,
   -0.3233667314052582,
   0.11176345497369766,
   0.16033704578876495,
   -1.042406439781189,
   0.06305595487356186
  ],
  [
   0.046378858387470245,
   -0.6269658207893372,
   -0.4095333218574524,
   0.043415989726781845,
   -0.5508275032043457,
   -0.7182509899139404
  ],
  [
   0.36273109912872314,
   0.5691763758659363,
   0.0345083586871624,
   0.16550810635089874,
   -0.8002151250839233,
   -0.32206815481185913
  ],
  [
   1.5003175735473633,
   0.45398464798927307,
   0.37274810671806335,
   0.2010645866394043,
   -0.9619485139846802,
   -0.18935410678386688
  ],
  [
   0.19094450771808624,
   1.2277652025222778,
   0.6406850814819336,
   0.1414307951927185,
   -0.5293567180633545,
   -0.7499212622642517
  ],
  [
   -0.15099194645881653,
   0.9699031710624695,
   -0.5100629925727844,
   0.3432246446609497,
   0.3960195779800415,
   -0.37332773208618164
  ],
  [
   -1.1705539226531982,
   -0.1591491848230362,
   0.32529667019844055,
   -0.17134396731853485,
   0.6920971274375916,
   -0.489798903465271
  ],
  [
   -0.29762303829193115,
   1.1580253839492798,
   -0.5968648791313171,
   0.9745415449142456,
   0.1950022131204605,
   -0.35273438692092896
  ],
  [
   -0.04484037682414055,
   -0.052265770733356476,
   0.734056830406189,
   0.2269546091556549,
   0.4477953314781189,
   -0.49975091218948364
  ],
  [
   -0.9039392471313477,
   -0.24131250381469727,
   -0.6635969281196594,
   -0.11929312348365784,
   1.5252541303634644,
   -1.155083417892456
  ],
  [
   0.7433992624282837,
   1.7721889019012451,
   -0.03462833911180496,
   -0.2221021056175232,
   -0.16782529652118683,
   -0.43371811509132385
  ],
  [
   0.8381952047348022,
   -0.33420518040657043,
   -0.8636361360549927,
   -0.5386642813682556,
   0.13168172538280487,
   -0.11769908666610718
  ],
  [
   -1.0206538438796997,
   0.7129945158958435,
   0.009172968566417694,
   -0.19885259866714478,
   0.14223672449588776,
   0.025954369455575943
  ],
  [
   -0.08127395808696747,
   -0.1875317245721817,
   -0.031041840091347694,
   -0.32998037338256836,
   0.15360905230045319,
   1.1250470876693726
  ],
  [
   0.05609139800071716,
   1.104376196861267,
   0.1334250271320343,
   0.5036392211914062,
   0.02033121883869171,
   0.05041788890957832
  ],
  [
   -1.5878931283950806,
   -0.8865874409675598,
   0.1699531078338623,
   0.1509518325328827,
   0.12932953238487244,
   0.6247899532318115
  ],
  [
   0.2920132875442505,
   0.015024750493466854,
   -0.9548015594482422,
   -0.22894351184368134,
   -0.7553398609161377,
   0.023241901770234108
  ],
  [
   -0.4315256178379059,
   -0.7346581816673279,
   -1.008922815322876,
   -0.8959592580795288,
   -0.2216840535402298,
   0.3309832811355591
  ],
  [
   -0.49069318175315857,
   0.373757928609848,
   -0.08398856222629547,
   0.016799837350845337,
   -0.5506191253662109,
   0.3618442714214325
  ],
  [
   -0.356413334608078,
   1.0744445323944092,
   0.8571600914001465,
   1.7507481575012207,
   -0.12962937355041504,
   0.573543131351471
  ],
  [
   -0.5681772232055664,
   0.4360905587673187,
   -0.055036187171936035,
   0.02088552713394165,
   -0.8229548931121826,
   0.5950532555580139
  ],
  [
   0.9655559659004211,
   -0.2234945148229599,
   1.0646073818206787,
   0.866908848285675,
   -0.4318009316921234,
   0.042084697633981705
  ],
  [
   -0.5541770458221436,
   0.528024435043335,
   -0.3214164674282074,
   0.38408800959587097,
   -0.48424285650253296,
   -0.012853779830038548
  ],
  [
   0.6184621453285217,
   0.1554064154624939,
   1.4019173383712769,
   0.3364625573158264,
   0.30482009053230286,
   -0.04971073940396309
  ],
  [
   -0.19464179873466492,
   -1.8368488550186157,
   -0.9389051795005798,
   0.1806088089942932,
   0.5685992240905762,
   0.987129271030426
  ],
  [
   0.10872552543878555,
   0.4777389466762543,
   -0.011813786812126637,
   -0.17518000304698944,
   -0.8818585872650146,
   -0.6087309718132019
  ],
  [
   0.036486443132162094,
   0.21677646040916443,
   1.501526117324829,
   0.28874075412750244,
   -0.1281854659318924,
   -0.5037148594856262
  ],
  [
   -0.41206371784210205,
   0.6481641530990601,
   0.5447603464126587,
   0.13725313544273376,
   -0.38054078817367554,
   -0.8943836688995361
  ],
  [
   0.9565761089324951,
   -0.350742369890213,
   -0.2922891676425934,
   0.37429937720298767,
   -0.24675947427749634,
   -0.7822521924972534
  ],
  [
   -0.26171061396598816,
   1.3153210878372192,
   0.11883778125047684,
   -0.4612758755683899,
   -0.574593186378479,
   -0.6109729409217834
  ],
  [
   0.5956137180328369,
   -0.3597382605075836,
   0.03229810297489166,
   0.21635009348392487,
   0.11816191673278809,
   0.5324655771255493
  ],
  [
   -0.24859097599983215,
   -0.625067412853241,
   -0.5718672275543213,
   -0.5411073565483093,
   -0.052683960646390915,
   0.22888584434986115
  ],
  [
   -0.9367743134498596,
   -0.2489270269870758,
   -0.2237047255039215,
   -0.5138425827026367,
   0.20079649984836578,
   0.2494191825389862
  ],
  [
   0.959946870803833,
   -0.09557647258043289,
   1.1913710832595825,
   -0.11401012539863586,
   -0.9021704196929932,
   -0.34771957993507385
  ],
  [
   -0.48381945490837097,
   -0.6822431087493896,
   -1.2139049768447876,
   -0.518171489238739,
   -0.014566272497177124,
   -0.40579262375831604
  ],
  [
   -0.6605571508407593,
   0.25386664271354675,
   0.08737707138061523,
   -0.2919905185699463,
   -0.19120310246944427,
   -0.23291358351707458
  ],
  [
   -0.04322691634297371,
   0.10413766652345657,
   -0.15025410056114197,
   0.5142539143562317,
   0.21458232402801514,
   0.20720236003398895
  ],
  [
   1.6955726146697998,
   -0.310979962348938,
   -0.23091326653957367,
   0.16396819055080414,
   -0.9629838466644287,
   0.0016066869720816612
  ],
  [
   1.4645116329193115,
   1.164514422416687,
   0.1972082257270813,
   0.056372907012701035,
   -0.21591641008853912,
   -0.3000071346759796
  ],
  [
   0.571782648563385,
   0.5994477272033691,
   -0.7959269285202026,
   0.185980424284935,
   0.6764151453971863,
   -0.20203189551830292
  ],
  [
   -0.4442324936389923,
   -0.4287869930267334,
   -0.19137561321258545,
   0.4229131042957306,
   -0.4624362587928772,
   0.06682945787906647
  ],
  [
   -1.1090724468231201,
   -0.16656461358070374,
   -0.47436851263046265,
   0.2336982935667038,
   0.7128645777702332,
   -1.3337037563323975
  ],
  [
   -1.000825047492981,
   -1.0742669105529785,
   0.1512048989534378,
   -0.08283575624227524,
   -0.13686545193195343,
   0.35662564635276794
  ],
  [
   1.1423983573913574,
   -0.07217131555080414,
   -0.2526676654815674,
   -0.10414744913578033,
   -0.5018929839134216,
   0.3896828889846802
  ],
  [
   0.1261942833662033,
   1.1221923828125,
   0.24729782342910767,
   0.6043990254402161,
   0.03167536482214928,
   -0.3795817792415619
  ],
  [
   -0.8535652756690979,
   0.09797021746635437,
   -0.24276947975158691,
   -0.40609174966812134,
   0.44047704339027405,
   0.5536771416664124
  ],
  [
   0.5724208950996399,
   -0.5387336015701294,
   0.07431898266077042,
   -0.010909230448305607,
   -1.467360496520996,
   1.1451510190963745
  ],
  [
   0.17111115157604218,
   -0.08018472045660019,
   -0.6864286065101624,
   0.6983463168144226,
   -0.1925383061170578,
   0.23632295429706573
  ],
  [
   -1.0657325983047485,
   -0.7173603177070618,
   -1.4453305006027222,
   -1.6391149759292603,
   0.7806879281997681,
   -0.21938557922840118
  ],
  [
   0.4810655415058136,
   0.2845210134983063,
   0.8427425622940063,
   0.6043142080307007,
   -1.0240894556045532,
   -0.2475140541791916
  ],
  [
   -0.46722400188446045,
   0.8147297501564026,
   0.15624411404132843,
   -0.23073455691337585,
   -0.10386866331100464,
   0.5051611661911011
  ]
 ],
 "pi.0.bias": [
  -0.6831831336021423,
  -1.3423264026641846,
  -2.4162204265594482,
  -0.3698427677154541,
  -1.378321647644043,
  -1.007752537727356,
  -3.039883852005005,
  -6.344759941101074,
  -1.7339922189712524,
  -0.19476012885570526,
  -1.7018263339996338,
  -1.6538316011428833,
  -0.6935598850250244,
  -2.106417417526245,
  -3.718122959136963,
  -1.3744534254074097,
  -1.28821861743927,
  -2.5372791290283203,
  -0.8893152475357056,
  -1.4008251428604126,
  -1.6219345331192017,
  -1.561736822128296,
  -4.270792007446289,
  -1.4145712852478027,
  -0.7436926960945129,
  -0.8002371788024902,
  -2.789623260498047,
  -2.3311731815338135,
  -0.9870287179946899,
  -1.135877013206482,
  0.9374107122421265,
  0.30285224318504333,
  -0.9309689402580261,
  -0.13259287178516388,
  -1.1693328619003296,
  0.15989917516708374,
  -1.13352632522583,
  -1.3581775426864624,
  -0.7033093571662903,
  -1.4562028646469116,
  -1.7099522352218628,
  -2.3030779361724854,
  -3.148052215576172,
  -0.09441372007131577,
  -2.2641334533691406,
  0.697599470615387,
  -1.9958820343017578,
  0.183334618806839,
  -4.997968673706055,
  -0.17005765438079834,
  -1.0133111476898193,
  -0.8669790029525757,
  -4.112703800201416,
  -1.9156371355056763,
  -2.346540927886963,
  -0.5781552791595459,
  -3.754122734069824,
  -1.4166604280471802,
  -1.0260738134384155,
  -0.17512764036655426,
  -4.301104545593262,
  -1.2458312511444092,
  -0.137740358710289,
  -2.667659044265747,
  -1.5086601972579956,
  -0.43440675735473633,
  -1.3377410173416138,
  0.01734200119972229,
  -1.3443549871444702,
  0.05110189691185951,
  -2.5025267601013184,
  -1.3313045501708984,
  -2.666506290435791,
  -0.6539809703826904,
  -2.208326816558838,
  -1.678037166595459,
  -0.8524025678634644,
  -1.5481081008911133,
  -1.6440802812576294,
  -2.350620746612549,
  -1.2516437768936157,
  -3.4909071922302246,
  -0.5224104523658752,
  -2.63525128364563,
  0.8288065791130066,
  -1.3204582929611206,
  -1.3073978424072266,
  -2.3735947608947754,
  -3.4393277168273926,
  -1.652580976486206,
  -0.5106496214866638,
  -2.1772589683532715,
  -0.14315593242645264,
  -0.5354904532432556,
  0.0045682829804718494,
  -0.9222090840339661,
  -0.08537691831588745,
  -0.8627220988273621,
  -1.5339542627334595,
  -2.5757896900177
 ],
 "pi.2.weight": [
  [
   -0.1805998682975769,
   -0.6693586111068726,
   -0.675508439540863,
   -0.23958922922611237,
   0.4015327990055084,
   0.8351885080337524,
   -4.000485420227051,
   2.4114270210266113,
   -0.8531059622764587,
   -0.4885527789592743,
   -0.4582568109035492,
   -0.8671473264694214,
   0.061378318816423416,
   1.0606129169464111,
   -2.296271324157715,
   0.23566430807113647,
   -0.14350520074367523,
   -0.38444045186042786,
   -0.3709871470928192,
   0.2619117200374603,
   -1.3149017095565796,
   -1.0621516704559326,
   -2.244366407394409,
   0.4173692464828491,
   -0.5079734325408936,
   0.8782952427864075,
   0.9638079404830933,
   -0.5042294263839722,
   0.8385441303253174,
   0.11752622574567795,
   -0.4394872486591339,
   0.47506609559059143,
   0.6906977295875549,
   -0.16266457736492157,
   -1.0970662832260132,
   0.2751205861568451,
   0.5761326551437378,
   0.16047096252441406,
   0.4908379912376404,
   0.7615730166435242,
   -0.5940569639205933,
   -0.3674356937408447,
   2.3881711959838867,
   0.4117884635925293,
   -0.17654362320899963,
   -0.17712177336215973,
   -0.5640398263931274,
   0.11337640136480331,
   1.6151562929153442,
   -0.47971755266189575,
   -0.3513120412826538,
   -0.33052369952201843,
   -1.6680078506469727,
   -0.5873697400093079,
   -0.84034264087677,
   0.6139863133430481,
   0.9839746356010437,
   -0.6206342577934265,
   -0.7152729630470276,
   -0.12939448654651642,
   -1.0391074419021606,
   0.37240976095199585,
   -0.3210415542125702,
   0.9313163161277771,
   0.6210904121398926,
   0.34238383173942566,
   -0.5882185697555542,
   0.638403594493866,
   -0.06643367558717728,
   0.813664436340332,
   -0.3897712826728821,
   -0.19599314033985138,
   0.8719756007194519,
   -0.05578003451228142,
   0.6792476177215576,
   0.5628798604011536,
   -0.413900762796402,
   -0.24119062721729279,
   0.5613197684288025,
   -1.8054518699645996,
   0.8672392964363098,
   1.3990404605865479,
   0.2162671834230423,
   0.2766546607017517,
   -0.5344316363334656,
   0.12276022136211395,
   0.9930810332298279,
   0.3920387923717499,
   -0.7145974040031433,
   -0.4208756685256958,
   0.893986165523529,
   0.42798689007759094,
   0.2063327133655548,
   0.590041995048523,
   -0.2725100815296173,
   -0.7607688903808594,
   -0.09873713552951813,
   0.22024956345558167,
   -0.8883494138717651,
   0.704439103603363
  ],
  [
   -1.1694824695587158,
   -0.11069976538419724,
   1.46094810962677,
   -0.3333795964717865,
   -1.3926913738250732,
   -0.40145033597946167,
   3.3037338256835938,
   -4.114654064178467,
   0.49051785469055176,
   -0.028897082433104515,
   0.011396534740924835,
   1.1402543783187866,
   -0.47007134556770325,
   -1.9039134979248047,
   3.927321434020996,
   0.11531906574964523,
   1.5992203950881958,
   2.251563787460327,
   1.3869550228118896,
   0.3755738437175751,
   1.6949326992034912,
   2.473762273788452,
   3.762454032897949,
   -0.31443285942077637,
   0.5168580412864685,
   -1.4863097667694092,
   -2.7812700271606445,
   1.66829252243042,
   -0.4885692000389099,
   -0.8664569854736328,
   0.5666626691818237,
   -0.6264057755470276,
   -0.5390363931655884,
   -0.6632250547409058,
   0.21964728832244873,
   -0.2579604387283325,
   -0.4716697335243225,
   -0.2973054051399231,
   -0.999768078327179,
   -1.272428035736084,
   1.9437135457992554,
   2.3258485794067383,
   -4.471856117248535,
   -0.6684877872467041,
   3.991969108581543,
   0.6377095580101013,
   1.839429259300232,
   0.04603265970945358,
   3.84769868850708,
   0.8936197757720947,
   0.7623208165168762,
   0.8042413592338562,
   6.1182332038879395,
   2.0620925426483154,
   0.7952454090118408,
   -0.12405422329902649,
   -5.802832126617432,
   0.6088185906410217,
   1.387478232383728,
   1.3102681636810303,
   4.800793647766113,
   0.058698639273643494,
   -0.3282826840877533,
   0.49126002192497253,
   -2.7216594219207764,
   -0.5995504856109619,
   1.097594141960144,
   -0.404025673866272,
   1.4766019582748413,
   -0.4108368754386902,
   -1.6916136741638184,
   0.9900094270706177,
   -0.4499790072441101,
   0.9241146445274353,
   -1.8540751934051514,
   -0.674777626991272,
   0.24967853724956512,
   1.296004056930542,
   -1.986156702041626,
   3.304072380065918,
   0.5858855247497559,
   -4.8693084716796875,
   -1.0572373867034912,
   -2.1738088130950928,
   0.4536873698234558,
   0.3299703001976013,
   -1.648451328277588,
   -1.352128028869629,
   3.1151909828186035,
   0.8801759481430054,
   -1.592941403388977,
   -1.2647753953933716,
   -1.0134276151657104,
   -0.3231123685836792,
   0.5906453728675842,
   1.1174615621566772,
   0.5160471796989441,
   -1.1955254077911377,
   0.41830185055732727,
   -1.5881699323654175
  ]
 ],
 "pi.2.bias": [
  -0.16991379857063293,
  0.18962998688220978
 ]
}