{
 "pi.0.weight": [
  [
   -0.5155866742134094,
   0.036760397255420685,
   -0.2567671835422516,
   0.025637947022914886,
   0.3217675983905792,
   -0.27895697951316833
  ],
  [
   0.009262926876544952,
   0.18809983134269714,
   -0.022909466177225113,
   0.09176848083734512,
   -1.2379813194274902,
   -1.2557333707809448
  ],
  [
   -0.357203871011734,
   -0.9674723148345947,
   -0.08320388197898865,
   -0.2256234735250473,
   0.5853153467178345,
   1.5697524547576904
  ],
  [
   -0.44991669058799744,
   -0.2780472934246063,
   -0.08288006484508514,
   -0.07935935258865356,
   0.3995494544506073,
   1.4230989217758179
  ],
  [
   0.36324426531791687,
   -0.2281322479248047,
   -0.3319712281227112,
   -0.2872481346130371,
   0.7207868099212646,
   -0.36555010080337524
  ],
  [
   -0.1373041272163391,
   0.49250805377960205,
   -0.16633087396621704,
   -0.11292687058448792,
   0.3584817945957184,
   -1.1160587072372437
  ],
  [
   -0.224476158618927,
   0.5599952936172485,
   0.1334422379732132,
   0.23966459929943085,
   0.05183958634734154,
   -1.6790783405303955
  ],
  [
   -0.39695727825164795,
   0.020348278805613518,
   -0.07347229868173599,
   0.2560388445854187,
   -0.11193428188562393,
   -0.7359158396720886
  ],
  [
   -0.41209477186203003,
   0.33608219027519226,
   -0.060834094882011414,
   0.13192901015281677,
   0.15986734628677368,
   -1.048047423362732
  ],
  [
   0.2923256754875183,
   0.14640595018863678,
   0.29450806975364685,
   0.23526155948638916,
   0.5020337700843811,
   -0.396718293428421
  ],
  [
   0.24451944231987,
   0.1576722413301468,
   0.21898071467876434,
   0.07883284240961075,
   0.7931922674179077,
   0.37906214594841003
  ],
  [
   0.006299793720245361,
   0.5679262280464172,
   -0.020681031048297882,
   -0.8662394285202026,
   -0.3521273136138916,
   -1.7576947212219238
  ],
  [
   0.6653091311454773,
   -0.3437424302101135,
   0.03780617192387581,
   -0.2156088501214981,
   0.14863938093185425,
   -0.3464609980583191
  ],
  [
   0.19566531479358673,
   -0.22446361184120178,
   0.02833792194724083,
   0.060078151524066925,
   0.3679971694946289,
   -1.2916998863220215
  ],
  [
   0.22912286221981049,
   0.5419148206710815,
   0.07571110874414444,
   0.5163811445236206,
   0.9141467809677124,
   -0.322431355714798
  ],
  [
   -0.4525371789932251,
   -0.17482471466064453,
   -0.027714554220438004,
   0.13013127446174622,
   0.0022393884137272835,
   0.2839714288711548
  ],
  [
   0.38068273663520813,
   0.3911258280277252,
   0.06203807145357132,
   0.06223536282777786,
   0.8397653102874756,
   0.8829936385154724
  ],
  [
   -0.446606308221817,
   -0.2999182641506195,
   -0.15502361953258514,
   -0.1587970107793808,
   0.016970593482255936,
   0.6500205993652344
  ],
  [
   0.6330970525741577,
   0.3159853518009186,
   -0.09376662969589233,
   -0.314100444316864,
   -0.6993380188941956,
   0.8373794555664062
  ],
  [
   0.9236169457435608,
   0.21845492720603943,
   0.19709813594818115,
   -0.06559988111257553,
   -0.6627316474914551,
   -0.7573014497756958
  ],
  [
   0.737193763256073,
   0.2176864594221115,
   0.17846669256687164,
   -0.04602312296628952,
   0.3982149064540863,
   0.5209569334983826
  ],
  [
   0.09674340486526489,
   -0.764913022518158,
   0.09617477655410767,
   -0.44141721725463867,
   -0.16051019728183746,
   0.772732675075531
  ],
  [
   0.650214672088623,
   -0.04508014768362045,
   0.12611092627048492,
   -0.20725372433662415,
   -1.1144659519195557,
   -0.30145177245140076
  ],
  [
   0.371395081281662,
   0.6654107570648193,
   -0.007362162694334984,
   0.14971306920051575,
   -1.1874778270721436,
   0.693331778049469
  ],
  [
   -0.43170562386512756,
   0.18682032823562622,
   -0.24147120118141174,
   0.577065646648407,
   0.15146608650684357,
   -0.09379091113805771
  ],
  [
   -0.4613165557384491,
   -0.27867817878723145,
   -0.2637755274772644,
   -0.10580834001302719,
   0.974698543548584,
   0.02097068540751934
  ],
  [
   0.09932827949523926,
   -0.37586134672164917,
   0.08792053163051605,
   0.06527170538902283,
   -0.7809779644012451,
   0.4389728605747223
  ],
  [
   -0.45436516404151917,
   -0.32433053851127625,
   -0.038163479417562485,
   0.15175209939479828,
   0.20381544530391693,
   0.6555629968643188
  ],
  [
   0.33258455991744995,
   -0.8297390937805176,
   0.14626212418079376,
   -0.55021733045578,
   -0.14659705758094788,
   0.9701966047286987
  ],
  [
   -0.19146329164505005,
   1.146668791770935,
   -0.10129515826702118,
   0.5888072848320007,
   0.21309782564640045,
   -1.1731269359588623
  ],
  [
   -0.01578047312796116,
   -0.47319281101226807,
   0.017174961045384407,
   0.18171550333499908,
   0.04378563538193703,
   -0.3208610713481903
  ],
  [
   -0.4334844946861267,
   0.7261781692504883,
   -0.10922236740589142,
   -0.07765339314937592,
   1.1313837766647339,
   -0.5739372968673706
  ],
  [
   -0.12387671321630478,
   0.7814982533454895,
   0.021626712754368782,
   -0.16420923173427582,
   0.811028778553009,
   0.1558484584093094
  ],
  [
   -0.7710176110267639,
   0.29144561290740967,
   -0.2434595823287964,
   0.027131803333759308,
   0.7782436609268188,
   -0.06838382035493851
  ],
  [
   -0.32919639348983765,
   0.6398628950119019,
   -0.020410941913723946,
   0.27851831912994385,
   -0.706167459487915,
   -1.2067577838897705
  ],
  [
   0.5160490274429321,
   0.4085235893726349,
   0.22964659333229065,
   0.518539547920227,
   -1.1546008586883545,
   0.0768398642539978
  ],
  [
   0.19141516089439392,
   -0.5136954188346863,
   0.038111548870801926,
   -0.010548964142799377,
   0.9354113340377808,
   0.5202109813690186
  ],
  [
   -0.15983940660953522,
   -0.30781036615371704,
   -0.10348538309335709,
   -0.08172527700662613,
   -0.9851503372192383,
   0.025460846722126007
  ],
  [
   0.19618761539459229,
   0.4178939163684845,
   0.09654486924409866,
   0.04674189165234566,
   -0.09767559915781021,
   -1.6131722927093506
  ],
  [
   0.6492704749107361,
   -0.05612261965870857,
   -0.17346514761447906,
   0.2847597301006317,
   -0.6015989780426025,
   -0.9629709720611572
  ],
  [
   0.04684088006615639,
   0.31262513995170593,
   0.017047284170985222,
   -0.19299161434173584,
   1.3785624504089355,
   0.9063155055046082
  ],
  [
   0.42911043763160706,
   -0.6001618504524231,
   0.05087278038263321,
   -0.07648349553346634,
   -0.7521073818206787,
   0.8925501704216003
  ],
  [
   0.6071953177452087,
   -0.0762355625629425,
   0.13751253485679626,
   -0.508685827255249,
   0.2339046746492386,
   0.10411286354064941
  ],
  [
   0.03767210990190506,
   0.0430675745010376,
   0.18469852209091187,
   -0.2940673828125,
   -1.3106335401535034,
   0.6480624675750732
  ],
  [
   0.3809344172477722,
   0.5893599390983582,
   0.010300806723535061,
   0.09795817732810974,
   0.8201260566711426,
   -1.2754911184310913
  ],
  [
   -0.44961103796958923,
   -0.04527585580945015,
   0.04896961897611618,
   0.2051105797290802,
   0.13222740590572357,
   -0.3500973582267761
  ],
  [
   -0.030820531770586967,
   -0.4668543040752411,
   0.008005780167877674,
   0.04260899871587753,
   0.9469915628433228,
   -0.6683472990989685
  ],
  [
   -0.04439004138112068,
   1.1598057746887207,
   -0.008630682714283466,
   0.23850838840007782,
   0.14432480931282043,
   -1.4943348169326782
  ],
  [
   0.013458791188895702,
   -0.2903919517993927,
   -0.020486464723944664,
   0.022166075184941292,
   -0.15326367318630219,
   1.1342319250106812
  ],
  [
   0.44217389822006226,
   0.1382964700460434,
   0.0726592168211937,
   -0.047404732555150986,
   0.3964586555957794,
   -0.9290202856063843
  ],
  [
   -0.223673477768898,
   -0.17926044762134552,
   -0.0515034981071949,
   -0.10872968286275864,
   0.9022459983825684,
   -0.35231345891952515
  ],
  [
   -0.22122743725776672,
   0.48246556520462036,
   -0.04857150465250015,
   -0.02957804687321186,
   -0.7322942614555359,
   0.27093878388404846
  ],
  [
   0.40209242701530457,
   0.2704865336418152,
   0.1971798837184906,
   0.402754545211792,
   0.18971166014671326,
   -0.36454346776008606
  ],
  [
   -0.2129068672657013,
   -0.2759816646575928,
   -0.17263492941856384,
   -0.04301431030035019,
   -0.7221319675445557,
   -0.030294835567474365
  ],
  [
   0.09815482050180435,
   0.45593297481536865,
   -0.020036818459630013,
   0.06872322410345078,
   0.6288536190986633,
   -1.0340429544448853
  ],
  [
   -0.1389559805393219,
   -0.15449102222919464,
   0.007532998453825712,
   0.37162724137306213,
   -0.8309190273284912,
   -0.03369754180312157
  ],
  [
   0.2588556706905365,
   -0.047524865716695786,
   0.2196991890668869,
   -0.027765540406107903,
   -1.5078037977218628,
   0.2129838913679123
  ],
  [
   0.9250380396842957,
   0.19063016772270203,
   0.1878277063369751,
   -0.11908639967441559,
   -0.8203644156455994,
   0.8485183715820312
  ],
  [
   -0.342080682516098,
   0.6046309471130371,
   -0.07224269211292267,
   0.2500934898853302,
   -0.32171180844306946,
   -0.29811662435531616
  ],
  [
   0.12809357047080994,
   0.3510558307170868,
   -0.15881022810935974,
   -0.10849692672491074,
   -0.7828081250190735,
   -0.2027016580104828
  ],
  [
   -0.3101554811000824,
   -0.4881913363933563,
   -0.10484950244426727,
   -0.24873729050159454,
   0.16886338591575623,
   1.133927822113037
  ],
  [
   0.6387729644775391,
   -0.48883721232414246,
   0.13530251383781433,
   -0.3932439684867859,
   -0.7107098698616028,
   0.5127429962158203
  ],
  [
   -0.36870503425598145,
   0.6894949674606323,
   -0.030643971636891365,
   -0.16522721946239471,
   1.413822889328003,
   -0.022389549762010574
  ],
  [
   -0.23067858815193176,
   0.8623995184898376,
   0.01948714442551136,
   -0.00028393761022016406,
   -0.48019638657569885,
   1.1700663566589355
  ],
  [
   -0.03811798617243767,
   0.5971673130989075,
   0.14392904937267303,
   -0.7818849086761475,
   -1.2706589698791504,
   -1.776129961013794
  ],
  [
   0.33216479420661926,
   0.6353380084037781,
   -0.0145301204174757,
   -0.0019901886116713285,
   -0.9825367331504822,
   -0.7749642729759216
  ],
  [
   0.29140979051589966,
   -0.4567311406135559,
   -0.03163914382457733,
   -0.285274863243103,
   -0.25373125076293945,
   1.373530626296997
  ],
  [
   0.32307323813438416,
   0.717467725276947,
   -0.023970885202288628,
   0.05920068919658661,
   0.1597098708152771,
   -1.2733253240585327
  ],
  [
   -0.09872701019048691,
   -0.07852304726839066,
   -0.011318456381559372,
   -0.238856241106987,
   -0.5722285509109497,
   -0.5890049934387207
  ],
  [
   -0.5175895094871521,
   -0.5810387134552002,
   -0.22075143456459045,
   -0.11251206696033478,
   0.786183774471283,
   1.8188868761062622
  ],
  [
   0.34945809841156006,
   -0.32122543454170227,
   0.13494235277175903,
   -0.09068816900253296,
   0.5167839527130127,
   -0.31849613785743713
  ],
  [
   -0.028889166191220284,
   -0.7076280117034912,
   -0.013828324154019356,
   0.058839812874794006,
   -0.6271749138832092,
   1.0453169345855713
  ],
  [
   0.20241956412792206,
   0.5701391100883484,
   -0.019800731912255287,
   0.30999690294265747,
   -0.10107160359621048,
   0.28980088233947754
  ],
  [
   0.12372758984565735,
   -0.17275108397006989,
   0.12086722254753113,
   -0.05409165099263191,
   -0.2713835835456848,
   1.4222290515899658
  ],
  [
   -0.4551328122615814,
   0.8925815224647522,
   -0.10252015292644501,
   -0.19504421949386597,
   0.9468418955802917,
   -0.7595439553260803
  ],
  [
   0.8249792456626892,
   0.8306299448013306,
   0.06959450244903564,
   0.09532169997692108,
   0.13134267926216125,
   -0.861870527267456
  ],
  [
   0.03338005766272545,
   0.42384400963783264,
   -0.018681593239307404,
   0.021893125027418137,
   -0.900395393371582,
   -1.1500751972198486
  ],
  [
   -0.9879209995269775,
   -0.5576394200325012,
   -0.3191675841808319,
   -0.11761847883462906,
   0.6240049004554749,
   0.13631373643875122
  ],
  [
   -0.279153972864151,
   -1.1243468523025513,
   -0.06627717614173889,
   -0.20502762496471405,
   -0.07504129409790039,
   0.730488121509552
  ],
  [
   0.16220328211784363,
   -0.5801770091056824,
   0.1340450495481491,
   -0.1002337634563446,
   -1.0691379308700562,
   0.8038783669471741
  ],
  [
   -0.42547503113746643,
   0.21181951463222504,
   -0.15059925615787506,
   -0.14051932096481323,
   0.3241616189479828,
   1.0160293579101562
  ],
  [
   -0.14746083319187164,
   0.9999914169311523,
   -0.11806230247020721,
   0.4727279245853424,
   0.8028080463409424,
   -0.038077887147665024
  ],
  [
   0.6837274432182312,
   0.07452217489480972,
   0.1252925544977188,
   -0.09158234298229218,
   0.6323217153549194,
   0.04425644502043724
  ],
  [
   0.2857893407344818,
   -0.18407092988491058,
   -0.10263501107692719,
   -0.05507690832018852,
   0.25929611921310425,
   1.1082098484039307
  ],
  [
   0.2821493148803711,
   -0.2766367793083191,
   0.24529334902763367,
   -0.12006523460149765,
   -0.42337852716445923,
   0.1393720656633377
  ],
  [
   -0.1980571150779724,
   -0.11420129239559174,
   0.08208829164505005,
   -0.358291894197464,
   -0.910474956035614,
   0.02647472731769085
  ],
  [
   -0.122164286673069,
   0.3579137325286865,
   0.05585829168558121,
   0.18834905326366425,
   -0.09653710573911667,
   -1.1095590591430664
  ],
  [
   -0.37633612751960754,
   0.022545358166098595,
   -0.3008880317211151,
   0.1394542157649994,
   1.173636794090271,
   -0.2317405492067337
  ],
  [
   0.3578505516052246,
   -0.08929704874753952,
   0.4704332649707794,
   0.4149978458881378,
   0.6322756409645081,
   0.28515106439590454
  ],
  [
   -0.10626890510320663,
   -0.7875222563743591,
   0.026964575052261353,
   -0.16294711828231812,
   -0.7120020389556885,
   -0.0427468940615654
  ],
  [
   -0.19517740607261658,
   0.5715622901916504,
   -0.11475735157728195,
   0.3869265615940094,
   -0.5938497185707092,
   -0.5710053443908691
  ],
  [
   -0.5498877763748169,
   -0.31434473395347595,
   -0.23686537146568298,
   -0.5365933775901794,
   0.6705792546272278,
   0.04321097210049629
  ],
  [
   0.765291154384613,
   -0.011922035366296768,
   -0.11739492416381836,
   0.35348573327064514,
   -0.5216774940490723,
   -1.2657760381698608
  ],
  [
   -0.024410096928477287,
   0.1270916908979416,
   -0.03655250743031502,
   -0.05845615640282631,
   0.9998481869697571,
   -0.3917039930820465
  ],
  [
   0.7175605893135071,
   0.9285311698913574,
   -0.045566726475954056,
   -0.2062370330095291,
   0.5699885487556458,
   -0.30549702048301697
  ],
  [
   -0.15916845202445984,
   1.1262190341949463,
   -0.052829135209321976,
   0.23646420240402222,
   0.7588649392127991,
   -0.9216592907905579
  ],
  [
   -0.08498883992433548,
   0.5378732085227966,
   0.14384888112545013,
   0.06372922658920288,
   0.004130377899855375,
   -1.412424921989441
  ],
  [
   -0.13555297255516052,
   1.1373628377914429,
   0.007873239926993847,
   0.2919786870479584,
   -0.2626890242099762,
   -1.491512656211853
  ],
  [
   0.8109070062637329,
   0.5484079122543335,
   0.5188055038452148,
   1.013694167137146,
   -0.23394069075584412,
   -0.17926473915576935
  ],
  [
   -0.3105577528476715,
   0.39205002784729004,
   -0.016801802441477776,
   -0.1461925059556961,
   0.7154247164726257,
   0.3828798532485962
  ]
 ],
 "pi.0.bias": [
  -1.4137376546859741,
  -0.23021312057971954,
  -1.091755747795105,
  -0.5078432559967041,
  -0.9898902177810669,
  -0.5588544607162476,
  -0.9572007656097412,
  -1.938103199005127,
  -1.4126057624816895,
  1.5059865713119507,
  0.3940359055995941,
  -5.2786736488342285,
  0.49006253480911255,
  -0.7807608842849731,
  -1.3949670791625977,
  0.8634812831878662,
  -0.693044126033783,
  -1.0013843774795532,
  -1.361837387084961,
  1.107562780380249,
  -3.4556543827056885,
  0.014854853972792625,
  -2.820770263671875,
  -4.213325023651123,
  -1.0832722187042236,
  -2.8167495727539062,
  -1.2638990879058838,
  -0.1288367360830307,
  -1.0520212650299072,
  0.9162761569023132,
  0.820257842540741,
  -1.3539140224456787,
  -1.8976261615753174,
  -1.8281259536743164,
  -0.06887990981340408,
  -1.867205262184143,
  -2.9421825408935547,
  -1.2462276220321655,
  -5.539316654205322,
  0.8173422813415527,
  -0.3626078963279724,
  -1.290077805519104,
  -2.771253824234009,
  -7.2447052001953125,
  -0.9935885071754456,
  1.0137397050857544,
  -1.4915697574615479,
  0.8794271349906921,
  -2.55995512008667,
  -3.5849478244781494,
  -0.9570553302764893,
  -1.0854523181915283,
  -2.935310125350952,
  -0.5077216625213623,
  -4.584712982177734,
  -1.1519138813018799,
  -0.005413972772657871,
  -2.5118355751037598,
  -0.9267675280570984,
  0.6996821761131287,
  0.18493959307670593,
  0.6524097919464111,
  0.08925392478704453,
  -1.0955541133880615,
  -8.061456680297852,
  0.999865710735321,
  -1.196567416191101,
  -0.8569744825363159,
  0.9965612888336182,
  -0.31778523325920105,
  -3.0772523880004883,
  -1.7836127281188965,
  -2.7220447063446045,
  -0.526130199432373,
  -0.6107598543167114,
  -1.5531275272369385,
  -0.5981914401054382,
  -0.8576990962028503,
  -0.5886896252632141,
  -0.786540150642395,
  -1.0627155303955078,
  -0.33522018790245056,
  -3.367526054382324,
  0.18735159933567047,
  1.3794745206832886,
  0.7352141737937927,
  0.9579487442970276,
  -0.8724290728569031,
  -0.45001745223999023,
  -0.12833108007907867,
  -1.5764397382736206,
  -1.6680902242660522,
  -0.18027442693710327,
  -1.4051767587661743,
  -0.7489357590675354,
  -1.1002260446548462,
  0.5868628025054932,
  -0.13518163561820984,
  -0.19995321333408356,
  0.4811156690120697
 ],
 "pi.2.weight": [
  [
   -1.0797580480575562,
   1.2484712600708008,
   1.50496244430542,
   -0.5932626724243164,
   0.17389127612113953,
   -0.6382932066917419,
   0.007756225299090147,
   0.16896598041057587,
   0.8595148324966431,
   0.8430734276771545,
   -0.7326784133911133,
   1.7591620683670044,
   -0.5508331060409546,
   -0.7953118681907654,
   0.3593475818634033,
   0.10709087550640106,
   0.8307239413261414,
   -0.7190367579460144,
   0.17281778156757355,
   0.9574930667877197,
   1.7918388843536377,
   0.027947843074798584,
   -0.054132599383592606,
   -0.5715258121490479,
   0.09633740782737732,
   1.1003798246383667,
   1.0698727369308472,
   0.28988105058670044,
   0.228998064994812,
   -0.44352027773857117,
   0.7788564562797546,
   -0.8688927888870239,
   -1.086489200592041,
   0.8480039238929749,
   -0.6762424111366272,
   0.6862031817436218,
   0.5947923064231873,
   0.1797618567943573,
   -1.4074771404266357,
   -0.9315130710601807,
   -1.1050111055374146,
   -0.9046393632888794,
   -0.34399938583374023,
   -1.4494119882583618,
   -1.1799432039260864,
   0.25223231315612793,
   0.6981422901153564,
   0.36166656017303467,
   -1.357926607131958,
   3.7281458377838135,
   -0.6694584488868713,
   0.424238920211792,
   -2.175957441329956,
   0.4764672815799713,
   5.413697719573975,
   0.16221921145915985,
   -0.9142981767654419,
   -1.1926171779632568,
   0.0230715274810791,
   0.4544340670108795,
   0.797577977180481,
   0.7052310109138489,
   0.6824362277984619,
   0.5834798216819763,
   4.689436912536621,
   -1.2981750965118408,
   -0.41465118527412415,
   0.9210072755813599,
   0.04104417935013771,
   -1.5201729536056519,
   -0.9802327156066895,
   0.5516563653945923,
   -0.8087137937545776,
   0.9370126724243164,
   0.934150755405426,
   0.7938910126686096,
   0.22102215886116028,
   -0.9823374152183533,
   -0.7678189277648926,
   -0.33219659328460693,
   -0.27827754616737366,
   0.5086752772331238,
   -2.205125093460083,
   0.1855994611978531,
   -0.4045364558696747,
   0.1290379911661148,
   -0.20633065700531006,
   0.2483205795288086,
   0.31921496987342834,
   -0.7243958711624146,
   0.0953919067978859,
   1.0345890522003174,
   0.6248595118522644,
   -0.6909918189048767,
   0.5327202081680298,
   -0.09256282448768616,
   0.056388743221759796,
   -0.36103349924087524,
   -0.6179603338241577,
   -0.20569251477718353
  ],
  [
   0.33914873003959656,
   0.21362830698490143,
   0.5376886129379272,
   -0.7758118510246277,
   -0.25163230299949646,
   -0.2969842553138733,
   1.2925776243209839,
   0.46560996770858765,
   0.5049970746040344,
   -0.18783779442310333,
   -0.0853065475821495,
   1.1435739994049072,
   0.12518179416656494,
   -0.318226158618927,
   -0.6956982612609863,
   -0.33091506361961365,
   0.018945729359984398,
   0.18083661794662476,
   0.49657440185546875,
   0.23874475061893463,
   -0.5430746078491211,
   -0.6157634854316711,
   -0.8583691716194153,
   0.2588749825954437,
   -0.411530464887619,
   -0.09329542517662048,
   -0.1095673143863678,
   -0.24021859467029572,
   0.6636705994606018,
   0.7735441327095032,
   -0.010709350928664207,
   -0.02693415991961956,
   -0.41214728355407715,
   0.08327089250087738,
   -0.24293407797813416,
   -0.2424817979335785,
   0.6324647068977356,
   -0.3381536602973938,
   1.3407398462295532,
   0.21888402104377747,
   -0.030719127506017685,
   0.41560354828834534,
   0.5738745927810669,
   -1.3129749298095703,
   -0.12564747035503387,
   -0.3931335508823395,
   -0.082760751247406,
   1.0964477062225342,
   0.2696285545825958,
   0.7568280100822449,
   -0.2880019247531891,
   -0.4963436722755432,
   -0.22896194458007812,
   0.12820401787757874,
   1.6261096000671387,
   0.1990458071231842,
   0.010835549794137478,
   -0.6764894127845764,
   0.5345422029495239,
   0.34637776017189026,
   0.03735429421067238,
   -0.5604130625724792,
   0.473753422498703,
   0.738665759563446,
   -0.13052545487880707,
   -0.7306328415870667,
   -0.921358048915863,
   0.5383845567703247,
   0.4590206742286682,
   0.20047608017921448,
   -0.37308797240257263,
   0.6025068759918213,
   -0.25546973943710327,
   0.19803932309150696,
   0.04190398380160332,
   0.4688751995563507,
   -0.5039511322975159,
   -0.22177907824516296,
   -0.6136751174926758,
   -0.8032212257385254,
   -0.5532765984535217,
   0.21240337193012238,
   0.7559933662414551,
   0.5238181352615356,
   0.5772771239280701,
   0.5645679831504822,
   -0.7739146947860718,
   0.37308648228645325,
   0.07352424412965775,
   0.4676735997200012,
   -0.49976760149002075,
   0.32914474606513977,
   -0.1876581758260727,
   0.1262412667274475,
   -0.16580505669116974,
   -0.8822053074836731,
   -0.9388332962989807,
   -0.9795441031455994,
   0.039239976555109024,
   -0.4114220440387726
  ]
 ]
}