{
 "pi.0.weight": [
  [
   0.3450874984264374,
   2.233412265777588,
   -2.082879066467285,
   1.2362935543060303,
   -4.9129557609558105,
   -0.857234537601471
  ],
  [
   -0.6923409700393677,
   2.752469539642334,
   0.40689268708229065,
   0.09819098562002182,
   -1.5829359292984009,
   -1.2461433410644531
  ],
  [
   -5.961304664611816,
   -0.6323552131652832,
   3.078672409057617,
   0.5390950441360474,
   2.430243968963623,
   -1.662369966506958
  ],
  [
   3.063920497894287,
   4.340916156768799,
   -2.5374083518981934,
   -2.3315627574920654,
   -3.1518993377685547,
   -2.280217409133911
  ],
  [
   -3.5183613300323486,
   3.9763333797454834,
   2.458698034286499,
   -1.184746265411377,
   1.869410753250122,
   0.03240522742271423
  ],
  [
   -2.931039571762085,
   -0.43758445978164673,
   0.4980418086051941,
   0.05078180879354477,
   3.6996066570281982,
   0.2460087090730667
  ],
  [
   -1.7747983932495117,
   0.7676103115081787,
   -0.6503577828407288,
   2.53086256980896,
   0.18158143758773804,
   -9.171792984008789
  ],
  [
   -0.08696331083774567,
   0.8193432688713074,
   -0.32237473130226135,
   -4.008667469024658,
   -0.21707683801651,
   1.9252370595932007
  ],
  [
   1.6976726055145264,
   0.6463959217071533,
   1.2954286336898804,
   -0.2609061598777771,
   0.841924786567688,
   -1.6027945280075073
  ],
  [
   -4.940225124359131,
   -1.3960767984390259,
   2.099071502685547,
   0.4639374315738678,
   0.02111733704805374,
   1.3365764617919922
  ],
  [
   -2.1765754222869873,
   -6.861395359039307,
   0.06108992174267769,
   0.4384709298610687,
   1.2816190719604492,
   -0.2771416902542114
  ],
  [
   -3.6008737087249756,
   -2.402184009552002,
   2.934459924697876,
   -1.057202696800232,
   3.1444530487060547,
   3.4704535007476807
  ],
  [
   -3.9295310974121094,
   1.7741509675979614,
   -1.2175992727279663,
   -0.94289630651474,
   3.4044435024261475,
   -2.3760294914245605
  ],
  [
   4.603366374969482,
   1.7037062644958496,
   -0.10496952384710312,
   0.004416017793118954,
   0.2926812767982483,
   -1.2881114482879639
  ],
  [
   1.7787116765975952,
   -6.5449137687683105,
   -0.06568217277526855,
   -0.8854579329490662,
   0.39724621176719666,
   4.658621311187744
  ],
  [
   -3.8264760971069336,
   -1.467794418334961,
   1.237107276916504,
   -4.221075057983398,
   -0.5077201128005981,
   4.015790939331055
  ],
  [
   0.8878931403160095,
   -7.535377502441406,
   -0.035806480795145035,
   0.045512061566114426,
   -3.013946056365967,
   -4.84407901763916
  ],
  [
   -0.5775503516197205,
   -2.2932467460632324,
   0.29397058486938477,
   0.09904579818248749,
   -0.1784454584121704,
   6.123410224914551
  ],
  [
   -0.7497369647026062,
   -3.262071371078491,
   -2.725162982940674,
   0.084146648645401,
   -1.9523768424987793,
   4.265102386474609
  ],
  [
   2.6463584899902344,
   6.840844631195068,
   -0.4186711013317108,
   -1.953410029411316,
   2.175233840942383,
   2.318826675415039
  ],
  [
   -0.9705507159233093,
   -3.0460903644561768,
   -0.14375241100788116,
   2.0482306480407715,
   1.3271429538726807,
   -1.7617703676223755
  ],
  [
   -3.238508701324463,
   -1.844218373298645,
   -0.8403498530387878,
   3.73710298538208,
   2.9019253253936768,
   0.5059542655944824
  ],
  [
   -2.3106436729431152,
   -4.016440391540527,
   0.5235483646392822,
   -1.7074679136276245,
   1.7411543130874634,
   1.677282452583313
  ],
  [
   0.17268511652946472,
   3.277967691421509,
   0.11778301745653152,
   -3.0350682735443115,
   2.0415515899658203,
   -2.621436834335327
  ],
  [
   2.0296638011932373,
   -3.5516226291656494,
   0.6650298237800598,
   0.09747810661792755,
   -1.7782483100891113,
   -0.8391953110694885
  ],
  [
   9.64975357055664,
   2.2312605381011963,
   1.9206863641738892,
   -1.9632359743118286,
   -1.5751410722732544,
   -2.0349507331848145
  ],
  [
   -1.9988118410110474,
   -9.185383796691895,
   0.4652559459209442,
   -1.008834958076477,
   1.5788886547088623,
   4.857545852661133
  ],
  [
   -4.564509391784668,
   2.9785385131835938,
   0.05398382991552353,
   -0.9118954539299011,
   -0.8986480236053467,
   -0.7101738452911377
  ],
  [
   1.2422608137130737,
   -0.053865592926740646,
   -0.5213074088096619,
   -0.3582053780555725,
   1.5917415618896484,
   -5.298171043395996
  ],
  [
   1.1110823154449463,
   5.596871376037598,
   0.16239091753959656,
   0.45913997292518616,
   -1.7667675018310547,
   -4.028125762939453
  ],
  [
   -3.957166910171509,
   -6.817442417144775,
   1.4806441068649292,
   -2.244877338409424,
   0.06621620059013367,
   3.282773971557617
  ],
  [
   2.4137027263641357,
   1.097100019454956,
   3.405789375305176,
   -0.6413561701774597,
   1.640643835067749,
   -1.9115015268325806
  ],
  [
   -2.6629247665405273,
   3.0865607261657715,
   0.9712778329849243,
   -3.3366641998291016,
   -1.0679094791412354,
   -0.75859534740448
  ],
  [
   2.239086151123047,
   0.63982093334198,
   -2.1497914791107178,
   3.139427900314331,
   -2.760422468185425,
   -0.1784375011920929
  ],
  [
   0.554955780506134,
   0.5123599171638489,
   0.21171022951602936,
   -0.2753507196903229,
   -4.282803058624268,
   -3.4805715084075928
  ],
  [
   -4.117410182952881,
   -6.934646129608154,
   -0.5082094669342041,
   0.9998078346252441,
   1.668703556060791,
   -2.1000328063964844
  ],
  [
   0.20216095447540283,
   6.595829010009766,
   -0.09632331132888794,
   -0.026654457673430443,
   -0.37703442573547363,
   -2.8919708728790283
  ],
  [
   -2.158006429672241,
   -6.513494491577148,
   -1.3679108619689941,
   -0.1783120185136795,
   0.16116191446781158,
   -2.2071168422698975
  ],
  [
   -1.855239987373352,
   0.24228057265281677,
   -1.7564648389816284,
   0.21325278282165527,
   5.058495044708252,
   -0.012144147418439388
  ],
  [
   -2.0683255195617676,
   2.9474198818206787,
   -2.517137050628662,
   2.103630304336548,
   1.5263581275939941,
   -2.0251173973083496
  ],
  [
   4.819502353668213,
   -3.7003211975097656,
   1.3898653984069824,
   -0.9583572149276733,
   0.126286581158638,
   -2.5332565307617188
  ],
  [
   3.982638359069824,
   7.262662887573242,
   1.0762434005737305,
   -0.0667993575334549,
   0.5334643721580505,
   -0.7380263805389404
  ],
  [
   -0.08284150809049606,
   -2.6688008308410645,
   0.14419302344322205,
   -0.138864666223526,
   1.2058037519454956,
   5.535807132720947
  ],
  [
   4.683349609375,
   0.253106027841568,
   -1.277248740196228,
   -0.28408223390579224,
   0.17006534337997437,
   -0.3018590807914734
  ],
  [
   5.186019420623779,
   -0.10689085721969604,
   -0.483664870262146,
   0.32460322976112366,
   -0.1328415721654892,
   0.21085399389266968
  ],
  [
   -1.7115918397903442,
   -0.07805033028125763,
   -2.089649200439453,
   -1.5919039249420166,
   -0.6651146411895752,
   -1.3460618257522583
  ],
  [
   0.822878360748291,
   -1.7961064577102661,
   4.953454971313477,
   0.49029242992401123,
   0.2242623269557953,
   0.38146695494651794
  ],
  [
   -2.789212942123413,
   -5.47366189956665,
   -0.15197932720184326,
   -1.2146879434585571,
   0.9943779706954956,
   0.9009416699409485
  ],
  [
   3.2683448791503906,
   1.7906323671340942,
   -1.267680048942566,
   -0.317463755607605,
   5.388932704925537,
   1.9980239868164062
  ],
  [
   -4.99699068069458,
   6.567276954650879,
   3.0044217109680176,
   -0.17809642851352692,
   -1.9013605117797852,
   0.1278480440378189
  ],
  [
   1.7041746377944946,
   1.4953151941299438,
   -0.9624207019805908,
   4.603044033050537,
   -0.38373392820358276,
   -5.2030744552612305
  ],
  [
   -5.807498931884766,
   4.800653457641602,
   -0.18156947195529938,
   4.096622943878174,
   0.8628127574920654,
   0.38648316264152527
  ],
  [
   1.5648654699325562,
   3.9250881671905518,
   -0.3483848571777344,
   -0.4413073658943176,
   0.03849576413631439,
   2.706976890563965
  ],
  [
   -2.3800697326660156,
   -2.2469799518585205,
   3.1312639713287354,
   2.7708287239074707,
   -4.057422161102295,
   1.060652494430542
  ],
  [
   -2.3267500400543213,
   -2.1629462242126465,
   -1.8385531902313232,
   2.03291654586792,
   5.590087413787842,
   -2.110051393508911
  ],
  [
   -6.860910892486572,
   -0.929206907749176,
   1.9363975524902344,
   0.13414078950881958,
   -0.41276928782463074,
   1.7576603889465332
  ],
  [
   -0.1053144633769989,
   -3.609159469604492,
   2.575340747833252,
   2.7381772994995117,
   -2.2357168197631836,
   4.024018287658691
  ],
  [
   -0.08855568617582321,
   5.634243965148926,
   -1.228471279144287,
   0.27043622732162476,
   -0.8298185467720032,
   0.8535895943641663
  ],
  [
   -2.9992241859436035,
   -6.834779739379883,
   1.756585717201233,
   -0.6883680820465088,
   -2.1767942905426025,
   2.8610892295837402
  ],
  [
   -1.9397107362747192,
   2.004979133605957,
   -0.3999072313308716,
   -0.5327090620994568,
   -5.8806915283203125,
   -0.9209233522415161
  ],
  [
   -0.2481793910264969,
   3.7671923637390137,
   0.002421535085886717,
   -0.07061166316270828,
   0.4837222397327423,
   -4.245305061340332
  ],
  [
   5.05066442489624,
   -0.14186979830265045,
   0.7264383435249329,
   -0.18823789060115814,
   -2.858372449874878,
   0.7895351648330688
  ],
  [
   -4.154353141784668,
   -3.9826581478118896,
   2.4712016582489014,
   1.5222961902618408,
   5.4180684089660645,
   1.9724458456039429
  ],
  [
   5.0167107582092285,
   -1.1319091320037842,
   -0.6716075539588928,
   0.22417061030864716,
   -2.603292465209961,
   2.68418550491333
  ],
  [
   2.3375251293182373,
   3.5417752265930176,
   0.4116058349609375,
   -3.982235908508301,
   -1.6173909902572632,
   5.60071325302124
  ],
  [
   -0.3318694829940796,
   -4.577959060668945,
   -0.04257058724761009,
   -0.28330960869789124,
   -1.6502678394317627,
   -2.2331626415252686
  ],
  [
   -0.6313382387161255,
   2.625322103500366,
   1.1103863716125488,
   3.0597543716430664,
   -1.1306579113006592,
   2.218780994415283
  ],
  [
   1.5489568710327148,
   4.826993465423584,
   0.1892862766981125,
   -0.028625864535570145,
   0.04533003270626068,
   8.295788764953613
  ],
  [
   1.0250415802001953,
   -6.698906421661377,
   -0.12964393198490143,
   -0.008356231264770031,
   0.780862033367157,
   4.293361663818359
  ],
  [
   1.900838851928711,
   4.569747447967529,
   1.1473885774612427,
   -1.2898972034454346,
   0.10362214595079422,
   -1.9185298681259155
  ],
  [
   -3.220899820327759,
   -4.521389484405518,
   -0.6541553139686584,
   -1.6381425857543945,
   3.3126652240753174,
   -2.2099030017852783
  ],
  [
   -3.2824902534484863,
   -0.056649401783943176,
   3.3473000526428223,
   3.0153939723968506,
   1.0257617235183716,
   2.228748083114624
  ],
  [
   2.3321449756622314,
   12.517757415771484,
   -0.07589150220155716,
   -0.3984268009662628,
   -2.902449607849121,
   1.4484145641326904
  ],
  [
   -3.0696120262145996,
   -4.238150596618652,
   0.7127583026885986,
   2.1854140758514404,
   5.1971354484558105,
   -0.8184872269630432
  ],
  [
   0.08932629227638245,
   -8.293608665466309,
   0.06772098690271378,
   0.22411468625068665,
   2.0969934463500977,
   -1.3063145875930786
  ],
  [
   -3.115030527114868,
   -2.524038314819336,
   -0.7173355221748352,
   -4.440469264984131,
   1.9069851636886597,
   0.3908982276916504
  ],
  [
   2.388170003890991,
   -0.5721558332443237,
   -0.8673834800720215,
   -0.6183244585990906,
   7.137044429779053,
   1.1468793153762817
  ],
  [
   -2.2284321784973145,
   4.711249351501465,
   -0.13357645273208618,
   -0.3383006751537323,
   5.27526330947876,
   0.18104279041290283
  ],
  [
   -3.499865770339966,
   -1.4970208406448364,
   0.17671364545822144,
   0.11122234165668488,
   -5.6313300132751465,
   2.8685765266418457
  ],
  [
   3.1836087703704834,
   -1.762398362159729,
   -2.5287036895751953,
   0.9901525378227234,
   -4.396761894226074,
   2.9590344429016113
  ],
  [
   -1.5814694166183472,
   2.8478660583496094,
   0.17872922122478485,
   0.3933250308036804,
   4.040399551391602,
   -4.209487438201904
  ],
  [
   -0.16473743319511414,
   -1.5553648471832275,
   3.826788902282715,
   -0.5551050305366516,
   -1.5591890811920166,
   -1.619591474533081
  ],
  [
   0.01566469483077526,
   1.2602341175079346,
   -2.5281100273132324,
   -2.085355043411255,
   -0.3711435794830322,
   5.750528335571289
  ],
  [
   1.5502231121063232,
   -0.06015359237790108,
   -2.298274517059326,
   -0.45921435952186584,
   -0.7737139463424683,
   -0.3237842917442322
  ],
  [
   1.9669996500015259,
   -0.6174587607383728,
   0.5954740047454834,
   3.7330095767974854,
   -0.6921730637550354,
   -1.304155945777893
  ],
  [
   1.627553105354309,
   -4.303088188171387,
   -0.3156985938549042,
   1.8983376026153564,
   1.965468168258667,
   -1.1979724168777466
  ],
  [
   3.2336068153381348,
   -4.306589603424072,
   -0.11246602982282639,
   -0.6970336437225342,
   -1.1180012226104736,
   -2.1484105587005615
  ],
  [
   -0.9345862865447998,
   -0.1266922652721405,
   -0.9821978807449341,
   -0.7668768763542175,
   -3.2481465339660645,
   -0.2773032784461975
  ],
  [
   3.437699556350708,
   1.203424096107483,
   1.094880223274231,
   0.8823479413986206,
   -3.6837754249572754,
   -0.054335545748472214
  ],
  [
   -0.7419566512107849,
   7.618199348449707,
   -1.4308443069458008,
   -1.7737739086151123,
   -1.730417251586914,
   7.056567192077637
  ],
  [
   -1.1585049629211426,
   7.107442378997803,
   0.32354506850242615,
   0.6993979811668396,
   0.6777999401092529,
   -5.793931484222412
  ],
  [
   -3.1143722534179688,
   -0.18285232782363892,
   -0.1669785976409912,
   -0.11296462267637253,
   3.7631661891937256,
   0.8542211651802063
  ],
  [
   -2.3078300952911377,
   2.1818673610687256,
   1.1438864469528198,
   1.0837616920471191,
   -3.608121871948242,
   1.6381126642227173
  ],
  [
   -0.5628853440284729,
   5.215685844421387,
   1.27328622341156,
   3.3611268997192383,
   0.4533700942993164,
   1.0552445650100708
  ],
  [
   7.981204509735107,
   1.9150009155273438,
   0.1981016993522644,
   0.43244999647140503,
   0.24624937772750854,
   -0.5322304964065552
  ],
  [
   6.954020977020264,
   5.151332855224609,
   -0.08848974853754044,
   -0.3796990215778351,
   -0.1818379908800125,
   -1.5921359062194824
  ],
  [
   -5.966437339782715,
   2.772310256958008,
   0.6318681240081787,
   4.398344039916992,
   -2.2912380695343018,
   2.965989589691162
  ],
  [
   0.8361988663673401,
   1.4494222402572632,
   0.07995766401290894,
   -0.4678071439266205,
   2.2248144149780273,
   -3.7225711345672607
  ],
  [
   -1.8928560018539429,
   0.05044690892100334,
   -0.9285727739334106,
   1.5791679620742798,
   -3.2338850498199463,
   -2.160846710205078
  ],
  [
   1.2257716655731201,
   -0.9845528602600098,
   -0.3866700530052185,
   8.663643836975098,
   0.5935469269752502,
   -2.546096086502075
  ],
  [
   -2.0771255493164062,
   -0.36847034096717834,
   -0.04794837534427643,
   -0.04307948797941208,
   4.575878620147705,
   -3.7978827953338623
  ],
  [
   -0.2932901382446289,
   3.669809579849243,
   1.6423089504241943,
   0.970591127872467,
   3.6939656734466553,
   1.2055076360702515
  ],
  [
   2.031961441040039,
   -5.430801868438721,
   0.5290002226829529,
   -3.3625736236572266,
   -1.9991275072097778,
   1.2015433311462402
  ],
  [
   4.3632307052612305,
   3.459901809692383,
   -0.5208256244659424,
   -0.3155067563056946,
   -2.341966390609741,
   -0.3374265432357788
  ],
  [
   -4.425285816192627,
   5.184141159057617,
   -0.529524564743042,
   0.004963336046785116,
   -1.2244744300842285,
   -0.1407332867383957
  ],
  [
   6.804546356201172,
   1.9669215679168701,
   0.1072433665394783,
   -0.8207364082336426,
   0.27541786432266235,
   1.1189886331558228
  ],
  [
   -1.2163898944854736,
   -4.434652805328369,
   0.8408119678497314,
   0.2912662625312805,
   0.9813848733901978,
   4.5590596199035645
  ],
  [
   -2.695516586303711,
   -11.034207344055176,
   -0.36946555972099304,
   0.29835402965545654,
   0.6562804579734802,
   -1.9761217832565308
  ],
  [
   6.16334867477417,
   -1.5218052864074707,
   -0.2993925213813782,
   0.847371518611908,
   2.621502161026001,
   1.462034821510315
  ],
  [
   -0.8160690069198608,
   -5.69662618637085,
   -0.6866675615310669,
   -0.6824698448181152,
   2.5869803428649902,
   0.8452920913696289
  ],
  [
   -0.963837742805481,
   1.1023014783859253,
   -1.7530158758163452,
   -1.685969352722168,
   0.06628692150115967,
   1.3187227249145508
  ],
  [
   -0.24047358334064484,
   3.1279563903808594,
   -1.4891430139541626,
   -0.6464985013008118,
   -0.8416114449501038,
   -8.392965316772461
  ],
  [
   2.0288500785827637,
   -3.297119379043579,
   2.8969204425811768,
   -1.400614857673645,
   1.889093041419983,
   -0.2560490071773529
  ],
  [
   -0.6947869658470154,
   1.225607991218567,
   -1.1195842027664185,
   0.5885029435157776,
   2.8315820693969727,
   1.4363068342208862
  ],
  [
   1.7258728742599487,
   -0.4990990161895752,
   0.9232115149497986,
   -2.815049409866333,
   -1.5335626602172852,
   -2.027432680130005
  ],
  [
   5.564357757568359,
   7.874188423156738,
   -0.31493282318115234,
   -0.9855324029922485,
   -0.8512283563613892,
   -2.833535671234131
  ],
  [
   -0.4396485388278961,
   14.555669784545898,
   -0.15252083539962769,
   0.07141570001840591,
   0.7145094871520996,
   -2.852429151535034
  ],
  [
   -1.6419605016708374,
   -1.630182147026062,
   1.0806467533111572,
   6.921628475189209,
   0.9624137282371521,
   -2.525341272354126
  ],
  [
   5.302940845489502,
   2.491957664489746,
   -4.370054721832275,
   -0.44639837741851807,
   -3.421060800552368,
   -0.9177720546722412
  ],
  [
   -6.0965046882629395,
   -3.5662946701049805,
   1.5318405628204346,
   -0.7596770524978638,
   -2.72101092338562,
   1.1214399337768555
  ],
  [
   3.553874969482422,
   -4.673178672790527,
   0.14135317504405975,
   -0.32781538367271423,
   -3.178758144378662,
   1.739184021949768
  ],
  [
   4.5345940589904785,
   -8.1051664352417,
   0.6820923089981079,
   0.1545274257659912,
   3.77703595161438,
   -0.10525236278772354
  ],
  [
   -1.8580131530761719,
   3.6807444095611572,
   -0.10149072855710983,
   5.613937854766846,
   -2.234534502029419,
   -3.3427605628967285
  ],
  [
   -0.4669935703277588,
   0.37978243827819824,
   1.6026889085769653,
   0.47850173711776733,
   -4.266280174255371,
   1.7565083503723145
  ],
  [
   2.3622403144836426,
   -0.9356648921966553,
   -2.177366256713867,
   1.084478735923767,
   -0.12466312944889069,
   0.21706941723823547
  ],
  [
   1.3810447454452515,
   1.6513808965682983,
   -2.622664213180542,
   2.0541317462921143,
   -4.9490509033203125,
   -0.3635096549987793
  ],
  [
   -3.1254281997680664,
   8.323789596557617,
   0.1801709234714508,
   0.529944658279419,
   3.7280526161193848,
   0.15806549787521362
  ],
  [
   -3.1646108627319336,
   -1.3179582357406616,
   0.6865320205688477,
   -1.1572160720825195,
   2.9249868392944336,
   2.1913938522338867
  ],
  [
   -2.7188527584075928,
   4.532909393310547,
   -0.11136066913604736,
   -0.5139460563659668,
   -2.7265751361846924,
   -0.30900269746780396
  ],
  [
   2.1756834983825684,
   -2.474588394165039,
   -1.5795283317565918,
   0.5183604955673218,
   7.24911642074585,
   1.5317753553390503
  ],
  [
   4.3032307624816895,
   5.603110313415527,
   -0.8670928478240967,
   -2.1000256538391113,
   -0.08361412584781647,
   -1.3914122581481934
  ],
  [
   3.5647361278533936,
   -1.4709923267364502,
   -1.1220972537994385,
   -0.0327015146613121,
   -2.525716543197632,
   -1.258010745048523
  ],
  [
   -2.114474058151245,
   2.1546614170074463,
   -0.039192017167806625,
   4.040971279144287,
   -3.9609265327453613,
   -0.531035840511322
  ],
  [
   2.723863363265991,
   -0.2673240900039673,
   2.809147834777832,
   0.08472545444965363,
   0.285448282957077,
   0.2564014494419098
  ],
  [
   0.6236991882324219,
   8.856314659118652,
   -0.9096192717552185,
   3.48285174369812,
   -1.130613923072815,
   -3.1305806636810303
  ],
  [
   3.9410622119903564,
   2.228182554244995,
   -3.232523202896118,
   -0.3380168676376343,
   2.5021252632141113,
   0.23112143576145172
  ],
  [
   6.9142584800720215,
   1.6794521808624268,
   -0.3146170973777771,
   0.1685897409915924,
   -2.132537841796875,
   0.9012354612350464
  ],
  [
   -0.5031524300575256,
   0.31903108954429626,
   -0.27590441703796387,
   -4.733500003814697,
   3.481428861618042,
   0.44661131501197815
  ],
  [
   -3.999199390411377,
   -0.5863389372825623,
   2.180741310119629,
   -2.4563560485839844,
   0.0016199280507862568,
   -2.252516746520996
  ],
  [
   0.7381585240364075,
   -12.865290641784668,
   -0.023701490834355354,
   0.006750332657247782,
   -0.25505563616752625,
   -4.909465789794922
  ],
  [
   -2.7596657276153564,
   0.2134036421775818,
   2.4222912788391113,
   -1.7484019994735718,
   4.757466793060303,
   -3.158864974975586
  ],
  [
   2.4242630004882812,
   0.49433332681655884,
   0.795426607131958,
   -0.9727583527565002,
   -3.68562650680542,
   -0.2783002257347107
  ],
  [
   4.292013168334961,
   0.6371932625770569,
   -0.2351607233285904,
   -0.021906044334173203,
   -3.4664430618286133,
   -1.4905575513839722
  ],
  [
   0.09825994074344635,
   -1.4104543924331665,
   3.880786180496216,
   0.1447676718235016,
   2.270162582397461,
   3.938915967941284
  ],
  [
   1.6913752555847168,
   -5.27678108215332,
   1.5462669134140015,
   -0.18649937212467194,
   0.13708700239658356,
   3.5268847942352295
  ],
  [
   -2.3201045989990234,
   4.586370468139648,
   0.38963446021080017,
   1.3699707984924316,
   -5.3342132568359375,
   -1.0623562335968018
  ],
  [
   -3.0453860759735107,
   -3.515857219696045,
   0.17150378227233887,
   2.7496120929718018,
   -1.332413673400879,
   -4.636981010437012
  ],
  [
   -0.06782358139753342,
   -0.24222052097320557,
   0.02517588436603546,
   -1.7443368434906006,
   -4.073700428009033,
   2.7728664875030518
  ],
  [
   1.334417462348938,
   0.010500897653400898,
   -0.13584446907043457,
   -0.27654895186424255,
   -3.6048946380615234,
   1.5268762111663818
  ],
  [
   7.272563934326172,
   -3.9134714603424072,
   -0.10524332523345947,
   1.9394258260726929,
   0.43497008085250854,
   -1.5398967266082764
  ],
  [
   4.619553089141846,
   -0.8303053975105286,
   0.23386333882808685,
   -0.7749610543251038,
   5.144077777862549,
   0.27472051978111267
  ],
  [
   -4.250308513641357,
   -4.77485990524292,
   2.3223681449890137,
   0.7214041948318481,
   1.86992609500885,
   4.822070121765137
  ],
  [
   -4.652904033660889,
   -6.397149562835693,
   0.9464747905731201,
   0.8417468667030334,
   -1.040249228477478,
   -2.5973124504089355
  ],
  [
   -0.9708371162414551,
   5.708826541900635,
   -1.0711551904678345,
   0.0681028962135315,
   -2.6454432010650635,
   -3.372288703918457
  ],
  [
   5.140827178955078,
   2.9203381538391113,
   0.18722164630889893,
   -1.3124656677246094,
   -2.6562907695770264,
   2.816006660461426
  ],
  [
   -4.669804096221924,
   0.41396257281303406,
   2.8372244834899902,
   -0.7484176158905029,
   2.2825818061828613,
   -1.125877022743225
  ],
  [
   0.4951343834400177,
   2.9604384899139404,
   -0.3688904941082001,
   -1.1560453176498413,
   -3.455444812774658,
   0.8417370319366455
  ],
  [
   1.0017191171646118,
   2.6245930194854736,
   0.8905361294746399,
   6.719087600708008,
   0.1740492731332779,
   -3.0268173217773438
  ],
  [
   0.22571301460266113,
   0.6690928339958191,
   -1.7123972177505493,
   0.24129334092140198,
   -5.844719409942627,
   0.7525861263275146
  ],
  [
   1.1607285737991333,
   2.282938241958618,
   -0.9461150765419006,
   0.6845026016235352,
   1.2421079874038696,
   -6.035714149475098
  ],
  [
   0.5078522562980652,
   3.722794771194458,
   -0.5297406315803528,
   -1.2462507486343384,
   3.9675328731536865,
   3.63690185546875
  ],
  [
   2.6096031665802,
   -2.7665419578552246,
   -1.028816819190979,
   -0.524937093257904,
   1.9389166831970215,
   3.993074417114258
  ],
  [
   -0.6459471583366394,
   -1.9708116054534912,
   -1.8642438650131226,
   -5.758787155151367,
   -1.6322427988052368,
   2.3494229316711426
  ],
  [
   0.10971895605325699,
   -1.9753497838974,
   -1.3050708770751953,
   0.47109702229499817,
   -3.6405158042907715,
   -3.156558036804199
  ],
  [
   4.254115581512451,
   -8.546957015991211,
   0.2642948031425476,
   1.8728386163711548,
   1.7332440614700317,
   -3.182676315307617
  ],
  [
   -2.664870500564575,
   -1.4402387142181396,
   1.8948884010314941,
   7.061590194702148,
   2.0577375888824463,
   -1.5624502897262573
  ],
  [
   0.23563183844089508,
   -0.7323138117790222,
   2.475550651550293,
   0.5044927000999451,
   -0.008418568409979343,
   1.4974696636199951
  ],
  [
   -2.387937545776367,
   3.865806818008423,
   0.836591362953186,
   -0.7871489524841309,
   -2.729062557220459,
   -0.5251249074935913
  ],
  [
   -0.6963002681732178,
   -2.698976755142212,
   0.36168745160102844,
   0.4871748685836792,
   0.12278184294700623,
   0.8430579900741577
  ],
  [
   -2.668644428253174,
   1.3128312826156616,
   0.5987393260002136,
   0.5344646573066711,
   -0.458927184343338,
   -6.9119977951049805
  ],
  [
   2.6671364307403564,
   -0.8606460094451904,
   -0.6378241777420044,
   1.182594656944275,
   -4.624575138092041,
   0.3118246793746948
  ],
  [
   -2.7124149799346924,
   4.3823981285095215,
   0.7380406856536865,
   2.398369789123535,
   3.1414988040924072,
   0.3818913400173187
  ],
  [
   -4.507735252380371,
   -1.007073163986206,
   0.6419652104377747,
   1.5557916164398193,
   -2.6434149742126465,
   -5.398383617401123
  ],
  [
   -0.3391014039516449,
   0.2969333529472351,
   0.023388193920254707,
   0.13533782958984375,
   -0.005666273180395365,
   -11.00436019897461
  ],
  [
   3.2486934661865234,
   4.870609760284424,
   -1.842638611793518,
   -0.36377668380737305,
   -4.189096927642822,
   0.5661253929138184
  ],
  [
   0.587934136390686,
   -11.81296157836914,
   -0.21568679809570312,
   2.4182207584381104,
   -0.1501932442188263,
   -0.6375550627708435
  ],
  [
   -1.8605358600616455,
   -3.552432060241699,
   0.9990401268005371,
   -4.481436729431152,
   -1.3524850606918335,
   6.15708589553833
  ],
  [
   -1.4236843585968018,
   2.0433037281036377,
   3.682426691055298,
   -0.7481001615524292,
   -0.4652531147003174,
   -0.9223278760910034
  ],
  [
   0.03173390403389931,
   -4.617399215698242,
   -2.6259090900421143,
   -1.6546919345855713,
   -3.900014638900757,
   1.1708232164382935
  ],
  [
   -5.8991875648498535,
   -2.1584279537200928,
   1.1702455282211304,
   1.0333187580108643,
   0.13575272262096405,
   1.4545772075653076
  ],
  [
   0.4926879405975342,
   -2.911090135574341,
   1.2994614839553833,
   0.07317882031202316,
   4.311005115509033,
   -0.6955617666244507
  ],
  [
   -1.1673882007598877,
   14.376967430114746,
   -0.648813009262085,
   0.7958123683929443,
   -0.07737847417593002,
   -1.7366117238998413
  ],
  [
   -0.7994621396064758,
   -0.9778363108634949,
   -0.7822965383529663,
   -0.2777691185474396,
   -2.5124146938323975,
   -4.080982685089111
  ],
  [
   -1.4696203470230103,
   1.6344026327133179,
   -0.06417375057935715,
   -9.670918464660645,
   -0.1603977531194687,
   -2.034235954284668
  ],
  [
   0.8721983432769775,
   4.6752519607543945,
   -0.2516549229621887,
   0.25304463505744934,
   -2.8423314094543457,
   -1.4292387962341309
  ],
  [
   -6.887628555297852,
   -3.79313588142395,
   -0.029405808076262474,
   1.1192233562469482,
   -4.1495680809021,
   3.5788016319274902
  ],
  [
   -1.0874881744384766,
   -3.0420432090759277,
   0.1836518496274948,
   -0.3130294680595398,
   0.05990801006555557,
   8.031792640686035
  ],
  [
   3.4694528579711914,
   -0.9758368730545044,
   -1.3991124629974365,
   -0.04827191308140755,
   -2.717741012573242,
   2.5440192222595215
  ],
  [
   -1.5111123323440552,
   -1.965604305267334,
   -0.20473338663578033,
   -0.09217086434364319,
   -3.243455171585083,
   4.276430130004883
  ],
  [
   -3.3157918453216553,
   3.7395992279052734,
   0.3472120463848114,
   -1.0173057317733765,
   -5.321807861328125,
   -2.141659736633301
  ],
  [
   3.3950271606445312,
   -0.3177923560142517,
   1.5948684215545654,
   0.3107292950153351,
   -0.9661698937416077,
   0.29006269574165344
  ],
  [
   2.401690721511841,
   1.3537873029708862,
   -0.17904026806354523,
   -0.2697555720806122,
   -3.4464569091796875,
   -0.44310879707336426
  ],
  [
   2.6167221069335938,
   -0.34775054454803467,
   -1.2820336818695068,
   0.8161049485206604,
   3.05645751953125,
   -2.997119426727295
  ],
  [
   -0.9423224925994873,
   4.353564262390137,
   0.23511658608913422,
   -2.383652925491333,
   -0.01743394322693348,
   -2.6252918243408203
  ],
  [
   11.111360549926758,
   -0.41122421622276306,
   -0.21549007296562195,
   -0.30900174379348755,
   -1.9676555395126343,
   -0.6948287487030029
  ],
  [
   6.955505847930908,
   -0.48503178358078003,
   -0.14648975431919098,
   -0.2543136775493622,
   -3.7387807369232178,
   -1.5703681707382202
  ],
  [
   -0.6303316950798035,
   -1.6039506196975708,
   0.683673083782196,
   -0.5380171537399292,
   -1.2495648860931396,
   -2.145097255706787
  ],
  [
   3.4679114818573,
   3.5420725345611572,
   0.510373592376709,
   -0.6832275390625,
   -2.182441234588623,
   -0.707231879234314
  ],
  [
   13.032243728637695,
   0.6987218856811523,
   -0.8358220458030701,
   0.1238255649805069,
   -1.9051792621612549,
   -0.34982287883758545
  ],
  [
   9.08450698852539,
   0.6154845952987671,
   0.2524753510951996,
   2.541821002960205,
   0.7502884864807129,
   0.7031316757202148
  ]
 ],
 "pi.0.bias": [
  -2.8117733001708984,
  -9.121238708496094,
  1.5925533771514893,
  4.741125106811523,
  5.1817307472229,
  -6.650496482849121,
  -4.826006889343262,
  -7.110474109649658,
  -7.834836959838867,
  9.148606300354004,
  -6.680891990661621,
  4.263374328613281,
  3.042426824569702,
  -6.920386791229248,
  -2.580779790878296,
  -1.557023048400879,
  4.428634166717529,
  -6.888693809509277,
  -5.741632461547852,
  5.119134426116943,
  7.0118608474731445,
  -3.121997356414795,
  -0.5606710910797119,
  -6.744703769683838,
  -5.10947847366333,
  -1.0318948030471802,
  -1.2853301763534546,
  -5.36128044128418,
  -5.842686653137207,
  -2.3424603939056396,
  -4.023119926452637,
  -5.615383148193359,
  0.7375891804695129,
  -1.7922108173370361,
  -1.2771952152252197,
  6.206961154937744,
  4.837744235992432,
  -7.042712211608887,
  -3.9176952838897705,
  -3.2239181995391846,
  -4.333570957183838,
  6.941561222076416,
  6.999347686767578,
  -2.7371087074279785,
  -6.536521911621094,
  -4.030282020568848,
  -4.646877288818359,
  -3.9933278560638428,
  3.8460066318511963,
  -1.866239309310913,
  3.9011666774749756,
  6.127147674560547,
  -6.4136576652526855,
  -0.8275076746940613,
  -1.0310883522033691,
  -6.818628311157227,
  3.528766632080078,
  -3.182466983795166,
  4.944794654846191,
  5.865902423858643,
  -5.608689785003662,
  -3.306273937225342,
  3.8288867473602295,
  -0.05393286421895027,
  -5.0300445556640625,
  -7.963375568389893,
  3.1809208393096924,
  -3.064096212387085,
  -8.165519714355469,
  7.5381975173950195,
  -1.6452726125717163,
  5.175745964050293,
  0.7301989793777466,
  -4.3094072341918945,
  2.7724592685699463,
  0.5227583646774292,
  2.532606840133667,
  5.416175365447998,
  2.332540988922119,
  3.1220600605010986,
  0.001575093250721693,
  8.271661758422852,
  6.038925647735596,
  -7.899543285369873,
  -7.431899070739746,
  4.220993518829346,
  -7.121798515319824,
  -5.419970989227295,
  -4.563464641571045,
  0.42507559061050415,
  -4.795343399047852,
  -3.658385992050171,
  -4.446454048156738,
  8.374234199523926,
  -2.9485344886779785,
  4.843326568603516,
  4.246230602264404,
  1.2125730514526367,
  -4.779616355895996,
  0.742840051651001,
  -1.648248314857483,
  5.946887016296387,
  -0.9533100128173828,
  5.438539981842041,
  6.270143985748291,
  2.629812240600586,
  -7.84907865524292,
  5.054828643798828,
  4.394802570343018,
  -4.246421813964844,
  -6.798254013061523,
  0.5878620147705078,
  -3.7970147132873535,
  -3.5782220363616943,
  7.845418453216553,
  2.936701536178589,
  -3.8608901500701904,
  -7.34855842590332,
  5.33867883682251,
  1.960258960723877,
  5.580750465393066,
  3.0852603912353516,
  -1.8712717294692993,
  3.7835328578948975,
  -4.609808921813965,
  3.7027132511138916,
  7.0571699142456055,
  -4.8263163566589355,
  2.634962797164917,
  1.3609561920166016,
  3.837416172027588,
  -5.115573883056641,
  5.395362377166748,
  -4.8690361976623535,
  -2.295926332473755,
  6.833722114562988,
  -5.063317775726318,
  -0.6923815608024597,
  -3.133969783782959,
  0.10223787277936935,
  -2.9948956966400146,
  -6.598739147186279,
  1.6231606006622314,
  8.926342964172363,
  -8.864246368408203,
  0.28164172172546387,
  3.6104564666748047,
  1.1116422414779663,
  -3.0138473510742188,
  -5.319995880126953,
  -3.808995246887207,
  6.5979533195495605,
  -1.4165266752243042,
  -5.433245658874512,
  -1.5146986246109009,
  7.063979625701904,
  -2.487356424331665,
  0.20995424687862396,
  6.142576217651367,
  2.9712414741516113,
  4.487932205200195,
  10.014666557312012,
  5.045711994171143,
  5.818713188171387,
  1.496730089187622,
  -0.7314105033874512,
  10.35077953338623,
  2.862701177597046,
  -8.522163391113281,
  3.802039861679077,
  -3.447690010070801,
  -4.652780055999756,
  2.0405354499816895,
  1.0613971948623657,
  3.5797853469848633,
  7.352333068847656,
  0.3296734392642975,
  -3.586304187774658,
  3.0352540016174316,
  -8.4224214553833,
  -4.342206001281738,
  1.770584225654602,
  -4.11824893951416,
  -1.2362871170043945,
  2.623645067214966,
  -0.22812986373901367,
  -0.15817974507808685,
  0.21110285818576813,
  5.61165189743042,
  -4.8859333992004395,
  -9.13965129852295,
  7.971935749053955,
  1.3697412014007568,
  -5.903225421905518,
  5.330012321472168,
  -3.3760955333709717,
  -7.125447750091553,
  6.849782943725586,
  3.768500328063965,
  -1.9832866191864014
 ],
 "pi.2.weight": [
  [
   0.23263764381408691,
   0.05390986427664757,
   0.1517980545759201,
   0.30616965889930725,
   0.21873807907104492,
   0.2033921629190445,
   0.16643205285072327,
   0.12792570888996124,
   0.15350142121315002,
   0.23061761260032654,
   0.1357157677412033,
   0.22372566163539886,
   0.2804097533226013,
   0.19200190901756287,
   0.2636272609233856,
   0.20949630439281464,
   0.2993161976337433,
   0.16390414535999298,
   0.1542145162820816,
   0.20201636850833893,
   0.25568053126335144,
   0.17905116081237793,
   0.0982111245393753,
   0.09121272712945938,
   0.2270895093679428,
   0.20118816196918488,
   0.2240515947341919,
   0.2550579309463501,
   0.23629499971866608,
   0.11537721753120422,
   0.07655748724937439,
   0.1160503700375557,
   0.3883042633533478,
   0.1937752217054367,
   0.12835267186164856,
   0.34813347458839417,
   0.2194596379995346,
   0.18102724850177765,
   0.169907346367836,
   0.31452715396881104,
   0.08724676072597504,
   0.15707167983055115,
   0.17879150807857513,
   0.14837832748889923,
   0.13545268774032593,
   0.34075891971588135,
   0.09882550686597824,
   0.2743186056613922,
   0.22484184801578522,
   0.08409666270017624,
   0.26788529753685,
   0.36323264241218567,
   0.2737652361392975,
   0.19663426280021667,
   0.25168323516845703,
   0.14721044898033142,
   0.19696955382823944,
   0.22849918901920319,
   0.19185414910316467,
   0.2422523945569992,
   0.2046191245317459,
   0.13740776479244232,
   0.19202445447444916,
   0.04861609637737274,
   0.19068200886249542,
   0.17909911274909973,
   0.19806745648384094,
   0.25056931376457214,
   0.2075924128293991,
   0.19663462042808533,
   0.24831727147102356,
   0.23017267882823944,
   0.31634584069252014,
   0.3399765193462372,
   0.2197411209344864,
   0.11924257129430771,
   0.16669347882270813,
   0.16410329937934875,
   0.22206783294677734,
   0.24590565264225006,
   0.35063204169273376,
   0.1949019581079483,
   0.25573989748954773,
   0.1289738267660141,
   0.2862066328525543,
   0.20885275304317474,
   0.21921704709529877,
   0.11219808459281921,
   0.21653904020786285,
   0.24461285769939423,
   0.27063536643981934,
   0.27206599712371826,
   0.2557835578918457,
   0.17744071781635284,
   0.08775055408477783,
   0.19548460841178894,
   0.21823687851428986,
   0.24022647738456726,
   0.3002251386642456,
   0.2323620766401291,
   0.3013154864311218,
   0.11879768967628479,
   0.16382215917110443,
   0.22289271652698517,
   0.18828696012496948,
   0.12627364695072174,
   0.20393942296504974,
   0.2599821984767914,
   0.2720947563648224,
   0.26978981494903564,
   0.2705676853656769,
   0.25259584188461304,
   0.07363452017307281,
   0.1996222585439682,
   0.17439159750938416,
   0.1190444678068161,
   0.24745599925518036,
   0.14102813601493835,
   0.30950912833213806,
   0.12384196370840073,
   0.21054552495479584,
   0.2652471363544464,
   0.21346953511238098,
   0.24631789326667786,
   0.3020575940608978,
   0.2774319350719452,
   0.15664520859718323,
   0.28135940432548523,
   0.3438217043876648,
   0.16854675114154816,
   0.2760958969593048,
   0.21268773078918457,
   0.2713019549846649,
   0.11044438928365707,
   0.20239312946796417,
   0.2522733807563782,
   0.09581028670072556,
   0.24890917539596558,
   0.1752190738916397,
   0.22214558720588684,
   0.20306141674518585,
   0.07255819439888,
   0.18639962375164032,
   0.24751700460910797,
   0.19313523173332214,
   0.3092437982559204,
   0.21830086410045624,
   0.1924755722284317,
   0.09376899152994156,
   0.17016516625881195,
   0.09175008535385132,
   0.2355930656194687,
   0.26932427287101746,
   0.20000329613685608,
   0.16374365985393524,
   0.1532580554485321,
   0.19349537789821625,
   0.17499150335788727,
   0.2770625948905945,
   0.16264790296554565,
   0.25725752115249634,
   0.20131412148475647,
   0.13697808980941772,
   0.19871389865875244,
   0.1988041251897812,
   0.15180599689483643,
   0.13707947731018066,
   0.19764094054698944,
   0.2173256278038025,
   0.2323310375213623,
   0.16907109320163727,
   0.12813980877399445,
   0.26781538128852844,
   0.12854258716106415,
   0.169199600815773,
   0.19995540380477905,
   0.20955786108970642,
   0.0931219756603241,
   0.31937476992607117,
   0.25885891914367676,
   0.18544484674930573,
   0.34464895725250244,
   0.05908630043268204,
   0.25211599469184875,
   0.28741809725761414,
   0.21723665297031403,
   0.10915619879961014,
   0.2092789113521576,
   0.2293204367160797,
   0.2065848559141159,
   0.2917517125606537,
   0.22672335803508759,
   0.20574398338794708,
   0.2797323763370514,
   0.22053252160549164,
   0.19779005646705627,
   0.1208353191614151,
   0.2788754999637604,
   0.18678806722164154,
   0.17676995694637299
  ],
  [
   -0.5971285104751587,
   13.915159225463867,
   1.546144723892212,
   2.34372878074646,
   -1.9710335731506348,
   -1.9183017015457153,
   0.6885971426963806,
   6.869892120361328,
   3.2355153560638428,
   2.6534359455108643,
   -2.139737844467163,
   3.4767634868621826,
   1.6598753929138184,
   -8.823481559753418,
   4.230013370513916,
   0.5646390914916992,
   4.0527567863464355,
   -1.6744723320007324,
   -5.555890083312988,
   -1.3590577840805054,
   2.717101812362671,
   -5.905740737915039,
   5.664120674133301,
   7.939462184906006,
   -0.5620294213294983,
   3.700739860534668,
   5.762765407562256,
   2.9876835346221924,
   1.0686615705490112,
   6.263465404510498,
   -3.9748706817626953,
   3.6449575424194336,
   -1.4414565563201904,
   4.338454723358154,
   4.437374591827393,
   -2.670534610748291,
   0.08039529621601105,
   -2.073326826095581,
   1.2213629484176636,
   6.5364789962768555,
   -1.7869662046432495,
   -3.1570065021514893,
   -1.751902461051941,
   0.7166864275932312,
   -4.801531791687012,
   -1.4967291355133057,
   1.6277756690979004,
   2.6602518558502197,
   3.3022868633270264,
   -2.6579294204711914,
   0.5006210803985596,
   -2.5317158699035645,
   6.896371841430664,
   -4.06555700302124,
   2.3652491569519043,
   4.934427261352539,
   1.1876758337020874,
   -3.2780306339263916,
   1.3413728475570679,
   3.970839262008667,
   -8.83513069152832,
   4.025676727294922,
   3.099881172180176,
   1.9645639657974243,
   -0.8626473546028137,
   -3.225511312484741,
   -2.342411994934082,
   4.319802761077881,
   6.65606689453125,
   2.879490613937378,
   1.2147681713104248,
   3.7562930583953857,
   -7.1734700202941895,
   -4.146435260772705,
   -0.3681304454803467,
   -2.0061423778533936,
   4.205862998962402,
   -3.156351327896118,
   3.665382146835327,
   -0.5249186158180237,
   1.7201616764068604,
   -2.3477249145507812,
   -3.7616329193115234,
   5.099820613861084,
   -2.519726037979126,
   -0.8955593705177307,
   -1.1315845251083374,
   2.7558016777038574,
   -2.988534688949585,
   -5.039564609527588,
   -4.341441631317139,
   -3.8041858673095703,
   -2.032365560531616,
   3.2570252418518066,
   6.822984218597412,
   -4.270148277282715,
   0.7480966448783875,
   -0.0024568517692387104,
   -4.918895721435547,
   1.6918888092041016,
   -2.6277709007263184,
   -3.490861177444458,
   -1.527562141418457,
   1.1273722648620605,
   -0.9377241730690002,
   -0.8286510109901428,
   11.787922859191895,
   -3.3564646244049072,
   -3.2587389945983887,
   2.5103261470794678,
   -5.839591979980469,
   2.273813247680664,
   3.3385472297668457,
   0.3907625079154968,
   -1.6567782163619995,
   -0.5834779739379883,
   8.112332344055176,
   6.0106306076049805,
   0.31634876132011414,
   -1.3131197690963745,
   -3.478816509246826,
   -5.239623069763184,
   -0.9166826009750366,
   -3.9554712772369385,
   -1.4041534662246704,
   2.62552547454834,
   0.7672396898269653,
   -2.2936134338378906,
   -1.3147225379943848,
   -1.267073392868042,
   4.093008995056152,
   -0.04798873886466026,
   5.311973571777344,
   -0.41177406907081604,
   1.8823444843292236,
   0.9494980573654175,
   8.112428665161133,
   3.5369043350219727,
   -5.300213813781738,
   -4.0779571533203125,
   -3.2287580966949463,
   -0.785769522190094,
   -0.8364802598953247,
   -4.754181861877441,
   -6.381977558135986,
   -1.8058059215545654,
   -0.43577128648757935,
   1.2441123723983765,
   2.1661112308502197,
   -1.697554111480713,
   0.2093268483877182,
   2.333678960800171,
   3.091008424758911,
   -5.618049144744873,
   -4.613978385925293,
   -0.0006526872748509049,
   -0.8420432806015015,
   -0.3629518747329712,
   1.223868489265442,
   -1.8997248411178589,
   2.6473498344421387,
   2.4838199615478516,
   -3.8649251461029053,
   2.7197327613830566,
   -1.7136424779891968,
   -5.768768787384033,
   -2.3222579956054688,
   2.994685649871826,
   8.357789039611816,
   -2.9456615447998047,
   -5.188544750213623,
   5.273601531982422,
   0.8003350496292114,
   4.241384506225586,
   -3.9252800941467285,
   5.424267292022705,
   -3.6258385181427,
   -5.313068866729736,
   -1.2226877212524414,
   -3.6711912155151367,
   1.4643250703811646,
   -0.6645004749298096,
   4.377599716186523,
   -4.233177661895752,
   2.259094715118408,
   2.426844596862793,
   5.968146324157715,
   -4.353918552398682,
   0.9618260860443115,
   4.060986518859863,
   -10.319891929626465,
   -3.182304620742798,
   -1.6162303686141968,
   0.7894859313964844,
   -2.6492767333984375,
   5.885484218597412,
   -0.6038737297058105,
   1.0685657262802124,
   -2.895728588104248,
   -3.228949546813965
  ],
  [
   0.08703998476266861,
   1.053605556488037,
   0.9592313766479492,
   2.1201913356781006,
   -1.7105690240859985,
   2.527252197265625,
   -0.7394930124282837,
   0.3300374746322632,
   -7.184026718139648,
   1.1546093225479126,
   -0.159559428691864,
   1.882799506187439,
   2.3073391914367676,
   -1.9363524913787842,
   2.0477919578552246,
   2.0145745277404785,
   -2.0700290203094482,
   3.3976070880889893,
   1.0177098512649536,
   -2.687185525894165,
   2.369035243988037,
   -0.26053714752197266,
   2.6212105751037598,
   -1.7801991701126099,
   -0.480782151222229,
   3.591381072998047,
   3.1366872787475586,
   2.410644054412842,
   -1.6715728044509888,
   4.712116718292236,
   -3.211452007293701,
   2.5321202278137207,
   -3.6308863162994385,
   2.046617269515991,
   0.7520443201065063,
   -3.648236036300659,
   2.103501558303833,
   2.1652674674987793,
   0.6213365793228149,
   -0.7991440892219543,
   -3.4312751293182373,
   -1.4159716367721558,
   0.24409028887748718,
   1.9669114351272583,
   -5.430882453918457,
   12.138459205627441,
   2.237091541290283,
   2.0208284854888916,
   0.16608887910842896,
   -1.6701064109802246,
   1.3826013803482056,
   -2.0931785106658936,
   -2.131291389465332,
   -0.9423068761825562,
   1.3835958242416382,
   -1.4433797597885132,
   2.3574559688568115,
   -1.1237233877182007,
   2.317586660385132,
   0.9170246124267578,
   -2.8676798343658447,
   -0.8021619319915771,
   1.7891944646835327,
   5.160085201263428,
   0.6825230121612549,
   2.5815491676330566,
   -2.8819692134857178,
   -1.6264816522598267,
   1.1848784685134888,
   1.8817062377929688,
   -1.1348696947097778,
   1.6338049173355103,
   -0.9863347411155701,
   -4.114022731781006,
   1.803564429283142,
   -1.331868052482605,
   -0.09841078519821167,
   -2.0962634086608887,
   1.510901927947998,
   0.6496626734733582,
   3.818591833114624,
   -2.241229772567749,
   -1.335868000984192,
   1.8923861980438232,
   3.9033396244049072,
   -1.602590560913086,
   3.824819803237915,
   0.29461660981178284,
   -2.1058170795440674,
   -2.6707351207733154,
   -2.490212917327881,
   4.458322048187256,
   1.4593409299850464,
   0.7376052737236023,
   2.5539727210998535,
   -1.328796148300171,
   2.148845911026001,
   2.274238109588623,
   -0.9089685082435608,
   -1.5118112564086914,
   1.1267491579055786,
   -1.5799654722213745,
   -2.7428550720214844,
   -2.729660987854004,
   1.3592461347579956,
   -0.09359811991453171,
   2.730755567550659,
   -0.36610010266304016,
   -1.2329835891723633,
   2.9941694736480713,
   3.318695306777954,
   -0.49921372532844543,
   2.8848419189453125,
   -1.8530889749526978,
   -0.5559037327766418,
   2.9285073280334473,
   4.6759257316589355,
   -0.02370961755514145,
   5.031930446624756,
   -1.5766801834106445,
   -1.323588252067566,
   -1.3931539058685303,
   1.3851726055145264,
   -0.33412328362464905,
   0.9615235924720764,
   -0.07148633897304535,
   4.1554131507873535,
   -0.10050726681947708,
   -2.2118656635284424,
   -1.9406486749649048,
   0.23753437399864197,
   -5.682753562927246,
   -0.4972366690635681,
   12.13122272491455,
   3.8793582916259766,
   2.4749884605407715,
   -0.4818078279495239,
   2.3134818077087402,
   0.5641332864761353,
   -3.376164674758911,
   -0.12724795937538147,
   4.533540725708008,
   -1.9419794082641602,
   -1.1032953262329102,
   -5.591980934143066,
   -2.3773770332336426,
   2.7692954540252686,
   2.733018159866333,
   0.5942304730415344,
   -2.9507479667663574,
   -1.6010841131210327,
   3.4266655445098877,
   2.5909268856048584,
   -0.22672240436077118,
   -3.5211598873138428,
   -5.2223896980285645,
   2.7565646171569824,
   2.6243629455566406,
   2.7262673377990723,
   2.6483123302459717,
   2.2422006130218506,
   0.9524300694465637,
   -2.275614023208618,
   2.1381258964538574,
   -0.6728453040122986,
   -3.8408854007720947,
   -2.899294137954712,
   3.1555285453796387,
   4.264623641967773,
   -1.9714429378509521,
   -2.1412906646728516,
   -1.6774463653564453,
   0.5723698735237122,
   -2.304398775100708,
   -1.2390185594558716,
   -0.31637364625930786,
   0.23496094346046448,
   3.7317311763763428,
   -3.0313210487365723,
   -7.781942367553711,
   -0.7076078653335571,
   -5.414368629455566,
   4.5907158851623535,
   -1.2497246265411377,
   -2.4241158962249756,
   1.2398247718811035,
   2.8340847492218018,
   -3.1483898162841797,
   -3.0641353130340576,
   -0.6983900666236877,
   -3.7379508018493652,
   -4.04640007019043,
   -1.5444203615188599,
   -3.9373483657836914,
   -1.541192889213562,
   3.712294101715088,
   -2.9721169471740723,
   0.15518641471862793,
   -3.8434488773345947,
   2.2657840251922607
  ],
  [
   -0.8469448685646057,
   5.36639404296875,
   1.0617198944091797,
   1.6374857425689697,
   0.8490544557571411,
   1.4494086503982544,
   -1.567909598350525,
   -0.3838089108467102,
   -1.342231035232544,
   0.36485621333122253,
   -3.1516284942626953,
   0.9762473702430725,
   1.5409563779830933,
   -0.3453598916530609,
   2.6404027938842773,
   1.719201683998108,
   -0.7950974702835083,
   2.467164993286133,
   -2.4480061531066895,
   -0.3594469428062439,
   0.4333827793598175,
   -1.0736324787139893,
   -0.585311233997345,
   3.675703763961792,
   -0.4188309609889984,
   -0.6207928657531738,
   1.6372590065002441,
   -0.32068905234336853,
   1.7329249382019043,
   -1.1854169368743896,
   -0.250405490398407,
   1.7304974794387817,
   0.24479180574417114,
   -0.21462836861610413,
   -0.10429739952087402,
   -0.4870964586734772,
   -2.0221340656280518,
   -2.250324249267578,
   -0.726913571357727,
   -0.38390472531318665,
   -2.1012144088745117,
   0.49950137734413147,
   -0.7286643981933594,
   -0.6945844888687134,
   -0.0992567390203476,
   -0.006012978497892618,
   -0.5505257248878479,
   1.288498044013977,
   -0.5257658362388611,
   -1.2323710918426514,
   0.6489672660827637,
   -3.005280017852783,
   1.6047260761260986,
   -1.4559129476547241,
   1.2117791175842285,
   1.1024013757705688,
   0.01908697932958603,
   0.26535335183143616,
   0.5124403834342957,
   0.7726953625679016,
   2.025818109512329,
   0.7344099283218384,
   0.9054293036460876,
   0.4305862486362457,
   1.9590085744857788,
   -2.1460864543914795,
   -0.7412694692611694,
   0.6958233118057251,
   5.5016093254089355,
   -0.06017179787158966,
   1.5399837493896484,
   0.24488092958927155,
   -2.3937768936157227,
   -1.6084855794906616,
   1.2080872058868408,
   0.48021745681762695,
   -0.23053580522537231,
   -0.5126538872718811,
   -0.00527449045330286,
   1.1573325395584106,
   1.4369876384735107,
   0.4332433342933655,
   -0.9030408263206482,
   4.425840377807617,
   0.7558137774467468,
   -0.8379035592079163,
   -2.7682440280914307,
   2.4304089546203613,
   -1.0629966259002686,
   1.1029555797576904,
   0.4774627983570099,
   -0.7253372073173523,
   0.7872374653816223,
   -0.5561743378639221,
   1.3339730501174927,
   -0.8686800003051758,
   0.05762001872062683,
   0.3975919485092163,
   -1.3744977712631226,
   -2.3320975303649902,
   1.3649660348892212,
   -0.11300678551197052,
   -0.6955598592758179,
   0.04601076617836952,
   0.6975005865097046,
   -0.7855972647666931,
   3.8090484142303467,
   1.4732074737548828,
   -0.49676626920700073,
   1.2030211687088013,
   -1.995720386505127,
   1.8730278015136719,
   1.9344264268875122,
   0.8445964455604553,
   -1.229378342628479,
   -1.2117092609405518,
   5.123054027557373,
   3.621114492416382,
   0.01701531745493412,
   -0.6364945769309998,
   -0.2387913167476654,
   -0.9917252063751221,
   -1.1802617311477661,
   -0.422640860080719,
   -1.852491021156311,
   1.3721412420272827,
   -0.30797046422958374,
   -1.631636381149292,
   0.01228184625506401,
   0.3340766429901123,
   -0.6375073790550232,
   -0.5609275698661804,
   0.5416548252105713,
   0.49048805236816406,
   1.4674370288848877,
   -0.3945811986923218,
   3.54949688911438,
   -0.017590435221791267,
   0.8465601205825806,
   3.1558315753936768,
   -1.6153045892715454,
   2.711836814880371,
   -0.9807813167572021,
   -1.2551965713500977,
   0.38293787837028503,
   -0.38771262764930725,
   0.5663523077964783,
   -0.6991861462593079,
   1.1903002262115479,
   0.31264549493789673,
   -2.534956932067871,
   -0.6363027691841125,
   1.7697501182556152,
   3.728055715560913,
   0.9721724390983582,
   0.2122475504875183,
   -0.8507881760597229,
   0.2368735671043396,
   1.4105033874511719,
   0.9491885304450989,
   0.09756985306739807,
   -0.1208157017827034,
   1.5503709316253662,
   -0.3634018003940582,
   1.7929356098175049,
   -1.9360309839248657,
   -0.6248457431793213,
   -0.7080004811286926,
   3.177217960357666,
   0.42947226762771606,
   -1.3127127885818481,
   4.370203971862793,
   1.5280109643936157,
   0.10754074901342392,
   1.4506973028182983,
   0.6639105081558228,
   0.08559004962444305,
   -1.3880900144577026,
   -0.330502986907959,
   -2.1745851039886475,
   -1.199126124382019,
   -0.9831514954566956,
   -0.12384939938783646,
   -2.036862850189209,
   0.5549818277359009,
   1.7381144762039185,
   -2.2238359451293945,
   0.29244372248649597,
   0.004642467480152845,
   -1.1599090099334717,
   -3.243530035018921,
   -0.5824848413467407,
   0.22229783236980438,
   -0.6385724544525146,
   -1.8782494068145752,
   2.115546226501465,
   -0.5295547246932983,
   0.4723493456840515,
   -1.9379032850265503,
   3.3658668994903564
  ],
  [
   2.014352321624756,
   12.27326488494873,
   3.367645263671875,
   2.184792995452881,
   -2.3811800479888916,
   -9.473020553588867,
   -6.941947937011719,
   3.304431438446045,
   6.562735557556152,
   -1.9784677028656006,
   -5.6509318351745605,
   2.209730625152588,
   4.490726947784424,
   -7.972292900085449,
   4.660964488983154,
   3.2085976600646973,
   -0.9871158599853516,
   -0.021382009610533714,
   -0.06297655403614044,
   -3.169586658477783,
   -1.8023313283920288,
   -1.6982200145721436,
   2.9660558700561523,
   -3.3235023021698,
   4.170385360717773,
   0.5516698360443115,
   3.312248945236206,
   -3.0378119945526123,
   3.8519463539123535,
   2.6870572566986084,
   -2.878223419189453,
   4.634851932525635,
   -1.198325753211975,
   4.860202789306641,
   1.6049699783325195,
   -2.774787187576294,
   2.584441661834717,
   5.179775714874268,
   2.3700621128082275,
   -0.006490902043879032,
   -3.2514655590057373,
   -3.9481735229492188,
   -5.893826007843018,
   5.123144149780273,
   0.493672639131546,
   1.4214842319488525,
   5.666658878326416,
   2.7167446613311768,
   3.194546937942505,
   -1.5018610954284668,
   3.3268001079559326,
   -2.7127983570098877,
   2.139958143234253,
   -0.8767869472503662,
   1.985636591911316,
   1.976203441619873,
   3.0496084690093994,
   -2.4421019554138184,
   -3.5194945335388184,
   0.17844413220882416,
   -2.587804079055786,
   -8.167130470275879,
   1.9748111963272095,
   1.2578387260437012,
   -4.105386734008789,
   -3.1231234073638916,
   -2.1705825328826904,
   2.876997947692871,
   2.783341407775879,
   2.2676031589508057,
   2.792573928833008,
   0.4013643264770508,
   -1.6385515928268433,
   -0.7933547496795654,
   2.252415657043457,
   -3.0784244537353516,
   1.4820140600204468,
   -2.302065849304199,
   -0.6746000051498413,
   4.585018157958984,
   0.8484459519386292,
   -3.177846670150757,
   -3.627094030380249,
   4.540513038635254,
   -0.9615625739097595,
   -1.8472998142242432,
   0.2516380548477173,
   4.526977062225342,
   -3.002720594406128,
   -1.297275185585022,
   -2.212087631225586,
   0.9011785984039307,
   6.353371620178223,
   2.2276432514190674,
   1.7812201976776123,
   -3.441711902618408,
   0.7067400813102722,
   2.2991743087768555,
   -3.3873748779296875,
   -3.7204513549804688,
   -2.742534637451172,
   -0.5476685762405396,
   -1.3977590799331665,
   3.135514259338379,
   -3.6068520545959473,
   -3.646869421005249,
   2.9175994396209717,
   -5.219535827636719,
   -1.9400315284729004,
   -2.853846549987793,
   2.109694004058838,
   4.012538433074951,
   3.478015899658203,
   -3.351435899734497,
   -3.568798065185547,
   2.862769603729248,
   2.152452230453491,
   5.156928539276123,
   2.857651710510254,
   -2.7815654277801514,
   -1.616830825805664,
   -1.6458333730697632,
   2.5345609188079834,
   1.25100576877594,
   -4.158569812774658,
   2.142819404602051,
   -1.145009160041809,
   4.300041198730469,
   -2.6583781242370605,
   -0.37144768238067627,
   3.376896381378174,
   -6.361595630645752,
   -1.499058485031128,
   -4.142342567443848,
   5.842227935791016,
   1.062112808227539,
   4.633053302764893,
   3.2924294471740723,
   -0.7602115869522095,
   -0.9738042950630188,
   2.968780994415283,
   -7.825812816619873,
   3.3327226638793945,
   -2.815208673477173,
   0.933566689491272,
   -0.7754002213478088,
   1.2871813774108887,
   1.0864157676696777,
   4.31253719329834,
   -2.7670555114746094,
   -5.1060261726379395,
   1.6997487545013428,
   1.6383498907089233,
   -4.645988941192627,
   0.5496883988380432,
   1.614025354385376,
   -0.9093484878540039,
   2.4062259197235107,
   2.606118679046631,
   3.893406629562378,
   3.20633864402771,
   -4.085036277770996,
   -0.6013347506523132,
   1.5454528331756592,
   -4.462899208068848,
   -3.577016592025757,
   -0.10742967575788498,
   2.4495418071746826,
   2.4387319087982178,
   -2.712026596069336,
   -6.653220176696777,
   -0.8728964328765869,
   3.0982589721679688,
   1.722906470298767,
   -1.9822407960891724,
   -4.284615516662598,
   -0.4033679664134979,
   0.7162280678749084,
   0.8976737260818481,
   1.2697458267211914,
   3.058161973953247,
   -3.6102206707000732,
   -0.8479428887367249,
   -2.711839437484741,
   1.6683388948440552,
   1.0492898225784302,
   3.2771735191345215,
   1.6679487228393555,
   -2.5758559703826904,
   -1.9753142595291138,
   0.17461273074150085,
   -0.67741459608078,
   -4.113716125488281,
   -7.312361717224121,
   -3.3663182258605957,
   1.5050972700119019,
   5.828803539276123,
   3.18507719039917,
   -2.05783748626709,
   3.02717924118042
  ],
  [
   0.28603488206863403,
   0.09138926863670349,
   0.1971026062965393,
   0.3103959262371063,
   0.2302875518798828,
   0.20109395682811737,
   0.06745562702417374,
   0.09318355470895767,
   0.08243608474731445,
   0.23667189478874207,
   0.0491592101752758,
   0.2910008430480957,
   0.20214596390724182,
   0.04329179972410202,
   0.21859432756900787,
   0.12665896117687225,
   0.2124897539615631,
   0.24818508327007294,
   0.13719376921653748,
   0.22480398416519165,
   0.24621883034706116,
   0.19053412973880768,
   0.07804560661315918,
   0.15307781100273132,
   0.31822896003723145,
   0.16990025341510773,
   0.1124393492937088,
   0.17035561800003052,
   0.2897733449935913,
   0.1620265543460846,
   0.15903536975383759,
   0.12145277112722397,
   0.3411681354045868,
   0.2513121962547302,
   0.21039308607578278,
   0.4389610290527344,
   0.30727946758270264,
   0.21079029142856598,
   0.22603091597557068,
   0.23262366652488708,
   0.14321419596672058,
   0.2125951200723648,
   0.1941872388124466,
   0.14945979416370392,
   0.07488951832056046,
   0.34980860352516174,
   0.09886428713798523,
   0.2609301209449768,
   0.14689229428768158,
   0.13728217780590057,
   0.2152913212776184,
   0.33603015542030334,
   0.1775856763124466,
   0.17984779179096222,
   0.2512474060058594,
   0.1696837991476059,
   0.1424417793750763,
   0.17782916128635406,
   0.26191088557243347,
   0.20960550010204315,
   0.24990351498126984,
   0.13249625265598297,
   0.24696682393550873,
   0.08913209289312363,
   0.25733137130737305,
   0.28791022300720215,
   0.1272003948688507,
   0.2448491007089615,
   0.09319000691175461,
   0.2893155813217163,
   0.25163811445236206,
   0.15780791640281677,
   0.18084585666656494,
   0.26453322172164917,
   0.2856253683567047,
   0.16156405210494995,
   0.2816516160964966,
   0.1538906693458557,
   0.09071718156337738,
   0.24781574308872223,
   0.24081403017044067,
   0.15068814158439636,
   0.250377357006073,
   0.132121279835701,
   0.16095855832099915,
   0.0835048258304596,
   0.22933556139469147,
   0.15137353539466858,
   0.14221550524234772,
   0.2537739872932434,
   0.16931802034378052,
   0.2490158975124359,
   0.23260998725891113,
   0.29856234788894653,
   0.07198148965835571,
   0.15126603841781616,
   0.24537386000156403,
   0.3872884511947632,
   0.21290074288845062,
   0.22232086956501007,
   0.25507286190986633,
   0.18252772092819214,
   0.07952955365180969,
   0.2735253870487213,
   0.21289052069187164,
   0.0898144394159317,
   0.24156710505485535,
   0.27642303705215454,
   0.2367228865623474,
   0.24595384299755096,
   0.28638577461242676,
   0.29497626423835754,
   0.15203803777694702,
   0.28182047605514526,
   0.12335018068552017,
   0.13701671361923218,
   0.2706927955150604,
   0.09033214300870895,
   0.3053959012031555,
   0.09534599632024765,
   0.16836418211460114,
   0.28164544701576233,
   0.14708462357521057,
   0.18475857377052307,
   0.29956355690956116,
   0.12630580365657806,
   0.27442416548728943,
   0.26217129826545715,
   0.35397273302078247,
   0.19345048069953918,
   0.24443095922470093,
   0.1971154659986496,
   0.22354738414287567,
   0.13181191682815552,
   0.28248515725135803,
   0.2592600882053375,
   0.05633479356765747,
   0.218300461769104,
   0.15775302052497864,
   0.20115768909454346,
   0.07040970027446747,
   0.04102892428636551,
   0.15433645248413086,
   0.14890360832214355,
   0.1727069914340973,
   0.1778639554977417,
   0.19404490292072296,
   0.2382737696170807,
   0.060113150626420975,
   0.14521872997283936,
   0.11382271349430084,
   0.2615519165992737,
   0.14444248378276825,
   0.21189530193805695,
   0.2743065059185028,
   0.16622769832611084,
   0.15115761756896973,
   0.19719858467578888,
   0.30664965510368347,
   0.18387670814990997,
   0.20076113939285278,
   0.12471824884414673,
   0.23471343517303467,
   0.22965729236602783,
   0.17809829115867615,
   0.22583797574043274,
   0.10605289041996002,
   0.24022576212882996,
   0.28200000524520874,
   0.18633539974689484,
   0.24311494827270508,
   0.14585435390472412,
   0.2380111962556839,
   0.21403755247592926,
   0.24189840257167816,
   0.22373247146606445,
   0.13992029428482056,
   0.14519159495830536,
   0.32119953632354736,
   0.19766201078891754,
   0.14074206352233887,
   0.4124440848827362,
   0.07772340625524521,
   0.24935677647590637,
   0.23744787275791168,
   0.25194135308265686,
   0.22689640522003174,
   0.22267507016658783,
   0.1266147941350937,
   0.24579130113124847,
   0.30253711342811584,
   0.21504293382167816,
   0.2065577358007431,
   0.2592461109161377,
   0.09437646716833115,
   0.23238374292850494,
   0.24419005215168,
   0.32950079441070557,
   0.1742987185716629,
   0.21346578001976013
  ]
 ],
 "pi.2.bias": [
  0.3139192461967468,
  -0.17937791347503662,
  -0.07020462304353714,
  -0.0348108746111393,
  -0.34493565559387207,
  0.24836336076259613
 ]
}