{
 "pi.0.weight": [
  [
   0.5711892247200012,
   1.585508108139038,
   -0.02468864619731903,
   -0.6238456964492798,
   1.212890625,
   1.5243467092514038
  ],
  [
   1.3459821939468384,
   0.7860826849937439,
   0.6254391670227051,
   -0.5141832232475281,
   -1.0842175483703613,
   -0.8504078984260559
  ],
  [
   -0.20417296886444092,
   0.33549103140830994,
   -0.19482651352882385,
   -0.7608340978622437,
   -0.504311740398407,
   2.201369524002075
  ],
  [
   -3.1724157333374023,
   -0.28006285429000854,
   -1.1055740118026733,
   0.3483235239982605,
   0.31706464290618896,
   -0.28777119517326355
  ],
  [
   -0.027826517820358276,
   0.5445616841316223,
   0.031838465481996536,
   -0.5033840537071228,
   0.7273916602134705,
   1.6168678998947144
  ],
  [
   1.617089033126831,
   -2.523970127105713,
   -0.10965139418840408,
   0.1167679876089096,
   -1.108949065208435,
   -0.5866133570671082
  ],
  [
   -0.9303276538848877,
   -2.658012628555298,
   0.5247699618339539,
   0.041985899209976196,
   2.4713361263275146,
   0.7403320074081421
  ],
  [
   -0.7783746123313904,
   -2.003863573074341,
   0.710844099521637,
   -0.7681783437728882,
   0.10117150843143463,
   -1.2862335443496704
  ],
  [
   -1.4355443716049194,
   -0.94588702917099,
   -0.20835590362548828,
   -0.07575568556785583,
   -0.0399511381983757,
   -1.304506540298462
  ],
  [
   -1.596041202545166,
   -0.9868046641349792,
   -0.39794236421585083,
   -1.3656331300735474,
   -0.4412999153137207,
   -0.3327803611755371
  ],
  [
   -0.369619220495224,
   -2.0664517879486084,
   0.4937586486339569,
   -1.040828824043274,
   -0.8988509774208069,
   -1.6701241731643677
  ],
  [
   0.2311636060476303,
   1.3455312252044678,
   -1.1172535419464111,
   -0.31934234499931335,
   -1.1090114116668701,
   1.2526509761810303
  ],
  [
   -0.5903285145759583,
   -0.9436936378479004,
   -0.21132078766822815,
   2.6828925609588623,
   1.0474435091018677,
   1.3794056177139282
  ],
  [
   -0.426521897315979,
   1.1206517219543457,
   -0.2773546576499939,
   -0.28215453028678894,
   1.5688202381134033,
   0.24505753815174103
  ],
  [
   1.7163207530975342,
   -1.337815523147583,
   0.8974863290786743,
   -0.4051901698112488,
   1.659095287322998,
   -1.8684977293014526
  ],
  [
   -1.4229985475540161,
   2.3583595752716064,
   0.19889001548290253,
   1.395054578781128,
   -0.7350677847862244,
   -1.249510407447815
  ],
  [
   1.428044080734253,
   2.122781276702881,
   -0.01980968751013279,
   -0.12309573590755463,
   -1.4967881441116333,
   -2.373821258544922
  ],
  [
   0.5182169079780579,
   0.4991416335105896,
   0.2667613923549652,
   0.6423237323760986,
   1.9484045505523682,
   1.1449434757232666
  ],
  [
   1.4065325260162354,
   1.2825028896331787,
   -0.27362048625946045,
   0.3214264512062073,
   1.0954015254974365,
   2.5150818824768066
  ],
  [
   -0.9593848586082458,
   -1.1208059787750244,
   -0.4551251232624054,
   -0.3883337080478668,
   -0.3680066764354706,
   1.083790898323059
  ],
  [
   -0.6051945686340332,
   1.148516297340393,
   -0.46760663390159607,
   -0.10077222436666489,
   -0.01884632185101509,
   -1.689305067062378
  ],
  [
   1.3062952756881714,
   -2.031527519226074,
   0.369878888130188,
   0.12368401885032654,
   2.1415345668792725,
   0.014647647738456726
  ],
  [
   -2.232292413711548,
   0.03705141320824623,
   0.017931006848812103,
   0.5013169646263123,
   -0.3677208125591278,
   2.064418315887451
  ],
  [
   1.6630806922912598,
   1.2219789028167725,
   0.37260279059410095,
   0.8775489926338196,
   0.07416588068008423,
   -0.4879899322986603
  ],
  [
   0.9205639362335205,
   -1.8268229961395264,
   0.8213722109794617,
   -0.8954039216041565,
   2.0854759216308594,
   -1.152750849723816
  ],
  [
   0.209061399102211,
   -0.1693894863128662,
   0.5727041959762573,
   -0.7877861261367798,
   1.2773512601852417,
   -1.3528363704681396
  ],
  [
   2.6905746459960938,
   -0.07962796092033386,
   0.6295222043991089,
   -1.0059216022491455,
   0.21860866248607635,
   -1.2055846452713013
  ],
  [
   -0.5558904409408569,
   -1.789079189300537,
   -0.7099285125732422,
   -0.8374964594841003,
   0.7160844206809998,
   -1.2449654340744019
  ],
  [
   -0.9771020412445068,
   2.8544583320617676,
   0.2038722187280655,
   0.33500936627388,
   0.7692630887031555,
   -1.6615732908248901
  ],
  [
   -1.0116784572601318,
   2.6910550594329834,
   0.5452684164047241,
   0.7248427867889404,
   0.8612412810325623,
   0.29106566309928894
  ],
  [
   -3.003328561782837,
   -0.9242562055587769,
   -0.041418030858039856,
   -0.5122571587562561,
   0.4916617274284363,
   -1.2598528861999512
  ],
  [
   0.4812343418598175,
   0.7079514265060425,
   0.7880939245223999,
   0.3881784975528717,
   3.573723793029785,
   0.41090041399002075
  ],
  [
   1.476341962814331,
   1.1073634624481201,
   0.08423500508069992,
   -0.14778302609920502,
   0.5207231044769287,
   -0.7872545719146729
  ],
  [
   -1.157421588897705,
   -1.6468535661697388,
   0.26700150966644287,
   -0.08853765577077866,
   1.9195218086242676,
   0.6873267292976379
  ],
  [
   0.04460028186440468,
   -1.6995964050292969,
   -1.943462610244751,
   -0.1900670826435089,
   0.8893122673034668,
   -0.6798003911972046
  ],
  [
   -2.62972092628479,
   0.2917267382144928,
   -0.5074239373207092,
   0.3867414593696594,
   -0.6497945189476013,
   0.8225550651550293
  ],
  [
   -0.952140212059021,
   -1.067915678024292,
   1.268758773803711,
   -0.7125178575515747,
   1.7508517503738403,
   1.3315761089324951
  ],
  [
   -1.0478448867797852,
   0.6500073671340942,
   0.2123105674982071,
   0.44148847460746765,
   0.757941722869873,
   0.5612462759017944
  ],
  [
   -0.8262982964515686,
   -0.08187879621982574,
   0.06602326780557632,
   1.0713090896606445,
   -0.4694581925868988,
   0.08024585992097855
  ],
  [
   -1.0456125736236572,
   -2.5528690814971924,
   0.23599199950695038,
   -0.6866925358772278,
   1.448050618171692,
   2.378267526626587
  ],
  [
   0.4088626205921173,
   1.425992727279663,
   0.5338817238807678,
   -0.7343266606330872,
   -0.9291147589683533,
   -1.2392213344573975
  ],
  [
   -1.5884565114974976,
   -0.7034971117973328,
   -0.2482757866382599,
   -1.0573174953460693,
   0.23517633974552155,
   1.9175091981887817
  ],
  [
   -1.3545204401016235,
   -0.17329135537147522,
   -0.6268472671508789,
   -0.5368030667304993,
   -2.4808247089385986,
   0.02184787020087242
  ],
  [
   -2.187685966491699,
   0.22437883913516998,
   0.5230185985565186,
   0.679229199886322,
   0.35788029432296753,
   0.03812577202916145
  ],
  [
   -0.1457442045211792,
   -0.30565133690834045,
   0.992446780204773,
   0.3536423146724701,
   1.6422191858291626,
   -0.8599523305892944
  ],
  [
   0.7126753926277161,
   -1.6915791034698486,
   1.168251872062683,
   -0.9037656188011169,
   -1.0237231254577637,
   -1.033638596534729
  ],
  [
   -0.3382304608821869,
   -1.265576958656311,
   -0.03711061552166939,
   -0.006299737375229597,
   0.43571680784225464,
   0.13577952980995178
  ],
  [
   0.4257075786590576,
   0.9670102596282959,
   0.4353482723236084,
   0.3890032470226288,
   1.4019607305526733,
   2.563582420349121
  ],
  [
   -2.072563648223877,
   -0.9435272812843323,
   0.11108230799436569,
   -0.4242118299007416,
   1.9903398752212524,
   -1.1014991998672485
  ],
  [
   -1.0945706367492676,
   -0.589661717414856,
   0.34266841411590576,
   1.059339165687561,
   -0.864188551902771,
   1.708396077156067
  ],
  [
   -1.0878705978393555,
   -0.5616543889045715,
   0.26877063512802124,
   -0.07321427762508392,
   0.7781624794006348,
   -2.0187675952911377
  ],
  [
   0.31952527165412903,
   -0.7104874849319458,
   0.023954512551426888,
   -0.5409830212593079,
   -1.182323694229126,
   -1.156168818473816
  ],
  [
   -0.3001929819583893,
   0.1402210295200348,
   -0.02951912023127079,
   1.9001555442810059,
   1.2928317785263062,
   -1.0013456344604492
  ],
  [
   0.7164347767829895,
   -2.14556884765625,
   -0.6243137121200562,
   0.3881366550922394,
   0.3104095757007599,
   -1.6411389112472534
  ],
  [
   0.4027261734008789,
   0.3799886405467987,
   0.13656261563301086,
   -1.024459958076477,
   0.4042513966560364,
   -2.081209421157837
  ],
  [
   -0.3568366765975952,
   -4.728947639465332,
   -0.7461051344871521,
   -0.09304564446210861,
   -0.3810107409954071,
   -0.7647034525871277
  ],
  [
   0.7970414757728577,
   2.1102945804595947,
   -0.49127712845802307,
   0.3056071996688843,
   -1.395439624786377,
   1.0829252004623413
  ],
  [
   0.9209006428718567,
   1.091822862625122,
   -0.4698299765586853,
   0.6299449801445007,
   -0.3977818489074707,
   0.7704092264175415
  ],
  [
   -0.7945047616958618,
   -1.4749542474746704,
   -0.3693205416202545,
   -0.1692119836807251,
   1.2496123313903809,
   1.2605434656143188
  ],
  [
   1.4655119180679321,
   -1.0735065937042236,
   -0.31382718682289124,
   1.4065457582473755,
   -1.1345574855804443,
   -1.1645793914794922
  ],
  [
   -0.7361356019973755,
   -3.1021206378936768,
   0.18050742149353027,
   -0.39467179775238037,
   -1.4030684232711792,
   -0.6707084774971008
  ],
  [
   0.38857582211494446,
   -0.9398909211158752,
   0.6983368396759033,
   0.9666532278060913,
   -0.16181010007858276,
   2.327990770339966
  ],
  [
   0.23612108826637268,
   1.9587135314941406,
   -0.09779554605484009,
   -0.8068222403526306,
   0.2605002522468567,
   -2.3378002643585205
  ],
  [
   0.6566082835197449,
   -0.3267555832862854,
   0.17321309447288513,
   0.28693562746047974,
   -0.20439833402633667,
   0.9572589993476868
  ],
  [
   -0.5390214920043945,
   0.9588598608970642,
   0.21858243644237518,
   2.190925121307373,
   0.016964305192232132,
   0.9531040191650391
  ],
  [
   1.2280941009521484,
   0.10320834070444107,
   -0.21862851083278656,
   -0.014940617606043816,
   -1.839269995689392,
   1.2744747400283813
  ],
  [
   1.9839599132537842,
   -1.959234595298767,
   -1.6414802074432373,
   0.6193546056747437,
   1.0443700551986694,
   1.438101887702942
  ],
  [
   -0.7235890030860901,
   -0.008251219987869263,
   0.6139538884162903,
   0.33928290009498596,
   -0.24995073676109314,
   -2.243394374847412
  ],
  [
   0.7624727487564087,
   0.45359006524086,
   -0.36475515365600586,
   -1.3882113695144653,
   1.721610188484192,
   -0.38767045736312866
  ],
  [
   -0.9294945001602173,
   -1.8729383945465088,
   -0.8523160219192505,
   0.3034474551677704,
   1.1056194305419922,
   1.2470619678497314
  ],
  [
   0.26253217458724976,
   -1.085895299911499,
   0.3808268904685974,
   -0.745781421661377,
   -0.7580977082252502,
   0.25581130385398865
  ],
  [
   1.0849732160568237,
   0.5787379145622253,
   0.5798999667167664,
   0.45829057693481445,
   1.4332354068756104,
   1.614180564880371
  ],
  [
   -2.3563075065612793,
   -2.5875024795532227,
   -0.6366166472434998,
   -0.27166756987571716,
   -1.5111688375473022,
   -2.4460272789001465
  ],
  [
   1.6206426620483398,
   -1.5223428010940552,
   0.08931499719619751,
   0.4567018151283264,
   0.8085982203483582,
   -0.9331283569335938
  ],
  [
   1.727931261062622,
   -1.5729299783706665,
   0.30626311898231506,
   0.5981895327568054,
   2.5109593868255615,
   0.7999700903892517
  ],
  [
   -0.32108402252197266,
   -1.204779028892517,
   0.00568151380866766,
   -0.49223560094833374,
   0.344435453414917,
   0.02174682542681694
  ],
  [
   -1.8499376773834229,
   -1.5951902866363525,
   0.0975390076637268,
   -0.5670604109764099,
   -1.4558281898498535,
   0.0360165573656559
  ],
  [
   -0.7235062718391418,
   -0.17634858191013336,
   -0.3434361219406128,
   0.5216752290725708,
   0.2261618971824646,
   0.381975382566452
  ],
  [
   0.530903160572052,
   0.08774784952402115,
   -0.6012765169143677,
   0.4990048110485077,
   0.7841120362281799,
   -0.033222347497940063
  ],
  [
   -0.12484419345855713,
   0.5148913860321045,
   0.3056242763996124,
   0.9863120317459106,
   0.9974328875541687,
   1.7657448053359985
  ],
  [
   -0.44585585594177246,
   1.074035882949829,
   0.08596061170101166,
   0.058696500957012177,
   1.1343352794647217,
   2.2960362434387207
  ],
  [
   -0.84607994556427,
   0.5187706351280212,
   -0.4251537621021271,
   0.14318768680095673,
   -1.7481111288070679,
   -0.07740157097578049
  ],
  [
   0.2297179251909256,
   -0.7962003350257874,
   -0.2149389684200287,
   -0.832321047782898,
   0.20303073525428772,
   -1.8568394184112549
  ],
  [
   0.44514766335487366,
   -0.26282593607902527,
   -0.4426128566265106,
   -0.8170487284660339,
   1.9407910108566284,
   -0.6775591969490051
  ],
  [
   0.21514400839805603,
   -1.186688780784607,
   1.2521353960037231,
   1.1125081777572632,
   -0.6103079319000244,
   1.6816432476043701
  ],
  [
   -1.320305347442627,
   1.1895257234573364,
   0.1203976571559906,
   -0.2694404125213623,
   1.0023930072784424,
   -1.0740346908569336
  ],
  [
   1.9154634475708008,
   -0.5512475371360779,
   0.5199379324913025,
   -0.1115744486451149,
   1.0301214456558228,
   -0.7040767073631287
  ],
  [
   1.3326019048690796,
   -0.5639833807945251,
   0.7305204272270203,
   0.615800678730011,
   0.5995771884918213,
   1.4413124322891235
  ],
  [
   -0.46627187728881836,
   0.6255565881729126,
   -1.6246370077133179,
   -0.28499987721443176,
   0.6768172979354858,
   -1.534201979637146
  ],
  [
   0.25381410121917725,
   -1.1194727420806885,
   -0.5624887943267822,
   -0.11214664578437805,
   -1.9868011474609375,
   1.4522548913955688
  ],
  [
   0.4846619665622711,
   0.6388220191001892,
   -0.0987154021859169,
   0.5276613831520081,
   0.9698073267936707,
   2.909160852432251
  ],
  [
   -1.9047257900238037,
   -1.66902494430542,
   -1.2013217210769653,
   -0.4320131540298462,
   -0.8645745515823364,
   -2.235496997833252
  ],
  [
   -0.3746189773082733,
   -0.3399115800857544,
   0.7781578302383423,
   0.7502439618110657,
   -0.7232118844985962,
   2.006537437438965
  ],
  [
   -1.9663915634155273,
   -0.4377630352973938,
   0.39541247487068176,
   0.3090501129627228,
   -0.8980045914649963,
   1.590417742729187
  ],
  [
   -0.5418413877487183,
   -0.08256871998310089,
   -0.13010944426059723,
   -0.029033798724412918,
   0.6204167008399963,
   -1.9995497465133667
  ],
  [
   0.7993006110191345,
   -1.3795335292816162,
   0.49368906021118164,
   -0.07445478439331055,
   0.5017237067222595,
   -0.7166863083839417
  ],
  [
   1.2429267168045044,
   1.285070538520813,
   0.07164151966571808,
   0.008921257220208645,
   1.0729140043258667,
   0.6643601059913635
  ],
  [
   1.2258602380752563,
   0.9096488356590271,
   -0.5817285180091858,
   0.4667917490005493,
   2.423022747039795,
   0.38815581798553467
  ],
  [
   0.39027565717697144,
   2.523756980895996,
   0.2241050899028778,
   0.47760629653930664,
   -0.2785068452358246,
   0.08156964182853699
  ],
  [
   -0.3381774425506592,
   1.0800589323043823,
   -0.005251291207969189,
   0.22771327197551727,
   0.8762487173080444,
   0.5478314757347107
  ]
 ],
 "pi.0.bias": [
  -1.6414623260498047,
  -3.0335335731506348,
  -2.3297019004821777,
  -2.0797414779663086,
  0.25277000665664673,
  -1.7542905807495117,
  -1.4472784996032715,
  -1.0721361637115479,
  0.5190701484680176,
  -1.0955363512039185,
  -1.0435136556625366,
  -1.9230607748031616,
  -1.4993009567260742,
  1.2228742837905884,
  -1.616748332977295,
  0.39608725905418396,
  0.28729450702667236,
  -2.790635585784912,
  -0.5702770352363586,
  2.1260933876037598,
  0.6977514624595642,
  -0.8704162836074829,
  0.3566499650478363,
  0.7632327675819397,
  -3.6854958534240723,
  2.0201947689056396,
  -1.3085777759552002,
  1.8115640878677368,
  0.7408782839775085,
  -2.300748348236084,
  0.5932006239891052,
  -0.9171507358551025,
  -2.532651424407959,
  -2.0000369548797607,
  -2.5946497917175293,
  -0.6860109567642212,
  -2.2874178886413574,
  0.9553943276405334,
  -3.384319305419922,
  -2.2807834148406982,
  0.8175762891769409,
  0.1785343587398529,
  -1.0901981592178345,
  1.0995625257492065,
  0.6893254518508911,
  -0.8179831504821777,
  1.3811417818069458,
  -1.6911766529083252,
  -1.9674848318099976,
  -0.7083842158317566,
  -0.7589093446731567,
  -0.3377673029899597,
  -2.9988107681274414,
  0.524057924747467,
  -1.6430160999298096,
  -1.7499152421951294,
  -0.7893906831741333,
  0.9473690390586853,
  -0.7731977105140686,
  0.7639107704162598,
  -1.1910573244094849,
  1.0712127685546875,
  -0.4195329248905182,
  0.797484278678894,
  -0.050979338586330414,
  -0.2519238293170929,
  -1.3868186473846436,
  -1.7605416774749756,
  -0.937257707118988,
  0.8156339526176453,
  -3.818793296813965,
  0.4769124388694763,
  -0.8828404545783997,
  0.9389646649360657,
  -2.387298107147217,
  1.532073974609375,
  -0.7010087966918945,
  2.1847472190856934,
  -3.026362180709839,
  0.13624806702136993,
  -2.3225181102752686,
  -1.6820454597473145,
  -2.6376590728759766,
  -0.8529150485992432,
  0.3147718906402588,
  -0.7568334937095642,
  0.9075884222984314,
  0.9078232645988464,
  0.8269004821777344,
  -2.0518887042999268,
  0.5007054805755615,
  -2.804440498352051,
  -3.2782936096191406,
  -0.8224177956581116,
  1.3434193134307861,
  -4.165798664093018,
  0.9755522608757019,
  -0.9267572164535522,
  1.016385793685913,
  1.0343793630599976
 ],
 "pi.2.weight": [
  [
   -0.435146301984787,
   -0.08049765974283218,
   1.0326716899871826,
   0.41318240761756897,
   0.279555082321167,
   0.5088129639625549,
   -1.0202215909957886,
   0.15951837599277496,
   -0.7961112260818481,
   1.6463431119918823,
   0.11907937377691269,
   -1.6967153549194336,
   0.9107798337936401,
   -0.48244985938072205,
   1.7220499515533447,
   0.4355226457118988,
   0.6349012851715088,
   1.0237258672714233,
   -2.1266469955444336,
   0.27648720145225525,
   -0.19902099668979645,
   -2.227562189102173,
   -0.8888805508613586,
   -0.3778403103351593,
   -3.7810404300689697,
   0.6992881298065186,
   0.6669150590896606,
   -0.017585428431630135,
   -0.16258585453033447,
   0.5441962480545044,
   1.3089022636413574,
   -0.3177635669708252,
   0.7243821024894714,
   0.4948008954524994,
   0.16739563643932343,
   1.0528680086135864,
   0.44428831338882446,
   -1.0304014682769775,
   2.1405746936798096,
   2.343252182006836,
   -0.1962306946516037,
   0.8070485591888428,
   -0.329887330532074,
   -0.867976725101471,
   2.0059115886688232,
   1.271266222000122,
   -0.7102685570716858,
   -0.8834986686706543,
   0.18385876715183258,
   -2.375293016433716,
   -2.276416063308716,
   0.2385905534029007,
   -0.8305878639221191,
   0.5456759929656982,
   -2.301754951477051,
   1.3762710094451904,
   0.20857089757919312,
   0.06522077322006226,
   -0.9447123408317566,
   0.3241649270057678,
   -0.8013179302215576,
   0.41380494832992554,
   0.9668548107147217,
   0.32412031292915344,
   1.1850528717041016,
   1.360588550567627,
   0.26947349309921265,
   0.6329825520515442,
   1.693985939025879,
   0.072932668030262,
   -1.8970177173614502,
   -2.0053927898406982,
   -1.2429909706115723,
   0.8152663111686707,
   1.0210130214691162,
   0.904809296131134,
   0.2636711299419403,
   0.04482218995690346,
   0.5058237910270691,
   2.5735700130462646,
   -0.7610678672790527,
   -2.7157065868377686,
   -0.23008544743061066,
   0.6805249452590942,
   0.38944292068481445,
   0.9813021421432495,
   -1.8132978677749634,
   0.9758243560791016,
   0.21207842230796814,
   -0.5963175892829895,
   -0.2886819541454315,
   0.5456526875495911,
   0.02337079495191574,
   0.10352091491222382,
   0.3990575671195984,
   -1.6279730796813965,
   -2.2920267581939697,
   1.1120266914367676,
   0.8366621732711792,
   0.9819667935371399
  ],
  [
   1.3337825536727905,
   0.034623194485902786,
   0.7065772414207458,
   -0.15532906353473663,
   0.29875287413597107,
   0.7684329152107239,
   -1.551496148109436,
   -0.9781738519668579,
   -0.5151746869087219,
   0.9177413582801819,
   -1.5223501920700073,
   0.407964825630188,
   -0.21127580106258392,
   -0.1400911957025528,
   -1.43272066116333,
   -0.14084982872009277,
   -0.43857628107070923,
   -0.621497631072998,
   0.04212404415011406,
   1.145912528038025,
   0.7180741429328918,
   -1.115513563156128,
   1.1596189737319946,
   0.1721813976764679,
   -0.3096470236778259,
   -1.6065102815628052,
   -0.04604792222380638,
   -0.8308576345443726,
   1.3723244667053223,
   0.2445133626461029,
   0.4101289212703705,
   -0.37692809104919434,
   0.3667779862880707,
   0.10688510537147522,
   -0.8750796914100647,
   0.5489162802696228,
   -1.5451043844223022,
   0.26499050855636597,
   -2.287351131439209,
   0.23402874171733856,
   0.13447271287441254,
   1.1380878686904907,
   -0.11985716968774796,
   0.15054769814014435,
   -2.828141927719116,
   -1.4886560440063477,
   0.6481338739395142,
   -0.15401653945446014,
   2.1716055870056152,
   0.4190846383571625,
   -0.8636993765830994,
   -0.47396284341812134,
   -1.0523649454116821,
   0.5202938914299011,
   1.700880765914917,
   -1.0754340887069702,
   0.2363141030073166,
   -0.36791619658470154,
   0.3197731375694275,
   0.13987809419631958,
   0.2777932584285736,
   1.3212919235229492,
   0.13331568241119385,
   -0.29828599095344543,
   1.248445987701416,
   0.39483407139778137,
   0.8391824960708618,
   0.2389790117740631,
   0.39438396692276,
   0.5322906970977783,
   -0.30958256125450134,
   0.2561027407646179,
   -0.30281397700309753,
   -1.6794322729110718,
   -1.7485593557357788,
   -0.9860808849334717,
   1.0289720296859741,
   -0.2918306887149811,
   0.814362108707428,
   0.07916958630084991,
   -0.40254533290863037,
   -0.19504326581954956,
   -2.692387580871582,
   -0.5543684363365173,
   1.0945805311203003,
   -0.15032903850078583,
   0.536136269569397,
   -0.6983093619346619,
   -1.9140746593475342,
   0.43906116485595703,
   0.7321454882621765,
   -0.02531311847269535,
   -1.6325334310531616,
   0.8596333861351013,
   -1.543508768081665,
   0.4826657772064209,
   -0.10279161483049393,
   -1.1429450511932373,
   0.4586159288883209,
   0.5388573408126831
  ],
  [
   0.19355179369449615,
   0.9368677735328674,
   -0.08389509469270706,
   -0.33746933937072754,
   -0.007081515621393919,
   -0.413357675075531,
   -0.34641891717910767,
   0.21294598281383514,
   0.14267046749591827,
   0.8164869546890259,
   0.8459787368774414,
   0.18648630380630493,
   -0.25867557525634766,
   -0.17555709183216095,
   -0.36683496832847595,
   0.31015077233314514,
   -0.96504807472229,
   0.758701741695404,
   -0.0533716194331646,
   -0.4557318091392517,
   -0.21856875717639923,
   0.18716946244239807,
   -0.10834435373544693,
   0.4899592399597168,
   -0.024736862629652023,
   -1.268883466720581,
   0.5292836427688599,
   -1.4456626176834106,
   0.20397835969924927,
   -0.019381918013095856,
   0.6735273003578186,
   0.03507285565137863,
   1.4110982418060303,
   0.41974174976348877,
   -0.175564244389534,
   -0.03163747861981392,
   -1.4003500938415527,
   -0.2974805235862732,
   0.12342853844165802,
   -0.1696481555700302,
   -0.07352297008037567,
   -0.16382496058940887,
   0.27312877774238586,
   0.06345028430223465,
   -0.6124280095100403,
   0.9903821349143982,
   0.13557928800582886,
   -0.22067716717720032,
   -0.44534221291542053,
   0.36294007301330566,
   -0.34877997636795044,
   0.10859730839729309,
   0.0967327356338501,
   -1.4670604467391968,
   0.512546956539154,
   -0.13502591848373413,
   0.36081552505493164,
   -0.11411278694868088,
   -0.6251758933067322,
   -1.4559656381607056,
   0.4254733622074127,
   -0.24929006397724152,
   0.512898325920105,
   -0.6762183904647827,
   0.34169802069664,
   0.09674505889415741,
   0.07626192271709442,
   0.18998709321022034,
   0.37680456042289734,
   -0.7244486212730408,
   -0.2771970331668854,
   -0.05624892935156822,
   0.23443816602230072,
   -0.2034071683883667,
   0.2169777750968933,
   -0.4743165373802185,
   0.5993852615356445,
   -0.20437903702259064,
   -0.1299661099910736,
   -0.05736638605594635,
   -0.2736606299877167,
   0.44262662529945374,
   -0.08939144015312195,
   -0.06889092177152634,
   0.6027312874794006,
   -0.8750842213630676,
   -1.046553373336792,
   -0.9877218008041382,
   -0.25432148575782776,
   0.6632943749427795,
   -0.2500215470790863,
   -0.22274163365364075,
   -0.2810255289077759,
   0.030668416991829872,
   -0.5364583730697632,
   -0.230470672249794,
   -0.004924208857119083,
   0.39714089035987854,
   0.128268763422966,
   -0.20293037593364716
  ],
  [
   0.599502444267273,
   1.0247204303741455,
   1.5236150026321411,
   -0.22498740255832672,
   0.6771824955940247,
   0.5814335346221924,
   -0.7219938039779663,
   0.9749924540519714,
   -0.49546486139297485,
   0.5387864112854004,
   -1.2391602993011475,
   0.7011351585388184,
   -0.8480309844017029,
   -0.2558819055557251,
   0.818329930305481,
   0.28581875562667847,
   1.8230527639389038,
   1.1379449367523193,
   -1.561368703842163,
   -0.8204914331436157,
   2.904054641723633,
   0.09502912312746048,
   1.1231712102890015,
   0.42927688360214233,
   -0.05829720199108124,
   0.42335760593414307,
   1.448813796043396,
   1.9316763877868652,
   -2.6786749362945557,
   1.0691323280334473,
   -0.7872360944747925,
   -1.6062555313110352,
   0.16951130330562592,
   -0.35919949412345886,
   -0.8580083847045898,
   2.761338949203491,
   1.3509180545806885,
   1.2974299192428589,
   0.8566790223121643,
   0.4730782210826874,
   -3.673961639404297,
   -0.9609411954879761,
   -0.980696439743042,
   0.9415725469589233,
   -0.3413771092891693,
   0.945056140422821,
   1.003191590309143,
   1.3428997993469238,
   0.876136302947998,
   0.37639719247817993,
   0.3007684350013733,
   1.670494556427002,
   -0.6661336421966553,
   1.220057487487793,
   3.037482261657715,
   -1.6590064764022827,
   1.0683530569076538,
   1.5563122034072876,
   0.49849769473075867,
   -0.9096134305000305,
   -0.673921525478363,
   0.9735569357872009,
   0.5339993238449097,
   1.2254482507705688,
   0.762252926826477,
   0.891845703125,
   0.31129926443099976,
   0.3398228883743286,
   -0.8344916105270386,
   -0.6867939829826355,
   1.2168430089950562,
   0.9808577299118042,
   -0.7186436653137207,
   -0.9605496525764465,
   -1.710843801498413,
   -1.0761746168136597,
   -1.7293099164962769,
   0.6113894581794739,
   0.29689842462539673,
   1.1419320106506348,
   0.4065364599227905,
   1.3164210319519043,
   0.15214544534683228,
   -3.255178451538086,
   -0.3916407525539398,
   -0.5134265422821045,
   0.6611860394477844,
   -0.7731264233589172,
   -0.4482037425041199,
   -0.7411481142044067,
   1.1740057468414307,
   0.8822643756866455,
   -2.4982757568359375,
   1.5763578414916992,
   -0.3257010877132416,
   0.6130769848823547,
   0.7021710872650146,
   0.5630233287811279,
   -0.24552510678768158,
   0.4883106052875519
  ],
  [
   -0.6176027059555054,
   0.06593898683786392,
   0.7443268299102783,
   -0.1259477734565735,
   -0.42832475900650024,
   1.0010136365890503,
   -0.8455252051353455,
   -0.40185829997062683,
   0.0053117237985134125,
   0.08923576027154922,
   0.0345577634871006,
   -0.1344899833202362,
   -0.5945438146591187,
   -0.38428524136543274,
   0.38999223709106445,
   -0.3490154445171356,
   -1.3826792240142822,
   0.2012936770915985,
   -1.490332841873169,
   -0.7033959627151489,
   0.8358525633811951,
   0.018599295988678932,
   -0.025695351883769035,
   -0.0688830316066742,
   -0.0560915581882,
   0.6721333265304565,
   -1.176625370979309,
   0.0062130531296133995,
   -0.3489912450313568,
   0.3975117802619934,
   0.2870805263519287,
   -0.5850971937179565,
   -0.3987893760204315,
   -0.7184595465660095,
   -0.29764923453330994,
   -0.5475353002548218,
   0.574511706829071,
   -0.31454551219940186,
   0.034785326570272446,
   0.4508172571659088,
   -0.2899470329284668,
   0.5471200942993164,
   -0.40674450993537903,
   0.04493657872080803,
   0.2035379558801651,
   -0.537646472454071,
   0.16810688376426697,
   -0.0896102786064148,
   0.7189691066741943,
   -0.14111439883708954,
   -0.0515272356569767,
   -0.01785178668797016,
   -0.6914429664611816,
   -0.46746939420700073,
   0.1180998682975769,
   -0.05482383817434311,
   -0.20256976783275604,
   -0.9209780097007751,
   -0.026334669440984726,
   -0.014889810234308243,
   0.4031292796134949,
   -1.0686068534851074,
   -0.5771220922470093,
   0.3965846598148346,
   0.21009159088134766,
   -1.926561713218689,
   0.5528974533081055,
   -1.7458341121673584,
   -0.34603360295295715,
   -1.2569069862365723,
   0.6941933631896973,
   0.9154782295227051,
   -0.7539336085319519,
   -0.4976429343223572,
   -1.2800813913345337,
   -0.6702042818069458,
   -0.37334194779396057,
   0.3134748637676239,
   -0.12319279462099075,
   -0.15198403596878052,
   -0.7235357165336609,
   -0.20651310682296753,
   -0.8260301947593689,
   -0.7577854990959167,
   -0.07559814304113388,
   -1.25961172580719,
   -0.35257062315940857,
   0.03282136470079422,
   -0.3020138442516327,
   0.002617700956761837,
   -0.3854916989803314,
   -0.13471989333629608,
   -0.18986620008945465,
   -0.9807056784629822,
   -0.5399918556213379,
   0.3466460108757019,
   -0.3938283920288086,
   -1.2698688507080078,
   -0.5357309579849243,
   0.14950689673423767
  ],
  [
   2.088164806365967,
   -0.0688830241560936,
   1.2537516355514526,
   0.8923205137252808,
   1.3835022449493408,
   -1.4602123498916626,
   -1.9768102169036865,
   0.8221086263656616,
   0.018162108957767487,
   1.4785230159759521,
   1.2610491514205933,
   1.5569953918457031,
   0.5305957794189453,
   0.5149067640304565,
   0.5303182005882263,
   0.35205867886543274,
   -1.3174253702163696,
   -1.151957631111145,
   0.2934589385986328,
   -0.0665578618645668,
   0.38936886191368103,
   -1.6934999227523804,
   0.6145229935646057,
   0.30704283714294434,
   -0.05532030761241913,
   -0.27027541399002075,
   -0.9442609548568726,
   -0.5384351015090942,
   0.13101224601268768,
   -2.677482843399048,
   0.240204855799675,
   -1.8576068878173828,
   0.01957339234650135,
   -0.832794725894928,
   -0.23527272045612335,
   -1.1149241924285889,
   0.3879088759422302,
   -1.3164721727371216,
   1.495766520500183,
   -0.22099550068378448,
   -1.2982878684997559,
   0.1418132781982422,
   0.7057276964187622,
   0.48236772418022156,
   -0.14571663737297058,
   -0.08630075305700302,
   -0.7013528347015381,
   -2.7317004203796387,
   0.3123677372932434,
   2.0160129070281982,
   -0.6905316114425659,
   -0.6788941025733948,
   -0.24674545228481293,
   -1.8597511053085327,
   -2.2126007080078125,
   1.1360763311386108,
   0.7265565395355225,
   0.5340588688850403,
   0.1629449427127838,
   -1.432793378829956,
   0.4294924736022949,
   -0.6233690977096558,
   0.8509328365325928,
   -1.6339623928070068,
   0.01870013400912285,
   0.4311607778072357,
   0.5533241629600525,
   -0.4205629825592041,
   -0.037312619388103485,
   0.8034051060676575,
   0.3722309172153473,
   0.06826488673686981,
   0.7862511873245239,
   -0.7959621548652649,
   0.06997954100370407,
   0.76177978515625,
   0.538905143737793,
   0.31813573837280273,
   0.12720754742622375,
   1.0097078084945679,
   -0.08966945111751556,
   -1.6575819253921509,
   0.766402542591095,
   0.40667927265167236,
   -1.122197151184082,
   0.26301151514053345,
   0.5564542412757874,
   0.10388469696044922,
   0.8047887682914734,
   -0.5243392586708069,
   0.5795789957046509,
   0.6413249373435974,
   -4.030829429626465,
   0.9481881856918335,
   1.4083646535873413,
   -2.4322774410247803,
   0.8552584052085876,
   -1.064226508140564,
   0.4642484188079834,
   -0.0520424023270607
  ],
  [
   0.20565125346183777,
   -0.5171566009521484,
   2.6396186351776123,
   0.8107358813285828,
   1.0909501314163208,
   -0.8373363018035889,
   -1.8520828485488892,
   0.5320069789886475,
   -0.4556744396686554,
   0.38582417368888855,
   0.8921105265617371,
   0.6536511778831482,
   -2.427461862564087,
   -0.26875466108322144,
   1.2628803253173828,
   -0.07516390085220337,
   0.912030041217804,
   -1.7020224332809448,
   0.6457269191741943,
   -1.51708984375,
   0.7722217440605164,
   0.3325772285461426,
   0.2625926434993744,
   -2.4476864337921143,
   0.7828990817070007,
   -1.0316158533096313,
   0.14854028820991516,
   -0.49454107880592346,
   -1.0368748903274536,
   2.533029317855835,
   1.060248613357544,
   -1.0014580488204956,
   -0.9770348072052002,
   0.07135812193155289,
   0.22748397290706635,
   0.5918905138969421,
   1.2899061441421509,
   1.4944379329681396,
   0.8427393436431885,
   -0.16229212284088135,
   -0.43957436084747314,
   0.08999542891979218,
   -0.1262119561433792,
   0.22888042032718658,
   0.4285890460014343,
   -0.2178797423839569,
   -0.8451043367385864,
   1.4357378482818604,
   1.800408124923706,
   -0.04436973109841347,
   0.1910860389471054,
   -0.5737177729606628,
   -0.02287600003182888,
   -1.3392506837844849,
   -0.5923811793327332,
   0.851667582988739,
   1.333702564239502,
   -0.09885137528181076,
   -0.7532970905303955,
   -0.8086084127426147,
   1.9552448987960815,
   -0.9584068059921265,
   -0.08152226358652115,
   -0.9949318170547485,
   -1.9205902814865112,
   0.9180724024772644,
   0.15891499817371368,
   0.9401772618293762,
   1.572350025177002,
   -1.0941585302352905,
   1.4608670473098755,
   -1.7554658651351929,
   -0.3349926173686981,
   -0.31853872537612915,
   0.33137214183807373,
   -0.05270761623978615,
   -0.31759577989578247,
   -0.5160071849822998,
   0.26686063408851624,
   0.7121795415878296,
   0.00548495864495635,
   0.6328291893005371,
   1.8565974235534668,
   -0.6704793572425842,
   1.2765989303588867,
   2.223727226257324,
   -1.1089798212051392,
   0.35767805576324463,
   0.7769018411636353,
   -0.6909841895103455,
   0.019829723984003067,
   -0.17897801101207733,
   0.9221263527870178,
   1.2860662937164307,
   -0.6001496315002441,
   -1.41993248462677,
   -0.27859288454055786,
   -0.4231148064136505,
   0.6702159643173218,
   0.09827930480241776
  ],
  [
   -0.6322253942489624,
   0.326577365398407,
   1.5401870012283325,
   -2.2378311157226562,
   1.4307142496109009,
   0.5833558440208435,
   -0.10689877718687057,
   0.9008248448371887,
   -2.6292941570281982,
   -0.6819027066230774,
   -2.964768886566162,
   -1.0398179292678833,
   1.087162733078003,
   0.5637553334236145,
   -0.3458581566810608,
   -3.9519927501678467,
   0.6705952882766724,
   0.32736682891845703,
   0.3719727098941803,
   -1.2232688665390015,
   -2.8743510246276855,
   0.6354089379310608,
   0.40321820974349976,
   0.9836390018463135,
   -2.0645644664764404,
   0.8900729417800903,
   0.7870925068855286,
   -0.07712479680776596,
   0.0008468606392852962,
   0.34721145033836365,
   -1.9403049945831299,
   0.39092907309532166,
   -0.10106269270181656,
   -0.6880211234092712,
   -0.622931718826294,
   0.7089430093765259,
   -0.054707590490579605,
   -0.30221691727638245,
   0.12115108966827393,
   -0.5075149536132812,
   -2.342613458633423,
   -1.7938392162322998,
   1.1690647602081299,
   -1.165826439857483,
   1.0702674388885498,
   1.0291131734848022,
   -1.280403733253479,
   0.022202223539352417,
   1.0916298627853394,
   0.024821415543556213,
   -0.5504215955734253,
   -4.181174278259277,
   -0.798121452331543,
   -0.9145855903625488,
   -0.6342766880989075,
   -3.1653597354888916,
   -1.6003196239471436,
   -0.3001219928264618,
   0.4827631413936615,
   -1.5540634393692017,
   -2.3487329483032227,
   -0.5117870569229126,
   0.662294864654541,
   0.4026767611503601,
   -1.1641162633895874,
   0.9968162775039673,
   0.5908822417259216,
   -1.1808310747146606,
   -0.2632611393928528,
   0.03860146924853325,
   -1.2999417781829834,
   0.053683068603277206,
   -1.7388986349105835,
   0.16657638549804688,
   -0.10078030079603195,
   -1.8803415298461914,
   -2.3466622829437256,
   -0.2912565767765045,
   0.33894115686416626,
   0.9462105631828308,
   1.203288197517395,
   1.39497971534729,
   -0.5285936594009399,
   -0.4429924488067627,
   1.215898871421814,
   -1.6636624336242676,
   1.042349100112915,
   1.437746524810791,
   -0.485675185918808,
   2.3134162425994873,
   0.17615579068660736,
   -0.4348684549331665,
   -0.16191457211971283,
   -1.376193642616272,
   0.3311358690261841,
   -0.6738796830177307,
   0.5647159814834595,
   0.009260967373847961,
   -0.2783554196357727,
   1.2993260622024536
  ],
  [
   0.29069817066192627,
   1.5713214874267578,
   -0.3609403669834137,
   0.6496941447257996,
   0.25717413425445557,
   0.19601629674434662,
   0.8838551640510559,
   -0.29671943187713623,
   -0.9280533194541931,
   -0.45352599024772644,
   -0.2975057363510132,
   0.5760369300842285,
   1.4694067239761353,
   -1.0349814891815186,
   -1.3012115955352783,
   -1.8171759843826294,
   0.7408159971237183,
   1.1238573789596558,
   1.030070424079895,
   -1.693865418434143,
   1.9602707624435425,
   0.37590765953063965,
   0.7712589502334595,
   0.8624905347824097,
   1.2249094247817993,
   -0.09090453386306763,
   0.5730411410331726,
   0.3300571143627167,
   -0.8927648067474365,
   0.5058745741844177,
   0.7776209712028503,
   0.38485562801361084,
   0.6442126035690308,
   2.4824280738830566,
   -0.8012516498565674,
   -2.1190714836120605,
   1.0011361837387085,
   0.9802940487861633,
   -1.9265635013580322,
   0.38633063435554504,
   1.3787951469421387,
   -0.804888129234314,
   0.18490184843540192,
   -1.5195331573486328,
   0.13165806233882904,
   0.26355308294296265,
   -0.11392898112535477,
   0.32984551787376404,
   -1.422844648361206,
   1.7044848203659058,
   0.7442727088928223,
   1.8494808673858643,
   0.5340810418128967,
   -0.805016279220581,
   4.401939392089844,
   -1.335249662399292,
   -0.1512996405363083,
   -1.1824488639831543,
   -0.0288749597966671,
   0.025416702032089233,
   1.0719490051269531,
   -0.9918633103370667,
   -0.011432347819209099,
   0.874934196472168,
   -0.37210333347320557,
   -0.8373653888702393,
   -0.3483309745788574,
   0.03337959572672844,
   1.015891671180725,
   0.5318232178688049,
   -1.6762363910675049,
   0.5351030230522156,
   -1.1024236679077148,
   -0.34840911626815796,
   0.02243690937757492,
   0.4321536123752594,
   -0.06837422400712967,
   -1.8516900539398193,
   0.024377059191465378,
   0.9015563726425171,
   1.1072194576263428,
   1.4978135824203491,
   0.7961940169334412,
   0.7238205075263977,
   -0.5458755493164062,
   -0.31301257014274597,
   0.0007577115902677178,
   0.15303479135036469,
   -0.8543617129325867,
   -0.4768967926502228,
   1.4984087944030762,
   -0.12933926284313202,
   3.0564942359924316,
   -0.2798612117767334,
   -0.48716655373573303,
   0.717012345790863,
   0.8314839005470276,
   -0.23772430419921875,
   0.12443437427282333,
   -0.5406336784362793
  ],
  [
   1.1761583089828491,
   0.12064989656209946,
   -1.2140295505523682,
   1.0714728832244873,
   0.638846755027771,
   1.306189775466919,
   0.5481255650520325,
   0.24063949286937714,
   -0.5805702805519104,
   -0.9815005660057068,
   -0.11691047251224518,
   0.5440699458122253,
   -0.07691163569688797,
   0.8708490133285522,
   -0.5078319311141968,
   -0.5246010422706604,
   -0.07059015333652496,
   0.5674917697906494,
   1.6405439376831055,
   0.2883945107460022,
   0.0032085548155009747,
   -0.6277250647544861,
   0.5170690417289734,
   0.26476648449897766,
   -0.6644458770751953,
   -0.26557084918022156,
   -2.7658324241638184,
   -2.332444429397583,
   -0.3326351046562195,
   1.93866765499115,
   -2.326078414916992,
   -1.0907576084136963,
   0.1911681890487671,
   -1.0986963510513306,
   0.5601919889450073,
   -0.5774174332618713,
   0.04605981707572937,
   0.5212926864624023,
   -0.20724745094776154,
   -0.5462539196014404,
   0.7768484950065613,
   1.871233582496643,
   -2.203974485397339,
   -0.7608437538146973,
   -0.398154079914093,
   -0.1689450591802597,
   -0.3358650505542755,
   -2.142240285873413,
   0.6684165596961975,
   0.8545864820480347,
   -1.5780704021453857,
   1.2148617506027222,
   -0.4193805754184723,
   0.9819059371948242,
   0.7210047245025635,
   1.228960633277893,
   -1.2076882123947144,
   0.45094040036201477,
   2.00124454498291,
   0.2898329198360443,
   -0.5145193934440613,
   -1.9610931873321533,
   -0.22811301052570343,
   0.20947425067424774,
   0.26364511251449585,
   0.9117048978805542,
   0.933650553226471,
   -0.6720526218414307,
   -1.2100402116775513,
   -0.40800362825393677,
   -1.0273765325546265,
   -2.259200096130371,
   -3.230057954788208,
   0.9741696119308472,
   -0.323406457901001,
   1.4403622150421143,
   -3.2453110218048096,
   -0.2905060350894928,
   0.9441529512405396,
   -0.023956280201673508,
   1.3922227621078491,
   1.071656584739685,
   -0.37851381301879883,
   0.613955557346344,
   0.7649080753326416,
   0.8560962080955505,
   0.295745849609375,
   0.45965519547462463,
   0.32765185832977295,
   -1.410431146621704,
   -0.20109060406684875,
   -3.2720608711242676,
   -2.177159547805786,
   -0.0698251724243164,
   -2.197014331817627,
   1.5248138904571533,
   -0.4606332778930664,
   -0.9044617414474487,
   1.300075888633728,
   1.3451472520828247
  ],
  [
   0.0706179067492485,
   1.4654568433761597,
   -0.12581682205200195,
   -0.05036240443587303,
   -0.42989811301231384,
   -0.6234630942344666,
   -0.5226005911827087,
   -0.31832683086395264,
   0.13163216412067413,
   -0.7989866733551025,
   -0.8534256815910339,
   1.1568312644958496,
   1.2649246454238892,
   1.2091522216796875,
   -0.020785201340913773,
   -0.7124979496002197,
   0.8579012155532837,
   -1.9891438484191895,
   -0.07685515284538269,
   -0.2012495994567871,
   0.026329243555665016,
   0.8650720715522766,
   -2.684983015060425,
   0.449051171541214,
   -1.5653572082519531,
   0.38340380787849426,
   -0.19688110053539276,
   -1.5258692502975464,
   0.31426650285720825,
   0.3267240822315216,
   -1.3046886920928955,
   1.1835674047470093,
   -2.014849901199341,
   0.12558521330356598,
   -4.261467933654785,
   2.112933397293091,
   -2.0483150482177734,
   -0.2771588861942291,
   -2.3350751399993896,
   -0.8913038969039917,
   -0.6842252612113953,
   -1.2822372913360596,
   -4.145421504974365,
   -1.2316557168960571,
   0.48325905203819275,
   -1.0610694885253906,
   0.2923917770385742,
   0.7893141508102417,
   -1.484722375869751,
   -0.22669611871242523,
   0.12343873083591461,
   -2.1670594215393066,
   3.0454792976379395,
   -0.30865752696990967,
   -0.569268524646759,
   -0.5388369560241699,
   -0.2942879796028137,
   -1.9127250909805298,
   1.1270164251327515,
   -2.029815673828125,
   -0.48001375794410706,
   -0.695655882358551,
   0.18774162232875824,
   0.43217483162879944,
   0.8178555369377136,
   -1.1075769662857056,
   0.539880633354187,
   0.2128836214542389,
   0.8168807029724121,
   -0.8967002034187317,
   0.37248513102531433,
   0.867243766784668,
   -1.903958797454834,
   0.5607951879501343,
   0.9659134745597839,
   -1.7268372774124146,
   -0.387838751077652,
   -2.9217801094055176,
   2.1892154216766357,
   -0.8545309901237488,
   0.6490914821624756,
   -1.420741081237793,
   -0.5571732521057129,
   0.5239099264144897,
   0.5726585388183594,
   -0.45563578605651855,
   -0.31651002168655396,
   0.7932630181312561,
   -0.4487946033477783,
   -0.9983343482017517,
   -0.08598563075065613,
   -0.7966191172599792,
   -2.070958137512207,
   1.408148169517517,
   0.4284347593784332,
   -0.1833360344171524,
   0.4977818727493286,
   2.413437604904175,
   -1.1998194456100464,
   0.8445034623146057
  ],
  [
   -1.608259916305542,
   0.1537015587091446,
   1.5662891864776611,
   1.2081629037857056,
   0.17370478808879852,
   0.3456185758113861,
   -0.19319483637809753,
   -2.3283910751342773,
   -0.6039620041847229,
   -2.1436190605163574,
   -0.09850935637950897,
   0.506313145160675,
   0.26152607798576355,
   0.006844907067716122,
   -0.627830445766449,
   1.0261658430099487,
   -0.00885787419974804,
   -0.6723743081092834,
   -0.6357828974723816,
   0.8355863094329834,
   -0.3449166417121887,
   -1.6959807872772217,
   1.0668423175811768,
   -1.0854133367538452,
   -2.183363914489746,
   -1.542171835899353,
   -1.7116855382919312,
   -1.2834032773971558,
   -1.8878765106201172,
   -0.44871988892555237,
   -1.3272476196289062,
   -0.6872560381889343,
   -0.31637462973594666,
   -1.1979938745498657,
   1.2185734510421753,
   0.5670812129974365,
   2.192521810531616,
   1.3561733961105347,
   2.7619731426239014,
   0.25194382667541504,
   -1.8984977006912231,
   0.5153849720954895,
   0.7571346759796143,
   0.2590347230434418,
   0.7539321780204773,
   -0.621795117855072,
   -0.6943102478981018,
   0.21705633401870728,
   0.9194628596305847,
   -0.004635601304471493,
   -2.096867799758911,
   -2.3896634578704834,
   0.04746154323220253,
   -1.4027739763259888,
   1.9425950050354004,
   -0.33333030343055725,
   1.996279239654541,
   -0.013440280221402645,
   1.1556141376495361,
   0.6922757029533386,
   0.021248050034046173,
   1.2182550430297852,
   -0.15839849412441254,
   0.11865975707769394,
   1.452176809310913,
   0.7071208357810974,
   2.051483631134033,
   -0.3362763524055481,
   -0.11789562553167343,
   0.226976677775383,
   -0.3943048417568207,
   -0.13010570406913757,
   -0.8309534788131714,
   0.7968849539756775,
   0.6231003403663635,
   0.1407490074634552,
   -1.296054720878601,
   0.5416722893714905,
   0.005480001214891672,
   2.0965795516967773,
   0.9461248517036438,
   -0.5280846953392029,
   -2.5345778465270996,
   -0.20473915338516235,
   0.6120171546936035,
   -1.791736364364624,
   -0.3012750446796417,
   0.5026426315307617,
   0.7488134503364563,
   -0.43161433935165405,
   0.775211751461029,
   1.4168057441711426,
   0.8003817796707153,
   0.3416080176830292,
   -1.1584826707839966,
   -1.2525666952133179,
   -0.3724282383918762,
   -0.016171196475625038,
   -0.08837195485830307,
   1.1092861890792847
  ],
  [
   -0.004377585835754871,
   -0.031122662127017975,
   -0.053311459720134735,
   -0.025752553716301918,
   -0.0151972072198987,
   -0.07676577568054199,
   -0.03555121272802353,
   -0.016594070941209793,
   -0.11937985569238663,
   0.04018399119377136,
   -0.031160615384578705,
   -0.11420276015996933,
   0.05264296382665634,
   -0.07477117329835892,
   -0.01748567633330822,
   0.07297675311565399,
   -0.04473107308149338,
   0.003091914113610983,
   -0.01914447918534279,
   0.029092933982610703,
   -0.05833910405635834,
   -0.10701144486665726,
   -0.033731359988451004,
   0.020732775330543518,
   -0.01638370007276535,
   0.014626417309045792,
   -0.059762101620435715,
   -0.021855179220438004,
   -0.038274072110652924,
   -0.00909982156008482,
   -0.12014565616846085,
   -0.12666301429271698,
   -0.04051549732685089,
   0.022926559671759605,
   0.04438132420182228,
   0.0069567300379276276,
   -0.010030832141637802,
   0.015263978391885757,
   -0.10223238915205002,
   -0.11247217655181885,
   -0.13279470801353455,
   -0.05097765848040581,
   -0.08572518080472946,
   -0.04819630831480026,
   -0.05574744939804077,
   0.015416274778544903,
   -0.007498771883547306,
   0.03358215466141701,
   0.0901990756392479,
   -0.0834776908159256,
   -0.024203285574913025,
   -0.013337941840291023,
   0.02800639159977436,
   -0.08078167587518692,
   -0.10115117579698563,
   -0.08849428594112396,
   0.00876867026090622,
   -0.08693259954452515,
   -0.09246181696653366,
   0.0077378833666443825,
   0.07703378796577454,
   -0.05171055346727371,
   -0.08125966042280197,
   0.029467308893799782,
   -0.06521793454885483,
   -0.09995680302381516,
   -0.08950542658567429,
   -0.06478249281644821,
   -0.09527662396430969,
   -0.07795590907335281,
   -0.11470239609479904,
   -0.04191160202026367,
   0.018289711326360703,
   -0.12155725806951523,
   -0.026019738987088203,
   -0.06300140917301178,
   0.023389233276247978,
   0.06031108647584915,
   -0.038647059351205826,
   -0.09925848245620728,
   -0.09818103909492493,
   -0.11478433012962341,
   0.00195636716671288,
   0.0019505080999806523,
   -0.009409414604306221,
   -0.06657980382442474,
   -0.0009669230203144252,
   -0.12159430235624313,
   4.71078346890863e-05,
   0.08117002993822098,
   -0.14120015501976013,
   -0.07828619331121445,
   0.03838387876749039,
   -0.03619003668427467,
   -0.06789234280586243,
   0.011596539989113808,
   -0.05066147819161415,
   0.0005393628380261362,
   -0.08790065348148346,
   0.026456819847226143
  ],
  [
   1.1370621919631958,
   1.634235143661499,
   -0.6580220460891724,
   -0.4897778332233429,
   -0.2861449420452118,
   -0.49097856879234314,
   0.10104580968618393,
   0.30247241258621216,
   0.5155483484268188,
   0.22877956926822662,
   0.5717301368713379,
   -0.30765295028686523,
   -2.421409845352173,
   -1.6751606464385986,
   0.626549482345581,
   -1.187709927558899,
   -2.1401751041412354,
   -2.3577651977539062,
   -3.6334784030914307,
   0.388933926820755,
   0.9181850552558899,
   -0.10560569167137146,
   -0.5354854464530945,
   -2.568002462387085,
   0.2622378468513489,
   0.7239676117897034,
   -1.9646036624908447,
   0.7455126047134399,
   -1.9583556652069092,
   -1.0009677410125732,
   -0.11000173538923264,
   -1.436910629272461,
   0.22320443391799927,
   -0.8326795697212219,
   0.250979483127594,
   1.4652653932571411,
   1.564421534538269,
   -2.1281092166900635,
   0.926749050617218,
   -0.706668496131897,
   -2.6546101570129395,
   0.5433334708213806,
   1.5711524486541748,
   -0.38885271549224854,
   1.1916226148605347,
   -0.2285177856683731,
   0.02486702799797058,
   -2.077683925628662,
   1.6560959815979004,
   -1.5705490112304688,
   -0.8095799684524536,
   0.5533465147018433,
   -2.515666961669922,
   0.8980472087860107,
   -1.165237307548523,
   1.0106812715530396,
   -0.752037763595581,
   -1.2923529148101807,
   -1.5543009042739868,
   1.040755271911621,
   -0.06657926738262177,
   1.7768903970718384,
   0.26857781410217285,
   0.755485475063324,
   0.3567478060722351,
   1.638439655303955,
   -0.8782253861427307,
   -1.3007696866989136,
   0.46334704756736755,
   1.5884647369384766,
   -1.0588113069534302,
   1.1317557096481323,
   0.41638174653053284,
   -0.2827056348323822,
   -2.0283610820770264,
   1.190010666847229,
   0.6517465710639954,
   0.5069239735603333,
   -0.3105197548866272,
   1.8058806657791138,
   -0.5297831892967224,
   -0.06567467004060745,
   0.8945680856704712,
   1.0325276851654053,
   0.1870383620262146,
   -0.07702678442001343,
   -1.5009161233901978,
   1.314146876335144,
   -0.1399269551038742,
   0.8025851249694824,
   -1.3962856531143188,
   0.15146876871585846,
   -0.5696573257446289,
   -0.7931759357452393,
   1.3649609088897705,
   -0.6980466842651367,
   -1.796467900276184,
   1.6100963354110718,
   -0.407647967338562,
   -0.6722878813743591
  ],
  [
   0.6205013394355774,
   1.5206469297409058,
   0.13532564043998718,
   -0.13706359267234802,
   0.6582459807395935,
   1.8315460681915283,
   -1.11427640914917,
   -3.2799723148345947,
   -0.7333862781524658,
   0.8243162035942078,
   -2.0001533031463623,
   1.1301820278167725,
   0.30405473709106445,
   -1.0541465282440186,
   -1.9098718166351318,
   0.5613462924957275,
   0.995952844619751,
   -0.43236610293388367,
   0.35717707872390747,
   0.13882751762866974,
   1.0475207567214966,
   -0.7015058398246765,
   -0.023558402433991432,
   0.09885281324386597,
   -2.3273227214813232,
   -0.4871690571308136,
   0.008123926818370819,
   -0.16935504972934723,
   -0.4007496237754822,
   -0.12285111844539642,
   -0.33492469787597656,
   -0.30461302399635315,
   0.20375680923461914,
   0.8022750020027161,
   0.820802628993988,
   -0.9562863111495972,
   0.5450857877731323,
   1.1902451515197754,
   -0.24311791360378265,
   1.4220833778381348,
   1.3595950603485107,
   1.7660623788833618,
   -0.9571533203125,
   0.1937956064939499,
   0.49747198820114136,
   -0.40329352021217346,
   0.43376705050468445,
   0.17631539702415466,
   1.5003875494003296,
   -0.879814624786377,
   0.9450150728225708,
   1.4469084739685059,
   -0.18692943453788757,
   0.4382963180541992,
   1.3465690612792969,
   -3.5008339881896973,
   -0.46252697706222534,
   1.1677978038787842,
   0.8635215759277344,
   -0.4964653551578522,
   -2.735074758529663,
   1.9859249591827393,
   0.8918913006782532,
   1.453743577003479,
   1.4067625999450684,
   0.7746971249580383,
   -0.24606016278266907,
   -0.8048506379127502,
   -1.1596218347549438,
   1.0565428733825684,
   -0.4705149829387665,
   -1.6410280466079712,
   -1.7539132833480835,
   0.3123977780342102,
   -1.7003207206726074,
   1.7471681833267212,
   0.6882262229919434,
   0.3238849639892578,
   -0.15441250801086426,
   0.6528311371803284,
   0.8646448254585266,
   1.478737711906433,
   -0.25183674693107605,
   0.9131656289100647,
   0.47836101055145264,
   -0.41305845975875854,
   1.0395947694778442,
   -0.7794099450111389,
   -0.5049566626548767,
   -1.7474180459976196,
   0.7058784365653992,
   -1.7164270877838135,
   -0.6256675720214844,
   0.14090098440647125,
   2.1054441928863525,
   0.9061700701713562,
   -0.5848739743232727,
   -0.5272634029388428,
   0.3822230398654938,
   -0.05895310267806053
  ],
  [
   1.173741340637207,
   0.6863397359848022,
   -2.1803431510925293,
   0.42080438137054443,
   -1.7517709732055664,
   1.4977775812149048,
   0.38241302967071533,
   -0.8593912720680237,
   0.6358119249343872,
   -1.9083433151245117,
   -1.5667206048965454,
   0.8325221538543701,
   1.3798257112503052,
   1.1439670324325562,
   -1.410845398902893,
   0.6398694515228271,
   0.02137637883424759,
   -0.18786466121673584,
   0.049659039825201035,
   0.4898822605609894,
   0.0575384795665741,
   0.9429615139961243,
   -0.2897104322910309,
   -0.3417765498161316,
   -0.6907608509063721,
   0.5969017148017883,
   -1.026696801185608,
   0.5848082900047302,
   0.9187540411949158,
   0.26299864053726196,
   0.2829229533672333,
   0.405799925327301,
   0.3537646234035492,
   0.11925758421421051,
   0.605884313583374,
   -1.577961802482605,
   0.6232447624206543,
   -0.10330197960138321,
   -2.028374195098877,
   -0.3000636696815491,
   0.3553684651851654,
   -0.09308917820453644,
   0.18722590804100037,
   0.9126841425895691,
   0.3058423101902008,
   -0.554053544998169,
   -0.263077974319458,
   -0.8869485259056091,
   1.9247326850891113,
   0.08587584644556046,
   1.3768850564956665,
   -1.7799407243728638,
   -1.0312005281448364,
   -0.6600029468536377,
   -0.6269201040267944,
   0.36885738372802734,
   -0.3057757616043091,
   -0.05933057516813278,
   0.5738629102706909,
   1.5337282419204712,
   0.21810156106948853,
   -0.7472636103630066,
   -0.1821736991405487,
   0.0933409258723259,
   0.4629383087158203,
   -0.39751604199409485,
   -0.10872293263673782,
   -2.0299060344696045,
   -0.3237653374671936,
   0.3436134457588196,
   -1.36198091506958,
   1.566605806350708,
   -0.3472334146499634,
   -0.3211006820201874,
   0.9370718598365784,
   0.6944949626922607,
   0.33307039737701416,
   -1.4082849025726318,
   -0.3208495080471039,
   0.21220825612545013,
   0.7092435359954834,
   -0.0177709199488163,
   -1.3838942050933838,
   -1.4300800561904907,
   0.9630721807479858,
   -0.5949477553367615,
   0.217428520321846,
   0.25137341022491455,
   0.11712603271007538,
   -1.2206006050109863,
   -0.9744415283203125,
   0.32007625699043274,
   0.9899342060089111,
   -0.6294326782226562,
   0.7137409448623657,
   -1.8822600841522217,
   0.49041375517845154,
   -0.13974784314632416,
   1.0468151569366455,
   -0.8793722987174988
  ],
  [
   -0.06357657164335251,
   -0.13754352927207947,
   -0.06417877227067947,
   0.005399370566010475,
   -0.12732094526290894,
   -0.12342052906751633,
   0.0384395457804203,
   -0.08155567944049835,
   0.025827927514910698,
   -0.007574416697025299,
   0.008417240343987942,
   0.022794587537646294,
   -0.15253794193267822,
   0.057807233184576035,
   -0.0352872759103775,
   -0.11790534853935242,
   -0.04330608993768692,
   -0.04646366089582443,
   -0.06567692011594772,
   -0.012054434046149254,
   -0.06304394453763962,
   0.051772866398096085,
   0.04974980652332306,
   -0.03498677909374237,
   -0.140640988945961,
   -0.07763852179050446,
   -0.035162944346666336,
   -0.006405163556337357,
   -0.010634510777890682,
   0.005289900582283735,
   -0.01431981474161148,
   -0.0783943459391594,
   -0.12168271094560623,
   -0.1080847680568695,
   -0.01610863022506237,
   0.01584944874048233,
   -0.04856911674141884,
   0.09107295423746109,
   -0.03686709329485893,
   -0.07559379190206528,
   -0.015528633259236813,
   -0.04192249849438667,
   -0.06460302323102951,
   0.056653305888175964,
   -0.04975394532084465,
   0.05149270221590996,
   -0.01263442449271679,
   -0.034863442182540894,
   0.05694197118282318,
   -0.12034949660301208,
   -0.01662302389740944,
   -0.012583285570144653,
   -0.0044234804809093475,
   -0.13366758823394775,
   -0.037347059696912766,
   -0.08293437212705612,
   0.018756188452243805,
   0.009363883174955845,
   -0.021199937909841537,
   0.02592412382364273,
   -0.08854750543832779,
   0.005014736671000719,
   0.0589987076818943,
   -0.10111416131258011,
   -0.12267296761274338,
   -0.02353811450302601,
   -0.055480729788541794,
   -0.041089121252298355,
   0.031150154769420624,
   -0.03280545026063919,
   -0.12888477742671967,
   -0.06982629746198654,
   0.04031788557767868,
   -0.061663173139095306,
   -0.08814377337694168,
   -0.016215631738305092,
   -0.034718435257673264,
   -0.15315018594264984,
   0.061862513422966,
   0.008284195326268673,
   0.03905504569411278,
   0.02770809456706047,
   -0.08918372541666031,
   -0.07215078175067902,
   0.011916297487914562,
   -0.04198365658521652,
   -0.05329813435673714,
   -0.15147444605827332,
   -0.1238192766904831,
   0.016507131978869438,
   0.025365352630615234,
   -0.09138718992471695,
   -0.13673630356788635,
   0.044139716774225235,
   -0.07734076678752899,
   -0.13013970851898193,
   0.029259737581014633,
   0.02493712678551674,
   -0.09095314890146255,
   -0.12011021375656128
  ],
  [
   -1.8393490314483643,
   0.5152138471603394,
   1.4179400205612183,
   0.9179635047912598,
   0.36269867420196533,
   1.3571721315383911,
   -2.0160815715789795,
   -0.760493278503418,
   0.08890847116708755,
   -0.12246883660554886,
   0.4424908459186554,
   -0.14772002398967743,
   0.7624512910842896,
   1.4694421291351318,
   1.2819381952285767,
   0.5695085525512695,
   -0.637710452079773,
   -1.636880874633789,
   1.865998387336731,
   1.6786681413650513,
   0.3312131464481354,
   -3.3956851959228516,
   1.2017863988876343,
   -0.28474822640419006,
   -2.556110382080078,
   -1.8326311111450195,
   0.5249768495559692,
   -0.6873352527618408,
   2.6182870864868164,
   -0.7236737608909607,
   1.1693787574768066,
   -3.3426356315612793,
   -1.4965455532073975,
   -0.32648950815200806,
   -0.505547821521759,
   1.0825512409210205,
   -2.6814441680908203,
   -0.4153118133544922,
   -1.044487714767456,
   -0.6993446350097656,
   1.6831542253494263,
   1.4214751720428467,
   -0.1233951523900032,
   -0.8678182363510132,
   0.13657240569591522,
   0.02364237606525421,
   0.23279252648353577,
   2.4252378940582275,
   -1.0467464923858643,
   -0.567129373550415,
   -0.14086167514324188,
   0.5218546390533447,
   0.8058282136917114,
   0.40968289971351624,
   -0.5735282301902771,
   -2.6740410327911377,
   0.8460229635238647,
   0.4820195138454437,
   -2.6650326251983643,
   0.021322764456272125,
   -0.7748768329620361,
   0.4769723415374756,
   -0.8394787907600403,
   -1.033348560333252,
   -0.6618512272834778,
   0.6076421737670898,
   -0.09096947312355042,
   0.7167072296142578,
   -0.13996316492557526,
   -0.2893693149089813,
   1.9430410861968994,
   -0.6257920861244202,
   -0.4897529184818268,
   -1.6717661619186401,
   -0.8339722752571106,
   0.11292756348848343,
   1.0240360498428345,
   0.36794883012771606,
   1.9626328945159912,
   -1.796911597251892,
   1.0223067998886108,
   -0.3638737201690674,
   0.054955869913101196,
   -0.3191845715045929,
   -0.6489018797874451,
   -0.7648091912269592,
   1.2634732723236084,
   -2.780642509460449,
   1.0970340967178345,
   -1.015807032585144,
   -0.17953240871429443,
   -0.2556561529636383,
   0.36462077498435974,
   1.1564761400222778,
   1.5011262893676758,
   0.8976565599441528,
   1.6792149543762207,
   1.4919787645339966,
   0.29832854866981506,
   -1.1771395206451416
  ],
  [
   -0.5176683068275452,
   -3.947788715362549,
   0.972950279712677,
   1.735388994216919,
   -0.6014497876167297,
   0.05616719275712967,
   -1.2170532941818237,
   1.0819610357284546,
   -1.3056983947753906,
   -1.4924124479293823,
   0.8497946858406067,
   -2.1195461750030518,
   0.8676479458808899,
   -0.43353453278541565,
   0.43579360842704773,
   0.7071897983551025,
   0.2915346920490265,
   -0.5709431171417236,
   1.3131675720214844,
   1.1459238529205322,
   -2.029754400253296,
   0.14667679369449615,
   -1.1312144994735718,
   -0.34813788533210754,
   -1.5537118911743164,
   -0.22630764544010162,
   1.003671646118164,
   -1.2855539321899414,
   0.46997153759002686,
   -0.808728039264679,
   -0.1780843436717987,
   1.2772691249847412,
   -0.35592472553253174,
   -2.8715457916259766,
   -1.586001992225647,
   1.9561516046524048,
   0.435505747795105,
   0.025822212919592857,
   2.36501407623291,
   -1.6857645511627197,
   0.9368524551391602,
   0.20736846327781677,
   1.0466233491897583,
   0.43887558579444885,
   1.4269465208053589,
   -1.281004548072815,
   -4.860871315002441,
   -0.34341439604759216,
   -1.5196444988250732,
   0.14638596773147583,
   -1.2237390279769897,
   -2.7350127696990967,
   -0.22413285076618195,
   -3.7897260189056396,
   -2.380427598953247,
   -0.1081935465335846,
   0.4360462725162506,
   0.869400143623352,
   0.3499607741832733,
   -0.05419974774122238,
   1.73811936378479,
   -0.15175610780715942,
   -0.5169187188148499,
   -0.4302006661891937,
   -0.16866400837898254,
   0.8837018013000488,
   0.40164899826049805,
   -2.6215577125549316,
   0.1343734711408615,
   -0.853528618812561,
   -0.16205456852912903,
   0.2666302025318146,
   1.5202808380126953,
   0.8577496409416199,
   0.27596142888069153,
   0.12216885387897491,
   0.6488884687423706,
   -0.7691863179206848,
   -1.803372859954834,
   1.4596790075302124,
   -1.8438481092453003,
   -2.0226199626922607,
   -0.5233431458473206,
   0.9786509871482849,
   -0.7977216243743896,
   0.03262663632631302,
   -0.27884840965270996,
   0.9593551754951477,
   -0.5513678193092346,
   -1.1688429117202759,
   0.7199731469154358,
   1.1947664022445679,
   0.3291173577308655,
   1.2405853271484375,
   0.9003540873527527,
   -1.0900074243545532,
   -0.0020287237130105495,
   0.750728964805603,
   0.7996009588241577,
   0.7963440418243408
  ],
  [
   0.8846879601478577,
   -1.8377095460891724,
   1.9702311754226685,
   0.137850821018219,
   -0.21152004599571228,
   0.9836081862449646,
   0.634515106678009,
   1.5597515106201172,
   0.05971991643309593,
   -0.32705336809158325,
   1.586411952972412,
   2.041900157928467,
   -0.4754851162433624,
   0.10196229070425034,
   0.27397945523262024,
   0.5712476968765259,
   -1.1405640840530396,
   0.9611329436302185,
   0.42436298727989197,
   -2.71166729927063,
   -1.041496992111206,
   0.15616479516029358,
   -0.03305082395672798,
   -0.37033402919769287,
   0.7925641536712646,
   0.4352511465549469,
   0.6243714094161987,
   -0.16639068722724915,
   -0.07979802042245865,
   0.8534936308860779,
   -0.793508768081665,
   -1.4078505039215088,
   0.7395514249801636,
   -1.0414280891418457,
   1.6498850584030151,
   0.5708842873573303,
   -0.47616341710090637,
   0.8437630534172058,
   0.9163673520088196,
   1.0994454622268677,
   -0.547411322593689,
   -1.068704605102539,
   0.925940990447998,
   -2.074678659439087,
   -0.7595186233520508,
   0.34508606791496277,
   0.4959239959716797,
   0.25423020124435425,
   1.3892459869384766,
   -0.7823858857154846,
   0.6657533645629883,
   -0.4229295253753662,
   -2.376286745071411,
   0.404464453458786,
   -2.0048646926879883,
   1.664462924003601,
   0.6846594214439392,
   -0.17789487540721893,
   -0.48036178946495056,
   0.19714610278606415,
   0.48626694083213806,
   0.37870943546295166,
   0.13914909958839417,
   -0.5675070285797119,
   0.3786278963088989,
   -1.0017478466033936,
   1.9287573099136353,
   1.0783166885375977,
   0.41930606961250305,
   -1.5943782329559326,
   1.3290802240371704,
   0.10626018792390823,
   -0.1965530663728714,
   0.6164777278900146,
   -0.9432795643806458,
   0.22313228249549866,
   1.200644612312317,
   -1.8475781679153442,
   0.2455282062292099,
   0.5557639598846436,
   0.7750729322433472,
   0.9280917048454285,
   0.7027367949485779,
   -0.3581671714782715,
   0.7913995385169983,
   0.8571168780326843,
   -0.705365777015686,
   -1.4818899631500244,
   -0.30810052156448364,
   -0.9391171932220459,
   -0.12701168656349182,
   0.7236379981040955,
   -0.893909752368927,
   0.5718583464622498,
   -0.2071000039577484,
   -0.5494651794433594,
   -1.3956693410873413,
   2.1653225421905518,
   0.5293978452682495,
   1.6588494777679443
  ],
  [
   1.7125084400177002,
   0.6793810129165649,
   2.181121349334717,
   -0.7007308006286621,
   -0.10757633298635483,
   -1.2964117527008057,
   -1.54541015625,
   -0.5685610175132751,
   -0.5311078429222107,
   1.5440523624420166,
   -0.03593188524246216,
   -0.48879683017730713,
   -0.25686973333358765,
   0.5512558221817017,
   1.1470057964324951,
   0.0388079471886158,
   -0.21914540231227875,
   -0.5436707735061646,
   -1.4574904441833496,
   0.13652007281780243,
   1.129961609840393,
   0.7510867118835449,
   -0.89771968126297,
   0.6669560074806213,
   -0.1584276407957077,
   0.8942200541496277,
   -0.5059477686882019,
   -0.6250044703483582,
   0.8510607481002808,
   0.11093583703041077,
   -0.8766892552375793,
   0.430035799741745,
   1.8564388751983643,
   -1.4460121393203735,
   -0.32922136783599854,
   0.13244247436523438,
   1.9449251890182495,
   0.7018328309059143,
   2.571023464202881,
   -0.7191292643547058,
   0.5478960275650024,
   1.3085483312606812,
   0.508051872253418,
   0.1642693430185318,
   1.390357494354248,
   -0.4881330728530884,
   -0.1780611127614975,
   -0.4431960880756378,
   -0.8803783059120178,
   -0.5081771016120911,
   0.4732702672481537,
   -0.44231805205345154,
   0.3464917838573456,
   -0.4876857399940491,
   -1.366491675376892,
   -0.6064041256904602,
   -0.6770540475845337,
   -1.286048173904419,
   -0.6471046805381775,
   0.6222581267356873,
   -0.24580886960029602,
   -0.7704339623451233,
   1.1476799249649048,
   -0.9923445582389832,
   1.0243582725524902,
   -1.5116019248962402,
   0.26350682973861694,
   -1.5336384773254395,
   1.0283359289169312,
   -0.42322859168052673,
   -0.7177147269248962,
   1.4868848323822021,
   0.7569504976272583,
   0.33057117462158203,
   0.4914994239807129,
   0.09188217669725418,
   1.1506634950637817,
   0.8461356163024902,
   -0.17217384278774261,
   -0.11262164264917374,
   -1.5886763334274292,
   -2.845669984817505,
   -0.8949853181838989,
   0.5920143723487854,
   -0.7533736228942871,
   0.2409515231847763,
   0.42868468165397644,
   0.4914260804653168,
   0.2668738067150116,
   -1.549561858177185,
   -0.05536780506372452,
   0.6310455799102783,
   2.109618902206421,
   0.5391165614128113,
   0.07732974737882614,
   0.973746120929718,
   0.07795385271310806,
   -0.82015061378479,
   -0.5040379166603088,
   1.1301668882369995
  ],
  [
   -0.046044062823057175,
   -0.1141381561756134,
   0.05242358520627022,
   -0.07905733585357666,
   -0.026278331875801086,
   0.025782009586691856,
   0.020820453763008118,
   -0.07419527322053909,
   -0.07133190333843231,
   0.013569273054599762,
   -0.07316020131111145,
   -0.015298527665436268,
   -0.12082624435424805,
   0.022960135713219643,
   -0.012080421671271324,
   -0.07508302479982376,
   -0.1249760091304779,
   -0.08625859022140503,
   -0.027905335649847984,
   -0.01888706348836422,
   -0.11308123171329498,
   0.056783322244882584,
   -0.04719770327210426,
   0.025616241618990898,
   0.046987615525722504,
   -0.0682302787899971,
   -0.07904119044542313,
   -0.09307040274143219,
   -0.09274344891309738,
   -0.12709014117717743,
   -0.08804551512002945,
   -0.0741451159119606,
   0.010197692550718784,
   0.0948486402630806,
   0.07397252321243286,
   0.02778324857354164,
   -0.018046973273158073,
   -0.01757231168448925,
   0.025060292333364487,
   -0.05782805755734444,
   -0.03304125368595123,
   -0.08198520541191101,
   -0.12149646133184433,
   -0.04796299338340759,
   -0.06128101050853729,
   -0.08900958299636841,
   -0.15029999613761902,
   -0.015024106949567795,
   0.07324723899364471,
   -0.1218940019607544,
   -0.11895548552274704,
   -0.03533051908016205,
   -0.04542098566889763,
   -0.042884498834609985,
   -0.033890701830387115,
   0.03149498254060745,
   -0.032075926661491394,
   -0.09831631183624268,
   0.0065477448515594006,
   0.017763320356607437,
   -0.05311635881662369,
   0.04731178283691406,
   -0.05100641027092934,
   0.0171651728451252,
   -0.06366743892431259,
   -0.08613379299640656,
   0.032101165503263474,
   -0.14731882512569427,
   -0.04889122024178505,
   -0.14578546583652496,
   -0.06791704148054123,
   -0.083654023706913,
   -0.11648861318826675,
   0.03730055317282677,
   -0.0831335261464119,
   -0.13529574871063232,
   -0.02272956259548664,
   -0.05625887215137482,
   -0.003171598771587014,
   -0.11644665896892548,
   -0.0993722677230835,
   -0.009741700254380703,
   0.012977716512978077,
   -0.05536814406514168,
   0.026624487712979317,
   0.0653885081410408,
   -0.14897345006465912,
   0.04235660284757614,
   0.003101706737652421,
   -0.1314963549375534,
   0.034262802451848984,
   -0.024611232802271843,
   -0.04459778591990471,
   0.018228869885206223,
   -0.043905921280384064,
   0.09684137254953384,
   -0.07409244775772095,
   -0.07555922120809555,
   0.008995657786726952,
   0.08685898035764694
  ],
  [
   0.9476807117462158,
   0.19409926235675812,
   1.770202398300171,
   -1.9639172554016113,
   0.4248422682285309,
   -0.020249050110578537,
   -0.24076978862285614,
   0.5597165822982788,
   -2.0707123279571533,
   -0.04170859232544899,
   -0.01031764131039381,
   -1.4081463813781738,
   0.5220956802368164,
   -0.03461975231766701,
   3.112880229949951,
   0.33725497126579285,
   0.6902801990509033,
   1.1109176874160767,
   -0.04397481307387352,
   -0.26193851232528687,
   -1.129418969154358,
   0.7011491060256958,
   0.38974514603614807,
   0.5879666209220886,
   0.5605050921440125,
   -0.35333189368247986,
   0.468073308467865,
   -0.6882138252258301,
   -0.1482744961977005,
   1.56721031665802,
   -0.5532079935073853,
   -1.8626899719238281,
   1.102687954902649,
   0.6514861583709717,
   -0.8550586104393005,
   1.7974882125854492,
   1.3737074136734009,
   -0.5756843686103821,
   0.7250191569328308,
   0.5099427103996277,
   -0.9839744567871094,
   0.08239374309778214,
   -0.9789795279502869,
   0.4082101583480835,
   0.11984656006097794,
   0.1973801553249359,
   -0.23245859146118164,
   0.700774610042572,
   1.5742273330688477,
   0.48875224590301514,
   -0.3624809682369232,
   0.7786270976066589,
   1.7786533832550049,
   1.0848051309585571,
   1.0029237270355225,
   0.7359032034873962,
   0.5961658954620361,
   0.2910608649253845,
   1.136050820350647,
   -2.4774019718170166,
   0.41312235593795776,
   1.4964373111724854,
   -0.34290409088134766,
   0.16673192381858826,
   2.3229827880859375,
   1.003363013267517,
   0.6487853527069092,
   1.8231881856918335,
   1.3001784086227417,
   0.26361578702926636,
   -0.33761051297187805,
   1.1390786170959473,
   -1.934401512145996,
   0.7332573533058167,
   0.666662871837616,
   -1.2439069747924805,
   0.386957049369812,
   0.19285781681537628,
   0.06546813994646072,
   1.2927052974700928,
   -0.7111149430274963,
   -2.071428060531616,
   -0.11113103479146957,
   0.8429017663002014,
   -0.2876960039138794,
   -0.01172102615237236,
   0.13651159405708313,
   0.8598150014877319,
   -1.9072421789169312,
   0.13724136352539062,
   0.9393734335899353,
   -0.044874683022499084,
   -1.9024008512496948,
   0.996857225894928,
   0.9331043362617493,
   0.9554736018180847,
   0.21215885877609253,
   -0.16475899517536163,
   -0.8396755456924438,
   0.157025545835495
  ],
  [
   -0.915178120136261,
   -0.1856938749551773,
   0.14796100556850433,
   -1.7078322172164917,
   -1.6395741701126099,
   2.892324924468994,
   2.7599260807037354,
   -0.1135958656668663,
   0.5227027535438538,
   0.5049002766609192,
   -0.07720861583948135,
   0.9742345213890076,
   -0.06873302161693573,
   -2.589850664138794,
   -2.922896385192871,
   0.17521275579929352,
   -0.47841721773147583,
   -0.8500921130180359,
   -2.4027419090270996,
   -0.6455352902412415,
   -0.4414742887020111,
   0.8306565284729004,
   -3.431511163711548,
   -1.7711573839187622,
   0.8485742211341858,
   -0.4019681513309479,
   0.3033987283706665,
   -0.3099971115589142,
   0.511465847492218,
   1.1751089096069336,
   -0.6919469833374023,
   0.7215251326560974,
   -1.8185876607894897,
   1.0761315822601318,
   0.8868767023086548,
   0.7308497428894043,
   1.192936658859253,
   -1.080633282661438,
   -2.59196138381958,
   0.5968928933143616,
   0.3463194966316223,
   -1.5251833200454712,
   0.7936139106750488,
   -3.9761736392974854,
   -0.11270955204963684,
   -1.4753153324127197,
   0.796489417552948,
   1.023750901222229,
   2.0017240047454834,
   -2.4269158840179443,
   -1.582247018814087,
   0.942065417766571,
   0.016297653317451477,
   0.8136324882507324,
   -1.386008858680725,
   -0.3124881684780121,
   -1.3418660163879395,
   -0.6618907451629639,
   0.8113946914672852,
   0.3682636618614197,
   0.8042501211166382,
   -2.6357624530792236,
   -0.8713294863700867,
   -2.1299965381622314,
   -1.171993613243103,
   -0.6586238145828247,
   0.5334946513175964,
   -1.444197416305542,
   -1.2770402431488037,
   0.9091042280197144,
   -0.9355741739273071,
   0.7946719527244568,
   0.8267362713813782,
   -0.5972752571105957,
   0.0038609933108091354,
   -0.2008828967809677,
   0.9707686901092529,
   -0.472099244594574,
   -0.42007189989089966,
   0.31457823514938354,
   0.4319588840007782,
   0.9827871322631836,
   0.030029281973838806,
   0.06931375712156296,
   -2.1585614681243896,
   -2.427506923675537,
   1.0594265460968018,
   -0.13570590317249298,
   -0.4395611882209778,
   1.1316856145858765,
   -1.2903432846069336,
   1.0083335638046265,
   -0.815442681312561,
   -2.731781482696533,
   -0.5841841697692871,
   2.248091220855713,
   -1.9681673049926758,
   -0.29553356766700745,
   0.8684572577476501,
   -1.5530686378479004
  ],
  [
   1.0602102279663086,
   -0.36045798659324646,
   0.10847006738185883,
   -2.2768959999084473,
   -1.4228830337524414,
   -0.046453408896923065,
   0.359565794467926,
   0.8728113770484924,
   -0.5486221313476562,
   0.3000930845737457,
   0.1428585797548294,
   -1.2165608406066895,
   2.192512035369873,
   -1.4744269847869873,
   -0.024214589968323708,
   0.22233963012695312,
   0.5250210165977478,
   1.1230039596557617,
   0.24187488853931427,
   -1.3446838855743408,
   -0.38562917709350586,
   -0.7654304504394531,
   -2.8495495319366455,
   -0.7318975329399109,
   -0.7123112082481384,
   -1.3510711193084717,
   0.6715617179870605,
   -1.5967901945114136,
   -0.004715547896921635,
   1.3887590169906616,
   -1.2133699655532837,
   -1.5155242681503296,
   0.4895215928554535,
   -1.515829086303711,
   -2.175245761871338,
   1.6504015922546387,
   -0.009671525098383427,
   -0.9835252165794373,
   1.5235697031021118,
   0.5546562671661377,
   -0.29469025135040283,
   0.8395264744758606,
   0.28995299339294434,
   -1.880517601966858,
   1.3545316457748413,
   0.2877964377403259,
   -2.301928997039795,
   -0.9518577456474304,
   0.41830921173095703,
   -2.3211443424224854,
   -1.9635885953903198,
   -0.17678242921829224,
   1.2876750230789185,
   -1.1028168201446533,
   -0.6244959831237793,
   1.201869010925293,
   -0.3102165460586548,
   -0.182634636759758,
   -1.6341373920440674,
   -0.15596960484981537,
   -1.0045888423919678,
   0.5631867051124573,
   -0.480122834444046,
   -0.6890510320663452,
   1.2305371761322021,
   -1.5915064811706543,
   -0.09007354080677032,
   -0.30851686000823975,
   -0.12475072592496872,
   -2.325028896331787,
   0.14238955080509186,
   0.5476611852645874,
   0.10885319858789444,
   -0.3018798828125,
   -1.0823173522949219,
   -0.5233503580093384,
   0.032128237187862396,
   -4.067955493927002,
   1.413394570350647,
   1.3221796751022339,
   1.2248531579971313,
   -0.8460915684700012,
   0.7899075746536255,
   -0.9245181083679199,
   0.9741026759147644,
   1.135237455368042,
   -1.5685175657272339,
   -0.4971161186695099,
   -1.0476022958755493,
   -0.48065003752708435,
   0.79212486743927,
   1.0284500122070312,
   0.3330235779285431,
   -0.09351862967014313,
   0.3271145820617676,
   -0.9173251390457153,
   -1.728931188583374,
   0.4241572320461273,
   -0.7684293985366821,
   -1.3295660018920898
  ],
  [
   -0.7412218451499939,
   0.5300105810165405,
   -0.341783344745636,
   0.3043336272239685,
   -0.1666548252105713,
   -0.6332142353057861,
   1.532114028930664,
   -0.697075366973877,
   -0.535302460193634,
   -0.14373338222503662,
   -0.23358945548534393,
   -0.9714804291725159,
   1.840187430381775,
   0.3424062728881836,
   0.15956121683120728,
   0.8263876438140869,
   0.3184756636619568,
   0.9547818303108215,
   -1.9008597135543823,
   -1.7390474081039429,
   0.36626508831977844,
   0.8369272947311401,
   -1.256699562072754,
   0.43503934144973755,
   0.6833597421646118,
   -0.8918119668960571,
   -0.20881737768650055,
   0.31552737951278687,
   -0.4223838746547699,
   -1.878712773323059,
   0.06234469637274742,
   0.5235249996185303,
   -0.047436535358428955,
   0.42969632148742676,
   0.31603166460990906,
   -1.104638934135437,
   1.2572230100631714,
   -0.03256554901599884,
   0.7842608094215393,
   -0.3703487515449524,
   -0.9266051054000854,
   -0.44766589999198914,
   2.507272958755493,
   -0.20652127265930176,
   0.004381478298455477,
   1.1899532079696655,
   0.3384532928466797,
   0.8350520730018616,
   1.1328433752059937,
   -1.6862366199493408,
   0.0552341490983963,
   0.6450092196464539,
   2.305788516998291,
   0.5788646936416626,
   -0.0790824294090271,
   0.6353741884231567,
   0.8021743297576904,
   -1.010024905204773,
   1.9422965049743652,
   -0.7602096199989319,
   0.8098384737968445,
   1.3476665019989014,
   0.1090923547744751,
   -1.5911355018615723,
   2.469900608062744,
   -2.289915084838867,
   0.04128784313797951,
   0.6108191609382629,
   -0.5333178043365479,
   0.9569578766822815,
   0.2927458882331848,
   0.6191986203193665,
   0.6173145771026611,
   -0.5841817259788513,
   1.826928973197937,
   -0.17527523636817932,
   -1.0251542329788208,
   -1.1239596605300903,
   -1.9037083387374878,
   -0.744513750076294,
   -0.23997080326080322,
   -0.6466796398162842,
   -0.87577223777771,
   0.5708902478218079,
   -1.366061806678772,
   0.8914598822593689,
   0.10801082104444504,
   -0.5536864995956421,
   -1.0239710807800293,
   0.5080981850624084,
   0.2866215407848358,
   1.0294114351272583,
   -0.24955958127975464,
   -0.5651618838310242,
   -1.0537965297698975,
   0.34894511103630066,
   0.27399516105651855,
   0.8415471911430359,
   -2.197486639022827,
   -0.5623437166213989
  ],
  [
   -2.2249093055725098,
   -0.3096357583999634,
   -0.9295804500579834,
   2.142383575439453,
   0.16678057610988617,
   -0.7815127968788147,
   0.5278586745262146,
   -1.3470772504806519,
   -1.5259175300598145,
   0.0737668052315712,
   -0.5257275700569153,
   2.3604519367218018,
   -0.4896400272846222,
   0.9642799496650696,
   0.12586231529712677,
   -1.9881107807159424,
   1.1701768636703491,
   -0.8925838470458984,
   -0.5298210978507996,
   0.08900132030248642,
   -1.329683780670166,
   -0.035551149398088455,
   1.2903077602386475,
   -0.20458316802978516,
   0.8977878093719482,
   0.7936074137687683,
   0.6161192059516907,
   -0.4065738618373871,
   0.3720718324184418,
   -1.3183666467666626,
   -0.7237318158149719,
   0.800620973110199,
   2.7690682411193848,
   0.511272132396698,
   1.506113052368164,
   0.000853845733217895,
   1.128308892250061,
   0.7755846381187439,
   0.2536194622516632,
   -2.1604843139648438,
   1.3645145893096924,
   0.5358203649520874,
   1.3220407962799072,
   -0.051932886242866516,
   -0.8054955005645752,
   0.7727867364883423,
   0.3774484097957611,
   -0.8149551749229431,
   -0.7297747731208801,
   1.6635897159576416,
   -0.29735174775123596,
   1.4045281410217285,
   -0.08755799382925034,
   0.0663977786898613,
   1.8497265577316284,
   -0.10331106930971146,
   0.040716711431741714,
   -0.6227334141731262,
   0.5645087361335754,
   -1.426783561706543,
   -2.1528446674346924,
   -0.03620986267924309,
   1.7632492780685425,
   0.5250234603881836,
   0.799640953540802,
   -0.28752565383911133,
   0.515541672706604,
   -0.3978709876537323,
   -0.18658772110939026,
   1.158036231994629,
   0.15533447265625,
   0.08658894151449203,
   1.74857759475708,
   0.6420208215713501,
   -3.1554789543151855,
   -0.7097157835960388,
   -1.5149401426315308,
   0.5179682374000549,
   -1.936272382736206,
   -0.1719934195280075,
   -1.9983631372451782,
   1.3255316019058228,
   -0.4963802397251129,
   0.22539152204990387,
   0.28082290291786194,
   1.0753659009933472,
   0.5377818942070007,
   -0.5926437973976135,
   1.1828285455703735,
   0.15430641174316406,
   0.6584105491638184,
   0.11450929939746857,
   1.3897253274917603,
   0.7264376878738403,
   0.7578632831573486,
   -0.4368661344051361,
   0.0827157124876976,
   -0.4354991018772125,
   -2.794501304626465,
   1.4613561630249023
  ],
  [
   -3.3445427417755127,
   -0.03823260962963104,
   -1.0595346689224243,
   0.7245752811431885,
   0.512218177318573,
   0.1411193609237671,
   -0.1848440319299698,
   -0.474736750125885,
   0.3491651713848114,
   -0.584911048412323,
   -0.7983497381210327,
   -1.5662691593170166,
   0.40992698073387146,
   0.6896798014640808,
   0.5118334293365479,
   0.08949444442987442,
   0.4853859543800354,
   1.468750238418579,
   -0.76274573802948,
   0.9339540600776672,
   1.2977206707000732,
   1.1558321714401245,
   0.45199692249298096,
   -0.10068562626838684,
   0.7517014741897583,
   0.800622284412384,
   -1.7385202646255493,
   1.5752147436141968,
   0.5069268941879272,
   -0.7460950613021851,
   0.3090989887714386,
   1.599318265914917,
   -2.624131202697754,
   -0.2271832376718521,
   -1.9626965522766113,
   0.8116631507873535,
   -2.076909065246582,
   2.819611072540283,
   -1.7935994863510132,
   -0.0841488167643547,
   -0.3239496946334839,
   0.5133106112480164,
   -1.1298569440841675,
   -0.9397851228713989,
   -2.7940640449523926,
   -1.9946385622024536,
   0.8302063941955566,
   -1.8622924089431763,
   -1.1117018461227417,
   -1.5666981935501099,
   1.2570443153381348,
   -0.3906646966934204,
   -3.7590787410736084,
   0.9514526724815369,
   1.0625500679016113,
   -0.2529543936252594,
   -2.1823275089263916,
   -0.6724811792373657,
   -0.40230822563171387,
   1.1192322969436646,
   -0.6097316145896912,
   0.8866942524909973,
   -0.14668069779872894,
   1.196292757987976,
   -1.808488130569458,
   -0.5199187397956848,
   0.6055410504341125,
   0.05025792494416237,
   -0.14656832814216614,
   0.9468885064125061,
   -0.2342919409275055,
   -1.019544005393982,
   0.10043034702539444,
   0.6609125137329102,
   0.8988534212112427,
   1.336373209953308,
   1.115142583847046,
   0.02513461373746395,
   -0.5483661890029907,
   -4.2897820472717285,
   -0.16884824633598328,
   -3.8482539653778076,
   1.1311850547790527,
   0.8040117621421814,
   0.5698350667953491,
   -1.5668449401855469,
   0.7505428194999695,
   -0.9739924073219299,
   -0.9134389758110046,
   -1.9090359210968018,
   0.5379955172538757,
   -0.9906789660453796,
   -1.3411542177200317,
   0.5215598344802856,
   1.0142254829406738,
   -0.40957778692245483,
   -0.8669738173484802,
   0.5584728717803955,
   0.19389669597148895,
   -0.018744951114058495
  ],
  [
   2.4549121856689453,
   0.8438119888305664,
   -1.1260757446289062,
   0.2271474301815033,
   0.3695111572742462,
   -0.7392985224723816,
   -1.1558332443237305,
   -2.1300907135009766,
   0.6670933365821838,
   0.7653520107269287,
   -0.9000676870346069,
   0.20145872235298157,
   0.3697785437107086,
   -0.23833118379116058,
   -0.029828855767846107,
   1.2829604148864746,
   -0.8804202675819397,
   1.1327508687973022,
   0.1273864507675171,
   0.7186363935470581,
   2.0499048233032227,
   -0.8920740485191345,
   -0.1642824411392212,
   -0.7030178904533386,
   -2.1945016384124756,
   -0.5483079552650452,
   -1.0625730752944946,
   -2.239302158355713,
   0.26647326350212097,
   -0.8405076265335083,
   1.17100191116333,
   -1.4386965036392212,
   -0.6818255186080933,
   -0.26761433482170105,
   -0.26367902755737305,
   -0.5299679040908813,
   -0.26705098152160645,
   0.5176623463630676,
   -0.08724530786275864,
   0.008784010075032711,
   -0.43975988030433655,
   0.6139072775840759,
   0.6597208380699158,
   0.34255510568618774,
   1.1563622951507568,
   0.07943014055490494,
   1.1720160245895386,
   1.380726933479309,
   -1.4418681859970093,
   -0.21290166676044464,
   0.12308286130428314,
   -0.24768079817295074,
   0.3690200448036194,
   0.5989163517951965,
   0.45790573954582214,
   -1.4792367219924927,
   -0.2721860110759735,
   -0.11525342613458633,
   -0.253648042678833,
   -1.039146900177002,
   0.29802581667900085,
   1.5327098369598389,
   -0.0350223034620285,
   0.09473550319671631,
   1.8436851501464844,
   -0.8775779604911804,
   0.11677244305610657,
   -2.0641019344329834,
   -1.2718455791473389,
   1.8366364240646362,
   0.971403181552887,
   0.1103772446513176,
   0.8364742994308472,
   -0.5046449899673462,
   -0.5121299624443054,
   0.26454153656959534,
   -0.4998922049999237,
   0.7921509146690369,
   -0.42039817571640015,
   0.5788429379463196,
   0.9717579483985901,
   1.4397881031036377,
   0.8156556487083435,
   1.0000532865524292,
   0.20748025178909302,
   0.010633544996380806,
   0.14479151368141174,
   1.0353351831436157,
   0.44604289531707764,
   -2.045966625213623,
   -0.060492776334285736,
   0.4276438057422638,
   -2.7889068126678467,
   0.3822437822818756,
   1.5976502895355225,
   1.3754340410232544,
   -1.0182682275772095,
   -0.8322082757949829,
   -0.8629661798477173,
   0.7284771203994751
  ],
  [
   -1.0949593782424927,
   0.5199928283691406,
   -1.6826046705245972,
   1.1579716205596924,
   -0.018820686265826225,
   -0.3150794804096222,
   1.5944383144378662,
   0.006859561428427696,
   -0.7505241632461548,
   0.5223268270492554,
   -0.668938398361206,
   0.5535891056060791,
   1.2230972051620483,
   -0.6166514754295349,
   -4.382028579711914,
   -0.890870988368988,
   0.5341529846191406,
   0.09058323502540588,
   -1.395124077796936,
   -0.14662505686283112,
   0.5903845429420471,
   -0.2801544964313507,
   0.5524510741233826,
   -0.6225364804267883,
   -0.1546648144721985,
   0.6570167541503906,
   0.034996695816516876,
   1.6495490074157715,
   -0.6874104142189026,
   -0.2801172435283661,
   0.4661830961704254,
   -0.4601038992404938,
   1.0126780271530151,
   2.767711639404297,
   2.030299425125122,
   -1.167624831199646,
   1.620437502861023,
   -0.0807683914899826,
   -2.7611052989959717,
   0.9712866544723511,
   0.16736426949501038,
   0.22153016924858093,
   0.0903160497546196,
   -1.5014561414718628,
   -0.35193613171577454,
   0.7305145859718323,
   0.55644291639328,
   -0.7027738094329834,
   0.15600131452083588,
   -0.09878039360046387,
   1.32974112033844,
   0.12830647826194763,
   0.5219976902008057,
   0.5461834669113159,
   -0.7995956540107727,
   -1.5435476303100586,
   -2.1993770599365234,
   -2.5626933574676514,
   0.2534095048904419,
   0.3812563121318817,
   -2.425280809402466,
   -0.22653520107269287,
   1.7626957893371582,
   0.8148108124732971,
   1.7100714445114136,
   -1.2631597518920898,
   -1.2406470775604248,
   -0.5370780229568481,
   0.08008508384227753,
   0.8601000905036926,
   -1.722167730331421,
   -0.3771713674068451,
   -0.2984921932220459,
   -0.7458969354629517,
   0.11631186306476593,
   0.298654168844223,
   0.4114903211593628,
   -0.21860502660274506,
   -0.2006230652332306,
   0.8869914412498474,
   1.5478315353393555,
   -0.7625252604484558,
   -0.3671649098396301,
   -0.4824530780315399,
   1.0781821012496948,
   -1.0267581939697266,
   -0.3584196865558624,
   0.4182565212249756,
   1.0040671825408936,
   0.18015827238559723,
   -1.0895698070526123,
   -1.4533518552780151,
   -2.785480260848999,
   -1.5896410942077637,
   0.09651216119527817,
   -1.49214506149292,
   -1.0161139965057373,
   -1.126634120941162,
   -1.0969293117523193,
   -0.13364069163799286
  ],
  [
   -0.4744296669960022,
   1.196146845817566,
   0.1302100569009781,
   2.060228109359741,
   -0.6972548961639404,
   1.6806484460830688,
   -2.4073386192321777,
   -0.3039179742336273,
   0.011223608627915382,
   0.7415692210197449,
   -3.962312936782837,
   1.0037322044372559,
   -1.0029981136322021,
   0.47951534390449524,
   0.3272498846054077,
   -0.035317692905664444,
   -0.4114225506782532,
   -1.4988712072372437,
   -0.6064814925193787,
   -0.9878818392753601,
   0.40465328097343445,
   -0.4188227653503418,
   0.43127936124801636,
   1.410487174987793,
   -1.4346139430999756,
   0.1206769198179245,
   1.2141538858413696,
   -1.5905907154083252,
   0.6215753555297852,
   -0.4446309208869934,
   0.9603928327560425,
   -2.2705366611480713,
   -0.29443415999412537,
   0.2852860391139984,
   2.0800507068634033,
   0.7147394418716431,
   0.7593808770179749,
   0.5469520092010498,
   2.1636314392089844,
   0.33948075771331787,
   1.414943814277649,
   -0.3717040419578552,
   1.6353005170822144,
   -0.25603652000427246,
   -0.6941072344779968,
   0.015164322219789028,
   -1.2611457109451294,
   -0.45803195238113403,
   -0.20193013548851013,
   0.6411216855049133,
   -1.5654866695404053,
   2.757298707962036,
   0.23579609394073486,
   -0.8673404455184937,
   0.8803004622459412,
   0.690877377986908,
   -0.2494591474533081,
   -0.2551753520965576,
   0.913019597530365,
   0.7094295620918274,
   0.5049930214881897,
   -2.869948387145996,
   0.09401628375053406,
   2.034667491912842,
   -0.5835462212562561,
   -0.805544376373291,
   -0.4789935052394867,
   -0.307981014251709,
   -1.609678030014038,
   -0.4993111193180084,
   -0.936863899230957,
   -0.5838168859481812,
   -0.33987289667129517,
   0.554373025894165,
   -1.3896167278289795,
   -1.9709861278533936,
   -0.2561124265193939,
   -0.9020048379898071,
   -0.3752707839012146,
   0.5258511304855347,
   -0.9036170244216919,
   0.08085757493972778,
   -0.9158958196640015,
   -1.4752144813537598,
   -1.1238600015640259,
   -0.7418585419654846,
   0.3371780216693878,
   1.5866978168487549,
   -0.9556111097335815,
   -0.35260292887687683,
   0.4413677453994751,
   -2.3979926109313965,
   2.2847766876220703,
   -0.9889621734619141,
   -1.3489444255828857,
   -0.8821495771408081,
   -0.39031150937080383,
   -3.7765839099884033,
   0.0661173164844513,
   1.0879372358322144
  ],
  [
   -0.059207528829574585,
   -0.021615376695990562,
   -0.07460305094718933,
   -0.09155666083097458,
   -0.12332116812467575,
   -0.017428496852517128,
   -0.08096485584974289,
   0.00866097304970026,
   0.011874385178089142,
   -0.015352155081927776,
   -0.11157558113336563,
   -0.03741117939352989,
   -0.06868136674165726,
   -0.15558679401874542,
   0.048525501042604446,
   -0.02806480973958969,
   -0.06734252721071243,
   -0.11860542744398117,
   -0.02188294194638729,
   -0.1431579738855362,
   -0.03752210736274719,
   0.02772846445441246,
   -0.08125542104244232,
   0.021719880402088165,
   -0.07700801640748978,
   -0.13395975530147552,
   -0.12879405915737152,
   0.036921609193086624,
   -0.10993444919586182,
   -0.00866200402379036,
   -0.010579749941825867,
   0.03498583659529686,
   -0.10625298321247101,
   0.06383886188268661,
   -0.12056998908519745,
   -0.08428051322698593,
   0.05599227547645569,
   -0.03657013922929764,
   -0.09887631982564926,
   -0.03558465093374252,
   -0.10740049928426743,
   -0.12824584543704987,
   -0.043965116143226624,
   0.054157357662916183,
   -0.025223709642887115,
   -0.015244098380208015,
   -0.05240488797426224,
   0.07299378514289856,
   0.026502644643187523,
   -0.02881844900548458,
   0.0016003930941224098,
   -0.011474880389869213,
   0.014999412931501865,
   0.004667187109589577,
   0.020800217986106873,
   0.0015082292957231402,
   0.024035494774580002,
   -0.06298583745956421,
   0.02986178547143936,
   -0.022075198590755463,
   0.03394648805260658,
   -0.1045844778418541,
   -0.09133968502283096,
   -0.06619840115308762,
   0.013255223631858826,
   0.051621753722429276,
   -0.08741064369678497,
   0.005212464369833469,
   0.0075636873953044415,
   -0.03979368507862091,
   0.03088424727320671,
   -0.013445706106722355,
   -0.00033058502594940364,
   0.022921718657016754,
   -0.1342170238494873,
   0.030276477336883545,
   0.0452992245554924,
   -0.10685010999441147,
   -0.022509751841425896,
   -0.1804428994655609,
   -0.02854396216571331,
   -0.04977966099977493,
   0.022950980812311172,
   -0.09204135835170746,
   -0.12170698493719101,
   0.04123469814658165,
   0.005300432443618774,
   -0.07482047379016876,
   0.07019023597240448,
   0.045942097902297974,
   -0.03826107829809189,
   -0.015421422198414803,
   -0.025784535333514214,
   -0.030632179230451584,
   -0.05992557853460312,
   -0.10829417407512665,
   -0.07332781702280045,
   0.017327774316072464,
   -0.0646538957953453,
   -0.07560228556394577
  ],
  [
   -0.14428123831748962,
   -0.30935749411582947,
   0.6516018509864807,
   -0.026586730033159256,
   0.26224276423454285,
   0.5279302000999451,
   -0.6964713931083679,
   -0.47548916935920715,
   -0.893880307674408,
   1.4473869800567627,
   -0.3774770498275757,
   -0.4348186254501343,
   0.8827205300331116,
   -0.05850227549672127,
   1.3865984678268433,
   0.7796905636787415,
   -0.11677976697683334,
   -2.0320496559143066,
   -1.18154776096344,
   2.0803446769714355,
   0.20272943377494812,
   0.728442907333374,
   0.2957848012447357,
   -0.762406051158905,
   0.012631176970899105,
   -0.04069531336426735,
   0.026396771892905235,
   -1.7856653928756714,
   1.6330738067626953,
   0.6401767730712891,
   0.21808789670467377,
   -0.18500642478466034,
   1.3647865056991577,
   0.4103158116340637,
   -1.3801774978637695,
   -0.14446692168712616,
   2.366532564163208,
   0.895496666431427,
   -1.2005594968795776,
   -0.3949706256389618,
   0.29933303594589233,
   0.6339685320854187,
   0.3208032548427582,
   0.21412813663482666,
   -0.7920703291893005,
   -0.5422318577766418,
   0.8259451389312744,
   -0.9096559882164001,
   -0.8883161544799805,
   -0.32816094160079956,
   0.39748021960258484,
   -0.599211573600769,
   2.4502553939819336,
   -0.007496402598917484,
   -0.5771047472953796,
   0.8244190216064453,
   -1.6932185888290405,
   -0.7040373086929321,
   0.7048665881156921,
   0.544829249382019,
   -0.6084681749343872,
   -0.7327239513397217,
   0.5455808043479919,
   -1.3597890138626099,
   0.39324837923049927,
   0.3318939805030823,
   -1.5719890594482422,
   0.18575169146060944,
   -0.6500678658485413,
   0.7208952903747559,
   -2.1082844734191895,
   0.15055625140666962,
   0.006588705349713564,
   -0.42242810130119324,
   0.26832059025764465,
   0.2666930854320526,
   1.4617871046066284,
   0.2058827430009842,
   0.5740712881088257,
   -0.12298061698675156,
   -1.4996334314346313,
   -0.9547901749610901,
   0.28803062438964844,
   -0.19530019164085388,
   0.20633162558078766,
   0.9691410660743713,
   1.1064696311950684,
   0.3260929584503174,
   -1.0561857223510742,
   1.1492884159088135,
   -0.07784019410610199,
   -2.4526546001434326,
   1.7964190244674683,
   0.4649085998535156,
   -0.7614637017250061,
   0.920021653175354,
   0.23403573036193848,
   -2.4333677291870117,
   0.15462453663349152,
   1.2100720405578613
  ],
  [
   1.6174885034561157,
   -0.6860020756721497,
   1.8630515336990356,
   0.33799126744270325,
   0.11722975969314575,
   -0.12630631029605865,
   1.335937738418579,
   1.3537036180496216,
   -1.0361993312835693,
   -0.09098050743341446,
   -0.13163653016090393,
   -2.5637567043304443,
   2.82963228225708,
   0.5050426721572876,
   0.12210623174905777,
   -0.16798308491706848,
   0.2867578864097595,
   0.16929781436920166,
   0.855269193649292,
   -1.547836184501648,
   -1.7773282527923584,
   -0.10271398723125458,
   1.3155755996704102,
   -0.8495948910713196,
   -0.20022591948509216,
   -3.463085412979126,
   0.06538744270801544,
   -1.4978216886520386,
   -0.3152414858341217,
   0.853431224822998,
   -0.49306511878967285,
   -0.3541789650917053,
   0.27889829874038696,
   -2.3318800926208496,
   -0.268623948097229,
   -0.14791975915431976,
   1.2325047254562378,
   -0.4357997179031372,
   -1.4357476234436035,
   1.5074111223220825,
   -0.3467179536819458,
   1.5228595733642578,
   -0.5244181156158447,
   0.399030476808548,
   0.2513819634914398,
   -0.06461966037750244,
   -1.5238728523254395,
   1.9364049434661865,
   0.4966869056224823,
   -0.6692306399345398,
   1.1997507810592651,
   -1.3014370203018188,
   0.14883853495121002,
   -1.925554633140564,
   2.667053699493408,
   -1.03352689743042,
   -0.4338505268096924,
   0.40002480149269104,
   -1.0693331956863403,
   -1.0381114482879639,
   0.8509810566902161,
   -0.4186784625053406,
   0.3235401213169098,
   -1.7202621698379517,
   -0.7987416982650757,
   0.4299890697002411,
   0.8424128293991089,
   0.8487883806228638,
   1.3508195877075195,
   0.550548791885376,
   0.3765046298503876,
   -0.6016179323196411,
   -0.11961628496646881,
   0.2404637187719345,
   0.9947525262832642,
   -1.4671564102172852,
   -1.0319217443466187,
   0.3008952736854553,
   0.1796730011701584,
   -0.05149796977639198,
   1.92465078830719,
   -1.41218900680542,
   -0.6849054098129272,
   0.9121138453483582,
   0.1893654763698578,
   -0.15152528882026672,
   0.04642190784215927,
   0.30710190534591675,
   -0.7119881510734558,
   -0.9099707007408142,
   -0.10704873502254486,
   0.6308081746101379,
   -1.1470158100128174,
   0.030156664550304413,
   -1.5499666929244995,
   0.425060510635376,
   -0.05786150321364403,
   -0.9238835573196411,
   -0.24885892868041992,
   -0.7510234117507935
  ],
  [
   -0.04359126836061478,
   -0.06876756250858307,
   0.0006407660548575222,
   -0.0759083703160286,
   0.07581157982349396,
   0.023609763011336327,
   0.028710873797535896,
   0.03049098700284958,
   -0.09761402010917664,
   -0.07876479625701904,
   -0.12814128398895264,
   -0.06868407130241394,
   -0.10065336525440216,
   0.050634581595659256,
   -0.006406140513718128,
   0.039009351283311844,
   -0.1040293499827385,
   0.028557296842336655,
   -0.0650709941983223,
   -0.03747030347585678,
   0.018100257962942123,
   0.020319459959864616,
   -0.07909645885229111,
   0.07667959481477737,
   -0.0455472432076931,
   -0.004127738066017628,
   -0.14716486632823944,
   -0.02164880558848381,
   -0.054591454565525055,
   -0.0940036028623581,
   -0.05080398544669151,
   -0.0248261746019125,
   -0.07267080247402191,
   -0.11253075301647186,
   0.055223140865564346,
   -0.006884410977363586,
   -0.09818428754806519,
   -0.04256091266870499,
   0.027296192944049835,
   -0.013224279507994652,
   -0.012520130723714828,
   -0.02473859116435051,
   -0.020338887348771095,
   -0.09350882470607758,
   -0.06342382729053497,
   0.02591930329799652,
   -0.09732693433761597,
   0.03231518343091011,
   0.06936399638652802,
   -0.09656014293432236,
   -0.09350322932004929,
   0.04941375181078911,
   -0.023458003997802734,
   -0.01849733665585518,
   -0.015197698026895523,
   0.03593330830335617,
   -0.06371285766363144,
   -0.028920268639922142,
   0.04324232041835785,
   -0.0488119013607502,
   -0.08323109894990921,
   -0.026362236589193344,
   -0.06047126650810242,
   -0.03358791396021843,
   0.032226379960775375,
   -0.047007955610752106,
   -0.08455083519220352,
   -0.06080614775419235,
