{
 "pi.0.weight": [
  [
   1.1490892171859741,
   0.6359916925430298,
   -1.1874724626541138
  ],
  [
   -0.11699806898832321,
   0.23375645279884338,
   0.37036728858947754
  ],
  [
   -0.6141104102134705,
   -0.27762216329574585,
   0.1375356912612915
  ],
  [
   0.6379490494728088,
   0.4245290756225586,
   0.4034826159477234
  ],
  [
   -0.6063158512115479,
   -0.960979163646698,
   0.21180735528469086
  ],
  [
   0.14469502866268158,
   0.7512602806091309,
   -1.0034743547439575
  ],
  [
   -0.6642802953720093,
   -0.3714926540851593,
   0.34844881296157837
  ],
  [
   1.3127338886260986,
   0.4398674964904785,
   -0.4623633027076721
  ],
  [
   -1.1212635040283203,
   1.5452333688735962,
   0.19221746921539307
  ],
  [
   -0.8911452889442444,
   1.01376211643219,
   -2.1436386108398438
  ],
  [
   -0.002169025829061866,
   -0.3684445023536682,
   0.03741530701518059
  ],
  [
   -0.16473288834095,
   1.6190139055252075,
   -1.7377943992614746
  ],
  [
   -0.3934822082519531,
   0.13715818524360657,
   0.5212376117706299
  ],
  [
   -1.6036063432693481,
   0.6985720992088318,
   -0.7596946358680725
  ],
  [
   1.323056697845459,
   -0.060408663004636765,
   0.19827231764793396
  ],
  [
   -0.16870519518852234,
   -1.3814231157302856,
   0.5800931453704834
  ],
  [
   7.696879765717313e-05,
   0.19502581655979156,
   0.5286279320716858
  ],
  [
   1.6458145380020142,
   0.6333122253417969,
   -0.7236632108688354
  ],
  [
   -2.4057202339172363,
   0.5335288643836975,
   -0.13994385302066803
  ],
  [
   1.5627331733703613,
   0.5283756256103516,
   -0.11424577236175537
  ],
  [
   -2.405646324157715,
   0.1388472020626068,
   -1.7787200212478638
  ],
  [
   0.5735161304473877,
   0.3539727032184601,
   0.032502416521310806
  ],
  [
   -0.5938854217529297,
   1.2911360263824463,
   0.1404290795326233
  ],
  [
   2.1905086040496826,
   1.1396033763885498,
   -2.2644572257995605
  ],
  [
   0.14362996816635132,
   0.20975883305072784,
   0.41512101888656616
  ],
  [
   -2.374647855758667,
   0.6162989139556885,
   -1.4795631170272827
  ],
  [
   -0.8097053170204163,
   -0.5822398066520691,
   -0.8560755252838135
  ],
  [
   1.1204373836517334,
   1.2547271251678467,
   -2.8305983543395996
  ],
  [
   -1.4045602083206177,
   -0.6212114095687866,
   0.44546881318092346
  ],
  [
   -1.0347998142242432,
   0.569912314414978,
   -1.8895448446273804
  ]
 ],
 "pi.0.bias": [
  0.4014175236225128,
  0.19974836707115173,
  0.9560413956642151,
  -3.1368207931518555,
  0.978230357170105,
  -1.6444271802902222,
  0.7777457237243652,
  -0.6896962523460388,
  -0.29948484897613525,
  -2.285059928894043,
  0.8278781175613403,
  -2.6863536834716797,
  0.5695372223854065,
  -2.808056116104126,
  -0.46955928206443787,
  0.04574742913246155,
  -0.47765418887138367,
  -0.9948031306266785,
  -3.814601182937622,
  -2.2550604343414307,
  -0.5361654758453369,
  0.19322307407855988,
  -0.5004234313964844,
  0.9514349699020386,
  0.5279335975646973,
  -1.0674309730529785,
  -2.0765132904052734,
  0.338530570268631,
  1.2623995542526245,
  -1.8076329231262207
 ],
 "pi.2.weight": [
  [
   4.672428607940674,
   0.1925090104341507,
   -0.8364957571029663,
   -1.5855920314788818,
   -1.2524640560150146,
   -1.3693599700927734,
   -0.5743193030357361,
   -2.7964227199554443,
   -0.19219833612442017,
   -2.114873170852661,
   -0.07287944108247757,
   -2.358175039291382,
   -0.44936370849609375,
   -2.4542229175567627,
   1.6596671342849731,
   0.4411834478378296,
   0.3232918381690979,
   4.421168804168701,
   1.4376146793365479,
   7.527885437011719,
   1.674304485321045,
   0.14289523661136627,
   0.45470741391181946,
   1.6444318294525146,
   -0.21496076881885529,
   1.4807285070419312,
   2.4464874267578125,
   -1.7700599431991577,
   -3.406572103500366,
   -1.7294684648513794
  ]
 ],
 "pi.2.bias": [
  -0.3922756612300873
 ]
}