{
 "pi.0.weight": [
  [
   -2.6280531883239746,
   1.7129638195037842,
   -0.22640252113342285,
   -1.0487804412841797,
   -1.189530611038208,
   0.9956302642822266
  ],
  [
   1.8865821361541748,
   3.963848829269409,
   0.05627021938562393,
   0.11106768250465393,
   -0.1706615388393402,
   1.8933202028274536
  ],
  [
   1.0295565128326416,
   -2.9937398433685303,
   -0.31030914187431335,
   -0.3877699375152588,
   -0.6083019971847534,
   2.0117015838623047
  ],
  [
   -2.5732028484344482,
   -0.120427206158638,
   1.2774204015731812,
   -0.08565568923950195,
   1.774084210395813,
   0.4569641351699829
  ],
  [
   -0.8622403740882874,
   3.3553686141967773,
   0.32472729682922363,
   0.5573550462722778,
   -1.6985094547271729,
   0.24069102108478546
  ],
  [
   0.6325894594192505,
   -2.549410343170166,
   0.09311874955892563,
   -0.8401659727096558,
   1.4187885522842407,
   -0.2386813461780548
  ],
  [
   -1.1795680522918701,
   -1.490596055984497,
   0.9845433235168457,
   0.6099813580513,
   -2.6636574268341064,
   -0.45474717020988464
  ],
  [
   -1.7238508462905884,
   -0.46584612131118774,
   -1.583239197731018,
   -0.45021161437034607,
   1.4084869623184204,
   1.787106990814209
  ],
  [
   4.9058709144592285,
   0.02070745639503002,
   -0.4180889427661896,
   0.015201443806290627,
   0.3865286409854889,
   0.5906888246536255
  ],
  [
   0.18272599577903748,
   -2.1392998695373535,
   0.14911270141601562,
   0.4799984395503998,
   0.1221887618303299,
   -1.7161600589752197
  ],
  [
   0.6458382606506348,
   1.0562140941619873,
   -0.3319632112979889,
   0.1429210603237152,
   3.3995344638824463,
   -0.5266737341880798
  ],
  [
   -0.46848246455192566,
   -4.277319431304932,
   0.7162747383117676,
   -0.0720042958855629,
   -0.16150924563407898,
   0.8010989427566528
  ],
  [
   -1.86599862575531,
   0.6450561285018921,
   -0.08466750383377075,
   -0.868720531463623,
   0.3956075608730316,
   -2.2120988368988037
  ],
  [
   5.041136264801025,
   -2.058337688446045,
   0.5929319858551025,
   -0.24241980910301208,
   -2.192232847213745,
   0.2684161961078644
  ],
  [
   2.1705470085144043,
   -0.9907103180885315,
   -0.4608239531517029,
   -0.8517540693283081,
   0.4197016954421997,
   1.577741026878357
  ],
  [
   2.3125126361846924,
   2.172269582748413,
   0.01203374657779932,
   0.47581908106803894,
   1.0628972053527832,
   0.4216156005859375
  ],
  [
   4.778012752532959,
   3.454157829284668,
   -1.1959246397018433,
   -1.3392548561096191,
   2.0445616245269775,
   0.37910282611846924
  ],
  [
   2.6805808544158936,
   -2.643185615539551,
   -0.3839239180088043,
   -1.168073058128357,
   0.5049828290939331,
   -1.51662278175354
  ],
  [
   0.27845630049705505,
   -0.3304830491542816,
   0.4962005913257599,
   -0.02449594810605049,
   -0.7148621082305908,
   -2.456298589706421
  ],
  [
   0.8388363122940063,
   1.739397644996643,
   -1.5168542861938477,
   0.5075543522834778,
   2.408966541290283,
   -1.2845600843429565
  ],
  [
   -3.043609619140625,
   -0.6493055820465088,
   0.6650705933570862,
   0.8377907872200012,
   2.3651225566864014,
   0.35083726048469543
  ],
  [
   -2.5801494121551514,
   2.63633394241333,
   0.2990429699420929,
   -0.8691084980964661,
   -1.0446054935455322,
   -0.325705349445343
  ],
  [
   1.4878541231155396,
   0.9771279692649841,
   0.07394099980592728,
   -0.15678316354751587,
   0.563016414642334,
   -1.1855065822601318
  ],
  [
   2.6423864364624023,
   -2.9964466094970703,
   0.23692232370376587,
   -0.776691198348999,
   0.19662687182426453,
   -1.1259424686431885
  ],
  [
   -7.667617321014404,
   -0.1835300624370575,
   -0.09020983427762985,
   -0.44015228748321533,
   -0.5932236313819885,
   -0.39233875274658203
  ],
  [
   3.4911599159240723,
   -2.519638776779175,
   0.023339062929153442,
   -0.8674899339675903,
   -0.0015791545156389475,
   0.1003229096531868
  ],
  [
   1.2567732334136963,
   -3.453498363494873,
   -0.029131969437003136,
   -2.1166832447052,
   -0.32752755284309387,
   -0.2144940197467804
  ],
  [
   1.6155320405960083,
   -1.281374216079712,
   -0.021956175565719604,
   0.899827241897583,
   2.3927831649780273,
   0.1702815443277359
  ],
  [
   -3.016319513320923,
   1.0545973777770996,
   0.20058688521385193,
   0.8742899894714355,
   0.6531403660774231,
   -1.975753903388977
  ],
  [
   -0.7700740694999695,
   2.1803207397460938,
   -0.002113410271704197,
   0.39597198367118835,
   2.376765727996826,
   0.20083431899547577
  ],
  [
   1.826400876045227,
   1.6753653287887573,
   -0.1759253740310669,
   0.6409920454025269,
   -0.19520024955272675,
   -2.9768831729888916
  ],
  [
   -2.8780202865600586,
   -2.0415279865264893,
   -1.0530098676681519,
   0.2892409861087799,
   -0.32482874393463135,
   -1.5127578973770142
  ],
  [
   -2.266282081604004,
   -0.8870232105255127,
   -0.2381730079650879,
   -1.014761209487915,
   -0.4333634674549103,
   1.1676452159881592
  ],
  [
   -1.1766910552978516,
   1.9175386428833008,
   -0.40848466753959656,
   0.1578972339630127,
   0.49302324652671814,
   1.7559629678726196
  ],
  [
   -1.0266419649124146,
   -1.768022060394287,
   1.462908148765564,
   0.06826286762952805,
   -1.8563066720962524,
   -0.8756228685379028
  ],
  [
   -1.7174874544143677,
   1.3263708353042603,
   0.5408132076263428,
   -1.3762662410736084,
   2.175050973892212,
   -0.35370007157325745
  ],
  [
   -4.364414691925049,
   -0.9934651255607605,
   0.08711958676576614,
   -0.03159318119287491,
   -1.2771003246307373,
   1.1674864292144775
  ],
  [
   3.1516876220703125,
   0.012317600660026073,
   0.9912276864051819,
   0.3991745710372925,
   -1.307563304901123,
   -0.30544039607048035
  ],
  [
   -3.159102201461792,
   0.4384203255176544,
   -0.2611503005027771,
   2.3822243213653564,
   0.3387202024459839,
   0.6819149255752563
  ],
  [
   -1.209197759628296,
   -0.3678533732891083,
   -0.40817639231681824,
   -0.07283241301774979,
   -0.03547639772295952,
   -1.4590423107147217
  ],
  [
   6.572268486022949,
   0.16436569392681122,
   -0.015017065219581127,
   -0.3195750415325165,
   1.567151427268982,
   0.20381897687911987
  ],
  [
   1.5620307922363281,
   0.900727391242981,
   0.6397677659988403,
   1.284557580947876,
   -0.3171136677265167,
   0.2445516139268875
  ],
  [
   3.220785617828369,
   0.6909698843955994,
   -0.12067234516143799,
   0.16294145584106445,
   -0.3722001016139984,
   2.202819347381592
  ],
  [
   -2.7863409519195557,
   0.05499052256345749,
   -0.10362857580184937,
   1.5488083362579346,
   0.5348398089408875,
   0.2320384830236435
  ],
  [
   -0.41211822628974915,
   -2.131730079650879,
   1.420107364654541,
   0.335053950548172,
   1.6733965873718262,
   -1.2769285440444946
  ],
  [
   0.48232322931289673,
   -0.47961437702178955,
   -2.4462547302246094,
   -0.2774929106235504,
   2.5700998306274414,
   1.143261432647705
  ],
  [
   3.5459649562835693,
   -0.43108949065208435,
   -0.09593603014945984,
   0.574566662311554,
   0.7172236442565918,
   -0.1673334389925003
  ],
  [
   -4.058594226837158,
   0.1837986260652542,
   -1.3660789728164673,
   -0.4805426597595215,
   -0.36305299401283264,
   1.7178115844726562
  ],
  [
   -3.4318807125091553,
   -1.5537426471710205,
   0.8731427788734436,
   -0.7108854651451111,
   1.3247694969177246,
   -0.17651495337486267
  ],
  [
   -2.1434104442596436,
   -0.6807660460472107,
   0.07083283364772797,
   -2.050654649734497,
   0.8697008490562439,
   0.21844729781150818
  ],
  [
   2.731388807296753,
   3.3150012493133545,
   0.8721489906311035,
   0.11209027469158173,
   0.15743471682071686,
   -0.24362127482891083
  ],
  [
   0.7337775230407715,
   0.593504011631012,
   -0.3586152195930481,
   3.219679832458496,
   0.181303933262825,
   1.945059061050415
  ],
  [
   -5.065623760223389,
   -1.407141923904419,
   -0.862795889377594,
   0.3443318009376526,
   -0.03529638797044754,
   0.796484112739563
  ],
  [
   2.8881490230560303,
   0.6841813325881958,
   1.6113332509994507,
   1.303873062133789,
   0.21661476790905,
   0.009205878712236881
  ],
  [
   3.9026613235473633,
   1.3620127439498901,
   0.39035025238990784,
   0.48001083731651306,
   -0.7736713290214539,
   0.3226006031036377
  ],
  [
   -0.7620499730110168,
   -4.302006244659424,
   -0.3726452887058258,
   -0.3763222098350525,
   0.693900465965271,
   1.2853844165802002
  ],
  [
   -0.2916601896286011,
   1.4745539426803589,
   -1.6294816732406616,
   2.203427791595459,
   0.2950284481048584,
   0.5745821595191956
  ],
  [
   -0.7226685881614685,
   -3.850031614303589,
   0.17499670386314392,
   0.8174952864646912,
   0.988258957862854,
   0.14124137163162231
  ],
  [
   3.1220693588256836,
   -0.8718254566192627,
   0.30454424023628235,
   -2.1558847427368164,
   -0.2907758355140686,
   -1.2812484502792358
  ],
  [
   -0.03763764351606369,
   0.4204889237880707,
   1.7090225219726562,
   -0.06279753148555756,
   -2.0596368312835693,
   -0.23125043511390686
  ],
  [
   -1.7494336366653442,
   -2.5336809158325195,
   -1.4483904838562012,
   0.0946253091096878,
   -2.2160632610321045,
   0.6344441771507263
  ],
  [
   2.059696912765503,
   -3.769014358520508,
   0.5284451246261597,
   0.27917036414146423,
   0.6127816438674927,
   0.6261171698570251
  ],
  [
   -1.3830164670944214,
   -2.3932442665100098,
   0.43231400847435,
   0.46135950088500977,
   2.6805615425109863,
   0.6348135471343994
  ],
  [
   -0.7896215915679932,
   2.7720775604248047,
   0.27907252311706543,
   -0.021632980555295944,
   -1.2751479148864746,
   0.5154763460159302
  ],
  [
   0.19069615006446838,
   1.1138077974319458,
   -0.03161682188510895,
   0.7160998582839966,
   -0.28188297152519226,
   1.8884344100952148
  ],
  [
   -2.1544394493103027,
   1.7689015865325928,
   -0.3888949453830719,
   0.9853284955024719,
   2.506255626678467,
   1.3836181163787842
  ],
  [
   4.00291633605957,
   0.7783783674240112,
   0.38702520728111267,
   1.388625979423523,
   0.039785075932741165,
   -0.9849687218666077
  ],
  [
   -1.7940939664840698,
   1.7046788930892944,
   -0.4275493919849396,
   0.5418985486030579,
   2.9830684661865234,
   1.3914525508880615
  ],
  [
   -2.2237679958343506,
   0.1035357192158699,
   -0.18188506364822388,
   0.5888033509254456,
   1.7576110363006592,
   0.030963463708758354
  ],
  [
   0.26946914196014404,
   -1.493859052658081,
   0.6066165566444397,
   0.019767725840210915,
   0.0882931798696518,
   1.9455574750900269
  ],
  [
   -0.04237879067659378,
   -0.8716779947280884,
   -0.3190741539001465,
   0.44267764687538147,
   -0.9712214469909668,
   2.706967830657959
  ],
  [
   -2.973546266555786,
   -0.09813226014375687,
   0.8545459508895874,
   -0.05747438222169876,
   -0.948544442653656,
   1.29097580909729
  ],
  [
   3.5798230171203613,
   -0.2251788228750229,
   0.013693884946405888,
   -0.3607444167137146,
   1.8811568021774292,
   -1.2528982162475586
  ],
  [
   1.1642951965332031,
   -2.421449661254883,
   -0.7764227390289307,
   -1.8370964527130127,
   1.1789847612380981,
   -1.1082185506820679
  ],
  [
   1.4540891647338867,
   1.3749665021896362,
   -2.1424245834350586,
   0.775543749332428,
   0.6921932101249695,
   1.778245449066162
  ],
  [
   -0.8179559111595154,
   4.717550754547119,
   0.3353036344051361,
   -0.6815525889396667,
   0.49516934156417847,
   -1.8307716846466064
  ],
  [
   1.6651310920715332,
   2.1108362674713135,
   0.21088702976703644,
   -1.0086448192596436,
   -1.1931126117706299,
   -2.630746841430664
  ],
  [
   -0.725640058517456,
   -1.7071328163146973,
   0.802915632724762,
   -0.7287440896034241,
   1.3651843070983887,
   -0.16042955219745636
  ],
  [
   -3.043236017227173,
   -2.177459239959717,
   0.48691263794898987,
   0.25853508710861206,
   -0.50042724609375,
   -0.08935252577066422
  ],
  [
   0.05557352304458618,
   -3.424116373062134,
   -0.24973148107528687,
   -0.8488250970840454,
   0.6052290201187134,
   0.5353315472602844
  ],
  [
   -2.6963930130004883,
   2.539024829864502,
   -0.27431461215019226,
   -0.03163238987326622,
   0.7594411373138428,
   0.49001744389533997
  ],
  [
   -1.7590755224227905,
   -2.3450686931610107,
   0.7422505617141724,
   0.34559884667396545,
   -1.4107565879821777,
   2.681957483291626
  ],
  [
   -0.3487458825111389,
   0.5342513918876648,
   0.26315420866012573,
   -0.056619543582201004,
   -0.8885825872421265,
   -0.17397357523441315
  ],
  [
   3.4438118934631348,
   2.5847175121307373,
   1.1729432344436646,
   0.3447639048099518,
   2.908053159713745,
   -0.6143731474876404
  ],
  [
   3.3590571880340576,
   -1.0689586400985718,
   -0.21051372587680817,
   0.7653768062591553,
   -0.8888582587242126,
   -0.20112523436546326
  ],
  [
   -1.2043944597244263,
   -0.6301305294036865,
   -2.8824214935302734,
   0.1669529676437378,
   -1.1557656526565552,
   -0.3140217363834381
  ],
  [
   -0.9017048478126526,
   1.8655204772949219,
   0.09436774253845215,
   -0.8021690845489502,
   0.9598372578620911,
   0.6296133995056152
  ],
  [
   -0.15817289054393768,
   2.7331509590148926,
   -0.25697046518325806,
   0.3033595681190491,
   3.0284786224365234,
   -0.22562406957149506
  ],
  [
   -1.3356410264968872,
   -0.38172122836112976,
   -0.0317053347826004,
   0.09171735495328903,
   -1.7069844007492065,
   -2.4362711906433105
  ],
  [
   1.1678277254104614,
   -2.912062883377075,
   0.6294971108436584,
   -0.054878488183021545,
   -1.4648576974868774,
   1.6399809122085571
  ],
  [
   3.2538769245147705,
   -0.2907525599002838,
   -0.5906702280044556,
   0.735373854637146,
   0.8769024014472961,
   2.2941861152648926
  ],
  [
   1.4477671384811401,
   2.834228992462158,
   -0.49177300930023193,
   -0.954755961894989,
   -0.360240638256073,
   -1.7589842081069946
  ],
  [
   0.9086931347846985,
   -3.57949161529541,
   -0.0077988989651203156,
   1.2153444290161133,
   1.307921290397644,
   -1.1001883745193481
  ],
  [
   3.866316318511963,
   2.999948501586914,
   0.7948439717292786,
   0.15457475185394287,
   1.020668625831604,
   1.2913386821746826
  ],
  [
   -2.365645408630371,
   2.1511213779449463,
   -0.757560670375824,
   -0.6109777092933655,
   0.0670965388417244,
   0.3270294964313507
  ],
  [
   -0.07414110749959946,
   -0.2273932248353958,
   0.16000787913799286,
   0.34597688913345337,
   -1.7025548219680786,
   -0.9507230520248413
  ],
  [
   2.706986427307129,
   0.82669597864151,
   -0.45039013028144836,
   0.1260635256767273,
   0.7107112407684326,
   1.4850196838378906
  ],
  [
   -2.4680848121643066,
   3.6665356159210205,
   -0.049613188952207565,
   -1.3227713108062744,
   1.3292245864868164,
   -2.041499376296997
  ],
  [
   0.21254931390285492,
   1.5736887454986572,
   -0.2725038528442383,
   -0.1883736103773117,
   -2.2551612854003906,
   -0.7492592334747314
  ],
  [
   -3.997231960296631,
   -1.0655629634857178,
   -0.04852663353085518,
   -0.11555206030607224,
   1.5536104440689087,
   1.7549546957015991
  ],
  [
   -0.16741830110549927,
   1.2428600788116455,
   -0.46257051825523376,
   2.2369463443756104,
   0.34807902574539185,
   1.5313937664031982
  ],
  [
   2.4355437755584717,
   -0.0636385902762413,
   -0.07529440522193909,
   0.6116122603416443,
   0.4416944086551666,
   -1.5185303688049316
  ],
  [
   3.061809778213501,
   2.5406620502471924,
   0.8071728944778442,
   0.011312926188111305,
   2.4727065563201904,
   -1.512807846069336
  ],
  [
   0.7634409666061401,
   -3.2428224086761475,
   0.048367105424404144,
   0.9317812323570251,
   0.005252944305539131,
   -0.2508922517299652
  ],
  [
   0.5081111192703247,
   -2.5581893920898438,
   -0.26498451828956604,
   -1.4030249118804932,
   -0.03854478895664215,
   1.0992615222930908
  ],
  [
   -1.4080790281295776,
   1.9796355962753296,
   -0.5163974761962891,
   -1.9731111526489258,
   1.385479211807251,
   1.50034761428833
  ],
  [
   2.671664237976074,
   -0.5645833611488342,
   -0.5809720754623413,
   0.054809536784887314,
   0.5662806630134583,
   0.6349443793296814
  ],
  [
   0.41314640641212463,
   1.5986493825912476,
   -0.026872824877500534,
   0.4657529890537262,
   0.31397464871406555,
   2.5920803546905518
  ],
  [
   -0.4516262710094452,
   -2.880917549133301,
   0.009780729189515114,
   0.9332107305526733,
   0.9403964281082153,
   0.12911416590213776
  ],
  [
   -4.128856658935547,
   -1.5413672924041748,
   -0.7039850354194641,
   0.5303431749343872,
   1.2532788515090942,
   0.46681708097457886
  ],
  [
   2.571643114089966,
   0.30444157123565674,
   1.6371957063674927,
   -0.03866497427225113,
   -1.02811861038208,
   1.9284873008728027
  ],
  [
   -2.570483684539795,
   1.4975792169570923,
   -0.22271716594696045,
   0.29994067549705505,
   1.0124119520187378,
   -2.663123846054077
  ],
  [
   0.0648152306675911,
   3.2865614891052246,
   -1.402616024017334,
   1.3523997068405151,
   -1.2044589519500732,
   0.021993344649672508
  ],
  [
   6.365547180175781,
   1.865053415298462,
   0.1289174109697342,
   -0.33465221524238586,
   1.0323994159698486,
   -1.0268964767456055
  ],
  [
   5.103639125823975,
   -0.6393781304359436,
   0.7880580425262451,
   -0.39318594336509705,
   1.857060432434082,
   1.470322847366333
  ],
  [
   -1.9375033378601074,
   -0.5939722657203674,
   -0.029019450768828392,
   -0.23996146023273468,
   -1.7529124021530151,
   -2.356363534927368
  ],
  [
   1.8691293001174927,
   -1.2423239946365356,
   -0.7111270427703857,
   -0.20393429696559906,
   -0.1691836714744568,
   0.7446485757827759
  ],
  [
   -0.6806952953338623,
   0.3088192939758301,
   -0.13616979122161865,
   0.8705508708953857,
   2.1438889503479004,
   -1.513505458831787
  ],
  [
   0.026418479159474373,
   2.8408455848693848,
   0.25914493203163147,
   0.24145792424678802,
   1.5705565214157104,
   0.572523295879364
  ],
  [
   -0.9544179439544678,
   -2.7975986003875732,
   -0.44937819242477417,
   -0.1667792946100235,
   0.9515491724014282,
   -1.4027451276779175
  ],
  [
   -0.4107251763343811,
   -2.109964370727539,
   -0.3353648781776428,
   -1.2563661336898804,
   1.6278226375579834,
   -1.1395423412322998
  ],
  [
   -2.562088966369629,
   1.3186867237091064,
   0.7574431300163269,
   -0.6695554852485657,
   0.0688038095831871,
   -0.23487834632396698
  ],
  [
   -5.167120933532715,
   0.2991349697113037,
   -0.18743638694286346,
   0.17853538691997528,
   1.7066967487335205,
   0.26212266087532043
  ],
  [
   0.2293039858341217,
   -0.12722481787204742,
   -1.0367361307144165,
   0.08312910795211792,
   3.172312021255493,
   1.0289965867996216
  ],
  [
   3.3917224407196045,
   1.2845417261123657,
   1.4951385259628296,
   -0.5644171237945557,
   -0.33639928698539734,
   -1.2594963312149048
  ],
  [
   0.23318611085414886,
   -3.4856860637664795,
   -0.6144943833351135,
   1.6787487268447876,
   -1.5642495155334473,
   1.9593164920806885
  ],
  [
   0.9526208639144897,
   1.6276450157165527,
   0.48603132367134094,
   -0.1381499171257019,
   -1.414563536643982,
   -2.1006975173950195
  ],
  [
   -0.5271469354629517,
   1.5586472749710083,
   -0.6249828338623047,
   -0.6192841529846191,
   0.7121652364730835,
   1.5395736694335938
  ],
  [
   2.8510334491729736,
   4.703007698059082,
   0.8476806282997131,
   -0.7190530896186829,
   0.6020163297653198,
   0.1558712273836136
  ],
  [
   -0.8661961555480957,
   -4.575689792633057,
   -0.2922658622264862,
   0.4325539171695709,
   1.1215462684631348,
   1.2968254089355469
  ],
  [
   3.292635917663574,
   1.3806458711624146,
   -0.7627108097076416,
   0.11793346703052521,
   -2.4866628646850586,
   -1.7686606645584106
  ],
  [
   -2.287370443344116,
   -0.9991328716278076,
   -0.25592872500419617,
   -1.1641690731048584,
   1.4047834873199463,
   1.1683992147445679
  ],
  [
   4.357173442840576,
   2.2916676998138428,
   0.2798410952091217,
   -1.1400011777877808,
   -0.969143807888031,
   -1.120131015777588
  ],
  [
   1.1938903331756592,
   -0.4558294117450714,
   0.24770449101924896,
   -0.2566986083984375,
   0.701914370059967,
   1.5258296728134155
  ],
  [
   -1.222887396812439,
   3.9488630294799805,
   0.355790376663208,
   -0.052061520516872406,
   1.1790165901184082,
   -0.9259603023529053
  ],
  [
   -4.069355487823486,
   -1.7469549179077148,
   -0.44728973507881165,
   0.05547802895307541,
   0.6866850852966309,
   0.0024380157701671124
  ],
  [
   -3.182471752166748,
   2.567713737487793,
   -0.6618075966835022,
   0.1049848273396492,
   -0.29947876930236816,
   -0.9916131496429443
  ],
  [
   2.497001886367798,
   -0.3012874126434326,
   -0.28645139932632446,
   0.24042975902557373,
   -2.621558666229248,
   -0.17235131561756134
  ],
  [
   1.2369061708450317,
   3.3755416870117188,
   -0.05655340850353241,
   -0.5580575466156006,
   0.7597272992134094,
   -1.5449254512786865
  ],
  [
   -3.295959711074829,
   -1.3486229181289673,
   0.9359511733055115,
   0.13223114609718323,
   -2.336886167526245,
   -0.4452747404575348
  ],
  [
   1.3111677169799805,
   0.042308613657951355,
   0.47375595569610596,
   0.5938440561294556,
   -2.180500030517578,
   -0.2168807089328766
  ],
  [
   4.227169990539551,
   2.553539514541626,
   -0.03224259987473488,
   -0.8470239639282227,
   -0.7883740663528442,
   1.1474462747573853
  ],
  [
   1.9908922910690308,
   2.365234613418579,
   0.9429643750190735,
   -0.7628437280654907,
   -0.10698240995407104,
   -0.035802628844976425
  ],
  [
   -0.7865360975265503,
   -3.700793981552124,
   -0.8614803552627563,
   -0.5226706862449646,
   -0.22306452691555023,
   -0.17155325412750244
  ],
  [
   1.8019967079162598,
   0.48746246099472046,
   0.4654403626918793,
   0.5228074193000793,
   -0.7603281140327454,
   2.0477168560028076
  ],
  [
   2.4777700901031494,
   -1.9679187536239624,
   0.15008243918418884,
   -0.6300879120826721,
   -1.2450224161148071,
   1.3966079950332642
  ],
  [
   2.087090015411377,
   2.441105604171753,
   -0.028138943016529083,
   -0.154993936419487,
   -0.7955065369606018,
   -1.5830563306808472
  ],
  [
   1.231133222579956,
   2.1226725578308105,
   -0.9935164451599121,
   -0.634135901927948,
   -1.6006988286972046,
   -1.04530930519104
  ],
  [
   -0.9462093710899353,
   -4.333648681640625,
   0.1903252750635147,
   0.5045599937438965,
   0.16527524590492249,
   1.5154516696929932
  ],
  [
   2.5642077922821045,
   0.5752655267715454,
   -0.23302194476127625,
   -0.9109064340591431,
   0.8327857851982117,
   -0.40001049637794495
  ],
  [
   2.7158915996551514,
   1.547314167022705,
   0.8871827125549316,
   0.2440168559551239,
   0.010955908335745335,
   -2.0012495517730713
  ],
  [
   -4.36017370223999,
   -0.034911490976810455,
   -0.6063335537910461,
   -0.06434660404920578,
   3.4545681476593018,
   0.1799115389585495
  ],
  [
   -0.7699916958808899,
   -3.802053928375244,
   0.6580126881599426,
   0.10597114264965057,
   0.5228098630905151,
   1.308379054069519
  ],
  [
   0.6988738775253296,
   -2.441309928894043,
   0.38036787509918213,
   -0.6253145933151245,
   0.5331673622131348,
   1.8044586181640625
  ],
  [
   3.146718978881836,
   -1.5938440561294556,
   0.18599511682987213,
   -0.06197535991668701,
   0.823181688785553,
   1.00674569606781
  ],
  [
   5.571847438812256,
   0.10033899545669556,
   0.8181415796279907,
   0.5938082337379456,
   2.4840972423553467,
   0.6014043092727661
  ],
  [
   -1.1432218551635742,
   -1.0775669813156128,
   0.6915029287338257,
   -0.8328672051429749,
   1.0676560401916504,
   1.496193289756775
  ],
  [
   -1.0873212814331055,
   2.338345527648926,
   1.0687787532806396,
   1.3322540521621704,
   1.4249131679534912,
   -1.140499472618103
  ],
  [
   -3.8003010749816895,
   2.8826332092285156,
   -1.5613653659820557,
   1.407060146331787,
   1.5837454795837402,
   -0.8969563245773315
  ],
  [
   3.607304573059082,
   -2.0611672401428223,
   1.6360583305358887,
   -0.6783996224403381,
   -0.7690245509147644,
   -1.6854419708251953
  ],
  [
   -2.1382479667663574,
   -0.13189460337162018,
   -0.6120009422302246,
   -2.609039068222046,
   -0.3195745646953583,
   -1.2681434154510498
  ],
  [
   2.2800133228302,
   0.22115053236484528,
   0.4308914542198181,
   -0.46614712476730347,
   2.3805925846099854,
   1.0571458339691162
  ],
  [
   4.079556941986084,
   0.7012642621994019,
   -0.30493587255477905,
   -0.20272321999073029,
   2.09146785736084,
   0.6974549293518066
  ],
  [
   4.052637577056885,
   -0.351853609085083,
   0.25285670161247253,
   -1.2219069004058838,
   -0.4236885607242584,
   -0.39450690150260925
  ],
  [
   1.0508155822753906,
   1.550254225730896,
   -1.134210467338562,
   0.30605337023735046,
   -1.2129440307617188,
   2.4204883575439453
  ],
  [
   3.820136547088623,
   -0.7059248685836792,
   -0.5525685548782349,
   0.5425940752029419,
   1.3436100482940674,
   -0.8271454572677612
  ],
  [
   -5.090765953063965,
   -0.39258837699890137,
   0.2653050422668457,
   -0.475187212228775,
   -2.9210727214813232,
   -0.43984004855155945
  ],
  [
   -2.4013211727142334,
   -0.20830753445625305,
   -0.424759179353714,
   0.050704069435596466,
   1.7486443519592285,
   -0.7169165015220642
  ],
  [
   1.223872423171997,
   3.1698672771453857,
   -0.10907243937253952,
   -0.33608323335647583,
   0.738499641418457,
   -2.389190673828125
  ],
  [
   -4.655966281890869,
   3.1632049083709717,
   -0.21575964987277985,
   -0.07290679961442947,
   1.173387050628662,
   0.3243440091609955
  ],
  [
   1.3579957485198975,
   0.2824840247631073,
   -0.474470317363739,
   -0.3813588619232178,
   -1.0918067693710327,
   -2.1563403606414795
  ],
  [
   1.6004558801651,
   -0.2865705192089081,
   -0.9827690124511719,
   0.7748148441314697,
   1.49996018409729,
   0.8962500691413879
  ],
  [
   -1.4377440214157104,
   0.8830486536026001,
   0.778454065322876,
   -0.5557826161384583,
   2.2600619792938232,
   -0.34474489092826843
  ],
  [
   0.07303571701049805,
   -0.022366296499967575,
   0.2933832108974457,
   -0.598047137260437,
   0.4956471621990204,
   1.9538947343826294
  ],
  [
   0.8160152435302734,
   3.6440653800964355,
   0.3392443358898163,
   -0.6500663757324219,
   -0.5233925580978394,
   0.43733078241348267
  ],
  [
   -0.12794682383537292,
   1.7906244993209839,
   -0.27394673228263855,
   0.061961811035871506,
   -0.7204111814498901,
   -0.4114606976509094
  ],
  [
   -0.8803267478942871,
   4.000957489013672,
   -0.07487351447343826,
   -0.20435334742069244,
   -0.31136226654052734,
   1.3165603876113892
  ],
  [
   1.9032548666000366,
   -1.4229546785354614,
   -0.1853169947862625,
   -0.21315445005893707,
   1.5299667119979858,
   0.9586503505706787
  ],
  [
   3.2651543617248535,
   -0.845632791519165,
   -0.12196130305528641,
   -0.6186995506286621,
   1.0299187898635864,
   0.6971356868743896
  ],
  [
   -4.844372749328613,
   -2.128121852874756,
   -0.7559437155723572,
   -0.3996414542198181,
   0.6284621357917786,
   0.3572825491428375
  ],
  [
   -3.1753313541412354,
   1.099675178527832,
   1.0598273277282715,
   -0.059108760207891464,
   -1.4738566875457764,
   -1.3268629312515259
  ],
  [
   3.1341335773468018,
   3.1188912391662598,
   -0.05191410705447197,
   0.0797722190618515,
   0.8000315427780151,
   -0.5409213304519653
  ],
  [
   2.330676555633545,
   -1.7878177165985107,
   -0.9511964917182922,
   1.1797162294387817,
   -0.06462585180997849,
   0.4268536865711212
  ],
  [
   -1.5899395942687988,
   0.438447505235672,
   0.9395184516906738,
   0.9613229632377625,
   1.7422430515289307,
   -1.3577638864517212
  ],
  [
   2.2029929161071777,
   1.091093897819519,
   0.669105052947998,
   0.20398594439029694,
   2.3976919651031494,
   2.122459888458252
  ],
  [
   -3.7728447914123535,
   -1.6936100721359253,
   0.04575405642390251,
   0.06085999310016632,
   0.8165914416313171,
   1.5525836944580078
  ],
  [
   0.6430768966674805,
   -0.7972846031188965,
   -0.5488485097885132,
   1.2221158742904663,
   0.46762701869010925,
   -0.5139740705490112
  ],
  [
   1.3520516157150269,
   1.7390813827514648,
   -0.9763109087944031,
   0.3910043239593506,
   -0.8974369168281555,
   -2.2655956745147705
  ],
  [
   1.5658525228500366,
   -0.37260887026786804,
   -1.6019665002822876,
   0.08335089683532715,
   2.5906198024749756,
   0.6456097364425659
  ],
  [
   5.28516960144043,
   -0.6442139148712158,
   1.8112367391586304,
   0.5232916474342346,
   2.4367356300354004,
   0.328108549118042
  ],
  [
   3.8445088863372803,
   0.5729671716690063,
   -0.5684854388237,
   0.027829241007566452,
   -0.49342086911201477,
   -0.6581922769546509
  ],
  [
   1.7608550786972046,
   -2.459473133087158,
   0.4680930972099304,
   -0.40961775183677673,
   -0.11156979203224182,
   -0.7667586803436279
  ],
  [
   2.0142383575439453,
   3.5190818309783936,
   -0.05606679990887642,
   0.20241136848926544,
   -1.3232203722000122,
   -0.33946728706359863
  ],
  [
   5.120944976806641,
   -0.8010123372077942,
   -1.9770842790603638,
   0.7378990054130554,
   0.20730064809322357,
   -0.33306723833084106
  ],
  [
   -0.008739471435546875,
   -1.2160046100616455,
   0.29749032855033875,
   0.06210903078317642,
   1.6925768852233887,
   0.9767253994941711
  ],
  [
   -2.687854290008545,
   0.9104236960411072,
   0.1537552773952484,
   -0.38116708397865295,
   -0.47955289483070374,
   -1.2545093297958374
  ],
  [
   1.5250986814498901,
   2.2755825519561768,
   -0.5718291997909546,
   -0.1381482034921646,
   -0.6206669807434082,
   -0.2746559679508209
  ],
  [
   -2.8392345905303955,
   -1.2830030918121338,
   -1.0901410579681396,
   -0.05327646806836128,
   0.9350170493125916,
   -1.3704289197921753
  ],
  [
   0.877522349357605,
   -4.121166229248047,
   1.5585060119628906,
   -0.8123610019683838,
   -0.0038562705740332603,
   1.1602578163146973
  ],
  [
   0.8751381635665894,
   -1.6165462732315063,
   -1.0658844709396362,
   0.5546783804893494,
   2.8960232734680176,
   0.8445582985877991
  ]
 ],
 "pi.0.bias": [
  -1.7499808073043823,
  -0.27782946825027466,
  -0.0895015299320221,
  0.4748663902282715,
  -0.5643564462661743,
  -3.9985647201538086,
  -3.6756863594055176,
  -0.32080724835395813,
  -1.4172275066375732,
  -0.5572779774665833,
  -1.2752901315689087,
  -1.935065507888794,
  -1.501913070678711,
  -1.2995229959487915,
  0.5083561539649963,
  -0.38033419847488403,
  -0.9976117610931396,
  -0.1997527927160263,
  -0.5433254837989807,
  -3.025923490524292,
  -0.3220333755016327,
  -0.963084876537323,
  0.0633116140961647,
  -3.020144462585449,
  -0.914970874786377,
  0.7509999871253967,
  -1.9733058214187622,
  -3.1022329330444336,
  -1.6195666790008545,
  -3.1212236881256104,
  -1.315481424331665,
  -1.4523965120315552,
  -2.8555941581726074,
  -0.6495458483695984,
  -0.3832871615886688,
  -0.06562081724405289,
  -1.127105712890625,
  0.36097222566604614,
  0.02766532450914383,
  -2.6693029403686523,
  -0.3167516589164734,
  0.22906813025474548,
  -0.857842743396759,
  -2.4059669971466064,
  0.6765855550765991,
  -0.192902073264122,
  -4.778995037078857,
  -0.24057406187057495,
  0.8347557187080383,
  -4.984869480133057,
  0.2366737574338913,
  -1.8641340732574463,
  -0.870765745639801,
  -3.332228422164917,
  0.4509046971797943,
  0.08960406482219696,
  -0.15511812269687653,
  -1.6338262557983398,
  0.7799986004829407,
  -1.7621866464614868,
  -0.10506224632263184,
  -0.6812856793403625,
  -2.9497265815734863,
  -0.0401446670293808,
  0.11719577759504318,
  -0.9572769999504089,
  -3.1974501609802246,
  -0.890182375907898,
  0.5162817239761353,
  -1.237125039100647,
  -0.683937132358551,
  -3.714160203933716,
  -1.7975069284439087,
  -0.9730553030967712,
  -1.1046979427337646,
  -0.24442845582962036,
  0.21368318796157837,
  0.2245708554983139,
  -1.3618736267089844,
  0.254626989364624,
  -0.8816619515419006,
  -0.2441166341304779,
  -0.136543869972229,
  0.23615258932113647,
  0.23009853065013885,
  -0.09570559114217758,
  -3.6284213066101074,
  -1.6191195249557495,
  -2.6315720081329346,
  -1.4904699325561523,
  -1.5691648721694946,
  -1.6282415390014648,
  -0.8091558814048767,
  -1.1656996011734009,
  -1.3732508420944214,
  -1.9589377641677856,
  -2.270974636077881,
  -1.8967335224151611,
  -0.504429280757904,
  -2.6493632793426514,
  -5.772385120391846,
  -2.553149938583374,
  -1.4100383520126343,
  -1.4646921157836914,
  -2.017141342163086,
  -0.45834678411483765,
  -3.215095043182373,
  -0.7022770643234253,
  -3.443608283996582,
  -1.7266180515289307,
  -1.287030816078186,
  -0.11583314090967178,
  -2.087179183959961,
  -2.1478707790374756,
  0.13290637731552124,
  -0.8566710948944092,
  0.11787169426679611,
  -0.5276409983634949,
  -2.7755963802337646,
  -2.8983042240142822,
  -3.1640067100524902,
  -0.25644445419311523,
  -0.32863929867744446,
  -1.8353430032730103,
  -0.10246358811855316,
  -0.8525546789169312,
  -2.7095541954040527,
  -2.795137882232666,
  -2.143526554107666,
  -1.3807662725448608,
  -1.0551973581314087,
  0.5046045780181885,
  -0.6989246606826782,
  0.5174427628517151,
  0.055388353765010834,
  -0.27197352051734924,
  -2.235762357711792,
  -0.03195226565003395,
  0.30441781878471375,
  -0.6281221508979797,
  -1.210306167602539,
  -1.9162074327468872,
  0.12032788246870041,
  0.3369475305080414,
  -1.4444624185562134,
  -1.13240647315979,
  -0.976182758808136,
  -0.1747676581144333,
  -0.6822134256362915,
  1.122153878211975,
  -0.01670348085463047,
  -0.5443322062492371,
  -2.13787841796875,
  -1.949374794960022,
  -1.8927323818206787,
  -0.9235689043998718,
  -0.1552659124135971,
  -3.410738706588745,
  -0.6562148332595825,
  -5.826253890991211,
  -0.2531268000602722,
  -1.2332228422164917,
  -1.100928783416748,
  0.17964507639408112,
  -0.5363427996635437,
  -3.766798496246338,
  -0.7156053185462952,
  0.5766651630401611,
  -0.9428598284721375,
  -2.0120246410369873,
  -0.2880306839942932,
  0.30652883648872375,
  0.39511218667030334,
  0.562343180179596,
  -1.2895475625991821,
  0.554233193397522,
  -0.15402919054031372,
  -2.106494665145874,
  -2.0492210388183594,
  -2.4568636417388916,
  -3.299152374267578,
  -5.022786617279053,
  -2.7405762672424316,
  0.46819067001342773,
  -0.3918222188949585,
  -1.3767688274383545,
  -2.6053781509399414,
  -0.18627138435840607,
  -0.6640991568565369,
  -0.19579845666885376,
  0.1602344959974289,
  0.7077646851539612,
  -3.5306246280670166,
  -0.44276314973831177,
  0.3763885200023651,
  -0.4038407802581787,
  0.22180061042308807,
  0.1577102243900299,
  0.312177449464798,
  -0.7864278554916382
 ],
 "pi.2.weight": [
  [
   -1.07086980342865,
   -1.7272790670394897,
   -2.052938461303711,
   1.053433895111084,
   1.7285687923431396,
   -1.2165639400482178,
   1.0628033876419067,
   -1.232049822807312,
   2.3410046100616455,
   -0.4345721900463104,
   0.9340248703956604,
   3.053281545639038,
   -0.3251686692237854,
   0.4001152515411377,
   0.4112708568572998,
   1.3995537757873535,
   -0.43979495763778687,
   -2.3817923069000244,
   0.397016704082489,
   -1.520847201347351,
   -1.1254302263259888,
   1.6520094871520996,
   -1.1747163534164429,
   -1.56812584400177,
   2.3250651359558105,
   0.9115993976593018,
   4.679715156555176,
   -0.6153145432472229,
   -0.41073229908943176,
   -0.4334268867969513,
   -1.9030171632766724,
   -2.527198553085327,
   2.3157360553741455,
   2.0962772369384766,
   -0.329950749874115,
   0.7693849802017212,
   -0.7265462279319763,
   0.4348047077655792,
   -0.30420711636543274,
   4.579440116882324,
   -0.9929606318473816,
   0.9115502834320068,
   0.1144176498055458,
   0.2527933418750763,
   1.6564055681228638,
   -0.05978316068649292,
   -2.4064974784851074,
   0.21953660249710083,
   -1.2086104154586792,
   6.11564826965332,
   -0.4313257336616516,
   -3.200965166091919,
   -1.8406800031661987,
   3.0063211917877197,
   0.7340525388717651,
   0.22596190869808197,
   -1.2416560649871826,
   2.65583872795105,
   -1.5727519989013672,
   1.9538401365280151,
   -0.4370827078819275,
   -1.7465262413024902,
   -2.8992624282836914,
   -0.1966986060142517,
   0.21771782636642456,
   1.149039387702942,
   -0.7209447026252747,
   -0.3534035384654999,
   -0.5345205068588257,
   -1.3672287464141846,
   -0.5481870770454407,
   -1.6693572998046875,
   1.2341827154159546,
   2.567542791366577,
   1.2142571210861206,
   0.2869994342327118,
   2.7613930702209473,
   -0.058281246572732925,
   0.17117471992969513,
   -0.17249184846878052,
   0.18207979202270508,
   -1.6798834800720215,
   -0.6282932758331299,
   -0.17962028086185455,
   -0.12934355437755585,
   0.7486943006515503,
   3.1540322303771973,
   -2.353839159011841,
   -4.30565881729126,
   1.4682148694992065,
   2.255566120147705,
   -0.24331505596637726,
   0.9722291827201843,
   0.7795565128326416,
   0.6948910355567932,
   1.3762850761413574,
   -0.3602697551250458,
   -3.3733396530151367,
   -1.8847862482070923,
   -1.713773250579834,
   3.593590021133423,
   4.506439208984375,
   5.0884175300598145,
   0.03620941564440727,
   1.617468237876892,
   -0.6715173125267029,
   2.9587833881378174,
   2.5603489875793457,
   7.669975757598877,
   -2.551638603210449,
   2.5594301223754883,
   -0.495085746049881,
   -1.7013016939163208,
   0.34577640891075134,
   -0.20234186947345734,
   0.17255762219429016,
   -0.25055140256881714,
   -0.8133764266967773,
   -0.28117409348487854,
   -2.5401952266693115,
   -3.0920333862304688,
   0.34678342938423157,
   1.6089624166488647,
   -1.3100619316101074,
   -0.24033695459365845,
   0.785815417766571,
   0.6010682582855225,
   -2.1208930015563965,
   1.0166434049606323,
   -1.2270382642745972,
   -0.16558900475502014,
   1.6536246538162231,
   1.419240117073059,
   0.02409014105796814,
   0.3748716413974762,
   1.6451042890548706,
   -0.25135910511016846,
   2.5068042278289795,
   -0.042335040867328644,
   -2.7423553466796875,
   -2.2132980823516846,
   -1.6275439262390137,
   -1.5117660760879517,
   0.10878146439790726,
   2.9374282360076904,
   -1.4393454790115356,
   -1.5443865060806274,
   1.6194337606430054,
   1.2651783227920532,
   -1.5302647352218628,
   -0.8304893374443054,
   0.8104957342147827,
   2.938023805618286,
   -1.68684983253479,
   0.18644174933433533,
   1.7158927917480469,
   0.1272922307252884,
   -2.6139936447143555,
   3.1038124561309814,
   1.1487842798233032,
   -0.5581527352333069,
   0.11720534414052963,
   -0.4507649838924408,
   -0.6032347679138184,
   0.3043249845504761,
   -5.039857387542725,
   -3.208974599838257,
   0.3002634644508362,
   -3.0473029613494873,
   -0.30390262603759766,
   3.5818710327148438,
   -0.1893688440322876,
   0.8507360219955444,
   0.13729970157146454,
   -1.8102046251296997,
   0.8604090213775635,
   -0.5767183303833008,
   0.6599298715591431,
   -1.2028343677520752,
   2.569432497024536,
   6.229356288909912,
   2.398179054260254,
   -0.42145979404449463,
   -1.2589513063430786,
   0.6628316640853882,
   -1.6032191514968872,
   -0.7158248424530029,
   1.3545809984207153,
   -1.2439008951187134,
   -2.049464702606201,
   -1.0410645008087158,
   0.2455916851758957,
   -2.189014196395874,
   3.107450485229492,
   -0.2795351445674896,
   1.7353112697601318,
   0.15501505136489868,
   0.5255343317985535,
   0.22873184084892273,
   0.5236763954162598
  ],
  [
   -0.6363231539726257,
   -0.7205876111984253,
   1.3187623023986816,
   2.1999173164367676,
   -0.6130197644233704,
   -1.4990710020065308,
   -2.912440776824951,
   -1.7469236850738525,
   0.908341109752655,
   1.276019811630249,
   3.1023447513580322,
   -0.22572565078735352,
   -1.8631794452667236,
   -3.431082248687744,
   0.24116915464401245,
   1.817046880722046,
   1.0793507099151611,
   -2.2669243812561035,
   1.4338878393173218,
   -0.8987704515457153,
   3.184598922729492,
   0.22835597395896912,
   1.011978268623352,
   0.7530513405799866,
   -0.7557013034820557,
   0.9457665681838989,
   3.477837085723877,
   -3.005462884902954,
   -2.7779605388641357,
   -5.547614097595215,
   0.5148645639419556,
   0.3416441082954407,
   -2.7670180797576904,
   0.4943934679031372,
   0.4435463845729828,
   -1.5060060024261475,
   0.9692399501800537,
   1.2297723293304443,
   -0.39660802483558655,
   -0.7102882862091064,
   0.6992350816726685,
   0.5669775009155273,
   0.600742757320404,
   -2.3445255756378174,
   -0.2797476351261139,
   -1.1948201656341553,
   -2.2948715686798096,
   0.9184643030166626,
   -1.8688961267471313,
   -0.47551193833351135,
   -1.9196044206619263,
   -1.311294436454773,
   2.068068504333496,
   1.1929564476013184,
   1.0633424520492554,
   -0.7369144558906555,
   -0.17905819416046143,
   2.7119266986846924,
   -0.05167254060506821,
   1.8761745691299438,
   0.38574594259262085,
   -3.150789499282837,
   -1.9171048402786255,
   0.9345116019248962,
   -0.5676096081733704,
   -0.4081861674785614,
   1.7143044471740723,
   2.009967088699341,
   -0.38383370637893677,
   -2.0807597637176514,
   2.7922565937042236,
   0.0051677473820745945,
   -1.9179904460906982,
   0.06844339519739151,
   -1.1106809377670288,
   5.228529453277588,
   0.6885109543800354,
   0.7035641074180603,
   -1.2599306106567383,
   2.0937376022338867,
   2.939568519592285,
   -0.05038315802812576,
   0.47239306569099426,
   -1.3746652603149414,
   0.4118266701698303,
   -0.7519486546516418,
   1.2053836584091187,
   -0.6363998055458069,
   -1.1104280948638916,
   -0.9480310082435608,
   -0.17425067722797394,
   1.2994801998138428,
   3.2185447216033936,
   1.6236190795898438,
   2.6873838901519775,
   0.3841654360294342,
   0.9898553490638733,
   -1.347418189048767,
   0.027958182618021965,
   1.284159779548645,
   -7.310324192047119,
   0.20595714449882507,
   -0.9080817103385925,
   1.2704118490219116,
   -0.18778254091739655,
   -2.052210807800293,
   2.0866146087646484,
   -1.0049004554748535,
   -3.4446253776550293,
   -1.7622572183609009,
   1.6894497871398926,
   -2.010746717453003,
   -2.7426774501800537,
   7.751820087432861,
   -0.7238926887512207,
   0.9948867559432983,
   2.1516058444976807,
   -0.2533065676689148,
   -1.9123131036758423,
   -3.039353370666504,
   -0.41127875447273254,
   -1.2500356435775757,
   1.1498284339904785,
   -1.3139691352844238,
   -1.3182388544082642,
   -2.0533697605133057,
   2.775847911834717,
   -0.2701587975025177,
   -0.6327674388885498,
   -2.527117967605591,
   -1.4212627410888672,
   2.0810658931732178,
   -1.9946867227554321,
   -0.5524534583091736,
   4.636557102203369,
   1.5247248411178589,
   -1.5710532665252686,
   0.3428296744823456,
   -2.156771659851074,
   2.1449086666107178,
   -0.9011542797088623,
   1.5319902896881104,
   -0.7610602378845215,
   0.4162948727607727,
   2.453282117843628,
   -2.0299324989318848,
   -2.0180132389068604,
   2.1879043579101562,
   -1.647589921951294,
   -0.22712330520153046,
   -0.7312052249908447,
   2.157660484313965,
   0.8139355182647705,
   -0.5944470763206482,
   -1.5311449766159058,
   0.3186644911766052,
   -0.95387202501297,
   -0.6300951838493347,
   1.6795375347137451,
   5.780954837799072,
   -0.569296658039093,
   0.9864998459815979,
   -0.6224880814552307,
   -0.5024724006652832,
   -1.4181015491485596,
   -0.33897894620895386,
   -1.604459285736084,
   -0.0918423980474472,
   -0.4550427198410034,
   -0.9035619497299194,
   -0.3242713212966919,
   1.0742300748825073,
   0.40734198689460754,
   0.6489006280899048,
   -0.165547177195549,
   -0.5504786372184753,
   -1.3915679454803467,
   -1.6645402908325195,
   0.9235134124755859,
   2.595393419265747,
   -0.3039455711841583,
   -0.7974948883056641,
   2.5499372482299805,
   -1.2747776508331299,
   0.042788516730070114,
   -2.5505919456481934,
   2.155902147293091,
   0.7990647554397583,
   -0.64339280128479,
   -1.19212806224823,
   -1.8168506622314453,
   1.691219687461853,
   -2.0962486267089844,
   -0.3616761863231659,
   0.5367134213447571,
   0.38280269503593445,
   -0.6421777606010437,
   -0.8281505107879639,
   0.006758741568773985,
   -0.1586669385433197
  ],
  [
   -2.3804872035980225,
   2.1028592586517334,
   1.1935802698135376,
   0.9992102980613708,
   -0.7238554954528809,
   -2.359163761138916,
   1.3385564088821411,
   1.139787197113037,
   -1.6263006925582886,
   -2.153980016708374,
   -0.8671518564224243,
   1.6704294681549072,
   -0.2540755569934845,
   0.5436398983001709,
   -2.863069772720337,
   -0.5576915144920349,
   -1.8628133535385132,
   0.20816683769226074,
   -2.116070032119751,
   1.2257558107376099,
   -2.4179699420928955,
   0.22545559704303741,
   0.7150763869285583,
   0.4406317472457886,
   -0.3128370940685272,
   -2.1583144664764404,
   2.666372060775757,
   2.938138008117676,
   -0.8542863726615906,
   0.34665820002555847,
   -1.9202022552490234,
   -0.2674393057823181,
   1.030835747718811,
   1.1252468824386597,
   -0.7781756520271301,
   0.4028739035129547,
   -2.3582677841186523,
   1.0359224081039429,
   2.7953100204467773,
   1.6472487449645996,
   2.768380641937256,
   0.8089317083358765,
   -0.8008307218551636,
   2.7008590698242188,
   1.2890008687973022,
   2.303133726119995,
   2.8885905742645264,
   2.39011812210083,
   -0.8828184604644775,
   6.878427982330322,
   0.9967156648635864,
   -2.775813102722168,
   -2.491908550262451,
   5.7291059494018555,
   -0.537559986114502,
   0.4639327824115753,
   1.4049450159072876,
   2.717634677886963,
   -1.3684089183807373,
   1.6155790090560913,
   2.8664278984069824,
   1.1162182092666626,
   -1.515607476234436,
   2.030784845352173,
   -0.8331745266914368,
   -0.9381725192070007,
   -1.809359073638916,
   -0.026284053921699524,
   0.2084292769432068,
   0.562864363193512,
   1.6403759717941284,
   1.9840058088302612,
   -1.2871180772781372,
   0.35020914673805237,
   0.7977890372276306,
   -1.6121872663497925,
   1.4391489028930664,
   -0.9261998534202576,
   0.6688908338546753,
   -1.0020543336868286,
   0.6077645421028137,
   -2.722827672958374,
   -0.5783845782279968,
   2.5198535919189453,
   1.505768895149231,
   1.588000774383545,
   0.23972444236278534,
   -2.873642921447754,
   -0.5343549847602844,
   2.38114333152771,
   -2.0243303775787354,
   0.8391329050064087,
   -1.1773898601531982,
   -1.8496485948562622,
   0.2500476539134979,
   2.3739688396453857,
   -1.0052998065948486,
   -2.5711710453033447,
   -1.2709802389144897,
   -1.8600965738296509,
   1.376867413520813,
   1.4564180374145508,
   -1.349488377571106,
   -0.015288447961211205,
   1.4376037120819092,
   0.7349740862846375,
   2.4703590869903564,
   0.9567750692367554,
   2.3016231060028076,
   0.2891544699668884,
   1.023043155670166,
   -0.8339464664459229,
   -1.4741408824920654,
   -2.985684633255005,
   2.7165310382843018,
   -1.136769413948059,
   0.09308992326259613,
   -2.765293836593628,
   1.1967107057571411,
   -1.5934391021728516,
   0.7022957801818848,
   0.5175614356994629,
   2.169236421585083,
   -1.4734852313995361,
   1.1739476919174194,
   -3.006683588027954,
   1.075343370437622,
   0.2274337261915207,
   1.832960605621338,
   -1.759507656097412,
   -1.5833241939544678,
   -0.16857832670211792,
   -0.09199464321136475,
   -2.2871787548065186,
   0.8166584968566895,
   1.1968077421188354,
   -0.8426179885864258,
   1.1192744970321655,
   0.9285033345222473,
   -1.0455886125564575,
   -1.1813327074050903,
   -1.6021440029144287,
   0.6186463236808777,
   -2.0460169315338135,
   1.0047074556350708,
   -0.03471750766038895,
   -0.9871112704277039,
   0.7955020070075989,
   2.730707883834839,
   -0.9207802414894104,
   2.853759288787842,
   0.7615776658058167,
   3.46293044090271,
   -0.18499383330345154,
   0.4662402868270874,
   -2.6190242767333984,
   1.1096185445785522,
   -4.757226943969727,
   0.1329427808523178,
   1.4137895107269287,
   2.273007392883301,
   -1.792860507965088,
   -1.7951838970184326,
   -0.8848872780799866,
   1.356614589691162,
   0.9884788990020752,
   -0.9534445405006409,
   1.003290057182312,
   -1.950608253479004,
   -0.8189715147018433,
   1.3929904699325562,
   -1.1639318466186523,
   1.105884075164795,
   -2.972827196121216,
   -1.9445475339889526,
   -1.051646113395691,
   0.7479262351989746,
   0.15752124786376953,
   1.0240888595581055,
   1.5411144495010376,
   0.9659129977226257,
   2.169664144515991,
   -0.8451471328735352,
   1.5496758222579956,
   1.8126778602600098,
   -3.175537109375,
   -1.0293124914169312,
   0.1343614161014557,
   2.197875499725342,
   2.9994730949401855,
   0.9130004048347473,
   -0.6731396913528442,
   -0.15259666740894318,
   0.6792597770690918,
   -2.091090440750122,
   1.1273505687713623,
   -2.08477783203125,
   2.523737668991089,
   0.9506258368492126,
   0.9398095011711121
  ],
  [
   -1.0580419301986694,
   1.3146926164627075,
   0.4855436682701111,
   0.5765023827552795,
   -1.7440268993377686,
   -4.33424186706543,
   0.9238341450691223,
   -0.2028297334909439,
   -1.8001465797424316,
   1.1904070377349854,
   0.36909744143486023,
   0.9943608641624451,
   -0.7901142239570618,
   -1.4589636325836182,
   1.472185492515564,
   2.0105974674224854,
   -0.9555529952049255,
   -1.524147391319275,
   0.5735664963722229,
   -0.6810015439987183,
   -0.5212017297744751,
   -2.0467541217803955,
   3.098029375076294,
   -2.478659152984619,
   0.9594000577926636,
   -0.28651630878448486,
   4.059582233428955,
   0.5044186115264893,
   1.608548641204834,
   1.6342536211013794,
   -2.791520595550537,
   -1.370880365371704,
   0.36809638142585754,
   -1.641318678855896,
   2.6475327014923096,
   0.7828378677368164,
   -1.3246631622314453,
   -0.6560748815536499,
   0.4618498980998993,
   4.581099987030029,
   1.9005529880523682,
   -0.6324860453605652,
   -2.012847661972046,
   0.7173393368721008,
   -1.2596745491027832,
   0.20374010503292084,
   1.3298511505126953,
   -1.6471890211105347,
   -0.8926617503166199,
   -0.21602880954742432,
   -0.9302211403846741,
   -1.881809949874878,
   -2.8154520988464355,
   -0.057056695222854614,
   -1.7760206460952759,
   3.5958034992218018,
   2.2462825775146484,
   0.2915284335613251,
   1.5604816675186157,
   -0.2534967362880707,
   0.10225465148687363,
   1.8233146667480469,
   -3.1330313682556152,
   3.9628491401672363,
   0.9929777383804321,
   -2.444160223007202,
   1.7921618223190308,
   -1.767000675201416,
   -2.3300883769989014,
   -0.1791784018278122,
   -0.07337216287851334,
   1.2066222429275513,
   -1.3137410879135132,
   1.0504802465438843,
   0.0830635130405426,
   -1.465484380722046,
   1.072991132736206,
   -1.5049633979797363,
   -1.6733351945877075,
   -0.8398653268814087,
   1.4129247665405273,
   0.295270174741745,
   -0.5261369347572327,
   -0.5122976303100586,
   -1.6458595991134644,
   -0.8714074492454529,
   1.5284929275512695,
   0.9310719966888428,
   2.897226333618164,
   -1.1590487957000732,
   -1.0782465934753418,
   -3.0836241245269775,
   -1.2914162874221802,
   -3.4361112117767334,
   0.5109132528305054,
   2.984196662902832,
   2.539536714553833,
   -2.1259679794311523,
   -0.7515794634819031,
   -1.2649480104446411,
   -3.665473461151123,
   2.433600902557373,
   1.2619129419326782,
   -2.3665425777435303,
   1.206173300743103,
   -0.6411311030387878,
   -2.379770517349243,
   -0.2613750100135803,
   1.7278273105621338,
   -1.5741169452667236,
   -0.9747123122215271,
   3.013671636581421,
   5.135852336883545,
   3.1783955097198486,
   0.9360203146934509,
   -1.9142968654632568,
   1.133150577545166,
   0.5457865595817566,
   -0.6218500733375549,
   -2.3166682720184326,
   1.0894315242767334,
   0.8766404986381531,
   2.895099639892578,
   1.009474515914917,
   -0.09137831628322601,
   0.8014922142028809,
   2.6693265438079834,
   0.6247380375862122,
   -0.18434052169322968,
   -1.2146649360656738,
   -2.0874435901641846,
   -0.8086361289024353,
   0.6692730784416199,
   -1.538217306137085,
   -0.14887239038944244,
   2.398588180541992,
   -0.8478342294692993,
   2.4688527584075928,
   -1.2140995264053345,
   -0.4550139605998993,
   -1.1851465702056885,
   -0.09912987798452377,
   -1.40642249584198,
   -2.3089547157287598,
   0.605219841003418,
   1.444036602973938,
   -0.9023299813270569,
   -0.14650723338127136,
   1.5279301404953003,
   -1.0642048120498657,
   2.8611483573913574,
   0.6002129316329956,
   1.9439961910247803,
   2.041921615600586,
   0.33716312050819397,
   0.6346877813339233,
   3.8448069095611572,
   -0.6398741602897644,
   -0.2890786826610565,
   -1.9774341583251953,
   2.281683921813965,
   -0.3174615502357483,
   2.5889389514923096,
   1.6420238018035889,
   1.4581875801086426,
   -2.3757057189941406,
   -0.4777871370315552,
   1.2275488376617432,
   -3.7050933837890625,
   0.6047811508178711,
   -1.1301740407943726,
   1.1300811767578125,
   1.05496084690094,
   -1.2762086391448975,
   -0.7967618703842163,
   3.3507707118988037,
   0.9395888447761536,
   0.9349179267883301,
   -2.8154189586639404,
   -1.5790883302688599,
   -2.9215803146362305,
   -2.7882580757141113,
   -0.8633230924606323,
   -1.643248200416565,
   -2.0455429553985596,
   -0.18595951795578003,
   3.0827929973602295,
   0.9874237775802612,
   0.4768003523349762,
   0.041304364800453186,
   -1.4243035316467285,
   -0.6590818762779236,
   2.1948914527893066,
   0.2751632630825043,
   -1.279226541519165,
   -0.5488334894180298,
   -0.7877421975135803,
   2.1100804805755615,
   0.8074536919593811,
   -0.33871209621429443
  ],
  [
   -0.7895616292953491,
   -1.6421853303909302,
   -0.8391044735908508,
   1.6706448793411255,
   0.9319859147071838,
   -4.367975234985352,
   -4.6155104637146,
   0.21082530915737152,
   -0.3495340049266815,
   -2.0952277183532715,
   -0.9426648616790771,
   -1.2274857759475708,
   3.1844449043273926,
   -2.0089893341064453,
   0.5693212151527405,
   -0.8133881688117981,
   -2.938293218612671,
   -0.04588031768798828,
   2.83306622505188,
   -4.121931552886963,
   -1.9371048212051392,
   -0.5209825038909912,
   1.0401835441589355,
   -3.1971230506896973,
   4.390534400939941,
   1.2272334098815918,
   1.506941318511963,
   1.887930989265442,
   -1.5319172143936157,
   -0.3516254425048828,
   -2.334239959716797,
   0.251325786113739,
   -0.4652267098426819,
   0.924616277217865,
   -1.1867692470550537,
   0.8902192115783691,
   -0.340086430311203,
   -1.0556344985961914,
   0.01091789174824953,
   -3.0062191486358643,
   -2.058788537979126,
   0.7482019662857056,
   -1.3855398893356323,
   1.247931718826294,
   1.2519227266311646,
   0.5878949165344238,
   -0.8263071179389954,
   -1.0931146144866943,
   -0.9301210641860962,
   -8.151225090026855,
   -0.9266510605812073,
   0.5939618349075317,
   -0.3637537658214569,
   6.1779375076293945,
   0.6897062063217163,
   -0.41368797421455383,
   0.34351134300231934,
   -1.7121893167495728,
   1.3861898183822632,
   -1.5190850496292114,
   -0.4135390818119049,
   -1.2208296060562134,
   0.5845522880554199,
   -0.96775221824646,
   -1.317765712738037,
   -1.7039355039596558,
   -2.9831221103668213,
   0.09454264491796494,
   0.10818053036928177,
   -1.4500211477279663,
   3.4340951442718506,
   -4.790117263793945,
   2.9185235500335693,
   -1.2708511352539062,
   2.848224401473999,
   -2.0748777389526367,
   -2.059255838394165,
   0.23687095940113068,
   0.9695771336555481,
   0.1119954064488411,
   -0.40677526593208313,
   0.1190154105424881,
   -0.9441676735877991,
   1.06849205493927,
   -0.34651654958724976,
   0.9783879518508911,
   2.608916759490967,
   -0.8718233108520508,
   1.3424566984176636,
   0.9682982563972473,
   1.1561615467071533,
   -1.9100897312164307,
   -1.3683282136917114,
   -0.03678249567747116,
   -1.084808111190796,
   1.2780050039291382,
   -1.326436996459961,
   4.976871490478516,
   -1.9947043657302856,
   1.8910119533538818,
   0.6139469742774963,
   1.053210735321045,
   -0.47594961524009705,
   2.1773324012756348,
   3.4607646465301514,
   -0.9487816095352173,
   1.5447014570236206,
   -0.23969608545303345,
   -2.4042789936065674,
   -1.6341345310211182,
   0.1527484506368637,
   -1.7856248617172241,
   0.09356173872947693,
   2.1930506229400635,
   1.2674349546432495,
   1.7503756284713745,
   0.38802629709243774,
   0.3167460262775421,
   0.529451847076416,
   1.1953644752502441,
   -0.7218121290206909,
   -0.9684383273124695,
   -1.9707332849502563,
   -2.513150453567505,
   -1.4077026844024658,
   -1.4216803312301636,
   -0.0543101541697979,
   -2.3189876079559326,
   4.388473987579346,
   2.713920831680298,
   -4.217355728149414,
   -0.4197113811969757,
   -1.485110878944397,
   -0.13137659430503845,
   2.408750534057617,
   -0.0484229177236557,
   -4.312765121459961,
   1.5718967914581299,
   1.1617581844329834,
   0.7294327616691589,
   -0.29699262976646423,
   2.601869583129883,
   0.05029783025383949,
   -0.4267582297325134,
   -1.096435308456421,
   0.14762133359909058,
   0.17066249251365662,
   0.45523980259895325,
   4.046842098236084,
   -0.7862963080406189,
   0.14459148049354553,
   0.8267682194709778,
   3.9031529426574707,
   -0.4836881756782532,
   -0.378593772649765,
   -2.3179242610931396,
   -0.8551454544067383,
   0.4841589033603668,
   0.5165011882781982,
   -1.759967565536499,
   -1.7538566589355469,
   1.3178610801696777,
   2.587057113647461,
   -0.6175118684768677,
   -0.2724153995513916,
   3.067368507385254,
   3.624013900756836,
   -2.4254016876220703,
   0.49985700845718384,
   3.7843546867370605,
   -1.1260571479797363,
   0.4980763792991638,
   0.0054889279417693615,
   0.4081781208515167,
   1.6768234968185425,
   1.1176621913909912,
   -0.15348558127880096,
   -0.1386283040046692,
   -2.224050521850586,
   0.05233681946992874,
   -0.5020889639854431,
   -9.961203575134277,
   -1.3986152410507202,
   -0.2647798955440521,
   -0.8310091495513916,
   1.6720322370529175,
   -1.2021844387054443,
   2.891209840774536,
   0.2428739070892334,
   0.7593648433685303,
   -0.21759773790836334,
   1.2928215265274048,
   -4.746179580688477,
   1.069834589958191,
   0.6716507077217102,
   0.843870222568512,
   0.9572601914405823,
   0.48820510506629944,
   -2.9797091484069824,
   1.9378972053527832
  ],
  [
   1.4139213562011719,
   -0.547605037689209,
   -0.712788999080658,
   0.662577211856842,
   -0.20159097015857697,
   -1.2590113878250122,
   0.8235732316970825,
   -1.6490044593811035,
   -0.022926239296793938,
   0.39023908972740173,
   -0.05363883823156357,
   1.4559992551803589,
   2.7710659503936768,
   -0.6708793044090271,
   1.6373437643051147,
   1.8849239349365234,
   -0.6123353838920593,
   0.2981947660446167,
   1.8118470907211304,
   2.2058637142181396,
   -0.27579382061958313,
   -0.3974106013774872,
   -0.2935282289981842,
   -2.6155812740325928,
   -0.4115459620952606,
   0.8653477430343628,
   -0.429704874753952,
   1.7467048168182373,
   -0.39214804768562317,
   -1.2133421897888184,
   0.9882771968841553,
   -0.5093512535095215,
   2.2954931259155273,
   1.0714370012283325,
   -0.28688183426856995,
   -0.2667100429534912,
   1.0381053686141968,
   0.6004862785339355,
   -0.07793217897415161,
   -3.0550484657287598,
   0.9082778692245483,
   -0.232858344912529,
   2.3244009017944336,
   2.564385175704956,
   0.37220096588134766,
   0.24895775318145752,
   -0.43684646487236023,
   0.15988682210445404,
   -0.4391905665397644,
   3.9992258548736572,
   -1.975703239440918,
   1.683408498764038,
   0.9091816544532776,
   1.4939132928848267,
   0.7499020099639893,
   -1.2572753429412842,
   -0.7619189620018005,
   -1.5279265642166138,
   0.6850777864456177,
   0.25127941370010376,
   1.1127564907073975,
   -0.7553549408912659,
   -0.9211882948875427,
   -0.5594165325164795,
   1.7178617715835571,
   -0.5789228081703186,
   -1.7605724334716797,
   -1.8008476495742798,
   -0.6038720607757568,
   -1.402458906173706,
   -2.2715036869049072,
   0.518393337726593,
   -0.7337114810943604,
   -1.0547397136688232,
   0.7797331213951111,
   -0.045974038541316986,
   -0.13030771911144257,
   0.9309164881706238,
   -0.9523112773895264,
   0.0255151204764843,
   0.9618738293647766,
   -1.0489410161972046,
   -0.46752557158470154,
   -0.17789509892463684,
   -0.6477614641189575,
   0.5936072468757629,
   4.449782848358154,
   -1.8075906038284302,
   1.2020906209945679,
   2.529426097869873,
   -2.531195878982544,
   -3.3895835876464844,
   0.6568658947944641,
   1.1097416877746582,
   1.6082509756088257,
   0.8762277364730835,
   -1.150201439857483,
   0.46324074268341064,
   0.5541954040527344,
   -5.103050231933594,
   4.290181636810303,
   -0.5961733460426331,
   -0.6837752461433411,
   1.7133612632751465,
   -1.7448980808258057,
   -1.7643483877182007,
   3.3748183250427246,
   1.9275063276290894,
   2.1369128227233887,
   1.1185393333435059,
   1.7086281776428223,
   -1.9760198593139648,
   1.943993091583252,
   1.1186628341674805,
   -0.766129195690155,
   -0.9135609269142151,
   0.16086025536060333,
   -0.5896879434585571,
   3.0127811431884766,
   0.15484106540679932,
   1.5016249418258667,
   -0.1460438370704651,
   -2.142305612564087,
   -2.3850646018981934,
   0.0973808541893959,
   -1.5992604494094849,
   1.3876055479049683,
   -2.189283609390259,
   0.6804754137992859,
   2.3478848934173584,
   -1.2549831867218018,
   -1.1350774765014648,
   0.3214235007762909,
   -0.28349578380584717,
   1.1443074941635132,
   -0.6505221724510193,
   -0.7520738244056702,
   0.7510127425193787,
   0.9890724420547485,
   -0.4410087764263153,
   -1.0813952684402466,
   -1.7294305562973022,
   -0.385899156332016,
   -0.11682959645986557,
   -1.5261751413345337,
   -0.6926640868186951,
   0.13226746022701263,
   0.9346827268600464,
   1.2249901294708252,
   -0.5122352242469788,
   -0.873100221157074,
   0.037786636501550674,
   2.143928289413452,
   -1.5522994995117188,
   -2.317828893661499,
   0.08367927372455597,
   -0.6432669758796692,
   -2.1385464668273926,
   -0.916273832321167,
   -3.6977622509002686,
   -0.10460870712995529,
   1.3919520378112793,
   -0.888384222984314,
   -1.3429752588272095,
   1.7189161777496338,
   -0.060997433960437775,
   -0.9994091391563416,
   -0.2943689227104187,
   0.7990801930427551,
   2.9714672565460205,
   -0.1808728724718094,
   -0.45239347219467163,
   2.294339179992676,
   0.03912603110074997,
   0.8244026303291321,
   -0.04661720618605614,
   -2.6678688526153564,
   -2.618325710296631,
   1.5036183595657349,
   -0.4683343172073364,
   -1.2449935674667358,
   1.6449156999588013,
   1.811374545097351,
   -0.6415334939956665,
   -1.2572118043899536,
   1.4428166151046753,
   0.024132240563631058,
   -0.8877173662185669,
   1.0708516836166382,
   0.9262923002243042,
   0.02885107882320881,
   -0.023998849093914032,
   -0.5091965794563293,
   -1.1113637685775757,
   -0.2344909906387329,
   1.2023600339889526,
   -0.2160678654909134,
   0.8455891609191895,
   -0.22219175100326538,
   1.9854779243469238
  ]
 ],
 "pi.2.bias": [
  -0.18738439679145813,
  0.28778591752052307,
  -0.1685490608215332,
  -0.2943716049194336,
  -0.1902061402797699,
  -0.18114441633224487
 ]
}