{
 "pi.0.weight": [
  [
   0.4513206481933594,
   1.4467164278030396,
   0.5516695976257324,
   1.1177940368652344,
   2.208871841430664,
   -5.969640254974365
  ],
  [
   -1.2576144933700562,
   2.5646636486053467,
   -3.5425329208374023,
   -0.8914211988449097,
   0.5456121563911438,
   -0.22648601233959198
  ],
  [
   2.1584787368774414,
   -0.4910731911659241,
   0.07358492910861969,
   -3.304828405380249,
   0.33466795086860657,
   0.6473877429962158
  ],
  [
   -0.19730496406555176,
   -3.983193874359131,
   0.27153491973876953,
   -1.044064998626709,
   3.0144147872924805,
   2.6405279636383057
  ],
  [
   -5.9244585037231445,
   3.5454888343811035,
   0.8114696145057678,
   0.04359172284603119,
   1.892728328704834,
   3.092897653579712
  ],
  [
   -0.9626368880271912,
   1.28984797000885,
   -0.5930975079536438,
   -0.0685834139585495,
   0.041020095348358154,
   -5.681325435638428
  ],
  [
   -0.25058266520500183,
   -6.840142250061035,
   -0.9721348881721497,
   -3.7493014335632324,
   -0.8512312769889832,
   -3.904520273208618
  ],
  [
   4.767071723937988,
   -1.4948537349700928,
   -0.06231329217553139,
   3.5033092498779297,
   -3.7040131092071533,
   -0.7730004787445068
  ],
  [
   0.1117711216211319,
   -1.55277419090271,
   3.429218292236328,
   2.0943899154663086,
   1.5859105587005615,
   1.4995357990264893
  ],
  [
   -1.8835231065750122,
   -0.8636655211448669,
   0.5589938163757324,
   -6.1833815574646,
   0.2603982090950012,
   -1.9872477054595947
  ],
  [
   -1.135406494140625,
   1.9803016185760498,
   2.971824884414673,
   -0.6007521748542786,
   0.6686147451400757,
   -0.5318126082420349
  ],
  [
   1.6721992492675781,
   1.2276371717453003,
   0.3139570355415344,
   2.052474021911621,
   -2.920532464981079,
   -0.14667144417762756
  ],
  [
   -0.7691594362258911,
   -0.26786404848098755,
   1.1716021299362183,
   4.537332534790039,
   3.5615994930267334,
   -2.8339459896087646
  ],
  [
   1.2934168577194214,
   3.9029953479766846,
   0.16925927996635437,
   -0.4788711667060852,
   -0.2672954499721527,
   -3.506852626800537
  ],
  [
   0.5165592432022095,
   0.36432889103889465,
   1.0513033866882324,
   -1.5941805839538574,
   -2.20220685005188,
   -3.269686222076416
  ],
  [
   0.3296552002429962,
   9.325546264648438,
   0.3415047526359558,
   4.008162498474121,
   -3.577387809753418,
   -4.54697847366333
  ],
  [
   2.7600295543670654,
   -2.5444438457489014,
   5.6543684005737305,
   -1.3088854551315308,
   -1.6932343244552612,
   1.4964393377304077
  ],
  [
   -2.584944725036621,
   2.619919538497925,
   -0.45909664034843445,
   -2.7944390773773193,
   -1.2573283910751343,
   -1.368941307067871
  ],
  [
   -2.4368011951446533,
   3.1511056423187256,
   -1.468668818473816,
   0.047110363841056824,
   2.0801777839660645,
   -0.8731557726860046
  ],
  [
   -0.7376323938369751,
   -7.184510231018066,
   -1.1211377382278442,
   -1.2761119604110718,
   -0.026963820680975914,
   2.4302451610565186
  ],
  [
   2.1301515102386475,
   -1.447417974472046,
   0.009741867892444134,
   0.7823119163513184,
   -4.577122688293457,
   2.839782953262329
  ],
  [
   2.179636240005493,
   3.388622999191284,
   1.3577325344085693,
   -0.7372591495513916,
   -3.3829503059387207,
   0.7229790687561035
  ],
  [
   -3.853126287460327,
   0.576863706111908,
   -1.1019960641860962,
   -2.977506399154663,
   3.039452075958252,
   -0.8337408304214478
  ],
  [
   1.1353715658187866,
   -0.23672358691692352,
   -0.5731909871101379,
   1.1338270902633667,
   6.553123474121094,
   -0.9772861003875732
  ],
  [
   1.0636155605316162,
   -0.15274089574813843,
   -1.0139284133911133,
   0.6212086081504822,
   3.4705824851989746,
   3.038064479827881
  ],
  [
   -2.559342622756958,
   -1.6717500686645508,
   0.517218828201294,
   -2.6397957801818848,
   2.1653671264648438,
   -0.40645554661750793
  ],
  [
   -1.4135253429412842,
   -2.149970293045044,
   1.4530688524246216,
   -0.7993217706680298,
   -5.276292324066162,
   -1.0141708850860596
  ],
  [
   0.44461795687675476,
   -1.4851962327957153,
   1.204583764076233,
   -0.002421289449557662,
   1.4657899141311646,
   2.672468423843384
  ],
  [
   1.44873046875,
   1.637303113937378,
   0.12504000961780548,
   -3.0678722858428955,
   -4.980982780456543,
   2.2021570205688477
  ],
  [
   -0.4540405869483948,
   0.07192455977201462,
   -1.9386159181594849,
   0.000483830226585269,
   1.0229533910751343,
   1.2083981037139893
  ],
  [
   -0.08207769691944122,
   3.8020002841949463,
   2.1422533988952637,
   -0.8492466807365417,
   -0.5547559261322021,
   -0.9664660096168518
  ],
  [
   0.02020151913166046,
   -0.7166032791137695,
   -0.24683387577533722,
   -2.849214553833008,
   -0.36388418078422546,
   5.54484748840332
  ],
  [
   2.5309736728668213,
   1.0785057544708252,
   0.10347531735897064,
   -1.601906418800354,
   -2.4398880004882812,
   -4.740747928619385
  ],
  [
   3.4168097972869873,
   -1.619544506072998,
   -2.909252882003784,
   0.691624641418457,
   1.027370572090149,
   -2.070225238800049
  ],
  [
   -0.7618153095245361,
   -1.3706005811691284,
   -0.31717267632484436,
   1.91751229763031,
   5.4603681564331055,
   2.6020689010620117
  ],
  [
   0.7533512115478516,
   4.186212062835693,
   2.498072624206543,
   0.20559589564800262,
   -4.071811199188232,
   -2.06595778465271
  ],
  [
   -0.27840960025787354,
   -0.6607190370559692,
   1.0109024047851562,
   -1.9791960716247559,
   -1.1369216442108154,
   7.078800678253174
  ],
  [
   -0.6310320496559143,
   -1.0345131158828735,
   -0.09957228600978851,
   8.01974868774414,
   0.972696840763092,
   -1.1468881368637085
  ],
  [
   0.3399813175201416,
   -3.6757829189300537,
   1.676711082458496,
   1.5322113037109375,
   -1.8247421979904175,
   0.4805043041706085
  ],
  [
   0.5623638033866882,
   2.0937156677246094,
   -0.13946503400802612,
   2.141726016998291,
   0.602394163608551,
   0.6171148419380188
  ],
  [
   1.2543067932128906,
   -1.5826939344406128,
   2.6423792839050293,
   1.4810341596603394,
   0.14569957554340363,
   0.2305993288755417
  ],
  [
   -5.047909259796143,
   1.4278000593185425,
   -1.1191778182983398,
   0.0023319462779909372,
   -1.2324657440185547,
   4.356230735778809
  ],
  [
   2.690354585647583,
   1.244205117225647,
   -0.39547431468963623,
   -2.2991983890533447,
   1.2419129610061646,
   0.41479405760765076
  ],
  [
   -0.8832903504371643,
   -1.125218391418457,
   0.5395601391792297,
   1.180661678314209,
   5.374054908752441,
   1.8515264987945557
  ],
  [
   -2.418874502182007,
   -3.7072277069091797,
   0.39347851276397705,
   0.08850641548633575,
   2.04591703414917,
   3.5760223865509033
  ],
  [
   -3.2660109996795654,
   1.7793489694595337,
   -2.5910143852233887,
   -0.9507713913917542,
   3.9895684719085693,
   2.011038303375244
  ],
  [
   -0.16923750936985016,
   -5.455624580383301,
   1.7396103143692017,
   -1.4954603910446167,
   -2.90922474861145,
   -0.5295774936676025
  ],
  [
   1.2657908201217651,
   -1.8815240859985352,
   -1.0527150630950928,
   -0.7731869220733643,
   4.572706699371338,
   0.07941658049821854
  ],
  [
   -1.7768751382827759,
   -3.121011734008789,
   0.4144754707813263,
   0.8544069528579712,
   3.3205246925354004,
   4.19073486328125
  ],
  [
   -0.7203428745269775,
   -1.6855424642562866,
   0.29509255290031433,
   -0.9260967373847961,
   1.8383327722549438,
   1.0992146730422974
  ],
  [
   1.8753904104232788,
   0.23772470653057098,
   2.426715612411499,
   -0.5788257718086243,
   -3.5850648880004883,
   -0.8306384086608887
  ],
  [
   0.2848546802997589,
   0.40852606296539307,
   -0.231930211186409,
   4.448314666748047,
   2.65147066116333,
   -3.01025652885437
  ],
  [
   -2.769826650619507,
   -1.2221288681030273,
   1.3880845308303833,
   2.284074544906616,
   -1.2342712879180908,
   -0.07125116139650345
  ],
  [
   -3.630823850631714,
   3.850757360458374,
   -2.829000949859619,
   1.2657110691070557,
   -2.0862162113189697,
   -1.9472084045410156
  ],
  [
   1.9747538566589355,
   -0.3136771023273468,
   -0.8935512900352478,
   2.5260024070739746,
   -3.108192205429077,
   -4.875728607177734
  ],
  [
   0.013663304969668388,
   -1.5970749855041504,
   0.5408574342727661,
   -1.0202844142913818,
   3.127244472503662,
   3.509639263153076
  ],
  [
   -2.9940598011016846,
   5.680643081665039,
   -1.497934341430664,
   0.6832796335220337,
   2.7333412170410156,
   -2.6269195079803467
  ],
  [
   1.346811056137085,
   0.2344110906124115,
   0.84430330991745,
   0.12590943276882172,
   -1.5040545463562012,
   -5.857292175292969
  ],
  [
   1.2838845252990723,
   0.18697942793369293,
   0.0913235992193222,
   -2.7147066593170166,
   1.2679766416549683,
   3.1591975688934326
  ],
  [
   -2.7683017253875732,
   -2.56656813621521,
   -0.004375868011265993,
   1.624900221824646,
   5.221243858337402,
   -1.243507981300354
  ],
  [
   -0.8719158172607422,
   -0.7841501832008362,
   -2.321242094039917,
   1.9678409099578857,
   4.732469081878662,
   0.6120941638946533
  ],
  [
   2.0470151901245117,
   -2.2296667098999023,
   -1.577721118927002,
   0.6323225498199463,
   -3.590059757232666,
   3.341538667678833
  ],
  [
   -2.145573377609253,
   1.9178211688995361,
   0.49689364433288574,
   -1.6475846767425537,
   3.103930711746216,
   4.010464668273926
  ],
  [
   -0.8314721584320068,
   -0.1743348091840744,
   0.8021203875541687,
   -0.04608757048845291,
   0.5332058668136597,
   -0.36054855585098267
  ],
  [
   -3.3453993797302246,
   6.291168212890625,
   1.5714361667633057,
   -0.20634616911411285,
   -3.346907377243042,
   -2.159428596496582
  ],
  [
   5.693465232849121,
   -0.9126901030540466,
   -0.6049242615699768,
   -1.1745189428329468,
   4.395580291748047,
   -0.6610019207000732
  ],
  [
   3.5011675357818604,
   -3.0279595851898193,
   -0.21689656376838684,
   0.20895783603191376,
   -1.0991606712341309,
   2.7308168411254883
  ],
  [
   1.567087173461914,
   2.1224260330200195,
   0.4912557005882263,
   0.6477036476135254,
   -2.452083110809326,
   1.1279183626174927
  ],
  [
   -1.2978037595748901,
   3.466207504272461,
   0.20947988331317902,
   -2.146831750869751,
   1.2202719449996948,
   -2.224182605743408
  ],
  [
   -0.22777192294597626,
   -1.315930724143982,
   2.320155143737793,
   0.9695256352424622,
   -5.273231506347656,
   1.6708065271377563
  ],
  [
   7.068613052368164,
   1.542791485786438,
   3.1164331436157227,
   0.3448571562767029,
   -1.601519227027893,
   -1.3434823751449585
  ],
  [
   1.0064079761505127,
   2.813781499862671,
   -1.8875248432159424,
   -0.3787543475627899,
   -2.9310874938964844,
   -1.857795000076294
  ],
  [
   0.9322521090507507,
   -0.3294566571712494,
   0.9224100112915039,
   0.6686604619026184,
   -4.545376777648926,
   -2.0309336185455322
  ],
  [
   1.4961403608322144,
   -2.7797508239746094,
   -0.054956819862127304,
   0.2248416543006897,
   -2.448620319366455,
   3.2008450031280518
  ],
  [
   -0.5489298701286316,
   1.0479488372802734,
   -2.4237277507781982,
   2.0111939907073975,
   4.040372848510742,
   -1.3878567218780518
  ],
  [
   0.4044111669063568,
   -0.3131505250930786,
   0.6623421907424927,
   4.278515815734863,
   2.688250780105591,
   -2.682629346847534
  ],
  [
   -3.65090274810791,
   -0.7897639274597168,
   -0.3366696536540985,
   -0.7006767988204956,
   3.554405450820923,
   -4.326864719390869
  ],
  [
   1.3209863901138306,
   -4.129151821136475,
   -1.0683757066726685,
   -0.5424880981445312,
   6.085717678070068,
   -0.6409747004508972
  ],
  [
   -1.200848937034607,
   -2.255249261856079,
   -0.4623631536960602,
   -2.624768018722534,
   -0.9790201783180237,
   2.09698748588562
  ],
  [
   -0.3871576488018036,
   -4.689700603485107,
   1.0985866785049438,
   1.1128848791122437,
   -4.392444610595703,
   -0.21450074017047882
  ],
  [
   -0.8061267733573914,
   -0.5312280058860779,
   0.7344847917556763,
   1.1705365180969238,
   7.385959148406982,
   0.4113751947879791
  ],
  [
   1.8768526315689087,
   4.949254989624023,
   0.5758504271507263,
   -3.2615599632263184,
   2.569746732711792,
   0.7757161259651184
  ],
  [
   -4.191912651062012,
   1.4628307819366455,
   -1.3371562957763672,
   -0.661409854888916,
   3.0928945541381836,
   -0.7691493630409241
  ],
  [
   2.1485841274261475,
   2.262049913406372,
   -2.7089014053344727,
   -0.5313502550125122,
   -1.7452031373977661,
   0.6500703692436218
  ],
  [
   2.267369270324707,
   -3.646686553955078,
   -0.2707851529121399,
   2.1487789154052734,
   2.256298303604126,
   4.356629371643066
  ],
  [
   0.44434499740600586,
   -0.3576258420944214,
   1.3125981092453003,
   0.06266997754573822,
   -4.101137161254883,
   -0.9109695553779602
  ],
  [
   0.009735909290611744,
   -1.7893774509429932,
   1.2360897064208984,
   -0.8225390911102295,
   1.9278287887573242,
   5.577801704406738
  ],
  [
   -0.72471684217453,
   -4.2561564445495605,
   -0.07393043488264084,
   1.1281259059906006,
   4.181513786315918,
   2.5400657653808594
  ],
  [
   1.049989938735962,
   6.628973484039307,
   0.9384931325912476,
   1.691199541091919,
   0.9109000563621521,
   -2.042938232421875
  ],
  [
   -3.293074369430542,
   -0.3855983316898346,
   -2.4516026973724365,
   1.358358383178711,
   2.9779233932495117,
   -1.9034169912338257
  ],
  [
   -1.1054490804672241,
   3.6593399047851562,
   -2.702638626098633,
   -0.1131889596581459,
   3.4709091186523438,
   3.300840139389038
  ],
  [
   1.9818493127822876,
   5.631347179412842,
   -1.4121713638305664,
   -0.056251637637615204,
   2.148171901702881,
   -2.26910400390625
  ],
  [
   0.29993778467178345,
   -4.062775135040283,
   2.109043836593628,
   -4.466677665710449,
   0.4996853768825531,
   1.9774043560028076
  ],
  [
   0.5393736362457275,
   -0.8389191627502441,
   0.20474734902381897,
   -4.807894229888916,
   1.5910451412200928,
   3.571803569793701
  ],
  [
   5.983593463897705,
   -0.2522924244403839,
   2.9075567722320557,
   1.8790241479873657,
   -1.573656439781189,
   -2.3793904781341553
  ],
  [
   1.8478116989135742,
   4.379916667938232,
   -2.4883430004119873,
   -1.411118745803833,
   1.1317428350448608,
   2.8138933181762695
  ],
  [
   0.1065058708190918,
   -3.4701614379882812,
   0.7837702035903931,
   0.17788122594356537,
   5.3306884765625,
   2.5812389850616455
  ],
  [
   -2.153064250946045,
   3.4579248428344727,
   -0.36368998885154724,
   4.460935592651367,
   0.21700318157672882,
   -2.8542978763580322
  ],
  [
   0.16980065405368805,
   0.06082126498222351,
   -0.060278117656707764,
   0.13404810428619385,
   -3.898625135421753,
   -1.8933899402618408
  ],
  [
   1.560542106628418,
   -3.9909889698028564,
   -0.5042672157287598,
   -0.6980282068252563,
   0.16223709285259247,
   0.05295795202255249
  ],
  [
   -0.5817182660102844,
   -1.2464250326156616,
   -4.895183563232422,
   0.9617201685905457,
   4.698047637939453,
   2.050236463546753
  ],
  [
   1.5243886709213257,
   2.801563262939453,
   -2.0701260566711426,
   -3.8010895252227783,
   -0.6414346098899841,
   -0.8460952639579773
  ],
  [
   1.1260247230529785,
   0.8924626708030701,
   1.4198380708694458,
   -4.880938529968262,
   -1.1930655241012573,
   4.15311336517334
  ],
  [
   -2.643306016921997,
   2.06317400932312,
   0.29500675201416016,
   -0.057153794914484024,
   0.08607657253742218,
   -4.49691915512085
  ],
  [
   -2.087022066116333,
   -3.400841474533081,
   -1.29470694065094,
   -1.401745319366455,
   4.514595031738281,
   -4.162547588348389
  ],
  [
   1.8707501888275146,
   -1.8194832801818848,
   -0.24283809959888458,
   1.251635193824768,
   -6.388143062591553,
   0.416595995426178
  ],
  [
   3.200521945953369,
   -1.5453811883926392,
   -2.8975727558135986,
   0.9017136096954346,
   -1.196884274482727,
   -3.5104012489318848
  ],
  [
   0.43600866198539734,
   -1.2978297472000122,
   -0.4412592649459839,
   2.2320828437805176,
   -3.7526345252990723,
   -0.9834541082382202
  ],
  [
   -2.913870096206665,
   2.256751537322998,
   0.5703113675117493,
   -0.4393993616104126,
   1.4635313749313354,
   -2.126338481903076
  ],
  [
   2.0145175457000732,
   0.0438174232840538,
   -1.2217116355895996,
   2.76658034324646,
   2.9648430347442627,
   -3.0653207302093506
  ],
  [
   -0.8147266507148743,
   2.043881416320801,
   1.0245813131332397,
   -1.844016194343567,
   5.3077545166015625,
   -0.4193826913833618
  ],
  [
   -0.8763879537582397,
   0.27505597472190857,
   -2.2442498207092285,
   4.6080708503723145,
   4.257373809814453,
   -2.38694429397583
  ],
  [
   -3.0759685039520264,
   -5.7097344398498535,
   0.46649497747421265,
   0.9866955876350403,
   -1.443152904510498,
   2.2573084831237793
  ],
  [
   -8.938661575317383,
   0.07161473482847214,
   0.20689965784549713,
   0.38436728715896606,
   1.7292512655258179,
   4.289547443389893
  ],
  [
   -0.8268089890480042,
   0.9751599431037903,
   0.4383927881717682,
   2.3119683265686035,
   -2.0434975624084473,
   -1.183863639831543
  ],
  [
   2.249819278717041,
   -4.900834560394287,
   -0.09137461334466934,
   -0.05329597368836403,
   -1.268879771232605,
   3.0658700466156006
  ],
  [
   1.552990436553955,
   0.4471147656440735,
   2.4510574340820312,
   1.096203088760376,
   -1.2753710746765137,
   0.06931579113006592
  ],
  [
   -0.09026657044887543,
   -2.7300121784210205,
   -2.062054395675659,
   -6.213603496551514,
   -0.15271197259426117,
   1.6163592338562012
  ],
  [
   4.583283424377441,
   -5.329832553863525,
   0.24535126984119415,
   -0.6869543790817261,
   0.48958271741867065,
   -2.453660011291504
  ],
  [
   1.9007036685943604,
   0.3666607141494751,
   6.398551940917969,
   1.4921374320983887,
   1.388866901397705,
   1.4414739608764648
  ],
  [
   1.6012285947799683,
   -1.2359415292739868,
   2.1282167434692383,
   -4.429311275482178,
   -0.24522443115711212,
   4.601873397827148
  ],
  [
   0.663307249546051,
   -4.3553361892700195,
   -0.6640927195549011,
   -3.974679946899414,
   1.7580242156982422,
   0.007554642390459776
  ],
  [
   1.239932894706726,
   0.5268733501434326,
   -4.819002628326416,
   0.6612811088562012,
   3.0950028896331787,
   0.16149230301380157
  ],
  [
   -1.0648101568222046,
   1.6095901727676392,
   3.508948802947998,
   -0.4066303074359894,
   -2.5133392810821533,
   -3.624983310699463
  ],
  [
   -0.38962236046791077,
   10.697122573852539,
   0.22126691043376923,
   6.280417442321777,
   -0.8161513805389404,
   0.6217294335365295
  ],
  [
   -2.5702407360076904,
   -0.7764606475830078,
   1.5355409383773804,
   -0.5366190671920776,
   3.949256181716919,
   1.4367334842681885
  ],
  [
   2.1118953227996826,
   3.589405059814453,
   0.6887072324752808,
   2.593024492263794,
   -2.6782870292663574,
   -1.0064976215362549
  ],
  [
   -0.2236713171005249,
   -0.45375677943229675,
   2.688887596130371,
   -2.9456286430358887,
   0.12668712437152863,
   -2.9536561965942383
  ],
  [
   0.21219605207443237,
   -1.3990416526794434,
   -1.6395176649093628,
   -3.166311264038086,
   1.7205190658569336,
   -1.5597697496414185
  ],
  [
   -0.16989371180534363,
   -5.61338996887207,
   0.1668650060892105,
   -2.744563579559326,
   -0.8727535605430603,
   5.066627502441406
  ],
  [
   -2.1262269020080566,
   -0.07904864847660065,
   0.02593175135552883,
   1.3283843994140625,
   0.12850897014141083,
   -5.296603679656982
  ],
  [
   -1.5882920026779175,
   -2.2809410095214844,
   -0.666948139667511,
   -3.0622806549072266,
   -0.7946085929870605,
   0.5506996512413025
  ],
  [
   3.82616925239563,
   -0.4032435715198517,
   0.819941520690918,
   -3.4765634536743164,
   1.9052218198776245,
   0.14555026590824127
  ],
  [
   1.371444821357727,
   0.3820606768131256,
   -0.8805684447288513,
   2.017047166824341,
   5.187953948974609,
   0.060085710138082504
  ],
  [
   3.1652162075042725,
   1.9408341646194458,
   3.8445706367492676,
   1.5891132354736328,
   1.4794162511825562,
   -1.853441596031189
  ],
  [
   -0.5550736784934998,
   3.5561535358428955,
   1.6809533834457397,
   -2.952693223953247,
   -1.6224325895309448,
   0.009407087229192257
  ],
  [
   2.8437671661376953,
   2.631648063659668,
   -1.422576904296875,
   1.4271670579910278,
   2.6909542083740234,
   -2.8734169006347656
  ],
  [
   1.3941718339920044,
   -0.548522412776947,
   -0.9613494873046875,
   -0.5420306921005249,
   -2.0910568237304688,
   -3.944366931915283
  ],
  [
   0.13012553751468658,
   -8.741888999938965,
   0.593337893486023,
   -4.66911506652832,
   1.5295186042785645,
   0.7860428094863892
  ],
  [
   -2.852207660675049,
   -1.0260196924209595,
   1.1667957305908203,
   1.8617463111877441,
   3.749351978302002,
   -2.820464611053467
  ],
  [
   -1.3158074617385864,
   -0.35259076952934265,
   2.683748960494995,
   1.5310887098312378,
   -2.116337537765503,
   -6.821524143218994
  ],
  [
   2.2189998626708984,
   -0.6517572402954102,
   -0.9737364053726196,
   -3.921538829803467,
   2.162216901779175,
   1.0684782266616821
  ],
  [
   0.44974273443222046,
   -0.7608145475387573,
   2.0024197101593018,
   -0.8648775815963745,
   -1.1287364959716797,
   2.8248839378356934
  ],
  [
   -1.148073434829712,
   -1.9972997903823853,
   0.11700087785720825,
   0.5854863524436951,
   -0.5915745496749878,
   5.753547191619873
  ],
  [
   0.7327890396118164,
   -0.5770804286003113,
   2.915165424346924,
   -0.8482956886291504,
   -4.395144939422607,
   3.4559311866760254
  ],
  [
   0.43657317757606506,
   -0.03318020701408386,
   1.972456455230713,
   -2.5075764656066895,
   0.0285481046885252,
   -2.2593538761138916
  ],
  [
   2.2029926776885986,
   6.371924877166748,
   -0.06179315969347954,
   -0.7149834036827087,
   0.03910026699304581,
   -0.9739993810653687
  ],
  [
   -0.6764059662818909,
   -0.8259398937225342,
   0.976403534412384,
   2.403611660003662,
   2.8150980472564697,
   -1.665126085281372
  ],
  [
   1.87545645236969,
   -2.9702162742614746,
   -2.3758528232574463,
   3.4777700901031494,
   0.8756082057952881,
   -0.6835348606109619
  ],
  [
   1.2871257066726685,
   -1.260521650314331,
   0.5236091613769531,
   0.13898304104804993,
   0.330206036567688,
   -1.6593185663223267
  ],
  [
   2.1248958110809326,
   3.828155279159546,
   0.021254606544971466,
   0.015081292949616909,
   -3.7518181800842285,
   2.7291982173919678
  ],
  [
   5.86848783493042,
   0.7374922037124634,
   2.4445109367370605,
   -2.850672721862793,
   2.9088499546051025,
   2.7575273513793945
  ],
  [
   -1.0190207958221436,
   0.6990029215812683,
   -0.9697397947311401,
   -1.8235353231430054,
   1.1409103870391846,
   -0.250484436750412
  ],
  [
   1.5082770586013794,
   3.9022395610809326,
   1.1362226009368896,
   -0.5169463157653809,
   -4.963164806365967,
   -0.4791271686553955
  ],
  [
   1.0555083751678467,
   -1.5872786045074463,
   1.6744531393051147,
   -2.469989061355591,
   -2.1203925609588623,
   5.395324230194092
  ],
  [
   0.77176433801651,
   2.4269862174987793,
   -2.4351911544799805,
   -0.6670884490013123,
   2.97922682762146,
   2.4078855514526367
  ],
  [
   -3.2044641971588135,
   2.8221330642700195,
   -0.321443110704422,
   -1.5358047485351562,
   -2.709496259689331,
   0.549450159072876
  ],
  [
   0.8143876194953918,
   -2.306577205657959,
   -2.008530378341675,
   -0.16663271188735962,
   0.1497301608324051,
   1.1350724697113037
  ],
  [
   0.005803785752505064,
   -2.3775503635406494,
   1.894145131111145,
   1.5500692129135132,
   -1.0837090015411377,
   4.807440280914307
  ],
  [
   -1.565894365310669,
   1.4417040348052979,
   2.905831813812256,
   -1.6586354970932007,
   1.1848747730255127,
   -3.729321241378784
  ],
  [
   1.0811707973480225,
   -3.1650781631469727,
   -2.6059651374816895,
   -2.6024458408355713,
   0.3190361261367798,
   -2.255331039428711
  ],
  [
   0.8142725229263306,
   -1.0193891525268555,
   0.757992684841156,
   0.6429430246353149,
   -4.495802402496338,
   3.1287033557891846
  ],
  [
   3.6284689903259277,
   0.9951643943786621,
   -0.8005508780479431,
   -2.336275577545166,
   -1.6716325283050537,
   -0.8439862132072449
  ],
  [
   -0.5832661986351013,
   4.077778339385986,
   -1.1543210744857788,
   -2.6948821544647217,
   0.6574819087982178,
   -3.9923341274261475
  ],
  [
   -1.0501856803894043,
   -0.7005822658538818,
   2.558605432510376,
   -0.3068666458129883,
   -4.593911170959473,
   0.5734421610832214
  ],
  [
   2.434593915939331,
   2.9511559009552,
   1.7440603971481323,
   -1.9938756227493286,
   -2.6548545360565186,
   -2.617321729660034
  ],
  [
   -1.412959098815918,
   -6.394674777984619,
   -0.8945746421813965,
   0.6159963607788086,
   3.1369667053222656,
   -0.038295965641736984
  ],
  [
   -1.6942821741104126,
   -0.13919486105442047,
   0.7692906856536865,
   0.32559341192245483,
   -1.506729245185852,
   4.368378639221191
  ],
  [
   -1.1150951385498047,
   -0.864298403263092,
   -1.1289401054382324,
   -1.6430577039718628,
   5.086733341217041,
   2.737637996673584
  ],
  [
   -0.2920965254306793,
   0.557300865650177,
   -1.1955211162567139,
   2.08911395072937,
   3.1481406688690186,
   -2.105656623840332
  ],
  [
   -2.394665002822876,
   0.5081486105918884,
   -0.5003849267959595,
   -1.8579140901565552,
   -1.2911789417266846,
   -3.7201292514801025
  ],
  [
   -1.5375897884368896,
   0.7629389762878418,
   0.15702342987060547,
   -6.016168594360352,
   0.6560353636741638,
   0.06047932803630829
  ],
  [
   -2.6976654529571533,
   1.4601093530654907,
   -2.73899507522583,
   2.7594411373138428,
   -1.1807645559310913,
   -2.7749273777008057
  ],
  [
   -0.5828011631965637,
   -2.1267518997192383,
   -0.2054758071899414,
   2.380768299102783,
   2.3166191577911377,
   4.66905403137207
  ],
  [
   -0.547416090965271,
   1.3448824882507324,
   1.2018520832061768,
   -2.0114173889160156,
   1.383465051651001,
   0.1904735416173935
  ],
  [
   3.4146738052368164,
   1.763025164604187,
   -0.7888404130935669,
   1.168506145477295,
   0.911421537399292,
   -1.3386030197143555
  ],
  [
   -2.4849579334259033,
   -2.2993416786193848,
   2.240586280822754,
   -0.6260250806808472,
   -1.8762229681015015,
   -0.7265603542327881
  ],
  [
   -0.1743491142988205,
   0.6360968351364136,
   -2.971595287322998,
   0.5291104316711426,
   -1.9478588104248047,
   -1.6372634172439575
  ],
  [
   4.564787864685059,
   3.061969518661499,
   0.2977445125579834,
   1.9258767366409302,
   -2.359093189239502,
   -1.3666912317276
  ],
  [
   -0.18677091598510742,
   -2.57623553276062,
   2.624938488006592,
   0.3869762122631073,
   -1.440327763557434,
   -0.38726282119750977
  ],
  [
   1.7402757406234741,
   1.3976596593856812,
   1.2295506000518799,
   -2.628683567047119,
   1.0212353467941284,
   3.8925859928131104
  ],
  [
   0.6130187511444092,
   6.112063884735107,
   -0.28779152035713196,
   0.694892168045044,
   -2.7896580696105957,
   5.934640884399414
  ],
  [
   1.37550687789917,
   1.0511674880981445,
   -0.5215526819229126,
   4.67142915725708,
   -2.408550262451172,
   -4.214382171630859
  ],
  [
   -1.0199052095413208,
   -0.17175376415252686,
   -0.8775071501731873,
   0.226736918091774,
   4.4133758544921875,
   -1.3178791999816895
  ],
  [
   3.2235445976257324,
   1.0871504545211792,
   2.3845832347869873,
   -1.830741286277771,
   -5.532515048980713,
   -1.4726685285568237
  ],
  [
   0.3306763172149658,
   -0.6577498912811279,
   -3.222226619720459,
   1.3140983581542969,
   5.974616527557373,
   2.6747450828552246
  ],
  [
   2.3104944229125977,
   -1.693426251411438,
   0.5399302840232849,
   -0.3117106854915619,
   3.446810722351074,
   -3.7450220584869385
  ],
  [
   -0.9388822913169861,
   -0.12092440575361252,
   -0.24475562572479248,
   4.736748218536377,
   1.9370309114456177,
   -2.8055989742279053
  ],
  [
   -0.4891926646232605,
   -0.9470546245574951,
   -0.42308440804481506,
   -6.576870441436768,
   0.04002874344587326,
   2.372097969055176
  ],
  [
   1.450331449508667,
   -2.298410415649414,
   3.2214603424072266,
   3.377542018890381,
   -3.3433849811553955,
   -2.5282492637634277
  ],
  [
   0.7132867574691772,
   0.660182535648346,
   -1.4604061841964722,
   2.2554876804351807,
   -0.49740734696388245,
   -3.4745981693267822
  ],
  [
   -0.9157536625862122,
   3.632633686065674,
   -0.5414618253707886,
   -0.2496640384197235,
   0.07578825950622559,
   -6.233099460601807
  ],
  [
   -1.192199468612671,
   0.8344124555587769,
   -0.3934597969055176,
   -1.84244966506958,
   1.648423433303833,
   2.78503155708313
  ],
  [
   0.7653747797012329,
   4.847929954528809,
   -0.0751044973731041,
   0.744127094745636,
   2.2284364700317383,
   2.1768476963043213
  ],
  [
   1.0569126605987549,
   -1.6536664962768555,
   0.24462568759918213,
   -4.8434157371521,
   -3.228780508041382,
   0.0030913015361875296
  ],
  [
   4.466602802276611,
   -0.06195759028196335,
   -1.2434954643249512,
   -0.13733439147472382,
   -1.1224279403686523,
   -0.05508754402399063
  ],
  [
   2.0568413734436035,
   -1.4320036172866821,
   -0.8689712882041931,
   0.10587625950574875,
   -3.1384024620056152,
   0.6512438058853149
  ],
  [
   1.9938956499099731,
   -0.7787880301475525,
   -0.9047837257385254,
   -1.4922536611557007,
   -1.6998951435089111,
   6.43540620803833
  ],
  [
   0.7154147028923035,
   -0.5104158520698547,
   1.5326008796691895,
   -0.22552475333213806,
   -3.7272109985351562,
   2.7042016983032227
  ],
  [
   0.4829089641571045,
   0.07837382704019547,
   1.0473634004592896,
   -2.852047920227051,
   2.2645576000213623,
   1.3104852437973022
  ]
 ],
 "pi.0.bias": [
  -2.859870433807373,
  6.0212483406066895,
  8.958834648132324,
  4.021397113800049,
  2.2764945030212402,
  -2.63034987449646,
  2.301982879638672,
  1.836733341217041,
  -3.899158477783203,
  3.1505842208862305,
  5.678666591644287,
  8.369853019714355,
  0.45363670587539673,
  -3.833909034729004,
  -5.7915754318237305,
  0.8822036385536194,
  3.8583948612213135,
  -2.962369918823242,
  -0.2545406222343445,
  -2.492898941040039,
  1.7274619340896606,
  0.6750414967536926,
  6.873992443084717,
  -0.5867231488227844,
  -0.5989507436752319,
  6.899230480194092,
  1.8812578916549683,
  -6.430363178253174,
  -1.6738030910491943,
  -6.111610412597656,
  3.8272626399993896,
  -0.7545059323310852,
  -2.3155622482299805,
  -3.958268880844116,
  4.191447734832764,
  -0.08801785111427307,
  0.5119933485984802,
  3.478864908218384,
  5.491336345672607,
  7.785930156707764,
  -6.633718967437744,
  4.343286514282227,
  6.244674205780029,
  0.995924711227417,
  1.1313503980636597,
  3.507155656814575,
  4.157638072967529,
  -3.9580276012420654,
  2.0948352813720703,
  8.013446807861328,
  -4.1704607009887695,
  7.220527648925781,
  -3.600916862487793,
  4.401191711425781,
  3.7735397815704346,
  5.051684379577637,
  -0.28751739859580994,
  0.29177069664001465,
  -3.6793224811553955,
  -0.18458378314971924,
  3.4671216011047363,
  -3.374741315841675,
  1.60111665725708,
  7.656661033630371,
  4.056552410125732,
  2.6299619674682617,
  -5.0435028076171875,
  6.272143363952637,
  2.1278650760650635,
  0.9362900257110596,
  0.6115909218788147,
  -1.7878625392913818,
  -1.4520702362060547,
  -0.5103078484535217,
  -0.8581534028053284,
  3.467243194580078,
  1.696584939956665,
  2.8936009407043457,
  5.498066425323486,
  0.21533824503421783,
  0.3747144341468811,
  5.046895980834961,
  4.615382671356201,
  1.813050627708435,
  4.189169883728027,
  -5.853043079376221,
  -1.1406493186950684,
  -3.318887233734131,
  6.1796650886535645,
  2.1461596488952637,
  0.2595188617706299,
  2.2210276126861572,
  3.0590310096740723,
  3.811344623565674,
  0.09577542543411255,
  -4.3343186378479,
  -0.40268009901046753,
  -3.53743052482605,
  -3.766376256942749,
  -4.91071081161499,
  2.318455219268799,
  0.1547030806541443,
  -3.144320487976074,
  3.8413021564483643,
  2.358510971069336,
  2.9869914054870605,
  -1.5175209045410156,
  -4.528286933898926,
  -3.327684164047241,
  5.899880409240723,
  1.7035284042358398,
  3.484297752380371,
  3.816866159439087,
  0.5343172550201416,
  8.199787139892578,
  2.5783424377441406,
  -6.112060546875,
  -1.5412710905075073,
  3.6467039585113525,
  0.46986064314842224,
  3.065438985824585,
  5.3142170906066895,
  5.561004161834717,
  -1.780470371246338,
  -1.8415603637695312,
  2.270704507827759,
  6.486733436584473,
  4.8644304275512695,
  -4.460774898529053,
  -5.263959884643555,
  1.0559920072555542,
  -6.264989852905273,
  -1.9764008522033691,
  1.1214382648468018,
  3.5431931018829346,
  2.2167809009552,
  1.2481244802474976,
  0.037117403000593185,
  5.603815078735352,
  -0.42773890495300293,
  1.1674712896347046,
  -6.594940185546875,
  4.933963775634766,
  -2.0874359607696533,
  -0.46924683451652527,
  -6.734801292419434,
  5.053662300109863,
  -4.490870952606201,
  5.186111927032471,
  8.458884239196777,
  -2.8418352603912354,
  2.4510231018066406,
  7.508965015411377,
  -2.41850209236145,
  -0.9665019512176514,
  1.9285622835159302,
  0.8899759650230408,
  -7.895917892456055,
  1.6872912645339966,
  -0.7795908451080322,
  3.719937324523926,
  3.4599063396453857,
  -2.272853136062622,
  2.415969133377075,
  1.302302360534668,
  4.745083808898926,
  0.11408031731843948,
  -3.5556294918060303,
  -0.47532919049263,
  5.9345550537109375,
  4.311617374420166,
  4.167914867401123,
  5.2243475914001465,
  -0.984332263469696,
  7.403690338134766,
  4.500123023986816,
  -0.030209243297576904,
  -6.3013386726379395,
  -1.5473343133926392,
  -3.5335724353790283,
  5.661242961883545,
  1.0247893333435059,
  -0.1804855465888977,
  -3.0345280170440674,
  -2.7915310859680176,
  1.1009727716445923,
  1.9599440097808838,
  -2.413182497024536,
  -3.1395602226257324,
  -1.1816519498825073,
  -1.9793405532836914,
  -0.2580551207065582,
  -4.538206577301025,
  -5.31138801574707,
  1.8434200286865234,
  -4.0675578117370605,
  -2.949181079864502,
  -0.5236191153526306,
  2.621142625808716,
  3.5700912475585938
 ],
 "pi.2.weight": [
  [
   -1.3595590591430664,
   -0.36138153076171875,
   -0.048041194677352905,
   -1.706552505493164,
   -1.1990972757339478,
   1.461447834968567,
   0.36781275272369385,
   0.44301319122314453,
   1.0128300189971924,
   1.006278157234192,
   1.255155324935913,
   -0.1789238005876541,
   1.7007062435150146,
   0.4597947299480438,
   1.1007753610610962,
   -0.6253421902656555,
   0.6792325377464294,
   0.5302032828330994,
   -0.2807702124118805,
   -1.8491666316986084,
   -3.9043426513671875,
   -1.3068946599960327,
   0.10599542409181595,
   0.5879831910133362,
   -0.559075117111206,
   0.25291237235069275,
   -0.36098712682724,
   -2.0399858951568604,
   1.2411905527114868,
   -0.9087755680084229,
   -1.127562403678894,
   -1.4744099378585815,
   -0.6491191983222961,
   0.5531721711158752,
   -0.23810413479804993,
   0.47990986704826355,
   -0.3835866153240204,
   -0.2501259446144104,
   -0.1498595029115677,
   -0.7542465925216675,
   -0.14556032419204712,
   1.4318968057632446,
   -0.6037129759788513,
   -0.10831349343061447,
   1.5824393033981323,
   0.12780103087425232,
   -0.4678911566734314,
   -0.43657204508781433,
   1.1749939918518066,
   -0.6600477695465088,
   -0.6955423951148987,
   -2.0527288913726807,
   0.42747411131858826,
   -2.051156520843506,
   -1.7568880319595337,
   0.3912428915500641,
   -2.2744431495666504,
   0.7795811891555786,
   -1.2785850763320923,
   -0.625852644443512,
   0.6296166181564331,
   -2.5924324989318848,
   -1.1434893608093262,
   1.4161853790283203,
   1.0582351684570312,
   -0.4527411162853241,
   0.5445995330810547,
   -0.09731722623109818,
   1.1931979656219482,
   -0.21901069581508636,
   0.24994409084320068,
   1.9030729532241821,
   -1.2152072191238403,
   -0.806985080242157,
   -0.9600347280502319,
   0.2936001420021057,
   0.15238355100154877,
   1.8480595350265503,
   -0.34531956911087036,
   1.9209426641464233,
   0.8323347568511963,
   2.0625269412994385,
   -3.043951988220215,
   -0.8498539328575134,
   -1.2803027629852295,
   -0.04330494627356529,
   -0.003952621947973967,
   1.361910343170166,
   -0.868403971195221,
   -1.7323737144470215,
   -0.07960134744644165,
   -1.3075333833694458,
   -0.8332972526550293,
   -0.10511410236358643,
   -0.45930325984954834,
   0.31258586049079895,
   2.023189067840576,
   0.7463746666908264,
   -0.3147830665111542,
   1.35666823387146,
   -1.4697949886322021,
   -0.763210654258728,
   -0.0484527051448822,
   0.4915803074836731,
   0.9600644111633301,
   -0.9822767376899719,
   1.2710148096084595,
   0.17265667021274567,
   0.686109721660614,
   -1.7116628885269165,
   1.0197477340698242,
   0.5470147132873535,
   -0.8103484511375427,
   0.2986336350440979,
   -0.6878039240837097,
   1.495424509048462,
   -0.06240298971533775,
   -0.315100759267807,
   0.29032212495803833,
   -0.10473290085792542,
   1.2516801357269287,
   -1.124313235282898,
   0.14962685108184814,
   1.3471494913101196,
   0.11931876093149185,
   1.1585804224014282,
   -0.11120062321424484,
   -0.03570982441306114,
   0.3533321022987366,
   0.5077376961708069,
   0.14784616231918335,
   -0.8075087666511536,
   0.24071882665157318,
   0.5942367911338806,
   -0.8743375539779663,
   0.0786738321185112,
   0.8696182370185852,
   0.8352087736129761,
   1.5199060440063477,
   -0.6776943206787109,
   -2.6221907138824463,
   0.46516144275665283,
   -1.2239055633544922,
   -0.7700719237327576,
   -2.486191511154175,
   0.11772187799215317,
   0.1894199103116989,
   -1.1139153242111206,
   1.3194372653961182,
   -2.344118595123291,
   1.006558895111084,
   -2.4046761989593506,
   -0.37418025732040405,
   0.40815672278404236,
   0.6464731693267822,
   -0.7200921177864075,
   0.22327406704425812,
   -2.095425844192505,
   1.0720325708389282,
   0.9475299119949341,
   0.06001456081867218,
   0.43386465311050415,
   0.42803463339805603,
   1.9990683794021606,
   0.34057214856147766,
   -1.0955392122268677,
   -1.6647965908050537,
   0.5873197317123413,
   -0.40768155455589294,
   0.29073143005371094,
   0.3155060112476349,
   -0.1465080976486206,
   0.06454043835401535,
   -1.259831428527832,
   1.4461536407470703,
   -1.40218985080719,
   0.8569375276565552,
   0.14201012253761292,
   0.02701381966471672,
   0.3030053973197937,
   -0.44930899143218994,
   0.0056526982225477695,
   2.0519988536834717,
   -0.17190021276474,
   1.7288222312927246,
   -0.6048018336296082,
   0.9534012675285339,
   -0.20973648130893707,
   -0.10984000563621521,
   -1.7072699069976807,
   0.7448278069496155,
   -0.5051117539405823,
   1.6365200281143188,
   0.21519838273525238,
   -0.5887551307678223,
   -0.15339849889278412,
   -0.1069500669836998,
   1.0082504749298096,
   0.5277510285377502,
   -0.6090409755706787
  ],
  [
   -0.35458043217658997,
   -0.8682276010513306,
   -1.0698573589324951,
   -1.2004709243774414,
   -0.45186591148376465,
   0.48287081718444824,
   1.2385833263397217,
   0.09128172695636749,
   -1.2038236856460571,
   0.35862767696380615,
   -0.5287544131278992,
   0.4684429466724396,
   0.9162425994873047,
   0.05734884738922119,
   -0.04717696085572243,
   0.16196352243423462,
   -0.5159335136413574,
   1.965303897857666,
   -0.4287269711494446,
   -0.8125700354576111,
   1.2726669311523438,
   0.4432404339313507,
   -1.105494737625122,
   -1.065374493598938,
   0.5271362662315369,
   0.39443957805633545,
   0.4308628737926483,
   -0.12416600435972214,
   -0.2986474633216858,
   0.22102074325084686,
   0.31481194496154785,
   -0.7682181000709534,
   0.13979318737983704,
   0.36823391914367676,
   -1.1932482719421387,
   0.6486318111419678,
   -0.31361857056617737,
   0.06489397585391998,
   0.5563107132911682,
   0.5692177414894104,
   -1.3048179149627686,
   -0.4504588544368744,
   -0.802945077419281,
   -1.0982745885849,
   1.3980528116226196,
   -0.04357820376753807,
   -0.203672394156456,
   0.188788503408432,
   0.6603285074234009,
   -0.8288710713386536,
   0.07275450974702835,
   0.8033285140991211,
   1.2785329818725586,
   -0.5969898700714111,
   -0.9056585431098938,
   -1.0499681234359741,
   0.85190749168396,
   0.5945289731025696,
   -1.1338849067687988,
   -0.10308433324098587,
   0.7447242736816406,
   0.46918511390686035,
   0.6694806218147278,
   -0.41593530774116516,
   0.4899516701698303,
   -0.17772258818149567,
   -0.2985314428806305,
   -0.94400954246521,
   0.826665997505188,
   0.3645917475223541,
   0.4698852300643921,
   -0.3619970679283142,
   -0.6969451904296875,
   -3.6681628227233887,
   0.11342944949865341,
   0.2933751046657562,
   -1.676077127456665,
   -1.1765002012252808,
   -0.1868574023246765,
   0.9792823791503906,
   -1.36688232421875,
   -0.7047940492630005,
   0.031362853944301605,
   -1.093822717666626,
   0.5645226836204529,
   -0.15004993975162506,
   -1.6596784591674805,
   -2.221984386444092,
   -0.32757294178009033,
   -0.5119192004203796,
   -0.24808168411254883,
   -1.9148688316345215,
   0.3722098469734192,
   0.9587578177452087,
   0.080286405980587,
   0.9399632811546326,
   -1.3777083158493042,
   0.33843404054641724,
   -0.6988821625709534,
   -3.1939568519592285,
   1.1495872735977173,
   -0.5338580012321472,
   -0.6881038546562195,
   0.16756092011928558,
   1.1040457487106323,
   -0.0443638376891613,
   -0.5051361918449402,
   0.3035535216331482,
   0.8599344491958618,
   -0.17991027235984802,
   0.20384487509727478,
   -1.223006248474121,
   -0.8172188997268677,
   0.5980039238929749,
   0.643276035785675,
   0.2388644814491272,
   -0.06675489246845245,
   0.9699171185493469,
   0.7702759504318237,
   -0.04369138181209564,
   0.3369348347187042,
   1.0877140760421753,
   1.0057510137557983,
   -1.2290966510772705,
   0.7341011762619019,
   -0.2605202794075012,
   1.0303384065628052,
   -0.33505192399024963,
   0.45964062213897705,
   -0.6925722360610962,
   -0.038600094616413116,
   -1.614761471748352,
   0.6312223076820374,
   1.9793201684951782,
   0.2766749858856201,
   -0.10088133811950684,
   0.21470831334590912,
   -0.04992314800620079,
   -0.062457166612148285,
   0.8066421747207642,
   -0.19493195414543152,
   2.457374095916748,
   0.4442008435726166,
   -0.324518084526062,
   -0.6369110345840454,
   -0.4514121115207672,
   -0.24896405637264252,
   0.4151347875595093,
   -1.5635859966278076,
   0.3239140212535858,
   0.5223645567893982,
   0.7291874289512634,
   0.5461829900741577,
   0.4366544783115387,
   1.5696232318878174,
   -1.6762948036193848,
   1.3018319606781006,
   -1.2993263006210327,
   1.9023839235305786,
   -0.141771599650383,
   0.2433466911315918,
   0.12921062111854553,
   0.6228561997413635,
   -0.5986126065254211,
   0.08075881004333496,
   0.21497279405593872,
   -1.036481261253357,
   2.590238571166992,
   1.6589608192443848,
   0.8753231763839722,
   1.0027364492416382,
   -0.7555063962936401,
   0.6585047245025635,
   -1.791662335395813,
   0.23129795491695404,
   0.585474967956543,
   -0.38322460651397705,
   0.9676831364631653,
   0.3160966634750366,
   1.3916672468185425,
   -1.3978365659713745,
   -2.172130823135376,
   0.019622590392827988,
   0.39466819167137146,
   -1.1532026529312134,
   -0.15377213060855865,
   -1.3771634101867676,
   -0.7519381642341614,
   -1.8795408010482788,
   -0.039962559938430786,
   1.0981816053390503,
   -0.09104929864406586,
   1.5167540311813354,
   2.124070405960083,
   0.5594587326049805,
   -1.3275004625320435,
   -0.589579701423645,
   -1.7157211303710938,
   0.22991396486759186,
   -1.424938440322876
  ],
  [
   -0.18905892968177795,
   -1.1409504413604736,
   -1.039650797843933,
   -0.5030645132064819,
   2.4626903533935547,
   -1.832964301109314,
   -2.212994337081909,
   -2.1814396381378174,
   0.21472255885601044,
   -4.8662495613098145,
   -0.9521783590316772,
   0.03205972537398338,
   1.8098477125167847,
   -1.5691934823989868,
   -3.925846576690674,
   -0.22174309194087982,
   0.8452993631362915,
   -3.648550510406494,
   0.3626057505607605,
   -5.648230075836182,
   -1.244025468826294,
   -0.8347755670547485,
   -2.2594873905181885,
   0.15567122399806976,
   -2.0197227001190186,
   -4.886229991912842,
   1.2051594257354736,
   -0.03481976315379143,
   -0.4309927821159363,
   0.9613070487976074,
   0.6600468754768372,
   0.6032033562660217,
   0.2048434466123581,
   2.3803300857543945,
   0.5751564502716064,
   0.1594991832971573,
   -1.789839506149292,
   -0.09473452717065811,
   1.1139662265777588,
   0.3236176669597626,
   -0.10366084426641464,
   -3.4244704246520996,
   -1.1132296323776245,
   1.5647192001342773,
   1.4455291032791138,
   1.9692418575286865,
   0.5600865483283997,
   1.041061520576477,
   -2.604353427886963,
   -6.358747959136963,
   -1.781346321105957,
   -0.6631569862365723,
   2.7017362117767334,
   -0.08215618878602982,
   -0.6684297323226929,
   1.526924729347229,
   0.25661301612854004,
   -0.04302043467760086,
   -3.2280375957489014,
   -0.39626508951187134,
   0.5808662176132202,
   1.2738947868347168,
   3.0510802268981934,
   -0.010770435445010662,
   0.6242310404777527,
   1.2488316297531128,
   -5.625823974609375,
   -1.131555199623108,
   1.6094188690185547,
   -2.1902105808258057,
   1.716628909111023,
   0.8090600967407227,
   1.379888653755188,
   -3.732984781265259,
   -2.41047739982605,
   1.8479669094085693,
   2.7456510066986084,
   -0.2049117088317871,
   1.456109642982483,
   -1.388538122177124,
   -1.6607398986816406,
   -0.1761648803949356,
   -2.537736654281616,
   1.788711667060852,
   0.7619304060935974,
   0.155515655875206,
   4.998871803283691,
   0.1577243208885193,
   0.6756004095077515,
   2.708768367767334,
   0.5369570851325989,
   0.5534080266952515,
   -8.000099182128906,
   5.404457092285156,
   0.35935065150260925,
   -1.4732944965362549,
   -0.7849201560020447,
   1.1037241220474243,
   -0.2865338623523712,
   -1.5071048736572266,
   0.07913031429052353,
   -0.8353753685951233,
   0.11626247316598892,
   -1.426165223121643,
   2.1751320362091064,
   0.3902285397052765,
   0.48241063952445984,
   -0.8658324480056763,
   -1.3876967430114746,
   -0.639263927936554,
   0.4759805500507355,
   0.6512469053268433,
   -0.37792232632637024,
   0.5629140734672546,
   1.7644107341766357,
   0.8954089879989624,
   -1.6101090908050537,
   -2.1602160930633545,
   -0.3302345871925354,
   -1.2591602802276611,
   -0.3301997482776642,
   -2.7292089462280273,
   -0.060470983386039734,
   -0.06045974791049957,
   3.003649950027466,
   3.900803804397583,
   1.3772826194763184,
   0.6808077692985535,
   2.1363022327423096,
   -7.766881942749023,
   -0.3357383608818054,
   -4.817877769470215,
   -2.098292827606201,
   3.4464173316955566,
   0.03670918196439743,
   -4.181349277496338,
   0.3038910925388336,
   -0.736621081829071,
   0.22223468124866486,
   2.258497476577759,
   -2.026015520095825,
   0.8105183839797974,
   -2.1640071868896484,
   0.16765938699245453,
   -0.5468983054161072,
   -2.4153411388397217,
   0.1964530050754547,
   -2.7774314880371094,
   -0.03123089112341404,
   0.6569807529449463,
   1.3476413488388062,
   1.0223504304885864,
   -0.269239217042923,
   0.15899604558944702,
   1.0270872116088867,
   -2.389465093612671,
   -1.3684008121490479,
   -0.12539605796337128,
   -0.41617685556411743,
   -2.7144758701324463,
   2.6514225006103516,
   1.579803228378296,
   -2.620800256729126,
   -0.10603286325931549,
   -1.3738247156143188,
   1.8970444202423096,
   0.021578475832939148,
   -4.72475004196167,
   0.05457640066742897,
   0.8167721629142761,
   1.3152215480804443,
   -4.9943389892578125,
   0.0642402246594429,
   -1.4399564266204834,
   0.5991727709770203,
   -0.05475378409028053,
   3.307887077331543,
   -3.361457347869873,
   0.43441760540008545,
   -7.889534950256348,
   0.4504060447216034,
   -1.4974346160888672,
   -2.934737205505371,
   0.4758096933364868,
   -2.5578556060791016,
   -3.4174680709838867,
   -0.14252111315727234,
   -2.163661241531372,
   0.18531623482704163,
   0.14365772902965546,
   -0.9721423983573914,
   -3.379847764968872,
   0.28431329131126404,
   -0.7395780682563782,
   1.793684959411621,
   -2.444016456604004,
   -0.30998045206069946,
   0.5677028298377991,
   0.06737160682678223,
   -0.01538260467350483
  ],
  [
   -0.7467519044876099,
   -1.3468856811523438,
   -0.860680341720581,
   -3.256164312362671,
   -1.7020320892333984,
   -2.3103044033050537,
   0.5227997899055481,
   0.5247172713279724,
   0.694653332233429,
   0.9053548574447632,
   0.572267472743988,
   -0.7290138006210327,
   -0.44575291872024536,
   -1.5363967418670654,
   -2.7513577938079834,
   0.9424430131912231,
   1.5545068979263306,
   -0.4264177083969116,
   -0.36888986825942993,
   1.125947117805481,
   -1.0152835845947266,
   -0.7936950325965881,
   1.4171308279037476,
   0.7048015594482422,
   1.3277363777160645,
   -1.8155007362365723,
   0.9513328075408936,
   -0.1783999353647232,
   -0.27761971950531006,
   1.821071982383728,
   -0.29691940546035767,
   -1.1487758159637451,
   -0.19825801253318787,
   0.2361329346895218,
   0.9260267019271851,
   -1.0505547523498535,
   -0.35268864035606384,
   -0.3055502474308014,
   -0.6826906204223633,
   -1.0602271556854248,
   0.6821325421333313,
   0.6273393034934998,
   -0.8049464821815491,
   -1.4072556495666504,
   0.0479021780192852,
   -1.565252423286438,
   0.49971920251846313,
   0.27075469493865967,
   2.3594512939453125,
   -0.3470480144023895,
   -0.9409247636795044,
   0.06308500468730927,
   -0.5522041916847229,
   -0.41122889518737793,
   -0.7699776291847229,
   -2.2366409301757812,
   0.26746147871017456,
   -1.3651946783065796,
   2.440972328186035,
   -1.0203208923339844,
   1.8017230033874512,
   1.2225379943847656,
   -1.3561166524887085,
   -0.4622894525527954,
   0.2067292034626007,
   -1.055526852607727,
   -2.296539306640625,
   1.8496673107147217,
   1.3796119689941406,
   -1.541824221611023,
   0.9498913884162903,
   0.8193631768226624,
   -0.05424138158559799,
   1.159461498260498,
   0.1748495250940323,
   0.33423855900764465,
   -0.020899666473269463,
   -0.1471138298511505,
   0.569408118724823,
   -0.8161737322807312,
   -0.8143504858016968,
   1.4987062215805054,
   -2.139754295349121,
   -0.3592449724674225,
   1.4320803880691528,
   -0.30180230736732483,
   1.8463716506958008,
   -2.0795185565948486,
   -0.5841740369796753,
   -0.7555220723152161,
   -2.465264081954956,
   -0.9108141660690308,
   1.273626446723938,
   0.5963823795318604,
   1.825681209564209,
   -0.4638177454471588,
   -1.780678153038025,
   -1.1072158813476562,
   0.23610758781433105,
   -4.333971977233887,
   -0.5626311302185059,
   -1.7449407577514648,
   0.44168221950531006,
   1.5793088674545288,
   0.29726043343544006,
   0.25436723232269287,
   0.05686779320240021,
   -2.198420524597168,
   2.7452712059020996,
   -0.6126652359962463,
   0.7852060198783875,
   -0.32662227749824524,
   -1.393235683441162,
   -0.23791322112083435,
   0.8549371361732483,
   -0.3690376579761505,
   -0.3939225971698761,
   0.5009214282035828,
   1.0158475637435913,
   0.940467357635498,
   -0.012734444811940193,
   0.571636974811554,
   -0.9073481559753418,
   -2.286707639694214,
   -1.0716938972473145,
   -1.800122857093811,
   1.6309655904769897,
   0.6971127390861511,
   -2.307194709777832,
   -0.4511859118938446,
   -0.32169678807258606,
   -2.803428888320923,
   -0.42539623379707336,
   0.22596262395381927,
   0.36052843928337097,
   0.7094570398330688,
   -0.0020361626520752907,
   -1.9885419607162476,
   -0.15007126331329346,
   2.1075754165649414,
   0.23434999585151672,
   0.16291111707687378,
   2.4626734256744385,
   -3.010591745376587,
   1.2158204317092896,
   -2.2071611881256104,
   0.7232726216316223,
   -2.969892978668213,
   0.9309127330780029,
   0.2649088203907013,
   0.3553437292575836,
   0.6764806509017944,
   -0.7237096428871155,
   -0.2834250032901764,
   2.003573179244995,
   -0.19612985849380493,
   -1.3565680980682373,
   2.1800010204315186,
   -0.33098405599594116,
   1.4747567176818848,
   -1.6391897201538086,
   -1.6030058860778809,
   0.42572155594825745,
   0.03803269937634468,
   -0.9068571329116821,
   0.010828054510056973,
   0.6286101937294006,
   -1.0566396713256836,
   0.07924052327871323,
   0.8141276240348816,
   0.38941121101379395,
   -1.4366323947906494,
   0.5941486954689026,
   0.30696380138397217,
   -0.41212573647499084,
   0.42544811964035034,
   -0.2716508209705353,
   0.5228374004364014,
   0.2349884957075119,
   0.48788169026374817,
   -0.24326138198375702,
   0.9492931365966797,
   0.8693246841430664,
   -0.1251680999994278,
   2.273550510406494,
   -0.3153921663761139,
   -0.5482787489891052,
   1.94849693775177,
   -0.11151325702667236,
   -1.3757380247116089,
   -1.6735907793045044,
   -2.1246871948242188,
   -0.8810179829597473,
   0.21728840470314026,
   1.181824803352356,
   0.1419113129377365,
   1.2712230682373047,
   -1.2164113521575928,
   -2.2175872325897217,
   2.0003128051757812
  ],
  [
   -3.3927433490753174,
   -0.4334763288497925,
   -2.56426739692688,
   -2.2836294174194336,
   0.8911270499229431,
   -0.7706500291824341,
   -1.9475024938583374,
   1.239566683769226,
   0.4774915277957916,
   -2.703024387359619,
   -0.14700256288051605,
   0.08553203195333481,
   0.2968994379043579,
   -0.7222325205802917,
   0.9632447361946106,
   1.6747654676437378,
   1.7535316944122314,
   -1.4039288759231567,
   -0.1668904572725296,
   -0.587005078792572,
   -0.5302601456642151,
   -0.616265594959259,
   -0.1549181342124939,
   0.6202075481414795,
   -0.5922385454177856,
   -4.018688678741455,
   0.8030864596366882,
   0.041549861431121826,
   -1.2151013612747192,
   1.6748015880584717,
   1.6136279106140137,
   1.215326189994812,
   -3.68912672996521,
   0.20269182324409485,
   1.193036437034607,
   0.39222270250320435,
   0.5607518553733826,
   0.42091527581214905,
   -0.12840399146080017,
   0.606019914150238,
   -0.27036285400390625,
   -0.3158029019832611,
   -2.3891491889953613,
   2.1330034732818604,
   0.805355966091156,
   0.044986236840486526,
   -1.13669753074646,
   -2.1547861099243164,
   0.28188008069992065,
   -1.5478256940841675,
   -0.43678179383277893,
   -0.269145131111145,
   -0.9874356389045715,
   0.7293157577514648,
   -0.12607067823410034,
   0.442184716463089,
   0.4367200434207916,
   0.504659116268158,
   0.14065781235694885,
   0.19476525485515594,
   1.032070517539978,
   -0.06890122592449188,
   -0.2895781397819519,
   0.6891079545021057,
   1.2096754312515259,
   -4.081512928009033,
   1.7077957391738892,
   -1.7891768217086792,
   -2.450615644454956,
   -0.505134105682373,
   -0.5473785996437073,
   -0.528140127658844,
   -0.8170367479324341,
   -0.17050586640834808,
   -1.0396987199783325,
   -0.059863556176424026,
   0.7389212250709534,
   0.11702445149421692,
   -0.6085243225097656,
   0.278030127286911,
   1.5595108270645142,
   0.8810598254203796,
   -0.5703132152557373,
   -1.5461870431900024,
   0.974702775478363,
   -0.9297887682914734,
   1.2069915533065796,
   0.9757850170135498,
   1.1611473560333252,
   -0.38603517413139343,
   -1.7213701009750366,
   0.5766929388046265,
   -2.4845170974731445,
   -1.183605432510376,
   -0.14309833943843842,
   -0.2654024362564087,
   -0.04485223814845085,
   1.4245861768722534,
   -2.436142683029175,
   0.11803554743528366,
   0.11014645546674728,
   -1.8270447254180908,
   -1.489848256111145,
   -1.2137157917022705,
   -0.7524697780609131,
   -1.1954458951950073,
   -0.7220234870910645,
   -0.0031346818432211876,
   -0.8695278763771057,
   -0.04555695131421089,
   -1.121953010559082,
   0.4121445417404175,
   0.4898480474948883,
   1.4601507186889648,
   0.6961871981620789,
   0.5423205494880676,
   0.19997985661029816,
   -2.8744523525238037,
   -1.8753143548965454,
   -0.6929428577423096,
   -0.4804432690143585,
   -2.7027008533477783,
   -0.45328760147094727,
   -1.778502106666565,
   -0.6374613642692566,
   0.12843678891658783,
   -1.9321174621582031,
   -1.3830976486206055,
   -2.2976465225219727,
   -0.1831473410129547,
   0.15937989950180054,
   -0.4702543020248413,
   -3.9027440547943115,
   0.5574809908866882,
   0.417716383934021,
   -1.4542328119277954,
   0.9901319146156311,
   -0.7193030714988708,
   0.02042290009558201,
   0.4271218776702881,
   0.05176892876625061,
   -2.0555198192596436,
   -2.3253941535949707,
   0.7978842854499817,
   -0.5862459540367126,
   -0.7475533485412598,
   -1.6156494617462158,
   0.45556944608688354,
   0.6580492854118347,
   -0.4153810441493988,
   0.10597039014101028,
   -2.083487033843994,
   1.387281060218811,
   -2.880686044692993,
   0.39011576771736145,
   -0.30326876044273376,
   0.2325451374053955,
   -1.5807521343231201,
   -1.0664958953857422,
   0.3222876489162445,
   -2.6616289615631104,
   0.2568005919456482,
   0.4051794707775116,
   -0.3270193636417389,
   -2.068680763244629,
   -1.3101890087127686,
   -3.7574777603149414,
   -0.4944581389427185,
   0.25058332085609436,
   0.40224045515060425,
   -0.23570823669433594,
   -2.9223666191101074,
   0.49771878123283386,
   1.0718287229537964,
   0.6709449887275696,
   -0.007633903995156288,
   0.7344605326652527,
   0.1716676503419876,
   0.7449567317962646,
   0.13986723124980927,
   -0.4293653964996338,
   0.7460864782333374,
   -1.0911544561386108,
   -1.3699569702148438,
   -2.2975873947143555,
   -0.6479132175445557,
   -1.7150086164474487,
   -0.24860920011997223,
   -1.5511928796768188,
   -2.046309471130371,
   -0.33821308612823486,
   -2.1741840839385986,
   -0.5489377975463867,
   -0.9232698082923889,
   -0.2186918556690216,
   -1.0116305351257324,
   -0.6654980182647705,
   -1.712282419204712,
   -1.2731107473373413,
   -1.6726123094558716
  ],
  [
   2.489424705505371,
   -1.0947448015213013,
   -2.857184410095215,
   -5.591864109039307,
   2.168046236038208,
   -0.6154710054397583,
   1.3441239595413208,
   -0.6390944123268127,
   0.4400218427181244,
   -3.8761789798736572,
   -0.5161014795303345,
   1.1428160667419434,
   2.600607395172119,
   -2.2000036239624023,
   -2.1315929889678955,
   -0.05693163350224495,
   -3.8860387802124023,
   -2.161101818084717,
   1.5593007802963257,
   -5.280945777893066,
   1.2074838876724243,
   0.6618311405181885,
   -0.5041525363922119,
   0.4716998040676117,
   -2.0793442726135254,
   1.372833490371704,
   0.9561976790428162,
   -3.3680243492126465,
   -1.2378653287887573,
   -3.0013370513916016,
   0.21846000850200653,
   -0.7689768075942993,
   0.12528491020202637,
   1.8949843645095825,
   -0.11225555837154388,
   1.189696192741394,
   1.0819963216781616,
   -0.5662529468536377,
   -0.008790829218924046,
   -0.4140266478061676,
   -0.660244345664978,
   -0.23573563992977142,
   -0.9361057281494141,
   -4.092679500579834,
   -3.39574933052063,
   -0.39156678318977356,
   -0.3240659534931183,
   -1.6850665807724,
   -2.0699007511138916,
   -1.150546908378601,
   1.9298964738845825,
   -1.0063687562942505,
   0.6978397965431213,
   0.11576014012098312,
   -1.8165581226348877,
   0.07449153065681458,
   0.8048076033592224,
   -0.7945312261581421,
   -2.9676990509033203,
   -1.562953233718872,
   -0.4592432677745819,
   -1.833612084388733,
   0.8181485533714294,
   1.1663004159927368,
   2.8813929557800293,
   -0.7106071710586548,
   -4.474324703216553,
   0.11846732348203659,
   -1.059629201889038,
   0.9453272819519043,
   -1.6442190408706665,
   0.477700412273407,
   2.8667545318603516,
   -0.5821480751037598,
   -4.690061092376709,
   0.8931860327720642,
   1.8346103429794312,
   -4.028981685638428,
   2.0408103466033936,
   2.3418455123901367,
   -3.0705790519714355,
   0.9226187467575073,
   0.31782659888267517,
   0.7562484741210938,
   -1.4563179016113281,
   -2.017970561981201,
   0.5325270891189575,
   -2.6326072216033936,
   2.4794392585754395,
   1.3884117603302002,
   -0.6156823635101318,
   0.736642062664032,
   -8.89498519897461,
   1.7139967679977417,
   -0.5868109464645386,
   -1.5864111185073853,
   -1.7146257162094116,
   0.058120012283325195,
   -3.615731716156006,
   -2.223771095275879,
   -0.6764152646064758,
   -0.8879866600036621,
   -3.789534568786621,
   0.5688360929489136,
   -1.9314790964126587,
   0.5334986448287964,
   -0.1882655918598175,
   1.1061220169067383,
   -5.484724044799805,
   1.3261539936065674,
   2.734921455383301,
   0.4940955936908722,
   2.033482551574707,
   1.2465934753417969,
   -2.037869691848755,
   -3.0280332565307617,
   -0.8064612746238708,
   -4.964649200439453,
   -0.17490674555301666,
   0.5386798977851868,
   -0.30675598978996277,
   -2.4795820713043213,
   0.7233466506004333,
   -2.443838119506836,
   3.1759696006774902,
   -1.9434388875961304,
   2.303042411804199,
   -2.807628631591797,
   -0.9529384970664978,
   0.10307614505290985,
   -0.329330176115036,
   -1.8899325132369995,
   0.17655876278877258,
   1.2971692085266113,
   3.527874708175659,
   -1.0434231758117676,
   0.29813331365585327,
   -0.3877415657043457,
   -1.4112871885299683,
   1.1388877630233765,
   0.8889136910438538,
   -4.43347692489624,
   -0.6247908473014832,
   1.3308792114257812,
   0.12010440975427628,
   -6.041788101196289,
   -0.5149106979370117,
   -0.6935603618621826,
   -0.11837771534919739,
   -0.6111538410186768,
   1.8988301753997803,
   -2.14643931388855,
   -0.42177507281303406,
   1.2600057125091553,
   0.37711289525032043,
   1.5613230466842651,
   -1.6962084770202637,
   -0.5923784375190735,
   -2.1032259464263916,
   -9.139291763305664,
   -0.3587746322154999,
   -0.003958940505981445,
   -4.817915916442871,
   -1.1903918981552124,
   -0.19790785014629364,
   0.9858002066612244,
   -1.6655383110046387,
   1.2172861099243164,
   -3.3996613025665283,
   0.6822667121887207,
   0.1864633560180664,
   -1.664354920387268,
   0.16481027007102966,
   2.0455193519592285,
   -0.4762226939201355,
   0.3293970823287964,
   -0.16078108549118042,
   -6.712057590484619,
   0.38581815361976624,
   -1.3914515972137451,
   0.6052070260047913,
   0.6881978511810303,
   0.5228998064994812,
   -1.3282939195632935,
   -3.7689292430877686,
   -2.3913819789886475,
   0.2384035736322403,
   0.6208431124687195,
   2.6949851512908936,
   -0.9555265307426453,
   -0.008202786557376385,
   -0.11870771646499634,
   0.5881927013397217,
   -1.0068578720092773,
   -0.2569020390510559,
   -3.485285520553589,
   -1.7179557085037231,
   2.0162100791931152,
   1.3994085788726807,
   1.671715259552002
  ],
  [
   -1.1854467391967773,
   0.020275231450796127,
   -0.012970215640962124,
   -0.9378220438957214,
   -2.5685436725616455,
   -0.39045917987823486,
   0.5319929718971252,
   0.2574521601200104,
   -0.8431522250175476,
   -2.951993465423584,
   -4.894819259643555,
   -0.10554922372102737,
   0.30383560061454773,
   0.5044806599617004,
   0.9839099645614624,
   -0.40471458435058594,
   -2.5742053985595703,
   -0.2281157374382019,
   -1.8385382890701294,
   -1.053810954093933,
   -0.07285279035568237,
   -0.36622902750968933,
   -0.014163321815431118,
   -0.5875681638717651,
   0.04037311673164368,
   0.12561269104480743,
   1.527705430984497,
   0.42427176237106323,
   -2.090277910232544,
   -0.7705010771751404,
   0.041111670434474945,
   0.059966493397951126,
   -0.09086670726537704,
   -0.16274553537368774,
   -0.016110433265566826,
   -0.252103716135025,
   -3.9814934730529785,
   -0.37635695934295654,
   -1.373500943183899,
   -0.09845895320177078,
   0.24928495287895203,
   -1.84929358959198,
   -2.447768211364746,
   0.19321948289871216,
   -2.720546007156372,
   -0.231766015291214,
   -0.19880364835262299,
   -0.8351934552192688,
   0.18988987803459167,
   -1.4368841648101807,
   -0.20818796753883362,
   0.46508336067199707,
   -1.936018705368042,
   1.2149237394332886,
   -2.5670785903930664,
   -0.7006149291992188,
   1.3349878787994385,
   -0.5461885929107666,
   -0.6466081738471985,
   -0.956346333026886,
   -2.5836410522460938,
   -0.10230102390050888,
   0.4136967658996582,
   -5.273065090179443,
   -0.4870282709598541,
   -1.0818731784820557,
   -0.8631864786148071,
   -0.38072338700294495,
   -0.7763230800628662,
   0.3608746826648712,
   0.7520321607589722,
   0.11751990020275116,
   1.4269481897354126,
   -1.1574780941009521,
   0.16928227245807648,
   -4.826551914215088,
   -0.5153481364250183,
   0.17644068598747253,
   -0.6607443690299988,
   -0.7662215828895569,
   0.19972845911979675,
   -0.8237432241439819,
   -1.719150185585022,
   1.7030216455459595,
   -0.632651686668396,
   -0.5984517931938171,
   -0.37079331278800964,
   -0.10808254778385162,
   -0.33750084042549133,
   0.8670449256896973,
   -0.803979218006134,
   -0.2857983410358429,
   -3.6093032360076904,
   -0.6096177101135254,
   1.2901979684829712,
   -1.799439787864685,
   -0.3392826318740845,
   -0.316262811422348,
   -0.6277853846549988,
   0.4466061294078827,
   -0.5830339789390564,
   0.3034689426422119,
   -4.4895477294921875,
   -0.07433800399303436,
   -0.5216732621192932,
   -0.7545265555381775,
   0.025862282142043114,
   -0.38720330595970154,
   -2.747525215148926,
   -0.25793346762657166,
   -1.3077739477157593,
   0.32541534304618835,
   -0.5401583909988403,
   0.11241511255502701,
   -5.902844429016113,
   -0.08573324978351593,
   -0.35172176361083984,
   -0.10867655277252197,
   0.14149075746536255,
   -2.859464406967163,
   -0.914445698261261,
   -0.34904909133911133,
   -0.5867127180099487,
   -1.7551792860031128,
   0.3841089904308319,
   -0.024106934666633606,
   -1.4811416864395142,
   0.5642391443252563,
   -1.8355191946029663,
   -0.640972375869751,
   -0.43187135457992554,
   -0.8456243872642517,
   -0.6598302721977234,
   -0.40496957302093506,
   0.7791456580162048,
   -2.562755584716797,
   0.010411196388304234,
   -0.4015609920024872,
   0.6403935551643372,
   -0.618194580078125,
   -4.914641380310059,
   -0.14002905786037445,
   -3.814727306365967,
   -0.4974839985370636,
   -1.3894447088241577,
   -4.474088191986084,
   -2.4028193950653076,
   0.13537941873073578,
   -0.31264054775238037,
   0.08137975633144379,
   -1.6910474300384521,
   -0.13541072607040405,
   -0.5014760494232178,
   -2.830299139022827,
   -3.309359550476074,
   -0.22076162695884705,
   1.2176947593688965,
   -0.08213634788990021,
   0.394660085439682,
   -2.9971377849578857,
   0.4206545650959015,
   -1.3632867336273193,
   0.3965336084365845,
   0.34758034348487854,
   -1.394948124885559,
   -3.9431967735290527,
   -0.028307683765888214,
   -0.3567584455013275,
   0.6082677245140076,
   -0.7549331188201904,
   -0.9642661809921265,
   -0.021072309464216232,
   0.6145592927932739,
   0.29294663667678833,
   -2.616462469100952,
   -0.17215517163276672,
   -4.932046413421631,
   -0.1972692459821701,
   -0.5445495247840881,
   -0.5067945122718811,
   -0.2769361138343811,
   -0.38925206661224365,
   0.3694726526737213,
   0.21598070859909058,
   0.3661052882671356,
   -0.05655981972813606,
   0.8489643335342407,
   -0.013061641715466976,
   -1.8628206253051758,
   -0.10575739294290543,
   -0.24180442094802856,
   -2.4161229133605957,
   -2.7161996364593506,
   -1.5527671575546265,
   0.3762655258178711,
   -0.9778310060501099,
   -0.8486156463623047,
   -1.1012487411499023,
   -0.3860287070274353,
   -0.08792753517627716
  ],
  [
   0.34531092643737793,
   -0.5303478240966797,
   -1.660531759262085,
   0.34916168451309204,
   -1.0581012964248657,
   -1.2019754648208618,
   1.8046586513519287,
   -0.5622255206108093,
   -0.14111152291297913,
   -0.016459984704852104,
   -0.06600026041269302,
   -0.3578602075576782,
   -0.3259490132331848,
   -0.34377920627593994,
   1.2059139013290405,
   -1.9466036558151245,
   0.801557183265686,
   -1.0912761688232422,
   -3.0381648540496826,
   0.7784717082977295,
   -2.3498337268829346,
   -2.078688144683838,
   0.2882661819458008,
   -1.7524114847183228,
   -1.0273224115371704,
   -0.21801549196243286,
   0.12682190537452698,
   -0.6388102769851685,
   -0.03958088159561157,
   4.682685852050781,
   1.2096338272094727,
   -0.3748619258403778,
   2.6170907020568848,
   -2.3710317611694336,
   -1.1523728370666504,
   -0.4225257635116577,
   1.0133459568023682,
   -2.3385672569274902,
   -0.1995897889137268,
   -0.2599416971206665,
   1.1272163391113281,
   -0.6092104315757751,
   -1.0129408836364746,
   -0.03748895227909088,
   0.38690394163131714,
   1.02036452293396,
   0.3202221095561981,
   -5.18133544921875,
   -0.12093047052621841,
   0.057511307299137115,
   -2.2125039100646973,
   -0.8837734460830688,
   0.7631105780601501,
   0.17908041179180145,
   -1.0941358804702759,
   -1.1130479574203491,
   1.4259059429168701,
   -0.6954271793365479,
   4.345323085784912,
   -0.1296597123146057,
   -1.4728057384490967,
   -3.3346567153930664,
   0.5344854593276978,
   0.7799763083457947,
   2.078627109527588,
   -1.9681757688522339,
   1.654241919517517,
   0.9941656589508057,
   -0.6246402263641357,
   0.5789569616317749,
   -0.7789257168769836,
   -0.5965666770935059,
   0.06200669705867767,
   -5.251128196716309,
   -2.717315912246704,
   1.5419865846633911,
   1.9213581085205078,
   1.4478821754455566,
   -0.16038988530635834,
   1.1686499118804932,
   1.7607313394546509,
   0.8009432554244995,
   0.32309529185295105,
   -5.20932149887085,
   -2.4535117149353027,
   -0.6541438102722168,
   0.39011597633361816,
   -1.1528581380844116,
   -1.7454603910446167,
   -3.1809298992156982,
   1.1608890295028687,
   2.02894926071167,
   0.7185388207435608,
   1.206279993057251,
   0.5850442051887512,
   1.1231411695480347,
   -0.4543144106864929,
   -4.155633449554443,
   -0.3228132128715515,
   1.393813967704773,
   -5.140620708465576,
   -2.4639365673065186,
   0.1959257423877716,
   0.14195941388607025,
   0.8659246563911438,
   0.5362946391105652,
   0.3563280701637268,
   -1.059299111366272,
   0.21526166796684265,
   -4.413928508758545,
   -0.1259201467037201,
   -3.2444679737091064,
   1.1537975072860718,
   1.3343298435211182,
   0.9803324341773987,
   -0.5628858208656311,
   0.9436949491500854,
   0.6514511108398438,
   -0.982934296131134,
   -0.06968952715396881,
   0.578093409538269,
   0.38358986377716064,
   -2.943279266357422,
   -0.8934114575386047,
   -3.350562810897827,
   0.044938813894987106,
   -0.878591775894165,
   0.2713852524757385,
   0.1886647641658783,
   1.334110140800476,
   0.4718122184276581,
   1.6775463819503784,
   -0.2616104483604431,
   -1.8470172882080078,
   -0.4393743574619293,
   0.4590684473514557,
   -1.0119856595993042,
   -2.58304500579834,
   0.8134102821350098,
   -0.45719096064567566,
   1.3038524389266968,
   0.2726295292377472,
   0.08973737061023712,
   0.45399609208106995,
   0.03601141646504402,
   -0.20685139298439026,
   -0.36104241013526917,
   -1.6481531858444214,
   -2.48903489112854,
   -2.1500535011291504,
   0.10827640444040298,
   -2.9849350452423096,
   -0.24701964855194092,
   -0.7604334950447083,
   0.8726708889007568,
   -1.4717613458633423,
   0.17433211207389832,
   -5.739597797393799,
   -1.6775556802749634,
   0.0553363636136055,
   0.8546428680419922,
   -0.16811370849609375,
   0.7278473973274231,
   1.2176457643508911,
   -1.11101233959198,
   -0.3171045780181885,
   0.44845250248908997,
   -1.6013548374176025,
   -0.2568247318267822,
   -1.783179759979248,
   -1.1950124502182007,
   1.4996919631958008,
   -2.380422592163086,
   -1.485899806022644,
   -0.02852691523730755,
   1.472874402999878,
   0.848085880279541,
   1.5488179922103882,
   -0.4352957308292389,
   0.39329972863197327,
   -0.3296367824077606,
   -1.2803268432617188,
   -2.3302972316741943,
   -0.004679854027926922,
   0.8452707529067993,
   -1.8621480464935303,
   1.3675559759140015,
   -3.4061272144317627,
   -1.045863389968872,
   -0.25437527894973755,
   -2.196014642715454,
   1.204531192779541,
   0.9234026074409485,
   3.1585259437561035,
   0.4281323552131653,
   -2.8446335792541504,
   0.8213762044906616,
   -1.733514428138733,
   0.5634387731552124,
   1.41777503490448
  ],
  [
   2.2714595794677734,
   -1.6442621946334839,
   -2.190796136856079,
   -1.3216252326965332,
   0.22404973208904266,
   0.9062033295631409,
   1.548177719116211,
   0.5147606730461121,
   -1.079004168510437,
   -2.2118499279022217,
   -0.5058882832527161,
   -1.6685465574264526,
   2.39648175239563,
   -1.5458593368530273,
   0.02560974843800068,
   -1.5254594087600708,
   1.8853994607925415,
   -5.344527721405029,
   -2.9571666717529297,
   0.30432409048080444,
   -3.1399807929992676,
   -0.6516987085342407,
   -1.20508873462677,
   0.9850208759307861,
   -2.4271697998046875,
   -2.24656343460083,
   0.3160948157310486,
   1.270506501197815,
   0.9158785939216614,
   -3.752593994140625,
   -0.29563722014427185,
   -0.09820619970560074,
   0.5746716856956482,
   -0.39032062888145447,
   0.07172361761331558,
   1.851824164390564,
   0.41391444206237793,
   -0.29911187291145325,
   -1.1497560739517212,
   0.15616591274738312,
   -5.145979881286621,
   -1.1910978555679321,
   0.45411181449890137,
   -1.0690501928329468,
   1.1062554121017456,
   -2.514098644256592,
   -1.25648033618927,
   -3.297050952911377,
   -4.678476333618164,
   -0.3749000132083893,
   1.8000669479370117,
   0.6023191809654236,
   -0.5575342178344727,
   -1.9242544174194336,
   -0.08883640915155411,
   0.3934210538864136,
   -2.2362303733825684,
   -0.19549928605556488,
   1.1036226749420166,
   -2.991990327835083,
   -1.150851845741272,
   -0.7139815092086792,
   0.5143449306488037,
   -0.25967809557914734,
   -0.9928320646286011,
   1.900002360343933,
   -0.586269199848175,
   -0.3660600185394287,
   0.5960814952850342,
   -1.4133015871047974,
   -0.1467948853969574,
   -1.543175458908081,
   -1.009375810623169,
   -4.394956111907959,
   -6.1926188468933105,
   -1.8076165914535522,
   -2.914287567138672,
   -3.95406436920166,
   -1.1524585485458374,
   -0.6254262328147888,
   -0.7129995822906494,
   -0.5755700469017029,
   -4.444146633148193,
   0.058878809213638306,
   0.3545580804347992,
   0.14838027954101562,
   -1.6844687461853027,
   0.9152318239212036,
   0.40130943059921265,
   -4.0999345779418945,
   -0.7908234596252441,
   1.2581325769424438,
   0.3014373779296875,
   -0.1937674880027771,
   0.44347208738327026,
   -1.7466710805892944,
   -0.7179752588272095,
   -2.2499001026153564,
   1.3526318073272705,
   -0.7436217069625854,
   -1.4374217987060547,
   -2.1055057048797607,
   0.9687730073928833,
   0.2500514090061188,
   1.4826816320419312,
   -0.8212814331054688,
   -2.552358627319336,
   0.46566686034202576,
   0.09125380218029022,
   1.4140511751174927,
   -0.9687196016311646,
   -3.808922529220581,
   -0.9699806571006775,
   -1.1516188383102417,
   -0.522258996963501,
   -0.17257271707057953,
   -0.3145211637020111,
   -0.36854088306427,
   -1.637028455734253,
   0.974860429763794,
   0.2044684737920761,
   -0.9069567322731018,
   1.4878720045089722,
   1.3304768800735474,
   -0.30252739787101746,
   1.9335845708847046,
   0.36603274941444397,
   0.3658761978149414,
   -2.3667144775390625,
   -3.2068750858306885,
   -1.0736041069030762,
   -3.0219411849975586,
   -1.7280200719833374,
   1.4497126340866089,
   -0.4427413046360016,
   0.30484527349472046,
   -0.7021864652633667,
   -0.19423045217990875,
   -1.2294349670410156,
   -0.6027454733848572,
   -0.4117494821548462,
   0.0710059404373169,
   1.0302104949951172,
   0.6431975960731506,
   0.04523405060172081,
   1.2198352813720703,
   0.1735905259847641,
   -1.5175321102142334,
   -2.762883186340332,
   -0.767539381980896,
   -0.04357524588704109,
   0.9335868954658508,
   -1.4177846908569336,
   -0.2085369974374771,
   0.770483672618866,
   2.797630786895752,
   -0.2900596857070923,
   4.729031085968018,
   -1.3615436553955078,
   0.46142855286598206,
   -0.6322724223136902,
   -0.36821433901786804,
   -2.5370655059814453,
   0.03140972927212715,
   0.13507981598377228,
   0.45356544852256775,
   -4.71523380279541,
   -0.7093448638916016,
   -3.1866862773895264,
   0.6843805313110352,
   -2.6759018898010254,
   -0.2564019560813904,
   -3.312157154083252,
   0.17946355044841766,
   0.31393003463745117,
   2.308609962463379,
   0.023584023118019104,
   1.7214162349700928,
   0.8725013732910156,
   1.308227777481079,
   -0.134158194065094,
   -1.0145106315612793,
   -2.0865590572357178,
   -0.4134439527988434,
   1.3919017314910889,
   -0.945426881313324,
   0.4699404239654541,
   -4.120650768280029,
   -1.29042387008667,
   1.3533533811569214,
   -1.3214694261550903,
   1.7931421995162964,
   -0.3522806167602539,
   -0.7355511784553528,
   -0.13436725735664368,
   3.6899688243865967,
   -0.20197881758213043,
   0.3468083441257477,
   1.1609429121017456,
   -1.956146478652954
  ],
  [
   -0.5636675953865051,
   -0.35603681206703186,
   -0.8404425978660583,
   -1.4171055555343628,
   -0.7058889269828796,
   -2.5646753311157227,
   -0.09546206146478653,
   0.45350953936576843,
   1.1856499910354614,
   0.7446878552436829,
   0.39023271203041077,
   -0.2006647139787674,
   0.037145134061574936,
   -1.0046247243881226,
   -0.15420635044574738,
   0.41141167283058167,
   0.6554665565490723,
   -0.09919696301221848,
   -1.0514435768127441,
   1.803829550743103,
   0.5379880666732788,
   -4.43332576751709,
   0.8234729170799255,
   0.20825374126434326,
   0.08533328771591187,
   -3.422992706298828,
   1.37559974193573,
   -0.08992224931716919,
   1.4801665544509888,
   -1.597027063369751,
   0.23227961361408234,
   1.9862617254257202,
   2.45041561126709,
   1.6397613286972046,
   0.4532105326652527,
   -0.020132385194301605,
   1.7634077072143555,
   0.17209792137145996,
   0.8839420080184937,
   -0.3809426724910736,
   1.5386629104614258,
   -0.11311215907335281,
   -2.5781047344207764,
   1.0818134546279907,
   2.501106023788452,
   0.4163355827331543,
   -0.3803384602069855,
   1.3461894989013672,
   1.12239670753479,
   -1.3128180503845215,
   -0.4896807074546814,
   -0.5842457413673401,
   0.5119633674621582,
   -0.6137703061103821,
   -0.33727943897247314,
   0.7370551228523254,
   -0.1873127818107605,
   -0.36029496788978577,
   -0.33045220375061035,
   -0.5662975907325745,
   0.6499562859535217,
   0.2386251538991928,
   -5.968360424041748,
   0.05272115021944046,
   0.3205450773239136,
   0.835641086101532,
   2.7895400524139404,
   -0.30282965302467346,
   -0.7491040229797363,
   1.1893959045410156,
   0.31159156560897827,
   -2.463799476623535,
   -0.24849475920200348,
   2.257532835006714,
   0.9931501746177673,
   0.6133593916893005,
   -0.8337241411209106,
   -0.8834787607192993,
   0.0606381930410862,
   1.1591813564300537,
   -1.1547558307647705,
   -1.094523310661316,
   -2.0823421478271484,
   0.3717786967754364,
   -0.005236237309873104,
   -0.49881985783576965,
   1.1426365375518799,
   1.4880430698394775,
   -0.11966664344072342,
   0.13654492795467377,
   -1.4302310943603516,
   -1.2645381689071655,
   -1.6895334720611572,
   0.6774289011955261,
   -0.15572573244571686,
   -1.8214857578277588,
   -0.4770488739013672,
   -0.5530747175216675,
   -1.205108642578125,
   1.1030179262161255,
   1.2008767127990723,
   0.90185546875,
   -0.2793320417404175,
   -2.0247750282287598,
   1.197009563446045,
   1.3135895729064941,
   0.07960369437932968,
   -0.5187185406684875,
   -2.1201231479644775,
   -0.07622751593589783,
   -3.152200698852539,
   1.256914734840393,
   0.40214961767196655,
   -0.2887195348739624,
   0.49520251154899597,
   0.5172560811042786,
   0.9391235709190369,
   2.4305219650268555,
   -0.3137426972389221,
   -0.15454640984535217,
   1.505786657333374,
   -1.6374139785766602,
   -0.11282569915056229,
   -1.247187852859497,
   0.6024953126907349,
   -0.3435935378074646,
   0.012156220152974129,
   -1.4854736328125,
   -0.007445150054991245,
   -0.5328004956245422,
   -1.033355951309204,
   -0.8710095882415771,
   -1.4452004432678223,
   0.18853572010993958,
   0.27991241216659546,
   -2.434469223022461,
   -0.018088310956954956,
   -1.106337070465088,
   1.6148533821105957,
   0.49692919850349426,
   -0.10994472354650497,
   0.518720805644989,
   0.5098329186439514,
   1.216560959815979,
   -1.6847256422042847,
   -1.1361817121505737,
   -2.7474148273468018,
   -0.30100470781326294,
   -0.22722512483596802,
   0.8362915515899658,
   1.1205202341079712,
   -1.5628323554992676,
   -0.6033567786216736,
   -2.90073561668396,
   0.0975802019238472,
   -1.5534238815307617,
   -1.289607286453247,
   -0.7111095786094666,
   -0.7639273405075073,
   -0.4842403829097748,
   -0.33568254113197327,
   1.0967482328414917,
   -1.4169518947601318,
   -0.4541952610015869,
   -0.8395555019378662,
   -0.6009687781333923,
   0.6029290556907654,
   -0.3499293625354767,
   -5.1105732917785645,
   -0.415278822183609,
   0.6212494969367981,
   -2.3456034660339355,
   -0.1463068276643753,
   0.8694424629211426,
   -1.7309577465057373,
   0.09638574719429016,
   0.5255423188209534,
   -1.09988534450531,
   0.3789522647857666,
   -0.4229300618171692,
   -0.3527202606201172,
   0.0019443626515567303,
   -0.0737181305885315,
   -1.8462419509887695,
   -3.2893831729888916,
   -1.2586113214492798,
   -0.06639532744884491,
   -0.3448319733142853,
   0.8571923971176147,
   -0.2581269443035126,
   -1.175398588180542,
   -4.036498069763184,
   0.14604002237319946,
   -0.4796321392059326,
   -1.289122223854065,
   -2.0235166549682617,
   1.0010344982147217,
   -0.6290674805641174,
   1.1323412656784058,
   1.6875025033950806
  ],
  [
   -0.29393771290779114,
   0.33995142579078674,
   -2.9466450214385986,
   0.15923912823200226,
   0.08175665885210037,
   -1.2479130029678345,
   -2.0695602893829346,
   0.0012619290500879288,
   2.9732542037963867,
   -0.2941863536834717,
   -0.4547267258167267,
   -0.59054034948349,
   0.9179233908653259,
   1.5610612630844116,
   -0.3539002537727356,
   2.276277780532837,
   0.9757614731788635,
   -1.7777893543243408,
   -0.8990013003349304,
   -0.7558957934379578,
   -1.6299954652786255,
   0.7739729881286621,
   -1.1114706993103027,
   0.5417678952217102,
   0.5785912871360779,
   0.17098070681095123,
   1.1915557384490967,
   1.949561357498169,
   0.9873344302177429,
   0.2728181481361389,
   0.5862618684768677,
   -2.1430535316467285,
   -3.2686429023742676,
   1.5220764875411987,
   0.09887854009866714,
   3.428004026412964,
   -2.281209945678711,
   0.6627328991889954,
   1.821969985961914,
   -0.6378463506698608,
   -3.2924845218658447,
   0.053017277270555496,
   -0.6806682348251343,
   1.2539145946502686,
   0.3549710810184479,
   0.01633523218333721,
   0.7150806784629822,
   -1.651403784751892,
   -1.915940284729004,
   0.13266463577747345,
   1.5022873878479004,
   -0.0021913896780461073,
   -0.16304931044578552,
   1.4543756246566772,
   -0.4934757947921753,
   0.750979483127594,
   -0.12029527872800827,
   0.853129506111145,
   -1.5224640369415283,
   0.9177603125572205,
   0.7316926717758179,
   -0.4665358066558838,
   2.4028563499450684,
   -0.29377448558807373,
   0.640835702419281,
   -2.1413216590881348,
   1.2097666263580322,
   -0.07084069401025772,
   0.33168765902519226,
   -0.5685808658599854,
   2.9193379878997803,
   -0.5794990062713623,
   -0.7253174185752869,
   2.6352694034576416,
   -0.3319299519062042,
   0.3694285452365875,
   0.7899841070175171,
   -0.3252600431442261,
   0.5510562062263489,
   1.7983285188674927,
   1.6179927587509155,
   1.1619418859481812,
   -0.564586877822876,
   0.9129638075828552,
   0.9628986120223999,
   -0.24384211003780365,
   0.7466827630996704,
   -5.367915153503418,
   -0.31476470828056335,
   0.20232419669628143,
   -1.1495252847671509,
   -0.43599921464920044,
   -2.1257100105285645,
   1.194549798965454,
   1.1982678174972534,
   0.6012561917304993,
   2.2115395069122314,
   0.8583636283874512,
   -0.5378662943840027,
   -2.538102626800537,
   0.7164679169654846,
   0.11830014735460281,
   -6.330969333648682,
   -0.8859571218490601,
   0.9076650738716125,
   -2.02091908454895,
   0.6744800209999084,
   0.21800430119037628,
   -2.3963732719421387,
   -0.20084919035434723,
   0.5869460105895996,
   0.24715197086334229,
   -1.7294623851776123,
   -0.9418572187423706,
   -1.4628329277038574,
   -0.47607043385505676,
   1.7275747060775757,
   0.4074440002441406,
   0.9356799125671387,
   0.7457271814346313,
   1.4550163745880127,
   -0.3912326991558075,
   0.16210819780826569,
   -5.028310775756836,
   2.683868885040283,
   2.1785218715667725,
   -1.0577144622802734,
   -0.5751239657402039,
   -0.7769455909729004,
   0.559089183807373,
   0.18087270855903625,
   -3.7879250049591064,
   -2.137035369873047,
   -0.3342505395412445,
   0.2657169699668884,
   -2.921013593673706,
   -1.3267571926116943,
   -3.442431688308716,
   1.3132797479629517,
   0.025158831849694252,
   0.9493193626403809,
   -1.6083461046218872,
   -2.989234447479248,
   1.002914547920227,
   -1.3090063333511353,
   -0.9533378481864929,
   0.04918152838945389,
   -0.4400859773159027,
   0.03917183354496956,
   -1.3603289127349854,
   1.1407907009124756,
   0.0803566500544548,
   -0.4138186275959015,
   -0.5480579137802124,
   -4.488521575927734,
   -1.0471307039260864,
   -0.6754270195960999,
   2.339775323867798,
   -0.6173344850540161,
   -1.2006635665893555,
   2.179931879043579,
   -1.717529535293579,
   -1.104817271232605,
   -1.0922192335128784,
   0.2569953203201294,
   -0.8478127121925354,
   -0.9098753929138184,
   0.47327300906181335,
   0.3243432641029358,
   0.15987259149551392,
   0.46812179684638977,
   -1.5550094842910767,
   -0.7025317549705505,
   -1.4631361961364746,
   0.16884566843509674,
   0.5141095519065857,
   0.9159531593322754,
   -1.0053428411483765,
   1.913520336151123,
   -2.6933281421661377,
   0.7122153639793396,
   -0.5102753639221191,
   -0.550284743309021,
   -1.606001853942871,
   2.1651296615600586,
   -0.2551729083061218,
   0.24685126543045044,
   -0.15175765752792358,
   0.16483768820762634,
   -1.107529878616333,
   -0.9486476182937622,
   1.0628880262374878,
   2.4335248470306396,
   -0.22250646352767944,
   2.2364583015441895,
   -1.8151074647903442,
   0.4006884694099426,
   -1.1877633333206177,
   -0.019664157181978226,
   0.981120765209198
  ],
  [
   -2.2682321071624756,
   0.7995948791503906,
   0.47916460037231445,
   1.5179380178451538,
   -1.1244112253189087,
   3.741135358810425,
   -0.1850266456604004,
   0.49037349224090576,
   4.071515083312988,
   0.14299747347831726,
   0.7419057488441467,
   0.09474983811378479,
   1.4899624586105347,
   0.992078959941864,
   0.7398872375488281,
   0.6097446084022522,
   -0.010311217047274113,
   1.016500473022461,
   1.0005353689193726,
   0.4339863359928131,
   0.17492708563804626,
   0.5999725461006165,
   0.3667350709438324,
   -0.3418887257575989,
   1.6300685405731201,
   0.1895180195569992,
   -0.8576609492301941,
   2.3165128231048584,
   -1.049703598022461,
   0.5567927360534668,
   1.2904452085494995,
   -0.3327659070491791,
   3.407592535018921,
   -2.5454697608947754,
   -0.05465720593929291,
   1.6777856349945068,
   -0.48935890197753906,
   2.782010078430176,
   0.1732911765575409,
   0.01854708604514599,
   0.10240600258111954,
   2.5855276584625244,
   -0.21873298287391663,
   -2.1066384315490723,
   1.4121168851852417,
   0.9372662901878357,
   0.9034126996994019,
   4.312878608703613,
   0.9553377628326416,
   1.0069307088851929,
   -1.155599594116211,
   -0.36715584993362427,
   -0.025696249678730965,
   0.8226089477539062,
   -0.8233820796012878,
   0.4405152201652527,
   2.8174657821655273,
   0.4511309564113617,
   2.2012393474578857,
   3.166663885116577,
   -0.49649694561958313,
   -0.3972671926021576,
   0.10005079209804535,
   0.5732339024543762,
   0.3658345341682434,
   0.8595874309539795,
   -0.49457213282585144,
   0.8501437306404114,
   -2.6048851013183594,
   0.8108870387077332,
   -0.16881971061229706,
   0.14525605738162994,
   -0.012930473312735558,
   -0.7115724682807922,
   0.025027930736541748,
   -0.5129454731941223,
   -0.6056862473487854,
   -2.1103711128234863,
   0.16458366811275482,
   -1.6203129291534424,
   -2.0818088054656982,
   -0.22718173265457153,
   0.2147766649723053,
   -1.7090867757797241,
   0.08903181552886963,
   -2.804546356201172,
   1.2544493675231934,
   2.3409204483032227,
   -1.013983964920044,
   -1.1502971649169922,
   0.8661970496177673,
   -0.47360724210739136,
   0.26545509696006775,
   -0.710151731967926,
   -0.8089712262153625,
   -0.42419686913490295,
   2.9295661449432373,
   2.4483888149261475,
   1.690913438796997,
   3.4835991859436035,
   -1.9432681798934937,
   -0.9396772384643555,
   0.5668764114379883,
   1.0569701194763184,
   -0.15471883118152618,
   -0.31017816066741943,
   0.6288251280784607,
   1.5401504039764404,
   1.8236613273620605,
   0.4166010320186615,
   -1.7144896984100342,
   -0.3563747704029083,
   1.2069638967514038,
   -0.8225162625312805,
   0.6657289862632751,
   0.4775714874267578,
   0.3073127865791321,
   0.3131907880306244,
   -0.1434640735387802,
   0.5215123295783997,
   -0.7375063300132751,
   0.31669700145721436,
   -1.646005392074585,
   0.005215746350586414,
   4.2550530433654785,
   3.1137313842773438,
   -1.5042693614959717,
   0.21332788467407227,
   -0.30176135897636414,
   -0.7458763718605042,
   2.7893288135528564,
   2.6661651134490967,
   -1.0772613286972046,
   -0.855812668800354,
   -0.8292524218559265,
   -0.9200758337974548,
   1.1567434072494507,
   0.9440036416053772,
   -0.738853394985199,
   2.859684944152832,
   -1.0646165609359741,
   -2.436652660369873,
   0.45167937874794006,
   -0.0901588648557663,
   0.06779729574918747,
   2.2709364891052246,
   0.20553264021873474,
   3.546997547149658,
   1.465314269065857,
   -1.2533178329467773,
   1.613852858543396,
   -0.17329378426074982,
   0.35926225781440735,
   0.0731852725148201,
   0.6319797039031982,
   -0.176240935921669,
   -1.2603639364242554,
   -0.24380701780319214,
   -0.9350318312644958,
   0.41141557693481445,
   -0.0918440967798233,
   -0.05633608624339104,
   -0.6723607778549194,
   0.03429466485977173,
   -0.4958384931087494,
   -0.09087258577346802,
   -1.9388164281845093,
   -0.6235427856445312,
   -0.14202193915843964,
   1.2199865579605103,
   -2.4959001541137695,
   -1.1897677183151245,
   1.3802707195281982,
   1.0211148262023926,
   0.8350794315338135,
   -1.1799700260162354,
   -1.048100471496582,
   3.438570499420166,
   1.2596138715744019,
   2.024998903274536,
   -1.330815076828003,
   -0.2972289025783539,
   -0.43250733613967896,
   -1.1876037120819092,
   -0.06496357172727585,
   -0.5058428049087524,
   0.4979543685913086,
   2.7544801235198975,
   -1.0603216886520386,
   -1.210328459739685,
   2.411402940750122,
   0.6604509949684143,
   -0.26396045088768005,
   0.6264352798461914,
   -1.0256356000900269,
   -1.5941925048828125,
   -1.4945120811462402,
   0.003637220710515976,
   0.5505565404891968,
   -0.41665777564048767
  ],
  [
   0.2929385006427765,
   1.3332669734954834,
   0.7037957906723022,
   -0.4820786714553833,
   0.21980398893356323,
   1.0611317157745361,
   -1.3969333171844482,
   0.9239944219589233,
   -0.988073468208313,
   0.9859097599983215,
   -0.3331350088119507,
   0.5016887784004211,
   -0.7560654878616333,
   -1.877603530883789,
   0.7383202910423279,
   -1.179989218711853,
   0.0876520425081253,
   1.471386194229126,
   0.9762684106826782,
   0.977779746055603,
   -0.3886382579803467,
   -0.3755996823310852,
   -1.218032717704773,
   1.5989904403686523,
   -1.7857965230941772,
   0.31910327076911926,
   -0.2891318202018738,
   1.0212101936340332,
   0.6494947075843811,
   1.5682204961776733,
   0.25663086771965027,
   -0.10169056802988052,
   -1.7074451446533203,
   0.17491808533668518,
   -0.2250853031873703,
   1.3270002603530884,
   0.1966068148612976,
   -0.4080852270126343,
   0.9622220396995544,
   -0.6027912497520447,
   1.024527907371521,
   0.4170662462711334,
   -2.013026475906372,
   -1.6260737180709839,
   1.3696866035461426,
   1.441476583480835,
   0.5537340641021729,
   1.737006664276123,
   2.6619458198547363,
   -0.582208514213562,
   -0.4492647647857666,
   -0.7373698353767395,
   -2.284144401550293,
   0.04778231680393219,
   -1.4392273426055908,
   -0.4529741108417511,
   -0.03629697114229202,
   0.4611528217792511,
   0.36402377486228943,
   -0.02497059851884842,
   -0.07298023998737335,
   0.15415218472480774,
   0.2489614337682724,
   1.6041336059570312,
   0.17313365638256073,
   2.0297834873199463,
   2.349337339401245,
   1.1033968925476074,
   0.09139153361320496,
   -1.7591513395309448,
   -1.2522157430648804,
   2.0464107990264893,
   -0.8473761081695557,
   0.45684003829956055,
   0.9747207760810852,
   -0.11733510345220566,
   0.9248148798942566,
   -0.6718955039978027,
   -0.08601018041372299,
   1.5543571710586548,
   0.3717750608921051,
   -0.959416389465332,
   2.065152168273926,
   -1.7044165134429932,
   2.5049123764038086,
   3.221982002258301,
   -0.07739349454641342,
   1.64008367061615,
   -0.27474871277809143,
   0.6293054819107056,
   0.4890905022621155,
   1.038307547569275,
   2.022852659225464,
   0.8552111983299255,
   -1.256208896636963,
   0.6560977697372437,
   -0.31516721844673157,
   0.027027752250432968,
   0.4433758556842804,
   0.4727521240711212,
   -1.0742992162704468,
   -0.9858530759811401,
   1.9468140602111816,
   -0.3629138767719269,
   0.6497008204460144,
   -0.3530236482620239,
   -1.8229261636734009,
   -2.2253189086914062,
   -3.0337178707122803,
   1.3359589576721191,
   -1.6361782550811768,
   0.30364421010017395,
   -2.0803353786468506,
   -0.09813709557056427,
   1.2125283479690552,
   0.15560150146484375,
   1.8447827100753784,
   -0.2734942138195038,
   1.9541497230529785,
   -0.7784956097602844,
   -0.5749702453613281,
   1.2945621013641357,
   1.0908055305480957,
   -0.4247129559516907,
   -0.5682181119918823,
   -0.02058844082057476,
   0.10372103005647659,
   0.11077407002449036,
   6.517204761505127,
   4.340911388397217,
   -0.8842043876647949,
   -4.785455226898193,
   -3.4494307041168213,
   -0.2824080288410187,
   0.03909716382622719,
   -1.5974676609039307,
   -0.5300911068916321,
   2.1184675693511963,
   -1.0764952898025513,
   1.111292839050293,
   -0.6036650538444519,
   -0.07098839432001114,
   -0.9814873933792114,
   -0.5174824595451355,
   -1.2689251899719238,
   -1.5325695276260376,
   0.9338257312774658,
   2.394878387451172,
   0.14053979516029358,
   0.5995115637779236,
   0.14501158893108368,
   -0.9969218969345093,
   0.4762887954711914,
   0.3936510980129242,
   1.3682453632354736,
   -0.5504547953605652,
   1.5612547397613525,
   -0.32382169365882874,
   -1.8659454584121704,
   -0.8230180740356445,
   -1.0041075944900513,
   -0.4630984961986542,
   -2.513975143432617,
   -0.8519761562347412,
   -0.986595869064331,
   2.3516738414764404,
   0.09243425726890564,
   -3.3670778274536133,
   -0.7999846339225769,
   -1.122363567352295,
   0.3662606179714203,
   -1.175028920173645,
   1.1744275093078613,
   2.537992477416992,
   -1.019458293914795,
   0.1657305210828781,
   0.8834684491157532,
   -0.21800559759140015,
   2.262315511703491,
   -1.4822436571121216,
   0.4726311266422272,
   0.10922231525182724,
   1.0877494812011719,
   1.504040002822876,
   0.06327985972166061,
   -1.4143444299697876,
   0.453079491853714,
   -0.4170617461204529,
   -0.0020373419392853975,
   -0.47706839442253113,
   1.3273648023605347,
   -1.4329617023468018,
   -2.6433329582214355,
   -2.600360631942749,
   -2.442380666732788,
   0.2985808551311493,
   -0.03980933129787445,
   0.504705011844635,
   3.803898572921753,
   -0.8449623584747314
  ],
  [
   -1.5689098834991455,
   -2.9257631301879883,
   0.8625444769859314,
   -2.793761730194092,
   -1.5636824369430542,
   -1.4162511825561523,
   -6.152021884918213,
   0.6250576376914978,
   3.1567466259002686,
   -6.196571350097656,
   -0.2439398318529129,
   0.36259007453918457,
   -2.8965065479278564,
   -1.4033328294754028,
   -2.9988536834716797,
   0.46969491243362427,
   -1.3334074020385742,
   -1.9537513256072998,
   -0.7205731272697449,
   -11.844432830810547,
   -0.7402219176292419,
   0.42806148529052734,
   0.5287829637527466,
   -1.2084593772888184,
   0.9994543790817261,
   -2.645308256149292,
   -1.1737847328186035,
   -2.4102070331573486,
   1.833773136138916,
   -2.0040926933288574,
   0.4604889452457428,
   -0.26339879631996155,
   1.775214672088623,
   -0.9717405438423157,
   0.4167592227458954,
   2.302912473678589,
   0.4950961768627167,
   0.06792020052671432,
   3.4211442470550537,
   -0.6912640929222107,
   -1.5768781900405884,
   0.001820145407691598,
   1.0218071937561035,
   0.9876093864440918,
   1.5422377586364746,
   0.5267070531845093,
   2.3574681282043457,
   -0.5078530311584473,
   3.765068769454956,
   -0.8658109903335571,
   -1.3011581897735596,
   1.3367431163787842,
   2.1065750122070312,
   1.65059494972229,
   4.279734134674072,
   1.5734554529190063,
   -0.43608593940734863,
   -0.3595845401287079,
   -2.553614377975464,
   -4.927916049957275,
   -1.8944321870803833,
   -0.00871235504746437,
   1.8922438621520996,
   0.8190966248512268,
   0.3930571377277374,
   -0.879402220249176,
   -1.6107409000396729,
   -1.3879433870315552,
   2.042790412902832,
   1.2424646615982056,
   1.478804349899292,
   0.24780116975307465,
   3.918998956680298,
   -1.7646337747573853,
   0.049042973667383194,
   -0.7391533255577087,
   1.4514963626861572,
   -2.4060704708099365,
   4.320563316345215,
   3.2337749004364014,
   -1.9273797273635864,
   0.1675175130367279,
   -1.9378836154937744,
   -0.2955312430858612,
   1.8297338485717773,
   0.22328023612499237,
   0.31372830271720886,
   -4.134635925292969,
   -0.1620314121246338,
   1.2877596616744995,
   -2.4839138984680176,
   0.13307136297225952,
   -2.818321943283081,
   1.046226978302002,
   -3.319002628326416,
   1.255649447441101,
   -1.0521619319915771,
   1.898522973060608,
   2.491748571395874,
   -1.1120977401733398,
   1.2704405784606934,
   -2.0202584266662598,
   -0.7035662531852722,
   -1.65953528881073,
   -0.7697634696960449,
   0.7637975811958313,
   -1.5490214824676514,
   -1.4518721103668213,
   -2.2218775749206543,
   0.1607210487127304,
   -0.20885057747364044,
   1.027308464050293,
   -0.008268279023468494,
   -1.5637434720993042,
   0.8855897188186646,
   0.6394372582435608,
   0.17676153779029846,
   -0.03938119113445282,
   2.174478530883789,
   0.24166744947433472,
   -1.470755696296692,
   -5.605541706085205,
   0.28487628698349,
   -0.803623378276825,
   0.5488952994346619,
   0.29751256108283997,
   -0.07621411234140396,
   -0.3830435276031494,
   -0.1388135403394699,
   -5.362550735473633,
   -2.406341314315796,
   -5.6076130867004395,
   -4.308623790740967,
   -1.1547799110412598,
   0.6805971264839172,
   -1.232426643371582,
   0.3347380459308624,
   -0.9436463713645935,
   -5.814306259155273,
   0.11818170547485352,
   -4.813669204711914,
   1.707902193069458,
   -2.1676218509674072,
   -2.384150981903076,
   3.1885335445404053,
   -1.0823287963867188,
   -1.0679463148117065,
   -2.057678461074829,
   2.2465243339538574,
   -3.002338171005249,
   0.061574939638376236,
   -1.8213309049606323,
   0.06492990255355835,
   2.1983704566955566,
   0.6239480376243591,
   -0.12375537306070328,
   0.1394832879304886,
   -1.0351481437683105,
   0.8547852635383606,
   -3.226059913635254,
   -1.8639086484909058,
   -1.4936577081680298,
   -1.8617967367172241,
   0.07447938621044159,
   1.005489468574524,
   -0.7621828317642212,
   -2.0638585090637207,
   1.5996654033660889,
   -0.1933221071958542,
   -0.8934643268585205,
   -4.630984306335449,
   1.2397358417510986,
   1.9480949640274048,
   -0.5679166913032532,
   -0.2827180325984955,
   -0.8146162629127502,
   -0.27859020233154297,
   -1.548164963722229,
   1.580430269241333,
   -0.6146757006645203,
   0.31416913866996765,
   -0.9979573488235474,
   1.9627177715301514,
   0.8279396891593933,
   0.3796681761741638,
   -1.957856297492981,
   -0.015316489152610302,
   -3.641268014907837,
   -1.8504444360733032,
   -1.185685396194458,
   -0.09583771228790283,
   -2.028428554534912,
   0.9270583987236023,
   0.5011202096939087,
   -1.4933421611785889,
