{
 "pi.0.weight": [
  [
   -1.2292230129241943,
   -1.0878722667694092,
   -0.7282052040100098,
   -1.6028069257736206,
   2.8547754287719727,
   1.3022985458374023
  ],
  [
   -0.6830010414123535,
   2.603069305419922,
   -0.23969827592372894,
   -0.1289733350276947,
   0.6289280652999878,
   -1.6827661991119385
  ],
  [
   -0.3270149230957031,
   1.9023361206054688,
   -0.7128444314002991,
   1.8361518383026123,
   -0.6032220125198364,
   -0.9314114451408386
  ],
  [
   0.7767140865325928,
   -1.0735725164413452,
   0.2812134623527527,
   -0.09304147213697433,
   -0.013002550229430199,
   -0.452452152967453
  ],
  [
   -1.27357017993927,
   -0.7771764993667603,
   0.181640163064003,
   0.35094213485717773,
   -1.2149989604949951,
   -1.9481297731399536
  ],
  [
   0.7111822962760925,
   0.8270497918128967,
   -0.1399829089641571,
   0.19561870396137238,
   -2.3980422019958496,
   -2.980628728866577
  ],
  [
   -2.980912446975708,
   1.0336745977401733,
   -0.3515077233314514,
   0.35006949305534363,
   -1.4388256072998047,
   0.3610691428184509
  ],
  [
   0.8374663591384888,
   0.1727679818868637,
   -0.08728940784931183,
   -0.925788402557373,
   4.811817646026611,
   2.658766269683838
  ],
  [
   -0.041365958750247955,
   -0.22624148428440094,
   0.33412274718284607,
   -0.5001048445701599,
   -3.110661506652832,
   0.7890834212303162
  ],
  [
   0.4757782518863678,
   -0.837076723575592,
   -1.0477886199951172,
   -1.2868207693099976,
   -1.0745084285736084,
   -0.21477624773979187
  ],
  [
   2.49863862991333,
   0.6662476062774658,
   -0.010808159597218037,
   0.05964719131588936,
   5.320217132568359,
   -1.7318027019500732
  ],
  [
   0.05520371347665787,
   -0.822050929069519,
   -0.9165102243423462,
   0.21677687764167786,
   -2.7353572845458984,
   2.3041634559631348
  ],
  [
   -0.6210870146751404,
   -1.5319230556488037,
   0.13943570852279663,
   1.226415991783142,
   -3.3452231884002686,
   -0.21663887798786163
  ],
  [
   -0.37722647190093994,
   -1.301824927330017,
   -1.2927711009979248,
   -0.28759443759918213,
   5.668034076690674,
   -0.5489655137062073
  ],
  [
   -1.8800772428512573,
   1.4088374376296997,
   -0.6863245964050293,
   0.06738757342100143,
   0.08545177429914474,
   0.6070404648780823
  ],
  [
   -0.6323500871658325,
   -0.19701576232910156,
   -0.008761434815824032,
   2.1027278900146484,
   1.2838430404663086,
   -3.2751009464263916
  ],
  [
   -2.711850166320801,
   -0.15798541903495789,
   -1.5814828872680664,
   -0.655134379863739,
   2.426184892654419,
   2.4081084728240967
  ],
  [
   -2.534106492996216,
   -0.6522910594940186,
   -0.45264819264411926,
   0.05206239968538284,
   -0.8255207538604736,
   1.649317741394043
  ],
  [
   -1.4549212455749512,
   2.0009870529174805,
   -0.11597131937742233,
   -0.040555164217948914,
   1.7542248964309692,
   -0.4581035375595093
  ],
  [
   -0.4104044735431671,
   0.6305327415466309,
   -0.4083947241306305,
   -0.3491814136505127,
   -2.1454758644104004,
   -1.1572799682617188
  ],
  [
   -0.5493502616882324,
   -0.26895785331726074,
   0.5371413826942444,
   -1.457450032234192,
   -1.5875844955444336,
   2.7618963718414307
  ],
  [
   1.4981776475906372,
   0.9937644004821777,
   -0.6294273138046265,
   -1.6269466876983643,
   0.4480462372303009,
   -0.02478756755590439
  ],
  [
   0.7333621978759766,
   -1.0117124319076538,
   0.5804586410522461,
   1.0120627880096436,
   -3.0177361965179443,
   -0.624853253364563
  ],
  [
   0.6684276461601257,
   0.9967203736305237,
   1.62368643283844,
   0.941441535949707,
   0.23610630631446838,
   -0.324139803647995
  ],
  [
   0.3035193085670471,
   0.25355926156044006,
   0.8815084099769592,
   1.3970929384231567,
   -0.1131344884634018,
   -3.8385396003723145
  ],
  [
   1.5310838222503662,
   -1.8402656316757202,
   -0.1045258566737175,
   0.1723419427871704,
   1.185285210609436,
   -2.408168315887451
  ],
  [
   -2.345383882522583,
   0.4914606213569641,
   -0.06239645928144455,
   -0.7450422048568726,
   -0.37966740131378174,
   2.6387503147125244
  ],
  [
   0.17711028456687927,
   0.9098085761070251,
   -2.629333019256592,
   -0.011529926210641861,
   0.2701118588447571,
   1.2635115385055542
  ],
  [
   -0.18401549756526947,
   -0.6733676195144653,
   -1.1329076290130615,
   -1.404421329498291,
   3.8191792964935303,
   2.5847926139831543
  ],
  [
   -0.8881331086158752,
   -1.068363070487976,
   -1.1662142276763916,
   0.8422282338142395,
   4.478517055511475,
   -0.5969385504722595
  ],
  [
   -2.548912525177002,
   0.6675959825515747,
   0.034566864371299744,
   -0.7855477333068848,
   -0.5020484924316406,
   3.534389019012451
  ],
  [
   2.20755672454834,
   0.25959181785583496,
   -0.20108245313167572,
   -1.5976592302322388,
   -1.555679202079773,
   0.06361177563667297
  ],
  [
   0.3746947944164276,
   0.6437936425209045,
   0.6414790749549866,
   -0.6798703074455261,
   -1.242221474647522,
   2.439530611038208
  ],
  [
   0.49606963992118835,
   1.0538710355758667,
   0.20321638882160187,
   -0.2641204595565796,
   -1.4799293279647827,
   -1.7074685096740723
  ],
  [
   -5.221391677856445,
   0.23305301368236542,
   -4.083810329437256,
   -0.4181632995605469,
   0.08233468979597092,
   -0.1394818276166916
  ],
  [
   -0.4591379165649414,
   1.7027180194854736,
   0.00037270865868777037,
   0.1509520411491394,
   -0.15321865677833557,
   0.35607054829597473
  ],
  [
   -1.898593783378601,
   0.6780083179473877,
   0.10733917355537415,
   -1.2972378730773926,
   1.069820523262024,
   -0.40337151288986206
  ],
  [
   -0.16726075112819672,
   0.1784912347793579,
   0.17018617689609528,
   0.9372482895851135,
   -1.2597085237503052,
   -3.0447356700897217
  ],
  [
   1.1253201961517334,
   -5.3302788734436035,
   -0.1765856295824051,
   0.23908571898937225,
   0.4370042681694031,
   0.8155518770217896
  ],
  [
   -0.7580742835998535,
   -0.5068044662475586,
   -1.0343151092529297,
   -1.6335411071777344,
   -0.8137595057487488,
   2.87764835357666
  ],
  [
   -0.77171790599823,
   -0.09512273222208023,
   -2.5639708042144775,
   -0.6053614616394043,
   0.054936256259679794,
   1.0852890014648438
  ],
  [
   3.0916178226470947,
   0.06390310078859329,
   -1.126220464706421,
   -0.7430392503738403,
   -0.8125683665275574,
   3.8239660263061523
  ],
  [
   1.2477413415908813,
   1.79275643825531,
   -0.04109898954629898,
   -0.06852151453495026,
   1.1044951677322388,
   -1.6604243516921997
  ],
  [
   4.685873985290527,
   -0.49284443259239197,
   0.43055132031440735,
   0.7871805429458618,
   1.5868840217590332,
   -1.5777482986450195
  ],
  [
   -1.6696232557296753,
   -1.0474040508270264,
   -2.4470577239990234,
   -0.7481241822242737,
   0.5895818471908569,
   -0.12356417626142502
  ],
  [
   0.9609659314155579,
   1.3768203258514404,
   -0.9121364951133728,
   1.6240394115447998,
   -0.5864006876945496,
   -1.2515851259231567
  ],
  [
   0.5092610120773315,
   0.9994315505027771,
   -0.595137894153595,
   -3.0248873233795166,
   -1.2586122751235962,
   -0.06456709653139114
  ],
  [
   -0.44050344824790955,
   1.6324297189712524,
   0.7069556713104248,
   1.965996265411377,
   0.11907938122749329,
   -1.0437071323394775
  ],
  [
   -4.233110427856445,
   -0.38656413555145264,
   -0.4362400472164154,
   -1.1157664060592651,
   -0.3645784854888916,
   1.20404052734375
  ],
  [
   2.2044105529785156,
   0.7375475764274597,
   2.978069543838501,
   0.9212521314620972,
   0.4433593451976776,
   0.060965247452259064
  ],
  [
   -2.370391845703125,
   0.05327269807457924,
   0.4718738794326782,
   1.0522465705871582,
   1.8543139696121216,
   -1.2513970136642456
  ],
  [
   -0.8889716267585754,
   0.519232451915741,
   1.0389351844787598,
   -0.7123552560806274,
   -2.1033830642700195,
   1.770889401435852
  ],
  [
   1.7642953395843506,
   -0.7840937376022339,
   -0.3046298921108246,
   0.08981309086084366,
   -0.6886410117149353,
   1.4078190326690674
  ],
  [
   -0.1047607809305191,
   0.23942461609840393,
   0.08830543607473373,
   0.20430833101272583,
   0.5906668305397034,
   0.056382451206445694
  ],
  [
   -1.040678858757019,
   -0.27958396077156067,
   0.9667125344276428,
   0.020266538485884666,
   -2.195582151412964,
   1.4261102676391602
  ],
  [
   -2.1704766750335693,
   -2.233602285385132,
   0.4315660297870636,
   -0.10618626326322556,
   2.4200360774993896,
   3.11289644241333
  ],
  [
   -0.37477466464042664,
   0.8314927220344543,
   0.9974399209022522,
   0.455549955368042,
   -0.21914474666118622,
   -2.1145336627960205
  ],
  [
   -0.9297205209732056,
   -0.2416195124387741,
   -0.11105159670114517,
   -0.9353020787239075,
   1.097300410270691,
   -0.3847470283508301
  ],
  [
   -0.48781418800354004,
   -0.016324153169989586,
   -0.7013198733329773,
   2.6910762786865234,
   0.5553631782531738,
   0.6938400864601135
  ],
  [
   5.063242435455322,
   1.8643224239349365,
   0.08272822946310043,
   -0.8620561957359314,
   1.0584049224853516,
   2.3486154079437256
  ],
  [
   1.1539151668548584,
   0.39474713802337646,
   -1.2618664503097534,
   0.5209839344024658,
   3.839099407196045,
   2.509007215499878
  ],
  [
   -0.10737293213605881,
   -0.31811559200286865,
   0.03585835546255112,
   1.1280632019042969,
   -2.6526429653167725,
   0.20054012537002563
  ],
  [
   -1.414276123046875,
   1.9219204187393188,
   0.1664087176322937,
   -0.39322957396507263,
   3.237788677215576,
   0.007294496521353722
  ],
  [
   0.8738169074058533,
   0.9169418215751648,
   0.25907790660858154,
   0.5811920166015625,
   0.5186305046081543,
   -2.601163148880005
  ],
  [
   0.2535838484764099,
   0.3168189823627472,
   0.8789656758308411,
   0.6979159116744995,
   -0.47395744919776917,
   1.6880782842636108
  ],
  [
   3.1219141483306885,
   1.6241612434387207,
   -0.1494346410036087,
   0.14244765043258667,
   0.3199579119682312,
   -0.06869903206825256
  ],
  [
   -0.15346971154212952,
   -2.4975979328155518,
   0.011928636580705643,
   0.8229214549064636,
   0.5174650549888611,
   0.8075693845748901
  ],
  [
   1.061452865600586,
   2.2298333644866943,
   0.8249903917312622,
   -0.08288957923650742,
   -2.810021162033081,
   -0.14623922109603882
  ],
  [
   2.260633945465088,
   1.0682190656661987,
   -0.15335817635059357,
   0.08101421594619751,
   3.5848474502563477,
   -2.799874782562256
  ],
  [
   -2.5535197257995605,
   -2.009523868560791,
   -0.623525857925415,
   0.5254688858985901,
   -0.36412644386291504,
   -0.4206141531467438
  ],
  [
   0.5613695979118347,
   0.2676096558570862,
   0.9856062531471252,
   0.8425925374031067,
   0.8951690196990967,
   -2.346003293991089
  ],
  [
   -1.1758941411972046,
   0.3786940574645996,
   -1.6507575511932373,
   1.0640101432800293,
   3.778827667236328,
   -0.7255821824073792
  ],
  [
   1.0739353895187378,
   0.569388747215271,
   0.9489797949790955,
   -1.3634196519851685,
   -1.7152552604675293,
   -1.7176976203918457
  ],
  [
   0.3935428857803345,
   -1.1285765171051025,
   -0.11350618302822113,
   0.14978939294815063,
   -2.3728649616241455,
   2.1274678707122803
  ],
  [
   -2.780412435531616,
   0.0703965425491333,
   0.39607587456703186,
   -0.6101042032241821,
   1.4336153268814087,
   -1.142182469367981
  ],
  [
   1.4873393774032593,
   1.935377836227417,
   0.223293274641037,
   0.15105919539928436,
   -2.642096996307373,
   0.9575392007827759
  ],
  [
   1.6302930116653442,
   1.281845211982727,
   0.20677632093429565,
   -0.12254049628973007,
   -2.591142416000366,
   -0.341076523065567
  ],
  [
   -0.15553970634937286,
   -2.342996835708618,
   0.16441361606121063,
   0.1542033553123474,
   -1.8746460676193237,
   2.9623324871063232
  ],
  [
   2.523376941680908,
   -0.6260842680931091,
   3.051851272583008,
   0.3467922508716583,
   -1.7271640300750732,
   -0.1875186413526535
  ],
  [
   -1.0389426946640015,
   0.7341058850288391,
   -1.147332787513733,
   -1.3562442064285278,
   -1.2676496505737305,
   0.07776876538991928
  ],
  [
   -1.4914408922195435,
   -1.503350853919983,
   -0.22796934843063354,
   0.6171979904174805,
   -0.5284515619277954,
   0.9539027810096741
  ],
  [
   -0.6931649446487427,
   0.7200009226799011,
   0.15383805334568024,
   0.7016654014587402,
   -1.238173484802246,
   -2.13238787651062
  ],
  [
   2.172157049179077,
   -0.30912157893180847,
   1.1432379484176636,
   -1.317686915397644,
   -0.5052670836448669,
   0.8589836359024048
  ],
  [
   0.6872578263282776,
   1.2900583744049072,
   0.0853581354022026,
   -0.7968675494194031,
   -0.06268271058797836,
   -2.6305177211761475
  ],
  [
   2.124039888381958,
   0.4263232350349426,
   -0.6765542030334473,
   -1.187515377998352,
   -1.0882556438446045,
   2.423915147781372
  ],
  [
   0.26553642749786377,
   2.9825844764709473,
   -0.08110279589891434,
   0.7397958636283875,
   -0.40479806065559387,
   -1.9659351110458374
  ],
  [
   0.25571826100349426,
   -2.3831543922424316,
   0.6444103121757507,
   -0.12591154873371124,
   -1.956972599029541,
   3.145686388015747
  ],
  [
   2.4223952293395996,
   2.2853035926818848,
   0.14593087136745453,
   -1.5423102378845215,
   -1.072954773902893,
   -0.3424675464630127
  ],
  [
   -1.4119019508361816,
   -0.02541576884686947,
   0.1943802833557129,
   0.8599721789360046,
   -1.5937795639038086,
   -4.348534107208252
  ],
  [
   -3.277252197265625,
   0.6485117673873901,
   -0.8214064836502075,
   -0.22007273137569427,
   0.25273579359054565,
   1.6975899934768677
  ],
  [
   1.3180631399154663,
   0.02791634015738964,
   -0.5235534310340881,
   0.557183563709259,
   -2.4754762649536133,
   -2.646385669708252
  ],
  [
   0.860876202583313,
   1.4957119226455688,
   1.6825486421585083,
   0.7725237011909485,
   -1.1729423999786377,
   -1.7778111696243286
  ],
  [
   -0.39065566658973694,
   -1.6799805164337158,
   -1.4309916496276855,
   -1.8431452512741089,
   0.8833039402961731,
   3.4016568660736084
  ],
  [
   1.0659106969833374,
   0.7930744886398315,
   -0.05763045698404312,
   -1.768690824508667,
   -0.1767054945230484,
   1.0608018636703491
  ],
  [
   -1.5919710397720337,
   1.2499502897262573,
   -2.466989278793335,
   1.5524561405181885,
   -0.9110514521598816,
   -0.7949454188346863
  ],
  [
   0.8142444491386414,
   2.3454172611236572,
   -0.7474120259284973,
   -1.0075114965438843,
   -0.06562754511833191,
   -2.2794744968414307
  ],
  [
   -0.44304344058036804,
   0.2671200633049011,
   0.9579696655273438,
   1.4097026586532593,
   -0.03369747847318649,
   0.35155630111694336
  ],
  [
   1.0129354000091553,
   1.2210636138916016,
   -0.04260411486029625,
   -0.6903296113014221,
   -2.429248809814453,
   -2.0793306827545166
  ],
  [
   1.5365062952041626,
   -0.029218580573797226,
   -0.25870659947395325,
   0.3407595455646515,
   2.3791816234588623,
   -1.806470513343811
  ],
  [
   -1.4492378234863281,
   -0.9532961845397949,
   -2.537933111190796,
   -0.2612106502056122,
   2.4220917224884033,
   -1.9710532426834106
  ],
  [
   -1.4976387023925781,
   2.9889543056488037,
   0.533173680305481,
   0.3712443709373474,
   2.1038529872894287,
   -0.7289352416992188
  ],
  [
   -0.7342133522033691,
   -1.6147531270980835,
   -1.4220525026321411,
   -0.08173417299985886,
   1.9865797758102417,
   -2.745941162109375
  ],
  [
   -0.16060763597488403,
   -0.4331187605857849,
   0.07564497739076614,
   0.19750846922397614,
   -1.2102787494659424,
   -0.049527592957019806
  ],
  [
   1.1827542781829834,
   -0.27584898471832275,
   1.599284291267395,
   -1.1487725973129272,
   -5.235957145690918,
   -1.784090280532837
  ],
  [
   -1.989682912826538,
   -1.6550655364990234,
   -0.09065461903810501,
   -0.6365216970443726,
   -0.15412196516990662,
   0.9421159029006958
  ],
  [
   0.035277679562568665,
   -0.6581407189369202,
   0.1022506058216095,
   1.0579031705856323,
   -2.160815954208374,
   0.5275651812553406
  ],
  [
   -3.0698018074035645,
   -0.5141496658325195,
   0.28432130813598633,
   0.7930383682250977,
   1.2756614685058594,
   -0.36571425199508667
  ],
  [
   -0.43710729479789734,
   0.1615423560142517,
   -1.2764921188354492,
   1.1465047597885132,
   -0.09462766349315643,
   0.16219238936901093
  ],
  [
   0.7543692588806152,
   0.29822003841400146,
   0.4553788900375366,
   1.2896443605422974,
   0.7103921175003052,
   -1.0216703414916992
  ],
  [
   -0.4004811942577362,
   0.11813271790742874,
   1.0876896381378174,
   -0.3950611352920532,
   2.130669355392456,
   0.6917942762374878
  ],
  [
   -0.5284674167633057,
   -0.3840772807598114,
   -1.188180923461914,
   0.33733662962913513,
   3.173452138900757,
   -0.05507787689566612
  ],
  [
   -1.9842028617858887,
   1.0323059558868408,
   -0.02649870701134205,
   -0.11803016066551208,
   -1.5947563648223877,
   3.590813398361206
  ],
  [
   0.026927903294563293,
   0.416132390499115,
   -0.6101325154304504,
   0.3355696499347687,
   0.31760093569755554,
   0.3114910125732422
  ],
  [
   4.349342346191406,
   0.20481717586517334,
   -0.1009683907032013,
   0.03922686353325844,
   -0.021577104926109314,
   -1.3515915870666504
  ],
  [
   -0.7894788384437561,
   2.0001778602600098,
   1.2934035062789917,
   1.9694938659667969,
   0.30025893449783325,
   -0.9707732200622559
  ],
  [
   -0.3532870411872864,
   -2.483788251876831,
   -0.5387616157531738,
   -0.07141587883234024,
   -0.1271299570798874,
   2.485948085784912
  ],
  [
   1.8042336702346802,
   -0.47587159276008606,
   0.03874712809920311,
   0.24421195685863495,
   -0.4318680763244629,
   -2.0613226890563965
  ],
  [
   -1.4420315027236938,
   0.8029612898826599,
   -0.5315147638320923,
   -0.9696869254112244,
   -1.119727611541748,
   2.876279592514038
  ],
  [
   4.519514560699463,
   1.6033530235290527,
   -0.25283241271972656,
   -0.4144967198371887,
   1.710721492767334,
   -0.7720330357551575
  ],
  [
   2.3862385749816895,
   2.50931453704834,
   0.11925998330116272,
   -0.14638325572013855,
   2.838998794555664,
   -2.2911252975463867
  ],
  [
   1.076920747756958,
   1.6738629341125488,
   0.3199966847896576,
   -0.16062931716442108,
   1.0763156414031982,
   1.8158907890319824
  ],
  [
   -0.05028171092271805,
   -2.4643352031707764,
   0.04954876750707626,
   0.7090908885002136,
   -2.112807035446167,
   3.448317766189575
  ],
  [
   -0.8778349161148071,
   -0.5382384061813354,
   -0.8973750472068787,
   1.022649884223938,
   2.056978702545166,
   -2.0658175945281982
  ],
  [
   -0.8039987087249756,
   -1.2984776496887207,
   -0.4333636462688446,
   -1.6671639680862427,
   0.5996739864349365,
   3.4713032245635986
  ],
  [
   0.8058255910873413,
   1.2266926765441895,
   0.03759234398603439,
   0.09845470637083054,
   -3.8689346313476562,
   -1.6529499292373657
  ],
  [
   -2.7249550819396973,
   -0.007088704966008663,
   0.3668675720691681,
   0.16968639194965363,
   1.8646621704101562,
   -1.9947614669799805
  ],
  [
   0.8295118808746338,
   -0.38436341285705566,
   2.3131256103515625,
   1.3187402486801147,
   -2.6941864490509033,
   2.2291171550750732
  ],
  [
   -1.9387907981872559,
   1.4146496057510376,
   -0.09433746337890625,
   -0.20490707457065582,
   -1.1513692140579224,
   1.2768890857696533
  ],
  [
   -0.9441947937011719,
   2.452498435974121,
   -0.4549671411514282,
   0.23387448489665985,
   -1.1218018531799316,
   2.9519917964935303
  ],
  [
   -0.24991245567798615,
   2.204106092453003,
   -0.4191148281097412,
   -1.6516261100769043,
   0.763696014881134,
   -2.367233991622925
  ],
  [
   -0.24811066687107086,
   1.4049404859542847,
   0.008209331892430782,
   -0.06772104650735855,
   1.2052146196365356,
   -0.43850624561309814
  ],
  [
   1.0812619924545288,
   0.49584531784057617,
   -0.5452503561973572,
   -0.6000947952270508,
   -1.0131055116653442,
   2.3089678287506104
  ],
  [
   -0.7859567999839783,
   -1.3117483854293823,
   -0.3359466791152954,
   -0.6625736951828003,
   -1.3715221881866455,
   -2.049527883529663
  ],
  [
   -2.2396628856658936,
   1.2741340398788452,
   0.07197286188602448,
   -1.103320837020874,
   3.0690014362335205,
   2.8813250064849854
  ],
  [
   0.6862332820892334,
   0.056535907089710236,
   0.1081170067191124,
   -0.8117026090621948,
   0.3280015289783478,
   0.08390046656131744
  ],
  [
   0.1111336424946785,
   -0.14585335552692413,
   0.07179386168718338,
   0.23029924929141998,
   -0.6236072182655334,
   1.110023856163025
  ],
  [
   -0.08144368976354599,
   0.06532686203718185,
   -0.7204038500785828,
   1.4297800064086914,
   0.3537733554840088,
   -2.1379120349884033
  ],
  [
   2.9577958583831787,
   -0.046454764902591705,
   -0.153696209192276,
   0.18582585453987122,
   1.3628638982772827,
   -0.9934349060058594
  ],
  [
   1.6919876337051392,
   2.011589288711548,
   -0.1772230565547943,
   -1.1458845138549805,
   2.9618144035339355,
   -2.2528738975524902
  ],
  [
   -0.3844144642353058,
   -1.1009654998779297,
   0.13967017829418182,
   0.4768373668193817,
   0.7133843302726746,
   -0.26502734422683716
  ],
  [
   2.148531913757324,
   1.171547293663025,
   -0.3965023159980774,
   0.517676055431366,
   0.6695209741592407,
   -0.9419389963150024
  ],
  [
   0.25528982281684875,
   0.27854669094085693,
   -0.5889896750450134,
   1.3426107168197632,
   -1.020056962966919,
   0.6737707257270813
  ],
  [
   -1.8246198892593384,
   -0.1329590082168579,
   -0.16309741139411926,
   -0.07759416848421097,
   -2.4752509593963623,
   -1.85128915309906
  ],
  [
   -0.5549077391624451,
   -0.9348281025886536,
   -0.08361812680959702,
   -0.18464913964271545,
   1.320157766342163,
   0.6964916586875916
  ],
  [
   0.1999230980873108,
   -0.7017387747764587,
   -1.8779783248901367,
   -0.5831590294837952,
   0.9397490620613098,
   -1.8297892808914185
  ],
  [
   0.17725935578346252,
   -1.4615228176116943,
   -2.0609548091888428,
   -0.15135322511196136,
   0.24628065526485443,
   1.8375818729400635
  ],
  [
   -1.4256160259246826,
   -0.6229748129844666,
   -1.3271353244781494,
   0.8346906304359436,
   2.949143648147583,
   -4.674761772155762
  ],
  [
   -0.24811863899230957,
   -0.4017692506313324,
   0.32880938053131104,
   -0.09541257470846176,
   -1.1851593255996704,
   0.33618441224098206
  ],
  [
   -1.1013450622558594,
   -0.00604406651109457,
   -0.6797170639038086,
   1.8107489347457886,
   -0.1402435153722763,
   -1.8759206533432007
  ],
  [
   -1.2527488470077515,
   -0.8070759177207947,
   0.49867820739746094,
   -0.20946551859378815,
   6.713082790374756,
   0.3079069256782532
  ],
  [
   0.7979981899261475,
   1.419522762298584,
   0.387890100479126,
   0.07526548206806183,
   -3.630974292755127,
   -1.3533048629760742
  ],
  [
   -0.6070912480354309,
   -0.7023563981056213,
   -0.7866624593734741,
   0.00048542977310717106,
   2.17533016204834,
   1.2130833864212036
  ],
  [
   -0.31212952733039856,
   0.20028194785118103,
   1.8781434297561646,
   1.4522385597229004,
   0.09414653480052948,
   -0.9195155501365662
  ],
  [
   -3.3691656589508057,
   -0.6439498066902161,
   0.04754882678389549,
   -0.05685148388147354,
   1.9333775043487549,
   0.35839399695396423
  ],
  [
   0.01743181422352791,
   0.8343012928962708,
   -0.17295975983142853,
   -1.4596079587936401,
   -1.3056026697158813,
   4.041484832763672
  ],
  [
   1.9788687229156494,
   3.179795503616333,
   -0.8270785212516785,
   -1.5474954843521118,
   -0.31933897733688354,
   -2.9199628829956055
  ],
  [
   -0.020164774730801582,
   -0.7196718454360962,
   -0.45518678426742554,
   -1.0739198923110962,
   -2.990401268005371,
   1.9818753004074097
  ],
  [
   2.7002227306365967,
   0.6218574643135071,
   -0.28526031970977783,
   0.2704225182533264,
   -0.634355366230011,
   -2.1694819927215576
  ],
  [
   -3.404487133026123,
   -1.1096491813659668,
   -0.15928885340690613,
   -0.6164340972900391,
   -1.0699422359466553,
   1.2750004529953003
  ],
  [
   0.5818458795547485,
   -1.9713377952575684,
   -1.104265570640564,
   -0.03740661218762398,
   1.8820713758468628,
   2.892547369003296
  ],
  [
   1.1360028982162476,
   0.5732983350753784,
   0.510956346988678,
   -0.022938597947359085,
   -1.4323724508285522,
   -0.057927899062633514
  ],
  [
   0.4052194654941559,
   -1.0592421293258667,
   -1.8417829275131226,
   -0.5888586640357971,
   1.1562225818634033,
   3.12750244140625
  ],
  [
   0.3642522990703583,
   1.7013508081436157,
   -0.29841578006744385,
   1.7124507427215576,
   -0.30458134412765503,
   -0.5957741141319275
  ],
  [
   1.096058964729309,
   1.111247181892395,
   0.10516390949487686,
   -0.7900792956352234,
   -0.6028828620910645,
   -0.04261709749698639
  ],
  [
   1.1422464847564697,
   0.6905975937843323,
   0.1039925068616867,
   0.31385281682014465,
   -1.1251953840255737,
   -1.1060296297073364
  ],
  [
   0.1280396580696106,
   -0.7809234261512756,
   -0.08364543318748474,
   -1.283919334411621,
   0.3056553304195404,
   -9.488084469921887e-05
  ],
  [
   0.45705828070640564,
   -1.475256085395813,
   -1.4440255165100098,
   -1.7913804054260254,
   -0.2657570242881775,
   0.998192310333252
  ],
  [
   2.0103094577789307,
   0.5360190868377686,
   -0.5172166228294373,
   1.2725324630737305,
   -2.7112438678741455,
   -3.546518087387085
  ],
  [
   -1.7687262296676636,
   -1.7122933864593506,
   1.4054771661758423,
   -0.006894733291119337,
   -2.162931442260742,
   -0.2699277997016907
  ],
  [
   -1.6096810102462769,
   -0.15212033689022064,
   1.2676091194152832,
   -0.04077046364545822,
   -1.2470263242721558,
   -0.7055996060371399
  ],
  [
   1.522774577140808,
   0.11517386138439178,
   -0.2625696361064911,
   -0.5943710207939148,
   -0.7926598787307739,
   -0.1118163913488388
  ],
  [
   -0.7623380422592163,
   -0.6968477964401245,
   1.4566645622253418,
   -1.4500094652175903,
   -0.6438645720481873,
   1.1803900003433228
  ],
  [
   -0.82703697681427,
   -1.0366945266723633,
   0.4263046681880951,
   0.34415915608406067,
   -0.7738197445869446,
   2.427861213684082
  ],
  [
   -2.41245174407959,
   -1.2487823963165283,
   0.22580265998840332,
   -0.5282824635505676,
   -1.5774962902069092,
   1.2007858753204346
  ],
  [
   1.0455635786056519,
   1.488950252532959,
   2.0468785762786865,
   0.5140845775604248,
   -2.237532615661621,
   -1.9748783111572266
  ],
  [
   0.08358583599328995,
   1.3947105407714844,
   0.7823859453201294,
   1.0734344720840454,
   0.10346987843513489,
   0.6601203083992004
  ],
  [
   0.3366764783859253,
   1.4527413845062256,
   0.8551770448684692,
   -0.4745957851409912,
   -3.001560688018799,
   -1.295227289199829
  ],
  [
   1.2841969728469849,
   2.0353541374206543,
   -1.5054751634597778,
   -0.2654387950897217,
   0.6377708315849304,
   -1.7814661264419556
  ],
  [
   0.5717957615852356,
   2.276048183441162,
   -1.279740333557129,
   1.7097326517105103,
   1.0296995639801025,
   -2.318889617919922
  ],
  [
   1.1266090869903564,
   -0.3872718811035156,
   -0.23635362088680267,
   0.967275857925415,
   1.2306877374649048,
   -0.4063851833343506
  ],
  [
   0.6369360089302063,
   -4.058999061584473,
   0.13772760331630707,
   -1.2824963331222534,
   2.117863655090332,
   -2.4383184909820557
  ],
  [
   0.08516830205917358,
   1.0490127801895142,
   0.23592406511306763,
   -1.2269914150238037,
   -0.9077965617179871,
   -0.1566990315914154
  ],
  [
   1.2112303972244263,
   1.9178847074508667,
   -0.5818356275558472,
   -2.555576801300049,
   -0.3673454821109772,
   1.8028666973114014
  ],
  [
   -0.07211586087942123,
   -0.08492067456245422,
   -0.7241837978363037,
   -0.4634753167629242,
   0.6827850937843323,
   -0.29886749386787415
  ],
  [
   0.693824291229248,
   2.793513298034668,
   -0.6038364768028259,
   0.12228541076183319,
   1.1714547872543335,
   -1.789211630821228
  ],
  [
   -2.965271234512329,
   -1.262798547744751,
   -6.201595783233643,
   -1.787062644958496,
   -1.2668613195419312,
   1.0750174522399902
  ],
  [
   0.30872613191604614,
   -6.6642069816589355,
   0.19067144393920898,
   -7.291798114776611,
   1.2777729034423828,
   0.06813571602106094
  ],
  [
   1.1824438571929932,
   -0.2203494757413864,
   -0.4144841730594635,
   1.2373921871185303,
   0.5541110634803772,
   -1.3222559690475464
  ],
  [
   1.477752447128296,
   -1.6781818866729736,
   -0.28683555126190186,
   -0.26043328642845154,
   -2.1823630332946777,
   3.845449209213257
  ],
  [
   0.3258504569530487,
   -2.450904130935669,
   -1.5236397981643677,
   -0.8755480051040649,
   3.3515543937683105,
   2.784639596939087
  ],
  [
   -1.4801445007324219,
   -0.07699354737997055,
   -1.2999852895736694,
   1.6606574058532715,
   0.853848397731781,
   -2.086475133895874
  ],
  [
   -1.6568139791488647,
   -0.6994080543518066,
   0.08011776208877563,
   -1.1668908596038818,
   1.2804242372512817,
   -0.36803850531578064
  ],
  [
   -0.20933347940444946,
   -0.2945008873939514,
   0.765829861164093,
   -1.8633424043655396,
   -0.8858082890510559,
   2.8133230209350586
  ],
  [
   -1.6375945806503296,
   -0.5295547842979431,
   0.8315618634223938,
   1.7521371841430664,
   -0.5791134834289551,
   -2.677687883377075
  ],
  [
   1.3401559591293335,
   -0.2911151945590973,
   -0.1481025069952011,
   0.12324212491512299,
   -2.778303623199463,
   -1.256306529045105
  ],
  [
   1.0540351867675781,
   1.1737399101257324,
   -0.5057550072669983,
   -1.2279908657073975,
   0.6476669907569885,
   -0.4900769293308258
  ],
  [
   1.1408686637878418,
   1.4856771230697632,
   -0.7604144215583801,
   -0.3438803553581238,
   0.6498073935508728,
   -0.3473883867263794
  ],
  [
   -0.5647650361061096,
   -0.5936999917030334,
   -0.9793821573257446,
   -2.0577332973480225,
   0.3979825973510742,
   3.4412715435028076
  ],
  [
   -0.9526427984237671,
   -3.5844900608062744,
   -0.5356510877609253,
   1.1368439197540283,
   0.30372002720832825,
   0.6956882476806641
  ],
  [
   -4.323772430419922,
   -0.891773521900177,
   0.056805893778800964,
   0.04589851573109627,
   1.0409202575683594,
   0.2466854602098465
  ]
 ],
 "pi.0.bias": [
  -3.22904372215271,
  0.6860308051109314,
  0.9431979060173035,
  -2.1690196990966797,
  -2.0382444858551025,
  -2.580157995223999,
  -1.6602628231048584,
  3.818338394165039,
  0.008461661636829376,
  -4.59716796875,
  0.3212428390979767,
  -3.2129132747650146,
  0.8152830600738525,
  -1.5454165935516357,
  -3.4611880779266357,
  -1.4250928163528442,
  0.5154271125793457,
  -1.3455926179885864,
  -3.3032171726226807,
  3.902914524078369,
  -0.33750513195991516,
  -4.372471332550049,
  0.25649961829185486,
  -3.5457043647766113,
  -0.2719131410121918,
  -1.5640498399734497,
  -3.9341046810150146,
  -2.984311819076538,
  3.009827136993408,
  0.13149394094944,
  -1.6187269687652588,
  4.395411968231201,
  -2.0115318298339844,
  -1.6144160032272339,
  -0.5092437863349915,
  -0.914064347743988,
  0.7773489356040955,
  1.4283902645111084,
  1.6513131856918335,
  0.0823112204670906,
  -0.924828827381134,
  3.630341053009033,
  2.7055788040161133,
  0.11439737677574158,
  -4.034487724304199,
  -2.3425135612487793,
  6.987879753112793,
  -7.8101701736450195,
  4.522904396057129,
  -1.1923381090164185,
  -1.356223464012146,
  2.7279200553894043,
  2.978395938873291,
  -2.2946860790252686,
  2.0153865814208984,
  1.7442721128463745,
  -3.4260966777801514,
  -2.0983612537384033,
  -2.6642844676971436,
  1.4835803508758545,
  -0.7643159627914429,
  -0.116348035633564,
  1.756109595298767,
  -4.053811073303223,
  -2.129826784133911,
  -3.42326283454895,
  0.8046032190322876,
  -0.26465144753456116,
  -3.194915533065796,
  3.1275036334991455,
  3.498368501663208,
  0.7652263641357422,
  1.1973220109939575,
  0.9706762433052063,
  -5.563964366912842,
  -0.3850085139274597,
  -1.4964063167572021,
  -3.242595911026001,
  -0.3947853446006775,
  -3.8511502742767334,
  -3.235053777694702,
  -3.7963032722473145,
  0.7288245558738708,
  3.9385452270507812,
  3.580329418182373,
  0.26139089465141296,
  -0.08348727971315384,
  3.1650121212005615,
  1.6631009578704834,
  1.5218868255615234,
  -1.641855001449585,
  2.2466723918914795,
  -1.9137579202651978,
  -0.8358137607574463,
  -5.484420299530029,
  0.21161702275276184,
  0.768164336681366,
  -0.4297106862068176,
  -0.9835879802703857,
  -2.1212525367736816,
  -0.13669808208942413,
  -2.187415361404419,
  4.054415702819824,
  -2.0731799602508545,
  -1.2992241382598877,
  -3.121119260787964,
  -5.306911468505859,
  -4.652878761291504,
  -2.1884989738464355,
  -2.2286319732666016,
  0.9029542207717896,
  0.3575333058834076,
  -2.6880557537078857,
  1.9098789691925049,
  -0.3049079179763794,
  -0.7292905449867249,
  -0.4415101706981659,
  -1.7399698495864868,
  -3.2001283168792725,
  0.9541937112808228,
  3.5256011486053467,
  -4.054859161376953,
  0.5947583317756653,
  -2.0055251121520996,
  1.1907404661178589,
  -0.18725840747356415,
  -1.1803293228149414,
  -2.6194095611572266,
  0.3225029706954956,
  0.03674404323101044,
  -3.70414137840271,
  -1.8181421756744385,
  -4.4224700927734375,
  1.1021379232406616,
  -2.9550564289093018,
  -1.5884324312210083,
  0.049179743975400925,
  -0.6728146076202393,
  0.6563451290130615,
  -4.94856595993042,
  -1.548608422279358,
  0.7382187247276306,
  -2.1841797828674316,
  4.187689304351807,
  1.4460586309432983,
  -0.9276790022850037,
  4.11976432800293,
  -2.4144082069396973,
  2.0040316581726074,
  2.162990093231201,
  1.0016030073165894,
  -2.362614154815674,
  -2.166609525680542,
  3.9900784492492676,
  -1.2903599739074707,
  0.28831735253334045,
  1.8158743381500244,
  -1.564931035041809,
  -2.342696189880371,
  1.093626618385315,
  2.0484046936035156,
  3.856581211090088,
  -2.9742865562438965,
  -2.4419827461242676,
  -2.9148385524749756,
  -1.2650716304779053,
  -0.009359452873468399,
  -1.725234866142273,
  -0.28898921608924866,
  1.8633544445037842,
  -5.705644130706787,
  -0.5158347487449646,
  -2.310025691986084,
  0.9056010246276855,
  1.7673139572143555,
  -2.228935956954956,
  -0.682140052318573,
  -1.0843920707702637,
  0.7815092206001282,
  -2.629364252090454,
  -2.274456262588501,
  -2.8521950244903564,
  -1.7370280027389526,
  -2.555466651916504,
  -1.591271162033081,
  10.502096176147461,
  -9.465177536010742,
  -4.0025506019592285,
  1.172048807144165,
  3.4732396602630615,
  -1.457342267036438,
  -1.6382845640182495,
  -1.0618494749069214,
  -4.953294277191162,
  -1.9738616943359375,
  -2.635099411010742,
  -1.4105650186538696,
  -0.0752272978425026,
  -1.5916450023651123,
  -0.2454126626253128
 ],
 "pi.2.weight": [
  [
   -1.0080080032348633,
   -0.09150588512420654,
   -0.9784219861030579,
   0.04637034609913826,
   2.1215248107910156,
   0.028260990977287292,
   1.044457197189331,
   1.0630519390106201,
   1.6389557123184204,
   0.008129090070724487,
   -0.6098524332046509,
   1.0958524942398071,
   1.4412051439285278,
   1.4701122045516968,
   -0.8731976747512817,
   0.2961280941963196,
   1.7404719591140747,
   -1.1243528127670288,
   -1.278790831565857,
   0.8803187012672424,
   -0.2156304568052292,
   0.8736312985420227,
   -1.3497004508972168,
   1.9649578332901,
   0.9630581140518188,
   -0.13755778968334198,
   -0.09217481315135956,
   0.6098273396492004,
   -1.0319684743881226,
   0.7888427376747131,
   -0.1706191897392273,
   -0.8158609867095947,
   0.9125645160675049,
   -1.4408317804336548,
   0.9898982048034668,
   -1.1602002382278442,
   -0.663005530834198,
   0.9146414399147034,
   -0.4723833203315735,
   1.19259774684906,
   -1.4100968837738037,
   0.6008656024932861,
   -0.8882172703742981,
   -0.7656037211418152,
   -1.7090638875961304,
   -0.7989715933799744,
   -0.7829512357711792,
   -3.0328962802886963,
   -1.1510341167449951,
   -1.0425748825073242,
   1.064875602722168,
   1.5237501859664917,
   0.7017384767532349,
   -1.8419462442398071,
   1.298642635345459,
   -1.2090083360671997,
   0.3094009757041931,
   -1.335413932800293,
   -1.1278953552246094,
   1.0904254913330078,
   -0.9393295049667358,
   -1.1811189651489258,
   -0.7550703287124634,
   -0.9405707120895386,
   1.04271399974823,
   -0.9872369170188904,
   0.42555516958236694,
   1.0607714653015137,
   1.1171585321426392,
   -0.8265290856361389,
   -0.6340903639793396,
   -0.33366066217422485,
   0.676751434803009,
   1.8676533699035645,
   1.8061493635177612,
   -0.09001142531633377,
   -0.8981261253356934,
   -0.3818058967590332,
   1.1379451751708984,
   -1.7746424674987793,
   1.0422914028167725,
   -0.10863924026489258,
   1.0484397411346436,
   0.3595932722091675,
   0.3139784336090088,
   0.08998770266771317,
   -1.302660346031189,
   -1.3708020448684692,
   -0.7133881449699402,
   -0.9587714672088623,
   -1.1446526050567627,
   0.9313889741897583,
   0.6092621684074402,
   -1.4425638914108276,
   -0.8755481243133545,
   0.4404822587966919,
   -0.038204681128263474,
   1.2168718576431274,
   0.8922173976898193,
   1.1502349376678467,
   0.7278965711593628,
   -1.0049978494644165,
   0.5415817499160767,
   -1.622512936592102,
   0.40150192379951477,
   -1.3524161577224731,
   -1.133122205734253,
   2.0056912899017334,
   0.675879955291748,
   1.2910747528076172,
   0.23323461413383484,
   0.580909013748169,
   -0.3531772792339325,
   -0.36055147647857666,
   -0.20682010054588318,
   -0.2753755450248718,
   -1.0027703046798706,
   0.7993335127830505,
   1.2294737100601196,
   -0.6883564591407776,
   -0.34845829010009766,
   -0.5347180962562561,
   -0.7672317028045654,
   -0.37286582589149475,
   1.0384999513626099,
   0.8034375905990601,
   -1.3526118993759155,
   -1.1235016584396362,
   -0.7980182766914368,
   -0.5842449069023132,
   2.0887045860290527,
   0.11232494562864304,
   0.45800670981407166,
   0.23822207748889923,
   -1.4611611366271973,
   -0.8635208606719971,
   -0.17552219331264496,
   0.8920307159423828,
   0.7123647332191467,
   -2.326681137084961,
   0.7060422897338867,
   -1.1329525709152222,
   1.2865183353424072,
   0.8168407678604126,
   -0.6173953413963318,
   1.0550687313079834,
   0.8460637331008911,
   0.20106849074363708,
   -0.04543239623308182,
   -0.7813812494277954,
   -1.791224479675293,
   1.4816328287124634,
   1.9616279602050781,
   -0.6033349633216858,
   0.17440016567707062,
   0.7675623893737793,
   -0.4094392955303192,
   -0.6992866396903992,
   -1.2782478332519531,
   -1.4613083600997925,
   0.7816687226295471,
   1.2210896015167236,
   -0.03784117102622986,
   -1.2065775394439697,
   1.8486111164093018,
   -0.057219408452510834,
   -0.4353017210960388,
   0.14777767658233643,
   -1.218730092048645,
   0.9841984510421753,
   0.9647596478462219,
   -0.584621250629425,
   2.1506941318511963,
   -0.23207156360149384,
   -1.7900716066360474,
   1.2890980243682861,
   1.5969637632369995,
   -0.7552576065063477,
   -0.6006165742874146,
   0.01608530804514885,
   0.18830600380897522,
   1.0072499513626099,
   0.8487778902053833,
   0.8897595405578613,
   0.039659712463617325,
   -1.634503960609436,
   0.0163912121206522,
   0.8340660929679871,
   0.6283551454544067,
   0.8795937299728394,
   1.499310851097107,
   0.72503662109375,
   -0.9280065894126892,
   -1.2776775360107422,
   0.9848694801330566,
   -1.628542423248291,
   -0.6288759708404541,
   0.5838202834129333,
   -1.1124954223632812,
   -1.3352357149124146
  ],
  [
   -0.011936182156205177,
   1.1381828784942627,
   0.9466539025306702,
   1.895118236541748,
   1.0943536758422852,
   -2.0986056327819824,
   -0.24997293949127197,
   0.19586661458015442,
   -0.7174914479255676,
   2.2297632694244385,
   0.5956904292106628,
   0.10376432538032532,
   -0.43245601654052734,
   -0.05288375914096832,
   0.2953334450721741,
   1.0929211378097534,
   0.08835797756910324,
   0.8849196434020996,
   -0.39574310183525085,
   0.7603240013122559,
   1.3514289855957031,
   -0.9117056131362915,
   -0.6429400444030762,
   0.32067936658859253,
   0.9669881463050842,
   -1.226881504058838,
   1.399070143699646,
   -0.28992563486099243,
   -0.10531075298786163,
   -0.9667984843254089,
   1.703218936920166,
   -0.3971247673034668,
   -0.504791796207428,
   -0.2564755380153656,
   -0.0865822359919548,
   0.34742864966392517,
   1.040913462638855,
   0.9284781217575073,
   0.16148506104946136,
   0.6374069452285767,
   0.12154209613800049,
   0.4128102958202362,
   -0.8560165166854858,
   0.2704901099205017,
   -0.43170589208602905,
   0.3247606158256531,
   -0.6033613085746765,
   -2.7943363189697266,
   -0.4353717863559723,
   -0.09858545660972595,
   -1.1628788709640503,
   -0.2902253270149231,
   -0.9210023283958435,
   0.9049267768859863,
   -0.04648216813802719,
   0.3716599643230438,
   -1.1168992519378662,
   2.0791831016540527,
   -0.6976902484893799,
   0.41086843609809875,
   -0.05825745314359665,
   0.17661526799201965,
   0.8613022565841675,
   -0.7251515984535217,
   -1.301641821861267,
   0.20627447962760925,
   -0.6774324774742126,
   -0.8928492069244385,
   -0.7977891564369202,
   0.1519513726234436,
   1.11114501953125,
   1.4187675714492798,
   -0.8942887783050537,
   0.03836970403790474,
   -0.8649924993515015,
   0.998449444770813,
   1.1912956237792969,
   -0.9904875159263611,
   0.14327791333198547,
   -0.8451493382453918,
   0.20107364654541016,
   1.0948047637939453,
   -1.0671125650405884,
   -0.9712211489677429,
   -0.9775111675262451,
   -1.210555911064148,
   0.5989788174629211,
   0.04120953381061554,
   -0.4974268972873688,
   0.19896945357322693,
   0.4207085371017456,
   -0.39939528703689575,
   1.1088148355484009,
   -0.35737624764442444,
   0.38251936435699463,
   0.8235601782798767,
   0.9720074534416199,
   1.1939103603363037,
   -0.9929134845733643,
   -0.28933247923851013,
   -0.6148353219032288,
   0.49723607301712036,
   1.0123666524887085,
   -0.03309793397784233,
   -1.1672487258911133,
   0.2095617651939392,
   0.5305189490318298,
   -1.2154829502105713,
   1.7555787563323975,
   -0.14398594200611115,
   -0.7604683041572571,
   -1.0134624242782593,
   2.2742092609405518,
   0.5521842241287231,
   -0.7582144737243652,
   -1.0122405290603638,
   0.5156349539756775,
   -0.6329776644706726,
   -0.2325005829334259,
   -0.8912616968154907,
   1.0536613464355469,
   0.9893315434455872,
   1.2678056955337524,
   -0.9859185218811035,
   0.8135314583778381,
   0.31729966402053833,
   0.12892508506774902,
   -1.1535450220108032,
   0.7188186645507812,
   -0.845203697681427,
   -0.5841783285140991,
   1.5600632429122925,
   1.1370184421539307,
   1.0703169107437134,
   2.1952362060546875,
   1.1844260692596436,
   -1.4646106958389282,
   -0.2421645224094391,
   0.7949151396751404,
   0.7086048126220703,
   0.6571575999259949,
   0.5423389673233032,
   0.6241781115531921,
   -0.8180346488952637,
   -0.14311231672763824,
   -0.3181651830673218,
   -0.468264639377594,
   -2.0469601154327393,
   -1.2068829536437988,
   -0.0730343908071518,
   0.30953842401504517,
   -0.8416358232498169,
   0.17945438623428345,
   -0.8420385122299194,
   -0.9638718366622925,
   -0.6298111081123352,
   -1.0003957748413086,
   -0.5115728378295898,
   0.4150106608867645,
   0.08380434662103653,
   -0.31631070375442505,
   -0.08307725936174393,
   2.400252103805542,
   -1.450698971748352,
   -1.104520559310913,
   1.5656192302703857,
   -0.7719588279724121,
   1.102044939994812,
   0.8807086944580078,
   0.6235710382461548,
   -1.1619718074798584,
   1.126590609550476,
   -1.46992027759552,
   -0.767216145992279,
   -0.05931379646062851,
   -0.03953298181295395,
   -0.9055846333503723,
   0.9438146352767944,
   0.516802191734314,
   1.1857404708862305,
   0.7577288746833801,
   0.5495799779891968,
   -0.9340425729751587,
   0.7562241554260254,
   -1.0579885244369507,
   -0.2803458571434021,
   -3.710420608520508,
   -2.0575923919677734,
   -0.16309113800525665,
   -0.26951146125793457,
   -1.0400387048721313,
   -1.3375799655914307,
   -0.5603479743003845,
   -0.5400190949440002,
   0.9826946258544922,
   0.11719893664121628,
   0.7130416035652161,
   1.0260181427001953,
   0.06616830080747604,
   0.132797509431839
  ]
 ],
 "pi.2.bias": [
  0.003047040430828929,
  0.013427793979644775
 ]
}