{
 "pi.0.weight": [
  [
   0.2372177392244339,
   0.22501206398010254,
   -0.5841880440711975
  ],
  [
   -0.5069751143455505,
   -0.29737094044685364,
   0.33748114109039307
  ],
  [
   -0.009929001331329346,
   0.15158626437187195,
   0.03343832865357399
  ],
  [
   0.14848937094211578,
   -0.18029175698757172,
   -0.003837679512798786
  ],
  [
   -0.2777640223503113,
   -0.38120242953300476,
   -0.2517663836479187
  ],
  [
   0.017091816291213036,
   0.166022390127182,
   0.343950092792511
  ],
  [
   -0.47184985876083374,
   -0.2953449487686157,
   0.32635682821273804
  ],
  [
   0.4821667969226837,
   -0.07430058717727661,
   0.3956456184387207
  ],
  [
   -0.09352197498083115,
   0.003179108491167426,
   0.512086033821106
  ],
  [
   -0.5384104251861572,
   -0.46680784225463867,
   -0.13032658398151398
  ],
  [
   -0.06424549221992493,
   0.2850937247276306,
   -0.20274904370307922
  ],
  [
   0.16329772770404816,
   0.07376972585916519,
   -0.42604026198387146
  ],
  [
   -0.2805668115615845,
   0.11037344485521317,
   0.27762261033058167
  ],
  [
   0.6378831267356873,
   0.21093246340751648,
   -0.3590680658817291
  ],
  [
   -0.29465577006340027,
   0.015470988117158413,
   -0.536628246307373
  ],
  [
   -0.5334795713424683,
   -0.22446998953819275,
   0.492981880903244
  ],
  [
   -0.576953649520874,
   -0.3121419847011566,
   0.4266826808452606
  ],
  [
   0.6379728317260742,
   0.07775913178920746,
   0.08592239767313004
  ],
  [
   0.3799000084400177,
   0.21452264487743378,
   -0.03947916626930237
  ],
  [
   -0.6053497791290283,
   -0.4139339327812195,
   -0.23474515974521637
  ],
  [
   0.38396403193473816,
   0.37954580783843994,
   -0.6849546432495117
  ],
  [
   0.1575520634651184,
   0.22280018031597137,
   0.045962896198034286
  ],
  [
   -0.07416368275880814,
   -0.018697893247008324,
   0.4339018762111664
  ],
  [
   0.5375515818595886,
   -0.37859758734703064,
   -0.18267787992954254
  ],
  [
   0.22654257714748383,
   0.569250762462616,
   0.4752243459224701
  ],
  [
   0.6894522309303284,
   0.4041752815246582,
   -0.6216963529586792
  ],
  [
   -0.09044180810451508,
   0.011158479377627373,
   -0.5539713501930237
  ],
  [
   0.6940606236457825,
   0.6123327612876892,
   -0.8986807465553284
  ],
  [
   0.15498009324073792,
   0.0561719611287117,
   -0.014425579458475113
  ],
  [
   0.037349097430706024,
   0.16843965649604797,
   -0.3481428921222687
  ]
 ],
 "pi.0.bias": [
  0.12355776876211166,
  0.4201892912387848,
  0.43472787737846375,
  0.4953658878803253,
  -0.624981701374054,
  -0.3832394480705261,
  0.3717951774597168,
  0.03675324469804764,
  -0.46120619773864746,
  -0.45579656958580017,
  0.964467465877533,
  0.7514916658401489,
  -0.32928308844566345,
  0.17897120118141174,
  -0.46255090832710266,
  0.15273606777191162,
  -0.3399101495742798,
  -0.43282896280288696,
  -0.2468012571334839,
  0.04755733534693718,
  -0.3428894281387329,
  0.5830689668655396,
  -0.2555044889450073,
  0.4370400607585907,
  0.3022013008594513,
  -0.4116012454032898,
  -0.3047026991844177,
  0.1321895867586136,
  0.04047875106334686,
  0.24832704663276672
 ],
 "pi.2.weight": [
  [
   0.21672794222831726,
   -0.12194974720478058,
   0.04315173625946045,
   0.30332669615745544,
   0.08185132592916489,
   -0.0949111133813858,
   -0.18363629281520844,
   -0.06656908243894577,
   -0.04544870927929878,
   0.34075310826301575,
   0.05809099227190018,
   0.11861658096313477,
   0.015130234882235527,
   0.1426994800567627,
   0.1649920493364334,
   -0.10331696271896362,
   0.31874018907546997,
   -0.025621041655540466,
   0.09716352820396423,
   0.10062305629253387,
   0.24285855889320374,
   0.29910364747047424,
   0.20802372694015503,
   0.01683119684457779,
   -0.12316148728132248,
   -0.24747581779956818,
   0.19039899110794067,
   -0.19631317257881165,
   -0.05883444473147392,
   -0.15048901736736298
  ]
 ],
 "pi.2.bias": [
  -0.04785701632499695
 ]
}