{
 "pi.0.weight": [
  [
   0.7732913494110107,
   -0.27886199951171875,
   0.18048794567584991,
   0.3994922935962677
  ],
  [
   -0.13478983938694,
   -0.7110475301742554,
   0.0030547811184078455,
   0.09563831984996796
  ],
  [
   0.7527313828468323,
   -0.3691565692424774,
   -0.05920528620481491,
   -0.4060105085372925
  ],
  [
   -0.2707008421421051,
   -0.14016923308372498,
   -0.12694013118743896,
   -0.37925243377685547
  ],
  [
   1.1421085596084595,
   0.92061847448349,
   -0.6003296375274658,
   0.3368465006351471
  ],
  [
   0.3790827691555023,
   1.3128429651260376,
   0.14229047298431396,
   -0.16383877396583557
  ],
  [
   -0.12202507257461548,
   -0.43035897612571716,
   0.021265817806124687,
   0.10050232708454132
  ],
  [
   0.2523025572299957,
   1.2752351760864258,
   0.08724773675203323,
   0.1087254211306572
  ],
  [
   -0.6364684700965881,
   0.09596305340528488,
   -0.004157567862421274,
   -0.024307865649461746
  ],
  [
   0.23950326442718506,
   0.48295164108276367,
   0.31522563099861145,
   -0.08720853924751282
  ],
  [
   0.6271456480026245,
   1.3000460863113403,
   0.14757665991783142,
   0.02591700665652752
  ],
  [
   -0.6463194489479065,
   0.10622315108776093,
   -0.03960391506552696,
   -0.04978000000119209
  ],
  [
   0.19014587998390198,
   -0.1202898845076561,
   0.12116924673318863,
   0.3750613331794739
  ],
  [
   0.4085135757923126,
   0.4384143054485321,
   -0.018778100609779358,
   0.06690055876970291
  ],
  [
   0.468760222196579,
   0.4943341314792633,
   -0.10392460227012634,
   0.011332645080983639
  ],
  [
   0.9686893224716187,
   0.019853461533784866,
   -0.2872489392757416,
   0.24014653265476227
  ],
  [
   0.7288084030151367,
   1.442491054534912,
   0.31390270590782166,
   -0.21199287474155426
  ],
  [
   -0.1674153059720993,
   -0.47469618916511536,
   -0.0519065223634243,
   0.0921272337436676
  ],
  [
   0.6395146250724792,
   1.238106608390808,
   0.18102861940860748,
   0.02409907430410385
  ],
  [
   -0.04111757501959801,
   -0.6388014554977417,
   -0.10660610347986221,
   0.02439776249229908
  ],
  [
   0.3310788571834564,
   1.1529419422149658,
   0.13281387090682983,
   -0.15042711794376373
  ],
  [
   0.09673649072647095,
   1.0629409551620483,
   0.11656223237514496,
   0.3217153251171112
  ],
  [
   0.32077568769454956,
   0.09371547400951385,
   0.43848782777786255,
   0.325961172580719
  ],
  [
   -0.0464361235499382,
   -0.2914646863937378,
   0.07256843149662018,
   -0.23085173964500427
  ],
  [
   0.5184245705604553,
   0.6416429281234741,
   0.0304578710347414,
   0.2039017379283905
  ],
  [
   0.6549383401870728,
   0.3727394640445709,
   -0.08365000039339066,
   0.1788557916879654
  ],
  [
   -0.3668651580810547,
   -0.24573439359664917,
   -0.050377678126096725,
   0.07277175784111023
  ],
  [
   0.11037687212228775,
   0.7080950140953064,
   -0.057597629725933075,
   0.06359320133924484
  ],
  [
   -0.01468533556908369,
   0.4211463928222656,
   0.08050183206796646,
   0.9199983477592468
  ],
  [
   -0.25549423694610596,
   0.20231759548187256,
   0.025705063715577126,
   -0.1533806174993515
  ],
  [
   0.5278882384300232,
   1.2936073541641235,
   0.33804649114608765,
   -0.07025319337844849
  ],
  [
   0.04811142757534981,
   0.058836981654167175,
   0.2885459363460541,
   0.43997225165367126
  ],
  [
   -0.1424461305141449,
   -0.38515040278434753,
   -0.11803970485925674,
   0.341067910194397
  ],
  [
   -0.23954351246356964,
   0.13009434938430786,
   -0.18947330117225647,
   0.038001421838998795
  ],
  [
   -0.45210254192352295,
   0.025626836344599724,
   0.3123543858528137,
   0.20202381908893585
  ],
  [
   0.2625316083431244,
   0.7528130412101746,
   0.0713166669011116,
   0.06239478290081024
  ],
  [
   0.5995194911956787,
   0.5098710656166077,
   0.027735184878110886,
   0.1914854645729065
  ],
  [
   -0.7087283134460449,
   -0.34738293290138245,
   -0.0478612519800663,
   -0.2100134640932083
  ],
  [
   0.08244246989488602,
   1.2368800640106201,
   0.028347572311758995,
   -0.29773664474487305
  ],
  [
   0.2355145663022995,
   0.20893822610378265,
   -0.05884533375501633,
   -0.03735540434718132
  ],
  [
   0.11166302114725113,
   1.1917359828948975,
   0.16822995245456696,
   0.25727900862693787
  ],
  [
   -0.48950472474098206,
   -0.6554539799690247,
   0.0031904669012874365,
   0.18395701050758362
  ],
  [
   0.2630813717842102,
   -0.1462777853012085,
   -0.08225520700216293,
   -0.306515634059906
  ],
  [
   0.37709033489227295,
   1.4193552732467651,
   0.11609438061714172,
   -0.3720262348651886
  ],
  [
   0.5676117539405823,
   -0.4765639901161194,
   0.08200690895318985,
   0.07188427448272705
  ],
  [
   -0.22936829924583435,
   0.5828548669815063,
   0.07761215418577194,
   -0.006375968921929598
  ],
  [
   0.4395909607410431,
   0.07847247272729874,
   0.2261899709701538,
   0.0712393969297409
  ],
  [
   0.42559710144996643,
   0.24236665666103363,
   0.23442624509334564,
   0.09222979098558426
  ],
  [
   -0.19075734913349152,
   -0.006418575998395681,
   0.05534452199935913,
   -0.33787527680397034
  ],
  [
   -0.7393609285354614,
   0.012135772965848446,
   0.008291189558804035,
   -0.2845565974712372
  ],
  [
   0.45788663625717163,
   0.19505144655704498,
   -0.09219404309988022,
   0.03176174685359001
  ],
  [
   0.004186511505395174,
   1.023829460144043,
   -0.0011225909693166614,
   -0.2641301453113556
  ],
  [
   1.899451732635498,
   0.09574420005083084,
   -0.9051102995872498,
   -0.07812497019767761
  ],
  [
   -0.028702151030302048,
   -0.644151508808136,
   -0.04636669158935547,
   0.06932451575994492
  ],
  [
   -0.4944070279598236,
   -0.6450808644294739,
   0.01557399146258831,
   0.08608873188495636
  ],
  [
   0.5591853857040405,
   1.596790075302124,
   0.06115327030420303,
   -0.16462986171245575
  ],
  [
   -0.4051746428012848,
   0.47181832790374756,
   -0.043227821588516235,
   -0.05070604011416435
  ],
  [
   0.3364081382751465,
   -0.3314751386642456,
   0.17757177352905273,
   0.002678878139704466
  ],
  [
   0.28162702918052673,
   -0.2186916321516037,
   -0.10177110880613327,
   0.22856208682060242
  ],
  [
   0.04047103226184845,
   0.649024248123169,
   -0.021533694118261337,
   -0.5103026628494263
  ],
  [
   -0.669495701789856,
   0.03262060508131981,
   -0.08496870845556259,
   -0.09546865522861481
  ],
  [
   0.8019623160362244,
   0.5547693371772766,
   0.4064500629901886,
   -0.48455360531806946
  ],
  [
   0.596509575843811,
   0.7690300941467285,
   0.037467606365680695,
   -0.04446759819984436
  ],
  [
   0.8255288004875183,
   -0.40586766600608826,
   -0.051171351224184036,
   -0.25789976119995117
  ],
  [
   0.6959291696548462,
   -0.35361456871032715,
   -0.016433393582701683,
   -0.1543550044298172
  ],
  [
   0.24839861690998077,
   1.0583420991897583,
   0.12019526213407516,
   -0.05205155164003372
  ],
  [
   -0.005086234770715237,
   -0.10350744426250458,
   0.15407396852970123,
   0.4239678978919983
  ],
  [
   0.4729956388473511,
   -0.13906481862068176,
   -0.04495964199304581,
   0.05712554231286049
  ],
  [
   -0.7763274312019348,
   -0.05361081659793854,
   -0.007778276689350605,
   -0.07129397243261337
  ],
  [
   0.8608547449111938,
   0.06011107191443443,
   0.0804753229022026,
   0.10745599120855331
  ],
  [
   0.5241202712059021,
   -0.40772387385368347,
   0.0007025712984614074,
   0.07994213700294495
  ],
  [
   0.6480706930160522,
   1.6240761280059814,
   0.13852044939994812,
   -0.11686377972364426
  ],
  [
   0.7127851247787476,
   1.2665780782699585,
   0.075459323823452,
   -0.08695472031831741
  ],
  [
   0.5500397086143494,
   -0.2893431484699249,
   0.1421334147453308,
   0.10451050847768784
  ],
  [
   1.5824648141860962,
   0.01718336157500744,
   -0.16043776273727417,
   0.47968629002571106
  ],
  [
   0.48553505539894104,
   0.5524775385856628,
   0.066989004611969,
   0.21208220720291138
  ],
  [
   -0.15458357334136963,
   -0.18217098712921143,
   -0.14677226543426514,
   0.005995867308229208
  ],
  [
   0.6225699186325073,
   0.9014763832092285,
   -0.03651270642876625,
   -0.009070344269275665
  ],
  [
   0.7766034603118896,
   -0.40617460012435913,
   -0.027712520211935043,
   -0.23112869262695312
  ],
  [
   -0.16531798243522644,
   0.49505549669265747,
   0.08572368323802948,
   -0.18863949179649353
  ],
  [
   0.28471478819847107,
   0.14773522317409515,
   -0.07310550659894943,
   0.1829785704612732
  ],
  [
   1.023711919784546,
   0.16192516684532166,
   0.3516675531864166,
   0.07983163744211197
  ],
  [
   1.0434678792953491,
   0.08087677508592606,
   -0.4894596040248871,
   0.06539040058851242
  ],
  [
   1.2745132446289062,
   0.9930196404457092,
   -0.725618839263916,
   0.3891492486000061
  ],
  [
   2.2848005294799805,
   0.10691634565591812,
   -1.0893539190292358,
   -0.1017167940735817
  ],
  [
   0.16624046862125397,
   0.22907467186450958,
   -0.05515593662858009,
   -0.3018016219139099
  ],
  [
   -0.4438091814517975,
   -0.086280956864357,
   0.07035650312900543,
   -0.13406580686569214
  ],
  [
   -0.2169974446296692,
   0.41881293058395386,
   0.021588871255517006,
   -0.261932373046875
  ],
  [
   0.40812021493911743,
   0.5097946524620056,
   0.04391399025917053,
   0.08398794382810593
  ],
  [
   -0.3875386416912079,
   0.29035109281539917,
   0.007431096863001585,
   -0.03356621414422989
  ],
  [
   0.9440441131591797,
   -0.35821452736854553,
   0.4148206114768982,
   0.5177382826805115
  ],
  [
   0.9732760190963745,
   -0.011613366194069386,
   -0.06899634748697281,
   0.2419915646314621
  ],
  [
   -0.17258645594120026,
   -0.5658137202262878,
   -0.09236479550600052,
   0.027058687061071396
  ],
  [
   -0.4864802062511444,
   -0.20321132242679596,
   -0.289786696434021,
   -0.15824124217033386
  ],
  [
   0.41107019782066345,
   0.3916229009628296,
   0.0869918093085289,
   0.17221009731292725
  ],
  [
   0.4185868501663208,
   0.48510685563087463,
   0.11115569621324539,
   0.5353177785873413
  ],
  [
   0.6172713041305542,
   1.2204886674880981,
   0.28538212180137634,
   -0.04565192013978958
  ],
  [
   0.21872057020664215,
   0.016374442726373672,
   0.08541050553321838,
   0.464408278465271
  ],
  [
   0.5025873184204102,
   0.8976383805274963,
   0.05297210440039635,
   -0.08263765275478363
  ],
  [
   0.8904107809066772,
   0.31445103883743286,
   0.8223368525505066,
   0.09435299783945084
  ]
 ],
 "pi.0.bias": [
  -0.06755729019641876,
  -0.7588184475898743,
  -2.7135980129241943,
  0.3642057180404663,
  -0.5966222286224365,
  -1.249151349067688,
  0.0930320993065834,
  0.54355788230896,
  -0.506463348865509,
  -2.1261982917785645,
  -1.858575701713562,
  -0.29033395648002625,
  -1.8518600463867188,
  1.0679394006729126,
  -2.4319136142730713,
  0.1537178009748459,
  -0.85403972864151,
  -0.3037818670272827,
  0.47991248965263367,
  0.5302746891975403,
  -1.1271849870681763,
  -0.7195249199867249,
  0.3766573369503021,
  -1.1446388959884644,
  -2.486422538757324,
  -2.723599910736084,
  -1.1212108135223389,
  -2.186131715774536,
  -1.186777949333191,
  0.22461816668510437,
  -1.8927356004714966,
  -0.06399035453796387,
  0.4411972463130951,
  0.16389386355876923,
  -0.0630766749382019,
  -2.320584535598755,
  0.40191739797592163,
  -1.1015349626541138,
  0.39055877923965454,
  0.6346485018730164,
  -0.7590447068214417,
  -0.9371941089630127,
  -1.0404523611068726,
  -0.5492026805877686,
  -2.6912107467651367,
  0.3909428119659424,
  -2.3197789192199707,
  -3.7955029010772705,
  -1.393715262413025,
  -0.20536765456199646,
  -2.4978387355804443,
  -0.11820899695158005,
  -0.6136579513549805,
  -0.20638489723205566,
  -1.6183980703353882,
  0.4730364978313446,
  0.11759871244430542,
  -1.590055227279663,
  -3.5620813369750977,
  -1.4009642601013184,
  -0.8220882415771484,
  -1.7853831052780151,
  -1.2765370607376099,
  -2.7341341972351074,
  -1.108418583869934,
  1.0018566846847534,
  0.19898691773414612,
  -3.1899449825286865,
  -0.7156685590744019,
  -0.8669221997261047,
  -2.10831880569458,
  1.0359382629394531,
  0.35960817337036133,
  -1.5110177993774414,
  0.6819102764129639,
  -1.9358731508255005,
  -2.4407799243927,
  0.7731468677520752,
  -1.5189181566238403,
  0.12645499408245087,
  -1.4374065399169922,
  -1.7713452577590942,
  0.6402696967124939,
  -0.6786582469940186,
  -0.7831781506538391,
  -2.3809120655059814,
  -1.129194974899292,
  0.1405486762523651,
  -1.4411412477493286,
  -0.5438728332519531,
  -0.2050136774778366,
  1.061956524848938,
  -0.5162407755851746,
  0.16089363396167755,
  1.0742305517196655,
  0.5044469237327576,
  -0.9885898232460022,
  -3.297422409057617,
  0.6562985777854919,
  -0.5560430288314819
 ],
 "pi.2.weight": [
  [
   -0.5826393365859985,
   0.07418594509363174,
   -1.5115435123443604,
   0.10668254643678665,
   1.6597528457641602,
   -1.6627579927444458,
   -0.279482901096344,
   -0.6560412645339966,
   -0.031773824244737625,
   -1.882488489151001,
   0.42573240399360657,
   -0.21665410697460175,
   -0.4642556607723236,
   1.1814990043640137,
   1.4720934629440308,
   -0.1924334019422531,
   0.5073555707931519,
   -0.2377263754606247,
   0.7520731687545776,
   0.2547954022884369,
   1.4888157844543457,
   1.591245174407959,
   -0.48818448185920715,
   0.16560745239257812,
   -2.430492401123047,
   0.12280915677547455,
   0.21567027270793915,
   0.2710161805152893,
   -0.12836182117462158,
   -0.23499391973018646,
   0.18639840185642242,
   0.3234458565711975,
   0.08256123214960098,
   -0.24156376719474792,
   0.06883517652750015,
   -1.4718496799468994,
   0.12632620334625244,
   0.1587291657924652,
   -0.25975701212882996,
   0.2761768698692322,
   -1.3499311208724976,
   -0.15059421956539154,
   -0.46104246377944946,
   0.00886527169495821,
   2.967170476913452,
   -0.14599569141864777,
   -0.8886774778366089,
   2.176072120666504,
   0.07553612440824509,
   -0.2907634377479553,
   1.207594871520996,
   -0.07679865509271622,
   2.752065896987915,
   0.4480748176574707,
   -0.6012016534805298,
   0.34485408663749695,
   -0.047637902200222015,
   -1.051372766494751,
   3.415052890777588,
   0.16489313542842865,
   0.7745296359062195,
   0.7319298386573792,
   -0.39881619811058044,
   1.5946929454803467,
   -0.6824769973754883,
   0.413430780172348,
   0.11742463707923889,
   2.5803110599517822,
   0.49858716130256653,
   -0.5552211999893188,
   -2.0383050441741943,
   0.29051220417022705,
   -0.1265164166688919,
   -1.5145022869110107,
   0.5655679106712341,
   1.8388525247573853,
   1.514122724533081,
   0.3095219135284424,
   1.2150757312774658,
   0.23543787002563477,
   1.215154767036438,
   -2.834113121032715,
   -0.7258471250534058,
   -1.5094159841537476,
   -2.060091257095337,
   -1.6134246587753296,
   -0.3025054335594177,
   -0.1981591433286667,
   0.7279475927352905,
   0.20146150887012482,
   0.5237698554992676,
   -0.31403103470802307,
   -0.005014818627387285,
   -0.3745412230491638,
   -0.6290161609649658,
   -0.3198150396347046,
   -0.6064859628677368,
   0.7584854364395142,
   -1.5344494581222534,
   2.038094997406006
  ],
  [
   -0.08723074942827225,
   0.5784468054771423,
   0.301870197057724,
   0.19903741776943207,
   -0.13820278644561768,
   -1.4108843803405762,
   0.05842806398868561,
   -0.3644653260707855,
   -0.46586787700653076,
   0.0901925191283226,
   -1.2085908651351929,
   -0.44960105419158936,
   -0.22610776126384735,
   -0.13538318872451782,
   0.3951376974582672,
   0.5544000864028931,
   1.01127290725708,
   -0.2046826034784317,
   0.8069102764129639,
   -0.3877158761024475,
   -0.047904420644044876,
   0.18332470953464508,
   -0.14525292813777924,
   -0.347788006067276,
   0.4338081479072571,
   -0.4874485731124878,
   0.3549744486808777,
   0.8953529596328735,
   0.1997707635164261,
   -0.11780308187007904,
   -0.9787569642066956,
   0.008955826982855797,
   -0.2245030254125595,
   0.04722640663385391,
   0.19007368385791779,
   0.8297085165977478,
   0.568569540977478,
   -0.5966212749481201,
   -0.8288158178329468,
   0.2654426097869873,
   -0.363934725522995,
   0.7906842827796936,
   -0.21024829149246216,
   0.6618549227714539,
   0.02987559512257576,
   0.2947665750980377,
   0.020064551383256912,
   0.5391474962234497,
   0.24084894359111786,
   0.5525028109550476,
   0.4163488745689392,
   0.8147549033164978,
   0.06116143614053726,
   -0.31284478306770325,
   -0.758220911026001,
   -1.313989281654358,
   0.31726160645484924,
   0.8453413248062134,
   0.10055758059024811,
   0.29898497462272644,
   0.653215765953064,
   -0.26603013277053833,
   -0.763301432132721,
   -0.7178888916969299,
   0.2790229022502899,
   0.6841959357261658,
   -0.0560111403465271,
   -0.36449185013771057,
   -0.613696813583374,
   0.3634950816631317,
   -0.6197497248649597,
   1.2877488136291504,
   -1.0073707103729248,
   -0.5322415232658386,
   0.41313353180885315,
   0.19851703941822052,
   0.13143976032733917,
   0.8521758913993835,
   0.7723640203475952,
   -0.1422303467988968,
   0.15141110122203827,
   -0.24890702962875366,
   -0.5160712599754333,
   -0.0390770360827446,
   0.0443386472761631,
   0.07821188867092133,
   0.42895203828811646,
   -0.11663118004798889,
   -0.5421499609947205,
   -0.40305817127227783,
   0.01152742374688387,
   -0.8995355367660522,
   0.325017511844635,
   0.2473873496055603,
   -0.5538263916969299,
   -0.48896336555480957,
   0.8637548685073853,
   -0.26364341378211975,
   0.2674607038497925,
   0.17109458148479462
  ]
 ],
 "pi.2.bias": [
  -0.00921626016497612,
  -0.18180729448795319
 ]
}