{
 "pi.0.weight": [
  [
   -0.321042001247406,
   0.5523930191993713,
   -0.28091201186180115,
   -0.011342395097017288,
   1.2986541986465454,
   -0.5824868679046631
  ],
  [
   0.8330913782119751,
   1.1138982772827148,
   0.33372756838798523,
   0.06407108157873154,
   -0.45855310559272766,
   -0.2347509264945984
  ],
  [
   -0.7676159143447876,
   -0.39768728613853455,
   0.04662039130926132,
   -0.4026551842689514,
   0.20883116126060486,
   0.6407744884490967
  ],
  [
   0.4472050368785858,
   -0.9854217171669006,
   -0.3278679847717285,
   -0.18837739527225494,
   -0.04944290220737457,
   0.7554835677146912
  ],
  [
   0.6303929090499878,
   0.6246595978736877,
   0.18019944429397583,
   0.09129413962364197,
   -1.0782679319381714,
   -1.0739775896072388
  ],
  [
   -0.11200390756130219,
   1.1475528478622437,
   0.1876789927482605,
   0.46136003732681274,
   -0.015595397911965847,
   -0.768908679485321
  ],
  [
   0.4107764959335327,
   -0.579875111579895,
   -0.19409500062465668,
   -0.016130615025758743,
   0.3895902633666992,
   0.5559772849082947
  ],
  [
   0.5125010013580322,
   -0.3485966920852661,
   0.6253159642219543,
   0.34049901366233826,
   -0.312031090259552,
   -0.8348826169967651
  ],
  [
   0.5424463748931885,
   -0.5124605298042297,
   -0.5231584310531616,
   0.44457414746284485,
   -0.04956994205713272,
   0.8179636597633362
  ],
  [
   0.7607989311218262,
   0.2832897901535034,
   0.6084268689155579,
   0.22391463816165924,
   -1.1166601181030273,
   0.7555705308914185
  ],
  [
   0.7646389007568359,
   -0.17844350636005402,
   0.5962017774581909,
   0.7322766184806824,
   -0.9031346440315247,
   0.0325176939368248
  ],
  [
   -0.4976106584072113,
   -0.1129295825958252,
   -0.3783263564109802,
   -0.3063555061817169,
   0.7868020534515381,
   -0.34595465660095215
  ],
  [
   0.3155992031097412,
   0.5622606873512268,
   -0.0040361350402235985,
   0.09794604033231735,
   -0.7237853407859802,
   -1.3164782524108887
  ],
  [
   0.23789137601852417,
   -0.29461854696273804,
   -0.042263053357601166,
   0.21552979946136475,
   -0.36824506521224976,
   0.7275601029396057
  ],
  [
   0.7135022878646851,
   -0.7525643110275269,
   0.11854436993598938,
   -0.4293424189090729,
   0.16193149983882904,
   0.9625865817070007
  ],
  [
   0.29619482159614563,
   0.00963268056511879,
   -0.37570619583129883,
   0.04355420917272568,
   -1.1170088052749634,
   -0.13396340608596802
  ],
  [
   0.3728835880756378,
   -0.5245671272277832,
   0.0020821618381887674,
   -0.2160395234823227,
   -0.12047208100557327,
   1.5049656629562378
  ],
  [
   0.7730973958969116,
   0.08304505050182343,
   -0.1346401423215866,
   0.31487390398979187,
   -0.6852613687515259,
   -0.25954410433769226
  ],
  [
   0.15932628512382507,
   -0.3674173951148987,
   -0.18990398943424225,
   -0.30691710114479065,
   0.36522331833839417,
   0.8796194791793823
  ],
  [
   0.45939576625823975,
   -1.4651942253112793,
   0.5900245904922485,
   -0.3894447684288025,
   -0.03535633161664009,
   0.38648808002471924
  ],
  [
   0.6896098256111145,
   -0.10122132301330566,
   0.10037090629339218,
   0.14294376969337463,
   -1.4572426080703735,
   0.5853105187416077
  ],
  [
   0.10858455300331116,
   -0.22245612740516663,
   -0.0457184873521328,
   0.022165348753333092,
   0.30074137449264526,
   0.21734309196472168
  ],
  [
   -0.515004575252533,
   0.7476024031639099,
   0.0676763728260994,
   0.06502170115709305,
   -0.7255441546440125,
   0.38945522904396057
  ],
  [
   0.746644914150238,
   0.23160183429718018,
   0.06725740432739258,
   -0.4051125943660736,
   -1.1937123537063599,
   -0.2777617871761322
  ],
  [
   -0.7270289659500122,
   0.013608625158667564,
   0.08823379874229431,
   0.4513445198535919,
   -0.06640879064798355,
   0.7976916432380676
  ],
  [
   0.010390141978859901,
   0.8649147152900696,
   0.15103881061077118,
   -0.13405504822731018,
   -0.8579020500183105,
   -0.7713749408721924
  ],
  [
   0.36799487471580505,
   -0.2549203932285309,
   0.5879446864128113,
   -0.03450729697942734,
   -0.22213904559612274,
   0.5679399967193604
  ],
  [
   -1.0922820568084717,
   -0.5962488055229187,
   0.10702194273471832,
   0.13899168372154236,
   0.5169680118560791,
   0.651803731918335
  ],
  [
   0.7045832276344299,
   -0.2424023598432541,
   0.09116330742835999,
   0.0863998532295227,
   -1.6589890718460083,
   0.7234997749328613
  ],
  [
   -0.6049426198005676,
   0.2631046772003174,
   0.03865254670381546,
   -0.004007991869002581,
   0.8416494131088257,
   0.37133195996284485
  ],
  [
   0.4052666127681732,
   -0.7043534517288208,
   0.10391589999198914,
   -0.4083705544471741,
   0.3662589490413666,
   1.3907438516616821
  ],
  [
   0.5053740739822388,
   -0.6118063926696777,
   -0.02609695866703987,
   0.6276075839996338,
   0.01932004652917385,
   0.1057482585310936
  ],
  [
   0.5487927794456482,
   -0.6518504023551941,
   -0.22353464365005493,
   -0.06380423158407211,
   -0.20047114789485931,
   1.3569146394729614
  ],
  [
   0.5031911730766296,
   0.175057515501976,
   0.24438580870628357,
   0.5706744194030762,
   0.3732796907424927,
   0.12487964332103729
  ],
  [
   0.28594478964805603,
   0.12967494130134583,
   -0.19511093199253082,
   -0.06716717034578323,
   -0.6381123661994934,
   -0.8543993234634399
  ],
  [
   0.5783371329307556,
   -0.6847308874130249,
   0.2952831983566284,
   0.00824031699448824,
   -1.2052308320999146,
   -0.1976850926876068
  ],
  [
   -1.012093424797058,
   -0.41385188698768616,
   0.035321637988090515,
   0.046354521065950394,
   -0.2718839645385742,
   0.47828033566474915
  ],
  [
   0.021261440590023994,
   -0.13523536920547485,
   0.23317186534404755,
   -0.33739471435546875,
   -0.42366525530815125,
   0.8502700328826904
  ],
  [
   -0.19435857236385345,
   0.2524219751358032,
   -0.02840876765549183,
   -0.40584078431129456,
   1.0319569110870361,
   -0.2955988645553589
  ],
  [
   -0.024812735617160797,
   -1.1721173524856567,
   0.14760880172252655,
   -0.4749166667461395,
   -0.12249206751585007,
   1.649006962776184
  ],
  [
   0.4898173213005066,
   1.0741990804672241,
   -0.17489419877529144,
   0.44561007618904114,
   -0.12926006317138672,
   -0.428854763507843
  ],
  [
   0.2173982560634613,
   -0.2741277515888214,
   0.026195939630270004,
   0.1764998883008957,
   -1.5176730155944824,
   0.1374080777168274
  ],
  [
   0.9405802488327026,
   0.34950971603393555,
   0.2869848906993866,
   0.3152746558189392,
   -0.9676458239555359,
   0.34880590438842773
  ],
  [
   -0.9686578512191772,
   -0.6205537915229797,
   -0.565407931804657,
   -0.5200404524803162,
   0.8915283679962158,
   1.017090916633606
  ],
  [
   1.0162817239761353,
   -0.1550445854663849,
   -0.08835817128419876,
   -0.12052805721759796,
   -1.1909397840499878,
   -1.071189045906067
  ],
  [
   0.05199715867638588,
   0.4467226266860962,
   -0.03407251089811325,
   0.12572568655014038,
   -0.7557653784751892,
   -1.0688260793685913
  ],
  [
   1.2093312740325928,
   -0.6154375076293945,
   0.2869947552680969,
   -0.2093355655670166,
   -1.269057035446167,
   0.3967370092868805
  ],
  [
   0.6197798848152161,
   -0.4132213294506073,
   0.6279358863830566,
   0.0026801328640431166,
   0.021074069663882256,
   1.3331736326217651
  ],
  [
   -0.766707718372345,
   0.15390895307064056,
   0.007953106425702572,
   -0.21652688086032867,
   -0.031423892825841904,
   0.48489606380462646
  ],
  [
   0.7362502217292786,
   -0.2210020273923874,
   0.6427160501480103,
   0.41019147634506226,
   0.6321626305580139,
   0.7443328499794006
  ],
  [
   0.49411147832870483,
   -1.1762608289718628,
   -0.02764100395143032,
   -0.0034382804296910763,
   -0.375732958316803,
   1.125141978263855
  ],
  [
   -0.15618644654750824,
   0.4121076464653015,
   0.5424893498420715,
   -0.18962328135967255,
   -0.6218246817588806,
   -0.9581926465034485
  ],
  [
   1.0998122692108154,
   -0.16763366758823395,
   -0.18580178916454315,
   0.24012139439582825,
   -0.01064454298466444,
   -0.32449662685394287
  ],
  [
   0.6610432267189026,
   -0.8578469753265381,
   -0.08402375131845474,
   -0.2705620527267456,
   0.020732568576931953,
   0.7861432433128357
  ],
  [
   0.012922309339046478,
   0.7505694627761841,
   0.008141109719872475,
   0.12659800052642822,
   0.023929638788104057,
   0.5479946732521057
  ],
  [
   -0.05294754356145859,
   -0.9422031044960022,
   -0.15829502046108246,
   -0.6244666576385498,
   -0.23780474066734314,
   0.2113979607820511
  ],
  [
   0.31835317611694336,
   0.12301100790500641,
   0.6564943194389343,
   0.7243463397026062,
   -1.3136043548583984,
   0.8959471583366394
  ],
  [
   0.5091220736503601,
   0.522714376449585,
   -0.014883914031088352,
   0.3835374712944031,
   -0.13701684772968292,
   -0.8987657427787781
  ],
  [
   -0.7607395052909851,
   0.17920516431331635,
   -1.4361605644226074,
   -0.15679985284805298,
   0.4486331641674042,
   -0.15546759963035583
  ],
  [
   0.6457992196083069,
   -0.4547995626926422,
   -0.04384540766477585,
   -0.10993658006191254,
   -0.2275257259607315,
   1.0521069765090942
  ],
  [
   0.4226480722427368,
   -1.058273196220398,
   0.10046263039112091,
   -0.2900320589542389,
   -0.2703215479850769,
   0.6560887098312378
  ],
  [
   1.2201707363128662,
   -0.6989867687225342,
   0.34684985876083374,
   -0.00963068287819624,
   -0.8757529854774475,
   0.3328666687011719
  ],
  [
   -0.025680700317025185,
   -0.006770549342036247,
   -0.20995183289051056,
   -0.1245744526386261,
   0.9434928297996521,
   0.16506049036979675
  ],
  [
   0.7685699462890625,
   0.7922687530517578,
   0.20428332686424255,
   0.3464183807373047,
   -0.30964815616607666,
   -1.4644269943237305
  ],
  [
   0.6646867394447327,
   0.34805595874786377,
   1.0745748281478882,
   0.5648727416992188,
   -0.39273032546043396,
   -0.008092343807220459
  ],
  [
   0.6034292578697205,
   -0.559967041015625,
   -0.24806076288223267,
   -0.25543659925460815,
   -0.32166144251823425,
   2.1166398525238037
  ],
  [
   0.9495372772216797,
   0.4392671585083008,
   0.5192555785179138,
   0.644960343837738,
   -1.016384482383728,
   -0.3826519548892975
  ],
  [
   0.032082781195640564,
   -0.27274027466773987,
   -0.5700289011001587,
   -0.021215513348579407,
   0.936133623123169,
   0.13839459419250488
  ],
  [
   -0.0347454734146595,
   -0.0322454534471035,
   -0.09389461576938629,
   0.06904535740613937,
   0.9656518697738647,
   0.9585379362106323
  ],
  [
   0.6953998804092407,
   -0.37120816111564636,
   0.041200120002031326,
   0.04340304806828499,
   -1.3395742177963257,
   0.2852151095867157
  ],
  [
   0.5756959915161133,
   -0.8800552487373352,
   -0.005117346998304129,
   -0.6301763653755188,
   -0.2902442216873169,
   1.4200353622436523
  ],
  [
   0.36076247692108154,
   -0.6830196976661682,
   -0.12983384728431702,
   0.048062779009342194,
   -0.2857265770435333,
   1.2797647714614868
  ],
  [
   0.3075472414493561,
   0.09714363515377045,
   -0.060648735612630844,
   0.30167466402053833,
   -0.26732388138771057,
   -1.06976318359375
  ],
  [
   0.7614732980728149,
   0.3228548467159271,
   0.34086161851882935,
   -0.22768114507198334,
   -0.6357059478759766,
   1.0568363666534424
  ],
  [
   0.8892382383346558,
   -0.7565293908119202,
   0.11719805747270584,
   -0.08557424694299698,
   -0.5031998753547668,
   0.9905880689620972
  ],
  [
   0.8151034116744995,
   -0.14643579721450806,
   0.28618675470352173,
   -0.20733226835727692,
   -0.3728662431240082,
   1.3434470891952515
  ],
  [
   0.982134222984314,
   0.2273516058921814,
   -0.05370867997407913,
   0.007424466777592897,
   -1.052917718887329,
   0.1913473755121231
  ],
  [
   -0.29713061451911926,
   0.0023262358736246824,
   0.6461827754974365,
   -0.41503840684890747,
   -0.13030487298965454,
   0.5036913156509399
  ],
  [
   0.4316529631614685,
   -0.48523640632629395,
   0.04202845320105553,
   -0.23351195454597473,
   0.4423041045665741,
   0.31922653317451477
  ],
  [
   0.3908023238182068,
   -0.48035138845443726,
   0.41960206627845764,
   -0.2888871729373932,
   -0.35271552205085754,
   -0.011349276639521122
  ],
  [
   0.17479883134365082,
   -0.5200587511062622,
   0.030341528356075287,
   -0.14744901657104492,
   0.2977372705936432,
   1.6315770149230957
  ],
  [
   0.32474204897880554,
   0.32591748237609863,
   -0.24624112248420715,
   0.020312879234552383,
   -1.4515663385391235,
   0.014858007431030273
  ],
  [
   0.4539475440979004,
   0.13761110603809357,
   0.2818548381328583,
   -0.4269733726978302,
   -1.3623826503753662,
   1.0119065046310425
  ],
  [
   0.820120096206665,
   0.10101393610239029,
   -0.18166518211364746,
   -0.6501106023788452,
   -0.4330882132053375,
   1.3088327646255493
  ],
  [
   0.43960949778556824,
   -0.03438903018832207,
   -0.2595842778682709,
   0.36207571625709534,
   -0.8800721764564514,
   0.5375078320503235
  ],
  [
   0.18198418617248535,
   0.4148707091808319,
   0.047692861407995224,
   -0.722206175327301,
   -0.18787068128585815,
   -0.8844441175460815
  ],
  [
   0.23632028698921204,
   -0.10427907854318619,
   0.4716012179851532,
   -0.042753372341394424,
   -1.3179916143417358,
   0.34781789779663086
  ],
  [
   0.6614454388618469,
   -0.8553517460823059,
   0.3317052125930786,
   -0.07715585827827454,
   -1.009584903717041,
   0.007713676895946264
  ],
  [
   0.7074182629585266,
   -0.45953989028930664,
   -0.07636364549398422,
   -0.14236661791801453,
   -1.370572566986084,
   0.5976471900939941
  ],
  [
   0.05431141331791878,
   -0.9343873262405396,
   0.043326251208782196,
   -0.4923248887062073,
   -0.16636541485786438,
   0.5557588934898376
  ],
  [
   -0.16828779876232147,
   -0.224169060587883,
   0.30497097969055176,
   0.9601576924324036,
   -0.4754081666469574,
   0.6673669219017029
  ],
  [
   0.3924150764942169,
   0.027404574677348137,
   -0.4184134900569916,
   0.5179466009140015,
   -0.562667727470398,
   -1.0455842018127441
  ],
  [
   0.5971418619155884,
   -0.7501559853553772,
   0.010041353292763233,
   0.02928861789405346,
   -0.6316905617713928,
   -0.17123368382453918
  ],
  [
   0.4996427297592163,
   -1.1449244022369385,
   -0.023128416389226913,
   0.10313059389591217,
   0.039709798991680145,
   0.8606414198875427
  ],
  [
   -0.14930319786071777,
   0.2998920977115631,
   -0.06520473212003708,
   -0.1663857102394104,
   0.3354053199291229,
   0.640946626663208
  ],
  [
   0.3630894124507904,
   0.23782889544963837,
   0.17613585293293,
   -0.09776778519153595,
   0.12110999971628189,
   1.2008256912231445
  ],
  [
   -0.9019581079483032,
   1.1841137409210205,
   -0.06066006049513817,
   0.32010599970817566,
   0.11136257648468018,
   -0.5340548157691956
  ],
  [
   0.24958539009094238,
   -0.8434863686561584,
   0.21865148842334747,
   -0.5194419622421265,
   -0.30444470047950745,
   0.951032817363739
  ],
  [
   1.393791913986206,
   0.5249850153923035,
   -0.10255102068185806,
   -0.1715984046459198,
   -0.6034600734710693,
   1.3887733221054077
  ],
  [
   0.9619752168655396,
   -0.5203303694725037,
   0.0942496657371521,
   -0.05883559584617615,
   -1.1735844612121582,
   0.6245169639587402
  ]
 ],
 "pi.0.bias": [
  -3.0741071701049805,
  -0.5169366598129272,
  -4.488889217376709,
  0.8902979493141174,
  -0.4706883728504181,
  -1.976775050163269,
  -3.994286298751831,
  -2.6876943111419678,
  -2.6917269229888916,
  -0.055685628205537796,
  -0.261691689491272,
  -4.164657115936279,
  -0.2667407691478729,
  -0.15232907235622406,
  -1.6948655843734741,
  -1.1487194299697876,
  -1.1005280017852783,
  -3.2019991874694824,
  -3.6850204467773438,
  -1.85553777217865,
  -2.825727939605713,
  0.28876060247421265,
  -4.86477518081665,
  0.43229004740715027,
  -2.56099534034729,
  -1.4591296911239624,
  0.4748991131782532,
  0.05717741698026657,
  -2.0749359130859375,
  -1.884809970855713,
  -0.4111144542694092,
  -0.259597510099411,
  -1.7852442264556885,
  -2.9318289756774902,
  -2.6233062744140625,
  -2.08742356300354,
  -2.1099045276641846,
  -2.519005298614502,
  -1.6101398468017578,
  0.9903304576873779,
  -1.499444603919983,
  -3.4852821826934814,
  -1.3548020124435425,
  -1.8548343181610107,
  -4.808974266052246,
  -2.312237024307251,
  -2.5975937843322754,
  -0.7013798952102661,
  -3.2651736736297607,
  -3.547722578048706,
  -2.6871564388275146,
  -1.9419758319854736,
  -2.492795467376709,
  -1.9943147897720337,
  -0.8315097689628601,
  -3.3623790740966797,
  -1.4591504335403442,
  0.6328425407409668,
  -1.1079630851745605,
  0.6198090314865112,
  -2.1015796661376953,
  -1.7107294797897339,
  -1.655802607536316,
  -2.7159264087677,
  -0.35152116417884827,
  0.7846341133117676,
  -1.3799493312835693,
  -1.5231871604919434,
  -0.802714467048645,
  0.11677189916372299,
  -0.8712114095687866,
  0.7708473205566406,
  -1.763329267501831,
  -1.6396241188049316,
  -1.5473970174789429,
  1.0898629426956177,
  1.0697118043899536,
  -3.1962063312530518,
  -3.3663594722747803,
  -1.0264427661895752,
  -0.41578078269958496,
  -1.467881202697754,
  -1.5760709047317505,
  -1.1920164823532104,
  0.7802439332008362,
  -4.775097846984863,
  -3.1789700984954834,
  -0.5450705289840698,
  1.2884091138839722,
  -1.8420614004135132,
  -7.247191429138184,
  -4.593111038208008,
  0.9349660277366638,
  -1.088194489479065,
  -6.104552268981934,
  -5.189496994018555,
  -3.383305788040161,
  -3.27172589302063,
  -0.8851291537284851,
  -1.7840601205825806
 ],
 "pi.2.weight": [
  [
   -0.5890682339668274,
   -0.43971922993659973,
   -0.853593647480011,
   -0.5452877283096313,
   0.4115472733974457,
   -1.1458247900009155,
   0.9231893420219421,
   1.4327481985092163,
   -0.5853155851364136,
   -0.09169231355190277,
   0.631334662437439,
   0.15662336349487305,
   -1.154227614402771,
   0.4726644456386566,
   1.0139124393463135,
   0.5212112069129944,
   0.36660417914390564,
   1.9222623109817505,
   -0.5721844434738159,
   0.6413528919219971,
   -0.5899651646614075,
   -0.4147733449935913,
   -1.5602387189865112,
   0.07393831014633179,
   -0.43804940581321716,
   0.6086122393608093,
   0.5516470074653625,
   0.2627505362033844,
   1.2265832424163818,
   0.2892692983150482,
   0.9394094944000244,
   -0.37445735931396484,
   0.5032148957252502,
   -1.402783751487732,
   -0.7703343033790588,
   0.7730318903923035,
   0.0749802440404892,
   -1.0929807424545288,
   -0.09820207953453064,
   -0.9645456075668335,
   0.7309143543243408,
   1.3554508686065674,
   -0.22345227003097534,
   0.6952690482139587,
   1.086511492729187,
   0.6541273593902588,
   -1.4123848676681519,
   -0.512039065361023,
   0.1965775191783905,
   1.1748266220092773,
   -1.4966641664505005,
   -0.5190961956977844,
   -0.4944579601287842,
   0.608317494392395,
   0.7347978353500366,
   1.016336441040039,
   -0.7062513828277588,
   0.5313323140144348,
   -0.732752799987793,
   -0.3360072672367096,
   0.6351763010025024,
   -1.1697700023651123,
   0.6566636562347412,
   0.7968151569366455,
   0.24767787754535675,
   -0.3025476336479187,
   -0.8269879221916199,
   0.3267376720905304,
   -0.5012726783752441,
   -0.8167252540588379,
   0.020153049379587173,
   0.554022490978241,
   0.12502455711364746,
   -0.6019794344902039,
   -0.28724241256713867,
   1.1184875965118408,
   0.6576576828956604,
   0.537922739982605,
   -0.9146121740341187,
   0.2533716559410095,
   -0.3191506862640381,
   -0.7111061811447144,
   0.7356072664260864,
   -0.8450770378112793,
   -0.5786153078079224,
   1.6591471433639526,
   1.0989707708358765,
   -0.7578611969947815,
   0.1972464770078659,
   0.21003180742263794,
   -1.497411847114563,
   -1.5205200910568237,
   0.761716365814209,
   -0.9141400456428528,
   -0.2704680860042572,
   -1.6366262435913086,
   1.272141456604004,
   -1.3507243394851685,
   0.16291967034339905,
   -0.011136753484606743
  ],
  [
   1.924940824508667,
   0.6447175741195679,
   1.08131742477417,
   0.5158179998397827,
   0.48691800236701965,
   0.4220030605792999,
   -2.897162914276123,
   -0.4959787130355835,
   0.5157538652420044,
   0.6888217926025391,
   0.041983652859926224,
   -1.2141187191009521,
   0.4233585000038147,
   0.09541566669940948,
   0.016660038381814957,
   -0.07200518250465393,
   -1.1190351247787476,
   -0.28900471329689026,
   1.9425028562545776,
   -1.576061487197876,
   1.0067400932312012,
   0.3474081754684448,
   1.6000908613204956,
   -0.4766462445259094,
   0.629429280757904,
   -0.21695323288440704,
   -0.215158611536026,
   -0.6445475816726685,
   -1.3190027475357056,
   0.4229024648666382,
   -0.30360859632492065,
   0.32246091961860657,
   -1.2102352380752563,
   0.35087305307388306,
   -0.14813877642154694,
   0.8467970490455627,
   0.6276652216911316,
   0.03473085165023804,
   -0.25049644708633423,
   -0.9972337484359741,
   0.5605904459953308,
   1.1980814933776855,
   -0.6827092170715332,
   0.22613728046417236,
   -2.606132745742798,
   -0.03576313331723213,
   1.5641239881515503,
   0.7948538661003113,
   -1.0254687070846558,
   -0.833071768283844,
   1.4992094039916992,
   0.24624143540859222,
   1.1936655044555664,
   0.9182586669921875,
   -0.048400841653347015,
   -0.5911247134208679,
   0.4301401972770691,
   0.06682321429252625,
   0.774139940738678,
   0.9116937518119812,
   0.8823387622833252,
   -0.06959162652492523,
   -0.9509799480438232,
   -1.0669454336166382,
   -0.5288861989974976,
   1.5585403442382812,
   -0.4028438627719879,
   -0.47434157133102417,
   0.350187212228775,
   0.6687750220298767,
   1.0254513025283813,
   -0.7626619935035706,
   -0.5319753289222717,
   -0.2646602690219879,
   -1.0042978525161743,
   -0.0779108926653862,
   0.3742019236087799,
   -1.6394368410110474,
   -0.6786803007125854,
   -0.5563498735427856,
   -0.8109976649284363,
   0.23020347952842712,
   0.513988733291626,
   0.005148051306605339,
   0.3310750722885132,
   1.1910737752914429,
   -2.150974750518799,
   -0.18399545550346375,
   -1.0040459632873535,
   0.6449294686317444,
   -2.08029842376709,
   2.2746267318725586,
   -0.43300142884254456,
   0.965869128704071,
   -2.618701457977295,
   1.8208485841751099,
   -1.742143988609314,
   1.0429168939590454,
   -1.279810905456543,
   1.0871917009353638
  ]
 ],
 "pi.2.bias": [
  -0.6036459803581238,
  0.05008306726813316
 ]
}