{
 "pi.0.weight": [
  [
   -0.1833581179380417,
   0.610224723815918,
   0.18986234068870544,
   0.05943868309259415,
   0.5788745284080505,
   0.08184400945901871
  ],
  [
   -0.15326157212257385,
   0.4594961404800415,
   -0.061628732830286026,
   0.06875506043434143,
   -0.001532489899545908,
   -0.7050295472145081
  ],
  [
   0.39732590317726135,
   0.04971004277467728,
   -0.8907831311225891,
   -0.2670300602912903,
   -0.5150103569030762,
   -0.18076834082603455
  ],
  [
   0.016944419592618942,
   -0.005728831514716148,
   0.20742729306221008,
   -0.2204590141773224,
   -0.06256184726953506,
   0.26495733857154846
  ],
  [
   -0.12641049921512604,
   0.35890135169029236,
   0.6117602586746216,
   -0.29065701365470886,
   -0.07024577260017395,
   -0.25286880135536194
  ],
  [
   -0.33243271708488464,
   0.16240504384040833,
   0.8242950439453125,
   0.004593681078404188,
   0.6202607750892639,
   -0.00873040035367012
  ],
  [
   0.12120801955461502,
   0.015892915427684784,
   -0.22713470458984375,
   -0.13092754781246185,
   -0.2867378890514374,
   -0.11533362418413162
  ],
  [
   0.12367626279592514,
   0.23149795830249786,
   0.00098231784068048,
   -0.009122231043875217,
   -0.16687127947807312,
   0.36291664838790894
  ],
  [
   0.08288538455963135,
   0.2877458930015564,
   -0.9010082483291626,
   0.2441905289888382,
   0.1906989961862564,
   0.16486291587352753
  ],
  [
   -0.18566854298114777,
   0.12017253041267395,
   0.3872419595718384,
   -0.6275588870048523,
   -0.13207201659679413,
   -0.05723097175359726
  ],
  [
   -0.12951324880123138,
   0.28438523411750793,
   0.47459229826927185,
   0.1478285789489746,
   0.3633292615413666,
   -0.4361494481563568
  ],
  [
   -0.370930939912796,
   -0.42079347372055054,
   0.18183499574661255,
   -0.006540244910866022,
   0.21785934269428253,
   0.49599966406822205
  ],
  [
   -0.41790491342544556,
   -0.06036869063973427,
   0.24718034267425537,
   0.38348183035850525,
   0.3095698356628418,
   0.05509421229362488
  ],
  [
   -0.26584678888320923,
   -0.05495743080973625,
   0.6160182952880859,
   0.6105166673660278,
   0.44807809591293335,
   0.20172594487667084
  ],
  [
   -0.0035052394960075617,
   0.3468766212463379,
   0.16967058181762695,
   -0.5099448561668396,
   -0.3281417489051819,
   0.16192924976348877
  ],
  [
   -0.1660664826631546,
   0.23332001268863678,
   -0.31206199526786804,
   0.0040379720740020275,
   0.06238638237118721,
   -0.17376959323883057
  ],
  [
   0.043594419956207275,
   0.3276304006576538,
   -0.1338973492383957,
   0.046853478997945786,
   -0.32800525426864624,
   -0.3966518044471741
  ],
  [
   0.2129247635602951,
   0.04430350661277771,
   0.002355892676860094,
   0.0005392948514781892,
   -0.20805247128009796,
   0.21120290458202362
  ],
  [
   0.2273927628993988,
   -0.05635266378521919,
   0.01744026131927967,
   0.006591062992811203,
   -0.15227346122264862,
   0.013105695135891438
  ],
  [
   0.5435342788696289,
   -0.6454723477363586,
   -0.41501951217651367,
   -0.7862744331359863,
   -0.593612551689148,
   0.054568979889154434
  ],
  [
   0.5082311630249023,
   -0.21091407537460327,
   -0.17041702568531036,
   -0.10347384214401245,
   -0.35289859771728516,
   0.19228219985961914
  ],
  [
   -0.35961928963661194,
   0.6360356211662292,
   0.2500703036785126,
   0.2818126082420349,
   0.6820664405822754,
   0.16651497781276703
  ],
  [
   -0.29254063963890076,
   -0.026383105665445328,
   -0.012599240057170391,
   0.01008052658289671,
   -0.3516126573085785,
   0.03666127100586891
  ],
  [
   0.2599683701992035,
   0.025119710713624954,
   0.36310479044914246,
   0.14152739942073822,
   0.34614303708076477,
   0.27911376953125
  ],
  [
   -0.10469474643468857,
   0.28123581409454346,
   0.33705005049705505,
   0.331983745098114,
   0.18833155930042267,
   -0.4595511853694916
  ],
  [
   -0.12219908833503723,
   0.9202926158905029,
   -0.03737267106771469,
   0.21095772087574005,
   -0.47246888279914856,
   -0.7608762383460999
  ],
  [
   -0.12055984884500504,
   0.4520278573036194,
   -0.03662322461605072,
   0.23100823163986206,
   0.08251108974218369,
   -0.22203901410102844
  ],
  [
   0.10251636058092117,
   -0.026357121765613556,
   -0.0030147451907396317,
   -1.8434184312354773e-05,
   -0.1014430820941925,
   0.07354164868593216
  ],
  [
   0.49177268147468567,
   -0.5084105134010315,
   -0.7036760449409485,
   -1.0493322610855103,
   -0.6150637269020081,
   -0.07271966338157654
  ],
  [
   -0.14013554155826569,
   0.24729537963867188,
   0.18034638464450836,
   -0.5948914289474487,
   -0.1018521711230278,
   -0.5057856440544128
  ],
  [
   -0.06694202870130539,
   0.06969033181667328,
   0.4107465445995331,
   -0.519375205039978,
   0.38413313031196594,
   -0.1773359626531601
  ],
  [
   -0.09195529669523239,
   0.12314914166927338,
   -0.005947266239672899,
   0.006924292538315058,
   -0.1267237514257431,
   -0.013021990656852722
  ],
  [
   -0.21801652014255524,
   -0.0012751545291393995,
   -0.09364703297615051,
   0.06561389565467834,
   0.23124602437019348,
   0.04582935571670532
  ],
  [
   -0.03453608229756355,
   0.5309552550315857,
   0.36216267943382263,
   0.17051354050636292,
   -0.17178179323673248,
   -0.03418978676199913
  ],
  [
   -0.08812159299850464,
   0.3201090395450592,
   0.3689033091068268,
   -0.15201903879642487,
   -0.0547439306974411,
   -0.17208893597126007
  ],
  [
   -0.07107792049646378,
   0.2762802541255951,
   0.31319987773895264,
   -0.1444782316684723,
   -0.1029597818851471,
   -0.10806311666965485
  ],
  [
   -0.19605450332164764,
   0.4278394281864166,
   1.3122484683990479,
   -0.1353217214345932,
   0.22029457986354828,
   -0.33331435918807983
  ],
  [
   0.10972517728805542,
   0.7011865377426147,
   -0.07674341648817062,
   0.008920012973248959,
   -0.2556358575820923,
   -0.8561739921569824
  ],
  [
   -0.22528313100337982,
   0.26951494812965393,
   0.6059788465499878,
   -0.19412080943584442,
   0.03345860168337822,
   0.06693059206008911
  ],
  [
   0.16019491851329803,
   0.16358284652233124,
   -0.36937931180000305,
   0.06268955767154694,
   -0.19543761014938354,
   0.05631322041153908
  ],
  [
   -0.04462327063083649,
   0.1657887101173401,
   -0.3885916769504547,
   -0.2195022851228714,
   -0.13169708847999573,
   -0.5413329005241394
  ],
  [
   0.2711533010005951,
   0.43647080659866333,
   0.22538691759109497,
   -0.08013828098773956,
   -0.26983004808425903,
   -0.6436873078346252
  ],
  [
   0.464053213596344,
   -0.05142096430063248,
   0.06594301760196686,
   -0.14241363108158112,
   -0.37686192989349365,
   -0.037214912474155426
  ],
  [
   -0.26011377573013306,
   0.2184123992919922,
   0.45909395813941956,
   -0.22524119913578033,
   -0.03449147939682007,
   0.10058075189590454
  ],
  [
   -0.006442401558160782,
   -0.06311669200658798,
   0.9650940299034119,
   0.600836992263794,
   0.1333865076303482,
   0.14208251237869263
  ],
  [
   -0.16115474700927734,
   0.3640785813331604,
   0.571418821811676,
   -0.5069119334220886,
   0.04261434078216553,
   -0.28168579936027527
  ],
  [
   -0.06865745037794113,
   -0.06373140215873718,
   -0.3772239089012146,
   -0.09097594022750854,
   -0.15816554427146912,
   -0.223087340593338
  ],
  [
   -0.09221336245536804,
   0.1322464644908905,
   0.0034620920196175575,
   -0.002274382160976529,
   -0.0326257199048996,
   -0.09498962759971619
  ],
  [
   -0.36910367012023926,
   -0.05865046754479408,
   0.9511774182319641,
   -0.4930211901664734,
   0.7727526426315308,
   0.33186134696006775
  ],
  [
   -0.5245789885520935,
   0.056466322392225266,
   -0.0798921138048172,
   0.15828324854373932,
   0.42431530356407166,
   0.04088659584522247
  ],
  [
   -0.30267977714538574,
   -0.04787495732307434,
   0.6390105485916138,
   -0.5102440118789673,
   0.615315318107605,
   0.29619330167770386
  ],
  [
   0.13143016397953033,
   0.1759132742881775,
   0.5832586884498596,
   0.03908436372876167,
   -0.2758493423461914,
   -0.3204316794872284
  ],
  [
   -0.11851748824119568,
   -0.003589408937841654,
   0.17482462525367737,
   0.25882601737976074,
   0.0755256935954094,
   0.18354469537734985
  ],
  [
   -0.0976315289735794,
   0.009429195895791054,
   -0.25346511602401733,
   -0.22422532737255096,
   -0.1459978073835373,
   -0.02170751802623272
  ],
  [
   -0.14979036152362823,
   0.5012027025222778,
   0.16337667405605316,
   0.04759996384382248,
   0.4693470001220703,
   0.12228153645992279
  ],
  [
   0.6042049527168274,
   -0.13567064702510834,
   -0.09154355525970459,
   0.03628134727478027,
   -0.31754952669143677,
   0.12478362768888474
  ],
  [
   0.2890152335166931,
   -0.21758481860160828,
   0.5359970927238464,
   -0.20129190385341644,
   -0.4543921947479248,
   0.14460156857967377
  ],
  [
   -0.0752544179558754,
   0.4264807105064392,
   -0.28588739037513733,
   -0.01596081256866455,
   -0.3065524697303772,
   -0.1555226594209671
  ],
  [
   -0.036645181477069855,
   -0.28916606307029724,
   0.2887428402900696,
   0.19174011051654816,
   0.14508666098117828,
   0.18084466457366943
  ],
  [
   -0.03523493558168411,
   0.7485681176185608,
   -0.1271679699420929,
   0.08282750844955444,
   -0.05233456939458847,
   -0.4237726032733917
  ],
  [
   -0.33075761795043945,
   0.4287390410900116,
   0.18137754499912262,
   0.15487517416477203,
   -0.09683290868997574,
   0.02490573190152645
  ],
  [
   -0.41670387983322144,
   0.3235258460044861,
   0.0923837423324585,
   0.4916287362575531,
   0.3978981375694275,
   -0.0049731251783668995
  ],
  [
   -0.19868725538253784,
   0.019252724945545197,
   0.13622750341892242,
   0.10322194546461105,
   0.26564040780067444,
   0.0386756956577301
  ],
  [
   -0.01946735940873623,
   0.2759421765804291,
   0.4905001223087311,
   -0.16621249914169312,
   -0.16669553518295288,
   -0.18849144876003265
  ],
  [
   0.11523494869470596,
   0.06556612998247147,
   -0.249981090426445,
   0.023449145257472992,
   -0.6134544610977173,
   0.14983612298965454
  ],
  [
   -0.1550508290529251,
   0.07637780904769897,
   0.157194122672081,
   -0.45950639247894287,
   -0.23227031528949738,
   -0.0015821026172488928
  ],
  [
   -0.36609795689582825,
   -0.03173056244850159,
   0.12216531485319138,
   0.11143425852060318,
   0.13499906659126282,
   -0.07467115670442581
  ],
  [
   -0.2071963995695114,
   0.12171962112188339,
   -0.016304567456245422,
   0.0014797041658312082,
   0.012977931648492813,
   -0.1649056226015091
  ],
  [
   -0.08290544152259827,
   0.03622185066342354,
   0.0012635226594284177,
   0.004702060483396053,
   -0.0827142521739006,
   0.05879632756114006
  ],
  [
   0.15084610879421234,
   -0.1502227783203125,
   0.6532983779907227,
   -0.31691357493400574,
   0.1741359382867813,
   0.5106948018074036
  ],
  [
   0.3504200577735901,
   0.6862159967422485,
   -1.0080010890960693,
   -0.1416061520576477,
   -0.642936646938324,
   -0.8444810509681702
  ],
  [
   -0.06687478721141815,
   0.19117827713489532,
   0.0015721565578132868,
   -0.004966393578797579,
   -0.101552814245224,
   -0.12493069469928741
  ],
  [
   0.15398307144641876,
   0.04767807573080063,
   -0.27132612466812134,
   -0.08085352927446365,
   0.3564852178096771,
   -0.1968093067407608
  ],
  [
   0.29579004645347595,
   -0.3960711658000946,
   -0.5574935674667358,
   0.30164119601249695,
   -0.3342447578907013,
   0.051918163895606995
  ],
  [
   0.23917236924171448,
   0.7992866635322571,
   0.38130271434783936,
   0.11161133646965027,
   -0.22949905693531036,
   -0.22546036541461945
  ],
  [
   0.40866753458976746,
   0.4151504933834076,
   -0.49987247586250305,
   0.18573297560214996,
   -0.7341567873954773,
   -0.4037327170372009
  ],
  [
   0.010061423294246197,
   0.06526143103837967,
   -0.9962641596794128,
   -0.6186721324920654,
   -0.13682197034358978,
   -0.14415091276168823
  ],
  [
   -0.006039515603333712,
   0.3769696354866028,
   -0.13412216305732727,
   0.14770293235778809,
   -0.0837402194738388,
   -0.27999427914619446
  ],
  [
   0.3397192358970642,
   -0.2444462776184082,
   0.15708240866661072,
   -0.31177639961242676,
   -0.16166050732135773,
   0.2762308716773987
  ],
  [
   0.9169030785560608,
   -0.20674143731594086,
   -0.14917926490306854,
   0.08491887897253036,
   -0.9438279271125793,
   -0.22950182855129242
  ],
  [
   -0.11150584369897842,
   0.3817760944366455,
   0.08850803971290588,
   0.1336415708065033,
   0.3504079580307007,
   -0.09347934275865555
  ],
  [
   -0.06314397603273392,
   0.1485791802406311,
   -0.2620352506637573,
   0.00043336418457329273,
   -0.035742539912462234,
   -0.12686368823051453
  ],
  [
   0.2158130556344986,
   -0.2607633173465729,
   -0.16054268181324005,
   -0.31186598539352417,
   -0.23595231771469116,
   0.023909449577331543
  ],
  [
   -0.4981968104839325,
   0.8119159936904907,
   0.270330011844635,
   -0.49088743329048157,
   0.5781481266021729,
   -0.7061530947685242
  ],
  [
   -0.25317105650901794,
   0.25023117661476135,
   0.4278920590877533,
   -0.23507238924503326,
   -0.17153707146644592,
   -0.1020832508802414
  ],
  [
   0.27436554431915283,
   0.24199272692203522,
   0.0638112723827362,
   -0.01829371601343155,
   -0.501524806022644,
   -0.25681912899017334
  ],
  [
   -0.050790321081876755,
   0.08747407793998718,
   -0.18164053559303284,
   -0.045660413801670074,
   0.1257825344800949,
   -0.319134384393692
  ],
  [
   -0.07702622562646866,
   0.13629625737667084,
   -0.26821404695510864,
   -0.02709539420902729,
   0.23368725180625916,
   -0.4790630638599396
  ],
  [
   0.10382618010044098,
   0.2564679682254791,
   -0.3405148684978485,
   -0.3070641756057739,
   -0.24087412655353546,
   -0.04419673606753349
  ],
  [
   0.038273077458143234,
   0.027164341881871223,
   -0.0014806349063292146,
   0.002950753318145871,
   -0.007009819149971008,
   -0.12132757902145386
  ],
  [
   0.16735130548477173,
   0.055930111557245255,
   0.44311416149139404,
   0.24479641020298004,
   0.5014272332191467,
   0.2606164216995239
  ],
  [
   -0.008594609797000885,
   0.4329163432121277,
   -0.19424067437648773,
   -0.01889071799814701,
   0.3050004541873932,
   -0.67992103099823
  ],
  [
   0.12826770544052124,
   -0.02254478447139263,
   -0.002187633654102683,
   0.0030341921374201775,
   -0.204025998711586,
   0.053925275802612305
  ],
  [
   0.5653977990150452,
   0.23465558886528015,
   -0.5384028553962708,
   -0.2895064949989319,
   -0.5809866189956665,
   -0.09527680277824402
  ],
  [
   -0.26106056571006775,
   -0.0700330063700676,
   0.924018383026123,
   -0.2020254135131836,
   0.5428969264030457,
   0.38665440678596497
  ],
  [
   0.46195974946022034,
   -0.009807847440242767,
   -0.03729478642344475,
   0.011381106451153755,
   -0.6377404928207397,
   0.08835316449403763
  ],
  [
   -0.31710031628608704,
   -0.0023071677424013615,
   0.08359185606241226,
   0.14223714172840118,
   0.27109628915786743,
   0.1268308311700821
  ],
  [
   -0.3103380501270294,
   0.5546389222145081,
   -0.023473836481571198,
   0.3455747961997986,
   0.5409579873085022,
   -0.04051637649536133
  ],
  [
   -0.1416073590517044,
   0.1486082524061203,
   0.004622652195394039,
   0.44352036714553833,
   0.02569391019642353,
   0.12046469002962112
  ],
  [
   0.06056951731443405,
   0.36274904012680054,
   -0.27955174446105957,
   -0.00660946499556303,
   -0.4311434030532837,
   -0.14602746069431305
  ]
 ],
 "pi.0.bias": [
  -2.327097177505493,
  -2.2484169006347656,
  -2.0860445499420166,
  -2.5689401626586914,
  -3.054701566696167,
  -2.526533603668213,
  -0.4932187795639038,
  -2.5632247924804688,
  -3.2095792293548584,
  -2.6222240924835205,
  -2.278324842453003,
  -2.838223695755005,
  -2.918724536895752,
  -3.568006992340088,
  -2.1889216899871826,
  -2.712202548980713,
  -2.824321985244751,
  -1.9184898138046265,
  -2.2044639587402344,
  -2.1646666526794434,
  -2.879244565963745,
  -2.260760545730591,
  -3.300654411315918,
  -2.8323938846588135,
  -3.220065116882324,
  -3.0210254192352295,
  -2.5919651985168457,
  -0.831253707408905,
  -3.07198166847229,
  -2.3133935928344727,
  -2.308352470397949,
  -1.9235084056854248,
  -0.6015112400054932,
  -2.4913389682769775,
  -2.2862088680267334,
  -2.1374199390411377,
  -5.2456231117248535,
  -3.042526960372925,
  -2.8035194873809814,
  -2.529609441757202,
  -2.613287925720215,
  -2.0771427154541016,
  -0.12588126957416534,
  -2.525611400604248,
  -0.2861764132976532,
  -2.0000810623168945,
  -2.297680139541626,
  -1.1644906997680664,
  -2.229198694229126,
  0.13690154254436493,
  -1.7181297540664673,
  -1.9126440286636353,
  -2.0216455459594727,
  -2.422968626022339,
  -2.0073001384735107,
  -2.0674352645874023,
  -2.9124279022216797,
  -3.1529653072357178,
  -2.076274871826172,
  -1.8751806020736694,
  -3.9189860820770264,
  -2.7182328701019287,
  0.2875101864337921,
  -2.6365768909454346,
  -2.7533493041992188,
  -2.0004801750183105,
  -2.9581358432769775,
  -2.2485108375549316,
  -1.1429792642593384,
  -2.489440679550171,
  -3.391634225845337,
  -1.466012954711914,
  -2.819730043411255,
  -2.371415138244629,
  -2.6910178661346436,
  -2.2531912326812744,
  0.2887060344219208,
  -2.502413034439087,
  -2.60491943359375,
  -3.064781665802002,
  -2.5325920581817627,
  -1.4793179035186768,
  -0.9514070749282837,
  -2.518975019454956,
  -2.3447489738464355,
  -1.5101416110992432,
  -1.4012691974639893,
  -2.1793293952941895,
  -2.6238136291503906,
  -1.6031790971755981,
  -2.713970422744751,
  -2.1408474445343018,
  -0.7866404056549072,
  -1.686055302619934,
  -1.7442573308944702,
  -2.7233757972717285,
  -2.180398941040039,
  -2.0916805267333984,
  -2.2641074657440186,
  -2.811779737472534
 ],
 "pi.2.weight": [
  [
   -4.930525302886963,
   -4.081396579742432,
   0.13201016187667847,
   0.38890326023101807,
   -0.0780041292309761,
   17.624176025390625,
   0.011844296008348465,
   -0.8368217945098877,
   -14.682827949523926,
   -0.6648798584938049,
   0.7794247269630432,
   0.22892288863658905,
   0.2817627191543579,
   0.4524124562740326,
   -0.07675468921661377,
   -0.510601818561554,
   -4.2970147132873535,
   2.738395929336548,
   2.11913800239563,
   -0.24883735179901123,
   1.314238429069519,
   0.1389770209789276,
   -0.09938725084066391,
   2.5168638229370117,
   8.960273742675781,
   0.10014301538467407,
   -7.260125160217285,
   0.07133655250072479,
   0.0036089408677071333,
   4.290748596191406,
   6.763491630554199,
   -0.017860248684883118,
   -0.1039406955242157,
   4.759246826171875,
   -0.11708930134773254,
   -1.3091070652008057,
   -1.4361190795898438,
   0.06795188784599304,
   2.3670260906219482,
   -2.931885242462158,
   4.2622504234313965,
   -4.423433303833008,
   0.1736324578523636,
   -0.015547472983598709,
   0.04969716817140579,
   -7.212839126586914,
   0.23977267742156982,
   -0.011921398341655731,
   8.007841110229492,
   -0.1536707729101181,
   5.890074729919434,
   4.195390224456787,
   0.5522850155830383,
   -0.03953797370195389,
   5.935677528381348,
   1.2438592910766602,
   -0.1383638083934784,
   -3.2530579566955566,
   1.1025781631469727,
   -7.372143268585205,
   -0.4749829173088074,
   0.0740073025226593,
   -0.010775384493172169,
   0.0942917913198471,
   -0.20585981011390686,
   2.197871446609497,
   11.724776268005371,
   1.768043875694275,
   0.05971293896436691,
   7.772501468658447,
   -0.0015211807331070304,
   -0.10567595809698105,
   0.5737060904502869,
   -3.459939956665039,
   6.729752063751221,
   -9.99836254119873,
   -0.04793572798371315,
   -3.329017400741577,
   1.3647191524505615,
   -0.805229663848877,
   -2.0350401401519775,
   0.0617397204041481,
   0.6027236580848694,
   0.035095758736133575,
   0.9094563126564026,
   -4.459300994873047,
   1.1624215841293335,
   -4.953806400299072,
   -5.377005100250244,
   0.6383659839630127,
   -0.10354559868574142,
   -3.7978107929229736,
   0.012362715788185596,
   -0.10471530258655548,
   7.223095893859863,
   -2.133033514022827,
   -0.1926676481962204,
   -0.13859649002552032,
   -5.442677021026611,
   -4.9055094718933105
  ],
  [
   -1.6092798709869385,
   0.417229026556015,
   13.190750122070312,
   -2.3972318172454834,
   -4.336323261260986,
   0.9730424880981445,
   0.003961251582950354,
   0.4295460879802704,
   3.0365138053894043,
   -1.526697039604187,
   0.759932279586792,
   4.941155910491943,
   2.1460816860198975,
   4.592812538146973,
   -1.5588456392288208,
   4.303219795227051,
   0.35845085978507996,
   -0.7845416069030762,
   0.034974854439496994,
   -5.914909839630127,
   -0.17724277079105377,
   2.976425886154175,
   -3.543973445892334,
   -1.382513165473938,
   0.6981563568115234,
   10.9739408493042,
   1.1275699138641357,
   0.0007760401349514723,
   4.816388130187988,
   -1.0004370212554932,
   -0.002841860754415393,
   1.5722014904022217,
   -0.003463203553110361,
   -1.594675898551941,
   -1.8992654085159302,
   -0.5165218114852905,
   -2.4358694553375244,
   22.096731185913086,
   -0.9394308924674988,
   0.48865261673927307,
   -0.6657219529151917,
   -3.8428306579589844,
   0.06067565083503723,
   -1.0239287614822388,
   -0.06797171384096146,
   0.8130307793617249,
   -0.022249456495046616,
   -0.11988307535648346,
   1.2546591758728027,
   -0.0539688877761364,
   -1.0994272232055664,
   -0.4747120440006256,
   2.1110785007476807,
   2.632638692855835,
   -1.0748502016067505,
   1.2111537456512451,
   1.5355594158172607,
   4.806150436401367,
   -0.13865412771701813,
   3.2234573364257812,
   1.456408143043518,
   2.5593414306640625,
   -0.0052320221439003944,
   -1.9166300296783447,
   1.2800102233886719,
   -1.1652419567108154,
   0.3315127491950989,
   0.500135600566864,
   0.002732388209551573,
   0.7999605536460876,
   15.262954711914062,
   -0.7211204171180725,
   9.166764259338379,
   0.4913877248764038,
   1.3645172119140625,
   1.4451661109924316,
   0.06537088751792908,
   -0.261648565530777,
   1.1917909383773804,
   -6.662915229797363,
   0.5055211186408997,
   0.9745998382568359,
   -0.07561712712049484,
   3.8912370204925537,
   -0.6457722783088684,
   -1.4578133821487427,
   -0.9541393518447876,
   0.6798194646835327,
   0.1629408746957779,
   0.3332013487815857,
   -2.3552191257476807,
   0.5342326760292053,
   -0.007769735064357519,
   -4.218580722808838,
   -0.5127660036087036,
   -2.2355573177337646,
   4.10107946395874,
   -2.764899969100952,
   0.9449204206466675,
   3.625840902328491
  ]
 ]
}