{
 "pi.0.weight": [
  [
   0.0015776801155880094,
   0.41827717423439026,
   -0.12722928822040558,
   0.18049195408821106
  ],
  [
   0.1317984014749527,
   0.15165835618972778,
   0.018403738737106323,
   -0.06281546503305435
  ],
  [
   -0.021516617387533188,
   0.03129139542579651,
   -0.005474557634443045,
   -0.000524558243341744
  ],
  [
   -0.2808552384376526,
   -0.1257389783859253,
   -0.024038303643465042,
   0.015477292239665985
  ],
  [
   -0.027161136269569397,
   0.22369198501110077,
   0.02304643765091896,
   -0.008232615888118744
  ],
  [
   -0.03419593721628189,
   0.04537669196724892,
   -0.09184407442808151,
   -0.08273452520370483
  ],
  [
   0.005987363867461681,
   0.0032324502244591713,
   -0.0005036274087615311,
   -0.0001028799160849303
  ],
  [
   -0.19682501256465912,
   0.15279018878936768,
   0.011113997548818588,
   0.10162191838026047
  ],
  [
   -0.15892374515533447,
   -0.19188326597213745,
   0.050913870334625244,
   -0.09157820045948029
  ],
  [
   0.008377157151699066,
   0.006475748959928751,
   -7.931291474960744e-05,
   0.00012162460188847035
  ],
  [
   -0.014330639503896236,
   -0.23639053106307983,
   0.031314950436353683,
   -0.11612352728843689
  ],
  [
   0.0058203586377203465,
   0.0045679472386837006,
   0.0001680241257417947,
   -0.00026548272580839694
  ],
  [
   0.0033904449082911015,
   0.010766280815005302,
   0.0018967273645102978,
   -0.0006685299449600279
  ],
  [
   -3.0178052838891745e-06,
   0.051182880997657776,
   0.05193951353430748,
   -0.11863450706005096
  ],
  [
   0.08015168458223343,
   -0.15176650881767273,
   0.07393510639667511,
   -0.1366099715232849
  ],
  [
   0.011334706097841263,
   0.008432178758084774,
   -0.0007456069579347968,
   0.0012811309425160289
  ],
  [
   0.008010064251720905,
   0.024907764047384262,
   -0.0035811797715723515,
   -0.002541090128943324
  ],
  [
   0.07930712401866913,
   0.42636561393737793,
   -0.06050274521112442,
   0.01176005881279707
  ],
  [
   0.007104632910341024,
   0.005883012432605028,
   -0.0013812573160976171,
   -2.0039329683640972e-05
  ],
  [
   0.0016509788110852242,
   0.0020593793597072363,
   -0.00010557466157479212,
   -2.203443000325933e-05
  ],
  [
   0.006246969569474459,
   0.004827359691262245,
   0.00026876720949076116,
   -7.754222315270454e-05
  ],
  [
   0.05268930271267891,
   -0.23051409423351288,
   0.03989708423614502,
   -0.14863862097263336
  ],
  [
   0.030433285981416702,
   -0.02827323041856289,
   -0.021997559815645218,
   -0.0013334471732378006
  ],
  [
   0.10939473658800125,
   0.08706049621105194,
   -0.1650930792093277,
   -0.15724080801010132
  ],
  [
   0.32063329219818115,
   0.32991060614585876,
   0.0970611423254013,
   -0.02046862058341503
  ],
  [
   0.24870404601097107,
   0.32196202874183655,
   -0.05792646482586861,
   -0.05392737314105034
  ],
  [
   -0.40183544158935547,
   0.035656314343214035,
   0.056500695645809174,
   0.010463922284543514
  ],
  [
   0.35040590167045593,
   0.1398615688085556,
   0.005731627345085144,
   -0.0014335357118397951
  ],
  [
   0.0010073748417198658,
   0.00681389169767499,
   0.00011097195238107815,
   -0.001835761358961463
  ],
  [
   0.014611712656915188,
   0.1886976957321167,
   -0.10912450402975082,
   0.0018381213303655386
  ],
  [
   0.006269034929573536,
   0.009630247950553894,
   0.0008682481129653752,
   -0.00019327396876178682
  ],
  [
   -0.14201384782791138,
   -0.032319217920303345,
   0.00951705314218998,
   -0.009193534962832928
  ],
  [
   0.002458332572132349,
   0.0005381233058869839,
   -0.0004147191357333213,
   0.0001035776876960881
  ],
  [
   -0.07499605417251587,
   -0.05091473460197449,
   0.08446761220693588,
   0.09096866846084595
  ],
  [
   0.008532405830919743,
   -0.08434329181909561,
   0.004926363937556744,
   0.29197075963020325
  ],
  [
   0.44622552394866943,
   0.5765348076820374,
   -0.030124546959996223,
   0.005093456711620092
  ],
  [
   0.002356387674808502,
   0.0033797521609812975,
   -0.00013697879330720752,
   0.0001310221414314583
  ],
  [
   0.18793228268623352,
   -0.09989694505929947,
   0.1303912103176117,
   -0.18865767121315002
  ],
  [
   0.3094131350517273,
   0.3128341734409332,
   -0.001726327696815133,
   -0.025282803922891617
  ],
  [
   0.3935006260871887,
   -0.11153849214315414,
   -0.005955914035439491,
   -0.07495129853487015
  ],
  [
   0.16873574256896973,
   0.14389149844646454,
   -0.028044531121850014,
   -0.08987871557474136
  ],
  [
   0.008171161636710167,
   0.006667128764092922,
   0.0002652034454513341,
   -0.0009496767888776958
  ],
  [
   -0.10690020024776459,
   0.1282111406326294,
   0.1448940932750702,
   -0.1246323212981224
  ],
  [
   0.2667185664176941,
   0.235713928937912,
   -0.10844672471284866,
   -0.04670023173093796
  ],
  [
   0.01057695597410202,
   0.009977559559047222,
   -0.0010977835627272725,
   -0.001453804667107761
  ],
  [
   0.22178815305233002,
   0.03827697038650513,
   0.009289009496569633,
   0.07632923126220703
  ],
  [
   0.007778739556670189,
   0.006832804996520281,
   -0.00017513097554910928,
   0.0018011737847700715
  ],
  [
   0.018888099119067192,
   0.015371205285191536,
   -0.0002747179241850972,
   -0.001281125470995903
  ],
  [
   -0.18539944291114807,
   0.1181575283408165,
   0.023578159511089325,
   -0.029438834637403488
  ],
  [
   -0.248821422457695,
   0.2967909276485443,
   0.04866649582982063,
   0.0730304941534996
  ],
  [
   -0.007009974680840969,
   0.231416717171669,
   0.09899373352527618,
   -0.16739016771316528
  ],
  [
   -0.1582007110118866,
   0.25035208463668823,
   -0.04636404663324356,
   0.16629169881343842
  ],
  [
   -0.031995344907045364,
   0.35292673110961914,
   0.07118398696184158,
   -0.019307324662804604
  ],
  [
   0.12719513475894928,
   -0.01048912201076746,
   0.10124626755714417,
   0.03323042020201683
  ],
  [
   0.007224930915981531,
   0.05031803622841835,
   0.0019061045022681355,
   -0.009219852276146412
  ],
  [
   0.0008132965886034071,
   0.0018152972916141152,
   -0.000272926437901333,
   -0.0003272977191954851
  ],
  [
   -0.4067794680595398,
   0.0547323115170002,
   0.03790599852800369,
   0.008645505644381046
  ],
  [
   -0.22384974360466003,
   0.00781918317079544,
   0.06181247904896736,
   0.054532166570425034
  ],
  [
   0.0007537196506746113,
   -0.0013341710437089205,
   0.0014595468528568745,
   3.824484520009719e-05
  ],
  [
   -0.048573944717645645,
   0.04798874631524086,
   -0.023298194631934166,
   -0.11762920022010803
  ],
  [
   0.2910546362400055,
   0.2615058422088623,
   0.02434135228395462,
   -0.0962902307510376
  ],
  [
   0.002579458523541689,
   0.001728753442876041,
   -0.00016692251665517688,
   -2.6335201255278662e-05
  ],
  [
   -0.014985605143010616,
   0.001897377660498023,
   -0.002220744267106056,
   0.001894374843686819
  ],
  [
   0.010171610862016678,
   0.010600343346595764,
   -0.001543685793876648,
   -0.0008883826085366309
  ],
  [
   0.0036895060911774635,
   0.0011474295752122998,
   0.0002960468118544668,
   0.0007736423867754638
  ],
  [
   -0.004992980509996414,
   0.003043213626369834,
   -0.0006998757016845047,
   -0.00037966473610140383
  ],
  [
   0.007423080503940582,
   -0.028026271611452103,
   0.004223044030368328,
   0.13231466710567474
  ],
  [
   0.24493436515331268,
   0.28095778822898865,
   0.0172596238553524,
   -0.09136863052845001
  ],
  [
   0.004188133869320154,
   0.0010124575346708298,
   -0.00032176487729884684,
   0.00036573511897586286
  ],
  [
   0.1071845144033432,
   0.09217508882284164,
   -0.019920775666832924,
   0.03209764137864113
  ],
  [
   0.04212978854775429,
   -0.031228160485625267,
   -0.03865806385874748,
   -0.0026525286957621574
  ],
  [
   -0.06509628146886826,
   0.4860629141330719,
   -0.07130847126245499,
   0.03174573928117752
  ],
  [
   -0.07833822816610336,
   0.3300800919532776,
   -0.009899291209876537,
   0.10483309626579285
  ],
  [
   -0.06853367388248444,
   0.1313142329454422,
   0.017607305198907852,
   -0.08350928872823715
  ],
  [
   0.0008208153303712606,
   -0.0003671270969789475,
   -0.00018164233188144863,
   -4.1441024222876877e-05
  ],
  [
   -0.0009092513937503099,
   0.0004901619395241141,
   -0.00010507476690690964,
   -6.99815518601099e-06
  ],
  [
   0.000864228350110352,
   -0.00018128601368516684,
   0.00018748444563243538,
   -5.982042785035446e-05
  ],
  [
   0.1582934409379959,
   -0.24356161057949066,
   0.17177243530750275,
   -0.042506955564022064
  ],
  [
   0.2051244080066681,
   -0.06472747027873993,
   0.01375647634267807,
   0.14948417246341705
  ],
  [
   -0.19116909801959991,
   0.015150146558880806,
   0.0031396248377859592,
   -0.00517300283536315
  ],
  [
   0.2074781060218811,
   0.2288392335176468,
   -0.001147913746535778,
   -0.00037271500332280993
  ],
  [
   0.024496499449014664,
   -0.0381309948861599,
   -0.008109332993626595,
   0.01665494777262211
  ],
  [
   0.08283860236406326,
   -0.15652549266815186,
   0.050534363836050034,
   -0.23254741728305817
  ],
  [
   0.604862630367279,
   0.02889809012413025,
   -0.01324827503412962,
   0.009561984799802303
  ],
  [
   0.2992788851261139,
   0.4454740583896637,
   0.3023945689201355,
   0.025261392816901207
  ],
  [
   0.12972398102283478,
   0.24422778189182281,
   0.002140588127076626,
   0.08654481172561646
  ],
  [
   0.005092448554933071,
   -0.0011412795865908265,
   0.0008401701925322413,
   0.0006278937216848135
  ],
  [
   -0.20203514397144318,
   0.17450959980487823,
   0.027503695338964462,
   0.05935745686292648
  ],
  [
   0.017431536689400673,
   0.022248558700084686,
   -0.0009277935023419559,
   -0.002659995574504137
  ],
  [
   -0.0008800128707662225,
   0.17329496145248413,
   0.1428404599428177,
   -0.2095210999250412
  ],
  [
   0.005752392578870058,
   0.0005486238515004516,
   -0.00013480107008945197,
   -0.00016076068277470767
  ],
  [
   0.0520344115793705,
   0.3332107961177826,
   0.04586295783519745,
   -0.028040822595357895
  ],
  [
   -0.22339209914207458,
   -0.0039331791922450066,
   -0.029653308913111687,
   0.03702186793088913
  ],
  [
   0.011514946818351746,
   0.0005894626956433058,
   0.00038786703953519464,
   0.0007022045319899917
  ],
  [
   0.004554175306111574,
   -7.805603672750294e-06,
   -0.0003429685311857611,
   -0.0005555087700486183
  ],
  [
   0.0182489063590765,
   0.01902983896434307,
   0.0018714347388595343,
   -0.0014903756091371179
  ],
  [
   -0.09952931851148605,
   0.4312340319156647,
   0.02871612273156643,
   0.20995230972766876
  ],
  [
   -0.06523091346025467,
   0.30976957082748413,
   0.010946615599095821,
   0.05978359654545784
  ],
  [
   -0.15936996042728424,
   -0.04564065858721733,
   0.04699207469820976,
   -0.0014111446216702461
  ],
  [
   0.4511573016643524,
   0.06603245437145233,
   0.08939085900783539,
   0.042807336896657944
  ],
  [
   0.287329763174057,
   0.06036531180143356,
   0.032330289483070374,
   -0.016940955072641373
  ],
  [
   0.014326734468340874,
   0.015433416701853275,
   0.003208592999726534,
   -0.00016318746202159673
  ],
  [
   0.00543949892744422,
   0.0041922410018742085,
   -0.00014032314356882125,
   0.0004216056258883327
  ],
  [
   0.006614799611270428,
   0.00767191406339407,
   -0.0008023323607631028,
   -3.263265534769744e-05
  ],
  [
   0.05813145637512207,
   0.44918113946914673,
   -0.017846688628196716,
   0.11493642628192902
  ],
  [
   0.0019526301184669137,
   0.0012999644968658686,
   0.0002731578715611249,
   -0.00018697476480156183
  ],
  [
   0.004255570005625486,
   0.00411231117323041,
   -0.000143977755215019,
   -9.942719771061093e-05
  ],
  [
   0.005319029092788696,
   0.001115300110541284,
   -0.0005872205947525799,
   0.0005830871523357928
  ],
  [
   0.006736875046044588,
   0.016556018963456154,
   -0.00016619081725366414,
   0.0026600933633744717
  ],
  [
   0.0009701948147267103,
   0.0010434006107971072,
   0.0001765839260770008,
   -4.66389610664919e-05
  ],
  [
   -0.07066459953784943,
   0.21016404032707214,
   0.13541023433208466,
   0.10598012804985046
  ],
  [
   0.0019196168286725879,
   0.0020839818753302097,
   5.6739045248832554e-05,
   -0.00030046963365748525
  ],
  [
   0.19816358387470245,
   0.1367643028497696,
   -0.09653331339359283,
   0.0037694473285228014
  ],
  [
   0.2744990885257721,
   0.37478041648864746,
   -0.05428384989500046,
   0.0638255625963211
  ],
  [
   0.007666345685720444,
   0.007408748380839825,
   -0.0007965831900946796,
   -0.0003082083712797612
  ],
  [
   -0.060889944434165955,
   -0.05859949067234993,
   0.19408473372459412,
   -0.24931670725345612
  ],
  [
   0.2557678818702698,
   0.2576339840888977,
   0.10765168815851212,
   0.10432391613721848
  ],
  [
   0.0022353155072778463,
   0.002137922216206789,
   3.390337951714173e-05,
   0.00011390933650545776
  ],
  [
   0.25592947006225586,
   0.3061944842338562,
   -0.07482904195785522,
   -0.11620892584323883
  ],
  [
   -0.22372999787330627,
   0.4159444570541382,
   0.03305303677916527,
   0.07807976007461548
  ],
  [
   0.05058926343917847,
   0.20584022998809814,
   0.046271875500679016,
   -0.02604581229388714
  ],
  [
   -0.002740120980888605,
   0.4692434072494507,
   -0.020309854298830032,
   -0.006334259640425444
  ],
  [
   0.04648841172456741,
   0.030794087797403336,
   0.001191825489513576,
   -0.0024148302618414164
  ],
  [
   -0.016462188214063644,
   0.005314282141625881,
   -0.0011485412251204252,
   0.0002524750598240644
  ],
  [
   0.006755620241165161,
   0.0031540892086923122,
   -0.0002053062926279381,
   0.0010183819103986025
  ],
  [
   0.001378690474666655,
   0.0008469663443975151,
   -0.0005810242728330195,
   0.0010372112737968564
  ],
  [
   0.32330918312072754,
   0.07483891397714615,
   -0.04860004410147667,
   0.07462838292121887
  ],
  [
   0.26270627975463867,
   0.44904986023902893,
   -0.08347366005182266,
   0.026130368933081627
  ],
  [
   -0.006139792967587709,
   0.005396345164626837,
   0.015779422596096992,
   -0.016584426164627075
  ],
  [
   -0.1739051192998886,
   -0.11768678575754166,
   -0.006833221297711134,
   -0.08160378038883209
  ],
  [
   0.002245501847937703,
   0.0015945236664265394,
   -0.0002522719732951373,
   -0.00010851633123820648
  ],
  [
   0.0038207019679248333,
   -0.004477599170058966,
   0.0013420908944681287,
   0.0003577794414013624
  ],
  [
   0.02099413052201271,
   0.016225557774305344,
   -0.10227879136800766,
   -0.09473057836294174
  ],
  [
   0.00643664225935936,
   0.0022470825351774693,
   0.0010540451621636748,
   -0.00038046931149438024
  ],
  [
   0.012847785837948322,
   0.01018375065177679,
   -0.0009909666841849685,
   -0.0014392785960808396
  ],
  [
   0.01909036561846733,
   0.20331428945064545,
   0.06103398650884628,
   -0.04391631484031677
  ],
  [
   0.13001050055027008,
   0.3539638817310333,
   -0.07278087735176086,
   0.06520846486091614
  ],
  [
   -0.06048526242375374,
   0.012876029126346111,
   -0.04256969317793846,
   0.02314990758895874
  ],
  [
   0.53496253490448,
   0.011343095451593399,
   0.033413272351026535,
   0.034096378833055496
  ],
  [
   0.0006028282223269343,
   0.002705218968912959,
   -0.0002797882480081171,
   -9.779962965694722e-06
  ],
  [
   0.0003800190461333841,
   -0.0010058286134153605,
   0.0003467666101641953,
   -0.00010928505071206018
  ],
  [
   0.005547688342630863,
   0.17128829658031464,
   -0.037778664380311966,
   0.0884140357375145
  ],
  [
   0.29337695240974426,
   0.11747076362371445,
   0.026354264467954636,
   0.09258957207202911
  ],
  [
   0.029161565005779266,
   -0.02262529917061329,
   -0.11368793994188309,
   0.1152990534901619
  ],
  [
   0.0030814739875495434,
   -0.0035606813617050648,
   0.00016841436445247382,
   0.0006658707861788571
  ],
  [
   0.03395108878612518,
   -0.3791083097457886,
   0.035450924187898636,
   -0.03869807720184326
  ],
  [
   -0.005243025720119476,
   -0.0005069791804999113,
   -0.0018640258349478245,
   -0.000397349736886099
  ],
  [
   0.009248165413737297,
   0.12452051043510437,
   0.12475327402353287,
   -0.2210560292005539
  ],
  [
   -0.0897722840309143,
   0.1276337206363678,
   0.0024129149969667196,
   -0.0009490626980550587
  ],
  [
   -0.006150785833597183,
   0.002017261227592826,
   0.0008034115890040994,
   -0.00046209790161810815
  ],
  [
   0.0005714403232559562,
   -0.0031930841505527496,
   0.00017615374235901982,
   0.0007593542104586959
  ],
  [
   0.0021619428880512714,
   0.002337239682674408,
   0.0001921352231875062,
   -0.0008614651742391288
  ],
  [
   -0.03580129146575928,
   0.04534927383065224,
   0.08797386288642883,
   -0.1569717675447464
  ],
  [
   -0.002429654821753502,
   0.0009042785386554897,
   -0.0003521720936987549,
   -6.56819756841287e-05
  ],
  [
   0.19849325716495514,
   -0.021609272807836533,
   0.04854197800159454,
   -0.18042002618312836
  ],
  [
   -0.11489684134721756,
   0.29963549971580505,
   0.08054893463850021,
   -0.04159921407699585
  ],
  [
   -0.04265167936682701,
   0.02366436831653118,
   0.0678875669836998,
   -0.024645790457725525
  ],
  [
   -0.12999355792999268,
   0.023671219125390053,
   0.10874054580926895,
   -0.15785008668899536
  ],
  [
   0.017629418522119522,
   0.3239353597164154,
   0.07736784964799881,
   0.09635572135448456
  ],
  [
   0.0011342738289386034,
   0.0007630669279024005,
   -5.141290239407681e-05,
   -1.613579115655739e-05
  ],
  [
   -0.2683284878730774,
   0.1515849530696869,
   -0.025569170713424683,
   0.186929851770401
  ],
  [
   0.27603036165237427,
   0.48455289006233215,
   -0.05988318845629692,
   0.0020355884917080402
  ],
  [
   0.007118173874914646,
   0.010317848064005375,
   -0.0003416164836380631,
   -0.0017816817853599787
  ],
  [
   0.006370140239596367,
   0.0062868245877325535,
   0.0009476798004470766,
   -6.341540574794635e-05
  ],
  [
   0.015739399939775467,
   0.010524309240281582,
   -0.0017016406636685133,
   0.0005943382857367396
  ],
  [
   0.09089983999729156,
   -0.027279570698738098,
   0.055617477744817734,
   -0.02908034436404705
  ],
  [
   0.006616916507482529,
   0.00703083211556077,
   0.00018270099826622754,
   -0.0005951891653239727
  ],
  [
   -0.003399537643417716,
   -0.005492109339684248,
   0.0008629854419268668,
   -0.00039467838359996676
  ],
  [
   0.11301613599061966,
   0.3281080722808838,
   -0.04046594351530075,
   0.10034764558076859
  ],
  [
   0.0841125100851059,
   0.134268656373024,
   0.06619267165660858,
   -0.008802345022559166
  ],
  [
   0.002112569287419319,
   -0.010569638572633266,
   0.002770621795207262,
   0.009322826750576496
  ],
  [
   0.01423553004860878,
   0.4175536632537842,
   -0.0599990114569664,
   0.03747595474123955
  ],
  [
   0.2239038497209549,
   0.2190369814634323,
   -0.06402841210365295,
   0.054321274161338806
  ],
  [
   -0.06054040417075157,
   0.09318887442350388,
   0.0626768246293068,
   -0.004030370153486729
  ],
  [
   0.17164203524589539,
   -0.33218780159950256,
   0.05399630591273308,
   -0.22397494316101074
  ],
  [
   -0.0005417032516561449,
   -0.0019684156868606806,
   -9.701731869427022e-06,
   -0.0004226626770105213
  ],
  [
   -0.1937541514635086,
   0.20553424954414368,
   0.059441711753606796,
   0.10505601018667221
  ],
  [
   0.015248114243149757,
   0.07677093893289566,
   0.08435946702957153,
   -0.1751335710287094
  ],
  [
   -0.0039153192192316055,
   -0.003112614620476961,
   0.00031710186158306897,
   -0.001131002907641232
  ],
  [
   0.00026011248701252043,
   0.00023847550619393587,
   4.357373472885229e-05,
   -4.539237852441147e-05
  ],
  [
   0.35050109028816223,
   -0.11366265267133713,
   0.038999058306217194,
   -0.18969038128852844
  ],
  [
   0.007836401462554932,
   0.07198527455329895,
   0.050489794462919235,
   -0.3215130865573883
  ],
  [
   0.0111084608361125,
   0.00855785422027111,
   0.0007843194180168211,
   -0.0009835889795795083
  ],
  [
   0.028253769502043724,
   0.019350774586200714,
   -0.002603943459689617,
   -0.0019934147130697966
  ],
  [
   -0.004335266072303057,
   0.0030399819370359182,
   -0.0006147921085357666,
   -0.0003532501286827028
  ],
  [
   -0.043088000267744064,
   0.09292935580015182,
   0.07175789773464203,
   -0.07843749970197678
  ],
  [
   0.0023572456557303667,
   0.001540371566079557,
   -0.0011824284447357059,
   -0.0015930641675367951
  ],
  [
   0.02130512334406376,
   -0.00782443955540657,
   0.0011162332957610488,
   3.724391888226819e-07
  ],
  [
   0.0622214749455452,
   0.6902171969413757,
   -0.07332081347703934,
   0.17888964712619781
  ],
  [
   -0.3078928291797638,
   0.27997347712516785,
   0.02025635726749897,
   0.02099032513797283
  ],
  [
   0.11943161487579346,
   0.188069686293602,
   -0.05603666976094246,
   0.09766543656587601
  ],
  [
   -0.030461430549621582,
   -0.04853617772459984,
   -0.06911575794219971,
   0.13322541117668152
  ],
  [
   0.0019931052811443806,
   0.0013852269621565938,
   -0.0003526090004015714,
   -0.00014011813618708402
  ],
  [
   0.12286989390850067,
   0.06159323826432228,
   -0.01903453655540943,
   -0.11487958580255508
  ],
  [
   0.5225066542625427,
   -0.13499599695205688,
   -0.03907818719744682,
   -0.022528603672981262
  ],
  [
   -0.07883632183074951,
   0.07399927079677582,
   -0.08047838509082794,
   0.1616658866405487
  ],
  [
   0.005395778454840183,
   0.005511200055480003,
   -0.00036854553036391735,
   0.0003240259538870305
  ],
  [
   0.1606173813343048,
   0.10718336701393127,
   0.047033458948135376,
   -0.08444780111312866
  ],
  [
   0.30005547404289246,
   0.10074134916067123,
   -0.19552664458751678,
   -0.020754313096404076
  ],
  [
   -0.011263699270784855,
   0.02213609591126442,
   -0.0019145829137414694,
   -0.011323271319270134
  ],
  [
   0.5257910490036011,
   -0.10587900131940842,
   -0.018450245261192322,
   -0.03654422238469124
  ],
  [
   -0.0048734513111412525,
   0.002348477253690362,
   0.0007601891993544996,
   -0.0012826350284740329
  ],
  [
   0.17536334693431854,
   0.2498573213815689,
   -0.03305509686470032,
   0.06508205831050873
  ],
  [
   0.2384675294160843,
   -0.04383130371570587,
   0.016052819788455963,
   0.03416888043284416
  ],
  [
   -0.0018024737946689129,
   -0.005449856631457806,
   0.0022258604876697063,
   -0.0024957992136478424
  ],
  [
   0.0008722116472199559,
   0.006662886589765549,
   -0.0006986148655414581,
   1.685464485490229e-05
  ],
  [
   0.024657709524035454,
   0.01862059161067009,
   0.0019768637139350176,
   0.000797842163592577
  ],
  [
   0.02006387896835804,
   0.014255011454224586,
   -0.00195551966316998,
   -0.00038240020512603223
  ],
  [
   -0.06510504335165024,
   0.1565394103527069,
   0.01727611944079399,
   0.17816603183746338
  ],
  [
   0.32359376549720764,
   -0.17428939044475555,
   -0.10229627788066864,
   -0.007388899102807045
  ],
  [
   0.011455000378191471,
   0.008788933046162128,
   0.0013289243215695024,
   -0.0003063257900066674
  ],
  [
   -0.11953602731227875,
   0.1436372995376587,
   0.03236520662903786,
   -0.005059629213064909
  ],
  [
   0.0035316436551511288,
   0.003085523610934615,
   -0.00039548685890622437,
   -6.413019582396373e-05
  ],
  [
   0.008029992692172527,
   0.035947348922491074,
   0.11289392411708832,
   -0.08521711081266403
  ],
  [
   -0.0005379015929065645,
   -0.0006595373852178454,
   -2.0149722331552766e-05,
   -0.00011699494643835351
  ],
  [
   0.011698564514517784,
   0.0035281674936413765,
   -0.00041393961873836815,
   -0.001465002540498972
  ],
  [
   0.4960968494415283,
   0.05258965119719505,
   -0.14324770867824554,
   -0.02073633298277855
  ],
  [
   0.14331012964248657,
   0.07804334163665771,
   -0.0005815656622871757,
   0.007899786345660686
  ],
  [
   -0.33588987588882446,
   0.015724629163742065,
   0.015172123908996582,
   -0.0010565436678007245
  ],
  [
   0.11882572621107101,
   0.6254329085350037,
   -0.0019557673949748278,
   0.0007711545331403613
  ],
  [
   -0.12088090181350708,
   -0.24733003973960876,
   0.06045053154230118,
   -0.11035820841789246
  ],
  [
   0.024155735969543457,
   0.0191328264772892,
   -0.0017097372328862548,
   -0.00165536068379879
  ],
  [
   0.0026205244939774275,
   0.00439465744420886,
   0.0006542520713992417,
   0.00034821941517293453
  ],
  [
   0.19218510389328003,
   0.48356303572654724,
   -0.07648035883903503,
   0.04823987931013107
  ],
  [
   0.06489905714988708,
   0.3440544903278351,
   -0.08097588270902634,
   0.2604762315750122
  ],
  [
   0.09297530353069305,
   0.3982625901699066,
   0.029665108770132065,
   0.20854057371616364
  ],
  [
   0.26666635274887085,
   0.007091955281794071,
   -0.028738785535097122,
   -0.10235823690891266
  ],
  [
   0.08902420848608017,
   -0.3141477108001709,
   0.008845478296279907,
   -0.006569873075932264
  ],
  [
   0.012583822011947632,
   0.010298806242644787,
   -0.0009213584125973284,
   -0.0013472090940922499
  ],
  [
   0.00013440908514894545,
   0.002596347127109766,
   -0.0003300425596535206,
   -0.0001256100949831307
  ],
  [
   0.020134104415774345,
   0.016208745539188385,
   -0.0017302104970440269,
   -0.002940333681181073
  ],
  [
   0.15401935577392578,
   0.10068033635616302,
   0.026653306558728218,
   0.02678523026406765
  ],
  [
   0.005790315568447113,
   0.0058343177661299706,
   -0.0007222203421406448,
   -0.00027069562929682434
  ],
  [
   0.004701853264123201,
   0.003594453213736415,
   0.00011355861352058128,
   0.00020790564303752035
  ],
  [
   0.004687170498073101,
   0.003880710108205676,
   -0.0007662272546440363,
   -0.0007345231133513153
  ],
  [
   0.1735800951719284,
   -0.21870310604572296,
   0.011266915127635002,
   -0.1906779259443283
  ],
  [
   0.006706346292048693,
   0.005020358599722385,
   0.0005453980411402881,
   -8.714331488590688e-05
  ],
  [
   0.07631896436214447,
   -0.16666848957538605,
   0.11480510979890823,
   -0.06214608624577522
  ],
  [
   0.0027893579099327326,
   0.0018930207006633282,
   -0.00018143920169677585,
   -0.0003574411093723029
  ],
  [
   0.018672429025173187,
   0.01711919903755188,
   0.0009326214785687625,
   0.00014312764687929302
  ],
  [
   0.009340360760688782,
   0.010207559913396835,
   -0.0005308283725753427,
   -0.0018346762517467141
  ],
  [
   -0.08739899098873138,
   -0.024178747087717056,
   0.0923788845539093,
   -0.1894826591014862
  ],
  [
   0.35704925656318665,
   0.4569627642631531,
   -0.08347940444946289,
   0.024149609729647636
  ],
  [
   0.23556922376155853,
   0.22269722819328308,
   0.0005341687938198447,
   -0.0019203475676476955
  ],
  [
   0.2734662890434265,
   0.13086147606372833,
   0.009024030528962612,
   -0.13800668716430664
  ],
  [
   -0.045537739992141724,
   -0.31503379344940186,
   0.03297152742743492,
   -0.12123411893844604
  ],
  [
   0.186646968126297,
   -0.13521434366703033,
   -0.011711888015270233,
   0.02508007176220417
  ],
  [
   0.017080171033740044,
   0.3977380394935608,
   -0.03201904147863388,
   0.14888685941696167
  ],
  [
   0.23950524628162384,
   0.10242224484682083,
   -0.05663856863975525,
   0.07426491379737854
  ],
  [
   0.2839632034301758,
   0.06393879652023315,
   0.008716737851500511,
   0.03767210990190506
  ],
  [
   0.008442842401564121,
   0.007833466865122318,
   -3.8928079447941855e-05,
   0.001467383000999689
  ],
  [
   -0.14360706508159637,
   0.47668370604515076,
   -0.032379455864429474,
   0.07300147414207458
  ],
  [
   0.024419177323579788,
   0.0021944460459053516,
   -0.0003395217936486006,
   0.0014009014703333378
  ],
  [
   0.2818383276462555,
   -0.06809581816196442,
   -0.06357840448617935,
   0.11408044397830963
  ],
  [
   0.005352087784558535,
   0.0062291803769767284,
   -0.00015821111446712166,
   -0.0021414270158857107
  ],
  [
   0.38774949312210083,
   -0.014940997585654259,
   -0.08617839962244034,
   0.045544933527708054
  ],
  [
   0.0032058865763247013,
   0.001657542074099183,
   0.0008962125284597278,
   -0.0003580930642783642
  ],
  [
   0.006134619005024433,
   0.0034783072769641876,
   0.00033612738479860127,
   0.0010091253789141774
  ],
  [
   0.05363833159208298,
   0.10581003129482269,
   0.10606039315462112,
   -0.1493649184703827
  ],
  [
   0.0031779573764652014,
   0.000810657162219286,
   0.0004872043209616095,
   -0.0003540973993949592
  ],
  [
   -0.20759010314941406,
   0.3913705348968506,
   -0.009461038745939732,
   0.051246944814920425
  ],
  [
   0.0010002495255321264,
   0.0009165056981146336,
   2.2053491193219088e-05,
   -4.1505860281176865e-05
  ],
  [
   -0.6048659682273865,
   0.09777682274580002,
   0.011781861074268818,
   0.0020833523012697697
  ],
  [
   0.16220439970493317,
   0.6254412531852722,
   -0.045040059834718704,
   -0.01906699687242508
  ],
  [
   0.3046618700027466,
   0.4161829650402069,
   0.010087113827466965,
   -0.07467012107372284
  ],
  [
   -0.1980396956205368,
   0.06473907083272934,
   0.045977815985679626,
   0.059580981731414795
  ],
  [
   0.030514970421791077,
   -0.008336057886481285,
   0.001371215214021504,
   0.0036612083204090595
  ],
  [
   0.3278807997703552,
   0.24279922246932983,
   0.018750837072730064,
   -0.07317778468132019
  ],
  [
   -0.06924467533826828,
   0.18546468019485474,
   0.027044285088777542,
   -0.0028284729924052954
  ],
  [
   0.0039353687316179276,
   -0.0015449030324816704,
   -0.0007315874681808054,
   0.0001261435099877417
  ],
  [
   0.0047829896211624146,
   -0.0025071841664612293,
   -0.014521459117531776,
   -0.01280298363417387
  ],
  [
   -0.12844854593276978,
   0.32849451899528503,
   -0.02558574639260769,
   0.15096576511859894
  ],
  [
   0.013235430233180523,
   0.007930243387818336,
   0.001182163250632584,
   0.0009752381592988968
  ],
  [
   0.09486736357212067,
   0.29081687331199646,
   -0.15518216788768768,
   0.05510438233613968
  ],
  [
   0.258108526468277,
   -0.1488710343837738,
   0.0015130727551877499,
   0.06485803425312042
  ],
  [
   0.03391280397772789,
   0.01224646344780922,
   -0.00037520338082686067,
   0.0010055250022560358
  ],
  [
   -0.09664355963468552,
   0.2638798952102661,
   -0.0033930493518710136,
   0.017692798748612404
  ],
  [
   -0.0296818558126688,
   0.27196353673934937,
   0.03979005664587021,
   -0.11008309572935104
  ],
  [
   0.19996127486228943,
   0.4049637019634247,
   -0.1679360419511795,
   -0.09464806318283081
  ],
  [
   0.03426907956600189,
   -0.35909438133239746,
   0.023898690938949585,
   -0.1916618049144745
  ],
  [
   0.0003799863625317812,
   -5.637076174025424e-05,
   2.082307037198916e-05,
   -7.901575736468658e-05
  ],
  [
   0.0022986975964158773,
   0.004464998375624418,
   0.0004224620934110135,
   0.00035359838511794806
  ],
  [
   -0.02625376358628273,
   -0.2753038704395294,
   -0.00827332679182291,
   -0.11864028126001358
  ],
  [
   0.2636224627494812,
   0.36709052324295044,
   0.19675523042678833,
   0.0022124641109257936
  ],
  [
   -0.020655184984207153,
   -0.021051358431577682,
   0.10418690741062164,
   -0.01045774295926094
  ],
  [
   0.015723828226327896,
   0.01335489097982645,
   0.0004048350965604186,
   -0.0007685417658649385
  ],
  [
   0.026144685223698616,
   -0.049785930663347244,
   0.07329776883125305,
   0.058636508882045746
  ],
  [
   0.29482215642929077,
   -0.1686723530292511,
   0.15877236425876617,
   -0.046099379658699036
  ],
  [
   -0.07516573369503021,
   0.06126849353313446,
   0.19091488420963287,
   -0.18160074949264526
  ],
  [
   -0.10271831601858139,
   0.32365018129348755,
   -0.037498150020837784,
   0.1375684291124344
  ],
  [
   -0.17734713852405548,
   -0.08955519646406174,
   0.0821312889456749,
   0.07132033258676529
  ],
  [
   0.15562878549098969,
   0.019635740667581558,
   0.016891246661543846,
   -0.03234820440411568
  ],
  [
   0.12857656180858612,
   0.0314110703766346,
   -0.009956042282283306,
   -0.009273864328861237
  ],
  [
   -0.0035429701674729586,
   -0.0018919961294159293,
   -0.00023314311692956835,
   1.7310761904809624e-05
  ],
  [
   -0.006953774951398373,
   0.01688498631119728,
   0.1163691058754921,
   0.004040301311761141
  ],
  [
   0.12550880014896393,
   -0.07423494011163712,
   0.013446781784296036,
   -0.1816985309123993
  ],
  [
   0.0037714391946792603,
   0.002335046883672476,
   0.0007261026185005903,
   -0.00023542725830338895
  ],
  [
   0.46909794211387634,
   0.0075941686518490314,
   -0.030463699251413345,
   -0.0009481529705226421
  ],
  [
   0.3820600211620331,
   0.27915090322494507,
   0.13767462968826294,
   -0.035168956965208054
  ],
  [
   0.44457367062568665,
   0.05385913699865341,
   0.0016569701256230474,
   0.0006909193471074104
  ],
  [
   0.25784116983413696,
   0.4664740562438965,
   -0.10079629719257355,
   0.1011771485209465
  ],
  [
   -0.07736000418663025,
   -0.026401245966553688,
   -0.02915359102189541,
   0.05584122613072395
  ],
  [
   0.0043706088326871395,
   0.0031499937176704407,
   -5.981591311865486e-05,
   -0.0003596130118239671
  ],
  [
   -0.0002149206557078287,
   -0.0019198983209207654,
   0.00036956495023332536,
   -0.0007208157912828028
  ],
  [
   0.1562538594007492,
   0.0122392438352108,
   -0.033783841878175735,
   -0.11046497523784637
  ],
  [
   0.40651431679725647,
   0.10762107372283936,
   0.0034161906223744154,
   -0.0005432679899968207
  ],
  [
   0.09551668167114258,
   0.14038307964801788,
   0.017659813165664673,
   -0.1360970288515091
  ],
  [
   0.003702467540279031,
   -0.0001321671879850328,
   -0.000862684624735266,
   -0.0007816067081876099
  ],
  [
   0.06125405430793762,
   -0.035398293286561966,
   0.13622212409973145,
   -0.1995519995689392
  ],
  [
   0.14579856395721436,
   0.5499401092529297,
   -0.10898175090551376,
   -0.0036287219263613224
  ],
  [
   -0.22296716272830963,
   0.28757792711257935,
   0.008502090349793434,
   0.085206039249897
  ],
  [
   -0.1799466609954834,
   -0.17357729375362396,
   0.0143626369535923,
   -0.05599980428814888
  ],
  [
   -5.8697165513876826e-05,
   0.005368977785110474,
   -0.0010123213287442923,
   0.00017059325182344764
  ],
  [
   0.04985247924923897,
   -0.24551928043365479,
   0.06108414754271507,
   -0.10431132465600967
  ],
  [
   0.32547566294670105,
   -0.3261607885360718,
   0.06567288935184479,
   -0.058921266347169876
  ],
  [
   0.0011994080850854516,
   0.0012473802780732512,
   0.00043360755080357194,
   -0.0004422490019351244
  ],
  [
   0.11607499420642853,
   0.0024088085629045963,
   0.05961740016937256,
   -0.02263566665351391
  ],
  [
   0.007102509029209614,
   0.004335872363299131,
   0.000537557527422905,
   -0.0005165045149624348
  ],
  [
   -0.17331896722316742,
   0.020587515085935593,
   0.005299986340105534,
   -0.006681825965642929
  ],
  [
   0.02047804556787014,
   0.01953350007534027,
   -0.0028544676024466753,
   -0.0010709620546549559
  ],
  [
   0.3070015013217926,
   -0.05715564265847206,
   -0.08772288262844086,
   0.0432620495557785
  ],
  [
   0.0673443078994751,
   0.07894638925790787,
   -0.025234658271074295,
   0.04589708894491196
  ],
  [
   0.07238277047872543,
   -0.15397053956985474,
   -0.0037996098399162292,
   0.035247258841991425
  ],
  [
   0.00911957211792469,
   -0.07171697169542313,
   0.0657779648900032,
   -0.1905704140663147
  ],
  [
   -0.0853353887796402,
   0.030698755756020546,
   -0.018987951800227165,
   0.10683596134185791
  ],
  [
   0.005057991947978735,
   0.0007762227323837578,
   -0.0004124784900341183,
   -7.563283725176007e-05
  ],
  [
   0.28273797035217285,
   0.167533740401268,
   -0.05978160351514816,
   0.0912238284945488
  ],
  [
   -0.04382333531975746,
   0.2524282932281494,
   0.0270993635058403,
   -0.05774911120533943
  ],
  [
   -0.007687899749726057,
   -0.0016704919980838895,
   0.009478632360696793,
   0.006562512367963791
  ],
  [
   -0.003565385239198804,
   0.0005402991082519293,
   0.00016327720368281007,
   0.0005265161744318902
  ],
  [
   0.12989887595176697,
   0.3045969605445862,
   -0.12109296768903732,
   0.11717686802148819
  ],
  [
   -0.5202593207359314,
   0.1036532074213028,
   0.031276073306798935,
   0.00827031396329403
  ],
  [
   -0.06484955549240112,
   0.004191522020846605,
   0.0686391070485115,
   -0.11336616426706314
  ],
  [
   0.1824939101934433,
   0.2971603572368622,
   -0.025762127712368965,
   0.0033074552193284035
  ],
  [
   0.0006050856900401413,
   -0.006215132772922516,
   -0.0006992196431383491,
   0.0006121485494077206
  ],
  [
   0.01174015924334526,
   0.008156482130289078,
   3.91315052183927e-06,
   -0.0012589008547365665
  ],
  [
   -0.0016174184856936336,
   -0.012134312652051449,
   -0.0005633126711472869,
   0.0005502779386006296
  ],
  [
   -0.03903152421116829,
   0.4723249673843384,
   0.0453813374042511,
   -0.0846671611070633
  ],
  [
   -0.01344294287264347,
   0.4027327299118042,
   -0.00799070205539465,
   0.015177427791059017
  ],
  [
   -0.0011949671898037195,
   0.0016494871815666556,
   -1.8160089894081466e-05,
   -0.0010752261150628328
  ],
  [
   0.3867887854576111,
   0.1709015667438507,
   0.0008428972214460373,
   7.440627086907625e-05
  ],
  [
   0.29361996054649353,
   0.048564646393060684,
   -0.04935181885957718,
   -0.10507925599813461
  ],
  [
   -0.10507157444953918,
   0.383004367351532,
   -0.0023839054629206657,
   0.055686820298433304
  ],
  [
   -0.11954786628484726,
   -0.039645642042160034,
   0.08984246850013733,
   -0.020718926563858986
  ],
  [
   0.10674593597650528,
   0.26434028148651123,
   -0.03069537691771984,
   0.10469919443130493
  ],
  [
   0.2250242531299591,
   0.023739749565720558,
   -0.05937692150473595,
   0.01839568093419075
  ],
  [
   0.45814961194992065,
   0.3820267617702484,
   -0.12859989702701569,
   -0.11848863959312439
  ],
  [
   0.12100787460803986,
   0.4003089964389801,
   -0.05175761878490448,
   0.17457371950149536
  ],
  [
   0.2538115084171295,
   0.08419821411371231,
   -0.0669327974319458,
   0.09946554899215698
  ],
  [
   0.07720530778169632,
   0.063730388879776,
   0.0031467811204493046,
   -0.028892789036035538
  ],
  [
   0.004843777511268854,
   0.002314219018444419,
   -0.00030205477378331125,
   0.0003557541058398783
  ],
  [
   0.1774287223815918,
   0.2658597528934479,
   0.07548066228628159,
   0.02884335070848465
  ],
  [
   0.31539687514305115,
   0.1088646873831749,
   0.03260023146867752,
   -0.06223057582974434
  ],
  [
   -0.018554896116256714,
   0.36931708455085754,
   -0.018226705491542816,
   0.00904401671141386
  ],
  [
   0.12547807395458221,
   -0.38385137915611267,
   0.03340950608253479,
   -0.24580544233322144
  ],
  [
   -0.03153260052204132,
   -0.35828453302383423,
   0.02113514579832554,
   -0.15215164422988892
  ],
  [
   0.008681722916662693,
   0.0021157641895115376,
   -0.00039454165380448103,
   0.0004048579139634967
  ],
  [
   0.0349527932703495,
   -0.19804365932941437,
   -0.0859333872795105,
   0.11954238265752792
  ],
  [
   0.22932395339012146,
   -0.07136279344558716,
   -0.00014884292613714933,
   0.0007871021516621113
  ],
  [
   -0.005324425175786018,
   0.0061368513852357864,
   -0.0007132371538318694,
   0.0008818712085485458
  ],
  [
   -0.007106453645974398,
   0.027798311784863472,
   -0.0020762570202350616,
   0.0003229045250918716
  ],
  [
   0.20362088084220886,
   0.41919493675231934,
   -0.010760866105556488,
   -0.0001339032460236922
  ],
  [
   -0.0001416114391759038,
   -0.004300940781831741,
   0.0006512996042147279,
   -0.00017421276425011456
  ],
  [
   0.3261840045452118,
   0.0426013357937336,
   -0.08443401008844376,
   0.046318620443344116
  ],
  [
   0.22657619416713715,
   -0.02577591873705387,
   0.003251406131312251,
   0.00010751764057204127
  ],
  [
   0.14074768126010895,
   -0.1407744437456131,
   0.020875459536910057,
   -0.18120215833187103
  ],
  [
   6.984804349485785e-05,
   0.005503461230546236,
   0.0005474438657984138,
   0.000446981837740168
  ],
  [
   0.34329885244369507,
   0.07296577841043472,
   -0.08081729710102081,
   0.07746562361717224
  ],
  [
   0.0099170608446002,
   0.011528543196618557,
   -0.0021614674478769302,
   -0.0009241652442142367
  ],
  [
   0.0032539034727960825,
   -0.00479119224473834,
   0.0002816934138536453,
   0.0006284618284553289
  ],
  [
   0.28737154603004456,
   0.2269672155380249,
   0.005775640718638897,
   0.0001958723005373031
  ],
  [
   0.3903445899486542,
   0.21858084201812744,
   0.02549518644809723,
   -0.06916338950395584
  ],
  [
   0.04972705990076065,
   0.035596683621406555,
   -0.12447208166122437,
   0.18632005155086517
  ],
  [
   0.25727856159210205,
   -0.3197862505912781,
   0.000567335810046643,
   -0.02337634190917015
  ],
  [
   -0.0037827081978321075,
   0.0021966358181089163,
   -0.0007650181069038808,
   -0.000712944776751101
  ],
  [
   0.3727574050426483,
   -0.15691739320755005,
   -0.05931626632809639,
   -0.1612238734960556
  ],
  [
   -0.0016973634483292699,
   -0.007503600791096687,
   0.00035922808456234634,
   0.0008291936828754842
  ],
  [
   0.0060790302231907845,
   0.005245682317763567,
   -0.0018648040713742375,
   0.000867960974574089
  ],
  [
   0.07892179489135742,
   -0.1281592696905136,
   0.1534949392080307,
   -0.022858306765556335
  ],
  [
   0.0055576348677277565,
   0.013659884221851826,
   0.0017546832095831633,
   -0.0018510663649067283
  ],
  [
   0.24044962227344513,
   -0.1779581606388092,
   0.0021712766028940678,
   0.008561630733311176
  ],
  [
   0.020974278450012207,
   0.442747563123703,
   -0.09340859204530716,
   -0.0773480236530304
  ],
  [
   -0.0007441058987751603,
   -0.0003384199517313391,
   -0.0001641057460801676,
   1.3281619430927094e-06
  ],
  [
   0.016775840893387794,
   0.01454222109168768,
   0.0019171647727489471,
   -0.0013034638250246644
  ],
  [
   0.013332442380487919,
   -0.0027060601860284805,
   3.160375854349695e-05,
   -0.002696681534871459
  ],
  [
   -0.009626592509448528,
   0.004138794727623463,
   0.0831083357334137,
   0.054830558598041534
  ],
  [
   0.07098845392465591,
   0.422457218170166,
   0.025512903928756714,
   0.02122579514980316
  ],
  [
   -0.1786612868309021,
   0.11757086962461472,
   0.11979716271162033,
   -0.13070207834243774
  ],
  [
   0.36855548620224,
   0.23502647876739502,
   0.003218636615201831,
   0.00031878892332315445
  ],
  [
   0.004954323638230562,
   0.0014731843257322907,
   0.0007058525807224214,
   -0.0005141425644978881
  ],
  [
   0.06589290499687195,
   0.09378518909215927,
   0.12349745631217957,
   -0.26402685046195984
  ],
  [
   0.27892690896987915,
   -0.18335729837417603,
   0.04742146283388138,
   -0.2524075508117676
  ],
  [
   0.005833243951201439,
   0.005339012946933508,
   -0.0009843369480222464,
   0.00017475330969318748
  ],
  [
   0.005536371376365423,
   -0.008818377740681171,
   -0.0005625211633741856,
   -0.00010662334534572437
  ],
  [
   0.1815662682056427,
   -0.39948779344558716,
   -0.01020532101392746,
   -0.08305284380912781
  ],
  [
   -0.001328326528891921,
   0.0011684001656249166,
   -0.0019712394569069147,
   0.0004274609964340925
  ],
  [
   0.0021072786767035723,
   -0.012424622662365437,
   -0.00033635241561569273,
   -0.00034732502535916865
  ],
  [
   -0.023307230323553085,
   0.29946303367614746,
   -9.637886250857264e-05,
   0.05089670047163963
  ],
  [
   -0.053298644721508026,
   0.41410669684410095,
   0.03428494557738304,
   0.23163826763629913
  ],
  [
   0.00559585727751255,
   0.004906758666038513,
   0.0008032927289605141,
   -0.0004140196251682937
  ]
 ],
 "pi.0.bias": [
  -0.9472954273223877,
  -0.8071443438529968,
  -5.128653049468994,
  -0.038220811635255814,
  -0.9171830415725708,
  -5.893769264221191,
  -0.5551449060440063,
  -0.8841551542282104,
  -0.6177486181259155,
  -0.63079434633255,
  -0.8019066452980042,
  -0.4349575340747833,
  -1.1781975030899048,
  -0.2863592505455017,
  -0.9104394912719727,
  -0.9950926303863525,
  -3.224243402481079,
  -0.23744353652000427,
  -0.9903950691223145,
  -0.19489030539989471,
  -0.49610286951065063,
  -0.9678650498390198,
  -0.7105439901351929,
  -0.3530600070953369,
  0.2732701897621155,
  -0.007419080473482609,
  -0.07981722801923752,
  -0.26297011971473694,
  -1.2885892391204834,
  -0.026030130684375763,
  -1.3303229808807373,
  -0.3590790927410126,
  -0.24261048436164856,
  -0.36644235253334045,
  -3.5549705028533936,
  0.043464865535497665,
  -0.34547296166419983,
  -1.0919936895370483,
  -0.22846238315105438,
  -0.361897349357605,
  0.2801494002342224,
  -0.6502309441566467,
  -0.5867732763290405,
  -0.9000212550163269,
  -0.897591233253479,
  -0.6875980496406555,
  -1.1499356031417847,
  -1.3695241212844849,
  -0.3412211835384369,
  -0.6945616006851196,
  0.05462701991200447,
  -0.6208449602127075,
  -0.8765077590942383,
  -0.6582889556884766,
  -1.3215583562850952,
  -0.24335595965385437,
  -0.03562809154391289,
  -0.6951640248298645,
  -0.926767110824585,
  -4.884271144866943,
  -0.792578399181366,
  -0.2257698029279709,
  -1.6659154891967773,
  -1.0137650966644287,
  -0.770771324634552,
  -0.7616927027702332,
  -0.35206344723701477,
  -0.3503977060317993,
  -0.3308336138725281,
  -0.26917770504951477,
  -1.2747540473937988,
  -0.3159634470939636,
  -1.0546635389328003,
  -0.19202232360839844,
  -0.10952304303646088,
  -0.11038139462471008,
  -0.19178614020347595,
  -0.7969332933425903,
  -0.6096347570419312,
  -0.2600072920322418,
  -0.7147628664970398,
  -0.7727404236793518,
  -0.9050357341766357,
  0.29726433753967285,
  -1.2595648765563965,
  -1.1504414081573486,
  -1.1181453466415405,
  -0.4380951225757599,
  -2.0483314990997314,
  -0.4757874310016632,
  -0.45463746786117554,
  -0.6183119416236877,
  -0.46622899174690247,
  -1.0442695617675781,
  -0.5831429362297058,
  -2.199977159500122,
  -0.9978708028793335,
  0.11053808033466339,
  -0.417812317609787,
  -0.3282254636287689,
  -5.407821178436279,
  -2.7416176795959473,
  -0.4989567697048187,
  -0.8733062744140625,
  -1.0548864603042603,
  -0.1940266340970993,
  -0.5064768195152283,
  -0.5064614415168762,
  -1.7864478826522827,
  -0.1325560212135315,
  -0.5490818619728088,
  -0.21758586168289185,
  -0.4075872302055359,
  0.1577983796596527,
  -0.7622577548027039,
  -0.532507061958313,
  -0.6848152279853821,
  -0.2966170608997345,
  0.29977354407310486,
  -0.96210777759552,
  -0.8459166288375854,
  0.08254516124725342,
  -4.29218864440918,
  -1.556136965751648,
  -0.7595916390419006,
  -0.7618421912193298,
  0.3267539143562317,
  -0.2285199761390686,
  -0.6667391657829285,
  -0.41404327750205994,
  -0.16270501911640167,
  -1.032455563545227,
  -1.8772753477096558,
  -0.6241921782493591,
  -0.9290300011634827,
  -0.2303566336631775,
  0.003675544634461403,
  -1.0259250402450562,
  0.17075413465499878,
  -0.320744127035141,
  -0.2928144335746765,
  -0.7692455053329468,
  -0.4514353573322296,
  -0.4559285044670105,
  -0.4317744970321655,
  -0.08027250319719315,
  -1.7458235025405884,
  -0.8943076729774475,
  -0.3324991464614868,
  -0.9797315001487732,
  -0.4791932702064514,
  -0.7360122799873352,
  -0.1406799852848053,
  -0.23817741870880127,
  -0.8252135515213013,
  -0.8958719968795776,
  -0.7661184072494507,
  -0.5303751826286316,
  -0.18950849771499634,
  -0.08497505635023117,
  -0.4003516435623169,
  0.057775888592004776,
  -1.097119688987732,
  -0.5976136922836304,
  -1.1197516918182373,
  -0.5389719009399414,
  -0.7099021673202515,
  -1.2331295013427734,
  -0.8322077393531799,
  0.01477684173732996,
  -0.6053847074508667,
  -0.23166115581989288,
  -0.6180881261825562,
  -1.1765241622924805,
  -0.899964451789856,
  -0.4497629404067993,
  -0.9768221378326416,
  -0.9398989677429199,
  -0.6614224910736084,
  -0.05614551529288292,
  0.23954354226589203,
  -2.9845900535583496,
  -0.8987326622009277,
  -2.0705199241638184,
  -0.5228245258331299,
  -0.009775434620678425,
  -1.4640872478485107,
  -2.1604809761047363,
  -1.334307074546814,
  -0.10447311401367188,
  -0.5238955616950989,
  -6.067002773284912,
  -0.2111930251121521,
  -0.8403856158256531,
  0.029623009264469147,
  0.1968310922384262,
  -0.5192276835441589,
  -5.632875442504883,
  -0.4883118271827698,
  -2.637603759765625,
  -0.23200419545173645,
  -1.1625367403030396,
  -0.6729744672775269,
  0.018402662128210068,
  -2.7155144214630127,
  -0.6942341923713684,
  -2.0511510372161865,
  -1.6313660144805908,
  -1.1094262599945068,
  -0.29294291138648987,
  -1.647475004196167,
  -0.7568513751029968,
  -0.33537885546684265,
  0.02402302995324135,
  -0.27723297476768494,
  -1.2776966094970703,
  -0.30069413781166077,
  -0.795133650302887,
  0.15467411279678345,
  -0.8608831763267517,
  -0.706045925617218,
  -1.7750000953674316,
  -0.47441229224205017,
  -0.514792799949646,
  -0.9336968064308167,
  -0.3114877939224243,
  -0.18197248876094818,
  -0.13825079798698425,
  -0.9041659832000732,
  -0.27462780475616455,
  -1.6703224182128906,
  -0.726681113243103,
  -0.5289424657821655,
  -0.3650496304035187,
  -0.3224702477455139,
  -0.7383677363395691,
  -0.46038395166397095,
  -0.8362715840339661,
  -0.2130831480026245,
  -1.5611803531646729,
  -1.1273001432418823,
  -0.7645211219787598,
  -0.21711581945419312,
  -1.135192632675171,
  -0.8823893666267395,
  -0.33415061235427856,
  -0.7590000033378601,
  -1.0916916131973267,
  -0.3541090786457062,
  -0.5423189997673035,
  -0.9630321264266968,
  -0.3341088593006134,
  -2.1421854496002197,
  -0.756805419921875,
  -1.3103867769241333,
  0.09104128926992416,
  -0.49032512307167053,
  -0.6237841248512268,
  -0.8173059821128845,
  -0.4573410153388977,
  -0.22111669182777405,
  -0.08294400572776794,
  0.25220897793769836,
  -0.0597120001912117,
  -0.15348802506923676,
  -0.7074031233787537,
  -2.727200984954834,
  -0.2765054702758789,
  -0.8221645951271057,
  -0.3866364359855652,
  -1.784736156463623,
  -1.2052422761917114,
  -1.267395257949829,
  -0.4598936140537262,
  -0.3292202353477478,
  -2.6143720149993896,
  -0.12395215034484863,
  -0.34753185510635376,
  -0.01637052744626999,
  -0.6127049922943115,
  -0.05227517709136009,
  -0.5136731266975403,
  -0.7897593975067139,
  -1.0337358713150024,
  -4.761967658996582,
  -1.2878164052963257,
  -0.02461053617298603,
  -0.585777997970581,
  -4.825995445251465,
  -0.6478543281555176,
  -0.3522615134716034,
  -0.2418060451745987,
  -2.035830020904541,
  -0.5401045680046082,
  -1.575368046760559,
  -0.7330079674720764,
  -0.4131782650947571,
  -0.19819121062755585,
  -0.10288968682289124,
  -0.39660516381263733,
  0.19865348935127258,
  -0.4486657381057739,
  -0.3194725513458252,
  -0.5580785274505615,
  -0.5211172103881836,
  -0.7515808939933777,
  -1.402314305305481,
  -0.6903436779975891,
  -0.9530922770500183,
  -0.14378876984119415,
  0.21074722707271576,
  -0.5427104830741882,
  -0.7433266639709473,
  -0.44513195753097534,
  -0.24693097174167633,
  -0.5444155931472778,
  -0.30337923765182495,
  -1.1284780502319336,
  -0.23891088366508484,
  -1.829135537147522,
  -0.9323069453239441,
  -1.2537373304367065,
  -0.16512413322925568,
  -0.8778061866760254,
  -0.738357424736023,
  -0.39978864789009094,
  -0.523115873336792,
  -0.443085640668869,
  -0.9225327372550964,
  -0.34609296917915344,
  -0.44312089681625366,
  -0.03275590389966965,
  -0.5675007104873657,
  -0.1595359891653061,
  -0.718288004398346,
  -1.1571260690689087,
  -1.2312970161437988,
  -0.9976598024368286,
  -1.0202300548553467,
  -0.8475077748298645,
  -0.7413667440414429,
  -0.6107972860336304,
  -0.8792372345924377,
  -0.18395963311195374,
  0.1560138612985611,
  0.11679234355688095,
  -0.213189959526062,
  0.33795323967933655,
  0.340943843126297,
  -5.307371139526367,
  -0.5025722980499268,
  -0.3050955832004547,
  -0.5866847038269043,
  -0.844027042388916,
  -0.8295119404792786,
  -0.5200694799423218,
  -0.7505571842193604,
  -0.38872644305229187,
  -0.522699236869812,
  -1.07532799243927,
  -3.5451602935791016,
  -0.2612861096858978,
  -0.6955922245979309,
  0.21267469227313995,
  -0.7345346212387085,
  -0.9790558218955994,
  -0.6462217569351196,
  -0.40278342366218567,
  -1.3301442861557007,
  -0.5779486894607544,
  -0.6240683794021606,
  -0.5165554285049438,
  -0.08118155598640442,
  0.14135824143886566,
  -0.7269917726516724,
  -0.59150630235672,
  -0.7321106195449829,
  -1.1665304899215698,
  -0.79810631275177,
  -1.5586745738983154,
  -1.0507022142410278,
  -1.0459129810333252,
  -0.223050057888031,
  -2.251063346862793,
  -1.6989622116088867,
  -0.007287989836186171,
  0.0317733958363533,
  0.0647178366780281,
  -0.3072871267795563,
  -0.7752867341041565,
  -1.068680763244629,
  -0.8382101058959961,
  -0.7133695483207703,
  -1.086761713027954,
  -0.25839686393737793,
  -1.3935712575912476,
  -1.321179986000061,
  -0.5617133378982544,
  -1.2144603729248047,
  -0.543704092502594
 ],
 "pi.2.weight": [
  [
   0.13207527995109558,
   0.05162036418914795,
   -0.5236915946006775,
   0.06520447134971619,
   0.1106455847620964,
   -0.3048315644264221,
   0.001551264664158225,
   -0.00838654488325119,
   0.006147466134279966,
   -0.003952349536120892,
   0.04038291797041893,
   -0.00026351009728387,
   -0.012700865045189857,
   -0.019263403490185738,
   0.053779102861881256,
   0.0021628467366099358,
   -0.023300595581531525,
   -0.014232003130018711,
   -0.0020113131031394005,
   -0.0001327069621765986,
   -7.425794319715351e-05,
   0.029896091669797897,
   0.006272379774600267,
   -0.04254540055990219,
   -0.0002673747658263892,
   0.04736771062016487,
   0.054505858570337296,
   -0.14964832365512848,
   -0.002630682662129402,
   0.04212703928351402,
   0.001622405368834734,
   -0.013760551810264587,
   -7.873366848798469e-05,
   0.006751335691660643,
   -0.0017844942631199956,
   -0.05766736716032028,
   -0.0018431668868288398,
   0.06677504628896713,
   -0.002923054853454232,
   -0.04122887924313545,
   -0.03701792284846306,
   -0.00621277280151844,
   -0.06379038840532303,
   0.021461941301822662,
   -0.0028446177020668983,
   0.018695712089538574,
   -0.0020730807445943356,
   0.005713310558348894,
   -0.02745145559310913,
   0.015460722148418427,
   0.018397435545921326,
   0.04782067984342575,
   0.09974384307861328,
   -0.024151476100087166,
   -0.010677742771804333,
   0.0008602518355473876,
   0.0625389814376831,
   -0.028095848858356476,
   0.00256128772161901,
   -0.2552850544452667,
   0.026113761588931084,
   -0.000774660031311214,
   -0.003990074619650841,
   0.01019300241023302,
   0.003656718647107482,
   -0.015950355678796768,
   0.04714825749397278,
   0.00951368734240532,
   -0.0012872002553194761,
   -0.001464091707020998,
   -0.02159571461379528,
   -0.03179124370217323,
   -0.19331365823745728,
   0.06855438649654388,
   5.498319660546258e-05,
   -0.0008016887586563826,
   0.0016884065698832273,
   -0.04022129997611046,
   0.05935833230614662,
   -0.0803782120347023,
   -0.05128074437379837,
   0.021001463755965233,
   -0.0036216112785041332,
   -0.09957446902990341,
   0.03210790455341339,
   -0.013773865066468716,
   -0.0021338218357414007,
   0.024179045110940933,
   0.0049373432993888855,
   -0.031750816851854324,
   -0.0005883556441403925,
   0.038431599736213684,
   0.02619803324341774,
   -0.017907407134771347,
   0.003187342779710889,
   -0.009417855180799961,
   0.14164574444293976,
   0.04030339792370796,
   0.0005336449830792844,
   0.11597315222024918,
   -0.9877335429191589,
   0.004489375278353691,
   0.006544329691678286,
   0.0013155072228983045,
   -0.08494745194911957,
   -0.0015868983464315534,
   -0.010441632941365242,
   0.012789277359843254,
   -0.002895765006542206,
   9.188127296511084e-05,
   -0.07310812920331955,
   -0.0005857315845787525,
   0.00854357611387968,
   0.0001132203615270555,
   0.0012575784930959344,
   0.008774603717029095,
   -0.007661902345716953,
   -0.0005149682983756065,
   -0.012828360311686993,
   0.002028236398473382,
   0.06792052835226059,
   -0.025996271520853043,
   -0.0295505840331316,
   -0.08298752456903458,
   0.002271199831739068,
   -0.0014171631773933768,
   -0.008048322051763535,
   0.10940999537706375,
   -0.003106498159468174,
   0.008974291384220123,
   1.1813430319307372e-05,
   0.0019820276647806168,
   -0.06496471166610718,
   -0.0009999977191910148,
   0.00035701991873793304,
   0.057075321674346924,
   0.005703721661120653,
   -0.018060525879263878,
   0.13454395532608032,
   9.245253750123084e-05,
   0.00011312365677440539,
   -0.05880497023463249,
   0.07976100593805313,
   0.04106302186846733,
   0.00037897907895967364,
   0.026705708354711533,
   0.004570250399410725,
   -0.027767721563577652,
   -0.03582390397787094,
   -0.004034523386508226,
   -0.0004125976993236691,
   -0.0018713494064286351,
   -0.018926717340946198,
   0.00022834744595456868,
   0.02920418232679367,
   0.04033762961626053,
   0.02438097819685936,
   0.0010681281564757228,
   -0.005339166149497032,
   0.0002210820821346715,
   0.0349651537835598,
   -0.0818990096449852,
   -0.010897506028413773,
   0.0009837885154411197,
   -0.0009339061798527837,
   -0.0051657333970069885,
   0.0019318872364237905,
   -0.00014467092114500701,
   -0.07808547466993332,
   -0.0007535166805610061,
   0.0032794929575175047,
   -0.019613197073340416,
   0.0001012335269479081,
   0.03824932128190994,
   -0.028937142342329025,
   -0.00027689230046235025,
   -0.0232356209307909,
   -0.03909417986869812,
   -0.0004817783192265779,
   8.687532681506127e-05,
   0.023014124482870102,
   0.011108601465821266,
   -0.003313477383926511,
   0.004118644632399082,
   -0.0016652633203193545,
   0.008559893816709518,
   -0.0029528592713177204,
   -0.007429762743413448,
   0.106121726334095,
   -0.009191123768687248,
   -0.007232689298689365,
   -0.4694615304470062,
   -0.00040335176163353026,
   0.04932961240410805,
   0.0691058561205864,
   -0.030257698148489,
   0.004094187170267105,
   0.4559208154678345,
   0.020311912521719933,
   0.0039651161059737206,
   -0.03994489461183548,
   -0.0022344987373799086,
   -0.028569813817739487,
   0.07411104440689087,
   0.001254849717952311,
   -0.002226833254098892,
   0.029066599905490875,
   -0.007517533376812935,
   -0.028748061507940292,
   0.017518185079097748,
   0.003792996285483241,
   0.05535905435681343,
   0.0015441246796399355,
   -0.03265652060508728,
   -0.0005481620319187641,
   -0.0048865326680243015,
   0.04252774268388748,
   -0.012184780091047287,
   -0.06770789623260498,
   -0.06594719737768173,
   0.02499806508421898,
   0.008646862581372261,
   -0.003076476976275444,
   0.0848785936832428,
   0.11532080918550491,
   0.03392796590924263,
   0.05607553943991661,
   -0.022273926064372063,
   -0.0022756026592105627,
   -0.0005697442684322596,
   0.00027238664915785193,
   0.016197029501199722,
   -0.00013983313692733645,
   0.0004244738956913352,
   -0.0010456935269758105,
   -0.010010814294219017,
   1.676299871178344e-05,
   0.01041326206177473,
   0.0007447059615515172,
   0.005090833641588688,
   -0.007311691530048847,
   -0.010867778211832047,
   0.04236145690083504,
   -0.02433926798403263,
   0.04113880917429924,
   -0.025034606456756592,
   0.27269017696380615,
   -0.2318006306886673,
   0.02174375206232071,
   0.12676019966602325,
   0.0014707061927765608,
   -0.03370284289121628,
   -0.00040816227556206286,
   -0.1453859955072403,
   0.00129443418700248,
   0.023319263011217117,
   -0.0019094060407951474,
   -0.0015078277792781591,
   -0.006920729298144579,
   -0.005872453097254038,
   -0.011367606930434704,
   0.00030876582604832947,
   -0.07701986283063889,
   0.01587015949189663,
   0.01647557131946087,
   0.004320000763982534,
   -0.0056914472952485085,
   0.053121425211429596,
   0.1373271346092224,
   0.0014992138603702188,
   0.012906618416309357,
   -0.027525214478373528,
   -0.005873069632798433,
   0.08405677229166031,
   -0.06488798558712006,
   0.005515997763723135,
   -0.021617909893393517,
   0.07386907935142517,
   -0.01120674703270197,
   -0.02709333784878254,
   0.0002974086964968592,
   0.0005728541291318834,
   0.004319007974117994,
   -0.014097223058342934,
   -0.23587587475776672,
   0.021952541545033455,
   0.009344502352178097,
   0.006323000881820917,
   -0.1394987851381302,
   0.060410305857658386,
   -0.005294085945934057,
   0.059675365686416626,
   -0.40485066175460815,
   0.0011096292873844504,
   -0.020816218107938766,
   0.017063071951270103,
   0.00298147089779377,
   -0.04512612521648407,
   0.014135221019387245,
   -0.19997532665729523,
   -0.007205540779978037,
   -0.022761816158890724,
   0.0001892050204332918,
   -0.0018666204996407032,
   -0.00048495869850739837,
   -0.24036462604999542,
   0.050601303577423096,
   -0.00048026663716882467,
   -0.043574776500463486,
   -0.06813202798366547,
   0.026901455596089363,
   0.005024983547627926,
   -0.0008930007461458445,
   0.032401192933321,
   0.015495514497160912,
   -5.748368857894093e-05,
   0.0526263453066349,
   0.013370933011174202,
   -0.036567945033311844,
   -0.001558380899950862,
   0.18246157467365265,
   -0.05122645944356918,
   -0.07115846872329712,
   0.014477090910077095,
   -0.04819588363170624,
   0.00043446404743008316,
   0.010124191641807556,
   0.025269504636526108,
   -0.0012713689357042313,
   0.0017694022972136736,
   0.020697984844446182,
   0.017956282943487167,
   0.0017238215077668428,
   -0.012692324817180634,
   0.006437099073082209,
   0.005071209743618965,
   -0.0010474181035533547,
   0.09489667415618896,
   -0.11913113296031952,
   -0.026144668459892273,
   -0.13013498485088348,
   0.039089854806661606,
   -0.10577370971441269,
   0.017904920503497124,
   -0.01699375919997692,
   0.04058033972978592,
   0.01702142134308815,
   -0.012207425199449062,
   0.0377822108566761,
   0.03672970458865166,
   0.0006215363391675055,
   0.01766122691333294,
   0.1755392849445343,
   -0.10103657096624374,
   -0.03873623535037041,
   -0.008475130423903465,
   -0.00046256082714535296,
   0.0010632651392370462,
   -0.022738372907042503,
   -0.01960660330951214,
   0.0029782927595078945,
   -0.05217749997973442,
   0.0036909047048538923,
   -0.0022382247261703014,
   -0.13593789935112,
   -0.009727095253765583,
   -0.0001332533429376781,
   0.05991870164871216,
   -0.0014447503490373492,
   -0.0037721279077231884,
   -0.055383048951625824,
   0.04306796193122864,
   -0.04354884847998619,
   -0.014284840784966946,
   0.0003285046841483563,
   -0.03481750935316086,
   0.0011696721194311976,
   -0.009557879529893398,
   0.03346696496009827,
   -0.004008520394563675,
   -0.21453340351581573,
   -0.015889905393123627,
   0.0007895532180555165,
   -0.011596813797950745,
   0.005392801482230425,
   -0.02768239565193653,
   0.00197984604164958,
   0.023365585133433342,
   -0.07311316579580307,
   0.013466177508234978,
   -0.01808139868080616,
   -0.02609831467270851,
   0.0025719651021063328,
   8.910663746064529e-05,
   0.028642749413847923,
   -0.0050740791484713554,
   -0.011591429822146893,
   -0.11318149417638779,
   0.04667167365550995,
   0.0009575858130119741
  ],
  [
   -0.22383832931518555,
   -0.020372658967971802,
   1.5516964197158813,
   0.11943266540765762,
   -0.2290360927581787,
   -0.08592479676008224,
   -0.0012315672356635332,
   0.19079841673374176,
   -0.14925207197666168,
   -0.010444561950862408,
   -0.22355884313583374,
   0.0007832370465621352,
   -0.018874982371926308,
   -0.051028259098529816,
   -0.12018377333879471,
   0.002373669296503067,
   -0.1285504847764969,
   0.13111358880996704,
   0.06434428691864014,
   0.0021996821742504835,
   -0.0031113435979932547,
   -0.22445137798786163,
   -0.08007632195949554,
   0.003289408516138792,
   0.0992763414978981,
   -0.04203248769044876,
   -0.1789884716272354,
   -0.026583757251501083,
   -0.003364220028743148,
   0.011649822816252708,
   0.002196414163336158,
   0.09521060436964035,
   0.0019411904504522681,
   -0.04382454976439476,
   -0.5525528788566589,
   0.23640857636928558,
   -0.00040589168202131987,
   -0.2646826505661011,
   -0.10541559755802155,
   0.21768315136432648,
   0.0654781237244606,
   -0.001651666359975934,
   0.04345276579260826,
   0.042614515870809555,
   0.0013146157143637538,
   -0.03778884932398796,
   0.00235310522839427,
   0.014159056358039379,
   -0.106571726500988,
   -0.1869230717420578,
   0.13677804172039032,
   -0.18089106678962708,
   0.194548562169075,
   -0.0746014341711998,
   -0.030447009950876236,
   0.00047199270920827985,
   -0.2063528299331665,
   0.1543622612953186,
   0.005544000770896673,
   -0.10376376658678055,
   -0.020391808822751045,
   0.00503062829375267,
   0.009208650328218937,
   -0.010815853253006935,
   0.011315261013805866,
   -0.023271165788173676,
   0.03980467841029167,
   -0.04468723386526108,
   0.00036474494845606387,
   0.015430628322064877,
   0.09005339443683624,
   0.2493395358324051,
   0.27610012888908386,
   -0.013182193040847778,
   0.002654463052749634,
   0.0016625834396108985,
   -0.007886470295488834,
   0.30366045236587524,
   0.012529178522527218,
   0.012717975303530693,
   0.004781937692314386,
   -0.07878874987363815,
   -0.17758995294570923,
   -0.21243427693843842,
   -0.12251807749271393,
   -0.0775570496916771,
   0.019249573349952698,
   -0.1799056977033615,
   -0.008763419464230537,
   0.08741801977157593,
   0.002151372143998742,
   0.07416075468063354,
   0.14268803596496582,
   -0.010377527214586735,
   -0.004532082937657833,
   0.004524922464042902,
   -0.24814452230930328,
   -0.1852630227804184,
   0.12632332742214203,
   0.1346050351858139,
   0.028901664540171623,
   0.024095365777611732,
   0.0026753186248242855,
   -0.00615588016808033,
   0.5641629695892334,
   -9.027696069097146e-05,
   0.008213385939598083,
   0.005038019269704819,
   0.017598483711481094,
   0.0012759525561705232,
   -0.07534381002187729,
   -0.005193527787923813,
   0.04679787531495094,
   0.12176568806171417,
   0.004725730046629906,
   -0.10806092619895935,
   0.04317802935838699,
   8.20585701148957e-05,
   0.18700864911079407,
   -0.21978244185447693,
   -0.0387558713555336,
   -0.1504223644733429,
   0.014648154377937317,
   0.04755100980401039,
   0.0030659297481179237,
   0.003309716936200857,
   -0.1564503312110901,
   -0.2855701446533203,
   0.04901852086186409,
   -0.09976072609424591,
   -7.27409787941724e-05,
   -0.0023040673695504665,
   -0.2744846045970917,
   0.00037950504338368773,
   -0.0024889190681278706,
   -0.0033550348598510027,
   0.1588812619447708,
   0.0600629523396492,
   0.1059240847826004,
   -0.0017451104940846562,
   0.010758478194475174,
   -0.09212419390678406,
   0.0517624206840992,
   -0.07583319395780563,
   -0.0030702627263963223,
   -0.20095007121562958,
   0.012515455484390259,
   0.09911783039569855,
   -0.03562888875603676,
   -0.004317231941968203,
   -0.018295569345355034,
   0.006696951575577259,
   -0.08486129343509674,
   1.3876381672162097e-05,
   -0.15281829237937927,
   0.10227646678686142,
   -0.0914243832230568,
   0.05009998008608818,
   0.11468294262886047,
   0.0009831491624936461,
   -0.1620452105998993,
   0.3298988342285156,
   0.0013562932144850492,
   0.0021030486095696688,
   -0.0003301794931758195,
   -0.05298079922795296,
   0.003146507777273655,
   -0.006692895200103521,
   0.3386272192001343,
   -0.01394074596464634,
   0.003184247761964798,
   0.20713293552398682,
   0.07911667227745056,
   -0.0398363322019577,
   0.2294195592403412,
   0.0053634922951459885,
   0.19657427072525024,
   0.07602531462907791,
   -0.01084192469716072,
   5.4966090829111636e-05,
   -0.14902690052986145,
   0.6340388059616089,
   0.0025199945084750652,
   0.015810474753379822,
   -0.0002718225587159395,
   0.053559523075819016,
   0.005030475556850433,
   0.00033964720205403864,
   -0.5376873016357422,
   0.18348325788974762,
   0.08711766451597214,
   -0.7056350111961365,
   -0.000962418969720602,
   -0.04752416908740997,
   -0.2314341962337494,
   0.1077905222773552,
   -0.0034898349549621344,
   0.011627777479588985,
   0.03476442024111748,
   -0.009783890098333359,
   0.2653631865978241,
   -0.013463765382766724,
   0.22154997289180756,
   -0.0816066563129425,
   -0.01054321974515915,
   0.006313235033303499,
   -0.054928239434957504,
   0.004003206267952919,
   -0.11765841394662857,
   -0.2189464122056961,
   -0.02982330322265625,
   0.08058739453554153,
   -2.191890962421894e-05,
   -0.05992712825536728,
   -0.0009817002573981881,
   -0.007371264509856701,
   0.1796044260263443,
   -0.0248141847550869,
   0.14794489741325378,
   -0.3081488609313965,
   -0.17682231962680817,
   -0.002233810257166624,
   0.0063728936947882175,
   -0.36064958572387695,
   -0.12410586327314377,
   -0.09026951342821121,
   0.09849825501441956,
   -0.2022029161453247,
   0.000568676448892802,
   -0.002020627958700061,
   -0.015653783455491066,
   -0.06771507859230042,
   0.000641081715002656,
   -0.0002288347895955667,
   -1.4712130905536469e-05,
   0.21751669049263,
   -0.0007216972880996764,
   -0.23200997710227966,
   -0.0008097605896182358,
   0.005757313687354326,
   0.00702115660533309,
   0.05798347294330597,
   -0.28468507528305054,
   -0.06397678703069687,
   -0.058928344398736954,
   0.15442286431789398,
   0.18206672370433807,
   0.5456758141517639,
   0.058381449431180954,
   -0.02900114096701145,
   0.00207485631108284,
   0.20958289504051208,
   -0.017133865505456924,
   0.03516744449734688,
   0.01728147082030773,
   -0.1602344661951065,
   -0.0001805112260626629,
   -0.0008908356539905071,
   0.061028290539979935,
   0.0008286869851872325,
   0.19237786531448364,
   -8.144798630382866e-05,
   0.2797292470932007,
   -0.20609474182128906,
   -0.21219149231910706,
   0.14006726443767548,
   0.04251857101917267,
   -0.05651417002081871,
   0.020337220281362534,
   -0.0031257611699402332,
   0.0214941818267107,
   0.2844720482826233,
   0.01340497937053442,
   -0.07485900819301605,
   -0.11969947069883347,
   0.006379302591085434,
   0.1520175188779831,
   -0.057600267231464386,
   0.16593104600906372,
   0.25919103622436523,
   -0.0007701473077759147,
   -0.012484866194427013,
   -0.23147059977054596,
   0.14036670327186584,
   0.09998656064271927,
   0.028481433168053627,
   -0.03934058919548988,
   0.19186125695705414,
   0.25530922412872314,
   -0.21658220887184143,
   0.07588484138250351,
   -0.04206547886133194,
   -0.015915026888251305,
   -0.0005439503584057093,
   0.38565900921821594,
   -0.12791842222213745,
   -0.006158024538308382,
   0.1511722058057785,
   0.06954807788133621,
   -0.037085093557834625,
   0.20187212526798248,
   -0.03768510743975639,
   -0.00025687998277135193,
   0.0013138228096067905,
   -0.03937939181923866,
   0.04237622022628784,
   -0.07900313287973404,
   -0.013835664838552475,
   0.15504345297813416,
   0.27038314938545227,
   -0.21596519649028778,
   -0.1149895191192627,
   -0.006041321437805891,
   0.16836653649806976,
   -0.1848745495080948,
   -0.0005436501814983785,
   -0.015109837986528873,
   -0.009782394394278526,
   -0.048771485686302185,
   0.008482786826789379,
   0.014491953887045383,
   0.06115664169192314,
   -0.0690314769744873,
   0.14199669659137726,
   -0.03180845081806183,
   0.001818364835344255,
   0.09051118791103363,
   -0.08169898390769958,
   0.008197283372282982,
   -0.00111034931614995,
   -0.13915550708770752,
   -0.2387905865907669,
   0.04059506580233574,
   -0.08303732424974442,
   0.004502075724303722,
   -0.010765356943011284,
   -0.011398465372622013,
   -0.2842828631401062,
   -0.06329834461212158,
   -0.00928640179336071,
   0.03121921233832836,
   -0.11892490088939667,
   -0.23456357419490814,
   -0.027560187503695488,
   0.1279710829257965,
   -0.1114993467926979,
   -0.057383470237255096,
   0.19503799080848694,
   -0.12883292138576508,
   0.013744284398853779,
   -0.003667646087706089,
   0.0831029936671257,
   -0.05426258593797684,
   0.09408937394618988,
   0.2182786613702774,
   0.2585541605949402,
   0.004987501073628664,
   0.176527202129364,
   -0.1202067881822586,
   -0.014138700440526009,
   -0.010652462020516396,
   -0.2874397933483124,
   0.005511183757334948,
   -0.16069653630256653,
   -0.07880502194166183,
   -0.17634281516075134,
   -0.005819020327180624,
   0.11119978129863739,
   0.00733445817604661,
   0.0055176867172122,
   0.0076597933657467365,
   -0.06194712966680527,
   -0.10051582008600235,
   0.15658652782440186,
   -0.0038388054817914963,
   0.21594277024269104,
   -0.0013278250116854906,
   0.006409022957086563,
   -0.16579802334308624,
   0.005147766787558794,
   0.03560999408364296,
   0.1938021034002304,
   -0.0010751573136076331,
   -0.02849193662405014,
   -0.008936981670558453,
   -0.010792513377964497,
   -0.13828565180301666,
   0.09200895577669144,
   -0.060423631221055984,
   0.00021755293710157275,
   0.0640195906162262,
   0.22519510984420776,
   0.0034469228703528643,
   -0.0028532827273011208,
   -0.2671300172805786,
   -0.011134267784655094,
   0.013983996585011482,
   -0.34181004762649536,
   0.3463139235973358,
   0.006911317817866802
  ]
 ],
 "pi.2.bias": [
  0.01306997798383236,
  -0.12650366127490997
 ]
}