{
 "pi.0.weight": [
  [
   0.8014620542526245,
   0.9665554165840149,
   -0.8267764449119568
  ],
  [
   -0.8740270137786865,
   -0.0885968804359436,
   -0.18023768067359924
  ],
  [
   0.22543290257453918,
   -0.04549228772521019,
   -0.05970073863863945
  ],
  [
   0.4183712899684906,
   -0.23096895217895508,
   -0.2365148663520813
  ],
  [
   -2.9665749073028564,
   -0.9291014075279236,
   -1.4071502685546875
  ],
  [
   0.39810994267463684,
   1.5727261304855347,
   -0.18876491487026215
  ],
  [
   -0.24031642079353333,
   0.007126611191779375,
   0.32085704803466797
  ],
  [
   0.4154946804046631,
   1.6187676191329956,
   -0.35184553265571594
  ],
  [
   -0.20684707164764404,
   0.09374251961708069,
   0.5115699768066406
  ],
  [
   -1.649219274520874,
   -0.2782060205936432,
   -0.4687749445438385
  ],
  [
   -0.5337411761283875,
   1.277700662612915,
   -0.8630079627037048
  ],
  [
   -2.384821653366089,
   -0.34769558906555176,
   -0.5525174140930176
  ],
  [
   -0.8922792077064514,
   0.30100348591804504,
   0.25918012857437134
  ],
  [
   0.09861166030168533,
   -0.0958734080195427,
   -0.4669909179210663
  ],
  [
   -0.6853567957878113,
   -0.03517498821020126,
   -0.4861411154270172
  ],
  [
   -0.35555726289749146,
   -0.40763819217681885,
   0.04282388463616371
  ],
  [
   -0.14419344067573547,
   0.017595458775758743,
   0.31102046370506287
  ],
  [
   1.5109241008758545,
   0.8940620422363281,
   -0.8246052861213684
  ],
  [
   -0.027408473193645477,
   -0.7836127877235413,
   -0.06781649589538574
  ],
  [
   -0.8003482222557068,
   -1.0850216150283813,
   0.1270073801279068
  ],
  [
   0.5059681534767151,
   -1.2508809566497803,
   -0.07032661885023117
  ],
  [
   0.15651828050613403,
   1.9762835502624512,
   -0.536069929599762
  ],
  [
   -1.5886090993881226,
   -2.1286978721618652,
   0.10273544490337372
  ],
  [
   1.099725604057312,
   -0.37311992049217224,
   -0.6119052767753601
  ],
  [
   1.5756232738494873,
   3.5821142196655273,
   -0.23286586999893188
  ],
  [
   -1.097983717918396,
   -0.889477550983429,
   -0.6300677061080933
  ],
  [
   -0.41849803924560547,
   -0.933104932308197,
   -0.32856497168540955
  ],
  [
   0.45761120319366455,
   0.6909013390541077,
   -1.188860297203064
  ],
  [
   -0.11184119433164597,
   -0.0945250391960144,
   -0.34247058629989624
  ],
  [
   -0.19929856061935425,
   0.1225862205028534,
   -0.7727047204971313
  ],
  [
   -0.12815292179584503,
   0.6325787901878357,
   0.3189716637134552
  ],
  [
   0.548632800579071,
   -1.443726897239685,
   -0.7095617651939392
  ],
  [
   -0.1036367267370224,
   -1.9242215156555176,
   -0.7976266741752625
  ],
  [
   -0.39917871356010437,
   0.20709574222564697,
   0.5689786672592163
  ],
  [
   -0.3930329382419586,
   -1.8163355588912964,
   -0.3952765166759491
  ],
  [
   1.037339210510254,
   -0.09717133641242981,
   -0.1658264845609665
  ],
  [
   -0.2490159422159195,
   -0.6072258949279785,
   -1.057251214981079
  ],
  [
   1.3528592586517334,
   0.14902955293655396,
   -0.03958461806178093
  ],
  [
   0.8010708689689636,
   -0.5382657647132874,
   -0.512458860874176
  ],
  [
   0.21379922330379486,
   -0.22408068180084229,
   -0.2386009395122528
  ],
  [
   0.2504516839981079,
   1.5952750444412231,
   -0.33469855785369873
  ],
  [
   0.4799923896789551,
   1.123641848564148,
   -0.24549072980880737
  ],
  [
   -1.720292568206787,
   -0.5103011131286621,
   -0.24316006898880005
  ],
  [
   -0.22679677605628967,
   -0.0007851223926991224,
   0.39318981766700745
  ],
  [
   -0.5131762623786926,
   0.2797898054122925,
   0.567964494228363
  ],
  [
   -1.3999884128570557,
   -1.1616729497909546,
   0.20467999577522278
  ],
  [
   -0.3207210600376129,
   0.04039711505174637,
   0.27072352170944214
  ],
  [
   0.29178035259246826,
   1.1660141944885254,
   -0.7497884035110474
  ],
  [
   -0.5681891441345215,
   0.3141093850135803,
   0.6083401441574097
  ],
  [
   -0.25345441699028015,
   -0.6271790862083435,
   -0.32186591625213623
  ],
  [
   -0.5226489305496216,
   -1.5633299350738525,
   -0.15749219059944153
  ],
  [
   0.5253102779388428,
   -0.7989209890365601,
   -0.7899524569511414
  ],
  [
   -0.014875702559947968,
   -0.6914664506912231,
   -0.13837455213069916
  ],
  [
   -0.6235978007316589,
   -0.9512686133384705,
   -0.6076993346214294
  ],
  [
   -0.6556723713874817,
   -1.4199482202529907,
   0.286342591047287
  ],
  [
   0.29954349994659424,
   -1.0735777616500854,
   0.052778564393520355
  ],
  [
   -0.17401117086410522,
   -0.02355853095650673,
   0.616921067237854
  ],
  [
   -1.3013155460357666,
   -2.0868468284606934,
   0.3492884337902069
  ],
  [
   -0.25307849049568176,
   0.31723183393478394,
   0.6247290372848511
  ],
  [
   -0.578169047832489,
   -1.1308519840240479,
   -0.5848420262336731
  ],
  [
   -0.20200727880001068,
   1.3448407649993896,
   0.07251331955194473
  ],
  [
   0.9651630520820618,
   0.6222463846206665,
   -0.07268102467060089
  ],
  [
   -0.7294378280639648,
   -1.110620141029358,
   -0.11284460127353668
  ],
  [
   0.24134492874145508,
   1.6317967176437378,
   -0.2582817077636719
  ],
  [
   -1.68967866897583,
   -0.26892712712287903,
   -0.4319458603858948
  ],
  [
   -1.3378137350082397,
   -1.2813072204589844,
   0.3980526328086853
  ],
  [
   -0.35635611414909363,
   -0.009797465987503529,
   -0.007642977871000767
  ],
  [
   -0.6728917360305786,
   -0.042617592960596085,
   -0.5769562125205994
  ],
  [
   0.7787805795669556,
   0.7412706613540649,
   -0.8101811408996582
  ],
  [
   0.9401692152023315,
   1.9319071769714355,
   -0.21961237490177155
  ],
  [
   -0.08481284230947495,
   -0.030506178736686707,
   -0.0036319780629128218
  ],
  [
   -0.44106733798980713,
   -0.824634313583374,
   0.36720603704452515
  ],
  [
   -1.0545742511749268,
   -1.2767332792282104,
   0.6515936255455017
  ],
  [
   -0.34699612855911255,
   0.17519639432430267,
   0.61986243724823
  ],
  [
   0.4515361189842224,
   -0.5882173776626587,
   -0.6534180641174316
  ],
  [
   0.18058708310127258,
   -0.34568628668785095,
   -0.14849147200584412
  ],
  [
   -0.3705308735370636,
   -0.01614299975335598,
   -0.05045488104224205
  ],
  [
   0.5856496691703796,
   0.43811243772506714,
   0.28935733437538147
  ],
  [
   -0.3602735996246338,
   0.684930145740509,
   -0.42516645789146423
  ],
  [
   -0.4316421151161194,
   -1.2401421070098877,
   0.5253990292549133
  ],
  [
   -0.05169462785124779,
   1.090692400932312,
   -0.8993635773658752
  ],
  [
   0.2454156130552292,
   1.4006675481796265,
   -1.561448574066162
  ],
  [
   0.3370683789253235,
   -0.3690830171108246,
   0.017778892070055008
  ],
  [
   -0.18891020119190216,
   -0.7395943403244019,
   0.03948504477739334
  ],
  [
   0.26050040125846863,
   -1.2481552362442017,
   -0.7824280261993408
  ],
  [
   -0.09893731772899628,
   -0.061827030032873154,
   0.1845209002494812
  ],
  [
   0.13238102197647095,
   -0.9535247087478638,
   -0.16581843793392181
  ],
  [
   0.05796362832188606,
   1.4839013814926147,
   -0.1759524792432785
  ],
  [
   -0.17203137278556824,
   -0.6681699156761169,
   -0.1354791224002838
  ],
  [
   -0.05798094719648361,
   2.8902385234832764,
   -0.19792811572551727
  ],
  [
   -1.3902043104171753,
   -2.052452325820923,
   -0.18001070618629456
  ],
  [
   -0.3117230534553528,
   -0.6647012829780579,
   -0.46304211020469666
  ],
  [
   0.2372739166021347,
   -0.20473173260688782,
   -0.07967327535152435
  ],
  [
   -1.1133143901824951,
   -1.6176797151565552,
   -0.4632859528064728
  ],
  [
   -0.290671706199646,
   0.28308573365211487,
   0.24435557425022125
  ],
  [
   0.34894639253616333,
   -0.4132224917411804,
   -0.5872092843055725
  ],
  [
   -0.2802649140357971,
   -1.1407527923583984,
   0.06558866798877716
  ],
  [
   -0.03448575362563133,
   0.812716007232666,
   -0.0009701350354589522
  ],
  [
   0.27990639209747314,
   -0.34679070115089417,
   0.12801659107208252
  ],
  [
   0.17491178214550018,
   2.1287343502044678,
   -0.4586629271507263
  ],
  [
   1.0504610538482666,
   2.2785277366638184,
   -0.7831953167915344
  ],
  [
   0.8818418383598328,
   1.9863288402557373,
   -0.8101257085800171
  ],
  [
   0.09397758543491364,
   -0.04658844694495201,
   0.052664659917354584
  ],
  [
   -0.7885373830795288,
   -0.0607096403837204,
   0.16246245801448822
  ],
  [
   0.4996282458305359,
   -0.6264963746070862,
   0.42624905705451965
  ],
  [
   0.09539943933486938,
   -0.022812798619270325,
   -0.15059687197208405
  ],
  [
   -0.7347444891929626,
   0.7623600363731384,
   -0.4008135199546814
  ],
  [
   -0.19807995855808258,
   -0.6870664954185486,
   0.003348811762407422
  ],
  [
   0.22772954404354095,
   0.49721646308898926,
   -0.16948159039020538
  ],
  [
   0.086671382188797,
   0.3963140845298767,
   -0.8775961399078369
  ],
  [
   -0.6506632566452026,
   0.49044114351272583,
   0.6713972091674805
  ],
  [
   0.8846186995506287,
   -0.4398234486579895,
   0.0748467668890953
  ],
  [
   0.28323298692703247,
   0.11847646534442902,
   -0.02241906151175499
  ],
  [
   0.4649389684200287,
   -0.8070542216300964,
   -0.29859843850135803
  ],
  [
   -0.3021812438964844,
   2.0323636531829834,
   -0.847491979598999
  ],
  [
   0.7015408873558044,
   1.0525686740875244,
   -0.49788597226142883
  ],
  [
   -0.9540484547615051,
   -1.7103393077850342,
   -0.10496193170547485
  ],
  [
   0.3170498013496399,
   1.810608983039856,
   -0.1608198583126068
  ],
  [
   -1.4024163484573364,
   0.021804673597216606,
   -0.3839496672153473
  ],
  [
   -0.19657215476036072,
   -0.13945139944553375,
   -0.4039504826068878
  ],
  [
   -1.9129153490066528,
   -0.3695109784603119,
   -0.5609717965126038
  ],
  [
   0.11406289786100388,
   0.17879188060760498,
   0.05847293138504028
  ],
  [
   0.7650961875915527,
   0.09862057119607925,
   -0.8371002674102783
  ],
  [
   -1.7451499700546265,
   -1.9500395059585571,
   0.34858277440071106
  ],
  [
   -1.921808123588562,
   -0.2992137670516968,
   -0.5405041575431824
  ],
  [
   -0.8298905491828918,
   -0.2627979815006256,
   0.3960672914981842
  ],
  [
   -0.08061418682336807,
   0.8951478600502014,
   0.3289562165737152
  ],
  [
   -0.8341034650802612,
   -1.320164442062378,
   0.609520435333252
  ],
  [
   0.656124472618103,
   3.822786808013916,
   -0.24286478757858276
  ],
  [
   0.8468869924545288,
   -0.07302498817443848,
   -0.004910475108772516
  ],
  [
   -1.3987464904785156,
   -0.1873808652162552,
   -0.872008204460144
  ],
  [
   -0.24184812605381012,
   -0.709230899810791,
   -0.06664308160543442
  ],
  [
   0.27699172496795654,
   1.4301894903182983,
   -0.306397020816803
  ],
  [
   0.38780292868614197,
   1.1893662214279175,
   -0.5135079622268677
  ],
  [
   -0.2847297191619873,
   -0.01396318431943655,
   0.6995940804481506
  ],
  [
   -0.4493688941001892,
   -0.3708857297897339,
   0.4292986989021301
  ],
  [
   0.26459211111068726,
   0.36457881331443787,
   -0.012553255073726177
  ],
  [
   -0.555048942565918,
   0.8403457999229431,
   0.05935799330472946
  ],
  [
   -1.1421844959259033,
   -0.08491189777851105,
   -0.15077929198741913
  ],
  [
   0.0017105946317315102,
   0.010124021209776402,
   0.4404594302177429
  ],
  [
   -0.011209486052393913,
   -0.029503708705306053,
   -0.0009537068544887006
  ],
  [
   0.3678865432739258,
   -0.3544948101043701,
   -0.9383476376533508
  ],
  [
   -0.5302426218986511,
   -1.2004460096359253,
   0.0822557732462883
  ],
  [
   -0.24035650491714478,
   -1.1577821969985962,
   0.058059219270944595
  ],
  [
   -1.4373506307601929,
   -0.6960474252700806,
   -0.7351409792900085
  ],
  [
   -0.3524441123008728,
   0.3040456175804138,
   -0.09113404154777527
  ],
  [
   1.3297926187515259,
   -0.08181017637252808,
   -0.8117480874061584
  ],
  [
   -0.7603209614753723,
   -1.1385643482208252,
   0.7232644557952881
  ],
  [
   0.005296612158417702,
   0.9856480360031128,
   0.29242420196533203
  ],
  [
   0.6672797799110413,
   -0.9539952278137207,
   -0.6931644678115845
  ],
  [
   0.42934557795524597,
   2.734004497528076,
   -0.6595611572265625
  ],
  [
   1.0396013259887695,
   2.4731366634368896,
   -0.16439737379550934
  ],
  [
   0.7375349402427673,
   1.8669501543045044,
   -0.45216837525367737
  ],
  [
   -1.0456780195236206,
   -1.4728237390518188,
   0.3403019309043884
  ],
  [
   -0.7549284100532532,
   -1.5056567192077637,
   0.041904427111148834
  ],
  [
   -0.4872782230377197,
   0.06742892414331436,
   -0.48546338081359863
  ],
  [
   -0.2686050534248352,
   0.2541005313396454,
   0.5280790328979492
  ],
  [
   0.1996844857931137,
   0.6699101328849792,
   -0.189460888504982
  ],
  [
   1.086849331855774,
   0.02026096172630787,
   -0.5752354860305786
  ],
  [
   0.40912437438964844,
   0.05978791415691376,
   -0.49123117327690125
  ],
  [
   -2.1396164894104004,
   -0.34078341722488403,
   -0.8632552623748779
  ],
  [
   0.7468734383583069,
   2.4200308322906494,
   0.10047422349452972
  ],
  [
   0.6476418972015381,
   -0.5773705840110779,
   -0.301548033952713
  ],
  [
   -0.14820803701877594,
   0.014211323112249374,
   0.06353776156902313
  ],
  [
   -0.13559341430664062,
   -0.5535359382629395,
   0.36953064799308777
  ],
  [
   -0.36951935291290283,
   -0.8478953838348389,
   0.20596440136432648
  ],
  [
   0.4471770226955414,
   0.5109822154045105,
   -0.7521575093269348
  ],
  [
   0.55258709192276,
   2.599167585372925,
   -0.016440080478787422
  ],
  [
   0.47980931401252747,
   -0.08689595013856888,
   -0.6665970087051392
  ],
  [
   0.2779007852077484,
   0.07533762603998184,
   -0.3428991138935089
  ],
  [
   -0.403285413980484,
   1.7653359174728394,
   -0.2764846980571747
  ],
  [
   -1.1080750226974487,
   -0.2037162333726883,
   0.7385635375976562
  ],
  [
   -0.1754269003868103,
   0.008709164336323738,
   0.3429027497768402
  ],
  [
   -0.21280060708522797,
   -0.013897460885345936,
   0.10772563517093658
  ],
  [
   0.07609184086322784,
   -0.18609768152236938,
   -0.8553182482719421
  ],
  [
   0.4548555314540863,
   0.08565425872802734,
   -0.7649937272071838
  ],
  [
   -0.002705214312300086,
   0.05077129974961281,
   0.29505112767219543
  ],
  [
   0.32328659296035767,
   -0.07163392007350922,
   -0.5219129920005798
  ],
  [
   -0.6944220066070557,
   -1.133737564086914,
   0.16148853302001953
  ],
  [
   -0.5470961928367615,
   -0.0653795525431633,
   -0.058860328048467636
  ],
  [
   -1.4565768241882324,
   0.08694499731063843,
   0.17745383083820343
  ],
  [
   -0.5321328043937683,
   -0.24950797855854034,
   0.23443186283111572
  ],
  [
   -1.8541308641433716,
   -0.3136134743690491,
   -0.5261578559875488
  ],
  [
   0.9217444062232971,
   -0.8871493935585022,
   -0.7511404156684875
  ],
  [
   0.3926410675048828,
   -0.26678162813186646,
   -0.6636718511581421
  ],
  [
   -0.4721805453300476,
   -0.05684995278716087,
   -0.23972007632255554
  ],
  [
   0.6687241792678833,
   0.22720953822135925,
   -0.8651032447814941
  ],
  [
   -0.8411663174629211,
   -1.6550238132476807,
   0.4585813581943512
  ],
  [
   -0.2200242280960083,
   0.03374585881829262,
   0.3732849359512329
  ],
  [
   -1.0855032205581665,
   -2.2205100059509277,
   0.05102182924747467
  ],
  [
   -0.24049299955368042,
   -1.454020380973816,
   -0.32998940348625183
  ],
  [
   -0.11466556042432785,
   -0.15827718377113342,
   0.42347434163093567
  ],
  [
   -0.18347735702991486,
   0.03937024250626564,
   0.1982947289943695
  ],
  [
   0.31071457266807556,
   -1.4221454858779907,
   -0.23434557020664215
  ],
  [
   -0.27062368392944336,
   0.586402952671051,
   0.1856476217508316
  ],
  [
   -1.932701587677002,
   -1.1942309141159058,
   0.9268335700035095
  ],
  [
   0.47279536724090576,
   0.8444420695304871,
   -0.4674071967601776
  ],
  [
   -0.2923887372016907,
   0.0031442781910300255,
   0.7510612607002258
  ],
  [
   0.159102201461792,
   -0.5813359618186951,
   -1.1707491874694824
  ],
  [
   0.5415496826171875,
   1.2065857648849487,
   -0.757196843624115
  ]
 ],
 "pi.0.bias": [
  0.05117122456431389,
  -0.6126001477241516,
  -1.3188437223434448,
  0.506953775882721,
  -0.73497474193573,
  -0.8205666542053223,
  0.6606044173240662,
  -1.042852759361267,
  -0.054024986922740936,
  -1.3244826793670654,
  -0.13966114819049835,
  -1.494895577430725,
  0.5749469995498657,
  -0.9828715920448303,
  -0.37923216819763184,
  0.1438334584236145,
  0.3134101927280426,
  -0.21258270740509033,
  0.27681764960289,
  0.9173070192337036,
  0.1865968555212021,
  0.24412384629249573,
  0.2989952266216278,
  -1.1603153944015503,
  -1.0035648345947266,
  -1.1693859100341797,
  0.804323136806488,
  -0.41178250312805176,
  -0.7795360684394836,
  0.44586125016212463,
  0.19468382000923157,
  0.6095127463340759,
  -0.9406704306602478,
  0.36041030287742615,
  -0.12560917437076569,
  -0.8594239354133606,
  0.7925832867622375,
  -1.20545494556427,
  -0.25816309452056885,
  0.5116366147994995,
  -1.0034927129745483,
  -0.7799755930900574,
  -0.5496165752410889,
  0.4877943694591522,
  -0.056257136166095734,
  0.6400034427642822,
  -0.5588071346282959,
  -0.42384204268455505,
  0.029891274869441986,
  -1.276430368423462,
  0.28473716974258423,
  0.5491053462028503,
  0.405564546585083,
  -1.1150051355361938,
  0.1897784024477005,
  0.05181939899921417,
  0.3111551105976105,
  0.27206555008888245,
  0.16935229301452637,
  1.2627917528152466,
  -0.5895158648490906,
  -0.5843502283096313,
  1.0593106746673584,
  -1.513648509979248,
  -1.2576295137405396,
  0.5385119915008545,
  -0.1014755591750145,
  -0.4577544331550598,
  -0.21337756514549255,
  -1.0477439165115356,
  -0.6391990184783936,
  0.37287643551826477,
  0.07848262786865234,
  0.39875173568725586,
  0.25413385033607483,
  0.43947866559028625,
  -0.15462467074394226,
  -0.167856365442276,
  -0.3434561491012573,
  0.1802162230014801,
  0.06084226071834564,
  0.11416648328304291,
  0.016563095152378082,
  0.054674893617630005,
  -0.27150771021842957,
  0.43777361512184143,
  0.30216774344444275,
  -1.3755228519439697,
  0.36957406997680664,
  -0.46425729990005493,
  0.5348804593086243,
  -0.8505445718765259,
  0.274056613445282,
  0.9210730195045471,
  0.15624721348285675,
  -0.8070462346076965,
  0.6677981019020081,
  -1.1261659860610962,
  0.01753656566143036,
  0.43399280309677124,
  0.42675939202308655,
  -0.02148100547492504,
  -0.7017503976821899,
  0.42047008872032166,
  -0.15359555184841156,
  -0.31878581643104553,
  -0.46297532320022583,
  0.46238791942596436,
  -1.0576845407485962,
  -0.03328736126422882,
  0.09911549091339111,
  0.05636398121714592,
  -1.6642504930496216,
  -0.8201280832290649,
  0.36667725443840027,
  -1.458538293838501,
  0.8881159424781799,
  -0.47939759492874146,
  -0.4265170395374298,
  0.1958138793706894,
  -1.7277148962020874,
  -1.076352834701538,
  -0.5010169744491577,
  0.19864287972450256,
  -1.479411244392395,
  0.19930534064769745,
  0.2012370526790619,
  -0.23873679339885712,
  -0.6302239894866943,
  -0.9603506326675415,
  -0.4999698996543884,
  0.23947876691818237,
  -0.9265902042388916,
  -0.6753600239753723,
  -0.04584921523928642,
  0.5161574482917786,
  -1.3675113916397095,
  -0.8113720417022705,
  -0.37817254662513733,
  -0.8861022591590881,
  -0.5608295202255249,
  0.26548922061920166,
  0.8443046808242798,
  0.10960574448108673,
  0.12716126441955566,
  0.9085204005241394,
  0.2580692172050476,
  0.04498451575636864,
  -1.218725323677063,
  -0.23117858171463013,
  -1.823533296585083,
  -0.6020660996437073,
  0.2008729875087738,
  0.8482351303100586,
  0.32624462246894836,
  -0.3902689516544342,
  0.06894407421350479,
  0.0453747995197773,
  -0.18193773925304413,
  -1.245733618736267,
  -0.4346786439418793,
  -0.5153459310531616,
  -0.7909403443336487,
  0.3612472712993622,
  -0.19266358017921448,
  0.1922311633825302,
  -0.2537512183189392,
  -0.35891634225845337,
  -1.3763564825057983,
  -0.8863009214401245,
  -0.12409311532974243,
  -0.4860854148864746,
  0.371991902589798,
  0.6266953945159912,
  0.5083930492401123,
  -0.12307967245578766,
  0.3443093001842499,
  -0.9742889404296875,
  0.8245207667350769,
  -0.693280041217804,
  -0.6255517601966858,
  0.1100439727306366,
  -1.39259672164917,
  0.17277131974697113,
  -0.5652135610580444,
  -0.5390517115592957,
  -0.45529335737228394,
  -0.24392259120941162,
  0.5081706047058105,
  0.1843968778848648,
  -0.09957503527402878,
  0.4970940947532654,
  0.5723428130149841,
  -0.25468215346336365,
  -0.6811897158622742,
  0.24362200498580933,
  -1.3458795547485352,
  0.05408945679664612,
  0.27716854214668274,
  -0.5623461008071899
 ],
 "pi.2.weight": [
  [
   0.6313174366950989,
   -0.10780294239521027,
   0.5182039737701416,
   0.2659372091293335,
   -1.5353140830993652,
   -1.4416098594665527,
   0.3645802438259125,
   5.736309051513672,
   0.11518894135951996,
   6.301029205322266,
   -0.45387330651283264,
   2.927088975906372,
   0.2785893678665161,
   -0.9988383054733276,
   0.2671259343624115,
   -0.04209472984075546,
   0.11663872003555298,
   1.781152367591858,
   -0.11310303956270218,
   -0.6984272003173828,
   -0.964820146560669,
   -0.9588779807090759,
   -0.9229138493537903,
   -0.4744022786617279,
   4.8462629318237305,
   -0.24536080658435822,
   -0.3506997227668762,
   -0.3779528737068176,
   0.07269757986068726,
   -0.5879619121551514,
   0.1356041133403778,
   -0.747515857219696,
   -0.4835096001625061,
   0.29445362091064453,
   -1.503696322441101,
   -0.9974256157875061,
   -0.7023664116859436,
   -1.5529859066009521,
   -0.6176933646202087,
   -0.5722761750221252,
   2.385284423828125,
   0.8532044887542725,
   2.9903509616851807,
   0.3623334765434265,
   0.27841299772262573,
   -0.6179068088531494,
   -0.043776463717222214,
   0.4025788903236389,
   0.20079456269741058,
   -0.9026851058006287,
   0.7412291169166565,
   0.6086606383323669,
   -0.055243119597435,
   -1.4981660842895508,
   1.306191086769104,
   -0.33928966522216797,
   0.28348204493522644,
   -0.7674728631973267,
   0.727066695690155,
   -0.6306890249252319,
   -0.9859554767608643,
   4.106934547424316,
   1.8299109935760498,
   -0.9951732158660889,
   5.555603504180908,
   -0.6096396446228027,
   -0.0032973159104585648,
   0.2923460304737091,
   0.6419650316238403,
   -2.5454866886138916,
   -0.007361064665019512,
   -0.8575674295425415,
   -0.6391814351081848,
   0.2922511398792267,
   0.5274226069450378,
   0.09423806518316269,
   -0.025990622118115425,
   -0.0015289185103029013,
   -0.7906701564788818,
   -0.6426336169242859,
   -0.3427843153476715,
   -0.47840291261672974,
   -0.14137612283229828,
   -1.4053735733032227,
   0.5226319432258606,
   0.0877101868391037,
   0.6583096981048584,
   -0.8596106767654419,
   0.40553051233291626,
   0.8427403569221497,
   1.7389675378799438,
   2.1797358989715576,
   0.03105066902935505,
   0.6054709553718567,
   0.1325969099998474,
   -0.4161212742328644,
   -0.43701663613319397,
   -1.603692889213562,
   -0.13485682010650635,
   0.6162890791893005,
   0.8540971279144287,
   0.5020685195922852,
   -0.003172443713992834,
   0.4430093467235565,
   0.258917897939682,
   -0.0021874913945794106,
   -0.48601415753364563,
   0.45528873801231384,
   -1.3385611772537231,
   -0.4862874150276184,
   0.24658341705799103,
   0.16003111004829407,
   7.736838340759277,
   1.0819506645202637,
   0.5751017928123474,
   -1.6192039251327515,
   -1.1395695209503174,
   1.2549136877059937,
   0.22412680089473724,
   -0.416665256023407,
   5.148893356323242,
   -0.24708415567874908,
   -0.43974703550338745,
   -0.5748156905174255,
   6.76035213470459,
   -0.14424048364162445,
   0.08506040275096893,
   -0.3399564325809479,
   0.7209513783454895,
   -0.4427863657474518,
   0.5221132040023804,
   -0.6236308217048645,
   4.894737720489502,
   0.7442258596420288,
   0.8330288529396057,
   0.17500975728034973,
   3.573756694793701,
   -1.7342745065689087,
   0.5925624370574951,
   -0.6586600542068481,
   1.0184203480534393e-09,
   0.7836172580718994,
   -0.5573239922523499,
   0.26819393038749695,
   0.42226120829582214,
   0.43449297547340393,
   -0.42320871353149414,
   -0.7341326475143433,
   0.9129471182823181,
   -0.655691921710968,
   5.92035436630249,
   1.8352715969085693,
   -0.6612201929092407,
   -0.8020408153533936,
   2.70651912689209,
   0.26879024505615234,
   0.2904892861843109,
   -0.48070287704467773,
   0.5124677419662476,
   -2.00571870803833,
   1.8215975761413574,
   -2.810642957687378,
   0.8563140630722046,
   0.02539386786520481,
   -1.2445148229599,
   1.9766218662261963,
   0.64118891954422,
   -0.913543164730072,
   -0.5668431520462036,
   -0.40095996856689453,
   -0.7806463837623596,
   0.9073494672775269,
   0.17696191370487213,
   0.5323495864868164,
   -0.7233301401138306,
   0.8148238658905029,
   0.03207443282008171,
   0.6034244894981384,
   -0.5825377702713013,
   -0.02199058048427105,
   -0.5821349024772644,
   -0.04385693371295929,
   6.337144374847412,
   -0.46172311902046204,
   -0.42649132013320923,
   -0.11036630719900131,
   -0.49703407287597656,
   2.0715694427490234,
   0.26578831672668457,
   1.57652747631073,
   1.7063318490982056,
   0.20450958609580994,
   0.1372070610523224,
   0.8542588353157043,
   1.8238729238510132,
   -2.1835644245147705,
   -1.5181257724761963,
   0.2025124579668045,
   -0.6029976010322571,
   0.7041192054748535
  ]
 ],
 "pi.2.bias": [
  0.05500531569123268
 ]
}