{
 "pi.0.weight": [
  [
   0.18355903029441833,
   0.03687126934528351,
   0.05489477887749672,
   0.06881406158208847,
   -0.5563079714775085,
   -0.36112260818481445
  ],
  [
   0.3262181878089905,
   0.21799583733081818,
   0.12981240451335907,
   0.1838824301958084,
   -1.164339303970337,
   0.15044131875038147
  ],
  [
   0.14432035386562347,
   -0.28582823276519775,
   0.04543907940387726,
   -0.0551331527531147,
   -0.0031734597869217396,
   0.7708958387374878
  ],
  [
   0.11034154891967773,
   0.459182471036911,
   -0.029458042234182358,
   0.07203826308250427,
   -0.7594248652458191,
   -0.3471912443637848
  ],
  [
   0.28108787536621094,
   0.4652256369590759,
   -0.08377721905708313,
   -0.11094360798597336,
   -0.3445616662502289,
   -0.7386064529418945
  ],
  [
   -0.03609263151884079,
   -0.0760781317949295,
   0.14659737050533295,
   0.5188944339752197,
   -0.212518572807312,
   0.2768354117870331
  ],
  [
   0.06935522705316544,
   -0.3703501522541046,
   0.0513777956366539,
   -0.04148042947053909,
   0.8881933093070984,
   0.04622514173388481
  ],
  [
   0.16400080919265747,
   -0.11722362786531448,
   0.08274032920598984,
   -0.053251784294843674,
   0.3573574125766754,
   0.6453073024749756
  ],
  [
   0.3982827365398407,
   -0.1927790343761444,
   0.09351563453674316,
   0.520729660987854,
   -0.448395311832428,
   0.3245844841003418
  ],
  [
   0.56955486536026,
   0.4924018383026123,
   -0.157552108168602,
   0.017513109371066093,
   0.3363784849643707,
   -0.26966577768325806
  ],
  [
   0.15061801671981812,
   -0.7536598443984985,
   0.1039377897977829,
   -0.16982536017894745,
   0.06327502429485321,
   0.8724080920219421
  ],
  [
   0.4875691831111908,
   0.053249605000019073,
   -0.00045507968752644956,
   0.19853827357292175,
   -0.45789724588394165,
   -0.4276173710823059
  ],
  [
   0.14968110620975494,
   -0.026989256963133812,
   0.23149435222148895,
   0.03462649881839752,
   -0.07918067276477814,
   0.35044065117836
  ],
  [
   0.1588618904352188,
   -0.3236064612865448,
   0.04231832176446915,
   -0.02308237925171852,
   0.3459748327732086,
   -0.1515011489391327
  ],
  [
   0.3175598978996277,
   0.1573956459760666,
   -0.029087506234645844,
   -0.06927195191383362,
   -0.192719966173172,
   -0.05406372994184494
  ],
  [
   0.479218453168869,
   0.06751931458711624,
   0.08918587863445282,
   -0.05025183781981468,
   -0.7219482064247131,
   -0.6849992871284485
  ],
  [
   0.11605542153120041,
   0.43086034059524536,
   0.11131198704242706,
   0.28185132145881653,
   0.7213684916496277,
   -0.7181490659713745
  ],
  [
   0.5232630372047424,
   -0.01085706241428852,
   0.16873131692409515,
   0.2993186116218567,
   -0.5924153327941895,
   -0.016027605161070824
  ],
  [
   0.23951789736747742,
   -0.4384267032146454,
   0.05987124517560005,
   -0.0201332438737154,
   -0.5081258416175842,
   -0.319256454706192
  ],
  [
   0.5532804727554321,
   0.22357177734375,
   -0.15861372649669647,
   -0.1284412145614624,
   -0.28868722915649414,
   0.038642000406980515
  ],
  [
   0.08794096857309341,
   0.6409377455711365,
   0.002966606989502907,
   -0.05875350907444954,
   -0.5268362164497375,
   0.294381320476532
  ],
  [
   0.46931812167167664,
   0.48146289587020874,
   -0.016736451536417007,
   0.06367413699626923,
   -0.4244728982448578,
   -0.3744868040084839
  ],
  [
   0.09097444266080856,
   -0.04158227890729904,
   0.11870184540748596,
   0.3200913667678833,
   -0.4468735158443451,
   -0.1506347358226776
  ],
  [
   0.27042925357818604,
   0.23351091146469116,
   0.027911759912967682,
   0.03684546798467636,
   -0.09456607699394226,
   -0.3976653218269348
  ],
  [
   -0.05106111243367195,
   -0.1760791689157486,
   0.3063296675682068,
   0.11514858156442642,
   0.12345300614833832,
   -0.2437085658311844
  ],
  [
   0.18675783276557922,
   0.3081858158111572,
   0.03463263064622879,
   -0.16345490515232086,
   -1.409489393234253,
   0.03138479217886925
  ],
  [
   0.5821752548217773,
   -0.38276949524879456,
   0.09569700807332993,
   -0.08760394901037216,
   -0.6558541655540466,
   -0.05135207623243332
  ],
  [
   0.06176863983273506,
   0.09321944415569305,
   0.025728655979037285,
   0.28859061002731323,
   0.12158071994781494,
   0.3671424686908722
  ],
  [
   -0.16770051419734955,
   0.1627645194530487,
   0.3987619876861572,
   0.006853391882032156,
   0.22996462881565094,
   -0.7744851112365723
  ],
  [
   0.401684433221817,
   0.4294986128807068,
   0.14874544739723206,
   0.22289466857910156,
   -0.4105723202228546,
   -0.10056797415018082
  ],
  [
   0.2553786039352417,
   -0.4757426381111145,
   0.1643228679895401,
   0.09931063652038574,
   -1.1885204315185547,
   0.2442624866962433
  ],
  [
   0.2615225911140442,
   -0.3541284501552582,
   -0.047734059393405914,
   -0.26330479979515076,
   -0.023056551814079285,
   0.12042994052171707
  ],
  [
   0.3533293902873993,
   -0.6234919428825378,
   0.1781545877456665,
   0.0871574655175209,
   -0.38840439915657043,
   0.10809161514043808
  ],
  [
   0.10142216086387634,
   0.05037951096892357,
   -0.24270972609519958,
   -0.08241552859544754,
   -0.05675279349088669,
   0.09202814102172852
  ],
  [
   0.3641875982284546,
   -0.09946040064096451,
   0.07844682782888412,
   -0.11472517997026443,
   -0.5549153685569763,
   -0.6031579971313477
  ],
  [
   0.11495599150657654,
   0.23611736297607422,
   -0.03206917643547058,
   0.14249391853809357,
   -0.039603374898433685,
   -1.3321622610092163
  ],
  [
   0.2235688418149948,
   -0.45313334465026855,
   0.04000241309404373,
   0.046244725584983826,
   -0.6667490005493164,
   -1.2151459455490112
  ],
  [
   0.37449464201927185,
   0.469059556722641,
   0.0751422569155693,
   -0.0665009468793869,
   0.006284333765506744,
   -0.572905957698822
  ],
  [
   0.26906824111938477,
   0.23076632618904114,
   0.022070614621043205,
   0.19701862335205078,
   -0.3594372868537903,
   -0.6971646547317505
  ],
  [
   0.19398397207260132,
   -0.4934212267398834,
   0.159697026014328,
   0.13632996380329132,
   -1.1659421920776367,
   0.38527151942253113
  ],
  [
   0.2591276466846466,
   0.24650691449642181,
   -0.16924172639846802,
   0.06301576644182205,
   -0.41768133640289307,
   -0.7722489237785339
  ],
  [
   0.7503920793533325,
   -0.12253255397081375,
   0.07354771345853806,
   -0.13612878322601318,
   -0.08117157220840454,
   -0.3515585660934448
  ],
  [
   0.46712467074394226,
   -0.5123004913330078,
   0.10787893086671829,
   0.028210297226905823,
   -0.22340932488441467,
   0.46653762459754944
  ],
  [
   0.549882173538208,
   -0.3270164132118225,
   0.17050155997276306,
   -0.2881985306739807,
   -0.5706559419631958,
   0.9954003095626831
  ],
  [
   0.46660318970680237,
   0.43794432282447815,
   -0.05591192841529846,
   0.002589650684967637,
   -0.14302098751068115,
   0.2857895493507385
  ],
  [
   0.3919662833213806,
   0.6069720387458801,
   -0.11018645018339157,
   -0.06073756888508797,
   -0.24529124796390533,
   -0.8484965562820435
  ],
  [
   0.16476412117481232,
   0.4893296957015991,
   0.03165555000305176,
   -0.0047292569652199745,
   -0.17012919485569,
   -1.0099374055862427
  ],
  [
   0.11830991506576538,
   -0.0051961359567940235,
   0.15085069835186005,
   0.57108473777771,
   -0.35277968645095825,
   0.025161663070321083
  ],
  [
   0.22361910343170166,
   -0.08815984427928925,
   0.040021758526563644,
   -0.2741018235683441,
   -0.05435670167207718,
   -0.2825027108192444
  ],
  [
   0.0923473984003067,
   -0.25539252161979675,
   0.11193617433309555,
   0.17414772510528564,
   -0.4523765742778778,
   -0.255920946598053
  ],
  [
   0.6135591864585876,
   0.11883307993412018,
   0.10106498003005981,
   0.046264126896858215,
   -0.745265543460846,
   -0.0987224206328392
  ],
  [
   0.19337621331214905,
   0.37524470686912537,
   0.02688274160027504,
   0.04282425716519356,
   -0.8576598167419434,
   -0.9122002720832825
  ],
  [
   0.3936809003353119,
   -0.48296815156936646,
   0.1555754542350769,
   -0.11768433451652527,
   -0.7815706729888916,
   0.13911618292331696
  ],
  [
   0.25595441460609436,
   0.04301292821764946,
   0.08960377424955368,
   0.27515122294425964,
   0.015550215728580952,
   -0.77041095495224
  ],
  [
   0.5293424129486084,
   0.6367186307907104,
   0.13133932650089264,
   0.11144547909498215,
   -0.5154003500938416,
   -1.03873610496521
  ],
  [
   0.2581200897693634,
   0.4771760404109955,
   0.054042838513851166,
   -0.14048530161380768,
   -0.4577282667160034,
   0.20474575459957123
  ],
  [
   0.577909529209137,
   -0.06299993395805359,
   0.14643704891204834,
   -0.10043144971132278,
   -0.6909916996955872,
   -0.2965747117996216
  ],
  [
   0.04955275356769562,
   0.19728468358516693,
   -0.06408505886793137,
   -0.39997345209121704,
   0.4014512896537781,
   -0.46046891808509827
  ],
  [
   0.6722201704978943,
   -0.07836631685495377,
   0.11526709049940109,
   -0.15525475144386292,
   -0.6476003527641296,
   0.32995444536209106
  ],
  [
   0.19536082446575165,
   -0.4618602693080902,
   0.19967743754386902,
   0.17525479197502136,
   -1.1345170736312866,
   0.1884174793958664
  ],
  [
   0.10071609169244766,
   -0.3050188422203064,
   0.07414048165082932,
   0.03832240402698517,
   0.14398571848869324,
   -0.18674062192440033
  ],
  [
   0.039217758923769,
   0.32656553387641907,
   0.09679734706878662,
   0.3014959990978241,
   0.371580570936203,
   0.35835692286491394
  ],
  [
   0.3523695766925812,
   0.11368958652019501,
   0.12095735222101212,
   0.17952468991279602,
   -0.32895737886428833,
   -0.23244589567184448
  ],
  [
   0.9557424187660217,
   -0.9703280329704285,
   0.3875780701637268,
   -0.6221587657928467,
   -0.29719290137290955,
   -0.00797947309911251
  ],
  [
   0.503940224647522,
   0.4562380313873291,
   0.16098102927207947,
   0.1689387857913971,
   -0.30140000581741333,
   -0.3003121018409729
  ],
  [
   -0.3056730329990387,
   -1.285672664642334,
   0.14481815695762634,
   -0.3523019850254059,
   0.2985731065273285,
   0.17783325910568237
  ],
  [
   1.025797724723816,
   -1.206079363822937,
   0.4082435071468353,
   -0.571812629699707,
   -0.4087635576725006,
   0.1565823256969452
  ],
  [
   0.09003566950559616,
   0.22572258114814758,
   -0.12888959050178528,
   -0.1958107054233551,
   0.32979246973991394,
   -0.36299794912338257
  ],
  [
   0.5866714119911194,
   -0.5019813776016235,
   -0.017481908202171326,
   -0.42312347888946533,
   0.19952832162380219,
   -0.7601007223129272
  ],
  [
   0.12693160772323608,
   -0.02651739865541458,
   0.1501632034778595,
   0.4863627552986145,
   -0.202583447098732,
   -0.23026475310325623
  ],
  [
   -0.3116427958011627,
   -1.302497386932373,
   0.13318003714084625,
   -0.3019455373287201,
   0.20758777856826782,
   0.2066972553730011
  ],
  [
   0.2926349341869354,
   0.3155056834220886,
   -0.027518171817064285,
   0.010984530672430992,
   0.32043513655662537,
   -0.6872237324714661
  ],
  [
   0.426554411649704,
   -0.25130942463874817,
   0.1728980541229248,
   -0.016186010092496872,
   -1.1655784845352173,
   0.08756933361291885
  ],
  [
   0.25913143157958984,
   -0.18642234802246094,
   0.05297628045082092,
   -0.10332009941339493,
   -0.07340195775032043,
   -0.608102023601532
  ],
  [
   0.21490944921970367,
   0.32940924167633057,
   -0.06453805416822433,
   -0.10585098713636398,
   0.35559922456741333,
   -0.23811499774456024
  ],
  [
   0.24951034784317017,
   -0.6378066539764404,
   0.12186548858880997,
   -0.14768503606319427,
   -0.6480605602264404,
   -0.027345461770892143
  ],
  [
   0.31033727526664734,
   0.1328791230916977,
   -0.12763868272304535,
   -0.8256550431251526,
   -0.2703534662723541,
   -0.49528488516807556
  ],
  [
   -0.06126376986503601,
   -0.26426348090171814,
   0.05863303691148758,
   -0.1931115686893463,
   -0.6775735020637512,
   -0.07522223144769669
  ],
  [
   0.20535290241241455,
   0.19950391352176666,
   -0.1038990169763565,
   -0.14234057068824768,
   0.08804053068161011,
   -0.6864850521087646
  ],
  [
   0.42779409885406494,
   -0.43048521876335144,
   0.24463939666748047,
   -0.08555374294519424,
   -1.1648876667022705,
   0.10168737173080444
  ],
  [
   0.3531084358692169,
   -0.2924124300479889,
   0.13578058779239655,
   0.023993991315364838,
   0.4715769290924072,
   -0.5652361512184143
  ],
  [
   0.7249340415000916,
   -0.09094025939702988,
   0.10285811871290207,
   -0.027185119688510895,
   -1.002654790878296,
   -0.22479629516601562
  ],
  [
   0.1864510327577591,
   0.24131916463375092,
   -0.05331282690167427,
   0.09705264866352081,
   0.24874305725097656,
   -0.8491138219833374
  ],
  [
   0.0826895609498024,
   -0.10600756853818893,
   -0.034318216145038605,
   -0.1304054707288742,
   -0.22329160571098328,
   0.6097886562347412
  ],
  [
   0.8036702871322632,
   -0.3170504570007324,
   0.14702798426151276,
   -0.09778580069541931,
   -0.9751995801925659,
   -0.04486801475286484
  ],
  [
   0.09483577311038971,
   0.04582393541932106,
   0.0013094673631712794,
   -0.10538120567798615,
   -0.6470363140106201,
   0.6101805567741394
  ],
  [
   0.03014228120446205,
   0.29909899830818176,
   0.092771515250206,
   0.3144940435886383,
   -0.6928554177284241,
   -0.5457772612571716
  ],
  [
   0.03804893046617508,
   -0.12321967631578445,
   0.18958353996276855,
   0.5797185897827148,
   -0.7159343957901001,
   -0.17204348742961884
  ],
  [
   0.2218851000070572,
   -0.31057026982307434,
   -0.013407470658421516,
   -0.1254812777042389,
   -0.2629183232784271,
   -0.6282874941825867
  ],
  [
   0.36886921525001526,
   0.03406953439116478,
   0.09684956818819046,
   0.11278010159730911,
   -0.464169979095459,
   -0.21873071789741516
  ],
  [
   0.136952742934227,
   0.2397286295890808,
   0.11372406780719757,
   0.6012921929359436,
   -0.07736548781394958,
   -0.10731478035449982
  ],
  [
   0.08486530184745789,
   0.09230131655931473,
   0.2524995505809784,
   0.4226975440979004,
   0.3439788818359375,
   -0.4944319427013397
  ],
  [
   0.0729859322309494,
   0.7625047564506531,
   -0.04952261596918106,
   0.03374648466706276,
   -0.10523378849029541,
   -0.8309611678123474
  ],
  [
   0.05516327545046806,
   0.303756982088089,
   0.07370393723249435,
   0.09234870970249176,
   -0.17883165180683136,
   -0.8554396033287048
  ],
  [
   0.15193141996860504,
   0.15153515338897705,
   0.01429030578583479,
   0.16599342226982117,
   -0.047049567103385925,
   -0.431124746799469
  ],
  [
   -0.06098370999097824,
   0.08003557473421097,
   0.04431849718093872,
   0.2546814978122711,
   1.5676813125610352,
   -0.23955146968364716
  ],
  [
   0.23371420800685883,
   -0.23861940205097198,
   0.04311690479516983,
   -0.05714767053723335,
   -0.3079148828983307,
   -0.2070811241865158
  ],
  [
   -0.025048593059182167,
   0.08637575805187225,
   0.13654601573944092,
   -0.32819947600364685,
   -0.6382827758789062,
   -0.1713833063840866
  ],
  [
   -0.0006060036830604076,
   0.26440897583961487,
   -0.07971611618995667,
   0.018358539789915085,
   -0.49163496494293213,
   -0.4129631817340851
  ],
  [
   0.4231742024421692,
   -0.3020751476287842,
   0.12566393613815308,
   0.32572147250175476,
   -0.48028311133384705,
   0.19515067338943481
  ]
 ],
 "pi.0.bias": [
  -2.737394094467163,
  -1.6510593891143799,
  -2.111473560333252,
  -1.9797619581222534,
  -1.5121561288833618,
  -1.7346705198287964,
  -1.8157130479812622,
  -1.778678059577942,
  -1.7108293771743774,
  -0.7482690811157227,
  -1.4274524450302124,
  -1.0229222774505615,
  -1.2157986164093018,
  -2.2359044551849365,
  -1.113114595413208,
  0.5788630843162537,
  -1.6316733360290527,
  -1.666441798210144,
  -0.9158227443695068,
  -0.8814616203308105,
  -2.2610015869140625,
  -1.3557859659194946,
  -1.7287529706954956,
  -1.9611313343048096,
  -6.016092300415039,
  -2.9747543334960938,
  0.6011688709259033,
  -2.2283947467803955,
  -7.427704811096191,
  -0.8072006702423096,
  -0.6346490383148193,
  -3.090327501296997,
  0.14708057045936584,
  -2.942457437515259,
  -0.9739731550216675,
  -1.6608604192733765,
  -3.4894185066223145,
  -1.500294804573059,
  -2.5089914798736572,
  -1.2695403099060059,
  -2.0130417346954346,
  -0.5256794095039368,
  -1.8892104625701904,
  -1.3263003826141357,
  -1.1883280277252197,
  -0.9901286959648132,
  -1.9380699396133423,
  -1.4674813747406006,
  -2.2709662914276123,
  -1.6982700824737549,
  0.29150328040122986,
  -1.8522140979766846,
  0.7300164103507996,
  -1.427359938621521,
  -0.9427084922790527,
  -2.2562639713287354,
  -1.0039561986923218,
  -1.931013822555542,
  -0.87464839220047,
  -1.4238356351852417,
  -2.457888126373291,
  -0.7574781775474548,
  -2.0307726860046387,
  0.7745892405509949,
  -1.7248713970184326,
  0.5136746168136597,
  -0.4950858950614929,
  -2.127253532409668,
  -1.1466679573059082,
  -0.6397184133529663,
  -0.45574021339416504,
  -0.9707646369934082,
  0.626133918762207,
  -1.8040757179260254,
  -1.854540228843689,
  -1.5481247901916504,
  -1.4145244359970093,
  0.5917161703109741,
  -1.665866732597351,
  -0.9018692970275879,
  -1.5989683866500854,
  0.3462871313095093,
  -1.561419129371643,
  -3.510352373123169,
  -0.6608226895332336,
  -3.447505474090576,
  -1.8578709363937378,
  -2.8654966354370117,
  -2.0948221683502197,
  -1.6202778816223145,
  -1.1716012954711914,
  -2.092480421066284,
  -1.22333824634552,
  -1.9754151105880737,
  -1.7862555980682373,
  -3.9935152530670166,
  -1.5249830484390259,
  -5.298419952392578,
  -3.3188188076019287,
  -2.2237887382507324
 ],
 "pi.2.weight": [
  [
   0.4272887110710144,
   0.5013290047645569,
   0.13761956989765167,
   -0.1982334852218628,
   0.14845320582389832,
   -0.07480894029140472,
   0.24172483384609222,
   0.0470830500125885,
   -0.10609901696443558,
   0.10324721783399582,
   -0.224223792552948,
   -0.07874340564012527,
   -0.06045926734805107,
   -0.30381307005882263,
   -0.19854691624641418,
   -0.4210096001625061,
   0.08293935656547546,
   -0.5712788105010986,
   0.19712506234645844,
   -0.1598842889070511,
   -0.1916733682155609,
   -0.42177557945251465,
   0.009852413088083267,
   0.1771220564842224,
   -0.11677002906799316,
   0.06303301453590393,
   0.4064258635044098,
   0.23370246589183807,
   -1.04600191116333,
   -0.25298240780830383,
   -0.4576255977153778,
   -0.23030880093574524,
   0.2731611728668213,
   0.2316036969423294,
   -0.11285897344350815,
   -0.12225521355867386,
   0.0681043490767479,
   0.3635919690132141,
   0.053323253989219666,
   -0.4542580246925354,
   0.30999526381492615,
   0.18587104976177216,
   0.45907437801361084,
   0.40369752049446106,
   -0.05572136491537094,
   0.23339298367500305,
   0.12662167847156525,
   0.01737339422106743,
   -0.11202956736087799,
   0.11795425415039062,
   0.44452282786369324,
   -0.4968392550945282,
   -0.43896201252937317,
   0.09362296015024185,
   0.4281010329723358,
   -0.17656168341636658,
   -0.42657479643821716,
   0.1876474767923355,
   -0.45780616998672485,
   0.42602214217185974,
   -0.2788006365299225,
   -0.003762738313525915,
   0.16224391758441925,
   0.8919937014579773,
   -0.5498517751693726,
   -0.7851070761680603,
   -0.8571145534515381,
   -0.1548197865486145,
   -0.030053408816456795,
   -0.018499355763196945,
   0.6956084966659546,
   -0.013001156970858574,
   -0.5790913701057434,
   -0.43630534410476685,
   -0.3464226722717285,
   0.5093404650688171,
   0.09165478497743607,
   0.3323451578617096,
   -0.07705473899841309,
   0.49346163868904114,
   -0.16077937185764313,
   0.7573179602622986,
   -0.31887495517730713,
   -0.23873089253902435,
   -0.5728306174278259,
   0.21804179251194,
   0.005210018716752529,
   -0.04226746782660484,
   -0.23735326528549194,
   0.49229636788368225,
   -0.012165733613073826,
   -0.14347293972969055,
   0.32243332266807556,
   0.1696350872516632,
   0.08913258463144302,
   -0.02515774965286255,
   0.32539018988609314,
   0.48634472489356995,
   -0.2391151487827301,
   0.38497477769851685
  ],
  [
   -0.08503314852714539,
   -0.06674252450466156,
   -0.20388564467430115,
   -0.025807276368141174,
   0.2023411989212036,
   0.4956285357475281,
   -0.04864014685153961,
   -0.23953929543495178,
   0.5191388130187988,
   -0.18614131212234497,
   -0.03655482828617096,
   -0.17658665776252747,
   -0.0286700539290905,
   -0.061243344098329544,
   0.005886804778128862,
   0.0005650458042509854,
   -0.2798159420490265,
   0.015352855436503887,
   -0.25975799560546875,
   0.3111260235309601,
   0.058958180248737335,
   -0.4077404737472534,
   -0.2569063901901245,
   0.753145694732666,
   0.3909633457660675,
   0.03094569779932499,
   0.05756840482354164,
   -0.04444761946797371,
   -0.7089813351631165,
   0.0036332057788968086,
   0.44263336062431335,
   0.3407343029975891,
   0.020373646169900894,
   0.2273673564195633,
   -0.1980733871459961,
   -0.07954485714435577,
   0.35185226798057556,
   0.0683232992887497,
   1.235268235206604,
   -0.18708302080631256,
   -0.12161840498447418,
   0.16133931279182434,
   -0.23905335366725922,
   -0.002341464627534151,
   -0.224724680185318,
   0.05998372659087181,
   -0.18700210750102997,
   0.3096979856491089,
   0.33271822333335876,
   -0.16252924501895905,
   0.021401556208729744,
   0.26307329535484314,
   -0.12886901199817657,
   -0.20515891909599304,
   0.025770431384444237,
   0.18337450921535492,
   0.1102876216173172,
   -0.2645762860774994,
   -0.03612235561013222,
   -0.1265014111995697,
   0.18479393422603607,
   0.2982862889766693,
   -0.371294766664505,
   -0.12465403228998184,
   -0.03514416143298149,
   0.02598368376493454,
   0.08586949855089188,
   0.32912394404411316,
   -0.3127818703651428,
   0.18124553561210632,
   0.003794698975980282,
   0.2695530652999878,
   -0.06944529712200165,
   0.4255370795726776,
   0.18911851942539215,
   -0.005637031048536301,
   -0.30501070618629456,
   -0.11170687526464462,
   0.15385979413986206,
   0.09622876346111298,
   0.36383137106895447,
   -0.07540573924779892,
   0.2871815264225006,
   -0.1536005139350891,
   0.08009277284145355,
   -0.5610182285308838,
   -0.2193109691143036,
   -0.20985980331897736,
   -0.05654866620898247,
   0.2405494749546051,
   0.2903692424297333,
   -0.13922879099845886,
   -0.13244710862636566,
   0.0819489061832428,
   -3.3232784271240234,
   1.3474324941635132,
   0.2946389317512512,
   -4.760948657989502,
   0.1448901742696762,
   -0.5933482050895691
  ]
 ],
 "pi.2.bias": [
  -0.05844245105981827,
  0.18557387590408325
 ]
}