{
 "pi.0.weight": [
  [
   0.3797534704208374,
   0.11016837507486343,
   -0.00659283297136426,
   0.022919367998838425,
   -0.8554118275642395,
   -0.3819168508052826
  ],
  [
   0.22587314248085022,
   0.17218613624572754,
   0.09110613167285919,
   0.17953798174858093,
   -0.8836703300476074,
   -0.04230038449168205
  ],
  [
   -0.3483642041683197,
   -0.5443329215049744,
   -0.030786626040935516,
   0.01718461699783802,
   0.20782549679279327,
   -0.20080454647541046
  ],
  [
   -0.3890638053417206,
   0.04852098226547241,
   -0.14510715007781982,
   0.0770488977432251,
   0.10448148101568222,
   -0.007055345922708511
  ],
  [
   0.16092029213905334,
   -0.008346989750862122,
   -0.24532456696033478,
   -0.20743019878864288,
   -0.19083568453788757,
   1.0455657243728638
  ],
  [
   0.44337907433509827,
   0.3581608831882477,
   -0.11111436039209366,
   0.17423035204410553,
   -1.0019649267196655,
   -0.17951594293117523
  ],
  [
   -0.082308329641819,
   0.394519180059433,
   -0.24240419268608093,
   0.07007776200771332,
   -0.19663406908512115,
   -1.0171159505844116
  ],
  [
   0.7591419816017151,
   -0.44191521406173706,
   -0.05818222090601921,
   -0.0923827514052391,
   -0.23893827199935913,
   0.10114672034978867
  ],
  [
   0.2833009660243988,
   0.050367675721645355,
   0.2093087136745453,
   0.18829567730426788,
   0.6290602684020996,
   -0.20012131333351135
  ],
  [
   0.4796425700187683,
   -0.37325575947761536,
   -0.026196736842393875,
   -0.2388536036014557,
   -0.43217888474464417,
   -0.23911595344543457
  ],
  [
   0.26016655564308167,
   0.351898193359375,
   -0.08543546497821808,
   -0.16057980060577393,
   -0.47316664457321167,
   0.21101219952106476
  ],
  [
   0.536257266998291,
   -0.4213605523109436,
   -0.1241653636097908,
   0.0272317323833704,
   -0.06800821423530579,
   0.13817468285560608
  ],
  [
   0.4667852818965912,
   0.3567321002483368,
   0.23077824711799622,
   -0.021543771028518677,
   0.17387108504772186,
   0.4102238416671753
  ],
  [
   0.70562344789505,
   -0.027386071160435677,
   0.03884459659457207,
   -0.1302015334367752,
   -0.3872254490852356,
   -0.12639324367046356
  ],
  [
   0.3800351321697235,
   0.17343196272850037,
   0.29620400071144104,
   -0.0023964715655893087,
   0.18632963299751282,
   0.2458328753709793
  ],
  [
   0.3434784710407257,
   0.247568741440773,
   0.19086728990077972,
   0.116859070956707,
   -0.5795333981513977,
   -0.5831612944602966
  ],
  [
   0.829215943813324,
   0.022871168330311775,
   0.26678386330604553,
   0.034792616963386536,
   -0.3570784628391266,
   -0.08965853601694107
  ],
  [
   0.43177807331085205,
   0.4393649101257324,
   0.1611006259918213,
   0.07362747937440872,
   -0.3858996331691742,
   -0.6480196118354797
  ],
  [
   0.4630507826805115,
   0.19648990035057068,
   0.3547295928001404,
   0.12698210775852203,
   -0.13144905865192413,
   -0.2987947463989258
  ],
  [
   0.0347169004380703,
   -0.04404330253601074,
   0.09361129254102707,
   0.1567663848400116,
   -0.09532656520605087,
   0.5116565227508545
  ],
  [
   0.2541593909263611,
   0.2329397052526474,
   -0.015179386362433434,
   -0.003917640075087547,
   -0.23737733066082,
   0.5424556136131287
  ],
  [
   0.013034192845225334,
   -0.28269243240356445,
   0.050226081162691116,
   -0.4471913278102875,
   -0.3397555649280548,
   0.5134232044219971
  ],
  [
   -0.17419655621051788,
   0.015667660161852837,
   0.2580130398273468,
   -0.1935143768787384,
   1.2671383619308472,
   -0.2595294415950775
  ],
  [
   0.5659660696983337,
   -0.16352586448192596,
   0.32523801922798157,
   0.2526136338710785,
   -0.1180415078997612,
   0.28344619274139404
  ],
  [
   0.7189962267875671,
   0.3152642846107483,
   0.03412840887904167,
   0.07050443440675735,
   -0.5814744830131531,
   -0.175608828663826
  ],
  [
   -0.06833681464195251,
   0.25296032428741455,
   -0.1455763280391693,
   0.29694539308547974,
   -0.22775381803512573,
   -0.10107240080833435
  ],
  [
   0.3178693354129791,
   -0.3396933674812317,
   0.09597419947385788,
   -0.5185155868530273,
   -0.01078771147876978,
   -0.16894692182540894
  ],
  [
   0.1754118800163269,
   -0.26831233501434326,
   0.28226378560066223,
   -0.5785714387893677,
   -0.3585226833820343,
   0.4285637140274048
  ],
  [
   0.5800356864929199,
   -0.08581431210041046,
   0.4905323386192322,
   0.40097418427467346,
   -0.11141125112771988,
   0.4899767339229584
  ],
  [
   -0.28446412086486816,
   0.6457919478416443,
   0.06075910106301308,
   0.14128278195858002,
   -0.02750297635793686,
   -1.12450110912323
  ],
  [
   0.6144987940788269,
   0.23677480220794678,
   0.20441003143787384,
   0.24919940531253815,
   -0.2802312970161438,
   0.16031551361083984
  ],
  [
   0.4346041679382324,
   0.261761873960495,
   0.028587786480784416,
   0.49227774143218994,
   -0.030290329828858376,
   -0.4798794090747833
  ],
  [
   0.031225107610225677,
   0.4915751516819,
   0.08767259865999222,
   -0.2646685540676117,
   -0.03735804557800293,
   -0.04062580689787865
  ],
  [
   -0.2548283040523529,
   -0.08425114303827286,
   0.3202591836452484,
   0.3432231545448303,
   -0.12772712111473083,
   -0.3235357105731964
  ],
  [
   0.30203676223754883,
   -0.010013989172875881,
   0.3141908347606659,
   -0.21248872578144073,
   -0.05847311019897461,
   -0.4828725755214691
  ],
  [
   0.15846683084964752,
   0.039274752140045166,
   0.13458329439163208,
   0.02002502977848053,
   -1.048979640007019,
   0.5617662668228149
  ],
  [
   0.36752647161483765,
   -0.3185673952102661,
   0.0805492028594017,
   -0.15019255876541138,
   -0.5107670426368713,
   0.3522939383983612
  ],
  [
   0.3283848166465759,
   -0.07205598056316376,
   -0.10035376250743866,
   0.16903144121170044,
   0.2755170166492462,
   0.2412354201078415
  ],
  [
   0.3639015853404999,
   0.24635782837867737,
   0.03557240962982178,
   0.13453488051891327,
   -0.11716483533382416,
   0.7206905484199524
  ],
  [
   0.5438350439071655,
   -0.3052253723144531,
   -0.03701663762331009,
   -0.21780024468898773,
   -0.8500737547874451,
   0.5622084140777588
  ],
  [
   0.2877999246120453,
   0.20828844606876373,
   -0.005580206401646137,
   -0.06886348873376846,
   0.06396158784627914,
   -0.4886971712112427
  ],
  [
   0.14206929504871368,
   0.03413115069270134,
   0.07176519930362701,
   -0.046666089445352554,
   -0.5502152442932129,
   0.020582018420100212
  ],
  [
   0.562306821346283,
   -0.006024789065122604,
   -0.16401225328445435,
   0.028540903702378273,
   -0.552890956401825,
   -0.01768665947020054
  ],
  [
   0.0313744992017746,
   0.3349864184856415,
   -0.13321614265441895,
   0.46038955450057983,
   -0.4306625425815582,
   -0.3663257956504822
  ],
  [
   0.2364862561225891,
   -0.4449479877948761,
   0.03331267088651657,
   -0.06660319864749908,
   0.06520204246044159,
   -0.3269769549369812
  ],
  [
   0.1606244444847107,
   -0.007763110566884279,
   -0.228459894657135,
   -0.4313371181488037,
   -0.5078639388084412,
   0.23879902064800262
  ],
  [
   0.5183157324790955,
   0.038914479315280914,
   0.21216389536857605,
   0.03902377188205719,
   -0.5007129311561584,
   0.0230289027094841
  ],
  [
   0.5816997289657593,
   0.316098153591156,
   0.4582301378250122,
   0.202946737408638,
   -0.09752447158098221,
   0.11054601520299911
  ],
  [
   0.2534075975418091,
   0.5023401975631714,
   -0.10624479502439499,
   -0.05938928574323654,
   -0.3811724781990051,
   -0.07565849274396896
  ],
  [
   0.2851945757865906,
   -0.5131857991218567,
   0.3532251715660095,
   -0.35398367047309875,
   -0.668143630027771,
   0.18883498013019562
  ],
  [
   -0.1063133031129837,
   -0.01892402209341526,
   0.09732449054718018,
   0.0006781012052670121,
   0.24907968938350677,
   -0.703045666217804
  ],
  [
   0.1234559416770935,
   0.13621819019317627,
   0.08463777601718903,
   0.09830666333436966,
   -0.1011214628815651,
   -0.6236388087272644
  ],
  [
   0.479228138923645,
   0.585383951663971,
   0.27387917041778564,
   0.21115551888942719,
   -0.1446227878332138,
   -0.12711311876773834
  ],
  [
   0.08710087835788727,
   0.006737826392054558,
   0.4545217454433441,
   0.48318615555763245,
   -0.464389443397522,
   0.4775373339653015
  ],
  [
   0.6973977088928223,
   -0.1860954314470291,
   0.12866534292697906,
   0.09462139755487442,
   -0.23780864477157593,
   0.3232404291629791
  ],
  [
   0.36263108253479004,
   0.09981881082057953,
   0.35163185000419617,
   0.5360463857650757,
   0.02078329585492611,
   0.15067274868488312
  ],
  [
   0.0994768962264061,
   0.32121142745018005,
   0.08215520530939102,
   0.19158990681171417,
   -1.0737826824188232,
   -0.0809263363480568
  ],
  [
   0.538335919380188,
   0.43222981691360474,
   0.05636842921376228,
   0.025209486484527588,
   -0.6075344085693359,
   -0.713361918926239
  ],
  [
   -0.1882033497095108,
   0.36454641819000244,
   0.16730740666389465,
   0.17297205328941345,
   -0.29257237911224365,
   -0.4043877422809601
  ],
  [
   0.4342985153198242,
   0.39111876487731934,
   0.09369318187236786,
   0.005296778399497271,
   -0.45169535279273987,
   -0.6641186475753784
  ],
  [
   -0.24622243642807007,
   0.37533214688301086,
   -0.20117226243019104,
   0.034442950040102005,
   0.66203373670578,
   -0.48869603872299194
  ],
  [
   0.39889708161354065,
   -0.594295084476471,
   0.3603154718875885,
   -0.3543957769870758,
   -0.001572938053868711,
   0.4096895456314087
  ],
  [
   0.5323666334152222,
   0.14608903229236603,
   0.02265733852982521,
   0.046025801450014114,
   -0.629577100276947,
   -0.7400357127189636
  ],
  [
   0.4298286736011505,
   0.5056864023208618,
   0.025470130145549774,
   0.03211742267012596,
   -0.4183899462223053,
   -0.7403885126113892
  ],
  [
   0.562615692615509,
   -0.1399080753326416,
   0.22390712797641754,
   0.27338480949401855,
   -0.02453635446727276,
   -0.1933511197566986
  ],
  [
   0.06346187740564346,
   -0.4321317970752716,
   0.09282846003770828,
   0.03335557505488396,
   0.11578983813524246,
   0.6380242705345154
  ],
  [
   -0.03877167031168938,
   0.07645268738269806,
   0.3385261595249176,
   0.1380162537097931,
   0.3841153085231781,
   0.8242678642272949
  ],
  [
   0.5251094102859497,
   -0.007800511550158262,
   0.10772667080163956,
   0.0029697197023779154,
   -0.16475717723369598,
   0.058789074420928955
  ],
  [
   0.5024005770683289,
   0.09719179570674896,
   0.14256125688552856,
   0.11575877666473389,
   -0.6499449014663696,
   -0.2161765992641449
  ],
  [
   0.31183284521102905,
   -0.1953374743461609,
   0.08135619759559631,
   0.16980470716953278,
   -0.36953139305114746,
   -0.14083972573280334
  ],
  [
   0.14239628612995148,
   -0.03299449384212494,
   0.06357738375663757,
   0.046105094254016876,
   0.42692631483078003,
   -0.2909810543060303
  ],
  [
   0.2589045464992523,
   0.7128032445907593,
   -0.07429107278585434,
   0.3900565207004547,
   -0.29661890864372253,
   -0.4489472210407257
  ],
  [
   0.6102643609046936,
   0.026518244296312332,
   0.050670940428972244,
   -0.38604703545570374,
   0.12221067398786545,
   -0.5649423599243164
  ],
  [
   0.39157435297966003,
   0.21176178753376007,
   0.054143499583005905,
   0.12303507328033447,
   0.5936146378517151,
   -0.1439848393201828
  ],
  [
   0.21142640709877014,
   0.29182958602905273,
   0.16929829120635986,
   0.27640023827552795,
   -0.6122708320617676,
   -0.7363345623016357
  ],
  [
   0.6689887046813965,
   0.09478460252285004,
   0.19689863920211792,
   0.037585239857435226,
   -0.35991647839546204,
   0.31631898880004883
  ],
  [
   0.16115882992744446,
   0.6910939812660217,
   0.037400227040052414,
   0.4629621207714081,
   0.1483973264694214,
   -0.4439252018928528
  ],
  [
   0.41501182317733765,
   -0.8411245346069336,
   0.18857018649578094,
   -0.03442244976758957,
   -0.057120513170957565,
   0.2000555545091629
  ],
  [
   0.3729025423526764,
   0.24562472105026245,
   0.17266690731048584,
   0.21860839426517487,
   -0.19229748845100403,
   -0.4835153818130493
  ],
  [
   0.955702006816864,
   0.003239738056436181,
   0.08555079996585846,
   -0.015296177938580513,
   -0.786464273929596,
   -0.11512661725282669
  ],
  [
   -0.45963481068611145,
   -0.21487709879875183,
   -0.20894236862659454,
   -0.4223008453845978,
   0.30528178811073303,
   -0.17716100811958313
  ],
  [
   0.43809565901756287,
   0.17441105842590332,
   0.28810784220695496,
   0.16235429048538208,
   -0.7027372717857361,
   0.061159294098615646
  ],
  [
   0.5457906723022461,
   0.14487485587596893,
   0.010130958631634712,
   0.038305144757032394,
   -0.6380624771118164,
   -0.2865791916847229
  ],
  [
   0.30319130420684814,
   0.6187007427215576,
   0.055722031742334366,
   -0.05116511881351471,
   -0.12184353917837143,
   -0.3268972337245941
  ],
  [
   0.5317596197128296,
   -0.571342408657074,
   0.3997736871242523,
   -0.5977468490600586,
   -0.11820503324270248,
   0.18035268783569336
  ],
  [
   -0.3001563847064972,
   0.5758544206619263,
   -0.5408087372779846,
   0.3674510419368744,
   -0.05624576658010483,
   -0.3741527795791626
  ],
  [
   0.06932423263788223,
   -0.05772263929247856,
   -0.0035110500175505877,
   0.2502622902393341,
   0.1669955849647522,
   0.9986836910247803
  ],
  [
   0.5888710618019104,
   0.3466680645942688,
   -0.06987962126731873,
   -0.01202305406332016,
   -0.39969146251678467,
   0.12823568284511566
  ],
  [
   0.4172035753726959,
   0.4872432351112366,
   0.12204401940107346,
   -0.07398143410682678,
   0.18417787551879883,
   -0.556416392326355
  ],
  [
   -0.25377029180526733,
   -0.5657938122749329,
   -0.026707928627729416,
   -0.3467150330543518,
   0.11333740502595901,
   0.0726260170340538
  ],
  [
   0.38883334398269653,
   0.6416667103767395,
   0.20989273488521576,
   0.0004384848871268332,
   -0.14206267893314362,
   -0.6885655522346497
  ],
  [
   0.7286481857299805,
   0.46546778082847595,
   -0.020146401599049568,
   0.05332541838288307,
   -0.547843337059021,
   -0.025243626907467842
  ],
  [
   0.625942587852478,
   -0.4751611053943634,
   0.15447409451007843,
   -0.2871904969215393,
   -0.3508308231830597,
   0.5448987483978271
  ],
  [
   0.5439357757568359,
   0.21614158153533936,
   0.2828562259674072,
   0.22315038740634918,
   -0.29363420605659485,
   -0.08978953212499619
  ],
  [
   -0.28376710414886475,
   0.7264674305915833,
   0.12485483288764954,
   0.09108033776283264,
   -0.6701812148094177,
   0.44466617703437805
  ],
  [
   0.4039377272129059,
   0.33701178431510925,
   0.03711533918976784,
   -0.03493868187069893,
   -0.17479921877384186,
   -0.0641273632645607
  ],
  [
   0.29384180903434753,
   0.4980441629886627,
   -0.10567203909158707,
   0.13700801134109497,
   -0.6795933842658997,
   -0.3941159248352051
  ],
  [
   0.015702351927757263,
   0.08671577274799347,
   -0.03753301128745079,
   0.1332552582025528,
   -0.9212707281112671,
   -0.5882095694541931
  ],
  [
   0.4683147668838501,
   -0.6254479289054871,
   0.2478535771369934,
   -0.2325190007686615,
   -0.21791669726371765,
   0.534282386302948
  ],
  [
   0.2447347790002823,
   -0.024048110470175743,
   -0.28664693236351013,
   0.440480500459671,
   -0.0031160463113337755,
   0.32275402545928955
  ],
  [
   0.20258022844791412,
   0.157952681183815,
   0.023091556504368782,
   -0.31780585646629333,
   0.08571697771549225,
   -0.5262067914009094
  ],
  [
   0.41694357991218567,
   -0.5975391268730164,
   0.019714394584298134,
   -0.16871465742588043,
   -0.0865255817770958,
   -0.16305482387542725
  ],
  [
   0.09213429689407349,
   0.037902943789958954,
   -0.04415343701839447,
   0.1686282753944397,
   0.45213472843170166,
   0.3836970329284668
  ],
  [
   0.062147606164216995,
   0.2557198405265808,
   0.11766760796308517,
   0.1525193601846695,
   0.033583104610443115,
   -0.912739098072052
  ],
  [
   -0.16484175622463226,
   -0.3462023437023163,
   0.15049652755260468,
   0.16957347095012665,
   -0.45978862047195435,
   0.37364763021469116
  ],
  [
   0.20995421707630157,
   0.17325206100940704,
   0.10008882731199265,
   0.0564032644033432,
   0.005986157804727554,
   -0.7034857273101807
  ],
  [
   0.1600264310836792,
   -0.6484323740005493,
   -0.14346376061439514,
   -0.07729689031839371,
   -0.011660495772957802,
   0.1264311671257019
  ],
  [
   0.23648785054683685,
   0.17575961351394653,
   0.005228716414421797,
   0.02072201296687126,
   -0.7070116400718689,
   -0.6125907301902771
  ],
  [
   0.3326473534107208,
   0.15198902785778046,
   0.4992823600769043,
   0.3251561224460602,
   -0.07520134747028351,
   0.40107664465904236
  ],
  [
   -0.08484464883804321,
   -0.601362407207489,
   -0.1718408316373825,
   -0.392181396484375,
   -0.07425211369991302,
   0.5114712715148926
  ],
  [
   0.32843971252441406,
   -0.17310991883277893,
   0.323860228061676,
   -0.2023477554321289,
   0.1017254963517189,
   0.2031932920217514
  ],
  [
   0.2740841209888458,
   0.19378617405891418,
   0.268733412027359,
   0.31907203793525696,
   -0.40642213821411133,
   0.059472329914569855
  ],
  [
   0.34626656770706177,
   0.3342459797859192,
   0.2522599399089813,
   0.44780629873275757,
   -0.11965486407279968,
   0.6930659413337708
  ],
  [
   0.5978698134422302,
   0.0612298808991909,
   -0.022283529862761497,
   0.10141006857156754,
   -0.9296992421150208,
   -0.5244813561439514
  ],
  [
   0.21243740618228912,
   0.301684707403183,
   0.019840359687805176,
   -0.41029903292655945,
   0.09852244704961777,
   -0.8849075436592102
  ],
  [
   0.15710683166980743,
   0.33935269713401794,
   0.033792540431022644,
   0.3463090658187866,
   0.3946729302406311,
   -0.3669262230396271
  ],
  [
   0.7485466599464417,
   -0.1556566208600998,
   0.14101067185401917,
   -0.03620007261633873,
   -0.34639933705329895,
   0.12980856001377106
  ],
  [
   -0.15291838347911835,
   0.9936268329620361,
   0.012413261458277702,
   0.13774172961711884,
   -0.12637092173099518,
   -1.2593787908554077
  ],
  [
   0.04066399112343788,
   0.7397031188011169,
   -0.02223028987646103,
   0.11018843203783035,
   0.49803024530410767,
   0.23355737328529358
  ],
  [
   0.6406232714653015,
   0.17517012357711792,
   0.01612936332821846,
   8.583249291405082e-05,
   -0.08078379184007645,
   -0.025597458705306053
  ],
  [
   0.38311970233917236,
   -0.6942343711853027,
   0.09050922840833664,
   -0.15073418617248535,
   -0.22634148597717285,
   0.1402091234922409
  ],
  [
   0.6433370113372803,
   -0.1370026022195816,
   0.2390679270029068,
   0.019062520936131477,
   -0.09752795100212097,
   1.3568919897079468
  ],
  [
   0.47160542011260986,
   -0.08770027756690979,
   0.1576712727546692,
   -0.29999274015426636,
   0.296546071767807,
   -0.2340748906135559
  ],
  [
   0.41639378666877747,
   0.22627760469913483,
   0.13262420892715454,
   0.06848175823688507,
   0.3808751404285431,
   -0.10527843236923218
  ],
  [
   0.7467765212059021,
   -0.22295120358467102,
   -0.013245153240859509,
   -0.08447456359863281,
   0.015784986317157745,
   -0.0827334076166153
  ],
  [
   -0.08297211676836014,
   0.10130815953016281,
   0.5621246099472046,
   -0.18554188311100006,
   0.14517681300640106,
   0.2646942734718323
  ],
  [
   0.07982368022203445,
   0.7559278011322021,
   0.07863536477088928,
   0.189350888133049,
   0.6297377347946167,
   -0.35972538590431213
  ],
  [
   -0.14913228154182434,
   0.23997880518436432,
   0.39730414748191833,
   0.009995823726058006,
   0.3920632004737854,
   -0.0422523096203804
  ],
  [
   0.15670396387577057,
   -0.17749452590942383,
   -0.08868072926998138,
   0.2023155391216278,
   -0.2122708410024643,
   0.471044659614563
  ],
  [
   0.34485599398612976,
   0.21078737080097198,
   0.10992244631052017,
   0.2845461070537567,
   -0.7945581078529358,
   -0.1788015365600586
  ],
  [
   -0.11127196252346039,
   0.9829767346382141,
   -0.024088362231850624,
   0.244657501578331,
   -0.01348139252513647,
   -0.9533523321151733
  ],
  [
   0.4044198989868164,
   0.5451399683952332,
   0.02593163773417473,
   0.29134973883628845,
   -0.4888860881328583,
   -0.22516173124313354
  ],
  [
   0.42656201124191284,
   0.32891392707824707,
   0.052831415086984634,
   0.019307799637317657,
   -0.6386163830757141,
   -0.6777505278587341
  ],
  [
   0.2552909553050995,
   -0.010940494015812874,
   0.11384411156177521,
   0.03430996462702751,
   -0.6364324688911438,
   0.47898611426353455
  ],
  [
   0.3922663629055023,
   0.2980348467826843,
   0.3316667079925537,
   0.21920451521873474,
   -0.03124145418405533,
   0.06177356094121933
  ],
  [
   0.2894129157066345,
   -0.18979443609714508,
   0.1078529953956604,
   0.012550069950520992,
   0.2544839382171631,
   0.30061596632003784
  ],
  [
   0.4513038098812103,
   0.28899773955345154,
   0.025789348408579826,
   0.040352918207645416,
   -0.6426506042480469,
   -0.41342389583587646
  ],
  [
   0.6515236496925354,
   0.25354939699172974,
   0.2460472583770752,
   -0.10836801677942276,
   -0.05638827010989189,
   -0.043602488934993744
  ],
  [
   0.22697123885154724,
   -0.0023844989482313395,
   -0.07249142229557037,
   -0.10980409383773804,
   -0.39481985569000244,
   -0.10987259447574615
  ],
  [
   0.7647067308425903,
   -0.14700518548488617,
   -0.18972164392471313,
   0.040661945939064026,
   -0.3999996483325958,
   0.11349542438983917
  ],
  [
   -0.012864108197391033,
   0.7771013379096985,
   0.04514192044734955,
   0.23452797532081604,
   0.0464491993188858,
   -0.8790463805198669
  ],
  [
   0.07405967265367508,
   -0.3802385628223419,
   0.1322142630815506,
   -0.3459875285625458,
   -0.32233765721321106,
   0.060393840074539185
  ],
  [
   0.14064140617847443,
   0.0652834102511406,
   0.3873981833457947,
   0.05378143489360809,
   -0.45624157786369324,
   0.030303481966257095
  ],
  [
   0.48062998056411743,
   -0.14899711310863495,
   0.20331618189811707,
   -0.09733670204877853,
   -0.6421177983283997,
   0.06677655875682831
  ],
  [
   0.5309046506881714,
   -0.374618262052536,
   0.4335799515247345,
   -0.4949840307235718,
   -0.008168120868504047,
   -0.5416953563690186
  ],
  [
   0.5560784935951233,
   0.643297553062439,
   0.005290464498102665,
   -0.031188614666461945,
   -0.34358397126197815,
   -0.7375853061676025
  ],
  [
   0.6304053068161011,
   0.5027591586112976,
   0.030825214460492134,
   -0.006124986335635185,
   -0.29594722390174866,
   -0.16873560845851898
  ],
  [
   0.4250376224517822,
   0.5934901833534241,
   -0.027539830654859543,
   0.27418065071105957,
   -0.28469717502593994,
   -0.5831423997879028
  ],
  [
   0.06519126147031784,
   0.51114422082901,
   0.0064518204890191555,
   -0.037963155657052994,
   -0.6368309855461121,
   -0.48562610149383545
  ],
  [
   0.23433339595794678,
   0.3634847104549408,
   -0.006036169361323118,
   -0.0508788637816906,
   -0.16479457914829254,
   -0.7389301657676697
  ],
  [
   0.5296048521995544,
   0.6290123462677002,
   0.017047861590981483,
   0.03584704548120499,
   -0.1126466915011406,
   -0.3591204285621643
  ],
  [
   -0.30450639128685,
   -0.5563762187957764,
   0.018874213099479675,
   -0.20191346108913422,
   0.6472132205963135,
   0.3757314682006836
  ],
  [
   0.10122717916965485,
   0.08740611374378204,
   0.06789643317461014,
   0.12896525859832764,
   -0.3751939535140991,
   -0.7884150147438049
  ],
  [
   0.6384727358818054,
   -0.37220799922943115,
   0.002887124428525567,
   -0.1536656767129898,
   -0.5445449352264404,
   0.05433792620897293
  ],
  [
   0.5405314564704895,
   0.021239599213004112,
   0.21123936772346497,
   -0.015497731976211071,
   -0.2937590479850769,
   0.7089216709136963
  ],
  [
   0.6007157564163208,
   0.07262858003377914,
   0.038332078605890274,
   0.0634552538394928,
   -0.41086095571517944,
   0.08151783794164658
  ],
  [
   0.43451905250549316,
   -0.0797974169254303,
   0.006007400341331959,
   -0.12132615596055984,
   -0.5562090873718262,
   -0.3847382366657257
  ],
  [
   0.22969932854175568,
   -0.4198222756385803,
   0.05971594527363777,
   -0.08433593064546585,
   -0.20333199203014374,
   -0.42574626207351685
  ],
  [
   0.12448471784591675,
   0.1283406913280487,
   -0.210606649518013,
   -0.32609573006629944,
   -0.28784725069999695,
   -0.958037257194519
  ],
  [
   0.6981891393661499,
   0.18720924854278564,
   -0.0012494352413341403,
   -0.14176110923290253,
   -0.10655520111322403,
   0.11249810457229614
  ],
  [
   -0.12867560982704163,
   0.42716771364212036,
   0.08701030910015106,
   -0.020125817507505417,
   -0.18935216963291168,
   -0.4363580346107483
  ],
  [
   0.6216936111450195,
   0.221161350607872,
   0.20864666998386383,
   0.4049598276615143,
   -0.19235140085220337,
   -0.09186333417892456
  ],
  [
   0.27450063824653625,
   0.5673509836196899,
   0.35216274857521057,
   0.13535937666893005,
   0.039104051887989044,
   0.009147970005869865
  ],
  [
   -0.4399527311325073,
   0.19000065326690674,
   0.1281490921974182,
   -0.07391361147165298,
   0.2917066514492035,
   -0.05890263244509697
  ],
  [
   0.5158954858779907,
   -0.20786619186401367,
   -0.07383245974779129,
   -0.1654176563024521,
   -0.7615830898284912,
   0.4271969795227051
  ],
  [
   0.33038538694381714,
   0.5528415441513062,
   -0.032893091440200806,
   -0.17023581266403198,
   0.40827295184135437,
   -0.2745732367038727
  ],
  [
   0.20261844992637634,
   0.1863650679588318,
   0.2050393670797348,
   -0.02855832315981388,
   -0.36987319588661194,
   -0.7486144304275513
  ],
  [
   0.196080282330513,
   0.04931705817580223,
   0.09034007042646408,
   -0.07058888673782349,
   -0.45913460850715637,
   -0.5466809868812561
  ],
  [
   0.022410744801163673,
   0.05825629085302353,
   0.3580496609210968,
   0.2499413788318634,
   0.7120283842086792,
   0.15102142095565796
  ],
  [
   0.019088607281446457,
   0.008464974351227283,
   0.5911282896995544,
   0.3081956207752228,
   0.219667449593544,
   0.3260485827922821
  ],
  [
   -0.04070829227566719,
   0.16853828728199005,
   0.1816682666540146,
   -0.19028672575950623,
   0.08366582542657852,
   -1.1096843481063843
  ],
  [
   0.15107284486293793,
   0.6571135520935059,
   0.15268762409687042,
   0.13981246948242188,
   -0.25376105308532715,
   -0.4743152856826782
  ],
  [
   0.14213253557682037,
   -0.6167435646057129,
   0.19187109172344208,
   -0.47869446873664856,
   -0.11039933562278748,
   0.44612446427345276
  ],
  [
   0.043957795947790146,
   0.4400956630706787,
   0.27072852849960327,
   0.02243402600288391,
   -0.5809241533279419,
   0.15346626937389374
  ],
  [
   0.9032865762710571,
   0.043321508914232254,
   0.18735577166080475,
   0.04585983231663704,
   -0.9114934206008911,
   -0.07539869844913483
  ],
  [
   0.42473405599594116,
   -0.2226983606815338,
   -0.08735160529613495,
   0.06364044547080994,
   -0.5023442506790161,
   -0.3890169560909271
  ],
  [
   0.420947790145874,
   0.3512986898422241,
   -0.12084024399518967,
   0.20895594358444214,
   -0.6030153036117554,
   -0.06148913875222206
  ],
  [
   0.06438444554805756,
   0.5831809639930725,
   0.05671136826276779,
   0.19388636946678162,
   -0.055068742483854294,
   -1.1530802249908447
  ],
  [
   0.05693897604942322,
   0.07646279036998749,
   -0.16730216145515442,
   -0.15471354126930237,
   0.12378113716840744,
   -0.6172465682029724
  ],
  [
   0.3558392822742462,
   0.35253626108169556,
   0.020941082388162613,
   0.48494160175323486,
   -0.09455391019582748,
   0.06034543737769127
  ],
  [
   0.4064144194126129,
   0.16568498313426971,
   0.17263415455818176,
   0.14322392642498016,
   -0.41166096925735474,
   0.23915506899356842
  ],
  [
   0.04077053815126419,
   0.24660372734069824,
   0.421023964881897,
   -0.10748733580112457,
   -0.6010530591011047,
   0.32402923703193665
  ],
  [
   0.33792853355407715,
   0.3682088255882263,
   -0.021939976140856743,
   0.08057191222906113,
   0.005092122592031956,
   -0.32593804597854614
  ],
  [
   0.5293554663658142,
   -0.20131860673427582,
   -0.021548783406615257,
   0.04379545897245407,
   0.007211091462522745,
   0.044036202132701874
  ],
  [
   -0.08820419013500214,
   0.33798670768737793,
   0.09192245453596115,
   0.3497520685195923,
   -0.0268363319337368,
   -0.700862467288971
  ],
  [
   0.16616590321063995,
   0.0020387412514537573,
   0.14176015555858612,
   0.09608525782823563,
   -0.9170081615447998,
   0.08657915890216827
  ],
  [
   0.5768059492111206,
   -0.0859132930636406,
   -0.34846967458724976,
   0.29265180230140686,
   -0.41265633702278137,
   0.018212756142020226
  ],
  [
   -0.1259232610464096,
   0.5468073487281799,
   -0.09751246869564056,
   0.12994591891765594,
   -0.34137284755706787,
   -0.40610799193382263
  ],
  [
   0.6120887398719788,
   -0.4130215048789978,
   -0.021749110892415047,
   -0.07737799733877182,
   -0.6542813181877136,
   0.016512487083673477
  ],
  [
   0.381093829870224,
   0.2160710096359253,
   0.286051869392395,
   0.21375344693660736,
   -0.1858246624469757,
   -0.014729226939380169
  ],
  [
   0.4281279742717743,
   0.6228803992271423,
   0.16843003034591675,
   0.009742763824760914,
   -0.1941344290971756,
   -0.7242783904075623
  ],
  [
   -0.04814852401614189,
   0.10538619756698608,
   0.3676281273365021,
   0.012511864304542542,
   0.5032740831375122,
   0.38687944412231445
  ],
  [
   0.16998809576034546,
   0.04311833903193474,
   0.272041380405426,
   -0.27115803956985474,
   -0.44010376930236816,
   -0.010418246500194073
  ],
  [
   0.5460321307182312,
   -0.08071418851613998,
   0.24441954493522644,
   0.05187271907925606,
   -0.17249134182929993,
   -0.10799048840999603
  ],
  [
   0.6428487300872803,
   0.02964537777006626,
   0.15176959335803986,
   0.006192614324390888,
   -0.8761564493179321,
   -0.13369296491146088
  ],
  [
   0.5626843571662903,
   0.30039089918136597,
   -0.0723247081041336,
   0.07990489900112152,
   -0.5728012323379517,
   0.3326561152935028
  ],
  [
   0.514020562171936,
   0.08974913507699966,
   0.020827127620577812,
   -0.06412903219461441,
   0.08279744535684586,
   0.4764336049556732
  ],
  [
   0.6624560356140137,
   -0.6775140166282654,
   0.04338090121746063,
   -0.07146068662405014,
   -0.1577671766281128,
   0.14015519618988037
  ],
  [
   0.4668625593185425,
   -0.4151712656021118,
   0.009124448522925377,
   -0.029005080461502075,
   -0.1906430423259735,
   0.5374698638916016
  ],
  [
   0.11044954508543015,
   0.5464025735855103,
   0.01911761425435543,
   0.329926460981369,
   -0.12589797377586365,
   -0.8433722257614136
  ]
 ],
 "pi.0.bias": [
  -0.8666591644287109,
  0.0019233220955356956,
  -1.2404817342758179,
  -2.336395740509033,
  -3.5184831619262695,
  -0.5694582462310791,
  -1.2752749919891357,
  -0.2218518704175949,
  -1.8024826049804688,
  -1.6668604612350464,
  -2.493753433227539,
  -1.0607080459594727,
  -2.4309628009796143,
  -1.5106010437011719,
  -2.3278746604919434,
  -1.288970947265625,
  -0.33936065435409546,
  0.5514695644378662,
  -0.7926665544509888,
  -0.4736369252204895,
  -1.9311726093292236,
  -0.578417956829071,
  -3.2309319972991943,
  -1.775099277496338,
  -0.08122191578149796,
  -1.040404200553894,
  -1.6979889869689941,
  -1.3765058517456055,
  -0.8315014839172363,
  -0.6568127274513245,
  0.1878303587436676,
  -0.627020537853241,
  -0.5174437761306763,
  -0.5608951449394226,
  -0.9610051512718201,
  -4.031347274780273,
  -1.3949713706970215,
  -1.9860641956329346,
  0.38360485434532166,
  -0.7210088968276978,
  0.15352822840213776,
  0.14484547078609467,
  -1.904958963394165,
  -1.0179468393325806,
  -1.3023324012756348,
  -1.7775466442108154,
  -1.3359923362731934,
  -2.37890887260437,
  -1.4620673656463623,
  -1.3614453077316284,
  -1.3558160066604614,
  -0.3148724436759949,
  0.15737873315811157,
  -4.330198764801025,
  -1.435330867767334,
  -1.6956697702407837,
  -0.5153499245643616,
  -1.3227938413619995,
  -1.04124915599823,
  -0.8290199637413025,
  -1.194314956665039,
  -0.406796395778656,
  -1.484944462776184,
  -0.9951618909835815,
  -1.6290392875671387,
  -1.2569119930267334,
  -4.143363952636719,
  -1.4866044521331787,
  -0.5200384855270386,
  -0.1666676104068756,
  -0.6710307598114014,
  -0.6274523138999939,
  -2.0740725994110107,
  -1.3984383344650269,
  -0.359147310256958,
  -1.162765622138977,
  0.9542171359062195,
  -1.0532441139221191,
  -1.0673078298568726,
  0.39662596583366394,
  -1.3083876371383667,
  -0.04460332915186882,
  -0.7838167548179626,
  0.6579436659812927,
  0.26424703001976013,
  -0.6985844969749451,
  -3.193316698074341,
  -1.7253968715667725,
  -2.1155288219451904,
  -0.256826251745224,
  -1.260097622871399,
  0.12520481646060944,
  -0.7049559354782104,
  -1.7747331857681274,
  -0.46822425723075867,
  -2.663990020751953,
  -0.7229940891265869,
  -1.2533514499664307,
  -0.5036687254905701,
  -7.129421234130859,
  -1.5617060661315918,
  -1.5049442052841187,
  -2.07960844039917,
  -0.5006620287895203,
  -1.0425089597702026,
  0.3417479991912842,
  -1.1655179262161255,
  -1.7294037342071533,
  -1.6746333837509155,
  -0.3961765766143799,
  -1.8088452816009521,
  -0.4182358980178833,
  -1.6812764406204224,
  -1.341599464416504,
  -2.3841488361358643,
  -2.1912786960601807,
  -2.1065807342529297,
  -0.8647670149803162,
  -1.064828872680664,
  -1.6797916889190674,
  -1.461988091468811,
  -1.1284034252166748,
  -2.4305806159973145,
  -1.2078883647918701,
  -1.8384469747543335,
  -1.1720331907272339,
  -1.221853494644165,
  -1.635011076927185,
  -2.4131150245666504,
  0.060429252684116364,
  0.5274851322174072,
  -0.7038482427597046,
  -0.42157256603240967,
  -1.5063420534133911,
  -1.8598039150238037,
  -1.5679657459259033,
  -0.3331080377101898,
  0.501548171043396,
  -2.326313018798828,
  -0.4338737726211548,
  -0.7210469841957092,
  -1.9306985139846802,
  -2.211498737335205,
  0.6912413239479065,
  -1.2032419443130493,
  -0.41471466422080994,
  0.5728278160095215,
  -0.18020950257778168,
  0.6719783544540405,
  -0.6552304625511169,
  -1.488058090209961,
  -1.5144561529159546,
  -1.3640285730361938,
  -0.8376073837280273,
  -1.2079417705535889,
  -1.3853191137313843,
  -1.2539174556732178,
  -1.363365888595581,
  -2.7174293994903564,
  -0.7562220096588135,
  -1.6031826734542847,
  -2.3503100872039795,
  -2.019057035446167,
  -0.13575012981891632,
  -1.5383849143981934,
  -1.426247239112854,
  -1.1011117696762085,
  -1.0190403461456299,
  -3.8210537433624268,
  -2.0147111415863037,
  -3.2982194423675537,
  0.32305797934532166,
  -0.853558361530304,
  -0.9074776768684387,
  -0.3408752679824829,
  -1.3601723909378052,
  -1.3415123224258423,
  -0.53136146068573,
  -4.056893825531006,
  -1.8646180629730225,
  -0.91902095079422,
  -2.4978511333465576,
  -0.34671199321746826,
  -1.6722862720489502,
  0.0015254183672368526,
  -0.48045259714126587,
  -1.5214650630950928,
  -1.1160027980804443,
  -1.7593879699707031,
  -2.3482134342193604,
  -0.036122266203165054,
  -2.2707931995391846,
  -1.368704080581665,
  -1.909000277519226,
  -0.00043553602881729603,
  -1.0479248762130737,
  -1.8572628498077393,
  -0.9987581968307495,
  -1.2289575338363647,
  -1.0974693298339844
 ],
 "pi.2.weight": [
  [
   0.41638725996017456,
   -0.8082619905471802,
   -0.555637538433075,
   0.11756028234958649,
   1.5446830987930298,
   0.6510410308837891,
   -0.11583486199378967,
   0.11582567542791367,
   -0.2158057987689972,
   -0.4814252555370331,
   -0.23798297345638275,
   -0.35080060362815857,
   -0.7538410425186157,
   -0.2436613142490387,
   -0.7860144376754761,
   0.8217537999153137,
   0.2845779359340668,
   0.04906391724944115,
   -0.2509568929672241,
   -0.16903598606586456,
   0.7798370122909546,
   -0.20968961715698242,
   -0.16177740693092346,
   1.0089013576507568,
   -0.4509712755680084,
   0.13811661303043365,
   0.3245965242385864,
   -0.08237466961145401,
   -0.022700807079672813,
   -0.4125252366065979,
   0.2719342112541199,
   0.0043357317335903645,
   0.15534774959087372,
   0.2911529839038849,
   -0.16055317223072052,
   6.903780460357666,
   -0.08510395884513855,
   -0.18059183657169342,
   -0.09078510105609894,
   0.48348256945610046,
   0.3834007680416107,
   -0.3311281204223633,
   0.5805675983428955,
   0.08638857305049896,
   0.38649022579193115,
   0.10226386040449142,
   0.04930306598544121,
   0.5612726211547852,
   -0.7273783683776855,
   -0.004272320307791233,
   0.23875470459461212,
   -0.305942565202713,
   0.2275615930557251,
   1.3480749130249023,
   0.6109466552734375,
   -0.15544745326042175,
   -0.6602423787117004,
   -1.036356806755066,
   -0.17694073915481567,
   0.6350998878479004,
   -0.36599400639533997,
   -0.1813703030347824,
   1.0286556482315063,
   -0.8168905377388,
   -0.38938358426094055,
   0.2087060660123825,
   3.3564977645874023,
   -0.464314341545105,
   0.32293054461479187,
   -0.08983136713504791,
   0.33108437061309814,
   0.042369481176137924,
   0.5954591035842896,
   0.1677016317844391,
   -0.46676555275917053,
   -0.2551770508289337,
   0.23074978590011597,
   0.2975694537162781,
   -0.8304208517074585,
   0.10393278300762177,
   0.4907660186290741,
   0.6053085923194885,
   -0.37341561913490295,
   0.6025716066360474,
   0.2454032599925995,
   0.08032725006341934,
   7.169325351715088,
   0.6038846969604492,
   0.6267831325531006,
   0.02839185670018196,
   0.19278502464294434,
   -0.09659383445978165,
   -0.1996638923883438,
   0.6541100740432739,
   -0.07240969687700272,
   -1.0137678384780884,
   0.3098186254501343,
   -0.013920103199779987,
   -0.004367183428257704,
   0.38030189275741577,
   0.6451230049133301,
   -0.11533325910568237,
   -0.12479428201913834,
   -0.6598138809204102,
   0.10932178050279617,
   -0.28613460063934326,
   -0.27360549569129944,
   1.3166732788085938,
   -0.15879270434379578,
   0.26226070523262024,
   0.5584922432899475,
   0.21004697680473328,
   -0.32021841406822205,
   -0.6352517604827881,
   1.2001335620880127,
   0.31561437249183655,
   -0.587185263633728,
   0.30653828382492065,
   -0.030181119218468666,
   -0.24380268156528473,
   -0.08296146988868713,
   0.22472405433654785,
   -0.6442003846168518,
   0.17504346370697021,
   -0.9219765663146973,
   0.15214817225933075,
   -0.179523304104805,
   -0.16211122274398804,
   -0.33622661232948303,
   0.7301555275917053,
   -0.12212472409009933,
   -0.12288562953472137,
   0.504079282283783,
   0.5567606687545776,
   0.3924086093902588,
   0.47763654589653015,
   -0.36613667011260986,
   -0.20158405601978302,
   0.20639517903327942,
   0.03819426894187927,
   -0.08121932297945023,
   -0.27198243141174316,
   -0.07210009545087814,
   0.2960493266582489,
   -0.18062445521354675,
   -0.7675920128822327,
   -0.7027602195739746,
   0.10333247482776642,
   0.06718990206718445,
   1.0383399724960327,
   0.7289561033248901,
   -0.10804589092731476,
   -0.872941792011261,
   -0.29749712347984314,
   -0.2239019274711609,
   -0.2118363082408905,
   -0.24637752771377563,
   -0.12402186542749405,
   -0.525508463382721,
   0.24455125629901886,
   0.29296955466270447,
   0.655857503414154,
   -0.05063093081116676,
   -0.21670259535312653,
   0.011506454087793827,
   -0.3210902810096741,
   -0.516016960144043,
   0.5249427556991577,
   -1.5208628177642822,
   -0.0020874743349850178,
   0.31346645951271057,
   0.08425858616828918,
   -0.05763716250658035,
   0.27007636427879333,
   -0.8546555042266846,
   0.24751222133636475,
   -0.438440203666687,
   -0.049376972019672394,
   16.31783103942871,
   -0.12277387827634811,
   -0.5609411001205444,
   -0.09354677051305771,
   0.15023694932460785,
   0.6602165102958679,
   0.3607521653175354,
   -0.6407753825187683,
   0.21991370618343353,
   0.04900585114955902,
   0.12991970777511597,
   -1.6794809103012085,
   0.49076753854751587,
   -0.6409212350845337,
   -0.15326936542987823,
   -0.8030737042427063,
   0.7996940612792969,
   0.08674264699220657,
   -0.19260913133621216,
   0.20537184178829193,
   0.1685471534729004,
   -0.03772943094372749
  ],
  [
   0.23376433551311493,
   -0.11570887267589569,
   0.03419332951307297,
   0.46221497654914856,
   -0.5783511996269226,
   0.02764703333377838,
   0.27302029728889465,
   -0.2337360978126526,
   -0.18097981810569763,
   0.08509888499975204,
   0.3850075900554657,
   0.9360266923904419,
   0.13641704618930817,
   0.6027093529701233,
   -0.579987108707428,
   -0.23722276091575623,
   0.02156122960150242,
   -0.31172963976860046,
   0.354117751121521,
   -0.07336058467626572,
   0.028544504195451736,
   -0.1703629493713379,
   -0.13718870282173157,
   -0.09419658035039902,
   0.15222783386707306,
   -0.06890270859003067,
   0.24384291470050812,
   -0.29004064202308655,
   0.23318849503993988,
   0.18313565850257874,
   0.05083503946661949,
   0.17623580992221832,
   0.2077844738960266,
   -0.15172280371189117,
   0.30916470289230347,
   0.29884374141693115,
   -0.3987302780151367,
   0.2912066876888275,
   0.43590959906578064,
   -0.12602853775024414,
   -0.009656236506998539,
   -0.1973763257265091,
   0.5117303729057312,
   0.1094125509262085,
   -0.017607327550649643,
   -0.1673852950334549,
   -0.2663777768611908,
   0.5347093343734741,
   -0.02071668580174446,
   0.42100903391838074,
   0.03825027495622635,
   -0.023470045998692513,
   0.16965928673744202,
   1.199036717414856,
   0.1856813132762909,
   -0.18208472430706024,
   0.23190316557884216,
   -0.0886644646525383,
   -0.42095836997032166,
   0.32640841603279114,
   0.20858775079250336,
   0.23955398797988892,
   0.7287169098854065,
   -0.14194735884666443,
   0.27807390689849854,
   -0.18426209688186646,
   -0.806831955909729,
   -0.5969712138175964,
   -0.1896892935037613,
   0.06340429931879044,
   -0.013623149134218693,
   -0.4160713851451874,
   0.0842711329460144,
   -0.4303070306777954,
   0.02639313042163849,
   0.29914411902427673,
   0.3579685091972351,
   -0.44893771409988403,
   -0.052163638174533844,
   -0.40633106231689453,
   -0.10982667654752731,
   0.10717999935150146,
   0.14129388332366943,
   0.07412271946668625,
   -0.21946972608566284,
   -0.3931693732738495,
   -0.3443300426006317,
   0.2629150152206421,
   -0.2498907744884491,
   0.292744517326355,
   -0.609148383140564,
   0.3861231207847595,
   0.29146143794059753,
   0.2082592248916626,
   0.37134960293769836,
   0.4269477427005768,
   -0.18992237746715546,
   0.36996373534202576,
   0.23314231634140015,
   -1.654572606086731,
   -0.21958057582378387,
   -0.41777992248535156,
   -0.2863866090774536,
   -0.03818763047456741,
   0.09548068046569824,
   -0.38966110348701477,
   0.15905681252479553,
   -0.008737023919820786,
   0.15509764850139618,
   -0.13335715234279633,
   0.33320218324661255,
   -0.14768896996974945,
   -0.21885322034358978,
   -0.765568196773529,
   -0.0013710171915590763,
   -0.10729837417602539,
   -0.6171047687530518,
   -0.4733008146286011,
   0.2255379557609558,
   -0.5708242058753967,
   0.8121486306190491,
   -0.4627716541290283,
   0.010261333547532558,
   -0.14767690002918243,
   -0.5143142342567444,
   0.11654675751924515,
   -0.5943564176559448,
   0.15882225334644318,
   0.03776811808347702,
   -0.003213999792933464,
   0.4491867125034332,
   -0.3826015293598175,
   -0.14747586846351624,
   0.02507679909467697,
   0.5723366737365723,
   -0.4490797817707062,
   -0.27032706141471863,
   0.2654128074645996,
   0.2803170680999756,
   0.3217758536338806,
   -0.3580845296382904,
   -0.4278607666492462,
   -0.5919368863105774,
   -0.20008927583694458,
   0.3451087474822998,
   0.014807544648647308,
   0.17088936269283295,
   0.3799322545528412,
   -0.10993582010269165,
   -0.03600572049617767,
   0.12260133773088455,
   -0.3011119067668915,
   0.01004035584628582,
   0.2230307012796402,
   -0.0998125895857811,
   0.5142592191696167,
   -0.16124016046524048,
   -0.34755805134773254,
   0.3447484076023102,
   0.21528106927871704,
   -0.006734276190400124,
   -0.0980825424194336,
   0.6305190920829773,
   -0.162695050239563,
   0.4440987706184387,
   -0.04451124370098114,
   0.13470226526260376,
   0.22988738119602203,
   -0.48635223507881165,
   0.33885353803634644,
   1.523536205291748,
   0.4395049214363098,
   0.4448665380477905,
   -0.4880824089050293,
   0.16629421710968018,
   0.310776025056839,
   -0.3605930209159851,
   0.4946041405200958,
   -0.7335978746414185,
   0.3056105971336365,
   -0.3777427673339844,
   -0.31353092193603516,
   0.13615936040878296,
   0.6507181525230408,
   0.022314727306365967,
   0.3577660024166107,
   -0.2943566143512726,
   -0.3451289236545563,
   -0.7106820940971375,
   -0.4088755249977112,
   0.06998106092214584,
   -0.15289905667304993,
   0.01679050736129284,
   0.2026977837085724,
   -0.20074674487113953,
   -0.4477792978286743,
   -0.5670399069786072,
   -0.36921581625938416,
   -0.37205901741981506,
   0.3462884724140167
  ]
 ],
 "pi.2.bias": [
  -0.3189394474029541,
  -0.5464238524436951
 ]
}