{
 "pi.0.weight": [
  [
   -0.6405149102210999,
   2.5470190048217773,
   -0.510431170463562
  ],
  [
   -0.5596280694007874,
   -0.42729049921035767,
   0.4703523814678192
  ],
  [
   -0.4421136975288391,
   -0.0029858124908059835,
   -0.5024686455726624
  ],
  [
   0.5145146250724792,
   0.46521449089050293,
   -0.8747301697731018
  ],
  [
   -1.3152364492416382,
   -0.7158270478248596,
   0.8352932333946228
  ],
  [
   1.1214654445648193,
   0.03731362149119377,
   0.2858397364616394
  ],
  [
   -1.0481232404708862,
   -0.5898734331130981,
   0.6835119128227234
  ],
  [
   0.48967111110687256,
   0.42627739906311035,
   -0.3569251000881195
  ],
  [
   -1.387898564338684,
   0.07971659302711487,
   0.5621334910392761
  ],
  [
   0.13136421144008636,
   0.31441110372543335,
   -0.06491593271493912
  ],
  [
   -0.4433344006538391,
   0.01648237369954586,
   -0.6681390404701233
  ],
  [
   1.2328845262527466,
   0.09252666682004929,
   -0.11568882316350937
  ],
  [
   0.5719842314720154,
   0.539630651473999,
   -0.9781824350357056
  ],
  [
   -0.9643457531929016,
   0.002111996291205287,
   -0.6785483956336975
  ],
  [
   -0.5817961096763611,
   0.09528232365846634,
   -0.6085665225982666
  ],
  [
   -1.3596463203430176,
   -0.883060097694397,
   0.9877914786338806
  ],
  [
   -0.17093810439109802,
   -0.2772265076637268,
   -0.23316317796707153
  ],
  [
   -0.5715049505233765,
   1.2009334564208984,
   0.2708376944065094
  ],
  [
   1.2030643224716187,
   0.9415766000747681,
   -0.6979171633720398
  ],
  [
   -0.8844738006591797,
   0.006950638722628355,
   -0.20730145275592804
  ],
  [
   -0.5971155166625977,
   1.2652485370635986,
   0.14251847565174103
  ],
  [
   0.044941194355487823,
   0.01875058189034462,
   -0.3203575313091278
  ],
  [
   0.9037637114524841,
   0.014161059632897377,
   -0.06163294240832329
  ],
  [
   0.7320195436477661,
   0.7108281254768372,
   -1.2303531169891357
  ],
  [
   -0.40169307589530945,
   1.540777325630188,
   -0.28971031308174133
  ],
  [
   -0.5701757073402405,
   0.0027798479422926903,
   -0.7177035212516785
  ],
  [
   -0.06828906387090683,
   -0.3352644443511963,
   0.19891579449176788
  ],
  [
   2.2535533905029297,
   1.763191819190979,
   -1.309425711631775
  ],
  [
   0.8223369121551514,
   0.4612480401992798,
   0.021692033857107162
  ],
  [
   0.9551409482955933,
   0.6730807423591614,
   -0.10621810704469681
  ]
 ],
 "pi.0.bias": [
  -1.3164925575256348,
  0.15944473445415497,
  -2.64111590385437,
  0.8343204259872437,
  0.3468784987926483,
  -2.8321619033813477,
  0.2782398760318756,
  -0.1338355541229248,
  -0.37238025665283203,
  -0.7266255617141724,
  -3.832223415374756,
  0.5778231620788574,
  0.9342533946037292,
  -1.451969027519226,
  -4.344772815704346,
  0.3716214597225189,
  -0.47253718972206116,
  -2.3106932640075684,
  -0.9393231868743896,
  -1.264464259147644,
  -2.4583358764648438,
  0.637179434299469,
  -0.9729682207107544,
  1.1739213466644287,
  -0.7895795702934265,
  -1.5337026119232178,
  0.8809524774551392,
  -1.759368896484375,
  -1.5072240829467773,
  -2.0537407398223877
 ],
 "pi.2.weight": [
  [
   0.4359491169452667,
   0.30122116208076477,
   4.713402271270752,
   -1.8475985527038574,
   -3.2587804794311523,
   2.8172500133514404,
   5.271921634674072,
   0.1047840565443039,
   0.025749217718839645,
   2.6417036056518555,
   -1.3529112339019775,
   0.3369261920452118,
   2.4793238639831543,
   -0.7105585336685181,
   5.470331192016602,
   -1.0786142349243164,
   -0.042211782187223434,
   -3.5957090854644775,
   5.084168434143066,
   1.058438777923584,
   3.1300737857818604,
   -0.07138665020465851,
   0.3267812430858612,
   -0.6674723625183105,
   -0.7274430990219116,
   -0.6853547096252441,
   0.21749837696552277,
   -2.7120182514190674,
   2.9049549102783203,
   -2.784961700439453
  ]
 ],
 "pi.2.bias": [
  -0.306478351354599
 ]
}