{
 "pi.0.weight": [
  [
   1.1197150945663452,
   1.4095745086669922,
   -1.2968144416809082,
   -0.6777196526527405,
   2.021245241165161,
   -1.8978068828582764
  ],
  [
   0.28399407863616943,
   1.330500841140747,
   -0.31952524185180664,
   -2.7825095653533936,
   3.037492513656616,
   2.0493593215942383
  ],
  [
   0.0034895206335932016,
   1.8213382959365845,
   0.18088574707508087,
   -2.5418994426727295,
   2.1744680404663086,
   1.9251439571380615
  ],
  [
   -1.5527020692825317,
   -3.7090132236480713,
   0.9398595690727234,
   -0.2125978171825409,
   -4.0924153327941895,
   2.804208278656006
  ],
  [
   -3.4320640563964844,
   -1.2678738832473755,
   -0.8340045809745789,
   -0.04860750213265419,
   3.442193031311035,
   2.7859811782836914
  ],
  [
   -0.7372252345085144,
   2.338114023208618,
   -0.03010566160082817,
   0.1356722116470337,
   -0.453052818775177,
   -5.288133144378662
  ],
  [
   -0.020522713661193848,
   0.5014996528625488,
   -1.361289620399475,
   4.5315937995910645,
   0.25465819239616394,
   -2.697946310043335
  ],
  [
   -0.6893112063407898,
   0.3702445924282074,
   0.309539794921875,
   -2.5018205642700195,
   -1.8556174039840698,
   1.4459285736083984
  ],
  [
   -1.4197317361831665,
   3.456468343734741,
   -1.8971710205078125,
   -2.1968114376068115,
   1.4106584787368774,
   0.6339447498321533
  ],
  [
   -1.386669635772705,
   -2.5788967609405518,
   -0.33446985483169556,
   0.887444019317627,
   -6.203470230102539,
   -0.07961156219244003
  ],
  [
   -0.18074119091033936,
   0.05092359706759453,
   0.6014925837516785,
   0.6315362453460693,
   -6.096441745758057,
   -0.5927088260650635
  ],
  [
   2.6319260597229004,
   -0.5277037620544434,
   -0.42368894815444946,
   1.4650228023529053,
   1.5944163799285889,
   1.5409581661224365
  ],
  [
   3.0209462642669678,
   -0.15605156123638153,
   2.203657865524292,
   -0.24521209299564362,
   0.8179154992103577,
   -3.3170087337493896
  ],
  [
   1.5489234924316406,
   -0.2938893139362335,
   -0.9434999823570251,
   -0.7466942071914673,
   0.5670958757400513,
   0.9396640062332153
  ],
  [
   0.9770367741584778,
   1.8849951028823853,
   0.0853545144200325,
   -0.7949163913726807,
   -0.6779687404632568,
   -3.290060043334961
  ],
  [
   -0.9214801788330078,
   -2.088174819946289,
   0.2826831340789795,
   -2.900712728500366,
   -1.621824860572815,
   5.78505802154541
  ],
  [
   3.0408689975738525,
   3.6121885776519775,
   -0.14441300928592682,
   0.3466249406337738,
   -0.12602223455905914,
   -3.211101770401001
  ],
  [
   1.04957115650177,
   0.5374516844749451,
   -3.2007713317871094,
   0.37657761573791504,
   -0.33220618963241577,
   -0.1435348242521286
  ],
  [
   0.48299187421798706,
   1.5686171054840088,
   -0.4628354012966156,
   0.7066690921783447,
   -0.06656810641288757,
   -4.40853214263916
  ],
  [
   1.189298152923584,
   2.827531099319458,
   -0.08580594509840012,
   3.3867132663726807,
   1.0758589506149292,
   0.8893502354621887
  ],
  [
   -1.335228443145752,
   1.2180153131484985,
   -0.5031245350837708,
   0.9814249873161316,
   2.0330607891082764,
   -5.5593461990356445
  ],
  [
   0.4492779076099396,
   1.7137047052383423,
   0.13842664659023285,
   -1.9722949266433716,
   1.7958052158355713,
   1.4742854833602905
  ],
  [
   -1.9163939952850342,
   2.9075558185577393,
   0.3771854341030121,
   -0.805347740650177,
   2.6030333042144775,
   -1.252693772315979
  ],
  [
   -1.3142178058624268,
   2.031951904296875,
   -1.711464524269104,
   2.8133063316345215,
   -0.3017383813858032,
   1.0489599704742432
  ],
  [
   -4.204810619354248,
   -0.44512006640434265,
   -2.2760379314422607,
   -1.1056910753250122,
   0.6942963600158691,
   -0.4816576838493347
  ],
  [
   -3.6359665393829346,
   -0.020209647715091705,
   -3.1048645973205566,
   -0.9260808229446411,
   1.5850675106048584,
   -0.7264827489852905
  ],
  [
   0.5286580324172974,
   -5.088671684265137,
   1.532576084136963,
   0.6324964165687561,
   0.9975947737693787,
   -3.7659542560577393
  ],
  [
   -0.0680226981639862,
   0.75372713804245,
   -0.9309706091880798,
   -1.9088507890701294,
   3.6907715797424316,
   2.6437783241271973
  ],
  [
   1.350663185119629,
   -1.1024599075317383,
   0.6073126196861267,
   -1.8913235664367676,
   4.878779411315918,
   0.30297330021858215
  ],
  [
   1.8638191223144531,
   -0.6616577506065369,
   -1.0399140119552612,
   -1.9305543899536133,
   0.8025953769683838,
   0.01753081940114498
  ],
  [
   0.12189465761184692,
   0.8742441534996033,
   0.23100389540195465,
   2.1639277935028076,
   -0.24301734566688538,
   -3.605743885040283
  ],
  [
   0.6689449548721313,
   -1.9076350927352905,
   1.2818577289581299,
   4.459409236907959,
   -1.498832106590271,
   -0.016684601083397865
  ],
  [
   -0.12126913666725159,
   5.844529628753662,
   -1.0467716455459595,
   1.727165937423706,
   4.232537746429443,
   0.7884105443954468
  ],
  [
   -4.980576515197754,
   0.7647469639778137,
   -2.3375511169433594,
   0.47518232464790344,
   5.651058673858643,
   -0.2220374196767807
  ],
  [
   -1.733999252319336,
   0.2738208472728729,
   -1.0586285591125488,
   -0.18046003580093384,
   6.005139350891113,
   1.1351042985916138
  ],
  [
   0.15497826039791107,
   0.3695128560066223,
   -0.8278007507324219,
   -3.698755979537964,
   -2.525489330291748,
   -0.4615597426891327
  ],
  [
   -0.09898457676172256,
   4.971522808074951,
   0.41514500975608826,
   0.1361803412437439,
   0.9001754522323608,
   4.575498104095459
  ],
  [
   1.3053832054138184,
   2.9821040630340576,
   0.3093442916870117,
   1.2222368717193604,
   -1.019694447517395,
   -2.6256206035614014
  ],
  [
   -0.4351903200149536,
   -0.3857945203781128,
   -1.8321046829223633,
   0.35076022148132324,
   0.6973118185997009,
   4.415243148803711
  ],
  [
   -1.4674725532531738,
   0.40940073132514954,
   -2.5198416709899902,
   -1.1858056783676147,
   -1.377895474433899,
   4.629384994506836
  ],
  [
   1.7377499341964722,
   1.4447283744812012,
   0.9404937028884888,
   2.120614528656006,
   2.014190196990967,
   -4.000062465667725
  ],
  [
   -1.4592806100845337,
   -0.6060274839401245,
   -1.1315529346466064,
   -2.6766114234924316,
   -0.14432208240032196,
   4.405941486358643
  ],
  [
   0.459297239780426,
   3.0746076107025146,
   0.32662877440452576,
   2.0873820781707764,
   -3.2607312202453613,
   2.4890928268432617
  ],
  [
   1.8227238655090332,
   -0.8720526099205017,
   -0.8572324514389038,
   -0.1814729869365692,
   -3.465960741043091,
   -0.04262828826904297
  ],
  [
   -0.4976023733615875,
   1.2393641471862793,
   0.21518972516059875,
   -0.526864767074585,
   2.267235040664673,
   -3.584930419921875
  ],
  [
   -3.450552463531494,
   0.15499664843082428,
   -0.9689499735832214,
   4.131296157836914,
   -2.6575927734375,
   -2.642975091934204
  ],
  [
   -0.29710185527801514,
   -1.6357754468917847,
   0.19656479358673096,
   -0.025492360815405846,
   -4.2748637199401855,
   0.9933217167854309
  ],
  [
   2.0289194583892822,
   -0.9459309577941895,
   -0.2751980125904083,
   0.7023418545722961,
   1.4455167055130005,
   3.7094414234161377
  ],
  [
   7.313239097595215,
   0.7771430015563965,
   0.14647412300109863,
   2.082277774810791,
   3.2857062816619873,
   -0.2861204445362091
  ],
  [
   -0.29489263892173767,
   0.24369041621685028,
   1.86228346824646,
   -3.463791847229004,
   1.766290307044983,
   3.8914430141448975
  ],
  [
   -0.5307343006134033,
   -0.6540074348449707,
   2.076415538787842,
   1.4513567686080933,
   0.9706083536148071,
   -4.2351579666137695
  ],
  [
   0.8389622569084167,
   -3.2182767391204834,
   -0.4456147253513336,
   -0.259918212890625,
   4.479870319366455,
   0.43060746788978577
  ],
  [
   -0.13796783983707428,
   -2.8854613304138184,
   -0.19749432802200317,
   -1.025155782699585,
   -2.343496322631836,
   2.0920560359954834
  ],
  [
   1.4056611061096191,
   1.8076304197311401,
   0.424858957529068,
   -1.9642149209976196,
   -1.2514276504516602,
   -1.8982518911361694
  ],
  [
   -1.0017871856689453,
   0.8558242917060852,
   0.815626859664917,
   -0.05330401659011841,
   1.8586088418960571,
   -4.651144981384277
  ],
  [
   -2.5499582290649414,
   -0.0425865463912487,
   -0.21759174764156342,
   0.955413281917572,
   7.531656742095947,
   0.12454196810722351
  ],
  [
   -3.4205856323242188,
   0.5158307552337646,
   -0.17759767174720764,
   -1.1561534404754639,
   -4.00445556640625,
   0.7679780125617981
  ],
  [
   -0.7650701999664307,
   3.687656879425049,
   0.7356497645378113,
   0.32191407680511475,
   -1.2098000049591064,
   1.36435866355896
  ],
  [
   0.048239436000585556,
   1.3011934757232666,
   -0.44028356671333313,
   3.024123430252075,
   -0.5570495128631592,
   -6.486202716827393
  ],
  [
   -3.335566997528076,
   -4.535893440246582,
   -0.30636289715766907,
   0.6823496222496033,
   -0.5877590179443359,
   -5.2962541580200195
  ],
  [
   1.943734884262085,
   1.8689249753952026,
   -0.3781770169734955,
   0.6229348182678223,
   -1.0116344690322876,
   0.03679301589727402
  ],
  [
   -1.5070983171463013,
   -1.797968864440918,
   0.2637922167778015,
   0.6902730464935303,
   -2.532057285308838,
   5.074520587921143
  ],
  [
   -1.7621099948883057,
   4.252987861633301,
   -0.5290578007698059,
   -0.29353684186935425,
   4.5293402671813965,
   2.537748336791992
  ],
  [
   -1.2911373376846313,
   0.939472496509552,
   1.2660611867904663,
   -0.10943614691495895,
   0.23838159441947937,
   -0.12389857321977615
  ],
  [
   -0.5744207501411438,
   1.8682148456573486,
   0.8890470266342163,
   3.2551801204681396,
   -3.5819430351257324,
   2.9283435344696045
  ],
  [
   1.113345980644226,
   1.9234071969985962,
   0.17423342168331146,
   0.21605361998081207,
   -1.8338541984558105,
   -3.572329521179199
  ],
  [
   -2.145324468612671,
   -5.249210357666016,
   1.8092312812805176,
   0.16058503091335297,
   -1.3690969944000244,
   0.4469383656978607
  ],
  [
   1.6737200021743774,
   1.29515540599823,
   1.5848137140274048,
   -0.22228844463825226,
   2.8552815914154053,
   -3.219748020172119
  ],
  [
   0.8044920563697815,
   2.406646966934204,
   0.42162925004959106,
   -0.7884332537651062,
   0.027934998273849487,
   -4.230077743530273
  ],
  [
   -1.5858874320983887,
   1.300718903541565,
   1.5800539255142212,
   2.2795605659484863,
   0.48307889699935913,
   1.4681850671768188
  ],
  [
   -1.867031216621399,
   -3.4449620246887207,
   -0.17727680504322052,
   -0.1830431967973709,
   -5.957270622253418,
   -0.2345259189605713
  ],
  [
   -3.539612293243408,
   0.11646263301372528,
   -1.9920949935913086,
   1.855002999305725,
   2.097193479537964,
   0.7928134799003601
  ],
  [
   2.069725513458252,
   -0.7222912311553955,
   0.5831919312477112,
   2.8195929527282715,
   -1.6960792541503906,
   -0.7304503321647644
  ],
  [
   0.7413021326065063,
   1.6511051654815674,
   1.7410030364990234,
   -0.2270382046699524,
   -4.061142444610596,
   -0.1703062206506729
  ],
  [
   -0.12676088511943817,
   -0.9487055540084839,
   1.6489992141723633,
   0.8925400376319885,
   -1.330877661705017,
   -1.2490767240524292
  ],
  [
   -2.6229398250579834,
   1.1406949758529663,
   -1.0554065704345703,
   3.588876724243164,
   1.9794734716415405,
   -4.548888683319092
  ],
  [
   -2.021552801132202,
   0.14786085486412048,
   -3.418161630630493,
   -0.9741251468658447,
   1.5009715557098389,
   -4.229088306427002
  ],
  [
   0.06771737337112427,
   -7.720837116241455,
   0.2746443450450897,
   -1.946161150932312,
   -1.1933255195617676,
   1.9463225603103638
  ],
  [
   0.2634434700012207,
   0.7928054928779602,
   0.4551490843296051,
   1.2139639854431152,
   4.748505592346191,
   0.18136760592460632
  ],
  [
   -0.11531716585159302,
   -3.473989725112915,
   -1.1992133855819702,
   -3.528836727142334,
   -0.9540621042251587,
   0.6191123127937317
  ],
  [
   1.4402096271514893,
   -3.0496058464050293,
   0.7146865725517273,
   0.4680112600326538,
   1.7583532333374023,
   2.2490170001983643
  ],
  [
   0.5311347246170044,
   2.1078710556030273,
   1.8587522506713867,
   0.6240649223327637,
   -4.215384006500244,
   -2.3231260776519775
  ],
  [
   -4.4675774574279785,
   0.519284188747406,
   0.3194922208786011,
   -1.3308489322662354,
   -4.58740234375,
   1.2430355548858643
  ],
  [
   3.359891653060913,
   -0.6724944114685059,
   1.633201241493225,
   2.3160955905914307,
   -1.3124970197677612,
   -0.6307977437973022
  ],
  [
   -1.220321774482727,
   -0.9550545811653137,
   1.2838674783706665,
   -2.247842788696289,
   -1.2725590467453003,
   3.606806516647339
  ],
  [
   3.6391875743865967,
   3.310328960418701,
   0.37667596340179443,
   -0.1569347232580185,
   2.152604341506958,
   -0.9774641394615173
  ],
  [
   -1.7215418815612793,
   2.150707960128784,
   0.23913493752479553,
   -0.04444800317287445,
   2.931718111038208,
   -3.358530282974243
  ],
  [
   1.5820966958999634,
   -0.5692922472953796,
   0.7931702136993408,
   -2.6870546340942383,
   0.16361171007156372,
   0.5196831822395325
  ],
  [
   1.2584859132766724,
   -4.507415771484375,
   0.6514450907707214,
   0.5200210213661194,
   -1.8187190294265747,
   3.616183042526245
  ],
  [
   0.7328418493270874,
   1.6614526510238647,
   -1.0566778182983398,
   -3.046005964279175,
   1.2970058917999268,
   -0.24476514756679535
  ],
  [
   -1.055484414100647,
   1.2904967069625854,
   -0.6343176960945129,
   2.5631000995635986,
   2.866251230239868,
   -2.9609146118164062
  ],
  [
   0.26844313740730286,
   2.0906383991241455,
   -0.16591966152191162,
   -0.8119600415229797,
   -0.5893995761871338,
   -1.8721380233764648
  ],
  [
   -0.09270790219306946,
   -0.040260136127471924,
   0.3454037010669708,
   -2.9688963890075684,
   -1.7932746410369873,
   -0.655266523361206
  ],
  [
   -1.881606101989746,
   0.43842825293540955,
   -3.523031234741211,
   1.4445304870605469,
   -1.7919632196426392,
   -0.4653221070766449
  ],
  [
   0.26193761825561523,
   0.16275277733802795,
   0.1268095076084137,
   1.2171629667282104,
   3.6748859882354736,
   -4.064600944519043
  ],
  [
   0.5219097137451172,
   -0.9390873908996582,
   -1.0298798084259033,
   -1.0146762132644653,
   -3.384963274002075,
   1.8402873277664185
  ],
  [
   -1.5846843719482422,
   -0.2656607925891876,
   -0.20306555926799774,
   1.112986445426941,
   3.327061414718628,
   2.96720552444458
  ],
  [
   0.29452529549598694,
   -1.5270538330078125,
   0.2760820686817169,
   -2.6312570571899414,
   1.8754230737686157,
   2.934241771697998
  ],
  [
   -0.4159383773803711,
   -5.224126815795898,
   0.04987287521362305,
   2.588229179382324,
   -3.0530693531036377,
   0.5309088230133057
  ],
  [
   0.5946260690689087,
   0.5942258834838867,
   0.973415195941925,
   3.270217180252075,
   -0.407746821641922,
   -0.2763727903366089
  ],
  [
   3.3240158557891846,
   3.885791778564453,
   0.292910635471344,
   2.207960844039917,
   1.6697355508804321,
   -4.04315185546875
  ],
  [
   -0.5133258700370789,
   1.5689417123794556,
   -0.49698904156684875,
   -3.1033711433410645,
   -0.8463236093521118,
   3.5106730461120605
  ],
  [
   -0.33343666791915894,
   1.0321494340896606,
   1.1313927173614502,
   -1.207722783088684,
   3.3784193992614746,
   1.9801965951919556
  ],
  [
   1.6139987707138062,
   0.9859747886657715,
   0.053426630795001984,
   3.430518627166748,
   0.7422961592674255,
   -4.25269079208374
  ],
  [
   -2.306500196456909,
   -2.6549065113067627,
   -1.7290898561477661,
   -1.447036623954773,
   2.600625514984131,
   -2.262638568878174
  ],
  [
   1.211322546005249,
   -0.7942495942115784,
   0.23771312832832336,
   -2.0128040313720703,
   3.2897512912750244,
   -3.523550033569336
  ],
  [
   -0.2788175046443939,
   6.8237624168396,
   1.2707223892211914,
   0.772891640663147,
   -0.11211148649454117,
   1.4710251092910767
  ],
  [
   -0.11982595920562744,
   -2.1315133571624756,
   1.0447477102279663,
   0.45483434200286865,
   -2.107002019882202,
   2.9299306869506836
  ],
  [
   0.031140882521867752,
   0.16271336376667023,
   -1.0021116733551025,
   1.6068954467773438,
   5.555380344390869,
   -1.824761986732483
  ],
  [
   -2.1073157787323,
   -0.7449832558631897,
   1.079725980758667,
   0.2699032425880432,
   0.4006851017475128,
   0.7526586055755615
  ],
  [
   -2.5586998462677,
   2.557866096496582,
   2.01707124710083,
   -2.703822374343872,
   1.1602959632873535,
   -1.6251063346862793
  ],
  [
   0.04551152139902115,
   -0.08416562527418137,
   0.7899603247642517,
   0.22635164856910706,
   -7.334231376647949,
   0.13675366342067719
  ],
  [
   -0.03352785483002663,
   0.7527673244476318,
   -0.08895883709192276,
   0.6429000496864319,
   -4.718310832977295,
   0.5611932873725891
  ],
  [
   -0.47076478600502014,
   3.989851951599121,
   0.2778540551662445,
   -1.636311411857605,
   0.19650951027870178,
   0.674466073513031
  ],
  [
   2.8665518760681152,
   -1.117309808731079,
   3.4570350646972656,
   -0.5512706637382507,
   -0.7382803559303284,
   -0.9960368275642395
  ],
  [
   -1.9971297979354858,
   2.5037992000579834,
   0.475778192281723,
   -1.275421380996704,
   1.7728620767593384,
   3.9441721439361572
  ],
  [
   0.6941483616828918,
   4.171750068664551,
   0.15278814733028412,
   -0.3994292914867401,
   -2.389003276824951,
   -0.9803061485290527
  ],
  [
   -0.41301798820495605,
   0.8528383374214172,
   0.12314054369926453,
   3.0944907665252686,
   2.0980124473571777,
   1.2599472999572754
  ],
  [
   -2.097566843032837,
   2.0270464420318604,
   -0.6024251580238342,
   1.372430682182312,
   -1.3824890851974487,
   -3.1409990787506104
  ],
  [
   -2.9374217987060547,
   0.8391332030296326,
   -1.2886488437652588,
   -0.09322698414325714,
   -4.494884967803955,
   -0.11659462749958038
  ],
  [
   -0.5181694030761719,
   2.311624526977539,
   1.0845433473587036,
   -3.1202118396759033,
   -0.3849804997444153,
   -0.9493461847305298
  ],
  [
   0.332297146320343,
   5.017086505889893,
   1.0545990467071533,
   0.399074912071228,
   3.6227476596832275,
   0.9496132731437683
  ],
  [
   -2.3132357597351074,
   -3.926088809967041,
   -0.40207624435424805,
   -0.19155049324035645,
   -3.867569923400879,
   -2.538869857788086
  ],
  [
   1.7971312999725342,
   1.1111750602722168,
   -1.448874592781067,
   -0.7018330693244934,
   -2.8573851585388184,
   -0.010806911624968052
  ],
  [
   2.929879903793335,
   0.03176255151629448,
   1.1315611600875854,
   1.553202509880066,
   -1.0264993906021118,
   -3.619995594024658
  ],
  [
   -3.837536334991455,
   1.407143235206604,
   -2.0098142623901367,
   1.0005208253860474,
   4.941418647766113,
   -2.9613497257232666
  ],
  [
   0.052528996020555496,
   0.2815362215042114,
   -0.05734115466475487,
   0.1019473597407341,
   2.367093086242676,
   -3.9134626388549805
  ],
  [
   0.5683190822601318,
   2.8580470085144043,
   0.047257449477910995,
   2.003697395324707,
   -0.6130763292312622,
   -1.1323292255401611
  ],
  [
   -1.4394609928131104,
   -0.053373679518699646,
   -1.3294196128845215,
   -0.9472121596336365,
   3.7032995223999023,
   -0.11407049000263214
  ],
  [
   -0.6402670741081238,
   -1.9982706308364868,
   0.934974193572998,
   0.07945210486650467,
   1.5988940000534058,
   4.242098808288574
  ],
  [
   -0.07522426545619965,
   3.485605001449585,
   0.725172758102417,
   3.263327121734619,
   -1.895721435546875,
   0.7269505858421326
  ],
  [
   -0.37773409485816956,
   3.021183490753174,
   -2.1149017810821533,
   -0.5068265795707703,
   -1.0573772192001343,
   5.582117080688477
  ],
  [
   -0.9511407017707825,
   -0.2045268416404724,
   1.163572907447815,
   -1.4883168935775757,
   -3.02390456199646,
   0.13175255060195923
  ],
  [
   -0.4342389404773712,
   -0.8918103575706482,
   -0.3313182294368744,
   -0.004640778061002493,
   6.019783973693848,
   -2.7969143390655518
  ],
  [
   -0.42440199851989746,
   -3.0521955490112305,
   0.8032681941986084,
   1.0933623313903809,
   3.730319023132324,
   0.5034348964691162
  ],
  [
   -0.38091525435447693,
   0.6948031187057495,
   -1.1656036376953125,
   -0.30182453989982605,
   8.041979789733887,
   -0.10581807792186737
  ],
  [
   2.5838003158569336,
   2.360612630844116,
   0.4750363826751709,
   -1.0135421752929688,
   1.7449473142623901,
   -3.478379249572754
  ],
  [
   1.8855684995651245,
   1.105270504951477,
   -0.21796996891498566,
   -3.9223692417144775,
   -2.7903008460998535,
   4.054896354675293
  ],
  [
   -0.9976226687431335,
   -0.792328953742981,
   0.8578054904937744,
   -2.086333990097046,
   0.06235992908477783,
   1.946359634399414
  ],
  [
   0.08356813341379166,
   -0.8538072109222412,
   -1.241029977798462,
   -0.5271486043930054,
   -1.4992860555648804,
   4.789791584014893
  ],
  [
   -1.6329163312911987,
   -1.477779507637024,
   0.3648264408111572,
   -0.32148441672325134,
   2.039128541946411,
   0.3975966274738312
  ],
  [
   0.8313295841217041,
   1.3612682819366455,
   1.3952828645706177,
   0.242958202958107,
   -4.543942928314209,
   1.1373870372772217
  ],
  [
   -1.0886447429656982,
   1.6926791667938232,
   -1.079253077507019,
   -0.20966693758964539,
   3.299835443496704,
   -1.6821011304855347
  ],
  [
   -3.100602149963379,
   -2.0297021865844727,
   1.4913145303726196,
   -0.8183202743530273,
   -4.081528663635254,
   -1.533098578453064
  ],
  [
   0.5276473164558411,
   2.2612907886505127,
   -1.9961799383163452,
   -0.22662611305713654,
   1.6518312692642212,
   4.114433765411377
  ],
  [
   0.898571252822876,
   -2.571382999420166,
   -1.4404326677322388,
   -0.4264262318611145,
   -1.1492035388946533,
   0.15930573642253876
  ],
  [
   -0.16222652792930603,
   0.43775612115859985,
   0.14709024131298065,
   0.3034692406654358,
   -3.231470823287964,
   -3.7506155967712402
  ],
  [
   -2.4375061988830566,
   1.2233493328094482,
   0.8994672894477844,
   -0.320359468460083,
   1.8226913213729858,
   -3.125490188598633
  ],
  [
   0.2817237675189972,
   -0.160541370511055,
   -0.3072222173213959,
   -2.699626922607422,
   -2.736549139022827,
   2.998281478881836
  ],
  [
   1.986682653427124,
   1.451900839805603,
   -0.15478624403476715,
   -1.1291264295578003,
   3.823765754699707,
   -1.1974514722824097
  ],
  [
   -0.09315720945596695,
   -1.4025256633758545,
   -3.8991639614105225,
   3.0093019008636475,
   1.8873212337493896,
   -2.1336886882781982
  ],
  [
   -1.4227006435394287,
   0.7727316617965698,
   -1.0934443473815918,
   2.977780818939209,
   -1.0349524021148682,
   -3.321256399154663
  ],
  [
   -1.711405634880066,
   -1.7117332220077515,
   0.4737664759159088,
   -0.03835948556661606,
   -1.7081984281539917,
   -2.539505958557129
  ],
  [
   -5.6110758781433105,
   0.3000296950340271,
   -1.1790066957473755,
   1.432568073272705,
   1.9606945514678955,
   0.006209203042089939
  ],
  [
   0.48476678133010864,
   4.0881028175354,
   -0.060960955917835236,
   -0.15389682352542877,
   -4.315291404724121,
   1.4426878690719604
  ],
  [
   -0.8614211082458496,
   -2.418199062347412,
   0.4141039252281189,
   2.195013999938965,
   -2.4921717643737793,
   3.341001272201538
  ],
  [
   1.8220080137252808,
   -3.178388833999634,
   -0.24770088493824005,
   -1.295181155204773,
   -5.120029449462891,
   -1.0766420364379883
  ],
  [
   1.7420122623443604,
   1.0133616924285889,
   3.124680757522583,
   -1.6566503047943115,
   1.0723152160644531,
   -1.680106282234192
  ],
  [
   1.1271955966949463,
   -2.820737600326538,
   -0.7641370892524719,
   -2.0506389141082764,
   2.8275601863861084,
   0.2958412170410156
  ],
  [
   -0.6540282964706421,
   3.3838818073272705,
   0.7149267792701721,
   -0.093839131295681,
   1.1548551321029663,
   6.98017692565918
  ],
  [
   3.69283390045166,
   0.3781704008579254,
   0.022813687101006508,
   -0.7031164765357971,
   1.4046522378921509,
   0.23583506047725677
  ],
  [
   1.217328667640686,
   -1.4560765027999878,
   0.5319768190383911,
   -3.214167356491089,
   -0.17763225734233856,
   4.8015546798706055
  ],
  [
   2.149064540863037,
   2.6634361743927,
   0.653972864151001,
   1.370627999305725,
   -3.6022419929504395,
   0.9571508765220642
  ],
  [
   -0.1603483259677887,
   1.004443883895874,
   -2.2582004070281982,
   -2.086000919342041,
   -1.4000886678695679,
   3.1718101501464844
  ],
  [
   -0.24702304601669312,
   -1.9976202249526978,
   -1.2662147283554077,
   -0.4710780680179596,
   -0.7264479398727417,
   2.6746668815612793
  ],
  [
   0.6070738434791565,
   1.0657963752746582,
   -0.5881779789924622,
   -0.7340194582939148,
   2.4592208862304688,
   4.931852340698242
  ],
  [
   -2.248399019241333,
   0.29300740361213684,
   -3.288780689239502,
   0.09911507368087769,
   0.9864494204521179,
   -0.9531136155128479
  ],
  [
   0.047576840966939926,
   0.07071181386709213,
   -1.5022988319396973,
   0.7858406901359558,
   3.381376266479492,
   -2.646707773208618
  ],
  [
   -0.2125616818666458,
   -7.612623691558838,
   -0.021603642031550407,
   -2.6609883308410645,
   -0.41574349999427795,
   0.9000670909881592
  ],
  [
   2.6936464309692383,
   3.0246245861053467,
   -0.8852328658103943,
   -0.31296324729919434,
   0.12257533520460129,
   -3.8769752979278564
  ],
  [
   0.9870984554290771,
   -1.2958946228027344,
   -2.251516580581665,
   -1.0503040552139282,
   -0.7754881978034973,
   3.776825189590454
  ],
  [
   1.2429510354995728,
   1.085641622543335,
   0.26266196370124817,
   4.376245021820068,
   3.040264129638672,
   -1.8179774284362793
  ],
  [
   2.6193137168884277,
   0.16112007200717926,
   -0.801531195640564,
   1.4009581804275513,
   -0.4738193154335022,
   -0.17248019576072693
  ],
  [
   -0.9617644548416138,
   2.084388256072998,
   0.783046305179596,
   0.5840529203414917,
   0.15847249329090118,
   -1.134753704071045
  ],
  [
   -0.9423549771308899,
   0.2518296539783478,
   -3.041231155395508,
   0.7931956052780151,
   3.4221549034118652,
   -0.519322395324707
  ],
  [
   -2.0152740478515625,
   1.5503697395324707,
   -0.9284102916717529,
   0.21193638443946838,
   2.238945245742798,
   -4.474774360656738
  ],
  [
   0.6786590218544006,
   0.015500969253480434,
   -1.4539941549301147,
   -2.7030961513519287,
   0.35451841354370117,
   1.558753490447998
  ],
  [
   -3.128070592880249,
   -0.46201610565185547,
   -2.892702102661133,
   -0.06510312855243683,
   -3.68184232711792,
   3.330136775970459
  ],
  [
   2.604217767715454,
   1.7813496589660645,
   0.6613981127738953,
   -3.149327516555786,
   -2.054860830307007,
   -1.1149744987487793
  ],
  [
   -2.549923896789551,
   -2.8259644508361816,
   0.565057098865509,
   -3.071742534637451,
   -2.142275333404541,
   1.4118151664733887
  ],
  [
   0.29364338517189026,
   1.5287946462631226,
   -0.24038009345531464,
   -3.1673147678375244,
   0.3356265723705292,
   -0.501996636390686
  ],
  [
   0.1342259794473648,
   5.221993923187256,
   -1.0658655166625977,
   1.4260063171386719,
   1.3461618423461914,
   -0.14063681662082672
  ],
  [
   -1.057804822921753,
   -3.7227115631103516,
   -2.311551570892334,
   -2.464576244354248,
   1.4601318836212158,
   -4.018963813781738
  ],
  [
   -0.7759773135185242,
   0.2147436887025833,
   0.6020345091819763,
   -1.4690587520599365,
   3.2440617084503174,
   -3.4856810569763184
  ],
  [
   2.811145067214966,
   -5.308564186096191,
   1.5320340394973755,
   1.1416168212890625,
   1.102783203125,
   -0.7935536503791809
  ],
  [
   -2.5840187072753906,
   -2.1493635177612305,
   -0.08883433043956757,
   1.6061530113220215,
   0.599625825881958,
   -0.252319872379303
  ],
  [
   0.4152568578720093,
   0.9019638299942017,
   -1.5385583639144897,
   -0.768116295337677,
   -0.12293227016925812,
   0.6349575519561768
  ],
  [
   3.2812132835388184,
   0.16729100048542023,
   -1.667949914932251,
   1.8707596063613892,
   -0.715639591217041,
   0.2443380057811737
  ],
  [
   1.0279598236083984,
   -2.2309093475341797,
   -0.10315926373004913,
   1.0160115957260132,
   -2.245525360107422,
   2.4403140544891357
  ],
  [
   2.369662046432495,
   1.553800344467163,
   -1.3746670484542847,
   0.6626872420310974,
   3.1409192085266113,
   1.2706676721572876
  ],
  [
   -1.3425730466842651,
   -0.3502711355686188,
   0.11948896944522858,
   -0.12425019592046738,
   4.699762344360352,
   -2.38958740234375
  ],
  [
   1.254848837852478,
   4.7538042068481445,
   -0.9005441069602966,
   -1.5881242752075195,
   1.0434648990631104,
   -0.9092477560043335
  ],
  [
   -4.118241310119629,
   2.293060302734375,
   0.4727015197277069,
   -0.21786125004291534,
   -1.2533296346664429,
   -1.0793323516845703
  ],
  [
   -0.03546202927827835,
   -4.634620666503906,
   0.34671908617019653,
   0.49124160408973694,
   1.6421915292739868,
   2.4398081302642822
  ],
  [
   0.16235528886318207,
   1.3025950193405151,
   -0.9781549572944641,
   -2.6860435009002686,
   -1.3929526805877686,
   -1.783263087272644
  ],
  [
   0.05011211708188057,
   1.2926442623138428,
   2.8892340660095215,
   -0.5273934006690979,
   -2.4838385581970215,
   -4.537327289581299
  ],
  [
   0.7446020841598511,
   1.0231444835662842,
   1.893936038017273,
   0.39641353487968445,
   -3.1229896545410156,
   -1.472780704498291
  ],
  [
   -0.05544184520840645,
   -0.6808254718780518,
   -0.7182413935661316,
   -2.8986093997955322,
   -0.9588552117347717,
   5.030426025390625
  ],
  [
   -1.1721150875091553,
   -1.3031127452850342,
   0.06223180517554283,
   -2.858772039413452,
   -2.629272937774658,
   4.213564872741699
  ],
  [
   0.8956925272941589,
   -5.097283840179443,
   0.9750072360038757,
   -2.0753254890441895,
   0.07743828743696213,
   4.913647651672363
  ]
 ],
 "pi.0.bias": [
  -3.6749069690704346,
  3.5878078937530518,
  -5.587789535522461,
  0.7748073935508728,
  -2.2580442428588867,
  -1.6544862985610962,
  -5.309388160705566,
  0.7356927394866943,
  5.437551021575928,
  0.7730895280838013,
  -2.882237434387207,
  -5.658066749572754,
  -1.6775826215744019,
  -5.11159086227417,
  0.5349248647689819,
  -1.3156522512435913,
  4.910784721374512,
  -3.828828811645508,
  1.3541712760925293,
  5.060439109802246,
  0.7374488115310669,
  -5.999711513519287,
  4.249274730682373,
  6.104442596435547,
  -2.54132080078125,
  3.267705202102661,
  -1.6902533769607544,
  -3.96445894241333,
  -0.5703685283660889,
  5.166895866394043,
  5.774002552032471,
  -2.1471149921417236,
  -2.813647508621216,
  -1.1622220277786255,
  2.0044667720794678,
  2.280623197555542,
  3.54618501663208,
  -5.5464863777160645,
  -0.9223161935806274,
  0.538881242275238,
  -0.3070424795150757,
  3.9417388439178467,
  -1.3550955057144165,
  -2.978057622909546,
  -3.420295238494873,
  -0.02239118702709675,
  -3.407745599746704,
  -3.2139265537261963,
  0.5721017122268677,
  -1.7254165410995483,
  -2.8696811199188232,
  1.0349421501159668,
  -6.763720512390137,
  -3.6943116188049316,
  4.4998369216918945,
  1.9258970022201538,
  -2.184419870376587,
  0.2248852401971817,
  0.0652787983417511,
  3.4370124340057373,
  -7.600314617156982,
  0.5997363924980164,
  1.7625714540481567,
  -5.8298115730285645,
  -2.6296422481536865,
  -4.574929237365723,
  -5.684914588928223,
  -4.2534966468811035,
  3.126162528991699,
  5.803927898406982,
  -1.0417367219924927,
  6.619605541229248,
  -5.448202610015869,
  -1.7051059007644653,
  -5.481871604919434,
  1.4342632293701172,
  1.5155513286590576,
  0.15396253764629364,
  3.1955814361572266,
  -3.413936138153076,
  -4.610209941864014,
  1.7180911302566528,
  1.6108324527740479,
  1.3725285530090332,
  -2.738396167755127,
  -5.571797847747803,
  2.4397311210632324,
  6.549156188964844,
  -0.18895956873893738,
  -3.55938720703125,
  -3.921632766723633,
  7.288385391235352,
  -4.494222164154053,
  -3.804509401321411,
  -2.864128828048706,
  -0.8349301815032959,
  3.354443311691284,
  -2.2198050022125244,
  1.0129034519195557,
  -6.598935127258301,
  5.35883092880249,
  0.07325145602226257,
  -2.761657953262329,
  0.7492138147354126,
  2.051276445388794,
  4.85015344619751,
  -2.0029208660125732,
  4.153744220733643,
  -0.8200523853302002,
  -4.544394016265869,
  -3.543069839477539,
  -0.004203543998301029,
  -3.305617094039917,
  -5.818422794342041,
  7.319081783294678,
  4.483015060424805,
  -4.787016868591309,
  -5.233272075653076,
  -2.647434711456299,
  4.956844806671143,
  -2.1477224826812744,
  2.0431272983551025,
  3.1458592414855957,
  -3.825129508972168,
  -3.0167863368988037,
  -0.5007732510566711,
  -2.6418449878692627,
  -6.681681156158447,
  -1.737597942352295,
  -2.6357579231262207,
  0.5054810047149658,
  0.7677782773971558,
  -5.349139213562012,
  1.2575098276138306,
  -3.1896779537200928,
  -0.28831586241722107,
  0.8903340697288513,
  -0.7278581857681274,
  -6.0661139488220215,
  -0.5578098297119141,
  5.609825611114502,
  1.3145455121994019,
  -2.907755136489868,
  1.1394010782241821,
  -2.3206043243408203,
  -5.544718265533447,
  2.951875686645508,
  -0.29071876406669617,
  1.3555866479873657,
  1.7724217176437378,
  1.3153047561645508,
  3.1509268283843994,
  6.245440483093262,
  2.9159908294677734,
  1.6562567949295044,
  -0.6015973091125488,
  3.4525039196014404,
  5.485304832458496,
  3.3095691204071045,
  1.68010413646698,
  5.641775608062744,
  3.9331042766571045,
  3.1806681156158447,
  -2.765227794647217,
  -4.390072822570801,
  2.7626521587371826,
  -3.3649795055389404,
  -3.7220468521118164,
  0.7482141852378845,
  -0.5528154373168945,
  -1.1150089502334595,
  5.130553245544434,
  -6.648743152618408,
  -6.866649150848389,
  -2.813401222229004,
  -1.2679682970046997,
  -3.233814239501953,
  -2.1473443508148193,
  3.512166738510132,
  1.164969801902771,
  5.769768714904785,
  0.9031722545623779,
  -0.8898751735687256,
  1.2124301195144653,
  -3.73270320892334,
  -4.8856587409973145,
  -6.2449212074279785,
  -1.4004275798797607,
  -4.1098809242248535,
  2.856969118118286,
  0.3165433406829834,
  3.771914005279541,
  1.8586324453353882,
  2.1210174560546875,
  4.862987995147705,
  -0.8426914811134338,
  1.4751124382019043,
  0.25979793071746826,
  -0.24353313446044922,
  -0.09687495976686478
 ],
 "pi.2.weight": [
  [
   -0.03483874350786209,
   -0.4828433096408844,
   0.04011891409754753,
   0.01312227826565504,
   -0.7513997554779053,
   0.08990150690078735,
   0.20321246981620789,
   -0.3687098026275635,
   -0.06264542043209076,
   -1.033219575881958,
   0.0583905391395092,
   -0.014692353084683418,
   -0.2263116091489792,
   0.14062756299972534,
   -0.6458595991134644,
   -0.5322132706642151,
   -0.28676432371139526,
   -0.26893284916877747,
   0.036870524287223816,
   -1.068392276763916,
   -0.1546972692012787,
   -0.5912574529647827,
   -0.8279560208320618,
   -0.5369908213615417,
   -0.3208984136581421,
   -0.09183980524539948,
   -0.8245556354522705,
   0.14171533286571503,
   -0.14142318069934845,
   0.04990246519446373,
   -0.4547845721244812,
   -0.04215894266963005,
   0.21925842761993408,
   -0.5984135270118713,
   -0.01307367067784071,
   -0.6949726343154907,
   -0.5793511271476746,
   -0.12042108178138733,
   -0.15280663967132568,
   -1.435870885848999,
   -0.27910634875297546,
   -1.0717389583587646,
   -1.0216948986053467,
   -0.24467512965202332,
   -0.5679641366004944,
   -0.12276476621627808,
   -0.49659818410873413,
   0.08687837421894073,
   -0.16724303364753723,
   -0.817529559135437,
   0.03491770848631859,
   -0.8352322578430176,
   -1.0102555751800537,
   -1.0349770784378052,
   0.034220702946186066,
   -0.2058854103088379,
   0.07980314642190933,
   -0.3652901351451874,
   -0.05074504017829895,
   -0.011958049610257149,
   -0.8988142013549805,
   -1.4402529001235962,
   -0.23646093904972076,
   -1.245499849319458,
   -0.0635971799492836,
   -0.8513737916946411,
   -0.3288692235946655,
   -0.062188711017370224,
   0.20734581351280212,
   0.025785960257053375,
   -1.2271565198898315,
   -0.16601668298244476,
   0.1433495283126831,
   -1.1422171592712402,
   0.06913366913795471,
   -0.11782816797494888,
   -0.26456326246261597,
   -0.817373514175415,
   -0.11531604826450348,
   -0.18805836141109467,
   0.16177237033843994,
   -0.0982692614197731,
   -0.9905012845993042,
   -0.30121296644210815,
   -1.4063161611557007,
   -0.12731775641441345,
   -0.09001492708921432,
   -0.6332102417945862,
   -0.0572543628513813,
   -0.3498062789440155,
   0.022317897528409958,
   -0.4175245761871338,
   -1.0069468021392822,
   -1.5607489347457886,
   -0.17693474888801575,
   -1.3696238994598389,
   -0.089051254093647,
   -0.14042624831199646,
   -0.11108691990375519,
   -0.24733437597751617,
   0.12681517004966736,
   -1.039728045463562,
   -0.8458172678947449,
   0.03406035900115967,
   -0.9543401598930359,
   -0.3995332717895508,
   -0.2888247072696686,
   -1.296546220779419,
   0.033478133380413055,
   0.062003325670957565,
   -0.38051125407218933,
   0.2966657876968384,
   -0.37562209367752075,
   -1.7105169296264648,
   -0.18601210415363312,
   -0.8003247976303101,
   -0.8313246369361877,
   -0.06258554011583328,
   0.07142674922943115,
   -1.3576405048370361,
   -1.0190880298614502,
   -1.2517082691192627,
   0.044044993817806244,
   -0.9882069230079651,
   -0.03088807873427868,
   -0.9551183581352234,
   -0.014050232246518135,
   -0.11834125220775604,
   -0.45099854469299316,
   -0.7100600600242615,
   0.17759068310260773,
   -0.36080583930015564,
   -0.930686891078949,
   -0.8274425864219666,
   -0.20222318172454834,
   -2.2475404739379883,
   0.006594943348318338,
   -1.0608763694763184,
   -0.48320767283439636,
   0.07534709572792053,
   0.12601035833358765,
   -0.1726127564907074,
   -0.7595619559288025,
   -0.1885937750339508,
   -1.3355437517166138,
   0.014236615039408207,
   -0.8072680234909058,
   0.10249605029821396,
   -0.12416817992925644,
   0.009530286304652691,
   -0.08487039059400558,
   -0.1672595590353012,
   -0.18694546818733215,
   -1.0371971130371094,
   -1.4068951606750488,
   0.035925570875406265,
   -0.6615280508995056,
   -0.2952519953250885,
   -0.7100966572761536,
   -0.3544986844062805,
   0.021066833287477493,
   -0.5439277291297913,
   -0.16693784296512604,
   -0.01918848603963852,
   -0.15978246927261353,
   -0.36702388525009155,
   -0.04963933303952217,
   -0.7677388191223145,
   -1.0280091762542725,
   -0.05174919217824936,
   -1.4332636594772339,
   -0.07333829253911972,
   0.13788293302059174,
   0.11836536973714828,
   -0.7643516659736633,
   -0.04924967139959335,
   -0.28792911767959595,
   -0.6325998306274414,
   -0.19638003408908844,
   -1.1124457120895386,
   -0.730516254901886,
   -0.6057254672050476,
   -0.06646224856376648,
   -0.38212767243385315,
   0.10764696449041367,
   -0.8806747794151306,
   -1.096866488456726,
   0.29530391097068787,
   -0.028751634061336517,
   -0.15876752138137817,
   0.11833598464727402,
   -0.4403808116912842,
   -0.09215126186609268,
   0.054819256067276,
   -0.2015436589717865,
   -0.06939908117055893,
   -0.6385055184364319,
   -2.0156161785125732,
   -1.1614704132080078,
   0.19885699450969696
  ],
  [
   0.5278880000114441,
   0.9015312790870667,
   0.2341935634613037,
   0.0021096630953252316,
   0.8364704847335815,
   -0.09819946438074112,
   -0.11990120261907578,
   1.5364433526992798,
   -0.005589956883341074,
   1.4417943954467773,
   0.052498623728752136,
   -0.320431113243103,
   0.33660203218460083,
   -0.20949631929397583,
   1.9244976043701172,
   0.08057572692632675,
   0.8710740804672241,
   0.03953435644507408,
   0.005544206127524376,
   1.6398043632507324,
   0.20602987706661224,
   1.3779882192611694,
   -0.002334982855245471,
   1.008777379989624,
   -0.10870285332202911,
   0.37553998827934265,
   1.258357048034668,
   -0.0997585579752922,
   0.08710575103759766,
   -0.1771051436662674,
   1.3379360437393188,
   -0.33082616329193115,
   -0.062458183616399765,
   -0.23322921991348267,
   0.04758283123373985,
   1.2074496746063232,
   0.43207406997680664,
   0.18689407408237457,
   -0.16777916252613068,
   2.135129690170288,
   2.065272092819214,
   0.2287062108516693,
   -0.6959114074707031,
   -0.7287214398384094,
   1.9235320091247559,
   0.09069430083036423,
   0.6857269406318665,
   0.04902772232890129,
   0.1060357391834259,
   3.2866029739379883,
   0.16613614559173584,
   0.5063100457191467,
   0.02069851942360401,
   0.4312364459037781,
   -0.03837524354457855,
   -0.03718089312314987,
   0.6572905778884888,
   1.3073848485946655,
   0.0661238580942154,
   -0.11007353663444519,
   0.4528028666973114,
   -0.2993389070034027,
   0.4602591395378113,
   -0.15531422197818756,
   0.10432316362857819,
   0.477849543094635,
   -0.3954702615737915,
   0.7146868705749512,
   0.6395277976989746,
   -0.055949002504348755,
   0.44660812616348267,
   -0.4431345462799072,
   1.5331655740737915,
   1.5455620288848877,
   -0.08146363496780396,
   0.36964741349220276,
   0.1335206776857376,
   0.7686640620231628,
   -0.00835502054542303,
   -0.14031562209129333,
   -0.08322900533676147,
   0.5988553762435913,
   0.9856420159339905,
   -0.213728666305542,
   1.6537460088729858,
   0.17447558045387268,
   -0.12453879415988922,
   1.4204331636428833,
   -0.7489696741104126,
   0.611457109451294,
   0.04694726690649986,
   0.13758589327335358,
   1.5295841693878174,
   0.7824969291687012,
   0.34646329283714294,
   1.3325589895248413,
   -0.053464531898498535,
   0.5454384088516235,
   -0.30487143993377686,
   1.0984423160552979,
   0.02068108133971691,
   0.3773428797721863,
   3.584749698638916,
   -1.3009028434753418,
   0.8031510710716248,
   1.6069774627685547,
   -0.06742516905069351,
   0.5262543559074402,
   -0.19779399037361145,
   -0.07616633176803589,
   1.0107781887054443,
   0.270329087972641,
   -0.11743367463350296,
   1.7244993448257446,
   0.6342126131057739,
   1.3329241275787354,
   0.02382395975291729,
   0.09777124226093292,
   0.08010704815387726,
   1.2813752889633179,
   -0.5775948166847229,
   1.045345425605774,
   -0.2571882903575897,
   0.3175446391105652,
   0.43098965287208557,
   -0.021749159321188927,
   -0.23427613079547882,
   0.2041393518447876,
   0.20377039909362793,
   0.48067930340766907,
   -0.35766512155532837,
   0.47506123781204224,
   0.339886873960495,
   1.4753791093826294,
   -0.23309578001499176,
   4.326521873474121,
   -0.21925543248653412,
   0.5579661726951599,
   1.179415225982666,
   -0.10451139509677887,
   -0.49989163875579834,
   0.5877270698547363,
   0.9838871359825134,
   0.7060884237289429,
   1.365899682044983,
   -0.2424103021621704,
   -0.04640248417854309,
   -0.1251349300146103,
   0.1385248601436615,
   0.16630779206752777,
   -0.20539888739585876,
   0.2642799913883209,
   -0.030069712549448013,
   0.630049467086792,
   1.5778173208236694,
   0.32391828298568726,
   2.3416318893432617,
   0.4834604263305664,
   0.25523093342781067,
   0.22031725943088531,
   -0.2606884241104126,
   1.142382264137268,
   -0.3090483248233795,
   0.04460037499666214,
   0.05608232691884041,
   0.5625616312026978,
   0.5642516613006592,
   0.4732639193534851,
   0.6448705196380615,
   0.0040007843635976315,
   1.2719815969467163,
   0.2672346234321594,
   -0.33078837394714355,
   -0.3276200592517853,
   0.0650697574019432,
   0.20933526754379272,
   0.27238187193870544,
   0.742871880531311,
   0.6276137828826904,
   0.9307492971420288,
   2.6497347354888916,
   0.09192905575037003,
   0.0916396975517273,
   1.1024384498596191,
   0.9079998135566711,
   -0.1309489607810974,
   0.30881956219673157,
   -0.061567775905132294,
   0.6460727453231812,
   0.5243964791297913,
   -0.2663232088088989,
   2.5952305793762207,
   0.26204609870910645,
   0.09716877341270447,
   1.462184190750122,
   0.5454365015029907,
   1.690696120262146,
   1.3184384107589722,
   0.45951229333877563,
   0.5199339985847473
  ],
  [
   0.26814326643943787,
   1.5011069774627686,
   0.7016664743423462,
   0.525922954082489,
   -0.2668941617012024,
   0.2779298424720764,
   -0.4382386803627014,
   1.302383542060852,
   0.12834641337394714,
   1.1175426244735718,
   0.1538839191198349,
   -0.8260166049003601,
   0.45340344309806824,
   1.005289912223816,
   -1.5616987943649292,
   -0.11742696911096573,
   -0.9004566669464111,
   -1.0846253633499146,
   0.3822019696235657,
   -1.1856838464736938,
   0.4419757127761841,
   4.457981109619141,
   0.6096273064613342,
   -0.741666853427887,
   -0.3570568263530731,
   -0.186484232544899,
   -0.8421100974082947,
   -0.2413136065006256,
   1.282612681388855,
   1.7912206649780273,
   -0.5705121755599976,
   -0.81141597032547,
   1.692411184310913,
   0.7252998948097229,
   1.5267505645751953,
   -0.366739422082901,
   0.6774430871009827,
   -1.0124120712280273,
   -0.6938343644142151,
   1.8479119539260864,
   0.17837285995483398,
   -1.6780595779418945,
   -0.605000376701355,
   0.4111666977405548,
   0.28646594285964966,
   0.3107777237892151,
   1.4749025106430054,
   0.50870680809021,
   2.009117841720581,
   0.6470150351524353,
   1.3249043226242065,
   1.3203399181365967,
   -1.5578582286834717,
   0.423155277967453,
   0.29734939336776733,
   -0.9540592432022095,
   0.031985070556402206,
   1.4671920537948608,
   1.1804089546203613,
   -0.9169420003890991,
   -1.5660231113433838,
   -1.1173491477966309,
   -1.940415382385254,
   1.5519782304763794,
   1.2626674175262451,
   -0.2576911151409149,
   1.251984715461731,
   -0.7629432678222656,
   1.4097628593444824,
   -0.42947855591773987,
   -0.4214341640472412,
   0.8776764273643494,
   -2.23789644241333,
   -0.911714494228363,
   -0.24495963752269745,
   -1.2343289852142334,
   -1.3242945671081543,
   -0.83352130651474,
   -1.4924992322921753,
   -0.6992799043655396,
   0.24994273483753204,
   0.9027926325798035,
   0.07905806601047516,
   -0.38096821308135986,
   -2.157613515853882,
   -2.1788225173950195,
   0.1784399449825287,
   0.1681373417377472,
   -0.19641785323619843,
   0.6792212128639221,
   0.2307283729314804,
   0.3933977782726288,
   -0.7343275547027588,
   -0.3785248100757599,
   0.13300646841526031,
   1.7840343713760376,
   -0.11372222006320953,
   -0.6162472367286682,
   -0.0657086968421936,
   -1.0076054334640503,
   0.06755982339382172,
   -2.7452332973480225,
   2.4761006832122803,
   0.2885938286781311,
   -0.07760529965162277,
   1.5286756753921509,
   1.0216566324234009,
   0.3291357159614563,
   -1.106079339981079,
   -1.1521508693695068,
   2.11605167388916,
   0.06819090247154236,
   0.02435610443353653,
   0.1721538007259369,
   1.9644795656204224,
   0.3044716715812683,
   -1.2670600414276123,
   -0.6778796315193176,
   -1.2265002727508545,
   0.12488878518342972,
   -2.5737478733062744,
   -1.0779980421066284,
   -1.675360083580017,
   -4.3373942375183105,
   -0.25164344906806946,
   -0.6193783283233643,
   -0.6857940554618835,
   -1.082298755645752,
   1.1517069339752197,
   -0.8881844282150269,
   0.5349175333976746,
   0.46040937304496765,
   -0.27019619941711426,
   -2.1008667945861816,
   -1.3209247589111328,
   0.5005007982254028,
   0.42928776144981384,
   1.5469279289245605,
   -0.04851723089814186,
   -0.0767410397529602,
   1.5115807056427002,
   0.2755698561668396,
   -0.3719434440135956,
   0.8345279693603516,
   -0.7487586736679077,
   1.2836322784423828,
   -0.011308546178042889,
   0.291303426027298,
   0.918289065361023,
   -0.02751777693629265,
   0.8758396506309509,
   -0.5218446254730225,
   -0.754623532295227,
   -0.10350318253040314,
   -1.225327730178833,
   2.0121066570281982,
   -1.1087857484817505,
   -1.6946552991867065,
   -1.036387324333191,
   -0.5972580313682556,
   -1.6181708574295044,
   1.6528557538986206,
   0.7330558896064758,
   0.638005256652832,
   -0.5846726298332214,
   0.6896110773086548,
   -0.5674995183944702,
   0.8385367393493652,
   -3.315215826034546,
   0.8913356065750122,
   -1.344714641571045,
   -0.25416821241378784,
   -2.069533586502075,
   -0.04469413682818413,
   0.7233298420906067,
   -0.09060211479663849,
   -0.5979250073432922,
   0.2006002515554428,
   0.9352696537971497,
   -0.5880653262138367,
   0.3581908345222473,
   0.04045768454670906,
   -0.8660577535629272,
   -0.329483300447464,
   0.6572023630142212,
   1.3629870414733887,
   0.8542808890342712,
   1.9746814966201782,
   -3.7939350605010986,
   -0.3484886586666107,
   0.3237634599208832,
   -3.1037752628326416,
   0.8771547675132751,
   -0.7387721538543701,
   -0.7593926787376404,
   0.8812753558158875,
   0.1917894333600998,
   1.1468690633773804,
   1.4785103797912598,
   -0.8221921920776367
  ],
  [
   -0.5387400984764099,
   0.8115630745887756,
   0.6772183179855347,
   0.9447541832923889,
   -0.3580942749977112,
   0.3472025692462921,
   0.6904945373535156,
   -3.682891845703125,
   -0.1870545893907547,
   -0.6041710376739502,
   -0.9640409350395203,
   -0.0023889855947345495,
   -1.3267236948013306,
   1.788715124130249,
   -1.3815284967422485,
   1.6108661890029907,
   0.33419060707092285,
   0.08861159533262253,
   0.720658540725708,
   -0.5489723086357117,
   1.0592347383499146,
   -2.7585692405700684,
   -1.1728687286376953,
   -1.8960027694702148,
   1.1050169467926025,
   0.35765978693962097,
   -1.3609892129898071,
   -0.2963673770427704,
   -0.7086820006370544,
   0.5337238907814026,
   0.8173553347587585,
   1.27655029296875,
   0.7661678194999695,
   1.145912766456604,
   1.4396131038665771,
   1.1305291652679443,
   0.5891147255897522,
   0.937028706073761,
   1.7424036264419556,
   0.2423861026763916,
   -2.171767473220825,
   -0.9440132975578308,
   0.8088230490684509,
   1.3066405057907104,
   -0.621346116065979,
   -0.3256419897079468,
   0.8448672294616699,
   -0.11356905102729797,
   1.5823681354522705,
   -4.784040451049805,
   -0.302293986082077,
   -0.06108875572681427,
   0.21049003303050995,
   -1.217076063156128,
   0.7853279113769531,
   1.2592928409576416,
   0.12831275165081024,
   1.0411508083343506,
   0.6343005299568176,
   0.3610239326953888,
   3.5772149562835693,
   0.057080913335084915,
   -0.9067977666854858,
   -0.23747901618480682,
   -0.08442050218582153,
   0.23067043721675873,
   0.36778151988983154,
   -1.8488794565200806,
   -2.1866471767425537,
   -0.9205213189125061,
   0.6677244305610657,
   1.020002841949463,
   -0.2986595034599304,
   -3.7490718364715576,
   0.6482894420623779,
   -0.2628307044506073,
   1.0290533304214478,
   -0.6401370167732239,
   1.3239173889160156,
   0.9780517220497131,
   0.6684333086013794,
   -0.16900208592414856,
   -0.2071903645992279,
   0.6812059879302979,
   -0.5325840711593628,
   -0.9327643513679504,
   -0.9763720035552979,
   -1.4509224891662598,
   1.9975076913833618,
   -1.527873158454895,
   -1.0164227485656738,
   0.15616798400878906,
   0.035321857780218124,
   1.1678314208984375,
   -0.10337820649147034,
   -0.5957459807395935,
   0.3105018734931946,
   0.7584761381149292,
   -0.4715885519981384,
   1.3009073734283447,
   0.9726285338401794,
   -0.4426025152206421,
   0.4596017897129059,
   0.10611367225646973,
   -1.5927497148513794,
   -1.1026018857955933,
   1.589500069618225,
   -1.027325987815857,
   0.9508824944496155,
   -1.307354211807251,
   0.11264876276254654,
   -0.3316270112991333,
   -0.17234671115875244,
   -3.153320550918579,
   -0.5782797336578369,
   -2.350031614303589,
   -1.1672751903533936,
   -0.8627137541770935,
   0.09242432564496994,
   -1.2527016401290894,
   -3.2820470333099365,
   -2.369065523147583,
   0.5499255061149597,
   0.8004857301712036,
   -0.6374278664588928,
   -0.6844223141670227,
   -1.7179826498031616,
   0.2806335389614105,
   -2.0176398754119873,
   1.0350830554962158,
   0.7366849184036255,
   1.2846654653549194,
   -4.017676830291748,
   0.48088356852531433,
   -0.2922641336917877,
   -0.21364212036132812,
   -0.6099935173988342,
   -2.517068386077881,
   1.2273437976837158,
   0.5139350295066833,
   0.8214547038078308,
   -0.3815622925758362,
   -3.985898733139038,
   0.4654066264629364,
   0.5689431428909302,
   2.2080278396606445,
   0.7730442881584167,
   0.18902736902236938,
   -1.1924077272415161,
   1.5143611431121826,
   0.398306280374527,
   -1.8379102945327759,
   -0.37389880418777466,
   -1.0675501823425293,
   -1.5159797668457031,
   1.3242921829223633,
   -1.6004818677902222,
   0.7611596584320068,
   0.6048368811607361,
   -0.8499164581298828,
   0.7935503721237183,
   0.660378634929657,
   0.8104037046432495,
   0.49230191111564636,
   -0.4411610960960388,
   -1.325291395187378,
   1.1856746673583984,
   1.2083616256713867,
   1.1817848682403564,
   -1.391127586364746,
   0.12857194244861603,
   -0.3361309766769409,
   0.7636154890060425,
   0.7205895781517029,
   1.1117768287658691,
   -0.5691183805465698,
   -0.8762096166610718,
   0.18088217079639435,
   1.1483678817749023,
   1.3821229934692383,
   -0.7456578016281128,
   -0.8423773050308228,
   -1.1012834310531616,
   -1.2151294946670532,
   -1.4354817867279053,
   0.9776858687400818,
   1.0213905572891235,
   0.37191545963287354,
   0.4116083085536957,
   -2.0198800563812256,
   0.7929235100746155,
   -3.9900920391082764,
   0.4925457239151001,
   1.5185184478759766,
   -1.041825532913208,
   0.39851313829421997,
   0.4108852446079254,
   1.3017277717590332,
   -2.684476852416992,
   -1.6355217695236206
  ],
  [
   0.4751185476779938,
   -0.9404900074005127,
   -1.8868426084518433,
   -0.5132331252098083,
   1.2956476211547852,
   -1.1864091157913208,
   1.2236825227737427,
   -1.3722610473632812,
   -0.3819373548030853,
   2.3417515754699707,
   -0.01803073287010193,
   0.618080735206604,
   0.4944622218608856,
   -0.7512759566307068,
   0.2599530816078186,
   2.0723462104797363,
   -0.07159928232431412,
   0.3466795086860657,
   -0.31979846954345703,
   0.23171010613441467,
   0.015512787736952305,
   0.6115449666976929,
   0.9795798659324646,
   1.9031363725662231,
   -1.1333742141723633,
   -1.6897597312927246,
   -0.727911114692688,
   -3.5373857021331787,
   1.2351078987121582,
   -0.43373823165893555,
   -0.12260977178812027,
   2.4950127601623535,
   0.4515681266784668,
   -1.4838757514953613,
   0.24808205664157867,
   0.022074252367019653,
   0.8885091543197632,
   -0.2938414216041565,
   -0.17719095945358276,
   1.7492763996124268,
   1.9930511713027954,
   0.1359737366437912,
   2.1330995559692383,
   -0.7398447394371033,
   -0.4652829170227051,
   -0.07151132076978683,
   0.24485033750534058,
   0.6201566457748413,
   -2.022608995437622,
   5.4264044761657715,
   -0.4751432240009308,
   0.12288319319486618,
   -0.5208300352096558,
   -0.5376833081245422,
   0.5526846051216125,
   0.44254592061042786,
   0.544575035572052,
   2.005298376083374,
   -0.7022312879562378,
   0.2002919316291809,
   -1.1605379581451416,
   -0.5139297246932983,
   -0.17902106046676636,
   2.029674530029297,
   -1.2951289415359497,
   0.599312961101532,
   -1.8615742921829224,
   -0.45431408286094666,
   -0.8172662854194641,
   -0.23764517903327942,
   2.829871892929077,
   -0.5228264331817627,
   2.241515874862671,
   0.7858210802078247,
   0.17158886790275574,
   -1.1313363313674927,
   -1.9035868644714355,
   0.6029574275016785,
   0.6584879159927368,
   1.177518367767334,
   -1.3570762872695923,
   0.07684788107872009,
   1.1360949277877808,
   0.6003664135932922,
   2.2190744876861572,
   -2.363337993621826,
   -1.0918935537338257,
   -0.687545657157898,
   -0.3939388394355774,
   -1.6197192668914795,
   -0.7480170726776123,
   -1.14476478099823,
   -0.39406803250312805,
   1.1399468183517456,
   -0.17254553735256195,
   1.1284193992614746,
   0.746313214302063,
   -2.9514567852020264,
   1.4599889516830444,
   -1.4456292390823364,
   0.3265904188156128,
   1.1618969440460205,
   -2.058504104614258,
   -0.46445414423942566,
   1.158164381980896,
   -1.360978126525879,
   0.19046667218208313,
   0.5075677037239075,
   1.025327444076538,
   -1.3286137580871582,
   0.9294940233230591,
   -0.9468661546707153,
   1.0693100690841675,
   -0.19295193254947662,
   0.7267824411392212,
   -0.6130103468894958,
   3.0103442668914795,
   1.952650547027588,
   1.3189057111740112,
   0.06758693605661392,
   -3.1599366664886475,
   0.9369155764579773,
   -0.3944922089576721,
   0.3479698598384857,
   1.056186556816101,
   -0.2747940123081207,
   -0.2886413037776947,
   0.9203274250030518,
   0.37272992730140686,
   -0.4407934248447418,
   -0.7870079874992371,
   2.1790270805358887,
   -0.5980639457702637,
   -0.18575260043144226,
   -0.31160059571266174,
   0.8106581568717957,
   0.5575100183486938,
   1.7202075719833374,
   -0.9988492727279663,
   -0.059686146676540375,
   -0.4337281286716461,
   -0.9593091011047363,
   1.0573679208755493,
   0.10521135479211807,
   0.10233218222856522,
   -3.647341251373291,
   0.33240586519241333,
   0.09152062982320786,
   -0.5963525176048279,
   0.3014572858810425,
   2.2007343769073486,
   0.08239355683326721,
   0.8796272277832031,
   6.984888750594109e-05,
   0.4714203476905823,
   -3.3553762435913086,
   1.264461874961853,
   -0.22544129192829132,
   -0.5476623177528381,
   0.8415983319282532,
   0.5811007022857666,
   -2.172186851501465,
   3.3757381439208984,
   -0.0651877224445343,
   -0.04559779167175293,
   1.8432388305664062,
   0.12293306738138199,
   -0.6007817983627319,
   -2.3223605155944824,
   0.25227871537208557,
   -1.2297431230545044,
   0.5864406824111938,
   -0.3093889355659485,
   4.09962272644043,
   2.337723970413208,
   0.001539160730317235,
   -0.49596473574638367,
   1.1353508234024048,
   -1.31976318359375,
   -2.995849132537842,
   2.8818819522857666,
   2.167397975921631,
   -0.5453505516052246,
   1.7651129961013794,
   -2.531447649002075,
   -1.4597203731536865,
   1.2650259733200073,
   1.8308454751968384,
   -4.042487621307373,
   -1.4515284299850464,
   0.5688172578811646,
   0.5886642932891846,
   0.3472503423690796,
   -1.5118204355239868,
   0.9649630188941956,
   0.5717442035675049,
   -0.3808109164237976,
   1.1086513996124268,
   2.9209964275360107,
   -0.21530868113040924
  ],
  [
   -0.9042373895645142,
   -0.4778546094894409,
   -1.2343904972076416,
   -0.7677775621414185,
   -1.134545922279358,
   -2.2903308868408203,
   -1.0053516626358032,
   -0.6691356301307678,
   -0.7546549439430237,
   0.25808194279670715,
   3.9469645023345947,
   0.11770043522119522,
   0.8054655194282532,
   -1.0565141439437866,
   -1.9072115421295166,
   -0.5347070097923279,
   1.7507758140563965,
   0.10785281658172607,
   -1.332827091217041,
   -0.4312829077243805,
   0.4396193027496338,
   -1.3934588432312012,
   1.3507277965545654,
   -0.1958102434873581,
   -2.4259862899780273,
   -3.1453981399536133,
   -2.307417869567871,
   -1.1743030548095703,
   -0.37481290102005005,
   0.23220257461071014,
   -1.5595042705535889,
   0.1279532015323639,
   0.8410140872001648,
   -1.1234349012374878,
   0.09144271910190582,
   0.4896546006202698,
   -0.9352390766143799,
   -1.3203094005584717,
   -0.5981535911560059,
   0.6762325763702393,
   -1.6398117542266846,
   1.7613502740859985,
   0.010311214253306389,
   0.49372029304504395,
   0.4408682584762573,
   3.275766134262085,
   -0.18730413913726807,
   0.9970368146896362,
   0.30329659581184387,
   -0.1802392154932022,
   0.44174322485923767,
   0.7615614533424377,
   -0.2449912279844284,
   -2.491894483566284,
   0.259931355714798,
   -0.19636861979961395,
   -0.1593082696199417,
   1.5849589109420776,
   2.2066426277160645,
   -1.9300733804702759,
   0.4061419665813446,
   -2.701974630355835,
   0.895663857460022,
   0.9791474938392639,
   -0.2362789660692215,
   -1.5062147378921509,
   0.570997953414917,
   -0.5337541699409485,
   -1.3933192491531372,
   0.370916485786438,
   -0.8189568519592285,
   0.4885272979736328,
   -1.5089514255523682,
   -3.393662929534912,
   0.23698723316192627,
   0.6459458470344543,
   -1.6613720655441284,
   0.1070653647184372,
   0.15602049231529236,
   0.3780933618545532,
   0.5338786244392395,
   0.19836537539958954,
   1.0997514724731445,
   1.48789381980896,
   -0.5267661213874817,
   0.7842485308647156,
   2.2997019290924072,
   -0.2125338912010193,
   1.389482855796814,
   -0.038400616496801376,
   -2.3236188888549805,
   -0.4625799357891083,
   -0.010885563679039478,
   0.7558834552764893,
   -0.30750229954719543,
   0.9683494567871094,
   0.7321324944496155,
   -0.2874721884727478,
   -2.8919153213500977,
   -0.8673805594444275,
   -0.10532275587320328,
   1.6049751043319702,
   -0.10383301228284836,
   -0.03761798515915871,
   -1.1591159105300903,
   -0.039255015552043915,
   1.7583231925964355,
   -0.09125097095966339,
   -1.434653878211975,
   3.0940845012664795,
   -1.5769585371017456,
   1.9213533401489258,
   1.0920225381851196,
   -0.02789435349404812,
   -0.95082026720047,
   0.1071222573518753,
   -2.4450130462646484,
   1.5590496063232422,
   2.1800537109375,
   -0.7527840733528137,
   -1.0035078525543213,
   -2.3626904487609863,
   0.26547783613204956,
   0.8242899179458618,
   -0.37668630480766296,
   -1.1237664222717285,
   1.5357598066329956,
   0.09189797192811966,
   0.9820436239242554,
   -1.4110753536224365,
   -0.4737775921821594,
   -0.4617478847503662,
   -1.3506317138671875,
   -0.10273182392120361,
   1.984296202659607,
   0.3102773427963257,
   1.2920811176300049,
   -0.8952646255493164,
   1.9068835973739624,
   0.3741042912006378,
   -0.7506194114685059,
   0.5954563617706299,
   -0.5483517050743103,
   0.2687045931816101,
   0.7552640438079834,
   0.5264175534248352,
   -1.6728408336639404,
   1.2224503755569458,
   0.4823961853981018,
   -0.06163782253861427,
   -2.8001861572265625,
   -0.49482423067092896,
   1.066554069519043,
   -2.041300058364868,
   -0.4507739245891571,
   -0.00810885801911354,
   0.8951088190078735,
   0.42712298035621643,
   0.17106975615024567,
   1.2025874853134155,
   -0.5806550979614258,
   1.0128332376480103,
   -0.08461304008960724,
   -0.7740902304649353,
   0.15021800994873047,
   0.22879323363304138,
   0.4380018711090088,
   -1.8744137287139893,
   0.9695936441421509,
   -0.7638670802116394,
   0.8990103602409363,
   -1.0697094202041626,
   1.1258130073547363,
   1.0365259647369385,
   -4.0192742347717285,
   -0.8448964953422546,
   -0.0831511840224266,
   1.9888030290603638,
   0.5346001982688904,
   1.353845238685608,
   -1.3990111351013184,
   -2.399090528488159,
   -1.0328752994537354,
   0.8547295331954956,
   1.9244462251663208,
   -0.5618403553962708,
   -1.8160982131958008,
   0.6348327398300171,
   0.3376462161540985,
   1.6923383474349976,
   1.3448063135147095,
   0.019573623314499855,
   0.1203511506319046,
   0.8606451749801636,
   -0.7151573300361633,
   -0.6242414116859436,
   -0.2793780267238617,
   -0.04740238934755325,
   0.12429093569517136,
   -1.0144633054733276
  ],
  [
   -0.7965685129165649,
   1.07630455493927,
   0.10617471486330032,
   0.6761152744293213,
   0.43561017513275146,
   0.8167651891708374,
   0.3382900655269623,
   -0.08760694414377213,
   1.9109630584716797,
   0.3349551558494568,
   -0.10015446692705154,
   1.116605281829834,
   0.2989276349544525,
   1.97255539894104,
   0.4027554392814636,
   0.6246342658996582,
   0.36971497535705566,
   0.7469779849052429,
   0.04173636808991432,
   0.439886212348938,
   0.9189227819442749,
   -0.19782887399196625,
   1.484358549118042,
   -0.12685666978359222,
   0.8580964803695679,
   1.1870379447937012,
   0.38980376720428467,
   -0.5486127138137817,
   -0.42899614572525024,
   -1.0091586112976074,
   -0.14304500818252563,
   0.28612542152404785,
   0.23109832406044006,
   0.8743225336074829,
   3.618976354598999,
   0.45204266905784607,
   0.20214536786079407,
   0.5672589540481567,
   0.42272332310676575,
   0.5038228631019592,
   -0.32992786169052124,
   0.5461119413375854,
   0.39164453744888306,
   1.3138203620910645,
   -0.10646463930606842,
   0.24863295257091522,
   -0.03799102082848549,
   1.708243489265442,
   -0.02725752256810665,
   -0.40700477361679077,
   0.13657641410827637,
   0.6585546731948853,
   0.5282881855964661,
   0.5597586035728455,
   -0.4712069034576416,
   0.7166191935539246,
   0.107502780854702,
   -0.010265381075441837,
   -0.0403914749622345,
   0.006978772580623627,
   -0.06320511549711227,
   0.2864644527435303,
   -0.3272373378276825,
   -0.1291150450706482,
   0.2861608862876892,
   0.6834177374839783,
   0.5617144703865051,
   0.3292684853076935,
   -0.21714511513710022,
   0.7966535091400146,
   0.8455571532249451,
   1.3369474411010742,
   -0.07851055264472961,
   0.06038697436451912,
   2.447848320007324,
   0.30595195293426514,
   2.136615037918091,
   1.773628830909729,
   2.5963077545166016,
   0.34710997343063354,
   1.1510459184646606,
   -0.25795602798461914,
   0.35669979453086853,
   0.1849147081375122,
   -0.16490814089775085,
   1.1918001174926758,
   0.9128583669662476,
   -0.46603137254714966,
   -0.10489710420370102,
   -0.4809242784976959,
   0.8864515423774719,
   1.2469618320465088,
   -0.10523737221956253,
   0.7014101147651672,
   0.9155540466308594,
   -0.3148583471775055,
   0.9568961262702942,
   -1.3296996355056763,
   0.056099552661180496,
   -0.22662870585918427,
   4.970427513122559,
   1.4582234621047974,
   -0.265673965215683,
   0.1738831251859665,
   0.8671898245811462,
   0.44677281379699707,
   1.0135248899459839,
   1.2579618692398071,
   0.4490271210670471,
   0.1562030166387558,
   -0.21257534623146057,
   -0.6783547401428223,
   0.9306990504264832,
   0.8938217759132385,
   -0.4904507100582123,
   1.125639796257019,
   0.28306981921195984,
   2.129577875137329,
   -0.7130808234214783,
   -0.0823901891708374,
   0.6546552777290344,
   0.43124037981033325,
   4.631531715393066,
   0.9810985922813416,
   -0.10300484299659729,
   1.731555461883545,
   -0.8059698343276978,
   -0.24151304364204407,
   1.4988120794296265,
   0.39506059885025024,
   -0.32724955677986145,
   -0.4530586302280426,
   0.5340238809585571,
   0.4248909056186676,
   0.1612115204334259,
   -1.2026557922363281,
   -0.3841525614261627,
   0.21829578280448914,
   -0.014499572105705738,
   1.6403470039367676,
   0.27330559492111206,
   -0.20214319229125977,
   1.4858345985412598,
   0.13646458089351654,
   -0.09403125196695328,
   1.8682479858398438,
   1.3186383247375488,
   -0.20223654806613922,
   -0.07965979725122452,
   1.4276152849197388,
   0.2635640501976013,
   -0.49505436420440674,
   1.0570554733276367,
   0.2641563415527344,
   -0.14722426235675812,
   -0.26395657658576965,
   0.2098381072282791,
   -0.39681005477905273,
   1.6680231094360352,
   -0.3041471540927887,
   0.8534139394760132,
   0.2974758744239807,
   0.16071917116641998,
   1.4909882545471191,
   -0.08955544978380203,
   0.019919713959097862,
   1.3616187572479248,
   1.0897002220153809,
   -0.5038309097290039,
   -0.6216614842414856,
   0.053335435688495636,
   -0.2836930751800537,
   1.2703230381011963,
   2.9599804878234863,
   -0.2190292775630951,
   1.5601214170455933,
   0.1320834755897522,
   2.0210108757019043,
   -0.20868085324764252,
   1.1866278648376465,
   -0.07768353819847107,
   0.05436753109097481,
   0.2707732021808624,
   -0.43847814202308655,
   -0.45614299178123474,
   0.6078320741653442,
   0.9204005002975464,
   -0.42722514271736145,
   0.16418303549289703,
   1.9641649723052979,
   0.6285777688026428,
   0.5948256254196167,
   -0.8302226662635803,
   1.5147316455841064,
   0.3996730148792267,
   0.9996029734611511,
   0.41868212819099426,
   -2.6157772541046143,
   0.44794487953186035,
   -0.041472744196653366
  ],
  [
   -0.5906078219413757,
   -1.0784310102462769,
   -1.3986356258392334,
   1.3818269968032837,
   0.35555800795555115,
   -1.5418391227722168,
   0.384989470243454,
   -0.2022101879119873,
   -1.4708311557769775,
   -0.07176687568426132,
   1.1650002002716064,
   -0.997685432434082,
   -1.4603327512741089,
   0.45440277457237244,
   -0.7733684778213501,
   -0.44833847880363464,
   -2.000898838043213,
   0.6701762676239014,
   -0.25564688444137573,
   -0.5806193947792053,
   -0.2641324996948242,
   1.9116768836975098,
   -0.6851567625999451,
   0.5940648913383484,
   -0.6647454500198364,
   -0.5120019912719727,
   -0.6060062646865845,
   -0.4847908020019531,
   -0.42894771695137024,
   -1.3247569799423218,
   1.3488532304763794,
   0.604503333568573,
   2.361654043197632,
   0.31727334856987,
   -0.8195140361785889,
   -0.4006204903125763,
   -0.07171258330345154,
   -0.03514188155531883,
   -0.26928773522377014,
   0.21732042729854584,
   0.006400930695235729,
   1.308998703956604,
   -0.29054203629493713,
   0.4319285750389099,
   1.482429027557373,
   -1.9012399911880493,
   0.630371630191803,
   1.2549768686294556,
   -0.5855447053909302,
   -1.081336498260498,
   -0.6850970387458801,
   -1.2917211055755615,
   0.4948330819606781,
   1.3505704402923584,
   -0.045494403690099716,
   2.3827829360961914,
   0.929036557674408,
   -0.3618772327899933,
   0.673517107963562,
   1.718184471130371,
   3.825655698776245,
   -1.3741816282272339,
   1.7436517477035522,
   0.6517419219017029,
   1.3698058128356934,
   3.2725160121917725,
   0.8399146795272827,
   -0.7092016935348511,
   -1.1695044040679932,
   0.12331937998533249,
   -1.3321229219436646,
   -0.7734907269477844,
   -0.9898185133934021,
   0.33934256434440613,
   -1.458784580230713,
   0.18795442581176758,
   0.1941973865032196,
   -0.9521554112434387,
   -0.6808380484580994,
   -0.4284314513206482,
   -1.1592592000961304,
   0.397103875875473,
   0.2504931092262268,
   -1.529854416847229,
   -0.6401702761650085,
   1.814710259437561,
   -1.6712218523025513,
   -1.926688551902771,
   2.6777641773223877,
   -0.8426486849784851,
   0.6570786237716675,
   -1.1474652290344238,
   -2.833674669265747,
   2.6179234981536865,
   -1.6797000169754028,
   0.8093127608299255,
   -1.2995411157608032,
   -0.26312217116355896,
   2.1264350414276123,
   0.23262178897857666,
   -0.5143341422080994,
   0.15922018885612488,
   -2.567625045776367,
   0.617638349533081,
   -0.38158929347991943,
   -3.068974733352661,
   -1.586132526397705,
   -1.2891870737075806,
   1.465013861656189,
   1.1392236948013306,
   -0.539847731590271,
   0.9141176342964172,
   1.0921192169189453,
   -1.3287713527679443,
   0.12419679760932922,
   0.020186923444271088,
   0.48261559009552,
   0.5808119177818298,
   1.9054001569747925,
   0.14138048887252808,
   -0.32356569170951843,
   -0.08526109904050827,
   -1.2473154067993164,
   -0.3541824519634247,
   0.2511329650878906,
   -0.09136194735765457,
   -0.18057997524738312,
   0.05957985296845436,
   -1.418071985244751,
   0.29349738359451294,
   1.6819761991500854,
   -0.24938714504241943,
   0.7012682557106018,
   -0.431148886680603,
   0.18042050302028656,
   -0.535248339176178,
   -1.3994089365005493,
   -1.0104193687438965,
   2.3936097621917725,
   0.24633803963661194,
   -0.10809100419282913,
   -0.28522512316703796,
   -0.11707466095685959,
   0.19338686764240265,
   0.05387866869568825,
   2.3681576251983643,
   0.05255940929055214,
   1.1917513608932495,
   -2.224022150039673,
   1.319512128829956,
   0.7530909776687622,
   -0.541820764541626,
   -0.3104253113269806,
   -1.287377953529358,
   -0.1288919597864151,
   0.41000649333000183,
   -0.35891687870025635,
   -4.262814044952393,
   -0.10556046664714813,
   0.5444768071174622,
   -0.5856698751449585,
   -0.19096803665161133,
   -2.175590991973877,
   0.4506860673427582,
   -0.8925801515579224,
   1.013289451599121,
   1.277513027191162,
   -0.30299994349479675,
   0.28766486048698425,
   -1.22833251953125,
   1.7344543933868408,
   0.9027989506721497,
   -1.6003633737564087,
   1.8540871143341064,
   1.0749868154525757,
   2.207608461380005,
   -0.5412869453430176,
   -0.617366373538971,
   0.17769724130630493,
   -0.3294759690761566,
   -1.21188485622406,
   0.7150164246559143,
   -2.3531339168548584,
   -2.4024243354797363,
   -0.5548036098480225,
   0.7723882794380188,
   2.8065133094787598,
   -0.8626308441162109,
   -0.034961529076099396,
   1.5957446098327637,
   -0.2507663667201996,
   -1.4148143529891968,
   -0.33576279878616333,
   -0.5070779323577881,
   -0.08471836149692535,
   0.4875141382217407,
   -2.9821112155914307,
   0.34633684158325195,
   0.2903810143470764,
   -0.8329622745513916
  ],
  [
   0.08517437428236008,
   -0.4665393829345703,
   -1.3171672821044922,
   -1.5653228759765625,
   -0.024978909641504288,
   -0.1485583335161209,
   -0.4284362196922302,
   0.11466333270072937,
   1.7888476848602295,
   -0.18545441329479218,
   -0.5804912447929382,
   2.311650037765503,
   -0.23340420424938202,
   1.478867530822754,
   -0.009823423810303211,
   0.4594343602657318,
   0.1593881994485855,
   -1.8534810543060303,
   -0.026688961312174797,
   0.01912292279303074,
   -0.13516955077648163,
   -1.3751715421676636,
   1.1517752408981323,
   -1.0411359071731567,
   0.2874830961227417,
   1.2959686517715454,
   -0.6665743589401245,
   0.5233960747718811,
   0.1499633640050888,
   0.8498985767364502,
   -0.5572599172592163,
   -0.9475269317626953,
   -1.9028382301330566,
   0.8491321802139282,
   -0.1624651700258255,
   -0.1447353959083557,
   -1.1314324140548706,
   0.8571193814277649,
   -1.2370686531066895,
   1.9601788520812988,
   0.022955231368541718,
   0.7991028428077698,
   -1.3464640378952026,
   2.2157275676727295,
   0.15465083718299866,
   1.4463436603546143,
   -1.129736065864563,
   -0.18925563991069794,
   1.1254067420959473,
   0.43536341190338135,
   1.1003519296646118,
   -1.1724615097045898,
   1.3446431159973145,
   0.14513011276721954,
   -0.043333087116479874,
   -0.7247540950775146,
   -1.0679670572280884,
   1.3026237487792969,
   1.69679594039917,
   -0.15788578987121582,
   6.179020881652832,
   -1.455712080001831,
   0.1662028282880783,
   -0.2989879846572876,
   -1.7628562450408936,
   1.1094145774841309,
   -0.668616533279419,
   -0.14613984525203705,
   -0.8112305402755737,
   -0.32012292742729187,
   0.3665478825569153,
   1.6957733631134033,
   0.16629983484745026,
   -1.2171239852905273,
   0.056408751755952835,
   0.0369989387691021,
   0.17055895924568176,
   -1.6144464015960693,
   0.7312197685241699,
   0.7063306570053101,
   -1.3291393518447876,
   -0.11728088557720184,
   0.19924379885196686,
   -0.49365919828414917,
   1.4115993976593018,
   -0.6983389854431152,
   -0.5775201320648193,
   0.19048495590686798,
   2.0248985290527344,
   0.8799787163734436,
   -2.8005623817443848,
   1.1023907661437988,
   -1.4213924407958984,
   0.3696899712085724,
   0.3281368017196655,
   -0.6404901742935181,
   -0.18746988475322723,
   1.9607945680618286,
   0.18123993277549744,
   1.5906524658203125,
   2.3220598697662354,
   1.3132539987564087,
   -1.3402764797210693,
   0.020370101556181908,
   -0.4226680099964142,
   -1.2621415853500366,
   0.45655006170272827,
   -1.545410394668579,
   -0.7161044478416443,
   -1.4417693614959717,
   -1.1026592254638672,
   0.5072667002677917,
   -2.1041102409362793,
   1.7047187089920044,
   -0.03313787654042244,
   -0.4585537016391754,
   -1.2910839319229126,
   -0.2819117605686188,
   1.1519266366958618,
   -0.9557484984397888,
   -1.7873164415359497,
   -0.011513564735651016,
   -0.14863312244415283,
   0.03706836327910423,
   -0.6885148882865906,
   -0.09632693976163864,
   0.7803590297698975,
   2.014662265777588,
   -1.8088091611862183,
   -0.4928521513938904,
   0.13277535140514374,
   -1.8266104459762573,
   1.1875842809677124,
   1.3136097192764282,
   -1.5785161256790161,
   -1.4034332036972046,
   1.2525807619094849,
   -1.4577147960662842,
   -0.3530590832233429,
   2.157806396484375,
   -0.029107065871357918,
   0.6367027163505554,
   -0.9399728775024414,
   0.24434638023376465,
   0.10566834360361099,
   -0.02389436587691307,
   0.277870237827301,
   -0.37247899174690247,
   -0.507893443107605,
   1.7074711322784424,
   -0.3539397716522217,
   -0.7546584010124207,
   -0.14468525350093842,
   -0.41378676891326904,
   0.24459676444530487,
   -0.09975171089172363,
   0.17811612784862518,
   1.3939738273620605,
   0.4285760521888733,
   -1.8616958856582642,
   1.2116397619247437,
   1.2572147846221924,
   0.14012561738491058,
   1.0845911502838135,
   4.468943119049072,
   -1.288856029510498,
   0.06770598888397217,
   1.0964590311050415,
   -0.9840590953826904,
   0.7027751207351685,
   0.773948073387146,
   -1.0415432453155518,
   1.1688755750656128,
   4.17711067199707,
   1.0548261404037476,
   -1.4557030200958252,
   0.5620752573013306,
   -0.32932063937187195,
   -1.4747049808502197,
   -0.6101473569869995,
   0.09792333096265793,
   -0.26426517963409424,
   -0.05916064232587814,
   -0.10796669125556946,
   -1.6342675685882568,
   1.316544532775879,
   1.6545051336288452,
   -1.1074320077896118,
   -1.661598801612854,
   1.2884455919265747,
   0.729128360748291,
   0.6581835746765137,
   0.291742742061615,
   -1.0515097379684448,
   -0.5342782735824585,
   -0.14984114468097687,
   -0.943206787109375,
   0.3465516269207001,
   -0.6144287586212158,
   -1.240447998046875
  ],
  [
   -0.566540539264679,
   0.6906244158744812,
   -0.2787316143512726,
   0.08636663854122162,
   1.8167667388916016,
   -0.13587680459022522,
   -0.2825396955013275,
   0.8226796984672546,
   -0.01359995361417532,
   3.574747323989868,
   0.8717118501663208,
   0.10220982134342194,
   0.5334326028823853,
   0.47066834568977356,
   0.0963524878025055,
   3.734997272491455,
   1.100714087486267,
   0.17740608751773834,
   -0.48698005080223083,
   2.034421920776367,
   0.2658269703388214,
   1.4246189594268799,
   0.18353110551834106,
   1.513340950012207,
   -0.18355697393417358,
   0.05363931506872177,
   1.5794259309768677,
   0.3254159390926361,
   0.3250546455383301,
   0.33988136053085327,
   -1.322164535522461,
   -0.06598185002803802,
   -0.14332671463489532,
   0.10471311211585999,
   0.11790772527456284,
   0.991007924079895,
   -0.6039712429046631,
   0.17187094688415527,
   -0.1731250137090683,
   4.619852542877197,
   -0.35904380679130554,
   2.7543296813964844,
   0.18562233448028564,
   -0.3781980574131012,
   0.9151977896690369,
   -0.16035273671150208,
   -0.14902812242507935,
   -0.1402788758277893,
   0.3309458792209625,
   1.6898810863494873,
   -0.12794376909732819,
   0.9691007733345032,
   0.43241649866104126,
   1.1327846050262451,
   -1.1716859340667725,
   0.2968860864639282,
   -0.6377984285354614,
   1.2617429494857788,
   -0.058921344578266144,
   0.04834065958857536,
   -0.04268621280789375,
   1.7448021173477173,
   0.161942720413208,
   0.44126299023628235,
   -0.34566667675971985,
   0.8542776703834534,
   -0.020559705793857574,
   -0.31094637513160706,
   0.0878930613398552,
   -0.23237119615077972,
   1.185198426246643,
   -0.07416598498821259,
   0.9755279421806335,
   1.9721829891204834,
   -0.19329167902469635,
   0.14277514815330505,
   0.44685301184654236,
   1.4566622972488403,
   -0.0854976698756218,
   0.0530959777534008,
   -0.35638582706451416,
   0.28727397322654724,
   -1.6625810861587524,
   -0.37785741686820984,
   2.3630428314208984,
   0.36140021681785583,
   -1.077074646949768,
   1.32281494140625,
   0.8466508388519287,
   -0.210140660405159,
   0.49316561222076416,
   0.26559558510780334,
   3.269573926925659,
   1.133070468902588,
   -0.20752598345279694,
   2.7447876930236816,
   0.0068219369277358055,
   0.5635769963264465,
   -0.25268274545669556,
   0.2576836347579956,
   -0.057849206030368805,
   -0.11111004650592804,
   -0.8609328269958496,
   -0.21163326501846313,
   1.6742117404937744,
   0.6729340553283691,
   0.036203864961862564,
   2.105682611465454,
   -0.05503194406628609,
   0.10915347933769226,
   -1.6742885112762451,
   -0.1853705644607544,
   0.22211240231990814,
   1.3818325996398926,
   0.1879384070634842,
   3.381357192993164,
   1.3648816347122192,
   0.03624740615487099,
   -0.0775972381234169,
   2.436511993408203,
   3.0329997539520264,
   3.128678798675537,
   0.055972155183553696,
   0.17532752454280853,
   0.04452542960643768,
   0.5081884860992432,
   -0.7368319630622864,
   0.339430570602417,
   1.5297060012817383,
   -0.3756273090839386,
   -0.1627841293811798,
   1.3556193113327026,
   1.9561601877212524,
   1.7486658096313477,
   -0.8989889025688171,
   0.9261490702629089,
   0.32503756880760193,
   3.184190273284912,
   0.2341533899307251,
   -0.22178147733211517,
   -0.13469308614730835,
   1.1482937335968018,
   0.2650212049484253,
   -0.9768887758255005,
   2.152040719985962,
   0.43446749448776245,
   0.19907186925411224,
   1.0440328121185303,
   0.31389138102531433,
   0.36068058013916016,
   0.13995765149593353,
   0.3829162120819092,
   0.004219424445182085,
   0.9014673233032227,
   2.081049919128418,
   0.1648010015487671,
   3.107942581176758,
   -0.15714679658412933,
   0.326973021030426,
   -0.6828089952468872,
   0.2195882797241211,
   2.8262081146240234,
   0.5132506489753723,
   -0.11719582229852676,
   0.5161371231079102,
   1.475290298461914,
   0.5533117055892944,
   -0.09724385291337967,
   1.8029197454452515,
   -0.5627878308296204,
   2.866288423538208,
   -0.12336406856775284,
   -0.08008978515863419,
   -0.23192574083805084,
   -2.0867645740509033,
   0.260113000869751,
   1.212019920349121,
   0.5740026235580444,
   0.6825717687606812,
   1.3573883771896362,
   3.10233211517334,
   -2.067795753479004,
   0.3914441764354706,
   3.498777389526367,
   -0.18982796370983124,
   -0.28986671566963196,
   0.30606696009635925,
   -0.27167588472366333,
   0.749127209186554,
   0.5493008494377136,
   -0.12073652446269989,
   1.4407625198364258,
   -0.2049863189458847,
   0.041670676320791245,
   1.7896993160247803,
   -0.2760564982891083,
   -0.07644098252058029,
   1.4986860752105713,
   1.8746404647827148,
   0.9996447563171387
  ],
  [
   1.0760325193405151,
   0.17056238651275635,
   0.1023048460483551,
   -0.8607802391052246,
   0.10351357609033585,
   1.0386683940887451,
   0.7058969140052795,
   0.07092401385307312,
   -0.02060408890247345,
   0.13116227090358734,
   -1.0652023553848267,
   0.42520996928215027,
   0.26128822565078735,
   1.7599292993545532,
   0.49084609746932983,
   0.5464733242988586,
   0.3051553964614868,
   1.7365564107894897,
   0.41489744186401367,
   7.636868394911289e-05,
   0.43337804079055786,
   0.5562325119972229,
   0.5452409982681274,
   -0.3966176509857178,
   -0.7156091332435608,
   -0.45238548517227173,
   0.038987141102552414,
   -0.007136423606425524,
   -0.5881220102310181,
   0.25894081592559814,
   -0.4538849890232086,
   0.6559262871742249,
   -2.0152111053466797,
   -0.52223140001297,
   0.12900380790233612,
   0.27514004707336426,
   -0.4891895651817322,
   1.8394286632537842,
   -1.5688468217849731,
   0.3208536207675934,
   -0.4544951319694519,
   0.10050018876791,
   0.22700348496437073,
   0.2797047197818756,
   0.010158794932067394,
   -2.0583488941192627,
   -1.2972670793533325,
   0.09289867430925369,
   0.7489506602287292,
   -0.8774716258049011,
   -0.3023960292339325,
   -0.3967459201812744,
   -1.0755436420440674,
   -0.0782054141163826,
   -0.2208404690027237,
   0.16965633630752563,
   -1.8574415445327759,
   -0.4282127320766449,
   0.4268312454223633,
   -0.029343515634536743,
   1.1663527488708496,
   -0.7554946541786194,
   -1.256159782409668,
   0.2218109667301178,
   -0.34251683950424194,
   0.15282852947711945,
   -0.0041710855439305305,
   0.06974370777606964,
   0.49600252509117126,
   -0.48497307300567627,
   -1.11339271068573,
   -0.5157829523086548,
   -0.7481159567832947,
   -1.4652135372161865,
   0.43416374921798706,
   -0.10858585685491562,
   -0.19410404562950134,
   0.0837235376238823,
   0.3644980490207672,
   -1.2041993141174316,
   0.09561842679977417,
   0.18619322776794434,
   -2.2533652782440186,
   -0.3393572270870209,
   0.02943478152155876,
   0.1705171912908554,
   -0.3649824261665344,
   -0.38915374875068665,
   -0.11256388574838638,
   0.8551387190818787,
   -0.21276690065860748,
   0.48046761751174927,
   1.3077301979064941,
   -1.497180461883545,
   0.09663407504558563,
   -0.6172351241111755,
   0.35949090123176575,
   -0.760938823223114,
   0.8390734791755676,
   1.5005403757095337,
   0.5545761585235596,
   -1.2482630014419556,
   -0.5965076684951782,
   -0.2683970630168915,
   -0.6813256144523621,
   0.07148778438568115,
   -0.8881593942642212,
   -0.5594515204429626,
   0.027257943525910378,
   -0.6530649065971375,
   0.2662392258644104,
   -0.4386560320854187,
   -1.3475596904754639,
   -0.4366159737110138,
   -0.4269934594631195,
   -1.119141697883606,
   -0.6200203895568848,
   -0.42994844913482666,
   -0.974200427532196,
   -0.5008498430252075,
   0.3584788143634796,
   0.9592479467391968,
   0.7425400614738464,
   1.5932515859603882,
   0.13913442194461823,
   -0.13748377561569214,
   -0.04122726991772652,
   0.42534971237182617,
   -0.18093886971473694,
   -1.6005384922027588,
   -0.05438540503382683,
   -0.35424622893333435,
   -0.014582598581910133,
   0.35637468099594116,
   -0.37910544872283936,
   0.15642692148685455,
   0.4084567129611969,
   0.7631271481513977,
   -0.21371467411518097,
   -0.930433988571167,
   0.014541378244757652,
   0.9574432969093323,
   -0.10328143835067749,
   -0.33778950572013855,
   -0.46597200632095337,
   -0.14454667270183563,
   1.1326470375061035,
   0.321946918964386,
   0.37818145751953125,
   0.21875526010990143,
   -0.1819627285003662,
   -0.18871477246284485,
   0.09865880012512207,
   -0.831859290599823,
   1.0572357177734375,
   -0.5443643927574158,
   0.5945056080818176,
   0.1483088731765747,
   -0.4502173066139221,
   -1.9831488132476807,
   0.4753727316856384,
   -0.025268027558922768,
   1.3986691236495972,
   -1.0034496784210205,
   0.13149890303611755,
   -0.34201112389564514,
   -2.045215606689453,
   -0.13713422417640686,
   -0.561396062374115,
   0.24205949902534485,
   0.4107804596424103,
   0.2553890645503998,
   1.27798593044281,
   1.151761770248413,
   0.557950496673584,
   0.09377458691596985,
   1.9145644903182983,
   0.5881665349006653,
   0.568117618560791,
   0.42638149857521057,
   -0.048057250678539276,
   -0.5080415606498718,
   -0.13412149250507355,
   -0.2191736400127411,
   0.9835439324378967,
   0.31436604261398315,
   2.1212713718414307,
   1.2693181037902832,
   0.3965352773666382,
   0.16889290511608124,
   -0.08261575549840927,
   -0.9071424603462219,
   0.0141537394374609,
   0.28930366039276123,
   0.11617349088191986,
   0.2855472266674042,
   -0.07842564582824707,
   -0.5405605435371399,
   -1.011042594909668,
   0.5437138080596924
  ],
  [
   -0.08514518290758133,
   -0.3050941228866577,
   2.595090627670288,
   -0.784611165523529,
   0.08276661485433578,
   -0.5454981327056885,
   0.6759551763534546,
   0.956601083278656,
   1.708303689956665,
   0.3800020217895508,
   3.247600555419922,
   1.430255651473999,
   0.12247864902019501,
   -1.3419151306152344,
   0.013189245946705341,
   0.21755458414554596,
   0.45280060172080994,
   0.11551745980978012,
   0.6660958528518677,
   1.5559496879577637,
   2.2917089462280273,
   2.0927114486694336,
   -1.305220365524292,
   0.847425639629364,
   -0.9363129734992981,
   0.23720939457416534,
   0.17344734072685242,
   0.9054707884788513,
   0.20849117636680603,
   2.509803056716919,
   0.2642848789691925,
   1.4504464864730835,
   2.4312775135040283,
   -0.8238775730133057,
   0.9635847806930542,
   -0.5801200270652771,
   1.4859877824783325,
   1.7177095413208008,
   1.1038541793823242,
   3.542642831802368,
   -0.8954865336418152,
   -1.3317755460739136,
   1.1501681804656982,
   0.1956762671470642,
   0.9404093623161316,
   1.0866122245788574,
   0.3637535274028778,
   2.3879470825195312,
   1.0226856470108032,
   3.060664176940918,
   0.29415568709373474,
   -0.9180891513824463,
   0.27648136019706726,
   1.4398858547210693,
   -0.10051338374614716,
   -2.294388771057129,
   -0.4424072802066803,
   0.16767805814743042,
   2.24546217918396,
   0.10554203391075134,
   -0.19740991294384003,
   0.07710659503936768,
   1.6147087812423706,
   0.8690765500068665,
   2.3541271686553955,
   0.724991500377655,
   -0.008605372160673141,
   3.6364104747772217,
   1.7683649063110352,
   3.1858181953430176,
   1.0671870708465576,
   0.12532499432563782,
   0.6531447768211365,
   1.240105152130127,
   -0.5565460920333862,
   1.8383201360702515,
   0.14820362627506256,
   0.2167450338602066,
   -0.033927056938409805,
   -0.768731951713562,
   2.331146240234375,
   3.085352897644043,
   -0.05237999185919762,
   0.3981340825557709,
   2.0819547176361084,
   2.590705394744873,
   1.7152067422866821,
   4.306772232055664,
   0.18320776522159576,
   1.2423566579818726,
   1.8734720945358276,
   2.055039405822754,
   0.35734277963638306,
   2.0728070735931396,
   1.5217363834381104,
   -0.2406630665063858,
   -1.1929548978805542,
   0.2859722673892975,
   0.11784961819648743,
   2.2009317874908447,
   0.35936611890792847,
   1.061121940612793,
   1.3772000074386597,
   0.8083360195159912,
   1.047285556793213,
   0.6142368316650391,
   1.2078478336334229,
   0.5123149752616882,
   -0.5909525156021118,
   1.139437198638916,
   2.5259323120117188,
   0.701930582523346,
   0.6345407962799072,
   4.040091037750244,
   1.0715358257293701,
   -1.9945443868637085,
   1.2977324724197388,
   1.3233157396316528,
   0.917694091796875,
   2.9310195446014404,
   0.7267184257507324,
   1.2439837455749512,
   -0.5330386161804199,
   0.4229227900505066,
   1.8756636381149292,
   1.6612926721572876,
   0.06999892741441727,
   1.0158565044403076,
   -0.019945967942476273,
   0.05741633474826813,
   2.3354458808898926,
   1.436104416847229,
   1.446076512336731,
   0.985657811164856,
   1.0347955226898193,
   0.1114785447716713,
   1.5376901626586914,
   0.436364084482193,
   0.23730702698230743,
   1.3392894268035889,
   -0.24889832735061646,
   1.2743332386016846,
   -2.1704869270324707,
   -0.009343339130282402,
   0.5724419951438904,
   -0.3350292444229126,
   -0.2188527137041092,
   -0.2846575975418091,
   0.08328914642333984,
   -3.3794994354248047,
   0.1926264613866806,
   2.315931797027588,
   0.469501256942749,
   3.6381537914276123,
   1.423435926437378,
   -0.7980051636695862,
   0.47518840432167053,
   3.179260492324829,
   0.4825456738471985,
   1.1588574647903442,
   -1.1419134140014648,
   2.009021520614624,
   0.37011876702308655,
   -0.17357808351516724,
   2.224860191345215,
   0.47447115182876587,
   0.7727183103561401,
   -2.3900275230407715,
   -0.5921590328216553,
   0.9445974230766296,
   1.0541348457336426,
   2.362917184829712,
   1.2781447172164917,
   1.3217477798461914,
   0.6587253212928772,
   -0.9383269548416138,
   0.9880449771881104,
   0.34513378143310547,
   0.07121101766824722,
   -0.3398800492286682,
   0.5999681949615479,
   -0.08610154688358307,
   2.1063084602355957,
   0.8944724798202515,
   2.166666030883789,
   -0.4242204427719116,
   3.8809309005737305,
   0.5322202444076538,
   1.8239418268203735,
   4.258625030517578,
   1.2093855142593384,
   0.421012282371521,
   0.019859004765748978,
   1.2585265636444092,
   0.42877209186553955,
   0.5452840328216553,
   1.5028132200241089,
   3.246105194091797,
   -0.4364672303199768,
   0.16822344064712524
  ],
  [
   -0.07868312299251556,
   -0.5389358401298523,
   0.24517139792442322,
   -6.3527374267578125,
   1.0835280418395996,
   -1.6661298274993896,
   0.6415674090385437,
   -0.6524348855018616,
   0.018368080258369446,
   0.633975625038147,
   -0.5870320796966553,
   1.640712022781372,
   -0.6733812093734741,
   -0.561272919178009,
   -0.23610666394233704,
   -1.9979029893875122,
   -0.6718475222587585,
   2.5550036430358887,
   1.900977611541748,
   -1.3352617025375366,
   -0.34144726395606995,
   0.29165029525756836,
   -0.093477763235569,
   -0.5677558779716492,
   0.022223304957151413,
   -2.13326096534729,
   -0.493498831987381,
   2.3207273483276367,
   0.450686514377594,
   -1.1965914964675903,
   -0.6830018758773804,
   0.6078910827636719,
   1.8407995700836182,
   -0.7046715021133423,
   0.6806971430778503,
   -1.6043521165847778,
   0.9781013131141663,
   -1.6836837530136108,
   0.6549895405769348,
   0.2617204189300537,
   -0.28339970111846924,
   -0.8214742541313171,
   0.9945270419120789,
   2.6634676456451416,
   2.332937002182007,
   0.7079237103462219,
   -0.4435858428478241,
   -0.37896740436553955,
   -1.2549583911895752,
   -0.15339845418930054,
   0.6073347330093384,
   -1.0800881385803223,
   0.13099896907806396,
   1.1721121072769165,
   0.10464164614677429,
   -3.848663091659546,
   1.0330731868743896,
   -0.8401255011558533,
   -1.5035333633422852,
   -3.302281379699707,
   -1.4586780071258545,
   -0.7580229043960571,
   0.47945138812065125,
   0.46416473388671875,
   0.18115267157554626,
   0.7054988145828247,
   0.1671517938375473,
   1.2164433002471924,
   -1.1199665069580078,
   -0.6606258749961853,
   0.4375201165676117,
   -2.068535089492798,
   0.04775792732834816,
   0.9076836705207825,
   -3.9812393188476562,
   0.7464526295661926,
   2.044776678085327,
   1.9476104974746704,
   -0.09645844250917435,
   0.9102354645729065,
   1.1998695135116577,
   -0.7546651363372803,
   -0.2734796702861786,
   -0.44861388206481934,
   -0.7397088408470154,
   -1.6850862503051758,
   0.4544316530227661,
   -0.8068674206733704,
   -4.051785469055176,
   1.5538321733474731,
   1.3244699239730835,
   -0.7953378558158875,
   2.548785448074341,
   -0.224413201212883,
   1.5586192607879639,
   -1.003078579902649,
   -2.703408718109131,
   1.8726859092712402,
   -2.495879650115967,
   0.9538214206695557,
   -0.06295334547758102,
   2.7071521282196045,
   0.03780125826597214,
   -0.7178900241851807,
   -1.5171830654144287,
   0.04173902049660683,
   -0.1561703234910965,
   -1.8282324075698853,
   -1.7098174095153809,
   -2.9562137126922607,
   0.2863510251045227,
   -1.4438185691833496,
   -1.3768268823623657,
   -0.9171895980834961,
   -1.9942656755447388,
   -0.2913694679737091,
   -0.3355790078639984,
   2.0096628665924072,
   -3.6955411434173584,
   0.4663236737251282,
   -1.169372320175171,
   0.3380763530731201,
   -0.7137019634246826,
   1.05746328830719,
   -0.8634603023529053,
   -0.31920525431632996,
   1.9654384851455688,
   -0.31870320439338684,
   1.243826150894165,
   -0.3150075078010559,
   0.8918310403823853,
   0.5119567513465881,
   -1.021127700805664,
   1.7374430894851685,
   -2.0435545444488525,
   0.18763794004917145,
   -0.3694362938404083,
   0.0024709035642445087,
   0.2913362383842468,
   0.6133196353912354,
   -0.4121916890144348,
   -1.1539421081542969,
   0.2851635813713074,
   -0.43164578080177307,
   0.3708384037017822,
   -1.2316629886627197,
   0.38629287481307983,
   -0.5583096146583557,
   -0.5589726567268372,
   1.110368251800537,
   0.02427954599261284,
   1.4725009202957153,
   0.9588278532028198,
   0.942987859249115,
   0.7051753997802734,
   -1.5502070188522339,
   -1.8080966472625732,
   -0.2997141480445862,
   -1.1634317636489868,
   -0.03354243189096451,
   0.1475655436515808,
   -1.2679628133773804,
   0.5858019590377808,
   0.852553129196167,
   2.1024646759033203,
   -0.15713973343372345,
   2.6555027961730957,
   0.1960538625717163,
   -1.795632004737854,
   1.7569786310195923,
   -0.9164106249809265,
   -0.939150333404541,
   0.4640279710292816,
   1.5772160291671753,
   1.1855305433273315,
   2.9387753009796143,
   -0.05729861930012703,
   -1.4402166604995728,
   -1.3633736371994019,
   -1.2175122499465942,
   -0.18389974534511566,
   0.03423532098531723,
   0.4700581729412079,
   0.07725534588098526,
   -1.801154613494873,
   0.9162747859954834,
   0.8752796649932861,
   0.07136395573616028,
   0.12794524431228638,
   0.7249577045440674,
   -1.6692010164260864,
   -0.6189519166946411,
   0.19563259184360504,
   -0.22258570790290833,
   -0.4288097023963928,
   -3.5236592292785645,
   0.36732450127601624,
   -0.828982412815094,
   -0.6814086437225342,
   -1.2607731819152832
  ],
  [
   -0.4828125834465027,
   0.029080238193273544,
   -0.5624472498893738,
   0.4289264380931854,
   0.8171156644821167,
   0.9848782420158386,
   2.2176475524902344,
   -1.372821569442749,
   -0.002844249363988638,
   0.9915417432785034,
   -0.47728583216667175,
   1.1769394874572754,
   -0.22635792195796967,
   -0.996345043182373,
   -0.13617248833179474,
   -0.7990134358406067,
   0.8115161657333374,
   -0.4179319441318512,
   0.7446123957633972,
   -0.16517536342144012,
   -0.21523158252239227,
   -2.8610799312591553,
   0.18641194701194763,
   -0.46405917406082153,
   1.3148396015167236,
   0.3084583580493927,
   -0.595385730266571,
   0.2516656816005707,
   -0.7985560297966003,
   -0.11899664998054504,
   0.4047054648399353,
   1.0637320280075073,
   -1.4165247678756714,
   0.4225355386734009,
   0.6734702587127686,
   -0.8447065353393555,
   -1.5354243516921997,
   1.7126579284667969,
   0.46282514929771423,
   0.951473593711853,
   0.1856846660375595,
   -0.35428231954574585,
   -0.11078373342752457,
   -0.67372727394104,
   -0.8017548322677612,
   -0.14415201544761658,
   -1.4100936651229858,
   0.343222439289093,
   -1.1746482849121094,
   -1.3184688091278076,
   0.715387761592865,
   0.2906227111816406,
   -1.1883618831634521,
   -0.6676519513130188,
   0.35476523637771606,
   0.5843246579170227,
   -1.2231963872909546,
   -0.062352683395147324,
   0.3198260962963104,
   0.15608114004135132,
   -0.08570284396409988,
   -0.7909317016601562,
   -0.8177794218063354,
   -0.7647656202316284,
   -0.24333132803440094,
   1.3997224569320679,
   1.2008156776428223,
   -1.656407356262207,
   0.36870983242988586,
   0.09839979559183121,
   0.5518099665641785,
   0.013909314759075642,
   -0.14041075110435486,
   -0.5082617402076721,
   0.8848538398742676,
   0.4438926875591278,
   -1.536556363105774,
   0.6174927949905396,
   0.6520048975944519,
   0.8570894598960876,
   1.3379900455474854,
   0.12380867451429367,
   -0.30832427740097046,
   -0.619086503982544,
   -2.5885629653930664,
   -0.2683383524417877,
   -0.33458733558654785,
   -0.203510120511055,
   1.0143238306045532,
   -0.3283495604991913,
   0.2268618941307068,
   0.3241629898548126,
   -2.125265598297119,
   0.6422129273414612,
   -0.10237014293670654,
   -0.7442104816436768,
   0.16509389877319336,
   0.4440632164478302,
   0.09973974525928497,
   0.43285757303237915,
   0.4884260892868042,
   0.6810339093208313,
   -1.036461591720581,
   -0.11995804309844971,
   0.38488203287124634,
   -0.3899352252483368,
   -0.508289635181427,
   -0.25947320461273193,
   0.05652321130037308,
   -0.567390501499176,
   -1.565596103668213,
   0.060913167893886566,
   -0.1127612516283989,
   -2.307368040084839,
   -0.2246001660823822,
   1.7219347953796387,
   2.329007863998413,
   -0.4352784752845764,
   0.5150719881057739,
   0.6767176985740662,
   -1.9872701168060303,
   0.8836016058921814,
   -0.2045689970254898,
   0.017345299944281578,
   0.33495470881462097,
   -0.5648139119148254,
   0.020036624744534492,
   -0.37988001108169556,
   0.04899456724524498,
   0.15570352971553802,
   -0.13426274061203003,
   1.1071439981460571,
   -0.5120605230331421,
   0.3683345913887024,
   0.3481842577457428,
   -0.32893508672714233,
   -0.35517987608909607,
   -0.4513494074344635,
   0.10665737092494965,
   1.610451102256775,
   -0.1702137291431427,
   -1.861701250076294,
   0.07404644042253494,
   0.6294066905975342,
   0.22090691328048706,
   1.4836974143981934,
   -0.19949136674404144,
   0.5491319894790649,
   0.4161119759082794,
   -0.4325218200683594,
   -0.8203736543655396,
   0.20253191888332367,
   0.4053173065185547,
   -0.02854735404253006,
   -0.3979378044605255,
   0.25000765919685364,
   0.23637834191322327,
   0.6068587303161621,
   0.10338788479566574,
   -0.7007915377616882,
   0.17402143776416779,
   -0.5224514007568359,
   0.3130593001842499,
   0.43255600333213806,
   -0.8818573951721191,
   0.07582195103168488,
   -0.6100708842277527,
   0.15895605087280273,
   -2.5743656158447266,
   -0.5076289176940918,
   -0.41237735748291016,
   0.06611060351133347,
   -0.23034493625164032,
   2.238821506500244,
   0.9851366281509399,
   0.2124607414007187,
   0.09668942540884018,
   -1.1630347967147827,
   -0.421458899974823,
   0.24969631433486938,
   0.2550382614135742,
   1.7244645357131958,
