{
 "pi.0.weight": [
  [
   -0.2506501376628876,
   0.16193586587905884,
   -0.007018713280558586
  ],
  [
   -0.2627027928829193,
   -0.20084430277347565,
   0.2523408532142639
  ],
  [
   -0.7814074158668518,
   1.805598258972168,
   -0.16978780925273895
  ],
  [
   -0.7299216985702515,
   -0.10178528726100922,
   -0.6032674312591553
  ],
  [
   -0.6793283820152283,
   -2.1371233463287354,
   0.0071482909843325615
  ],
  [
   0.19963817298412323,
   1.1393451690673828,
   -0.07238420844078064
  ],
  [
   -0.7738403677940369,
   0.5173997282981873,
   -0.033582430332899094
  ],
  [
   -0.3017325699329376,
   -0.61376953125,
   0.2499576359987259
  ],
  [
   -0.21368007361888885,
   -0.11000751703977585,
   0.24699412286281586
  ],
  [
   -0.00536275003105402,
   -1.0953437089920044,
   -0.00036031592753715813
  ],
  [
   -1.7243895530700684,
   0.3145182132720947,
   -0.46066296100616455
  ],
  [
   0.32360926270484924,
   -1.0490145683288574,
   -0.6185194253921509
  ],
  [
   -0.3169911205768585,
   -0.7549073100090027,
   0.31143370270729065
  ],
  [
   -1.5915045738220215,
   0.6210412979125977,
   -0.4632742404937744
  ],
  [
   -1.5923824310302734,
   -2.59558367729187,
   -0.7208441495895386
  ],
  [
   0.040210530161857605,
   1.4964282512664795,
   0.2435675710439682
  ],
  [
   -0.7651346921920776,
   -0.9265584349632263,
   0.42359665036201477
  ],
  [
   -0.09760314971208572,
   0.7646785974502563,
   0.19731055200099945
  ],
  [
   0.6821960210800171,
   -0.5441766381263733,
   0.1860225647687912
  ],
  [
   -3.9690823554992676,
   0.6791492700576782,
   -0.21999379992485046
  ],
  [
   0.45188412070274353,
   -0.2766471207141876,
   -0.11716233938932419
  ],
  [
   0.285343199968338,
   1.7368375062942505,
   -0.123935267329216
  ],
  [
   0.03767423704266548,
   -0.5580764412879944,
   0.30977779626846313
  ],
  [
   0.29065898060798645,
   0.3824925124645233,
   -0.47847869992256165
  ],
  [
   -0.11269298195838928,
   0.5747678279876709,
   0.3944719731807709
  ],
  [
   -0.3546920418739319,
   0.7481870651245117,
   -0.4553968906402588
  ],
  [
   -1.0784326791763306,
   0.3294191062450409,
   -0.6382447481155396
  ],
  [
   0.06268848478794098,
   0.9317225813865662,
   -0.6146772503852844
  ],
  [
   -0.30278831720352173,
   -0.7139630913734436,
   0.2197805941104889
  ],
  [
   -2.151313066482544,
   0.36498090624809265,
   -0.6095049977302551
  ],
  [
   -0.054687678813934326,
   0.6042677164077759,
   0.10729679465293884
  ],
  [
   -0.7051099538803101,
   -0.6296427249908447,
   -0.39433565735816956
  ],
  [
   -0.4827938675880432,
   0.8042492866516113,
   -0.3755449950695038
  ],
  [
   -1.6401652097702026,
   0.9758443236351013,
   0.29049304127693176
  ],
  [
   -0.16103318333625793,
   -0.9525998830795288,
   -0.14546076953411102
  ],
  [
   -1.386224389076233,
   0.07141859084367752,
   -0.604482889175415
  ],
  [
   -0.05377562716603279,
   -0.3771003186702728,
   -0.11598999798297882
  ],
  [
   -0.010897697880864143,
   -0.003738143015652895,
   0.04980684071779251
  ],
  [
   0.1192888617515564,
   0.10580173134803772,
   -0.12973658740520477
  ],
  [
   0.09502393752336502,
   0.031957462430000305,
   0.02731616236269474
  ],
  [
   -1.5579798221588135,
   0.5605002045631409,
   -0.397174209356308
  ],
  [
   0.2883246839046478,
   0.6631479859352112,
   -0.2638033926486969
  ],
  [
   -0.07361911237239838,
   -0.6093652248382568,
   -0.16360826790332794
  ],
  [
   0.6984595656394958,
   0.025781864300370216,
   0.13313864171504974
  ],
  [
   -0.2497219294309616,
   0.030766917392611504,
   0.6125351190567017
  ],
  [
   -0.05360037460923195,
   -0.010227812454104424,
   -0.06351674348115921
  ],
  [
   -1.2428072690963745,
   -1.6425741910934448,
   0.48767250776290894
  ],
  [
   -0.41812583804130554,
   0.24413155019283295,
   0.011428945697844028
  ],
  [
   -0.34975218772888184,
   -0.3619880676269531,
   0.4851062595844269
  ],
  [
   0.2605798840522766,
   0.8316783905029297,
   -0.5601144433021545
  ],
  [
   -0.13373377919197083,
   0.02041047438979149,
   0.12236721068620682
  ],
  [
   0.6166616082191467,
   -0.23060524463653564,
   -0.5100333094596863
  ],
  [
   0.2179720252752304,
   -0.4405111074447632,
   -0.1337982416152954
  ],
  [
   -0.42954084277153015,
   -0.06012190505862236,
   -0.29435044527053833
  ],
  [
   -0.17581818997859955,
   -1.1245310306549072,
   -0.23154325783252716
  ],
  [
   -0.17360469698905945,
   -0.00012179501209175214,
   -0.0017971741035580635
  ],
  [
   -0.5267288088798523,
   -0.40483078360557556,
   0.8424268364906311
  ],
  [
   0.26614081859588623,
   0.3298261761665344,
   0.5406057238578796
  ],
  [
   -1.3380080461502075,
   0.39026618003845215,
   -0.21675324440002441
  ],
  [
   0.011342238634824753,
   -0.4464203119277954,
   -0.21357853710651398
  ],
  [
   -0.45338502526283264,
   -0.09303458780050278,
   -0.5784217119216919
  ],
  [
   -1.3625264167785645,
   0.8441052436828613,
   -0.04649752750992775
  ],
  [
   -0.23273994028568268,
   -0.9526961445808411,
   -0.27884364128112793
  ],
  [
   -0.18488970398902893,
   1.0862185955047607,
   -0.1538403481245041
  ],
  [
   -0.5928754806518555,
   -1.350472092628479,
   -0.15915946662425995
  ],
  [
   -0.32423073053359985,
   -0.18659403920173645,
   0.30738773941993713
  ],
  [
   -0.2168077975511551,
   -0.271247535943985,
   0.0854765847325325
  ],
  [
   -0.11350613832473755,
   -0.46135398745536804,
   0.05797392874956131
  ],
  [
   0.2758718729019165,
   1.3361324071884155,
   -0.2101801484823227
  ],
  [
   -0.000611482304520905,
   1.2034570318064652e-05,
   -9.88067768048495e-05
  ],
  [
   -0.09678032994270325,
   -0.6167869567871094,
   -0.008303003385663033
  ],
  [
   -0.28054240345954895,
   -0.5921567678451538,
   0.0059105283580720425
  ],
  [
   -0.22509627044200897,
   0.08514279872179031,
   0.6660348176956177
  ],
  [
   -0.2618449926376343,
   0.11920972913503647,
   0.7263851165771484
  ],
  [
   -0.2600613832473755,
   0.11020137369632721,
   -0.08351447433233261
  ],
  [
   -0.47184574604034424,
   0.019640706479549408,
   -0.3452904224395752
  ],
  [
   -0.06923069804906845,
   0.0721120536327362,
   0.055649980902671814
  ],
  [
   0.3175533413887024,
   1.5046201944351196,
   0.2502132058143616
  ],
  [
   -0.03384603559970856,
   -0.00015847846225369722,
   0.0023506388533860445
  ],
  [
   -0.23924167454242706,
   -0.05939548835158348,
   0.15814800560474396
  ],
  [
   -0.0423470102250576,
   0.29745909571647644,
   0.10074476152658463
  ],
  [
   -0.767267107963562,
   -0.8224051594734192,
   0.0379968024790287
  ],
  [
   -0.22265572845935822,
   -0.3569556474685669,
   -0.007591515313833952
  ],
  [
   -0.24926799535751343,
   -0.9106216430664062,
   0.04747811332345009
  ],
  [
   0.17894765734672546,
   -0.021564815193414688,
   -0.23748445510864258
  ],
  [
   -0.2305208295583725,
   -1.266028881072998,
   0.47532111406326294
  ],
  [
   -0.9347395896911621,
   -2.1274428367614746,
   -0.0486711822450161
  ],
  [
   -0.14395883679389954,
   0.07068503648042679,
   -0.03135913237929344
  ],
  [
   0.25829577445983887,
   0.3741413354873657,
   -0.17720289528369904
  ],
  [
   -0.1268063634634018,
   0.32168516516685486,
   -0.0049185603857040405
  ],
  [
   -0.5200855731964111,
   -1.086970567703247,
   -0.5938203930854797
  ],
  [
   0.27817273139953613,
   -0.39325353503227234,
   -0.6242422461509705
  ],
  [
   -1.6478954553604126,
   0.5849649310112,
   -0.4295455515384674
  ],
  [
   -0.9622926712036133,
   -0.16169163584709167,
   -0.2702416181564331
  ],
  [
   -1.036920189857483,
   0.27377745509147644,
   0.11525379121303558
  ],
  [
   0.38180437684059143,
   -0.5399502515792847,
   0.33296331763267517
  ],
  [
   -0.6601108908653259,
   -1.2784419059753418,
   -0.13987623155117035
  ],
  [
   0.11075124889612198,
   -0.04709244519472122,
   -0.18831771612167358
  ],
  [
   -1.2937625646591187,
   -1.4302605390548706,
   0.048597123473882675
  ],
  [
   -0.21687161922454834,
   0.3266255557537079,
   0.4917377531528473
  ],
  [
   -0.49315139651298523,
   0.21153701841831207,
   -0.2997320890426636
  ],
  [
   -2.2518248558044434,
   0.7380550503730774,
   -0.2476978749036789
  ],
  [
   -0.0576937198638916,
   0.00508052296936512,
   0.014346854761242867
  ],
  [
   -0.28665244579315186,
   -0.9834970831871033,
   0.10231578350067139
  ],
  [
   -0.08121152967214584,
   0.008197590708732605,
   -0.011039976961910725
  ],
  [
   -0.036251164972782135,
   -2.727519313339144e-05,
   -0.0018892699154093862
  ],
  [
   -0.07106292992830276,
   0.22678861021995544,
   0.05989040806889534
  ],
  [
   0.1966291069984436,
   -0.9673842787742615,
   -0.5162457823753357
  ],
  [
   -0.09575608372688293,
   -0.040464382618665695,
   -0.5111501216888428
  ],
  [
   0.015609167516231537,
   0.036144789308309555,
   -0.04135730862617493
  ],
  [
   -0.30464959144592285,
   0.42880722880363464,
   0.5844226479530334
  ],
  [
   -0.12431992590427399,
   -0.6060444116592407,
   0.13146823644638062
  ],
  [
   0.5200509428977966,
   0.7650700807571411,
   -0.4251213073730469
  ],
  [
   -1.5961833000183105,
   0.09312260150909424,
   -0.46460235118865967
  ],
  [
   0.4522384703159332,
   0.8202096223831177,
   -0.3512967824935913
  ],
  [
   -0.5818973183631897,
   0.15713681280612946,
   0.1193556934595108
  ],
  [
   0.17143572866916656,
   0.7928764820098877,
   -0.44676926732063293
  ],
  [
   0.23192638158798218,
   -0.011009619571268559,
   -0.15419235825538635
  ],
  [
   0.6566125750541687,
   2.269289970397949,
   -0.12932269275188446
  ],
  [
   -0.20203469693660736,
   -0.31184640526771545,
   -0.012980860657989979
  ],
  [
   0.7286509871482849,
   -0.8453549146652222,
   -0.34400978684425354
  ],
  [
   -0.17476388812065125,
   1.2888360023498535,
   -0.03456471487879753
  ],
  [
   -0.3044064939022064,
   -0.012316192500293255,
   -0.6181440353393555
  ],
  [
   -0.4680400788784027,
   -1.4167916774749756,
   0.422833651304245
  ],
  [
   -2.5760581493377686,
   -0.11479827761650085,
   -0.7658098936080933
  ],
  [
   -1.1844449043273926,
   -0.537885308265686,
   0.31318628787994385
  ],
  [
   -1.4883657693862915,
   1.3773000240325928,
   0.26552316546440125
  ],
  [
   0.21287700533866882,
   0.34955260157585144,
   0.11472735553979874
  ],
  [
   -0.5851149559020996,
   0.4726164937019348,
   -0.3180212378501892
  ],
  [
   0.556134045124054,
   -0.2013167291879654,
   0.3259832561016083
  ],
  [
   -1.7936468124389648,
   -0.04803917929530144,
   -0.2568545341491699
  ],
  [
   0.05995185300707817,
   -0.6825225353240967,
   0.37005457282066345
  ],
  [
   0.0352289080619812,
   0.7407838702201843,
   -0.44661280512809753
  ],
  [
   0.766389787197113,
   2.1496224403381348,
   -0.15331529080867767
  ],
  [
   -1.0892562866210938,
   0.62442946434021,
   -0.23972280323505402
  ],
  [
   -0.3029637336730957,
   -0.48088058829307556,
   0.8301763534545898
  ],
  [
   -0.1259203404188156,
   -0.7333688139915466,
   -0.08827430009841919
  ],
  [
   -0.12046412378549576,
   1.0166319608688354,
   0.26031896471977234
  ],
  [
   -0.11533714085817337,
   -0.24524818360805511,
   0.4615837633609772
  ],
  [
   -0.16441704332828522,
   -0.6059799194335938,
   0.259761244058609
  ],
  [
   -1.4252580404281616,
   -0.06556601077318192,
   -0.4300604462623596
  ],
  [
   -0.10301559418439865,
   0.7251930236816406,
   -0.4683796763420105
  ],
  [
   -0.15863612294197083,
   0.49775832891464233,
   -0.340575635433197
  ],
  [
   -0.13067705929279327,
   -0.48459962010383606,
   0.0800945982336998
  ],
  [
   -1.375801920890808,
   -0.2552374601364136,
   -0.3975922167301178
  ],
  [
   -1.8778587579727173,
   -0.04680589213967323,
   -0.45343902707099915
  ],
  [
   -0.41195839643478394,
   -1.1893659830093384,
   -0.5753451585769653
  ],
  [
   -1.5071913003921509,
   -0.670748233795166,
   0.7192611694335938
  ],
  [
   -2.6167848110198975,
   0.5586602091789246,
   -0.1486656218767166
  ],
  [
   -0.05371918901801109,
   1.1678279638290405,
   -0.3001098334789276
  ],
  [
   0.40809541940689087,
   0.7016758322715759,
   -0.3544580042362213
  ],
  [
   0.1930936872959137,
   0.48225781321525574,
   -0.02990836836397648
  ],
  [
   -0.13239984214305878,
   0.28274649381637573,
   -0.009269315749406815
  ],
  [
   -0.27980950474739075,
   -0.792685866355896,
   0.019578831270337105
  ],
  [
   -0.4219922125339508,
   -1.4288817644119263,
   -0.01959460973739624
  ],
  [
   0.020709045231342316,
   1.619573712348938,
   -0.36762261390686035
  ],
  [
   -0.4893015921115875,
   -0.8007988333702087,
   0.7560902237892151
  ],
  [
   0.25160565972328186,
   1.1904748678207397,
   0.24571822583675385
  ],
  [
   -0.677051305770874,
   -2.3034849166870117,
   -0.2907385230064392
  ],
  [
   -0.01812504231929779,
   -0.0023130651097744703,
   -0.002000480657443404
  ],
  [
   -0.19575649499893188,
   -1.0259582996368408,
   -0.14448979496955872
  ],
  [
   -0.1993851512670517,
   -0.33615386486053467,
   0.5599873661994934
  ],
  [
   0.4178420901298523,
   0.9694778919219971,
   0.42912596464157104
  ],
  [
   -0.3133031129837036,
   -0.42507368326187134,
   0.07769202440977097
  ],
  [
   -0.009142525494098663,
   -0.001098658423870802,
   0.07828464359045029
  ],
  [
   0.2941869795322418,
   -1.0385992527008057,
   -0.07138349115848541
  ],
  [
   0.14790092408657074,
   0.6911019086837769,
   -0.4353466331958771
  ],
  [
   0.33695074915885925,
   0.4773571491241455,
   0.15222252905368805
  ],
  [
   -0.428923636674881,
   -0.1480468213558197,
   -0.19437187910079956
  ],
  [
   -0.10800004750490189,
   0.0038914799224585295,
   0.01120132114738226
  ],
  [
   -0.33204030990600586,
   1.086203932762146,
   -0.432265967130661
  ],
  [
   -1.4525625705718994,
   1.7952685356140137,
   -0.08357962220907211
  ],
  [
   -0.33114469051361084,
   0.01684560813009739,
   0.729027271270752
  ],
  [
   0.10596434026956558,
   -0.6927526593208313,
   -0.2300482541322708
  ],
  [
   -1.086948275566101,
   0.5376406311988831,
   -0.31749647855758667
  ],
  [
   -0.9096530079841614,
   0.22630535066127777,
   -0.04718706011772156
  ],
  [
   0.05233846604824066,
   -0.4800531566143036,
   0.3574698865413666
  ],
  [
   -0.25088241696357727,
   0.13038189709186554,
   -0.49718421697616577
  ],
  [
   -0.2517324984073639,
   1.6089897155761719,
   0.045307956635951996
  ],
  [
   -0.2778834104537964,
   -0.2847653031349182,
   0.38248249888420105
  ],
  [
   -0.09322356432676315,
   0.014822253957390785,
   0.22399765253067017
  ],
  [
   -0.41906049847602844,
   0.2530978322029114,
   0.5401391386985779
  ],
  [
   -2.2904796600341797,
   0.796665370464325,
   0.1225571557879448
  ],
  [
   0.16728292405605316,
   0.1386626809835434,
   -0.6466422080993652
  ],
  [
   -0.007768936455249786,
   0.0015073972754180431,
   -0.0015583457425236702
  ],
  [
   -2.425306797027588,
   -0.04536561295390129,
   -0.2630648612976074
  ],
  [
   0.08017983287572861,
   0.9803627133369446,
   -0.29733413457870483
  ],
  [
   -1.3805797100067139,
   -1.0035392045974731,
   0.5632209777832031
  ],
  [
   -1.449554443359375,
   0.26174890995025635,
   -0.6377559304237366
  ],
  [
   0.31657618284225464,
   1.4993603229522705,
   0.13971781730651855
  ],
  [
   0.40657636523246765,
   0.7535994052886963,
   -0.3073231279850006
  ],
  [
   -0.5091552734375,
   0.3795093595981598,
   0.33726751804351807
  ],
  [
   -0.20253272354602814,
   -0.10038625448942184,
   0.11366445571184158
  ],
  [
   -1.4616795778274536,
   -0.8260008096694946,
   -0.6648256182670593
  ],
  [
   -0.23546934127807617,
   -0.21543440222740173,
   0.332031786441803
  ],
  [
   -0.3379461467266083,
   -0.006165679078549147,
   0.19274696707725525
  ],
  [
   -0.195318341255188,
   1.0376439094543457,
   -0.07924837619066238
  ],
  [
   -0.2618740200996399,
   -0.36939889192581177,
   0.7838515639305115
  ],
  [
   -0.9333731532096863,
   0.5831306576728821,
   -0.4084867835044861
  ],
  [
   -0.1940375417470932,
   0.2772214412689209,
   0.3702697455883026
  ],
  [
   0.21502631902694702,
   -0.7985852956771851,
   -0.2138904184103012
  ],
  [
   -1.3336024284362793,
   0.6744247078895569,
   -0.4917932450771332
  ],
  [
   -3.666795015335083,
   -0.16467051208019257,
   -0.5475468039512634
  ],
  [
   -0.10222174227237701,
   -0.6164426803588867,
   -0.18299156427383423
  ],
  [
   -0.018580304458737373,
   0.02008035220205784,
   0.045046642422676086
  ],
  [
   -0.8776578903198242,
   0.48299792408943176,
   -0.41101276874542236
  ],
  [
   0.13247735798358917,
   0.22705687582492828,
   -0.06942462921142578
  ],
  [
   -0.47650420665740967,
   -0.01747003011405468,
   -0.722426176071167
  ],
  [
   -0.1393919438123703,
   -0.5791822075843811,
   0.0635915994644165
  ],
  [
   -0.22265656292438507,
   -0.9590803980827332,
   0.41518548130989075
  ],
  [
   0.35012152791023254,
   1.7835090160369873,
   -0.03032495826482773
  ],
  [
   -0.3520773649215698,
   0.49068009853363037,
   -0.26949837803840637
  ],
  [
   -0.10090098530054092,
   -0.3369176387786865,
   -0.20653659105300903
  ],
  [
   -0.035302117466926575,
   0.002686160383746028,
   0.007800126448273659
  ],
  [
   -0.7937672138214111,
   0.4062678813934326,
   -0.3013438582420349
  ],
  [
   0.0012633987935259938,
   -0.00011584024468902498,
   -0.007998451590538025
  ],
  [
   -0.3399259150028229,
   -0.36260682344436646,
   0.41760221123695374
  ],
  [
   -1.1924936771392822,
   0.7946990728378296,
   -0.5709595680236816
  ],
  [
   -0.021623579785227776,
   -0.04344141110777855,
   -0.5124218463897705
  ],
  [
   0.2077590376138687,
   0.5337489247322083,
   -0.22778530418872833
  ],
  [
   -1.3651857376098633,
   -1.2498265504837036,
   0.33250880241394043
  ],
  [
   -2.3906142711639404,
   -1.5347425937652588,
   0.6060574650764465
  ],
  [
   0.07540208846330643,
   1.7185521125793457,
   0.285861611366272
  ],
  [
   0.1760120987892151,
   -0.7504531145095825,
   -0.14236722886562347
  ],
  [
   -0.13512516021728516,
   0.10146106034517288,
   0.3072003424167633
  ],
  [
   0.4120428264141083,
   -0.588755190372467,
   -0.16980013251304626
  ],
  [
   -0.01568875089287758,
   0.0027061766013503075,
   0.009052463807165623
  ],
  [
   0.11727505922317505,
   0.8947992920875549,
   0.022436557337641716
  ],
  [
   0.015780827030539513,
   1.2461854219436646,
   0.21827656030654907
  ],
  [
   -1.3373193740844727,
   0.9987800121307373,
   0.268379271030426
  ],
  [
   -0.5201504826545715,
   -0.7730037569999695,
   -0.24299058318138123
  ],
  [
   0.13196994364261627,
   0.10442517697811127,
   -0.5524576902389526
  ],
  [
   -0.7556403875350952,
   -0.9152504205703735,
   0.07878527790307999
  ],
  [
   0.0681205466389656,
   -0.5052202343940735,
   0.1443011611700058
  ],
  [
   -3.534001111984253,
   -0.1047421246767044,
   -0.604636013507843
  ],
  [
   -0.8044384121894836,
   0.17270146310329437,
   0.4234869182109833
  ],
  [
   -1.7320489883422852,
   0.4369870126247406,
   -0.3245410919189453
  ],
  [
   -0.7167389988899231,
   -1.769873023033142,
   0.31610503792762756
  ],
  [
   -0.503327488899231,
   -1.8362106084823608,
   -0.2728693187236786
  ],
  [
   0.16998964548110962,
   0.3562662601470947,
   0.34179455041885376
  ],
  [
   -1.2971848249435425,
   -0.12504836916923523,
   -0.48003190755844116
  ],
  [
   -0.5931463837623596,
   -1.2256133556365967,
   0.44324880838394165
  ],
  [
   0.3130759000778198,
   -0.9578652381896973,
   0.33571597933769226
  ],
  [
   -0.7325243353843689,
   -0.33700037002563477,
   0.6462351083755493
  ],
  [
   0.11923713982105255,
   0.6258544325828552,
   -0.5020943880081177
  ],
  [
   0.27795711159706116,
   1.3620854616165161,
   -0.3943082094192505
  ],
  [
   -1.2308580875396729,
   -0.6490148901939392,
   -0.5267007350921631
  ],
  [
   0.24025477468967438,
   1.4699084758758545,
   -0.05008947476744652
  ],
  [
   0.10020102560520172,
   0.7998683452606201,
   0.2078699767589569
  ],
  [
   -0.967953085899353,
   -0.10330453515052795,
   -0.5933034420013428
  ],
  [
   -0.24391476809978485,
   0.3265482187271118,
   0.45998382568359375
  ],
  [
   -0.039327219128608704,
   0.004504821263253689,
   -0.03811723366379738
  ],
  [
   -1.3242727518081665,
   1.5990467071533203,
   -0.2658229172229767
  ],
  [
   -0.2101016640663147,
   -0.32753288745880127,
   0.6258936524391174
  ],
  [
   -0.27825722098350525,
   -0.271467387676239,
   0.5328645706176758
  ],
  [
   -0.39506855607032776,
   -0.10144081711769104,
   0.8512240648269653
  ],
  [
   -0.19052131474018097,
   -0.43567484617233276,
   0.6178516745567322
  ],
  [
   -0.34794944524765015,
   -0.47993195056915283,
   0.4449796676635742
  ],
  [
   -0.2291015088558197,
   -1.1886556148529053,
   0.38762304186820984
  ],
  [
   -0.26334622502326965,
   -0.874339759349823,
   -0.30519792437553406
  ],
  [
   -0.5292323231697083,
   -0.906730055809021,
   0.5288770198822021
  ],
  [
   -0.6078000664710999,
   -0.3825184106826782,
   -0.3590415418148041
  ],
  [
   -0.12212984263896942,
   -1.3380669355392456,
   0.03218286484479904
  ],
  [
   0.05750037729740143,
   -0.00762953981757164,
   0.12533117830753326
  ],
  [
   -1.3371784687042236,
   -0.1698686182498932,
   -0.4357021749019623
  ],
  [
   -2.4673147201538086,
   -0.3062272369861603,
   -0.639535129070282
  ],
  [
   -0.5209292769432068,
   -1.3160812854766846,
   -0.10103452950716019
  ],
  [
   -0.7284107804298401,
   2.31600284576416,
   -0.27720099687576294
  ],
  [
   -1.3731852769851685,
   2.0744128227233887,
   0.1532639116048813
  ],
  [
   -0.38161975145339966,
   -0.0024295628536492586,
   0.037764132022857666
  ],
  [
   -0.13379652798175812,
   -0.3293623924255371,
   0.4448716640472412
  ],
  [
   0.0682302862405777,
   -0.2989580035209656,
   0.3209353983402252
  ],
  [
   -0.2949635684490204,
   -0.10719440877437592,
   0.2747371792793274
  ],
  [
   -0.5926017165184021,
   0.2110912948846817,
   -0.16854244470596313
  ],
  [
   -1.242499589920044,
   -2.3189597129821777,
   -0.40811124444007874
  ],
  [
   -0.0978442132472992,
   -0.0035868287086486816,
   -0.21810469031333923
  ],
  [
   -0.8186239004135132,
   -0.02761106751859188,
   -0.4915432333946228
  ],
  [
   -1.4257452487945557,
   -0.0632927268743515,
   -0.34052640199661255
  ],
  [
   -0.3471420407295227,
   -0.5450112819671631,
   0.20131820440292358
  ],
  [
   -0.3570774793624878,
   -0.9318569302558899,
   0.17704857885837555
  ],
  [
   -0.02038705162703991,
   0.685596764087677,
   0.027639759704470634
  ],
  [
   -3.596574306488037,
   -0.9883458018302917,
   -0.1099281758069992
  ],
  [
   0.13133427500724792,
   0.8595567941665649,
   0.08338489383459091
  ],
  [
   -0.100209541618824,
   -0.512505054473877,
   0.3461153507232666
  ],
  [
   -1.1598572731018066,
   -1.2267857789993286,
   0.11630944162607193
  ],
  [
   0.03893152251839638,
   1.5611019134521484,
   -0.3126556873321533
  ],
  [
   -0.011519416235387325,
   5.8596629969542846e-05,
   -0.0022541536018252373
  ],
  [
   0.24800418317317963,
   1.741590976715088,
   -0.11701586097478867
  ],
  [
   -0.0464768223464489,
   0.013815569691359997,
   0.0009122564224526286
  ],
  [
   -0.24179837107658386,
   -0.3407818675041199,
   0.13887068629264832
  ],
  [
   -0.1110394299030304,
   -0.6901589035987854,
   -0.20251969993114471
  ],
  [
   -0.022591054439544678,
   0.00012154462456237525,
   0.00022412484395317733
  ],
  [
   0.22229696810245514,
   0.3926421105861664,
   -0.3529287874698639
  ],
  [
   -0.07574756443500519,
   -0.7071175575256348,
   -0.6733713746070862
  ],
  [
   -0.47885164618492126,
   -0.5698888301849365,
   0.7786899209022522
  ],
  [
   0.11062285304069519,
   1.5790965557098389,
   -0.33714598417282104
  ],
  [
   -0.6801321506500244,
   1.085589051246643,
   -0.097450852394104
  ],
  [
   -0.20101670920848846,
   -0.8791857957839966,
   -0.1218079924583435
  ],
  [
   -0.045686330646276474,
   0.4402114748954773,
   -0.53838050365448
  ],
  [
   -0.09032470732927322,
   -0.45473477244377136,
   0.34971800446510315
  ],
  [
   -1.125969409942627,
   1.198631763458252,
   0.21505588293075562
  ],
  [
   -0.24426890909671783,
   -1.4913852214813232,
   -0.5063585638999939
  ],
  [
   -0.2594625651836395,
   -0.34254491329193115,
   0.361020028591156
  ],
  [
   -0.6330755352973938,
   -1.0965486764907837,
   0.6351652145385742
  ],
  [
   -0.7797002196311951,
   -0.7447166442871094,
   0.4619089365005493
  ],
  [
   -0.6934727430343628,
   0.1603630930185318,
   -0.4267517030239105
  ],
  [
   0.05907612293958664,
   0.6301186084747314,
   0.19632819294929504
  ],
  [
   -0.39286383986473083,
   -0.2660104036331177,
   0.6499427556991577
  ],
  [
   0.005609825719147921,
   -0.4167756736278534,
   0.19351983070373535
  ],
  [
   -1.5790258646011353,
   0.49438977241516113,
   0.13170558214187622
  ],
  [
   0.5194759964942932,
   -0.48168444633483887,
   -0.38137108087539673
  ],
  [
   -0.10096871107816696,
   1.1455148458480835,
   -0.11185246706008911
  ],
  [
   0.28649356961250305,
   -0.44180795550346375,
   0.3799911439418793
  ],
  [
   -1.6904693841934204,
   -0.21287527680397034,
   -0.5928093791007996
  ],
  [
   -0.7221740484237671,
   0.6518313884735107,
   -0.3579671382904053
  ],
  [
   0.5782126784324646,
   -1.0689518451690674,
   -0.1139666959643364
  ],
  [
   -1.1882364749908447,
   0.5507938265800476,
   -0.35311177372932434
  ],
  [
   -0.37439095973968506,
   -1.2716851234436035,
   -0.5481625199317932
  ],
  [
   0.09981895238161087,
   0.9145627617835999,
   -0.06335392594337463
  ],
  [
   -2.044398307800293,
   0.19005580246448517,
   -0.0535663403570652
  ],
  [
   -1.1295428276062012,
   -0.4325143098831177,
   0.40980544686317444
  ],
  [
   -0.33426612615585327,
   -1.381361722946167,
   0.20235677063465118
  ],
  [
   0.44469621777534485,
   -0.9628154039382935,
   -0.22315137088298798
  ],
  [
   -0.027037370949983597,
   0.317435085773468,
   -0.11701866239309311
  ],
  [
   0.1625502109527588,
   0.5991533398628235,
   -0.32959529757499695
  ],
  [
   -0.02857314422726631,
   0.3405182659626007,
   0.21662262082099915
  ],
  [
   0.08694417774677277,
   0.8577241897583008,
   0.3697960078716278
  ],
  [
   -0.49370819330215454,
   0.8890379071235657,
   -0.3683070242404938
  ],
  [
   0.06792128831148148,
   -0.8852860927581787,
   -0.6087766289710999
  ],
  [
   -1.3935176134109497,
   -1.2113847732543945,
   0.5822969079017639
  ],
  [
   -2.3550078868865967,
   0.4270005226135254,
   0.0698346197605133
  ],
  [
   -0.0008337483159266412,
   0.8700489401817322,
   0.14628292620182037
  ],
  [
   -0.06839457899332047,
   -0.00041091066668741405,
   0.007215199526399374
  ],
  [
   -0.23022902011871338,
   -0.9298375844955444,
   -0.23041951656341553
  ],
  [
   -0.5922009944915771,
   -1.2739298343658447,
   0.29432037472724915
  ],
  [
   -0.6257386207580566,
   -0.6889016032218933,
   -0.5054991841316223
  ],
  [
   -0.22703489661216736,
   -0.9902494549751282,
   0.06190785765647888
  ],
  [
   -0.8615464568138123,
   0.41974902153015137,
   -0.3172589838504791
  ],
  [
   -2.32098388671875,
   0.9523906707763672,
   -0.05954889580607414
  ],
  [
   0.559825599193573,
   1.1993719339370728,
   -0.30047574639320374
  ],
  [
   0.21399545669555664,
   -0.5038079023361206,
   -0.2900547683238983
  ],
  [
   0.2126452773809433,
   0.05271221697330475,
   -0.596565842628479
  ],
  [
   -0.024221181869506836,
   -0.5375354886054993,
   -0.2903566062450409
  ],
  [
   -0.07598350197076797,
   0.007428549695760012,
   0.02071320079267025
  ],
  [
   0.12148458510637283,
   1.301315188407898,
   -0.3389625549316406
  ],
  [
   0.059066515415906906,
   -0.07887064665555954,
   -0.1264696717262268
  ],
  [
   -0.6049434542655945,
   1.319057583808899,
   -0.22753272950649261
  ],
  [
   0.47868630290031433,
   1.101959466934204,
   -0.5412634611129761
  ],
  [
   -0.19386297464370728,
   0.36722972989082336,
   0.06545374542474747
  ],
  [
   -0.4771536588668823,
   -0.8381908535957336,
   0.04157159477472305
  ],
  [
   -0.9985668063163757,
   -1.255934476852417,
   0.6441940069198608
  ],
  [
   0.10464459657669067,
   -0.9817489981651306,
   -0.12276565283536911
  ],
  [
   0.3804585635662079,
   0.4838012158870697,
   0.3903270363807678
  ],
  [
   -0.19240686297416687,
   -0.10305283218622208,
   0.2526480257511139
  ],
  [
   0.3076256811618805,
   1.8524112701416016,
   -0.04922974109649658
  ],
  [
   0.390362948179245,
   -1.0173641443252563,
   -0.5626855492591858
  ],
  [
   0.33148032426834106,
   -0.5179365873336792,
   -0.4638173580169678
  ],
  [
   -0.5435470342636108,
   0.05254407972097397,
   -0.421742707490921
  ],
  [
   -1.8359161615371704,
   0.7404205799102783,
   -0.5716556310653687
  ],
  [
   0.10123436897993088,
   0.5041813850402832,
   -0.3575347363948822
  ],
  [
   -4.267161846160889,
   -1.0202746391296387,
   -0.2692129611968994
  ],
  [
   -0.18003934621810913,
   1.7941670417785645,
   0.22337386012077332
  ],
  [
   -0.0158989317715168,
   0.907180905342102,
   0.2597199082374573
  ],
  [
   -2.5652167797088623,
   -0.3716154992580414,
   0.32104894518852234
  ],
  [
   -0.11491905897855759,
   0.8125683665275574,
   -0.3425857424736023
  ],
  [
   -0.5887995958328247,
   0.017649035900831223,
   -0.49360790848731995
  ],
  [
   -0.070935919880867,
   0.004126980435103178,
   -0.05912027135491371
  ],
  [
   -1.0658897161483765,
   0.8487712740898132,
   0.3480277955532074
  ],
  [
   0.11960545182228088,
   1.6599096059799194,
   -0.3756673038005829
  ],
  [
   -0.30009177327156067,
   -0.8472892642021179,
   0.35538047552108765
  ],
  [
   -1.6835520267486572,
   -0.11740071326494217,
   -0.6334019899368286
  ],
  [
   -1.4317196607589722,
   0.06564833968877792,
   -0.6204280853271484
  ],
  [
   -0.2101999968290329,
   -1.2658308744430542,
   -0.3819003999233246
  ],
  [
   0.05472349002957344,
   0.3822326362133026,
   -0.49543485045433044
  ],
  [
   -1.2312527894973755,
   0.010055669583380222,
   -0.4776414930820465
  ],
  [
   -1.2559152841567993,
   -2.14835262298584,
   -0.0029524683486670256
  ],
  [
   0.02867644838988781,
   -0.848410964012146,
   -0.26614242792129517
  ],
  [
   -0.5822908282279968,
   -1.2828938961029053,
   0.46766042709350586
  ],
  [
   -0.21045361459255219,
   -0.19100284576416016,
   0.370792955160141
  ],
  [
   0.03802631422877312,
   0.031008688732981682,
   -0.0714421197772026
  ],
  [
   -2.549926996231079,
   0.9065423011779785,
   -0.20992445945739746
  ],
  [
   0.28966981172561646,
   -0.6850658655166626,
   -0.5540549159049988
  ],
  [
   -0.36877188086509705,
   -1.3591376543045044,
   0.4333241879940033
  ],
  [
   -0.030813556164503098,
   0.4631488621234894,
   -0.5064026713371277
  ],
  [
   -0.2196660190820694,
   -0.34768015146255493,
   0.5578052997589111
  ],
  [
   -0.12669947743415833,
   -0.4378737509250641,
   0.6493521928787231
  ],
  [
   -1.9878344535827637,
   0.6851583123207092,
   -0.8076162934303284
  ],
  [
   -0.5236577391624451,
   -0.9714259505271912,
   0.0994986817240715
  ],
  [
   -0.005375860258936882,
   -9.524637425784022e-05,
   -0.0018809451721608639
  ],
  [
   -0.10513829439878464,
   0.5115488767623901,
   -0.4231562912464142
  ],
  [
   0.07331016659736633,
   1.5366381406784058,
   -0.3477696478366852
  ],
  [
   -0.2569144070148468,
   -0.31753823161125183,
   0.39240407943725586
  ],
  [
   -0.6038451194763184,
   -0.37575939297676086,
   -0.3601461350917816
  ],
  [
   -1.7786931991577148,
   1.0029118061065674,
   -0.14823810756206512
  ],
  [
   0.2967226207256317,
   -0.4686407446861267,
   -0.23620039224624634
  ],
  [
   -0.12454438209533691,
   -0.4404512345790863,
   0.6372722387313843
  ],
  [
   0.6981238126754761,
   -0.36475035548210144,
   -0.8447461128234863
  ],
  [
   -0.2700418531894684,
   0.29608502984046936,
   0.23873627185821533
  ],
  [
   -0.21012914180755615,
   -1.25054931640625,
   0.05642147734761238
  ],
  [
   -0.9981133341789246,
   0.45175597071647644,
   -0.08532825857400894
  ]
 ],
 "pi.0.bias": [
  -0.642166256904602,
  0.607693076133728,
  0.07921452820301056,
  -1.2205978631973267,
  0.13957729935646057,
  -0.7736327648162842,
  -0.41335541009902954,
  0.648481547832489,
  -0.32538679242134094,
  0.2677319645881653,
  -0.48715925216674805,
  0.2566438317298889,
  0.01671549119055271,
  -0.5029160976409912,
  -0.2976921796798706,
  -0.7470614314079285,
  0.13378483057022095,
  -0.5528804063796997,
  -0.21436366438865662,
  0.3185478448867798,
  0.10488250106573105,
  -0.07364780455827713,
  -0.3565237522125244,
  -0.3803793787956238,
  0.08271310478448868,
  -0.1314803957939148,
  -0.37255969643592834,
  0.03755546361207962,
  -0.31490880250930786,
  -0.16856873035430908,
  -0.027117960155010223,
  0.42272260785102844,
  -0.4368427097797394,
  -0.7068946361541748,
  0.6517046689987183,
  0.27388718724250793,
  0.33919909596443176,
  -0.28726786375045776,
  -0.8242639303207397,
  -0.7418851852416992,
  -0.43284425139427185,
  -0.017490003257989883,
  0.4400985836982727,
  -1.3226444721221924,
  -0.3786737620830536,
  -0.781552791595459,
  -0.3574133813381195,
  -0.991982638835907,
  0.5438128709793091,
  0.266070157289505,
  0.44982579350471497,
  0.3835549056529999,
  -0.17003940045833588,
  -1.505712866783142,
  0.4837842881679535,
  -0.022265035659074783,
  0.1749887466430664,
  -0.38867008686065674,
  0.04830650985240936,
  0.5277093052864075,
  -1.35415518283844,
  -0.6406358480453491,
  0.5836305618286133,
  -1.007118821144104,
  0.42005765438079834,
  0.2600462734699249,
  0.26352277398109436,
  0.00847272016108036,
  0.47916680574417114,
  -0.00025359870051033795,
  0.28941628336906433,
  0.0015429892810061574,
  -0.4934820830821991,
  -0.4826315641403198,
  -0.8020808696746826,
  -0.20242689549922943,
  0.3864032030105591,
  -0.530749499797821,
  -0.011822926811873913,
  0.4038718640804291,
  -1.167323112487793,
  0.5738956332206726,
  0.01679561473429203,
  0.19186079502105713,
  -0.5080787539482117,
  -0.4168446660041809,
  0.32958370447158813,
  -0.27737152576446533,
  -0.7269163131713867,
  -1.2054972648620605,
  0.5768182873725891,
  0.5354953408241272,
  -0.47558918595314026,
  -0.33081015944480896,
  -1.0385276079177856,
  -0.19537167251110077,
  0.37154409289360046,
  -1.1519527435302734,
  0.08173801004886627,
  -1.1987652778625488,
  0.22872120141983032,
  -0.21637047827243805,
  -0.08860406279563904,
  0.589715301990509,
  -0.07227470725774765,
  -0.006433350034058094,
  -0.9472575187683105,
  -0.5932300090789795,
  -1.102110743522644,
  -0.30452072620391846,
  0.24661394953727722,
  -0.13966503739356995,
  -1.3558932542800903,
  -0.6984686851501465,
  -0.43765413761138916,
  -0.5907468795776367,
  -1.172585368156433,
  -0.928153932094574,
  -0.352527379989624,
  0.008006487041711807,
  -0.1720157265663147,
  -0.8279147744178772,
  -0.2278386354446411,
  -0.3863668739795685,
  -0.6192401051521301,
  0.19462044537067413,
  -0.02258852683007717,
  -1.1796975135803223,
  -1.1161229610443115,
  -0.28096020221710205,
  0.004566646181046963,
  -0.39498674869537354,
  0.030495811253786087,
  -0.38818269968032837,
  -1.1577717065811157,
  0.13037604093551636,
  0.4744397699832916,
  -0.7161876559257507,
  0.3719922602176666,
  -0.13711826503276825,
  -0.9531262516975403,
  0.03492101654410362,
  0.4365648925304413,
  0.011788612231612206,
  -0.5038948059082031,
  0.05068542808294296,
  0.5490894913673401,
  -0.41157063841819763,
  -0.1855667233467102,
  0.2757173776626587,
  -1.1630967855453491,
  -0.31917521357536316,
  -0.06998753547668457,
  0.7291404008865356,
  0.06925604492425919,
  0.34496018290519714,
  0.06713175773620605,
  -1.0079559087753296,
  -0.07226481288671494,
  -0.14809483289718628,
  0.6649894714355469,
  0.12065981328487396,
  -0.83806312084198,
  0.1406591534614563,
  -0.16037029027938843,
  0.23116394877433777,
  -0.12798656523227692,
  -1.4227184057235718,
  -1.1471996307373047,
  -0.07132787257432938,
  -0.45327624678611755,
  -0.3767785429954529,
  -0.36892053484916687,
  0.18878288567066193,
  -0.3508409857749939,
  -0.11217620223760605,
  -0.41700413823127747,
  -0.32442507147789,
  -0.8861643075942993,
  0.33745434880256653,
  0.7238262295722961,
  -0.5298506021499634,
  -0.33213645219802856,
  -0.3269837498664856,
  -0.01125966664403677,
  0.31862470507621765,
  -0.33764874935150146,
  -0.1900518834590912,
  -0.283155232667923,
  0.24486449360847473,
  -0.37879693508148193,
  0.09518323838710785,
  0.3356010615825653,
  -0.2585908770561218,
  0.7596219778060913,
  -0.5377548933029175,
  0.04883265495300293,
  -0.05079544335603714,
  0.023642119020223618,
  -1.1205193996429443,
  0.4976951777935028,
  -0.5769012570381165,
  -0.1899450570344925,
  0.4614470899105072,
  -0.18343691527843475,
  -1.2508008480072021,
  -0.17236851155757904,
  -0.27548396587371826,
  0.013990509323775768,
  0.03588647395372391,
  -0.11845654994249344,
  -0.8285716772079468,
  0.7330561876296997,
  -0.017718462273478508,
  0.009973792359232903,
  -0.2644300162792206,
  0.43231841921806335,
  -0.5791504979133606,
  -1.0568593740463257,
  -0.7992093563079834,
  -0.2166358083486557,
  -0.38282889127731323,
  -0.804836094379425,
  -0.6240687966346741,
  -0.9012863636016846,
  -0.1772662103176117,
  -0.03587459772825241,
  0.35297149419784546,
  -0.6523091197013855,
  -1.1921842098236084,
  -1.1366796493530273,
  -0.33621829748153687,
  0.022216495126485825,
  -0.03540441766381264,
  -0.16382983326911926,
  -0.4753062129020691,
  -0.3183225393295288,
  -0.22486792504787445,
  -2.149836778640747,
  0.14237956702709198,
  -0.5024536848068237,
  0.5467312335968018,
  -0.3358798027038574,
  -0.49762412905693054,
  0.23800326883792877,
  -0.08904808014631271,
  -0.19436082243919373,
  -0.2966901659965515,
  0.030933387577533722,
  -1.2043246030807495,
  0.19330714643001556,
  -0.10900458693504333,
  0.17960909008979797,
  -0.03867334872484207,
  0.11608010530471802,
  -0.2747836410999298,
  0.10134418308734894,
  0.010129405185580254,
  -0.354613333940506,
  0.7157639265060425,
  0.5504273772239685,
  -0.11695036292076111,
  0.23212631046772003,
  -0.6043422818183899,
  -0.47302478551864624,
  -0.610945999622345,
  0.3110367953777313,
  0.20550140738487244,
  -0.3204357922077179,
  -0.46541544795036316,
  0.09059596806764603,
  -0.04844112694263458,
  0.6234739422798157,
  -0.7518651485443115,
  -0.7408369183540344,
  -0.4912688732147217,
  -0.9972524642944336,
  0.19436843693256378,
  0.6018847823143005,
  0.43914714455604553,
  0.11719867587089539,
  -0.18474088609218597,
  -0.09070508182048798,
  -0.2688317894935608,
  0.2704991102218628,
  0.3181230127811432,
  -0.005167762748897076,
  -0.44351130723953247,
  -0.06956090778112411,
  0.34746330976486206,
  0.4910525679588318,
  -0.0023976145312190056,
  -0.24212601780891418,
  -0.03996427729725838,
  -0.001763879437930882,
  0.3594869077205658,
  -0.886600136756897,
  -0.656490683555603,
  0.38087645173072815,
  -0.40694648027420044,
  -0.0324954055249691,
  -0.5112541317939758,
  0.37575632333755493,
  0.2356896549463272,
  -0.46274784207344055,
  -0.2031572014093399,
  -0.5269480347633362,
  0.1393669843673706,
  -0.22031749784946442,
  0.5159230828285217,
  -0.6925051808357239,
  -0.3521653711795807,
  -0.48607292771339417,
  -0.630604088306427,
  0.19559380412101746,
  -1.3060417175292969,
  -0.4051896035671234,
  -0.14424723386764526,
  -0.6258603930473328,
  -0.6964871287345886,
  0.2138703316450119,
  0.5366436839103699,
  -0.2687545120716095,
  -1.1706026792526245,
  -0.12957526743412018,
  0.0006798477261327207,
  -1.279191493988037,
  -0.40455275774002075,
  0.08166728168725967,
  -0.0706242173910141,
  -0.28905197978019714,
  -0.19158004224300385,
  -0.03576672077178955,
  0.4837602376937866,
  0.7100374698638916,
  -0.3462322950363159,
  0.3167097866535187,
  0.016531912609934807,
  -0.16691994667053223,
  -0.6833810210227966,
  0.3563705384731293,
  -0.2696438431739807,
  0.12640400230884552,
  -0.06750671565532684,
  0.3153853118419647,
  -0.22945649921894073,
  -0.43638908863067627,
  -0.5862760543823242,
  -1.1903297901153564,
  -0.0523432120680809,
  0.12565842270851135,
  -0.1334017962217331,
  0.1652233749628067,
  0.03515996038913727,
  -0.37482160329818726,
  0.3426727056503296,
  -1.194862961769104,
  -0.017829176038503647,
  -0.6638959050178528,
  -1.2860221862792969,
  -0.6833122968673706,
  -0.23924292623996735,
  -0.7000977993011475,
  -0.3887612521648407,
  0.17430917918682098,
  -0.003012526547536254,
  -0.16861197352409363,
  -0.8303478956222534,
  -0.06075393036007881,
  0.8480249047279358,
  -1.3786611557006836,
  0.28527191281318665,
  0.6690273284912109,
  0.16967128217220306,
  0.06377119570970535,
  0.19271083176136017,
  0.5463345050811768,
  -0.45933422446250916,
  0.12112893164157867,
  -0.24005593359470367,
  -0.04049253091216087,
  0.2472563087940216,
  -0.25885653495788574,
  0.3481488525867462,
  0.09858442097902298,
  -0.044072434306144714,
  -0.21173785626888275,
  -0.09135796874761581,
  -0.005247160326689482,
  -0.1455908715724945,
  0.33551520109176636,
  0.3373924791812897,
  -0.10393791645765305,
  0.042326897382736206,
  0.5132666826248169,
  -0.043046168982982635,
  -0.9229755401611328,
  -0.9635564684867859,
  0.1504705399274826,
  -0.644720733165741
 ],
 "pi.2.weight": [
  [
   0.03248954191803932,
   0.14919404685497284,
   0.11828809976577759,
   -0.6174449324607849,
   -0.4952945411205292,
   0.2598237693309784,
   0.3930727243423462,
   -0.3920074701309204,
   -0.011754186823964119,
   0.6006148457527161,
   0.3801764249801636,
   -0.1762952208518982,
   -0.16671308875083923,
   0.1597074717283249,
   -0.33466240763664246,
   -1.0990670919418335,
   0.18410120904445648,
   -0.4100499749183655,
   -0.2952404022216797,
   0.23103034496307373,
   0.03032108210027218,
   -0.1866532564163208,
   -0.4866097569465637,
   0.06947682052850723,
   0.08970464766025543,
   0.030888225883245468,
   0.1472366750240326,
   0.05695696175098419,
   1.1660043001174927,
   0.4474172592163086,
   -0.016161011531949043,
   0.09075859189033508,
   0.0585787370800972,
   -0.9074389934539795,
   0.16040156781673431,
   -0.1731237918138504,
   0.05489977076649666,
   -0.029121438041329384,
   -0.141322523355484,
   -0.1385403573513031,
   0.11197967082262039,
   -0.05760989710688591,
   0.18052929639816284,
   -0.9713391065597534,
   0.40298038721084595,
   -0.13978464901447296,
   0.7546452879905701,
   0.12623408436775208,
   -0.2413383424282074,
   -0.2334955632686615,
   0.052985481917858124,
   0.06888135522603989,
   -0.017961282283067703,
   -1.2236242294311523,
   0.3315076231956482,
   -0.0010798500152304769,
   0.41766270995140076,
   0.456980437040329,
   0.23863013088703156,
   0.04825741425156593,
   -0.49170348048210144,
   0.13950571417808533,
   0.1613885462284088,
   0.11923371255397797,
   0.16913828253746033,
   0.13310405611991882,
   -0.07330120354890823,
   -0.0916154682636261,
   0.19086016714572906,
   -1.4823954188614152e-06,
   0.5233981609344482,
   0.6099385023117065,
   0.250579833984375,
   0.35603031516075134,
   -0.41051703691482544,
   -0.08314774930477142,
   0.030036436393857002,
   0.7460153102874756,
   0.003914194647222757,
   0.045817676931619644,
   2.2001678943634033,
   -0.3036216199398041,
   -0.032024044543504715,
   -0.2237486094236374,
   -0.18918892741203308,
   -0.5828185677528381,
   -0.6392725706100464,
   0.014849605970084667,
   -0.5000292062759399,
   2.6545772552490234,
   0.23081186413764954,
   0.18794818222522736,
   0.08838061988353729,
   -0.03462276980280876,
   0.2562513053417206,
   -0.2068735510110855,
   0.20757296681404114,
   1.776516318321228,
   1.3791099786758423,
   0.8197528719902039,
   -0.19830439984798431,
   -0.023807520046830177,
   0.0023938424419611692,
   -0.30741143226623535,
   0.009537632577121258,
   8.859695662977174e-05,
   1.3224964141845703,
   -0.7474417090415955,
   -0.44936203956604004,
   -0.022242382168769836,
   0.10041964054107666,
   -0.19195657968521118,
   1.2083075046539307,
   -0.6925752758979797,
   0.06071240454912186,
   0.22706134617328644,
   -2.088017463684082,
   0.34010979533195496,
   0.8834695816040039,
   -0.015043690800666809,
   0.1076749637722969,
   0.3512510359287262,
   -0.11372549831867218,
   2.061197519302368,
   -0.717418372631073,
   -0.1706058233976364,
   0.1149899959564209,
   0.3961695730686188,
   -0.0390266478061676,
   -0.12715037167072296,
   -0.09653370082378387,
   0.18490329384803772,
   0.05467190966010094,
   0.7410852313041687,
   -1.147115707397461,
   0.6926872730255127,
   0.10414720326662064,
   -1.229872703552246,
   0.5016759634017944,
   -0.3422063887119293,
   -0.12010098248720169,
   0.08303385227918625,
   0.3500249683856964,
   -0.2539558410644531,
   -0.02735915780067444,
   -0.14047178626060486,
   0.17702728509902954,
   -1.027753233909607,
   -0.3205327093601227,
   -0.040806375443935394,
   1.382863163948059,
   0.33399978280067444,
   -0.00330022512935102,
   -0.23257221281528473,
   1.149822473526001,
   -0.08906545490026474,
   -0.9145951867103577,
   -0.2863611876964569,
   -0.253538578748703,
   -0.0022690019104629755,
   0.23083777725696564,
   0.3463656008243561,
   -0.26280006766319275,
   -0.1243569627404213,
   -7.626391015946865e-05,
   -0.08831188082695007,
   0.03463197872042656,
   0.5634320974349976,
   -0.06850888580083847,
   -0.016482066363096237,
   0.8817042112350464,
   -0.4903002977371216,
   0.8140805959701538,
   -0.22677147388458252,
   0.06257270276546478,
   -0.13599121570587158,
   -0.32508572936058044,
   -0.03416493162512779,
   1.683359146118164,
   0.3919753134250641,
   0.28983888030052185,
   0.27233725786209106,
   -1.054481863975525,
   -0.05784975364804268,
   0.00029882925446145236,
   -0.14961692690849304,
   0.07202498614788055,
   -0.7642087340354919,
   0.8097283840179443,
   0.15210099518299103,
   0.07075028866529465,
   0.04289337620139122,
   0.028767477720975876,
   0.06732670217752457,
   0.5362181067466736,
   -0.05261039733886719,
   0.11233383417129517,
   0.283076673746109,
   0.05843498185276985,
   0.5303120017051697,
   -0.4236193299293518,
   0.06413976103067398,
   -0.23660919070243835,
   0.06883154064416885,
   -0.0026088040322065353,
   -0.06610462069511414,
   -0.14947399497032166,
   -0.08794067800045013,
   -0.2929438352584839,
   1.1618893146514893,
   -0.4962675869464874,
   0.3851446807384491,
   0.18251238763332367,
   -0.0065485103987157345,
   0.038475487381219864,
   -0.01978589966893196,
   0.23623210191726685,
   0.41943255066871643,
   -0.31798961758613586,
   0.40770843625068665,
   0.432020902633667,
   0.5451118350028992,
   -1.4441337585449219,
   -0.3204052746295929,
   -0.14424408972263336,
   -0.24414373934268951,
   0.00017746044613886625,
   0.36022332310676575,
   -0.5090420842170715,
   1.3632665872573853,
   1.2045048475265503,
   -0.04193447530269623,
   -1.1881769895553589,
   0.09439877420663834,
   -0.6798251271247864,
   -0.322095662355423,
   0.5158981680870056,
   0.4820961058139801,
   0.4018687903881073,
   0.07029131054878235,
   -1.003591775894165,
   -0.658403217792511,
   -0.2790936827659607,
   -0.5834149122238159,
   -0.25584685802459717,
   -0.05856835097074509,
   0.10272533446550369,
   -0.6626490950584412,
   0.084020234644413,
   -0.6852405667304993,
   0.09924212098121643,
   -0.0015143884811550379,
   0.17304196953773499,
   0.3869818150997162,
   0.26286596059799194,
   0.5674231052398682,
   0.6974003911018372,
   -0.2049037367105484,
   -0.3889736235141754,
   0.1667884737253189,
   -0.9410449266433716,
   0.12601938843727112,
   0.9414677023887634,
   0.021944481879472733,
   -0.04931497573852539,
   -0.7675091624259949,
   0.49675530195236206,
   0.2056056559085846,
   0.5031401515007019,
   -0.03446555137634277,
   0.4216375946998596,
   0.09568215906620026,
   0.2220071256160736,
   0.008470806293189526,
   0.35832205414772034,
   -0.029166383668780327,
   -0.06808719038963318,
   -0.28531795740127563,
   -0.23534679412841797,
   -0.3257269263267517,
   -0.06566351652145386,
   0.8049055933952332,
   -0.3293904662132263,
   -0.20219862461090088,
   0.19146038591861725,
   -0.12946034967899323,
   0.00017391072469763458,
   -0.7530099749565125,
   -0.028715236112475395,
   -0.16203846037387848,
   0.0486077181994915,
   6.19820348219946e-05,
   0.01680937223136425,
   -0.13357366621494293,
   -1.0199333429336548,
   -0.0990493893623352,
   0.8888134360313416,
   -0.8306998014450073,
   0.10547643154859543,
   -0.9298677444458008,
   0.08529675006866455,
   0.7201068997383118,
   0.32902979850769043,
   -1.0469220876693726,
   -0.6980714797973633,
   -0.11369101703166962,
   -0.3819260001182556,
   0.213100403547287,
   -0.4699471890926361,
   0.22068043053150177,
   -0.0508742481470108,
   -0.28277164697647095,
   0.06899666041135788,
   -0.6618028283119202,
   -0.2641851603984833,
   0.7849160432815552,
   0.047494228929281235,
   -0.5123860836029053,
   0.22047573328018188,
   0.759416937828064,
   -0.16133151948451996,
   -0.3446445167064667,
   -0.3145131468772888,
   0.6502215266227722,
   0.031389739364385605,
   0.03815637528896332,
   1.2397868633270264,
   0.5006998181343079,
   -0.16866052150726318,
   -0.9983209371566772,
   0.12449000030755997,
   -0.5108783841133118,
   0.007408660836517811,
   0.15305641293525696,
   -0.9596710801124573,
   0.1283668428659439,
   1.1244072914123535,
   0.06414420157670975,
   -0.6129211187362671,
   1.470416784286499,
   -0.05282288044691086,
   -0.1019304022192955,
   -0.16472280025482178,
   0.014912922866642475,
   -0.5821759104728699,
   -0.08871061354875565,
   -1.2627928256988525,
   0.20661158859729767,
   0.0451941043138504,
   0.8584463000297546,
   -0.8214432001113892,
   -0.11268533766269684,
   0.07103744894266129,
   0.024298109114170074,
   -0.6046703457832336,
   -0.16836956143379211,
   2.7250702381134033,
   -0.06817878782749176,
   0.05720849335193634,
   -0.6556604504585266,
   -2.585663318634033,
   0.2984943091869354,
   -0.400961697101593,
   0.15224209427833557,
   -0.194099560379982,
   -0.08317846059799194,
   0.002007154282182455,
   -0.283466100692749,
   -0.08984682708978653,
   -1.0079501867294312,
   -0.1793484389781952,
   -0.14787977933883667,
   0.24935810267925262,
   -0.11172657459974289,
   -0.08867527544498444,
   -0.6416452527046204,
   0.10043933242559433,
   0.7205914855003357,
   0.32789334654808044,
   -0.0014857398346066475,
   -0.23803305625915527,
   -0.14732037484645844,
   -0.8835294246673584,
   0.1292366236448288,
   0.1624201089143753,
   0.25803855061531067,
   0.42444682121276855,
   -0.9352648258209229,
   -3.423503949306905e-05,
   0.12574908137321472,
   -0.2523764669895172,
   0.35224324464797974,
   0.23143042623996735,
   0.13604339957237244,
   -0.05379101261496544,
   0.28983861207962036,
   0.8041515946388245,
   0.012349880300462246,
   1.200881004333496,
   -0.32349079847335815
  ]
 ],
 "pi.2.bias": [
  0.03316663205623627
 ]
}