{
 "pi.0.weight": [
  [
   0.002295061480253935,
   -0.6235779523849487,
   0.1316978633403778,
   -0.48292359709739685,
   -0.06168936565518379,
   0.33524036407470703
  ],
  [
   -0.7446785569190979,
   0.7524440884590149,
   -0.009080869145691395,
   2.376887559890747,
   0.3092987537384033,
   0.29749205708503723
  ],
  [
   -0.22108396887779236,
   0.21441438794136047,
   0.02829626202583313,
   0.0015728599391877651,
   0.4329880475997925,
   -0.44064921140670776
  ],
  [
   -0.1323775202035904,
   -0.5055396556854248,
   -0.1258796751499176,
   -0.2775706648826599,
   -0.40599188208580017,
   -0.8471116423606873
  ],
  [
   -0.10622526705265045,
   0.3261869251728058,
   0.23548062145709991,
   0.5564264059066772,
   -0.4231523275375366,
   -0.9873684048652649
  ],
  [
   0.77220618724823,
   -0.23448535799980164,
   0.6671248078346252,
   -0.12309962511062622,
   -0.038794927299022675,
   1.0280712842941284
  ],
  [
   0.38225147128105164,
   -0.013350087217986584,
   -0.1589844524860382,
   0.1493779420852661,
   -0.8367725014686584,
   0.028633903712034225
  ],
  [
   0.15752995014190674,
   -0.3547714352607727,
   -1.1817054748535156,
   -1.297058343887329,
   -0.4435741603374481,
   0.4419407248497009
  ],
  [
   -0.005795316770672798,
   0.41589686274528503,
   0.17687498033046722,
   1.0151593685150146,
   -0.4863988757133484,
   -0.09242375195026398
  ],
  [
   0.29205211997032166,
   0.5131121277809143,
   0.8536078333854675,
   0.7051488757133484,
   0.20902378857135773,
   -0.730955958366394
  ],
  [
   0.3130011260509491,
   0.21560312807559967,
   0.7875571250915527,
   1.296035647392273,
   -0.25228002667427063,
   0.0833287239074707
  ],
  [
   0.11669640243053436,
   -0.2827315628528595,
   -1.1972841024398804,
   -0.6521906852722168,
   -0.5438635349273682,
   -0.27213993668556213
  ],
  [
   -0.346181720495224,
   0.27924084663391113,
   -0.7788783311843872,
   0.44686150550842285,
   0.37535977363586426,
   -0.43367141485214233
  ],
  [
   -0.4076473116874695,
   0.27560704946517944,
   -0.8373619318008423,
   0.5712233781814575,
   0.5679250359535217,
   -0.6134401559829712
  ],
  [
   -0.34435591101646423,
   0.1684751957654953,
   -0.10378195345401764,
   0.06620477885007858,
   0.6068295836448669,
   -1.228683590888977
  ],
  [
   0.4803396463394165,
   -0.176055446267128,
   0.5106046199798584,
   -0.4768960475921631,
   -0.726190984249115,
   -0.2331921011209488
  ],
  [
   0.1735026091337204,
   0.4550728499889374,
   0.4998256266117096,
   0.3693538010120392,
   0.40167441964149475,
   -0.8531157374382019
  ],
  [
   -0.7795116901397705,
   -0.41814273595809937,
   -0.46663013100624084,
   -1.2466472387313843,
   0.7038281559944153,
   -0.5727536678314209
  ],
  [
   -0.7293899059295654,
   0.5934553742408752,
   -0.2499629557132721,
   1.0157173871994019,
   -0.14799590408802032,
   -0.254823237657547
  ],
  [
   0.2803463935852051,
   -0.6616132855415344,
   0.414969801902771,
   -0.769009530544281,
   -0.27933210134506226,
   -0.3083711862564087
  ],
  [
   -0.6126778721809387,
   0.40237927436828613,
   -0.19854405522346497,
   1.2403761148452759,
   -0.35683631896972656,
   0.042415063828229904
  ],
  [
   1.0753282308578491,
   -0.8388736844062805,
   0.8458043336868286,
   -0.6268286108970642,
   -0.05702849105000496,
   0.4458218812942505
  ],
  [
   -0.5765928030014038,
   0.20627853274345398,
   -0.13374264538288116,
   0.17510880529880524,
   0.598264753818512,
   0.2207428514957428
  ],
  [
   0.7319992780685425,
   -0.0819486752152443,
   0.24004608392715454,
   -0.06197448819875717,
   -0.0020058960653841496,
   -0.902825653553009
  ],
  [
   -0.3093312978744507,
   -0.39831972122192383,
   -0.18839718401432037,
   -1.2749311923980713,
   -0.45328786969184875,
   -0.31752124428749084
  ],
  [
   0.3502083122730255,
   0.67293781042099,
   0.5259489417076111,
   1.136765718460083,
   -0.37514370679855347,
   -0.6849372386932373
  ],
  [
   0.021378440782427788,
   -0.2152419537305832,
   0.3151725232601166,
   -0.09810609370470047,
   0.46139997243881226,
   -0.8826863765716553
  ],
  [
   0.5198516249656677,
   -0.3120570480823517,
   0.4243549704551697,
   -0.2732250988483429,
   -0.4701245129108429,
   -0.6998991370201111
  ],
  [
   -1.010840892791748,
   0.27748313546180725,
   -0.8395753502845764,
   0.9947348833084106,
   -0.07782590389251709,
   0.3603363633155823
  ],
  [
   -0.404299795627594,
   0.10968981683254242,
   -0.2560594081878662,
   0.10005561262369156,
   -0.400572806596756,
   -0.7108376026153564
  ],
  [
   0.3236043453216553,
   0.4762977063655853,
   0.4585559070110321,
   2.0053935050964355,
   -0.10152663290500641,
   0.49452462792396545
  ],
  [
   -0.7779046893119812,
   0.6837952136993408,
   -0.41423794627189636,
   1.1872305870056152,
   0.20684979856014252,
   0.7041236758232117
  ],
  [
   -0.9889204502105713,
   -0.11971694976091385,
   -0.006188581697642803,
   0.09673620760440826,
   -0.7536856532096863,
   -0.26647913455963135
  ],
  [
   0.28174710273742676,
   0.28416356444358826,
   0.14809644222259521,
   0.7018921375274658,
   0.5375016927719116,
   -0.8144410848617554
  ],
  [
   -0.13714741170406342,
   -0.012616738677024841,
   -1.6860929727554321,
   0.015163619071245193,
   -0.6405640244483948,
   0.3701973259449005
  ],
  [
   -0.5680849552154541,
   -0.4081290364265442,
   -0.3933701515197754,
   -0.41058745980262756,
   0.1731623113155365,
   0.9110268354415894
  ],
  [
   0.4161455035209656,
   0.2625167965888977,
   -0.28536149859428406,
   1.0408172607421875,
   -0.33168739080429077,
   -0.31261229515075684
  ],
  [
   -1.2984384298324585,
   1.1121153831481934,
   -0.4153073728084564,
   1.0880627632141113,
   0.6165701150894165,
   -0.17494869232177734
  ],
  [
   -1.0526397228240967,
   0.6393008828163147,
   0.3279784619808197,
   0.030186284333467484,
   0.1831713318824768,
   0.13433004915714264
  ],
  [
   0.39557453989982605,
   0.1974865347146988,
   0.6282809972763062,
   1.3815802335739136,
   -0.06458349525928497,
   -0.41255608201026917
  ],
  [
   0.4694958031177521,
   -0.29520341753959656,
   -0.3689323365688324,
   0.12130364030599594,
   0.4157746434211731,
   -0.7006425857543945
  ],
  [
   -0.9379072189331055,
   -0.5261679887771606,
   -0.6228498816490173,
   -1.4707789421081543,
   0.11097443103790283,
   -0.20117409527301788
  ],
  [
   0.4581708014011383,
   -0.17374366521835327,
   -0.10839596390724182,
   -0.00963131058961153,
   -0.9644846320152283,
   0.2471570372581482
  ],
  [
   -0.04441707953810692,
   -0.2367258071899414,
   -1.0402021408081055,
   -0.49144113063812256,
   0.16122078895568848,
   0.1802341490983963
  ],
  [
   0.183632954955101,
   0.18360905349254608,
   0.2987576127052307,
   0.7277625203132629,
   -0.6562805771827698,
   0.9749963283538818
  ],
  [
   -0.9236512184143066,
   0.7597912549972534,
   -0.642122745513916,
   0.6845740675926208,
   -0.009059720672667027,
   -0.3922097980976105
  ],
  [
   0.7844810485839844,
   0.7713268995285034,
   0.9042887091636658,
   1.6334431171417236,
   0.08981502801179886,
   0.4833259582519531
  ],
  [
   0.06589416414499283,
   0.3966425061225891,
   0.2943421006202698,
   0.45697879791259766,
   -0.6105157732963562,
   -1.0496193170547485
  ],
  [
   0.2100214809179306,
   0.058047104626894,
   0.5573155283927917,
   -0.3191869556903839,
   0.28980374336242676,
   -0.8603874444961548
  ],
  [
   -0.5423045754432678,
   0.5145374536514282,
   -1.379786729812622,
   0.2764410674571991,
   0.005149178672581911,
   -0.28402528166770935
  ],
  [
   0.10376524180173874,
   0.5393633842468262,
   -0.6127293109893799,
   0.6568140983581543,
   0.22565241158008575,
   -0.9671226143836975
  ],
  [
   0.0649678111076355,
   -0.38809093832969666,
   -0.9407060742378235,
   -0.833122193813324,
   -0.195163294672966,
   0.549211859703064
  ],
  [
   0.18064363300800323,
   -0.1405079960823059,
   0.23111329972743988,
   -0.05914052948355675,
   -0.9278742671012878,
   -0.6793996691703796
  ],
  [
   -0.3640460968017578,
   0.033267199993133545,
   -0.5248039960861206,
   0.043426066637039185,
   -0.363993376493454,
   0.8083173036575317
  ],
  [
   1.1114981174468994,
   -0.049644481390714645,
   0.4413377642631531,
   0.12771748006343842,
   0.20801109075546265,
   0.0045373039320111275
  ],
  [
   0.7575153708457947,
   0.5496906042098999,
   0.5564000606536865,
   1.3868441581726074,
   -0.9293386936187744,
   -0.0400826670229435
  ],
  [
   -1.0301969051361084,
   0.9484928250312805,
   -0.7827302813529968,
   1.329768180847168,
   0.11837255209684372,
   0.4169107973575592
  ],
  [
   0.17945775389671326,
   -0.011028009466826916,
   -0.03482266515493393,
   0.6606780290603638,
   -0.24877238273620605,
   -0.08759687840938568
  ],
  [
   0.18859271705150604,
   -0.5785679221153259,
   -0.962441086769104,
   0.10171923041343689,
   -0.6524823307991028,
   0.8772526979446411
  ],
  [
   0.5339676141738892,
   0.013819863088428974,
   -0.9678354859352112,
   0.9160928726196289,
   -0.5429884195327759,
   0.7097011804580688
  ],
  [
   -0.7371771931648254,
   0.2598423361778259,
   -0.22411051392555237,
   0.3567832410335541,
   0.43477049469947815,
   -0.8070417642593384
  ],
  [
   -0.1631908267736435,
   -0.24199046194553375,
   0.08441327512264252,
   -0.47610846161842346,
   -0.9484907984733582,
   0.8441280722618103
  ],
  [
   0.20362786948680878,
   0.16064316034317017,
   -0.6859617233276367,
   0.7927123308181763,
   0.10160502791404724,
   -0.8248491287231445
  ],
  [
   0.13058769702911377,
   -0.08749754726886749,
   -0.9817724227905273,
   0.35531529784202576,
   -1.0809056758880615,
   0.424380362033844
  ],
  [
   0.5153113603591919,
   -0.5775058269500732,
   1.0667393207550049,
   -0.4881628751754761,
   -0.3532838821411133,
   0.024738086387515068
  ],
  [
   -1.7483601570129395,
   0.17554032802581787,
   -0.2709086537361145,
   0.02241966687142849,
   -0.2727179229259491,
   -0.12832388281822205
  ],
  [
   -0.23066863417625427,
   0.28916823863983154,
   -0.4729766547679901,
   -0.6134527921676636,
   0.7276390790939331,
   -0.4021492898464203
  ],
  [
   -0.5731375813484192,
   0.1447633057832718,
   -0.9182590246200562,
   0.07428894937038422,
   -0.10687549412250519,
   -0.8382864594459534
  ],
  [
   0.5053644776344299,
   -0.017657071352005005,
   -1.224551796913147,
   0.2833097577095032,
   0.06660384684801102,
   0.38448092341423035
  ],
  [
   -0.10854975134134293,
   -0.060394369065761566,
   0.6662020683288574,
   0.053416658192873,
   -0.49678176641464233,
   0.013293233700096607
  ],
  [
   0.2570333182811737,
   0.10388631373643875,
   -0.7778990864753723,
   0.07558897882699966,
   -0.21432238817214966,
   -0.8185005784034729
  ],
  [
   0.41086897253990173,
   -0.38721758127212524,
   0.5594199299812317,
   -0.3847767114639282,
   -0.609998881816864,
   0.4736614227294922
  ],
  [
   1.1780601739883423,
   -0.18726792931556702,
   0.18508927524089813,
   0.03223811462521553,
   -0.253834068775177,
   -0.2828579545021057
  ],
  [
   0.21778099238872528,
   -0.7097947001457214,
   -0.6869372129440308,
   -1.7152745723724365,
   0.2850289046764374,
   -0.5108073353767395
  ],
  [
   -0.08912725746631622,
   0.5125898718833923,
   -0.986261785030365,
   1.4760609865188599,
   -0.18638849258422852,
   0.26615309715270996
  ],
  [
   -0.048065435141325,
   0.5533344745635986,
   0.17477743327617645,
   0.372665137052536,
   -0.7111225128173828,
   0.6493157744407654
  ],
  [
   -0.36402326822280884,
   0.3109534978866577,
   -1.4088175296783447,
   -0.3685895800590515,
   -0.02030479907989502,
   -0.5023328065872192
  ],
  [
   -0.17218366265296936,
   0.14845401048660278,
   0.3033003807067871,
   0.09453126788139343,
   0.6197808384895325,
   -0.908050537109375
  ],
  [
   0.4126536548137665,
   0.3706287741661072,
   1.0738046169281006,
   0.16270281374454498,
   0.21339865028858185,
   -0.2941635251045227
  ],
  [
   0.5900266170501709,
   0.8443073034286499,
   0.03380807861685753,
   -0.007876944728195667,
   0.009248925372958183,
   -0.45350104570388794
  ],
  [
   -0.1350599080324173,
   -0.049607306718826294,
   -0.784241259098053,
   -0.6594823598861694,
   -0.47742781043052673,
   0.12545789778232574
  ],
  [
   -0.6944489479064941,
   0.9317247271537781,
   -0.21369032561779022,
   1.2879492044448853,
   0.3658282458782196,
   0.46473994851112366
  ],
  [
   -0.3331249952316284,
   -0.17134970426559448,
   -0.17926029860973358,
   -0.03765629604458809,
   0.14281068742275238,
   -0.8065477609634399
  ],
  [
   -1.0155171155929565,
   0.821262538433075,
   -1.424037218093872,
   0.11076004803180695,
   0.012002070434391499,
   -0.1227634996175766
  ],
  [
   -0.38319888710975647,
   -0.20027467608451843,
   1.0094959735870361,
   -0.6086440682411194,
   0.07184913754463196,
   1.2920116186141968
  ],
  [
   -0.16764859855175018,
   0.3419296443462372,
   0.6185986995697021,
   0.6334644556045532,
   0.7789709568023682,
   -0.22166962921619415
  ],
  [
   -0.12073683738708496,
   0.22499802708625793,
   0.2675288915634155,
   0.48930850625038147,
   -0.24548909068107605,
   -0.6250812411308289
  ],
  [
   -0.49000534415245056,
   0.30360034108161926,
   -0.12963952124118805,
   -0.06928078085184097,
   0.8517742156982422,
   -0.7047984004020691
  ],
  [
   0.7279930710792542,
   -0.24620291590690613,
   1.045009970664978,
   0.23177194595336914,
   -0.4708053171634674,
   0.2961064577102661
  ],
  [
   0.11923882365226746,
   0.032037436962127686,
   0.6539663672447205,
   -1.2694103717803955,
   -0.21207253634929657,
   0.02145686000585556
  ],
  [
   -0.643868088722229,
   1.1627779006958008,
   -1.4553481340408325,
   0.4660083055496216,
   0.2994312345981598,
   0.5409672856330872
  ],
  [
   0.3771643042564392,
   -0.769310474395752,
   0.23313578963279724,
   -1.1207869052886963,
   -0.5114308595657349,
   0.05578519403934479
  ],
  [
   0.44126060605049133,
   -0.21556498110294342,
   -0.07531760632991791,
   0.4231974482536316,
   -0.5575681924819946,
   -0.20628827810287476
  ],
  [
   0.9035934805870056,
   0.23925402760505676,
   -0.6945263743400574,
   0.25360310077667236,
   -0.44408196210861206,
   0.29128846526145935
  ],
  [
   0.052155278623104095,
   -0.02547418512403965,
   -0.3451688885688782,
   -0.23719175159931183,
   -0.575893223285675,
   1.0324698686599731
  ],
  [
   0.1833232194185257,
   0.009005282074213028,
   -0.8449372053146362,
   0.22503139078617096,
   -0.49347984790802,
   -0.14823204278945923
  ],
  [
   -0.44033101201057434,
   0.005401233211159706,
   -0.09673203527927399,
   -0.00914399977773428,
   0.1472080498933792,
   -0.12497656047344208
  ],
  [
   -0.7758004069328308,
   -0.37248167395591736,
   -0.6156230568885803,
   -1.445006251335144,
   0.09151505678892136,
   0.4396599233150482
  ],
  [
   0.4664699137210846,
   -0.29449042677879333,
   -0.24098199605941772,
   -0.7121888399124146,
   -0.8962133526802063,
   0.7157182693481445
  ],
  [
   -0.2810826897621155,
   -0.3259432017803192,
   0.6836856603622437,
   -0.6754173040390015,
   -0.0838959738612175,
   0.8821521401405334
  ]
 ],
 "pi.0.bias": [
  -3.2478294372558594,
  -0.6334488987922668,
  -1.4761344194412231,
  0.5328384637832642,
  -1.7436293363571167,
  -2.9114999771118164,
  0.822718620300293,
  -3.0032126903533936,
  -0.8571270108222961,
  0.2230302095413208,
  -1.8620890378952026,
  -3.6349573135375977,
  -0.2477097511291504,
  -0.7216160297393799,
  0.1869184374809265,
  -0.10249003767967224,
  -0.8524826765060425,
  -0.0309778843075037,
  0.5593745708465576,
  1.1382837295532227,
  -1.751845121383667,
  -0.12045320123434067,
  -0.3020443916320801,
  -4.4521260261535645,
  -1.4336018562316895,
  -0.9331684708595276,
  0.22017250955104828,
  -1.31553316116333,
  -1.1514941453933716,
  1.1118543148040771,
  -1.2907072305679321,
  -1.9640321731567383,
  -0.5884246826171875,
  -0.08832313865423203,
  -2.5644514560699463,
  -3.0035898685455322,
  0.18439435958862305,
  -3.470637798309326,
  -0.02560616098344326,
  1.0695046186447144,
  -0.6131920218467712,
  0.23385322093963623,
  0.4240579903125763,
  -2.215287208557129,
  -1.1106970310211182,
  0.8206345438957214,
  -1.5414987802505493,
  -1.6732097864151,
  0.7666693329811096,
  -0.6997091174125671,
  0.5901778936386108,
  -2.8399956226348877,
  0.2183181345462799,
  -3.3554341793060303,
  0.23619110882282257,
  -0.9562252163887024,
  -2.431819438934326,
  -0.7733810544013977,
  -1.8664096593856812,
  -2.1047894954681396,
  -0.18915046751499176,
  -1.0278947353363037,
  0.7198736667633057,
  -1.3624619245529175,
  -1.7040226459503174,
  0.5008960366249084,
  -0.37248244881629944,
  -0.5570104122161865,
  -3.906789779663086,
  -0.8976568579673767,
  -0.5926007628440857,
  0.4725947678089142,
  0.42679789662361145,
  -0.7979592084884644,
  -1.0153888463974,
  -0.31896382570266724,
  -0.39200326800346375,
  -0.6011363863945007,
  -0.18696212768554688,
  -2.660104751586914,
  0.7893360257148743,
  -2.6679301261901855,
  1.1291546821594238,
  -1.8233462572097778,
  -0.3175702691078186,
  -1.475523829460144,
  0.8734185099601746,
  -0.9507324695587158,
  -1.1561423540115356,
  -0.6284301280975342,
  -1.1883004903793335,
  -3.1539978981018066,
  0.6989704966545105,
  0.08908450603485107,
  0.5835752487182617,
  0.19861336052417755,
  0.058416370302438736,
  -0.1706346571445465,
  -1.0784404277801514,
  -1.338837742805481
 ],
 "pi.2.weight": [
  [
   4.4090752601623535,
   -0.3525419235229492,
   1.3017938137054443,
   0.6888648867607117,
   -0.1466188281774521,
   5.2826104164123535,
   0.4983987510204315,
   1.2801710367202759,
   0.34929829835891724,
   0.3937782645225525,
   0.48874449729919434,
   -2.347060441970825,
   0.22170737385749817,
   -0.010935677215456963,
   0.6188958883285522,
   -0.17906418442726135,
   -0.2801665663719177,
   0.051536377519369125,
   0.2508566081523895,
   -0.5384209156036377,
   0.5557330846786499,
   -0.3608919084072113,
   -0.43684035539627075,
   5.531553745269775,
   -0.041345544159412384,
   -0.11258211731910706,
   0.21501819789409637,
   -0.6556355357170105,
   -0.39662063121795654,
   -0.34325191378593445,
   -0.2559693455696106,
   0.4329487085342407,
   0.6358290314674377,
   -0.24954842031002045,
   -3.4310781955718994,
   -5.297712802886963,
   -0.021066801622509956,
   -6.363038063049316,
   -0.24632275104522705,
   0.10961740463972092,
   -0.4252309501171112,
   0.06559035927057266,
   0.44212406873703003,
   1.0814203023910522,
   -0.47764384746551514,
   0.5948553085327148,
   0.20979058742523193,
   -0.3183058500289917,
   0.5683250427246094,
   -0.18658940494060516,
   -0.4806573987007141,
   1.7843958139419556,
   -0.48748672008514404,
   3.732343912124634,
   0.3773590326309204,
   -0.3478449583053589,
   -1.1693862676620483,
   -0.020194081589579582,
   -0.3425135612487793,
   -0.9639838933944702,
   0.3458483815193176,
   0.7450173497200012,
   -0.3627673089504242,
   0.2564024031162262,
   -0.5347283482551575,
   -0.7178923487663269,
   -0.21169307827949524,
   -0.3805268108844757,
   -12.322495460510254,
   0.17216041684150696,
   -0.04134070500731468,
   0.39474397897720337,
   0.36756661534309387,
   0.14067639410495758,
   0.3110254108905792,
   -0.4929369390010834,
   0.22831012308597565,
   -0.3788246810436249,
   0.013146533630788326,
   -0.8307672739028931,
   0.031490352004766464,
   1.9405542612075806,
   -0.12410278618335724,
   -0.6058701872825623,
   0.8179833292961121,
   -0.029767446219921112,
   -0.4435702860355377,
   -0.6598454117774963,
   0.4966307580471039,
   0.18272484838962555,
   0.19925038516521454,
   0.17344172298908234,
   0.19396282732486725,
   0.09182911366224289,
   -0.6267041563987732,
   -0.1839800477027893,
   0.02124134823679924,
   -0.28848209977149963,
   -0.5286958813667297,
   -0.2635270059108734
  ],
  [
   -0.7786837816238403,
   0.22800570726394653,
   -0.07926315814256668,
   0.09214117377996445,
   -1.2861133813858032,
   -0.4124760329723358,
   0.26887765526771545,
   0.8755113482475281,
   0.34257984161376953,
   -0.18075457215309143,
   -2.333209753036499,
   5.153039932250977,
   -0.06382671743631363,
   -0.38491055369377136,
   0.6028041839599609,
   0.28734326362609863,
   0.22098271548748016,
   0.31114059686660767,
   0.0966019406914711,
   -0.10989831387996674,
   0.0706615000963211,
   -0.15446043014526367,
   -0.046534691005945206,
   0.9188532829284668,
   -0.564607560634613,
   -0.6073499917984009,
   -0.39766767621040344,
   0.41860148310661316,
   0.21615076065063477,
   -0.35997164249420166,
   1.3232841491699219,
   -0.25334253907203674,
   0.19425201416015625,
   -0.4312426447868347,
   1.4818410873413086,
   -3.04586124420166,
   0.356749027967453,
   -0.5201776623725891,
   -0.06315681338310242,
   0.3315344750881195,
   0.47189366817474365,
   0.45798516273498535,
   -0.30782920122146606,
   -3.06846284866333,
   -0.23891541361808777,
   0.07197773456573486,
   0.4742087125778198,
   1.9636443853378296,
   -0.23000261187553406,
   0.24152396619319916,
   0.44017207622528076,
   -3.087338924407959,
   -0.4227028489112854,
   -0.4244031608104706,
   -0.020982809364795685,
   -0.2936907708644867,
   0.008058865554630756,
   -0.4505009353160858,
   0.03890413045883179,
   -0.3991035521030426,
   -0.4643281102180481,
   -0.006127780303359032,
   0.04975508525967598,
   0.15269865095615387,
   -0.06405795365571976,
   -0.04469989612698555,
   -0.10756625980138779,
   -0.28639692068099976,
   9.61558723449707,
   -0.2703368365764618,
   -0.46180111169815063,
   0.024374736472964287,
   -0.18395206332206726,
   -0.2856069505214691,
   -0.14518387615680695,
   0.07875294238328934,
   0.009982561692595482,
   0.5472548604011536,
   -0.26829221844673157,
   3.1415746212005615,
   -0.16402217745780945,
   0.5667720437049866,
   -0.5390413403511047,
   -0.027727622538805008,
   0.14121362566947937,
   -0.33067062497138977,
   0.3475649356842041,
   0.11239517480134964,
   0.05961458757519722,
   0.14314736425876617,
   -0.01570817641913891,
   -3.8243560791015625,
   0.3729860484600067,
   0.13850252330303192,
   0.12122108787298203,
   -0.1638040691614151,
   -0.08297263830900192,
   -0.3741510212421417,
   -0.0060285767540335655,
   0.15943455696105957
  ]
 ]
}