{
 "pi.0.weight": [
  [
   -1.2984447479248047,
   0.22677308320999146,
   -8.684706687927246
  ],
  [
   -2.3622710704803467,
   -1.2596532106399536,
   -9.507308959960938
  ],
  [
   5.166838645935059,
   10.916746139526367,
   -6.795483589172363
  ],
  [
   21.887338638305664,
   -2.4672658443450928,
   -0.9475851058959961
  ],
  [
   -6.411041259765625,
   -3.265981435775757,
   7.947758197784424
  ],
  [
   6.996968746185303,
   -0.005968611687421799,
   -5.218693256378174
  ],
  [
   -1.3510711193084717,
   -7.958720684051514,
   2.203747034072876
  ],
  [
   5.149655342102051,
   -0.288948118686676,
   0.25599417090415955
  ],
  [
   -2.7574026584625244,
   7.248453140258789,
   -4.95628023147583
  ],
  [
   24.981542587280273,
   3.600580930709839,
   8.790410041809082
  ],
  [
   3.3317971229553223,
   -1.7045228481292725,
   -10.413435935974121
  ],
  [
   1.2117482423782349,
   11.089641571044922,
   -3.700624704360962
  ],
  [
   -1.2746796607971191,
   -4.883340835571289,
   -7.437333106994629
  ],
  [
   4.822712421417236,
   5.0177178382873535,
   -7.955804347991943
  ],
  [
   2.7007157802581787,
   8.625337600708008,
   -5.89961051940918
  ],
  [
   -25.571516036987305,
   0.5274302363395691,
   -4.986330509185791
  ],
  [
   -4.744457244873047,
   0.8040603399276733,
   1.6148277521133423
  ],
  [
   3.231574058532715,
   -1.8101226091384888,
   2.993239164352417
  ],
  [
   -2.1629202365875244,
   2.56242036819458,
   3.5136163234710693
  ],
  [
   13.141843795776367,
   -2.7830867767333984,
   3.2752552032470703
  ],
  [
   28.5094051361084,
   -4.106457710266113,
   1.7232794761657715
  ],
  [
   4.9652886390686035,
   4.8283162117004395,
   -6.490563869476318
  ],
  [
   6.596397399902344,
   2.8727469444274902,
   3.2789978981018066
  ],
  [
   26.8917179107666,
   -0.557026207447052,
   2.5447402000427246
  ],
  [
   4.536379337310791,
   7.501060485839844,
   -3.8643834590911865
  ],
  [
   -9.353517532348633,
   0.35739001631736755,
   -3.4652023315429688
  ],
  [
   5.676977634429932,
   -0.4302593171596527,
   5.5172953605651855
  ],
  [
   -2.552806854248047,
   -0.9180753231048584,
   -1.3274486064910889
  ],
  [
   9.306999206542969,
   -0.6456611752510071,
   -4.722715854644775
  ],
  [
   20.57082748413086,
   1.8596560955047607,
   1.7397654056549072
  ],
  [
   1.2404042482376099,
   3.8423523902893066,
   0.8572001457214355
  ],
  [
   28.578807830810547,
   9.840778350830078,
   2.052135705947876
  ],
  [
   -6.15217399597168,
   -0.3212639093399048,
   0.6953600645065308
  ],
  [
   -17.485626220703125,
   -0.6155570149421692,
   -3.966301441192627
  ],
  [
   29.13620948791504,
   -1.1584120988845825,
   -0.44989311695098877
  ],
  [
   7.061257839202881,
   2.555414915084839,
   -2.5822787284851074
  ],
  [
   -1.9505983591079712,
   -1.1490753889083862,
   -10.769749641418457
  ],
  [
   -5.940993309020996,
   2.1879119873046875,
   -9.986451148986816
  ],
  [
   7.903497695922852,
   -0.0295448899269104,
   0.978117048740387
  ],
  [
   1.329770565032959,
   -3.5117440223693848,
   -2.1546311378479004
  ],
  [
   0.13864938914775848,
   12.721177101135254,
   4.18960428237915
  ],
  [
   5.68562126159668,
   11.827923774719238,
   -1.3053691387176514
  ],
  [
   -6.0519304275512695,
   1.6213388442993164,
   0.9279063940048218
  ],
  [
   7.665452003479004,
   13.056825637817383,
   -8.596240043640137
  ],
  [
   6.2571234703063965,
   -2.3376126289367676,
   -3.594835042953491
  ],
  [
   -11.347952842712402,
   1.0339523553848267,
   -7.363889217376709
  ],
  [
   23.82974624633789,
   -8.671992301940918,
   9.678247451782227
  ],
  [
   -3.3919355869293213,
   -5.736181259155273,
   -1.1550896167755127
  ],
  [
   4.520958423614502,
   -0.3927208185195923,
   -4.548736095428467
  ],
  [
   -7.064735412597656,
   -0.5880969166755676,
   -10.496515274047852
  ]
 ],
 "pi.0.bias": [
  -7.293301105499268,
  -7.863960266113281,
  1.8967578411102295,
  8.933192253112793,
  0.6228271126747131,
  -11.000205039978027,
  1.447116732597351,
  -3.4173214435577393,
  -6.20819616317749,
  8.24954891204834,
  -10.311205863952637,
  1.517898678779602,
  7.432516098022461,
  -7.830600738525391,
  6.648681163787842,
  -5.545693397521973,
  1.8102360963821411,
  7.89514684677124,
  0.46781542897224426,
  7.408621311187744,
  -0.4353993535041809,
  -7.210557460784912,
  -4.570991039276123,
  5.281582832336426,
  -3.8074276447296143,
  -6.745794296264648,
  -7.275794506072998,
  8.870174407958984,
  3.418715000152588,
  4.01304292678833,
  7.2390289306640625,
  5.035521984100342,
  7.481751918792725,
  7.917962551116943,
  3.291463851928711,
  -2.9000210762023926,
  -11.013936996459961,
  -8.582986831665039,
  -3.1532487869262695,
  -4.210361003875732,
  -2.171555995941162,
  -5.15407133102417,
  -9.18283462524414,
  -4.840753555297852,
  -4.688516139984131,
  -8.233488082885742,
  4.4032392501831055,
  5.122531414031982,
  -6.0457072257995605,
  6.297747611999512
 ],
 "pi.2.weight": [
  [
   -2.6868104934692383,
   7.471465110778809,
   -4.270377159118652,
   -2.3828959465026855,
   1.781501054763794,
   8.236076354980469,
   1.0310250520706177,
   6.669260025024414,
   5.79521369934082,
   4.223859786987305,
   -4.154130935668945,
   4.770941734313965,
   -6.014359474182129,
   -0.47886618971824646,
   -9.080135345458984,
   -8.78483772277832,
   -1.568894863128662,
   -0.7290199398994446,
   -3.7995951175689697,
   2.90016770362854,
   -2.047262191772461,
   1.66159987449646,
   5.70449686050415,
   1.3385668992996216,
   -0.6678066253662109,
   -9.171597480773926,
   -9.0252103805542,
   -1.7338335514068604,
   -0.2485659420490265,
   -0.8298280239105225,
   -1.457553744316101,
   6.447338581085205,
   0.3409617245197296,
   6.563924312591553,
   1.1129170656204224,
   -9.20866584777832,
   -2.9685137271881104,
   0.668380081653595,
   -7.863547325134277,
   6.620694637298584,
   -7.607530117034912,
   5.374154090881348,
   8.359963417053223,
   4.95955228805542,
   -5.322996616363525,
   5.796346664428711,
   6.686992645263672,
   -0.5099500417709351,
   8.577909469604492,
   2.5173630714416504
  ],
  [
   -2.532761573791504,
   6.660621643066406,
   -3.350350856781006,
   -2.7398757934570312,
   -2.933069944381714,
   3.3444108963012695,
   -2.697265148162842,
   -5.7447004318237305,
   2.0688390731811523,
   5.066934108734131,
   -5.119283676147461,
   3.0636608600616455,
   -1.571064829826355,
   6.014223098754883,
   -0.24261361360549927,
   -8.168639183044434,
   -3.748405694961548,
   2.647679567337036,
   4.77158260345459,
   -0.7748201489448547,
   -4.6107940673828125,
   5.955399036407471,
   -2.5354859828948975,
   4.084012508392334,
   -6.5528717041015625,
   -1.073708176612854,
   7.813936710357666,
   -0.796331524848938,
   0.33958515524864197,
   2.946800708770752,
   0.4921156167984009,
   0.4321613609790802,
   -1.511992335319519,
   -0.6778610944747925,
   -1.9579354524612427,
   -3.42767596244812,
   -3.6393234729766846,
   4.916416168212891,
   0.6362648010253906,
   6.905473709106445,
   -4.719320774078369,
   3.257082223892212,
   5.1088175773620605,
   -1.1754951477050781,
   -4.097954273223877,
   -1.926583170890808,
   2.319732904434204,
   -2.101879596710205,
   13.099530220031738,
   1.5673632621765137
  ],
  [
   3.555083751678467,
   -0.42848730087280273,
   -1.1084823608398438,
   0.6201127171516418,
   -0.9759020805358887,
   0.1286066621541977,
   2.739220380783081,
   3.057553768157959,
   1.1817107200622559,
   2.4050328731536865,
   -0.3220134973526001,
   3.0230093002319336,
   1.3468294143676758,
   -3.475292682647705,
   0.04815896600484848,
   -5.655388832092285,
   1.5577551126480103,
   0.8350520133972168,
   0.6848645806312561,
   -1.4755386114120483,
   -3.82682204246521,
   6.200857639312744,
   -2.6776318550109863,
   1.9102081060409546,
   -3.6006486415863037,
   13.469886779785156,
   2.771925210952759,
   -1.9464335441589355,
   2.0494778156280518,
   -1.646282434463501,
   -1.83053719997406,
   -1.1588681936264038,
   -2.9232470989227295,
   -7.179501533508301,
   2.270174264907837,
   -2.26981258392334,
   -1.6342780590057373,
   4.0022101402282715,
   -1.086159110069275,
   0.1532616764307022,
   0.2891771197319031,
   -0.656589925289154,
   -7.145204067230225,
   3.3617939949035645,
   -1.2091506719589233,
   -7.9845733642578125,
   2.967449426651001,
   -2.4433839321136475,
   -3.240990400314331,
   1.8107469081878662
  ]
 ],
 "pi.2.bias": [
  0.05796949937939644,
  0.36569616198539734,
  -0.09360258281230927
 ]
}