{
 "pi.0.weight": [
  [
   -0.010135791264474392,
   2.16291880607605,
   -0.968491792678833
  ],
  [
   -0.43712568283081055,
   -1.0656962394714355,
   0.2623720169067383
  ],
  [
   0.030640043318271637,
   0.8918748497962952,
   -0.7174831032752991
  ],
  [
   0.3268062174320221,
   -0.27671384811401367,
   -0.1834370195865631
  ],
  [
   -0.29351022839546204,
   0.22447527945041656,
   -1.439695954322815
  ],
  [
   -1.189225196838379,
   0.38379648327827454,
   -0.27614903450012207
  ],
  [
   -0.5344350337982178,
   -0.5451964139938354,
   0.27895021438598633
  ],
  [
   0.5092043876647949,
   0.014390334486961365,
   -0.06901102513074875
  ],
  [
   0.18443727493286133,
   0.7836150527000427,
   0.21139934659004211
  ],
  [
   -0.21259212493896484,
   -0.5396633148193359,
   -0.4939335286617279
  ],
  [
   0.2737450897693634,
   1.0540534257888794,
   -1.5602107048034668
  ],
  [
   0.5580816864967346,
   0.002461108146235347,
   -0.45619040727615356
  ],
  [
   -0.02142973057925701,
   2.746900796890259,
   -1.2067382335662842
  ],
  [
   -0.06699920445680618,
   0.7558678388595581,
   -0.9696693420410156
  ],
  [
   -0.3697895109653473,
   0.8014158010482788,
   -0.3863580524921417
  ],
  [
   -0.5483121871948242,
   -0.5850268602371216,
   0.29296043515205383
  ],
  [
   -0.3966529667377472,
   0.15026091039180756,
   0.23043400049209595
  ],
  [
   0.9276847839355469,
   1.6830533742904663,
   -0.4860595166683197
  ],
  [
   -0.6609918475151062,
   -0.0371958464384079,
   -0.4570681154727936
  ],
  [
   -0.46955302357673645,
   -0.02480393461883068,
   0.014591009356081486
  ],
  [
   0.8592640161514282,
   1.2446272373199463,
   -0.29344654083251953
  ],
  [
   -0.23029063642024994,
   0.18373055756092072,
   -1.1452277898788452
  ],
  [
   0.47156399488449097,
   0.2882891893386841,
   -0.3840404152870178
  ],
  [
   0.21964630484580994,
   0.40137043595314026,
   -0.5789544582366943
  ],
  [
   -0.005158994346857071,
   -0.1105908751487732,
   0.4329873323440552
  ],
  [
   0.6275723576545715,
   0.43006372451782227,
   -0.45621272921562195
  ],
  [
   1.3921267986297607,
   2.5974199771881104,
   -0.20051728188991547
  ],
  [
   0.9312700033187866,
   0.602250874042511,
   -0.2919260859489441
  ],
  [
   -1.9755445718765259,
   -0.0953967347741127,
   -0.6665943264961243
  ],
  [
   0.22799979150295258,
   -0.4804764986038208,
   -0.25139206647872925
  ]
 ],
 "pi.0.bias": [
  -0.3477930724620819,
  0.333150714635849,
  -0.24025188386440277,
  0.3733017146587372,
  0.39957040548324585,
  -0.8459521532058716,
  0.2584061026573181,
  -0.7904126048088074,
  -1.5086791515350342,
  1.3822314739227295,
  -0.3234320878982544,
  0.8989556431770325,
  -0.4406920373439789,
  -0.20631907880306244,
  -1.5223482847213745,
  0.24731385707855225,
  -0.6238389611244202,
  -1.8838640451431274,
  -0.9122918844223022,
  0.8315009474754333,
  -1.471885085105896,
  0.3146776556968689,
  -1.1452571153640747,
  -0.13676346838474274,
  -0.04001088812947273,
  -1.7416174411773682,
  -1.848801851272583,
  -3.1327919960021973,
  -1.3733712434768677,
  0.5839354395866394
 ],
 "pi.2.weight": [
  [
   1.7565412521362305,
   0.1491459310054779,
   -0.3438202142715454,
   0.23236918449401855,
   -0.8033397197723389,
   -0.9763152599334717,
   0.10087376087903976,
   -0.14370258152484894,
   2.9693028926849365,
   -0.1383839249610901,
   -1.3740805387496948,
   0.2118818163871765,
   -1.4350242614746094,
   1.334886908531189,
   0.2753833532333374,
   -0.08914780616760254,
   0.12354984134435654,
   11.96094799041748,
   5.063714504241943,
   0.15072517096996307,
   11.34267520904541,
   1.0308948755264282,
   6.307425498962402,
   1.8938480615615845,
   -0.09157941490411758,
   -2.065169334411621,
   42.90251922607422,
   14.010396957397461,
   -2.1186044216156006,
   -0.3295220136642456
  ]
 ],
 "pi.2.bias": [
  -0.11782726645469666
 ]
}