{
 "pi.0.weight": [
  [
   -14.80594253540039,
   0.3155791163444519,
   -5.473837375640869
  ],
  [
   8.264957427978516,
   -4.351366996765137,
   8.111234664916992
  ],
  [
   -1.4262906312942505,
   -2.321568012237549,
   -6.5843892097473145
  ],
  [
   8.70490837097168,
   -9.890304565429688,
   1.6428097486495972
  ],
  [
   1.8984564542770386,
   5.25892448425293,
   0.5835011601448059
  ],
  [
   -12.92501449584961,
   1.7642079591751099,
   -1.1865274906158447
  ],
  [
   -4.948606967926025,
   0.1728411167860031,
   1.8615061044692993
  ],
  [
   16.609376907348633,
   1.8410850763320923,
   2.580453872680664
  ],
  [
   -4.122532844543457,
   -6.848762512207031,
   3.6773838996887207
  ],
  [
   2.3960750102996826,
   -1.6206743717193604,
   -2.0985043048858643
  ],
  [
   -7.5677947998046875,
   0.247778981924057,
   -7.172544956207275
  ],
  [
   3.5956780910491943,
   -1.2800397872924805,
   -4.677048683166504
  ],
  [
   -2.2241976261138916,
   5.211156845092773,
   0.03686384856700897
  ],
  [
   1.8090934753417969,
   -2.6368091106414795,
   -0.9415152668952942
  ],
  [
   -0.7335724234580994,
   -0.38206446170806885,
   -1.2165091037750244
  ],
  [
   6.34653902053833,
   -0.33833783864974976,
   4.961916446685791
  ],
  [
   -3.8192636966705322,
   -6.569326400756836,
   4.433874607086182
  ],
  [
   20.71717071533203,
   -4.738621711730957,
   5.520655155181885
  ],
  [
   9.366691589355469,
   7.06721305847168,
   11.245463371276855
  ],
  [
   -0.4278413653373718,
   -2.102219343185425,
   -0.6026259064674377
  ],
  [
   -0.11477462202310562,
   -0.22874324023723602,
   -10.9373197555542
  ],
  [
   -2.8288960456848145,
   -13.705252647399902,
   3.7061514854431152
  ],
  [
   -0.9048665165901184,
   3.3623971939086914,
   3.0618441104888916
  ],
  [
   -2.9204158782958984,
   -0.6454176306724548,
   -2.035778522491455
  ],
  [
   -16.840717315673828,
   12.962480545043945,
   -5.503438949584961
  ],
  [
   -4.002880096435547,
   -0.15177439153194427,
   3.8136188983917236
  ],
  [
   -3.6479430198669434,
   -6.208470821380615,
   0.8077178001403809
  ],
  [
   0.8070998787879944,
   7.668481826782227,
   -6.959453105926514
  ],
  [
   7.644480228424072,
   -5.382959842681885,
   -3.700409412384033
  ],
  [
   -5.298446178436279,
   -7.685064315795898,
   1.794469952583313
  ],
  [
   2.684917449951172,
   7.038301944732666,
   -2.3625926971435547
  ],
  [
   -3.1694817543029785,
   -3.9910309314727783,
   0.12078633159399033
  ],
  [
   -2.267087459564209,
   -0.12003197520971298,
   1.8292334079742432
  ],
  [
   5.34157657623291,
   6.611807823181152,
   -2.3667073249816895
  ],
  [
   -0.46444714069366455,
   -0.5236648321151733,
   -3.194688558578491
  ],
  [
   2.2430150508880615,
   -2.4057624340057373,
   -0.6084569692611694
  ],
  [
   -0.6315712928771973,
   0.3284156918525696,
   -2.851740837097168
  ],
  [
   -13.613676071166992,
   2.8966140747070312,
   -5.522822856903076
  ],
  [
   2.167994260787964,
   -3.836085796356201,
   -0.6126444339752197
  ],
  [
   8.27502155303955,
   -1.99008047580719,
   5.817291736602783
  ],
  [
   0.32053807377815247,
   0.06705406308174133,
   -8.64465618133545
  ],
  [
   0.7734771370887756,
   -0.4718446731567383,
   1.0095640420913696
  ],
  [
   -0.5886366963386536,
   -5.789056777954102,
   5.639566421508789
  ],
  [
   3.550595760345459,
   3.7321884632110596,
   6.486670017242432
  ],
  [
   -9.624499320983887,
   1.5104306936264038,
   1.6677796840667725
  ],
  [
   0.547579824924469,
   -0.2383093535900116,
   2.441960334777832
  ],
  [
   -2.5172524452209473,
   5.736309051513672,
   0.4895496964454651
  ],
  [
   6.736859321594238,
   -1.270925760269165,
   3.974677085876465
  ],
  [
   -2.640913248062134,
   -1.9881205558776855,
   3.17877197265625
  ],
  [
   2.9890270233154297,
   -0.4480188488960266,
   -3.600877046585083
  ],
  [
   -2.4803240299224854,
   0.30047211050987244,
   12.411813735961914
  ],
  [
   -3.661564588546753,
   -6.701770782470703,
   -3.7901601791381836
  ],
  [
   -3.341129779815674,
   0.30495792627334595,
   3.976227283477783
  ],
  [
   -3.780848979949951,
   -7.993155002593994,
   0.5332726836204529
  ],
  [
   -0.4849586486816406,
   -19.78030776977539,
   4.866844177246094
  ],
  [
   -0.08706942945718765,
   -4.949705123901367,
   -1.8195371627807617
  ],
  [
   17.30824851989746,
   3.3543529510498047,
   14.411262512207031
  ],
  [
   1.825901985168457,
   -6.916205883026123,
   2.1488189697265625
  ],
  [
   -20.376928329467773,
   -0.6659949421882629,
   -0.967338502407074
  ],
  [
   -7.6468119621276855,
   0.014636249281466007,
   11.412018775939941
  ],
  [
   -3.7051308155059814,
   -4.7111053466796875,
   7.187684535980225
  ],
  [
   -16.49053955078125,
   2.6616156101226807,
   -0.9674017429351807
  ],
  [
   7.092354774475098,
   -0.48940420150756836,
   3.4688761234283447
  ],
  [
   -6.269473075866699,
   2.2358038425445557,
   10.676876068115234
  ],
  [
   2.755176544189453,
   -10.352582931518555,
   -0.30557939410209656
  ],
  [
   -3.5688228607177734,
   -9.438090324401855,
   1.9593000411987305
  ],
  [
   2.948639154434204,
   3.9117209911346436,
   4.127523899078369
  ],
  [
   9.163581848144531,
   -7.439851760864258,
   1.6106078624725342
  ],
  [
   1.9785212278366089,
   -2.735332489013672,
   3.998703718185425
  ],
  [
   1.1296526193618774,
   -0.2244436889886856,
   -3.6608142852783203
  ],
  [
   3.3408467769622803,
   0.10315727442502975,
   -5.429580211639404
  ],
  [
   -1.3884856700897217,
   -6.998728275299072,
   -3.731947898864746
  ],
  [
   22.66885757446289,
   3.0377092361450195,
   5.529616355895996
  ],
  [
   -8.143095016479492,
   1.5773054361343384,
   3.2940711975097656
  ],
  [
   2.7891783714294434,
   2.85383939743042,
   0.7525440454483032
  ],
  [
   10.468616485595703,
   -7.488278388977051,
   0.5451353788375854
  ],
  [
   -1.7798011302947998,
   0.028991609811782837,
   -2.2613139152526855
  ],
  [
   -20.67641258239746,
   -0.3212753236293793,
   -1.1222299337387085
  ],
  [
   -3.213571071624756,
   1.0238678455352783,
   3.2494497299194336
  ],
  [
   -0.776129424571991,
   -0.31435659527778625,
   3.0212225914001465
  ],
  [
   -3.8676156997680664,
   2.4843552112579346,
   2.77105712890625
  ],
  [
   -7.788658618927002,
   3.088834285736084,
   -5.261857032775879
  ],
  [
   -0.22055813670158386,
   -0.18803828954696655,
   -5.742330551147461
  ],
  [
   -3.6645591259002686,
   -0.17187882959842682,
   6.80512809753418
  ],
  [
   22.29437828063965,
   -3.6371071338653564,
   0.6976417303085327
  ],
  [
   -1.6654353141784668,
   -12.852740287780762,
   0.7157193422317505
  ],
  [
   -14.773089408874512,
   2.347627878189087,
   1.773555874824524
  ],
  [
   -1.5582501888275146,
   0.8329799175262451,
   1.6257719993591309
  ],
  [
   5.739365100860596,
   -2.2374746799468994,
   -1.0167635679244995
  ],
  [
   -3.5129497051239014,
   0.013555672019720078,
   4.9283766746521
  ],
  [
   1.8724943399429321,
   7.185696601867676,
   0.5743696093559265
  ],
  [
   7.438622951507568,
   -4.901198387145996,
   0.6024433374404907
  ],
  [
   -6.81663703918457,
   2.6955854892730713,
   -3.390368938446045
  ],
  [
   -5.764766216278076,
   -5.505061626434326,
   16.99751091003418
  ],
  [
   -3.627462387084961,
   -0.823302686214447,
   3.01431941986084
  ],
  [
   -4.196866035461426,
   -0.29156041145324707,
   3.659703254699707
  ],
  [
   -9.384068489074707,
   4.19473934173584,
   -10.25173568725586
  ],
  [
   1.5622376203536987,
   -2.824314594268799,
   -3.1107261180877686
  ],
  [
   -3.3780949115753174,
   -3.1037302017211914,
   1.9086562395095825
  ],
  [
   3.321186065673828,
   -10.016595840454102,
   -0.18231888115406036
  ]
 ],
 "pi.0.bias": [
  -9.038118362426758,
  11.773719787597656,
  -0.4182676076889038,
  6.563440322875977,
  4.169734001159668,
  -0.8690603971481323,
  5.276734352111816,
  8.441754341125488,
  7.7305731773376465,
  -12.65676212310791,
  -0.9634485840797424,
  1.8327096700668335,
  5.912364482879639,
  3.244783401489258,
  9.918275833129883,
  6.796156883239746,
  1.5073374509811401,
  8.09624195098877,
  -0.46255046129226685,
  8.453868865966797,
  -3.344611406326294,
  -0.3381417989730835,
  -2.918276786804199,
  -5.186646938323975,
  -7.590666770935059,
  7.779514789581299,
  0.3630279004573822,
  11.151952743530273,
  -2.0906875133514404,
  4.820197582244873,
  -2.7499616146087646,
  -3.8907341957092285,
  8.320390701293945,
  -5.3040452003479,
  -4.942065238952637,
  2.7628555297851562,
  2.2604408264160156,
  4.190096378326416,
  5.827101230621338,
  -2.8565633296966553,
  1.651403784751892,
  1.5299981832504272,
  3.4375741481781006,
  -3.4049782752990723,
  3.9113173484802246,
  5.002215385437012,
  3.259047746658325,
  4.145092010498047,
  -1.739974021911621,
  6.27785587310791,
  0.7174882292747498,
  1.253105878829956,
  -4.625856876373291,
  3.2881600856781006,
  6.783368110656738,
  9.809120178222656,
  1.2570910453796387,
  -3.1198623180389404,
  -2.123952627182007,
  4.28763484954834,
  3.959245204925537,
  -2.8986852169036865,
  8.150779724121094,
  3.8277251720428467,
  2.1353020668029785,
  8.389141082763672,
  8.114551544189453,
  3.623852014541626,
  5.342175006866455,
  -3.6739025115966797,
  -1.7233749628067017,
  7.143928050994873,
  4.8244428634643555,
  0.054917484521865845,
  -6.399247646331787,
  1.9441477060317993,
  -1.4648029804229736,
  0.714661180973053,
  5.32144021987915,
  5.6067681312561035,
  5.388562202453613,
  4.437145709991455,
  7.263468265533447,
  7.149900913238525,
  3.600081443786621,
  1.1808031797409058,
  -2.0265729427337646,
  4.9944024085998535,
  -0.5253487825393677,
  4.980220794677734,
  -4.215498447418213,
  5.993890285491943,
  -6.361830234527588,
  3.745797872543335,
  -5.447456359863281,
  7.505331516265869,
  3.325568199157715,
  -5.004486560821533,
  -4.239704132080078,
  -0.28696683049201965
 ],
 "pi.2.weight": [
  [
   -5.722991466522217,
   -4.855887413024902,
   0.38325566053390503,
   -0.19091252982616425,
   1.2172795534133911,
   -10.566076278686523,
   -0.32333797216415405,
   -0.708784282207489,
   -0.0994446724653244,
   4.444341659545898,
   -0.38348737359046936,
   2.3203728199005127,
   0.2630683481693268,
   2.4757843017578125,
   -0.48345789313316345,
   -1.6967307329177856,
   -5.802154064178467,
   4.978343486785889,
   0.9583874940872192,
   -0.5484972596168518,
   1.9846051931381226,
   -1.1503067016601562,
   -4.480101585388184,
   0.39080771803855896,
   4.703135013580322,
   -2.3811275959014893,
   -0.7474387884140015,
   -3.3719568252563477,
   0.5286960005760193,
   0.6630793213844299,
   -6.407979965209961,
   -4.730020046234131,
   0.899183452129364,
   1.3620469570159912,
   4.729345798492432,
   2.024137020111084,
   1.2057180404663086,
   -1.5711151361465454,
   2.4289560317993164,
   -5.364375591278076,
   -1.889298439025879,
   -6.459795951843262,
   -0.6975172758102417,
   2.387216329574585,
   -1.2514853477478027,
   -0.5168638825416565,
   4.648375988006592,
   1.2581279277801514,
   5.003501892089844,
   1.6000652313232422,
   3.3473005294799805,
   -0.44504836201667786,
   4.522803783416748,
   0.4559186100959778,
   2.263078212738037,
   -0.5160491466522217,
   -1.550492286682129,
   -4.358236789703369,
   4.326849460601807,
   7.836073875427246,
   2.0956625938415527,
   -2.3867552280426025,
   4.12850284576416,
   -3.878790855407715,
   2.653517961502075,
   0.5365996956825256,
   4.003137111663818,
   1.2849373817443848,
   0.07175533473491669,
   2.9679741859436035,
   4.625980854034424,
   -2.1381747722625732,
   -2.4373693466186523,
   -0.505355954170227,
   2.0556466579437256,
   -3.9429140090942383,
   -0.12028704583644867,
   2.171700954437256,
   -1.2370426654815674,
   -0.9035522937774658,
   0.16211092472076416,
   0.10960374027490616,
   -0.2485204041004181,
   -3.5720577239990234,
   4.286337375640869,
   -2.8061938285827637,
   4.855008125305176,
   0.761723518371582,
   0.298117458820343,
   -2.971924066543579,
   -0.8885899782180786,
   -1.3173720836639404,
   2.4183435440063477,
   2.6842191219329834,
   4.675808906555176,
   -2.1622815132141113,
   -0.8446055054664612,
   5.3305206298828125,
   1.6937049627304077,
   1.4700798988342285
  ],
  [
   -2.056818962097168,
   1.8633946180343628,
   -0.2471369206905365,
   1.8044999837875366,
   2.001538038253784,
   1.6865572929382324,
   1.5368555784225464,
   2.2097208499908447,
   -1.9557337760925293,
   0.7080308794975281,
   -1.0938808917999268,
   -1.2064663171768188,
   -3.2941794395446777,
   0.20294496417045593,
   -1.3290754556655884,
   1.6087608337402344,
   -2.8562021255493164,
   2.028745412826538,
   2.538400888442993,
   -1.5353362560272217,
   -0.27011632919311523,
   -3.0654942989349365,
   -1.0443195104599,
   0.5144568681716919,
   -2.7145473957061768,
   0.6596643328666687,
   1.8537583351135254,
   0.6318114995956421,
   -1.2913817167282104,
   -2.0103609561920166,
   -1.816211223602295,
   3.077336549758911,
   -1.2955125570297241,
   1.6788605451583862,
   -0.5456238389015198,
   0.061674173921346664,
   0.5588189959526062,
   -3.1438770294189453,
   -0.2581130564212799,
   -0.835188090801239,
   0.8419934511184692,
   0.5162098407745361,
   -0.1794908046722412,
   -2.7462098598480225,
   4.336028099060059,
   1.292929768562317,
   1.4867805242538452,
   0.2991708815097809,
   2.5485332012176514,
   1.7800248861312866,
   -2.1717941761016846,
   -0.727552592754364,
   4.056631088256836,
   -1.3256566524505615,
   2.9137520790100098,
   -2.230278730392456,
   -3.7698376178741455,
   -2.990896224975586,
   7.424829006195068,
   1.676330804824829,
   -3.3880867958068848,
   -5.06068754196167,
   -3.4613797664642334,
   -0.09853910654783249,
   -3.240947961807251,
   1.661954641342163,
   -1.9093093872070312,
   3.6188273429870605,
   2.193131685256958,
   1.1969653367996216,
   1.197275996208191,
   3.3711862564086914,
   -1.8677948713302612,
   -3.990630865097046,
   7.411824703216553,
   0.35257986187934875,
   -0.40442314743995667,
   0.9755550622940063,
   1.5420321226119995,
   1.4254969358444214,
   -2.0665760040283203,
   -1.1452617645263672,
   -2.7486789226531982,
   -0.3151230812072754,
   0.6819730401039124,
   2.6222071647644043,
   5.885917663574219,
   1.5906014442443848,
   2.7787327766418457,
   -1.2979509830474854,
   3.191030502319336,
   -0.7703031897544861,
   4.30666446685791,
   3.0230095386505127,
   -4.801634311676025,
   -2.4158272743225098,
   -2.4387502670288086,
   1.7882211208343506,
   -2.32074236869812,
   -1.2713407278060913
  ],
  [
   -16.970008850097656,
   -0.22353409230709076,
   5.457579135894775,
   -0.03475545346736908,
   2.319815158843994,
   3.126967191696167,
   0.9970342516899109,
   0.6090554594993591,
   -0.6487447619438171,
   3.2322585582733154,
   -8.726611137390137,
   -1.674307107925415,
   1.2505805492401123,
   -0.9317560791969299,
   -0.6592725515365601,
   1.7350517511367798,
   -2.0011935234069824,
   0.3054906725883484,
   0.786678671836853,
   -1.0675411224365234,
   -3.8197197914123535,
   -3.7779862880706787,
   -1.8421430587768555,
   -2.543959379196167,
   2.3625082969665527,
   -0.04064156487584114,
   -1.097635269165039,
   1.0510497093200684,
   -2.7394230365753174,
   -2.8282651901245117,
   -1.0929259061813354,
   4.04463529586792,
   -2.0307161808013916,
   9.730754852294922,
   -5.534437656402588,
   -1.0140321254730225,
   -3.683232069015503,
   -1.0508688688278198,
   -1.3771474361419678,
   0.9844821095466614,
   0.25836020708084106,
   0.6952771544456482,
   -3.5568113327026367,
   -2.749256134033203,
   -1.1350152492523193,
   0.13709665834903717,
   0.7015056014060974,
   2.2066380977630615,
   0.49873247742652893,
   -0.8807076215744019,
   2.9741902351379395,
   -4.1774163246154785,
   0.5072709918022156,
   -1.8010140657424927,
   -0.40485087037086487,
   -1.2853089570999146,
   1.533772587776184,
   2.667717933654785,
   5.17823600769043,
   2.3122267723083496,
   -2.223130464553833,
   5.021960258483887,
   -1.1897307634353638,
   -0.18698064982891083,
   0.8429915308952332,
   0.544103741645813,
   0.32045289874076843,
   1.206945776939392,
   1.1066709756851196,
   -6.966966152191162,
   -0.2372312694787979,
   1.7824194431304932,
   0.3119983673095703,
   -6.65633487701416,
   -0.6396482586860657,
   2.1136529445648193,
   -2.5278186798095703,
   3.217806816101074,
   1.7263824939727783,
   -0.21123147010803223,
   -2.9102675914764404,
   1.8203620910644531,
   1.3373414278030396,
   1.4009103775024414,
   0.24122700095176697,
   1.9845654964447021,
   4.500124454498291,
   -1.471705675125122,
   2.37865948677063,
   0.7156515121459961,
   1.2244621515274048,
   -2.615278482437134,
   1.7955774068832397,
   3.193629026412964,
   -4.18175745010376,
   0.3963378667831421,
   -0.3240346610546112,
   0.08966036140918732,
   1.6220453977584839,
   1.9122174978256226
  ]
 ],
 "pi.2.bias": [
  0.11324705183506012,
  0.42172399163246155,
  -0.26766955852508545
 ]
}