{
 "pi.0.weight": [
  [
   0.2824642062187195,
   -0.03463045135140419,
   -0.20649340748786926,
   0.009689134545624256,
   2.223825454711914,
   3.0936765670776367
  ],
  [
   -3.178144931793213,
   -0.2730828821659088,
   -0.14303787052631378,
   1.0090320110321045,
   -0.21479444205760956,
   4.929864883422852
  ],
  [
   0.4152948260307312,
   0.7807310223579407,
   0.1176132932305336,
   -0.05180960148572922,
   -1.7173563241958618,
   3.335012197494507
  ],
  [
   -0.28537628054618835,
   0.30764687061309814,
   -0.15815149247646332,
   -0.142245352268219,
   0.23169472813606262,
   -3.9290478229522705
  ],
  [
   1.2095681428909302,
   0.5823045372962952,
   0.08520369976758957,
   -0.077512226998806,
   -4.707207679748535,
   -3.2122514247894287
  ],
  [
   3.979461908340454,
   0.18753685057163239,
   -0.8839238882064819,
   -0.07899913936853409,
   -6.849194049835205,
   -0.4760138988494873
  ],
  [
   -0.5424213409423828,
   -5.023335933685303,
   -0.3358667194843292,
   0.015840161591768265,
   1.6652443408966064,
   1.550190806388855
  ],
  [
   -1.4813616275787354,
   0.8488665223121643,
   -0.16189603507518768,
   2.0910375118255615,
   -1.0012962818145752,
   0.3108110725879669
  ],
  [
   4.856754779815674,
   0.3251709043979645,
   -0.2592209279537201,
   -0.4920886754989624,
   -1.7732666730880737,
   -0.003492943476885557
  ],
  [
   -0.15207520127296448,
   -2.4091527462005615,
   0.164279043674469,
   0.15929220616817474,
   -2.489694595336914,
   1.9669694900512695
  ],
  [
   0.14848440885543823,
   0.060441844165325165,
   0.42003780603408813,
   0.6311213970184326,
   -4.273792266845703,
   1.697152018547058
  ],
  [
   0.0890253409743309,
   2.6270148754119873,
   0.16024020314216614,
   -0.10723419487476349,
   -2.5549168586730957,
   -2.6148035526275635
  ],
  [
   -0.25784990191459656,
   -1.2443921566009521,
   -2.024406671524048,
   2.1903555393218994,
   2.3415000438690186,
   0.7221891283988953
  ],
  [
   1.4363164901733398,
   -0.6202673316001892,
   -0.2789076268672943,
   -3.6241419315338135,
   -2.9357423782348633,
   -1.5772641897201538
  ],
  [
   0.4570327401161194,
   -0.33838582038879395,
   -0.3994803726673126,
   -0.6649834513664246,
   2.9243593215942383,
   -1.3142499923706055
  ],
  [
   -2.020141839981079,
   -0.5611237287521362,
   0.19420917332172394,
   0.2866983711719513,
   -0.9892081022262573,
   0.9451944828033447
  ],
  [
   -0.35661351680755615,
   -0.08633813261985779,
   -0.34930214285850525,
   -0.7392081022262573,
   -1.570756435394287,
   1.7260161638259888
  ],
  [
   -0.08856651186943054,
   -0.10813005268573761,
   -0.16639317572116852,
   -0.33583641052246094,
   1.2976385354995728,
   2.636922597885132
  ],
  [
   0.3479470908641815,
   -1.5147134065628052,
   0.6259245872497559,
   1.294187068939209,
   1.797046184539795,
   3.8586857318878174
  ],
  [
   0.07821211218833923,
   0.14185041189193726,
   -3.836387872695923,
   -2.2309913635253906,
   -0.6003329157829285,
   -0.8809308409690857
  ],
  [
   0.3833007514476776,
   0.7855035662651062,
   0.8583351373672485,
   -0.17748406529426575,
   -4.435815811157227,
   -6.638681888580322
  ],
  [
   0.7572987079620361,
   -4.874118328094482,
   0.2956784665584564,
   -2.124063730239868,
   -0.3395363390445709,
   3.8875677585601807
  ],
  [
   1.0011757612228394,
   1.6995255947113037,
   -1.2094695568084717,
   -2.470933675765991,
   -0.16456986963748932,
   -2.695558547973633
  ],
  [
   0.10685638338327408,
   0.33900269865989685,
   -0.15592502057552338,
   0.52510666847229,
   -0.9646047949790955,
   -4.38958740234375
  ],
  [
   -0.6977875232696533,
   1.322190284729004,
   0.2962115705013275,
   -0.09854493290185928,
   -1.6929320096969604,
   0.980594277381897
  ],
  [
   2.6122171878814697,
   3.2567765712738037,
   3.433867931365967,
   -0.5643191337585449,
   -0.3552495241165161,
   -1.435007929801941
  ],
  [
   -0.5111949443817139,
   -1.8831408023834229,
   -0.12269449979066849,
   -0.38780489563941956,
   -1.4923369884490967,
   1.6220130920410156
  ],
  [
   -0.2968654930591583,
   -0.27755674719810486,
   0.03818720951676369,
   -0.3324873447418213,
   3.1417596340179443,
   3.05934739112854
  ],
  [
   -1.2822169065475464,
   -0.8836923241615295,
   0.4811086356639862,
   -0.3995981812477112,
   -5.937347888946533,
   3.0708260536193848
  ],
  [
   -0.39912527799606323,
   5.31680154800415,
   1.16970956325531,
   -0.14609688520431519,
   -3.0733461380004883,
   0.9091660976409912
  ],
  [
   0.859635055065155,
   -1.672946810722351,
   0.11114080250263214,
   -0.03401850163936615,
   -1.81985604763031,
   1.6857002973556519
  ],
  [
   -0.8205457925796509,
   0.5205524563789368,
   0.15746136009693146,
   0.8886949419975281,
   -0.919999361038208,
   0.4455749988555908
  ],
  [
   -0.10800617933273315,
   4.917544364929199,
   -0.30901673436164856,
   7.65008544921875,
   -0.6836759448051453,
   2.1392698287963867
  ],
  [
   -0.19843457639217377,
   -0.370301216840744,
   -0.02062150463461876,
   -0.05023675039410591,
   -1.1515045166015625,
   -3.867711067199707
  ],
  [
   -0.10867754369974136,
   0.13068120181560516,
   -0.2014455795288086,
   -0.5154662132263184,
   -0.6361759305000305,
   -1.8531593084335327
  ],
  [
   -0.10813381522893906,
   0.5509753227233887,
   0.011478187516331673,
   1.5903706550598145,
   -0.5932847857475281,
   1.7305406332015991
  ],
  [
   -0.08459676802158356,
   -0.27791455388069153,
   0.11314814537763596,
   0.05711470916867256,
   2.780526638031006,
   3.633924722671509
  ],
  [
   -0.4135517477989197,
   -1.4833745956420898,
   -0.5112214684486389,
   -1.6533955335617065,
   4.544275760650635,
   -2.6026132106781006
  ],
  [
   -2.440531015396118,
   -0.7803988456726074,
   -0.053213901817798615,
   -0.7544065117835999,
   1.5089925527572632,
   2.116253614425659
  ],
  [
   1.0728182792663574,
   -1.2351040840148926,
   -0.0843798965215683,
   -0.033843204379081726,
   2.577913761138916,
   4.983951091766357
  ],
  [
   1.5601353645324707,
   -0.47641223669052124,
   0.27213039994239807,
   -0.778010904788971,
   -2.113513469696045,
   0.4263330101966858
  ],
  [
   -0.16669084131717682,
   -2.6501011848449707,
   0.9434711933135986,
   -2.209953784942627,
   0.41113829612731934,
   0.6490383148193359
  ],
  [
   0.7562152147293091,
   0.9465184211730957,
   0.5027669668197632,
   1.4531577825546265,
   -5.045050144195557,
   2.718524694442749
  ],
  [
   0.29561948776245117,
   -0.22654682397842407,
   0.45064035058021545,
   0.6932699680328369,
   1.156164288520813,
   2.7980237007141113
  ],
  [
   -0.45587021112442017,
   1.0039838552474976,
   -0.43184566497802734,
   1.4743398427963257,
   -5.64678955078125,
   1.1293803453445435
  ],
  [
   -1.7660589218139648,
   -1.2050260305404663,
   0.32246270775794983,
   1.3776246309280396,
   4.141134738922119,
   -1.5317721366882324
  ],
  [
   -0.5999701023101807,
   0.49322083592414856,
   1.035503625869751,
   0.45079460740089417,
   -3.8629868030548096,
   -0.763785719871521
  ],
  [
   -0.4365140199661255,
   1.9014854431152344,
   -0.19443564116954803,
   3.4315881729125977,
   0.7298440933227539,
   1.1326755285263062
  ],
  [
   -0.18064406514167786,
   -1.1510813236236572,
   0.30770614743232727,
   0.668743908405304,
   1.037456750869751,
   1.807957410812378
  ],
  [
   -0.8501253128051758,
   -1.5064765214920044,
   -1.2769562005996704,
   -4.523355484008789,
   -0.27601224184036255,
   -1.827789068222046
  ]
 ],
 "pi.0.bias": [
  -1.9122718572616577,
  -5.025182723999023,
  -9.170083999633789,
  0.8094613552093506,
  -4.3314619064331055,
  -2.778921127319336,
  -6.510558605194092,
  -9.448809623718262,
  -2.4193882942199707,
  10.429289817810059,
  -0.01265511941164732,
  -1.6763428449630737,
  -5.763762474060059,
  -9.38226318359375,
  -0.24476350843906403,
  -6.825419902801514,
  7.742967128753662,
  -1.5932859182357788,
  3.0313589572906494,
  3.21958327293396,
  -3.2884161472320557,
  -10.062736511230469,
  -2.07804536819458,
  -0.07289057224988937,
  7.1780924797058105,
  6.949925422668457,
  -7.757978439331055,
  5.080770969390869,
  3.714280128479004,
  -8.850708961486816,
  2.0374302864074707,
  -4.636618137359619,
  -11.594292640686035,
  3.4598867893218994,
  -3.1036605834960938,
  -6.623737335205078,
  5.576290607452393,
  -3.9850125312805176,
  5.426860332489014,
  -1.2413413524627686,
  -4.033000946044922,
  -3.3041586875915527,
  4.790783405303955,
  5.536377429962158,
  -3.781653881072998,
  -5.984731674194336,
  -8.67358684539795,
  7.560439109802246,
  -9.23021125793457,
  -6.977116107940674
 ],
 "pi.2.weight": [
  [
   6.7444376945495605,
   6.014822483062744,
   -9.258328437805176,
   5.415524959564209,
   5.186255931854248,
   6.631814479827881,
   -7.6987409591674805,
   -12.808679580688477,
   7.520849704742432,
   -3.535083055496216,
   -6.842912673950195,
   -7.689797401428223,
   -7.074387073516846,
   -1.0866248607635498,
   1.0769410133361816,
   3.4764790534973145,
   5.104310035705566,
   0.08490896224975586,
   -3.0000193119049072,
   -5.9124531745910645,
   -8.169361114501953,
   -1.5324105024337769,
   -4.939864635467529,
   0.861707866191864,
   1.7897100448608398,
   5.304228782653809,
   -5.5348615646362305,
   -1.863450288772583,
   6.0573859214782715,
   6.895677089691162,
   0.1811775416135788,
   8.856632232666016,
   0.675284206867218,
   -3.0879712104797363,
   1.1021946668624878,
   -0.9296543002128601,
   -0.6826941967010498,
   -3.248582601547241,
   -6.842888355255127,
   -6.893777370452881,
   4.173471927642822,
   11.929323196411133,
   -4.787598609924316,
   0.2843624949455261,
   -7.616071701049805,
   10.710914611816406,
   8.534635543823242,
   6.5163750648498535,
   -13.49676513671875,
   1.7177382707595825
  ],
  [
   2.14727783203125,
   -0.3121224045753479,
   -0.6731891632080078,
   2.2656896114349365,
   -0.8337821364402771,
   -0.15173403918743134,
   0.2016063779592514,
   -0.9275622367858887,
   -0.5172737836837769,
   2.752254009246826,
   -2.0513083934783936,
   0.8487281203269958,
   0.27221137285232544,
   -4.985813140869141,
   -2.6987667083740234,
   -0.8494468927383423,
   -3.2137835025787354,
   -5.254307270050049,
   0.9721890091896057,
   0.12202061712741852,
   -0.7135785222053528,
   -3.6120645999908447,
   0.22641147673130035,
   -2.0552306175231934,
   2.440331220626831,
   -0.2486317902803421,
   5.335718631744385,
   -4.072643756866455,
   -1.0108202695846558,
   -0.03402276337146759,
   1.2882953882217407,
   3.5946640968322754,
   5.215694427490234,
   -3.3323447704315186,
   6.846924304962158,
   -5.734559059143066,
   3.8464114665985107,
   -2.9186835289001465,
   0.31751808524131775,
   -0.011315247043967247,
   1.8484885692596436,
   -0.6704260110855103,
   -2.9225199222564697,
   3.496973752975464,
   -0.24615193903446198,
   -0.08549151569604874,
   -1.093977689743042,
   1.5577476024627686,
   5.478379726409912,
   -3.3943538665771484
  ]
 ],
 "pi.2.bias": [
  0.02751251496374607,
  0.21490685641765594
 ]
}