{
 "pi.0.weight": [
  [
   -0.07007027417421341,
   3.8380675315856934,
   -0.10035546123981476,
   0.0031853315886110067
  ],
  [
   -0.9007042050361633,
   2.69252347946167,
   -0.7350587248802185,
   2.907867431640625
  ],
  [
   -0.6209307909011841,
   5.677649021148682,
   -0.04148883745074272,
   -0.056599974632263184
  ],
  [
   -1.019666075706482,
   -5.09551477432251,
   -1.5241823196411133,
   -1.5344098806381226
  ],
  [
   0.7932031750679016,
   -0.3371182978153229,
   -0.6260221600532532,
   -0.008767024613916874
  ],
  [
   -0.4679756760597229,
   -0.19241933524608612,
   1.472568154335022,
   2.1394739151000977
  ],
  [
   1.0534083843231201,
   4.546875476837158,
   0.2937914729118347,
   -0.5620692372322083
  ],
  [
   1.3792637586593628,
   -2.7502846717834473,
   0.11122220009565353,
   2.6355786323547363
  ],
  [
   0.8578174710273743,
   -3.9704654216766357,
   0.02212093211710453,
   0.007513982709497213
  ],
  [
   -0.2845630943775177,
   0.9917057156562805,
   1.9439194202423096,
   -0.06106564775109291
  ],
  [
   -1.546127438545227,
   -0.017024938017129898,
   1.673819661140442,
   -0.018328791484236717
  ],
  [
   0.21429097652435303,
   -2.875617504119873,
   -0.009746922180056572,
   0.1641458123922348
  ],
  [
   1.2108968496322632,
   -2.244980573654175,
   -0.49727192521095276,
   1.2248342037200928
  ],
  [
   0.6493005752563477,
   1.2780596017837524,
   -0.12683415412902832,
   -0.5734031200408936
  ],
  [
   -2.18467116355896,
   -0.9639883041381836,
   -0.2247476875782013,
   -0.3998638391494751
  ],
  [
   -0.07919365912675858,
   2.4144368171691895,
   0.633667528629303,
   2.503333568572998
  ],
  [
   1.6022441387176514,
   0.37164703011512756,
   0.6587885618209839,
   -0.2141527533531189
  ],
  [
   -0.18951673805713654,
   2.163072347640991,
   2.7116363048553467,
   0.001472985022701323
  ],
  [
   -0.34486502408981323,
   -1.4539061784744263,
   1.0162090063095093,
   3.545888662338257
  ],
  [
   -1.0332735776901245,
   -3.5353260040283203,
   2.1822218894958496,
   -0.07228805869817734
  ],
  [
   -0.3927164375782013,
   2.836817979812622,
   1.0567432641983032,
   -0.7717020511627197
  ],
  [
   -0.18111678957939148,
   -0.5696535110473633,
   0.24912895262241364,
   -0.030517183244228363
  ],
  [
   1.3936431407928467,
   -0.40586912631988525,
   0.43532416224479675,
   -0.8070424199104309
  ],
  [
   -0.9006884694099426,
   1.3309121131896973,
   0.07977097481489182,
   0.013451166450977325
  ],
  [
   1.184617280960083,
   0.7282858490943909,
   -1.120517611503601,
   0.29418960213661194
  ],
  [
   0.9611814022064209,
   0.4772772192955017,
   -0.439906507730484,
   -3.53116512298584
  ],
  [
   0.6717984080314636,
   -2.2269394397735596,
   1.064590573310852,
   -0.9759491682052612
  ],
  [
   1.7237905263900757,
   -0.07184378802776337,
   -0.6774539947509766,
   1.5848275423049927
  ],
  [
   -1.7370750904083252,
   4.096674919128418,
   -0.005693352315574884,
   -0.04186614230275154
  ],
  [
   -0.028872337192296982,
   -0.2543420195579529,
   -1.3264670372009277,
   3.2821028232574463
  ],
  [
   3.0563716888427734,
   2.4646189212799072,
   -0.686121940612793,
   -0.009610694833099842
  ],
  [
   -0.2190828174352646,
   0.24527382850646973,
   -0.09326445311307907,
   -1.6262584924697876
  ],
  [
   1.7802451848983765,
   -1.4416441917419434,
   1.9299124479293823,
   0.7481124997138977
  ],
  [
   3.403501033782959,
   0.38529136776924133,
   0.602310836315155,
   -0.37920647859573364
  ],
  [
   -0.9849758148193359,
   -0.7972927689552307,
   0.09741124510765076,
   1.0119866132736206
  ],
  [
   -0.31028634309768677,
   1.1455819606781006,
   3.1428139209747314,
   1.3972958326339722
  ],
  [
   -2.028424024581909,
   -1.3900394439697266,
   -0.005027607548981905,
   0.16269373893737793
  ],
  [
   -2.867417573928833,
   -3.307065486907959,
   0.07098904252052307,
   -1.5745370388031006
  ],
  [
   -0.20160575211048126,
   0.9074068665504456,
   0.16238844394683838,
   -0.8555781245231628
  ],
  [
   2.546755790710449,
   -1.4909396171569824,
   -0.37819093465805054,
   0.0842580497264862
  ],
  [
   -0.9344018697738647,
   -2.8657445907592773,
   -1.0732057094573975,
   2.135525703430176
  ],
  [
   0.904988169670105,
   1.7282934188842773,
   0.8363450169563293,
   0.04208317771553993
  ],
  [
   -1.8918758630752563,
   -1.5464814901351929,
   0.34908148646354675,
   0.15395337343215942
  ],
  [
   0.509321391582489,
   3.830753803253174,
   0.31976285576820374,
   1.274167776107788
  ],
  [
   -0.8690754771232605,
   0.25286242365837097,
   1.3400379419326782,
   -1.551155686378479
  ],
  [
   2.202669382095337,
   -0.7770718932151794,
   -1.1726242303848267,
   0.24043087661266327
  ],
  [
   1.2407771348953247,
   3.0332884788513184,
   1.1249077320098877,
   -0.09651099890470505
  ],
  [
   0.1331840306520462,
   0.4338914752006531,
   0.8199034929275513,
   2.898519515991211
  ],
  [
   -0.5175073742866516,
   0.8523620963096619,
   0.19809028506278992,
   -5.321045875549316
  ],
  [
   -0.6893101334571838,
   -0.023066166788339615,
   -1.3300360441207886,
   -2.6258299350738525
  ],
  [
   0.7765267491340637,
   1.606618881225586,
   -1.6258758306503296,
   0.6834347248077393
  ],
  [
   0.5439620614051819,
   -0.38316187262535095,
   -0.17778803408145905,
   -0.06716849654912949
  ],
  [
   0.41157686710357666,
   0.6331596970558167,
   -2.2301197052001953,
   0.28427597880363464
  ],
  [
   0.5604767799377441,
   -0.1318795382976532,
   -0.2998500466346741,
   3.353363037109375
  ],
  [
   -1.1632232666015625,
   -1.444291591644287,
   2.72615647315979,
   -1.3714860677719116
  ],
  [
   0.723609209060669,
   1.0754566192626953,
   0.03804408013820648,
   3.6415140628814697
  ],
  [
   -1.9651007652282715,
   0.9266570210456848,
   0.18933269381523132,
   2.2442474365234375
  ],
  [
   -0.8053275346755981,
   -0.3823445439338684,
   -1.9836854934692383,
   1.9758321046829224
  ],
  [
   -1.27749764919281,
   4.120179176330566,
   0.12584124505519867,
   -0.324941486120224
  ],
  [
   0.40643393993377686,
   -0.5847602486610413,
   0.4343208074569702,
   1.2823407649993896
  ],
  [
   -0.81275475025177,
   1.3328827619552612,
   -1.9565562009811401,
   -0.48856547474861145
  ],
  [
   1.475751519203186,
   0.23700623214244843,
   1.3862552642822266,
   -3.3843846321105957
  ],
  [
   0.5775921940803528,
   0.848116397857666,
   -0.7248979210853577,
   -1.2440648078918457
  ],
  [
   8.179851531982422,
   0.6448496580123901,
   0.20383979380130768,
   0.01193644106388092
  ],
  [
   0.5937355756759644,
   -0.6102123856544495,
   -0.09356492012739182,
   1.3325557708740234
  ],
  [
   -0.8550873398780823,
   -1.2198129892349243,
   2.638439416885376,
   1.4615916013717651
  ],
  [
   -0.1431622952222824,
   -1.127638816833496,
   0.29700514674186707,
   0.5347694754600525
  ],
  [
   0.48983556032180786,
   2.6323280334472656,
   -0.0409325510263443,
   -0.1568126231431961
  ],
  [
   -1.378200650215149,
   1.5325427055358887,
   -0.4290578067302704,
   -1.4503344297409058
  ],
  [
   0.044224657118320465,
   -0.8042435050010681,
   2.198195457458496,
   -0.24716933071613312
  ],
  [
   0.6269877552986145,
   1.6107449531555176,
   -1.8241089582443237,
   -1.282793402671814
  ],
  [
   -1.688961386680603,
   3.2018227577209473,
   0.4321826100349426,
   2.566727638244629
  ],
  [
   2.8320047855377197,
   1.1749346256256104,
   -0.389256089925766,
   -3.1360087394714355
  ],
  [
   -0.1162811741232872,
   1.0717333555221558,
   0.4946727752685547,
   -4.330465316772461
  ],
  [
   3.8801321983337402,
   0.8467925786972046,
   -1.7202759981155396,
   -0.39349186420440674
  ],
  [
   1.2009223699569702,
   1.1368520259857178,
   -3.5326075553894043,
   -0.10462019592523575
  ],
  [
   0.32101336121559143,
   -1.508087396621704,
   1.4764289855957031,
   1.635075330734253
  ],
  [
   0.307480126619339,
   2.01522159576416,
   0.5796808004379272,
   -3.7834324836730957
  ],
  [
   -0.6098633408546448,
   -0.2716371715068817,
   1.3760712146759033,
   -0.2698730528354645
  ],
  [
   -0.022795431315898895,
   -1.2107715606689453,
   1.1169980764389038,
   -2.168839931488037
  ],
  [
   1.9666727781295776,
   1.6883172988891602,
   -1.3929669857025146,
   0.9536077976226807
  ],
  [
   2.866042375564575,
   2.605448007583618,
   -1.492777943611145,
   0.08406131714582443
  ],
  [
   1.1416648626327515,
   -0.0024953167885541916,
   -0.06278824061155319,
   -1.807762861251831
  ],
  [
   3.8782382011413574,
   -1.48513662815094,
   -2.5253384113311768,
   0.08530094474554062
  ],
  [
   -0.744719386100769,
   3.783613443374634,
   1.0508404970169067,
   -0.6001111268997192
  ],
  [
   0.05543777719140053,
   -0.5892146229743958,
   1.6856834888458252,
   -0.03432313725352287
  ],
  [
   0.9172286987304688,
   4.51774787902832,
   0.027364101260900497,
   -0.5309587121009827
  ],
  [
   0.8639008402824402,
   1.8637714385986328,
   -1.2887952327728271,
   0.12645532190799713
  ],
  [
   -0.4344446659088135,
   1.3163505792617798,
   -0.6170649528503418,
   0.9725381135940552
  ],
  [
   -1.4314892292022705,
   1.328377366065979,
   -1.0005502700805664,
   -0.0226264800876379
  ],
  [
   0.2817707359790802,
   -6.224905967712402,
   0.022564075887203217,
   0.22188140451908112
  ],
  [
   -0.8730471134185791,
   1.1061890125274658,
   0.9219645857810974,
   0.8398079872131348
  ],
  [
   -0.43454214930534363,
   -1.9857012033462524,
   -0.11822615563869476,
   2.401890993118286
  ],
  [
   0.22814828157424927,
   -0.12551745772361755,
   -1.9510148763656616,
   -0.10184165090322495
  ],
  [
   0.8760361671447754,
   -1.3410627841949463,
   2.4678680896759033,
   0.061388034373521805
  ],
  [
   10.463787078857422,
   0.8572386503219604,
   -0.19775928556919098,
   0.1935161054134369
  ],
  [
   -1.6872646808624268,
   3.4522018432617188,
   2.0809333324432373,
   -0.039901260286569595
  ],
  [
   -0.3191576302051544,
   0.7977401614189148,
   2.717055559158325,
   -2.7667911052703857
  ],
  [
   0.5974448323249817,
   -0.34595373272895813,
   0.4822385311126709,
   1.7425508499145508
  ],
  [
   -0.988590657711029,
   0.06680911034345627,
   2.21691632270813,
   0.17529509961605072
  ],
  [
   0.8830648064613342,
   -1.4788334369659424,
   2.0703163146972656,
   1.638444185256958
  ],
  [
   -1.1227794885635376,
   -0.75665682554245,
   3.5494322776794434,
   1.4605469703674316
  ],
  [
   1.3371413946151733,
   -0.333320289850235,
   0.025293314829468727,
   -0.41552820801734924
  ],
  [
   3.639732599258423,
   2.9986870288848877,
   1.503427505493164,
   -0.012047952972352505
  ],
  [
   -1.3137245178222656,
   -0.9441407918930054,
   0.542182981967926,
   0.12217731028795242
  ],
  [
   -2.0791208744049072,
   0.2833637297153473,
   2.59033465385437,
   -0.2563954293727875
  ],
  [
   -1.4416632652282715,
   -0.4120562672615051,
   1.149191975593567,
   -1.4721227884292603
  ],
  [
   0.18902647495269775,
   -0.5332542061805725,
   0.2976354658603668,
   0.6017888784408569
  ],
  [
   2.590569019317627,
   1.1207753419876099,
   -1.4135814905166626,
   3.156399726867676
  ],
  [
   -0.3195589482784271,
   1.0413609743118286,
   2.88216495513916,
   0.11869712918996811
  ],
  [
   -1.0917311906814575,
   -1.5384544134140015,
   1.0446730852127075,
   1.537155270576477
  ],
  [
   -2.3856921195983887,
   -2.147237777709961,
   -1.9178602695465088,
   0.9160774946212769
  ],
  [
   -2.255178689956665,
   0.02750663459300995,
   2.3124873638153076,
   0.6315268874168396
  ],
  [
   1.2635045051574707,
   1.9236369132995605,
   -0.30283716320991516,
   3.8308308124542236
  ],
  [
   -1.2697727680206299,
   0.10253161936998367,
   1.0675443410873413,
   0.696513295173645
  ],
  [
   -1.1536232233047485,
   1.784820795059204,
   0.9123638868331909,
   -2.573437452316284
  ],
  [
   0.46659234166145325,
   0.36307889223098755,
   0.8518190979957581,
   1.7562371492385864
  ],
  [
   0.8287562131881714,
   -0.7529467940330505,
   0.05750139802694321,
   -4.368789196014404
  ],
  [
   3.871539354324341,
   0.4441681206226349,
   1.9282208681106567,
   -1.554257869720459
  ],
  [
   0.20691843330860138,
   -0.7918962836265564,
   -0.5179500579833984,
   3.9729182720184326
  ],
  [
   -0.15416987240314484,
   -1.373663067817688,
   1.2884882688522339,
   4.529361724853516
  ],
  [
   0.33543023467063904,
   -1.682007074356079,
   -0.17611029744148254,
   5.407969951629639
  ],
  [
   -0.7906816005706787,
   -1.1239296197891235,
   -1.910935640335083,
   -0.018809150904417038
  ],
  [
   -0.3218417167663574,
   -0.03870164230465889,
   1.8710722923278809,
   -2.8034260272979736
  ],
  [
   1.599151372909546,
   -2.6218154430389404,
   0.03355901315808296,
   0.14186173677444458
  ],
  [
   -1.4165771007537842,
   0.3135974407196045,
   0.18677465617656708,
   1.584923505783081
  ],
  [
   -0.4765335023403168,
   -0.6091125011444092,
   2.867112398147583,
   0.027233514934778214
  ],
  [
   0.6123520135879517,
   1.5018517971038818,
   0.6722042560577393,
   1.9124442338943481
  ],
  [
   -1.0169575214385986,
   1.1387641429901123,
   0.2449187934398651,
   -4.88899040222168
  ],
  [
   -1.041986346244812,
   -0.3904634118080139,
   3.484760284423828,
   -0.43406492471694946
  ],
  [
   0.5588414072990417,
   0.23863981664180756,
   -0.42646461725234985,
   -1.8526691198349
  ],
  [
   -1.1336092948913574,
   2.090714693069458,
   0.580058753490448,
   0.11749808490276337
  ],
  [
   -0.6508816480636597,
   -0.3574382960796356,
   1.8670074939727783,
   2.2597157955169678
  ],
  [
   -1.9684932231903076,
   -1.7784080505371094,
   0.1811736673116684,
   0.10851632803678513
  ],
  [
   0.49682676792144775,
   -1.2178289890289307,
   1.6298284530639648,
   0.7622654438018799
  ],
  [
   -1.2288459539413452,
   1.4771602153778076,
   -1.1295287609100342,
   -0.3336414396762848
  ],
  [
   1.496339201927185,
   4.368960857391357,
   -0.8446386456489563,
   -0.2523687779903412
  ],
  [
   -0.281916081905365,
   1.8166098594665527,
   0.41082507371902466,
   -0.9179174900054932
  ],
  [
   4.026904582977295,
   -0.5960221886634827,
   -1.4858113527297974,
   -0.033060479909181595
  ],
  [
   0.9107075929641724,
   -0.5762312412261963,
   -0.3932073414325714,
   2.7550718784332275
  ],
  [
   -1.5393104553222656,
   -0.9579304456710815,
   -0.6105582118034363,
   2.8360393047332764
  ],
  [
   -0.7355979084968567,
   2.7429635524749756,
   0.007379800546914339,
   -0.018489478155970573
  ],
  [
   -1.0968713760375977,
   -0.09977005422115326,
   3.266834020614624,
   -0.36107710003852844
  ],
  [
   0.6443159580230713,
   -0.6408101320266724,
   -0.48750215768814087,
   2.023576498031616
  ],
  [
   0.27705127000808716,
   1.366510272026062,
   -0.3427887260913849,
   -5.0591959953308105
  ],
  [
   -0.3241804540157318,
   -1.4561048746109009,
   0.11214090883731842,
   -3.2341439723968506
  ],
  [
   1.5498182773590088,
   -1.6710331439971924,
   0.3894028663635254,
   0.39589112997055054
  ],
  [
   -0.39339005947113037,
   2.018578290939331,
   0.2724382281303406,
   -0.6584628224372864
  ],
  [
   -1.386320948600769,
   2.2695977687835693,
   1.245503544807434,
   0.7798183560371399
  ],
  [
   0.26944300532341003,
   0.5157262086868286,
   -0.1695200502872467,
   2.6984992027282715
  ],
  [
   -3.732637643814087,
   -1.9823620319366455,
   0.14732994139194489,
   1.3867217302322388
  ],
  [
   -2.233555555343628,
   -2.011878728866577,
   1.4306532144546509,
   -2.0782320499420166
  ],
  [
   -0.4276695251464844,
   0.16188305616378784,
   -1.0964363813400269,
   -1.5331379175186157
  ],
  [
   0.8932411074638367,
   -0.9581909775733948,
   -1.2033296823501587,
   0.9671253561973572
  ],
  [
   -0.40651586651802063,
   -0.198982372879982,
   3.7507457733154297,
   1.8034182786941528
  ],
  [
   -1.5459908246994019,
   2.2722818851470947,
   0.9623790979385376,
   0.0038545895367860794
  ],
  [
   -0.10718341916799545,
   -2.592465400695801,
   -1.059958815574646,
   0.0878472775220871
  ],
  [
   -0.7898777723312378,
   -0.16638608276844025,
   1.152559757232666,
   2.019763708114624
  ],
  [
   -2.869576930999756,
   1.496056079864502,
   0.034699343144893646,
   -0.09561655670404434
  ],
  [
   -2.228325605392456,
   -0.8117699027061462,
   -1.6219732761383057,
   1.6435328722000122
  ],
  [
   -3.35479998588562,
   -1.0704115629196167,
   1.3126657009124756,
   -0.9636144638061523
  ],
  [
   -5.070706367492676,
   0.6892311573028564,
   1.0782897472381592,
   0.20521743595600128
  ],
  [
   -1.818745493888855,
   -0.6955471038818359,
   2.298964023590088,
   -1.2100919485092163
  ],
  [
   4.965120315551758,
   -1.2498281002044678,
   0.025383511558175087,
   -0.21146106719970703
  ],
  [
   0.19729039072990417,
   1.0230402946472168,
   2.6412699222564697,
   -0.36056703329086304
  ],
  [
   0.19754573702812195,
   -1.765699863433838,
   1.2759780883789062,
   3.6030445098876953
  ],
  [
   -0.06410092115402222,
   -0.44659605622291565,
   0.5522971153259277,
   2.671410083770752
  ],
  [
   1.1726751327514648,
   -0.36705633997917175,
   -4.248312473297119,
   -0.7163205146789551
  ],
  [
   -0.2621860206127167,
   1.9231520891189575,
   -1.7807878255844116,
   0.7703219056129456
  ],
  [
   1.3137089014053345,
   2.3331797122955322,
   0.49339351058006287,
   -0.7203392386436462
  ],
  [
   0.6350264549255371,
   -1.0759824514389038,
   1.8164336681365967,
   2.8655002117156982
  ],
  [
   -0.21956010162830353,
   5.375712871551514,
   -1.3079885244369507,
   0.0693502128124237
  ],
  [
   4.688920974731445,
   0.9157334566116333,
   1.3848856687545776,
   -0.9855431318283081
  ],
  [
   1.3046754598617554,
   2.8927741050720215,
   -2.2139832973480225,
   -0.14804257452487946
  ],
  [
   1.6247395277023315,
   -2.188138723373413,
   -0.3375750780105591,
   0.8102732300758362
  ],
  [
   -0.822302520275116,
   0.6052561402320862,
   -3.4997341632843018,
   -0.06956061720848083
  ],
  [
   -0.15948745608329773,
   -0.01268388144671917,
   0.6676036715507507,
   3.0386953353881836
  ],
  [
   0.4808492362499237,
   1.7314832210540771,
   1.460446834564209,
   -2.487022876739502
  ],
  [
   -1.8426119089126587,
   -2.9991376399993896,
   2.2139017581939697,
   -0.6168866753578186
  ],
  [
   0.7186104655265808,
   -0.32549193501472473,
   -1.4623771905899048,
   2.2086517810821533
  ],
  [
   0.13568347692489624,
   -0.09628378599882126,
   4.625797271728516,
   0.22711755335330963
  ],
  [
   -1.0545746088027954,
   4.4297943115234375,
   0.4509805738925934,
   -1.8770045042037964
  ],
  [
   2.1463193893432617,
   0.48276662826538086,
   1.4649899005889893,
   1.4857709407806396
  ],
  [
   1.507755994796753,
   2.6880407333374023,
   -0.4921586811542511,
   2.489078998565674
  ],
  [
   -0.7301759719848633,
   -0.04929181933403015,
   1.7115498781204224,
   -0.38864123821258545
  ],
  [
   0.37470772862434387,
   -0.3210790753364563,
   1.2142689228057861,
   1.5241233110427856
  ],
  [
   0.7393672466278076,
   3.5857787132263184,
   0.4402170479297638,
   -1.3591746091842651
  ],
  [
   1.8564764261245728,
   -0.6989226937294006,
   -1.0717889070510864,
   -1.9720674753189087
  ],
  [
   2.105462074279785,
   5.26427698135376,
   -3.481969118118286,
   0.12942363321781158
  ],
  [
   0.4601576328277588,
   3.7558200359344482,
   -1.644457221031189,
   -0.8327016234397888
  ],
  [
   0.8679605722427368,
   1.9954540729522705,
   -0.010282403789460659,
   2.9019691944122314
  ],
  [
   4.249240398406982,
   -0.44144248962402344,
   -0.3624924421310425,
   1.2517812252044678
  ],
  [
   -1.6452281475067139,
   -0.6006630063056946,
   2.447840452194214,
   -2.464494228363037
  ],
  [
   1.648295521736145,
   2.2418007850646973,
   -0.07634579390287399,
   0.4686835706233978
  ],
  [
   -1.0889331102371216,
   -0.6690959930419922,
   4.574718475341797,
   -1.050888180732727
  ],
  [
   -4.470278263092041,
   1.6427497863769531,
   -1.4301248788833618,
   -1.1530852317810059
  ],
  [
   0.4584874212741852,
   -0.23100097477436066,
   -0.4534456133842468,
   -3.8226816654205322
  ],
  [
   -1.8985097408294678,
   -0.22509877383708954,
   -2.633916139602661,
   -0.41526636481285095
  ],
  [
   1.086457371711731,
   1.7263550758361816,
   -0.35657668113708496,
   -0.5245615243911743
  ],
  [
   -0.31188875436782837,
   -3.576639413833618,
   0.39456480741500854,
   -1.2952322959899902
  ]
 ],
 "pi.0.bias": [
  3.9603376388549805,
  0.55790114402771,
  1.1914633512496948,
  1.915591835975647,
  -0.367940753698349,
  6.801912784576416,
  1.3414840698242188,
  -0.6770257353782654,
  3.668900966644287,
  3.9959938526153564,
  -1.4814714193344116,
  -6.025310039520264,
  2.0423583984375,
  -3.1412198543548584,
  3.5738935470581055,
  3.228181838989258,
  -3.021768808364868,
  4.999727249145508,
  2.4887430667877197,
  0.5271978974342346,
  2.9233956336975098,
  -3.769841194152832,
  -3.0429983139038086,
  -3.1011407375335693,
  -1.5073707103729248,
  -1.2029091119766235,
  3.1400911808013916,
  3.6311709880828857,
  1.984429121017456,
  3.5764715671539307,
  2.1157426834106445,
  5.574405193328857,
  2.719571113586426,
  0.3058534562587738,
  -4.429518222808838,
  2.524085283279419,
  -5.449467658996582,
  2.1912636756896973,
  -1.732381820678711,
  1.3882254362106323,
  -3.2884345054626465,
  8.1491060256958,
  3.240145683288574,
  4.630630970001221,
  1.2684518098831177,
  -2.361276626586914,
  5.312673091888428,
  2.686427116394043,
  2.643678903579712,
  3.199603796005249,
  1.2279077768325806,
  6.705589294433594,
  -4.789215564727783,
  2.494097948074341,
  -2.1975414752960205,
  -0.9855542182922363,
  4.704076290130615,
  -0.44683146476745605,
  -1.1714988946914673,
  -3.135617256164551,
  -0.2565048635005951,
  -3.531003713607788,
  -0.1010228618979454,
  -2.3275251388549805,
  1.5371290445327759,
  -1.944114327430725,
  -3.5966153144836426,
  -5.476782321929932,
  4.903674602508545,
  4.13194465637207,
  1.521471619606018,
  -1.3443671464920044,
  2.251100778579712,
  0.46262797713279724,
  -3.482917070388794,
  -0.2549378573894501,
  7.324758529663086,
  -1.0859042406082153,
  -5.731503963470459,
  2.5682268142700195,
  2.636763095855713,
  -0.5722706913948059,
  3.5401175022125244,
  0.018160225823521614,
  2.3336825370788574,
  3.2875494956970215,
  1.1444612741470337,
  2.121704578399658,
  2.8837833404541016,
  2.9203848838806152,
  1.4881596565246582,
  1.6804487705230713,
  -2.896341562271118,
  4.833176612854004,
  -2.3236138820648193,
  0.8173274993896484,
  -2.2833821773529053,
  -3.164651393890381,
  -1.2291196584701538,
  -3.7821645736694336,
  2.6646125316619873,
  2.385497570037842,
  5.542752742767334,
  3.960899829864502,
  2.738330841064453,
  3.8976001739501953,
  3.092632532119751,
  -1.8724238872528076,
  2.6038262844085693,
  -4.106131076812744,
  1.5144429206848145,
  2.3050761222839355,
  5.23759651184082,
  4.855938911437988,
  3.9219298362731934,
  1.5850532054901123,
  -3.7486538887023926,
  0.3407001197338104,
  -3.1960747241973877,
  4.624736309051514,
  0.014247672632336617,
  2.048780918121338,
  0.14820347726345062,
  0.5736523866653442,
  6.923245429992676,
  -4.557546138763428,
  0.904458224773407,
  -0.007729840464890003,
  0.923699140548706,
  1.2113443613052368,
  2.970749855041504,
  -3.521653652191162,
  -1.3884342908859253,
  4.474777698516846,
  1.6767078638076782,
  0.6157256960868835,
  1.015999674797058,
  -2.7250397205352783,
  0.7817755341529846,
  -2.4847218990325928,
  -0.866990327835083,
  -1.779200792312622,
  -1.0960760116577148,
  -0.2968030869960785,
  0.7924438714981079,
  2.3484723567962646,
  -4.376716613769531,
  -3.366878032684326,
  2.4185967445373535,
  1.1531234979629517,
  -0.9036206603050232,
  0.5593236684799194,
  6.424476623535156,
  -3.952280282974243,
  5.333138942718506,
  -5.744228839874268,
  -2.9060189723968506,
  -3.889469623565674,
  -3.900095224380493,
  -1.103028655052185,
  -3.928881883621216,
  0.17864453792572021,
  -1.2739115953445435,
  0.8797412514686584,
  2.2266204357147217,
  0.19491106271743774,
  6.124444007873535,
  1.520073652267456,
  2.805506467819214,
  -0.6946389079093933,
  -1.5415393114089966,
  -1.2166441679000854,
  2.187138557434082,
  4.245523452758789,
  0.2158183455467224,
  2.1431374549865723,
  3.389113187789917,
  3.6197597980499268,
  -0.4986349940299988,
  0.3574961721897125,
  0.1836274415254593,
  -0.19343392550945282,
  -1.998364806175232,
  0.14536702632904053,
  3.9169626235961914,
  5.195920467376709,
  -1.3262176513671875,
  0.5798901915550232,
  1.3973002433776855,
  1.5490645170211792,
  -2.9537675380706787,
  -0.2532308101654053,
  -1.89541757106781,
  4.269484043121338,
  -1.9790385961532593,
  0.625501811504364,
  2.0530853271484375,
  -2.101253032684326,
  -5.3301472663879395,
  3.612858295440674
 ],
 "pi.2.weight": [
  [
   -0.7540813684463501,
   -0.8317447900772095,
   -0.14812175929546356,
   -0.20723973214626312,
   0.0405145138502121,
   -0.368055522441864,
   -0.17939825356006622,
   -0.1300961971282959,
   -0.4172729253768921,
   -0.27389010787010193,
   -0.0011091852793470025,
   -0.3767562806606293,
   -0.3686968982219696,
   -0.19427405297756195,
   -0.24716785550117493,
   -0.8106467723846436,
   0.059492968022823334,
   -0.04596618935465813,
   -0.30104729533195496,
   -0.2118270993232727,
   0.04496435448527336,
   -0.22928032279014587,
   -0.3238210380077362,
   0.10542739182710648,
   0.03238288313150406,
   0.11973351240158081,
   -0.1779545396566391,
   -0.12629111111164093,
   -0.4417237639427185,
   -0.14439889788627625,
   -0.014332419261336327,
   -0.14529761672019958,
   -0.0803709477186203,
   -0.24421003460884094,
   -0.02799106575548649,
   0.04371396824717522,
   -0.2408052235841751,
   -0.46199604868888855,
   -0.5309320092201233,
   0.03878679499030113,
   -0.1851917803287506,
   -0.25641587376594543,
   -0.11308511346578598,
   0.0067055122926831245,
   -0.10729816555976868,
   -0.2441781908273697,
   -0.5539567470550537,
   -0.09132689237594604,
   -0.43022260069847107,
   -0.5062947273254395,
   -0.19581793248653412,
   -0.4212619960308075,
   -0.36398202180862427,
   0.3039737641811371,
   -0.11511518806219101,
   -0.4439307749271393,
   -0.3692988157272339,
   -0.4554910659790039,
   -0.30807793140411377,
   -0.05022949352860451,
   0.07683993130922318,
   -0.21626758575439453,
   -0.1290329545736313,
   -0.062657430768013,
   -0.5920876264572144,
   -0.3039645552635193,
   -0.06021690368652344,
   0.13354641199111938,
   -0.4695999324321747,
   -0.09204744547605515,
   -0.1664903610944748,
   -0.5502926111221313,
   -0.29730767011642456,
   -0.02921845205128193,
   -0.006546408869326115,
   -0.2722614109516144,
   -0.2713758647441864,
   -0.09789559990167618,
   -0.10291808843612671,
   -0.15870822966098785,
   -0.14231915771961212,
   0.1760917752981186,
   -0.16096414625644684,
   -0.02513674832880497,
   -0.4789830148220062,
   -0.14859704673290253,
   -0.06943336129188538,
   -0.5970415472984314,
   -0.016361325979232788,
   -0.5675779581069946,
   -0.2334517240524292,
   -0.22969241440296173,
   -0.3244662880897522,
   -0.0941406860947609,
   -0.07859691977500916,
   -0.002603329950943589,
   -0.06638875603675842,
   -0.24519965052604675,
   -0.4976411759853363,
   -0.03684490919113159,
   -0.08405162394046783,
   -0.12743854522705078,
   -0.31562671065330505,
   0.10382270812988281,
   -0.48914340138435364,
   -0.13782526552677155,
   -0.12637686729431152,
   -0.7118833661079407,
   0.10272236168384552,
   -0.07666817307472229,
   -0.4874967336654663,
   -0.08581093698740005,
   -0.13446347415447235,
   0.0888390839099884,
   -0.2031823843717575,
   -0.20866714417934418,
   -0.2732226848602295,
   -0.28041625022888184,
   -0.13837578892707825,
   -0.15639187395572662,
   -0.06879373639822006,
   -0.4128713309764862,
   -0.003610403509810567,
   -0.3796193301677704,
   -0.39836353063583374,
   -0.08476877957582474,
   -0.20524004101753235,
   -0.9865804314613342,
   -0.15026092529296875,
   -0.2508341372013092,
   -0.39611396193504333,
   -0.23974132537841797,
   -0.2632809579372406,
   -0.23109889030456543,
   -0.0962800681591034,
   -0.5662022829055786,
   -0.14455187320709229,
   -0.6276920437812805,
   0.014066291972994804,
   -0.24178548157215118,
   -0.2614183723926544,
   -0.7071489095687866,
   -0.05819380655884743,
   -0.532731831073761,
   -0.25125110149383545,
   -0.40120047330856323,
   -0.12218967825174332,
   0.17199654877185822,
   -0.44313371181488037,
   -0.10366005450487137,
   -0.47764894366264343,
   -0.20412707328796387,
   -0.3508753478527069,
   -0.1425057202577591,
   -0.013347718864679337,
   -0.27801182866096497,
   -0.31734582781791687,
   -0.2877427935600281,
   -0.06121111288666725,
   -0.3362235426902771,
   -0.23350948095321655,
   -0.545488178730011,
   -0.03877965360879898,
   0.12375200539827347,
   -0.0864306092262268,
   -0.24829624593257904,
   -0.1874903291463852,
   -0.17820602655410767,
   -0.07553555071353912,
   0.028214246034622192,
   -0.171014666557312,
   0.19361574947834015,
   -0.3008076846599579,
   0.0779498964548111,
   -0.029377490282058716,
   -0.12460654973983765,
   -0.13752363622188568,
   -0.6276935935020447,
   -0.20412683486938477,
   0.22735008597373962,
   -0.30153629183769226,
   -0.19755299389362335,
   -0.22295285761356354,
   -0.2019939124584198,
   -0.32468485832214355,
   -0.43648508191108704,
   -0.21070444583892822,
   -0.22454506158828735,
   0.30724114179611206,
   -0.8090313076972961,
   -0.02290208451449871,
   -0.06078306585550308,
   -0.12723128497600555,
   0.5309652090072632,
   -0.024255670607089996,
   -0.24036353826522827,
   -0.12412919849157333,
   -0.05239243432879448,
   0.17816272377967834,
   -0.3160475790500641
  ],
  [
   -0.44000348448753357,
   -1.277894139289856,
   -0.14419999718666077,
   0.4288691282272339,
   -0.03779047727584839,
   -0.2599630355834961,
   0.8552042245864868,
   -0.853527307510376,
   -0.6175958514213562,
   0.5808605551719666,
   -1.0593003034591675,
   -0.45950478315353394,
   0.104385145008564,
   -0.268503874540329,
   -0.804538905620575,
   -1.1993671655654907,
   0.590012788772583,
   -1.7497344017028809,
   0.190880686044693,
   0.22765710949897766,
   0.09762755036354065,
   -0.8400142192840576,
   1.163602590560913,
   -1.656468152999878,
   -0.06356816738843918,
   0.5441390872001648,
   0.05175952985882759,
   0.039141420274972916,
   1.1184462308883667,
   0.035651203244924545,
   0.058533187955617905,
   0.11124157905578613,
   -1.1641719341278076,
   0.05477391555905342,
   -0.30903178453445435,
   -1.571547508239746,
   -0.3069419264793396,
   -0.5498027205467224,
   -1.040369987487793,
   1.465741515159607,
   -0.23128773272037506,
   -0.6042091250419617,
   0.4210219383239746,
   0.08512815088033676,
   -0.1360286921262741,
   -0.5525689721107483,
   -0.8957440257072449,
   0.2649235427379608,
   0.1119900569319725,
   0.39219605922698975,
   -0.09725145995616913,
   -0.17126362025737762,
   -1.2357431650161743,
   1.3169066905975342,
   -2.4798038005828857,
   0.6309418082237244,
   1.2616366147994995,
   -1.5415242910385132,
   -0.26547712087631226,
   2.1754822731018066,
   0.09344814717769623,
   1.176708459854126,
   -0.030371369794011116,
   0.544987678527832,
   -0.677793562412262,
   -3.0367212295532227,
   -0.49206075072288513,
   1.590384840965271,
   0.504939615726471,
   1.6080896854400635,
   0.15844649076461792,
   -0.42795470356941223,
   0.8112004399299622,
   0.9284050464630127,
   0.3784898519515991,
   -0.04525173455476761,
   1.086277961730957,
   0.6779538989067078,
   -4.806876182556152,
   1.4356834888458252,
   -0.16855987906455994,
   -0.9187262058258057,
   0.7786146998405457,
   -0.1256120353937149,
   0.8760221004486084,
   0.7140756845474243,
   -0.8352281451225281,
   0.3550083339214325,
   0.022781433537602425,
   -0.6581634283065796,
   0.9858402609825134,
   0.665492057800293,
   -1.7000306844711304,
   0.6160132884979248,
   -3.3837852478027344,
   0.4849139451980591,
   0.2648750841617584,
   -0.1563984900712967,
   -1.2056739330291748,
   -0.30468127131462097,
   -2.584211587905884,
   0.015307747758924961,
   -0.2062893658876419,
   0.7252383828163147,
   0.3355009853839874,
   -2.025926351547241,
   -1.3712257146835327,
   -1.2466821670532227,
   -1.0405104160308838,
   0.4114859700202942,
   2.0201528072357178,
   1.1910890340805054,
   2.8862037658691406,
   0.5644206404685974,
   0.8422513604164124,
   -1.7214044332504272,
   -1.4772820472717285,
   -0.2705857753753662,
   -0.5821964740753174,
   0.19310399889945984,
   0.7571924924850464,
   -0.8654142022132874,
   0.07497433573007584,
   -0.5797276496887207,
   0.6323873996734619,
   -0.5367630124092102,
   1.7677842378616333,
   -1.4274563789367676,
   -0.263023316860199,
   0.1170591413974762,
   -0.19918318092823029,
   -1.5791558027267456,
   -0.006906439084559679,
   -0.5025740265846252,
   1.6104083061218262,
   0.43219998478889465,
   -0.2868035137653351,
   -0.6941710114479065,
   -1.5431630611419678,
   -0.6640259027481079,
   -0.12336026877164841,
   1.2603490352630615,
   -0.4076283872127533,
   -0.6495595574378967,
   0.4003554582595825,
   -1.308944821357727,
   0.06273970007896423,
   0.6132938265800476,
   -1.3216477632522583,
   -0.20866496860980988,
   -1.1688998937606812,
   -0.4247201085090637,
   -0.13298766314983368,
   -1.8921273946762085,
   1.109368085861206,
   -2.2128710746765137,
   0.21195359528064728,
   -0.19918513298034668,
   -0.6731506586074829,
   0.6712111234664917,
   0.8590914607048035,
   1.2144980430603027,
   -0.5915075540542603,
   0.26847320795059204,
   -1.7431590557098389,
   -0.7440606355667114,
   -1.423592448234558,
   -0.2353132963180542,
   0.87559574842453,
   -1.2454214096069336,
   -1.8284111022949219,
   1.2237811088562012,
   0.08799387514591217,
   -0.06382697820663452,
   -0.06267740577459335,
   -1.0925606489181519,
   0.6414381265640259,
   -0.2391682118177414,
   -1.1277801990509033,
   0.14944861829280853,
   0.12460639327764511,
   0.9356016516685486,
   0.6756792068481445,
   -0.653846800327301,
   -0.27427783608436584,
   -0.6242579221725464,
   -0.9608083367347717,
   0.7862364053726196,
   -0.09795977920293808,
   0.4851222634315491,
   1.2264299392700195,
   1.8462152481079102,
   0.24655954539775848,
   -0.2209273725748062,
   -0.09633094072341919,
   -0.5018860101699829,
   -1.030522346496582,
   -0.12057837843894958,
   0.08821257203817368,
   -1.3165041208267212
  ],
  [
   -0.6499130129814148,
   0.8722283840179443,
   -0.23788094520568848,
   -1.0434049367904663,
   0.872369110584259,
   -1.0684884786605835,
   0.49240925908088684,
   0.3173171281814575,
   -0.14457491040229797,
   0.5461437106132507,
   -0.5397518873214722,
   -1.362235426902771,
   -0.5389029383659363,
   -0.6071491837501526,
   -2.932727813720703,
   -0.03926672041416168,
   0.08038002252578735,
   -0.08740214258432388,
   0.16033180058002472,
   0.21513567864894867,
   0.04259374737739563,
   0.04056466370820999,
   0.3528323471546173,
   -1.3757051229476929,
   -0.05578364059329033,
   1.3561407327651978,
   -0.21219511330127716,
   0.03909941762685776,
   -0.2661018669605255,
   -0.14107373356819153,
   0.01885056495666504,
   -0.36543259024620056,
   0.2142762839794159,
   -0.48645398020744324,
   1.7369444370269775,
   0.6311324238777161,
   -2.2663304805755615,
   -1.006853461265564,
   0.3398696482181549,
   0.4239397943019867,
   -0.8040459752082825,
   -0.5411962866783142,
   1.5735359191894531,
   0.5038131475448608,
   -0.1733240932226181,
   0.17320401966571808,
   0.2509792447090149,
   -0.04871302470564842,
   -0.5671062469482422,
   1.7017521858215332,
   0.893031895160675,
   -0.11091286689043045,
   -1.5430262088775635,
   -0.4731232523918152,
   -1.1937463283538818,
   0.3262381851673126,
   0.026079069823026657,
   0.5792878270149231,
   0.22164799273014069,
   0.5082597136497498,
   0.42664244771003723,
   -0.2578669786453247,
   0.49309349060058594,
   -0.07211968302726746,
   -0.006869208998978138,
   1.0790941715240479,
   1.195360541343689,
   0.7108734846115112,
   0.743335485458374,
   1.1340599060058594,
   -0.21292322874069214,
   -0.20002876222133636,
   -0.3055732548236847,
   0.02742687612771988,
   -0.9858571290969849,
   -0.3120994567871094,
   0.12296951562166214,
   -0.309580534696579,
   -0.035396985709667206,
   0.49030449986457825,
   0.10932833701372147,
   0.5676645636558533,
   -0.17754434049129486,
   -0.32495740056037903,
   -0.33751028776168823,
   0.4248262643814087,
   0.04990600422024727,
   0.27586641907691956,
   -0.1445363163948059,
   -0.2380393147468567,
   1.9505149126052856,
   0.1161399707198143,
   -1.058761477470398,
   -1.8063864707946777,
   0.520382285118103,
   0.1902574598789215,
   -0.9891425967216492,
   -0.09541986137628555,
   -0.7931256890296936,
   -0.05539470911026001,
   0.40291285514831543,
   0.10059582442045212,
   -0.4085783064365387,
   -0.1466032862663269,
   -0.02803485095500946,
   -0.7420462369918823,
   -0.09302793443202972,
   -0.6260084509849548,
   0.2211761474609375,
   0.86468106508255,
   -0.29923826456069946,
   0.1658172756433487,
   -1.0897942781448364,
   -0.9089818000793457,
   -0.7207172513008118,
   -0.6314851641654968,
   -0.15238693356513977,
   0.09392116963863373,
   -0.5372475385665894,
   -0.40157076716423035,
   0.4652741253376007,
   0.916224479675293,
   1.3595869541168213,
   0.8231008648872375,
   0.4141606390476227,
   -1.4701751470565796,
   -0.030595693737268448,
   -0.32294517755508423,
   0.12470091134309769,
   0.5713316798210144,
   -1.0187190771102905,
   -2.0731422901153564,
   -0.5323575139045715,
   -1.7695056200027466,
   -0.2844867408275604,
   -0.6369398832321167,
   -0.17393538355827332,
   0.2880381643772125,
   0.3470662534236908,
   -1.3786485195159912,
   0.05201563611626625,
   -1.8125731945037842,
   1.0488910675048828,
   -0.4266452193260193,
   0.31202203035354614,
   0.5751793384552002,
   0.3256166875362396,
   0.9116936922073364,
   -0.11537584662437439,
   -0.36321353912353516,
   0.8597814440727234,
   -0.8454667925834656,
   -3.896183490753174,
   1.718215823173523,
   0.9894258975982666,
   -1.3370050191879272,
   -0.8601528406143188,
   -0.45895469188690186,
   3.1240625381469727,
   0.3208119869232178,
   0.5263579487800598,
   0.7143745422363281,
   -0.27758193016052246,
   0.30428019165992737,
   0.4224480390548706,
   -0.13239088654518127,
   -0.6761384010314941,
   0.039173778146505356,
   0.5108717083930969,
   0.5884191989898682,
   0.15934062004089355,
   0.04371365159749985,
   -0.2853807210922241,
   0.11095636337995529,
   0.14895392954349518,
   -0.31070810556411743,
   -2.267512321472168,
   -0.17092706263065338,
   0.3753657042980194,
   0.8566924929618835,
   0.7089110612869263,
   1.5417224168777466,
   -0.029675839468836784,
   -0.008229495957493782,
   0.03819814696907997,
   0.04836823418736458,
   0.9857744574546814,
   0.19246572256088257,
   0.3721892237663269,
   0.525193989276886,
   -0.43172362446784973,
   0.9606084227561951,
   0.024144941940903664,
   0.15767352283000946,
   1.338514804840088,
   -1.1669422388076782,
   -1.8600910902023315,
   1.912343144416809,
   0.5589675307273865,
   1.371551513671875
  ],
  [
   0.4548373520374298,
   -2.6917736530303955,
   -1.8272005319595337,
   -0.020440028980374336,
   0.21310031414031982,
   0.6892526745796204,
   0.14025063812732697,
   -0.6196557879447937,
   -0.4314737617969513,
   -0.5930902361869812,
   0.9741442799568176,
   -0.7602110505104065,
   -1.8738974332809448,
   0.47192996740341187,
   -0.09181766211986542,
   -0.8506239652633667,
   -0.0594848170876503,
   0.040927913039922714,
   0.20478253066539764,
   0.2269051969051361,
   -1.7799018621444702,
   0.9973452687263489,
   -0.12911047041416168,
   2.7991116046905518,
   -0.5406029224395752,
   0.564708411693573,
   0.04307878017425537,
   0.025357753038406372,
   -0.27899351716041565,
   0.8911401629447937,
   0.19716526567935944,
   -0.14756549894809723,
   0.12908126413822174,
   -0.7761096954345703,
   1.5079948902130127,
   -0.25132906436920166,
   0.702932596206665,
   2.452683687210083,
   -2.9080512523651123,
   0.022133633494377136,
   0.6821133494377136,
   -0.7722264528274536,
   1.2479968070983887,
   0.8299151659011841,
   0.09087682515382767,
   -0.6880441904067993,
   -0.8340368866920471,
   0.8510668277740479,
   -0.21775777637958527,
   0.5936468243598938,
   -2.0758440494537354,
   -0.17305909097194672,
   -0.9453966617584229,
   0.16518034040927887,
   -0.3515552580356598,
   -1.1773744821548462,
   2.115172863006592,
   -0.2943496108055115,
   -0.7354943752288818,
   0.2572409212589264,
   0.3741118609905243,
   -0.33470284938812256,
   0.3564865291118622,
   0.33712610602378845,
   -1.6692625284194946,
   -0.7402339577674866,
   0.8644768595695496,
   2.4705810546875,
   -0.10426116734743118,
   0.1307326853275299,
   1.3784561157226562,
   -2.133193254470825,
   -0.7837238907814026,
   0.48925185203552246,
   0.38111424446105957,
   1.1445519924163818,
   -0.2750684916973114,
   0.16277675330638885,
   1.4070104360580444,
   -0.029188066720962524,
   0.34198734164237976,
   0.4834395945072174,
   -0.5729190111160278,
   -0.8530580997467041,
   0.2518146336078644,
   -0.12262633442878723,
   -0.12445416301488876,
   -0.7065261602401733,
   -1.8936595916748047,
   -3.2828807830810547,
   -0.1435413658618927,
   2.0763418674468994,
   -0.6678204536437988,
   -0.44465482234954834,
   0.9654226899147034,
   1.6036087274551392,
   0.6571774482727051,
   -0.30908292531967163,
   -0.20094144344329834,
   -1.0199791193008423,
   0.6955488324165344,
   -0.6313629746437073,
   -0.5598905682563782,
   0.12274497747421265,
   -0.9233588576316833,
   0.251842737197876,
   0.15002582967281342,
   -1.4106048345565796,
   0.7966455817222595,
   0.3138850927352905,
   -0.17160740494728088,
   0.38800761103630066,
   -1.135170817375183,
   1.0287199020385742,
   -1.6266303062438965,
   0.6615936756134033,
   0.7137935161590576,
   0.2096293866634369,
   0.4738095700740814,
   -0.05771175026893616,
   1.2476671934127808,
   1.9731945991516113,
   1.0585297346115112,
   0.13221463561058044,
   -0.7396625876426697,
   0.6702340841293335,
   -0.1260981559753418,
   -1.3832978010177612,
   0.5628917813301086,
   -0.12927274405956268,
   0.7349257469177246,
   1.1866284608840942,
   -1.038901686668396,
   0.3969133198261261,
   0.1802135705947876,
   -2.178250551223755,
   -0.47283583879470825,
   0.8551660776138306,
   -0.3159763813018799,
   -0.5816724896430969,
   -0.07382425665855408,
   -3.291779041290283,
   0.5826285481452942,
   -0.030144667252898216,
   0.15359041094779968,
   -0.47686755657196045,
   -0.2434024214744568,
   1.2978849411010742,
   1.2944328784942627,
   -0.506359338760376,
   -0.7828102707862854,
   0.4929801821708679,
   -0.08279752731323242,
   -0.578687846660614,
   -1.4324934482574463,
   -1.2474842071533203,
   -1.0868182182312012,
   -1.626975417137146,
   0.6823688745498657,
   0.7593854069709778,
   -0.02298222854733467,
   -0.6344045400619507,
   -0.3805810213088989,
   -0.20776693522930145,
   1.1541740894317627,
   -0.17913825809955597,
   1.0485419034957886,
   0.6711790561676025,
   -3.909191370010376,
   -0.04444170743227005,
   0.5675911903381348,
   -4.584024906158447,
   0.15797588229179382,
   0.4892732501029968,
   0.0700165182352066,
   0.13129352033138275,
   0.4454940855503082,
   -0.35453352332115173,
   -0.20333553850650787,
   -0.5358712077140808,
   0.8649727702140808,
   -0.849951982498169,
   -0.35689979791641235,
   -1.145914077758789,
   0.05737427994608879,
   -0.01243373192846775,
   -0.021814677864313126,
   -0.5469254851341248,
   -0.674771249294281,
   -3.8230884075164795,
   0.26059675216674805,
   0.29123455286026,
   0.5439154505729675,
   0.9455170035362244,
   0.1514347940683365,
   -0.468974769115448,
   -0.2723204493522644,
   -0.7442775964736938,
   1.992256760597229,
   -0.4273754358291626
  ],
  [
   0.3364766836166382,
   -1.6879713535308838,
   0.4306929409503937,
   0.7204761505126953,
   2.409137725830078,
   1.6031486988067627,
   0.40872371196746826,
   -0.29783257842063904,
   0.5197474956512451,
   0.40436822175979614,
   -0.746906042098999,
   -0.42854058742523193,
   0.3902609050273895,
   1.0101327896118164,
   0.6259424686431885,
   0.27073174715042114,
   -0.25921282172203064,
   1.1975302696228027,
   -1.0895535945892334,
   -0.1331213414669037,
   0.6862147450447083,
   -0.4879961609840393,
   -0.10846954584121704,
   0.5297366976737976,
   0.7811352610588074,
   0.13308261334896088,
   0.12653383612632751,
   1.3319743871688843,
   0.7854564785957336,
   2.8937270641326904,
   -0.342877596616745,
   0.31629663705825806,
   -0.13885745406150818,
   -0.0024988388177007437,
   -0.8168209195137024,
   0.8265852332115173,
   0.12145425379276276,
   -0.5997418761253357,
   2.2646844387054443,
   0.09675158560276031,
   0.6343109011650085,
   1.1129862070083618,
   -0.17312157154083252,
   0.2812897562980652,
   -0.7618318200111389,
   0.708310604095459,
   0.6076879501342773,
   -1.2245734930038452,
   0.11279943585395813,
   0.3329600989818573,
   2.7704360485076904,
   1.5748562812805176,
   5.148580074310303,
   0.6614100933074951,
   -0.4976327121257782,
   -0.36449381709098816,
   -1.0368916988372803,
   -1.3097996711730957,
   -0.6660658717155457,
   0.13578559458255768,
   -0.6053875684738159,
   -0.05809973180294037,
   1.4037801027297974,
   -1.7308467626571655,
   0.18774013221263885,
   1.3546475172042847,
   -1.4527595043182373,
   0.3247701823711395,
   1.296732783317566,
   -0.34833672642707825,
   0.4525914192199707,
   -1.1507222652435303,
   0.2755928039550781,
   0.17857402563095093,
   -0.412068247795105,
   -0.23078396916389465,
   -0.025742243975400925,
   -0.14700616896152496,
   -0.8677564263343811,
   -0.2345188558101654,
   1.9485660791397095,
   -1.0372692346572876,
   0.4173080027103424,
   -1.0375415086746216,
   -0.5512539744377136,
   -0.8110739588737488,
   -0.2673773467540741,
   2.95914626121521,
   -0.8318233489990234,
   1.1179463863372803,
   -0.17720036208629608,
   0.9617554545402527,
   0.3322836458683014,
   -1.1414138078689575,
   -0.19724538922309875,
   -0.4022558927536011,
   -1.66344153881073,
   -1.399342656135559,
   1.1579409837722778,
   -0.7609593272209167,
   0.15206758677959442,
   -0.16325804591178894,
   0.966759979724884,
   0.16988158226013184,
   0.07801244407892227,
   0.5911474227905273,
   -0.4133778214454651,
   -0.17051641643047333,
   0.6837156414985657,
   0.11833100020885468,
   0.0661996379494667,
   0.4936158061027527,
   0.6951591968536377,
   0.7857270836830139,
   1.500704050064087,
   -0.14485269784927368,
   -0.23623216152191162,
   0.006885600741952658,
   -1.408642292022705,
   -1.1113892793655396,
   -0.513331413269043,
   -0.8729597926139832,
   0.5340735912322998,
   0.006379514001309872,
   0.025833090767264366,
   1.7561655044555664,
   -0.4754723906517029,
   -0.7589794993400574,
   -0.535639762878418,
   -0.6454976797103882,
   -0.1278102695941925,
   -1.0435084104537964,
   -0.38863810896873474,
   0.5244583487510681,
   0.33215945959091187,
   0.9843011498451233,
   0.36928820610046387,
   0.8067071437835693,
   -0.6504708528518677,
   -0.28220072388648987,
   0.2483552247285843,
   -0.7514133453369141,
   -0.286508172750473,
   0.5693842172622681,
   0.28216421604156494,
   -0.26516249775886536,
   -0.47903674840927124,
   -1.3602068424224854,
   -1.018812656402588,
   0.1267106533050537,
   0.049270760267972946,
   -0.22268392145633698,
   0.1287369728088379,
   -0.470517098903656,
   -0.2580503523349762,
   -2.0901036262512207,
   -0.3645484447479248,
   -1.6214261054992676,
   1.129926323890686,
   2.0306310653686523,
   -0.05721675977110863,
   0.0023999714758247137,
   -0.371985524892807,
   -0.8062953948974609,
   -0.2367471605539322,
   0.22132524847984314,
   2.7375285625457764,
   -1.555426836013794,
   2.038057804107666,
   -0.07936758548021317,
   0.710934042930603,
   1.8871159553527832,
   -0.5714806318283081,
   -0.6567509174346924,
   -0.4185742139816284,
   0.6007848381996155,
   1.4748430252075195,
   0.002697948832064867,
   -0.6704564690589905,
   2.3596739768981934,
   -1.0734450817108154,
   -0.23699985444545746,
   -0.7980470657348633,
   2.106112241744995,
   -0.05893246456980705,
   0.7174288630485535,
   -1.00105619430542,
   0.39334070682525635,
   0.2954834997653961,
   -1.1171602010726929,
   0.7266479730606079,
   -0.308736115694046,
   -0.5411715507507324,
   1.139127254486084,
   -0.5289836525917053,
   -0.37735307216644287,
   0.13145221769809723,
   0.26546335220336914,
   1.4764574766159058,
   0.5315085649490356
  ],
  [
   -0.49275463819503784,
   -0.4428521692752838,
   -0.12884120643138885,
   -0.08541564643383026,
   0.20071488618850708,
   -0.10757585614919662,
   -0.15305794775485992,
   -0.13998833298683167,
   -0.3486423194408417,
   -0.07483665645122528,
   -0.20351043343544006,
   -0.10942614823579788,
   -0.49884048104286194,
   -0.26415130496025085,
   -0.3049657344818115,
   -0.21943402290344238,
   -0.13557931780815125,
   0.018011080101132393,
   -0.2300998568534851,
   -0.2754354178905487,
   -0.24765603244304657,
   -0.21275070309638977,
   -0.29667261242866516,
   0.09073945879936218,
   0.09947265684604645,
   0.2303493320941925,
   0.0016425298526883125,
   -0.05249344930052757,
   -0.2654549777507782,
   -0.2150520533323288,
   -0.11669572442770004,
   0.046404652297496796,
   -0.3081522583961487,
   -0.1933891773223877,
   -0.18209482729434967,
   0.001170953968539834,
   -0.1609509289264679,
   -0.3580463230609894,
   -0.2843710780143738,
   -0.08193967491388321,
   -0.12333540618419647,
   -0.2983332872390747,
   -0.05843139439821243,
   0.12617212533950806,
   -0.16822758316993713,
   -0.19097834825515747,
   -0.42648857831954956,
   -0.12623287737369537,
   -0.26032474637031555,
   -0.6134814023971558,
   -0.13210323452949524,
   -0.2226129174232483,
   -0.29878100752830505,
   0.24965180456638336,
   -0.0747348740696907,
   0.04835366830229759,
   -0.27318528294563293,
   -0.45804423093795776,
   -0.260097861289978,
   -0.014649534597992897,
   0.16748327016830444,
   -0.22799070179462433,
   -0.0897611454129219,
   -0.22477957606315613,
   -0.33074596524238586,
   -0.10182946920394897,
   -0.3040599226951599,
   0.13102224469184875,
   -0.5015447735786438,
   -0.26605457067489624,
   -0.11906018853187561,
   -0.11614303290843964,
   -0.49330273270606995,
   0.07680218666791916,
   -0.16893035173416138,
   -0.182589590549469,
   -0.13987615704536438,
   -0.04660475626587868,
   -0.2763729989528656,
   -0.20085498690605164,
   -0.10320676118135452,
   0.15561923384666443,
   -0.25209251046180725,
   0.003691306570544839,
   -0.18219348788261414,
   -0.1588427722454071,
   -0.17246997356414795,
   -0.4119817018508911,
   -0.09797890484333038,
   -0.34190133213996887,
   -0.1954791098833084,
   -0.20110982656478882,
   -0.20931968092918396,
   -0.13627798855304718,
   -0.16035132110118866,
   -0.12419180572032928,
   -0.01280503161251545,
   -0.12673434615135193,
   -0.5231297612190247,
   -0.05595063790678978,
   -0.38484594225883484,
   -0.15616492927074432,
   -0.43985626101493835,
   0.06482762098312378,
   -0.3701305687427521,
   -0.1061568558216095,
   -0.10190168768167496,
   -0.4804666042327881,
   0.1112527996301651,
   -0.18660682439804077,
   -0.446789026260376,
   -0.07251862436532974,
   -0.14278031885623932,
   0.009050711058080196,
   -0.06695099174976349,
   -0.20882682502269745,
   -0.1988295018672943,
   -0.17180116474628448,
   -0.12411831319332123,
   -0.1691555380821228,
   -0.16317719221115112,
   -0.176492840051651,
   -0.01610727049410343,
   -0.37759822607040405,
   -0.2095375657081604,
   -0.041052062064409256,
   -0.1308264434337616,
   -0.44892966747283936,
   -0.1376061886548996,
   -0.23470644652843475,
   -0.4817809760570526,
   -0.22043541073799133,
   -0.25219249725341797,
   -0.21824094653129578,
   -0.22918842732906342,
   -0.4623667001724243,
   -0.008598195388913155,
   -0.683690071105957,
   -0.10857132077217102,
   -0.11141815036535263,
   -0.34738802909851074,
   -0.5570266246795654,
   -0.2821570634841919,
   -0.5997165441513062,
   -0.3691902756690979,
   -0.38053393363952637,
   -0.10785976052284241,
   0.14280389249324799,
   -0.18441547453403473,
   -0.1334434449672699,
   -0.2582535445690155,
   -0.12321673333644867,
   -0.22511637210845947,
   -0.41404759883880615,
   -0.09921170026063919,
   -0.19242188334465027,
   -0.1934491991996765,
   -0.24757736921310425,
   -0.07709041237831116,
   -0.45086023211479187,
   -0.09509089589118958,
   -0.4042992889881134,
   -0.15970478951931,
   -0.1436164379119873,
   -0.02294989675283432,
   -0.20790070295333862,
   0.13180604577064514,
   -0.04319704696536064,
   0.05716588720679283,
   -0.004063252825289965,
   -0.21927551925182343,
   0.10123518854379654,
   -0.026191145181655884,
   0.17728538811206818,
   -0.22914093732833862,
   -0.19807210564613342,
   -0.1633746176958084,
   -0.6774206161499023,
   -0.2601214051246643,
   0.1755765676498413,
   -0.2596891522407532,
   -0.291613906621933,
   -0.2766861915588379,
   -0.10468611121177673,
   -0.2576994001865387,
   -0.113941490650177,
   -0.10081790387630463,
   -0.25688982009887695,
   0.1934516429901123,
   -0.6038445234298706,
   0.037036508321762085,
   0.1177307665348053,
   -0.19378721714019775,
   0.1274913102388382,
   -0.24165931344032288,
   -0.1725660115480423,
   -0.35314834117889404,
   -0.14689578115940094,
   0.04373309761285782,
   -0.2225007265806198
  ],
  [
   1.578794240951538,
   -0.47482097148895264,
   1.4733778238296509,
   -0.08017079532146454,
   -0.043161969631910324,
   0.6926141977310181,
   -0.09380540996789932,
   -0.20843935012817383,
   -0.12089964747428894,
   -0.33826833963394165,
   0.15227705240249634,
   -0.39057061076164246,
   0.045288439840078354,
   0.310630202293396,
   0.5179404616355896,
   -0.9234141111373901,
   -1.1610662937164307,
   0.9992924928665161,
   1.340674877166748,
   -0.5606265068054199,
   -0.8576857447624207,
   -0.8921825885772705,
   -1.1051219701766968,
   1.2835502624511719,
   0.31436190009117126,
   -0.3810831606388092,
   0.8294708132743835,
   -0.0019446226069703698,
   -0.28341320157051086,
   -0.03174556791782379,
   -0.4439961612224579,
   0.26762309670448303,
   0.3074483871459961,
   0.4788464307785034,
   -0.9094247221946716,
   -1.2371785640716553,
   -1.896925926208496,
   0.05218379944562912,
   -0.5259463787078857,
   0.07572545111179352,
   0.2748551070690155,
   1.9826711416244507,
   0.1299033761024475,
   -1.2040488719940186,
   0.18813593685626984,
   -1.001086711883545,
   0.4737183153629303,
   0.3802664875984192,
   -0.6713649034500122,
   -0.31976523995399475,
   -0.3176685869693756,
   0.8487631678581238,
   -0.002036642050370574,
   -0.342570960521698,
   0.5247036218643188,
   1.1536988019943237,
   -0.3982962667942047,
   -0.29286882281303406,
   2.4287075996398926,
   -0.7439587712287903,
   0.3773491680622101,
   0.46418890357017517,
   -0.346164345741272,
   -0.46027761697769165,
   0.19478733837604523,
   -1.6372162103652954,
   -1.130165934562683,
   1.2094902992248535,
   0.023186523467302322,
   0.47470521926879883,
   0.5891705751419067,
   0.8058379292488098,
   -0.4825880229473114,
   -0.1874755620956421,
   0.08396488428115845,
   -0.09293569624423981,
   -0.8772305250167847,
   -0.09951163828372955,
   -1.0815857648849487,
   0.03630349785089493,
   -1.0597587823867798,
   1.1605262756347656,
   -0.40859121084213257,
   -0.028919758275151253,
   -0.25770291686058044,
   -0.23242896795272827,
   -1.0904500484466553,
   0.04201221466064453,
   -0.18000565469264984,
   0.7004244923591614,
   -0.46372315287590027,
   0.9790402054786682,
   0.8307950496673584,
   0.1071835607290268,
   0.2776808440685272,
   0.28003615140914917,
   0.15120068192481995,
   -2.0415637493133545,
   0.6122971177101135,
   1.5514775514602661,
   0.6668975949287415,
   -0.5204026699066162,
   -0.4748223125934601,
   1.2888624668121338,
   -0.1461862176656723,
   -0.6355379223823547,
   0.877052366733551,
   -0.16904029250144958,
   -0.42632195353507996,
   2.7594246864318848,
   0.32586437463760376,
   0.0034906407818198204,
   0.2030969113111496,
   -0.9400809407234192,
   1.8611278533935547,
   -1.1741881370544434,
   -0.2015029788017273,
   -0.12938594818115234,
   0.45998871326446533,
   0.22587993741035461,
   0.7638598680496216,
   0.7830385565757751,
   0.20095713436603546,
   -0.20342615246772766,
   -0.6905791759490967,
   1.0316708087921143,
   -0.017634928226470947,
   -1.7686057090759277,
   -0.693077564239502,
   -0.03467069938778877,
   0.550209641456604,
   -0.6604997515678406,
   0.16687585413455963,
   0.07891882210969925,
   -0.3428047001361847,
   0.2698589265346527,
   -0.5761039853096008,
   1.3477451801300049,
   0.42984291911125183,
   0.36828315258026123,
   0.6420474648475647,
   -0.27243572473526,
   -0.2944272756576538,
   -0.27787336707115173,
   -0.7126089334487915,
   -0.1324782818555832,
   -2.3738162517547607,
   0.22240744531154633,
   -1.9145125150680542,
   0.43165451288223267,
   -0.24182307720184326,
   0.16397728025913239,
   0.5455856323242188,
   -0.7634588479995728,
   1.1457093954086304,
   0.5309197902679443,
   0.0705956220626831,
   0.7027027606964111,
   -1.0462002754211426,
   -0.7296894192695618,
   1.1709802150726318,
   0.22038137912750244,
   0.9429382085800171,
   0.2536969482898712,
   -0.02013174444437027,
   0.012554213404655457,
   0.46702098846435547,
   -0.44315579533576965,
   0.7451798319816589,
   0.9582117199897766,
   1.1991432905197144,
   -1.2766145467758179,
   1.0199024677276611,
   -1.133730173110962,
   0.05931800976395607,
   0.07138489931821823,
   0.04487289488315582,
   0.41364964842796326,
   -0.35305842757225037,
   1.0462597608566284,
   1.085407018661499,
   -0.8233711123466492,
   -1.0217465162277222,
   -1.6671409606933594,
   0.13806241750717163,
   -0.509670615196228,
   0.21371832489967346,
   0.2584945559501648,
   0.6971876621246338,
   -0.287911057472229,
   -0.888648509979248,
   0.19890840351581573,
   0.05422038957476616,
   -0.12821424007415771,
   0.8032991886138916,
   0.5562989711761475,
   0.12752489745616913,
   0.3125251829624176,
   0.8549994826316833,
   0.45208701491355896
  ],
  [
   -0.8271310329437256,
   -0.7599514126777649,
   0.7478361129760742,
   -1.6162316799163818,
   0.2589520215988159,
   0.16008004546165466,
   0.3184475004673004,
   -0.7020123600959778,
   0.8111819624900818,
   0.3173888921737671,
   -1.2515407800674438,
   -0.7694225907325745,
   -1.2213375568389893,
   -0.6803118586540222,
   -0.7751855850219727,
   -0.5724412798881531,
   0.17494696378707886,
   0.6384642124176025,
   0.08598820120096207,
   -0.35417240858078003,
   0.3101204037666321,
   -0.16924948990345,
   0.25718727707862854,
   0.8987943530082703,
   -0.2392015904188156,
   0.3204421103000641,
   0.3061830699443817,
   0.3933185040950775,
   -0.24579574167728424,
   -0.7133735418319702,
   0.05844024941325188,
   -0.5584652423858643,
   0.7310563325881958,
   -0.1443767249584198,
   -1.384132742881775,
   0.3027307689189911,
   -2.230072021484375,
   0.5523373484611511,
   -0.5826025009155273,
   0.13415075838565826,
   -2.2632296085357666,
   0.2096327394247055,
   -1.3452657461166382,
   0.4190593361854553,
   0.1366681158542633,
   -0.12922734022140503,
   0.049229711294174194,
   0.32580408453941345,
   -0.16643914580345154,
   0.13766229152679443,
   0.2662753164768219,
   -0.1951046884059906,
   0.3478594422340393,
   1.135424017906189,
   -0.9248313903808594,
   0.22371000051498413,
   0.6277700066566467,
   -2.0640170574188232,
   -0.15379047393798828,
   0.32787349820137024,
   1.0240325927734375,
   0.37631699442863464,
   0.15896257758140564,
   -0.013201285153627396,
   -0.15710555016994476,
   -0.5682322382926941,
   0.5794389247894287,
   -0.7856543660163879,
   -1.3229173421859741,
   -0.34132933616638184,
   0.28686824440956116,
   -0.620942234992981,
   -0.31281062960624695,
   0.0074796853587031364,
   -0.4041561186313629,
   0.37180522084236145,
   1.055241584777832,
   -0.06877461075782776,
   -1.3685951232910156,
   -0.18862581253051758,
   0.301395982503891,
   0.08402062952518463,
   -0.11143755167722702,
   0.012669052928686142,
   -0.15337927639484406,
   0.3101726770401001,
   0.21223998069763184,
   -0.2145904302597046,
   0.22687718272209167,
   -0.4510556161403656,
   1.277544379234314,
   0.32033756375312805,
   0.8821544051170349,
   -1.4185969829559326,
   -0.819352388381958,
   1.0028717517852783,
   -0.8703539967536926,
   1.0813606977462769,
   -1.4705508947372437,
   0.26946744322776794,
   0.19217127561569214,
   0.7688993215560913,
   -0.022431809455156326,
   0.2836150527000427,
   0.8593193888664246,
   0.4659000337123871,
   0.3505440354347229,
   -1.5540004968643188,
   -0.3644565939903259,
   0.07135523855686188,
   2.2487423419952393,
   -0.1749677062034607,
   -0.1721310019493103,
   0.31162381172180176,
   0.6464804410934448,
   -1.160587191581726,
   -0.26349762082099915,
   -0.5958231687545776,
   0.8077471852302551,
   0.894465982913971,
   -0.5212052464485168,
   0.20066270232200623,
   -0.2769192159175873,
   -0.48339155316352844,
   -0.12424367666244507,
   -0.6301276087760925,
   0.22549891471862793,
   -0.7695496678352356,
   -0.42616432905197144,
   -0.41755908727645874,
   0.016725661233067513,
   -1.1045821905136108,
   -0.9474292397499084,
   -0.8485689759254456,
   -0.21080723404884338,
   0.6714693307876587,
   -0.26200762391090393,
   -0.5302459001541138,
   0.6089099049568176,
   -0.44512298703193665,
   0.9083148241043091,
   -0.7891556620597839,
   0.4024377763271332,
   -1.0538032054901123,
   -0.0853004902601242,
   -0.8831406831741333,
   -1.1242800951004028,
   -0.14577457308769226,
   0.509800910949707,
   0.10502415895462036,
   -5.99872350692749,
   0.6830651760101318,
   -0.3952380120754242,
   -1.3630584478378296,
   -0.8153765201568604,
   1.2292038202285767,
   -2.560645818710327,
   -1.7722517251968384,
   -1.878991723060608,
   -1.8579005002975464,
   -1.3772542476654053,
   -0.3668341636657715,
   0.02723143994808197,
   0.7802488207817078,
   0.004524007439613342,
   0.20127111673355103,
   -0.0808357521891594,
   -1.6871830224990845,
   0.9574130773544312,
   0.09512384980916977,
   -0.7051341533660889,
   -0.4103451073169708,
   -0.4693067669868469,
   0.599971354007721,
   -0.5998440384864807,
   1.0735417604446411,
   -0.20066304504871368,
   -0.0969337746500969,
   -0.771904706954956,
   0.5578371286392212,
   -0.5474088788032532,
   0.07562146335840225,
   0.6607180237770081,
   -0.06520886719226837,
   0.2692410945892334,
   -0.05044061690568924,
   -0.20376010239124298,
   -0.5862945914268494,
   -0.09880173951387405,
   -0.12012073397636414,
   1.0977747440338135,
   -0.10665086656808853,
   0.287447452545166,
   0.874993085861206,
   0.11005701124668121,
   0.14916399121284485,
   -0.2792823612689972,
   0.11741131544113159,
   0.08543852716684341,
   0.21812105178833008
  ],
  [
   -0.3902567923069,
   -0.5630047917366028,
   -0.17689715325832367,
   -0.17520254850387573,
   0.171906515955925,
   0.04853232204914093,
   -0.12113341689109802,
   -0.33026784658432007,
   -0.46337002515792847,
   -0.22378164529800415,
   -0.2138153463602066,
   -0.15052829682826996,
   -0.5063530802726746,
   -0.1374840885400772,
   -0.6033599972724915,
   -0.24459989368915558,
   -0.03194078058004379,
   -0.41783785820007324,
   -0.10133548825979233,
   -0.2727039158344269,
   -0.29871073365211487,
   -0.21924369037151337,
   -0.23562325537204742,
   0.17101848125457764,
   0.11224643886089325,
   0.1856931895017624,
   -0.1005740836262703,
   -0.09341355413198471,
   -0.3281654119491577,
   -0.3348565399646759,
   -0.0670054480433464,
   -0.23009273409843445,
   -0.383314311504364,
   -0.16020269691944122,
   -0.06316755712032318,
   -0.001997604500502348,
   -0.10225089639425278,
   -0.3609806299209595,
   -0.27403512597084045,
   -0.0563245564699173,
   -0.11614073812961578,
   -0.5926851630210876,
   -0.14788700640201569,
   0.07371536642313004,
   -0.1811186522245407,
   -0.12498046457767487,
   -0.7337110638618469,
   -0.1352536529302597,
   -0.24180442094802856,
   -0.5886410474777222,
   -0.048684846609830856,
   -0.2849271595478058,
   -0.20686307549476624,
   0.18503950536251068,
   -0.1339556723833084,
   -0.027664445340633392,
   -0.301239013671875,
   -0.6470534205436707,
   -0.36336132884025574,
   0.020177267491817474,
   0.09679786115884781,
   -0.18174917995929718,
   -0.03376804664731026,
   -0.2256670445203781,
   -0.5537160634994507,
   -0.12956516444683075,
   -0.398876428604126,
   0.17686516046524048,
   -0.4210917055606842,
   -0.11178889125585556,
   -0.11173295229673386,
   -0.16284584999084473,
   -0.4357222616672516,
   0.06626755744218826,
   -0.19279861450195312,
   -0.15820512175559998,
   -0.2010316252708435,
   -0.01054811105132103,
   -0.32728520035743713,
   -0.09679903090000153,
   -0.13865895569324493,
   0.28764575719833374,
   -0.1807348132133484,
   0.09107200056314468,
   -0.24035465717315674,
   -0.13948942720890045,
   -0.2625167965888977,
   -0.4862828254699707,
   -0.09874004125595093,
   -0.46786144375801086,
   -0.16239872574806213,
   -0.22115513682365417,
   -0.310043603181839,
   -0.07656147330999374,
   -0.03236065059900284,
   -0.31595301628112793,
   0.03647347167134285,
   -0.2221762239933014,
   -0.5292714238166809,
   -0.06484556943178177,
   -0.5834947824478149,
   -0.14385762810707092,
   -0.5753167271614075,
   -0.007779102772474289,
   -0.5418497323989868,
   -0.14469006657600403,
   -0.13102707266807556,
   -0.48712441325187683,
   0.16542063653469086,
   -0.11738847196102142,
   -0.5716699361801147,
   0.00013916028547100723,
   -0.20082516968250275,
   0.06019517406821251,
   -0.14232483506202698,
   -0.3407692611217499,
   -0.17727811634540558,
   -0.207388773560524,
   -0.17879819869995117,
   -0.18485863506793976,
   -0.21005268394947052,
   -0.03692594915628433,
   0.06430972367525101,
   -0.555563747882843,
   -0.16914744675159454,
   -0.04918288439512253,
   -0.2940739691257477,
   -0.629521906375885,
   -0.21465100347995758,
   -0.0845567137002945,
   -0.3929191827774048,
   -0.23987434804439545,
   -0.12355786561965942,
   -0.5535937547683716,
   -0.24509112536907196,
   -0.6152093410491943,
   -0.1090143620967865,
   -0.6988510489463806,
   -0.01713862270116806,
   -0.08141182363033295,
   -0.35047826170921326,
   -0.4027426242828369,
   -0.11500431597232819,
   -0.6191568374633789,
   -0.20594854652881622,
   -0.6014449000358582,
   -0.1820824146270752,
   0.21143954992294312,
   -0.1562032550573349,
   -0.16824370622634888,
   -0.38167423009872437,
   -0.18982122838497162,
   -0.44425168633461,
   -0.43258538842201233,
   -0.17611944675445557,
   -0.16844399273395538,
   -0.20318812131881714,
   -0.10790082067251205,
   -0.05425768345594406,
   -0.3860388696193695,
   -0.14712457358837128,
   -0.5778774619102478,
   -0.1309463232755661,
   -0.20782998204231262,
   0.03301819786429405,
   -0.1533050686120987,
   0.14796870946884155,
   -0.001364398980513215,
   0.04777870699763298,
   -0.23153316974639893,
   -0.16884605586528778,
   0.20777687430381775,
   -0.16887496411800385,
   0.2194037139415741,
   -0.14864659309387207,
   -0.3857725262641907,
   -0.13119164109230042,
   -0.7493256330490112,
   -0.1826619654893875,
   0.22164055705070496,
   -0.21935462951660156,
   -0.14235469698905945,
   -0.4481244683265686,
   -0.04938308522105217,
   -0.20957839488983154,
   -0.17145779728889465,
   -0.05738909915089607,
   -0.18369857966899872,
   0.18102166056632996,
   -0.4773702025413513,
   0.07358060032129288,
   0.08270477503538132,
   -0.23764009773731232,
   -0.33866655826568604,
   -0.2233007550239563,
   0.035434190183877945,
   -0.5452017188072205,
   0.0057655018754303455,
   0.165058434009552,
   -0.32329466938972473
  ],
  [
   -1.5548299551010132,
   0.11491712927818298,
   0.1573791652917862,
   0.9322876334190369,
   -0.09041831642389297,
   -1.331621766090393,
   0.2297324240207672,
   0.7857990860939026,
   -0.823652446269989,
   -0.8392646312713623,
   0.5322471857070923,
   -0.9889848828315735,
   -1.4284635782241821,
   2.140995502471924,
   0.35812097787857056,
   0.08953280746936798,
   0.30842873454093933,
   0.008846582844853401,
   0.4577411413192749,
   0.28256955742836,
   1.6133005619049072,
   1.0731621980667114,
   -0.18122141063213348,
   2.064300775527954,
   0.47918808460235596,
   -0.060719043016433716,
   -0.13924311101436615,
   0.1705099493265152,
   0.7759574055671692,
   -3.958514928817749,
   0.07943389564752579,
   -0.2821026146411896,
   0.09329577535390854,
   -1.3270292282104492,
   0.21859745681285858,
   -0.928185224533081,
   -0.9817236065864563,
   -0.3296440541744232,
   -0.27099350094795227,
   -0.1868973970413208,
   1.1753376722335815,
   -0.22453822195529938,
   -0.15911459922790527,
   -0.46847549080848694,
   -0.20405714213848114,
   -0.12656286358833313,
   0.822912335395813,
   -0.5928394198417664,
   0.019086278975009918,
   -0.773719310760498,
   1.0011032819747925,
   -0.29858502745628357,
   -2.967195987701416,
   1.3323540687561035,
   1.3730151653289795,
   -1.0597622394561768,
   -1.1596159934997559,
   -2.8314850330352783,
   1.00767183303833,
   0.9508498907089233,
   0.4069175720214844,
   0.47292935848236084,
   -0.17670342326164246,
   0.3553255498409271,
   -1.6341309547424316,
   -0.4096789062023163,
   1.0181517601013184,
   0.5844971537590027,
   -0.12497676908969879,
   1.3589391708374023,
   -0.15568479895591736,
   1.6191635131835938,
   -0.36252033710479736,
   -0.2590266168117523,
   -0.1789066046476364,
   0.6082504391670227,
   0.45087677240371704,
   0.07982765883207321,
   -0.9908418655395508,
   -0.009541534818708897,
   -0.5699155926704407,
   -0.7380695939064026,
   0.11597783863544464,
   0.06861826032400131,
   -1.00962495803833,
   0.002417560899630189,
   0.6743898987770081,
   -0.2255835384130478,
   0.9354445338249207,
   0.2507159113883972,
   -0.38429510593414307,
   -2.066077709197998,
   1.1421797275543213,
   0.09605556726455688,
   -1.0880038738250732,
   0.7812225818634033,
   0.7595133781433105,
   0.06688698381185532,
   0.04440878704190254,
   0.9745771288871765,
   -0.23229078948497772,
   -1.9495941400527954,
   -0.9495282173156738,
   -0.3115091323852539,
   -0.8961188793182373,
   -0.05486854165792465,
   0.4611572027206421,
   -1.181195616722107,
   0.8290603160858154,
   -0.490619957447052,
   -3.036891222000122,
   -0.11478087306022644,
   1.6189110279083252,
   -1.0828965902328491,
   -0.6529622673988342,
   0.5890479683876038,
   0.8613589406013489,
   -0.7953504323959351,
   1.0280176401138306,
   -0.9887503981590271,
   -1.501395344734192,
   1.0200135707855225,
   -0.40359845757484436,
   0.12192174792289734,
   -0.6148850917816162,
   -1.0620688199996948,
   0.26299870014190674,
   1.2113968133926392,
   -0.012325329706072807,
   0.2707420289516449,
   -0.008688759058713913,
   -0.15098418295383453,
   -1.3784557580947876,
   -0.37475332617759705,
   -1.5942705869674683,
   0.03508501872420311,
   0.45004498958587646,
   0.08944408595561981,
   -0.336279958486557,
   -0.3802659511566162,
   3.368297576904297,
   -2.073061466217041,
   0.2623535096645355,
   -0.27909037470817566,
   -0.04506221041083336,
   -0.17154543101787567,
   0.6453220248222351,
   0.930961012840271,
   -0.26442083716392517,
   3.4037299156188965,
   1.2807180881500244,
   -0.24545784294605255,
   0.30679991841316223,
   -0.0017967368476092815,
   -0.6352994441986084,
   -0.12785296142101288,
   -0.3264996409416199,
   0.5928216576576233,
   1.707324504852295,
   -2.1253278255462646,
   0.4877724349498749,
   -0.5256902575492859,
   -0.14309844374656677,
   0.23323176801204681,
   -0.09859241545200348,
   -0.9481134414672852,
   -0.2330208420753479,
   -0.023954542353749275,
   -0.6226425766944885,
   1.3161112070083618,
   -0.9869115352630615,
   0.03936576098203659,
   0.17079496383666992,
   1.7055227756500244,
   -0.9848203063011169,
   0.5103102922439575,
   -1.5829557180404663,
   -0.16197776794433594,
   0.8740474581718445,
   -0.3815062940120697,
   -0.6408576965332031,
   0.26482710242271423,
   0.6707366704940796,
   0.049488615244627,
   0.21322712302207947,
   -0.03467130288481712,
   1.7735017538070679,
   -1.1085602045059204,
   0.2774917185306549,
   0.25519537925720215,
   1.6644078493118286,
   -0.6812341213226318,
   0.16254480183124542,
   0.027287892997264862,
   0.10865771025419235,
   -1.0612242221832275,
   -0.30351537466049194,
   0.6728838682174683,
   0.8550202250480652,
   -0.8368720412254333
  ],
  [
   -1.1248693466186523,
   -0.33753061294555664,
   -1.5685087442398071,
   0.19097404181957245,
   0.5736854672431946,
   0.6291521787643433,
   -1.2219703197479248,
   -0.7909994721412659,
   -0.31102389097213745,
   -1.4847084283828735,
   -0.4433254301548004,
   0.359112411737442,
   0.35287922620773315,
   0.4575413167476654,
   -0.31710317730903625,
   0.1963326632976532,
   0.07747526466846466,
   0.4517780840396881,
   1.2762552499771118,
   1.0650124549865723,
   1.092482328414917,
   0.8703064322471619,
   0.3207973837852478,
   -0.9207412004470825,
   0.18745644390583038,
   -0.1269005984067917,
   -0.29736536741256714,
   -0.5634844303131104,
   -1.315067172050476,
   0.90407395362854,
   -0.18199555575847626,
   -0.2538909316062927,
   -0.04466736689209938,
   0.07283983379602432,
   -0.9539183378219604,
   2.3943986892700195,
   -0.04399903491139412,
   0.6011664271354675,
   -0.4823887348175049,
   0.6405621767044067,
   0.2150852233171463,
   -1.4241702556610107,
   -0.15190836787223816,
   0.310684472322464,
   0.8378376364707947,
   0.6126229763031006,
   1.1735812425613403,
   -0.08590439707040787,
   0.26854968070983887,
   0.47979024052619934,
   -0.7068273425102234,
   0.6478224396705627,
   0.7010130286216736,
   -1.4474127292633057,
   -0.44661062955856323,
   -1.1701847314834595,
   0.15019427239894867,
   1.1780083179473877,
   1.0149455070495605,
   -0.8195939064025879,
   0.004227049648761749,
   -0.32660603523254395,
   -0.5903310179710388,
   -0.7389219403266907,
   -0.27248305082321167,
   1.2845063209533691,
   -0.015489630401134491,
   0.052860479801893234,
   -0.0901789590716362,
   0.6459832787513733,
   -0.788201093673706,
   1.1180740594863892,
   0.7190018892288208,
   -0.5226112008094788,
   -1.1064554452896118,
   -0.261013925075531,
   0.9099946618080139,
   -1.3628194332122803,
   -0.4338470697402954,
   -0.9655108451843262,
   0.2941189706325531,
   1.6564027070999146,
   0.564648449420929,
   -1.2450740337371826,
   -1.1525824069976807,
   0.9795034527778625,
   -2.822631359100342,
   -0.20062053203582764,
   -1.3637834787368774,
   0.18879368901252747,
   1.4392237663269043,
   -0.32854756712913513,
   1.4298748970031738,
   0.3702716827392578,
   -0.3197384774684906,
   0.453237920999527,
   -0.607742428779602,
   -0.78890061378479,
   -0.3919963836669922,
   0.4699322283267975,
   -1.8289101123809814,
   0.7070268392562866,
   0.15790356695652008,
   -1.4519848823547363,
   -0.47792601585388184,
   -0.3739135265350342,
   0.3268948197364807,
   -0.5342500805854797,
   0.7001592516899109,
   2.001028060913086,
   -0.15134510397911072,
   -0.16797788441181183,
   0.7291918992996216,
   1.1440918445587158,
   0.03936191648244858,
   -0.8890266418457031,
   -1.2529890537261963,
   0.1847446858882904,
   1.738515853881836,
   0.5591194033622742,
   0.416692316532135,
   -1.0856928825378418,
   0.5770614743232727,
   0.9411469101905823,
   0.23378612101078033,
   -1.8933228254318237,
   -0.4701996445655823,
   0.6183583736419678,
   1.0709940195083618,
   0.40082216262817383,
   -0.2338685840368271,
   -0.5562469363212585,
   -0.3684433400630951,
   -0.5497363209724426,
   0.21961912512779236,
   0.025612879544496536,
   -0.3723152279853821,
   0.8382052779197693,
   0.53630530834198,
   -0.580597460269928,
   0.5943238735198975,
   -1.5751519203186035,
   -2.040231227874756,
   -0.9072789549827576,
   -0.3952847421169281,
   -0.378595769405365,
   -0.9100993871688843,
   1.5524705648422241,
   -0.47840389609336853,
   -0.43681302666664124,
   -0.24897463619709015,
   -0.9039179682731628,
   0.4143519699573517,
   -0.33147183060646057,
   0.1775534301996231,
   -1.144685983657837,
   0.2749830484390259,
   -1.3589407205581665,
   -0.09939510375261307,
   0.48093798756599426,
   0.2605219781398773,
   0.23726199567317963,
   0.17668834328651428,
   1.0517706871032715,
   -1.0057874917984009,
   -0.6998182535171509,
   -0.1333770900964737,
   0.055715080350637436,
   -0.18825450539588928,
   1.0036612749099731,
   -0.5512660145759583,
   -0.9040914177894592,
   0.4126741886138916,
   1.2949126958847046,
   -0.062358975410461426,
   0.30158281326293945,
   -0.8104709386825562,
   -0.07146351784467697,
   0.830894947052002,
   0.10014360398054123,
   0.518375813961029,
   3.638613224029541,
   -0.32374146580696106,
   0.007635013200342655,
   0.16361214220523834,
   0.4221549928188324,
   -1.0306683778762817,
   -0.11777107417583466,
   -0.09336680173873901,
   -0.6394057273864746,
   0.7157832980155945,
   0.475289523601532,
   0.19879387319087982,
   3.8562934398651123,
   1.629696249961853,
   1.1334549188613892,
   0.2976415455341339,
   0.8494513630867004,
   -0.24905630946159363,
   -0.3652212619781494
  ],
  [
   -2.345860481262207,
   -1.2043205499649048,
   -4.7827982902526855,
   0.8054175972938538,
   0.05521310865879059,
   -2.1146669387817383,
   -1.2815004587173462,
   -0.3776531219482422,
   -0.12890169024467468,
   -0.6016443371772766,
   1.8699182271957397,
   1.0233105421066284,
   -0.02990405634045601,
   -0.026817936450242996,
   -0.9854787588119507,
   0.8628871440887451,
   0.7020816206932068,
   -1.278971791267395,
   -0.8357760906219482,
   -0.19725678861141205,
   -1.5317403078079224,
   0.8276426196098328,
   0.7799903750419617,
   2.258002281188965,
   -0.82282954454422,
   0.021489590406417847,
   0.04252593219280243,
   0.02922840416431427,
   0.3711100220680237,
   -0.10357436537742615,
   -0.17908644676208496,
   0.16845615208148956,
   0.45967552065849304,
   -0.981761634349823,
   0.8764508366584778,
   -1.1324567794799805,
   -0.3709775507450104,
   0.1482253223657608,
   0.4596514403820038,
   0.2401541769504547,
   0.3003084361553192,
   0.7082360982894897,
   0.6205854415893555,
   1.1255215406417847,
   -0.039897579699754715,
   -0.01236622966825962,
   -0.008946473710238934,
   0.6343914866447449,
   0.23516499996185303,
   0.476364403963089,
   0.7583063244819641,
   0.39942821860313416,
   -0.8472829461097717,
   0.7331526875495911,
   -0.20409739017486572,
   -2.353184938430786,
   -0.6385467648506165,
   -0.02913716807961464,
   -0.1734510213136673,
   0.07932494580745697,
   0.35130587220191956,
   0.5515260100364685,
   -1.7266497611999512,
   0.16559860110282898,
   -0.2989642322063446,
   -0.41201767325401306,
   -0.406967431306839,
   0.8757140636444092,
   -0.10480140149593353,
   -0.057409267872571945,
   0.29424163699150085,
   -0.7001602053642273,
   -0.4700465798377991,
   -0.2668793201446533,
   0.48108339309692383,
   -0.1372971087694168,
   -0.3046789765357971,
   0.11218920350074768,
   0.4540788233280182,
   0.07345932722091675,
   -0.13667811453342438,
   -0.10923707485198975,
   0.09314918518066406,
   -0.10685336589813232,
   0.18287986516952515,
   0.2693137228488922,
   -2.3573596477508545,
   -1.393807291984558,
   0.8510705828666687,
   -0.368183434009552,
   0.06808234006166458,
   -1.2864009141921997,
   0.31343555450439453,
   -1.0445321798324585,
   0.5511669516563416,
   0.4485570788383484,
   -1.057289481163025,
   0.3454345762729645,
   -1.027730941772461,
   0.18977394700050354,
   0.9333705306053162,
   0.3923770785331726,
   -1.332733392715454,
   -2.5186851024627686,
   0.05236687883734703,
   -0.24483901262283325,
   0.41574278473854065,
   -1.1331557035446167,
   -0.016121676191687584,
   0.8503679633140564,
   -0.299091637134552,
   0.9637663960456848,
   0.8164557814598083,
   -1.569610834121704,
   1.0585823059082031,
   1.1077309846878052,
   -0.8822041153907776,
   0.42718490958213806,
   -0.675682783126831,
   0.8429098725318909,
   1.1939146518707275,
   -0.02071073092520237,
   0.43450745940208435,
   -0.17765465378761292,
   -0.09773561358451843,
   -0.031730037182569504,
   0.08420085906982422,
   -0.8439445495605469,
   1.310007095336914,
   0.19675017893314362,
   0.4926244616508484,
   -0.47195762395858765,
   -0.7489454746246338,
   -1.0748467445373535,
   -0.257554292678833,
   -1.9048665761947632,
   -0.09767255932092667,
   -2.8953962326049805,
   0.05425421893596649,
   0.9238533973693848,
   -0.37744271755218506,
   -2.47623872756958,
   0.8491712212562561,
   -0.9983572363853455,
   -0.2694847583770752,
   -0.02334994450211525,
   -0.649258017539978,
   -2.4484620094299316,
   1.7833502292633057,
   -1.626173734664917,
   -0.28885290026664734,
   0.37732771039009094,
   -0.6197641491889954,
   -0.6147725582122803,
   -0.5093474984169006,
   0.9580169320106506,
   0.22133533656597137,
   -0.4694410264492035,
   -0.6880543231964111,
   0.15267018973827362,
   0.6277483105659485,
   -1.53497314453125,
   0.3943139314651489,
   -0.059016499668359756,
   -0.21234603226184845,
   0.7110695242881775,
   -0.6216539144515991,
   -0.6863027215003967,
   -0.22031843662261963,
   0.5579320192337036,
   -0.18243873119354248,
   -1.0544233322143555,
   0.17351926863193512,
   -0.5114774703979492,
   0.346383661031723,
   0.8125386834144592,
   0.47843027114868164,
   0.4205644726753235,
   -0.09663843363523483,
   -0.10690435022115707,
   -0.620336651802063,
   -0.4960942268371582,
   -0.7920373678207397,
   -2.3823089599609375,
   0.33801716566085815,
   -0.8563048839569092,
   -0.5298358201980591,
   -0.30168476700782776,
   0.15876278281211853,
   -0.8559755682945251,
   -0.0019345482578501105,
   0.30539217591285706,
   0.4300990402698517,
   -2.144669771194458,
   -0.09747669845819473,
   -0.09495197236537933,
   0.16765174269676208,
   -0.09265004843473434,
   -0.11576508730649948,
   0.01264887023717165
  ],
  [
   -0.02022092044353485,
   -0.7033033967018127,
   -0.5277488827705383,
   -0.1860819011926651,
   0.2760380208492279,
   1.46568763256073,
   -0.2919950783252716,
   0.204620361328125,
   -0.2732858955860138,
   -0.29410961270332336,
   -0.6154599189758301,
   0.6248078346252441,
   -0.11057794839143753,
   -0.5194560289382935,
   -0.2758122980594635,
   -0.2876772880554199,
   1.2829023599624634,
   0.5999990701675415,
   0.030577391386032104,
   -0.3001496493816376,
   -0.783557116985321,
   -0.10763408243656158,
   0.3428250253200531,
   -1.9336929321289062,
   0.0024634962901473045,
   -0.7242855429649353,
   0.09963761270046234,
   -0.4897797405719757,
   -0.9714009761810303,
   -1.218617558479309,
   0.23362623155117035,
   -0.09366051852703094,
   -0.4437243640422821,
   0.288857102394104,
   1.619839072227478,
   0.6257477402687073,
   -0.5414525270462036,
   0.0017743362113833427,
   -1.4977281093597412,
   0.5759781002998352,
   1.1294708251953125,
   -0.13220514357089996,
   -0.803524911403656,
   -0.3075319230556488,
   0.07001280039548874,
   -0.40718579292297363,
   -0.23975354433059692,
   0.17998088896274567,
   0.31957852840423584,
   0.1742759644985199,
   -0.11403340846300125,
   -0.10125191509723663,
   0.1003834456205368,
   0.14736349880695343,
   -0.7007961273193359,
   -0.568891704082489,
   -1.6456724405288696,
   -0.28455832600593567,
   -0.8837963342666626,
   -0.19637858867645264,
   1.8050379753112793,
   -0.9026515483856201,
   -0.0065115089528262615,
   0.9044790863990784,
   -0.09183048456907272,
   0.0922752395272255,
   -0.11974110454320908,
   0.4679403007030487,
   -0.2292831540107727,
   0.4352686107158661,
   -0.4733314514160156,
   -0.7495183944702148,
   -0.17602671682834625,
   1.109805703163147,
   -0.300971120595932,
   0.0946676954627037,
   0.6346064805984497,
   0.39180469512939453,
   0.38488027453422546,
   0.22038507461547852,
   0.26456400752067566,
   0.07191205769777298,
   -0.05104919523000717,
   0.623101532459259,
   0.6999701261520386,
   0.03495310619473457,
   -0.0013653207570314407,
   -0.8685927391052246,
   0.5513208508491516,
   0.10479072481393814,
   -0.5586615800857544,
   0.39708295464515686,
   0.9092897772789001,
   -0.8977915644645691,
   -0.046679262071847916,
   0.40616369247436523,
   -0.5825338363647461,
   -0.28854092955589294,
   -0.670333206653595,
   0.34188973903656006,
   0.1856697052717209,
   0.9686538577079773,
   -0.6383534073829651,
   0.6657609939575195,
   -0.10475894063711166,
   -1.108422875404358,
   -0.42782074213027954,
   -0.7905462980270386,
   0.19278284907341003,
   0.8363085389137268,
   0.01782088913023472,
   -1.6842647790908813,
   -0.04718676954507828,
   -0.36131933331489563,
   -0.32477331161499023,
   0.532000720500946,
   -0.05895503982901573,
   1.071974515914917,
   -0.06558093428611755,
   0.8027510046958923,
   -0.1342647522687912,
   -0.443735271692276,
   -0.8411881327629089,
   -0.20485451817512512,
   0.15658921003341675,
   2.2934844493865967,
   0.368480920791626,
   -0.865975022315979,
   0.160841703414917,
   -0.5428969264030457,
   -0.37302109599113464,
   -0.39643749594688416,
   -0.5505998730659485,
   -0.5775677561759949,
   0.30174964666366577,
   1.6096633672714233,
   -0.7742119431495667,
   -1.7236826419830322,
   -0.026448234915733337,
   -0.38252922892570496,
   -0.01626710221171379,
   -3.5177812576293945,
   0.8338559865951538,
   -0.1792697310447693,
   -0.23591509461402893,
   0.1796814352273941,
   -0.14915718138217926,
   -0.47689294815063477,
   -0.7604031562805176,
   -0.19389989972114563,
   -0.33583781123161316,
   0.0418504923582077,
   0.1392485499382019,
   0.646616518497467,
   0.8905877470970154,
   -1.7303770780563354,
   0.5349152088165283,
   -0.16385586559772491,
   3.533311605453491,
   -1.1508363485336304,
   0.6432564854621887,
   -0.3786501884460449,
   -0.8254378437995911,
   0.5835258960723877,
   0.03089224547147751,
   -0.7452810406684875,
   0.7682336568832397,
   -0.7980775833129883,
   -0.7303000688552856,
   0.551295816898346,
   0.425491601228714,
   -0.2762033939361572,
   0.31418290734291077,
   -1.123586893081665,
   0.8087966442108154,
   -1.1050370931625366,
   -0.8180225491523743,
   -0.15935206413269043,
   -0.012429148890078068,
   -0.857143223285675,
   0.6539806723594666,
   -0.5497915148735046,
   -0.025116121396422386,
   -0.2767682671546936,
   -0.200595423579216,
   0.5191416144371033,
   0.7114786505699158,
   -0.2700257897377014,
   0.4149739146232605,
   1.2515349388122559,
   0.6610141396522522,
   0.7261670231819153,
   -0.370772123336792,
   0.6967799067497253,
   0.5985501408576965,
   0.4288080930709839,
   -0.15851181745529175,
   1.616459608078003,
   0.641237735748291,
   -0.7085608839988708
  ],
  [
   1.2329872846603394,
   -2.8396365642547607,
   -4.937502861022949,
   0.11465498805046082,
   0.5847446322441101,
   1.9180129766464233,
   -0.3466692864894867,
   0.8404649496078491,
   -0.24385423958301544,
   1.7307279109954834,
   -0.7985707521438599,
   -2.222102165222168,
   -0.46160888671875,
   -0.14371508359909058,
   -0.07695775479078293,
   -2.1514322757720947,
   -2.4739108085632324,
   -0.4386688768863678,
   -0.4932970404624939,
   0.5289315581321716,
   2.009472370147705,
   -2.5135810375213623,
   -1.3271872997283936,
   0.5172638297080994,
   -0.024987943470478058,
   -0.5814595818519592,
   -0.64092618227005,
   2.1995937824249268,
   0.865546703338623,
   0.48268213868141174,
   1.8629645109176636,
   -0.3944008946418762,
   0.4824071228504181,
   1.4888629913330078,
   -2.797452211380005,
   -0.4260411560535431,
   -1.7731704711914062,
   -0.32437819242477417,
   -0.408383309841156,
   0.5115878582000732,
   -1.086991548538208,
   1.913078784942627,
   0.22611917555332184,
   -2.0495541095733643,
   -0.6756106615066528,
   1.5831806659698486,
   0.5990445017814636,
   -0.20792709290981293,
   0.0346011221408844,
   0.46595948934555054,
   -0.1087365597486496,
   -1.0149517059326172,
   -0.06960021704435349,
   -0.9228661060333252,
   -0.4487335681915283,
   3.551271677017212,
   2.142127275466919,
   -0.16219903528690338,
   1.3959407806396484,
   -1.116821050643921,
   -1.0915993452072144,
   -0.3495379090309143,
   -0.6222408413887024,
   1.4145464897155762,
   -1.3564012050628662,
   -0.7603039145469666,
   -0.4270724356174469,
   -1.7720695734024048,
   1.214707612991333,
   0.0806480422616005,
   0.6949948668479919,
   1.7131649255752563,
   0.6007712483406067,
   -0.371219277381897,
   -3.3623552322387695,
   0.3567654490470886,
   1.9320173263549805,
   1.2997770309448242,
   -0.41075006127357483,
   -0.2071230709552765,
   0.0327037051320076,
   -3.700197219848633,
   -1.30644690990448,
   0.5864092111587524,
   2.07283616065979,
   0.42464178800582886,
   -2.804375171661377,
   0.7358264923095703,
   -0.23292289674282074,
   0.330792099237442,
   0.2000293731689453,
   1.0669389963150024,
   -1.227108120918274,
   -1.3829740285873413,
   0.39536526799201965,
   -3.265031099319458,
   0.034675806760787964,
   0.16115953028202057,
   -0.6121417880058289,
   -0.5211005806922913,
   -1.1553690433502197,
   1.318123698234558,
   0.2246788591146469,
   -0.7162888050079346,
   -0.4514634311199188,
   0.013944285921752453,
   -0.40284159779548645,
   -1.3198552131652832,
   0.4231836795806885,
   -1.2262343168258667,
   0.5944123268127441,
   0.36006608605384827,
   1.7175211906433105,
   -1.4901210069656372,
   0.45543190836906433,
   0.37229427695274353,
   -1.4776276350021362,
   1.9158687591552734,
   -0.5404313802719116,
   0.6631574034690857,
   -0.6250287294387817,
   -0.9237923622131348,
   -0.6314923763275146,
   0.07974009215831757,
   -0.4190000295639038,
   -1.8202309608459473,
   -2.5203287601470947,
   -2.592636823654175,
   0.0013819129671901464,
   -0.7264969348907471,
   -0.4976494312286377,
   1.451385498046875,
   -2.3407363891601562,
   -0.5515584349632263,
   0.5690224766731262,
   -0.3856731653213501,
   -6.242363452911377,
   2.438023328781128,
   0.859367847442627,
   1.3859268426895142,
   -0.8656391501426697,
   2.135974407196045,
   0.015151040628552437,
   0.40848031640052795,
   0.11791525781154633,
   -0.3206530511379242,
   0.6005702018737793,
   -3.9744510650634766,
   0.9541091322898865,
   -0.40377387404441833,
   -0.45848020911216736,
   -0.7473511099815369,
   0.3349875509738922,
   -2.0526626110076904,
   1.0668752193450928,
   1.1991431713104248,
   -0.5090574026107788,
   -1.1827733516693115,
   -1.4137870073318481,
   -0.8702290058135986,
   -1.1994563341140747,
   -0.8945353031158447,
   -0.903471052646637,
   -0.7078540921211243,
   -6.44101619720459,
   1.1671746969223022,
   0.8768259286880493,
   -1.6100881099700928,
   -0.9461117386817932,
   -1.409692645072937,
   -0.9976909756660461,
   1.3669902086257935,
   0.7311004400253296,
   -2.2980120182037354,
   0.939153254032135,
   -1.875819206237793,
   -0.3859585225582123,
   -0.9038681983947754,
   -0.8426027894020081,
   0.7358803749084473,
   -1.7149885892868042,
   -1.3637056350708008,
   3.260468006134033,
   0.1849670708179474,
   0.019197937101125717,
   2.0088157653808594,
   -3.3007917404174805,
   1.0024017095565796,
   -8.817355155944824,
   -2.3243894577026367,
   -1.5545320510864258,
   1.0966053009033203,
   0.22200770676136017,
   1.3550269603729248,
   2.061124086380005,
   0.5583968758583069,
   0.3077768385410309,
   -2.2135088443756104,
   -5.6221795082092285,
   -0.13862654566764832
  ],
  [
   1.0650769472122192,
   0.5775004029273987,
   -0.18317873775959015,
   0.6154381036758423,
   0.4124821424484253,
   0.3337233066558838,
   -1.3047600984573364,
   -0.22892968356609344,
   -0.5653169751167297,
   0.3217782974243164,
   -0.35597464442253113,
   0.37573739886283875,
   -0.17369747161865234,
   -0.07730875164270401,
   -0.2465021312236786,
   -0.11156302690505981,
   -0.269864946603775,
   -0.3893572986125946,
   -1.3023866415023804,
   0.6280662417411804,
   0.7473883628845215,
   1.1629247665405273,
   0.337407648563385,
   -0.10573878139257431,
   -0.5012151598930359,
   -0.3638916015625,
   0.1378466784954071,
   0.7008198499679565,
   -0.5902723670005798,
   -0.6164715886116028,
   -0.007981035858392715,
   -0.027183370664715767,
   -0.2745446264743805,
   0.5213768482208252,
   0.880386233329773,
   -0.5097416043281555,
   0.6357676386833191,
   0.246355339884758,
   1.304448127746582,
   0.618804931640625,
   -1.7017382383346558,
   0.22988957166671753,
   -0.43814191222190857,
   -0.08254165202379227,
   -0.4034479260444641,
   0.9983132481575012,
   -1.2771629095077515,
   -0.46607014536857605,
   0.4422719478607178,
   -0.16380205750465393,
   0.25304344296455383,
   -0.3391067683696747,
   0.15513549745082855,
   -0.9843301177024841,
   0.22578684985637665,
   -0.11189454793930054,
   0.10757692903280258,
   0.6238213181495667,
   -0.14847932755947113,
   0.558519184589386,
   -0.018360139802098274,
   -0.29496508836746216,
   0.702434778213501,
   1.1008087396621704,
   -0.3541755676269531,
   -1.082230806350708,
   0.14358103275299072,
   0.5614723563194275,
   0.5755611062049866,
   -0.5491032600402832,
   0.4488236904144287,
   0.4094628691673279,
   0.5609254837036133,
   0.17419348657131195,
   -1.1820756196975708,
   -0.2068294733762741,
   1.0235450267791748,
   0.2812102138996124,
   -0.4176291227340698,
   0.09865625202655792,
   -0.15967632830142975,
   -0.4600367844104767,
   -0.2138657420873642,
   0.2937617897987366,
   1.3343737125396729,
   1.007182002067566,
   0.998489260673523,
   -0.5117356777191162,
   -1.3003699779510498,
   0.16177165508270264,
   1.2510839700698853,
   -1.3469946384429932,
   0.21266424655914307,
   0.4209778308868408,
   0.2716418206691742,
   1.5757193565368652,
   -2.385850191116333,
   0.1373852640390396,
   0.5247045755386353,
   -1.273614764213562,
   -0.021297523751854897,
   1.1914938688278198,
   -0.2722133696079254,
   0.8190667033195496,
   -0.05399732664227486,
   0.6503081917762756,
   0.5389646887779236,
   -0.36176371574401855,
   -1.3184349536895752,
   -1.1569081544876099,
   -0.35760441422462463,
   -0.23844130337238312,
   0.8349481821060181,
   0.5173348784446716,
   0.042155273258686066,
   -0.6593419909477234,
   0.6859961748123169,
   -0.8036227822303772,
   0.4864722490310669,
   0.2805846631526947,
   -0.10961420834064484,
   -0.0068737356923520565,
   0.019422052428126335,
   -0.22090278565883636,
   0.058965399861335754,
   0.46569058299064636,
   1.1437724828720093,
   0.00669742189347744,
   0.886981725692749,
   0.7253127694129944,
   0.15739524364471436,
   0.14526215195655823,
   -1.097722053527832,
   -0.18451756238937378,
   -0.401083379983902,
   0.34412243962287903,
   0.4466813802719116,
   1.665138840675354,
   0.31068316102027893,
   1.5182911157608032,
   -0.20490726828575134,
   -0.13794933259487152,
   -0.7219972014427185,
   -1.0851290225982666,
   0.41100406646728516,
   0.024519363418221474,
   -0.04464489966630936,
   0.40516456961631775,
   -2.3762598037719727,
   -0.8669663071632385,
   -0.26836347579956055,
   0.4243020713329315,
   -0.1385708600282669,
   0.6369925141334534,
   0.23171751201152802,
   -1.002078652381897,
   0.2189103066921234,
   1.5320050716400146,
   0.23853716254234314,
   0.03754749149084091,
   -0.5504304766654968,
   0.2790184020996094,
   0.5236015319824219,
   -0.17536674439907074,
   -0.4375421106815338,
   0.636773407459259,
   -0.6683815717697144,
   0.23685616254806519,
   -0.20032180845737457,
   0.16759152710437775,
   -0.7083173394203186,
   -1.281442642211914,
   0.3381028175354004,
   -0.7972787022590637,
   0.3526897430419922,
   0.03235884755849838,
   -1.0010271072387695,
   -0.1214565709233284,
   -0.10347191989421844,
   -0.08720298856496811,
   0.05017409473657608,
   -0.575546145439148,
   -0.16886477172374725,
   -0.22927874326705933,
   -0.5290879607200623,
   0.4920564889907837,
   0.24926495552062988,
   -0.05777144804596901,
   -0.38229966163635254,
   0.49464231729507446,
   -1.6647684574127197,
   0.07329818606376648,
   -0.15058450400829315,
   -0.8429539799690247,
   -0.2747543454170227,
   0.03544219210743904,
   0.00425800122320652,
   0.2209024578332901,
   1.9879813194274902,
   -0.13663889467716217
  ],
  [
   -0.28883299231529236,
   -1.4445120096206665,
   0.04984963312745094,
   -0.48973849415779114,
   0.23217004537582397,
   -0.9291636347770691,
   -1.4808683395385742,
   1.0959117412567139,
   0.6553277373313904,
   0.7749199867248535,
   0.9601603746414185,
   0.376234769821167,
   -0.572073757648468,
   -0.5781225562095642,
   0.16324084997177124,
   -0.01944437250494957,
   0.3546585440635681,
   -0.10955100506544113,
   -0.1628125011920929,
   -0.37545061111450195,
   0.3722948133945465,
   -0.18429794907569885,
   0.04279892519116402,
   0.9760388731956482,
   -0.5311839580535889,
   0.2942389249801636,
   -0.05158513784408569,
   -0.4317782521247864,
   -0.27317503094673157,
   0.7230187058448792,
   1.2442086935043335,
   0.15142400562763214,
   -0.9048548340797424,
   -0.33215391635894775,
   -0.15878455340862274,
   1.4064290523529053,
   1.3758898973464966,
   0.3479601740837097,
   0.5556432604789734,
   0.31674081087112427,
   0.7120388746261597,
   0.5380963087081909,
   0.4356857240200043,
   -0.24166813492774963,
   0.209494486451149,
   -1.474016547203064,
   -0.42580708861351013,
   0.2329392433166504,
   -0.464521199464798,
   0.35079431533813477,
   -1.0086541175842285,
   -1.696936011314392,
   -2.1869421005249023,
   0.8071374297142029,
   0.5694012641906738,
   0.3890751898288727,
   0.7116495966911316,
   0.6603057980537415,
   0.020946240052580833,
   0.42557454109191895,
   -1.0883105993270874,
   0.10332360118627548,
   0.24004396796226501,
   -0.7393484115600586,
   -0.47475871443748474,
   -0.49266326427459717,
   -0.6167654991149902,
   0.7338012456893921,
   -0.6974793672561646,
   0.4317786991596222,
   0.4727354645729065,
   -0.5670748353004456,
   0.2246662676334381,
   -0.821714460849762,
   -0.7380840182304382,
   0.07467958331108093,
   -0.3834737539291382,
   -0.010944695211946964,
   0.6370446681976318,
   -0.2835564911365509,
   -1.2589013576507568,
   -1.15049409866333,
   0.19591213762760162,
   0.2209111452102661,
   0.6670862436294556,
   0.5563114881515503,
   -0.8792766332626343,
   -1.3127586841583252,
   0.06229951232671738,
   -1.205672264099121,
   0.3248293399810791,
   -0.12090060114860535,
   1.2030713558197021,
   -0.8270928263664246,
   0.1746721863746643,
   -0.45445308089256287,
   -0.02453390322625637,
   -0.5949210524559021,
   -1.2777808904647827,
   0.5008264183998108,
   0.1836831420660019,
   0.0839783325791359,
   -0.22492216527462006,
   0.4091690480709076,
   0.017989616841077805,
   -0.35262531042099,
   0.32765480875968933,
   0.08344431966543198,
   0.5210795998573303,
   -0.7360718250274658,
   -0.7155497670173645,
   -0.8807502388954163,
   -0.2753283381462097,
   -0.3828669786453247,
   -0.21553367376327515,
   0.6803387403488159,
   -0.34520223736763,
   -0.16520637273788452,
   0.9230195879936218,
   0.17240554094314575,
   -0.2978859841823578,
   0.10060017555952072,
   0.852554202079773,
   -0.050357382744550705,
   -0.24431200325489044,
   -1.3224513530731201,
   -0.5755330920219421,
   0.28653550148010254,
   0.8896738290786743,
   0.2684832513332367,
   -1.1539350748062134,
   -0.6891195774078369,
   -0.27583006024360657,
   0.28681886196136475,
   -0.7142133712768555,
   0.5191152691841125,
   0.8284364938735962,
   0.5689442753791809,
