{
 "pi.0.weight": [
  [
   -1.105467677116394,
   -1.2863287925720215,
   -1.7232872247695923,
   -1.0822604894638062,
   1.4282946586608887,
   -0.16505767405033112
  ],
  [
   0.6039859652519226,
   1.354911208152771,
   -2.0854525566101074,
   -1.2953994274139404,
   -1.8311923742294312,
   -0.6939531564712524
  ],
  [
   -2.193134069442749,
   -2.2473325729370117,
   0.11645042896270752,
   0.12327031046152115,
   3.194134473800659,
   0.596147358417511
  ],
  [
   -1.9522731304168701,
   1.6084195375442505,
   -0.06684025377035141,
   0.3083222806453705,
   3.66041898727417,
   -0.3995411694049835
  ],
  [
   -1.8841655254364014,
   0.7198415398597717,
   1.436395287513733,
   -0.3046293556690216,
   -0.2853761911392212,
   -3.0541200637817383
  ],
  [
   -2.5089595317840576,
   1.0104985237121582,
   -1.8598558902740479,
   -1.254081130027771,
   -0.17386050522327423,
   -2.0900321006774902
  ],
  [
   -0.16305992007255554,
   -0.5279507637023926,
   0.304324746131897,
   2.4035074710845947,
   1.6367582082748413,
   -1.7351919412612915
  ],
  [
   1.7326892614364624,
   0.26357710361480713,
   -0.5046783685684204,
   0.0668974369764328,
   3.6411972045898438,
   2.6772348880767822
  ],
  [
   -1.0535043478012085,
   -4.13104772567749,
   0.5095697641372681,
   3.054879903793335,
   -0.9947528839111328,
   -0.016790885478258133
  ],
  [
   0.9946260452270508,
   -2.8168976306915283,
   0.21810397505760193,
   -0.31562286615371704,
   -0.23547832667827606,
   2.9033682346343994
  ],
  [
   3.855689764022827,
   3.822735548019409,
   0.9279229640960693,
   -0.4602106511592865,
   0.575657069683075,
   -0.24868808686733246
  ],
  [
   -3.4152324199676514,
   0.992402970790863,
   -0.5154848098754883,
   2.50142765045166,
   -0.024488424882292747,
   2.59401798248291
  ],
  [
   2.7451157569885254,
   2.259187936782837,
   -0.16965274512767792,
   0.5893848538398743,
   2.039149761199951,
   -2.759934902191162
  ],
  [
   -1.9160007238388062,
   -0.8831996321678162,
   1.3896524906158447,
   -3.5631515979766846,
   1.2851814031600952,
   0.0902320072054863
  ],
  [
   1.1395059823989868,
   -4.265799522399902,
   1.0745477676391602,
   -0.9076039791107178,
   0.9174268245697021,
   1.8704161643981934
  ],
  [
   -3.698657989501953,
   3.2877016067504883,
   1.2295026779174805,
   1.2801343202590942,
   -0.6979218125343323,
   -0.7840471863746643
  ],
  [
   0.23175328969955444,
   7.428079605102539,
   0.8314322829246521,
   -0.07328731566667557,
   -0.0786348357796669,
   0.07710311561822891
  ],
  [
   -2.1563730239868164,
   -2.0087623596191406,
   0.38451293110847473,
   0.9243138432502747,
   -2.265777826309204,
   -0.35705113410949707
  ],
  [
   -2.1905133724212646,
   2.8531618118286133,
   -1.7327646017074585,
   1.6596018075942993,
   1.9192187786102295,
   2.0497920513153076
  ],
  [
   1.4988594055175781,
   0.6299258470535278,
   -0.7106459736824036,
   -2.754438638687134,
   -2.871351480484009,
   -1.513529896736145
  ],
  [
   1.7809288501739502,
   0.5306600332260132,
   0.15071798861026764,
   -2.1265511512756348,
   -3.3710198402404785,
   -0.15390697121620178
  ],
  [
   1.5042387247085571,
   -2.044207811355591,
   0.8444466590881348,
   -1.4084163904190063,
   -1.0409213304519653,
   3.093689441680908
  ],
  [
   -0.6406425833702087,
   2.272578239440918,
   -0.03375611826777458,
   -0.6250693202018738,
   1.3738071918487549,
   -3.311486005783081
  ],
  [
   -0.2115379273891449,
   -0.7825988531112671,
   2.060490369796753,
   0.30129268765449524,
   1.0573111772537231,
   -2.90403151512146
  ],
  [
   -6.3728251457214355,
   -0.3653288185596466,
   -0.6470197439193726,
   0.13048699498176575,
   1.4761104583740234,
   -0.286091685295105
  ],
  [
   -3.038445234298706,
   -5.539878845214844,
   -0.864739179611206,
   -0.23729155957698822,
   -0.62786465883255,
   0.9884003400802612
  ],
  [
   5.909129619598389,
   1.1509026288986206,
   0.6965866684913635,
   0.26906436681747437,
   -0.5083450675010681,
   0.9821345806121826
  ],
  [
   -0.8924229741096497,
   -3.5205588340759277,
   -1.4587304592132568,
   -0.5735266208648682,
   1.8857951164245605,
   0.32753244042396545
  ],
  [
   -6.834371089935303,
   -0.7084203362464905,
   -0.2061740607023239,
   0.2918512523174286,
   1.7179226875305176,
   1.6050481796264648
  ],
  [
   -3.6136739253997803,
   -2.5912985801696777,
   1.0810861587524414,
   -0.4307464063167572,
   0.8433669209480286,
   -0.4416893422603607
  ],
  [
   -2.686551809310913,
   -2.2282373905181885,
   0.09304419159889221,
   0.015149765647947788,
   2.323915481567383,
   2.3944895267486572
  ],
  [
   -2.9500858783721924,
   1.5918103456497192,
   -0.4181342124938965,
   0.10129281878471375,
   4.41272497177124,
   0.09917700290679932
  ],
  [
   -1.030395746231079,
   -1.9030933380126953,
   -0.1024116799235344,
   -1.8836934566497803,
   0.6585689187049866,
   -0.4944637715816498
  ],
  [
   -0.6483213305473328,
   2.0356385707855225,
   -0.8182039260864258,
   -1.526760220527649,
   -1.6842961311340332,
   2.1892199516296387
  ],
  [
   2.110997200012207,
   3.460681200027466,
   -0.7233396768569946,
   2.697549819946289,
   0.4758526384830475,
   -0.9337103962898254
  ],
  [
   0.9199857115745544,
   -11.151692390441895,
   0.4283572733402252,
   0.6585863828659058,
   -0.13233733177185059,
   0.5967379212379456
  ],
  [
   -11.030142784118652,
   -1.2565586566925049,
   -0.9032803177833557,
   -0.3838822543621063,
   3.0065088272094727,
   0.4784238338470459
  ],
  [
   -2.962357521057129,
   -2.923340082168579,
   -0.12098528444766998,
   -1.507546067237854,
   -1.2351504564285278,
   -0.3566851019859314
  ],
  [
   -0.44487863779067993,
   1.2123967409133911,
   -0.45980048179626465,
   -0.7576887011528015,
   -3.1044633388519287,
   0.617821455001831
  ],
  [
   -0.024354595690965652,
   -3.769563674926758,
   -0.25465425848960876,
   -1.4609477519989014,
   -0.5583717823028564,
   2.2965705394744873
  ],
  [
   1.0232235193252563,
   4.567148685455322,
   0.2830963730812073,
   -0.12256761640310287,
   1.4154218435287476,
   1.1477924585342407
  ],
  [
   2.1765706539154053,
   -1.6699879169464111,
   1.426251769065857,
   0.6201072931289673,
   -1.110942006111145,
   3.041987180709839
  ],
  [
   -0.8146087527275085,
   -1.4840270280838013,
   0.03821566700935364,
   -0.877997636795044,
   -3.534296989440918,
   -0.21403953433036804
  ],
  [
   -0.21687501668930054,
   -4.794785022735596,
   -1.1195485591888428,
   -0.6390318274497986,
   1.3399780988693237,
   -0.6020001173019409
  ],
  [
   3.746297597885132,
   1.8647699356079102,
   0.9564300775527954,
   -1.8990793228149414,
   0.3776278495788574,
   -0.9300190806388855
  ],
  [
   0.3706599771976471,
   -3.793156862258911,
   -1.9260897636413574,
   0.504838228225708,
   -2.607954502105713,
   -0.5867123007774353
  ],
  [
   1.3835362195968628,
   -1.969488263130188,
   2.3901593685150146,
   0.20622633397579193,
   -1.250898838043213,
   -0.5951824188232422
  ],
  [
   0.8239158987998962,
   -1.6588667631149292,
   -1.865822434425354,
   2.6169326305389404,
   1.401664137840271,
   0.022696681320667267
  ],
  [
   1.3007042407989502,
   -0.7813040614128113,
   -1.318395733833313,
   1.3933573961257935,
   -0.32135701179504395,
   0.18622615933418274
  ],
  [
   -0.47075626254081726,
   0.4508788287639618,
   0.45395782589912415,
   -1.2866510152816772,
   0.6168233156204224,
   2.960665464401245
  ],
  [
   -5.073818683624268,
   1.5400032997131348,
   0.3271075189113617,
   -0.9682979583740234,
   -1.0331597328186035,
   1.3173799514770508
  ],
  [
   -0.7246252298355103,
   -3.402462959289551,
   0.08609168231487274,
   0.8705159425735474,
   1.7073382139205933,
   -2.265037775039673
  ],
  [
   -2.367232084274292,
   -0.29909026622772217,
   0.30573704838752747,
   0.008924957364797592,
   -1.258408784866333,
   -0.5563600659370422
  ],
  [
   -2.909823179244995,
   1.4347429275512695,
   -0.2924046218395233,
   1.4181424379348755,
   -1.17910635471344,
   -2.232642412185669
  ],
  [
   0.26930752396583557,
   1.4734646081924438,
   0.93880295753479,
   -3.3105363845825195,
   1.2227075099945068,
   -2.079051971435547
  ],
  [
   -4.536179542541504,
   0.50486820936203,
   -0.8691245317459106,
   -0.18185196816921234,
   0.7840351462364197,
   2.9433932304382324
  ],
  [
   1.8061500787734985,
   2.5180823802948,
   3.0759246349334717,
   0.3157685399055481,
   -1.6394983530044556,
   -0.28824931383132935
  ],
  [
   5.463864326477051,
   -0.19776374101638794,
   -0.7040249705314636,
   0.34226804971694946,
   0.23276755213737488,
   -0.500540018081665
  ],
  [
   1.2072222232818604,
   -1.7586477994918823,
   0.24740390479564667,
   2.033047676086426,
   1.9317891597747803,
   0.6337884068489075
  ],
  [
   -1.9830456972122192,
   -4.677835941314697,
   0.041703660041093826,
   -0.026389598846435547,
   -0.39449697732925415,
   -1.571637511253357
  ],
  [
   1.118971347808838,
   -2.80462908744812,
   -0.5286259055137634,
   -1.548985481262207,
   0.9073213338851929,
   1.814933180809021
  ],
  [
   2.244011878967285,
   -0.8377234935760498,
   -0.047686636447906494,
   -0.11963209509849548,
   0.11755703389644623,
   0.7579590082168579
  ],
  [
   2.060333728790283,
   0.10703987628221512,
   -0.061558280140161514,
   -0.13186268508434296,
   1.5298840999603271,
   0.6981762051582336
  ],
  [
   -2.1753880977630615,
   5.173194885253906,
   -0.2568645179271698,
   1.5289149284362793,
   -1.0861515998840332,
   -0.6212801933288574
  ],
  [
   1.558801531791687,
   0.5534830689430237,
   -0.666559100151062,
   -0.5780147314071655,
   -2.0549228191375732,
   -3.039433717727661
  ],
  [
   -2.3516969680786133,
   -0.9184399843215942,
   0.39085790514945984,
   1.0149750709533691,
   1.4889909029006958,
   -0.1681302785873413
  ],
  [
   4.889104843139648,
   1.4051270484924316,
   0.8658565282821655,
   0.3235839605331421,
   1.9385631084442139,
   -1.3770321607589722
  ],
  [
   0.16154320538043976,
   0.9475812911987305,
   -0.04001406207680702,
   0.1781330406665802,
   0.9034948348999023,
   -0.10543248802423477
  ],
  [
   0.33142122626304626,
   1.2395862340927124,
   0.30190789699554443,
   -3.281198740005493,
   -0.8959067463874817,
   -1.5193965435028076
  ],
  [
   -2.031067132949829,
   -1.3867536783218384,
   -1.4439966678619385,
   2.487168550491333,
   2.211479425430298,
   -0.16758480668067932
  ],
  [
   -0.8503080010414124,
   -0.6360774636268616,
   0.5800303816795349,
   0.3584243655204773,
   -2.3074934482574463,
   -1.6618338823318481
  ],
  [
   -0.9763439297676086,
   -1.389626383781433,
   -3.6328749656677246,
   -0.5692799687385559,
   0.6975563168525696,
   -0.016736213117837906
  ],
  [
   1.3662430047988892,
   -3.4465248584747314,
   -0.046438068151474,
   -0.07049312442541122,
   1.9055238962173462,
   0.8289524912834167
  ],
  [
   -2.032071352005005,
   2.9160141944885254,
   0.5895839929580688,
   -1.9361900091171265,
   -0.6067237257957458,
   1.0107327699661255
  ],
  [
   -2.8413777351379395,
   -1.3151583671569824,
   0.23633185029029846,
   0.3797023892402649,
   1.789170742034912,
   -0.8415277004241943
  ],
  [
   1.7569069862365723,
   2.994464874267578,
   1.916088342666626,
   1.188438892364502,
   0.3783491849899292,
   -1.6958329677581787
  ],
  [
   0.9138472676277161,
   0.9651563763618469,
   0.23151171207427979,
   -0.8746241927146912,
   1.0457152128219604,
   1.8719196319580078
  ],
  [
   0.16834098100662231,
   1.086126685142517,
   1.4917726516723633,
   -0.0006663084495812654,
   -0.760771632194519,
   -0.9036502242088318
  ],
  [
   -1.746260643005371,
   -4.957660675048828,
   0.9598765969276428,
   -1.0056689977645874,
   0.2358439862728119,
   1.5124186277389526
  ],
  [
   1.8295503854751587,
   -3.031956672668457,
   -1.3913874626159668,
   -2.363196849822998,
   0.7627398371696472,
   0.5594473481178284
  ],
  [
   -0.4142458140850067,
   -2.1201114654541016,
   -0.9195704460144043,
   -0.32518842816352844,
   0.9060609340667725,
   3.5915024280548096
  ],
  [
   3.1883254051208496,
   -1.0852054357528687,
   -0.705464243888855,
   -1.8249146938323975,
   -1.6891242265701294,
   -1.6812279224395752
  ],
  [
   -3.518796682357788,
   -0.19730736315250397,
   0.2288990616798401,
   -0.00019673776114359498,
   1.628811240196228,
   1.8500741720199585
  ],
  [
   -0.7065883874893188,
   5.708235263824463,
   -1.155471920967102,
   0.9768121838569641,
   -0.3360782563686371,
   -0.2532723546028137
  ],
  [
   4.167476177215576,
   0.6001311540603638,
   -0.21520575881004333,
   -0.24357040226459503,
   -2.7810254096984863,
   -0.7047386765480042
  ],
  [
   -2.105876922607422,
   -0.07474467903375626,
   -1.1907175779342651,
   -1.734349250793457,
   -3.1058595180511475,
   -0.8414807319641113
  ],
  [
   -3.4268798828125,
   -2.746316909790039,
   0.6012702584266663,
   1.6943632364273071,
   -0.39836016297340393,
   -1.1768635511398315
  ],
  [
   -0.33863067626953125,
   -3.150568723678589,
   1.0701438188552856,
   -1.9117558002471924,
   1.3506848812103271,
   3.1154677867889404
  ],
  [
   -1.1927745342254639,
   2.587176561355591,
   0.5260852575302124,
   0.8856849670410156,
   -3.566903829574585,
   -1.572060227394104
  ],
  [
   -0.0962662547826767,
   0.27447113394737244,
   -1.513683557510376,
   -2.793727397918701,
   1.4717293977737427,
   1.5213267803192139
  ],
  [
   -2.7972824573516846,
   0.5740353465080261,
   0.8282560706138611,
   0.9975628852844238,
   -0.9740546345710754,
   -1.8779668807983398
  ],
  [
   -0.572563111782074,
   -2.8810694217681885,
   -0.6900998950004578,
   1.3570592403411865,
   0.03740893304347992,
   2.092876434326172
  ],
  [
   2.427899122238159,
   -2.8403422832489014,
   0.5102167129516602,
   -0.010634871199727058,
   0.21237081289291382,
   -1.3974212408065796
  ],
  [
   -1.6239066123962402,
   -1.3380240201950073,
   -2.446629524230957,
   -0.4282897710800171,
   -1.8923135995864868,
   0.39520692825317383
  ],
  [
   -0.7005492448806763,
   0.8713129162788391,
   -0.6594122052192688,
   -2.2281739711761475,
   0.4432864487171173,
   1.717857003211975
  ],
  [
   -3.557204246520996,
   -1.7818413972854614,
   -2.0892839431762695,
   -1.3926373720169067,
   0.4709836542606354,
   0.2992316484451294
  ],
  [
   -0.07145535945892334,
   -2.351726770401001,
   3.3153114318847656,
   0.5303371548652649,
   -0.38701456785202026,
   0.08335955440998077
  ],
  [
   -3.9992153644561768,
   2.0106444358825684,
   -1.416172981262207,
   -0.6325580477714539,
   2.0597338676452637,
   1.4403395652770996
  ],
  [
   0.09709376096725464,
   1.0491065979003906,
   -2.449845790863037,
   0.5124809145927429,
   -0.10609260201454163,
   -1.3331773281097412
  ],
  [
   1.5992952585220337,
   1.2970930337905884,
   -1.177445411682129,
   2.411672830581665,
   -0.5011542439460754,
   0.3412771224975586
  ],
  [
   3.040053129196167,
   0.523810625076294,
   -0.42613494396209717,
   -2.102064371109009,
   -0.5854050517082214,
   -2.471985101699829
  ],
  [
   -0.7807594537734985,
   -2.116018533706665,
   -0.6767259836196899,
   -1.3017278909683228,
   0.16661538183689117,
   1.3347684144973755
  ],
  [
   2.2732973098754883,
   2.9808645248413086,
   -0.2975328862667084,
   2.105635404586792,
   1.494154930114746,
   1.9312598705291748
  ],
  [
   4.442217826843262,
   1.0553687810897827,
   0.03456560894846916,
   -0.07466096431016922,
   -1.8140978813171387,
   -1.8419723510742188
  ],
  [
   0.007916202768683434,
   -1.6380869150161743,
   0.7562207579612732,
   -1.8827425241470337,
   -3.444730281829834,
   -0.5119791030883789
  ],
  [
   5.864522933959961,
   0.1796567142009735,
   -0.2006186842918396,
   -0.08512625843286514,
   -0.06814325600862503,
   -0.5828614830970764
  ],
  [
   -0.8994943499565125,
   -1.5872383117675781,
   -1.1843386888504028,
   -1.6083647012710571,
   0.4958360195159912,
   0.8179888129234314
  ],
  [
   -0.20204588770866394,
   -0.33672162890434265,
   0.7974952459335327,
   1.2100744247436523,
   -1.9140890836715698,
   -0.40335166454315186
  ],
  [
   0.28508979082107544,
   -3.0876359939575195,
   -0.21848519146442413,
   0.800089418888092,
   2.714970350265503,
   1.6176025867462158
  ],
  [
   -0.7737627625465393,
   -0.7726067900657654,
   -0.06593646109104156,
   1.2863167524337769,
   -0.4190559685230255,
   -1.8895241022109985
  ],
  [
   -2.737144947052002,
   -1.7240558862686157,
   1.8653960227966309,
   2.2582125663757324,
   0.286026269197464,
   2.0517053604125977
  ],
  [
   1.4398384094238281,
   -1.840545892715454,
   -1.1218117475509644,
   0.6470464468002319,
   -2.3967807292938232,
   1.38958740234375
  ],
  [
   2.491018772125244,
   -0.6535071134567261,
   1.7792929410934448,
   1.2146573066711426,
   -0.6244514584541321,
   -0.2282176911830902
  ],
  [
   -1.9251352548599243,
   -0.2579672634601593,
   3.3405141830444336,
   -1.2374638319015503,
   0.34692567586898804,
   0.9058525562286377
  ],
  [
   -0.15973027050495148,
   -0.20733453333377838,
   -1.0316181182861328,
   -2.233030319213867,
   -0.14481890201568604,
   4.487381458282471
  ],
  [
   -1.9109302759170532,
   0.8888735175132751,
   1.2147196531295776,
   0.05660603195428848,
   -3.057129383087158,
   1.175321102142334
  ],
  [
   -1.2179871797561646,
   2.245068073272705,
   0.26963087916374207,
   3.5427138805389404,
   0.3847545087337494,
   0.16713325679302216
  ],
  [
   -5.529603958129883,
   0.8068621158599854,
   0.2209482640028,
   0.7034595608711243,
   0.8970561623573303,
   0.2225126177072525
  ],
  [
   -3.2907907962799072,
   0.01015659049153328,
   -0.6777909994125366,
   -1.9138247966766357,
   2.8817670345306396,
   -1.3668094873428345
  ],
  [
   0.27514973282814026,
   -1.9765278100967407,
   2.3758163452148438,
   0.8889895677566528,
   -2.3636679649353027,
   1.4888391494750977
  ],
  [
   5.412007808685303,
   -1.2490947246551514,
   -0.35082218050956726,
   -0.9663706421852112,
   -1.6765823364257812,
   -0.26365843415260315
  ],
  [
   2.347465753555298,
   -1.5256800651550293,
   0.9048098921775818,
   0.5839015245437622,
   -1.3404673337936401,
   1.1941758394241333
  ],
  [
   1.6407175064086914,
   -0.36449819803237915,
   -2.4748964309692383,
   -0.4262683093547821,
   -2.2187016010284424,
   -0.7685956954956055
  ],
  [
   8.382759094238281,
   1.013788104057312,
   1.4219155311584473,
   0.17156052589416504,
   1.001397728919983,
   0.2619434595108032
  ],
  [
   -0.072699174284935,
   0.17098639905452728,
   2.4967801570892334,
   -0.9618414044380188,
   -1.276746153831482,
   -2.312178611755371
  ],
  [
   -0.6457765698432922,
   -2.0009543895721436,
   0.09663055092096329,
   0.07750219106674194,
   3.056518793106079,
   2.4907290935516357
  ],
  [
   -1.5858033895492554,
   -0.6461946368217468,
   -1.4501253366470337,
   0.38004475831985474,
   -1.1388287544250488,
   1.8624848127365112
  ],
  [
   -2.322843313217163,
   4.062880039215088,
   -0.9392845630645752,
   -1.493979811668396,
   0.28264307975769043,
   1.7040443420410156
  ],
  [
   -4.168634414672852,
   0.9252885580062866,
   0.49874618649482727,
   0.09370462596416473,
   3.0306708812713623,
   0.25183066725730896
  ],
  [
   -0.8258980512619019,
   -0.26566746830940247,
   0.8662738800048828,
   1.0007730722427368,
   2.387761116027832,
   -1.6877167224884033
  ],
  [
   0.867694616317749,
   5.304930686950684,
   -1.6477242708206177,
   -1.0093109607696533,
   0.9328178763389587,
   1.1380375623703003
  ],
  [
   -0.8260929584503174,
   -8.786791801452637,
   -0.3052428960800171,
   -0.370730996131897,
   -0.4136025309562683,
   1.3350915908813477
  ],
  [
   2.4066104888916016,
   1.4218846559524536,
   -1.179466724395752,
   -0.8367742896080017,
   -2.309225082397461,
   -1.0127443075180054
  ],
  [
   3.8142945766448975,
   0.59372478723526,
   1.5422292947769165,
   -1.2776410579681396,
   1.3724147081375122,
   -0.23064100742340088
  ],
  [
   -0.5651182532310486,
   0.056036751717329025,
   0.285744845867157,
   4.882911205291748,
   -0.8477475047111511,
   1.3270035982131958
  ],
  [
   0.24520541727542877,
   -0.2919934093952179,
   -0.5699898600578308,
   -2.757997989654541,
   0.2250824123620987,
   -0.20207341015338898
  ],
  [
   2.418936252593994,
   0.18379344046115875,
   0.36238476634025574,
   2.43141770362854,
   -0.07583395391702652,
   0.07662052661180496
  ],
  [
   -0.7850955128669739,
   -1.048056960105896,
   2.410567045211792,
   1.046154260635376,
   -2.5855724811553955,
   -1.5585846900939941
  ],
  [
   4.995940208435059,
   2.53352427482605,
   0.6670049428939819,
   0.2496984302997589,
   -0.19481797516345978,
   -0.021724261343479156
  ],
  [
   -0.5644048452377319,
   -1.1491038799285889,
   -1.8709464073181152,
   -0.9608371257781982,
   3.4460296630859375,
   0.33886364102363586
  ],
  [
   -3.4675400257110596,
   1.8540524244308472,
   0.2065165489912033,
   -0.03185255080461502,
   -0.745701014995575,
   -3.0428364276885986
  ],
  [
   1.1329717636108398,
   -0.367332398891449,
   2.4004340171813965,
   -0.2199486345052719,
   -3.766554594039917,
   0.0318455807864666
  ],
  [
   -0.24397152662277222,
   1.3260592222213745,
   1.643574833869934,
   -2.685429811477661,
   2.7897067070007324,
   1.7079774141311646
  ],
  [
   1.2737693786621094,
   -5.773013591766357,
   1.2109007835388184,
   -0.3950565457344055,
   -1.795991063117981,
   2.6030588150024414
  ],
  [
   1.7225531339645386,
   -0.12184910476207733,
   0.025804150849580765,
   -0.2951294481754303,
   -1.960930585861206,
   0.5739500522613525
  ],
  [
   0.8034254908561707,
   8.931722640991211,
   -0.40545588731765747,
   -0.2965765595436096,
   0.818397045135498,
   0.456106960773468
  ],
  [
   3.061269760131836,
   0.8350569009780884,
   0.5594831109046936,
   -1.1986079216003418,
   -1.7227468490600586,
   2.1286697387695312
  ],
  [
   -1.0137635469436646,
   0.09794139862060547,
   -2.917079210281372,
   1.4489375352859497,
   -0.32383403182029724,
   -1.8861963748931885
  ],
  [
   1.3906840085983276,
   -0.04376078397035599,
   0.48195701837539673,
   2.1217637062072754,
   4.225970268249512,
   0.03537793830037117
  ],
  [
   1.1701135635375977,
   -2.977153778076172,
   -1.70498788356781,
   -0.24245582520961761,
   1.0908750295639038,
   0.6000078916549683
  ],
  [
   2.147278070449829,
   3.61173415184021,
   0.3517557978630066,
   0.5755226612091064,
   -1.1199936866760254,
   -2.849397897720337
  ],
  [
   -3.9173481464385986,
   0.7215914130210876,
   0.6590461730957031,
   -0.36786720156669617,
   2.680668354034424,
   -0.6365727782249451
  ],
  [
   -2.1260504722595215,
   0.6966467499732971,
   1.8421722650527954,
   -0.3555055558681488,
   1.1150784492492676,
   -1.712310552597046
  ],
  [
   0.1560158133506775,
   0.1451777070760727,
   2.830200672149658,
   -0.2599635124206543,
   -2.3563008308410645,
   -0.7577621340751648
  ],
  [
   1.286025881767273,
   -1.9733357429504395,
   2.2364234924316406,
   -1.7036805152893066,
   0.3004457652568817,
   -0.03339911252260208
  ],
  [
   3.9587531089782715,
   1.1999043226242065,
   -0.23517848551273346,
   -1.537816047668457,
   -2.408172607421875,
   -0.80763179063797
  ],
  [
   0.59648197889328,
   -1.5758979320526123,
   0.6856420040130615,
   -1.3206169605255127,
   -1.6080888509750366,
   0.7936934232711792
  ],
  [
   -1.1385934352874756,
   1.7027692794799805,
   -1.8373568058013916,
   0.1590738743543625,
   -0.4961842894554138,
   0.6688876748085022
  ],
  [
   1.7226448059082031,
   1.981393814086914,
   -0.5280138254165649,
   -2.7043445110321045,
   -2.8890326023101807,
   2.344764471054077
  ],
  [
   0.8308367729187012,
   2.464402198791504,
   1.9223636388778687,
   -0.11669560521841049,
   0.6692975759506226,
   -0.330742746591568
  ],
  [
   -3.0379984378814697,
   -0.04750669375061989,
   1.1743707656860352,
   -1.943314790725708,
   -0.7365725040435791,
   2.4457168579101562
  ],
  [
   -0.3112366199493408,
   -6.404849529266357,
   0.5043563842773438,
   0.5238431096076965,
   1.3716905117034912,
   -1.3901106119155884
  ],
  [
   -0.8811126351356506,
   0.6537930965423584,
   1.7338589429855347,
   2.445496082305908,
   -0.18450969457626343,
   -1.3088122606277466
  ],
  [
   -0.11938441544771194,
   0.6029362678527832,
   0.8423961997032166,
   -1.515402913093567,
   -3.481410264968872,
   -0.22112978994846344
  ],
  [
   0.6783579587936401,
   -1.0397142171859741,
   -1.0152045488357544,
   -0.7055543661117554,
   -2.409583330154419,
   2.355076313018799
  ],
  [
   2.2241222858428955,
   2.6767139434814453,
   0.16981996595859528,
   -0.20145650207996368,
   -1.5753486156463623,
   0.6398033499717712
  ],
  [
   4.728764057159424,
   -1.0419734716415405,
   -1.5564080476760864,
   -1.8017760515213013,
   -1.0005664825439453,
   -0.4531462788581848
  ],
  [
   -0.061232782900333405,
   0.656863808631897,
   0.7221128344535828,
   -2.681666135787964,
   -2.418571949005127,
   0.3651655912399292
  ],
  [
   2.555628776550293,
   0.0757075622677803,
   0.09501518309116364,
   -4.468334197998047,
   1.4713252782821655,
   0.953447699546814
  ],
  [
   -0.501237690448761,
   -0.0711597129702568,
   -3.4046571254730225,
   -0.24290253221988678,
   1.947255253791809,
   0.9913483262062073
  ],
  [
   2.2380709648132324,
   -5.11270809173584,
   -0.09159614145755768,
   0.004859813954681158,
   -0.15884928405284882,
   -1.128645896911621
  ],
  [
   0.5726784467697144,
   2.0923213958740234,
   -0.9007017016410828,
   -1.838594913482666,
   1.189045786857605,
   0.5259684920310974
  ],
  [
   -5.772462368011475,
   -0.23752278089523315,
   -0.21708130836486816,
   -1.1226377487182617,
   -0.8741713762283325,
   -2.168329954147339
  ],
  [
   -0.8514456748962402,
   3.4375691413879395,
   -0.874340832233429,
   -1.0140886306762695,
   1.1351954936981201,
   -1.8007729053497314
  ],
  [
   -2.1905064582824707,
   2.4168217182159424,
   0.5427418351173401,
   2.151841163635254,
   2.5190346240997314,
   -1.3463093042373657
  ],
  [
   -2.643911838531494,
   -1.9832568168640137,
   -1.986647605895996,
   1.296181321144104,
   1.76412034034729,
   -0.13751158118247986
  ],
  [
   -2.62484073638916,
   -1.5327993631362915,
   1.7912620306015015,
   -1.450057864189148,
   0.5635122656822205,
   -1.7800333499908447
  ],
  [
   1.044155478477478,
   2.4911224842071533,
   0.359677255153656,
   -1.1232359409332275,
   -2.5587899684906006,
   -1.1840293407440186
  ],
  [
   1.2659226655960083,
   1.9333614110946655,
   0.6231189966201782,
   -0.8927395343780518,
   1.4646244049072266,
   -2.4386825561523438
  ],
  [
   -0.08590304106473923,
   -1.5267695188522339,
   1.0897042751312256,
   -2.7906270027160645,
   0.4070371091365814,
   -0.6784713864326477
  ],
  [
   -2.61236310005188,
   0.21377795934677124,
   0.6728483438491821,
   -0.16575047373771667,
   0.0038171831984072924,
   4.1971259117126465
  ],
  [
   -1.3601223230361938,
   0.2805355489253998,
   -0.2660897374153137,
   -3.094240188598633,
   -0.3961445987224579,
   1.0622220039367676
  ],
  [
   2.582641839981079,
   1.1626960039138794,
   -0.336355060338974,
   -2.272005558013916,
   0.3697076141834259,
   -0.5158720016479492
  ],
  [
   -0.05737677589058876,
   -0.9943011403083801,
   2.404179811477661,
   0.08754084259271622,
   -0.08847245573997498,
   1.291748046875
  ],
  [
   -0.9271374344825745,
   0.2869001626968384,
   -0.017193619161844254,
   -2.8529837131500244,
   0.5431925654411316,
   -0.35646796226501465
  ],
  [
   2.896495819091797,
   -0.6490605473518372,
   0.37836602330207825,
   -2.7907567024230957,
   -1.260321021080017,
   -0.9984886646270752
  ],
  [
   -1.6842280626296997,
   -1.8310918807983398,
   1.3776060342788696,
   -1.697957992553711,
   0.5648256540298462,
   0.8484635949134827
  ],
  [
   -0.32692280411720276,
   -2.490021228790283,
   -2.8662490844726562,
   -1.8878917694091797,
   -1.8257194757461548,
   0.41192737221717834
  ],
  [
   0.1752324104309082,
   -1.2710062265396118,
   -0.35917171835899353,
   -2.078296184539795,
   -1.5460014343261719,
   4.052331924438477
  ],
  [
   0.49491071701049805,
   -4.21507453918457,
   0.5777668356895447,
   -1.9529715776443481,
   2.279078722000122,
   0.821511447429657
  ],
  [
   1.7283300161361694,
   -0.594386100769043,
   -1.178099274635315,
   -2.5847227573394775,
   0.468756765127182,
   1.1131510734558105
  ],
  [
   -0.4309185743331909,
   1.2730077505111694,
   0.050797708332538605,
   -3.0487194061279297,
   2.0057785511016846,
   2.069514036178589
  ],
  [
   -4.33277702331543,
   -0.3350631892681122,
   1.6662538051605225,
   0.1948421448469162,
   -3.5242838859558105,
   -0.5344898104667664
  ],
  [
   -12.593934059143066,
   -0.1395150125026703,
   0.4597964286804199,
   -0.4401685297489166,
   0.8045814633369446,
   0.31684163212776184
  ],
  [
   -1.7123308181762695,
   -2.76086688041687,
   -1.7404876947402954,
   0.6822171211242676,
   -1.0721765756607056,
   2.022791624069214
  ],
  [
   -0.481963187456131,
   6.472107887268066,
   0.008227270096540451,
   1.8411754369735718,
   0.07220545411109924,
   0.6891990900039673
  ],
  [
   0.45933184027671814,
   3.023275852203369,
   -1.0434459447860718,
   -1.4255650043487549,
   3.2761142253875732,
   -0.8359203934669495
  ],
  [
   0.40751513838768005,
   -2.619586706161499,
   0.1380680799484253,
   -1.8397581577301025,
   -0.8076299428939819,
   -1.109512209892273
  ],
  [
   2.114572525024414,
   -2.431436777114868,
   0.11736159026622772,
   0.4598868489265442,
   -1.9907790422439575,
   1.1920409202575684
  ],
  [
   0.8046171069145203,
   0.5963717103004456,
   1.776673436164856,
   0.4692751169204712,
   0.618897557258606,
   -0.17201940715312958
  ]
 ],
 "pi.0.bias": [
  0.5628089308738708,
  0.7631957530975342,
  2.5220799446105957,
  -1.917983055114746,
  -0.5186296105384827,
  -3.771721363067627,
  -4.499357223510742,
  3.9406559467315674,
  -1.3392417430877686,
  -3.897329330444336,
  1.3431278467178345,
  0.20313017070293427,
  -0.15834057331085205,
  -1.133083462715149,
  -2.3461763858795166,
  -3.7446117401123047,
  -1.1790651082992554,
  0.6227319836616516,
  1.0387688875198364,
  -0.617485761642456,
  1.117262363433838,
  -2.4836156368255615,
  -3.4978082180023193,
  1.2942150831222534,
  -1.7545113563537598,
  1.6097495555877686,
  -2.1788439750671387,
  1.3016526699066162,
  0.09631431102752686,
  -3.0114924907684326,
  -0.10678914934396744,
  -1.0439976453781128,
  -4.743971347808838,
  0.14460060000419617,
  1.9220972061157227,
  -0.7488061785697937,
  -1.0310139656066895,
  1.6400258541107178,
  1.9363895654678345,
  -2.58797550201416,
  2.4782955646514893,
  -0.8436008095741272,
  -3.5804171562194824,
  -1.4017772674560547,
  -2.3874151706695557,
  -1.5086698532104492,
  -3.8938088417053223,
  -0.06103406101465225,
  -3.907917022705078,
  -3.400392770767212,
  1.790511131286621,
  3.4284090995788574,
  3.851370096206665,
  -1.4827349185943604,
  0.35152217745780945,
  0.016377998515963554,
  0.06445633620023727,
  -1.8154925107955933,
  4.485560894012451,
  3.070554494857788,
  -0.9863235354423523,
  -4.54901123046875,
  3.387295961380005,
  -0.497305303812027,
  0.21626771986484528,
  -4.079221248626709,
  1.5257645845413208,
  3.3904972076416016,
  -4.059301376342773,
  1.196231484413147,
  -3.565939426422119,
  0.8897823691368103,
  4.204934597015381,
  -3.1231203079223633,
  4.128377437591553,
  1.6511942148208618,
  2.2139334678649902,
  4.795083999633789,
  2.5926084518432617,
  0.17973332107067108,
  0.4083918333053589,
  -1.1175110340118408,
  -4.595575332641602,
  0.13677218556404114,
  -1.3221157789230347,
  0.01906009018421173,
  -3.0679683685302734,
  -0.16221487522125244,
  -0.6524776816368103,
  -1.2110204696655273,
  -0.2678772509098053,
  2.6537134647369385,
  -4.214834690093994,
  -4.013667106628418,
  3.973068952560425,
  -2.9299941062927246,
  0.18922549486160278,
  0.7178086042404175,
  -2.6761629581451416,
  -3.957568645477295,
  2.2521324157714844,
  -4.158857822418213,
  0.8671786189079285,
  -2.925475835800171,
  1.9922289848327637,
  1.0600665807724,
  -4.757684230804443,
  1.8101682662963867,
  -1.068354845046997,
  2.7956106662750244,
  -1.5667307376861572,
  -2.136803388595581,
  -4.745932102203369,
  -0.49847036600112915,
  -0.8173520565032959,
  1.4837548732757568,
  -3.7074761390686035,
  -2.043043613433838,
  1.7443755865097046,
  -1.2946202754974365,
  -2.3615262508392334,
  -1.2796850204467773,
  -1.3899409770965576,
  2.572746992111206,
  -0.15388135612010956,
  2.5957372188568115,
  2.0123238563537598,
  2.998866319656372,
  -1.3152656555175781,
  -3.574584484100342,
  -2.397329092025757,
  -2.5081279277801514,
  -3.521007537841797,
  -1.7505711317062378,
  -1.8395698070526123,
  -4.122247219085693,
  5.551805019378662,
  -1.6200050115585327,
  1.17974054813385,
  -2.5603325366973877,
  1.5487056970596313,
  -2.1319267749786377,
  -3.218683958053589,
  3.200974464416504,
  -4.3898115158081055,
  2.33918833732605,
  2.3965065479278564,
  1.7369433641433716,
  2.294735908508301,
  2.9515955448150635,
  -0.6586776971817017,
  -3.1246137619018555,
  3.320387840270996,
  -2.642493486404419,
  -0.8047406673431396,
  -2.924797534942627,
  -4.200021743774414,
  -3.428800106048584,
  1.122320532798767,
  -3.677985191345215,
  0.5894377827644348,
  1.8277872800827026,
  -3.2700772285461426,
  -3.306642532348633,
  -2.6115663051605225,
  4.368675231933594,
  1.4440886974334717,
  2.8861727714538574,
  0.9148911237716675,
  1.5010464191436768,
  2.0806753635406494,
  5.1698455810546875,
  0.058178115636110306,
  -1.3579827547073364,
  1.4728729724884033,
  1.7643823623657227,
  -3.994814157485962,
  -4.4844207763671875,
  1.6186269521713257,
  2.1351370811462402,
  0.4703810513019562,
  -2.09977388381958,
  2.086571455001831,
  -0.8080361485481262,
  2.103266716003418,
  1.039926290512085,
  -3.872561454772949,
  3.168025255203247,
  0.7949727773666382,
  -1.1229983568191528,
  -3.142916440963745,
  -0.38332292437553406,
  0.26032623648643494,
  -1.81657075881958,
  -0.7028241157531738,
  -3.8474156856536865,
  -0.5522125959396362,
  -4.768649101257324,
  -3.929460287094116,
  -4.624598503112793
 ],
 "pi.2.weight": [
  [
   -0.1565084606409073,
   -1.1496158838272095,
   -0.34222474694252014,
   -0.12131708115339279,
   -1.1279000043869019,
   -1.1824252605438232,
   1.0321059226989746,
   -0.5118824243545532,
   0.3001973330974579,
   0.8362930417060852,
   -0.21374011039733887,
   0.19052879512310028,
   0.11088401824235916,
   0.27593961358070374,
   1.4474148750305176,
   0.18365857005119324,
   -0.34782448410987854,
   -1.2379505634307861,
   0.6471840143203735,
   1.52692711353302,
   0.12068510055541992,
   -2.286033868789673,
   -0.9781884551048279,
   0.14226508140563965,
   0.2785038352012634,
   0.06127777695655823,
   0.2710736393928528,
   -0.5121410489082336,
   0.9271020889282227,
   -0.5800930857658386,
   -0.1896335780620575,
   1.1689167022705078,
   0.4863869249820709,
   0.7718527317047119,
   0.19278879463672638,
   0.4343218505382538,
   1.473736047744751,
   0.733989953994751,
   -0.03393588215112686,
   1.9954657554626465,
   0.7033911347389221,
   0.1319856345653534,
   2.8949475288391113,
   -0.16635727882385254,
   -0.9745674133300781,
   -1.077697992324829,
   0.030281489714980125,
   0.49089574813842773,
   0.39797937870025635,
   0.018425118178129196,
   -1.7728893756866455,
   -0.3480721116065979,
   -0.05824144184589386,
   0.24915283918380737,
   -3.165471315383911,
   -0.013839050196111202,
   0.8598324656486511,
   0.6479081511497498,
   0.19204187393188477,
   0.3198144733905792,
   0.5734977126121521,
   -1.6443870067596436,
   1.6117990016937256,
   0.17565077543258667,
   -0.19184072315692902,
   -0.16719789803028107,
   -0.4232187569141388,
   1.0847623348236084,
   -1.0530588626861572,
   0.03350625932216644,
   -2.0519256591796875,
   -0.5389226078987122,
   -0.07926835864782333,
   1.0528205633163452,
   -0.043376874178647995,
   -0.6812501549720764,
   0.08647093176841736,
   -1.7388533353805542,
   0.8866008520126343,
   1.2728501558303833,
   1.2645494937896729,
   -1.305119514465332,
   -2.121938705444336,
   -0.30358049273490906,
   0.5527459979057312,
   0.6727619171142578,
   -0.009029732085764408,
   -0.5235362648963928,
   -0.5351076722145081,
   0.5553876757621765,
   -0.47849100828170776,
   0.9208667874336243,
   1.3778043985366821,
   -0.5763715505599976,
   -0.6727168560028076,
   1.6651251316070557,
   1.0464823246002197,
   -0.7948794960975647,
   0.35825496912002563,
   -0.48487821221351624,
   -1.877145528793335,
   0.7447488307952881,
   -0.6565006971359253,
   -1.3113784790039062,
   0.5292038321495056,
   1.3008753061294556,
   0.48831385374069214,
   -0.24162667989730835,
   -0.5751641988754272,
   0.3462049663066864,
   1.1042591333389282,
   0.12890933454036713,
   1.6697760820388794,
   -0.6309635639190674,
   -0.26623794436454773,
   -1.971419334411621,
   0.09582298994064331,
   -0.054189201444387436,
   -0.056374769657850266,
   -0.036746617406606674,
   0.9645295739173889,
   0.5398278832435608,
   -0.5056305527687073,
   -1.1562283039093018,
   -1.2190704345703125,
   1.4628266096115112,
   0.35718175768852234,
   0.08694026619195938,
   -0.20396113395690918,
   0.056410953402519226,
   0.8507338166236877,
   -0.11297807097434998,
   0.4095970392227173,
   -0.18337783217430115,
   0.29400479793548584,
   -0.5858607888221741,
   -0.28016945719718933,
   0.28341883420944214,
   0.4617044925689697,
   0.4381570518016815,
   0.4564273953437805,
   0.6864064335823059,
   -4.672698497772217,
   -0.9837116599082947,
   0.6630083322525024,
   0.878670334815979,
   -0.8909325003623962,
   0.5228057503700256,
   0.30253905057907104,
   0.5076892375946045,
   0.20879659056663513,
   -1.69573974609375,
   -1.1965702772140503,
   -0.8072720170021057,
   -1.6800233125686646,
   -0.6938210129737854,
   -2.6595823764801025,
   -0.8108420372009277,
   -1.4187461137771606,
   -0.16372820734977722,
   0.09084071964025497,
   -0.8800390958786011,
   -0.4938712418079376,
   0.7480025887489319,
   1.0866199731826782,
   0.1341719776391983,
   -1.3822320699691772,
   -1.1850694417953491,
   -4.986893653869629,
   0.34356755018234253,
   -0.7364500761032104,
   -0.567053496837616,
   0.8459601998329163,
   -0.14301536977291107,
   0.06584049016237259,
   0.40331998467445374,
   0.45055514574050903,
   0.18696293234825134,
   -2.9184160232543945,
   -1.376910924911499,
   0.00933155044913292,
   0.2778795063495636,
   -1.2598168849945068,
   -1.0892364978790283,
   -0.8156747221946716,
   -2.5127792358398438,
   -1.3987290859222412,
   -0.1331828534603119,
   0.5621464252471924,
   -2.0588531494140625,
   1.1148676872253418,
   -3.459012508392334,
   -0.16926735639572144,
   -0.595107913017273,
   -1.0709081888198853,
   0.5210559964179993,
   -1.0230268239974976,
   0.814323902130127,
   -1.2127211093902588,
   -0.4213387072086334
  ],
  [
   0.4585043787956238,
   -0.10316076874732971,
   -0.44408872723579407,
   -1.745118498802185,
   -1.1433920860290527,
   0.43996766209602356,
   -1.9947047233581543,
   1.1144256591796875,
   -0.19818346202373505,
   -0.9218149185180664,
   0.06038101762533188,
   -0.718806803226471,
   1.1048742532730103,
   -0.05046970024704933,
   1.3641759157180786,
   -0.22699937224388123,
   0.42091429233551025,
   1.2990107536315918,
   1.423575520515442,
   0.4767903983592987,
   0.11395792663097382,
   2.6403656005859375,
   -2.439897060394287,
   -0.8814911842346191,
   -0.37279269099235535,
   -0.5037240386009216,
   0.12682290375232697,
   0.7267134189605713,
   0.2700273096561432,
   -0.900768518447876,
   -1.1042872667312622,
   -0.4198410212993622,
   1.3707798719406128,
   0.8898444175720215,
   -0.03136768192052841,
   -0.2435065358877182,
   0.14082162082195282,
   -1.8943825960159302,
   1.6109662055969238,
   -1.406915307044983,
   1.0020661354064941,
   1.2715650796890259,
   -1.5901354551315308,
   0.9860535264015198,
   1.2459121942520142,
   -0.5806275606155396,
   -1.0936685800552368,
   -0.6071951389312744,
   -2.0422050952911377,
   -0.17297741770744324,
   -0.15542608499526978,
   -0.030678389593958855,
   0.7293128967285156,
   -0.6233684420585632,
   -0.6405907869338989,
   0.35244303941726685,
   -0.398555725812912,
   0.10789552330970764,
   1.6798794269561768,
   0.118426613509655,
   0.43815118074417114,
   0.4432263672351837,
   0.24987447261810303,
   0.6071652770042419,
   0.025880781933665276,
   0.3307248651981354,
   1.4187275171279907,
   0.3496774435043335,
   -1.8026270866394043,
   0.37308964133262634,
   0.01176655013114214,
   0.3364694118499756,
   0.1835770159959793,
   0.18351531028747559,
   -0.5318736433982849,
   -0.5521351099014282,
   0.5827590227127075,
   -0.39730218052864075,
   -2.8880999088287354,
   -1.0568339824676514,
   -0.046133819967508316,
   -0.7973461747169495,
   -2.3526241779327393,
   0.7457320094108582,
   0.40154701471328735,
   0.7906910181045532,
   0.5677168965339661,
   1.1306698322296143,
   0.19790920615196228,
   -0.0065394314005970955,
   -0.15663659572601318,
   0.8034215569496155,
   -1.5228862762451172,
   2.424544334411621,
   1.4923104047775269,
   -0.8338128924369812,
   1.8913798332214355,
   -0.8927932381629944,
   -0.4876025915145874,
   -0.0003584723745007068,
   -1.1555869579315186,
   -2.1198232173919678,
   0.9493730664253235,
   0.8187733888626099,
   0.946519136428833,
   0.13539192080497742,
   1.4820159673690796,
   -0.12978073954582214,
   -0.8646060824394226,
   0.09998047351837158,
   -0.4506772756576538,
   -0.1995377242565155,
   1.0918251276016235,
   1.9223012924194336,
   0.2255512923002243,
   0.3254895508289337,
   -0.5433608889579773,
   1.4210587739944458,
   0.5301964282989502,
   1.2895821332931519,
   0.4110569655895233,
   1.413570761680603,
   -1.7690761089324951,
   -1.100030541419983,
   0.15968042612075806,
   1.2188053131103516,
   0.5386630892753601,
   0.5729645490646362,
   0.16332405805587769,
   -0.6849786043167114,
   -0.3205084502696991,
   -0.12386137247085571,
   -0.049038901925086975,
   0.047630202025175095,
   -1.3075344562530518,
   0.6201862096786499,
   0.13353155553340912,
   0.8361138701438904,
   -0.3411427438259125,
   1.3072190284729004,
   -0.8087989091873169,
   -0.22761809825897217,
   -1.3662947416305542,
   -0.5043894052505493,
   1.4923732280731201,
   1.5718926191329956,
   1.0909357070922852,
   -0.33269524574279785,
   -0.41268810629844666,
   -0.8943880200386047,
   -0.3005449175834656,
   -0.27994099259376526,
   -0.07734313607215881,
   -0.23414699733257294,
   -0.4722786247730255,
   1.3732188940048218,
   -0.6362727880477905,
   -2.5512328147888184,
   -1.9083173274993896,
   -2.24048113822937,
   -1.0424699783325195,
   -0.4829806387424469,
   -1.358125925064087,
   -1.3857635259628296,
   -0.7776711583137512,
   0.7550505995750427,
   -0.3312138020992279,
   -0.8209102153778076,
   0.8376568555831909,
   0.6728136539459229,
   1.1251906156539917,
   0.2051989883184433,
   0.2419845312833786,
   0.00936861615628004,
   0.11303608864545822,
   0.45392388105392456,
   0.43763211369514465,
   -0.34596171975135803,
   -0.09485898166894913,
   1.7755845785140991,
   0.7339026927947998,
   1.3038501739501953,
   0.029821913689374924,
   -0.7015116810798645,
   -2.044405460357666,
   -0.35554948449134827,
   3.120940923690796,
   -0.17131368815898895,
   1.038632869720459,
   0.3735106289386749,
   1.2234241962432861,
   -1.0184379816055298,
   1.2660125494003296,
   1.4858019351959229,
   0.5100541114807129,
   0.28152191638946533,
   -0.2852930426597595,
   0.664561927318573,
   -0.4602908790111542,
   -1.0165077447891235
  ],
  [
   -0.27637040615081787,
   -0.3402775824069977,
   0.8469383120536804,
   -0.3579144775867462,
   0.14578281342983246,
   -0.5318580865859985,
   0.8622967600822449,
   0.09641767293214798,
   0.46007275581359863,
   -0.264753133058548,
   0.30261629819869995,
   -0.7527952790260315,
   -0.5143616795539856,
   1.4658282995224,
   0.30671411752700806,
   -1.0993034839630127,
   1.8819836378097534,
   1.2700276374816895,
   0.9625670909881592,
   -1.2905449867248535,
   -0.7237693667411804,
   0.33435937762260437,
   -0.662600576877594,
   -1.216792106628418,
   -2.9538733959198,
   0.015675289556384087,
   0.705635666847229,
   0.7130112648010254,
   -0.29440972208976746,
   0.37086164951324463,
   -1.1877219676971436,
   0.5484967827796936,
   -0.6721047163009644,
   -1.2152490615844727,
   0.05037270113825798,
   -0.24034416675567627,
   -0.7347677946090698,
   0.04167412221431732,
   -0.8527820706367493,
   0.012248487211763859,
   -0.35483020544052124,
   -1.251177430152893,
   0.8091414570808411,
   0.9844823479652405,
   -0.0451606810092926,
   0.5429590344429016,
   -0.07154042273759842,
   -0.3770196735858917,
   1.005644679069519,
   -0.8609532117843628,
   -1.0905152559280396,
   -0.7241166830062866,
   0.10514623671770096,
   -0.9547762870788574,
   -0.5406585335731506,
   -0.21699775755405426,
   -0.155782550573349,
   0.1577553004026413,
   -0.09777527302503586,
   0.3641248941421509,
   0.7037592530250549,
   0.4860022962093353,
   0.01206954661756754,
   -1.1669732332229614,
   1.776636004447937,
   -0.6507542133331299,
   -0.25979748368263245,
   0.28867343068122864,
   0.986628532409668,
   1.215335726737976,
   0.3248966932296753,
   0.6086644530296326,
   0.5038148164749146,
   -0.629334032535553,
   0.21818691492080688,
   0.06638328731060028,
   -0.205281063914299,
   0.10300882905721664,
   -0.7616091370582581,
   0.6166380643844604,
   0.7405627369880676,
   0.5894917249679565,
   0.06050834432244301,
   0.38987618684768677,
   -1.0306427478790283,
   -1.3122228384017944,
   0.35188204050064087,
   0.6039409041404724,
   -0.5980187058448792,
   -0.1655103713274002,
   -0.4222469627857208,
   0.017468541860580444,
   -0.2538372278213501,
   -1.2974097728729248,
   -0.14004939794540405,
   -1.7278801202774048,
   -0.37732869386672974,
   1.0710594654083252,
   0.558372974395752,
   0.973192036151886,
   0.28749799728393555,
   0.13220442831516266,
   -0.20091168582439423,
   0.5874736309051514,
   0.18976078927516937,
   -0.4301069378852844,
   -0.26946350932121277,
   -0.17315152287483215,
   0.45186930894851685,
   -0.029297800734639168,
   -0.06855327636003494,
   -2.552212715148926,
   1.7235385179519653,
   0.03081679157912731,
   -0.33471035957336426,
   0.20190677046775818,
   0.22387978434562683,
   -2.110917568206787,
   0.7079022526741028,
   0.27930229902267456,
   -0.6479628682136536,
   -0.8731721043586731,
   -0.7237887382507324,
   0.41743502020835876,
   -0.7956491112709045,
   -1.0749856233596802,
   0.7611709237098694,
   -0.8649206757545471,
   -1.2127573490142822,
   0.5463857650756836,
   -0.5711954832077026,
   0.5702366232872009,
   0.229204460978508,
   0.8884437084197998,
   0.5254151821136475,
   -0.855614185333252,
   0.7376950979232788,
   -0.4358689785003662,
   0.2474280595779419,
   -0.48958879709243774,
   -0.6507059335708618,
   -1.0378597974777222,
   -0.4861326515674591,
   -0.6084201335906982,
   0.8089522123336792,
   1.0142719745635986,
   -0.216652050614357,
   -1.548578143119812,
   0.1042175218462944,
   0.6910534501075745,
   0.3015498220920563,
   -0.1669139266014099,
   -1.4128762483596802,
   -0.07438375055789948,
   0.02014877274632454,
   0.14269481599330902,
   -0.3631455898284912,
   0.23392118513584137,
   0.5989882349967957,
   -0.06644366681575775,
   -0.3762138783931732,
   -0.4706387221813202,
   0.20930521190166473,
   -0.23961861431598663,
   -0.699347972869873,
   -0.33921095728874207,
   1.5867751836776733,
   0.6815581917762756,
   -0.01312193926423788,
   -0.09873121231794357,
   0.2666187584400177,
   -0.47673046588897705,
   0.1569586545228958,
   -0.3325918912887573,
   0.6039239764213562,
   -0.3819178342819214,
   0.5968078374862671,
   -1.2329531908035278,
   0.33797067403793335,
   -1.001078724861145,
   0.17378509044647217,
   0.7862878441810608,
   -0.24796463549137115,
   0.7531048059463501,
   -0.6201536655426025,
   0.0736904963850975,
   0.8547777533531189,
   -1.6673064231872559,
   0.0018920446746051311,
   0.4966629147529602,
   0.27335846424102783,
   -0.36467188596725464,
   1.1907672882080078,
   -1.2716035842895508,
   0.578762412071228,
   1.164079189300537,
   0.3407222330570221,
   1.912582278251648,
   -0.12200834602117538,
   0.12430883198976517
  ],
  [
   -0.13537928462028503,
   -1.630039930343628,
   0.3918760120868683,
   0.7411091923713684,
   0.6902682781219482,
   1.82719087600708,
   0.16706930100917816,
   -0.287556916475296,
   -0.23417484760284424,
   -1.3505374193191528,
   -0.5954511761665344,
   0.011623010970652103,
   0.17449717223644257,
   0.09586700052022934,
   1.6362998485565186,
   0.7708995938301086,
   -0.5631672739982605,
   0.3319273591041565,
   0.6143589019775391,
   1.3161048889160156,
   -0.13212783634662628,
   -0.3344962000846863,
   -0.2960037887096405,
   -0.39263802766799927,
   -0.20454810559749603,
   -0.6768764853477478,
   -0.2930302619934082,
   -0.45500242710113525,
   -0.5820391178131104,
   -0.16740788519382477,
   -0.4507002830505371,
   -0.5359890460968018,
   0.530620276927948,
   -1.386281132698059,
   -2.3610892295837402,
   0.08617943525314331,
   -0.7594285011291504,
   -0.4972001016139984,
   -1.4059975147247314,
   -0.3035036623477936,
   -1.7145951986312866,
   1.1669052839279175,
   0.18641483783721924,
   1.8135409355163574,
   0.3610723316669464,
   -0.15329690277576447,
   0.9924510717391968,
   -0.4887550473213196,
   0.35335808992385864,
   0.5145331621170044,
   -2.485955238342285,
   -0.66180020570755,
   1.3875759840011597,
   2.2627081871032715,
   -0.3163130581378937,
   -0.1972591131925583,
   -0.25732046365737915,
   0.013976003043353558,
   -0.7680152058601379,
   -0.4704158902168274,
   -0.3828947842121124,
   1.5072646141052246,
   -0.41917678713798523,
   0.7712823152542114,
   0.16774022579193115,
   0.8893783092498779,
   -0.3207413852214813,
   0.008394819684326649,
   0.5800539255142212,
   -0.07046668231487274,
   1.0276567935943604,
   -2.361776828765869,
   -0.8514934182167053,
   2.6208574771881104,
   -0.1590600460767746,
   1.2552281618118286,
   -0.8119325637817383,
   -2.0255067348480225,
   -0.753463089466095,
   0.43120279908180237,
   1.0690754652023315,
   0.15636877715587616,
   0.3784436881542206,
   0.29722753167152405,
   1.1574822664260864,
   -0.693008542060852,
   -0.4002850651741028,
   -0.6629815697669983,
   1.0241446495056152,
   0.36516857147216797,
   0.6875338554382324,
   -0.7165505886077881,
   2.0130624771118164,
   2.5558364391326904,
   -0.4967586100101471,
   0.27679580450057983,
   0.5374948978424072,
   0.8060299754142761,
   1.164867639541626,
   0.15576477348804474,
   0.11010561883449554,
   -0.24106600880622864,
   0.8023732304573059,
   1.3095622062683105,
   1.6230403184890747,
   0.6771387457847595,
   2.0122604370117188,
   0.2793594300746918,
   0.154410719871521,
   -0.2563975751399994,
   -0.6055622100830078,
   1.2705308198928833,
   -1.1343179941177368,
   -1.2009375095367432,
   1.19919753074646,
   0.13127434253692627,
   0.35029032826423645,
   -0.047161709517240524,
   -0.95207279920578,
   1.1907926797866821,
   1.7851204872131348,
   0.12145271897315979,
   0.0040754470974206924,
   -0.48443251848220825,
   -0.14614135026931763,
   0.09897737950086594,
   -0.3754254877567291,
   0.04756113514304161,
   0.5973555445671082,
   -2.227174758911133,
   0.13918225467205048,
   0.02564963884651661,
   0.5218221545219421,
   0.37142911553382874,
   -0.49130499362945557,
   0.8033720850944519,
   -1.6788969039916992,
   0.5067673921585083,
   0.465589314699173,
   0.7770644426345825,
   0.37419289350509644,
   1.2001129388809204,
   -0.795071542263031,
   -0.6279283165931702,
   0.7135314345359802,
   0.34162917733192444,
   -0.0067975400015711784,
   -0.9648610353469849,
   -0.05209435522556305,
   -0.6212563514709473,
   -1.2793452739715576,
   -0.21810397505760193,
   0.20097164809703827,
   0.5305426120758057,
   2.198573112487793,
   -0.8108866810798645,
   0.4959796071052551,
   0.33931049704551697,
   -0.7571288347244263,
   0.2332339733839035,
   -1.3087005615234375,
   -1.4729247093200684,
   -2.6105082035064697,
   -0.3727012574672699,
   0.163090318441391,
   -0.04083007574081421,
   -0.08018404245376587,
   -0.664046049118042,
   -0.5216336250305176,
   -1.0603495836257935,
   -0.5708098411560059,
   -0.33982717990875244,
   0.16046006977558136,
   -0.10886455327272415,
   0.08223181217908859,
   0.684457004070282,
   1.1360399723052979,
   -0.7181447148323059,
   0.03495685011148453,
   -0.38533732295036316,
   -0.8979987502098083,
   1.356696367263794,
   -0.6839532852172852,
   -0.19098849594593048,
   0.14212240278720856,
   0.2389167994260788,
   0.9862747192382812,
   -1.3951698541641235,
   0.2964812219142914,
   -1.280585527420044,
   -0.9116761684417725,
   0.8326058983802795,
   0.03757495805621147,
   -0.8363800048828125,
   -0.7699280381202698,
   3.484945774078369,
   0.6578396558761597,
   2.527531862258911,
   -0.1061287596821785,
   -0.7419372200965881
  ],
  [
   0.6496564745903015,
   0.17407061159610748,
   0.41330015659332275,
   -0.24468234181404114,
   -0.6712270975112915,
   -1.4324463605880737,
   0.7136926651000977,
   -0.5181191563606262,
   -0.07925723493099213,
   0.7990913391113281,
   0.6255612969398499,
   -1.488189935684204,
   0.273980975151062,
   -0.20663435757160187,
   -0.015318880788981915,
   -0.9302079081535339,
   1.3024334907531738,
   0.4745385944843292,
   0.4252331852912903,
   -0.9720878601074219,
   0.49459710717201233,
   -0.04911980405449867,
   -1.5358155965805054,
   0.3259715139865875,
   -0.1579895168542862,
   0.7162954807281494,
   -0.4016372859477997,
   0.06618968397378922,
   1.919595718383789,
   0.35446295142173767,
   -0.9130923748016357,
   -0.2951529324054718,
   1.0377082824707031,
   0.6671297550201416,
   -0.14535298943519592,
   -1.0750858783721924,
   -0.9750766754150391,
   -0.21632790565490723,
   0.053912024945020676,
   -0.23144382238388062,
   0.8707234859466553,
   -1.0019452571868896,
   0.7571490406990051,
   -0.4700765609741211,
   0.4976736307144165,
   -1.3465105295181274,
   -0.6906111240386963,
   -0.03905309736728668,
   -0.2811242640018463,
   -0.9378471970558167,
   1.3166313171386719,
   1.7542608976364136,
   -0.13462874293327332,
   -0.8499758839607239,
   -0.854405403137207,
   1.5845484733581543,
   0.07407163828611374,
   -1.509437918663025,
   -0.09726018458604813,
   1.9607369899749756,
   1.1977607011795044,
   -1.3092546463012695,
   0.9904807209968567,
   0.567914605140686,
   0.5657083988189697,
   0.5449534058570862,
   0.25148284435272217,
   0.6306697726249695,
   -0.7081972360610962,
   0.09205962717533112,
   -1.100571870803833,
   0.34112048149108887,
   -0.5423688888549805,
   0.5380542278289795,
   0.5416043996810913,
   -1.0646722316741943,
   0.518133819103241,
   -0.012655943632125854,
   -0.3968392610549927,
   -0.9789626002311707,
   0.10993535816669464,
   -0.5653512477874756,
   -0.20885342359542847,
   0.6914070248603821,
   -0.36296650767326355,
   -0.6125866174697876,
   -0.5316668748855591,
   -0.43423277139663696,
   0.15143348276615143,
   -0.26599594950675964,
   0.7613717913627625,
   0.6269177198410034,
   0.16205261647701263,
   0.5730161070823669,
   0.15662738680839539,
   2.0254769325256348,
   -0.8731532096862793,
   0.06630845367908478,
   -0.008450587280094624,
   -0.07615695893764496,
   -0.15927864611148834,
   0.7719118595123291,
   0.07574832439422607,
   -0.6741805672645569,
   0.7594524621963501,
   0.19632768630981445,
   1.9579472541809082,
   0.47769442200660706,
   -0.020476428791880608,
   0.6096546649932861,
   1.7085970640182495,
   1.4182627201080322,
   -1.0416375398635864,
   0.8500494956970215,
   0.06921728700399399,
   0.11032207310199738,
   1.0181200504302979,
   0.7013847827911377,
   1.4452165365219116,
   -0.16532643139362335,
   -0.04758632183074951,
   -0.9902940988540649,
   0.6006730794906616,
   0.9446916580200195,
   -1.4575026035308838,
   -0.09648895263671875,
   1.422184705734253,
   2.440767765045166,
   0.3485099971294403,
   -1.2927489280700684,
   -0.9504801630973816,
   -1.3511059284210205,
   -1.1629369258880615,
   -1.098130702972412,
   -0.8165614604949951,
   0.983856201171875,
   -0.43767011165618896,
   -0.6981416344642639,
   0.537948489189148,
   1.896033525466919,
   0.21971525251865387,
   0.02889057993888855,
   -1.0394541025161743,
   0.5494756698608398,
   0.8390663862228394,
   1.3421365022659302,
   1.090023159980774,
   0.8492676615715027,
   -0.4195616841316223,
   -1.4730843305587769,
   -0.7350800037384033,
   0.7199195623397827,
   -0.6460484266281128,
   0.3872491121292114,
   0.13853347301483154,
   0.6386033296585083,
   1.4277162551879883,
   0.5096664428710938,
   0.8762763738632202,
   -0.5669207572937012,
   1.3175945281982422,
   0.47607868909835815,
   -0.393811970949173,
   -0.6072527766227722,
   1.375903606414795,
   -0.2966594696044922,
   -0.3294203281402588,
   0.06686583161354065,
   1.9710952043533325,
   0.8605310320854187,
   -1.1263201236724854,
   0.15890756249427795,
   -0.3069858253002167,
   -0.18368905782699585,
   0.6325183510780334,
   0.15391364693641663,
   -0.48708534240722656,
   0.28106212615966797,
   -0.6200499534606934,
   0.5965703129768372,
   -0.17348748445510864,
   -0.0821906179189682,
   0.2902560830116272,
   -0.7050201296806335,
   -0.9679608345031738,
   0.4733015298843384,
   -0.44306302070617676,
   -0.33569231629371643,
   -0.00620431499555707,
   1.2855167388916016,
   0.9237723350524902,
   -0.036495063453912735,
   -0.6427255272865295,
   0.8064144849777222,
   0.18200452625751495,
   -1.6109881401062012,
   0.18218322098255157,
   0.06979300826787949,
   -0.38760682940483093,
   -2.350520610809326
  ],
  [
   -0.9911028146743774,
   0.20240099728107452,
   0.11173573136329651,
   0.49876266717910767,
   0.2717090845108032,
   0.5356701016426086,
   -0.7534721493721008,
   -1.0890086889266968,
   1.1522431373596191,
   -1.136314034461975,
   0.5117617845535278,
   -1.128373384475708,
   0.2978765666484833,
   -0.30842724442481995,
   1.5793466567993164,
   -1.4085723161697388,
   -1.6794887781143188,
   1.3094013929367065,
   -1.795685052871704,
   -0.2304881066083908,
   1.6405134201049805,
   -0.7315252423286438,
   -0.7045170664787292,
   -0.6828776597976685,
   -0.7411158084869385,
   1.2378818988800049,
   -0.5834829211235046,
   0.3332246243953705,
   -0.47561997175216675,
   0.7011613249778748,
   -0.25064751505851746,
   -0.6200869679450989,
   0.5887436866760254,
   0.05342404544353485,
   -0.6894842982292175,
   2.2395572662353516,
   0.13695374131202698,
   0.2620694637298584,
   -0.028352241963148117,
   0.8134861588478088,
   -0.46576443314552307,
   0.9948497414588928,
   0.11095791310071945,
   0.1676589548587799,
   0.4238120913505554,
   0.655722975730896,
   0.9513805508613586,
   -0.0913170650601387,
   -1.1021119356155396,
   -0.05528760328888893,
   -0.7551866769790649,
   -0.4034579396247864,
   0.3317130208015442,
   0.01721278950572014,
   0.18496687710285187,
   -0.1414756327867508,
   -0.6742672920227051,
   -0.4462807774543762,
   0.056676656007766724,
   -0.04082334786653519,
   -1.1891189813613892,
   -1.4844863414764404,
   -0.6916217803955078,
   -1.0302925109863281,
   0.6040392518043518,
   1.258123517036438,
   0.12491375207901001,
   -0.3466014266014099,
   1.3331575393676758,
   -0.42915141582489014,
   0.3522304594516754,
   -0.7006556987762451,
   0.13254095613956451,
   -1.9045230150222778,
   0.00791712012141943,
   0.8821385502815247,
   -0.19266460835933685,
   -0.5338173508644104,
   0.5730260610580444,
   -0.30095934867858887,
   0.35783129930496216,
   -0.5765144228935242,
   0.41582465171813965,
   -3.2006149291992188,
   -1.5462056398391724,
   -1.221118450164795,
   0.11027193069458008,
   0.013032365590333939,
   0.023905295878648758,
   0.8085703253746033,
   0.38783639669418335,
   0.07107862830162048,
   0.07223483920097351,
   1.0174416303634644,
   0.3135688006877899,
   -0.025318805128335953,
   0.17176827788352966,
   -1.3355549573898315,
   0.5170115232467651,
   0.5259012579917908,
   1.0252442359924316,
   -0.1797182857990265,
   0.928421139717102,
   -0.6393126845359802,
   -0.22773541510105133,
   0.22027094662189484,
   0.4572620093822479,
   1.2322174310684204,
   -0.3038563132286072,
   0.30921101570129395,
   -0.043053172528743744,
   0.604317843914032,
   -0.9213910102844238,
   1.092771053314209,
   -2.932537794113159,
   -0.08048278093338013,
   -0.18541274964809418,
   0.43248820304870605,
   -0.78587806224823,
   -1.0053068399429321,
   0.1365584433078766,
   0.6086052060127258,
   -0.27817097306251526,
   -0.13855984807014465,
   0.11199194937944412,
   -0.11152712255716324,
   0.35951387882232666,
   -1.5807225704193115,
   -0.5833076238632202,
   -0.13172438740730286,
   -0.5338993668556213,
   1.726470947265625,
   -0.4478013515472412,
   -0.7048768997192383,
   -1.5529230833053589,
   0.6751493811607361,
   -1.0623990297317505,
   0.18098430335521698,
   0.6521662473678589,
   -0.9322919249534607,
   0.44911473989486694,
   0.14637625217437744,
   -0.15169371664524078,
   -0.14333316683769226,
   -0.24363256990909576,
   0.003956819884479046,
   -0.3070068657398224,
   0.4455725848674774,
   0.18680967390537262,
   0.2819998562335968,
   -0.9129930734634399,
   0.13644780218601227,
   0.4862123131752014,
   -1.8673748970031738,
   -0.33696848154067993,
   -0.72665935754776,
   -2.3589062690734863,
   0.6154831051826477,
   0.24570626020431519,
   -1.3826370239257812,
   0.25983133912086487,
   -0.10182689875364304,
   -2.108614444732666,
   -1.2642713785171509,
   0.6548084020614624,
   -1.0755376815795898,
   0.5153599977493286,
   0.8125766515731812,
   -0.9488871693611145,
   0.012312992475926876,
   0.2739610970020294,
   -0.03691481798887253,
   1.429521083831787,
   0.22048136591911316,
   -0.4956703782081604,
   -0.4921756684780121,
   0.4630696475505829,
   -1.3036391735076904,
   -0.9486944675445557,
   0.6443540453910828,
   -1.5629023313522339,
   -1.0224426984786987,
   -0.030975094065070152,
   -0.7830997109413147,
   -0.5492428541183472,
   -0.26201754808425903,
   -0.16810162365436554,
   -0.6541194915771484,
   0.0796399936079979,
   -0.4493419826030731,
   0.9655744433403015,
   -0.8225971460342407,
   0.879239022731781,
   -0.9315411448478699,
   -0.28355318307876587,
   -0.7298133373260498,
   -2.1863293647766113,
   1.0997313261032104,
   1.4076405763626099,
   0.41741302609443665
  ],
  [
   0.7413038611412048,
   0.10458070784807205,
   0.40823134779930115,
   1.1280748844146729,
   0.17543287575244904,
   -1.1756412982940674,
   -1.8250634670257568,
   0.34244921803474426,
   -0.6039181351661682,
   0.5816100239753723,
   0.21598030626773834,
   0.3088624179363251,
   -1.1161824464797974,
   -0.31194108724594116,
   1.3616677522659302,
   0.6880540251731873,
   -0.2878742814064026,
   0.5876632332801819,
   1.0386849641799927,
   -0.021357815712690353,
   -0.08282345533370972,
   -0.08711520582437515,
   0.3393172025680542,
   -0.7820999622344971,
   0.16104362905025482,
   -0.10881674289703369,
   -0.21612787246704102,
   0.6298435926437378,
   -1.671697735786438,
   -0.4718860387802124,
   -0.6596663594245911,
   1.1967467069625854,
   0.06806347519159317,
   -0.56768399477005,
   0.3531334400177002,
   -0.9840966463088989,
   0.1306435912847519,
   -0.69415682554245,
   -0.16729067265987396,
   1.4329774379730225,
   0.3662426769733429,
   0.8884688019752502,
   -1.8812814950942993,
   1.5073074102401733,
   1.781015157699585,
   -0.34798136353492737,
   -1.2711024284362793,
   0.19640012085437775,
   -0.16151876747608185,
   -0.7510111331939697,
   -0.7804316282272339,
   1.0631208419799805,
   -0.36222776770591736,
   0.30906596779823303,
   -0.8329098224639893,
   1.0314249992370605,
   0.19547826051712036,
   -0.2772848606109619,
   1.4441347122192383,
   1.2397180795669556,
   -0.8047720789909363,
   0.13716097176074982,
   0.8054119348526001,
   -0.6505001187324524,
   -0.6316987872123718,
   -0.046752508729696274,
   -0.9136968851089478,
   1.2426023483276367,
   -1.06194269657135,
   0.8504992723464966,
   -0.13438859581947327,
   0.02165726199746132,
   -0.2533307373523712,
   -0.3591999113559723,
   -0.5160323977470398,
   -1.2170512676239014,
   0.14024658501148224,
   -0.18147341907024384,
   -1.8907686471939087,
   0.5451414585113525,
   0.05700051411986351,
   -0.6505739092826843,
   -0.2072819024324417,
   -0.41129136085510254,
   -1.454039216041565,
   -0.4217342436313629,
   -1.7378723621368408,
   -1.5327115058898926,
   0.9271920323371887,
   0.8508248329162598,
   1.101602554321289,
   1.4025111198425293,
   -0.37576788663864136,
   0.12337744981050491,
   0.24381567537784576,
   1.7325935363769531,
   1.3752069473266602,
   -0.8997791409492493,
   0.1812525987625122,
   1.4773662090301514,
   -1.0011460781097412,
   2.416670799255371,
   0.7473793625831604,
   2.292513608932495,
   0.5874093174934387,
   0.3428932726383209,
   0.7569230198860168,
   0.6445937156677246,
   0.24880266189575195,
   1.2392421960830688,
   1.8347572088241577,
   -0.9054102897644043,
   0.010432962328195572,
   0.4278027415275574,
   0.24760818481445312,
   -1.6690956354141235,
   0.6154937148094177,
   0.6561910510063171,
   -1.8556069135665894,
   0.875101625919342,
   -0.3231598138809204,
   1.0748111009597778,
   -0.9150905609130859,
   0.5647516250610352,
   -0.3754737675189972,
   -0.25789597630500793,
   -0.41823306679725647,
   -0.3260936141014099,
   0.1488272100687027,
   -0.3444370925426483,
   -0.45252272486686707,
   0.6551621556282043,
   0.5024357438087463,
   1.5148168802261353,
   0.48710834980010986,
   0.09046759456396103,
   -0.4124087989330292,
   -0.5088521242141724,
   0.9348131418228149,
   -0.7504978179931641,
   -0.5796631574630737,
   -0.5166077017784119,
   -0.7481461763381958,
   -0.0390387624502182,
   -1.9805676937103271,
   0.7729980945587158,
   -0.7135794162750244,
   -0.9124861359596252,
   -0.19424398243427277,
   -0.24739407002925873,
   1.6460987329483032,
   0.5588969588279724,
   -0.2895662784576416,
   -1.1865514516830444,
   0.34888187050819397,
   -0.20910386741161346,
   0.21573448181152344,
   -1.7795780897140503,
   -0.6337626576423645,
   -1.8950412273406982,
   0.5187079310417175,
   0.2707369923591614,
   0.9191899299621582,
   -1.2908744812011719,
   -0.41751715540885925,
   0.0913408100605011,
   -0.48559173941612244,
   0.07826174795627594,
   0.2481464445590973,
   -0.05532798171043396,
   -0.20858293771743774,
   -0.5853791832923889,
   -1.0445207357406616,
   0.47272050380706787,
   0.518416702747345,
   0.4097824692726135,
   0.2941231429576874,
   -2.9067821502685547,
   -0.7383013963699341,
   -1.3749438524246216,
   -0.004304450936615467,
   1.3365378379821777,
   -1.1308709383010864,
   0.44096940755844116,
   -1.2071456909179688,
   0.5344247221946716,
   1.2119112014770508,
   -1.4570232629776,
   0.5965930819511414,
   -0.8038807511329651,
   0.7397102117538452,
   0.38284048438072205,
   0.7597997784614563,
   -0.5700582265853882,
   0.913155198097229,
   -0.7570338845252991,
   -0.0917205661535263,
   0.672529935836792,
   -2.4317851066589355,
   -1.72112238407135
  ],
  [
   -0.08916213363409042,
   0.6893731355667114,
   0.05574604123830795,
   -0.47715088725090027,
   0.3499663770198822,
   -0.6146356463432312,
   -0.3286503851413727,
   0.9291950464248657,
   0.1181805431842804,
   0.7639875411987305,
   0.9641349911689758,
   -0.20464102923870087,
   -1.0666890144348145,
   1.1359199285507202,
   -0.6914687752723694,
   -0.2537304759025574,
   0.07772070169448853,
   0.7078911662101746,
   -1.1935796737670898,
   0.4413335919380188,
   0.5735985040664673,
   -0.4152910113334656,
   -0.9895937442779541,
   0.1825437694787979,
   -0.20864646136760712,
   1.783104419708252,
   0.45188963413238525,
   0.18113480508327484,
   -0.7916921377182007,
   0.5770018696784973,
   -0.43872231245040894,
   -0.9211448431015015,
   1.7278505563735962,
   0.655722439289093,
   0.5970072150230408,
   -1.2732295989990234,
   -1.2394299507141113,
   1.1204191446304321,
   -0.01571602188050747,
   -0.855626106262207,
   -0.196298286318779,
   0.13380202651023865,
   1.0739017724990845,
   1.405336856842041,
   -1.3785569667816162,
   0.7535693645477295,
   -1.2554988861083984,
   0.21909338235855103,
   1.1430217027664185,
   0.7388653755187988,
   0.0070569696836173534,
   0.357199490070343,
   -0.14127390086650848,
   0.2681945562362671,
   0.34302380681037903,
   -0.3214717507362366,
   -0.06928990036249161,
   1.1896734237670898,
   -1.143094539642334,
   -0.07060140371322632,
   1.948669195175171,
   0.7034556269645691,
   -0.14161285758018494,
   -0.6198512315750122,
   -0.41773083806037903,
   -1.3307271003723145,
   -0.49703866243362427,
   -0.009846938773989677,
   -0.28469225764274597,
   -0.016121139749884605,
   -0.3075435161590576,
   -0.7730327844619751,
   0.2121233344078064,
   1.438504695892334,
   -0.1357794851064682,
   0.8201872706413269,
   0.6932665109634399,
   -0.23562045395374298,
   0.7640647888183594,
   -0.3813900649547577,
   0.20759417116641998,
   -0.5672112107276917,
   0.14498277008533478,
   0.02982761338353157,
   -0.22503472864627838,
   -0.02114533819258213,
   -1.7621690034866333,
   0.4702392518520355,
   -0.2662787437438965,
   -1.9789576530456543,
   -0.4359164834022522,
   0.011926773935556412,
   0.8162405490875244,
   0.5924989581108093,
   1.0935003757476807,
   0.14489004015922546,
   0.6657810211181641,
   -0.6849535703659058,
   0.8060755729675293,
   0.08734496682882309,
   -0.32579123973846436,
   1.4598941802978516,
   -0.8954077959060669,
   0.645214855670929,
   0.7707778811454773,
   0.4658280909061432,
   1.5549488067626953,
   -0.38418203592300415,
   1.032371163368225,
   -0.4102683961391449,
   -1.072425127029419,
   -0.14166314899921417,
   -2.579946279525757,
   -1.2819058895111084,
   1.3733309507369995,
   -0.10807771980762482,
   1.192205786705017,
   -0.432794451713562,
   0.4017625153064728,
   -1.5382672548294067,
   2.100649118423462,
   -0.522321879863739,
   -0.10397771000862122,
   1.0726827383041382,
   0.09894567728042603,
   0.029563965275883675,
   0.23532843589782715,
   0.1677374690771103,
   0.042604632675647736,
   -1.5468907356262207,
   -0.7186124920845032,
   -0.9829843640327454,
   0.5254409313201904,
   -0.158593088388443,
   1.163371205329895,
   3.404146194458008,
   0.5365215539932251,
   1.946939468383789,
   0.8289870619773865,
   -0.6826499104499817,
   0.682914674282074,
   -0.07181312143802643,
   0.5645015239715576,
   1.0175774097442627,
   1.609480857849121,
   0.9345089197158813,
   1.7555792331695557,
   -0.3892018496990204,
   -0.414999395608902,
   -0.05878594145178795,
   -1.4117579460144043,
   -1.1511013507843018,
   -0.3392512798309326,
   0.21397025883197784,
   -0.26102903485298157,
   0.2556653618812561,
   0.17290151119232178,
   0.2986474931240082,
   0.834819495677948,
   -0.8376861810684204,
   -0.9532777070999146,
   0.5211141705513,
   0.45219460129737854,
   0.16668477654457092,
   0.7932181358337402,
   0.16200681030750275,
   0.5466430187225342,
   0.5675523281097412,
   1.6343330144882202,
   -1.5462936162948608,
   0.6835296750068665,
   1.4166241884231567,
   0.16211672127246857,
   -0.12761130928993225,
   -0.4469252824783325,
   0.1910189688205719,
   -1.7965282201766968,
   1.3693832159042358,
   0.08401856571435928,
   -0.20067313313484192,
   -1.0240397453308105,
   -1.403937816619873,
   0.89008629322052,
   -0.6513756513595581,
   0.8383539319038391,
   0.621651828289032,
   0.5214091539382935,
   1.2455252408981323,
   1.7906265258789062,
   0.7939411997795105,
   1.1599925756454468,
   0.3839542865753174,
   -0.19658803939819336,
   -3.2163820266723633,
   1.1671195030212402,
   -0.49871960282325745,
   1.4740116596221924,
   0.4832003712654114,
   0.4677819311618805,
   0.9942159056663513
  ],
  [
   -0.4315440058708191,
   2.1221890449523926,
   3.648949146270752,
   1.0732718706130981,
   3.6639487743377686,
   2.856989860534668,
   0.6336117386817932,
   -0.165082186460495,
   2.498640537261963,
   -0.14409655332565308,
   -0.5483986139297485,
   0.19138245284557343,
   -0.3553435802459717,
   0.4811065196990967,
   0.058602746576070786,
   -0.870306134223938,
   -0.3726143538951874,
   0.6175137758255005,
   0.5491000413894653,
   1.8373892307281494,
   -0.3065433204174042,
   -0.5767704844474792,
   0.7927135229110718,
   -0.3237214982509613,
   2.228280782699585,
   2.09122896194458,
   -0.3529391884803772,
   1.6836153268814087,
   1.8551931381225586,
   3.1767327785491943,
   1.8743507862091064,
   -0.3748495876789093,
   1.5904666185379028,
   0.9583017230033875,
   -0.9900073409080505,
   5.830266952514648,
   1.6172707080841064,
   1.1867589950561523,
   -0.3045633137226105,
   3.0456933975219727,
   -0.6049325466156006,
   0.45819997787475586,
   -0.39491260051727295,
   2.28545880317688,
   -0.23731175065040588,
   2.3841166496276855,
   1.9715027809143066,
   1.4277427196502686,
   -0.21153336763381958,
   -1.8310197591781616,
   2.246485471725464,
   4.811666965484619,
   -0.17526628077030182,
   0.30049043893814087,
   0.7115514874458313,
   3.0174362659454346,
   -0.5453483462333679,
   -0.08003362268209457,
   -0.5978223085403442,
   3.2904601097106934,
   -0.08168855309486389,
   -0.10193280875682831,
   -0.31346994638442993,
   0.415587842464447,
   -0.05377569422125816,
   0.28663039207458496,
   -0.4066629409790039,
   -0.3920171558856964,
   0.8516505360603333,
   1.586216688156128,
   2.030541181564331,
   0.3314058482646942,
   -0.3357633054256439,
   0.4822297990322113,
   2.9510397911071777,
   -0.5138388872146606,
   -0.23251794278621674,
   -0.5901052355766296,
   3.636471748352051,
   0.09142967313528061,
   -0.7119153141975403,
   2.0643503665924072,
   2.830843210220337,
   -1.0829343795776367,
   -0.7374553680419922,
   -0.3573976457118988,
   1.9659327268600464,
   -0.5952576398849487,
   -1.1786751747131348,
   0.45230767130851746,
   -1.1610089540481567,
   -0.687306821346283,
   1.7303704023361206,
   2.481497049331665,
   -0.5752052664756775,
   1.6957453489303589,
   0.9726768732070923,
   0.9347683787345886,
   0.5329341292381287,
   -0.9959412813186646,
   0.21993035078048706,
   1.4633632898330688,
   -0.4590440094470978,
   -0.06241091340780258,
   1.5052083730697632,
   -0.23422013223171234,
   0.8346616625785828,
   -1.2519196271896362,
   -0.43608376383781433,
   1.6979652643203735,
   -0.8271698951721191,
   1.3137918710708618,
   0.2086968570947647,
   0.10561191290616989,
   -0.34581831097602844,
   1.1740068197250366,
   -1.6900488138198853,
   -0.9912481307983398,
   2.5271153450012207,
   -0.21111348271369934,
   0.007836352102458477,
   -0.32085272669792175,
   2.574110269546509,
   -0.5613974332809448,
   -0.08433668315410614,
   0.45461636781692505,
   1.285902976989746,
   0.8071349263191223,
   1.5019325017929077,
   -0.24845284223556519,
   0.29735204577445984,
   2.685433864593506,
   1.0436067581176758,
   -0.6360069513320923,
   -1.1349388360977173,
   0.47790369391441345,
   -0.6004049181938171,
   -1.0441935062408447,
   -0.3095241189002991,
   3.932295083999634,
   -0.11125145107507706,
   -0.663171112537384,
   0.16998395323753357,
   0.5057370662689209,
   -0.5008713006973267,
   -0.6981187462806702,
   -0.526836097240448,
   -0.30188289284706116,
   -0.5933272838592529,
   0.045938730239868164,
   -0.835862934589386,
   1.320809006690979,
   3.6756515502929688,
   -1.0382035970687866,
   0.06285438686609268,
   -0.28722432255744934,
   -0.8151636719703674,
   1.3223071098327637,
   0.6132047772407532,
   -0.49339520931243896,
   -0.8833320736885071,
   0.19852399826049805,
   -1.715113878250122,
   -0.4978330433368683,
   0.9456185698509216,
   -0.29813864827156067,
   0.040142517536878586,
   0.8158301711082458,
   -0.3865579068660736,
   2.0745601654052734,
   -1.253348469734192,
   -0.729227602481842,
   -0.11915058642625809,
   1.936661958694458,
   0.1853673756122589,
   3.472482681274414,
   3.274306297302246,
   1.029444932937622,
   -0.6208496689796448,
   -0.930923342704773,
   -1.2369295358657837,
   2.553117513656616,
   -0.38764092326164246,
   -0.5087559223175049,
   1.2808688879013062,
   0.5376271605491638,
   1.0789706707000732,
   -0.21469013392925262,
   0.5051907300949097,
   -1.3412967920303345,
   -0.9058475494384766,
   -0.18182896077632904,
   -0.8879432082176208,
   0.7196188569068909,
   2.484764575958252,
   -0.3717879056930542,
   -0.3530644178390503,
   0.36363285779953003,
   2.795060873031616,
   -0.5805436372756958
  ],
  [
   0.5987958908081055,
   0.23929540812969208,
   1.871284008026123,
   -2.280082941055298,
   -0.5177057981491089,
   0.75368732213974,
   1.748947024345398,
   -0.031132278963923454,
   2.717200994491577,
   0.21145454049110413,
   -0.3771916329860687,
   0.022794252261519432,
   -0.5218343138694763,
   -0.13752302527427673,
   2.85351300239563,
   0.9004917740821838,
   -0.16424264013767242,
   0.3641597330570221,
   -0.1854812651872635,
   1.3412352800369263,
   -0.28583836555480957,
   2.0971362590789795,
   -1.0088560581207275,
   -0.5220730304718018,
   -0.16731378436088562,
   2.9453489780426025,
   -0.18249772489070892,
   0.2281533181667328,
   -0.1742265820503235,
   1.5602813959121704,
   2.9734079837799072,
   -0.19762057065963745,
   -0.3977205753326416,
   -0.12787237763404846,
   -0.6560158133506775,
   2.209653377532959,
   -0.41240838170051575,
   3.6202685832977295,
   -0.4947236478328705,
   3.421473503112793,
   -0.3177845776081085,
   2.402160406112671,
   0.02770986035466194,
   -0.10027941316366196,
   0.43963977694511414,
   -0.14003747701644897,
   1.1184130907058716,
   1.8020954132080078,
   -0.23520995676517487,
   -1.4252890348434448,
   0.36418598890304565,
   5.408191680908203,
   0.9220074415206909,
   0.4171876609325409,
   -0.7753493189811707,
   0.5862116813659668,
   0.48526203632354736,
   -0.7267163395881653,
   -0.3365214765071869,
   2.0259406566619873,
   -0.12278535962104797,
   0.1201353520154953,
   0.005468383431434631,
   0.2617323696613312,
   -0.7012532949447632,
   0.07324539870023727,
   -0.46766433119773865,
   -0.18037590384483337,
   -1.9642853736877441,
   0.1872742772102356,
   -0.07389184832572937,
   -0.5624043941497803,
   -0.5595819354057312,
   0.20387102663516998,
   3.562659978866577,
   0.5936793088912964,
   -0.4080212712287903,
   -0.5778970122337341,
   2.696823835372925,
   -1.5629627704620361,
   2.423778772354126,
   0.5207331776618958,
   0.469814658164978,
   -0.19958968460559845,
   -0.4190647602081299,
   -0.0528508797287941,
   1.3988398313522339,
   1.3521592617034912,
   0.6220563650131226,
   -0.7846888899803162,
   -0.10864412039518356,
   1.063415288925171,
   1.1714513301849365,
   3.3278965950012207,
   -0.07972212880849838,
   -2.556088924407959,
   1.6659984588623047,
   -0.2626945972442627,
   -1.099387764930725,
   -0.7057973742485046,
   0.05171821266412735,
   -1.5498831272125244,
   -0.602837085723877,
   -0.3837091028690338,
   1.9578888416290283,
   0.05374445021152496,
   2.3482918739318848,
   0.73631751537323,
   3.9800844192504883,
   3.287754535675049,
   -0.9019545316696167,
   -0.37729358673095703,
   2.0529303550720215,
   0.3215784430503845,
   -0.3426322340965271,
   0.8283578753471375,
   -0.49436965584754944,
   -0.2272205352783203,
   0.6020796895027161,
   0.12506067752838135,
   1.6349257230758667,
   0.025320999324321747,
   1.2205703258514404,
   0.4207487106323242,
   0.026704134419560432,
   2.7177953720092773,
   0.3020872175693512,
   0.6292979717254639,
   0.5686641931533813,
   -0.2846050262451172,
   0.30219534039497375,
   1.717380166053772,
   -1.291485071182251,
   0.32212838530540466,
   -2.1515324115753174,
   -1.0679808855056763,
   0.08454188704490662,
   -1.7488406896591187,
   -0.33789491653442383,
   -0.7945073843002319,
   1.158429503440857,
   -0.14315316081047058,
   -0.27067726850509644,
   1.4582613706588745,
   -0.8554064035415649,
   -0.2695971131324768,
   -0.5600091218948364,
   0.5694037079811096,
   -0.01855371706187725,
   -0.5327937602996826,
   0.016683660447597504,
   -1.5873218774795532,
   1.289461612701416,
   -0.724908173084259,
   0.1964464634656906,
   -0.9845128655433655,
   0.7010180354118347,
   1.2387070655822754,
   0.09007681906223297,
   -0.2592039108276367,
   -0.38572990894317627,
   2.2822999954223633,
   -1.7719672918319702,
   -0.5755971670150757,
   -0.05562525987625122,
   -0.2114604264497757,
   -0.44509944319725037,
   3.726341724395752,
   0.8058407306671143,
   0.9632852673530579,
   1.7892370223999023,
   -0.3540900945663452,
   0.3321501910686493,
   -0.9096013903617859,
   0.26430001854896545,
   0.5501322746276855,
   -0.3770997226238251,
   -1.6378934383392334,
   0.18904241919517517,
   0.8974473476409912,
   -0.1225532665848732,
   -0.2439274787902832,
   -0.6081944108009338,
   -0.005900719668716192,
   -0.5080809593200684,
   1.6379138231277466,
   -0.8166581988334656,
   -1.5107861757278442,
   0.17281734943389893,
   0.3576051890850067,
   -0.7105337977409363,
   -0.6475930213928223,
   -0.6452287435531616,
   0.6089745163917542,
   0.96244877576828,
   0.3105744421482086,
   -0.5458097457885742,
   -0.4905632734298706,
   -2.0267724990844727,
   -0.973679780960083
  ],
  [
   -0.47290897369384766,
   0.05417957156896591,
   0.8096472024917603,
   0.14417171478271484,
   -0.5130865573883057,
   -0.06431546807289124,
   1.1632587909698486,
   -1.2656689882278442,
   0.5437307357788086,
   -0.24689042568206787,
   -1.3854827880859375,
   0.9860981702804565,
   -1.3829395771026611,
   -0.9011960029602051,
   -2.2602055072784424,
   0.04105973243713379,
   -0.4196140766143799,
   0.380700021982193,
   1.1705299615859985,
   0.43754133582115173,
   0.3224809169769287,
   0.4128757417201996,
   -0.2991604208946228,
   -0.39385750889778137,
   0.5004931688308716,
   0.005563805345445871,
   -1.17556893825531,
   0.34234026074409485,
   0.08929555118083954,
   -1.1178370714187622,
   -0.10943254828453064,
   -0.27680888772010803,
   -0.27669715881347656,
   0.46771764755249023,
   -1.460564374923706,
   0.34002649784088135,
   -0.03455786779522896,
   -0.10273785144090652,
   0.2058158814907074,
   1.0666558742523193,
   -1.66438627243042,
   0.561820387840271,
   -0.16892346739768982,
   -0.12173984944820404,
   1.5610722303390503,
   0.039281945675611496,
   0.6481717824935913,
   0.042487241327762604,
   2.4742350578308105,
   0.10580569505691528,
   -0.48620057106018066,
   -0.4862644076347351,
   -0.11422516405582428,
   0.6492822766304016,
   0.6727363467216492,
   0.026861125603318214,
   0.9993109703063965,
   0.1716705560684204,
   1.3353325128555298,
   -0.25806379318237305,
   -0.2676653265953064,
   0.4470025897026062,
   -0.4819728136062622,
   0.04419280216097832,
   -0.742860734462738,
   -0.8196776509284973,
   0.27624619007110596,
   -0.13189060986042023,
   0.9735578894615173,
   -0.010186214931309223,
   -0.6334674954414368,
   -0.3961796760559082,
   -1.5330791473388672,
   0.6717969179153442,
   -0.34717607498168945,
   1.1866652965545654,
   -0.32544636726379395,
   0.12542836368083954,
   0.3914134204387665,
   0.9435845017433167,
   0.755582869052887,
   0.16159594058990479,
   -0.6625051498413086,
   -0.7226935029029846,
   0.21135187149047852,
   -0.2456187754869461,
   0.4481993317604065,
   -0.566066563129425,
   0.35229647159576416,
   -0.14795652031898499,
   -0.9306567907333374,
   -0.001013563247397542,
   0.8970494866371155,
   1.4377222061157227,
   -0.4813775420188904,
   -0.7614544034004211,
   0.9319351315498352,
   0.9652759432792664,
   -0.29700958728790283,
   -0.5480154156684875,
   0.19286654889583588,
   0.8568505644798279,
   -0.9413403868675232,
   -2.1241354942321777,
   0.9037630558013916,
   -1.9660413265228271,
   1.5915069580078125,
   -1.388723611831665,
   -0.06385374814271927,
   0.6402583122253418,
   1.4264471530914307,
   -0.8092573881149292,
   -0.6793100833892822,
   0.4646737277507782,
   0.011516662314534187,
   0.16288015246391296,
   -0.3136945068836212,
   -0.15288598835468292,
   -0.5729263424873352,
   0.36379945278167725,
   -0.7551999092102051,
   -1.0485405921936035,
   0.36471495032310486,
   0.2677646577358246,
   -0.215513214468956,
   0.5032926201820374,
   -0.3048914670944214,
   0.3378046154975891,
   0.08612895011901855,
   0.12782563269138336,
   0.971150279045105,
   0.00836199801415205,
   1.010176420211792,
   -1.9490687847137451,
   0.36830657720565796,
   -0.7681518197059631,
   0.2635495364665985,
   0.22277337312698364,
   -1.1591203212738037,
   0.23503050208091736,
   -0.7761271595954895,
   -0.46401697397232056,
   0.008105403743684292,
   -0.28874221444129944,
   -1.2157342433929443,
   0.20901994407176971,
   -0.4276401102542877,
   -0.35294830799102783,
   1.2948009967803955,
   -1.6958823204040527,
   0.23090337216854095,
   1.1432209014892578,
   -0.7348212599754333,
   -0.7609009742736816,
   0.3391456604003906,
   -0.09775815159082413,
   0.3105553984642029,
   0.07513639330863953,
   0.5185279846191406,
   0.7074592113494873,
   -0.2785153388977051,
   -0.21013087034225464,
   1.1624317169189453,
   -0.4663984477519989,
   -0.09134922921657562,
   -0.8089730143547058,
   0.032486334443092346,
   0.23370076715946198,
   -0.6405673027038574,
   0.6440693140029907,
   -0.4365858733654022,
   1.944460391998291,
   -0.6043543815612793,
   0.9988285899162292,
   -0.1193600594997406,
   -0.21365167200565338,
   0.15690019726753235,
   -1.934018611907959,
   0.6245692372322083,
   -0.597788393497467,
   -0.8919523358345032,
   -0.23878376185894012,
   -0.4431411027908325,
   -0.06033516675233841,
   1.1035265922546387,
   0.7656348347663879,
   -0.4528369605541229,
   -0.016075676307082176,
   -0.10028430074453354,
   -0.9756861925125122,
   -0.7282695770263672,
   -0.4977298378944397,
   0.09522069990634918,
   0.26465529203414917,
   0.8978148698806763,
   1.6857792139053345,
   -0.692547082901001,
   -1.188722014427185,
   1.1189136505126953,
   0.07236732542514801
  ],
  [
   -0.6471813917160034,
   0.5415605306625366,
   -0.22381921112537384,
   -0.8660750985145569,
   -0.6754013895988464,
   1.380614995956421,
   1.1730666160583496,
   1.2230757474899292,
   0.1856110692024231,
   -0.5121923685073853,
   -0.8191149234771729,
   -0.3432907462120056,
   -0.5930196642875671,
   -1.0350918769836426,
   0.21224345266819,
   -1.591762661933899,
   1.7853885889053345,
   -0.81354820728302,
   -0.6231265664100647,
   -0.21059618890285492,
   -0.29850640892982483,
   -0.004939759150147438,
   -0.1394483894109726,
   0.1183282732963562,
   0.19945168495178223,
   -0.07685580849647522,
   1.2710071802139282,
   -0.49034759402275085,
   0.29313933849334717,
   0.9003951549530029,
   0.09553037583827972,
   -0.66373211145401,
   -2.014005184173584,
   -0.11512363702058792,
   1.3304094076156616,
   -0.35567450523376465,
   -0.4687420725822449,
   -0.4568445682525635,
   0.6137290596961975,
   0.9021236300468445,
   -0.7814609408378601,
   0.8082820773124695,
   -1.0316314697265625,
   -0.5353606939315796,
   -0.5579224824905396,
   1.9500588178634644,
   -1.9611181020736694,
   -0.358265221118927,
   -0.39608773589134216,
   -0.12797680497169495,
   1.3095765113830566,
   -0.6341032385826111,
   -0.6308809518814087,
   0.10794206708669662,
   0.0684923604130745,
   0.007521398831158876,
   0.42032352089881897,
   0.1316605657339096,
   0.18983446061611176,
   0.010220195166766644,
   -0.524943470954895,
   1.326823353767395,
   0.1875401735305786,
   -1.0312035083770752,
   0.20331738889217377,
   0.9216727614402771,
   0.43902328610420227,
   -0.12594208121299744,
   1.7398598194122314,
   0.28107479214668274,
   1.0232311487197876,
   -0.5354281067848206,
   -0.46195659041404724,
   -0.09261532127857208,
   0.17627212405204773,
   -0.12760350108146667,
   -1.0394155979156494,
   -0.2457902729511261,
   0.42300018668174744,
   0.6469151973724365,
   -0.7927687764167786,
   1.1865071058273315,
   0.4864395260810852,
   0.8087928891181946,
   -0.49209102988243103,
   -0.21017961204051971,
   0.5408644080162048,
   -0.4591141939163208,
   0.6333023309707642,
   0.6819407343864441,
   0.6831527352333069,
   -1.2772923707962036,
   -2.1480274200439453,
   0.3755981922149658,
   0.4011964499950409,
   0.8938409686088562,
   0.1600736677646637,
   -0.907227635383606,
   -0.016400545835494995,
   0.40811681747436523,
   0.14587004482746124,
   0.9000142812728882,
   -0.8748561143875122,
   0.6961194276809692,
   -0.3972005248069763,
   0.3035214841365814,
   -0.20712187886238098,
   -0.3217092454433441,
   -0.5424478650093079,
   -1.209417462348938,
   0.13708989322185516,
   -1.1781984567642212,
   0.03751088306307793,
   -0.7348001599311829,
   0.40812572836875916,
   1.1945308446884155,
   0.1981404721736908,
   0.8695060014724731,
   -0.8660078048706055,
   -1.0770313739776611,
   -0.6873440742492676,
   -0.12407741695642471,
   0.4050917625427246,
   -0.12372194230556488,
   -0.10189174115657806,
   -0.39361128211021423,
   0.715450644493103,
   -0.09414047747850418,
   0.6993256211280823,
   1.2407132387161255,
   -1.9398460388183594,
   0.5313323140144348,
   1.2730780839920044,
   0.6094233393669128,
   2.9576480388641357,
   1.287795901298523,
   1.1383517980575562,
   -0.7208370566368103,
   0.21231886744499207,
   -0.2586694359779358,
   -1.124757170677185,
   0.506015419960022,
   1.5202678442001343,
   0.5022710561752319,
   0.24656455218791962,
   -0.4684753119945526,
   -0.4237549901008606,
   0.7768645882606506,
   0.11025796830654144,
   0.9944244027137756,
   0.4002310335636139,
   -0.5541573166847229,
   -0.23179113864898682,
   0.4653352200984955,
   -1.2170369625091553,
   0.01113355252891779,
   0.8110121488571167,
   0.15995581448078156,
   0.24815814197063446,
   2.42044997215271,
   -1.1022673845291138,
   0.19466722011566162,
   2.3475778102874756,
   1.4791454076766968,
   -0.04406994581222534,
   0.6989672183990479,
   -0.289616197347641,
   0.841280460357666,
   -0.20844772458076477,
   0.19709886610507965,
   -0.3054608404636383,
   -1.262399673461914,
   -1.048720359802246,
   -1.1269433498382568,
   0.03451094776391983,
   -0.9362597465515137,
   -0.5145918130874634,
   1.830370545387268,
   0.7384790182113647,
   -0.9946666359901428,
   0.6194263100624084,
   -0.1811385303735733,
   -1.5181435346603394,
   0.457128643989563,
   0.6092239022254944,
   -0.5353795886039734,
   -0.07688438147306442,
   0.5116744041442871,
   -0.4581912159919739,
   0.979252815246582,
   0.2644059658050537,
   -0.8857593536376953,
   -0.8804610371589661,
   0.7651349306106567,
   1.0823959112167358,
   -0.8823699355125427,
   0.9137731194496155,
   -0.12421024590730667,
   -1.1858325004577637,
   0.7251336574554443
  ],
  [
   0.4238988161087036,
   0.5351900458335876,
   0.15759018063545227,
   1.8057818412780762,
   -0.10419061779975891,
   0.39101114869117737,
   -0.7608718276023865,
   -0.35541683435440063,
   -0.3874427378177643,
   0.23513644933700562,
   -0.6545683741569519,
   -0.26097938418388367,
   1.251643419265747,
   0.3856312334537506,
   0.15067434310913086,
   0.8357027769088745,
   0.20851202309131622,
   -1.2314538955688477,
   -0.36130985617637634,
   -0.07038009911775589,
   -0.4203445613384247,
   -1.645225167274475,
   0.570120632648468,
   0.38761985301971436,
   0.9248698353767395,
   1.1449869871139526,
   1.3145089149475098,
   -0.15838630497455597,
   0.0025527803227305412,
   0.7327572703361511,
   0.12075500190258026,
   -0.7595418691635132,
   0.0372803770005703,
   1.3568447828292847,
   -0.4768045246601105,
   1.615108847618103,
   -2.3828258514404297,
   0.8069973587989807,
   0.08216657489538193,
   0.45583975315093994,
   -0.8893991708755493,
   0.8384811282157898,
   -0.8792335987091064,
   -1.578349232673645,
   1.2335293292999268,
   -0.8716225624084473,
   0.7625198364257812,
   -1.0132168531417847,
   1.7696374654769897,
   1.1661361455917358,
   -0.5723077058792114,
   -0.33096545934677124,
   0.11885035037994385,
   0.893432080745697,
   0.015524177812039852,
   -0.25696396827697754,
   1.0569088459014893,
   -0.7830460071563721,
   -0.8363643884658813,
   0.1421162188053131,
   0.13984203338623047,
   1.7034132480621338,
   -0.258127897977829,
   0.5836333632469177,
   -0.028467614203691483,
   -1.09931480884552,
   -0.7745343446731567,
   -0.15844295918941498,
   -0.5244026780128479,
   0.15471786260604858,
   0.7188999056816101,
   0.2730943560600281,
   -1.4516956806182861,
   0.5702483057975769,
   -0.14917239546775818,
   0.5294280052185059,
   -0.06729557365179062,
   -0.6201369762420654,
   -0.2650635242462158,
   -0.3496309816837311,
   0.02786124311387539,
   1.7544035911560059,
   1.322064995765686,
   -1.4097025394439697,
   -0.6118453145027161,
   -0.5544725656509399,
   0.29549598693847656,
   -0.595626950263977,
   0.866344153881073,
   0.5269359350204468,
   -0.12384600192308426,
   0.3427411913871765,
   0.8949832916259766,
   1.4659316539764404,
   -0.40559688210487366,
   -0.2158375382423401,
   0.12676683068275452,
   -1.4198627471923828,
   0.6359488368034363,
   -0.9528772830963135,
   0.10521259158849716,
   1.4627667665481567,
   -0.14232856035232544,
   1.2130284309387207,
   0.19124522805213928,
   0.41425374150276184,
   -0.19124528765678406,
   -0.07920940220355988,
   -1.4394376277923584,
   -0.4332430362701416,
   -0.7787684798240662,
   -1.0324780941009521,
   0.7391476035118103,
   -1.9772030115127563,
   -0.36130085587501526,
   -0.2655145227909088,
   0.6574183702468872,
   1.2198359966278076,
   0.6100974082946777,
   0.9151621460914612,
   0.8607553839683533,
   0.6533682346343994,
   -0.24608294665813446,
   -0.2884637415409088,
   0.6326228976249695,
   -0.747122049331665,
   0.34480682015419006,
   -0.0977768525481224,
   -0.4144740700721741,
   -0.5926772356033325,
   -0.07978735864162445,
   0.09736084938049316,
   -0.03584686294198036,
   -0.8672710657119751,
   -1.5150340795516968,
   0.04548304155468941,
   0.339893639087677,
   0.007998422719538212,
   -0.10654748976230621,
   -1.220459222793579,
   -0.12627282738685608,
   -0.3822377324104309,
   -0.5684659481048584,
   1.7130335569381714,
   -0.4819245934486389,
   1.0161194801330566,
   0.006716563832014799,
   1.02224862575531,
   1.9049345254898071,
   -1.1768590211868286,
   -0.3255647122859955,
   0.7399858832359314,
   -0.5253464579582214,
   -0.7748906016349792,
   -0.9144101142883301,
   1.5748957395553589,
   0.1936427354812622,
   0.49556049704551697,
   -0.3265891373157501,
   1.1282535791397095,
   0.2853216230869293,
   0.19999107718467712,
   -0.8476295471191406,
   -0.6462560296058655,
   1.1408239603042603,
   0.1785530298948288,
   -0.6302737593650818,
   0.02573421411216259,
   -0.414174884557724,
   0.6741976737976074,
   -0.9206575751304626,
   -0.2704524099826813,
   -0.9450706243515015,
   0.43599992990493774,
   -0.33880284428596497,
   0.2866716980934143,
   1.5715711116790771,
   0.7627126574516296,
   -0.031224191188812256,
   -0.5697087645530701,
   -0.4866974949836731,
   -1.0864194631576538,
   -1.3486131429672241,
   -0.6463127732276917,
   -0.6684482097625732,
   0.6362537741661072,
   0.2138933539390564,
   0.3487793505191803,
   -0.1456395834684372,
   -0.8105613589286804,
   1.6940900087356567,
   1.3836723566055298,
   -1.0374256372451782,
   -0.13307568430900574,
   1.4376280307769775,
   -0.17939502000808716,
   -0.4368566870689392,
   0.7847886085510254,
   0.23068225383758545,
   -0.3081226348876953
  ],
  [
   0.9177545309066772,
   0.40622565150260925,
   -0.8261786103248596,
   1.8088419437408447,
   0.8585442900657654,
   -1.7981988191604614,
   0.7509026527404785,
   -0.7643611431121826,
   -0.9423101544380188,
   -0.8294017910957336,
   0.7400912642478943,
   1.7637863159179688,
   -0.5810384154319763,
   0.25161758065223694,
   -0.7729280591011047,
   -0.20559966564178467,
   -0.11694885790348053,
   -1.3215947151184082,
   0.7459906935691833,
   -0.9093315601348877,
   0.11470679193735123,
   -0.696738064289093,
   -0.296170175075531,
   0.5746790766716003,
   0.8416104316711426,
   -0.6302100419998169,
   0.30441761016845703,
   -0.4050842225551605,
   -1.3104051351547241,
   -1.9685627222061157,
   -0.5975190997123718,
   -0.2145877480506897,
   -1.3912667036056519,
   0.30419594049453735,
   -1.0634568929672241,
   -3.574387788772583,
   -1.4259792566299438,
   -1.2337909936904907,
   -0.11337486654520035,
   -0.38230034708976746,
   1.730466365814209,
   -0.0177055262029171,
   0.7739591598510742,
   -1.8271431922912598,
   -1.1857256889343262,
   -1.2566673755645752,
   1.283233880996704,
   0.44079864025115967,
   0.5136789083480835,
   -1.4196468591690063,
   -1.113722801208496,
   0.5499473810195923,
   0.29815176129341125,
   1.3469479084014893,
   -0.43109479546546936,
   -0.08150532096624374,
   0.18007569015026093,
   0.11520318686962128,
   -0.7532835602760315,
   0.5667141079902649,
   1.7357136011123657,
   -0.4106351137161255,
   0.40924912691116333,
   -0.10514439642429352,
   0.1559072732925415,
   4.010691165924072,
   0.22600863873958588,
   0.5949128270149231,
   -0.5881554484367371,
   0.19628185033798218,
   0.5265052914619446,
   -0.3400309383869171,
   -0.17339426279067993,
   -1.8911232948303223,
   0.1301121711730957,
   -0.4220857322216034,
   -0.00381170934997499,
   0.8992305397987366,
   -0.5119197964668274,
   0.8889672756195068,
   0.696326494216919,
   0.19764499366283417,
   2.6309494972229004,
   0.6345115303993225,
   -0.13810545206069946,
   -1.3186897039413452,
   1.5091842412948608,
   0.23468582332134247,
   0.05865693464875221,
   0.22546619176864624,
   -0.5986665487289429,
   0.8770872354507446,
   1.8308414220809937,
   0.1876319944858551,
   -0.7864695191383362,
   0.5608261227607727,
   0.4683009386062622,
   0.3400711417198181,
   -0.32576045393943787,
   0.14623509347438812,
   -0.9358826279640198,
   0.25131604075431824,
   1.814691185951233,
   2.9705684185028076,
   0.7357266545295715,
   0.8447741866111755,
   -0.5653824210166931,
   0.07454054802656174,
   -0.3228510320186615,
   0.10739196091890335,
   0.9229173064231873,
   0.0527016818523407,
   1.8941476345062256,
   0.7199952006340027,
   -1.0611858367919922,
   0.2978127598762512,
   -2.337982416152954,
   -1.0972986221313477,
   1.2335985898971558,
   0.3174784183502197,
   0.7693034410476685,
   -0.17609484493732452,
   0.35890865325927734,
   0.13768988847732544,
   1.4062724113464355,
   0.7298868298530579,
   -0.9802693128585815,
   0.48152631521224976,
   0.9196144938468933,
   -0.2676387429237366,
   1.2328029870986938,
   -0.5395890474319458,
   -0.4365556240081787,
   -1.3081607818603516,
   0.023714270442724228,
   0.3491441011428833,
   -0.6756701469421387,
   1.3888306617736816,
   0.6812886595726013,
   -0.1647358238697052,
   -0.05290289595723152,
   -0.8368687629699707,
   -0.8978638052940369,
   0.010387644171714783,
   -2.4393057823181152,
   -0.11323098838329315,
   1.214229702949524,
   0.6081289649009705,
   -0.4988299012184143,
   -1.0751515626907349,
   0.9162120819091797,
   -0.5681034326553345,
   -0.1080227792263031,
   0.62395179271698,
   -0.1476282924413681,
   0.32289692759513855,
   -0.3310992121696472,
   -0.2374318242073059,
   0.9628680348396301,
   -2.250727653503418,
   0.4602540135383606,
   0.625068724155426,
   -1.130436897277832,
   -1.838192343711853,
   -1.1741394996643066,
   1.1643224954605103,
   0.7430567145347595,
   -0.017862947657704353,
   -0.5978237986564636,
   -0.5387973189353943,
   -0.3877524733543396,
