{
 "pi.0.weight": [
  [
   -0.3582368791103363,
   0.017179660499095917,
   -0.1398344337940216,
   -0.1086082011461258,
   -0.2540491223335266,
   0.38553130626678467
  ],
  [
   0.37632954120635986,
   0.6449418663978577,
   -0.06625783443450928,
   0.07634414732456207,
   -0.5837196707725525,
   0.22483573853969574
  ],
  [
   0.2563473880290985,
   -0.39529043436050415,
   -0.042752955108881,
   -0.3592688739299774,
   -0.0717378482222557,
   -0.6215330362319946
  ],
  [
   -0.30562835931777954,
   0.16241681575775146,
   -0.120454341173172,
   0.029987361282110214,
   -1.065548300743103,
   -0.5987211465835571
  ],
  [
   0.3093569278717041,
   0.331429123878479,
   0.07544565945863724,
   0.1586584597826004,
   -1.334547996520996,
   0.2113887071609497
  ],
  [
   -1.0223973989486694,
   0.06822704523801804,
   -0.1352757215499878,
   -0.15838968753814697,
   0.34665271639823914,
   -0.4591553509235382
  ],
  [
   0.29891330003738403,
   0.0728854089975357,
   -0.09916514903306961,
   0.11816531419754028,
   -1.221753716468811,
   -0.5247602462768555
  ],
  [
   -0.577501654624939,
   0.3315064013004303,
   -0.011921494267880917,
   0.04151575639843941,
   -0.09700130671262741,
   0.6229628324508667
  ],
  [
   -0.8402576446533203,
   0.31567856669425964,
   -0.10323601216077805,
   0.0625019371509552,
   0.7752713561058044,
   0.2501463294029236
  ],
  [
   -1.0582845211029053,
   0.13286447525024414,
   -0.1261901557445526,
   -0.003929511643946171,
   -0.12355019897222519,
   -0.13792115449905396
  ],
  [
   -0.11320551484823227,
   -0.11627177894115448,
   0.2529836595058441,
   0.4234974682331085,
   -0.3310166895389557,
   -0.4411908984184265
  ],
  [
   0.0030718804337084293,
   -0.19293822348117828,
   0.1002783253788948,
   0.5700247287750244,
   -0.36330875754356384,
   1.466888666152954
  ],
  [
   0.5630852580070496,
   -0.028101731091737747,
   0.013090349733829498,
   0.03281843289732933,
   -0.45672959089279175,
   0.7523427605628967
  ],
  [
   -0.3650873303413391,
   -0.411634624004364,
   -0.08388014137744904,
   -0.09759204089641571,
   -0.5914156436920166,
   0.7941771745681763
  ],
  [
   0.0011069715255871415,
   0.2599746882915497,
   0.016344595700502396,
   0.0413314551115036,
   0.5203067660331726,
   -0.730682373046875
  ],
  [
   0.02170538157224655,
   -0.10942360013723373,
   0.07412813603878021,
   -0.02283571846783161,
   -0.6817237138748169,
   0.10117339342832565
  ],
  [
   -1.2477389574050903,
   0.5129066109657288,
   -0.032829649746418,
   -0.0523633174598217,
   0.4348945617675781,
   -0.15257230401039124
  ],
  [
   0.3477705419063568,
   -0.5882064700126648,
   -0.07829133421182632,
   0.18158763647079468,
   -0.24777773022651672,
   0.14864549040794373
  ],
  [
   -0.27504846453666687,
   0.4095050096511841,
   -0.059955012053251266,
   -0.006663528271019459,
   0.002164412522688508,
   -0.29535582661628723
  ],
  [
   0.11479200422763824,
   -0.30603885650634766,
   -0.020236294716596603,
   -0.07453577220439911,
   -0.5519450306892395,
   0.3303302824497223
  ],
  [
   0.2555908262729645,
   0.27178284525871277,
   0.09042894840240479,
   0.010949145071208477,
   -0.794387936592102,
   0.2968394160270691
  ],
  [
   -0.49771589040756226,
   0.34871959686279297,
   0.04622805491089821,
   0.11034077405929565,
   0.2234898805618286,
   -0.634574830532074
  ],
  [
   -0.649044930934906,
   0.10904530435800552,
   0.00364631786942482,
   0.013800057582557201,
   -0.1322840452194214,
   0.8642831444740295
  ],
  [
   -0.009391585364937782,
   -0.33453568816185,
   0.012157093733549118,
   0.43632936477661133,
   0.28491050004959106,
   0.6603864431381226
  ],
  [
   -0.5035508275032043,
   -0.9171285033226013,
   0.06901296228170395,
   -0.10427902638912201,
   -0.31391987204551697,
   0.9864848256111145
  ],
  [
   0.1014496386051178,
   0.1831212043762207,
   0.051510412245988846,
   0.1695721447467804,
   -0.7447658181190491,
   -1.1038671731948853
  ],
  [
   0.31552428007125854,
   -0.28965598344802856,
   -0.06040380150079727,
   0.02262590080499649,
   -1.31493079662323,
   -0.2630283832550049
  ],
  [
   -0.5747762322425842,
   0.3024686574935913,
   0.0009286031126976013,
   -0.03277088701725006,
   0.6231893301010132,
   0.06491861492395401
  ],
  [
   0.23442202806472778,
   0.13810037076473236,
   0.22155877947807312,
   0.16056720912456512,
   -0.47194764018058777,
   -0.14697261154651642
  ],
  [
   0.08029469102621078,
   0.18560633063316345,
   0.025127345696091652,
   0.11831314116716385,
   -0.8272799253463745,
   -1.0952576398849487
  ],
  [
   -0.4445118308067322,
   -0.47574272751808167,
   -0.13990387320518494,
   -0.17701411247253418,
   0.14968715608119965,
   0.5976812839508057
  ],
  [
   0.44100522994995117,
   -0.08418571203947067,
   -0.055858064442873,
   -0.2287328541278839,
   -1.1609374284744263,
   0.12971197068691254
  ],
  [
   -1.6642882823944092,
   -0.0028864643536508083,
   -0.050327006727457047,
   -0.28142109513282776,
   0.5392997860908508,
   -0.13013441860675812
  ],
  [
   0.04309004917740822,
   0.06290043145418167,
   -0.1301603466272354,
   0.09071186184883118,
   -0.7840514183044434,
   0.08262476325035095
  ],
  [
   -0.019123895093798637,
   -0.10381244122982025,
   0.01196205709129572,
   0.16514179110527039,
   -0.44499385356903076,
   0.24881026148796082
  ],
  [
   -0.6658797264099121,
   0.34772107005119324,
   0.006255157291889191,
   0.014931201934814453,
   0.5856684446334839,
   -0.8010451793670654
  ],
  [
   0.04804091528058052,
   0.14959155023097992,
   -0.07006927579641342,
   -0.06395883113145828,
   -0.5267171263694763,
   0.06552586704492569
  ],
  [
   0.02553272806107998,
   -0.028920143842697144,
   -0.10288975387811661,
   0.010871347971260548,
   0.259638249874115,
   0.21880018711090088
  ],
  [
   0.4257364571094513,
   -0.7494136691093445,
   -0.03002232126891613,
   -0.0845225527882576,
   -0.529809296131134,
   -0.789232611656189
  ],
  [
   0.3279065787792206,
   0.15434174239635468,
   -0.08725596964359283,
   -0.028415629640221596,
   -0.9606523513793945,
   -1.3514753580093384
  ],
  [
   0.5077898502349854,
   -0.4005969166755676,
   0.030066080391407013,
   -0.020739169791340828,
   -0.1533799171447754,
   0.005078612826764584
  ],
  [
   -0.26011374592781067,
   -0.8048403263092041,
   0.02329230308532715,
   -0.364863783121109,
   0.4349345266819,
   -0.11825545877218246
  ],
  [
   0.37251991033554077,
   0.011430902406573296,
   0.015180563554167747,
   0.06179923191666603,
   -1.236069679260254,
   -0.18045574426651
  ],
  [
   -0.8414008021354675,
   0.48799729347229004,
   -0.06497802585363388,
   0.0024135347921401262,
   0.208582803606987,
   0.08492153882980347
  ],
  [
   0.0054642981849610806,
   0.0004809290694538504,
   0.01074523851275444,
   -0.024726741015911102,
   -0.6926569938659668,
   0.07562588900327682
  ],
  [
   -0.3099362254142761,
   0.22673681378364563,
   0.03562753647565842,
   -0.10536830127239227,
   -0.40837880969047546,
   0.052637722343206406
  ],
  [
   0.3611665964126587,
   -0.3781780004501343,
   0.13391567766666412,
   -0.06785596907138824,
   0.4131441116333008,
   0.09677575528621674
  ],
  [
   0.35003480315208435,
   -0.31738901138305664,
   0.035867903381586075,
   0.1161644458770752,
   -0.9476855397224426,
   0.4067997634410858
  ],
  [
   0.22473004460334778,
   0.31185048818588257,
   0.037734758108854294,
   -0.028278008103370667,
   -1.0888123512268066,
   -0.5799258351325989
  ],
  [
   -0.5675000548362732,
   0.4407710134983063,
   -0.11547194421291351,
   0.005427478346973658,
   0.09260363131761551,
   -0.16180498898029327
  ],
  [
   0.14474444091320038,
   -0.19440782070159912,
   0.2494748830795288,
   0.22158770263195038,
   -0.5261989831924438,
   -0.33979225158691406
  ],
  [
   0.3262375295162201,
   -0.3964044451713562,
   -0.020477449521422386,
   0.18507784605026245,
   -0.45801737904548645,
   -0.8060752153396606
  ],
  [
   0.07655389606952667,
   -0.17104455828666687,
   -0.1300496757030487,
   0.4232816994190216,
   -0.28050580620765686,
   0.039192017167806625
  ],
  [
   0.9188359379768372,
   -0.03169349208474159,
   0.10930456966161728,
   0.16250735521316528,
   -0.808612048625946,
   0.010858306661248207
  ],
  [
   -0.16607524454593658,
   0.41375869512557983,
   -0.04728769138455391,
   -0.08045054972171783,
   0.22966164350509644,
   -0.16703267395496368
  ],
  [
   -0.7673280239105225,
   0.06477430462837219,
   -0.14807891845703125,
   -0.06718869507312775,
   0.2237265557050705,
   0.6528747081756592
  ],
  [
   -0.36064061522483826,
   0.75091952085495,
   -0.0436272919178009,
   -0.01733401045203209,
   -0.21969293057918549,
   -0.7135035395622253
  ],
  [
   -0.0765874832868576,
   -0.03277936205267906,
   0.25756797194480896,
   0.11343704164028168,
   0.5371934175491333,
   0.2141657918691635
  ],
  [
   0.1035960242152214,
   0.21987053751945496,
   0.030459916219115257,
   0.05385594815015793,
   0.4629771411418915,
   -0.6098381876945496
  ],
  [
   -0.28544822335243225,
   0.12973268330097198,
   -0.36917659640312195,
   -0.2295902669429779,
   -0.3922760784626007,
   -0.10361584275960922
  ],
  [
   -0.5131440758705139,
   0.42888888716697693,
   -0.05327901244163513,
   0.2082478553056717,
   0.2315208613872528,
   -0.9542608261108398
  ],
  [
   0.000879709841683507,
   0.03762885183095932,
   0.16641390323638916,
   -0.30736565589904785,
   -1.4884157180786133,
   -0.11778207868337631
  ],
  [
   0.027376294136047363,
   0.332090824842453,
   0.07332762330770493,
   -0.16488522291183472,
   -1.025710940361023,
   -0.3850919306278229
  ],
  [
   0.048717059195041656,
   0.08567260950803757,
   -0.11894908547401428,
   -0.19402243196964264,
   -0.4370938241481781,
   -1.0012845993041992
  ],
  [
   0.23604165017604828,
   -0.3476713299751282,
   0.023427266627550125,
   0.07291918247938156,
   -0.5767062902450562,
   -0.17823797464370728
  ],
  [
   -0.15641610324382782,
   -0.8437921404838562,
   -0.017245899885892868,
   -0.3056047558784485,
   0.6685888171195984,
   0.24881571531295776
  ],
  [
   0.9050581455230713,
   0.053892094641923904,
   0.3021070063114166,
   0.25753337144851685,
   -0.7382060885429382,
   0.13713650405406952
  ],
  [
   0.7534814476966858,
   -0.17254061996936798,
   0.0722976103425026,
   0.15583105385303497,
   0.4575170576572418,
   0.13838428258895874
  ],
  [
   0.45527908205986023,
   -0.3806614279747009,
   0.0490742027759552,
   -0.05722080171108246,
   -0.8625062108039856,
   0.708664059638977
  ],
  [
   -0.9150538444519043,
   0.41758960485458374,
   0.026978153735399246,
   -0.027161508798599243,
   0.4523610472679138,
   0.025243600830435753
  ],
  [
   -0.4179438650608063,
   -0.3810027241706848,
   -0.08489920198917389,
   -0.02624303475022316,
   0.891068696975708,
   0.33889514207839966
  ],
  [
   -0.5240399837493896,
   -0.5727864503860474,
   -0.08745317906141281,
   -0.008820869028568268,
   0.9128764867782593,
   0.5689927935600281
  ],
  [
   -0.017993735149502754,
   -0.10642381012439728,
   0.03257714584469795,
   0.03180018067359924,
   -0.9688254594802856,
   -0.2273688018321991
  ],
  [
   -0.13537824153900146,
   0.19063375890254974,
   0.02275458537042141,
   -0.0790797770023346,
   -0.26145872473716736,
   -0.5913017988204956
  ],
  [
   0.08977653831243515,
   0.33411920070648193,
   0.0427718386054039,
   0.11553331464529037,
   -0.005279164761304855,
   -1.4850194454193115
  ],
  [
   0.129786416888237,
   0.28923171758651733,
   0.01118563674390316,
   0.056013256311416626,
   -0.7467471361160278,
   -0.004648664500564337
  ],
  [
   0.07477415353059769,
   0.4376031160354614,
   0.07317312061786652,
   0.03902364522218704,
   0.054734449833631516,
   -0.500584065914154
  ],
  [
   -0.11747150123119354,
   -0.06016243249177933,
   0.1898101568222046,
   0.2384832352399826,
   -0.3152676522731781,
   -0.010754941962659359
  ],
  [
   -0.7918977737426758,
   0.24547623097896576,
   -0.11007575690746307,
   0.08188048005104065,
   0.5750123858451843,
   0.08004896342754364
  ],
  [
   -1.2166794538497925,
   0.017430715262889862,
   -0.04959356412291527,
   -0.13859392702579498,
   0.4021701216697693,
   0.03907596692442894
  ],
  [
   0.5381534695625305,
   -0.1581549495458603,
   0.18648330867290497,
   -0.11173559725284576,
   -1.0279853343963623,
   -0.2146569788455963
  ],
  [
   -0.6584885120391846,
   0.8651880621910095,
   0.06675407290458679,
   0.08749996870756149,
   -0.40025100111961365,
   -0.3522777259349823
  ],
  [
   -0.5802350640296936,
   0.1964881867170334,
   -0.10244814306497574,
   0.11640746146440506,
   0.44209495186805725,
   -0.12426116317510605
  ],
  [
   -0.3539847731590271,
   -0.6840488910675049,
   0.014267154037952423,
   -0.11025889962911606,
   -0.2004057765007019,
   0.4673686921596527
  ],
  [
   0.04604662209749222,
   -0.009474914520978928,
   -0.12742331624031067,
   -0.057465773075819016,
   0.12148737907409668,
   0.32244330644607544
  ],
  [
   -0.40115347504615784,
   -0.32928693294525146,
   -0.03406902775168419,
   -0.0035144679713994265,
   0.6837330460548401,
   -0.15158486366271973
  ],
  [
   0.0685601606965065,
   0.6009048819541931,
   0.09823841601610184,
   -0.019293252378702164,
   0.17936664819717407,
   -0.9970788359642029
  ],
  [
   0.4210027754306793,
   -0.46428337693214417,
   0.06305273622274399,
   -0.023706646636128426,
   -1.132939100265503,
   -0.06543803960084915
  ],
  [
   0.20570777356624603,
   -0.09628366678953171,
   0.4838455319404602,
   0.19184522330760956,
   0.1043471246957779,
   -0.8169406652450562
  ],
  [
   -0.46770116686820984,
   0.23589065670967102,
   0.00678210100159049,
   -0.0508711002767086,
   -0.659695565700531,
   -0.49127325415611267
  ],
  [
   -0.3601728081703186,
   -0.4826163351535797,
   -0.0929407998919487,
   -0.0757535770535469,
   0.522839367389679,
   1.135062336921692
  ],
  [
   -0.6446858048439026,
   0.43934983015060425,
   -0.02829892747104168,
   0.11202358454465866,
   0.5423109531402588,
   -0.5972215533256531
  ],
  [
   0.18660491704940796,
   0.1386319100856781,
   -0.003399232868105173,
   -0.32985490560531616,
   -0.24254563450813293,
   0.49361276626586914
  ],
  [
   -0.6257873773574829,
   0.5534775257110596,
   0.08114641904830933,
   0.09866667538881302,
   -0.0032397948671132326,
   0.05838722735643387
  ],
  [
   0.1759500652551651,
   -0.2580987811088562,
   -0.18603096902370453,
   0.26562440395355225,
   -1.0661271810531616,
   0.4428709149360657
  ],
  [
   0.5987175107002258,
   -0.17822162806987762,
   0.12000565230846405,
   -0.07097230106592178,
   -0.8835186958312988,
   -0.17610277235507965
  ],
  [
   -0.13952597975730896,
   -0.7014950513839722,
   -0.018157565966248512,
   -0.28614822030067444,
   0.5434744954109192,
   0.24155309796333313
  ],
  [
   0.4376831352710724,
   -0.17767107486724854,
   0.02360375225543976,
   -0.1067114770412445,
   -1.2858577966690063,
   0.12822458148002625
  ],
  [
   0.1376321017742157,
   -0.5207509398460388,
   0.00955108366906643,
   0.11646196991205215,
   -0.9362227916717529,
   0.6255984306335449
  ],
  [
   0.3588663935661316,
   -0.7408655285835266,
   -0.07445322722196579,
   0.028946086764335632,
   -1.2143685817718506,
   0.5256681442260742
  ]
 ],
 "pi.0.bias": [
  -2.418595314025879,
  -2.428419828414917,
  -1.63857102394104,
  -2.9092695713043213,
  -3.2121756076812744,
  -1.2416363954544067,
  -2.6272902488708496,
  -1.5363949537277222,
  -3.098426580429077,
  -2.196159839630127,
  -5.7218170166015625,
  -6.204769134521484,
  -2.9743669033050537,
  -3.118680715560913,
  -2.3976573944091797,
  -4.555239200592041,
  -1.2177212238311768,
  -2.503108263015747,
  -0.7011533379554749,
  -2.3115782737731934,
  -1.1781444549560547,
  -0.8254044651985168,
  -1.6179229021072388,
  -4.041572570800781,
  -1.4230420589447021,
  -3.1984331607818604,
  -3.207822799682617,
  -1.620564579963684,
  -3.1973819732666016,
  -2.8088538646698,
  -1.5341465473175049,
  -1.5630186796188354,
  -0.7661080360412598,
  -2.7190515995025635,
  -4.48594331741333,
  -1.049782156944275,
  -5.282580375671387,
  -4.4606146812438965,
  -3.576908826828003,
  -2.0706326961517334,
  -1.9950608015060425,
  -1.1025100946426392,
  -3.9293620586395264,
  -3.9677605628967285,
  -4.258669376373291,
  -2.1861016750335693,
  -3.1501994132995605,
  -3.7672159671783447,
  -1.2990427017211914,
  -3.1173617839813232,
  -3.281635284423828,
  -3.368112325668335,
  -4.953798294067383,
  0.37851205468177795,
  -1.1610658168792725,
  -3.5539488792419434,
  -1.1873401403427124,
  -2.659693479537964,
  -3.622920036315918,
  -1.5984649658203125,
  -0.900201141834259,
  -5.448554515838623,
  -1.5184434652328491,
  -5.231683254241943,
  -4.3452935218811035,
  -1.1829452514648438,
  -1.10110604763031,
  -2.1182827949523926,
  -3.3480446338653564,
  -1.2291569709777832,
  -0.9068031907081604,
  -0.8156867623329163,
  -1.3560832738876343,
  -0.5410653948783875,
  -2.641087055206299,
  -2.6427958011627197,
  -2.694477081298828,
  -3.8951175212860107,
  -2.2747433185577393,
  -1.5541611909866333,
  -3.362412691116333,
  -2.210116147994995,
  -1.6630175113677979,
  -0.4739198386669159,
  -4.486978530883789,
  -0.09169688820838928,
  -3.0855119228363037,
  -2.014028787612915,
  -2.415205478668213,
  -1.1650208234786987,
  -1.777445673942566,
  -1.0608865022659302,
  -1.5861567258834839,
  -1.801002860069275,
  -3.010979175567627,
  -2.947364091873169,
  -1.1811435222625732,
  -0.5728427171707153,
  -2.351547956466675,
  -3.706230878829956
 ],
 "pi.2.weight": [
  [
   0.9264666438102722,
   -0.7027819752693176,
   -0.04666198790073395,
   -1.3319758176803589,
   0.4110884666442871,
   0.28749194741249084,
   0.27602681517601013,
   0.4086962044239044,
   -0.7700745463371277,
   1.2603758573532104,
   -1.0290712118148804,
   -0.037405576556921005,
   -0.6875373721122742,
   -1.41537606716156,
   0.0881582722067833,
   -0.8810563087463379,
   -0.2902330160140991,
   -0.40603309869766235,
   0.3337615430355072,
   0.3147391080856323,
   0.4324958622455597,
   0.35015061497688293,
   -0.7569392919540405,
   0.6896287798881531,
   1.0042191743850708,
   0.03609924018383026,
   -0.06513939797878265,
   0.2601410448551178,
   0.185402050614357,
   0.13442851603031158,
   0.5786667466163635,
   0.24830643832683563,
   -1.097675085067749,
   0.04944763332605362,
   -0.08695315569639206,
   -0.04993562772870064,
   -0.5604712963104248,
   4.720930099487305,
   -0.05126525089144707,
   0.4268319308757782,
   0.10596200823783875,
   0.021412435919046402,
   -1.1510385274887085,
   0.4521712362766266,
   -0.46540525555610657,
   0.7823461890220642,
   -0.9436105489730835,
   0.8789823055267334,
   0.2465156614780426,
   -0.9698416590690613,
   0.22238749265670776,
   -0.2702256143093109,
   1.3033034801483154,
   0.661724328994751,
   -0.014638190157711506,
   -0.9479445219039917,
   0.45882901549339294,
   -0.13078074157238007,
   0.2186620533466339,
   0.288106232881546,
   -0.12949196994304657,
   -0.8824604153633118,
   -0.08812489360570908,
   -0.6553879380226135,
   0.19273222982883453,
   -0.007035094313323498,
   -0.5261053442955017,
   0.6772076487541199,
   0.8082149028778076,
   -0.2131701409816742,
   -0.2771420180797577,
   0.19502930343151093,
   0.12469550967216492,
   -0.06502415984869003,
   -0.40510451793670654,
   -0.3257489800453186,
   0.14422698318958282,
   -0.05107053741812706,
   1.4711039066314697,
   0.9594740867614746,
   0.8140656352043152,
   -0.05092278867959976,
   -0.25529250502586365,
   -0.6198903918266296,
   0.4459984600543976,
   0.005060527473688126,
   0.0094115249812603,
   0.027489427477121353,
   -0.16606438159942627,
   -0.7376652956008911,
   -0.005649656057357788,
   0.0802280455827713,
   0.00022681892733089626,
   -0.06567798554897308,
   0.11820680648088455,
   -0.6398773789405823,
   -0.0018818062962964177,
   -0.7141547203063965,
   -0.22645747661590576,
   -0.15326261520385742
  ],
  [
   0.10432548075914383,
   0.02100992016494274,
   -0.5676718354225159,
   -0.16910293698310852,
   -0.05794759467244148,
   -0.49790090322494507,
   0.3925020098686218,
   0.3849385976791382,
   -1.5710135698318481,
   0.155718594789505,
   0.8135747313499451,
   1.8186969757080078,
   -0.003150175092741847,
   0.04941568523645401,
   -0.11002220958471298,
   0.2587842643260956,
   0.47558656334877014,
   0.06983459740877151,
   -0.13474313914775848,
   0.29875895380973816,
   0.029002191498875618,
   -0.3387976586818695,
   -0.35933631658554077,
   0.4652518033981323,
   0.10829167068004608,
   -0.35432174801826477,
   0.4773843586444855,
   0.5224116444587708,
   0.09503642469644547,
   0.36623111367225647,
   0.02411637082695961,
   0.12721790373325348,
   0.03789374977350235,
   -0.07342160493135452,
   0.4328642785549164,
   0.853451132774353,
   0.30786198377609253,
   0.3519321382045746,
   1.0195229053497314,
   -0.21514484286308289,
   0.3260345160961151,
   -0.0610957145690918,
   -0.10438127815723419,
   -0.9447778463363647,
   -0.07335422933101654,
   0.28394630551338196,
   -0.1372736692428589,
   -0.035090696066617966,
   0.20726549625396729,
   1.0433374643325806,
   0.1595008820295334,
   -0.5466939806938171,
   -0.25395143032073975,
   -0.08799509704113007,
   0.10474549978971481,
   0.6267493963241577,
   0.009143007919192314,
   -0.11506044864654541,
   -0.19788308441638947,
   -0.15493963658809662,
   0.272210031747818,
   -0.42694908380508423,
   -0.09239333122968674,
   -4.773662567138672,
   -0.5754992365837097,
   -0.6031886339187622,
   0.02633081190288067,
   0.03589021414518356,
   0.12223794311285019,
   -0.9224926829338074,
   0.43185678124427795,
   0.29718318581581116,
   0.3792448341846466,
   -0.1362399458885193,
   0.1890082061290741,
   -0.20912843942642212,
   0.4823281466960907,
   0.10856782644987106,
   1.0404942035675049,
   0.12950806319713593,
   0.4899725914001465,
   -0.49485528469085693,
   -0.16305339336395264,
   -0.1421392261981964,
   -0.02707199566066265,
   -0.5823027491569519,
   -0.34185346961021423,
   -0.4773758053779602,
   0.07461491972208023,
   -0.1256105601787567,
   -0.45235008001327515,
   -0.4066227078437805,
   -0.006536476314067841,
   0.8616394400596619,
   0.03146524354815483,
   -0.5490738153457642,
   0.7637861967086792,
   -0.0064625185914337635,
   0.04605305939912796,
   -0.38617780804634094
  ]
 ]
}