{
 "pi.0.weight": [
  [
   -0.43813714385032654,
   0.031030824407935143,
   -0.5368921756744385,
   0.9040358662605286,
   0.5468844771385193,
   -0.9451239705085754
  ],
  [
   -0.651225745677948,
   -0.19813434779644012,
   -0.5412486791610718,
   -0.055927298963069916,
   -0.12507875263690948,
   -1.2481894493103027
  ],
  [
   -0.0343317873775959,
   1.4020744562149048,
   -0.01351784449070692,
   -0.020057542249560356,
   0.275553435087204,
   -0.0011873943731188774
  ],
  [
   0.41911157965660095,
   -0.22634226083755493,
   0.118056520819664,
   0.36642977595329285,
   -1.0685741901397705,
   0.1421647071838379
  ],
  [
   -1.1020469665527344,
   1.3741284608840942,
   -0.14357109367847443,
   -0.1106681078672409,
   1.5367393493652344,
   -0.48985451459884644
  ],
  [
   0.40883901715278625,
   0.6498515605926514,
   0.3729008138179779,
   0.2655913829803467,
   -1.7284953594207764,
   -0.7979472875595093
  ],
  [
   -0.7198308706283569,
   1.0216938257217407,
   0.8701235055923462,
   0.08716771751642227,
   0.8819484114646912,
   -0.7619526982307434
  ],
  [
   2.0926499366760254,
   -1.2377902269363403,
   1.0083165168762207,
   -0.4842611253261566,
   0.8803859949111938,
   -0.20389410853385925
  ],
  [
   -2.9530110359191895,
   0.44538891315460205,
   -0.6071843504905701,
   -0.06553225219249725,
   0.07342364639043808,
   0.5291534662246704
  ],
  [
   0.7063038349151611,
   -0.6817446351051331,
   1.299110770225525,
   -1.1787806749343872,
   -0.4529286026954651,
   1.0310465097427368
  ],
  [
   -1.1372677087783813,
   0.761311948299408,
   -0.12813568115234375,
   0.28330984711647034,
   -1.0705528259277344,
   0.9621587991714478
  ],
  [
   1.6817138195037842,
   -0.33370018005371094,
   0.36486345529556274,
   0.6604952216148376,
   -0.3591160774230957,
   -0.27088266611099243
  ],
  [
   0.8829358816146851,
   0.21722520887851715,
   0.34551316499710083,
   0.5213932394981384,
   0.6035311818122864,
   -1.0341962575912476
  ],
  [
   0.7459262013435364,
   -0.9776028990745544,
   -0.849614679813385,
   -0.5765990018844604,
   -0.9782185554504395,
   -0.2627013027667999
  ],
  [
   -0.2916118800640106,
   0.31472283601760864,
   -0.1612018346786499,
   1.0396616458892822,
   0.8719496130943298,
   0.5356723070144653
  ],
  [
   1.1283880472183228,
   -0.17770268023014069,
   0.6430441737174988,
   -0.5003255009651184,
   -0.9974303245544434,
   -0.17322257161140442
  ],
  [
   0.04242641478776932,
   -0.3241460621356964,
   0.5193079710006714,
   -1.0553858280181885,
   -0.3423318564891815,
   0.8803246021270752
  ],
  [
   -0.6164249181747437,
   -0.2007622867822647,
   -0.7472348809242249,
   -1.6624983549118042,
   -0.7063544392585754,
   -0.6572114825248718
  ],
  [
   0.5802806615829468,
   1.684103012084961,
   0.35856565833091736,
   0.6181470155715942,
   0.2595169246196747,
   -0.5939387679100037
  ],
  [
   0.4161808490753174,
   -0.9986650347709656,
   0.1136963963508606,
   -0.07081988453865051,
   -1.5122870206832886,
   0.2606942355632782
  ],
  [
   1.433988332748413,
   -0.1042250469326973,
   0.999316394329071,
   0.18442107737064362,
   -0.9979110360145569,
   0.5856961607933044
  ],
  [
   0.9972264170646667,
   -1.9321125745773315,
   0.11100330948829651,
   -1.712754487991333,
   -0.35239192843437195,
   0.45495784282684326
  ],
  [
   -1.0693641901016235,
   1.898476004600525,
   -0.6271476149559021,
   -0.4558808505535126,
   0.0946454331278801,
   -0.6734982132911682
  ],
  [
   -0.361646443605423,
   1.2691326141357422,
   -0.6381533741950989,
   1.786962866783142,
   -0.6440114378929138,
   -0.2916414737701416
  ],
  [
   -2.322075843811035,
   0.2527085840702057,
   -0.518283486366272,
   0.04854775592684746,
   -0.08484333753585815,
   -0.18530681729316711
  ],
  [
   -0.1370059698820114,
   0.5275500416755676,
   -0.25487878918647766,
   0.7717645764350891,
   -0.020887158811092377,
   -1.8332411050796509
  ],
  [
   -2.1193339824676514,
   -1.0596908330917358,
   -0.9973907470703125,
   -0.47668465971946716,
   0.428318589925766,
   0.335544228553772
  ],
  [
   -0.19590680301189423,
   -0.4785546362400055,
   -0.23809750378131866,
   -1.1661568880081177,
   0.47184860706329346,
   1.8794320821762085
  ],
  [
   -0.5362570285797119,
   -0.8025609254837036,
   -0.43089166283607483,
   -0.38114404678344727,
   1.60154128074646,
   0.8045560121536255
  ],
  [
   1.5300110578536987,
   0.13331899046897888,
   0.5260071158409119,
   -0.018497316166758537,
   0.22620370984077454,
   0.08092455565929413
  ],
  [
   -0.47238126397132874,
   -1.1253865957260132,
   -0.5157329440116882,
   -0.7046594023704529,
   -0.47907596826553345,
   0.45295220613479614
  ],
  [
   -0.3706524074077606,
   1.1626490354537964,
   -0.30513909459114075,
   0.03475595638155937,
   -1.127139687538147,
   0.2791132628917694
  ],
  [
   -1.0686928033828735,
   0.664620578289032,
   -1.125714898109436,
   0.3426942825317383,
   -0.4801763892173767,
   -0.29691794514656067
  ],
  [
   2.06624174118042,
   -1.2345720529556274,
   -0.07395967096090317,
   -0.11148197203874588,
   -0.5423552989959717,
   0.43987852334976196
  ],
  [
   -0.8328331708908081,
   1.035343885421753,
   0.10540639609098434,
   -0.08562753349542618,
   1.2540397644042969,
   -0.6899356842041016
  ],
  [
   -0.1668359339237213,
   -0.709303081035614,
   -0.8166159391403198,
   -0.4739588499069214,
   0.2363111674785614,
   0.13307936489582062
  ],
  [
   0.3804645836353302,
   -2.241887092590332,
   0.03793688118457794,
   0.24343717098236084,
   -0.5190982222557068,
   1.2917194366455078
  ],
  [
   -0.8000330924987793,
   -1.0579677820205688,
   -0.23283207416534424,
   -1.359440565109253,
   1.042054533958435,
   0.031010018661618233
  ],
  [
   -0.09005316346883774,
   1.5289664268493652,
   0.5002894997596741,
   -0.21977269649505615,
   0.6096901893615723,
   0.42756590247154236
  ],
  [
   1.8275748491287231,
   -0.823859691619873,
   0.1206631064414978,
   -0.19573627412319183,
   -0.5634576082229614,
   0.2387961745262146
  ],
  [
   -0.7640942335128784,
   0.2077539712190628,
   -0.29552382230758667,
   0.20403726398944855,
   1.323223352432251,
   -0.6082155108451843
  ],
  [
   0.24073906242847443,
   -1.698554277420044,
   0.23235099017620087,
   -0.15238000452518463,
   -0.3070276081562042,
   -0.11942997574806213
  ],
  [
   1.7351101636886597,
   -0.06624855101108551,
   0.19085107743740082,
   0.3409901261329651,
   0.3549419343471527,
   0.07894167304039001
  ],
  [
   -0.25139233469963074,
   -0.1327654868364334,
   -1.3878058195114136,
   -0.6806178689002991,
   0.5375056266784668,
   -0.182964488863945
  ],
  [
   0.5480549335479736,
   0.9829556941986084,
   0.4034680724143982,
   0.40044912695884705,
   0.2775891125202179,
   -1.4163049459457397
  ],
  [
   1.1964428424835205,
   -0.45189449191093445,
   0.41513001918792725,
   0.21777670085430145,
   0.49509939551353455,
   1.1157045364379883
  ],
  [
   0.4929127097129822,
   -1.0443631410598755,
   0.832940399646759,
   -1.5288206338882446,
   0.5300524830818176,
   -0.10480982065200806
  ],
  [
   -0.989689290523529,
   1.5700862407684326,
   -0.40998777747154236,
   1.319331169128418,
   0.24555252492427826,
   -0.353122740983963
  ],
  [
   -0.7699100375175476,
   0.7686545848846436,
   -1.2261958122253418,
   0.014944761991500854,
   -0.12082944065332413,
   0.7127302885055542
  ],
  [
   -0.17534874379634857,
   1.1877974271774292,
   0.3369477689266205,
   0.22143475711345673,
   1.0734955072402954,
   0.13407602906227112
  ],
  [
   -1.3493775129318237,
   0.0698150247335434,
   -0.26005202531814575,
   -0.4362064599990845,
   -0.5014316439628601,
   -0.8688501715660095
  ],
  [
   -0.4983280897140503,
   -0.016334954649209976,
   -0.8263710737228394,
   -0.5527706742286682,
   -0.35333243012428284,
   -0.13728117942810059
  ],
  [
   -1.2536492347717285,
   0.09920628368854523,
   0.10758158564567566,
   -0.3911559581756592,
   0.089204341173172,
   0.7479679584503174
  ],
  [
   0.035530924797058105,
   0.04985246807336807,
   0.45583343505859375,
   -0.6844934225082397,
   0.5433555841445923,
   1.4178664684295654
  ],
  [
   0.9826489686965942,
   -0.9407268166542053,
   1.2965925931930542,
   0.14231733977794647,
   -0.9887662529945374,
   1.0606929063796997
  ],
  [
   -0.5771751403808594,
   -1.212904930114746,
   -0.9246373176574707,
   -0.9125761389732361,
   0.7171385288238525,
   0.34698906540870667
  ],
  [
   1.7698314189910889,
   0.17705202102661133,
   0.5593231916427612,
   -0.8063896894454956,
   -0.7569863796234131,
   0.636168897151947
  ],
  [
   -0.2583357095718384,
   -1.6100302934646606,
   0.0029575577937066555,
   0.4949033260345459,
   0.0018305680714547634,
   0.48215237259864807
  ],
  [
   0.042511530220508575,
   1.1018234491348267,
   1.5001119375228882,
   0.05694854259490967,
   -0.16642816364765167,
   -0.5225667357444763
  ],
  [
   -1.3385355472564697,
   0.6362585425376892,
   -0.034921273589134216,
   -0.32078683376312256,
   -0.5721487402915955,
   -0.4644079804420471
  ],
  [
   0.2315361350774765,
   0.41747647523880005,
   0.004345403518527746,
   0.5996580719947815,
   1.3329817056655884,
   0.16115011274814606
  ],
  [
   1.719992756843567,
   -0.1173674538731575,
   0.05456140264868736,
   -0.09497378766536713,
   -0.975608229637146,
   0.08533985167741776
  ],
  [
   -1.7316370010375977,
   1.287639856338501,
   -0.657932698726654,
   0.3510020971298218,
   -0.07455582916736603,
   0.5724238157272339
  ],
  [
   -0.13153839111328125,
   0.41098225116729736,
   0.19109377264976501,
   0.07177820056676865,
   -1.0573983192443848,
   0.8395659327507019
  ],
  [
   1.0769246816635132,
   0.35397663712501526,
   -0.3671565055847168,
   -0.19133412837982178,
   0.9880822896957397,
   0.924767792224884
  ],
  [
   0.6459662318229675,
   0.13724493980407715,
   0.13180719316005707,
   0.13149292767047882,
   -1.0947070121765137,
   0.230471670627594
  ],
  [
   -2.253199815750122,
   -0.2795601487159729,
   -0.7701716423034668,
   -0.5023053884506226,
   1.2740033864974976,
   0.2238914519548416
  ],
  [
   -0.9360355138778687,
   1.769114375114441,
   -0.7917740941047668,
   -0.0729154422879219,
   0.8061782717704773,
   -0.3522413372993469
  ],
  [
   -0.3768877387046814,
   1.5035409927368164,
   1.052598476409912,
   0.07961754500865936,
   0.9576373100280762,
   -0.8864947557449341
  ],
  [
   -0.6538936495780945,
   -0.3232251703739166,
   -0.2738209664821625,
   -0.43810346722602844,
   -1.379403829574585,
   0.9799323678016663
  ],
  [
   -0.5636784434318542,
   0.6574551463127136,
   0.11023223400115967,
   -0.5609560012817383,
   -0.09300459176301956,
   -0.3006551265716553
  ],
  [
   2.184710741043091,
   -0.005213297437876463,
   0.121637262403965,
   0.026917215436697006,
   -0.0061743962578475475,
   -0.26846879720687866
  ],
  [
   1.4931905269622803,
   -0.1544303148984909,
   0.007426252588629723,
   0.16730287671089172,
   0.42851218581199646,
   0.16264501214027405
  ],
  [
   1.3496191501617432,
   -1.3435951471328735,
   -0.4047219157218933,
   0.10562478005886078,
   0.5084172487258911,
   -0.284189373254776
  ],
  [
   -1.6831762790679932,
   0.11635623872280121,
   0.8548402190208435,
   -0.12642227113246918,
   0.381988525390625,
   -0.5373362898826599
  ],
  [
   0.6541397571563721,
   -0.5538284778594971,
   0.12388798594474792,
   -0.7525776028633118,
   -1.6494849920272827,
   0.5641840696334839
  ],
  [
   -0.5171813368797302,
   1.8358473777770996,
   0.26813071966171265,
   -0.39807069301605225,
   0.6768791079521179,
   -0.6867988109588623
  ],
  [
   1.2564964294433594,
   0.6183260083198547,
   0.8146310448646545,
   -0.13681761920452118,
   0.23644445836544037,
   -0.1861424744129181
  ],
  [
   0.2609560489654541,
   1.696635365486145,
   0.18092383444309235,
   0.5829491019248962,
   0.2743793725967407,
   0.9275602102279663
  ],
  [
   0.3312523066997528,
   -0.7710515856742859,
   -0.06789892166852951,
   0.4045325815677643,
   -0.6767824292182922,
   1.2234487533569336
  ],
  [
   -0.8605534434318542,
   0.30927687883377075,
   -0.07177036255598068,
   -0.025498168542981148,
   0.7691158652305603,
   -0.12213071435689926
  ],
  [
   0.6229418516159058,
   0.0885777398943901,
   -0.1759221851825714,
   1.0848051309585571,
   0.08481810986995697,
   -1.1724369525909424
  ],
  [
   1.2714731693267822,
   1.0181971788406372,
   0.6597855687141418,
   0.28119203448295593,
   -0.49029940366744995,
   -0.23781028389930725
  ],
  [
   0.3335033059120178,
   1.3022255897521973,
   0.038791436702013016,
   -0.47378137707710266,
   0.8013703227043152,
   -0.16593682765960693
  ],
  [
   0.6392430067062378,
   0.10138510912656784,
   -1.2163599729537964,
   -0.4685678482055664,
   0.2891865372657776,
   0.14407727122306824
  ],
  [
   0.19805866479873657,
   -0.389620840549469,
   -0.5551011562347412,
   0.6721839904785156,
   -1.1616207361221313,
   -0.49138274788856506
  ],
  [
   0.9457398056983948,
   -0.1679513305425644,
   -0.6149086356163025,
   -0.7003050446510315,
   -0.7827541828155518,
   0.41547518968582153
  ],
  [
   0.461300790309906,
   0.6693944931030273,
   0.42227479815483093,
   0.6279943585395813,
   -1.0586079359054565,
   -0.34764671325683594
  ],
  [
   -0.2671716511249542,
   1.7659509181976318,
   0.4380001425743103,
   0.6767523884773254,
   -0.3127099573612213,
   -1.3333059549331665
  ],
  [
   -0.24513931572437286,
   -0.12203247100114822,
   0.7736349701881409,
   0.09176264703273773,
   -0.2431465983390808,
   1.2366602420806885
  ],
  [
   -0.796623170375824,
   1.4816893339157104,
   0.30110853910446167,
   0.3014490306377411,
   0.820173978805542,
   -0.6476250290870667
  ],
  [
   -0.3523733913898468,
   0.28818556666374207,
   -1.562363624572754,
   0.49630340933799744,
   -0.2040795385837555,
   -0.7863422632217407
  ],
  [
   -0.4480123221874237,
   -0.5513027906417847,
   0.4067108631134033,
   -0.382638156414032,
   0.22447867691516876,
   0.4555169343948364
  ],
  [
   -2.0244619846343994,
   0.04379821941256523,
   -0.2840880751609802,
   -0.1105256974697113,
   -0.45318254828453064,
   0.06541669368743896
  ],
  [
   0.6775193214416504,
   0.4243698716163635,
   1.01890230178833,
   0.36782675981521606,
   0.28752240538597107,
   -0.0998099073767662
  ],
  [
   0.2656318247318268,
   -1.9713913202285767,
   0.06756974011659622,
   0.17461776733398438,
   -0.2979288697242737,
   1.2626280784606934
  ],
  [
   1.5110771656036377,
   0.5020756721496582,
   0.5296555161476135,
   -0.0910564661026001,
   -0.25679320096969604,
   0.09527991712093353
  ],
  [
   -2.4715428352355957,
   0.5855457782745361,
   -0.16681018471717834,
   -0.22142294049263,
   -0.053561728447675705,
   -0.007549131289124489
  ],
  [
   1.0288481712341309,
   -0.46837180852890015,
   0.036907829344272614,
   -0.43648114800453186,
   -1.2024908065795898,
   1.1812103986740112
  ],
  [
   -0.5216512084007263,
   0.7136678099632263,
   -0.7288650870323181,
   -0.9182227849960327,
   0.7042140960693359,
   0.11627111583948135
  ]
 ],
 "pi.0.bias": [
  -3.063361644744873,
  -3.0385591983795166,
  -3.691201686859131,
  -0.9323497414588928,
  -1.016932487487793,
  -1.202115774154663,
  -0.8701027035713196,
  -1.3636566400527954,
  -1.3446455001831055,
  -2.236114740371704,
  -0.802133321762085,
  -1.533790111541748,
  -1.2481889724731445,
  -1.9183499813079834,
  -0.8881798386573792,
  -1.2519549131393433,
  -1.9443936347961426,
  -0.5289445519447327,
  -0.2234235554933548,
  -3.2832326889038086,
  -1.6157976388931274,
  -1.2407876253128052,
  -0.19692908227443695,
  -4.876185894012451,
  0.9549883008003235,
  -1.6086763143539429,
  -1.0020177364349365,
  -0.16415628790855408,
  -0.8631209135055542,
  0.3634720742702484,
  -0.9397446513175964,
  -2.56169056892395,
  -4.1116228103637695,
  -0.8654998540878296,
  -2.931755542755127,
  -2.4608864784240723,
  -1.2337660789489746,
  -3.495474338531494,
  -3.8538122177124023,
  0.07140260189771652,
  -3.13071870803833,
  -2.4384925365448,
  -0.8413559794425964,
  -1.4865858554840088,
  -3.647587776184082,
  0.8032865524291992,
  -3.038557291030884,
  -0.7933205366134644,
  -3.8387269973754883,
  -2.7572062015533447,
  -2.570687770843506,
  -3.1962993144989014,
  0.596904993057251,
  -0.5030824542045593,
  -0.8725631237030029,
  -3.318835496902466,
  -1.6504164934158325,
  -1.513291597366333,
  -1.52953040599823,
  -2.336069107055664,
  -2.4217331409454346,
  -0.4762057363986969,
  -1.9169687032699585,
  -1.6063746213912964,
  -0.7673078179359436,
  0.6985870003700256,
  -0.8939588665962219,
  -0.8482087850570679,
  -1.2083497047424316,
  -2.1742711067199707,
  -3.055922031402588,
  -1.514352798461914,
  -2.3513851165771484,
  0.5040255188941956,
  0.32105228304862976,
  -0.9863268136978149,
  -0.9267853498458862,
  -3.8385708332061768,
  -3.682968854904175,
  0.4055955410003662,
  -1.2471901178359985,
  -1.2006373405456543,
  0.759385883808136,
  -3.578150749206543,
  -1.8240845203399658,
  -3.2356886863708496,
  -1.8160697221755981,
  -1.478512167930603,
  -2.3281753063201904,
  -0.4286423623561859,
  -1.6396583318710327,
  -1.9893938302993774,
  -0.5942236185073853,
  -1.2790629863739014,
  -4.404414176940918,
  -1.6097416877746582,
  0.02303091250360012,
  -1.9928004741668701,
  -1.3422038555145264,
  -2.817417621612549
 ],
 "pi.2.weight": [
  [
   -0.33070531487464905,
   -2.1205942630767822,
   -3.639941453933716,
   0.19377316534519196,
   0.753869354724884,
   1.0978960990905762,
   0.37668219208717346,
   -0.1394490748643875,
   1.4514820575714111,
   -1.3209421634674072,
   -1.1842809915542603,
   0.5954059958457947,
   0.24981243908405304,
   -1.1942260265350342,
   0.7087886333465576,
   -0.645702600479126,
   1.2106884717941284,
   -0.1544989049434662,
   -0.38375627994537354,
   2.616870164871216,
   0.6122409105300903,
   0.479682058095932,
   -0.095284104347229,
   -0.2629784643650055,
   -0.9051374197006226,
   -0.6256667375564575,
   -0.07264198362827301,
   -0.6357992887496948,
   -1.342289686203003,
   0.4690726399421692,
   0.37546801567077637,
   0.9562855958938599,
   2.3922204971313477,
   1.2193597555160522,
   -2.634594440460205,
   0.4133111536502838,
   -1.637175440788269,
   0.0754123255610466,
   1.5042436122894287,
   -0.6721405982971191,
   -2.806542158126831,
   -1.7761509418487549,
   0.396579384803772,
   0.2339053750038147,
   3.0464959144592285,
   0.17080025374889374,
   0.3678142726421356,
   -0.5476980209350586,
   -1.4441051483154297,
   -2.4333856105804443,
   0.019599027931690216,
   2.887381076812744,
   0.6921536326408386,
   0.6724236607551575,
   1.2973519563674927,
   0.8388652801513672,
   0.10026861727237701,
   1.7292208671569824,
   -1.036134958267212,
   -0.8873770833015442,
   -1.1936826705932617,
   0.7204529047012329,
   0.5301594138145447,
   0.32774028182029724,
   0.7058373093605042,
   -0.9020214676856995,
   -0.3093344569206238,
   -0.88359534740448,
   0.9158004522323608,
   -1.4738966226577759,
   1.615142583847046,
   -2.035280466079712,
   -0.5222859382629395,
   0.4238884747028351,
   0.38981935381889343,
   0.3738112449645996,
   -0.9147742986679077,
   -2.9404232501983643,
   1.5425394773483276,
   -0.4294230043888092,
   -2.1268088817596436,
   0.049411021173000336,
   0.8297808170318604,
   2.08718204498291,
   -0.02926054038107395,
   -0.5450261831283569,
   -0.8895033597946167,
   -1.2052900791168213,
   1.278692364692688,
   0.09608811885118484,
   0.7887520790100098,
   0.6478200554847717,
   -0.13212695717811584,
   1.131062388420105,
   -3.187178611755371,
   1.619556188583374,
   -0.28134486079216003,
   -0.9756199717521667,
   0.820491373538971,
   0.2126876562833786
  ],
  [
   2.71829891204834,
   1.7799862623214722,
   3.64703631401062,
   1.06892991065979,
   2.786426544189453,
   0.6378302574157715,
   -0.727055013179779,
   -1.648561954498291,
   1.6015971899032593,
   2.7022440433502197,
   -0.08846944570541382,
   1.9553786516189575,
   1.05794095993042,
   0.6271576285362244,
   0.6073485016822815,
   -1.1349302530288696,
   0.4861142635345459,
   -0.8474955558776855,
   -0.7846507430076599,
   2.529088258743286,
   1.592145562171936,
   -1.7882425785064697,
   1.0545734167099,
   -4.691203594207764,
   -0.6943252086639404,
   1.9241124391555786,
   -1.5765618085861206,
   -1.8043391704559326,
   -1.0504125356674194,
   0.13126568496227264,
   -0.9097341895103455,
   2.1672754287719727,
   -1.7775158882141113,
   0.0156809501349926,
   -0.20514453947544098,
   1.3125131130218506,
   0.31531813740730286,
   3.1348469257354736,
   -5.126217365264893,
   -0.44782599806785583,
   -0.22197401523590088,
   1.4620662927627563,
   0.8503631949424744,
   0.8010862469673157,
   3.5692920684814453,
   1.5143623352050781,
   3.5329461097717285,
   1.1292307376861572,
   -3.368475914001465,
   -1.3352174758911133,
   3.2075343132019043,
   1.0899068117141724,
   0.6986878514289856,
   -1.017681360244751,
   -0.4548051357269287,
   3.391333818435669,
   -1.4289054870605469,
   0.9803826212882996,
   0.30732810497283936,
   -0.9430692791938782,
   2.8274569511413574,
   0.30413925647735596,
   2.1189441680908203,
   -1.401827335357666,
   0.24891269207000732,
   0.08679813146591187,
   -1.7471853494644165,
   1.0058746337890625,
   -0.016592182219028473,
   -0.5211117267608643,
   -1.486244797706604,
   0.5401352047920227,
   -1.9748482704162598,
   -1.119696855545044,
   -0.6723728775978088,
   -2.487597703933716,
   -0.758053719997406,
   0.17094050347805023,
   -2.920419216156006,
   1.1300157308578491,
   -0.20241789519786835,
   -1.2746130228042603,
   0.4674730896949768,
   3.546983480453491,
   -1.0314340591430664,
   2.022394895553589,
   -0.8591113090515137,
   -0.6715685129165649,
   1.880650520324707,
   1.2660316228866577,
   -0.4806953966617584,
   -1.2014625072479248,
   0.6728008389472961,
   0.8365689516067505,
   -2.595877170562744,
   -2.2900986671447754,
   0.3330191969871521,
   -2.3593530654907227,
   1.3260833024978638,
   -2.39300799369812
  ]
 ]
}