{
 "pi.0.weight": [
  [
   -1.993600606918335,
   2.9733147621154785,
   -0.3985205888748169,
   -0.09190952032804489,
   -0.8982043862342834,
   2.309873580932617
  ],
  [
   -0.2646051347255707,
   1.138142466545105,
   -1.8943705558776855,
   -2.2733006477355957,
   -0.6217894554138184,
   0.06661204248666763
  ],
  [
   -1.1292375326156616,
   1.4047530889511108,
   -0.2790743112564087,
   0.6592642664909363,
   2.7404303550720215,
   0.9747200608253479
  ],
  [
   0.4218102693557739,
   0.12948231399059296,
   -0.61421138048172,
   0.44566866755485535,
   2.3875110149383545,
   -0.8798424005508423
  ],
  [
   0.6268560886383057,
   -1.023910641670227,
   0.7401891350746155,
   -0.4235900640487671,
   3.3167009353637695,
   -0.7539643049240112
  ],
  [
   -1.522512674331665,
   3.2441792488098145,
   -0.41526663303375244,
   -0.08728184551000595,
   2.5240330696105957,
   -1.4452623128890991
  ],
  [
   -1.736815333366394,
   6.3796515464782715,
   -0.001636285218410194,
   0.017307911068201065,
   -1.0380253791809082,
   -1.3222852945327759
  ],
  [
   -1.8168972730636597,
   -4.425468444824219,
   0.060705408453941345,
   0.030778590589761734,
   1.513436198234558,
   0.5107660293579102
  ],
  [
   -2.07010817527771,
   9.394636154174805,
   0.009753450751304626,
   0.3336620032787323,
   -0.12670397758483887,
   1.212296485900879
  ],
  [
   -2.033860206604004,
   8.28761100769043,
   0.07714197784662247,
   -0.21095840632915497,
   -0.5517181754112244,
   -2.1030993461608887
  ],
  [
   4.518071174621582,
   -3.4099924564361572,
   0.04478529095649719,
   0.034628726541996,
   -0.22813603281974792,
   0.7525826692581177
  ],
  [
   1.9616107940673828,
   2.8907392024993896,
   -0.7119799852371216,
   -1.601684331893921,
   -1.7303073406219482,
   -2.4809422492980957
  ],
  [
   2.400921583175659,
   -1.2615009546279907,
   0.19943867623806,
   0.4227636456489563,
   0.22884854674339294,
   -0.6796647310256958
  ],
  [
   1.853286862373352,
   -0.660445511341095,
   0.10692736506462097,
   -0.08329088240861893,
   -3.5696675777435303,
   0.28662556409835815
  ],
  [
   1.826839804649353,
   0.29125478863716125,
   -0.07217203080654144,
   0.07066210359334946,
   -1.7163652181625366,
   -0.746311366558075
  ],
  [
   -0.08991660177707672,
   2.3522350788116455,
   0.41455206274986267,
   -0.9949764013290405,
   -1.1842319965362549,
   0.5775635242462158
  ],
  [
   1.5709482431411743,
   -1.8364886045455933,
   1.8185523748397827,
   0.9686548113822937,
   0.3586413860321045,
   -0.05926679074764252
  ],
  [
   0.18714509904384613,
   0.5835089683532715,
   -1.6042543649673462,
   1.7673301696777344,
   -0.6623979210853577,
   -0.06408903747797012
  ],
  [
   3.898249387741089,
   -0.6401922702789307,
   -0.39710068702697754,
   0.481370210647583,
   -0.67423415184021,
   -1.1783528327941895
  ],
  [
   -3.0746779441833496,
   -0.9898175597190857,
   0.3676137626171112,
   0.6063204407691956,
   0.23245151340961456,
   1.7217897176742554
  ],
  [
   1.3583624362945557,
   2.188961982727051,
   0.1559024304151535,
   0.5710767507553101,
   -0.09980250149965286,
   -2.787214756011963
  ],
  [
   1.3413469791412354,
   3.024700880050659,
   -0.006289475131779909,
   -0.20484435558319092,
   1.1804431676864624,
   -1.4301488399505615
  ],
  [
   -1.5662895441055298,
   -1.1982821226119995,
   -1.007978081703186,
   -3.5518455505371094,
   -0.3356819748878479,
   -1.2479842901229858
  ],
  [
   -0.31856006383895874,
   -1.4537895917892456,
   0.4235770106315613,
   0.06374131143093109,
   -0.3834935426712036,
   2.3687920570373535
  ],
  [
   -1.550789475440979,
   1.5889298915863037,
   0.16737690567970276,
   -0.4992954134941101,
   -1.941170573234558,
   -0.19367940723896027
  ],
  [
   -4.2377142906188965,
   -0.14429515600204468,
   1.2813822031021118,
   -0.11694331467151642,
   4.781087875366211,
   0.11647920310497284
  ],
  [
   -0.26964256167411804,
   1.85086989402771,
   -2.70892071723938,
   1.5733203887939453,
   -1.5525100231170654,
   0.09758427739143372
  ],
  [
   2.065352201461792,
   3.174140691757202,
   0.41592860221862793,
   0.5087916254997253,
   -0.0423477441072464,
   -1.5368458032608032
  ],
  [
   -2.1165032386779785,
   -0.6599894762039185,
   -1.2936979532241821,
   0.5982428193092346,
   -1.2996522188186646,
   -0.954815685749054
  ],
  [
   2.227273941040039,
   -1.0108973979949951,
   -0.4012978971004486,
   -0.43438559770584106,
   -0.7836253046989441,
   -1.8504196405410767
  ],
  [
   -3.0248098373413086,
   0.1166931688785553,
   -0.8635456562042236,
   0.6239932179450989,
   1.0363776683807373,
   -0.23887835443019867
  ],
  [
   3.8415186405181885,
   1.1332523822784424,
   -0.14151036739349365,
   0.7115465402603149,
   -1.6912236213684082,
   0.22534620761871338
  ],
  [
   0.9496852159500122,
   -0.3807784914970398,
   -3.4477076530456543,
   -0.020701440051198006,
   -3.5204968452453613,
   -1.4288069009780884
  ],
  [
   -2.2972841262817383,
   -3.0939173698425293,
   1.6489603519439697,
   -0.47438719868659973,
   3.6823480129241943,
   0.33541339635849
  ],
  [
   -0.7846378684043884,
   2.8366172313690186,
   1.0526542663574219,
   3.157092809677124,
   0.1666799634695053,
   0.7146859169006348
  ],
  [
   1.5042328834533691,
   -3.6228837966918945,
   -0.12109171599149704,
   -0.6667115688323975,
   3.921659231185913,
   -2.3953373432159424
  ],
  [
   -1.9830281734466553,
   -0.8217836618423462,
   0.7993410229682922,
   1.8442686796188354,
   1.0178601741790771,
   0.7429081201553345
  ],
  [
   0.9836286902427673,
   3.206620454788208,
   -1.3686354160308838,
   -0.8420093655586243,
   -1.770220398902893,
   -1.9835255146026611
  ],
  [
   -2.657362222671509,
   4.74717378616333,
   0.9872474074363708,
   0.15049053728580475,
   -0.24821558594703674,
   -0.27569660544395447
  ],
  [
   1.4411542415618896,
   1.0290132761001587,
   0.010306354612112045,
   -0.0950559675693512,
   -3.167520761489868,
   -0.5830686688423157
  ],
  [
   1.1309964656829834,
   -5.018983364105225,
   0.6955790519714355,
   0.3661592900753021,
   -1.1362732648849487,
   0.09862126410007477
  ],
  [
   -3.2115533351898193,
   -0.40745869278907776,
   0.003214614698663354,
   0.8030742406845093,
   0.9927994608879089,
   2.043457269668579
  ],
  [
   -1.2440844774246216,
   -2.0171027183532715,
   -1.465034008026123,
   1.8694989681243896,
   -0.22154907882213593,
   2.490328311920166
  ],
  [
   -0.8477984666824341,
   -0.03151163086295128,
   0.1837773621082306,
   -0.5012368559837341,
   2.988905668258667,
   -0.42398810386657715
  ],
  [
   -0.016951611265540123,
   1.3735032081604004,
   -0.13921280205249786,
   3.136584520339966,
   -1.2567003965377808,
   -0.19292619824409485
  ],
  [
   1.329097032546997,
   1.1311672925949097,
   1.0140305757522583,
   0.13088884949684143,
   -3.1894373893737793,
   0.20058542490005493
  ],
  [
   1.3978153467178345,
   2.4572935104370117,
   -0.06278880685567856,
   0.215371236205101,
   0.8625470995903015,
   -3.3342158794403076
  ],
  [
   -4.8937554359436035,
   -0.9302358627319336,
   -1.237288475036621,
   -0.22414402663707733,
   0.6045399308204651,
   -2.5366604328155518
  ],
  [
   -3.2174623012542725,
   3.8061037063598633,
   -0.2630476951599121,
   0.28552010655403137,
   0.5973689556121826,
   1.3439218997955322
  ],
  [
   1.902442216873169,
   0.1762695610523224,
   1.1198077201843262,
   0.09834840893745422,
   1.5529208183288574,
   -0.760830819606781
  ]
 ],
 "pi.0.bias": [
  4.568700313568115,
  -3.1663784980773926,
  -3.004408359527588,
  -5.47139835357666,
  -3.310480833053589,
  -3.614973545074463,
  -2.115225076675415,
  1.0420655012130737,
  -1.428483247756958,
  1.5193337202072144,
  4.60310697555542,
  3.095710277557373,
  3.691581964492798,
  1.8394801616668701,
  0.6693775653839111,
  -5.023677349090576,
  -2.169321060180664,
  -6.338559150695801,
  4.488423824310303,
  2.2843892574310303,
  -1.0075141191482544,
  4.794589519500732,
  -3.700072765350342,
  2.780877113342285,
  3.8982813358306885,
  5.527021884918213,
  2.8363075256347656,
  2.747934341430664,
  -3.679586172103882,
  4.574911594390869,
  -4.4141082763671875,
  -2.895669937133789,
  1.7571581602096558,
  3.19598388671875,
  -3.303271770477295,
  1.2158284187316895,
  3.39528489112854,
  6.444075584411621,
  -2.1397786140441895,
  2.9104738235473633,
  6.727362155914307,
  5.786403656005859,
  -1.052215337753296,
  -0.6852855086326599,
  -4.199793338775635,
  0.7528634667396545,
  6.317848205566406,
  1.3344347476959229,
  3.4908368587493896,
  -3.674426794052124
 ],
 "pi.2.weight": [
  [
   -5.6628031730651855,
   -1.8102062940597534,
   -0.7289164662361145,
   1.267850637435913,
   0.1456139087677002,
   2.61639666557312,
   2.63753342628479,
   3.4511680603027344,
   3.993793487548828,
   -0.18975450098514557,
   -1.2219101190567017,
   -1.6370292901992798,
   2.9746484756469727,
   3.527643918991089,
   1.6100444793701172,
   -0.4661775529384613,
   0.6438230276107788,
   3.4111502170562744,
   -2.0106630325317383,
   0.960166871547699,
   -4.837619304656982,
   0.39206987619400024,
   1.0604926347732544,
   0.4873383939266205,
   1.481490969657898,
   -0.9310460686683655,
   0.49570509791374207,
   1.7222495079040527,
   0.693406343460083,
   1.3266834020614624,
   2.333632230758667,
   -1.4578437805175781,
   3.7630412578582764,
   -2.198239326477051,
   -0.2714468538761139,
   -2.30249285697937,
   -1.7300405502319336,
   -2.8948378562927246,
   -1.8459802865982056,
   -1.2814314365386963,
   -4.022717475891113,
   -3.139922857284546,
   0.07048381865024567,
   -1.1568074226379395,
   -0.5101889967918396,
   -1.1423708200454712,
   2.460102081298828,
   -0.45302221179008484,
   -0.04019564762711525,
   4.163986682891846
  ],
  [
   0.3666095733642578,
   1.296782374382019,
   0.11828751862049103,
   0.1715961992740631,
   0.9330463409423828,
   2.399862766265869,
   3.851844310760498,
   -4.723705291748047,
   2.4162819385528564,
   -1.7539092302322388,
   -1.4060295820236206,
   0.6755737066268921,
   -1.5417962074279785,
   1.8572947978973389,
   3.045093297958374,
   -1.820569396018982,
   -0.7505113482475281,
   2.61254620552063,
   -3.2177629470825195,
   -2.5199217796325684,
   -1.0556726455688477,
   0.6875426769256592,
   -3.4442336559295654,
   -0.8892144560813904,
   0.5235480070114136,
   -2.2542810440063477,
   2.108320474624634,
   1.4580663442611694,
   5.79281759262085,
   -1.0525994300842285,
   4.58281135559082,
   0.4874822199344635,
   0.23242256045341492,
   0.2208009660243988,
   -1.351977825164795,
   -1.0433841943740845,
   -1.804486870765686,
   -1.4808094501495361,
   -0.6652673482894897,
   1.0331573486328125,
   1.4314781427383423,
   -0.44302478432655334,
   3.3727550506591797,
   -1.0194363594055176,
   -0.7259967923164368,
   -1.863542079925537,
   2.8239948749542236,
   0.6772965788841248,
   -0.966261625289917,
   0.9072821140289307
  ],
  [
   2.434988021850586,
   -3.6781413555145264,
   -0.760364830493927,
   2.954132318496704,
   -2.7529308795928955,
   -0.08959472924470901,
   -1.2107151746749878,
   -2.149975061416626,
   -2.673067808151245,
   1.9317281246185303,
   -0.3761250078678131,
   1.1157745122909546,
   2.2207579612731934,
   -0.5446974039077759,
   -0.36546260118484497,
   -3.912472724914551,
   2.340317964553833,
   1.388079285621643,
   -0.9188757538795471,
   1.4537205696105957,
   0.17520716786384583,
   -0.6771669387817383,
   -0.5716525912284851,
   2.857255220413208,
   1.416798710823059,
   -2.2123942375183105,
   -0.37275487184524536,
   -0.5945034623146057,
   3.4991259574890137,
   1.6215763092041016,
   4.457037925720215,
   3.4740819931030273,
   -0.7356765270233154,
   -0.12731418013572693,
   2.2720491886138916,
   -0.5173532962799072,
   -0.17836958169937134,
   0.3734492063522339,
   -1.9550058841705322,
   -1.2856082916259766,
   0.15734320878982544,
   -1.1885249614715576,
   0.5169915556907654,
   -1.109858512878418,
   3.9281928539276123,
   -3.681756019592285,
   -2.8219799995422363,
   3.446009874343872,
   3.7176222801208496,
   -1.0619556903839111
  ],
  [
   -0.17893315851688385,
   0.3497779667377472,
   0.2643497586250305,
   -2.9485092163085938,
   2.664917230606079,
   -3.6463799476623535,
   2.0529487133026123,
   -0.1758541464805603,
   -0.20555292069911957,
   -0.7061072587966919,
   -2.606799840927124,
   1.8149992227554321,
   -1.1170834302902222,
   -0.10507004708051682,
   -0.23284223675727844,
   -0.7027117609977722,
   2.27351450920105,
   2.605668544769287,
   1.3198766708374023,
   0.5443385243415833,
   -1.6695505380630493,
   0.9623667597770691,
   -4.437610149383545,
   -0.5522509813308716,
   -0.3185998797416687,
   2.2802844047546387,
   0.43312960863113403,
   0.2929164171218872,
   2.3614625930786133,
   1.715325951576233,
   -6.006054401397705,
   0.23584380745887756,
   1.9865162372589111,
   -3.898265838623047,
   2.9954850673675537,
   0.3318825364112854,
   -2.397003412246704,
   -2.3722221851348877,
   0.12119179964065552,
   -2.8333916664123535,
   -0.6712443232536316,
   1.3845771551132202,
   3.4306538105010986,
   1.3761645555496216,
   -2.4486351013183594,
   -1.694840669631958,
   -0.9106849431991577,
   -5.042053699493408,
   0.6044431924819946,
   7.69292688369751
  ],
  [
   -0.14629867672920227,
   -4.1919026374816895,
   -1.3541252613067627,
   -2.1340866088867188,
   -3.0236752033233643,
   -0.8463033437728882,
   -4.638770580291748,
   -4.045022010803223,
   -5.198201656341553,
   0.14777077734470367,
   -3.9771652221679688,
   5.958011627197266,
   1.0074303150177002,
   2.349726438522339,
   0.8121244311332703,
   2.6703052520751953,
   -1.5614593029022217,
   -5.998109817504883,
   -0.9108991622924805,
   -3.264375686645508,
   1.0417712926864624,
   0.4582844078540802,
   4.416784286499023,
   -2.626386880874634,
   0.8394462466239929,
   -1.3362823724746704,
   -0.5248468518257141,
   2.0278494358062744,
   2.5237724781036377,
   2.1098570823669434,
   -0.8555812835693359,
   -0.1254255622625351,
   1.6661773920059204,
   2.3632686138153076,
   2.760775327682495,
   2.2423324584960938,
   -0.2858069837093353,
   -1.1504595279693604,
   3.3494086265563965,
   -1.294199824333191,
   -0.23319637775421143,
   -2.247933864593506,
   0.04118658974766731,
   -1.797253131866455,
   -0.9873846769332886,
   1.9889947175979614,
   3.364259958267212,
   2.9233341217041016,
   0.5608048439025879,
   3.546555757522583
  ],
  [
   -0.8922126293182373,
   2.791239023208618,
   -4.265726566314697,
   4.249066352844238,
   1.1117901802062988,
   1.3224009275436401,
   0.7361279726028442,
   -0.9281132817268372,
   2.756507396697998,
   -0.9556748270988464,
   0.040481988340616226,
   -0.7296724915504456,
   1.6665418148040771,
   0.8743615746498108,
   1.06740140914917,
   0.6648365259170532,
   -3.7747318744659424,
   9.519723892211914,
   -0.7592859864234924,
   -2.1456127166748047,
   2.3940467834472656,
   -2.9059295654296875,
   -2.0244691371917725,
   -2.087757110595703,
   -2.5683858394622803,
   1.1306954622268677,
   1.9548273086547852,
   -0.1786009669303894,
   3.0929601192474365,
   -0.5432710647583008,
   -2.4846904277801514,
   -3.462202310562134,
   0.2902645468711853,
   -3.9905552864074707,
   -2.6906471252441406,
   -1.6986956596374512,
   2.710386276245117,
   -2.969595193862915,
   1.27686607837677,
   2.1786646842956543,
   2.082933187484741,
   0.37093687057495117,
   0.6366324424743652,
   0.8557615876197815,
   0.8114554286003113,
   1.5970234870910645,
   -1.4460468292236328,
   1.0084547996520996,
   2.1891820430755615,
   7.99043607711792
  ],
  [
   0.1798568218946457,
   -0.12884502112865448,
   1.1917260885238647,
   2.2305548191070557,
   -3.65556001663208,
   -2.1255719661712646,
   -0.26398104429244995,
   2.376328945159912,
   0.9808433651924133,
   -2.9342665672302246,
   -1.4068455696105957,
   -0.7239731550216675,
   0.14338332414627075,
   3.0001301765441895,
   2.392526865005493,
   1.6035033464431763,
   -0.10044112056493759,
   -5.4105424880981445,
   -4.6307244300842285,
   -1.4660943746566772,
   -3.586786985397339,
   -1.6911386251449585,
   -2.418879747390747,
   -0.1495482623577118,
   3.4966001510620117,
   0.9483993053436279,
   -1.204519510269165,
   -3.1671135425567627,
   -0.5407512187957764,
   1.2946075201034546,
   0.9995899200439453,
   3.5847089290618896,
   1.1764304637908936,
   1.380340576171875,
   3.4215011596679688,
   2.756896734237671,
   0.322382390499115,
   -1.80556321144104,
   -0.15246321260929108,
   -1.7519489526748657,
   -1.862594485282898,
   -2.742359161376953,
   3.3882527351379395,
   0.5665613412857056,
   2.7448911666870117,
   -1.921876311302185,
   2.9112274646759033,
   0.39826494455337524,
   1.6533769369125366,
   0.09132217615842819
  ],
  [
   -3.2888662815093994,
   0.3821827173233032,
   0.24953246116638184,
   4.776939868927002,
   0.7779147028923035,
   -3.151785135269165,
   2.772284746170044,
   1.5945178270339966,
   3.0427327156066895,
   -1.4958263635635376,
   -2.941420316696167,
   1.295646071434021,
   -1.2998428344726562,
   3.6447978019714355,
   0.16267918050289154,
   -1.3016289472579956,
   -0.4180377721786499,
   1.6721974611282349,
   -1.3626716136932373,
   2.5474672317504883,
   -2.0289194583892822,
   1.8188999891281128,
   -1.0674604177474976,
   1.4300225973129272,
   0.23591551184654236,
   1.4783207178115845,
   0.9100214242935181,
   -0.4927014112472534,
   -1.7810777425765991,
   2.23163104057312,
   0.6497790813446045,
   -1.5971564054489136,
   2.2075202465057373,
   -0.3885992765426636,
   -2.161313772201538,
   -2.8808093070983887,
   -1.172508716583252,
   -0.38585880398750305,
   -2.97619366645813,
   -2.2384397983551025,
   -2.880197286605835,
   -3.2332680225372314,
   0.22304072976112366,
   4.1717000007629395,
   -2.054675817489624,
   3.0870022773742676,
   1.645263910293579,
   1.431046724319458,
   -0.3148933947086334,
   4.411363124847412
  ],
  [
   -2.0006823539733887,
   -0.8388208746910095,
   1.000038981437683,
   -8.975545883178711,
   4.130010604858398,
   3.3919312953948975,
   0.14439477026462555,
   -1.5186526775360107,
   2.508139133453369,
   0.44408783316612244,
   -2.9360454082489014,
   1.2119344472885132,
   -1.2523808479309082,
   2.267117738723755,
   0.25364211201667786,
   -3.2606894969940186,
   -1.7089852094650269,
   -0.7563878893852234,
   0.5558041930198669,
   1.8068407773971558,
   -0.2538363039493561,
   2.028398036956787,
   -3.5871617794036865,
   -1.3401978015899658,
   -0.36786410212516785,
   -0.3048925995826721,
   0.5274627208709717,
   -0.24812297523021698,
   3.17565655708313,
   -0.49578455090522766,
   -3.9137072563171387,
   -4.44334602355957,
   -0.7023917436599731,
   -0.42993414402008057,
   -1.2229561805725098,
   -1.3989193439483643,
   0.14690075814723969,
   -2.1047396659851074,
   1.3677310943603516,
   -0.4572562277317047,
   -2.1126339435577393,
   0.648481547832489,
   -1.0555423498153687,
   2.641399621963501,
   -0.7381862998008728,
   2.230120897293091,
   1.387830376625061,
   1.9776502847671509,
   0.40026572346687317,
   -0.7885022163391113
  ],
  [
   -2.4708759784698486,
   -0.5540677905082703,
   -1.7495861053466797,
   2.0266668796539307,
   -5.733579158782959,
   2.153555154800415,
   -0.7076855897903442,
   -3.592048406600952,
   1.9609163999557495,
   -1.3229124546051025,
   -0.9878897070884705,
   1.5945489406585693,
   1.2448430061340332,
   -1.9988341331481934,
   0.9188902974128723,
   -0.015597596764564514,
   -0.6069328188896179,
   -0.320855051279068,
   -1.2580888271331787,
   -1.1407620906829834,
   -2.3881173133850098,
   -1.2159022092819214,
   -1.3751784563064575,
   2.0304625034332275,
   1.3753701448440552,
   0.5622119307518005,
   -0.5391813516616821,
   0.3212524354457855,
   1.9668540954589844,
   1.5741891860961914,
   -0.5616171360015869,
   -0.370682030916214,
   -1.068738579750061,
   1.9567008018493652,
   2.040600538253784,
   0.2541100084781647,
   -0.15353521704673767,
   -1.6488910913467407,
   0.08828123658895493,
   -3.5475575923919678,
   -2.387667417526245,
   -3.6667492389678955,
   0.5087533593177795,
   3.259782075881958,
   0.29472896456718445,
   -0.2212321162223816,
   4.395227432250977,
   -1.3048701286315918,
   2.859104871749878,
   1.5984498262405396
  ],
  [
   1.1787447929382324,
   2.1777567863464355,
   1.3845694065093994,
   -2.6979470252990723,
   1.3227053880691528,
   1.770694375038147,
   -0.896548867225647,
   -2.1096761226654053,
   -3.46213698387146,
   4.075561046600342,
   1.553646206855774,
   -2.7748758792877197,
   -2.197319269180298,
   -4.065062999725342,
   -3.0193374156951904,
   -2.1288225650787354,
   -1.171028733253479,
   -0.27129679918289185,
   2.841993570327759,
   2.7972042560577393,
   0.14025433361530304,
   1.8698809146881104,
   -1.6705055236816406,
   0.9153456091880798,
   -1.8858013153076172,
   -1.2582001686096191,
   3.2352113723754883,
   0.23695892095565796,
   -1.736116886138916,
   -2.5035698413848877,
   -0.5472666621208191,
   -1.528549075126648,
   -3.628744125366211,
   -0.9230872392654419,
   -4.713541030883789,
   -0.8194383978843689,
   2.6329915523529053,
   2.374626874923706,
   0.822306215763092,
   3.0608813762664795,
   -1.4456050395965576,
   3.2378268241882324,
   -0.6567007899284363,
   -1.938549280166626,
   -5.980985164642334,
   0.8721127510070801,
   -3.1369564533233643,
   0.5400038361549377,
   -1.1032180786132812,
   -2.3575165271759033
  ],
  [
   -2.802351951599121,
   1.476958990097046,
   -0.32119840383529663,
   0.8645179271697998,
   0.45491665601730347,
   5.387452602386475,
   1.0305745601654053,
   0.03179461136460304,
   -0.2124525010585785,
   0.4677450656890869,
   -1.3759115934371948,
   -1.4401592016220093,
   1.7019540071487427,
   -0.7829657793045044,
   1.7832205295562744,
   -1.697306752204895,
   1.0358930826187134,
   0.14118972420692444,
   0.7357677221298218,
   -3.811624050140381,
   0.5229103565216064,
   -0.758582353591919,
   -2.3851020336151123,
   -0.7926071882247925,
   4.367275238037109,
   -2.177187442779541,
   0.09086818993091583,
   -3.6819229125976562,
   -6.911685466766357,
   2.587111473083496,
   1.0315958261489868,
   -1.243737816810608,
   4.088686943054199,
   1.1158322095870972,
   -2.395261287689209,
   2.5706677436828613,
   -0.9755375981330872,
   0.7052058577537537,
   -0.8558037877082825,
   -0.10855240374803543,
   2.8707642555236816,
   -2.5492794513702393,
   -0.09453984349966049,
   2.535274028778076,
   -0.031349461525678635,
   -1.9325023889541626,
   -0.9622368812561035,
   -0.024663740769028664,
   1.702712893486023,
   2.0805673599243164
  ],
  [
   2.581857681274414,
   -1.1337398290634155,
   2.9258999824523926,
   5.123721599578857,
   1.8589576482772827,
   -3.3083114624023438,
   -1.1656882762908936,
   -4.168634414672852,
   -0.18900825083255768,
   2.5573923587799072,
   -1.5694389343261719,
   -0.2020559459924698,
   0.265182226896286,
   -2.730825185775757,
   -0.02033188007771969,
   -5.873144626617432,
   -1.1315253973007202,
   4.156225204467773,
   0.7455267310142517,
   -1.298417568206787,
   1.276954174041748,
   -1.6657699346542358,
   4.078173637390137,
   -4.643744945526123,
   2.58273983001709,
   0.5219911932945251,
   -1.0255814790725708,
   0.15284363925457,
   -0.42800846695899963,
   3.0951669216156006,
   -1.2765249013900757,
   -4.296478748321533,
   -1.019218921661377,
   1.8342074155807495,
   2.260835647583008,
   1.0840239524841309,
   -0.1092754378914833,
   0.5928695201873779,
   3.3795254230499268,
   -2.766021966934204,
   -2.858745813369751,
   -0.9818172454833984,
   2.5812811851501465,
   -1.0967456102371216,
   -2.0062074661254883,
   -2.3197505474090576,
   0.528213381767273,
   0.8803242444992065,
   -1.172577142715454,
   -3.193218231201172
  ],
  [
   1.0863652229309082,
   6.1950836181640625,
   0.639527440071106,
   -1.2585532665252686,
   -0.17524577677249908,
   1.636851191520691,
   0.8784376382827759,
   3.1242778301239014,
   -2.2287373542785645,
   -0.6653223633766174,
   -2.489943027496338,
   3.0447936058044434,
   2.3449385166168213,
   1.2253693342208862,
   2.7323696613311768,
   -2.258039712905884,
   -0.900191068649292,
   -1.9245580434799194,
   -1.770601511001587,
   -2.4203248023986816,
   -2.9803926944732666,
   -4.19309663772583,
   2.522392511367798,
   -1.2909483909606934,
   -0.6158673167228699,
   2.5485904216766357,
   -3.07979154586792,
   -1.257171869277954,
   -1.720565676689148,
   1.9882739782333374,
   0.9066100716590881,
   1.452150583267212,
   1.4742172956466675,
   0.12132316827774048,
   2.941467761993408,
   0.4753527343273163,
   -0.18129362165927887,
   -2.5767171382904053,
   -1.523979663848877,
   -2.4432594776153564,
   2.9577479362487793,
   -0.5452150106430054,
   -0.25324738025665283,
   0.5846148729324341,
   3.750044345855713,
   0.6088126301765442,
   0.8882086277008057,
   0.7444517612457275,
   3.529407262802124,
   0.17841656506061554
  ],
  [
   -1.493207573890686,
   -3.726689577102661,
   -0.4898950159549713,
   2.165196418762207,
   -1.8245484828948975,
   4.848645210266113,
   0.857435941696167,
   -1.0031732320785522,
   0.8490231037139893,
   1.1926590204238892,
   -0.8650624752044678,
   2.2978155612945557,
   -2.2927699089050293,
   2.82118558883667,
   0.32979661226272583,
   3.6107189655303955,
   0.4498671591281891,
   2.321333646774292,
   -0.23790913820266724,
   -1.9520182609558105,
   0.14841216802597046,
   -2.0286576747894287,
   0.37820157408714294,
   -0.681287944316864,
   -2.869666576385498,
   2.3133456707000732,
   -3.3053557872772217,
   0.11299479007720947,
   -1.5455764532089233,
   3.107818603515625,
   3.9440243244171143,
   -3.478076457977295,
   0.6667823195457458,
   2.779125452041626,
   7.167044639587402,
   -0.4602085053920746,
   -0.9252722859382629,
   -1.221489429473877,
   1.0695922374725342,
   -2.602717638015747,
   -0.08185328543186188,
   -0.6656314730644226,
   2.5065500736236572,
   2.7497599124908447,
   2.804946184158325,
   -1.6891818046569824,
   5.231866359710693,
   0.8342708945274353,
   0.44618475437164307,
   -0.31192901730537415
  ],
  [
   0.7398969531059265,
   3.39851975440979,
   -1.0046218633651733,
   1.4308571815490723,
   -0.557305634021759,
   3.938990831375122,
   8.655531883239746,
   1.3394970893859863,
   6.105861663818359,
   2.0791940689086914,
   0.7511162161827087,
   1.6280673742294312,
   1.6281514167785645,
   -0.8647249937057495,
   2.8560962677001953,
   5.068900108337402,
   2.603511333465576,
   -0.07828003168106079,
   -0.8009365797042847,
   -0.9153087735176086,
   -1.4406658411026,
   -1.592565894126892,
   1.2948046922683716,
   -2.7451746463775635,
   -0.7864308953285217,
   -1.0389999151229858,
   0.2856181263923645,
   -1.5856815576553345,
   -3.8416104316711426,
   -0.02757902815937996,
   2.725827217102051,
   1.3856656551361084,
   0.6213347315788269,
   1.4431487321853638,
   5.212240219116211,
   -3.170712471008301,
   0.25147610902786255,
   1.5565145015716553,
   3.0110559463500977,
   -2.2059478759765625,
   -1.9344340562820435,
   0.7906167507171631,
   3.5510482788085938,
   -3.3507888317108154,
   4.929388999938965,
   -1.8843995332717896,
   -1.3543788194656372,
   0.4487871527671814,
   1.2284287214279175,
   -4.153167247772217
  ],
  [
   2.7665321826934814,
   6.248629570007324,
   -0.6754491925239563,
   4.942448139190674,
   -4.10994815826416,
   2.889826774597168,
   5.338706016540527,
   2.2657155990600586,
   -1.5386117696762085,
   -2.4226067066192627,
   1.3019102811813354,
   -0.6540634632110596,
   -1.1334627866744995,
   1.586051106452942,
   1.5180420875549316,
   7.467304706573486,
   -3.5328526496887207,
   -6.562654495239258,
   0.0783427506685257,
   -1.5345841646194458,
   -1.5398645401000977,
   -0.8416366577148438,
   3.1616506576538086,
   2.3752760887145996,
   -0.3479764461517334,
   0.6065740585327148,
   -2.3189704418182373,
   1.4279775619506836,
   -3.705432891845703,
   -2.008953332901001,
   1.7497562170028687,
   0.29528501629829407,
   3.118269920349121,
   -0.07047383487224579,
   1.3030749559402466,
   -1.7338978052139282,
   1.5987123250961304,
   0.4758434295654297,
   -0.6499764323234558,
   2.1152689456939697,
   -1.2566230297088623,
   0.5029281973838806,
   -3.8020615577697754,
   1.8599233627319336,
   -4.74307107925415,
   -2.60632586479187,
   1.381675362586975,
   3.7073171138763428,
   -4.0252156257629395,
   -2.3793253898620605
  ],
  [
   -0.04078778997063637,
   -2.1742444038391113,
   0.47605910897254944,
   3.143144369125366,
   -0.5832942724227905,
   -1.8275467157363892,
   -1.7346316576004028,
   0.1880228966474533,
   -2.0929365158081055,
   -7.985874176025391,
   -1.7170255184173584,
   3.13157320022583,
   0.8010442852973938,
   2.8957128524780273,
   0.8743163347244263,
   5.706874370574951,
   -0.4441746771335602,
   -5.181178569793701,
   -0.6168172955513,
   -1.8448010683059692,
   -2.764207363128662,
   -0.5128477811813354,
   -3.694800853729248,
   3.2098939418792725,
   2.1336538791656494,
   -1.1092115640640259,
   2.4290931224823,
   -0.1591375172138214,
   1.826337218284607,
   1.1796462535858154,
   2.705254077911377,
   0.65723717212677,
   1.6553590297698975,
   -0.2003622204065323,
   1.7274638414382935,
   0.186207577586174,
   -0.39386722445487976,
   -1.8775829076766968,
   0.43684032559394836,
   -0.9902575612068176,
   1.476993203163147,
   -0.9849158525466919,
   0.41706010699272156,
   -0.4178697168827057,
   -5.660246849060059,
   -2.0288825035095215,
   -0.0034944049548357725,
   1.4967609643936157,
   -3.826993942260742,
   0.553540050983429
  ],
  [
   0.23709556460380554,
   3.0409770011901855,
   -4.321267604827881,
   0.8483673334121704,
   -3.9930429458618164,
   4.419485092163086,
   1.2784404754638672,
   -1.7052695751190186,
   2.0730173587799072,
   1.9184585809707642,
   0.34131014347076416,
   1.076496958732605,
   4.198343753814697,
   -0.08768769353628159,
   -1.0059471130371094,
   0.44720789790153503,
   1.1415587663650513,
   0.41110876202583313,
   -0.5994017720222473,
   -0.28311216831207275,
   1.3362324237823486,
   -0.6042132377624512,
   1.5969524383544922,
   2.008256196975708,
   1.937956690788269,
   -2.3429317474365234,
   -1.7473859786987305,
   -1.558733344078064,
   -0.25936365127563477,
   1.9198670387268066,
   -0.40653690695762634,
   1.6153732538223267,
   -2.332098960876465,
   -1.3843324184417725,
   -2.5383551120758057,
   -0.00212843157351017,
   2.302633762359619,
   0.37453311681747437,
   3.26582407951355,
   -0.7225328683853149,
   -1.3836688995361328,
   -0.4600280523300171,
   -2.846747875213623,
   -4.027574062347412,
   0.9476332068443298,
   -1.8782628774642944,
   -1.715751051902771,
   0.15211121737957,
   -0.7547925710678101,
   -4.4187703132629395
  ],
  [
   -0.1384134441614151,
   2.312069892883301,
   -0.8987849950790405,
   6.577291965484619,
   0.7013754844665527,
   -0.18691502511501312,
   2.3125836849212646,
   2.382544755935669,
   4.117366313934326,
   -0.18200935423374176,
   2.1911327838897705,
   0.06523744016885757,
   -0.040572769939899445,
   2.4547171592712402,
   -0.4436113238334656,
   -2.8328585624694824,
   3.0731472969055176,
   1.9022960662841797,
   -0.38803136348724365,
   -0.42503267526626587,
   1.383652687072754,
   2.6681692600250244,
   2.2347450256347656,
   2.5669093132019043,
   -1.8727574348449707,
   -2.3696088790893555,
   -2.881108522415161,
   -0.9574297666549683,
   -1.6857439279556274,
   -1.1568902730941772,
   3.7078630924224854,
   1.9067414999008179,
   -1.0996437072753906,
   -0.814822793006897,
   -3.7795140743255615,
   3.612534523010254,
   -2.368781089782715,
   -1.4048672914505005,
   -1.1498923301696777,
   0.16920702159404755,
   -1.7282603979110718,
   -1.3803000450134277,
   -1.2583729028701782,
   0.8866422176361084,
   -0.708555281162262,
   -0.17435428500175476,
   -0.8836082816123962,
   1.5912052392959595,
   -1.597495675086975,
   -1.9272876977920532
  ],
  [
   0.9416942596435547,
   2.434260368347168,
   -3.027066230773926,
   1.5736550092697144,
   -2.1831047534942627,
   -2.205198049545288,
   -0.36365559697151184,
   -0.9690240025520325,
   0.44186413288116455,
   -0.6924198865890503,
   0.3285757303237915,
   3.5783839225769043,
   -0.1137220486998558,
   2.1183228492736816,
   0.2028738409280777,
   2.7472691535949707,
   -0.9986193776130676,
   4.876738548278809,
   -1.0597904920578003,
   -1.9136451482772827,
   -0.11603394150733948,
   -2.2928874492645264,
   0.6007506251335144,
   0.33508622646331787,
   2.8578076362609863,
   -0.5692927241325378,
   -3.93534779548645,
   -3.7413907051086426,
   -2.471048355102539,
   2.825537919998169,
   4.564665794372559,
   -2.320012092590332,
   1.0624101161956787,
   3.6705596446990967,
   0.6315719485282898,
   0.12430770695209503,
   0.1407448649406433,
   1.863077163696289,
   -1.1118196249008179,
   -3.251847743988037,
   -0.7205795645713806,
   -0.18918240070343018,
   0.44680047035217285,
   -0.050323061645030975,
   5.515805721282959,
   -2.8292903900146484,
   1.1644365787506104,
   -1.2957674264907837,
   0.7850091457366943,
   -0.5173138380050659
  ],
  [
   -0.6816903948783875,
   1.2151302099227905,
   -0.15309926867485046,
   2.498563528060913,
   0.9922060370445251,
   3.1862761974334717,
   3.9923079013824463,
   2.672870635986328,
   -3.5628292560577393,
   -1.5696074962615967,
   -1.5891553163528442,
   -0.6717209219932556,
   1.699541449546814,
   1.7750025987625122,
   3.836449384689331,
   2.3042147159576416,
   1.251109004020691,
   -6.49266242980957,
   -1.6396071910858154,
   0.5463399291038513,
   -1.6015647649765015,
   -3.317617893218994,
   -4.06693696975708,
   -0.47378748655319214,
   1.231400966644287,
   -0.30035659670829773,
   2.2893786430358887,
   -1.825231909751892,
   -2.464468240737915,
   2.121159791946411,
   0.5271134376525879,
   3.4440510272979736,
   4.750284671783447,
   1.5937389135360718,
   1.021238088607788,
   -1.4607516527175903,
   -2.0645289421081543,
   0.7389847636222839,
   0.6324717402458191,
   -3.2094316482543945,
   0.7927109003067017,
   -2.5422840118408203,
   0.14144404232501984,
   0.3946268558502197,
   -1.3940703868865967,
   0.8359801173210144,
   0.3545876145362854,
   0.021212086081504822,
   2.1959712505340576,
   3.7948179244995117
  ],
  [
   1.1651164293289185,
   -2.205268621444702,
   3.56801176071167,
   2.9641942977905273,
   2.3172543048858643,
   2.23256254196167,
   11.042635917663574,
   -2.354311466217041,
   12.321176528930664,
   1.411925196647644,
   -2.4677042961120605,
   -3.8624026775360107,
   0.6639569997787476,
   -2.4851837158203125,
   1.1615824699401855,
   1.5444717407226562,
   0.21842271089553833,
   10.111557006835938,
   -0.2760961353778839,
   2.658451557159424,
   0.1965940296649933,
   0.6295108795166016,
   3.3550679683685303,
   -1.584463357925415,
   5.856943130493164,
   -1.6565709114074707,
   -3.4898548126220703,
   -1.7660300731658936,
   5.072193622589111,
   -0.13880959153175354,
   0.64930260181427,
   2.8824257850646973,
   -0.5581756830215454,
   2.0451416969299316,
   -4.274253845214844,
   -2.743856430053711,
   -0.7355062961578369,
   1.7818282842636108,
   5.776822566986084,
   -2.925621509552002,
   0.7437991499900818,
   0.5409332513809204,
   -0.4845287501811981,
   -1.511608600616455,
   5.304146766662598,
   0.266560435295105,
   -2.039881706237793,
   0.8842863440513611,
   0.3633750379085541,
   7.195373058319092
  ],
  [
   2.8841514587402344,
   -1.1671006679534912,
   0.6551022529602051,
   -3.4408257007598877,
   3.6199324131011963,
   -4.60905647277832,
   -2.571655750274658,
   -1.5749709606170654,
   -1.6379265785217285,
   1.1114054918289185,
   4.2704362869262695,
   -0.40412455797195435,
   -1.9673223495483398,
   -3.040860652923584,
   -1.7433513402938843,
   -7.036311626434326,
   -1.110235333442688,
   0.7294822931289673,
   3.212137222290039,
   1.0457309484481812,
   1.4223763942718506,
   2.9761195182800293,
   -3.4442193508148193,
   0.5995471477508545,
   -1.4200462102890015,
   1.6175017356872559,
   1.6288002729415894,
   2.643810510635376,
   -0.36706677079200745,
   -0.25119748711586,
   -0.33491891622543335,
   -0.6075864434242249,
   1.5191540718078613,
   3.9576783180236816,
   -2.879220724105835,
   -4.157553672790527,
   1.3362358808517456,
   3.278778553009033,
   -0.8028532862663269,
   1.125125527381897,
   -2.6295297145843506,
   4.708491802215576,
   -0.5300481915473938,
   -3.043199300765991,
   -0.6584780812263489,
   -0.03535391017794609,
   -0.25539565086364746,
   -0.2247513234615326,
   -2.9550857543945312,
   -1.2791317701339722
  ],
  [
   0.9175935387611389,
   3.5643973350524902,
   1.2914258241653442,
   0.6256118416786194,
   2.8081724643707275,
   -0.5473893880844116,
   -2.4866435527801514,
   -2.199913501739502,
   5.384500026702881,
   2.1546730995178223,
   2.1085329055786133,
   -3.9441630840301514,
   0.678417980670929,
   -3.8261146545410156,
   -1.5694689750671387,
   -3.4160380363464355,
   2.373868703842163,
   -0.86454838514328,
   2.6360011100769043,
   2.903491735458374,
   2.6658427715301514,
   2.695594310760498,
   1.0953730344772339,
   0.20447848737239838,
   -3.5134074687957764,
   1.4891119003295898,
   1.1874229907989502,
   1.3746083974838257,
   -1.6200624704360962,
   -1.040259599685669,
   -1.7388765811920166,
   -0.46791204810142517,
   -3.630587100982666,
   2.395928144454956,
   -2.0477805137634277,
   -1.0909141302108765,
   4.223442077636719,
   3.2013587951660156,
   3.28273344039917,
   3.4035801887512207,
   -0.9653626680374146,
   3.426703929901123,
   -3.757366180419922,
   1.322914481163025,
   -0.8957983255386353,
   0.17628099024295807,
   -3.8031628131866455,
   -4.247438430786133,
   -2.911137104034424,
   4.9726457595825195
  ]
 ],
 "pi.2.bias": [
  -0.23187845945358276,
  0.4151018261909485,
  -0.25093433260917664,
  0.16926796734333038,
  -0.2538437247276306,
  -0.0029189824126660824,
  -0.2370017170906067,
  -0.5644922256469727,
  -0.009348416700959206,
  0.2633845806121826,
  0.582564651966095,
  -0.4157683551311493,
  -0.014616839587688446,
  -0.3396616280078888,
  -0.4057556390762329,
  -0.27556735277175903,
  0.8013842105865479,
  -0.4473963975906372,
  -0.7160518765449524,
  0.20500688254833221,
  0.03355890512466431,
  -0.26319420337677,
  0.13783487677574158,
  1.6296395063400269,
  0.7993316054344177
 ],
 "pi.4.weight": [
  [
   -5.357344150543213,
   -6.1290507316589355,
   14.021312713623047,
   -0.8371825218200684,
   10.095973014831543,
   -6.035681247711182,
   8.412090301513672,
   17.199520111083984,
   -1.7869150638580322,
   14.683451652526855,
   -2.0571088790893555,
   8.698575019836426,
   5.403339862823486,
   -2.0908310413360596,
   -10.032499313354492,
   5.772127151489258,
   -9.343831062316895,
   8.38986587524414,
   -2.1805741786956787,
   -2.1605679988861084,
   7.04112434387207,
   14.653231620788574,
   10.782636642456055,
   -9.069864273071289,
   -8.25378704071045
  ],
  [
   7.970608711242676,
   -0.8457444310188293,
   3.3605170249938965,
   -3.51350736618042,
   7.870656967163086,
   -3.519835948944092,
   13.895520210266113,
   -7.326410293579102,
   8.394572257995605,
   13.228241920471191,
   -3.3060967922210693,
   8.756738662719727,
   -12.654638290405273,
   6.538332939147949,
   -3.352588653564453,
   4.611907005310059,
   5.914554119110107,
   -1.384524941444397,
   -1.4357075691223145,
   -2.4279227256774902,
   -20.038267135620117,
   19.779991149902344,
   0.4874819815158844,
   -4.162956714630127,
   -5.638724327087402
  ],
  [
   -8.118708610534668,
   8.753212928771973,
   3.525952100753784,
   -15.722586631774902,
   0.28792041540145874,
   -15.795750617980957,
   14.678088188171387,
   -4.139359951019287,
   -16.334014892578125,
   15.803601264953613,
   -3.979323148727417,
   4.531529903411865,
   -4.921631813049316,
   5.659196376800537,
   6.903658866882324,
   3.032719135284424,
   4.962681770324707,
   1.4787367582321167,
   -1.8926817178726196,
   9.847260475158691,
   13.816459655761719,
   3.2386045455932617,
   2.2437219619750977,
   -4.231255054473877,
   -3.6046142578125
  ],
  [
   -3.3228909969329834,
   -12.3956937789917,
   7.436704635620117,
   1.164538860321045,
   9.04828929901123,
   -2.7167842388153076,
   8.979513168334961,
   -4.777407646179199,
   -9.348158836364746,
   5.847446441650391,
   -9.834991455078125,
   -3.8998146057128906,
   11.513457298278809,
   31.524906158447266,
   9.749687194824219,
   7.169930934906006,
   -2.989847183227539,
   -10.089790344238281,
   1.2751750946044922,
   -5.902867317199707,
   16.461441040039062,
   -3.3314831256866455,
   4.528642654418945,
   -7.664468765258789,
   -8.954071044921875
  ],
  [
   6.069672107696533,
   9.777599334716797,
   -10.07483959197998,
   9.784815788269043,
   6.503870964050293,
   4.879880905151367,
   12.677669525146484,
   5.710709571838379,
   14.867049217224121,
   15.862943649291992,
   -11.302860260009766,
   5.272010803222656,
   -4.83981990814209,
   5.550139904022217,
   5.100940227508545,
   -8.943826675415039,
   -3.4679386615753174,
   -7.650111198425293,
   -11.286571502685547,
   -7.644104957580566,
   -3.3578460216522217,
   1.1221132278442383,
   2.3976497650146484,
   -7.898627281188965,
   -7.45650053024292
  ],
  [
   23.900503158569336,
   5.607056617736816,
   2.0180768966674805,
   -3.461458921432495,
   1.0805673599243164,
   -5.172131538391113,
   -4.330175876617432,
   12.971092224121094,
   5.120562553405762,
   13.978758811950684,
   -1.4552044868469238,
   -12.095783233642578,
   -2.3772616386413574,
   -5.380131244659424,
   5.6350836753845215,
   -3.654165267944336,
   7.91980504989624,
   23.13583755493164,
   -10.384885787963867,
   9.319658279418945,
   -9.348814010620117,
   -6.1235504150390625,
   -7.032369613647461,
   -6.032632350921631,
   -6.161614894866943
  ]
 ],
 "pi.4.bias": [
  -3.7500498294830322,
  -0.8852711915969849,
  -2.6608974933624268,
  -1.9176177978515625,
  0.8333075642585754,
  -1.3881999254226685
 ]
}