{
 "pi.0.weight": [
  [
   4.706604957580566,
   3.193847179412842,
   0.11887060850858688
  ],
  [
   -4.5554986000061035,
   0.01573607698082924,
   9.729484558105469
  ],
  [
   13.991939544677734,
   0.9799289703369141,
   4.1910014152526855
  ],
  [
   6.31319522857666,
   0.7670897245407104,
   -13.162787437438965
  ],
  [
   -3.0505385398864746,
   3.146728038787842,
   2.6771140098571777
  ],
  [
   0.7549723982810974,
   0.4169556796550751,
   5.8356218338012695
  ],
  [
   -8.702024459838867,
   -1.591475248336792,
   -0.9441017508506775
  ],
  [
   5.001153945922852,
   2.617002487182617,
   -1.4559391736984253
  ],
  [
   3.1275696754455566,
   13.639827728271484,
   -0.32610660791397095
  ],
  [
   -3.926596164703369,
   -2.4392175674438477,
   7.003147125244141
  ],
  [
   -28.71165657043457,
   11.25586986541748,
   -1.5390065908432007
  ],
  [
   14.30084228515625,
   0.38744160532951355,
   4.645596504211426
  ],
  [
   2.634366512298584,
   0.043007757514715195,
   8.954405784606934
  ],
  [
   -3.1011221408843994,
   -0.729853630065918,
   1.6976864337921143
  ],
  [
   3.7605676651000977,
   -9.093510627746582,
   0.8442455530166626
  ],
  [
   0.6782233715057373,
   3.0246260166168213,
   -0.5511862635612488
  ],
  [
   -10.950113296508789,
   -5.356522560119629,
   4.891442775726318
  ],
  [
   -2.882960081100464,
   14.738990783691406,
   2.259133815765381
  ],
  [
   -2.301863431930542,
   -0.6332046985626221,
   -0.08392421901226044
  ],
  [
   -11.957332611083984,
   -1.3182222843170166,
   5.053957939147949
  ],
  [
   -5.5184855461120605,
   1.3846964836120605,
   2.294574499130249
  ],
  [
   5.256359577178955,
   0.8624666929244995,
   -13.885784149169922
  ],
  [
   -1.5939127206802368,
   -5.714205741882324,
   2.157890796661377
  ],
  [
   -25.271413803100586,
   -2.21706485748291,
   -6.577389717102051
  ],
  [
   -2.6626698970794678,
   5.7989654541015625,
   1.6282057762145996
  ],
  [
   1.6850095987319946,
   3.8508386611938477,
   1.077717661857605
  ],
  [
   3.5942304134368896,
   -10.344955444335938,
   -2.67909836769104
  ],
  [
   -1.8292057514190674,
   1.5124049186706543,
   -1.6381769180297852
  ],
  [
   -1.4915497303009033,
   2.614403247833252,
   0.37130630016326904
  ],
  [
   -8.340287208557129,
   0.903583288192749,
   6.663602352142334
  ],
  [
   -11.619482040405273,
   12.284858703613281,
   -5.9687347412109375
  ],
  [
   10.308019638061523,
   -5.539708614349365,
   -0.9222008585929871
  ],
  [
   4.775919437408447,
   -0.05224859341979027,
   -4.9419474601745605
  ],
  [
   4.619699001312256,
   -0.08593101054430008,
   -13.163673400878906
  ],
  [
   13.197360038757324,
   0.571756899356842,
   5.944429397583008
  ],
  [
   -1.5623373985290527,
   -8.877942085266113,
   0.19443802535533905
  ],
  [
   -1.8426398038864136,
   3.626556634902954,
   2.8977560997009277
  ],
  [
   9.150141716003418,
   9.637537002563477,
   -0.8922107219696045
  ],
  [
   -9.419163703918457,
   -3.0133442878723145,
   -1.4671435356140137
  ],
  [
   -4.010199069976807,
   -3.470945358276367,
   -7.312844753265381
  ],
  [
   -8.099930763244629,
   3.4712941646575928,
   1.2944464683532715
  ],
  [
   -2.32486891746521,
   -9.496582984924316,
   -3.7864394187927246
  ],
  [
   -9.969355583190918,
   -0.06012846529483795,
   7.467702388763428
  ],
  [
   -0.1874685436487198,
   -3.1499032974243164,
   -5.678913116455078
  ],
  [
   3.5675156116485596,
   11.249656677246094,
   -1.4593982696533203
  ],
  [
   -1.5786796808242798,
   -0.48262912034988403,
   2.067288637161255
  ],
  [
   -4.966238021850586,
   9.187705993652344,
   0.6602081060409546
  ],
  [
   -25.623594284057617,
   13.120734214782715,
   -4.238561153411865
  ],
  [
   -5.9613237380981445,
   -0.6378524303436279,
   3.9142630100250244
  ],
  [
   -1.9894697666168213,
   -6.183871269226074,
   1.060858130455017
  ],
  [
   -1.2150623798370361,
   9.789332389831543,
   22.26595115661621
  ],
  [
   0.843678891658783,
   3.721827268600464,
   -0.7476685643196106
  ],
  [
   1.4684133529663086,
   -3.708770513534546,
   -2.1981630325317383
  ],
  [
   0.5979825258255005,
   1.979077935218811,
   0.013613566756248474
  ],
  [
   5.226009845733643,
   -7.625067234039307,
   5.390413284301758
  ],
  [
   5.157742977142334,
   -1.8089210987091064,
   -2.122269868850708
  ],
  [
   -3.8599555492401123,
   1.8972960710525513,
   3.871241807937622
  ],
  [
   2.2630467414855957,
   12.579862594604492,
   -0.3474705219268799
  ],
  [
   2.722787857055664,
   9.356399536132812,
   -1.8927452564239502
  ],
  [
   -11.291677474975586,
   -5.685634613037109,
   -0.22092579305171967
  ],
  [
   6.506991863250732,
   2.3866093158721924,
   -2.1476476192474365
  ],
  [
   -9.767826080322266,
   10.133182525634766,
   0.5199041962623596
  ],
  [
   -5.853819847106934,
   -1.9338185787200928,
   0.41958650946617126
  ],
  [
   -0.2620500922203064,
   11.552634239196777,
   -1.5325413942337036
  ],
  [
   -1.8059470653533936,
   -9.530346870422363,
   1.7915892601013184
  ],
  [
   0.606655478477478,
   -0.49155381321907043,
   0.6666778922080994
  ],
  [
   -2.8235721588134766,
   -1.6835851669311523,
   -0.6220515966415405
  ],
  [
   3.9686906337738037,
   0.5770584940910339,
   -6.096466541290283
  ],
  [
   0.5318273901939392,
   5.107995986938477,
   1.2273988723754883
  ],
  [
   -8.694082260131836,
   -3.5313680171966553,
   1.3083603382110596
  ],
  [
   2.2327167987823486,
   6.553332328796387,
   0.5037757158279419
  ],
  [
   9.41234016418457,
   5.048180103302002,
   0.5782300233840942
  ],
  [
   2.105837345123291,
   13.38609504699707,
   -0.6712879538536072
  ],
  [
   3.438645124435425,
   6.311868190765381,
   0.6550124883651733
  ],
  [
   4.056959629058838,
   -6.815308570861816,
   -7.17287540435791
  ],
  [
   1.539145827293396,
   1.7912051677703857,
   -4.843301296234131
  ],
  [
   -1.940256118774414,
   -2.6258363723754883,
   4.508559226989746
  ],
  [
   4.041347026824951,
   -0.35230693221092224,
   -8.068361282348633
  ],
  [
   3.1024725437164307,
   -0.7329617738723755,
   -7.109278202056885
  ],
  [
   -4.045677185058594,
   -5.44918966293335,
   -0.6835573315620422
  ],
  [
   -12.850272178649902,
   0.16229571402072906,
   -10.703033447265625
  ],
  [
   5.7870683670043945,
   1.6447643041610718,
   -3.7023637294769287
  ],
  [
   3.386509895324707,
   -0.4762628674507141,
   -7.709224224090576
  ],
  [
   2.1175689697265625,
   -4.000899791717529,
   -5.047394752502441
  ],
  [
   -9.399740219116211,
   0.7136083245277405,
   19.875593185424805
  ],
  [
   1.4806629419326782,
   -9.881854057312012,
   -0.3144005239009857
  ],
  [
   0.2552431523799896,
   -2.351651906967163,
   -12.499085426330566
  ],
  [
   0.15658888220787048,
   11.112236022949219,
   2.1504251956939697
  ],
  [
   -4.720129013061523,
   -12.943699836730957,
   2.088688373565674
  ],
  [
   0.6845375895500183,
   6.525421142578125,
   0.014778814278542995
  ],
  [
   -3.687779664993286,
   -7.210692882537842,
   0.41476789116859436
  ],
  [
   2.3635072708129883,
   -3.6606204509735107,
   -2.3777880668640137
  ],
  [
   7.354755878448486,
   -3.9669084548950195,
   -0.6661103367805481
  ],
  [
   1.5836727619171143,
   0.20801548659801483,
   -2.476041555404663
  ],
  [
   0.19057652354240417,
   4.966526508331299,
   8.039178848266602
  ],
  [
   1.0912196636199951,
   0.6273938417434692,
   1.093336820602417
  ],
  [
   -3.001708984375,
   -4.377451419830322,
   -0.18138229846954346
  ],
  [
   -2.893143892288208,
   0.4179598093032837,
   5.818321228027344
  ],
  [
   -4.070577144622803,
   -1.2327029705047607,
   1.9473458528518677
  ],
  [
   -3.6280205249786377,
   -10.813831329345703,
   1.242114782333374
  ],
  [
   0.010302295908331871,
   -1.6827619075775146,
   -0.7681431174278259
  ],
  [
   -0.059228088706731796,
   -4.282270431518555,
   -3.4256339073181152
  ],
  [
   -1.5324605703353882,
   -0.020204192027449608,
   -2.276886224746704
  ],
  [
   -3.790156364440918,
   -8.945528030395508,
   0.05991851165890694
  ],
  [
   -0.08960520476102829,
   3.937927722930908,
   -0.021825222298502922
  ],
  [
   4.114254474639893,
   -3.0821330547332764,
   -2.435645580291748
  ],
  [
   -11.553277015686035,
   10.901410102844238,
   -7.497673988342285
  ],
  [
   -3.76332426071167,
   1.3375030755996704,
   1.0463595390319824
  ],
  [
   -1.5661306381225586,
   6.128210067749023,
   0.43500372767448425
  ],
  [
   -31.305381774902344,
   7.397366523742676,
   -5.945924758911133
  ],
  [
   -4.786116123199463,
   7.3645853996276855,
   3.14603853225708
  ],
  [
   8.995562553405762,
   -1.5949326753616333,
   -7.107771873474121
  ],
  [
   1.9036965370178223,
   2.5664620399475098,
   -3.351138114929199
  ],
  [
   0.5588481426239014,
   -0.10508419573307037,
   -1.4830526113510132
  ],
  [
   1.1161257028579712,
   -3.029282808303833,
   -0.9585183262825012
  ],
  [
   1.4835805892944336,
   5.045021057128906,
   -0.8933933973312378
  ],
  [
   -16.18448829650879,
   -0.4916594922542572,
   -0.658720076084137
  ],
  [
   -12.92500114440918,
   1.6494520902633667,
   -6.326920986175537
  ],
  [
   -2.3164732456207275,
   0.07076646387577057,
   0.10681024193763733
  ],
  [
   -2.51200532913208,
   -13.604846954345703,
   0.9388419985771179
  ],
  [
   -1.2546111345291138,
   -2.365741014480591,
   -0.7967051267623901
  ],
  [
   0.09916448593139648,
   2.7371666431427,
   0.9548467993736267
  ],
  [
   0.5889865756034851,
   -0.2554640769958496,
   -13.65554428100586
  ],
  [
   5.67498254776001,
   1.9223763942718506,
   0.012838533148169518
  ],
  [
   -3.537971258163452,
   -8.881999015808105,
   -0.7366670370101929
  ],
  [
   -5.7581682205200195,
   2.304377794265747,
   6.738539218902588
  ],
  [
   -1.9617035388946533,
   6.407585144042969,
   -1.3998196125030518
  ],
  [
   1.8098050355911255,
   7.148343086242676,
   -0.3608963191509247
  ],
  [
   -0.23960892856121063,
   6.458086013793945,
   0.20289002358913422
  ],
  [
   6.918299198150635,
   -2.706056594848633,
   -8.29338550567627
  ],
  [
   -4.74434232711792,
   -6.922963619232178,
   -15.79408073425293
  ],
  [
   -16.271427154541016,
   -1.0743387937545776,
   -2.2303898334503174
  ],
  [
   -0.2153610736131668,
   -2.6524808406829834,
   -0.5010392069816589
  ],
  [
   0.849983274936676,
   0.3288027048110962,
   1.8311800956726074
  ],
  [
   2.008765459060669,
   12.809965133666992,
   -0.38127467036247253
  ],
  [
   2.9428420066833496,
   3.370912551879883,
   -0.7061644792556763
  ],
  [
   -4.316104412078857,
   0.17400197684764862,
   -0.6190286874771118
  ],
  [
   1.7736923694610596,
   7.8770976066589355,
   -0.5884836316108704
  ],
  [
   6.000185489654541,
   -0.22726401686668396,
   -2.512970209121704
  ],
  [
   1.9527689218521118,
   7.015264511108398,
   -0.08723381906747818
  ],
  [
   4.296770095825195,
   0.36956244707107544,
   -5.059854984283447
  ],
  [
   6.1299004554748535,
   -5.034961223602295,
   2.210813522338867
  ],
  [
   7.898308277130127,
   0.2642103433609009,
   -4.892845630645752
  ],
  [
   5.173340320587158,
   1.3079992532730103,
   -1.3955247402191162
  ],
  [
   0.26222357153892517,
   -0.013549350202083588,
   -1.5305835008621216
  ],
  [
   -2.6171464920043945,
   -0.6578242778778076,
   11.634039878845215
  ],
  [
   5.442197322845459,
   -2.3773510456085205,
   4.237807750701904
  ],
  [
   -15.742785453796387,
   0.06651604175567627,
   1.8094345331192017
  ],
  [
   -0.607196569442749,
   -3.4378111362457275,
   -3.778871774673462
  ],
  [
   -9.118281364440918,
   -1.2981308698654175,
   3.0259714126586914
  ],
  [
   3.7282350063323975,
   2.6347010135650635,
   -0.2187318652868271
  ],
  [
   3.3304033279418945,
   -0.46745195984840393,
   -0.26301971077919006
  ],
  [
   -18.175291061401367,
   0.6160025000572205,
   -1.793080449104309
  ],
  [
   -6.417433738708496,
   3.4081265926361084,
   -5.020272731781006
  ],
  [
   1.0229326486587524,
   -1.6418389081954956,
   -3.5510215759277344
  ],
  [
   3.652719020843506,
   2.5564773082733154,
   0.39974114298820496
  ],
  [
   -6.579484462738037,
   1.0715116262435913,
   6.737443923950195
  ],
  [
   -2.893598794937134,
   7.997498989105225,
   -0.2601453959941864
  ],
  [
   -9.360243797302246,
   -4.0354509353637695,
   0.34265273809432983
  ],
  [
   -2.7392072677612305,
   0.34110888838768005,
   31.73179817199707
  ],
  [
   -3.748270273208618,
   -6.849703788757324,
   1.4285777807235718
  ],
  [
   4.738165378570557,
   -8.349843978881836,
   -1.5731375217437744
  ],
  [
   7.3203558921813965,
   -0.0341225229203701,
   0.3895637094974518
  ],
  [
   2.1460230350494385,
   -0.27874115109443665,
   -1.73476243019104
  ],
  [
   5.354235649108887,
   4.764867305755615,
   -1.7787202596664429
  ],
  [
   3.9539430141448975,
   -5.29290771484375,
   -3.6619064807891846
  ],
  [
   1.665811538696289,
   8.859219551086426,
   -0.4564916789531708
  ],
  [
   7.914264678955078,
   0.5700874924659729,
   -0.20705856382846832
  ],
  [
   2.3885064125061035,
   2.354642152786255,
   1.9209396839141846
  ],
  [
   -0.47917404770851135,
   6.431861400604248,
   -0.8228998780250549
  ],
  [
   -1.7735832929611206,
   6.409387111663818,
   -7.106838703155518
  ],
  [
   -1.579603672027588,
   2.8894407749176025,
   -5.949055194854736
  ],
  [
   -13.321438789367676,
   19.31557846069336,
   -2.20139217376709
  ],
  [
   13.923829078674316,
   -14.06459903717041,
   2.459507942199707
  ],
  [
   2.2472665309906006,
   -8.786258697509766,
   0.5307398438453674
  ],
  [
   -15.332772254943848,
   10.31043529510498,
   -2.740379571914673
  ],
  [
   2.2933032512664795,
   0.9470784068107605,
   -1.4012137651443481
  ],
  [
   6.084896564483643,
   -0.09530220925807953,
   -9.624964714050293
  ],
  [
   0.7883393168449402,
   -5.5558648109436035,
   -3.8188202381134033
  ],
  [
   -7.044102668762207,
   -0.17411823570728302,
   3.893383026123047
  ],
  [
   6.8308939933776855,
   -4.1894145011901855,
   5.7173943519592285
  ],
  [
   5.462672233581543,
   4.166630744934082,
   4.195981502532959
  ],
  [
   -2.660038709640503,
   -3.6431167125701904,
   0.12538893520832062
  ],
  [
   -18.193777084350586,
   -1.0410428047180176,
   -3.1180081367492676
  ],
  [
   1.7125838994979858,
   -5.341365814208984,
   -1.1045376062393188
  ],
  [
   -15.805246353149414,
   0.40361177921295166,
   -6.704120635986328
  ],
  [
   2.149209976196289,
   -3.6666765213012695,
   -3.3354945182800293
  ],
  [
   -5.3232502937316895,
   -0.5945678353309631,
   11.7494535446167
  ],
  [
   -1.0598517656326294,
   2.5851376056671143,
   -9.443460464477539
  ],
  [
   1.8580971956253052,
   7.577943325042725,
   0.013773297891020775
  ],
  [
   3.264820098876953,
   -2.79436993598938,
   -2.479208469390869
  ],
  [
   -6.845844745635986,
   0.04730333015322685,
   0.9608476758003235
  ],
  [
   -14.542689323425293,
   -1.3649173974990845,
   -5.959184646606445
  ],
  [
   -4.335780143737793,
   0.21216310560703278,
   -4.263805866241455
  ],
  [
   26.297338485717773,
   -2.563225746154785,
   17.086179733276367
  ],
  [
   16.710115432739258,
   0.8744529485702515,
   10.30679702758789
  ],
  [
   3.457505941390991,
   7.886281967163086,
   -5.887898921966553
  ],
  [
   -9.74931812286377,
   5.418494701385498,
   2.9010369777679443
  ],
  [
   2.4027822017669678,
   4.914951801300049,
   -0.4857766926288605
  ],
  [
   3.4878878593444824,
   3.298821449279785,
   -3.0570826530456543
  ]
 ],
 "pi.0.bias": [
  -0.5111035108566284,
  1.1258403062820435,
  -3.1733572483062744,
  0.526128351688385,
  8.194430351257324,
  -4.696473598480225,
  7.686100959777832,
  -1.0542048215866089,
  0.719099223613739,
  2.6386849880218506,
  -1.8106999397277832,
  4.4448394775390625,
  -2.4173343181610107,
  2.984722375869751,
  1.4555002450942993,
  -2.205570936203003,
  3.4039416313171387,
  0.059077441692352295,
  0.22697041928768158,
  3.846393585205078,
  2.6999382972717285,
  -4.894976615905762,
  -0.6328952312469482,
  -4.115624904632568,
  -3.117907762527466,
  -0.24568921327590942,
  1.4857324361801147,
  -1.239321231842041,
  -1.9135239124298096,
  0.2531072795391083,
  -3.2621586322784424,
  1.9057072401046753,
  0.24884766340255737,
  -3.8263838291168213,
  6.799887180328369,
  -0.0017492329934611917,
  -0.5556253790855408,
  -3.2872045040130615,
  2.5875561237335205,
  3.1874139308929443,
  0.6931788325309753,
  2.295808792114258,
  1.6610971689224243,
  5.419424533843994,
  -0.647127091884613,
  3.96305775642395,
  -1.0807467699050903,
  -1.3055822849273682,
  -0.8100026845932007,
  1.0616834163665771,
  2.709153175354004,
  -1.877421498298645,
  1.5108295679092407,
  0.2464444786310196,
  1.8696587085723877,
  -0.021706702187657356,
  2.128566026687622,
  -1.7810089588165283,
  -1.9297631978988647,
  1.4944976568222046,
  -1.478461503982544,
  -0.9161115884780884,
  5.490095138549805,
  -2.0297634601593018,
  0.7003473043441772,
  0.1191985085606575,
  -3.399101972579956,
  -2.4926557540893555,
  1.0231151580810547,
  -1.427391529083252,
  -3.0427393913269043,
  -0.8493516445159912,
  -2.5441510677337646,
  -1.501281499862671,
  -1.4936095476150513,
  0.18992137908935547,
  -1.3977839946746826,
  1.1720943450927734,
  -0.745846688747406,
  -1.5392309427261353,
  1.5079935789108276,
  -2.556114673614502,
  -0.8450306057929993,
  -1.3945868015289307,
  7.75026798248291,
  4.9184722900390625,
  1.7593486309051514,
  -3.3875200748443604,
  1.4035348892211914,
  -4.023693084716797,
  6.498446941375732,
  1.704954743385315,
  1.2058508396148682,
  -2.1118173599243164,
  2.815142869949341,
  -2.843407154083252,
  1.0325407981872559,
  0.4771718978881836,
  10.170665740966797,
  2.9037840366363525,
  2.7418017387390137,
  -4.363027095794678,
  -1.2762460708618164,
  3.886352300643921,
  -1.3383381366729736,
  -2.1600501537323,
  0.24252116680145264,
  1.942104697227478,
  -1.0738080739974976,
  -4.018063068389893,
  1.1166794300079346,
  -3.150014638900757,
  -10.930319786071777,
  -2.061262845993042,
  1.1323769092559814,
  -3.365781545639038,
  -1.106132984161377,
  -4.433225154876709,
  0.9637963771820068,
  -0.21681329607963562,
  8.391742706298828,
  -1.8137085437774658,
  -3.479823589324951,
  -2.1280715465545654,
  1.4887319803237915,
  0.7055145502090454,
  1.8952958583831787,
  -2.607520580291748,
  5.250433444976807,
  -3.473942756652832,
  -0.8151374459266663,
  4.01341438293457,
  0.06560574471950531,
  -3.434316396713257,
  -2.0476644039154053,
  8.922202110290527,
  7.625399112701416,
  -2.831263780593872,
  -3.0879929065704346,
  -3.056854248046875,
  -1.9503151178359985,
  -0.005650668404996395,
  -2.1559479236602783,
  -1.0988192558288574,
  0.17743714153766632,
  5.065588474273682,
  3.4848504066467285,
  -0.4057539105415344,
  8.762887954711914,
  -3.1631884574890137,
  -3.2706775665283203,
  -1.267755150794983,
  2.837209939956665,
  3.414512872695923,
  0.16758500039577484,
  -0.7783157229423523,
  0.3664340078830719,
  0.4146198034286499,
  1.2165889739990234,
  -1.6877092123031616,
  8.263964653015137,
  -2.050680160522461,
  -8.039063453674316,
  -1.3498884439468384,
  -1.678458571434021,
  -2.287184715270996,
  -1.542340636253357,
  -5.437108039855957,
  -1.9591645002365112,
  -1.1122663021087646,
  0.2000523805618286,
  -4.3036394119262695,
  -2.859473466873169,
  0.016433129087090492,
  1.3361002206802368,
  2.1329405307769775,
  -1.012604832649231,
  -4.0943684577941895,
  -0.32912641763687134,
  2.244615077972412,
  1.603787899017334,
  0.45624762773513794,
  0.77213454246521,
  1.8408881425857544,
  -3.2263600826263428,
  -4.711742401123047,
  -1.0204161405563354,
  -0.742180585861206,
  -1.0604290962219238,
  -3.772732734680176,
  -2.7414166927337646,
  6.201609134674072,
  3.7553489208221436,
  -2.590505599975586,
  7.417530059814453,
  4.387864112854004,
  -4.356202125549316,
  0.07931779325008392,
  4.624587535858154,
  -8.066996574401855
 ],
 "pi.2.weight": [
  [
   0.585170328617096,
   1.9304513931274414,
   -4.021927356719971,
   -4.385469913482666,
   -2.101207733154297,
   -2.2803890705108643,
   3.7953526973724365,
   -1.821139931678772,
   -4.791994571685791,
   -2.1384644508361816,
   -5.275562763214111,
   -1.406309723854065,
   -0.8859840035438538,
   -1.3596503734588623,
   0.573309063911438,
   0.7099103331565857,
   2.2806992530822754,
   0.7723238468170166,
   0.255243718624115,
   -1.6354917287826538,
   -1.4080076217651367,
   -1.7561830282211304,
   -0.6205064654350281,
   -1.3937091827392578,
   -2.097975969314575,
   0.8083399534225464,
   1.7536814212799072,
   -1.1480023860931396,
   0.12086189538240433,
   3.751105785369873,
   0.6229370832443237,
   0.718760073184967,
   -2.5192389488220215,
   -2.0852272510528564,
   -1.521005630493164,
   -1.249394416809082,
   0.8747450709342957,
   3.597060441970825,
   3.8409664630889893,
   2.2178452014923096,
   -0.871455192565918,
   3.58980131149292,
   2.451611042022705,
   -3.6442947387695312,
   5.661782741546631,
   -1.0605758428573608,
   -0.17935499548912048,
   1.2416794300079346,
   -0.798351526260376,
   0.6440212726593018,
   -4.047295093536377,
   0.6415581703186035,
   0.13242602348327637,
   -0.03756532818078995,
   -2.121826648712158,
   -0.17371945083141327,
   2.622729539871216,
   1.6434017419815063,
   -3.6242330074310303,
   -4.886490345001221,
   1.2728190422058105,
   -1.1981160640716553,
   2.5453596115112305,
   -1.4716943502426147,
   -1.8458331823349,
   -0.19219528138637543,
   2.168855667114258,
   1.2604504823684692,
   -1.2350258827209473,
   -0.12205846607685089,
   1.0629866123199463,
   1.3858823776245117,
   3.38258695602417,
   1.006090521812439,
   2.1688616275787354,
   1.165113925933838,
   -2.836822748184204,
   -3.131911039352417,
   1.6088627576828003,
   2.8227477073669434,
   3.251790761947632,
   -1.1784536838531494,
   1.4732391834259033,
   1.1474337577819824,
   4.250065803527832,
   1.6947836875915527,
   2.6647605895996094,
   -1.9937008619308472,
   1.7542465925216675,
   2.7229857444763184,
   -1.4366116523742676,
   1.5447579622268677,
   0.1743800938129425,
   0.26881247758865356,
   -1.8677173852920532,
   2.5086851119995117,
   -1.2164114713668823,
   1.0235729217529297,
   2.3988893032073975,
   -0.8731646537780762,
   -1.2442930936813354,
   3.5935823917388916,
   -1.59934401512146,
   2.2170376777648926,
   0.8727688789367676,
   1.7733527421951294,
   -0.2418329417705536,
   -0.9336270093917847,
   -0.15662908554077148,
   -5.7593512535095215,
   5.356123447418213,
   4.843722820281982,
   8.763663291931152,
   1.1148779392242432,
   -0.027284622192382812,
   1.1965909004211426,
   -1.7693891525268555,
   -4.215524196624756,
   -0.796135663986206,
   1.3828332424163818,
   -2.191657066345215,
   -1.011583924293518,
   -5.0529022216796875,
   1.4892992973327637,
   -0.44218745827674866,
   0.8628934025764465,
   -0.9180549383163452,
   -2.9528136253356934,
   0.763515293598175,
   4.376675128936768,
   4.155714988708496,
   1.319745659828186,
   -0.2230312079191208,
   4.477062225341797,
   0.8696551322937012,
   -1.0846132040023804,
   -1.1349071264266968,
   -0.4040543735027313,
   1.4922103881835938,
   -3.669426679611206,
   2.13276743888855,
   -1.5261844396591187,
   1.521652340888977,
   1.206565260887146,
   -0.10559987276792526,
   -1.2214198112487793,
   1.318086862564087,
   6.216733455657959,
   -2.498199939727783,
   -3.808055877685547,
   -3.160820722579956,
   1.0461058616638184,
   -4.400608539581299,
   1.710742712020874,
   0.6918700337409973,
   1.0477147102355957,
   7.207244396209717,
   0.42738646268844604,
   -2.717721700668335,
   4.086486339569092,
   -1.6381874084472656,
   2.615147113800049,
   -4.909688949584961,
   0.22254589200019836,
   1.1745080947875977,
   -1.5075331926345825,
   0.4196637272834778,
   -1.1890308856964111,
   2.97463059425354,
   0.8985335826873779,
   1.091577172279358,
   -0.9436579346656799,
   -4.3793864250183105,
   -1.1365084648132324,
   0.44355371594429016,
   0.5892892479896545,
   0.32239025831222534,
   4.504000186920166,
   -2.074080228805542,
   -2.780412435531616,
   -4.17655611038208,
   -2.10884952545166,
   -0.5164172053337097,
   2.221898317337036,
   0.5101481676101685,
   -5.532567501068115,
   -1.847261905670166,
   4.322375297546387,
   -1.23799467086792,
   -1.8315601348876953,
   0.3682696521282196,
   2.0426390171051025,
   3.1327884197235107,
   -2.9940099716186523,
   -5.11911153793335,
   -0.5287354588508606,
   -4.036172866821289,
   4.080410480499268,
   -2.0273678302764893,
   7.083556175231934
  ],
  [
   -0.9421645998954773,
   -2.2720513343811035,
   -1.5916287899017334,
   1.6841622591018677,
   -1.6277406215667725,
   1.4329651594161987,
   0.725792407989502,
   -1.0457040071487427,
   -0.32976260781288147,
   -1.0060712099075317,
   -2.0097856521606445,
   -1.642250657081604,
   -0.7604434490203857,
   -1.04878568649292,
   1.1156573295593262,
   -1.044579267501831,
   2.631507396697998,
   -2.000825881958008,
   0.44196271896362305,
   0.7631862759590149,
   -0.4579210877418518,
   -3.646665334701538,
   0.5819887518882751,
   3.13718581199646,
   4.62813138961792,
   -1.6233173608779907,
   1.4726794958114624,
   -0.17117974162101746,
   0.07534913718700409,
   0.40007343888282776,
   2.1777689456939697,
   0.15647143125534058,
   -2.316269874572754,
   -1.2080957889556885,
   -0.6635693311691284,
   -2.4801225662231445,
   -1.350416660308838,
   5.770236015319824,
   1.115302324295044,
   0.08950342237949371,
   -1.0390851497650146,
   0.3770087957382202,
   4.481756210327148,
   -0.5843476057052612,
   -0.6911064386367798,
   0.7018735408782959,
   1.6429523229599,
   1.9932740926742554,
   -0.600774884223938,
   0.21665579080581665,
   -0.8103463053703308,
   -1.5540461540222168,
   0.5525674819946289,
   0.47806674242019653,
   -1.3981701135635376,
   1.4859012365341187,
   1.9890520572662354,
   -1.557621955871582,
   -2.194385290145874,
   -5.785202503204346,
   -0.07665165513753891,
   1.8800081014633179,
   -0.24348273873329163,
   3.612600088119507,
   -0.9643980264663696,
   0.5932566523551941,
   -1.7475652694702148,
   2.475020408630371,
   -0.4838671386241913,
   2.357142210006714,
   2.2452170848846436,
   2.1208977699279785,
   0.14936164021492004,
   1.780680775642395,
   -0.8989285826683044,
   0.12232617288827896,
   0.13401859998703003,
   -4.916372776031494,
   1.2270723581314087,
   0.21794010698795319,
   0.8930016160011292,
   -2.253251791000366,
   0.8480992317199707,
   -0.04171347990632057,
   0.09549825638532639,
   3.024582624435425,
   0.3267410099506378,
   6.227137565612793,
   0.15700040757656097,
   -0.9778080582618713,
   -0.9093433618545532,
   0.9768866300582886,
   -0.36527571082115173,
   0.9480255842208862,
   -0.3340824544429779,
   2.257032632827759,
   0.8199904561042786,
   -1.853783369064331,
   1.9747108221054077,
   -1.5377761125564575,
   -0.7146952152252197,
   1.1894581317901611,
   0.009415431879460812,
   0.658515214920044,
   0.7551947832107544,
   -1.3068007230758667,
   -2.1982057094573975,
   0.42493951320648193,
   1.4471672773361206,
   -4.594720363616943,
   1.0276957750320435,
   -0.9359810948371887,
   12.389948844909668,
   -1.0950798988342285,
   -0.19204995036125183,
   -1.3874099254608154,
   0.7567026615142822,
   -0.9624789953231812,
   -0.6025162935256958,
   1.1247483491897583,
   -0.7305065989494324,
   2.0137171745300293,
   -1.573288917541504,
   0.018119623884558678,
   -1.4682807922363281,
   -2.0202064514160156,
   0.7275318503379822,
   -2.8180322647094727,
   1.2045519351959229,
   -1.5891106128692627,
   -0.5243982672691345,
   2.695803642272949,
   0.5432409644126892,
   -1.323537826538086,
   -1.2221664190292358,
   -0.8298956155776978,
   -1.0203969478607178,
   -3.8976540565490723,
   1.9570250511169434,
   -2.2644171714782715,
   2.444868803024292,
   0.34026554226875305,
   2.319284677505493,
   1.9921379089355469,
   -0.5164782404899597,
   0.34028324484825134,
   0.8713666200637817,
   0.39650365710258484,
   -1.1986745595932007,
   1.6102509498596191,
   1.0989577770233154,
   0.7960382103919983,
   -3.4260520935058594,
   2.545814037322998,
   0.7777413129806519,
   -1.1147093772888184,
   2.6605169773101807,
   1.3148702383041382,
   4.203232765197754,
   0.010622411966323853,
   -1.0891120433807373,
   -1.0538467168807983,
   -2.338597536087036,
   0.5645911693572998,
   1.9161040782928467,
   -1.1876808404922485,
   -1.8516465425491333,
   3.7810733318328857,
   1.4454351663589478,
   0.19111278653144836,
   0.8097212314605713,
   -0.04090074449777603,
   -0.8581947088241577,
   0.9558971524238586,
   0.9834557175636292,
   -1.956299066543579,
   0.5718593001365662,
   1.7297871112823486,
   -0.8472530245780945,
   -0.9853218793869019,
   -2.048398733139038,
   -0.07253549247980118,
   0.592307984828949,
   0.3252529799938202,
   -0.37132182717323303,
   -1.5721313953399658,
   -1.0662472248077393,
   -0.014656173065304756,
   -1.2270044088363647,
   -2.744645595550537,
   1.4812780618667603,
   0.4710893929004669,
   2.178524971008301,
   0.11170554161071777,
   -1.3389711380004883,
   -1.6655142307281494,
   1.5479066371917725,
   0.2517147958278656,
   -0.34736743569374084,
   2.587231397628784
  ],
  [
   -1.1725573539733887,
   -1.9261164665222168,
   1.1394420862197876,
   0.1955888569355011,
   -1.4621690511703491,
   1.5574244260787964,
   1.9213919639587402,
   -0.47391194105148315,
   -2.4485466480255127,
   -0.888175368309021,
   -1.7181224822998047,
   -1.2135646343231201,
   2.782827138900757,
   -0.6686614751815796,
   0.9823641180992126,
   -0.3538486361503601,
   -0.600775420665741,
   0.24346502125263214,
   -0.09300743788480759,
   2.8893520832061768,
   -3.120586633682251,
   -0.2977793216705322,
   0.12392129749059677,
   -4.4004411697387695,
   -0.49508848786354065,
   -0.17100124061107635,
   1.084252953529358,
   -0.019824666902422905,
   -1.5821077823638916,
   3.1067090034484863,
   0.6387789845466614,
   0.8876928687095642,
   -0.882470965385437,
   -1.4452152252197266,
   -2.0017478466033936,
   -2.856724262237549,
   0.5590677857398987,
   1.1811894178390503,
   2.4774115085601807,
   1.6338216066360474,
   0.7491065859794617,
   -1.32455575466156,
   -1.0001600980758667,
   -1.0616704225540161,
   -4.87433385848999,
   -0.33825069665908813,
   1.0457632541656494,
   -2.9507079124450684,
   -6.210942268371582,
   -0.5936551094055176,
   -1.4747387170791626,
   0.4713532328605652,
   0.5587592124938965,
   -0.4849475622177124,
   -0.7165905833244324,
   0.32714134454727173,
   0.6954199075698853,
   -1.286466121673584,
   4.125751495361328,
   2.144845724105835,
   -1.844779133796692,
   0.7736648917198181,
   1.875078797340393,
   -0.35444819927215576,
   -1.2770179510116577,
   0.41213342547416687,
   -0.08025138825178146,
   -1.1392661333084106,
   1.4210162162780762,
   3.605377197265625,
   3.957524299621582,
   0.8392534852027893,
   2.4291086196899414,
   -1.932167410850525,
   -2.737410306930542,
   3.3743174076080322,
   2.956598997116089,
   0.9244344830513,
   2.1802518367767334,
   -0.3567812740802765,
   -5.973532199859619,
   0.4516878128051758,
   2.541246175765991,
   -1.0829269886016846,
   0.8621543049812317,
   -0.8685853481292725,
   2.46309494972229,
   3.9299683570861816,
   -0.8880141973495483,
   1.2405685186386108,
   -0.8817476034164429,
   1.277924656867981,
   0.6387282013893127,
   0.6327458620071411,
   2.123635768890381,
   -0.13969679176807404,
   -0.16137517988681793,
   0.876629114151001,
   1.223924160003662,
   -0.8831833600997925,
   -0.49042221903800964,
   -1.289428472518921,
   0.1886325180530548,
   2.071066379547119,
   -0.046913065016269684,
   2.6586434841156006,
   -1.4068423509597778,
   -0.411115825176239,
   0.0813458189368248,
   -1.5676013231277466,
   2.3482577800750732,
   -0.6554470658302307,
   0.468392938375473,
   -0.85335773229599,
   0.7712484002113342,
   0.8869381546974182,
   -1.2419171333312988,
   0.04890207201242447,
   -0.9092664122581482,
   -0.86832594871521,
   -0.6493085026741028,
   -0.25444748997688293,
   -9.389168739318848,
   3.2416841983795166,
   0.36505651473999023,
   2.149380683898926,
   -1.2594269514083862,
   2.7782156467437744,
   2.018852949142456,
   -1.2152833938598633,
   0.11867290735244751,
   -0.04872601479291916,
   -0.6084297895431519,
   -1.6137324571609497,
   -2.05422306060791,
   1.272684097290039,
   -1.1398452520370483,
   -2.0095436573028564,
   1.2149475812911987,
   2.9042797088623047,
   -0.8240740299224854,
   0.42203807830810547,
   0.6794546842575073,
   0.561627209186554,
   -1.648727297782898,
   0.8249958157539368,
   -0.5676978230476379,
   -1.3436230421066284,
   -1.4961137771606445,
   -0.9409664273262024,
   -1.6519181728363037,
   0.6247251629829407,
   1.7634752988815308,
   0.15118876099586487,
   1.3266618251800537,
   -0.5346368551254272,
   -3.844294786453247,
   -0.5142053961753845,
   -4.092370510101318,
   -0.6662768721580505,
   -0.7479768991470337,
   0.10429453104734421,
   0.44351303577423096,
   0.7701291441917419,
   0.3273744285106659,
   -4.030388832092285,
   0.2464292198419571,
   0.2562465965747833,
   -0.7224533557891846,
   -0.6652070879936218,
   -2.319769859313965,
   1.8435993194580078,
   -2.2819035053253174,
   0.5249851942062378,
   1.1843292713165283,
   1.6293913125991821,
   0.6820399165153503,
   1.499147653579712,
   -0.16595925390720367,
   -4.1035475730896,
   0.5577802658081055,
   -0.7067829966545105,
   -0.614788293838501,
   0.2923206090927124,
   4.3991804122924805,
   -0.24794401228427887,
   -1.6355808973312378,
   -0.5821085572242737,
   -1.3984227180480957,
   2.2926249504089355,
   3.0338428020477295,
   1.6791366338729858,
   1.498563289642334,
   1.3554258346557617,
   -1.5163044929504395,
   1.8944586515426636,
   3.7541043758392334,
   1.1614460945129395,
   -2.5542352199554443,
   0.06554796546697617
  ]
 ],
 "pi.2.bias": [
  0.023147953674197197,
  -0.08316032588481903,
  -0.08623231947422028
 ]
}