{
 "pi.0.weight": [
  [
   0.2940804660320282,
   0.8610151410102844,
   -0.7884884476661682
  ],
  [
   -1.3641924858093262,
   -0.016300717368721962,
   0.13273727893829346
  ],
  [
   2.4353206157684326,
   1.2330785989761353,
   -1.9522346258163452
  ],
  [
   0.6110873222351074,
   0.5865560173988342,
   -0.9929279685020447
  ],
  [
   -1.5257978439331055,
   -0.41989007592201233,
   0.834624707698822
  ],
  [
   1.405172348022461,
   0.47138816118240356,
   -0.6643229722976685
  ],
  [
   -1.0845357179641724,
   0.09313209354877472,
   -0.21527162194252014
  ],
  [
   1.1495819091796875,
   0.00038417207542806864,
   -0.5817312598228455
  ],
  [
   -1.1572479009628296,
   -0.0043836794793605804,
   0.4682926535606384
  ],
  [
   -1.0837827920913696,
   -0.41016843914985657,
   -0.5098938345909119
  ],
  [
   -1.6495670080184937,
   -0.47262048721313477,
   -0.004734774585813284
  ],
  [
   -1.3180692195892334,
   -0.22138094902038574,
   -0.3722928464412689
  ],
  [
   0.5452801585197449,
   -0.9853134155273438,
   -1.3180592060089111
  ],
  [
   -0.5773739814758301,
   1.8345556259155273,
   -1.1945595741271973
  ],
  [
   -0.6641179919242859,
   -0.06946678459644318,
   -0.6512330770492554
  ],
  [
   -0.9472126364707947,
   0.0036104461178183556,
   0.07489939779043198
  ],
  [
   -1.2100677490234375,
   -0.007722117472440004,
   0.23795460164546967
  ],
  [
   0.700476884841919,
   2.218543767929077,
   0.011286218650639057
  ],
  [
   -0.9042918086051941,
   1.7889513969421387,
   -1.1615879535675049
  ],
  [
   -1.4045860767364502,
   2.2858569622039795,
   -2.088582992553711
  ],
  [
   -0.03942371532320976,
   2.180251359939575,
   -1.2648128271102905
  ],
  [
   -0.9678864479064941,
   0.2900954782962799,
   -1.2423536777496338
  ],
  [
   -1.0514003038406372,
   -0.29347294569015503,
   0.5126734375953674
  ],
  [
   1.4637112617492676,
   0.4806329309940338,
   -0.037730176001787186
  ],
  [
   0.6896498203277588,
   0.5440689921379089,
   -0.28032973408699036
  ],
  [
   -0.10837045311927795,
   1.9763031005859375,
   -1.1598538160324097
  ],
  [
   -0.8689181208610535,
   -0.06125137209892273,
   -0.6376771330833435
  ],
  [
   -1.0297555923461914,
   1.2746198177337646,
   -0.8282195329666138
  ],
  [
   1.022139549255371,
   0.7210031747817993,
   -1.5530188083648682
  ],
  [
   0.7437421679496765,
   0.49575793743133545,
   -1.0554862022399902
  ]
 ],
 "pi.0.bias": [
  0.009542767889797688,
  -0.3525134027004242,
  0.19610759615898132,
  0.4562589228153229,
  0.202658548951149,
  -0.38028794527053833,
  0.3588407337665558,
  -1.7387290000915527,
  -0.9479570984840393,
  0.4776342213153839,
  1.1573114395141602,
  1.2524876594543457,
  -2.862316608428955,
  -2.173513650894165,
  -1.642531156539917,
  -0.15093259513378143,
  -0.5239312648773193,
  -2.7474629878997803,
  -0.6037149429321289,
  -0.47942444682121277,
  -2.330325126647949,
  0.4075608253479004,
  -0.20008650422096252,
  0.27318650484085083,
  -0.30850815773010254,
  -2.4488725662231445,
  -1.4438292980194092,
  -1.5123438835144043,
  0.904674232006073,
  1.1825495958328247
 ],
 "pi.2.weight": [
  [
   -0.5010676980018616,
   0.41993123292922974,
   2.9310309886932373,
   -1.055708646774292,
   -1.5829921960830688,
   -1.5201549530029297,
   -0.28732484579086304,
   11.975152969360352,
   0.36582860350608826,
   1.0435030460357666,
   -3.0455150604248047,
   2.1641950607299805,
   1.5862942934036255,
   -2.2805240154266357,
   -0.9437037706375122,
   0.1292307823896408,
   0.35219722986221313,
   3.1649088859558105,
   2.391408681869507,
   2.407691717147827,
   -2.997741460800171,
   -0.622322678565979,
   -1.3391728401184082,
   0.6640331745147705,
   -0.16174884140491486,
   -2.968461513519287,
   -1.2989327907562256,
   -0.7232474088668823,
   -1.9018176794052124,
   -0.9303684234619141
  ]
 ],
 "pi.2.bias": [
  -0.25473424792289734
 ]
}