{
 "pi.0.weight": [
  [
   0.6723464131355286,
   -0.05676063522696495,
   -0.6342803835868835,
   -0.7201757431030273,
   0.1967516988515854,
   0.01595274545252323
  ],
  [
   0.7052023410797119,
   0.633583664894104,
   -0.049035508185625076,
   0.2965906262397766,
   -0.8107135891914368,
   -1.5182476043701172
  ],
  [
   -0.46643003821372986,
   -0.9848177433013916,
   -0.22018744051456451,
   0.39726534485816956,
   1.2947957515716553,
   -0.27520912885665894
  ],
  [
   -1.8260185718536377,
   1.0232189893722534,
   -0.6473785042762756,
   -0.00676547409966588,
   -0.5522619485855103,
   -0.9934394359588623
  ],
  [
   0.2632266581058502,
   1.2396594285964966,
   -0.2885947823524475,
   -0.15592645108699799,
   -1.4075241088867188,
   -0.2503083050251007
  ],
  [
   -0.7294439673423767,
   0.8087080121040344,
   1.0677512884140015,
   0.903376579284668,
   0.40886184573173523,
   -0.8912731409072876
  ],
  [
   -0.6238316893577576,
   0.025672826915979385,
   -0.7894665598869324,
   0.22751861810684204,
   -0.18887566030025482,
   0.18860064446926117
  ],
  [
   0.3584805727005005,
   -1.5759403705596924,
   0.2762402296066284,
   0.042069002985954285,
   -0.17223019897937775,
   0.5009474158287048
  ],
  [
   -0.6091893315315247,
   -1.6619844436645508,
   -0.25890272855758667,
   0.38771215081214905,
   0.3883836567401886,
   0.7044820785522461
  ],
  [
   -0.01403120532631874,
   -0.1959892213344574,
   -0.10845961421728134,
   -0.18002210557460785,
   -1.4503430128097534,
   0.09337878227233887
  ],
  [
   0.7449064254760742,
   0.8463521003723145,
   1.361175537109375,
   2.348287343978882,
   0.018590593710541725,
   0.20346425473690033
  ],
  [
   0.2674437463283539,
   0.25943201780319214,
   0.29853835701942444,
   0.36738839745521545,
   -0.971594512462616,
   -0.9415329098701477
  ],
  [
   0.7097086310386658,
   2.004695177078247,
   0.8602020740509033,
   1.2376430034637451,
   -0.011103251948952675,
   -0.35981103777885437
  ],
  [
   -0.2935611605644226,
   0.8380080461502075,
   0.7874696850776672,
   0.8156063556671143,
   0.2632007896900177,
   -1.140642523765564
  ],
  [
   1.1876804828643799,
   0.8809282183647156,
   0.5866356492042542,
   1.2310125827789307,
   -0.9656663537025452,
   0.18859869241714478
  ],
  [
   1.4056349992752075,
   0.5945146679878235,
   -0.6190609335899353,
   0.4653252363204956,
   -0.8516018390655518,
   0.27465876936912537
  ],
  [
   -0.6018725633621216,
   -0.6597788333892822,
   0.11936571449041367,
   0.5511117577552795,
   0.25347626209259033,
   -1.0962095260620117
  ],
  [
   -0.9001441597938538,
   0.1400490254163742,
   -1.2514842748641968,
   -0.283004492521286,
   0.10503986477851868,
   -1.5784955024719238
  ],
  [
   -0.16414330899715424,
   -1.659481406211853,
   0.11674651503562927,
   0.7307241559028625,
   0.9323433041572571,
   0.5511146187782288
  ],
  [
   -0.9236248135566711,
   0.9951088428497314,
   0.04822422191500664,
   -0.2838979959487915,
   -0.03619113191962242,
   -0.9332973957061768
  ],
  [
   0.6306034922599792,
   -0.13182568550109863,
   1.3040614128112793,
   -0.46116599440574646,
   0.3102128207683563,
   -0.0905170738697052
  ],
  [
   -1.1471776962280273,
   0.34419476985931396,
   -0.7522872090339661,
   0.5593317151069641,
   0.5979762673377991,
   0.059739310294389725
  ],
  [
   -0.9203011989593506,
   0.12114807963371277,
   -0.9211922287940979,
   0.8411638140678406,
   -0.698877215385437,
   0.150953471660614
  ],
  [
   -1.244869351387024,
   0.9913710951805115,
   0.41893795132637024,
   0.5578004121780396,
   0.7559381127357483,
   0.33690255880355835
  ],
  [
   1.9027347564697266,
   0.6859372854232788,
   0.9806350469589233,
   0.6975627541542053,
   -0.8012856245040894,
   -0.8849403858184814
  ],
  [
   -1.6254595518112183,
   -0.9315558671951294,
   0.8487701416015625,
   -0.33283746242523193,
   0.8712992072105408,
   1.2268017530441284
  ],
  [
   0.28378891944885254,
   0.5795396566390991,
   -0.015494124963879585,
   0.2026374787092209,
   -0.7335027456283569,
   -0.5804401636123657
  ],
  [
   0.7661106586456299,
   -1.024282455444336,
   -1.031267523765564,
   -0.31099462509155273,
   -0.8669970035552979,
   0.26973259449005127
  ],
  [
   -0.5764201879501343,
   0.667754054069519,
   1.5106841325759888,
   0.4151309132575989,
   0.6519532799720764,
   -0.5674089789390564
  ],
  [
   -0.3708457350730896,
   0.9790905117988586,
   1.1834837198257446,
   0.8660140037536621,
   0.741146445274353,
   0.5499714016914368
  ],
  [
   -1.2341104745864868,
   -0.28330865502357483,
   0.20900629460811615,
   0.38175255060195923,
   0.48363324999809265,
   0.3926522731781006
  ],
  [
   0.01827879250049591,
   1.9813674688339233,
   0.6031286716461182,
   1.0017772912979126,
   0.7652151584625244,
   -0.6979748010635376
  ],
  [
   -1.2998549938201904,
   -0.291024774312973,
   -0.9647007584571838,
   0.022631362080574036,
   0.667364239692688,
   -0.561985194683075
  ],
  [
   0.35425224900245667,
   2.1186461448669434,
   0.34365156292915344,
   1.4390454292297363,
   -0.4558381736278534,
   -0.3134784996509552
  ],
  [
   -0.5996073484420776,
   0.42376258969306946,
   1.6733187437057495,
   0.4391597509384155,
   0.6501702666282654,
   0.6459510922431946
  ],
  [
   0.9184703230857849,
   1.0012671947479248,
   1.0942177772521973,
   -0.01988307572901249,
   -0.7238943576812744,
   -1.155800700187683
  ],
  [
   0.007556083146482706,
   0.572930097579956,
   1.2528194189071655,
   0.6557559967041016,
   -0.6178926229476929,
   -0.26458483934402466
  ],
  [
   0.4421982169151306,
   -0.2327938824892044,
   -0.37813684344291687,
   0.36455056071281433,
   -1.1703295707702637,
   0.1526302695274353
  ],
  [
   -0.25037893652915955,
   0.8536670207977295,
   -0.26347440481185913,
   1.8945151567459106,
   -0.21811674535274506,
   0.41111719608306885
  ],
  [
   0.30008652806282043,
   -0.5796152949333191,
   1.4318678379058838,
   -0.8848514556884766,
   -0.3793294131755829,
   0.40891969203948975
  ],
  [
   -0.6810647249221802,
   0.5280718207359314,
   -0.395392507314682,
   -0.12819765508174896,
   0.6343252062797546,
   0.005377158522605896
  ],
  [
   0.0193195603787899,
   -1.5022222995758057,
   -0.5712536573410034,
   -0.6669881939888,
   -0.7364257574081421,
   -0.5559757947921753
  ],
  [
   0.5467860102653503,
   1.380327820777893,
   0.09557130932807922,
   -0.19332848489284515,
   -0.5800010561943054,
   -0.22372271120548248
  ],
  [
   -1.5069886445999146,
   0.9865886569023132,
   0.8717537522315979,
   0.3153918981552124,
   1.0530756711959839,
   -0.05950647592544556
  ],
  [
   -0.9096474647521973,
   -1.0726096630096436,
   -0.30709636211395264,
   0.27962642908096313,
   0.3678668439388275,
   1.1238374710083008
  ],
  [
   -0.08513819426298141,
   -0.14028140902519226,
   -0.2835570275783539,
   -0.5375534892082214,
   -0.3631194233894348,
   -0.9681122899055481
  ],
  [
   1.87549889087677,
   1.0563687086105347,
   0.5082266926765442,
   0.32115235924720764,
   -0.8208692669868469,
   -0.29486948251724243
  ],
  [
   0.9493833184242249,
   1.8896952867507935,
   0.8058978915214539,
   1.1483190059661865,
   -0.35601741075515747,
   -1.1788661479949951
  ],
  [
   -0.9872900247573853,
   -0.24394254386425018,
   0.2915480136871338,
   0.24403192102909088,
   1.413033366203308,
   0.3595711886882782
  ],
  [
   0.33849334716796875,
   -1.7351902723312378,
   -0.320151686668396,
   -0.8019700646400452,
   0.2026226818561554,
   1.429789662361145
  ],
  [
   -1.758334994316101,
   0.1133357360959053,
   -0.8125325441360474,
   -0.423628568649292,
   0.2618934214115143,
   -0.29825934767723083
  ],
  [
   0.5779355764389038,
   0.5736403465270996,
   0.7981088161468506,
   2.3815596103668213,
   0.663655161857605,
   0.12006887793540955
  ],
  [
   0.24869941174983978,
   -1.0203649997711182,
   -0.6755229234695435,
   -0.41139015555381775,
   -0.18816564977169037,
   1.2552498579025269
  ],
  [
   -0.5399875044822693,
   -1.2463011741638184,
   -0.17680440843105316,
   -0.07778426259756088,
   -0.1499953269958496,
   1.7760385274887085
  ],
  [
   0.414456307888031,
   1.2757188081741333,
   0.18841901421546936,
   -0.24931475520133972,
   0.09006405621767044,
   0.4698196053504944
  ],
  [
   1.5793145895004272,
   0.09469223022460938,
   0.5562379360198975,
   0.0031786984764039516,
   -1.6090503931045532,
   -0.7715530395507812
  ],
  [
   -0.41512829065322876,
   1.105455756187439,
   -0.18552781641483307,
   0.4310729205608368,
   -0.42767834663391113,
   -0.5038608908653259
  ],
  [
   0.3737458288669586,
   1.3567841053009033,
   1.956531286239624,
   -0.008096176199615002,
   -0.15935029089450836,
   -0.5603514313697815
  ],
  [
   -0.8718888759613037,
   1.12321937084198,
   1.4050829410552979,
   0.7157942652702332,
   0.8730992674827576,
   -0.9770901799201965
  ],
  [
   0.3304503858089447,
   2.4178006649017334,
   0.25961917638778687,
   0.06328674405813217,
   -0.059474579989910126,
   -0.8999547362327576
  ],
  [
   -1.083768367767334,
   -0.6696875095367432,
   -0.5684302449226379,
   -0.38905560970306396,
   0.9216564893722534,
   0.20272287726402283
  ],
  [
   0.7715325951576233,
   -1.2368628978729248,
   0.266111820936203,
   0.5761123299598694,
   -0.8814533352851868,
   0.6588971018791199
  ],
  [
   -1.6642301082611084,
   0.15911641716957092,
   -0.3178984820842743,
   -0.1771140992641449,
   0.31141015887260437,
   -0.1112113669514656
  ],
  [
   0.26703500747680664,
   2.052053451538086,
   0.19635458290576935,
   0.7540867328643799,
   -0.9361332654953003,
   -0.5364561080932617
  ],
  [
   -0.2073049396276474,
   2.2579562664031982,
   0.636506199836731,
   1.5476936101913452,
   -0.30130913853645325,
   -0.4379887282848358
  ],
  [
   0.026553237810730934,
   0.3949143886566162,
   1.17622709274292,
   -0.3039840757846832,
   0.018104135990142822,
   -0.7514070272445679
  ],
  [
   0.0402149073779583,
   -2.2075870037078857,
   -0.6422260403633118,
   -0.5975180268287659,
   0.21579717099666595,
   1.4070581197738647
  ],
  [
   0.012693279422819614,
   0.9807134866714478,
   0.578838050365448,
   1.8272697925567627,
   0.4739675223827362,
   -0.05023986101150513
  ],
  [
   -1.557621955871582,
   -0.8682936429977417,
   -0.12480930238962173,
   -0.4295389950275421,
   1.0162849426269531,
   0.3968755602836609
  ],
  [
   -0.2114274501800537,
   0.003639945760369301,
   -0.40740591287612915,
   0.9823984503746033,
   0.3958960771560669,
   -0.25983884930610657
  ],
  [
   1.073904275894165,
   -0.6968396306037903,
   1.1848912239074707,
   0.7292994856834412,
   -0.03142828494310379,
   -0.18811963498592377
  ],
  [
   0.6113442778587341,
   0.63666170835495,
   1.3425092697143555,
   1.3750693798065186,
   -0.027010999619960785,
   -0.8552249670028687
  ],
  [
   1.4300458431243896,
   0.43170469999313354,
   0.8733739256858826,
   0.05526280403137207,
   -0.6151823997497559,
   -0.836724042892456
  ],
  [
   -0.2947554290294647,
   0.33037176728248596,
   1.1452151536941528,
   -0.9796242713928223,
   1.002347707748413,
   0.47100186347961426
  ],
  [
   -0.3701257109642029,
   0.8228698968887329,
   -0.5330761075019836,
   0.007762352004647255,
   0.21822844445705414,
   -0.9507653117179871
  ],
  [
   0.41603294014930725,
   0.4387126564979553,
   0.6492096781730652,
   0.9848354458808899,
   -0.9746524691581726,
   0.6936819553375244
  ],
  [
   -0.9405033588409424,
   0.20035137236118317,
   -1.2043994665145874,
   -0.14829032123088837,
   0.4186907112598419,
   -0.48320552706718445
  ],
  [
   0.21425244212150574,
   -0.31059303879737854,
   0.5821438431739807,
   1.0272760391235352,
   0.09721197932958603,
   -1.218968152999878
  ],
  [
   -1.9093453884124756,
   0.16263948380947113,
   0.3205907642841339,
   0.7068914175033569,
   1.017031192779541,
   0.8747065663337708
  ],
  [
   0.34706687927246094,
   -1.1941009759902954,
   0.05986102670431137,
   -0.5212537050247192,
   -0.26766735315322876,
   1.0905697345733643
  ],
  [
   -0.5956695675849915,
   0.060841213911771774,
   -1.799894094467163,
   -0.8555918335914612,
   0.3739890456199646,
   -0.24822013080120087
  ],
  [
   1.3475526571273804,
   1.084596872329712,
   0.6034954786300659,
   0.6409603953361511,
   0.026370448991656303,
   -0.39105069637298584
  ],
  [
   0.5775479078292847,
   -0.7452326416969299,
   0.018262064084410667,
   0.24120581150054932,
   -0.8121100068092346,
   0.5394502282142639
  ],
  [
   1.3720375299453735,
   0.2869587242603302,
   1.9828954935073853,
   1.2008647918701172,
   -0.17410944402217865,
   0.09705521166324615
  ],
  [
   -1.8139405250549316,
   1.174923300743103,
   0.45851191878318787,
   0.6322293281555176,
   -0.13029149174690247,
   -1.0366339683532715
  ],
  [
   -1.586194396018982,
   0.1938997060060501,
   -0.3772912323474884,
   1.1112972497940063,
   0.6425161361694336,
   0.1300293207168579
  ],
  [
   1.4187579154968262,
   0.4229009449481964,
   0.7797607183456421,
   0.3903922140598297,
   -0.7398485541343689,
   0.0980292484164238
  ],
  [
   0.23165225982666016,
   -1.2183603048324585,
   0.05675383657217026,
   -0.48732495307922363,
   -0.08862091600894928,
   1.5434532165527344
  ],
  [
   0.9711438417434692,
   0.6624840497970581,
   0.2986374795436859,
   0.7888544797897339,
   -0.4623357355594635,
   0.6188535094261169
  ],
  [
   0.8040968179702759,
   1.2465227842330933,
   0.2227996438741684,
   0.105274498462677,
   0.41049331426620483,
   0.01092431042343378
  ],
  [
   0.2052915096282959,
   -1.6937295198440552,
   -0.10121564567089081,
   -0.5042212605476379,
   -0.5023139119148254,
   0.45922061800956726
  ],
  [
   0.2357972264289856,
   -1.3495047092437744,
   0.20222435891628265,
   -0.5242403149604797,
   -0.5544658899307251,
   1.204129695892334
  ],
  [
   1.5360593795776367,
   -0.380892813205719,
   1.4919743537902832,
   0.5968427062034607,
   -0.4173058271408081,
   0.6571854948997498
  ],
  [
   -0.2126055210828781,
   -1.3439881801605225,
   0.08773458003997803,
   0.27681902050971985,
   -0.3928438425064087,
   1.063671350479126
  ],
  [
   -1.2063673734664917,
   1.5131093263626099,
   0.766352117061615,
   0.6774942874908447,
   0.6367177963256836,
   -0.10857360810041428
  ],
  [
   0.9720936417579651,
   -1.2656958103179932,
   0.10740698873996735,
   0.1371215134859085,
   0.2047126740217209,
   0.9557241797447205
  ],
  [
   -1.1802446842193604,
   1.4828357696533203,
   0.3065950572490692,
   0.4389238953590393,
   1.0572954416275024,
   -0.6845608949661255
  ],
  [
   -1.544816255569458,
   -0.49101582169532776,
   -0.7522537112236023,
   -0.06384209543466568,
   0.2673344016075134,
   0.1752130091190338
  ],
  [
   1.3467943668365479,
   0.8534168601036072,
   0.33905863761901855,
   -0.5460343360900879,
   -0.821472704410553,
   -0.7153397798538208
  ],
  [
   0.8009010553359985,
   2.0694820880889893,
   1.1852235794067383,
   1.7552260160446167,
   -0.43120431900024414,
   -0.37107113003730774
  ]
 ],
 "pi.0.bias": [
  -5.168003082275391,
  -1.3075202703475952,
  -3.223153591156006,
  -2.63262677192688,
  -4.7366132736206055,
  -1.8731828927993774,
  0.5014157891273499,
  -1.2518237829208374,
  -1.1598097085952759,
  -1.0984559059143066,
  -0.04295904561877251,
  -1.469216227531433,
  -0.4052152633666992,
  -2.3335909843444824,
  -2.0221307277679443,
  -3.454871416091919,
  -1.4503239393234253,
  -0.328153520822525,
  -1.6344512701034546,
  -1.7057157754898071,
  -5.1855082511901855,
  -1.8833160400390625,
  -2.1987855434417725,
  -2.63065242767334,
  -3.3299243450164795,
  -0.5257352590560913,
  -3.3406944274902344,
  -1.814165711402893,
  -3.6071760654449463,
  -1.4007400274276733,
  -2.183500051498413,
  -1.859176754951477,
  -2.7001349925994873,
  -1.725546956062317,
  -1.806383490562439,
  -0.8025121688842773,
  -3.4083428382873535,
  -1.0604376792907715,
  -2.4446303844451904,
  -1.7906789779663086,
  -1.008860468864441,
  -0.7521111965179443,
  -1.4699429273605347,
  -1.351768136024475,
  -3.165468454360962,
  0.6935270428657532,
  -2.7201037406921387,
  -2.479105234146118,
  -2.667611598968506,
  -1.987634539604187,
  -1.7016130685806274,
  -2.5135498046875,
  -3.472468614578247,
  -2.772310972213745,
  -2.9212586879730225,
  -1.6375325918197632,
  -3.7909204959869385,
  -0.17967112362384796,
  -0.12942692637443542,
  -1.5411403179168701,
  -3.717311382293701,
  -1.887243628501892,
  -1.2445521354675293,
  -3.197950839996338,
  -1.4726529121398926,
  -1.2375919818878174,
  -1.1298760175704956,
  -1.213081955909729,
  -1.9347236156463623,
  -1.756142258644104,
  -2.0286331176757812,
  -3.0767018795013428,
  -5.941988468170166,
  -2.575782060623169,
  -0.7026817798614502,
  -0.42863768339157104,
  -4.614978790283203,
  -5.382516860961914,
  -3.588435173034668,
  -3.9132440090179443,
  -1.284386157989502,
  -2.9420177936553955,
  -2.006716251373291,
  -1.5406116247177124,
  -0.6276871562004089,
  -0.31985682249069214,
  -2.7361299991607666,
  -4.541804313659668,
  -2.3957183361053467,
  -3.3130836486816406,
  -0.801754891872406,
  -2.7690494060516357,
  0.12227731943130493,
  -3.149217367172241,
  -2.746715784072876,
  -2.6165409088134766,
  -1.508061170578003,
  -3.4759466648101807,
  -1.892964243888855,
  -2.2442803382873535
 ],
 "pi.2.weight": [
  [
   -6.4549970626831055,
   -1.0656088590621948,
   0.41185176372528076,
   2.7933547496795654,
   -4.05327033996582,
   -0.6795246601104736,
   -0.6130081415176392,
   1.1421128511428833,
   -1.2426784038543701,
   -1.3664189577102661,
   -0.1539531797170639,
   1.0248218774795532,
   0.023581603541970253,
   -0.9810470342636108,
   -0.23846586048603058,
   -2.5664150714874268,
   1.2771036624908447,
   -1.1188604831695557,
   0.4770774841308594,
   1.2789311408996582,
   6.052104949951172,
   -1.1165318489074707,
   -1.3131319284439087,
   -0.8790662884712219,
   0.10854437947273254,
   0.7036795616149902,
   1.4606349468231201,
   1.5338221788406372,
   5.454287528991699,
   -0.21686390042304993,
   1.3867157697677612,
   1.7652226686477661,
   -0.0017917957156896591,
   -1.0336681604385376,
   -0.29344382882118225,
   0.974177360534668,
   1.795477271080017,
   -0.6671299934387207,
   0.8277971148490906,
   -0.7146849036216736,
   0.10137797147035599,
   1.0389817953109741,
   0.6782623529434204,
   -0.644635021686554,
   -6.410089015960693,
   -0.22841037809848785,
   7.657076358795166,
   -1.8195894956588745,
   0.6298890709877014,
   2.508111000061035,
   -0.9862712025642395,
   1.4215563535690308,
   -5.874964237213135,
   2.580306053161621,
   1.8010330200195312,
   0.9478402733802795,
   -3.377876043319702,
   0.6985760927200317,
   0.6732335686683655,
   -0.930193305015564,
   5.18166971206665,
   -1.0317858457565308,
   -1.8724207878112793,
   1.5693989992141724,
   -1.1697649955749512,
   -0.11265680938959122,
   -1.8412648439407349,
   0.3797883689403534,
   -0.8054975271224976,
   0.8464084267616272,
   0.6705417633056641,
   -2.5313868522644043,
   -2.1229395866394043,
   -0.10767747461795807,
   -0.03697748854756355,
   1.0615277290344238,
   1.4984045028686523,
   -0.584409236907959,
   5.222256660461426,
   -2.7212986946105957,
   0.08204323798418045,
   -3.2813680171966553,
   0.6298297047615051,
   1.4694260358810425,
   -1.1845982074737549,
   -0.18220165371894836,
   2.3474955558776855,
   3.8027591705322266,
   -0.016994599252939224,
   -1.7435017824172974,
   -0.8265532851219177,
   -3.1187918186187744,
   0.7280921339988708,
   4.769497871398926,
   -3.441845417022705,
   -1.8811930418014526,
   1.2296910285949707,
   -4.667928695678711,
   -1.1987353563308716,
   2.911935806274414
  ],
  [
   -1.2880293130874634,
   0.43062013387680054,
   0.45557525753974915,
   -0.9444645047187805,
   -3.7525241374969482,
   -0.5694151520729065,
   0.1227782741189003,
   -0.7935282588005066,
   -0.050440963357686996,
   0.11664953827857971,
   0.588756799697876,
   0.5463306903839111,
   0.6450707316398621,
   -1.6723765134811401,
   -1.5901716947555542,
   2.954131603240967,
   -0.5174022912979126,
   0.5252307653427124,
   0.1724509745836258,
   -0.41122081875801086,
   0.9747560620307922,
   -0.04694657772779465,
   -0.08374564349651337,
   -0.45667535066604614,
   -2.450432538986206,
   -0.5433095693588257,
   -3.9458467960357666,
   -0.22689223289489746,
   -2.2400152683258057,
   -1.171881079673767,
   -0.29462382197380066,
   -0.3371119201183319,
   -0.9259369969367981,
   1.2525590658187866,
   -1.2600929737091064,
   -0.5060765743255615,
   3.594383478164673,
   -0.05620145425200462,
   1.7043914794921875,
   0.39069685339927673,
   0.46910393238067627,
   0.21365177631378174,
   0.8766081929206848,
   1.3151299953460693,
   1.838541030883789,
   -0.7693549394607544,
   -2.466059446334839,
   0.8226862549781799,
   2.205136299133301,
   -0.714102029800415,
   0.6009573340415955,
   0.774901270866394,
   1.1722283363342285,
   -0.08005804568529129,
   -1.1721569299697876,
   -0.5461521744728088,
   5.254726886749268,
   -0.08557447791099548,
   0.37366366386413574,
   1.0594183206558228,
   1.52439546585083,
   0.8221730589866638,
   0.28806427121162415,
   3.71677303314209,
   0.4792024791240692,
   -0.8544630408287048,
   0.40816113352775574,
   -0.3178110718727112,
   -0.26893922686576843,
   -0.12287553399801254,
   -1.295675277709961,
   0.8156484961509705,
   6.234604358673096,
   -1.165307641029358,
   0.23032201826572418,
   -0.1330592781305313,
   3.522798538208008,
   -3.753260374069214,
   -0.9960287809371948,
   2.9617655277252197,
   -0.3213365972042084,
   -2.59653639793396,
   -0.7313701510429382,
   1.5699889659881592,
   0.2687416672706604,
   0.37982404232025146,
   4.1649980545043945,
   -5.996490478515625,
   -1.2468677759170532,
   -0.9314231872558594,
   -0.04475567117333412,
   0.5546173453330994,
   -0.3567417562007904,
   -1.5361275672912598,
   2.267840623855591,
   0.992680013179779,
   -0.6706313490867615,
   1.2958910465240479,
   0.2527843713760376,
   1.4459933042526245
  ]
 ],
 "pi.2.bias": [
  0.2609207034111023,
  -0.2921534776687622
 ]
}