{
 "pi.0.weight": [
  [
   3.846165895462036,
   -0.40066564083099365,
   -1.1945033073425293,
   2.7359986305236816,
   -2.775118112564087,
   -0.36545518040657043
  ],
  [
   0.8542309403419495,
   3.8538239002227783,
   0.9084526896476746,
   -0.006877624895423651,
   -0.40203857421875,
   6.839500427246094
  ],
  [
   -3.6773362159729004,
   -0.9717726707458496,
   1.132059097290039,
   -2.288564682006836,
   -1.3731728792190552,
   7.242300987243652
  ],
  [
   2.227519989013672,
   4.254023551940918,
   0.6950822472572327,
   0.6658542156219482,
   -4.062417030334473,
   0.27448874711990356
  ],
  [
   0.24397818744182587,
   3.4312281608581543,
   0.05640488862991333,
   2.14308500289917,
   -1.481547474861145,
   0.8787530064582825
  ],
  [
   -1.698459267616272,
   -2.422590732574463,
   2.3459632396698,
   2.9364237785339355,
   0.5487205386161804,
   -2.9680638313293457
  ],
  [
   0.6568005681037903,
   -2.095287799835205,
   0.3737846910953522,
   -1.8110624551773071,
   -0.25254860520362854,
   7.501509666442871
  ],
  [
   0.5914283394813538,
   -1.1514695882797241,
   -2.559312105178833,
   -2.1591413021087646,
   1.985501766204834,
   -3.4802069664001465
  ],
  [
   2.010336399078369,
   6.906518936157227,
   -2.318969488143921,
   -1.531217098236084,
   -6.186339855194092,
   -0.2557929754257202
  ],
  [
   4.040671348571777,
   2.1491003036499023,
   -0.7265180349349976,
   -2.041128396987915,
   -3.673637866973877,
   -2.116694688796997
  ],
  [
   -0.7888628840446472,
   -3.5077314376831055,
   -2.90844988822937,
   -0.31904423236846924,
   -2.857342481613159,
   4.786736965179443
  ],
  [
   -6.20298433303833,
   -5.5532917976379395,
   3.5291032791137695,
   -0.36151981353759766,
   0.4440242052078247,
   -1.0731699466705322
  ],
  [
   1.090320348739624,
   2.609170913696289,
   -5.161757469177246,
   -4.565938472747803,
   -0.6286180019378662,
   -0.9950146675109863
  ],
  [
   -2.883892059326172,
   0.436835914850235,
   -2.351409435272217,
   0.5950695872306824,
   6.17285680770874,
   4.201665878295898
  ],
  [
   3.4094207286834717,
   -2.471872329711914,
   3.5999155044555664,
   0.44728437066078186,
   -0.5352233648300171,
   -3.600376605987549
  ],
  [
   5.34135627746582,
   0.2382473349571228,
   2.3234877586364746,
   3.7610669136047363,
   -5.559903144836426,
   -4.300981044769287
  ],
  [
   6.320851802825928,
   -0.45210593938827515,
   2.3658907413482666,
   -1.5871416330337524,
   3.101336717605591,
   -0.2616777718067169
  ],
  [
   5.286927700042725,
   2.070667028427124,
   -0.4405616819858551,
   0.571135401725769,
   -1.65238356590271,
   4.034037113189697
  ],
  [
   -3.734339714050293,
   1.5583065748214722,
   -3.059175729751587,
   -1.2621546983718872,
   2.6694650650024414,
   2.236846446990967
  ],
  [
   -6.600196838378906,
   -0.6290106773376465,
   -2.516124725341797,
   0.9989860653877258,
   -0.791889488697052,
   -5.8580780029296875
  ],
  [
   3.5666584968566895,
   2.245997667312622,
   -3.2841439247131348,
   -0.7150827646255493,
   2.8729047775268555,
   3.6798627376556396
  ],
  [
   -3.583219289779663,
   -3.5521469116210938,
   -1.2663229703903198,
   -1.1235220432281494,
   2.7228407859802246,
   6.751943111419678
  ],
  [
   4.6972198486328125,
   1.4912389516830444,
   -1.5015226602554321,
   0.08608363568782806,
   -0.548981785774231,
   -3.267746925354004
  ],
  [
   -0.5141579508781433,
   -0.6770560145378113,
   1.9614102840423584,
   -0.04315875843167305,
   -0.9029560089111328,
   -4.959358215332031
  ],
  [
   2.8434295654296875,
   2.153237819671631,
   0.25944724678993225,
   -0.5843839049339294,
   -5.291645050048828,
   -2.7489020824432373
  ],
  [
   -0.002727226819843054,
   0.5049631595611572,
   0.6139195561408997,
   2.010788917541504,
   2.4070122241973877,
   -6.709799766540527
  ],
  [
   -2.7152092456817627,
   1.2297197580337524,
   0.6756845116615295,
   2.157510280609131,
   -2.4148528575897217,
   2.2090401649475098
  ],
  [
   -8.258220672607422,
   -3.2475779056549072,
   -1.8634908199310303,
   0.2674674689769745,
   -0.7316769361495972,
   -0.18033751845359802
  ],
  [
   -0.6544274091720581,
   -0.5999252796173096,
   1.439794898033142,
   0.05664507672190666,
   -1.7161099910736084,
   -1.2738577127456665
  ],
  [
   -0.08245595544576645,
   0.8836888074874878,
   -0.6157900094985962,
   0.1173892617225647,
   5.906740665435791,
   3.578035354614258
  ],
  [
   -4.090521812438965,
   2.7068724632263184,
   0.4367428123950958,
   1.0052218437194824,
   1.7018705606460571,
   -2.5661673545837402
  ],
  [
   -0.44154107570648193,
   0.09118746966123581,
   -1.1900452375411987,
   4.040121555328369,
   -1.6287941932678223,
   -5.251944541931152
  ],
  [
   -7.8231353759765625,
   3.0317862033843994,
   -2.180530309677124,
   -0.413452684879303,
   1.1415462493896484,
   -4.591429233551025
  ],
  [
   1.1705210208892822,
   1.1776412725448608,
   -0.9912116527557373,
   -2.9223225116729736,
   3.1612656116485596,
   -0.7218503952026367
  ],
  [
   2.046330213546753,
   4.519472599029541,
   1.9638004302978516,
   0.3539484441280365,
   -2.4372634887695312,
   7.497937202453613
  ],
  [
   2.1476473808288574,
   -0.29153069853782654,
   -0.19268977642059326,
   -3.9304442405700684,
   -0.937444806098938,
   -0.5090821981430054
  ],
  [
   3.0248727798461914,
   -1.179136872291565,
   -1.7853686809539795,
   -3.273259162902832,
   2.4852490425109863,
   5.919715881347656
  ],
  [
   4.292454719543457,
   -2.0614588260650635,
   -1.030510425567627,
   1.3341346979141235,
   3.1236870288848877,
   4.71282434463501
  ],
  [
   -4.583924293518066,
   -1.0449161529541016,
   -0.5998653769493103,
   -2.426584005355835,
   5.470848083496094,
   5.8548808097839355
  ],
  [
   0.39211854338645935,
   2.713683605194092,
   -2.3459339141845703,
   -3.4789116382598877,
   2.1378886699676514,
   1.7331616878509521
  ],
  [
   -0.7013899683952332,
   3.9329757690429688,
   -0.6646960377693176,
   -1.9227310419082642,
   -3.5002059936523438,
   -0.16536834836006165
  ],
  [
   6.14294958114624,
   2.7238502502441406,
   2.2285916805267334,
   -0.29553282260894775,
   -2.259552240371704,
   0.0776779055595398
  ],
  [
   4.72861385345459,
   4.455777645111084,
   1.416727900505066,
   -1.5993322134017944,
   -2.2466988563537598,
   -2.2524032592773438
  ],
  [
   -1.5806556940078735,
   -8.754372596740723,
   2.0296459197998047,
   -1.6273493766784668,
   -3.8852527141571045,
   -3.0536534786224365
  ],
  [
   -2.0368006229400635,
   0.3729197084903717,
   -0.7953985929489136,
   -0.2325163185596466,
   3.41021990776062,
   5.475246906280518
  ],
  [
   -2.2837536334991455,
   -0.17305400967597961,
   -0.8885135054588318,
   2.5881378650665283,
   -0.5354598760604858,
   -6.052362442016602
  ],
  [
   -0.11669572442770004,
   -1.1983561515808105,
   1.1129112243652344,
   3.631925344467163,
   -1.185757040977478,
   -3.6465165615081787
  ],
  [
   3.315034866333008,
   1.5958170890808105,
   -0.8965024352073669,
   -0.6158397197723389,
   3.697951078414917,
   0.354694664478302
  ],
  [
   2.29160737991333,
   -1.5277818441390991,
   0.025907544419169426,
   -1.0977578163146973,
   4.075979709625244,
   7.193502426147461
  ],
  [
   0.556031346321106,
   3.225989580154419,
   -0.174913227558136,
   -0.565247654914856,
   1.786608338356018,
   3.8106894493103027
  ]
 ],
 "pi.0.bias": [
  3.5339932441711426,
  0.16695688664913177,
  1.7276415824890137,
  0.8368363976478577,
  1.5657970905303955,
  -4.183487892150879,
  -4.580924034118652,
  -0.9091698527336121,
  0.5596245527267456,
  0.36199238896369934,
  -0.877748429775238,
  -4.121696472167969,
  -7.208468437194824,
  3.7845258712768555,
  -4.405404567718506,
  -5.17454719543457,
  2.0411016941070557,
  -4.520312786102295,
  -4.030323028564453,
  -0.09322056919336319,
  -1.0933078527450562,
  -2.640819549560547,
  0.4467347264289856,
  0.5066778659820557,
  0.5155870914459229,
  0.452910840511322,
  1.0220658779144287,
  2.646230936050415,
  5.111989498138428,
  -3.035006523132324,
  1.6237232685089111,
  -0.12043284624814987,
  2.7264139652252197,
  -1.9855639934539795,
  -1.3421916961669922,
  1.0720467567443848,
  -3.012258529663086,
  -1.5893102884292603,
  -0.5329298377037048,
  3.3687427043914795,
  2.1218008995056152,
  -3.460585594177246,
  0.29559949040412903,
  -4.458302974700928,
  -2.9931235313415527,
  1.1755492687225342,
  -5.61609411239624,
  -0.6334237456321716,
  -0.6936254501342773,
  -3.3591811656951904
 ],
 "pi.2.weight": [
  [
   -2.103966474533081,
   0.4731352925300598,
   3.2451655864715576,
   -1.0642324686050415,
   2.6025032997131348,
   -2.5292246341705322,
   1.451434850692749,
   -3.3585853576660156,
   -2.830042839050293,
   4.932163238525391,
   -7.050181865692139,
   1.8088412284851074,
   -5.799749851226807,
   -5.902366638183594,
   -1.9579576253890991,
   -6.262381553649902,
   2.1628522872924805,
   5.021031379699707,
   -5.917155742645264,
   3.2220492362976074,
   -0.7168609499931335,
   2.6300606727600098,
   -1.5251694917678833,
   -1.890551209449768,
   1.3896318674087524,
   -0.8285662531852722,
   3.925187826156616,
   2.802826404571533,
   0.7652718424797058,
   6.376522541046143,
   -0.6662012934684753,
   1.3643149137496948,
   -0.23926131427288055,
   3.2294728755950928,
   -4.393230438232422,
   -1.8035444021224976,
   0.22875085473060608,
   1.0319136381149292,
   3.6181640625,
   0.8831619620323181,
   -1.0513719320297241,
   4.471904277801514,
   6.405898571014404,
   1.941702961921692,
   -3.0940072536468506,
   2.672799825668335,
   -6.324044227600098,
   4.740746021270752,
   4.073482036590576,
   -0.11864088475704193
  ],
  [
   -1.9792921543121338,
   1.1338913440704346,
   -0.012206725776195526,
   -3.579521656036377,
   4.801784038543701,
   -0.20015129446983337,
   7.154144763946533,
   0.5783435702323914,
   -3.950493097305298,
   10.327474594116211,
   -3.101893663406372,
   -0.6722930669784546,
   1.659328818321228,
   -2.7208445072174072,
   0.5700576305389404,
   -1.473750352859497,
   2.772501230239868,
   6.911781311035156,
   3.264050006866455,
   0.938866138458252,
   -1.3629335165023804,
   1.1195878982543945,
   -1.739359736442566,
   -0.9499281644821167,
   7.768924713134766,
   -2.1212213039398193,
   1.3115103244781494,
   0.11716339737176895,
   -2.3274898529052734,
   2.1488773822784424,
   2.8390212059020996,
   -0.06648062914609909,
   2.485107421875,
   -2.6079328060150146,
   -2.981158971786499,
   -2.1938374042510986,
   -2.570319414138794,
   7.3507080078125,
   1.5579525232315063,
   -2.6542294025421143,
   4.93454647064209,
   11.159667015075684,
   0.24890728294849396,
   -9.12203311920166,
   -1.5360348224639893,
   1.5773288011550903,
   -2.537104368209839,
   -3.086918592453003,
   4.483786106109619,
   1.8529019355773926
  ],
  [
   -3.864048957824707,
   4.587489128112793,
   6.215063095092773,
   -1.526978611946106,
   -0.26078328490257263,
   -3.553258180618286,
   0.11311914026737213,
   4.872832298278809,
   -1.1507333517074585,
   -0.26052969694137573,
   -1.0947405099868774,
   -4.534997463226318,
   -6.041120529174805,
   -3.703798532485962,
   1.174553632736206,
   -1.4843075275421143,
   0.12836073338985443,
   -0.3424156606197357,
   0.606254518032074,
   4.152621269226074,
   1.947745442390442,
   -5.31036376953125,
   0.5615040063858032,
   -2.0567634105682373,
   7.245304584503174,
   -1.3875881433486938,
   -1.2534449100494385,
   5.419997692108154,
   -1.1972966194152832,
   1.0433316230773926,
   7.96888542175293,
   1.469826102256775,
   -3.13203763961792,
   -0.22563645243644714,
   -6.063604831695557,
   2.3413915634155273,
   -1.2134630680084229,
   4.085842609405518,
   1.0930761098861694,
   -3.6416707038879395,
   4.122951030731201,
   4.6931562423706055,
   2.6028051376342773,
   1.235900640487671,
   -2.714171886444092,
   -3.19689679145813,
   -7.884237289428711,
   3.260857105255127,
   2.9248862266540527,
   -5.637361526489258
  ],
  [
   -1.5358684062957764,
   0.4746227264404297,
   2.6879520416259766,
   0.5474353432655334,
   0.9439147114753723,
   4.648953914642334,
   1.8646526336669922,
   -0.045315369963645935,
   -0.0829780101776123,
   5.852931499481201,
   -1.8449437618255615,
   -10.34149169921875,
   -3.978050947189331,
   -0.0030653381254523993,
   -5.8287272453308105,
   1.4674832820892334,
   -3.2235107421875,
   4.09912109375,
   0.7202613949775696,
   5.627984046936035,
   4.0450239181518555,
   2.9546468257904053,
   -0.9634602069854736,
   -4.056284427642822,
   9.026644706726074,
   -1.7321678400039673,
   3.4898955821990967,
   -2.795513391494751,
   2.3002641201019287,
   0.24391573667526245,
   3.476862668991089,
   3.50942063331604,
   -1.4293527603149414,
   0.1904386579990387,
   -5.861268997192383,
   -0.6509875059127808,
   -4.925431251525879,
   3.2452852725982666,
   5.475309371948242,
   -2.4902641773223877,
   0.06840097159147263,
   5.94605827331543,
   1.3876947164535522,
   -1.8173171281814575,
   1.45223069190979,
   -0.6980346441268921,
   2.47548508644104,
   -0.8913756608963013,
   5.037367820739746,
   -3.0958614349365234
  ],
  [
   -2.2240521907806396,
   -3.7229015827178955,
   3.168137550354004,
   1.6351799964904785,
   0.2639416456222534,
   4.217974662780762,
   4.316880702972412,
   -0.5991913080215454,
   -3.981443166732788,
   -1.9706214666366577,
   2.3780767917633057,
   0.47231075167655945,
   -4.044546127319336,
   -2.7070870399475098,
   -1.080089807510376,
   -4.981649398803711,
   2.0287997722625732,
   -1.3385790586471558,
   -4.008488655090332,
   -0.8928363919258118,
   3.798863649368286,
   2.7342567443847656,
   -4.1634440422058105,
   -0.794324517250061,
   -2.416597604751587,
   -3.7139246463775635,
   2.1004106998443604,
   0.39390578866004944,
   -2.407655715942383,
   4.606860637664795,
   2.969308853149414,
   0.6663742065429688,
   -1.389194369316101,
   -1.0459181070327759,
   2.654799461364746,
   2.5931999683380127,
   3.996253728866577,
   -0.3483838140964508,
   -2.417465925216675,
   1.4256887435913086,
   -5.573328971862793,
   -6.700925350189209,
   0.43542224168777466,
   3.0633537769317627,
   1.4502320289611816,
   2.4313738346099854,
   8.18933391571045,
   2.8394546508789062,
   2.5260214805603027,
   -2.703683376312256
  ],
  [
   -1.6561115980148315,
   1.6613880395889282,
   3.218140125274658,
   0.8514947295188904,
   0.2296028733253479,
   -2.7030701637268066,
   -3.3785593509674072,
   5.060469627380371,
   -3.703817844390869,
   2.3283674716949463,
   -3.383307933807373,
   -3.5416946411132812,
   7.069431781768799,
   -1.0353567600250244,
   -1.291659951210022,
   -3.521155834197998,
   2.0513265132904053,
   8.988306999206543,
   -1.084542155265808,
   -1.1849420070648193,
   4.3727312088012695,
   2.356816291809082,
   2.051912307739258,
   2.485853910446167,
   1.0353032350540161,
   -2.6432127952575684,
   2.049278736114502,
   1.4743496179580688,
   -4.753204345703125,
   -2.3630290031433105,
   0.3365541994571686,
   6.005704879760742,
   -6.4439520835876465,
   -0.9728544354438782,
   -4.30433988571167,
   -3.0377607345581055,
   0.5729732513427734,
   2.0307557582855225,
   -1.5084811449050903,
   -4.261446475982666,
   3.841482639312744,
   7.616438388824463,
   0.35622939467430115,
   3.446561336517334,
   -6.2858686447143555,
   -0.17692866921424866,
   -2.0043811798095703,
   -0.45368069410324097,
   -2.3379807472229004,
   2.0429275035858154
  ]
 ],
 "pi.2.bias": [
  1.585670828819275,
  -2.7935779094696045,
  3.8508002758026123,
  -1.84481680393219,
  -0.4332207143306732,
  -4.770390510559082
 ]
}