{
 "pi.0.weight": [
  [
   -0.27908894419670105,
   -0.9011725187301636,
   -0.8096947073936462,
   -0.8490936756134033,
   2.018120288848877,
   4.375929832458496
  ],
  [
   -2.2250239849090576,
   -1.8919236660003662,
   0.8383181691169739,
   0.2127133160829544,
   -0.7836632132530212,
   1.1963207721710205
  ],
  [
   0.9979870319366455,
   -3.28205943107605,
   0.9440373182296753,
   -0.35498106479644775,
   -1.8165802955627441,
   1.5192898511886597
  ],
  [
   -0.4237537086009979,
   0.8049001693725586,
   -0.38640162348747253,
   -1.0352247953414917,
   -1.7828861474990845,
   4.811539173126221
  ],
  [
   4.409142971038818,
   0.14117403328418732,
   -0.8218628168106079,
   0.3515430986881256,
   -3.269639253616333,
   1.1829984188079834
  ],
  [
   -0.474871426820755,
   -2.3977622985839844,
   -1.480333924293518,
   -1.2561603784561157,
   2.9278404712677,
   1.811736822128296
  ],
  [
   -1.7895723581314087,
   0.4246550500392914,
   0.177046537399292,
   0.030261844396591187,
   1.215714454650879,
   -4.347955226898193
  ],
  [
   3.005261182785034,
   -0.1295699179172516,
   0.05152527615427971,
   1.5841126441955566,
   0.5302934050559998,
   3.6840457916259766
  ],
  [
   0.21495532989501953,
   3.353916883468628,
   1.0081464052200317,
   1.4418933391571045,
   0.3869836926460266,
   1.4771239757537842
  ],
  [
   -0.08816443383693695,
   -1.8545161485671997,
   2.0961291790008545,
   -0.9665729999542236,
   -3.881680488586426,
   2.147127866744995
  ],
  [
   -4.032909393310547,
   -2.519845962524414,
   -0.6338750123977661,
   2.382338285446167,
   1.5732810497283936,
   -1.0905033349990845
  ],
  [
   1.3557146787643433,
   -4.770557880401611,
   -0.3695904612541199,
   -1.3922823667526245,
   3.0610768795013428,
   1.6046829223632812
  ],
  [
   0.8136336207389832,
   -0.7842383980751038,
   0.16172464191913605,
   1.2515647411346436,
   -2.7679100036621094,
   -3.1385440826416016
  ],
  [
   0.9530147314071655,
   3.196300983428955,
   -3.2183644771575928,
   0.044808682054281235,
   1.0579456090927124,
   -1.9357877969741821
  ],
  [
   -0.007843980565667152,
   4.440244197845459,
   0.6068667769432068,
   0.1218232810497284,
   -1.441975712776184,
   -4.195163249969482
  ],
  [
   2.2236101627349854,
   1.9626619815826416,
   0.733092188835144,
   -1.0100879669189453,
   1.0258939266204834,
   -2.9466490745544434
  ],
  [
   -0.6693210005760193,
   4.129387378692627,
   0.2483789473772049,
   0.37068819999694824,
   -0.059604715555906296,
   0.3703109323978424
  ],
  [
   1.4793404340744019,
   -1.1261574029922485,
   0.40989595651626587,
   -0.6580154299736023,
   -2.8310163021087646,
   1.6701136827468872
  ],
  [
   -0.593993067741394,
   -3.0812063217163086,
   0.8279946446418762,
   0.8733651638031006,
   -0.6165218353271484,
   2.795220375061035
  ],
  [
   -0.5835070610046387,
   2.288771867752075,
   1.0860869884490967,
   -0.578624427318573,
   3.8020310401916504,
   2.2801265716552734
  ],
  [
   -0.13540221750736237,
   -1.357470989227295,
   0.8787155747413635,
   -0.37588316202163696,
   -1.9370534420013428,
   0.7878482937812805
  ],
  [
   -1.4252797365188599,
   -2.578909158706665,
   -1.4592622518539429,
   -1.9114147424697876,
   -0.8428265452384949,
   0.9856177568435669
  ],
  [
   -0.4770216643810272,
   -2.063596725463867,
   -0.6697250008583069,
   0.01666283793747425,
   -0.8288432955741882,
   -2.397395372390747
  ],
  [
   0.01834292709827423,
   -3.2810862064361572,
   0.12206848710775375,
   0.1855899691581726,
   5.125354766845703,
   -2.349607229232788
  ],
  [
   -1.428694248199463,
   -3.8848230838775635,
   -0.5829982161521912,
   0.27371254563331604,
   0.38137924671173096,
   -1.5201218128204346
  ],
  [
   3.146390199661255,
   1.768261432647705,
   -0.9201284646987915,
   -3.0319344997406006,
   -2.5864388942718506,
   -0.43881291151046753
  ],
  [
   2.592904806137085,
   -2.64204478263855,
   -2.518157720565796,
   -0.7711886763572693,
   0.31351733207702637,
   0.8815547227859497
  ],
  [
   0.7095383405685425,
   -1.7096679210662842,
   -1.4901766777038574,
   0.42221763730049133,
   -3.3723933696746826,
   2.4366109371185303
  ],
  [
   -1.3179365396499634,
   -0.5018131136894226,
   -1.9454795122146606,
   -1.8798466920852661,
   -2.3459079265594482,
   -0.4567835032939911
  ],
  [
   -1.6463662385940552,
   4.582708358764648,
   -0.05231444910168648,
   0.027333080768585205,
   0.017089180648326874,
   1.2425090074539185
  ],
  [
   -4.452760696411133,
   3.4975311756134033,
   -0.4774550497531891,
   0.44134923815727234,
   1.4709757566452026,
   -0.6987136602401733
  ],
  [
   0.21473345160484314,
   -2.2482683658599854,
   2.074843406677246,
   -0.3617582321166992,
   -1.179235577583313,
   3.6341187953948975
  ],
  [
   -0.44182851910591125,
   -2.378260374069214,
   0.19197644293308258,
   -3.266392707824707,
   -0.6597390174865723,
   -2.687708854675293
  ],
  [
   0.9144782423973083,
   0.28610464930534363,
   1.953395128250122,
   -1.6817888021469116,
   -1.1417784690856934,
   2.1745142936706543
  ],
  [
   -2.059741973876953,
   1.895453929901123,
   1.0926620960235596,
   -0.19521456956863403,
   5.063215732574463,
   -2.544593095779419
  ],
  [
   -0.3945309519767761,
   6.467769622802734,
   1.4228965044021606,
   4.190157413482666,
   0.9519292712211609,
   0.16841061413288116
  ],
  [
   -0.35255932807922363,
   -4.427087306976318,
   1.6001203060150146,
   -0.05790402367711067,
   0.651005208492279,
   -0.5274398326873779
  ],
  [
   0.08564276248216629,
   -2.929664134979248,
   -0.04168781638145447,
   -1.4352749586105347,
   -0.5751487016677856,
   2.5448336601257324
  ],
  [
   -2.1684656143188477,
   -3.800974130630493,
   -0.011230994015932083,
   -0.024093005806207657,
   -0.203931987285614,
   3.3405468463897705
  ],
  [
   -0.7269052863121033,
   -4.962812900543213,
   -0.27730846405029297,
   -2.13859486579895,
   -1.4437212944030762,
   0.04046833887696266
  ],
  [
   -1.1583369970321655,
   2.468543291091919,
   -2.3886427879333496,
   -0.5713483095169067,
   0.9700751304626465,
   2.0588552951812744
  ],
  [
   0.4032958447933197,
   1.0144480466842651,
   0.750333309173584,
   0.9896395206451416,
   0.9462741613388062,
   -3.9392969608306885
  ],
  [
   2.1714353561401367,
   0.8626033663749695,
   1.3959980010986328,
   -0.1222117692232132,
   2.222913980484009,
   -3.3714990615844727
  ],
  [
   -0.6108883023262024,
   -0.6673204898834229,
   1.0499969720840454,
   -0.5995514988899231,
   -4.243907451629639,
   -0.8576266765594482
  ],
  [
   -4.104281425476074,
   3.369584321975708,
   0.8875839710235596,
   0.6815457344055176,
   0.02822648547589779,
   0.8431463241577148
  ],
  [
   3.785890579223633,
   -1.7208532094955444,
   -2.8194286823272705,
   -1.2803961038589478,
   -1.36514413356781,
   1.8668731451034546
  ],
  [
   0.14156855642795563,
   0.37144672870635986,
   0.21606910228729248,
   0.07947410643100739,
   -1.0007197856903076,
   -3.8348374366760254
  ],
  [
   -1.4390778541564941,
   -0.9505944848060608,
   -1.4758483171463013,
   -3.406125068664551,
   -3.246767997741699,
   0.17720559239387512
  ],
  [
   0.2780877947807312,
   -4.198751449584961,
   -0.13095775246620178,
   -0.7443369626998901,
   2.190706491470337,
   0.8885562419891357
  ],
  [
   0.30508679151535034,
   2.628039836883545,
   -0.3619553744792938,
   0.5086764693260193,
   3.821284055709839,
   -2.037231206893921
  ]
 ],
 "pi.0.bias": [
  -0.5638871192932129,
  2.18980073928833,
  -2.467688798904419,
  2.3051388263702393,
  -2.0087175369262695,
  0.6556776165962219,
  1.9793673753738403,
  2.107099771499634,
  0.1990450769662857,
  0.47389310598373413,
  -0.1966736763715744,
  -1.3051501512527466,
  0.8234304189682007,
  -1.8976672887802124,
  -2.2379934787750244,
  0.2239927351474762,
  4.006635665893555,
  -3.765857696533203,
  -2.146256446838379,
  0.23599377274513245,
  -5.201033592224121,
  -2.932619571685791,
  -1.5862172842025757,
  -1.239730715751648,
  -6.390414714813232,
  -4.0505876541137695,
  -6.177738666534424,
  0.42919623851776123,
  -3.9897656440734863,
  -1.8085383176803589,
  -0.8057394027709961,
  -0.5784626007080078,
  0.10175015032291412,
  3.673616886138916,
  -3.4749667644500732,
  0.5480837225914001,
  -5.7745585441589355,
  2.2188968658447266,
  -1.1202266216278076,
  3.0950443744659424,
  -1.862341046333313,
  -2.2580347061157227,
  0.8956279754638672,
  -0.35659319162368774,
  3.305358648300171,
  1.5603519678115845,
  -1.3400768041610718,
  1.7246078252792358,
  -1.7250185012817383,
  2.8693931102752686
 ],
 "pi.2.weight": [
  [
   -4.9442219734191895,
   -1.1003071069717407,
   2.2643229961395264,
   5.729460716247559,
   -2.0342652797698975,
   3.470297336578369,
   0.5442075133323669,
   0.4536907970905304,
   -1.209652066230774,
   -0.8892679214477539,
   1.520188808441162,
   2.823254346847534,
   -0.772659182548523,
   -1.9952763319015503,
   -3.2672667503356934,
   1.0126549005508423,
   -0.502592146396637,
   -0.7622637152671814,
   3.7039170265197754,
   -0.5309005379676819,
   -4.51837158203125,
   -3.5294339656829834,
   -1.982967495918274,
   -2.6207363605499268,
   -0.7035860419273376,
   2.738349437713623,
   1.554649829864502,
   -3.3280723094940186,
   0.171429842710495,
   2.606074333190918,
   5.319408416748047,
   3.9547319412231445,
   1.0422793626785278,
   -0.9071313142776489,
   4.44201135635376,
   1.9301702976226807,
   1.3276526927947998,
   -3.9604251384735107,
   3.6506917476654053,
   -2.3273539543151855,
   1.4585328102111816,
   2.3666961193084717,
   -0.11414872109889984,
   1.1046963930130005,
   0.2790057957172394,
   1.8307592868804932,
   3.445673704147339,
   1.9563100337982178,
   -3.67543888092041,
   -0.9475871920585632
  ],
  [
   -0.5486147999763489,
   2.2381393909454346,
   -2.9824066162109375,
   2.4355337619781494,
   -3.2481558322906494,
   -2.148916721343994,
   -2.1707868576049805,
   0.8925156593322754,
   -1.8768999576568604,
   1.5021305084228516,
   -0.7814019918441772,
   2.8583061695098877,
   3.11509108543396,
   6.3671064376831055,
   -3.27756404876709,
   -2.0777056217193604,
   -3.4581375122070312,
   -0.9775038361549377,
   0.5071608424186707,
   0.5004292726516724,
   -2.668947696685791,
   -3.6995437145233154,
   -1.3397403955459595,
   5.173542022705078,
   2.118112325668335,
   1.6851392984390259,
   3.627741575241089,
   -3.695448160171509,
   3.5034422874450684,
   0.5440368056297302,
   1.0395797491073608,
   1.102079153060913,
   0.07767539471387863,
   -0.6175963282585144,
   6.75389289855957,
   4.754990577697754,
   -1.5447289943695068,
   -2.8965954780578613,
   0.8987939357757568,
   0.6561450958251953,
   -1.4611082077026367,
   -1.4426374435424805,
   1.9811015129089355,
   0.42432349920272827,
   0.41202038526535034,
   0.3557586669921875,
   1.0579458475112915,
   1.900480031967163,
   -2.824754238128662,
   -1.661490797996521
  ],
  [
   -3.164384603500366,
   1.1552659273147583,
   4.072195053100586,
   -0.4020930230617523,
   0.4595632255077362,
   1.6156245470046997,
   1.0936548709869385,
   0.7592248320579529,
   -0.19348977506160736,
   2.538142681121826,
   0.6044727563858032,
   -0.2187642604112625,
   1.6125175952911377,
   3.015859365463257,
   -0.8219327330589294,
   0.8972592949867249,
   -1.2821041345596313,
   -2.4752118587493896,
   5.686002254486084,
   1.4054089784622192,
   -4.340420722961426,
   3.641979694366455,
   -2.294708490371704,
   2.231196165084839,
   -2.0199809074401855,
   -0.5877101421356201,
   3.2807347774505615,
   -0.2433851808309555,
   4.925837993621826,
   2.510765790939331,
   3.42878794670105,
   2.7166194915771484,
   0.5709841251373291,
   0.3301379084587097,
   0.21564431488513947,
   1.7965363264083862,
   -1.5359461307525635,
   -2.802711248397827,
   1.7732276916503906,
   -4.438644886016846,
   0.9650679230690002,
   1.622373104095459,
   -1.0701302289962769,
   -1.6838960647583008,
   -1.2025501728057861,
   3.3391647338867188,
   2.450453758239746,
   -0.3154503107070923,
   -3.9174153804779053,
   -2.1461381912231445
  ],
  [
   3.3328089714050293,
   0.3465181291103363,
   4.28212308883667,
   -2.0277740955352783,
   -1.916019082069397,
   -1.8475892543792725,
   3.8058228492736816,
   -0.9187636971473694,
   -3.545966386795044,
   0.4168109893798828,
   -1.8677626848220825,
   2.2007384300231934,
   0.739255428314209,
   0.8087257742881775,
   0.8813316822052002,
   -1.2340058088302612,
   -0.8776684403419495,
   -4.158538818359375,
   3.491161584854126,
   3.6721994876861572,
   -2.702972650527954,
   2.265068769454956,
   -0.688506007194519,
   4.297364711761475,
   -3.298529624938965,
   4.575332164764404,
   -2.0781943798065186,
   -0.25826695561408997,
   -4.573925971984863,
   3.0414867401123047,
   2.0272436141967773,
   1.5012104511260986,
   1.7483346462249756,
   -3.2450101375579834,
   3.26543927192688,
   -0.6835536360740662,
   -5.8038787841796875,
   0.2165556252002716,
   0.8535318374633789,
   -1.5489673614501953,
   -1.4826980829238892,
   1.417109489440918,
   2.9274861812591553,
   -0.4316607415676117,
   0.14126372337341309,
   0.9864997863769531,
   1.7953453063964844,
   2.2659502029418945,
   -5.337413787841797,
   0.22647732496261597
  ],
  [
   -5.30540132522583,
   -1.112107276916504,
   0.6779858469963074,
   -0.02241690456867218,
   -2.0328941345214844,
   -0.2803657352924347,
   0.2987257242202759,
   -2.870514154434204,
   0.8212299346923828,
   2.3554821014404297,
   0.13389693200588226,
   1.9261388778686523,
   -0.5766410231590271,
   -0.378901869058609,
   -3.8671610355377197,
   1.2739516496658325,
   -1.5809932947158813,
   -4.460012435913086,
   2.4076714515686035,
   0.041565507650375366,
   2.1634111404418945,
   2.8872897624969482,
   -0.5956600308418274,
   -0.9669430255889893,
   -2.5925304889678955,
   0.8713065385818481,
   -2.3533248901367188,
   1.6795639991760254,
   1.8665045499801636,
   2.667151927947998,
   3.1090128421783447,
   1.294772744178772,
   0.08637828379869461,
   1.2379993200302124,
   -1.3003966808319092,
   0.6031228303909302,
   -1.5717637538909912,
   -1.0595672130584717,
   -0.516154408454895,
   -1.3199737071990967,
   1.9321082830429077,
   3.40730881690979,
   1.3394806385040283,
   0.3389420807361603,
   -4.268628120422363,
   1.8738428354263306,
   -1.1956205368041992,
   1.4699535369873047,
   2.895606756210327,
   -0.9891712069511414
  ],
  [
   -0.4471440315246582,
   -0.5762529373168945,
   -2.377274513244629,
   -1.7653260231018066,
   -1.5145676136016846,
   -0.5197548866271973,
   -2.926743745803833,
   0.39614516496658325,
   -0.46759751439094543,
   4.4511919021606445,
   1.941986083984375,
   1.7952864170074463,
   3.0382003784179688,
   -0.4527347683906555,
   3.0443313121795654,
   -1.8596837520599365,
   -1.2426050901412964,
   0.37693944573402405,
   -0.508127748966217,
   1.8974456787109375,
   0.3417903482913971,
   -1.6505337953567505,
   3.175600290298462,
   0.6050969958305359,
   -1.6122486591339111,
   -0.5239443182945251,
   6.224369049072266,
   -0.6627885699272156,
   -0.08114233613014221,
   2.3132824897766113,
   1.3600801229476929,
   -0.8928757309913635,
   3.7062294483184814,
   -1.7519265413284302,
   -1.4010831117630005,
   1.7191513776779175,
   1.3640393018722534,
   0.7419931888580322,
   -2.30819034576416,
   0.33621928095817566,
   1.7991725206375122,
   -3.3623738288879395,
   2.757662773132324,
   -4.230786323547363,
   -1.821389079093933,
   -0.5796775221824646,
   -5.035301208496094,
   0.8442675471305847,
   -2.287654399871826,
   -3.613645076751709
  ]
 ],
 "pi.2.bias": [
  0.39748844504356384,
  0.06962323188781738,
  -0.26281633973121643,
  -0.7003781199455261,
  -0.8356125950813293,
  -2.533200263977051
 ]
}