{
 "pi.0.weight": [
  [
   0.31696391105651855,
   0.2911476194858551,
   -1.023964285850525
  ],
  [
   -2.0050525665283203,
   0.17557711899280548,
   0.5459369421005249
  ],
  [
   1.9326345920562744,
   5.854593276977539,
   -4.5293660163879395
  ],
  [
   -1.268851399421692,
   0.05391635000705719,
   -8.852280616760254
  ],
  [
   -1.4330825805664062,
   0.11855341494083405,
   -0.16532668471336365
  ],
  [
   -3.4446804523468018,
   4.2112250328063965,
   -1.158361792564392
  ],
  [
   -0.644452691078186,
   -0.810580849647522,
   0.7782267332077026
  ],
  [
   1.1799427270889282,
   -0.841938853263855,
   0.2167014181613922
  ],
  [
   4.1992950439453125,
   0.6470263004302979,
   7.748016834259033
  ],
  [
   -1.8313403129577637,
   -0.080588698387146,
   0.04833759367465973
  ],
  [
   -22.84996795654297,
   -1.3160628080368042,
   0.28042447566986084
  ],
  [
   -10.536828994750977,
   0.6748941540718079,
   1.5599761009216309
  ],
  [
   -1.936684012413025,
   4.1669921875,
   4.304132461547852
  ],
  [
   2.431335687637329,
   -7.229375839233398,
   -4.2026448249816895
  ],
  [
   -1.7108122110366821,
   -0.13064613938331604,
   -2.069061040878296
  ],
  [
   0.24755989015102386,
   8.32148551940918,
   1.5954036712646484
  ],
  [
   -1.5831769704818726,
   4.1234846115112305,
   1.6046196222305298
  ],
  [
   3.8243680000305176,
   -0.0666637271642685,
   -3.2844080924987793
  ],
  [
   -0.1859329640865326,
   -0.3466147780418396,
   -0.6031834483146667
  ],
  [
   -2.409916877746582,
   0.07146047055721283,
   0.09008947759866714
  ],
  [
   0.9826672673225403,
   0.6545855402946472,
   -2.6348817348480225
  ],
  [
   -1.1264369487762451,
   -4.9589643478393555,
   -3.0632591247558594
  ],
  [
   -1.0857411623001099,
   0.9606699347496033,
   -1.2901580333709717
  ],
  [
   2.3728036880493164,
   5.025461673736572,
   -0.9221380949020386
  ],
  [
   4.770000457763672,
   -12.051093101501465,
   -0.8449473977088928
  ],
  [
   -0.7814907431602478,
   -1.8410866260528564,
   -2.352583646774292
  ],
  [
   1.0175106525421143,
   -0.03937522694468498,
   -0.4363766014575958
  ],
  [
   1.0330520868301392,
   1.3245291709899902,
   -0.38969504833221436
  ],
  [
   -0.7395145893096924,
   0.025253901258111,
   -2.4236903190612793
  ],
  [
   -7.6134843826293945,
   -0.3638016879558563,
   0.568907618522644
  ],
  [
   -19.437585830688477,
   -9.972183227539062,
   0.03812094405293465
  ],
  [
   -0.1649588644504547,
   -6.641280651092529,
   -2.666846990585327
  ],
  [
   0.14570167660713196,
   -0.022987350821495056,
   -0.9432640075683594
  ],
  [
   -3.435357093811035,
   1.3552050590515137,
   2.1416361331939697
  ],
  [
   -4.825274467468262,
   0.11564230918884277,
   -0.1288154572248459
  ],
  [
   -1.5426950454711914,
   -0.058688320219516754,
   -8.269774436950684
  ],
  [
   -0.6439318656921387,
   1.0299665927886963,
   -1.9549518823623657
  ],
  [
   -0.2414618581533432,
   -2.45540189743042,
   0.38772761821746826
  ],
  [
   -6.775695323944092,
   0.13751477003097534,
   -1.464830994606018
  ],
  [
   -2.474414587020874,
   -9.112713813781738,
   -0.05988423526287079
  ],
  [
   0.3563709855079651,
   -0.027956051751971245,
   -1.017556071281433
  ],
  [
   4.555454730987549,
   0.3735296130180359,
   -4.095014572143555
  ],
  [
   -17.887693405151367,
   -0.8188834190368652,
   -0.08430617302656174
  ],
  [
   -1.3506523370742798,
   -0.22089681029319763,
   0.024111520498991013
  ],
  [
   -2.4000251293182373,
   0.07326318323612213,
   0.35688161849975586
  ],
  [
   -1.243226170539856,
   -0.13334135711193085,
   -4.781949996948242
  ],
  [
   1.5094622373580933,
   -0.014485419727861881,
   5.128077030181885
  ],
  [
   2.846278190612793,
   -2.3250505924224854,
   -2.953625440597534
  ],
  [
   0.1293318122625351,
   0.7957013845443726,
   7.209272861480713
  ],
  [
   0.9879462122917175,
   0.229795441031456,
   -4.039175033569336
  ]
 ],
 "pi.0.bias": [
  -1.7900991439819336,
  0.19840805232524872,
  -6.567140102386475,
  -2.5712852478027344,
  1.096567988395691,
  -1.3475409746170044,
  1.3764889240264893,
  -1.5147390365600586,
  0.5213717818260193,
  0.19283117353916168,
  0.160171777009964,
  3.6298818588256836,
  -0.40717968344688416,
  -5.992299556732178,
  4.4577860832214355,
  0.3327890634536743,
  -1.6524996757507324,
  -2.5831243991851807,
  -1.682607889175415,
  0.19483855366706848,
  1.2007421255111694,
  2.0616455078125,
  3.6178808212280273,
  -2.288038969039917,
  0.24179169535636902,
  1.5313152074813843,
  -1.9463322162628174,
  -0.9377884268760681,
  2.2335147857666016,
  -0.11686258763074875,
  1.9168553352355957,
  -2.8710620403289795,
  -0.32532694935798645,
  1.951223611831665,
  2.2314717769622803,
  -0.6859620213508606,
  2.7478621006011963,
  3.3393173217773438,
  -2.4113314151763916,
  1.6243741512298584,
  -0.013446499593555927,
  -0.6173059940338135,
  1.0773380994796753,
  0.3953389525413513,
  -0.39044544100761414,
  1.3183493614196777,
  -1.500230312347412,
  -5.432476043701172,
  2.6036295890808105,
  1.412593126296997
 ],
 "pi.2.weight": [
  [
   0.3906218111515045,
   0.6378058791160583,
   -0.9788305163383484,
   2.6522738933563232,
   -0.6130707263946533,
   3.5411319732666016,
   -0.4170919954776764,
   -0.32543402910232544,
   -0.3346463143825531,
   0.4703960418701172,
   5.75589656829834,
   8.800539016723633,
   -2.2557373046875,
   1.256258249282837,
   -0.3252057433128357,
   4.206896781921387,
   5.836777687072754,
   1.417711615562439,
   -0.2511722445487976,
   1.0855696201324463,
   -0.3034508526325226,
   0.5065938830375671,
   -0.7105590105056763,
   2.571559190750122,
   -0.9705608487129211,
   -1.658759355545044,
   0.14231179654598236,
   0.832841694355011,
   -0.6342008113861084,
   10.30066967010498,
   3.5434107780456543,
   0.8692041635513306,
   -0.5288611650466919,
   1.8915408849716187,
   3.132516384124756,
   2.571164846420288,
   -1.184910774230957,
   0.0021880301646888256,
   1.0235300064086914,
   -0.8804331421852112,
   -0.361176997423172,
   0.45595306158065796,
   8.133659362792969,
   -0.084483303129673,
   1.171963095664978,
   4.247281551361084,
   -0.26157480478286743,
   1.835572600364685,
   -0.3963104486465454,
   3.4156742095947266
  ],
  [
   0.235391303896904,
   3.27449631690979,
   0.2911584675312042,
   3.4994359016418457,
   0.889936089515686,
   4.644249439239502,
   1.0541634559631348,
   -0.31297793984413147,
   -0.03987039998173714,
   1.5621817111968994,
   6.534469127655029,
   4.403202533721924,
   6.2181925773620605,
   -2.3737030029296875,
   3.0000057220458984,
   1.091516137123108,
   3.210610866546631,
   -0.2014758139848709,
   -0.6559781432151794,
   2.715890884399414,
   -0.6028388738632202,
   -1.9567822217941284,
   0.5070589780807495,
   2.0123770236968994,
   -0.2503810226917267,
   -1.539621114730835,
   0.30483826994895935,
   1.3720407485961914,
   0.008275756612420082,
   1.8619418144226074,
   3.634321451187134,
   -2.3541736602783203,
   -0.03530097007751465,
   4.99224853515625,
   2.9202661514282227,
   3.880666494369507,
   0.47024792432785034,
   -0.4400523602962494,
   2.025275230407715,
   -0.30166664719581604,
   -0.01411452516913414,
   -0.5494115352630615,
   4.114969253540039,
   1.1137093305587769,
   1.7747184038162231,
   1.630541443824768,
   0.05859561637043953,
   -1.2557332515716553,
   0.14606118202209473,
   3.9366695880889893
  ],
  [
   -0.0879892110824585,
   0.3050019443035126,
   -1.2691757678985596,
   2.1257026195526123,
   -0.27080708742141724,
   -0.5050089955329895,
   0.1929643750190735,
   0.7643482685089111,
   -1.2364667654037476,
   0.02423809841275215,
   -2.2820849418640137,
   0.06421506404876709,
   1.0098854303359985,
   -2.1333835124969482,
   -0.21387818455696106,
   1.2550500631332397,
   -0.3751686215400696,
   0.2349092960357666,
   -0.1767382025718689,
   0.18938468396663666,
   -0.21556951105594635,
   -0.4050809442996979,
   -0.7838811874389648,
   -0.08334050327539444,
   -0.01829345151782036,
   -1.0431575775146484,
   0.36993902921676636,
   -0.28959324955940247,
   -1.3800067901611328,
   -0.3519415855407715,
   -4.724662780761719,
   -2.3221981525421143,
   -0.6644542217254639,
   0.435680091381073,
   -0.5704361200332642,
   1.7737998962402344,
   -0.6764399409294128,
   0.900295615196228,
   -1.9005945920944214,
   -0.3428031802177429,
   -0.7458034157752991,
   0.8039634227752686,
   -1.6000747680664062,
   0.19563913345336914,
   0.6386651396751404,
   1.129420280456543,
   -0.9480243921279907,
   0.45032498240470886,
   -1.4756284952163696,
   0.4965212047100067
  ],
  [
   -0.7797349691390991,
   0.7036771178245544,
   0.6357229948043823,
   -2.2000954151153564,
   0.16378463804721832,
   -0.2614884674549103,
   0.1404094398021698,
   -0.283952534198761,
   0.042384810745716095,
   -0.42056167125701904,
   -1.2468507289886475,
   0.5495323538780212,
   0.854590654373169,
   -1.6843477487564087,
   -0.8725598454475403,
   1.2430250644683838,
   0.2492641657590866,
   -1.9131596088409424,
   -0.6654374599456787,
   -0.022686678916215897,
   -0.04359399899840355,
   -1.0871922969818115,
   0.2516438066959381,
   -0.6781261563301086,
   -0.4936818480491638,
   -0.5732106566429138,
   -0.15190356969833374,
   0.6386900544166565,
   0.13812322914600372,
   -0.7341979146003723,
   -0.005422713700681925,
   -0.5021007061004639,
   0.061755795031785965,
   0.18138588964939117,
   -0.05041337385773659,
   -0.4347129464149475,
   -0.6916480660438538,
   0.16289371252059937,
   -2.119217872619629,
   -0.5108066201210022,
   -0.21597932279109955,
   -0.5191861987113953,
   0.1520940214395523,
   -0.28432589769363403,
   -0.27069351077079773,
   -1.2514742612838745,
   -0.29416680335998535,
   -1.6984224319458008,
   0.33840373158454895,
   -0.14500807225704193
  ],
  [
   -1.8360021114349365,
   -0.5522333979606628,
   -5.630314826965332,
   -0.1811290979385376,
   -0.2606651782989502,
   -5.971803665161133,
   -0.1743563711643219,
   0.24014617502689362,
   -2.3103582859039307,
   0.22677066922187805,
   -10.09717082977295,
   -5.048746585845947,
   -4.91017484664917,
   -0.27919989824295044,
   -0.9458850026130676,
   -1.2526919841766357,
   -2.0501296520233154,
   -0.4200853705406189,
   0.02786519005894661,
   0.1651482731103897,
   -0.12420060485601425,
   0.33241304755210876,
   -0.2430834174156189,
   -10.697674751281738,
   0.4055010974407196,
   2.376600503921509,
   0.48370370268821716,
   -3.0633740425109863,
   0.19878779351711273,
   0.7614217400550842,
   -0.09648257493972778,
   0.14965814352035522,
   0.33569031953811646,
   -0.3510914146900177,
   0.0667339339852333,
   -0.4868759512901306,
   -0.2710701823234558,
   0.3282507658004761,
   3.2339959144592285,
   0.01218974869698286,
   0.11511842906475067,
   -0.4119623601436615,
   -5.639786243438721,
   -0.016377322375774384,
   -0.09219033271074295,
   0.35900405049324036,
   -0.34436750411987305,
   1.21387779712677,
   -0.816016674041748,
   -0.791037380695343
  ],
  [
   -0.685290515422821,
   -1.0015852451324463,
   0.695765495300293,
   2.062575578689575,
   0.022934066131711006,
   -1.5435874462127686,
   -0.212381973862648,
   1.0105397701263428,
   -6.31682825088501,
   -0.13075774908065796,
   -11.864583969116211,
   -4.278158187866211,
   -3.7594785690307617,
   -5.382787227630615,
   1.789942979812622,
   3.153421401977539,
   -0.29979467391967773,
   1.126977562904358,
   0.09254223853349686,
   -0.43326693773269653,
   1.6977349519729614,
   1.9776825904846191,
   0.6127137541770935,
   0.0806901752948761,
   1.935436725616455,
   3.0435919761657715,
   0.12722724676132202,
   -0.09108889102935791,
   1.26771080493927,
   -2.018911361694336,
   -19.749624252319336,
   -3.6124064922332764,
   0.32013267278671265,
   -2.3638033866882324,
   0.4922722578048706,
   2.424135446548462,
   0.9431467652320862,
   1.5007144212722778,
   -3.440523624420166,
   -4.686341762542725,
   0.3697151839733124,
   1.9440444707870483,
   -6.992691516876221,
   -0.15390628576278687,
   -0.023307090625166893,
   1.7465181350708008,
   -5.20102071762085,
   -1.965421438217163,
   -3.9432313442230225,
   2.1936206817626953
  ],
  [
   -0.8616223335266113,
   -0.1360650509595871,
   0.8069835901260376,
   0.26428312063217163,
   -0.3357762098312378,
   -0.11654956638813019,
   -0.6221174001693726,
   -0.7095306515693665,
   -1.4037891626358032,
   -0.6325954794883728,
   -0.3199799060821533,
   -0.5330078601837158,
   -0.054231129586696625,
   0.11185209453105927,
   0.014288702048361301,
   0.7527624368667603,
   -0.9170233607292175,
   -0.4935556650161743,
   -0.608411431312561,
   -0.5583596229553223,
   -0.2536272406578064,
   -0.39015552401542664,
   -0.35528215765953064,
   -0.5127633810043335,
   -1.3654654026031494,
   0.8419730067253113,
   -0.014974732883274555,
   -0.06548887491226196,
   -0.21748855710029602,
   -0.274399995803833,
   -0.7932189702987671,
   -1.3115785121917725,
   -0.004335780628025532,
   -0.6975972652435303,
   -0.6625175476074219,
   -0.14826488494873047,
   -0.441200852394104,
   -0.4806433916091919,
   3.7366421222686768,
   -0.9035191535949707,
   -0.11178691685199738,
   -0.057774730026721954,
   -0.5484695434570312,
   -0.7831546068191528,
   -0.37248697876930237,
   -0.2972320318222046,
   -2.0456156730651855,
   -0.11722122877836227,
   -0.8449618816375732,
   -0.14314432442188263
  ],
  [
   -0.5987682342529297,
   -0.784595787525177,
   -1.0818833112716675,
   -1.3543652296066284,
   -0.9646958112716675,
   0.10991758108139038,
   -0.3539065420627594,
   0.12571027874946594,
   -0.13232240080833435,
   -0.9026089310646057,
   -4.207956314086914,
   -0.02011515013873577,
   -0.7799304723739624,
   -1.468880295753479,
   -0.9562769532203674,
   4.118690013885498,
   -1.1329396963119507,
   -0.9462666511535645,
   -0.356270968914032,
   -0.8714170455932617,
   0.03148258849978447,
   -0.41983160376548767,
   -0.5865291953086853,
   -0.2691498398780823,
   0.28563565015792847,
   -0.3620316684246063,
   0.6796501874923706,
   0.12348000705242157,
   0.10439561307430267,
   0.40151065587997437,
   0.3301370441913605,
   -0.7967861294746399,
   -0.1799013316631317,
   -0.6460363268852234,
   -0.3205808997154236,
   -2.8678905963897705,
   -0.2813774347305298,
   0.2758263945579529,
   1.094822645187378,
   0.8940195441246033,
   0.009288487955927849,
   -2.605023145675659,
   -1.4614768028259277,
   -0.5106950402259827,
   -0.5544707179069519,
   0.2643934190273285,
   -0.34813693165779114,
   -2.76153564453125,
   -0.11978334933519363,
   0.24513013660907745
  ],
  [
   -0.3302799165248871,
   -0.7727895379066467,
   -0.9611021280288696,
   0.41554176807403564,
   -0.2602246105670929,
   -0.600856363773346,
   0.06853694468736649,
   1.140080451965332,
   -0.6342060565948486,
   0.0957566425204277,
   -0.2637642025947571,
   -1.6677050590515137,
   -1.645591139793396,
   -0.1066819578409195,
   0.024127360433340073,
   -1.1896147727966309,
   0.35529351234436035,
   0.2573939859867096,
   0.7962723970413208,
   -0.2876706123352051,
   -0.606372058391571,
   0.9479494690895081,
   -0.34558406472206116,
   -0.048022106289863586,
   -0.1378982961177826,
   -0.8318384289741516,
   -0.15223325788974762,
   -0.18356630206108093,
   -0.42007961869239807,
   1.8929675817489624,
   0.24383848905563354,
   0.3720138967037201,
   -0.31397584080696106,
   -1.997764229774475,
   -0.5103198885917664,
   0.023640604689717293,
   -0.4736190438270569,
   -0.28892359137535095,
   -1.3417338132858276,
   0.12646640837192535,
   -0.49344632029533386,
   -0.9956129193305969,
   0.6188470721244812,
   0.2372223436832428,
   -0.2663109004497528,
   0.1921040117740631,
   -0.026247534900903702,
   0.8990979790687561,
   -1.0140904188156128,
   -0.278338760137558
  ],
  [
   -1.1139302253723145,
   -1.0393550395965576,
   1.3186769485473633,
   -3.135915517807007,
   -0.10714405030012131,
   -0.42528241872787476,
   0.4615594744682312,
   1.1094027757644653,
   -0.027690749615430832,
   -1.5675222873687744,
   -2.966163158416748,
   -8.125052452087402,
   1.543592929840088,
   -2.7369656562805176,
   -0.27948707342147827,
   1.60348641872406,
   -1.3947352170944214,
   -2.2797963619232178,
   0.7288380861282349,
   -2.855985403060913,
   -0.6996840238571167,
   -5.811682224273682,
   0.9129701852798462,
   -0.14762525260448456,
   -0.8688302040100098,
   -2.9065639972686768,
   -1.085309386253357,
   0.15232791006565094,
   0.17390908300876617,
   -5.118702411651611,
   -2.4942526817321777,
   -5.355377674102783,
   -0.8984648585319519,
   -1.8101155757904053,
   -7.250704765319824,
   -3.9281954765319824,
   0.9019545912742615,
   -0.04826206713914871,
   -0.18139152228832245,
   1.5545365810394287,
   -0.8937541842460632,
   -0.7102482914924622,
   -1.5060009956359863,
   -0.578620195388794,
   -3.012538433074951,
   -1.1504837274551392,
   -0.46538498997688293,
   -1.4183318614959717,
   -0.032517362385988235,
   0.22404581308364868
  ],
  [
   -1.4079164266586304,
   -1.4394123554229736,
   -2.5025153160095215,
   -2.735182046890259,
   -1.0690958499908447,
   -0.8519752025604248,
   -0.820056140422821,
   -0.08369789272546768,
   -0.2742818593978882,
   -1.1254509687423706,
   -5.808030605316162,
   -7.681524753570557,
   -3.0757110118865967,
   0.1400538980960846,
   -9.00843620300293,
   -0.989593505859375,
   -0.13481073081493378,
   -1.2833412885665894,
   -0.4737268388271332,
   -0.8490512371063232,
   -0.16721151769161224,
   -2.869467258453369,
   -0.5265970826148987,
   -2.3038063049316406,
   -0.07947995513677597,
   -2.0077576637268066,
   -0.28177914023399353,
   -0.18694134056568146,
   -1.0546107292175293,
   -3.0221211910247803,
   -8.532166481018066,
   -0.4246654808521271,
   -0.5400528907775879,
   -1.1091737747192383,
   -0.255484014749527,
   -4.40197229385376,
   -0.5072105526924133,
   -0.866477906703949,
   -0.08305864036083221,
   -0.22936952114105225,
   -0.6570646166801453,
   -2.9097561836242676,
   -6.4974517822265625,
   -1.115635633468628,
   -1.0385006666183472,
   -2.119058609008789,
   -0.1487625688314438,
   -2.286867141723633,
   -0.40222159028053284,
   -2.354973077774048
  ],
  [
   -0.1062086671590805,
   -1.0802866220474243,
   0.6301974058151245,
   0.09045137465000153,
   -1.0061453580856323,
   -0.29596176743507385,
   -0.8732603192329407,
   0.17697900533676147,
   -0.7055093050003052,
   -1.2188279628753662,
   -1.501982569694519,
   -0.31016743183135986,
   -3.9355297088623047,
   1.7959250211715698,
   -0.4354546070098877,
   -0.11460774391889572,
   -1.4094865322113037,
   0.7224688529968262,
   0.14099910855293274,
   -1.1676067113876343,
   0.27706199884414673,
   -0.3710361123085022,
   -0.39771661162376404,
   -0.15738004446029663,
   0.2883110046386719,
   0.6828256249427795,
   1.5413939952850342,
   0.8874436020851135,
   -0.04108665511012077,
   -0.9167318344116211,
   -0.7545936703681946,
   -1.5707638263702393,
   0.5090588331222534,
   -1.2928701639175415,
   -0.9170352220535278,
   -0.1737632155418396,
   -0.35952264070510864,
   -0.6016930341720581,
   1.0906875133514404,
   -0.5961580872535706,
   0.5339984893798828,
   1.0238919258117676,
   -1.4479892253875732,
   -0.8028199672698975,
   -0.8665523529052734,
   -0.2734532654285431,
   -0.07619192451238632,
   0.9876006245613098,
   -0.3405386805534363,
   -0.20383113622665405
  ],
  [
   0.7481020092964172,
   0.3208999037742615,
   -0.887518584728241,
   2.576798439025879,
   0.14209353923797607,
   1.954102873802185,
   0.20961721241474152,
   -0.4691668748855591,
   -0.22313432395458221,
   -0.052444133907556534,
   6.978701114654541,
   0.8445490002632141,
   2.659167528152466,
   -0.758435070514679,
   4.310230731964111,
   0.7885997891426086,
   1.6421549320220947,
   0.41853928565979004,
   -0.20814846456050873,
   -0.33548417687416077,
   1.1580336093902588,
   0.22079619765281677,
   -0.017854832112789154,
   -0.061329927295446396,
   -0.6987174153327942,
   -0.7455114722251892,
   0.0704989805817604,
   0.5921128392219543,
   1.098192572593689,
   0.015262123197317123,
   -0.08350903540849686,
   -3.4693450927734375,
   0.0797969251871109,
   1.8416110277175903,
   -2.3463845252990723,
   3.343524932861328,
   0.8101245760917664,
   -0.3615545332431793,
   0.7991778254508972,
   0.4676714241504669,
   0.02809874899685383,
   4.219965934753418,
   5.5139479637146,
   0.1507624387741089,
   -0.19723762571811676,
   2.5790865421295166,
   -0.17024871706962585,
   4.540256023406982,
   -0.16962802410125732,
   1.5037686824798584
  ],
  [
   -1.1527832746505737,
   -1.0696210861206055,
   -0.2932162582874298,
   0.07494359463453293,
   -0.7675596475601196,
   -2.065154790878296,
   -0.10773906856775284,
   0.1649828404188156,
   0.1296394169330597,
   -1.9006367921829224,
   -1.2990978956222534,
   -3.8710391521453857,
   2.7199642658233643,
   -4.148305416107178,
   -1.7347524166107178,
   -3.3370378017425537,
   -5.094820976257324,
   -1.6607462167739868,
   -0.39841970801353455,
   -2.548154830932617,
   -1.3381975889205933,
   -3.0803728103637695,
   -0.6821808218955994,
   -3.4115617275238037,
   -0.442169189453125,
   -1.9523741006851196,
   0.12171708792448044,
   0.32449206709861755,
   -0.7448464035987854,
   -2.9444265365600586,
   -4.27117395401001,
   -6.000358581542969,
   0.01841980591416359,
   -2.7468576431274414,
   -3.035065174102783,
   0.9632787108421326,
   -1.8310538530349731,
   0.20596913993358612,
   -1.3790010213851929,
   0.6302796602249146,
   0.018142612650990486,
   -2.003390073776245,
   0.08413755148649216,
   -0.9588161110877991,
   -2.373584747314453,
   -0.9712948799133301,
   -0.2645714581012726,
   -3.3489294052124023,
   0.2741295099258423,
   -1.1649072170257568
  ],
  [
   1.6449743509292603,
   -2.9066672325134277,
   1.2678457498550415,
   -3.854749917984009,
   -5.012019157409668,
   1.1962056159973145,
   -5.857330322265625,
   -1.3887712955474854,
   -0.5573893785476685,
   -6.582117080688477,
   0.5508754849433899,
   -1.4531782865524292,
   0.5146271586418152,
   -1.407551646232605,
   -6.4844231605529785,
   2.035186767578125,
   -0.5515012145042419,
   -2.945193290710449,
   -1.9232221841812134,
   -7.0419111251831055,
   -3.3865087032318115,
   -4.470645427703857,
   -2.9075686931610107,
   1.41655433177948,
   0.8151611685752869,
   -3.572775363922119,
   2.8841474056243896,
   2.5436789989471436,
   -3.6195802688598633,
   -3.139601230621338,
   -1.4414578676223755,
   -4.13419771194458,
   1.5253034830093384,
   1.9007787704467773,
   -3.187490224838257,
   -4.329824447631836,
   -1.5211111307144165,
   -2.44057297706604,
   -0.3178253471851349,
   -5.0244221687316895,
   2.009561777114868,
   -0.6912976503372192,
   -2.020198345184326,
   -5.510080337524414,
   -6.132155895233154,
   -5.914134979248047,
   -2.2896037101745605,
   1.8703144788742065,
   -0.6900526881217957,
   -3.5319619178771973
  ],
  [
   -0.4977833926677704,
   -0.13681556284427643,
   -0.3759991228580475,
   0.23056310415267944,
   -0.10765994340181351,
   0.016232265159487724,
   -0.3134390711784363,
   -0.6455622315406799,
   -1.184794306755066,
   -0.3584366738796234,
   -0.9220693111419678,
   -0.4104505181312561,
   0.5600478053092957,
   -0.6350300312042236,
   0.106999471783638,
   0.0191400907933712,
   -0.8754923343658447,
   0.3731449246406555,
   -0.09261349588632584,
   -0.010583781637251377,
   0.34548133611679077,
   0.2954469323158264,
   0.0646638497710228,
   0.009151586331427097,
   -1.051863670349121,
   1.3839772939682007,
   0.10940293967723846,
   0.34371739625930786,
   0.10542165488004684,
   0.06483250111341476,
   -0.18863049149513245,
   -0.9588501453399658,
   0.3983685374259949,
   -0.8802769780158997,
   -0.10916628688573837,
   0.22544769942760468,
   -0.0022369835060089827,
   0.27466127276420593,
   2.450073480606079,
   -0.755158543586731,
   0.2364732027053833,
   0.2625046670436859,
   -0.17245788872241974,
   -0.36805322766304016,
   -0.4901970326900482,
   0.11861345171928406,
   -1.3091531991958618,
   -1.4791187047958374,
   0.663787305355072,
   0.23405730724334717
  ],
  [
   -1.2338829040527344,
   -1.428542137145996,
   -1.4872273206710815,
   0.07302874326705933,
   -2.2506093978881836,
   0.03430231660604477,
   -2.74950909614563,
   0.22131724655628204,
   -0.38431617617607117,
   -2.5048091411590576,
   -2.3865437507629395,
   -1.945970892906189,
   0.567551851272583,
   -2.7329273223876953,
   -0.9178885221481323,
   0.1103091910481453,
   -1.5273584127426147,
   -3.2836639881134033,
   -0.0974375382065773,
   -2.3746893405914307,
   -2.5964794158935547,
   -1.454847812652588,
   -1.9534276723861694,
   -1.5643805265426636,
   -0.04967760667204857,
   0.8568688631057739,
   1.410449743270874,
   0.226987823843956,
   0.17353475093841553,
   -0.5168637037277222,
   -1.1297706365585327,
   -2.840167760848999,
   0.686675488948822,
   -1.6805329322814941,
   -1.527411699295044,
   0.8093513250350952,
   -2.94407057762146,
   -0.8018496632575989,
   4.846188545227051,
   -1.7762500047683716,
   0.40310099720954895,
   -0.8421037197113037,
   -1.13453209400177,
   -2.3409180641174316,
   -2.332106113433838,
   -1.5494412183761597,
   -1.6827095746994019,
   -2.415964126586914,
   -1.774477243423462,
   0.18973931670188904
  ],
  [
   -1.3915822505950928,
   -0.9533144235610962,
   -0.20998620986938477,
   -0.12269441038370132,
   -1.0038421154022217,
   -1.326796531677246,
   0.11857753992080688,
   0.7052784562110901,
   0.704902708530426,
   -1.1777974367141724,
   -3.539625406265259,
   -6.6345415115356445,
   4.770227432250977,
   -5.63631534576416,
   -0.5538665056228638,
   -3.880089521408081,
   -5.594560623168945,
   -1.7559335231781006,
   -0.41490599513053894,
   -1.9292219877243042,
   -2.179054021835327,
   -3.410931348800659,
   -0.8237904906272888,
   -2.7898411750793457,
   0.9643086194992065,
   -0.45853689312934875,
   0.9445220828056335,
   0.5438134670257568,
   -0.6512078046798706,
   -6.2568793296813965,
   -2.3496084213256836,
   -7.203567981719971,
   0.5857179164886475,
   -4.241337776184082,
   -2.246616840362549,
   -0.05902521684765816,
   -1.6897366046905518,
   0.38207510113716125,
   3.3379127979278564,
   1.5018258094787598,
   0.477538526058197,
   -2.69069242477417,
   -4.866186141967773,
   -0.5611469745635986,
   -1.178378701210022,
   -2.4035868644714355,
   0.19992126524448395,
   -3.368455410003662,
   0.17088839411735535,
   -1.273160696029663
  ],
  [
   1.1822189092636108,
   1.6906763315200806,
   1.1262531280517578,
   2.0000553131103516,
   0.9099610447883606,
   0.7922587394714355,
   -0.5172647833824158,
   -1.1924031972885132,
   -0.7818741202354431,
   1.9345653057098389,
   5.1361918449401855,
   6.872799873352051,
   -4.38421630859375,
   4.695944309234619,
   4.572291374206543,
   2.240438222885132,
   3.0228216648101807,
   1.4623905420303345,
   -0.26101499795913696,
   2.931104898452759,
   1.1623536348342896,
   5.216074466705322,
   0.4467138648033142,
   2.885925054550171,
   -0.6264484524726868,
   4.389904499053955,
   -0.22223758697509766,
   -0.40329107642173767,
   2.105090379714966,
   4.879542350769043,
   1.6545714139938354,
   6.4948554039001465,
   0.12061183154582977,
   3.8627212047576904,
   3.54256534576416,
   2.605294704437256,
   1.5671669244766235,
   -0.234010711312294,
   -1.1583722829818726,
   -1.2231931686401367,
   0.06466004252433777,
   3.439380168914795,
   4.8565874099731445,
   0.962692141532898,
   2.5205025672912598,
   2.624246597290039,
   -0.7457606792449951,
   3.133432388305664,
   -0.6109288334846497,
   1.0492746829986572
  ],
  [
   -1.0473941564559937,
   -1.3156135082244873,
   -1.9855592250823975,
   1.8001257181167603,
   0.17833374440670013,
   0.6679762601852417,
   -0.07108673453330994,
   0.2547457218170166,
   0.02008141577243805,
   -0.2824675440788269,
   -9.331122398376465,
   -3.634315013885498,
   -1.4221129417419434,
   -1.0055277347564697,
   0.7193784713745117,
   4.977712631225586,
   0.0641394630074501,
   -1.4269182682037354,
   -0.2222476750612259,
   -0.6364174485206604,
   -0.8395906686782837,
   0.8390772938728333,
   -0.4132481515407562,
   -3.1591715812683105,
   1.3890345096588135,
   -0.06285303831100464,
   -0.18737851083278656,
   -1.0140619277954102,
   0.6837133765220642,
   -2.694589376449585,
   -11.10236930847168,
   -2.842193365097046,
   0.32318443059921265,
   -0.8500876426696777,
   -0.7782730460166931,
   0.865176796913147,
   -0.053218547254800797,
   -0.39625611901283264,
   -1.4570835828781128,
   -1.2570199966430664,
   0.20494955778121948,
   -3.867690086364746,
   -5.89179801940918,
   -0.060257311910390854,
   -0.3893950581550598,
   2.3098042011260986,
   0.32861435413360596,
   -2.104977607727051,
   0.24380595982074738,
   2.242586612701416
  ],
  [
   -0.4278503358364105,
   0.388441801071167,
   -0.056804411113262177,
   0.1886274516582489,
   -0.5671606063842773,
   0.22754476964473724,
   -0.14063748717308044,
   -0.28780490159988403,
   0.0248615313321352,
   -0.5583394169807434,
   0.5447729825973511,
   -0.7064386010169983,
   0.1786445528268814,
   0.11905677616596222,
   -0.1277339905500412,
   0.9529675245285034,
   -0.3623913526535034,
   -0.6372277736663818,
   -0.5922716856002808,
   -0.5363448262214661,
   -0.1541745960712433,
   0.7769265174865723,
   0.4252646565437317,
   -0.7302143573760986,
   0.5035133957862854,
   0.49127498269081116,
   1.7668609619140625,
   1.238357663154602,
   0.44110193848609924,
   -1.2047632932662964,
   0.0879368856549263,
   0.09177950769662857,
   0.8933233618736267,
   0.062412455677986145,
   -0.5742218494415283,
   -0.3353256583213806,
   -0.07581514865159988,
   0.06182354316115379,
   -0.3532228171825409,
   -0.8377074599266052,
   1.0399397611618042,
   -0.6443645358085632,
   -0.5533590316772461,
   -0.3260419964790344,
   -0.39163222908973694,
   -0.3279869556427002,
   -0.4576849341392517,
   -0.005640600807964802,
   0.29582056403160095,
   0.06637122482061386
  ],
  [
   1.3218989372253418,
   -2.741231918334961,
   -5.391667366027832,
   -5.2197489738464355,
   -1.3005504608154297,
   -3.46995210647583,
   -0.0950666144490242,
   1.18642258644104,
   1.3365129232406616,
   -2.6217923164367676,
   -8.186991691589355,
   -6.553257942199707,
   -4.112533092498779,
   -10.335077285766602,
   -9.354418754577637,
   8.791555404663086,
   -2.7169840335845947,
   1.1293885707855225,
   1.3315190076828003,
   -3.5880587100982666,
   -2.335048198699951,
   -2.7014517784118652,
   -2.3696954250335693,
   -2.1653103828430176,
   3.6957197189331055,
   -0.6611288785934448,
   1.7835602760314941,
   1.5458892583847046,
   -1.7610841989517212,
   -2.5852439403533936,
   -24.056367874145508,
   -4.2030720710754395,
   0.851794421672821,
   -4.510203838348389,
   -3.6812119483947754,
   -4.86464262008667,
   -2.7831006050109863,
   2.081854820251465,
   -1.8962770700454712,
   -4.062619209289551,
   1.159130334854126,
   -3.0308406352996826,
   -4.100600242614746,
   -1.4940028190612793,
   -3.4070208072662354,
   -7.570996284484863,
   1.2611315250396729,
   -5.880887508392334,
   1.3574994802474976,
   -5.199767112731934
  ],
  [
   1.076688289642334,
   0.27308976650238037,
   0.47903066873550415,
   -1.00758957862854,
   0.08426731824874878,
   -1.5988528728485107,
   -0.12341205030679703,
   0.4480808973312378,
   -0.4170878529548645,
   0.12715525925159454,
   -0.5726516842842102,
   -0.15509279072284698,
   1.047451376914978,
   -0.5580798387527466,
   -0.6300026178359985,
   0.9369111061096191,
   1.073989748954773,
   1.272593379020691,
   1.4282954931259155,
   0.42716339230537415,
   0.624050498008728,
   3.9131195545196533,
   -0.14654980599880219,
   -0.2491254359483719,
   -1.0531644821166992,
   0.2863074541091919,
   0.34152543544769287,
   0.09027572721242905,
   0.49388381838798523,
   1.9928398132324219,
   -0.3569508194923401,
   -1.1076008081436157,
   -0.10296392440795898,
   -0.4627643823623657,
   0.4251301884651184,
   -1.5960325002670288,
   -0.049874160438776016,
   0.326691597700119,
   -3.7160937786102295,
   0.07105327397584915,
   -0.19814851880073547,
   0.4740157127380371,
   0.21267734467983246,
   0.1377030909061432,
   0.04217536374926567,
   -0.7745267152786255,
   0.06811454147100449,
   3.1823036670684814,
   -0.09962950646877289,
   -0.283171147108078
  ],
  [
   -0.8714516758918762,
   0.43884971737861633,
   -0.3982990086078644,
   0.4358448386192322,
   0.2965346574783325,
   -0.6504215598106384,
   -0.06959418207406998,
   -1.6469818353652954,
   -0.21749652922153473,
   0.2853429615497589,
   1.333072543144226,
   1.1412415504455566,
   -0.6983247399330139,
   -0.5471263527870178,
   0.26078951358795166,
   -0.34170082211494446,
   -1.9356439113616943,
   -0.6192540526390076,
   -1.4923207759857178,
   0.486562043428421,
   0.0028745492454618216,
   -0.3403964340686798,
   0.18391865491867065,
   -0.7905285954475403,
   -0.17771746218204498,
   0.8666656613349915,
   -0.04570768028497696,
   -0.34661075472831726,
   -0.13776680827140808,
   -0.3417159914970398,
   1.450724482536316,
   -0.3040412366390228,
   0.3927701711654663,
   0.50592440366745,
   1.0149427652359009,
   0.5927486419677734,
   0.0822470635175705,
   0.6450772285461426,
   0.802544891834259,
   1.3752002716064453,
   0.3699699640274048,
   -0.12704998254776,
   1.0242881774902344,
   0.19724810123443604,
   0.27598172426223755,
   -0.15052038431167603,
   -0.5955317616462708,
   -3.327922821044922,
   0.028222164139151573,
   0.19301848113536835
  ],
  [
   -1.0053459405899048,
   0.031874749809503555,
   -4.312149524688721,
   2.7601065635681152,
   -0.10844478011131287,
   -1.0351200103759766,
   0.38339996337890625,
   1.7413934469223022,
   0.334964781999588,
   -0.08650000393390656,
   -8.658743858337402,
   -1.5652061700820923,
   -1.3814030885696411,
   -6.328474521636963,
   -0.7489858269691467,
   6.331784248352051,
   0.8057605624198914,
   -2.4827752113342285,
   0.28956878185272217,
   0.009669599123299122,
   -0.793197751045227,
   2.159801721572876,
   0.20807071030139923,
   -1.6055759191513062,
   -1.9450464248657227,
   1.9352574348449707,
   0.5322508811950684,
   -0.17942015826702118,
   -0.009720460511744022,
   -1.19392728805542,
   -5.9185357093811035,
   -0.02427847497165203,
   0.5031288862228394,
   -0.40636488795280457,
   0.7122763395309448,
   1.8859444856643677,
   0.04600292816758156,
   2.495633602142334,
   0.5853431224822998,
   -3.840080738067627,
   0.17183206975460052,
   -3.256826877593994,
   -5.8784499168396,
   0.09401311725378036,
   0.8031813502311707,
   1.8609682321548462,
   -0.23555852472782135,
   -5.007601261138916,
   0.3386661112308502,
   -0.07158725708723068
  ]
 ],
 "pi.2.bias": [
  -0.21464486420154572,
  0.1273612380027771,
  0.16051585972309113,
  0.05395196005702019,
  -0.05248488113284111,
  0.04654617980122566,
  -0.4760875403881073,
  -0.21506892144680023,
  -0.2683252692222595,
  -0.02700234390795231,
  -0.28819841146469116,
  0.0034348969347774982,
  -0.16470248997211456,
  -0.1721777617931366,
  0.6921193599700928,
  -0.2976103723049164,
  -0.14007911086082458,
  0.7007653117179871,
  -0.5824169516563416,
  0.12008725851774216,
  0.2944847345352173,
  1.3705822229385376,
  0.0729268491268158,
  -0.1416514366865158,
  0.35282307863235474
 ],
 "pi.4.weight": [
  [
   -0.30556413531303406,
   -0.40431228280067444,
   -2.7734692096710205,
   0.8159183859825134,
   2.641263008117676,
   15.407066345214844,
   0.5164490342140198,
   -1.405143141746521,
   -1.8326456546783447,
   2.55479097366333,
   0.8273424506187439,
   0.9471067190170288,
   -0.2158603072166443,
   2.7260446548461914,
   7.366421699523926,
   0.4433635175228119,
   3.4678919315338135,
   6.891158580780029,
   -0.46450600028038025,
   -4.145118713378906,
   1.2429044246673584,
   19.871912002563477,
   -0.44145867228507996,
   0.939909815788269,
   3.9908907413482666
  ]
 ],
 "pi.4.bias": [
  0.20041587948799133
 ]
}