{
 "pi.0.weight": [
  [
   -0.013917847536504269,
   1.5147531032562256,
   -0.23980361223220825
  ],
  [
   -1.1960675716400146,
   -0.20765085518360138,
   -0.2915521264076233
  ],
  [
   -0.9191957712173462,
   -0.5754057765007019,
   -0.08611337095499039
  ],
  [
   0.17445510625839233,
   -0.23948121070861816,
   -0.054098255932331085
  ],
  [
   -0.011972381733357906,
   -0.6923325657844543,
   0.11575306951999664
  ],
  [
   -0.5187645554542542,
   -0.09216303378343582,
   0.19661486148834229
  ],
  [
   -0.41447800397872925,
   -0.5298222899436951,
   0.3762608766555786
  ],
  [
   0.40015938878059387,
   -0.15907885134220123,
   0.33676308393478394
  ],
  [
   -0.5014200806617737,
   -0.19052070379257202,
   0.5848096013069153
  ],
  [
   0.13158370554447174,
   -0.3929118514060974,
   0.11505334824323654
  ],
  [
   -0.11832490563392639,
   0.8301956057548523,
   -0.18728011846542358
  ],
  [
   0.37947916984558105,
   0.11836129426956177,
   -0.5706406831741333
  ],
  [
   -0.596855640411377,
   0.814306914806366,
   -0.1272507905960083
  ],
  [
   0.4001196324825287,
   0.43136048316955566,
   -0.13108143210411072
  ],
  [
   -0.061893828213214874,
   0.059467919170856476,
   -0.7800120711326599
  ],
  [
   -2.2931830883026123,
   -0.3611854612827301,
   0.3691830039024353
  ],
  [
   -1.09190034866333,
   -0.13066650927066803,
   0.22055666148662567
  ],
  [
   0.28824469447135925,
   0.4377995431423187,
   -0.7062574625015259
  ],
  [
   0.35546889901161194,
   -0.3110187351703644,
   0.10421830415725708
  ],
  [
   -1.8892872333526611,
   -0.43652138113975525,
   -0.12494329363107681
  ],
  [
   0.4569903612136841,
   0.06662744283676147,
   -0.31585514545440674
  ],
  [
   0.1762775480747223,
   0.5218937993049622,
   -0.03559678792953491
  ],
  [
   0.005581955425441265,
   0.2624920606613159,
   0.44296666979789734
  ],
  [
   0.6032511591911316,
   0.044646862894296646,
   -0.3867869973182678
  ],
  [
   0.16467757523059845,
   0.13370834290981293,
   0.4284798502922058
  ],
  [
   0.7878736257553101,
   0.5693501234054565,
   -0.24571721255779266
  ],
  [
   0.22408294677734375,
   -0.15266655385494232,
   -0.40105199813842773
  ],
  [
   0.5735545754432678,
   0.37711650133132935,
   -0.5703000426292419
  ],
  [
   -0.5325598120689392,
   0.14733079075813293,
   -0.4922063946723938
  ],
  [
   -0.2550708055496216,
   0.13755300641059875,
   -0.5487262010574341
  ]
 ],
 "pi.0.bias": [
  0.526770830154419,
  -0.06430036574602127,
  -0.21055610477924347,
  0.31373468041419983,
  -0.6810112595558167,
  -0.49306008219718933,
  0.15009132027626038,
  0.011483535170555115,
  -0.29206582903862,
  -0.2990152835845947,
  0.6803228259086609,
  0.4699200987815857,
  -0.32067468762397766,
  -0.11005856096744537,
  -0.16105836629867554,
  0.20036673545837402,
  -0.5685628056526184,
  -0.7088609337806702,
  -0.03348890319466591,
  0.45920413732528687,
  -0.15903925895690918,
  0.39889949560165405,
  -0.23068049550056458,
  0.44092822074890137,
  0.3101380467414856,
  -0.37447747588157654,
  -0.6455109119415283,
  0.10031839460134506,
  0.3955686390399933,
  0.5211449861526489
 ],
 "pi.2.weight": [
  [
   0.240406334400177,
   -0.32227516174316406,
   -0.15018385648727417,
   0.09513892978429794,
   -0.1254529505968094,
   -0.39206966757774353,
   0.35266605019569397,
   -0.050787340849637985,
   0.1518586426973343,
   -0.2024199366569519,
   0.14643672108650208,
   0.3784085214138031,
   0.21798352897167206,
   -0.14279113709926605,
   -0.07915855944156647,
   -0.8143364191055298,
   -0.738464891910553,
   0.20930735766887665,
   0.04100043699145317,
   0.6569098234176636,
   0.5013556480407715,
   0.1916639506816864,
   0.24460989236831665,
   -0.21039694547653198,
   -0.07111378014087677,
   -0.20829476416110992,
   -0.06689496338367462,
   0.2482503205537796,
   -0.451885849237442,
   -0.4279117286205292
  ]
 ],
 "pi.2.bias": [
  -0.10506690293550491
 ]
}