{
 "pi.0.weight": [
  [
   7.806149959564209,
   0.2921459674835205,
   2.3634119033813477
  ],
  [
   8.091538429260254,
   -3.615168571472168,
   7.032488822937012
  ],
  [
   -1.6933234930038452,
   -1.9601389169692993,
   7.8420562744140625
  ],
  [
   -10.039651870727539,
   -5.648637294769287,
   3.3251867294311523
  ],
  [
   -6.819732666015625,
   -4.495844841003418,
   -0.28082165122032166
  ],
  [
   8.080500602722168,
   -2.68565034866333,
   7.0615763664245605
  ],
  [
   2.336369037628174,
   -2.093838930130005,
   6.103301525115967
  ],
  [
   2.2849371433258057,
   -0.8321053981781006,
   7.699162483215332
  ],
  [
   3.774855613708496,
   -0.6063036322593689,
   -0.3597528338432312
  ],
  [
   28.532684326171875,
   -0.5813189148902893,
   3.1232006549835205
  ],
  [
   -1.5353044271469116,
   -0.5124136805534363,
   0.48201295733451843
  ],
  [
   1.1330056190490723,
   -3.289999008178711,
   -1.4942198991775513
  ],
  [
   -0.367086261510849,
   -0.7651568651199341,
   1.9057695865631104
  ],
  [
   4.518377304077148,
   -0.013299843296408653,
   2.425825357437134
  ],
  [
   15.454198837280273,
   -2.8135199546813965,
   3.5517570972442627
  ],
  [
   -4.062187671661377,
   -7.268736839294434,
   6.576766490936279
  ],
  [
   7.795520782470703,
   -0.74922114610672,
   -1.6531310081481934
  ],
  [
   6.917916774749756,
   -2.4961588382720947,
   4.161709308624268
  ],
  [
   1.6816744804382324,
   -2.150716543197632,
   2.001276731491089
  ],
  [
   7.199495315551758,
   10.938557624816895,
   0.12037921696901321
  ],
  [
   0.4485301971435547,
   0.34165841341018677,
   -1.9952658414840698
  ],
  [
   13.47533130645752,
   -7.385444164276123,
   1.5141862630844116
  ],
  [
   11.251900672912598,
   -3.174075126647949,
   3.2963063716888428
  ],
  [
   14.690549850463867,
   -12.307973861694336,
   -0.3200978934764862
  ],
  [
   7.173091888427734,
   3.527601718902588,
   1.0222159624099731
  ],
  [
   3.1055378913879395,
   1.4273978471755981,
   -3.4020769596099854
  ],
  [
   -0.3065255284309387,
   -10.347622871398926,
   0.42557650804519653
  ],
  [
   -2.771796226501465,
   -12.382172584533691,
   -0.2970677316188812
  ],
  [
   -1.950958251953125,
   -2.2083942890167236,
   5.103270053863525
  ],
  [
   3.4214656352996826,
   0.6640661954879761,
   1.2077101469039917
  ],
  [
   -0.1585284322500229,
   -1.4226303100585938,
   1.2163000106811523
  ],
  [
   1.4177111387252808,
   -3.9298672676086426,
   -4.20983362197876
  ],
  [
   3.306654691696167,
   -0.8543301820755005,
   -5.100207328796387
  ],
  [
   -4.338571548461914,
   -0.13878090679645538,
   1.8360967636108398
  ],
  [
   -2.6958134174346924,
   -11.969304084777832,
   6.857211112976074
  ],
  [
   3.1199867725372314,
   -0.7509246468544006,
   -4.461469650268555
  ],
  [
   -3.014631986618042,
   -7.2682695388793945,
   8.212706565856934
  ],
  [
   4.9095587730407715,
   1.6667779684066772,
   -1.547231674194336
  ],
  [
   1.0454987287521362,
   -4.588173866271973,
   2.4583280086517334
  ],
  [
   -1.7134637832641602,
   3.3609466552734375,
   1.9074804782867432
  ],
  [
   -2.342991828918457,
   -3.975008964538574,
   -0.6734131574630737
  ],
  [
   3.6765613555908203,
   -5.231476783752441,
   0.24513016641139984
  ],
  [
   -1.441125512123108,
   -3.8591411113739014,
   -1.7202321290969849
  ],
  [
   8.558371543884277,
   -2.799863338470459,
   3.4277756214141846
  ],
  [
   7.859978675842285,
   4.7964582443237305,
   1.452433705329895
  ],
  [
   -0.6104201674461365,
   -1.0607720613479614,
   17.56905746459961
  ],
  [
   -1.7143292427062988,
   -0.4677492678165436,
   5.259724140167236
  ],
  [
   13.351884841918945,
   -16.46648597717285,
   -0.2623467445373535
  ],
  [
   14.8652982711792,
   4.757587909698486,
   2.1670823097229004
  ],
  [
   -3.2198784351348877,
   -6.883814334869385,
   1.6300371885299683
  ]
 ],
 "pi.0.bias": [
  3.916508436203003,
  -4.2523193359375,
  1.0734238624572754,
  0.3899146020412445,
  0.5666273832321167,
  -2.5730385780334473,
  6.055718421936035,
  1.3338522911071777,
  -3.6637563705444336,
  0.20971672236919403,
  8.737911224365234,
  -2.3956210613250732,
  -4.3708953857421875,
  -3.510791540145874,
  1.3815968036651611,
  -3.8725621700286865,
  -2.317758798599243,
  1.1134371757507324,
  -5.534607887268066,
  -3.9182560443878174,
  2.2460875511169434,
  -1.840566873550415,
  -1.4641705751419067,
  -0.9854920506477356,
  -4.893060684204102,
  5.587840557098389,
  1.1116759777069092,
  2.723766565322876,
  -0.7166558504104614,
  -4.150286674499512,
  -4.9964070320129395,
  -0.6255993843078613,
  2.4843263626098633,
  2.980602979660034,
  2.715771198272705,
  -3.9430172443389893,
  0.19425614178180695,
  -2.941089153289795,
  -5.122650146484375,
  1.6925866603851318,
  -0.33231619000434875,
  3.892484664916992,
  -3.161539077758789,
  3.8343682289123535,
  -3.1492438316345215,
  0.9994193911552429,
  -4.232324123382568,
  3.574464797973633,
  0.9835740327835083,
  1.2130485773086548
 ],
 "pi.2.weight": [
  [
   -1.799367070198059,
   -0.9446198344230652,
   -6.280859470367432,
   0.14123161137104034,
   -0.5376191735267639,
   -0.641453742980957,
   1.8562840223312378,
   1.3800989389419556,
   3.124014139175415,
   -0.1697375774383545,
   -0.2979341149330139,
   -0.9993497729301453,
   1.8937864303588867,
   0.2120194286108017,
   -3.225950002670288,
   0.6573331356048584,
   0.1551952064037323,
   -1.1325186491012573,
   5.056731224060059,
   1.6345152854919434,
   -3.452455759048462,
   -0.6356624364852905,
   1.6308465003967285,
   1.3416247367858887,
   1.5557340383529663,
   -1.7123887538909912,
   -0.8836863040924072,
   -1.410521149635315,
   0.4776369035243988,
   -0.06273873150348663,
   -0.05236212536692619,
   -2.3643715381622314,
   -5.271511077880859,
   0.3354804813861847,
   -0.21811850368976593,
   -2.854167938232422,
   -1.1414299011230469,
   -0.031224137172102928,
   0.9964548349380493,
   0.23851771652698517,
   -0.25508564710617065,
   0.9349817037582397,
   4.560031890869141,
   0.6975805163383484,
   -0.46438276767730713,
   2.585897207260132,
   0.7979845404624939,
   -0.12515848875045776,
   -0.5551165342330933,
   0.5002390742301941
  ],
  [
   0.5343762040138245,
   -8.731201171875,
   1.5884690284729004,
   2.230910062789917,
   1.136717438697815,
   -5.0187788009643555,
   -4.119338035583496,
   5.081070899963379,
   0.46370911598205566,
   -4.089901924133301,
   0.9483296871185303,
   1.6293954849243164,
   0.6241562366485596,
   1.4055614471435547,
   -2.4092254638671875,
   -14.816020011901855,
   -3.163626194000244,
   -4.726426124572754,
   -0.9790545105934143,
   2.932403564453125,
   1.6645127534866333,
   -2.693732500076294,
   -7.642887592315674,
   -0.42945754528045654,
   0.2950551509857178,
   1.7869832515716553,
   0.7338365316390991,
   1.419467806816101,
   -1.1280001401901245,
   2.241893768310547,
   -3.0437417030334473,
   -0.5057017207145691,
   0.6579282283782959,
   2.018326759338379,
   1.721135139465332,
   2.835913896560669,
   -8.392096519470215,
   -0.4075569212436676,
   0.28200843930244446,
   -0.1954554170370102,
   0.9619427919387817,
   0.8926950693130493,
   2.9489617347717285,
   -2.020271062850952,
   -1.6627600193023682,
   0.3710407614707947,
   -5.38402795791626,
   0.06026013568043709,
   -3.3676981925964355,
   0.10875758528709412
  ],
  [
   0.7618486881256104,
   0.5320520997047424,
   -6.3246378898620605,
   0.5018311738967896,
   -0.34925124049186707,
   1.1269444227218628,
   0.3565914034843445,
   3.6162009239196777,
   -3.5617005825042725,
   2.027987003326416,
   1.1432204246520996,
   -1.325629711151123,
   2.1234500408172607,
   -2.408190965652466,
   -1.3715744018554688,
   -0.2739003896713257,
   0.07394446432590485,
   -2.0030128955841064,
   0.7006930112838745,
   -2.3712728023529053,
   -1.6017694473266602,
   -3.225980758666992,
   0.5277115106582642,
   0.5046615600585938,
   -0.9526631832122803,
   0.6108803749084473,
   -0.4119766056537628,
   0.5315942168235779,
   -0.37245139479637146,
   -6.677809715270996,
   0.5475645065307617,
   -1.7436492443084717,
   -0.2602570056915283,
   1.80075204372406,
   -0.8513686656951904,
   4.7077226638793945,
   -2.7583537101745605,
   -0.6473710536956787,
   1.3517159223556519,
   -2.139650821685791,
   -1.2838877439498901,
   -0.5293029546737671,
   2.2301270961761475,
   0.49395665526390076,
   1.9976701736450195,
   1.595676064491272,
   0.5777055621147156,
   -0.6237964630126953,
   3.182396173477173,
   -0.2150554209947586
  ],
  [
   -1.1975113153457642,
   -2.7045679092407227,
   -0.0671047568321228,
   -0.24288587272167206,
   -1.2939252853393555,
   -3.245983839035034,
   -0.46883097290992737,
   -2.4717788696289062,
   -0.9280364513397217,
   0.21028129756450653,
   2.2291274070739746,
   8.946314811706543,
   1.519119381904602,
   -4.280276775360107,
   -1.093377709388733,
   1.6275819540023804,
   1.9886703491210938,
   -1.7531516551971436,
   6.383668899536133,
   -3.4212074279785156,
   0.2791096568107605,
   1.722021460533142,
   -1.6129742860794067,
   0.19137831032276154,
   -2.434372663497925,
   2.9314193725585938,
   0.5419687032699585,
   1.9044934511184692,
   3.7166967391967773,
   -3.0675675868988037,
   -0.5264000296592712,
   2.059227228164673,
   0.2608344554901123,
   1.9044864177703857,
   0.16052810847759247,
   -3.0445783138275146,
   0.5568320155143738,
   -0.47347357869148254,
   -0.2630966603755951,
   1.2467788457870483,
   1.6754648685455322,
   3.0169708728790283,
   2.6922495365142822,
   -0.40428629517555237,
   -2.7893757820129395,
   0.39410603046417236,
   -0.3443639576435089,
   -1.2448638677597046,
   -1.4134501218795776,
   2.0025670528411865
  ],
  [
   3.221442699432373,
   -0.9700243473052979,
   -0.44055965542793274,
   1.8896851539611816,
   1.2333422899246216,
   -0.4817411005496979,
   -0.18711872398853302,
   -1.4596338272094727,
   0.12280413508415222,
   -1.4738528728485107,
   -0.9343050122261047,
   1.2883083820343018,
   0.709984302520752,
   3.0845465660095215,
   -0.0032141159754246473,
   -0.7846885323524475,
   -2.0094850063323975,
   -1.1019901037216187,
   0.9461413025856018,
   -0.30004093050956726,
   1.1848050355911255,
   2.1840872764587402,
   -3.1369757652282715,
   -0.5083017349243164,
   7.24101448059082,
   -0.4775339365005493,
   -0.3946611285209656,
   -0.5250603556632996,
   1.0784004926681519,
   4.327116012573242,
   -1.105363368988037,
   1.3138808012008667,
   0.3016307055950165,
   0.5790460109710693,
   0.049869149923324585,
   2.102505683898926,
   -1.9336494207382202,
   -2.9666666984558105,
   1.5875864028930664,
   1.5168981552124023,
   0.6156249046325684,
   -1.0895699262619019,
   -1.495168685913086,
   -0.7173005938529968,
   -1.2390443086624146,
   1.0578712224960327,
   0.15799053013324738,
   -0.671984076499939,
   -1.076109766960144,
   -2.6077880859375
  ],
  [
   -0.5361267924308777,
   -0.8861511945724487,
   2.0386643409729004,
   4.351274490356445,
   12.244805335998535,
   -1.9243619441986084,
   -0.10142015665769577,
   -2.3518238067626953,
   -4.079343795776367,
   -0.5243616700172424,
   3.847586154937744,
   7.576521873474121,
   -3.0567238330841064,
   -4.468902587890625,
   -1.3681366443634033,
   -2.5427634716033936,
   -4.371612071990967,
   -2.491115093231201,
   2.371000289916992,
   -1.1406352519989014,
   2.4248459339141846,
   3.823716640472412,
   -1.2928060293197632,
   -1.4226117134094238,
   -6.190949440002441,
   5.649496078491211,
   2.40181303024292,
   2.0697057247161865,
   1.7183566093444824,
   -4.389026641845703,
   -1.2035967111587524,
   3.076096773147583,
   6.113333225250244,
   12.7022123336792,
   3.421999216079712,
   10.16864013671875,
   4.175784111022949,
   -1.358028531074524,
   -1.0235651731491089,
   0.5811826586723328,
   0.7698968648910522,
   3.027585506439209,
   8.794149398803711,
   -0.3620198965072632,
   -0.9446808695793152,
   -0.2159094512462616,
   -1.313604712486267,
   1.26954984664917,
   -0.6386879086494446,
   0.5235788226127625
  ],
  [
   -1.487468957901001,
   -1.1378201246261597,
   1.783597707748413,
   5.7710723876953125,
   6.303568363189697,
   -3.7265424728393555,
   0.5269913673400879,
   -1.342564344406128,
   -2.552600622177124,
   0.9924894571304321,
   0.907690167427063,
   8.603616714477539,
   0.020871201530098915,
   -4.462993621826172,
   0.4608408808708191,
   4.047323226928711,
   -4.821265697479248,
   0.2447928786277771,
   3.1786553859710693,
   1.1372042894363403,
   1.8546220064163208,
   2.9675486087799072,
   -1.7661489248275757,
   -1.4496111869812012,
   -5.064134120941162,
   5.843959331512451,
   3.031257390975952,
   3.966473340988159,
   4.977701663970947,
   -4.443765640258789,
   -0.2950865626335144,
   -2.784489393234253,
   4.6962971687316895,
   5.676532745361328,
   1.509079098701477,
   8.179362297058105,
   7.879528045654297,
   -1.135561227798462,
   -3.003026247024536,
   1.5318588018417358,
   2.136859893798828,
   3.994114398956299,
   3.8488638401031494,
   -1.9820563793182373,
   -1.803829550743103,
   -0.6110727190971375,
   -0.966765820980072,
   1.0110026597976685,
   -1.4637925624847412,
   5.2659077644348145
  ],
  [
   1.4813939332962036,
   -2.068074941635132,
   1.4492229223251343,
   -6.045018672943115,
   -6.418879508972168,
   -4.280651569366455,
   -0.6569280624389648,
   -2.533205270767212,
   -1.455008625984192,
   -0.9646639823913574,
   1.4592089653015137,
   -5.235597610473633,
   -2.2831146717071533,
   1.8091099262237549,
   -0.32029861211776733,
   -4.459681034088135,
   -3.433826446533203,
   -1.3162504434585571,
   -1.616406798362732,
   1.276422381401062,
   0.5046599507331848,
   -2.822293519973755,
   0.32855871319770813,
   -4.300292491912842,
   3.274401903152466,
   -0.38437607884407043,
   -6.564860820770264,
   -0.8364002108573914,
   -3.2580504417419434,
   0.8624768257141113,
   -0.9846615791320801,
   -2.1341936588287354,
   -1.841521978378296,
   3.9398276805877686,
   -2.0629501342773438,
   -3.58200740814209,
   -3.5502700805664062,
   -0.5670725703239441,
   -2.1973605155944824,
   0.118717722594738,
   -0.33990439772605896,
   -8.567009925842285,
   -7.412623405456543,
   2.3174197673797607,
   1.2322942018508911,
   0.26295793056488037,
   -1.4924501180648804,
   -1.1672606468200684,
   -0.009834446012973785,
   -1.0527174472808838
  ],
  [
   -0.22961659729480743,
   0.3232484757900238,
   -0.32490167021751404,
   5.160460948944092,
   1.3899857997894287,
   0.2841278612613678,
   4.104664325714111,
   1.283652901649475,
   0.9090048670768738,
   0.41772910952568054,
   2.026150703430176,
   -4.1340837478637695,
   0.6394892930984497,
   -3.9270179271698,
   -0.8188718557357788,
   1.686158537864685,
   2.141561269760132,
   0.13834437727928162,
   -0.48263823986053467,
   -3.5796456336975098,
   1.0544195175170898,
   -1.7643455266952515,
   1.2593390941619873,
   0.5546199679374695,
   -4.434690952301025,
   0.45471131801605225,
   -0.5879114866256714,
   3.5985288619995117,
   -1.3533414602279663,
   -3.9878039360046387,
   -0.8205286264419556,
   2.325866937637329,
   0.12954331934452057,
   4.9745378494262695,
   0.304561585187912,
   -1.6800782680511475,
   -2.402271270751953,
   -0.7180559635162354,
   -1.0416051149368286,
   -0.7931625247001648,
   -1.4789708852767944,
   -0.4507552981376648,
   3.1973557472229004,
   3.585615873336792,
   1.2736681699752808,
   1.9550501108169556,
   1.4329990148544312,
   0.288080632686615,
   2.28745174407959,
   -0.9165679216384888
  ],
  [
   -0.5090082883834839,
   -4.263397693634033,
   1.4970409870147705,
   2.693758249282837,
   -3.746227264404297,
   1.6105005741119385,
   2.251638412475586,
   5.337823390960693,
   -4.4161295890808105,
   -5.067593574523926,
   2.326024055480957,
   1.9877746105194092,
   -3.913054943084717,
   0.05610110983252525,
   -3.770495653152466,
   -7.844280242919922,
   1.231382966041565,
   -0.8854683637619019,
   -0.6684111952781677,
   2.1053550243377686,
   -0.05307875573635101,
   0.38224780559539795,
   -2.4196183681488037,
   -1.4280353784561157,
   4.371039390563965,
   0.25427690148353577,
   -0.5384988784790039,
   0.25678521394729614,
   -0.542662501335144,
   1.1314151287078857,
   -0.7911381125450134,
   0.7930851578712463,
   -0.1394626647233963,
   1.6576952934265137,
   2.5073564052581787,
   1.7122031450271606,
   -3.91967511177063,
   -1.4309303760528564,
   0.8123742341995239,
   -3.9553236961364746,
   -1.5597634315490723,
   -0.058295633643865585,
   2.7728724479675293,
   0.25200504064559937,
   -2.5974178314208984,
   -4.054265975952148,
   -5.07395076751709,
   -2.472463846206665,
   -3.484703302383423,
   2.6104283332824707
  ],
  [
   -1.4671725034713745,
   -1.8802422285079956,
   -1.6818782091140747,
   -1.2087137699127197,
   -1.8240925073623657,
   -2.3978068828582764,
   -0.994968056678772,
   -0.7919085025787354,
   -1.6623995304107666,
   1.395149827003479,
   0.6697686910629272,
   -2.7573444843292236,
   -2.397444009780884,
   1.1831148862838745,
   0.21195834875106812,
   -1.0779188871383667,
   -2.531092643737793,
   -2.4932050704956055,
   -0.574110746383667,
   0.6473242044448853,
   -0.4079771935939789,
   -2.2347412109375,
   -0.5578985810279846,
   -1.5018223524093628,
   2.011920213699341,
   -0.6505913734436035,
   -1.457781195640564,
   -0.5644584894180298,
   -2.6374998092651367,
   1.529513955116272,
   -1.0079721212387085,
   -3.0400702953338623,
   -2.572923421859741,
   0.6399673223495483,
   -1.8860784769058228,
   -2.988187789916992,
   -3.257941246032715,
   -0.997667133808136,
   -1.0320004224777222,
   0.9789262413978577,
   -2.917876720428467,
   -2.559849977493286,
   -1.2930291891098022,
   0.4847225546836853,
   -0.678769052028656,
   -0.2552341818809509,
   -2.3182613849639893,
   -1.0706651210784912,
   -0.6520528793334961,
   -2.3417558670043945
  ],
  [
   -3.098426580429077,
   2.520883321762085,
   -1.0397917032241821,
   -1.9284911155700684,
   -3.36712646484375,
   2.2408273220062256,
   0.9498699903488159,
   1.5595815181732178,
   0.4239228665828705,
   2.9530041217803955,
   1.5146698951721191,
   -1.1542030572891235,
   -2.7848219871520996,
   -4.9767327308654785,
   0.6068810224533081,
   0.464489609003067,
   2.876023054122925,
   1.6129488945007324,
   -3.8160641193389893,
   -1.3672375679016113,
   -0.6799799799919128,
   -2.1361827850341797,
   1.1514469385147095,
   1.4383976459503174,
   -8.110200881958008,
   3.4712603092193604,
   -1.8893823623657227,
   2.2259411811828613,
   -1.902345895767212,
   -3.433260679244995,
   -1.6083530187606812,
   2.9026544094085693,
   -1.6246792078018188,
   -1.1748241186141968,
   -2.264712333679199,
   -6.737665176391602,
   -2.972323417663574,
   3.175567865371704,
   -1.695387363433838,
   0.593483030796051,
   -1.8932080268859863,
   -1.8084437847137451,
   1.8756078481674194,
   1.6199408769607544,
   0.8151071667671204,
   0.6580986380577087,
   2.57747483253479,
   -0.806663990020752,
   2.5052521228790283,
   -2.8051388263702393
  ],
  [
   -1.19300377368927,
   -0.7995104193687439,
   2.7953429222106934,
   0.699940025806427,
   1.181647777557373,
   -0.9775176644325256,
   3.282938003540039,
   -2.3788459300994873,
   -1.7956500053405762,
   0.2669842839241028,
   1.6868658065795898,
   0.49707406759262085,
   0.5043213963508606,
   -5.370904922485352,
   0.5827625393867493,
   0.572478175163269,
   -1.5678484439849854,
   -1.3944339752197266,
   1.2463771104812622,
   3.6597933769226074,
   -1.3262557983398438,
   -1.487246036529541,
   3.1643075942993164,
   -0.956175684928894,
   -4.587157726287842,
   1.0100460052490234,
   0.7008121013641357,
   0.02649359218776226,
   0.25323089957237244,
   -2.433833122253418,
   1.0945950746536255,
   -2.760334014892578,
   -1.381489634513855,
   -1.937958836555481,
   0.8402462601661682,
   -1.9300100803375244,
   0.1520085334777832,
   -6.066597938537598,
   -2.55698561668396,
   -0.5085803866386414,
   -0.4701267182826996,
   3.3487048149108887,
   3.4266884326934814,
   1.5634514093399048,
   0.9911059141159058,
   -0.9201490879058838,
   -1.025259017944336,
   1.445746660232544,
   0.1126641258597374,
   1.8802841901779175
  ],
  [
   -2.401428699493408,
   -1.4852521419525146,
   1.9326130151748657,
   1.1414368152618408,
   2.3660778999328613,
   -3.0659072399139404,
   -1.9215184450149536,
   -1.0203006267547607,
   3.2629191875457764,
   -4.375179767608643,
   1.5908557176589966,
   4.9443535804748535,
   0.35681793093681335,
   1.8721619844436646,
   -2.107689619064331,
   -1.9076663255691528,
   1.830321192741394,
   0.7160118222236633,
   1.4093692302703857,
   -5.100724220275879,
   0.8512656688690186,
   1.0276092290878296,
   -2.2570791244506836,
   -3.768756151199341,
   -0.4220012426376343,
   -1.8926441669464111,
   1.1797174215316772,
   0.31904008984565735,
   4.014368057250977,
   1.9159421920776367,
   4.119182586669922,
   -1.846603512763977,
   -0.2480745166540146,
   1.6387579441070557,
   1.170196533203125,
   11.128281593322754,
   1.7580784559249878,
   1.351704478263855,
   -1.398969292640686,
   0.8212281465530396,
   1.2248740196228027,
   2.283592700958252,
   -3.5921664237976074,
   -0.6560747027397156,
   1.770258903503418,
   0.21281050145626068,
   -1.6242361068725586,
   0.5644033551216125,
   -1.1347185373306274,
   1.6868351697921753
  ],
  [
   -0.31638219952583313,
   -2.4481189250946045,
   -0.46002620458602905,
   2.0722196102142334,
   3.0398201942443848,
   2.3217356204986572,
   1.3327081203460693,
   3.1249136924743652,
   -1.051493763923645,
   -2.797628402709961,
   0.8469519019126892,
   1.0327937602996826,
   1.6350255012512207,
   -2.0108888149261475,
   -1.4770809412002563,
   0.474747896194458,
   -2.2300593852996826,
   -1.825777530670166,
   4.281255722045898,
   2.0905637741088867,
   -0.64775550365448,
   -2.8075459003448486,
   2.7647860050201416,
   -3.200892925262451,
   0.4149993062019348,
   -1.934267520904541,
   -0.00890609622001648,
   -0.7703011631965637,
   -1.1290448904037476,
   -1.9764611721038818,
   0.5783451795578003,
   3.822122812271118,
   0.3071974515914917,
   0.2584538757801056,
   -1.8366128206253052,
   8.6994047164917,
   8.168182373046875,
   2.437250852584839,
   -0.5176480412483215,
   -1.7819501161575317,
   -0.7697392106056213,
   1.2702467441558838,
   6.556973457336426,
   0.12947912514209747,
   0.7058894634246826,
   0.12492547184228897,
   -0.40874576568603516,
   -0.7157381772994995,
   -1.3001834154129028,
   2.6617984771728516
  ],
  [
   -0.21268302202224731,
   -0.9770755767822266,
   1.123774528503418,
   1.541388988494873,
   -1.4816621541976929,
   -0.9148540496826172,
   0.568545937538147,
   -1.0101438760757446,
   -1.336154818534851,
   0.11111707240343094,
   0.3018682897090912,
   -0.977817714214325,
   -2.042553186416626,
   -0.4384521543979645,
   0.3016888201236725,
   -1.3591785430908203,
   -0.9314205050468445,
   -0.6775296330451965,
   -2.1679320335388184,
   1.1427032947540283,
   5.114029407501221,
   0.4024026691913605,
   0.28540506958961487,
   -0.629305899143219,
   -1.6947389841079712,
   8.861013412475586,
   1.459746241569519,
   -1.2034211158752441,
   0.45266708731651306,
   -2.882009506225586,
   -0.9655818343162537,
   -0.0812930017709732,
   0.235446497797966,
   5.9925923347473145,
   1.664716362953186,
   -10.223123550415039,
   1.9057620763778687,
   -1.2761318683624268,
   -1.6390621662139893,
   5.881717681884766,
   0.8746109008789062,
   2.345226764678955,
   -1.2675150632858276,
   0.1183277815580368,
   -0.2698182463645935,
   -0.48783841729164124,
   -0.24444763362407684,
   0.6018835306167603,
   -0.18558147549629211,
   2.9746086597442627
  ],
  [
   -1.8116958141326904,
   0.06001001596450806,
   -2.5166592597961426,
   -2.0666370391845703,
   -2.055729866027832,
   0.25810837745666504,
   0.9343332648277283,
   0.5729981064796448,
   0.856307327747345,
   1.954048752784729,
   2.199761152267456,
   -0.6152450442314148,
   3.4926509857177734,
   -6.680900573730469,
   1.0674667358398438,
   0.4192505478858948,
   0.9864997863769531,
   2.2691831588745117,
   8.876550674438477,
   1.2905213832855225,
   -0.45265993475914,
   -0.760600745677948,
   0.13144086301326752,
   -0.3267767131328583,
   -4.963720798492432,
   1.7382216453552246,
   -1.3421125411987305,
   2.3759665489196777,
   -2.0291993618011475,
   -4.7277302742004395,
   2.0890519618988037,
   -0.8482404947280884,
   -0.18185777962207794,
   0.7055012583732605,
   -1.3153223991394043,
   5.380002021789551,
   -2.8434174060821533,
   0.8806288242340088,
   2.912557601928711,
   0.11254268139600754,
   -0.8149387240409851,
   0.21735630929470062,
   3.5811514854431152,
   0.9512088894844055,
   -0.1657015085220337,
   4.141804218292236,
   1.0297338962554932,
   -1.466050624847412,
   2.4141845703125,
   -2.037060022354126
  ],
  [
   -0.5789875388145447,
   0.538495659828186,
   -1.7323448657989502,
   0.34658172726631165,
   -0.9611614942550659,
   1.3074895143508911,
   -0.48235011100769043,
   2.2429609298706055,
   1.1100600957870483,
   -0.27783966064453125,
   -7.022232532501221,
   -3.27573299407959,
   1.7038047313690186,
   0.7708524465560913,
   -1.3306630849838257,
   -0.655830979347229,
   -1.5106035470962524,
   -0.3681734502315521,
   4.555241584777832,
   0.7209292650222778,
   -2.198901653289795,
   -1.3068218231201172,
   -0.6225124001502991,
   1.7101787328720093,
   1.361708641052246,
   2.0929007530212402,
   0.7077301740646362,
   -0.112713523209095,
   -0.6707413792610168,
   1.6486481428146362,
   -0.07683493942022324,
   0.024032745510339737,
   2.4410462379455566,
   3.290013551712036,
   -1.8389370441436768,
   -0.3674961030483246,
   -0.869884192943573,
   1.9898412227630615,
   3.4152231216430664,
   -2.286919593811035,
   -1.9537441730499268,
   -0.7859163880348206,
   1.351831316947937,
   -0.13684126734733582,
   -2.2185821533203125,
   2.5939784049987793,
   2.3598499298095703,
   -0.4857175648212433,
   -0.4443912208080292,
   0.9900805354118347
  ],
  [
   1.3637970685958862,
   1.1638617515563965,
   -0.8834376335144043,
   0.4261683225631714,
   -2.801093578338623,
   1.3436682224273682,
   -0.604985773563385,
   1.7064725160598755,
   0.02119487337768078,
   3.2607994079589844,
   0.9538941383361816,
   -1.675635814666748,
   -2.8507981300354004,
   -1.8878228664398193,
   1.2734407186508179,
   -0.165201336145401,
   -4.933421611785889,
   0.30411988496780396,
   -2.4380502700805664,
   -1.3817392587661743,
   0.3911970853805542,
   -1.5128251314163208,
   0.08228185772895813,
   1.2639803886413574,
   -3.8232874870300293,
   3.093291997909546,
   -2.025580644607544,
   0.7351512908935547,
   -0.1904703825712204,
   -0.37192580103874207,
   -1.209303855895996,
   -1.0241179466247559,
   -0.10780326277017593,
   -0.3667871356010437,
   1.595258800080046e-05,
   -2.1245269775390625,
   -2.852332592010498,
   -2.04997181892395,
   0.6648300886154175,
   -0.5021499395370483,
   -0.23392796516418457,
   -1.8635574579238892,
   5.357477188110352,
   0.6616759896278381,
   1.38031005859375,
   1.4991905689239502,
   0.7789650559425354,
   -0.6285982131958008,
   2.360175848007202,
   -2.431309700012207
  ],
  [
   -0.07919348776340485,
   -0.6814305186271667,
   -0.6075015664100647,
   -0.4301636219024658,
   0.6002382636070251,
   -0.49327149987220764,
   -1.4286012649536133,
   -1.0227560997009277,
   -0.9533833265304565,
   -0.05968734622001648,
   5.301335334777832,
   0.6287943720817566,
   0.4441785514354706,
   -1.4280167818069458,
   -2.5552167892456055,
   -2.5493838787078857,
   -3.9138433933258057,
   -1.957299828529358,
   1.5028482675552368,
   -0.2596786916255951,
   -0.6091212034225464,
   2.2591147422790527,
   -0.6328268647193909,
   -1.0067574977874756,
   -1.8340715169906616,
   2.8091320991516113,
   0.7107101082801819,
   3.4651997089385986,
   0.22049984335899353,
   -1.6383825540542603,
   -2.795289993286133,
   -2.4833199977874756,
   12.20943546295166,
   1.4656333923339844,
   0.19519567489624023,
   5.245790958404541,
   0.13641293346881866,
   -0.42757028341293335,
   2.0538909435272217,
   -1.8780701160430908,
   0.03684843331575394,
   2.229896306991577,
   0.6920074224472046,
   0.7004803419113159,
   -0.2764866352081299,
   -1.2703497409820557,
   -0.36399734020233154,
   -0.6805380582809448,
   0.42926743626594543,
   1.1518633365631104
  ],
  [
   -2.652177095413208,
   -3.3802053928375244,
   0.2569723129272461,
   -12.564530372619629,
   -7.402266979217529,
   -2.298455238342285,
   -1.2641714811325073,
   -2.772432804107666,
   0.8934311866760254,
   -0.16034932434558868,
   0.17602382600307465,
   3.2309679985046387,
   -3.926448106765747,
   3.705570697784424,
   0.8760095834732056,
   -0.383676677942276,
   0.5276074409484863,
   -0.9356654286384583,
   -4.578188419342041,
   1.3253810405731201,
   -0.7179604768753052,
   -2.1636645793914795,
   1.8258942365646362,
   1.1313773393630981,
   2.624800205230713,
   -0.9849196076393127,
   0.9730937480926514,
   3.7843713760375977,
   -5.025184631347656,
   2.5970096588134766,
   -0.6113913655281067,
   0.054164595901966095,
   -2.725491523742676,
   -0.6315239667892456,
   -4.784979820251465,
   1.8041778802871704,
   -8.076823234558105,
   -0.07446680217981339,
   -3.781527519226074,
   -0.5289953947067261,
   -2.040072202682495,
   -3.2696588039398193,
   2.3214457035064697,
   -0.5360493063926697,
   0.17508013546466827,
   -4.516088008880615,
   -2.601621627807617,
   3.5855040550231934,
   -0.43886327743530273,
   -4.401873588562012
  ],
  [
   2.081052303314209,
   2.024879217147827,
   -0.6780083179473877,
   4.93065071105957,
   -0.9761033654212952,
   4.227065563201904,
   4.675447940826416,
   4.2109551429748535,
   -0.5412189960479736,
   3.6864774227142334,
   1.351702094078064,
   -1.3320573568344116,
   5.186389446258545,
   2.0693166255950928,
   2.035703420639038,
   3.213054895401001,
   -1.472161054611206,
   2.7334132194519043,
   4.576407432556152,
   5.756359577178955,
   0.32262691855430603,
   2.9532926082611084,
   1.9146398305892944,
   6.205258846282959,
   0.6090460419654846,
   -1.5707744359970093,
   -0.30830803513526917,
   -1.6860768795013428,
   3.5338215827941895,
   0.03138059005141258,
   3.1877694129943848,
   -1.0320465564727783,
   -1.8607321977615356,
   3.6752536296844482,
   3.0949831008911133,
   1.5354976654052734,
   0.7740985751152039,
   -1.9320321083068848,
   3.707885980606079,
   -2.9674980640411377,
   1.5223346948623657,
   1.8818202018737793,
   1.0232677459716797,
   5.008755683898926,
   -3.803117513656616,
   5.033874034881592,
   3.457345962524414,
   5.81975793838501,
   -3.0470452308654785,
   1.432577133178711
  ],
  [
   -4.284318447113037,
   6.951158046722412,
   7.94636869430542,
   -3.5437397956848145,
   -2.6298604011535645,
   7.772959232330322,
   -2.2994494438171387,
   1.2869192361831665,
   2.9284236431121826,
   7.815652847290039,
   -2.5247979164123535,
   6.091136932373047,
   -0.18761494755744934,
   0.18159328401088715,
   21.0823917388916,
   1.1430139541625977,
   6.2504096031188965,
   12.437518119812012,
   0.7073200941085815,
   -8.581345558166504,
   -3.152238607406616,
   3.8386380672454834,
   13.273470878601074,
   5.163646697998047,
   0.8120666146278381,
   -3.3778164386749268,
   1.546889305114746,
   -5.30863618850708,
   -1.9572749137878418,
   -0.5888294577598572,
   3.7784368991851807,
   -2.5710785388946533,
   -3.148353338241577,
   -5.466663360595703,
   -8.114550590515137,
   1.4986802339553833,
   3.9406063556671143,
   3.912889003753662,
   1.4741334915161133,
   -0.8859875202178955,
   -1.370819330215454,
   4.641815662384033,
   1.092082142829895,
   1.8841475248336792,
   2.926544189453125,
   4.810327529907227,
   2.4190876483917236,
   4.701264381408691,
   5.346077919006348,
   -1.8172345161437988
  ],
  [
   -1.1312036514282227,
   3.1095621585845947,
   1.5726258754730225,
   -1.750035285949707,
   -1.3100271224975586,
   -0.06546790152788162,
   -3.6401784420013428,
   -1.4679934978485107,
   0.36927345395088196,
   -1.8516043424606323,
   4.165930271148682,
   5.249029636383057,
   1.4422481060028076,
   -1.8606390953063965,
   2.2594730854034424,
   1.0054981708526611,
   3.2588772773742676,
   -0.9830031394958496,
   0.6382326483726501,
   -0.72385573387146,
   1.4074326753616333,
   3.9360222816467285,
   2.6324212551116943,
   1.2962026596069336,
   -2.229318857192993,
   -0.8126696944236755,
   -1.19448983669281,
   3.588667154312134,
   -1.1105215549468994,
   -1.0831209421157837,
   0.06806567311286926,
   3.976925849914551,
   2.322666883468628,
   -4.413841724395752,
   1.535112738609314,
   7.561932563781738,
   1.3848507404327393,
   1.1352603435516357,
   0.9901326894760132,
   0.6089422106742859,
   -3.7259573936462402,
   1.8895622491836548,
   -1.3969194889068604,
   -0.39462897181510925,
   -0.3873019814491272,
   -1.2045823335647583,
   2.380263328552246,
   -0.4690018594264984,
   -1.0468571186065674,
   -3.067324161529541
  ],
  [
   -0.2476482391357422,
   2.3579297065734863,
   -1.2155766487121582,
   2.0786759853363037,
   4.594095706939697,
   1.098654866218567,
   -4.2696919441223145,
   3.1705853939056396,
   0.40052199363708496,
   -1.7619163990020752,
   0.8987624049186707,
   0.27701613306999207,
   3.006418228149414,
   2.1037979125976562,
   0.391572505235672,
   -4.224447727203369,
   0.8752376437187195,
   1.045485496520996,
   1.423577904701233,
   -4.940162181854248,
   0.17944195866584778,
   -0.18022023141384125,
   -1.4016903638839722,
   2.0721144676208496,
   4.055542945861816,
   0.06399643421173096,
   -1.0810788869857788,
   1.3576160669326782,
   -0.54680997133255,
   3.2737648487091064,
   1.9913545846939087,
   -2.4660685062408447,
   0.4138369858264923,
   0.15250077843666077,
   1.3172379732131958,
   -4.2667670249938965,
   -1.9022549390792847,
   1.8975002765655518,
   4.806680202484131,
   0.6292955875396729,
   -0.5237036347389221,
   -3.068331241607666,
   5.772533893585205,
   -2.7878615856170654,
   0.4225878119468689,
   4.375475883483887,
   0.33851107954978943,
   0.2912718653678894,
   0.6329383850097656,
   -4.014519214630127
  ]
 ],
 "pi.2.bias": [
  -0.030474558472633362,
  2.1270816326141357,
  1.3990952968597412,
  0.04706402122974396,
  0.9804161787033081,
  0.08546947687864304,
  -0.1876198947429657,
  0.8755530118942261,
  0.1176878809928894,
  0.8400272130966187,
  0.6992805004119873,
  -1.2757805585861206,
  0.016997991129755974,
  0.2950093150138855,
  0.3672776222229004,
  0.02465783804655075,
  0.23293811082839966,
  -0.26419374346733093,
  0.02058899588882923,
  1.688277244567871,
  0.3483039140701294,
  1.7794777154922485,
  -2.7784926891326904,
  0.04982547089457512,
  0.7665948867797852
 ],
 "pi.4.weight": [
  [
   -6.605762958526611,
   -8.40352725982666,
   0.7578991055488586,
   -4.329606056213379,
   -3.297302722930908,
   -4.3578619956970215,
   -5.589118003845215,
   -5.561047554016113,
   -3.1956605911254883,
   1.6456482410430908,
   0.8512355089187622,
   18.323810577392578,
   0.472383052110672,
   -2.200911283493042,
   -1.149586796760559,
   -3.177757978439331,
   9.046773910522461,
   17.202497482299805,
   4.549912929534912,
   2.593780040740967,
   14.411771774291992,
   0.2497897446155548,
   4.954161167144775,
   -3.20967960357666,
   7.150616645812988
  ],
  [
   6.508840084075928,
   4.592869281768799,
   1.9992763996124268,
   -0.10259154438972473,
   -7.768827438354492,
   0.2585083544254303,
   1.3911858797073364,
   9.167830467224121,
   3.0925869941711426,
   3.941126585006714,
   5.960608959197998,
   2.946532726287842,
   1.3657406568527222,
   -8.171783447265625,
   -2.6168179512023926,
   -0.1449870765209198,
   7.527101993560791,
   10.704198837280273,
   -3.5346693992614746,
   -0.18693757057189941,
   8.071039199829102,
   4.5781402587890625,
   -0.8059180974960327,
   -4.432244300842285,
   -2.640406608581543
  ],
  [
   5.271810054779053,
   -19.32440185546875,
   -9.173761367797852,
   -2.4870827198028564,
   4.3932719230651855,
   -4.835817337036133,
   -5.353212356567383,
   -2.344797372817993,
   3.6297125816345215,
   -12.266818046569824,
   -2.700526714324951,
   5.113779544830322,
   3.61669921875,
   -1.5660905838012695,
   0.9652345776557922,
   -6.942345142364502,
   3.1236722469329834,
   1.0754879713058472,
   0.6722055077552795,
   2.58380126953125,
   1.2110505104064941,
   -4.721861839294434,
   2.879997730255127,
   0.6064168214797974,
   1.697015643119812
  ]
 ],
 "pi.4.bias": [
  -1.7411491870880127,
  -2.5559017658233643,
  2.9615676403045654
 ]
}