{
 "pi.0.weight": [
  [
   0.17740498483181,
   -1.0846259593963623,
   0.3100224733352661,
   0.6162238121032715,
   1.1386264562606812,
   0.2103211134672165
  ],
  [
   -0.7357001900672913,
   0.3651876151561737,
   -0.709428608417511,
   0.356123149394989,
   -1.314518928527832,
   -0.38725218176841736
  ],
  [
   1.2394797801971436,
   -0.005644498858600855,
   -0.1952970027923584,
   0.15566182136535645,
   1.1575647592544556,
   -1.1417027711868286
  ],
  [
   -1.3295726776123047,
   0.2327367067337036,
   0.018418757244944572,
   0.44564005732536316,
   0.429207444190979,
   0.0984451100230217
  ],
  [
   -0.11448503285646439,
   1.6816710233688354,
   0.09932360798120499,
   0.2363683581352234,
   0.14152929186820984,
   0.11678711324930191
  ],
  [
   -0.8175215721130371,
   0.5187355279922485,
   0.13900156319141388,
   -0.15743404626846313,
   -0.5158573985099792,
   -0.9029346704483032
  ],
  [
   1.3448609113693237,
   -1.2768760919570923,
   -0.6951691508293152,
   0.09231562167406082,
   0.6095409393310547,
   -1.7054487466812134
  ],
  [
   -0.975530207157135,
   1.1140154600143433,
   -0.16246397793293,
   -0.10894329100847244,
   -0.5964394807815552,
   -0.6446498036384583
  ],
  [
   -0.3317418396472931,
   2.1817197799682617,
   0.2409871518611908,
   0.43703171610832214,
   1.7415369749069214,
   0.9768532514572144
  ],
  [
   -0.571685791015625,
   -0.46970492601394653,
   -1.0951952934265137,
   0.16978222131729126,
   -0.1166529729962349,
   -1.6524600982666016
  ],
  [
   -1.2326642274856567,
   0.6413103342056274,
   0.27452728152275085,
   0.4422326982021332,
   1.9640189409255981,
   0.08353759348392487
  ],
  [
   0.9669376611709595,
   -1.457092046737671,
   -0.24884545803070068,
   -0.19445191323757172,
   -0.49207502603530884,
   -0.8976330757141113
  ],
  [
   0.15540578961372375,
   1.8769104480743408,
   -0.03433531895279884,
   0.732840359210968,
   -0.8935791850090027,
   1.0675430297851562
  ],
  [
   1.25747811794281,
   0.5924948453903198,
   -0.2014385461807251,
   -0.11500124633312225,
   0.8078736662864685,
   -1.7057901620864868
  ],
  [
   -0.6739997267723083,
   -1.9035098552703857,
   -0.15219075977802277,
   -0.3986724615097046,
   -2.167447805404663,
   0.9876569509506226
  ],
  [
   -1.5965678691864014,
   -0.6031402945518494,
   0.6037192940711975,
   0.45684581995010376,
   -0.5201036930084229,
   -1.396404504776001
  ],
  [
   -0.001991480588912964,
   2.32116961479187,
   0.26124921441078186,
   0.10659550130367279,
   1.3640960454940796,
   1.8522708415985107
  ],
  [
   -1.4306493997573853,
   -0.18620294332504272,
   -0.03920791670680046,
   0.36110159754753113,
   0.7392431497573853,
   -0.032331813126802444
  ],
  [
   -1.287979006767273,
   0.43965280055999756,
   -0.037539832293987274,
   -0.47302043437957764,
   2.234137535095215,
   1.3729170560836792
  ],
  [
   -1.8885008096694946,
   0.3666588366031647,
   0.19156698882579803,
   -0.05250249058008194,
   -1.7317966222763062,
   0.7155392169952393
  ],
  [
   0.2046019732952118,
   -0.20500563085079193,
   0.033059120178222656,
   0.12150995433330536,
   -0.8869478702545166,
   -1.3174134492874146
  ],
  [
   0.04445941746234894,
   -0.5217260122299194,
   0.13425418734550476,
   0.16924630105495453,
   -0.8565307259559631,
   -0.5426422357559204
  ],
  [
   0.8729932308197021,
   -0.21134372055530548,
   0.2846496105194092,
   -0.3312669098377228,
   -0.41894662380218506,
   0.8013388514518738
  ],
  [
   0.433761864900589,
   0.287495493888855,
   -0.1278945654630661,
   0.20489990711212158,
   1.2716797590255737,
   -0.19004811346530914
  ],
  [
   -0.14796127378940582,
   -0.7746182680130005,
   -0.07630930840969086,
   0.1689322590827942,
   -1.7745063304901123,
   -0.8807766437530518
  ],
  [
   -1.1019177436828613,
   -0.09006083011627197,
   0.38004979491233826,
   0.0434960275888443,
   -0.7225055694580078,
   -1.8081707954406738
  ],
  [
   1.1902743577957153,
   -1.685976505279541,
   0.03803752362728119,
   0.25064894556999207,
   1.7664567232131958,
   -1.2572249174118042
  ],
  [
   0.5609317421913147,
   0.7796430587768555,
   -0.3846912086009979,
   0.1805439293384552,
   -0.9148296117782593,
   1.0088093280792236
  ],
  [
   0.4814223051071167,
   0.018669407814741135,
   0.2267867624759674,
   0.02292441949248314,
   2.055567979812622,
   0.5790452361106873
  ],
  [
   0.5718064308166504,
   -1.1964349746704102,
   -0.5944304466247559,
   -0.1037091612815857,
   0.09085507690906525,
   -1.0109856128692627
  ],
  [
   -1.6594069004058838,
   -0.019534137099981308,
   0.30494391918182373,
   -0.004730549640953541,
   1.2529330253601074,
   -1.0207582712173462
  ],
  [
   0.3728135824203491,
   -0.24597366154193878,
   -0.1211327612400055,
   0.1256875842809677,
   1.1602439880371094,
   0.045316632837057114
  ],
  [
   -0.4579029679298401,
   -0.7826358675956726,
   -0.2611156702041626,
   0.5835781693458557,
   0.8088445663452148,
   0.4771137833595276
  ],
  [
   -0.7733595371246338,
   0.0951775386929512,
   -0.9023072123527527,
   1.188165545463562,
   -0.8512222766876221,
   0.3489815890789032
  ],
  [
   0.17269779741764069,
   0.8713266849517822,
   0.0701523944735527,
   -0.30110493302345276,
   0.40882202982902527,
   1.5435407161712646
  ],
  [
   -0.08188317716121674,
   0.05680788308382034,
   -0.0949309915304184,
   -0.2360333502292633,
   -1.7905092239379883,
   -1.2386894226074219
  ],
  [
   0.5782626867294312,
   0.23821581900119781,
   0.061506737023591995,
   0.26057690382003784,
   2.034755229949951,
   -0.921052098274231
  ],
  [
   -1.1523854732513428,
   1.7452679872512817,
   0.16290183365345,
   -0.45391762256622314,
   1.6397919654846191,
   -0.47320201992988586
  ],
  [
   0.5547747611999512,
   -0.2418859302997589,
   -0.06184280663728714,
   0.47958871722221375,
   1.125655174255371,
   0.26780152320861816
  ],
  [
   -0.31030160188674927,
   0.14640921354293823,
   -0.31161418557167053,
   0.013533350080251694,
   -1.660918951034546,
   0.08829353749752045
  ],
  [
   -1.4996142387390137,
   -2.342057466506958,
   -0.4858051836490631,
   -0.7245960831642151,
   0.08080717921257019,
   0.22725114226341248
  ],
  [
   -1.3987536430358887,
   1.0655685663223267,
   0.3139389753341675,
   0.492494136095047,
   -1.6203256845474243,
   0.1197534129023552
  ],
  [
   0.15253010392189026,
   1.0973979234695435,
   -0.21602527797222137,
   -0.46678292751312256,
   -2.81205677986145,
   0.36189115047454834
  ],
  [
   0.28275784850120544,
   0.06500881910324097,
   0.18036210536956787,
   0.24711443483829498,
   -1.7325454950332642,
   -0.7979555130004883
  ],
  [
   0.6689264178276062,
   1.0659208297729492,
   0.352061927318573,
   -0.42743489146232605,
   -0.5746912360191345,
   1.9790375232696533
  ],
  [
   -1.2413722276687622,
   -0.39031708240509033,
   0.3947277069091797,
   0.20718389749526978,
   1.5946359634399414,
   -0.1195334866642952
  ],
  [
   -1.730540156364441,
   0.286435067653656,
   0.088651143014431,
   0.21024538576602936,
   -0.9751405715942383,
   -1.3146746158599854
  ],
  [
   -0.35362231731414795,
   -0.6005775332450867,
   -0.09244849532842636,
   -0.332354336977005,
   -1.556636095046997,
   -1.0586203336715698
  ],
  [
   0.5857155919075012,
   -0.9962487816810608,
   -0.15978795289993286,
   0.14808747172355652,
   0.18220534920692444,
   -0.570435106754303
  ],
  [
   0.06905750930309296,
   1.9987138509750366,
   0.2601318359375,
   -0.2620164752006531,
   0.8800882697105408,
   1.0891661643981934
  ],
  [
   -0.3385902941226959,
   2.704465627670288,
   0.022375712171196938,
   0.37360119819641113,
   0.9428576231002808,
   0.06757379323244095
  ],
  [
   -0.6327282786369324,
   -1.6703213453292847,
   -0.09487886726856232,
   -0.10904782265424728,
   -0.3399966061115265,
   1.0824319124221802
  ],
  [
   -0.8527170419692993,
   0.13565194606781006,
   -0.8378921747207642,
   -0.3172357380390167,
   -0.16120809316635132,
   0.39446914196014404
  ],
  [
   -2.0454957485198975,
   -1.7144943475723267,
   0.11920883506536484,
   0.695946216583252,
   0.24401238560676575,
   -0.6669964790344238
  ],
  [
   0.7987467050552368,
   2.3020808696746826,
   -0.31383904814720154,
   0.9298369288444519,
   1.122948408126831,
   0.6002385020256042
  ],
  [
   -0.4392711818218231,
   -0.11374036967754364,
   0.4529111087322235,
   -0.2988637685775757,
   -1.9929659366607666,
   1.752000331878662
  ],
  [
   0.5802739858627319,
   0.8178765773773193,
   0.527901828289032,
   -0.03419731557369232,
   -0.5165051817893982,
   2.2186996936798096
  ],
  [
   0.43505486845970154,
   2.2685489654541016,
   0.14368484914302826,
   -0.08193960040807724,
   0.4163573086261749,
   0.44094690680503845
  ],
  [
   -0.5367730855941772,
   0.10302980244159698,
   -0.1951276957988739,
   0.0717155858874321,
   0.17774245142936707,
   -0.3348255455493927
  ],
  [
   2.0412116050720215,
   0.7120027542114258,
   -0.5058396458625793,
   0.1259298175573349,
   1.0789800882339478,
   1.3987553119659424
  ],
  [
   -2.8194944858551025,
   -1.5721594095230103,
   0.05008905380964279,
   -0.4041418731212616,
   -0.10946718603372574,
   -0.24529962241649628
  ],
  [
   -0.05169486999511719,
   -1.6563494205474854,
   -0.8110668063163757,
   -0.009349290281534195,
   -0.9229780435562134,
   -0.4217275381088257
  ],
  [
   -0.276376336812973,
   -1.3460906744003296,
   -0.38712385296821594,
   0.30057668685913086,
   0.3780673146247864,
   0.5816438794136047
  ],
  [
   0.5254960656166077,
   -1.1900126934051514,
   0.1517147719860077,
   0.23519881069660187,
   -0.2640988230705261,
   -2.440812349319458
  ],
  [
   -0.3538650870323181,
   -0.7186089754104614,
   0.3616997301578522,
   -0.5892098546028137,
   -1.0291037559509277,
   -0.9958045482635498
  ],
  [
   -1.042725682258606,
   -1.6595988273620605,
   0.16961197555065155,
   0.8676804304122925,
   -0.0520843043923378,
   0.04974251240491867
  ],
  [
   0.955896258354187,
   0.3072510361671448,
   -0.0004523296665865928,
   -0.5016195178031921,
   0.5871980786323547,
   -1.5197899341583252
  ],
  [
   -1.4571597576141357,
   -0.8204976916313171,
   0.24097368121147156,
   0.49824777245521545,
   -2.4437098503112793,
   0.807215690612793
  ],
  [
   1.556815266609192,
   0.5969433188438416,
   0.7881062626838684,
   0.6239310503005981,
   -0.08114936947822571,
   0.24305525422096252
  ],
  [
   -1.3370600938796997,
   -0.7327259182929993,
   -0.3380681872367859,
   0.3195140063762665,
   0.04036905989050865,
   -0.5726768374443054
  ],
  [
   -0.38391146063804626,
   -1.2475239038467407,
   0.020159609615802765,
   0.1800415813922882,
   -0.9571315050125122,
   -2.271531343460083
  ],
  [
   -0.3769106864929199,
   0.1890139877796173,
   -0.08228010684251785,
   -0.00813073106110096,
   -1.9380857944488525,
   -0.41161248087882996
  ],
  [
   -0.8360493779182434,
   -1.6405820846557617,
   -0.6181743144989014,
   -0.5271923542022705,
   -1.503833293914795,
   -0.6169296503067017
  ],
  [
   -1.6043075323104858,
   0.9582529664039612,
   0.21179968118667603,
   0.13671599328517914,
   -0.9196404814720154,
   -0.29482072591781616
  ],
  [
   0.1784333735704422,
   0.9818907976150513,
   0.4034395217895508,
   0.6032639741897583,
   0.6752551794052124,
   -1.2904572486877441
  ],
  [
   -1.1929829120635986,
   -1.1952868700027466,
   0.22646553814411163,
   0.1341627985239029,
   -2.227933883666992,
   0.2758132815361023
  ],
  [
   -1.0966885089874268,
   1.3975363969802856,
   0.5795649290084839,
   0.5412707328796387,
   -0.0584980770945549,
   0.29340699315071106
  ],
  [
   0.7810788750648499,
   0.6319159269332886,
   0.5235366225242615,
   1.1525946855545044,
   -0.12120522558689117,
   0.3110922574996948
  ],
  [
   -0.2111266851425171,
   -0.8793967366218567,
   0.15314632654190063,
   0.08945003151893616,
   1.3958419561386108,
   1.2663865089416504
  ],
  [
   0.7786434888839722,
   -2.3006207942962646,
   -0.6422346830368042,
   -0.21575917303562164,
   -1.178039312362671,
   0.288093239068985
  ],
  [
   -1.2272536754608154,
   -0.6239872574806213,
   -0.5848221778869629,
   -0.06757128983736038,
   0.7190575003623962,
   -0.6227990984916687
  ],
  [
   0.9139983057975769,
   1.657989740371704,
   0.597944974899292,
   -0.10951438546180725,
   -0.9242543578147888,
   1.840921401977539
  ],
  [
   -1.624567985534668,
   -0.7853895425796509,
   -0.07419723272323608,
   -0.6411044597625732,
   -2.849309206008911,
   0.26880285143852234
  ],
  [
   -0.2944658100605011,
   1.5937163829803467,
   0.3168240189552307,
   0.12291236221790314,
   -2.2781455516815186,
   0.918369710445404
  ],
  [
   -0.9301589131355286,
   -0.36025622487068176,
   -0.17509326338768005,
   -0.9458804130554199,
   -1.8746808767318726,
   1.171249270439148
  ],
  [
   -0.47626766562461853,
   -1.162471890449524,
   -0.24092227220535278,
   -0.03156173229217529,
   0.4300875961780548,
   -1.1865391731262207
  ],
  [
   -2.044451951980591,
   0.2722960114479065,
   -0.07390478253364563,
   -0.03660186380147934,
   -1.9785155057907104,
   -1.3328537940979004
  ],
  [
   1.4476301670074463,
   -0.17733222246170044,
   -0.014453629963099957,
   -0.22581101953983307,
   0.5521334409713745,
   0.09545669704675674
  ],
  [
   -1.4693183898925781,
   0.7316924333572388,
   0.46946409344673157,
   1.3298273086547852,
   -2.2585887908935547,
   1.3285231590270996
  ],
  [
   0.8134955167770386,
   0.39727783203125,
   -0.4277864098548889,
   -0.044856082648038864,
   1.0835895538330078,
   1.5581029653549194
  ],
  [
   1.0890743732452393,
   -1.3331876993179321,
   0.2849089205265045,
   -0.8993853330612183,
   -0.2810739576816559,
   -0.027316512539982796
  ],
  [
   0.3101377785205841,
   -1.0840797424316406,
   0.36045488715171814,
   -0.5603930950164795,
   0.9586305618286133,
   0.1132168173789978
  ],
  [
   -1.1361035108566284,
   0.5131517648696899,
   -0.06615865230560303,
   -0.0835954025387764,
   -1.6080034971237183,
   1.18429696559906
  ],
  [
   -0.2612822949886322,
   -0.5597227811813354,
   0.07888580858707428,
   -0.7184037566184998,
   1.3326228857040405,
   -1.1758719682693481
  ],
  [
   0.5969815254211426,
   0.48146069049835205,
   -0.2951611280441284,
   0.30370718240737915,
   2.180394172668457,
   1.292324423789978
  ],
  [
   -0.4641593098640442,
   -0.8350844979286194,
   0.1260221153497696,
   -0.2609636187553406,
   -0.7605102062225342,
   -1.5910422801971436
  ],
  [
   -0.898087739944458,
   -1.1465483903884888,
   -0.478516548871994,
   0.013532754965126514,
   -2.0139241218566895,
   -0.46830782294273376
  ],
  [
   -0.9905204772949219,
   -1.1075942516326904,
   -0.4205406904220581,
   -0.9159867167472839,
   0.7703093886375427,
   -0.30523481965065
  ],
  [
   0.9174991250038147,
   0.6707748174667358,
   0.09712349623441696,
   -0.29712268710136414,
   0.664880633354187,
   1.469393014907837
  ],
  [
   -2.2708446979522705,
   -1.3011397123336792,
   -0.42540067434310913,
   -0.2693477272987366,
   1.1100783348083496,
   -0.41650524735450745
  ]
 ],
 "pi.0.bias": [
  -0.42552971839904785,
  -0.8008254170417786,
  0.04925374314188957,
  2.481757879257202,
  1.686800479888916,
  -4.994891166687012,
  0.9743797183036804,
  -2.2337536811828613,
  -1.0004689693450928,
  0.9756749868392944,
  -1.6222119331359863,
  -4.2703776359558105,
  1.3020427227020264,
  1.2938274145126343,
  0.019723176956176758,
  1.448599934577942,
  -2.46480655670166,
  2.638213872909546,
  -0.4611438810825348,
  0.13459786772727966,
  1.0244452953338623,
  2.0163636207580566,
  2.4699618816375732,
  -5.4402852058410645,
  -3.7858595848083496,
  -3.1265347003936768,
  1.2771838903427124,
  1.6143913269042969,
  -2.461008310317993,
  0.7825990319252014,
  1.6437071561813354,
  1.2740315198898315,
  3.0992045402526855,
  -7.870828151702881,
  2.8185274600982666,
  -0.07646404951810837,
  -1.5850541591644287,
  -2.2286837100982666,
  1.7795913219451904,
  2.0696582794189453,
  1.7678314447402954,
  -2.9721105098724365,
  0.6724290251731873,
  -0.7457782626152039,
  -2.98685884475708,
  -3.2206387519836426,
  -2.5488011837005615,
  -3.879340410232544,
  1.941259741783142,
  -0.8205121755599976,
  -2.2408499717712402,
  -4.3677568435668945,
  -3.5832042694091797,
  1.5561660528182983,
  -4.952462196350098,
  0.46575498580932617,
  -2.9191789627075195,
  2.1412596702575684,
  -3.174567937850952,
  -0.22276920080184937,
  0.3953958749771118,
  -3.7568209171295166,
  2.7018883228302,
  -0.519900918006897,
  1.6957507133483887,
  1.9528242349624634,
  1.509207844734192,
  -0.8642332553863525,
  -4.297844409942627,
  -5.674327373504639,
  -0.9750201106071472,
  1.5187997817993164,
  1.3033403158187866,
  1.9350305795669556,
  1.4423898458480835,
  0.042762383818626404,
  -1.3114227056503296,
  1.50181245803833,
  -3.8223495483398438,
  1.8428142070770264,
  2.598158121109009,
  0.5285272002220154,
  -1.2304614782333374,
  -0.2929117977619171,
  -1.2124648094177246,
  -4.087401866912842,
  -1.4019722938537598,
  2.0024631023406982,
  -0.3231170177459717,
  -3.535461664199829,
  2.357212781906128,
  -6.267324924468994,
  -0.818632185459137,
  -1.8925119638442993,
  0.5139703750610352,
  -4.046581745147705,
  -0.874505877494812,
  -2.986586093902588,
  2.092411518096924,
  -4.4603776931762695
 ],
 "pi.2.weight": [
  [
   -0.5669547915458679,
   0.3028770089149475,
   -0.27908551692962646,
   -1.8958940505981445,
   1.3973897695541382,
   2.9236927032470703,
   0.7229153513908386,
   -0.8737969398498535,
   -1.2008715867996216,
   0.41627970337867737,
   -1.0692559480667114,
   5.10962438583374,
   -0.5533924102783203,
   -0.6453864574432373,
   1.0454920530319214,
   -1.1095783710479736,
   -1.2519255876541138,
   -0.6919173002243042,
   -1.0671683549880981,
   0.7222715616226196,
   1.2093673944473267,
   -0.6698917150497437,
   0.5950189828872681,
   -6.018764972686768,
   -1.274271011352539,
   -2.3004236221313477,
   -0.9691635370254517,
   -0.11870942264795303,
   2.953805446624756,
   -1.1513335704803467,
   -0.6371098756790161,
   0.6395738124847412,
   0.5418083667755127,
   -1.3614516258239746,
   -0.5028887391090393,
   1.5157948732376099,
   -0.8729698657989502,
   0.68094402551651,
   1.1845208406448364,
   -1.0231446027755737,
   0.1131753996014595,
   -1.365697979927063,
   0.29863566160202026,
   1.8489123582839966,
   -0.4720211923122406,
   0.3561590015888214,
   2.7829391956329346,
   -2.0931951999664307,
   -0.9602940678596497,
   0.7314718961715698,
   0.8960228562355042,
   6.408367156982422,
   2.8582520484924316,
   1.1910176277160645,
   -1.6114436388015747,
   -0.39409664273262024,
   0.48169559240341187,
   0.48542168736457825,
   2.231950521469116,
   -1.2884297370910645,
   1.3118526935577393,
   -4.8967604637146,
   0.6232358813285828,
   1.3666305541992188,
   0.6405588388442993,
   -0.0862262099981308,
   0.31126901507377625,
   1.5776684284210205,
   -3.654444456100464,
   2.174077272415161,
   -0.2154417335987091,
   -1.0409690141677856,
   0.5568587779998779,
   -0.10356571525335312,
   0.7696375846862793,
   -1.1167200803756714,
   1.1461899280548096,
   0.8390326499938965,
   2.766963005065918,
   -1.258992075920105,
   -0.9316374063491821,
   -0.3374681770801544,
   -0.6145398020744324,
   0.761030375957489,
   -1.0226994752883911,
   -2.9359753131866455,
   -1.8943320512771606,
   0.7853009700775146,
   -1.0099376440048218,
   -1.8712185621261597,
   0.2237260788679123,
   -2.5092263221740723,
   1.4291847944259644,
   0.14050014317035675,
   0.9435600638389587,
   3.0329949855804443,
   -0.4079663157463074,
   6.245971202850342,
   0.7692655324935913,
   -1.4309760332107544
  ],
  [
   0.40319448709487915,
   1.147817611694336,
   1.900692343711853,
   -0.11675900220870972,
   0.6406987905502319,
   2.993074417114258,
   0.7517390251159668,
   1.5362529754638672,
   0.8095210194587708,
   -1.0622973442077637,
   -1.7970912456512451,
   -0.7159814238548279,
   1.1669508218765259,
   -0.9482738375663757,
   0.06333614140748978,
   0.18533366918563843,
   -1.438646912574768,
   0.7955712080001831,
   -1.4210822582244873,
   -1.3115171194076538,
   1.3437869548797607,
   1.4248425960540771,
   0.5055911540985107,
   0.5066218972206116,
   3.442206621170044,
   0.027435805648565292,
   -1.2967183589935303,
   1.649064540863037,
   1.0363627672195435,
   -1.1886355876922607,
   1.0501586198806763,
   -1.1245197057724,
   1.7328161001205444,
   -3.776108980178833,
   -1.9392701387405396,
   2.152040481567383,
   1.8046258687973022,
   1.3420915603637695,
   0.16892150044441223,
   -0.6533052921295166,
   1.5194038152694702,
   0.10154776275157928,
   -1.0571140050888062,
   1.3594493865966797,
   2.0670576095581055,
   -2.4730520248413086,
   -0.006574590224772692,
   -4.9010772705078125,
   0.5542463064193726,
   1.225724220275879,
   2.9566569328308105,
   0.9637832641601562,
   -1.5699162483215332,
   -0.3820189833641052,
   -2.5879130363464355,
   -1.1042412519454956,
   -1.731561303138733,
   -1.3832690715789795,
   -3.668532609939575,
   -0.9106892347335815,
   0.771299421787262,
   -0.2600453197956085,
   1.0444835424423218,
   0.7116760015487671,
   -0.552666187286377,
   -1.6559611558914185,
   1.3842568397521973,
   -0.1602441370487213,
   1.2441730499267578,
   4.870814323425293,
   -1.0746632814407349,
   1.3120146989822388,
   -0.639016330242157,
   -0.8391572833061218,
   -1.1234275102615356,
   -0.6890186071395874,
   2.6669137477874756,
   0.2261148989200592,
   0.3072018027305603,
   -0.9873718023300171,
   -1.002280831336975,
   1.1519685983657837,
   0.97269606590271,
   -0.9362146854400635,
   1.102445363998413,
   3.513822317123413,
   -0.6247220039367676,
   -1.35126531124115,
   0.3314267098903656,
   -1.3876079320907593,
   -0.9701769351959229,
   4.42399263381958,
   -0.41537919640541077,
   -2.1186225414276123,
   0.6735642552375793,
   -0.6187775731086731,
   -1.4820852279663086,
   0.5558193325996399,
   1.5234813690185547,
   0.7383280396461487
  ]
 ],
 "pi.2.bias": [
  1.0255215167999268,
  -0.3183422386646271
 ]
}