{
 "pi.0.weight": [
  [
   1.1197636127471924,
   1.8995850086212158,
   1.9511239528656006,
   0.993658185005188,
   -1.3967154026031494,
   0.03188712149858475
  ],
  [
   -1.8782776594161987,
   1.951574683189392,
   0.015911629423499107,
   -3.078484535217285,
   -3.496288537979126,
   3.942457675933838
  ],
  [
   -0.21003015339374542,
   -1.6947089433670044,
   -2.498952627182007,
   -1.1927447319030762,
   2.2260496616363525,
   4.011485576629639
  ],
  [
   -3.8573403358459473,
   0.004501585848629475,
   -0.25719454884529114,
   -0.509590208530426,
   1.2028237581253052,
   1.0827864408493042
  ],
  [
   -0.10657581686973572,
   0.9266417026519775,
   1.525619387626648,
   -2.137336492538452,
   -1.2404214143753052,
   3.309966802597046
  ],
  [
   -1.0099502801895142,
   3.182713031768799,
   -0.9589781761169434,
   -1.0264700651168823,
   3.1458089351654053,
   -0.3279626667499542
  ],
  [
   -3.286395788192749,
   -3.0328056812286377,
   0.014994324184954166,
   0.9651057124137878,
   2.0466151237487793,
   0.6130779385566711
  ],
  [
   -0.7290238738059998,
   1.9178045988082886,
   -2.365191698074341,
   -3.10162615776062,
   -0.9477580785751343,
   -0.3248557448387146
  ],
  [
   -1.1769472360610962,
   -0.39993271231651306,
   -2.795414686203003,
   2.641840696334839,
   3.511930465698242,
   -0.7594024538993835
  ],
  [
   0.08479585498571396,
   1.3272753953933716,
   0.3530472218990326,
   -1.4499890804290771,
   -0.7015677690505981,
   -2.010631799697876
  ],
  [
   0.9817880988121033,
   0.9557643532752991,
   -2.0696582794189453,
   0.1227666586637497,
   -0.4653487205505371,
   0.20407511293888092
  ],
  [
   -4.512226104736328,
   -0.017171155661344528,
   0.647099494934082,
   1.5929441452026367,
   -0.2646699845790863,
   -1.2370198965072632
  ],
  [
   -0.7917432188987732,
   2.39963436126709,
   -1.9667996168136597,
   0.36421453952789307,
   1.2042577266693115,
   -1.6054540872573853
  ],
  [
   2.1734018325805664,
   1.1545718908309937,
   0.2677885890007019,
   1.7183395624160767,
   0.13037008047103882,
   -2.116928815841675
  ],
  [
   -0.9408131837844849,
   -2.615705728530884,
   2.9692327976226807,
   -2.49324631690979,
   0.7396065592765808,
   -1.5401157140731812
  ],
  [
   -1.226082444190979,
   -0.7873868346214294,
   1.6527777910232544,
   -1.6871737241744995,
   0.9481005072593689,
   1.131015419960022
  ],
  [
   0.3202686905860901,
   0.2378069907426834,
   -0.7235231399536133,
   -1.3893872499465942,
   -0.5805983543395996,
   2.5705299377441406
  ],
  [
   -0.19934333860874176,
   1.3958077430725098,
   -0.38287365436553955,
   3.094282388687134,
   -1.3632795810699463,
   -1.7106084823608398
  ],
  [
   1.0987998247146606,
   -0.9209439754486084,
   -3.4613590240478516,
   2.5029146671295166,
   -0.9452124238014221,
   1.3799240589141846
  ],
  [
   3.241083860397339,
   -2.128629684448242,
   -0.051775746047496796,
   3.4374008178710938,
   -0.5837771892547607,
   -2.3618412017822266
  ],
  [
   -0.6745939254760742,
   2.0812690258026123,
   0.5332331657409668,
   -0.19779594242572784,
   -0.6120418310165405,
   -2.6462574005126953
  ],
  [
   -0.5952765345573425,
   0.004859738517552614,
   0.8446218967437744,
   -4.209868431091309,
   -1.4782683849334717,
   2.1558029651641846
  ],
  [
   -0.15553466975688934,
   0.5965274572372437,
   -2.4253852367401123,
   2.4902381896972656,
   -3.368901252746582,
   -2.204402208328247
  ],
  [
   1.586008071899414,
   1.080959677696228,
   -0.47861382365226746,
   -2.6865503787994385,
   -2.649057626724243,
   3.191946029663086
  ],
  [
   1.9824086427688599,
   -2.624418258666992,
   -0.13643085956573486,
   -0.7799870371818542,
   0.010500972159206867,
   2.255190372467041
  ],
  [
   -0.3809966444969177,
   1.3677290678024292,
   0.41615474224090576,
   -0.6532672047615051,
   1.2419180870056152,
   -6.156491279602051
  ],
  [
   -1.0406955480575562,
   -3.62898588180542,
   -3.3381497859954834,
   0.18932278454303741,
   1.5080394744873047,
   -1.9674911499023438
  ],
  [
   -1.3812638521194458,
   0.7732955813407898,
   1.823704719543457,
   2.235046148300171,
   -3.1418259143829346,
   0.40202412009239197
  ],
  [
   0.9260483384132385,
   -1.2434732913970947,
   -1.8012759685516357,
   -2.5251643657684326,
   0.913780152797699,
   0.21035774052143097
  ],
  [
   -0.07787054777145386,
   -1.6486473083496094,
   1.7334085702896118,
   0.7392339706420898,
   -0.8042879104614258,
   -3.552603006362915
  ],
  [
   1.1291776895523071,
   3.5530929565429688,
   -0.7094696164131165,
   0.3146732449531555,
   -1.3611208200454712,
   1.594603419303894
  ],
  [
   -2.090407371520996,
   1.7798068523406982,
   -1.0410782098770142,
   0.3967915177345276,
   -2.681577444076538,
   0.7384870648384094
  ],
  [
   -4.186646461486816,
   1.1141719818115234,
   0.4914480447769165,
   -0.28738367557525635,
   1.5302143096923828,
   2.8329660892486572
  ],
  [
   -0.924834668636322,
   1.0463967323303223,
   0.21636539697647095,
   0.21985924243927002,
   1.9777017831802368,
   4.460444927215576
  ],
  [
   0.9408994317054749,
   -1.708073377609253,
   -0.06530674546957016,
   4.796679973602295,
   0.5957040786743164,
   -1.8970458507537842
  ],
  [
   -1.3828898668289185,
   -3.0799758434295654,
   -0.6516808271408081,
   2.882673501968384,
   1.6612149477005005,
   -1.944563865661621
  ],
  [
   -0.8064727187156677,
   0.3289600908756256,
   1.1496105194091797,
   -0.4049158990383148,
   1.5971765518188477,
   3.7446670532226562
  ],
  [
   2.1313564777374268,
   1.5071451663970947,
   1.3318040370941162,
   1.6358686685562134,
   -0.90418541431427,
   0.8276732563972473
  ],
  [
   0.9922560453414917,
   3.751603603363037,
   -2.19720196723938,
   -0.3708089590072632,
   -2.479539155960083,
   -1.3231946229934692
  ],
  [
   1.9509021043777466,
   0.6161947250366211,
   0.6013172268867493,
   -1.6129356622695923,
   -2.7985689640045166,
   3.2255876064300537
  ],
  [
   0.09622137248516083,
   0.31717127561569214,
   -1.3395428657531738,
   -0.1579911708831787,
   2.0458288192749023,
   -3.818972587585449
  ],
  [
   0.21675728261470795,
   0.044751714915037155,
   0.4780452251434326,
   0.18871061503887177,
   -4.183509349822998,
   0.5848496556282043
  ],
  [
   2.0960733890533447,
   0.7783864736557007,
   0.7678706049919128,
   -1.345814824104309,
   -4.17714262008667,
   -1.14325749874115
  ],
  [
   -2.1696267127990723,
   -2.0948264598846436,
   -0.9680914878845215,
   -1.5412983894348145,
   1.280015230178833,
   1.069771409034729
  ],
  [
   -0.4842282235622406,
   -2.830840587615967,
   -0.9590657353401184,
   2.192331314086914,
   -1.2995489835739136,
   -0.7132293581962585
  ],
  [
   -2.5126092433929443,
   1.8204338550567627,
   0.07104887068271637,
   -2.607184410095215,
   -1.7827812433242798,
   -2.2277798652648926
  ],
  [
   -0.12119822949171066,
   -2.419088840484619,
   -0.32359784841537476,
   -1.5766322612762451,
   0.10169311612844467,
   0.058380693197250366
  ],
  [
   -0.452643483877182,
   -0.9237489104270935,
   1.5076215267181396,
   3.3404409885406494,
   1.6876553297042847,
   -2.5907294750213623
  ],
  [
   -1.969671607017517,
   -1.8789453506469727,
   -3.5115702152252197,
   -3.92120361328125,
   -0.3883269429206848,
   -0.9688760042190552
  ],
  [
   -0.9955772757530212,
   -1.3837310075759888,
   -2.8965959548950195,
   0.6983846426010132,
   -0.3331187069416046,
   1.2260383367538452
  ],
  [
   -0.5692185163497925,
   0.1139083132147789,
   -1.1309446096420288,
   -1.0057486295700073,
   4.937021732330322,
   -2.060635566711426
  ],
  [
   -1.9718717336654663,
   -1.43860924243927,
   -1.3515398502349854,
   0.30831262469291687,
   0.8926037549972534,
   -1.50814950466156
  ],
  [
   1.550621747970581,
   -2.1504671573638916,
   0.939484715461731,
   -2.753892660140991,
   0.07688481360673904,
   1.1872557401657104
  ],
  [
   1.0143111944198608,
   -1.599128007888794,
   1.0488892793655396,
   2.255068063735962,
   -0.6317969560623169,
   -5.276507377624512
  ],
  [
   0.735375165939331,
   1.2473000288009644,
   1.8729939460754395,
   0.17220114171504974,
   -1.7821885347366333,
   -4.842869758605957
  ],
  [
   -1.9277839660644531,
   -2.9846560955047607,
   -0.807935357093811,
   -1.3610337972640991,
   5.051975727081299,
   -0.09222518652677536
  ],
  [
   0.06373047828674316,
   1.452670693397522,
   -0.23377081751823425,
   -0.017202656716108322,
   -2.7784347534179688,
   -0.040118977427482605
  ],
  [
   0.6468250155448914,
   1.202660322189331,
   -0.04973750188946724,
   -0.0020381310023367405,
   0.15347149968147278,
   0.731950581073761
  ],
  [
   0.3585943877696991,
   1.5641818046569824,
   -0.6069602966308594,
   2.086864709854126,
   1.153791069984436,
   0.3386942446231842
  ],
  [
   -0.10116488486528397,
   3.17588472366333,
   0.257944256067276,
   0.3585233688354492,
   -0.030229559168219566,
   -1.8666582107543945
  ],
  [
   1.0185167789459229,
   0.2653046250343323,
   1.8974080085754395,
   -0.5566285848617554,
   0.26029568910598755,
   1.8651268482208252
  ],
  [
   1.6796761751174927,
   0.9603266716003418,
   -1.3861324787139893,
   -1.9592727422714233,
   0.6007494926452637,
   3.67926287651062
  ],
  [
   -3.378394842147827,
   3.983466625213623,
   -1.7856298685073853,
   -5.402410507202148,
   1.5265001058578491,
   3.502776622772217
  ],
  [
   2.6460037231445312,
   1.080330729484558,
   -0.24004483222961426,
   -0.07362248748540878,
   -0.65586918592453,
   -1.8261903524398804
  ],
  [
   1.231338381767273,
   1.3465590476989746,
   1.1456910371780396,
   0.5588200092315674,
   -2.3675918579101562,
   -3.456589937210083
  ],
  [
   -0.6709514856338501,
   2.7195792198181152,
   0.3349936008453369,
   -0.7480689883232117,
   -1.7739734649658203,
   1.0473774671554565
  ],
  [
   1.2077444791793823,
   -0.15094101428985596,
   1.472018837928772,
   1.8036656379699707,
   -1.1827999353408813,
   -2.5580406188964844
  ],
  [
   -0.8194049596786499,
   1.8594276905059814,
   -3.658388137817383,
   0.46174561977386475,
   -1.7822999954223633,
   0.21774208545684814
  ],
  [
   -0.1541629135608673,
   1.4204516410827637,
   -0.3633132874965668,
   0.7007005214691162,
   1.3649404048919678,
   -1.0090150833129883
  ],
  [
   -0.9349222183227539,
   -1.4747265577316284,
   -3.0116612911224365,
   -1.7201663255691528,
   1.0913527011871338,
   1.7920513153076172
  ],
  [
   4.082334995269775,
   -0.9988753795623779,
   -0.3217298090457916,
   -2.0153446197509766,
   -1.7276644706726074,
   0.21110503375530243
  ],
  [
   0.5002378821372986,
   -1.2308634519577026,
   -0.6252784132957458,
   -1.6048686504364014,
   -0.28868943452835083,
   2.554506540298462
  ],
  [
   2.2153239250183105,
   2.6343605518341064,
   0.640799880027771,
   -0.3007298409938812,
   -0.3848738968372345,
   -0.15579034388065338
  ],
  [
   1.8661189079284668,
   -5.281103610992432,
   -1.9198554754257202,
   -0.007915017195045948,
   -3.5530242919921875,
   -2.3095357418060303
  ],
  [
   -3.48431658744812,
   0.23920845985412598,
   -1.0917134284973145,
   2.3403897285461426,
   1.4739105701446533,
   -2.3907837867736816
  ],
  [
   -0.5274547338485718,
   -3.0830321311950684,
   1.404221534729004,
   1.26504385471344,
   0.41592881083488464,
   0.31584903597831726
  ],
  [
   -2.9589343070983887,
   -2.6918275356292725,
   -0.6394827961921692,
   0.2650676667690277,
   0.7042881846427917,
   -0.15357017517089844
  ],
  [
   -0.2917966842651367,
   -3.1646854877471924,
   -0.16423697769641876,
   -1.2050858736038208,
   -1.1306326389312744,
   0.9091072082519531
  ],
  [
   1.6297985315322876,
   -0.5766421556472778,
   -2.461516857147217,
   0.5449329614639282,
   1.7809547185897827,
   0.4149489402770996
  ],
  [
   0.501919686794281,
   -0.9348374605178833,
   1.2834770679473877,
   2.334310293197632,
   -1.1722898483276367,
   -4.10767936706543
  ],
  [
   -5.365786552429199,
   0.43239882588386536,
   1.2212040424346924,
   -0.1622786521911621,
   3.216428279876709,
   -0.39278167486190796
  ],
  [
   0.353087842464447,
   2.737734079360962,
   0.875762939453125,
   -0.22905905544757843,
   1.1015313863754272,
   -3.471386432647705
  ],
  [
   -0.2176102101802826,
   -0.939176082611084,
   2.3936500549316406,
   2.0177700519561768,
   -0.6067695617675781,
   -0.9418752789497375
  ],
  [
   1.3781336545944214,
   1.1373474597930908,
   0.9247461557388306,
   1.1890182495117188,
   -2.8732552528381348,
   -1.385404109954834
  ],
  [
   0.009346175007522106,
   0.05114370211958885,
   -2.0391743183135986,
   -4.113503932952881,
   -0.042551469057798386,
   1.7866588830947876
  ],
  [
   -1.1373722553253174,
   0.23492909967899323,
   -0.1863982081413269,
   0.6151745915412903,
   2.27970552444458,
   0.4128378927707672
  ],
  [
   -1.0029630661010742,
   -0.18572774529457092,
   1.3342326879501343,
   -0.5957398414611816,
   -0.8133974671363831,
   1.3998838663101196
  ],
  [
   -0.6500476002693176,
   -3.932110548019409,
   0.12718620896339417,
   -0.4891095757484436,
   -1.6395316123962402,
   2.0105855464935303
  ],
  [
   1.5610706806182861,
   -1.5429491996765137,
   0.8240010738372803,
   -3.880634069442749,
   -1.167388916015625,
   -0.43737179040908813
  ],
  [
   -0.4798803925514221,
   3.001093864440918,
   2.1216278076171875,
   2.7548000812530518,
   -0.5707126259803772,
   0.275535523891449
  ],
  [
   -2.494264841079712,
   -4.091919898986816,
   -1.3712090253829956,
   -0.007919666357338428,
   -2.2555885314941406,
   -2.841688632965088
  ],
  [
   -0.17610527575016022,
   -0.1607726663351059,
   1.0837359428405762,
   2.077148199081421,
   -2.3744354248046875,
   -1.1282680034637451
  ],
  [
   1.0862170457839966,
   -0.865512490272522,
   0.5956525206565857,
   -1.755010962486267,
   -1.725814700126648,
   3.316288471221924
  ],
  [
   -0.3068501353263855,
   -3.0051960945129395,
   0.06790602207183838,
   0.2821371555328369,
   3.138676881790161,
   -0.7501229643821716
  ],
  [
   -2.4141359329223633,
   -1.6892305612564087,
   -0.1565922051668167,
   1.801436185836792,
   0.7992282509803772,
   -2.4556374549865723
  ],
  [
   0.7702727913856506,
   6.410733699798584,
   -0.20521311461925507,
   -0.5963323712348938,
   -0.9643926024436951,
   -1.1984996795654297
  ],
  [
   -0.054970670491456985,
   -1.4232826232910156,
   -0.1671566516160965,
   1.7341219186782837,
   -2.0764315128326416,
   -4.279470443725586
  ],
  [
   0.3345158100128174,
   0.34230199456214905,
   1.1645187139511108,
   0.8693585991859436,
   -0.5939022302627563,
   -2.1835622787475586
  ],
  [
   2.8292574882507324,
   0.962798535823822,
   0.6123167276382446,
   -0.9537684321403503,
   0.12411744892597198,
   -0.6496436595916748
  ],
  [
   3.267935037612915,
   0.949532151222229,
   1.3318877220153809,
   -0.5374569892883301,
   -3.346442937850952,
   -1.0138887166976929
  ],
  [
   0.5871580839157104,
   0.5431115627288818,
   -3.701674699783325,
   -1.6576290130615234,
   2.1836748123168945,
   -0.06749583035707474
  ],
  [
   1.8033980131149292,
   -0.028710201382637024,
   -0.7480063438415527,
   0.250148206949234,
   2.8322739601135254,
   -0.2569285035133362
  ],
  [
   3.6456873416900635,
   0.9361782073974609,
   -0.14821834862232208,
   0.17635633051395416,
   0.5641403794288635,
   -2.62332820892334
  ],
  [
   -0.6727733612060547,
   -1.0582126379013062,
   0.3374755382537842,
   0.15168872475624084,
   -3.1508798599243164,
   -1.082504153251648
  ],
  [
   -1.1176475286483765,
   2.6474080085754395,
   -1.5114493370056152,
   2.118119716644287,
   1.563372015953064,
   -4.723591327667236
  ],
  [
   1.4826418161392212,
   0.4058370590209961,
   3.9367706775665283,
   -0.17146146297454834,
   -1.6918836832046509,
   -0.22983857989311218
  ],
  [
   -0.86141037940979,
   -1.995794415473938,
   0.5382193326950073,
   -5.853323459625244,
   -0.8886401653289795,
   0.6581913232803345
  ],
  [
   -2.022341012954712,
   0.6669399738311768,
   0.32906395196914673,
   3.7419145107269287,
   0.9410891532897949,
   -4.560235500335693
  ],
  [
   1.4822372198104858,
   -3.1503336429595947,
   0.07290437072515488,
   1.8435661792755127,
   -0.2517770230770111,
   -4.427699565887451
  ],
  [
   -2.9762234687805176,
   -1.4066416025161743,
   -0.6536095142364502,
   1.6477017402648926,
   2.7789223194122314,
   -1.2680718898773193
  ],
  [
   1.7975857257843018,
   -2.575751304626465,
   1.4827659130096436,
   -2.324709177017212,
   2.7542498111724854,
   -1.362060308456421
  ],
  [
   -1.5598833560943604,
   2.1444666385650635,
   -1.6824740171432495,
   0.6203659176826477,
   1.7660216093063354,
   0.28111404180526733
  ],
  [
   -5.439287185668945,
   -0.835805356502533,
   0.6891015768051147,
   -0.4379069209098816,
   1.4867091178894043,
   1.7472797632217407
  ],
  [
   -0.9073905348777771,
   1.7440848350524902,
   -0.11843791604042053,
   0.4596133232116699,
   -0.48769626021385193,
   0.061810754239559174
  ],
  [
   2.337705612182617,
   0.41487643122673035,
   0.6921955943107605,
   0.7205387949943542,
   -0.4514724910259247,
   -3.60807466506958
  ],
  [
   2.003537178039551,
   2.747076988220215,
   1.7448476552963257,
   0.36641669273376465,
   -3.8537819385528564,
   -0.9243199825286865
  ],
  [
   -2.6657469272613525,
   -0.23493503034114838,
   -0.44812124967575073,
   -0.38181594014167786,
   1.6838771104812622,
   -2.867797374725342
  ],
  [
   1.5841271877288818,
   0.972380518913269,
   -2.1605257987976074,
   0.24274484813213348,
   1.8612157106399536,
   2.0743825435638428
  ],
  [
   0.24559523165225983,
   -1.1572318077087402,
   -0.5913524031639099,
   -3.4647510051727295,
   -1.4445645809173584,
   3.6726481914520264
  ],
  [
   0.8536341786384583,
   1.4014737606048584,
   0.12910476326942444,
   -3.019331216812134,
   -1.3968666791915894,
   1.281390905380249
  ],
  [
   0.21219363808631897,
   -1.1970713138580322,
   0.7913139462471008,
   -0.7004489898681641,
   -6.134697914123535,
   -1.320375919342041
  ],
  [
   1.0559296607971191,
   -0.5957921147346497,
   -0.6704679131507874,
   0.03369620069861412,
   -4.48115348815918,
   -3.0421907901763916
  ],
  [
   0.12723110616207123,
   -0.0743953138589859,
   -0.882413387298584,
   2.5958495140075684,
   0.6768602132797241,
   0.9401645064353943
  ],
  [
   0.9546517133712769,
   0.12933072447776794,
   -2.260765314102173,
   0.11611858755350113,
   -0.5616587996482849,
   1.2877795696258545
  ],
  [
   -0.32015275955200195,
   0.12260529398918152,
   -0.04033176600933075,
   -1.3345222473144531,
   0.4012669026851654,
   -0.8467140793800354
  ],
  [
   -3.733893394470215,
   -1.4568010568618774,
   0.19991567730903625,
   1.5922716856002808,
   -1.1748656034469604,
   -4.0904316902160645
  ],
  [
   1.7629755735397339,
   -0.6513904929161072,
   -0.2581372559070587,
   2.107701063156128,
   0.44199833273887634,
   -0.20543023943901062
  ],
  [
   -1.0752469301223755,
   -0.32711347937583923,
   0.6125908493995667,
   -2.642063856124878,
   -2.414201498031616,
   2.007786989212036
  ],
  [
   -5.727393627166748,
   -1.3819913864135742,
   0.5786296129226685,
   -0.7624868750572205,
   -0.1571151465177536,
   -2.2623095512390137
  ],
  [
   1.741524577140808,
   -1.745926022529602,
   0.5080938339233398,
   1.2459299564361572,
   1.0614749193191528,
   -1.096785545349121
  ],
  [
   -3.8025527000427246,
   -0.42151468992233276,
   0.4095045030117035,
   -0.4492201805114746,
   -0.7756025791168213,
   1.3072580099105835
  ],
  [
   4.379356384277344,
   0.9062790274620056,
   -0.24066923558712006,
   -0.6742112636566162,
   -0.4381750524044037,
   -0.38263845443725586
  ],
  [
   1.4633026123046875,
   3.202544927597046,
   2.4152607917785645,
   -1.7689793109893799,
   -0.7757673859596252,
   -0.7173472046852112
  ],
  [
   0.41723039746284485,
   -0.07210701704025269,
   -0.19059492647647858,
   3.465285062789917,
   -0.9801128506660461,
   -4.360786437988281
  ],
  [
   0.2742660939693451,
   -0.47975459694862366,
   -0.5255765914916992,
   -0.5726687908172607,
   0.36034873127937317,
   7.124001979827881
  ],
  [
   -0.6615136861801147,
   4.064962387084961,
   -0.5268608927726746,
   -4.2141289710998535,
   1.6848434209823608,
   1.3480327129364014
  ],
  [
   0.88972407579422,
   0.6185837388038635,
   -2.694969892501831,
   1.417630910873413,
   2.3993124961853027,
   -1.4487406015396118
  ],
  [
   0.629618227481842,
   -5.538297176361084,
   0.7001904845237732,
   2.043304681777954,
   -0.7794966697692871,
   -3.067002534866333
  ],
  [
   0.435140460729599,
   0.7636926174163818,
   2.4697022438049316,
   2.0207178592681885,
   0.22800247371196747,
   1.3611685037612915
  ],
  [
   -0.8085014224052429,
   0.03462628275156021,
   2.0165722370147705,
   1.8108934164047241,
   -0.9385631680488586,
   -0.6817202568054199
  ],
  [
   -0.8643633723258972,
   1.8160197734832764,
   -1.3226995468139648,
   0.31994372606277466,
   0.1512213945388794,
   1.4783819913864136
  ],
  [
   0.9543051719665527,
   -1.1424461603164673,
   0.4295727610588074,
   3.661667823791504,
   1.3235371112823486,
   -3.4385247230529785
  ],
  [
   -3.410029649734497,
   0.7911892533302307,
   -0.491332083940506,
   0.08934630453586578,
   2.649786949157715,
   -1.9733402729034424
  ],
  [
   2.1982908248901367,
   -1.6050938367843628,
   -1.3206713199615479,
   0.5504128932952881,
   -1.4890693426132202,
   -4.072672367095947
  ],
  [
   0.2569139003753662,
   -0.3973481059074402,
   0.9821810722351074,
   -2.7921926975250244,
   -1.0897324085235596,
   2.014101266860962
  ],
  [
   2.2175843715667725,
   0.7079353928565979,
   -0.014308934099972248,
   2.581451416015625,
   -0.5935038328170776,
   -1.5695874691009521
  ],
  [
   0.940788209438324,
   -0.38078027963638306,
   1.4433460235595703,
   1.8772761821746826,
   -4.562549114227295,
   -2.6190712451934814
  ],
  [
   0.46726569533348083,
   -0.5458080172538757,
   1.5196846723556519,
   -2.0911176204681396,
   0.5738823413848877,
   0.8771175146102905
  ],
  [
   0.1681184470653534,
   -1.7959849834442139,
   1.634772777557373,
   1.6855484247207642,
   -3.2768592834472656,
   -0.5136511325836182
  ],
  [
   1.2501952648162842,
   -1.272779941558838,
   2.1013591289520264,
   1.7912367582321167,
   -0.5729741454124451,
   -4.698007583618164
  ],
  [
   -0.3850424289703369,
   0.6935675740242004,
   1.375033974647522,
   1.3358721733093262,
   -1.6213356256484985,
   -3.2830114364624023
  ],
  [
   -1.369289517402649,
   -0.8447736501693726,
   -0.7014849781990051,
   0.6976490616798401,
   4.7276153564453125,
   3.2596912384033203
  ],
  [
   1.6888419389724731,
   1.69232976436615,
   0.016009459272027016,
   -0.020006371662020683,
   -2.5934371948242188,
   -2.361478805541992
  ],
  [
   -2.0440917015075684,
   -2.0122230052948,
   1.7806557416915894,
   -1.284780502319336,
   -4.068848133087158,
   2.3626673221588135
  ],
  [
   -1.543549656867981,
   -5.7640862464904785,
   0.588333010673523,
   -0.002124926308169961,
   -1.254051685333252,
   -4.568765640258789
  ],
  [
   3.0093464851379395,
   -0.8144769668579102,
   0.17975784838199615,
   -1.7747888565063477,
   -3.18914794921875,
   -1.2422666549682617
  ],
  [
   0.74749356508255,
   0.9096017479896545,
   0.13985198736190796,
   -2.416860342025757,
   -3.4821321964263916,
   1.895838975906372
  ],
  [
   -0.5636835694313049,
   2.697988748550415,
   -2.6187856197357178,
   -0.41223806142807007,
   0.29656580090522766,
   1.2951184511184692
  ],
  [
   1.6324312686920166,
   0.14944247901439667,
   1.401810646057129,
   -2.371307849884033,
   -3.1241822242736816,
   2.3597869873046875
  ],
  [
   2.2454981803894043,
   1.2581136226654053,
   0.22686241567134857,
   1.683784008026123,
   -1.2827733755111694,
   -2.1271798610687256
  ],
  [
   1.94609534740448,
   -1.8669325113296509,
   1.897046685218811,
   3.000885248184204,
   -0.4026991128921509,
   -0.11733158677816391
  ],
  [
   1.8666011095046997,
   0.5655383467674255,
   0.38022372126579285,
   0.04032931476831436,
   -0.37244340777397156,
   -1.5375916957855225
  ],
  [
   1.8385586738586426,
   -1.1826770305633545,
   1.3665449619293213,
   3.206112861633301,
   -0.29569604992866516,
   -0.623210072517395
  ],
  [
   2.2546589374542236,
   -2.5825812816619873,
   0.713437557220459,
   3.1052467823028564,
   0.08418906480073929,
   -3.3303799629211426
  ],
  [
   -0.35122203826904297,
   -0.6826522350311279,
   0.21353167295455933,
   -1.817325472831726,
   1.8908147811889648,
   5.731836795806885
  ],
  [
   1.2290505170822144,
   -0.8185793161392212,
   -0.0862172469496727,
   3.2583625316619873,
   -0.5132719278335571,
   -0.037907641381025314
  ],
  [
   -2.258701801300049,
   0.07735544443130493,
   -0.05871298536658287,
   0.019447073340415955,
   -2.3762588500976562,
   -3.3080523014068604
  ],
  [
   1.3221019506454468,
   -1.5072290897369385,
   0.7077232003211975,
   -1.0154666900634766,
   -3.585146903991699,
   1.051003098487854
  ],
  [
   -0.6528898477554321,
   1.1250368356704712,
   -1.0937573909759521,
   -0.6467053294181824,
   4.026771545410156,
   -1.2899763584136963
  ],
  [
   0.19028402864933014,
   -0.41843247413635254,
   0.7395442128181458,
   -4.422346115112305,
   -1.3665757179260254,
   -2.680788993835449
  ],
  [
   -0.3032730221748352,
   -1.3069590330123901,
   3.531020164489746,
   0.6940497756004333,
   -2.8340535163879395,
   -1.5663082599639893
  ],
  [
   2.307772636413574,
   1.1307716369628906,
   -0.6681435108184814,
   -2.3355581760406494,
   -1.5354187488555908,
   2.152904987335205
  ],
  [
   -6.281337738037109,
   -1.5366454124450684,
   -1.147086501121521,
   0.08579616993665695,
   -1.6018794775009155,
   -1.1659867763519287
  ],
  [
   -2.810657024383545,
   1.0059654712677002,
   0.4860574007034302,
   1.243586778640747,
   1.1457805633544922,
   0.21233993768692017
  ],
  [
   -4.423449993133545,
   -1.800171971321106,
   -0.32354581356048584,
   3.854085683822632,
   2.426262140274048,
   -4.196995258331299
  ],
  [
   -0.5602144598960876,
   2.89169979095459,
   0.2465834766626358,
   0.4497736990451813,
   -0.5897055268287659,
   -2.699709415435791
  ],
  [
   -0.5259786248207092,
   -0.6896892189979553,
   3.4581425189971924,
   -0.8461531400680542,
   -2.410372018814087,
   0.6104006767272949
  ],
  [
   0.6580185890197754,
   1.3168907165527344,
   0.48702314496040344,
   1.0791972875595093,
   -2.7748663425445557,
   -1.2428945302963257
  ],
  [
   0.878961980342865,
   1.807833194732666,
   2.3750572204589844,
   2.3366711139678955,
   -0.22154562175273895,
   -0.42717647552490234
  ],
  [
   3.8459277153015137,
   3.650003433227539,
   1.0130748748779297,
   -2.121649980545044,
   0.4236495792865753,
   2.728030204772949
  ],
  [
   1.6253294944763184,
   0.2314513623714447,
   4.0069899559021,
   3.4933063983917236,
   -1.4886384010314941,
   -2.0872905254364014
  ],
  [
   -0.1537248194217682,
   -0.46786612272262573,
   0.44984519481658936,
   -2.242636203765869,
   2.4017298221588135,
   4.2058820724487305
  ],
  [
   2.438838481903076,
   3.03971791267395,
   0.12705039978027344,
   -1.8872039318084717,
   1.4407795667648315,
   1.6451005935668945
  ],
  [
   -1.353553056716919,
   -1.1712970733642578,
   3.4374423027038574,
   0.33944663405418396,
   1.1597850322723389,
   0.5105365514755249
  ],
  [
   -1.4964299201965332,
   -4.009239673614502,
   0.25486209988594055,
   -0.08363929390907288,
   1.9580769538879395,
   1.8225592374801636
  ],
  [
   0.8501571416854858,
   -1.282618761062622,
   1.9863395690917969,
   -0.6778565645217896,
   -0.2789517641067505,
   1.4771960973739624
  ],
  [
   0.03306620568037033,
   -0.42198610305786133,
   -4.428940296173096,
   -3.341336727142334,
   1.8067679405212402,
   0.28904831409454346
  ],
  [
   -1.3279402256011963,
   3.0847201347351074,
   -0.858493983745575,
   0.42360562086105347,
   -0.8771499395370483,
   -2.6732308864593506
  ],
  [
   1.6398887634277344,
   -1.9643715620040894,
   1.2930713891983032,
   -2.7333297729492188,
   0.03419552743434906,
   -2.2217533588409424
  ],
  [
   1.159677267074585,
   -0.709682047367096,
   2.4013864994049072,
   2.4639031887054443,
   -1.7907047271728516,
   -3.195582866668701
  ],
  [
   -0.9529926776885986,
   2.589789390563965,
   0.7826682925224304,
   -0.6389480829238892,
   0.23690256476402283,
   1.7145496606826782
  ],
  [
   0.8436605930328369,
   -0.1661004275083542,
   -0.13436903059482574,
   5.010561943054199,
   1.238797903060913,
   1.0254530906677246
  ],
  [
   -0.36059239506721497,
   1.212665319442749,
   -1.8907932043075562,
   3.450805902481079,
   0.4349783957004547,
   1.8522319793701172
  ],
  [
   0.8346426486968994,
   3.125734806060791,
   0.21067692339420319,
   4.631054401397705,
   1.1527303457260132,
   -0.6092900633811951
  ],
  [
   -0.32897523045539856,
   1.4281244277954102,
   2.63375186920166,
   2.8026914596557617,
   1.2365541458129883,
   -4.387391567230225
  ],
  [
   -1.5756571292877197,
   2.3932082653045654,
   -1.70924973487854,
   -2.162771701812744,
   2.9337551593780518,
   1.0821491479873657
  ],
  [
   -0.7990158796310425,
   -1.3964792490005493,
   -3.6628735065460205,
   -2.4587371349334717,
   0.32079994678497314,
   0.33808377385139465
  ],
  [
   -0.30352410674095154,
   -1.1383575201034546,
   -4.405735015869141,
   -0.7011457085609436,
   1.4853758811950684,
   1.3052514791488647
  ],
  [
   1.5817877054214478,
   2.057877540588379,
   -1.3448636531829834,
   0.866459846496582,
   -1.705230712890625,
   -1.2490686178207397
  ],
  [
   0.9328464865684509,
   -3.929553270339966,
   1.02829909324646,
   0.6765064001083374,
   -1.7246335744857788,
   -0.13824065029621124
  ]
 ],
 "pi.0.bias": [
  3.7994699478149414,
  -0.4375602602958679,
  2.2376835346221924,
  -2.3273017406463623,
  -1.7137463092803955,
  -2.532907724380493,
  -2.3252809047698975,
  -3.0014748573303223,
  0.9831889271736145,
  -5.352919578552246,
  -3.9055824279785156,
  3.0507094860076904,
  0.6829310655593872,
  -6.631424427032471,
  4.060605049133301,
  -3.9614007472991943,
  -0.7017550468444824,
  3.1834487915039062,
  5.960777282714844,
  2.3477585315704346,
  -4.524172306060791,
  -2.2160704135894775,
  -0.9333011507987976,
  -0.05409305915236473,
  2.0120794773101807,
  0.14180801808834076,
  0.09486386924982071,
  -2.5825750827789307,
  5.078929901123047,
  0.9333810210227966,
  -0.21206696331501007,
  1.9681555032730103,
  2.720426321029663,
  3.585285186767578,
  4.914438724517822,
  -3.435206890106201,
  3.6858322620391846,
  -6.067215919494629,
  1.7512023448944092,
  -2.345844030380249,
  -2.235687494277954,
  5.472063064575195,
  -1.5148764848709106,
  2.6662745475769043,
  -1.2903873920440674,
  0.20927459001541138,
  -2.7222840785980225,
  0.9925745129585266,
  3.908720016479492,
  -2.972163438796997,
  1.9924969673156738,
  -3.188645362854004,
  6.639128684997559,
  0.13603338599205017,
  -3.0931756496429443,
  -1.270714282989502,
  -5.448431968688965,
  -3.2540016174316406,
  -1.7061179876327515,
  -2.3810174465179443,
  -2.935516595840454,
  6.491499423980713,
  1.2172478437423706,
  -1.6350051164627075,
  -1.277988076210022,
  -4.6812424659729,
  -1.4914683103561401,
  5.757608890533447,
  6.064525127410889,
  2.94429612159729,
  -2.680037021636963,
  2.4686076641082764,
  -3.362701892852783,
  0.8016170263290405,
  1.501051902770996,
  -4.40449333190918,
  9.032547950744629,
  7.327523231506348,
  4.260471343994141,
  2.0443038940429688,
  2.147873878479004,
  -3.054795503616333,
  3.5064122676849365,
  -1.634721040725708,
  -2.2666964530944824,
  -4.893826007843018,
  4.120181083679199,
  -4.710082530975342,
  -4.294064521789551,
  -3.474679946899414,
  1.4973385334014893,
  -2.3987772464752197,
  -2.6661429405212402,
  -3.6554510593414307,
  -1.6347023248672485,
  -1.3594655990600586,
  -1.5485825538635254,
  -3.8180952072143555,
  -4.642507553100586,
  -4.301473140716553,
  8.02857780456543,
  2.1335551738739014,
  -1.4762696027755737,
  4.132294654846191,
  1.8356858491897583,
  -0.814963698387146,
  1.924155831336975,
  -0.5347555875778198,
  -1.1069347858428955,
  1.1170908212661743,
  -0.7111498713493347,
  -0.8916451930999756,
  1.4723036289215088,
  -3.152029037475586,
  -3.3904876708984375,
  -1.539575457572937,
  3.5487043857574463,
  -0.7005584239959717,
  3.0335278511047363,
  -2.095228433609009,
  1.925778865814209,
  0.6932036280632019,
  -0.8780786395072937,
  -2.8724091053009033,
  -3.8073177337646484,
  -2.145082473754883,
  -6.1289191246032715,
  5.134496212005615,
  -0.9490478038787842,
  -4.776390552520752,
  -5.740403175354004,
  -3.8406624794006348,
  -5.691822052001953,
  -2.890787363052368,
  0.5049884915351868,
  3.8257009983062744,
  0.0031373286619782448,
  -1.232913613319397,
  -6.846495151519775,
  -1.9994229078292847,
  1.608707070350647,
  -4.799956798553467,
  2.0117578506469727,
  -1.788090705871582,
  -4.125116348266602,
  -1.2855703830718994,
  -5.894948959350586,
  -3.6625490188598633,
  -1.5376745462417603,
  0.28240472078323364,
  -1.870806336402893,
  1.337618350982666,
  0.32797950506210327,
  0.00799927394837141,
  0.26701101660728455,
  -2.8276021480560303,
  -2.4150707721710205,
  1.8583652973175049,
  2.2562897205352783,
  5.564950942993164,
  -3.392453670501709,
  3.591073989868164,
  -4.027972221374512,
  0.2632687985897064,
  1.8981491327285767,
  0.769629180431366,
  -4.133055686950684,
  0.27980318665504456,
  -1.788468360900879,
  -3.5524075031280518,
  -2.604144811630249,
  -1.5434544086456299,
  4.067410945892334,
  -0.9255908727645874,
  0.7660332918167114,
  -2.614588499069214,
  -0.9717028737068176,
  -1.3956754207611084,
  2.2634668350219727,
  3.5048043727874756,
  -2.567263603210449,
  3.8922080993652344,
  0.5416473150253296,
  7.03241491317749,
  8.718746185302734,
  -1.4704961776733398,
  3.427194833755493,
  -0.5448567867279053,
  1.7549465894699097,
  -1.6390131711959839,
  5.0812788009643555,
  -1.547960638999939,
  5.611033916473389,
  3.577627182006836,
  2.8337652683258057,
  -4.325249195098877,
  -4.94635009765625,
  3.5221617221832275,
  3.965698003768921,
  2.948019027709961
 ],
 "pi.2.weight": [
  [
   -1.965522050857544,
   -0.3939055800437927,
   1.2852694988250732,
   1.9881542921066284,
   1.4737751483917236,
   1.6384634971618652,
   -2.3542659282684326,
   -2.3229219913482666,
   1.9123190641403198,
   2.143810272216797,
   2.6877222061157227,
   1.4236488342285156,
   2.2216107845306396,
   -0.00809138547629118,
   1.202594518661499,
   1.9290462732315063,
   1.3247401714324951,
   -1.121739149093628,
   -1.8652125597000122,
   0.9168124198913574,
   3.2060799598693848,
   -1.2939543724060059,
   -1.5909669399261475,
   -1.28848397731781,
   -0.5596673488616943,
   2.082576036453247,
   1.4311538934707642,
   1.6904786825180054,
   -0.9817864298820496,
   -0.4338265359401703,
   -0.16547098755836487,
   0.7186280488967896,
   1.1737099885940552,
   2.179638385772705,
   -1.1092371940612793,
   0.9074039459228516,
   -1.356431007385254,
   -0.10581333935260773,
   -2.3141462802886963,
   2.3299508094787598,
   -0.5175026655197144,
   -2.6488311290740967,
   -1.5260564088821411,
   -0.8395477533340454,
   -1.7395862340927124,
   1.115307331085205,
   -3.8661367893218994,
   -2.375608205795288,
   -2.154256820678711,
   -1.3835326433181763,
   3.070291757583618,
   3.0385994911193848,
   2.3416481018066406,
   -0.4353676438331604,
   2.1851882934570312,
   -1.7900298833847046,
   0.07030324637889862,
   -1.620894432067871,
   -2.1540281772613525,
   -1.6075960397720337,
   -2.0249199867248535,
   -0.42605212330818176,
   -2.623983383178711,
   -2.710944652557373,
   -1.450251579284668,
   -2.275479793548584,
   -0.24519199132919312,
   -2.450176239013672,
   1.1938987970352173,
   -1.9069551229476929,
   1.7788660526275635,
   -2.5044922828674316,
   1.0802698135375977,
   -0.23661282658576965,
   0.6042128205299377,
   -2.4914796352386475,
   -2.179480791091919,
   -1.9215600490570068,
   1.9218213558197021,
   2.5944478511810303,
   -1.007810115814209,
   0.18673676252365112,
   2.000847339630127,
   -3.2158775329589844,
   2.0212626457214355,
   1.4570707082748413,
   1.8216214179992676,
   0.9922753572463989,
   2.366250514984131,
   2.7224388122558594,
   -0.7292022705078125,
   -0.4005160629749298,
   1.593915343284607,
   -0.6060528755187988,
   -1.915930151939392,
   2.3684332370758057,
   -2.028864860534668,
   -4.964466094970703,
   -0.7670027613639832,
   2.59279203414917,
   1.7407954931259155,
   -2.6290853023529053,
   0.7037981748580933,
   -0.7045485973358154,
   -0.6617761254310608,
   2.0898425579071045,
   0.08823579549789429,
   1.844234585762024,
   -1.4093313217163086,
   1.6602054834365845,
   1.1370333433151245,
   -0.8221725225448608,
   -2.09456205368042,
   -0.5189051628112793,
   1.9638348817825317,
   -3.024247646331787,
   0.24968907237052917,
   1.318984031677246,
   1.726719617843628,
   0.9495663642883301,
   2.607417106628418,
   2.629173994064331,
   -1.4728695154190063,
   0.888155460357666,
   -3.472966432571411,
   2.1716301441192627,
   -1.962323546409607,
   -1.2519011497497559,
   -2.334211826324463,
   -1.2684794664382935,
   3.399529457092285,
   -1.6045806407928467,
   -1.2521169185638428,
   2.0472521781921387,
   0.07644034922122955,
   -0.6408193111419678,
   -2.2894463539123535,
   2.495220899581909,
   4.090706825256348,
   -2.445364475250244,
   0.8929191827774048,
   -2.10455584526062,
   1.4117207527160645,
   -0.17850561439990997,
   -2.298724889755249,
   -1.9627608060836792,
   1.9964311122894287,
   -1.3895412683486938,
   1.1379555463790894,
   -1.1814368963241577,
   -0.13240069150924683,
   2.610969066619873,
   3.033360719680786,
   0.5900133848190308,
   0.9748417735099792,
   -0.7000575661659241,
   -0.34408870339393616,
   -1.3269461393356323,
   0.12755879759788513,
   -1.6098206043243408,
   2.5747742652893066,
   2.1233980655670166,
   1.8119237422943115,
   -1.9990589618682861,
   1.452492356300354,
   1.2116042375564575,
   1.7914494276046753,
   -1.6251585483551025,
   -2.3742001056671143,
   -0.27074599266052246,
   -2.6017987728118896,
   0.27328574657440186,
   -0.8906471729278564,
   -2.5383670330047607,
   -0.02651207521557808,
   -2.6666247844696045,
   -0.747532844543457,
   -0.9314830899238586,
   2.4202048778533936,
   1.1369167566299438,
   1.9990297555923462,
   -0.3801291584968567,
   -2.7264273166656494,
   2.2155556678771973,
   3.2639362812042236,
   1.1183615922927856,
   -1.9255377054214478,
   0.22696438431739807,
   0.10503187775611877,
   -1.647416591644287,
   0.16552633047103882,
   0.834561288356781,
   -2.089566469192505,
   -0.6357227563858032,
   0.4482831060886383,
   1.0658072233200073,
   -2.2407069206237793,
   1.430268406867981,
   1.9666846990585327,
   1.1363990306854248
  ],
  [
   -0.9056779742240906,
   2.2992823123931885,
   2.546823501586914,
   -1.6012494564056396,
   -3.161515951156616,
   -1.2951276302337646,
   0.6212438941001892,
   -2.6941518783569336,
   -1.1558440923690796,
   -1.250349998474121,
   -2.5111191272735596,
   0.9731680750846863,
   0.018442455679178238,
   -3.646866798400879,
   -1.4310743808746338,
   -1.0346990823745728,
   -3.1228890419006348,
   2.363250970840454,
   1.1801079511642456,
   -1.9322644472122192,
   -0.5426471829414368,
   1.214109182357788,
   1.5062508583068848,
   2.6531195640563965,
   1.5932457447052002,
   0.3438621461391449,
   -0.5432489514350891,
   -1.250006914138794,
   1.6920732259750366,
   1.8874727487564087,
   -1.9575843811035156,
   -1.366081953048706,
   -1.3811171054840088,
   -0.7678412795066833,
   -1.6148602962493896,
   -2.189685821533203,
   1.6168062686920166,
   2.750993251800537,
   -0.846618115901947,
   0.4587496519088745,
   1.845765471458435,
   0.7037482857704163,
   2.7677760124206543,
   -1.7064251899719238,
   1.2950273752212524,
   -2.0254249572753906,
   1.439589023590088,
   0.893004298210144,
   -0.8041092753410339,
   -0.7748116254806519,
   -1.3369051218032837,
   0.18949191272258759,
   0.16248072683811188,
   -2.454516649246216,
   1.449622631072998,
   1.5806235074996948,
   -1.794875144958496,
   4.827800273895264,
   1.004574179649353,
   -2.0095574855804443,
   -1.0794882774353027,
   2.7415778636932373,
   -1.5527907609939575,
   2.0886082649230957,
   2.1706130504608154,
   2.907480239868164,
   -3.2165873050689697,
   0.30726689100265503,
   -2.0582947731018066,
   1.2459933757781982,
   -1.4648531675338745,
   0.7276939153671265,
   -2.793537139892578,
   -1.7428736686706543,
   2.19095778465271,
   0.23451630771160126,
   1.001857042312622,
   -0.5460939407348633,
   -0.6669586896896362,
   -0.19597387313842773,
   -1.7592263221740723,
   2.4315333366394043,
   -0.31166374683380127,
   1.2595125436782837,
   0.8245015740394592,
   -2.419694662094116,
   0.5564355254173279,
   1.0631827116012573,
   -1.5618730783462524,
   0.25635161995887756,
   1.2132768630981445,
   -1.5372354984283447,
   -2.7471113204956055,
   -1.8919289112091064,
   1.9630073308944702,
   1.050279140472412,
   0.9893538355827332,
   2.1544525623321533,
   -4.279606819152832,
   -2.1585116386413574,
   1.1746606826782227,
   -1.3457510471343994,
   -2.7717881202697754,
   -1.5687227249145508,
   -1.3847992420196533,
   -0.8981794714927673,
   1.15049409866333,
   -1.808059573173523,
   1.4959832429885864,
   -1.059797763824463,
   -0.8837828636169434,
   1.5351835489273071,
   0.7893706560134888,
   2.5998103618621826,
   -2.397771120071411,
   0.9721304178237915,
   1.0295225381851196,
   -0.27067744731903076,
   1.0884902477264404,
   -2.519089937210083,
   0.05122101679444313,
   1.0341007709503174,
   1.2983657121658325,
   2.3598086833953857,
   1.7213249206542969,
   -2.3069443702697754,
   2.1871509552001953,
   -1.4941070079803467,
   0.823607861995697,
   -3.163637399673462,
   -0.5752493143081665,
   2.3041560649871826,
   2.804652690887451,
   0.38489586114883423,
   1.9878464937210083,
   -1.9685583114624023,
   -0.8716415762901306,
   0.9271881580352783,
   -0.8630484342575073,
   0.19052822887897491,
   -1.5129783153533936,
   2.189767360687256,
   -1.458712100982666,
   1.4289557933807373,
   1.5257912874221802,
   -0.235447496175766,
   1.0640326738357544,
   3.616349458694458,
   -2.130779504776001,
   1.0567463636398315,
   2.8132684230804443,
   0.19872276484966278,
   -0.6176401376724243,
   -1.765602469444275,
   -0.8499855995178223,
   -2.109947681427002,
   -2.683840274810791,
   1.35295569896698,
   -1.951723337173462,
   2.4744715690612793,
   0.6031667590141296,
   -0.20128141343593597,
   1.9373682737350464,
   0.9070109128952026,
   1.842810034751892,
   -1.593440055847168,
   1.1616272926330566,
   2.075432777404785,
   -0.0803316980600357,
   -0.9955078959465027,
   1.1638907194137573,
   -2.8148300647735596,
   -1.2899096012115479,
   1.0748878717422485,
   -1.8684008121490479,
   1.5681180953979492,
   -1.1755542755126953,
   -1.9964566230773926,
   1.1441789865493774,
   -0.6620821952819824,
   0.9755991101264954,
   2.2322490215301514,
   -0.5963730216026306,
   -0.1223674863576889,
   -0.3960365056991577,
   1.833027720451355,
   -0.40973204374313354,
   1.061725378036499,
   -1.5324294567108154,
   1.8516302108764648,
   1.8245487213134766,
   -0.7272554636001587,
   1.6751207113265991,
   2.5993778705596924,
   -2.3980789184570312,
   -0.543179452419281,
   1.14954674243927,
   -0.9823347926139832,
   -0.10306476056575775,
   -1.3938019275665283
  ]
 ]
}