{
 "pi.0.weight": [
  [
   -1.159461498260498,
   -2.586324691772461,
   -1.5794309377670288,
   1.8605611324310303,
   -0.2676878869533539,
   -2.533984899520874
  ],
  [
   -1.7505239248275757,
   -1.8304237127304077,
   -1.2869950532913208,
   -0.3044961392879486,
   -0.7833801507949829,
   -0.09566710889339447
  ],
  [
   0.3651816248893738,
   -1.5927006006240845,
   -0.6187100410461426,
   -1.6797899007797241,
   2.6537580490112305,
   2.455591917037964
  ],
  [
   -0.9636660814285278,
   -1.4395023584365845,
   2.2404944896698,
   1.3175121545791626,
   0.7292916178703308,
   -2.3475255966186523
  ],
  [
   0.18823659420013428,
   2.0578553676605225,
   0.42526888847351074,
   -0.7802086472511292,
   -1.3633720874786377,
   -1.5811970233917236
  ],
  [
   -0.27617183327674866,
   -0.8264691233634949,
   -0.04229002818465233,
   3.1317763328552246,
   0.771057665348053,
   -1.191983938217163
  ],
  [
   -1.3544573783874512,
   2.692033290863037,
   0.6449759602546692,
   0.23939165472984314,
   -0.4776017367839813,
   -3.486302614212036
  ],
  [
   -1.18917977809906,
   -1.5163785219192505,
   -1.68317449092865,
   1.329024314880371,
   0.5791770815849304,
   -0.5721935033798218
  ],
  [
   1.6597776412963867,
   -1.0791561603546143,
   -0.3234988749027252,
   0.2355244904756546,
   -1.7610608339309692,
   0.577500581741333
  ],
  [
   1.4121991395950317,
   -2.407648801803589,
   -0.7212288975715637,
   -1.3677431344985962,
   -0.01002274639904499,
   -0.5095734000205994
  ],
  [
   0.8924794793128967,
   -0.2763451337814331,
   0.21675755083560944,
   1.3056167364120483,
   -0.2458740770816803,
   -2.1233720779418945
  ],
  [
   1.8614237308502197,
   -0.7959009408950806,
   1.8979028463363647,
   2.9862358570098877,
   -1.5894266366958618,
   -1.8377768993377686
  ],
  [
   0.030135704204440117,
   1.8200113773345947,
   1.3217419385910034,
   1.2741899490356445,
   0.9774410724639893,
   -0.593415379524231
  ],
  [
   -0.16094441711902618,
   1.0620436668395996,
   -2.6189041137695312,
   2.350980758666992,
   0.23804129660129547,
   0.43920594453811646
  ],
  [
   0.2758542001247406,
   -0.2041029930114746,
   -0.4648124575614929,
   2.7167980670928955,
   -1.7800791263580322,
   -1.3120017051696777
  ],
  [
   0.655030369758606,
   -2.833272695541382,
   0.22547270357608795,
   -1.8149303197860718,
   -0.11498349905014038,
   -0.09724804759025574
  ],
  [
   -0.9232524633407593,
   -0.2242516279220581,
   -0.31026965379714966,
   -1.7400643825531006,
   4.201992034912109,
   -0.2256925404071808
  ],
  [
   -0.8420076370239258,
   -2.837721824645996,
   0.20949703454971313,
   0.8071187734603882,
   0.20042532682418823,
   0.4590042531490326
  ],
  [
   -0.5161718726158142,
   0.5002797842025757,
   0.7792100310325623,
   2.867544412612915,
   -2.653038740158081,
   1.072959065437317
  ],
  [
   2.1879043579101562,
   0.28062739968299866,
   -0.17904312908649445,
   -0.06517406553030014,
   -1.6153489351272583,
   1.9228408336639404
  ],
  [
   -0.058055222034454346,
   -1.498898983001709,
   1.5428855419158936,
   -0.2085609883069992,
   -2.8118579387664795,
   1.4605903625488281
  ],
  [
   -1.4505589008331299,
   0.8749239444732666,
   0.7600299119949341,
   0.822003960609436,
   3.2729897499084473,
   0.909484326839447
  ],
  [
   0.16660183668136597,
   -0.49639108777046204,
   -0.43059849739074707,
   -2.6257131099700928,
   0.31413570046424866,
   0.6758735179901123
  ],
  [
   -1.6549886465072632,
   -1.4660533666610718,
   0.9935935139656067,
   1.215884804725647,
   -1.8534395694732666,
   -0.7464836239814758
  ],
  [
   -1.691733956336975,
   -1.1172215938568115,
   -3.535273551940918,
   -0.9950255751609802,
   -0.31242817640304565,
   0.317788690328598
  ],
  [
   -2.427652359008789,
   -1.44479238986969,
   -1.5837063789367676,
   2.0593342781066895,
   2.268601417541504,
   -0.018934983760118484
  ],
  [
   -0.08293317258358002,
   -0.6757590174674988,
   2.8160769939422607,
   1.4237961769104004,
   -0.8939543962478638,
   -2.406928062438965
  ],
  [
   -0.6325141191482544,
   0.33345162868499756,
   -1.1071687936782837,
   4.087218284606934,
   0.28129351139068604,
   -1.0782750844955444
  ],
  [
   -2.268554925918579,
   1.2095882892608643,
   -0.7970601916313171,
   0.029224371537566185,
   0.015797637403011322,
   2.4349536895751953
  ],
  [
   -0.06332781910896301,
   2.253408670425415,
   -0.8577611446380615,
   -0.3969361186027527,
   1.3795713186264038,
   -1.784881830215454
  ],
  [
   1.1765683889389038,
   0.5570157766342163,
   3.03908371925354,
   0.6202008724212646,
   -1.6616259813308716,
   -0.031417910009622574
  ],
  [
   1.1120728254318237,
   4.6060285568237305,
   0.5583520531654358,
   2.8383255004882812,
   0.5778698921203613,
   0.5470263361930847
  ],
  [
   0.04260684922337532,
   -1.2066938877105713,
   1.9446274042129517,
   2.8162615299224854,
   0.13843771815299988,
   -0.8675922155380249
  ],
  [
   -0.7656914591789246,
   3.9118103981018066,
   -0.818757176399231,
   -0.26329299807548523,
   2.7373666763305664,
   0.3611787259578705
  ],
  [
   -0.938391387462616,
   0.5599587559700012,
   -0.2521226704120636,
   0.9968302845954895,
   1.6639981269836426,
   -1.9422048330307007
  ],
  [
   -0.47871577739715576,
   -0.768409788608551,
   -2.7706453800201416,
   1.486826777458191,
   0.4344744086265564,
   3.103841543197632
  ],
  [
   -0.1390276700258255,
   -0.2306678742170334,
   1.3601264953613281,
   -1.4729384183883667,
   -0.9894492626190186,
   0.767505943775177
  ],
  [
   1.8846780061721802,
   -0.4573037028312683,
   1.4672707319259644,
   0.15755070745944977,
   0.29328957200050354,
   -0.5077721476554871
  ],
  [
   0.25676608085632324,
   -1.7046090364456177,
   -0.9575181007385254,
   0.7648171186447144,
   -0.6032070517539978,
   0.9337098002433777
  ],
  [
   3.25042986869812,
   -0.3773631751537323,
   0.10382682830095291,
   -0.2238326072692871,
   -1.3727566003799438,
   -1.4565680027008057
  ],
  [
   -0.3351089358329773,
   -0.5560672879219055,
   -0.5838388800621033,
   1.8403373956680298,
   -0.33832040429115295,
   -2.6827502250671387
  ],
  [
   2.7473206520080566,
   -1.4157568216323853,
   -0.03448058292269707,
   -0.7845325469970703,
   -0.7320888042449951,
   1.5465048551559448
  ],
  [
   1.4666986465454102,
   1.7760378122329712,
   0.7678830623626709,
   -1.1760497093200684,
   -0.5396000146865845,
   -0.6778411865234375
  ],
  [
   -1.379926085472107,
   -0.5727839469909668,
   -2.4663195610046387,
   -0.051513511687517166,
   4.385208606719971,
   -1.3051438331604004
  ],
  [
   0.9394863843917847,
   -0.7574939727783203,
   0.160800039768219,
   1.8189351558685303,
   2.753967761993408,
   -1.5773429870605469
  ],
  [
   -0.8630305528640747,
   -0.13750168681144714,
   0.02620789036154747,
   3.2034409046173096,
   -0.5002279281616211,
   -1.5688291788101196
  ],
  [
   1.93341863155365,
   0.5305191874504089,
   0.7231088876724243,
   0.3807750940322876,
   -0.782332718372345,
   -3.288667917251587
  ],
  [
   -0.36399099230766296,
   -0.5443310737609863,
   -2.4345359802246094,
   -3.5336642265319824,
   3.070819139480591,
   0.02525685541331768
  ],
  [
   -1.8275738954544067,
   -1.9991497993469238,
   -1.5777428150177002,
   0.31900981068611145,
   2.191736936569214,
   -0.9416283965110779
  ],
  [
   0.6610114574432373,
   -1.1990886926651,
   0.043697912245988846,
   0.07393855601549149,
   -1.758171796798706,
   -0.4474429190158844
  ],
  [
   0.620265781879425,
   2.543785810470581,
   -2.182746171951294,
   0.03758377954363823,
   1.5343337059020996,
   0.03005542978644371
  ],
  [
   -1.5205764770507812,
   0.9963756799697876,
   0.36406776309013367,
   0.40144720673561096,
   2.6840503215789795,
   -2.5568182468414307
  ],
  [
   0.3037077486515045,
   2.0251717567443848,
   -1.261008381843567,
   0.03364510089159012,
   -1.568982720375061,
   -2.4404728412628174
  ],
  [
   -1.037896990776062,
   2.493535041809082,
   -1.0189201831817627,
   -1.320479393005371,
   -0.1797560304403305,
   1.6675106287002563
  ],
  [
   2.112119197845459,
   0.5576968789100647,
   0.17919380962848663,
   0.6521114706993103,
   -0.39643508195877075,
   -0.24432681500911713
  ],
  [
   -0.28101134300231934,
   -1.7724348306655884,
   -0.22215433418750763,
   -0.6200039386749268,
   1.4171749353408813,
   0.45374032855033875
  ],
  [
   1.98763108253479,
   1.9577219486236572,
   0.5094948410987854,
   1.4204493761062622,
   -1.6510827541351318,
   -1.7117735147476196
  ],
  [
   0.0947590097784996,
   -0.8957392573356628,
   0.9772310256958008,
   0.24246220290660858,
   -0.4474662244319916,
   1.888343334197998
  ],
  [
   -0.5908724069595337,
   -2.038113594055176,
   0.5155977010726929,
   -0.37330272793769836,
   -1.3014494180679321,
   2.414232015609741
  ],
  [
   2.350674629211426,
   -0.6656721830368042,
   0.5630915760993958,
   0.9479122757911682,
   -1.4048151969909668,
   1.0258530378341675
  ],
  [
   -1.2351710796356201,
   0.05629899725317955,
   -2.512599229812622,
   0.08558419346809387,
   3.5514590740203857,
   0.34721148014068604
  ],
  [
   1.0704580545425415,
   -1.771374225616455,
   -0.05908924341201782,
   -0.01973927579820156,
   -0.8821995854377747,
   2.2595055103302
  ],
  [
   0.360493928194046,
   -0.835904061794281,
   0.04889939725399017,
   -2.2207279205322266,
   -1.954723596572876,
   0.6178728938102722
  ],
  [
   0.8395583033561707,
   1.8461105823516846,
   0.8749114871025085,
   0.15050682425498962,
   -2.2825236320495605,
   -0.9944052696228027
  ],
  [
   -0.7483460307121277,
   1.4088197946548462,
   0.6328219771385193,
   2.1910505294799805,
   0.5478575825691223,
   1.069471001625061
  ],
  [
   0.6161060333251953,
   -1.3655153512954712,
   1.40908944606781,
   0.9815187454223633,
   -0.19018514454364777,
   3.096548318862915
  ],
  [
   -1.0668617486953735,
   0.07467599213123322,
   -1.8273450136184692,
   -0.36771294474601746,
   -0.10003042966127396,
   1.028944492340088
  ],
  [
   -0.521840512752533,
   -2.370178699493408,
   0.3139106333255768,
   -0.6791889071464539,
   3.6428096294403076,
   -0.3674010932445526
  ],
  [
   -1.3916727304458618,
   -1.770937442779541,
   1.1240953207015991,
   1.442317247390747,
   0.48876962065696716,
   2.6135921478271484
  ],
  [
   0.0758281871676445,
   -1.919501781463623,
   0.3272229731082916,
   -1.5359901189804077,
   -1.500990629196167,
   1.087141990661621
  ],
  [
   -0.054602086544036865,
   -0.7263525724411011,
   1.370602011680603,
   2.1938443183898926,
   0.9562451243400574,
   -1.1932260990142822
  ],
  [
   0.590652346611023,
   -1.3852888345718384,
   0.30342644453048706,
   0.6366276144981384,
   2.408322811126709,
   1.3946433067321777
  ],
  [
   1.7268728017807007,
   -2.608487129211426,
   -0.4165742099285126,
   -0.38153281807899475,
   -1.6951091289520264,
   2.037972927093506
  ],
  [
   1.8670319318771362,
   -2.2545793056488037,
   -0.7961105704307556,
   -0.6254000663757324,
   -0.755584180355072,
   0.8055381774902344
  ],
  [
   -0.19930632412433624,
   0.1695094108581543,
   2.1496376991271973,
   4.190584182739258,
   -0.25284048914909363,
   -3.405289888381958
  ],
  [
   -0.645439088344574,
   0.22194190323352814,
   1.9141491651535034,
   1.1089450120925903,
   -2.5059189796447754,
   -0.9756418466567993
  ],
  [
   0.2823692858219147,
   -2.546461820602417,
   0.0642167180776596,
   0.19719189405441284,
   0.058802176266908646,
   -0.6339992880821228
  ],
  [
   1.0847554206848145,
   -0.1569848358631134,
   4.3152546882629395,
   0.9205884337425232,
   -2.3115758895874023,
   1.3805707693099976
  ],
  [
   -0.9739949107170105,
   -1.96232008934021,
   1.1209746599197388,
   -0.22980494797229767,
   2.4648008346557617,
   0.35183998942375183
  ],
  [
   -2.378267288208008,
   -1.3017001152038574,
   0.0850272923707962,
   0.1643051654100418,
   0.6199769973754883,
   -1.0844978094100952
  ],
  [
   0.13661988079547882,
   -1.2794809341430664,
   0.44573408365249634,
   -0.720909833908081,
   0.2361956238746643,
   3.4392242431640625
  ],
  [
   0.03775786980986595,
   1.5624877214431763,
   -0.32842835783958435,
   -2.1023812294006348,
   0.2003128081560135,
   1.1157612800598145
  ],
  [
   1.7573789358139038,
   0.019243910908699036,
   0.24316635727882385,
   0.6695959568023682,
   0.13389399647712708,
   -3.476447105407715
  ],
  [
   0.3058563470840454,
   0.07623618096113205,
   -3.718977212905884,
   -2.2094924449920654,
   1.3944413661956787,
   0.5421144366264343
  ],
  [
   2.317171812057495,
   -0.2860981822013855,
   0.0933171957731247,
   0.5942547917366028,
   -2.184227228164673,
   3.168004035949707
  ],
  [
   -0.9265528321266174,
   0.41798070073127747,
   0.9143962860107422,
   -1.6085947751998901,
   0.06481470912694931,
   2.7563209533691406
  ],
  [
   0.30347493290901184,
   -3.083373546600342,
   -0.8605031967163086,
   1.584071159362793,
   1.4921722412109375,
   -1.5645740032196045
  ],
  [
   2.965308427810669,
   1.1316471099853516,
   -0.5205690860748291,
   -0.10456560552120209,
   -0.9080432653427124,
   -1.5945110321044922
  ],
  [
   -0.026172786951065063,
   0.02736785262823105,
   3.1119635105133057,
   0.2201075255870819,
   -2.406313180923462,
   0.4556756913661957
  ],
  [
   -0.21449854969978333,
   -0.8669928908348083,
   -1.0677562952041626,
   -1.132562518119812,
   1.9764976501464844,
   1.7664902210235596
  ],
  [
   -1.437134027481079,
   -0.11978884786367416,
   2.087397575378418,
   -0.7912342548370361,
   -0.6842657327651978,
   0.588473379611969
  ],
  [
   0.41286489367485046,
   -2.9475386142730713,
   -0.25097230076789856,
   -0.2546195089817047,
   1.9201163053512573,
   -0.399165540933609
  ],
  [
   1.2432825565338135,
   -0.08444686979055405,
   2.1438851356506348,
   0.33384957909584045,
   -3.5395350456237793,
   -1.3513588905334473
  ],
  [
   -0.20216743648052216,
   0.6485635638237,
   -1.0730291604995728,
   -3.1909894943237305,
   -0.7609854936599731,
   0.9659246206283569
  ],
  [
   -1.7513805627822876,
   -0.40383151173591614,
   -0.8924056887626648,
   2.0008456707000732,
   2.3079349994659424,
   -1.6594927310943604
  ],
  [
   -0.42907896637916565,
   -0.4541816711425781,
   -0.9503272175788879,
   -3.836395502090454,
   0.45205533504486084,
   2.929612398147583
  ],
  [
   0.22616642713546753,
   0.7075126767158508,
   1.6825143098831177,
   3.736584186553955,
   0.22084924578666687,
   -1.4569916725158691
  ],
  [
   -2.65777850151062,
   -0.16348108649253845,
   -1.03908371925354,
   -0.7462154626846313,
   2.939573287963867,
   0.6175771355628967
  ],
  [
   -0.16330310702323914,
   0.15517422556877136,
   -0.9568535685539246,
   -1.1947615146636963,
   -1.0935022830963135,
   2.706273078918457
  ],
  [
   -1.922715663909912,
   -0.30032652616500854,
   0.7196385264396667,
   -1.3391505479812622,
   -1.3263295888900757,
   4.177621841430664
  ]
 ],
 "pi.0.bias": [
  0.3940943777561188,
  -1.5830833911895752,
  4.553954124450684,
  4.628509521484375,
  0.41779547929763794,
  -2.212421417236328,
  -1.771523356437683,
  -2.427197217941284,
  4.37227725982666,
  0.2847888469696045,
  -1.8193861246109009,
  -3.2067973613739014,
  4.18463659286499,
  -3.4015052318573,
  -2.1382896900177,
  0.9124246835708618,
  -0.1766437292098999,
  3.9729018211364746,
  -1.1751292943954468,
  -2.2156643867492676,
  2.0529141426086426,
  2.02750301361084,
  4.2387189865112305,
  0.7339120507240295,
  -4.871278762817383,
  0.26899605989456177,
  -2.3340108394622803,
  0.06525834649801254,
  1.1428288221359253,
  -1.835781455039978,
  -0.25146037340164185,
  1.104841947555542,
  2.7460803985595703,
  -0.7816596031188965,
  -4.953368663787842,
  0.2628946006298065,
  0.5555341839790344,
  -0.7858590483665466,
  -0.24699297547340393,
  3.4888617992401123,
  3.2376859188079834,
  3.477905035018921,
  5.713831424713135,
  -2.390723705291748,
  -3.7339770793914795,
  -1.8470041751861572,
  -1.6915698051452637,
  -0.6082571148872375,
  -1.1533219814300537,
  -4.496575355529785,
  0.8482584953308105,
  2.439311981201172,
  -1.8113563060760498,
  5.197281837463379,
  -4.565304279327393,
  4.379796504974365,
  0.6174816489219666,
  3.520686149597168,
  3.606248140335083,
  -2.7190494537353516,
  -1.219342589378357,
  -1.9052369594573975,
  -5.164021015167236,
  0.24168455600738525,
  5.948619365692139,
  2.0513434410095215,
  4.1967267990112305,
  -0.9670827388763428,
  -2.0363683700561523,
  4.301196098327637,
  -1.9777201414108276,
  3.1947765350341797,
  0.1790352463722229,
  -2.80220365524292,
  -2.364717960357666,
  3.6365389823913574,
  -2.7520556449890137,
  -1.8793237209320068,
  0.7345752716064453,
  2.5548338890075684,
  0.5835894346237183,
  2.137509822845459,
  -1.1038570404052734,
  -0.793850839138031,
  -2.2742881774902344,
  4.023821830749512,
  -1.5379027128219604,
  -0.353878915309906,
  -2.385016441345215,
  -3.1126067638397217,
  0.6402834057807922,
  3.0176289081573486,
  -2.903582811355591,
  2.323558807373047,
  -1.362399697303772,
  1.0287067890167236,
  3.3550937175750732,
  -0.3144600987434387,
  0.5633437633514404,
  -3.531209945678711
 ],
 "pi.2.weight": [
  [
   -1.5183367729187012,
   -1.884670376777649,
   0.1328073889017105,
   -0.24714332818984985,
   -0.4862356185913086,
   -0.22756005823612213,
   2.2477123737335205,
   1.0802357196807861,
   0.4258241355419159,
   -0.15319378674030304,
   -0.6574013829231262,
   3.366685628890991,
   -4.207960605621338,
   0.47075554728507996,
   -1.0561137199401855,
   0.327605664730072,
   0.2554294466972351,
   0.33374878764152527,
   -4.548791408538818,
   -2.3032989501953125,
   -2.036466598510742,
   -2.7818758487701416,
   -0.20741389691829681,
   -1.4748855829238892,
   0.4393090605735779,
   -0.6028245687484741,
   -0.9942571520805359,
   -0.7732938528060913,
   -3.0631558895111084,
   0.10456971824169159,
   -4.807192325592041,
   4.177268981933594,
   0.3600940704345703,
   -1.674049973487854,
   -0.20094314217567444,
   -0.5090776085853577,
   0.7352516055107117,
   0.2941053807735443,
   0.37337231636047363,
   0.40005868673324585,
   0.11508583277463913,
   -0.13445357978343964,
   -0.3033112585544586,
   -0.4474714994430542,
   -1.216477632522583,
   -1.4814404249191284,
   -0.21805036067962646,
   0.9144502878189087,
   -1.0155950784683228,
   -0.13904687762260437,
   0.11553505063056946,
   0.7989735007286072,
   2.3260860443115234,
   -0.2870716452598572,
   -3.7765321731567383,
   0.9235250353813171,
   -2.22631573677063,
   -1.4598664045333862,
   0.05737464874982834,
   1.4365309476852417,
   -0.9523851275444031,
   -0.241806298494339,
   -0.5091859698295593,
   0.7322452664375305,
   1.4691962003707886,
   0.29218924045562744,
   0.37542521953582764,
   0.3951074182987213,
   -2.0465242862701416,
   0.3537878096103668,
   0.5498235821723938,
   1.4001752138137817,
   -0.08550335466861725,
   0.4151231050491333,
   -2.8976380825042725,
   -1.1128754615783691,
   0.6968486905097961,
   -8.207002639770508,
   0.9179114699363708,
   -2.2168526649475098,
   -1.7499796152114868,
   2.2278051376342773,
   0.4112264811992645,
   -0.20414890348911285,
   -7.061402320861816,
   -1.1903002262115479,
   0.26941725611686707,
   -0.45386171340942383,
   -1.4410221576690674,
   0.447701632976532,
   -1.0531761646270752,
   0.8226227164268494,
   -3.696319580078125,
   1.267669916152954,
   1.3069099187850952,
   0.9821759462356567,
   -1.3665895462036133,
   -0.17682525515556335,
   -0.2645949423313141,
   -5.337374687194824
  ],
  [
   -0.5104312300682068,
   -1.6786251068115234,
   0.3634475767612457,
   -1.6063951253890991,
   -2.296180486679077,
   -0.3850356936454773,
   -0.6417019367218018,
   -5.2817769050598145,
   -0.6928774118423462,
   -0.06550442427396774,
   1.7260749340057373,
   0.3540791869163513,
   1.9986953735351562,
   1.1406675577163696,
   -2.1252288818359375,
   -0.9735401272773743,
   0.6036410927772522,
   -0.3010560870170593,
   -2.482569932937622,
   0.5773049592971802,
   0.14035744965076447,
   -0.8162193894386292,
   -0.11409439891576767,
   0.1207769364118576,
   2.0398104190826416,
   -1.956748366355896,
   -0.32936689257621765,
   1.330317735671997,
   -1.8706728219985962,
   2.471158027648926,
   2.020599842071533,
   -1.7987478971481323,
   1.1495200395584106,
   -2.6815686225891113,
   -1.3206967115402222,
   0.3305152952671051,
   -1.2456468343734741,
   0.5621940493583679,
   -0.6697062849998474,
   -3.572258949279785,
   -1.3601303100585938,
   2.081103563308716,
   -0.7113246321678162,
   -1.3282146453857422,
   1.476244568824768,
   -3.1486589908599854,
   -1.2912708520889282,
   0.005866994149982929,
   0.023259121924638748,
   0.9886921644210815,
   1.1754279136657715,
   1.7662217617034912,
   -4.096847057342529,
   -3.2011423110961914,
   2.3417274951934814,
   -0.47975870966911316,
   0.983141303062439,
   -0.21662618219852448,
   -0.796115517616272,
   -0.5341944694519043,
   -1.229174017906189,
   -0.5861327648162842,
   -1.1515408754348755,
   -0.5539737343788147,
   -0.38061076402664185,
   0.7276169061660767,
   -3.1759047508239746,
   -0.41884756088256836,
   0.6107931137084961,
   1.0738120079040527,
   1.0070419311523438,
   -0.09093312919139862,
   0.35889285802841187,
   0.5659553408622742,
   1.6644302606582642,
   -0.40038037300109863,
   0.0770062729716301,
   3.2815213203430176,
   -0.4753111004829407,
   0.535358190536499,
   0.24692997336387634,
   -0.12473508715629578,
   -0.48185834288597107,
   2.044795513153076,
   0.9391194581985474,
   -1.1902422904968262,
   -1.1626304388046265,
   0.18707412481307983,
   1.2008187770843506,
   2.290919303894043,
   1.450744867324829,
   -1.094943881034851,
   -3.255884885787964,
   1.079131841659546,
   0.037575896829366684,
   -0.216666579246521,
   0.956121563911438,
   -0.7166442275047302,
   1.199138879776001,
   0.9224804043769836
  ],
  [
   -1.3784399032592773,
   0.4873547852039337,
   1.2545536756515503,
   1.3939049243927002,
   1.0566235780715942,
   1.2626795768737793,
   -1.3728898763656616,
   1.3522077798843384,
   1.7426354885101318,
   1.1287497282028198,
   0.1962747424840927,
   -3.192394256591797,
   1.09682035446167,
   1.8465077877044678,
   -1.050798773765564,
   -1.108776330947876,
   0.019349124282598495,
   0.14806561172008514,
   0.5506570935249329,
   -0.6617922782897949,
   0.026177527382969856,
   -0.725487470626831,
   -1.6253466606140137,
   -1.3305304050445557,
   2.422992706298828,
   -0.2141910195350647,
   0.9321463108062744,
   -0.11364054679870605,
   0.9559686183929443,
   1.1326825618743896,
   -8.893112182617188,
   -5.283589839935303,
   -0.8035104870796204,
   -2.2225749492645264,
   -0.4398297369480133,
   -2.4978713989257812,
   1.657042145729065,
   -15.786836624145508,
   -0.22410500049591064,
   -3.3274805545806885,
   0.6507555246353149,
   -2.742380142211914,
   0.6537503004074097,
   1.870698094367981,
   3.234722137451172,
   -2.8156449794769287,
   0.35633164644241333,
   -1.8039826154708862,
   -0.20431295037269592,
   -2.4965505599975586,
   0.763372540473938,
   0.023507216945290565,
   0.3582107722759247,
   0.32716095447540283,
   -0.6620914936065674,
   -0.8038684725761414,
   -1.0271201133728027,
   0.1437036246061325,
   -1.112343668937683,
   -3.354344129562378,
   -2.370466709136963,
   0.9412264227867126,
   3.696380853652954,
   1.8646929264068604,
   -0.9401441216468811,
   -1.383931040763855,
   0.5774321556091309,
   -3.8125340938568115,
   -0.28835490345954895,
   1.8962788581848145,
   2.1013717651367188,
   0.3518139123916626,
   1.1616781949996948,
   0.394490510225296,
   0.10306480526924133,
   -0.13789016008377075,
   2.2369110584259033,
   -9.899496078491211,
   -0.4606684148311615,
   -0.01008610986173153,
   -1.2444096803665161,
   1.85618257522583,
   1.0772262811660767,
   -1.36039137840271,
   -2.4864048957824707,
   -1.1093670129776,
   -0.9191572070121765,
   1.3372844457626343,
   3.967634916305542,
   0.10329487174749374,
   -0.555513322353363,
   0.2028723955154419,
   -1.5348080396652222,
   -1.0073182582855225,
   0.05350649356842041,
   0.6781951189041138,
   2.6319663524627686,
   -0.1456180065870285,
   -0.92485111951828,
   0.7061984539031982
  ],
  [
   1.6254476308822632,
   2.2850685119628906,
   -0.668203592300415,
   -0.9495728015899658,
   0.020736007019877434,
   0.4239870607852936,
   0.19024035334587097,
   -3.4432549476623535,
   0.11268343776464462,
   -0.9531405568122864,
   0.6024253964424133,
   0.21819980442523956,
   0.12049875408411026,
   -0.6205863356590271,
   -0.7795085310935974,
   -5.82295560836792,
   -4.116412162780762,
   -9.401837348937988,
   0.34872639179229736,
   3.0879523754119873,
   0.16296137869358063,
   0.08503681421279907,
   1.5334171056747437,
   -0.6546313762664795,
   2.207937479019165,
   2.2642455101013184,
   1.6908149719238281,
   0.14993134140968323,
   0.7688016891479492,
   1.1518919467926025,
   0.4207366406917572,
   -0.136556476354599,
   -0.19948512315750122,
   0.360964298248291,
   0.9308335781097412,
   0.09631016105413437,
   -4.575725555419922,
   -2.9667513370513916,
   -2.838888168334961,
   -3.6035783290863037,
   -3.957935333251953,
   -2.994131326675415,
   -1.549065351486206,
   1.940212607383728,
   0.17626440525054932,
   0.05539213865995407,
   -0.5437811613082886,
   -0.9351344704627991,
   1.2870739698410034,
   0.7440477609634399,
   0.3250863254070282,
   0.28659942746162415,
   0.9088099002838135,
   0.03463734686374664,
   2.8617401123046875,
   -0.1589013785123825,
   -0.4726734459400177,
   -1.4776413440704346,
   1.3108834028244019,
   1.4343148469924927,
   -4.171340465545654,
   -1.0123034715652466,
   -7.423812389373779,
   -0.15577350556850433,
   -0.43132132291793823,
   1.1026830673217773,
   0.3763231933116913,
   -4.506103515625,
   0.22707976400852203,
   5.888376712799072,
   2.610839605331421,
   -0.7218826413154602,
   1.518157720565796,
   -2.6105093955993652,
   0.505980908870697,
   -2.526383399963379,
   0.6827904582023621,
   -3.2453129291534424,
   1.3589577674865723,
   1.3499239683151245,
   2.9403817653656006,
   -1.0884976387023926,
   -5.023170471191406,
   -2.028384208679199,
   1.1511077880859375,
   0.31358006596565247,
   0.2630261182785034,
   1.9774274826049805,
   -0.8880265355110168,
   -6.6107096672058105,
   1.2150496244430542,
   1.3408070802688599,
   0.2413644790649414,
   -0.5276902914047241,
   0.22571396827697754,
   -4.870485782623291,
   -0.32518690824508667,
   -0.6474029421806335,
   -1.1523339748382568,
   -0.47466734051704407
  ],
  [
   -0.9275950789451599,
   -0.038572780787944794,
   0.7597578167915344,
   0.8228252530097961,
   0.158436581492424,
   0.7921401858329773,
   -2.5159735679626465,
   1.9695650339126587,
   -0.11635055392980576,
   -0.2576996684074402,
   0.5944263339042664,
   -2.0864906311035156,
   -1.7755067348480225,
   -0.8095799684524536,
   -0.43285900354385376,
   -0.5148953795433044,
   0.5635489225387573,
   -0.9502483606338501,
   2.227872133255005,
   -2.954099655151367,
   0.34686756134033203,
   -0.863381028175354,
   1.024625301361084,
   1.0125013589859009,
   1.8741241693496704,
   0.8134519457817078,
   0.20705339312553406,
   -1.6484355926513672,
   -4.134854793548584,
   1.1516778469085693,
   -0.31416574120521545,
   0.8876866102218628,
   0.3606323003768921,
   -1.010593295097351,
   -0.5072877407073975,
   -0.07759998738765717,
   1.085342526435852,
   0.1740569919347763,
   -0.26324182748794556,
   -0.1037827804684639,
   -1.0571075677871704,
   1.923939824104309,
   -1.712493896484375,
   -1.9594041109085083,
   1.2225309610366821,
   1.0549719333648682,
   -0.588039755821228,
   -0.770150363445282,
   -0.7988970279693604,
   0.6210263967514038,
   -4.711063861846924,
   -0.20241308212280273,
   -0.3063034117221832,
   -0.8354073762893677,
   0.3903379440307617,
   -0.5349603891372681,
   -3.897347927093506,
   -0.3492496609687805,
   0.1682692915201187,
   -0.36546388268470764,
   -2.267463207244873,
   -0.42751288414001465,
   0.7256436944007874,
   -3.5967483520507812,
   -0.30277737975120544,
   0.4983651340007782,
   -0.9751101732254028,
   0.749589204788208,
   0.489546000957489,
   -1.3618584871292114,
   -0.8605354428291321,
   0.8747982978820801,
   0.3855145573616028,
   -0.7243977785110474,
   -1.63106107711792,
   0.3291665315628052,
   0.12479519844055176,
   0.7221993803977966,
   0.5009070634841919,
   0.030108319595456123,
   1.1067522764205933,
   -2.4879543781280518,
   0.10701251029968262,
   0.9371303915977478,
   0.6815199851989746,
   -1.123701810836792,
   0.2543393075466156,
   -2.2549142837524414,
   1.1035593748092651,
   2.363921880722046,
   -0.39552873373031616,
   -1.0309040546417236,
   -0.3878626823425293,
   -0.14660881459712982,
   -0.6365856528282166,
   -0.4863360524177551,
   -1.936358094215393,
   1.8861401081085205,
   -0.9521209001541138,
   -2.9891741275787354
  ],
  [
   1.8771648406982422,
   0.5840404033660889,
   1.1818398237228394,
   -0.15963713824748993,
   1.4865107536315918,
   1.0999044179916382,
   -4.183034420013428,
   -0.32148072123527527,
   0.4491647183895111,
   0.8765418529510498,
   -0.4151618480682373,
   -13.455698013305664,
   0.12006010860204697,
   -0.47073936462402344,
   0.27067500352859497,
   1.2416417598724365,
   -3.7387607097625732,
   0.06966158002614975,
   1.210575819015503,
   0.8121834993362427,
   -0.20768292248249054,
   -0.5697582960128784,
   0.7801851630210876,
   0.7831970453262329,
   1.493557333946228,
   0.41673049330711365,
   -3.8339905738830566,
   -0.739904522895813,
   0.813717246055603,
   -0.22579582035541534,
   -0.17756974697113037,
   -3.9076476097106934,
   -1.7343367338180542,
   -0.8358221054077148,
   2.0196762084960938,
   -0.862943172454834,
   2.163238286972046,
   -3.769080877304077,
   -0.6075230836868286,
   -0.3462491035461426,
   1.4782590866088867,
   -0.04430753365159035,
   -1.0244779586791992,
   -2.144930601119995,
   0.4695533812046051,
   1.3472572565078735,
   -0.6350532174110413,
   -0.7111568450927734,
   -0.23516540229320526,
   -0.7546416521072388,
   -1.3396761417388916,
   -0.998586118221283,
   0.4396548271179199,
   -0.6021668910980225,
   1.5614341497421265,
   0.8212168216705322,
   -0.0029048635624349117,
   -0.6905410885810852,
   -0.7424485683441162,
   -1.454953670501709,
   -2.828298330307007,
   -3.8146884441375732,
   0.02023976854979992,
   2.1392924785614014,
   -0.8652127981185913,
   -2.1994104385375977,
   0.0003113665443379432,
   1.4825077056884766,
   -1.1908326148986816,
   -0.21266430616378784,
   1.3760805130004883,
   -2.287238359451294,
   0.14220783114433289,
   2.1992902755737305,
   -0.9791127443313599,
   -0.5789991021156311,
   2.218510866165161,
   0.7022979259490967,
   -0.35788360238075256,
   -0.028810782358050346,
   -1.9063254594802856,
   2.645112991333008,
   -2.804116725921631,
   1.3077644109725952,
   1.1961356401443481,
   -0.8713392615318298,
   -1.2565739154815674,
   4.522387981414795,
   -0.3440919816493988,
   -0.9996019005775452,
   0.2237173467874527,
   1.1340863704681396,
   1.1222422122955322,
   -2.602911949157715,
   0.17870590090751648,
   -0.5032895803451538,
   2.551362991333008,
   -1.1890888214111328,
   -1.095253825187683,
   -0.24567539989948273
  ],
  [
   0.3419749140739441,
   0.7700815200805664,
   2.2690823078155518,
   1.1462568044662476,
   -0.3216356039047241,
   0.5204529166221619,
   -0.18992498517036438,
   -0.6141079068183899,
   0.3972189128398895,
   0.10292558372020721,
   0.9422193169593811,
   1.7656676769256592,
   -0.5512441992759705,
   1.7091723680496216,
   0.7921813726425171,
   -0.3103378117084503,
   1.3576067686080933,
   -0.8179206252098083,
   0.1233287900686264,
   1.2782968282699585,
   2.8394908905029297,
   -0.798325777053833,
   0.08090028911828995,
   -0.5875018239021301,
   0.3404615521430969,
   -0.5610274076461792,
   -0.3510206341743469,
   -1.0809351205825806,
   -2.0665502548217773,
   -0.38032975792884827,
   0.4800533354282379,
   0.1551407426595688,
   -0.6792023777961731,
   1.121846318244934,
   -1.6695890426635742,
   -0.28045758605003357,
   1.1890870332717896,
   -6.3190178871154785,
   -0.45326030254364014,
   -1.767382025718689,
   0.1817406266927719,
   -1.3598206043243408,
   -0.5958006978034973,
   1.057004690170288,
   0.25239163637161255,
   0.23412594199180603,
   -0.7354240417480469,
   0.2503012418746948,
   -1.7366381883621216,
   0.27794578671455383,
   -0.26248738169670105,
   -0.9599882960319519,
   0.9852124452590942,
   0.9417213201522827,
   -6.424777030944824,
   1.5009053945541382,
   -2.759718418121338,
   0.36551159620285034,
   -0.8677214980125427,
   -4.045572280883789,
   0.8221006393432617,
   -2.927250623703003,
   0.19149009883403778,
   0.5258120894432068,
   -0.6538732647895813,
   -1.9452816247940063,
   0.2237425595521927,
   -0.7777953743934631,
   -0.7527347803115845,
   -2.4384796619415283,
   -2.22637677192688,
   0.27862438559532166,
   -0.558609127998352,
   0.10801095515489578,
   2.0311152935028076,
   -0.26848679780960083,
   0.6844909191131592,
   1.6209722757339478,
   0.9750416278839111,
   0.6772913336753845,
   1.0607194900512695,
   1.3410483598709106,
   2.07106351852417,
   0.7266846895217896,
   -1.9563952684402466,
   -1.6549583673477173,
   -1.1399210691452026,
   -1.293491005897522,
   0.442640095949173,
   1.1068955659866333,
   1.2421579360961914,
   -1.3087458610534668,
   -3.801084041595459,
   -1.6142340898513794,
   -0.41923925280570984,
   2.61513352394104,
   0.19318057596683502,
   1.038956642150879,
   -2.2537944316864014,
   -5.478701591491699
  ],
  [
   -1.8938273191452026,
   -1.3298081159591675,
   -0.9263370037078857,
   -0.7800426483154297,
   -0.25518491864204407,
   1.8619003295898438,
   1.2593635320663452,
   -2.65779972076416,
   0.11850854754447937,
   -0.5131682753562927,
   -0.33064135909080505,
   -0.8679242730140686,
   -0.5299562215805054,
   0.7289028167724609,
   1.8629612922668457,
   1.9935896396636963,
   -1.7200124263763428,
   0.003578220261260867,
   -0.5814650654792786,
   0.043462254106998444,
   -0.200299933552742,
   -0.6185321807861328,
   0.013785610906779766,
   0.046378687024116516,
   0.9129676818847656,
   0.26083168387413025,
   -0.9936849474906921,
   -0.44058889150619507,
   1.0604708194732666,
   0.9759534001350403,
   0.13879895210266113,
   0.2893436849117279,
   0.2188047617673874,
   -1.6677353382110596,
   -0.10349109768867493,
   -0.6211437582969666,
   0.21789173781871796,
   1.0665806531906128,
   1.1733242273330688,
   1.6322194337844849,
   -1.2660282850265503,
   -0.09547317028045654,
   -0.29176926612854004,
   1.3436391353607178,
   -0.26358526945114136,
   -0.1370505541563034,
   -0.0708208903670311,
   -1.3387762308120728,
   1.3010131120681763,
   -1.314229130744934,
   1.3088971376419067,
   -1.6355400085449219,
   -0.8897630572319031,
   -0.6944695711135864,
   -1.9458999633789062,
   -1.5576385259628296,
   0.4595620036125183,
   0.5006257891654968,
   0.7372692227363586,
   0.26631590723991394,
   -2.637786865234375,
   -2.4721248149871826,
   -6.397678852081299,
   0.2965153753757477,
   -1.1754052639007568,
   -0.840837299823761,
   0.7971765995025635,
   1.3628051280975342,
   -8.80474853515625,
   0.4437587559223175,
   -0.7316838502883911,
   -0.7628809213638306,
   0.5969971418380737,
   1.419025182723999,
   -1.0720487833023071,
   -1.5978785753250122,
   -1.8989040851593018,
   -1.0374729633331299,
   0.23767566680908203,
   0.056318093091249466,
   -0.012309873476624489,
   -1.678611397743225,
   -0.0749092772603035,
   -2.276167869567871,
   0.6771878004074097,
   1.0853853225708008,
   2.2817437648773193,
   0.06940889358520508,
   0.5916590690612793,
   -3.5057504177093506,
   -0.38493025302886963,
   2.256333112716675,
   -0.18837115168571472,
   0.8523364067077637,
   0.938910186290741,
   0.9102608561515808,
   0.4474453926086426,
   2.6056699752807617,
   -4.440906047821045,
   2.2079668045043945
  ],
  [
   0.3717823326587677,
   0.3221448063850403,
   -1.0880471467971802,
   1.033198595046997,
   -1.3671517372131348,
   0.47253650426864624,
   -1.7994863986968994,
   -0.9424506425857544,
   1.3553998470306396,
   2.2446272373199463,
   0.10514537990093231,
   -0.27228981256484985,
   -1.435178279876709,
   0.5835874676704407,
   -0.4990844428539276,
   -1.1767210960388184,
   1.7575883865356445,
   -0.13451635837554932,
   -3.16951847076416,
   1.1123628616333008,
   -0.6501063704490662,
   1.1704484224319458,
   0.19351781904697418,
   -0.10319171845912933,
   0.5942565202713013,
   1.9231979846954346,
   0.06893803179264069,
   0.20862816274166107,
   0.607827365398407,
   -0.023404570296406746,
   2.6891283988952637,
   0.0312524288892746,
   2.1710386276245117,
   -0.7990155816078186,
   -2.2197134494781494,
   -0.9087674021720886,
   -0.9804309010505676,
   0.7091084718704224,
   -2.0930838584899902,
   -1.341199517250061,
   -0.8795340061187744,
   0.3019449710845947,
   -0.5507988929748535,
   0.6357392072677612,
   0.45802760124206543,
   -0.18088096380233765,
   -1.2804436683654785,
   -0.5313500761985779,
   -0.9528791308403015,
   0.43339529633522034,
   0.5498048663139343,
   0.879725456237793,
   1.531498908996582,
   0.09658117592334747,
   1.427531361579895,
   0.279045432806015,
   0.45632290840148926,
   -2.4020321369171143,
   0.5394293069839478,
   0.8955103158950806,
   -0.2269381731748581,
   1.202512264251709,
   0.4532700777053833,
   0.2356870174407959,
   -0.3095673620700836,
   -1.024935007095337,
   -0.977113664150238,
   -0.9469992518424988,
   1.1180042028427124,
   0.2871612310409546,
   0.366243839263916,
   -0.5011504292488098,
   0.19537869095802307,
   -1.596161961555481,
   0.4183419942855835,
   0.42837128043174744,
   1.29489266872406,
   -2.820718288421631,
   0.4282582104206085,
   -0.5420464277267456,
   -1.4421252012252808,
   -1.2305996417999268,
   -2.8081953525543213,
   0.6124736070632935,
   -0.5956240892410278,
   -0.1498841494321823,
   -0.25140199065208435,
   -0.7368905544281006,
   -1.3263654708862305,
   -0.41683411598205566,
   0.2710616886615753,
   1.7456387281417847,
   -1.302082896232605,
   -1.411521077156067,
   -2.306335210800171,
   0.49731573462486267,
   0.3422262966632843,
   -0.16464675962924957,
   -0.2704436182975769,
   -0.15062177181243896
  ],
  [
   0.9264745116233826,
   -0.28604575991630554,
   0.33374184370040894,
   0.3150968849658966,
   -1.372001051902771,
   0.9609912633895874,
   0.17120909690856934,
   -2.6097280979156494,
   1.484257459640503,
   -0.18255771696567535,
   0.6354503631591797,
   1.5764464139938354,
   -11.590936660766602,
   0.004235663916915655,
   -0.2041110396385193,
   -0.7049330472946167,
   0.21684309840202332,
   0.26897624135017395,
   -0.7309513688087463,
   -0.7499424815177917,
   -3.0221543312072754,
   -0.8770592212677002,
   -1.0975587368011475,
   3.365971088409424,
   -0.8421270251274109,
   1.5465682744979858,
   1.2733607292175293,
   -0.874932587146759,
   0.747123122215271,
   2.0212130546569824,
   -1.1778782606124878,
   1.1614470481872559,
   -0.3016657531261444,
   -1.708823800086975,
   0.8258376717567444,
   0.5222286581993103,
   2.961904525756836,
   -0.39348867535591125,
   -0.9310483336448669,
   -0.6484683156013489,
   0.7344180941581726,
   0.020111732184886932,
   -0.8128452301025391,
   0.4465792775154114,
   0.7927688956260681,
   0.005572651978582144,
   -0.9676405787467957,
   -0.1444389522075653,
   -1.1247292757034302,
   -1.7789121866226196,
   -1.5721584558486938,
   -0.7497496008872986,
   -1.0177758932113647,
   0.2879623472690582,
   1.8910322189331055,
   -0.3367033898830414,
   -1.875585675239563,
   0.4530455768108368,
   -0.43460842967033386,
   -2.3031070232391357,
   -0.5234790444374084,
   -0.7852591276168823,
   -0.7343294620513916,
   -5.6000752449035645,
   0.7231011986732483,
   1.6992372274398804,
   -1.0157288312911987,
   -0.27059271931648254,
   3.8065218925476074,
   0.41255423426628113,
   0.4637453854084015,
   0.6832653880119324,
   -0.537251353263855,
   0.9942572712898254,
   -1.3320082426071167,
   0.34977853298187256,
   0.8380900621414185,
   3.1193935871124268,
   -0.03657877817749977,
   -2.7534279823303223,
   -0.27587994933128357,
   -2.9774868488311768,
   -0.6147088408470154,
   0.041315026581287384,
   4.35648250579834,
   -0.6626452803611755,
   -0.013980979099869728,
   0.8527438640594482,
   -0.33336207270622253,
   -0.49440276622772217,
   0.5985649824142456,
   0.32405218482017517,
   0.29141709208488464,
   -1.2640161514282227,
   0.4699659049510956,
   0.6014622449874878,
   -10.12490177154541,
   2.8592488765716553,
   -6.654391288757324,
   -3.3905465602874756
  ],
  [
   -2.9444220066070557,
   -0.6354004740715027,
   1.6479642391204834,
   0.08222494274377823,
   -1.1233075857162476,
   -2.0564935207366943,
   -1.7899210453033447,
   0.991439163684845,
   0.860555112361908,
   -0.6544131636619568,
   -1.066184163093567,
   1.647585391998291,
   0.26775091886520386,
   2.020763397216797,
   0.07593588531017303,
   -0.9358015656471252,
   0.4937242567539215,
   -0.5854052901268005,
   -0.8080013990402222,
   -0.6747143864631653,
   1.1116697788238525,
   -0.4214511215686798,
   1.3932859897613525,
   0.0848739892244339,
   0.3779001832008362,
   -0.5033510327339172,
   -0.624408483505249,
   -1.2033966779708862,
   2.3829054832458496,
   0.5005181431770325,
   0.16730278730392456,
   -0.28779110312461853,
   -0.08037500828504562,
   -3.0298500061035156,
   -0.36012688279151917,
   -0.645129382610321,
   -1.742765188217163,
   -0.5512140989303589,
   -0.8161618113517761,
   -1.8268691301345825,
   -0.4961314797401428,
   -0.686850368976593,
   -0.5264948010444641,
   -1.0537045001983643,
   0.4992753267288208,
   -0.06293109059333801,
   0.5681111216545105,
   -2.3522915840148926,
   -0.19900427758693695,
   0.6880991458892822,
   0.9676656723022461,
   -0.11737814545631409,
   0.7364729046821594,
   0.3262171447277069,
   0.8136343359947205,
   0.4800167977809906,
   0.5718164443969727,
   -0.5765002965927124,
   -0.3105553686618805,
   1.5943330526351929,
   -0.9440600275993347,
   -1.4889196157455444,
   0.5080808401107788,
   1.496018648147583,
   -2.6911351680755615,
   -0.5982729196548462,
   0.9513478875160217,
   0.7572052478790283,
   2.0568416118621826,
   0.9574057459831238,
   1.0627989768981934,
   -0.3222048580646515,
   -0.6106426119804382,
   0.0691828578710556,
   -0.025049813091754913,
   1.212140440940857,
   1.3764845132827759,
   -0.5707708597183228,
   0.6443028450012207,
   1.33240807056427,
   -0.38225865364074707,
   1.4750345945358276,
   -0.494407594203949,
   -1.6043004989624023,
   1.9534878730773926,
   -2.0196659564971924,
   -0.364930123090744,
   -0.32712364196777344,
   -1.8597594499588013,
   0.33705055713653564,
   -0.07348599284887314,
   0.2661951184272766,
   -0.012830356135964394,
   -2.7457358837127686,
   1.1645699739456177,
   0.15229015052318573,
   1.5022064447402954,
   1.7383677959442139,
   -2.329220771789551,
   -0.2699441909790039
  ],
  [
   -0.2836257219314575,
   0.6568962931632996,
   -0.28296780586242676,
   -0.7067475914955139,
   -1.4619197845458984,
   0.739989161491394,
   -1.9384214878082275,
   -2.081977605819702,
   0.12394839525222778,
   0.05254441872239113,
   0.1982550472021103,
   2.2098910808563232,
   1.4353456497192383,
   -0.45036980509757996,
   0.32873377203941345,
   -1.2100266218185425,
   -0.5106631517410278,
   1.935264229774475,
   -2.6852238178253174,
   -0.5018229484558105,
   0.34573718905448914,
   0.155642569065094,
   -0.8629212379455566,
   0.650858998298645,
   -1.3038859367370605,
   -0.3944961428642273,
   0.5490984916687012,
   2.2793006896972656,
   0.6611080169677734,
   -0.3770531713962555,
   0.10127724707126617,
   0.23652321100234985,
   0.4990386664867401,
   -0.5512039065361023,
   0.7508235573768616,
   -0.045925162732601166,
   -1.118378758430481,
   -1.908842921257019,
   -2.170689821243286,
   1.3663434982299805,
   0.1772102266550064,
   1.5160280466079712,
   0.8230491280555725,
   1.0944230556488037,
   0.19408243894577026,
   0.18688707053661346,
   -0.5565915703773499,
   -0.6135565638542175,
   -0.5329148769378662,
   0.705452024936676,
   1.6005356311798096,
   -0.023296037688851357,
   1.5111033916473389,
   0.8717304468154907,
   0.28781193494796753,
   -0.13949258625507355,
   0.32648682594299316,
   -1.0219374895095825,
   -0.7650795578956604,
   -0.1588841676712036,
   -2.4080452919006348,
   0.4026557207107544,
   -2.829061269760132,
   -0.1751309335231781,
   -1.3856217861175537,
   0.5066543817520142,
   -1.5144379138946533,
   -3.031799554824829,
   -0.08257585763931274,
   -2.2134525775909424,
   -2.573906421661377,
   0.8888532519340515,
   2.9265451431274414,
   -0.9363135695457458,
   -0.8585302829742432,
   -2.872880220413208,
   -2.6950905323028564,
   -0.6504529118537903,
   -1.9446260929107666,
   0.786096453666687,
   -0.03603893145918846,
   -1.0320607423782349,
   -1.9994080066680908,
   0.8612446188926697,
   0.29726603627204895,
   0.6893540024757385,
   2.047528028488159,
   -0.12054208666086197,
   -0.8464981317520142,
   -1.9438484907150269,
   1.2328988313674927,
   -1.8259847164154053,
   0.5908693671226501,
   0.35878732800483704,
   -0.8493812084197998,
   -2.3298282623291016,
   1.3691341876983643,
   1.8109482526779175,
   0.5903308987617493,
   -1.5153692960739136
  ],
  [
   -0.5817670822143555,
   0.6990522742271423,
   0.572129487991333,
   -0.2280406802892685,
   -0.722154438495636,
   0.8380987644195557,
   0.4858289659023285,
   0.21725493669509888,
   0.06059513986110687,
   1.4135158061981201,
   0.05278769135475159,
   -1.6195297241210938,
   0.7300124168395996,
   -0.5726051330566406,
   -0.20849958062171936,
   0.2756924033164978,
   1.2795499563217163,
   0.2992934584617615,
   -1.6632487773895264,
   0.05482473224401474,
   -1.1683083772659302,
   -1.4235153198242188,
   0.6279914379119873,
   0.7232624292373657,
   0.2870807945728302,
   0.4934372901916504,
   -0.7097284197807312,
   -0.709256112575531,
   -0.31066834926605225,
   -0.08140282332897186,
   0.4232197403907776,
   0.5407715439796448,
   0.4334065020084381,
   -0.5214481353759766,
   -3.444039821624756,
   0.8340824246406555,
   -0.4106987714767456,
   0.2565845847129822,
   0.5592887997627258,
   -0.25309550762176514,
   -0.7020021080970764,
   -0.36492258310317993,
   0.34225982427597046,
   -1.3458420038223267,
   -0.22460100054740906,
   -0.36811068654060364,
   -0.1950148046016693,
   0.08614319562911987,
   0.6308659911155701,
   -0.2873147428035736,
   -3.5670969486236572,
   1.0745770931243896,
   -1.3469902276992798,
   0.6835565567016602,
   2.9412617683410645,
   0.31264597177505493,
   0.1206669732928276,
   0.10977388918399811,
   -1.0788767337799072,
   -0.3890745937824249,
   -0.06063468009233475,
   -0.6308976411819458,
   0.30263105034828186,
   1.4590452909469604,
   -2.6894724369049072,
   -0.5356614589691162,
   -2.8657748699188232,
   0.7734971642494202,
   0.22050286829471588,
   0.2137056142091751,
   -0.3790504038333893,
   -0.7195047736167908,
   -0.2042187750339508,
   -0.37436214089393616,
   -1.684625267982483,
   -0.8347175121307373,
   0.9285776019096375,
   1.900225043296814,
   -0.10682904720306396,
   -1.8327271938323975,
   -0.23826882243156433,
   0.6734188199043274,
   -0.5322209000587463,
   0.2184901088476181,
   0.7661712765693665,
   -1.860865831375122,
   0.6549423933029175,
   -0.2836620807647705,
   -0.9849288463592529,
   0.3805805742740631,
   0.4792967438697815,
   -0.945167064666748,
   -0.15314257144927979,
   0.7426574230194092,
   0.05974476784467697,
   0.17900528013706207,
   -0.2762942314147949,
   -0.38999202847480774,
   0.08489061146974564,
   0.4758709669113159
  ],
  [
   -1.096063494682312,
   -2.0411274433135986,
   -0.27758166193962097,
   1.4438847303390503,
   -0.6124812960624695,
   -2.1090385913848877,
   -1.1117870807647705,
   1.475386619567871,
   1.7314032316207886,
   -1.6916701793670654,
   0.2986550033092499,
   0.007844561710953712,
   -0.6428062915802002,
   -0.419467955827713,
   0.010155831463634968,
   -1.5656609535217285,
   -1.4424021244049072,
   0.39497530460357666,
   -0.8082783222198486,
   -0.7862585186958313,
   -0.3015589714050293,
   0.8964623212814331,
   -0.03492223471403122,
   -0.1272018700838089,
   2.839625120162964,
   2.5689585208892822,
   -0.5737047791481018,
   0.2680133283138275,
   0.3137609660625458,
   0.13182775676250458,
   -0.8512067794799805,
   -0.36609143018722534,
   -0.15995681285858154,
   1.067223310470581,
   0.5477126240730286,
   1.0720926523208618,
   1.1538991928100586,
   1.1775716543197632,
   -1.6090604066848755,
   -1.1698695421218872,
   -1.0090023279190063,
   -1.3394083976745605,
   -0.09253421425819397,
   -4.253564834594727,
   -0.4164106845855713,
   1.081631064414978,
   0.2757319509983063,
   0.05608029663562775,
   0.3103538453578949,
   1.4709428548812866,
   0.9269183278083801,
   -0.5858318209648132,
   0.5183109045028687,
   0.8110092282295227,
   1.1438897848129272,
   0.6752520799636841,
   -0.7823096513748169,
   0.08502041548490524,
   -0.20051683485507965,
   1.558119773864746,
   -0.534882664680481,
   1.3484736680984497,
   -0.6339362859725952,
   1.1989036798477173,
   0.4647146463394165,
   0.9932408332824707,
   -2.3490920066833496,
   -1.1546545028686523,
   1.2457211017608643,
   -0.34286734461784363,
   2.149730920791626,
   -0.607042133808136,
   -1.697365164756775,
   0.3049672544002533,
   -0.12972411513328552,
   -0.7434056997299194,
   1.0907925367355347,
   0.06570515781641006,
   0.6553771495819092,
   0.39080068469047546,
   -0.24224846065044403,
   -0.9452115297317505,
   0.5097728967666626,
   -1.2094995975494385,
   -0.2185518443584442,
   -0.13477209210395813,
   -0.9087063670158386,
   0.3926386833190918,
   1.0729228258132935,
   0.554393470287323,
   -0.9434608221054077,
   0.41356000304222107,
   -0.2029453068971634,
   -0.5077447891235352,
   -3.6029348373413086,
   0.06014314293861389,
   -1.4055273532867432,
   -0.14453671872615814,
   -0.8716623783111572,
   -1.01736581325531
  ],
  [
   -0.9841890335083008,
   -1.0665045976638794,
   0.024169286713004112,
   -0.05207712575793266,
   -0.2514497935771942,
   -0.3760700821876526,
   -0.8705857396125793,
   -2.990882158279419,
   -0.3681177496910095,
   2.828068256378174,
   -0.1461751013994217,
   1.4515166282653809,
   0.1457000970840454,
   -0.4303763210773468,
   -0.8225632905960083,
   0.34037941694259644,
   -0.5823799967765808,
   -0.4672123193740845,
   -0.07670173794031143,
   -0.3709462881088257,
   -1.2834875583648682,
   -0.012677677907049656,
   -0.5215851664543152,
   1.4814099073410034,
   -4.962803363800049,
   1.5890311002731323,
   -1.5946706533432007,
   -1.2108042240142822,
   -0.030871622264385223,
   -0.8705551028251648,
   0.2927300035953522,
   1.0310468673706055,
   0.14069585502147675,
   -0.08080855756998062,
   -3.1481335163116455,
   -1.3753083944320679,
   -0.3264372646808624,
   0.6468444466590881,
   -1.6793031692504883,
   -0.5943954586982727,
   -0.26886865496635437,
   0.5296319723129272,
   -0.7185459136962891,
   2.594867467880249,
   0.31623029708862305,
   0.07564609497785568,
   -2.0648891925811768,
   0.8064592480659485,
   -1.8036903142929077,
   2.1568188667297363,
   -0.6609448194503784,
   0.5228344798088074,
   -0.2505608797073364,
   0.7541669011116028,
   -1.5418622493743896,
   0.04869959130883217,
   0.4624803364276886,
   -0.0726044699549675,
   1.9064183235168457,
   -1.3705083131790161,
   -2.117391347885132,
   0.09929511696100235,
   0.9254779815673828,
   0.10473998636007309,
   0.29979532957077026,
   -0.7386271953582764,
   -0.26963499188423157,
   -1.6650234460830688,
   0.002821487607434392,
   -0.3066501021385193,
   0.27403026819229126,
   -0.14563912153244019,
   1.1976253986358643,
   0.9746299982070923,
   -0.010941851884126663,
   0.7261055111885071,
   -3.3790016174316406,
   0.6427258849143982,
   -0.024304114282131195,
   -1.6026160717010498,
   -0.07317344844341278,
   0.1471443474292755,
   0.8579080700874329,
   -0.3578748404979706,
   -0.1959351748228073,
   0.40849655866622925,
   -0.4702277183532715,
   -1.8286736011505127,
   -0.2360861450433731,
   -0.02100219763815403,
   0.34291431307792664,
   -0.7071910500526428,
   0.23150579631328583,
   -2.015841484069824,
   1.8587497472763062,
   -1.0704262256622314,
   0.5075746178627014,
   1.6946587562561035,
   0.5546261072158813,
   -0.48866814374923706
  ],
  [
   -1.1755110025405884,
   0.6843395829200745,
   0.6446467638015747,
   -0.7478705048561096,
   -0.2210446149110794,
   0.1215650662779808,
   -0.709369421005249,
   0.45640280842781067,
   0.33946743607521057,
   -0.5590825080871582,
   1.063018560409546,
   0.1639026254415512,
   -1.1260786056518555,
   -2.565648317337036,
   1.1691243648529053,
   0.1719505488872528,
   0.729917049407959,
   -1.513384222984314,
   0.9475322961807251,
   1.236286997795105,
   -1.232308268547058,
   0.6673764586448669,
   -1.084263801574707,
   -0.05809013172984123,
   -0.9659255743026733,
   0.16344113647937775,
   -0.4916590452194214,
   0.5687344074249268,
   -3.39864182472229,
   -1.0889484882354736,
   -0.10453467071056366,
   1.3253999948501587,
   0.5151309967041016,
   -0.9956426024436951,
   -3.0132815837860107,
   0.23482345044612885,
   0.9267585277557373,
   1.5058907270431519,
   0.35243216156959534,
   -1.0785702466964722,
   -2.977839708328247,
   0.3469339609146118,
   -0.05506345257163048,
   0.2611202597618103,
   1.3644479513168335,
   0.16855686902999878,
   0.13124950230121613,
   -0.3252705931663513,
   0.42140358686447144,
   -0.30357417464256287,
   0.34586620330810547,
   -1.081737756729126,
   2.05336856842041,
   0.26149678230285645,
   1.52565336227417,
   -0.039975713938474655,
   -1.3704009056091309,
   -2.629409074783325,
   -0.41055408120155334,
   -1.5226867198944092,
   -0.5241719484329224,
   0.9155560731887817,
   0.9005721211433411,
   -0.630273699760437,
   -2.2880122661590576,
   -0.8540781736373901,
   0.8563944101333618,
   0.17260406911373138,
   -0.2691231369972229,
   -0.27896392345428467,
   0.2873772084712982,
   0.7526865005493164,
   1.1877299547195435,
   0.05877286195755005,
   -0.8477166295051575,
   -2.5799403190612793,
   -1.3580533266067505,
   0.25786906480789185,
   1.090410590171814,
   1.371138572692871,
   -1.889302372932434,
   0.5836937427520752,
   0.30397215485572815,
   0.5070051550865173,
   -1.1491228342056274,
   -2.691258668899536,
   -0.4456045925617218,
   -0.20405983924865723,
   0.20635493099689484,
   -0.1290123164653778,
   -1.555619716644287,
   0.7393593788146973,
   0.8608788847923279,
   -0.24037989974021912,
   -0.3021935820579529,
   2.2717621326446533,
   0.38186243176460266,
   -0.20659086108207703,
   -0.38747477531433105,
   1.0631749629974365
  ],
  [
   0.3258010745048523,
   0.15755295753479004,
   0.35568633675575256,
   0.47181597352027893,
   -0.1987381875514984,
   -0.2065788209438324,
   -2.457383632659912,
   1.0480190515518188,
   0.4036960005760193,
   -0.3261263072490692,
   0.4340200126171112,
   0.7072789072990417,
   -2.3170371055603027,
   -1.4198325872421265,
   0.21426205337047577,
   0.44978266954421997,
   -1.2051723003387451,
   0.6021634340286255,
   -1.478987455368042,
   0.20039185881614685,
   1.43771493434906,
   1.2648108005523682,
   -0.796094536781311,
   0.15220622718334198,
   1.2829893827438354,
   1.3096990585327148,
   -1.1774338483810425,
   -0.5575904250144958,
   -2.944883108139038,
   -0.2579245865345001,
   -1.6121472120285034,
   1.1964410543441772,
   0.08275416493415833,
   0.7648878693580627,
   -0.38393649458885193,
   -0.8678449988365173,
   -1.1838270425796509,
   -1.0004905462265015,
   -0.7505108118057251,
   0.030859965831041336,
   -0.34720227122306824,
   0.5910224318504333,
   0.061605148017406464,
   1.0637297630310059,
   -1.703115463256836,
   -0.15529847145080566,
   -0.1106201559305191,
   0.14993518590927124,
   -0.4592597484588623,
   -0.08301493525505066,
   2.0189108848571777,
   1.1289775371551514,
   0.9562816619873047,
   0.29164350032806396,
   1.6166502237319946,
   -1.1797516345977783,
   -4.151575088500977,
   -1.2420313358306885,
   -0.6865187883377075,
   -1.6297763586044312,
   -1.5836790800094604,
   1.0382988452911377,
   0.595579206943512,
   -0.7859060764312744,
   -0.9573546648025513,
   0.3677697479724884,
   1.4554392099380493,
   0.6212465763092041,
   -0.7490822672843933,
   -0.44675466418266296,
   -0.48930662870407104,
   1.583615779876709,
   -0.5621820092201233,
   0.14512629806995392,
   -0.18919737637043,
   1.0763527154922485,
   -1.7081925868988037,
   2.788475513458252,
   0.5616499781608582,
   -1.9490875005722046,
   -2.714332342147827,
   0.9379215240478516,
   0.9996300935745239,
   -2.6427366733551025,
   2.5938353538513184,
   -1.3070530891418457,
   0.5365172028541565,
   -0.6221171617507935,
   0.9543339610099792,
   1.7485281229019165,
   -1.3070396184921265,
   0.34545013308525085,
   -0.4445473849773407,
   -1.999955654144287,
   -0.8276827931404114,
   0.695152759552002,
   2.3520736694335938,
   0.12272899597883224,
   0.37084126472473145,
   0.08016892522573471
  ],
  [
   -2.0032784938812256,
   0.01944274641573429,
   1.7911736965179443,
   -2.9392824172973633,
   -0.35122743248939514,
   0.5943748354911804,
   0.6258213520050049,
   3.3051352500915527,
   -1.75786292552948,
   1.1942954063415527,
   0.6256211400032043,
   0.4735974073410034,
   -0.5363859534263611,
   1.2953907251358032,
   -3.1234052181243896,
   2.2347679138183594,
   0.6860204935073853,
   -1.1048297882080078,
   -0.5710041522979736,
   -1.2080357074737549,
   0.7052789926528931,
   0.5161643028259277,
   -1.7088924646377563,
   -0.7239037752151489,
   2.888516426086426,
   -4.806680679321289,
   -2.934398651123047,
   -0.6834580898284912,
   -0.7116901278495789,
   -1.312117099761963,
   -2.087477445602417,
   0.17092376947402954,
   -1.4881950616836548,
   -0.029444657266139984,
   -12.116958618164062,
   -0.11243744939565659,
   0.501635730266571,
   0.8346685767173767,
   -2.429405927658081,
   -0.07811830192804337,
   -0.14407382905483246,
   -0.1663477122783661,
   0.15769247710704803,
   -7.360063076019287,
   0.5722487568855286,
   1.16525399684906,
   1.6666779518127441,
   -1.23918616771698,
   1.4580960273742676,
   -8.357698440551758,
   -1.439556360244751,
   -1.8926783800125122,
   2.090639591217041,
   0.46691614389419556,
   -1.3074274063110352,
   -2.024721622467041,
   -0.3262341618537903,
   0.5171544551849365,
   0.0831974670290947,
   0.8937168121337891,
   -2.917719602584839,
   -0.2925211787223816,
   -1.1536128520965576,
   -0.26467278599739075,
   0.6275553107261658,
   0.9958508610725403,
   -0.0688149556517601,
   0.3822648227214813,
   0.35415998101234436,
   0.14848268032073975,
   0.6117766499519348,
   -0.19398602843284607,
   0.3193357586860657,
   0.8671478629112244,
   -0.3456847667694092,
   -1.367284893989563,
   -4.6177077293396,
   0.006535206455737352,
   0.4566223621368408,
   -0.9369283318519592,
   0.6111379265785217,
   -0.2343958467245102,
   1.5350887775421143,
   2.309267997741699,
   -0.3359564244747162,
   -0.005116242915391922,
   -2.2513954639434814,
   1.311061978340149,
   0.2605907917022705,
   -4.1004862785339355,
   0.30385833978652954,
   -0.7066846489906311,
   -0.9934436082839966,
   1.2094693183898926,
   0.47901952266693115,
   0.02561151795089245,
   -0.5797614455223083,
   1.9569381475448608,
   0.26170799136161804,
   0.7972487211227417
  ],
  [
   0.7179799675941467,
   -1.2786741256713867,
   -0.014031919650733471,
   -0.06948113441467285,
   0.1689535528421402,
   -1.3955583572387695,
   1.2052350044250488,
   -0.6444932222366333,
   0.5258385539054871,
   0.6782803535461426,
   0.10891783237457275,
   1.7799674272537231,
   -1.5495678186416626,
   1.957450032234192,
   -1.0698421001434326,
   -0.23672591149806976,
   0.7783774733543396,
   0.13472281396389008,
   2.222088098526001,
   1.1161638498306274,
   0.08305831998586655,
   -2.106923818588257,
   0.2664121687412262,
   -0.12370168417692184,
   -2.4237616062164307,
   0.35427233576774597,
   0.8390008211135864,
   -0.7997583150863647,
   -7.058821201324463,
   -0.7959267497062683,
   -2.0095760822296143,
   1.4293465614318848,
   0.7749320864677429,
   -5.388720989227295,
   -1.060533046722412,
   -0.7580292820930481,
   1.6580383777618408,
   0.6618297696113586,
   0.30082422494888306,
   0.09753364324569702,
   -1.009827733039856,
   -0.6192336082458496,
   -2.2951295375823975,
   0.5348609089851379,
   0.04314876347780228,
   0.9540784358978271,
   0.874588131904602,
   -0.5424023270606995,
   -1.4454113245010376,
   -0.2397000938653946,
   -0.8003990650177002,
   1.293687105178833,
   -1.300885796546936,
   -2.6045544147491455,
   -6.5358476638793945,
   0.2231033742427826,
   -3.911010265350342,
   -0.5606759786605835,
   1.2230523824691772,
   -3.7375550270080566,
   -0.32012566924095154,
   -0.1790275275707245,
   0.4194992482662201,
   -1.7686026096343994,
   1.4334046840667725,
   -1.1936218738555908,
   -1.4294239282608032,
   0.48856136202812195,
   1.3748970031738281,
   0.4086326062679291,
   0.7121495604515076,
   0.167299285531044,
   0.31481611728668213,
   0.14369069039821625,
   -2.2575197219848633,
   -2.1900434494018555,
   0.19318631291389465,
   -1.3476771116256714,
   0.7538204789161682,
   -0.3629167079925537,
   1.2672053575515747,
   2.3991801738739014,
   0.5165038108825684,
   0.6108036637306213,
   -4.0431084632873535,
   -0.8795132040977478,
   0.4904542565345764,
   -1.347198247909546,
   -0.3549875020980835,
   -0.5252142548561096,
   -0.36127132177352905,
   0.09453212469816208,
   -1.0110458135604858,
   0.18242041766643524,
   -0.6211176514625549,
   1.201601266860962,
   -0.09943552315235138,
   -0.8398157954216003,
   -4.798659801483154,
   0.8696751594543457
  ],
  [
   1.1012400388717651,
   -0.7968762516975403,
   1.2841018438339233,
   0.7407218813896179,
   -1.0574356317520142,
   -2.0746166706085205,
   3.0908167362213135,
   -0.8731830716133118,
   2.082000494003296,
   0.4448036849498749,
   2.526968240737915,
   -0.7470219731330872,
   -3.133352518081665,
   0.10399453341960907,
   -1.100696086883545,
   -0.47499820590019226,
   1.198691725730896,
   -0.7210568189620972,
   -0.5942549109458923,
   -1.0567293167114258,
   -0.17155450582504272,
   -0.5788918733596802,
   0.0154454680159688,
   0.07312851399183273,
   0.699313759803772,
   -0.9230598211288452,
   1.4881364107131958,
   0.6074704527854919,
   1.8281348943710327,
   -0.04326726123690605,
   1.5132237672805786,
   0.7624489665031433,
   -0.978857159614563,
   -0.8889306783676147,
   -1.6381464004516602,
   0.4598761200904846,
   -0.15438397228717804,
   0.16520749032497406,
   -0.03715923801064491,
   -1.4697532653808594,
   2.3909573554992676,
   -1.7695907354354858,
   -0.5411688089370728,
   -0.16092264652252197,
   0.6723356246948242,
   -0.017060337588191032,
   0.9234117865562439,
   0.3550325632095337,
   0.2430638074874878,
   -0.28048211336135864,
   -1.2654197216033936,
   -1.9449632167816162,
   -1.2904298305511475,
   -1.014975905418396,
   1.526401162147522,
   -1.8907033205032349,
   -0.7849100828170776,
   -1.383010983467102,
   -0.27234983444213867,
   0.10540862381458282,
   1.1274032592773438,
   -1.9808433055877686,
   -0.3008593022823334,
   0.17835527658462524,
   -1.3095940351486206,
   -0.7750923037528992,
   -1.2487375736236572,
   0.09119277447462082,
   -0.09450379014015198,
   1.4751086235046387,
   0.46288371086120605,
   -0.2785702645778656,
   1.3414591550827026,
   -0.25304505228996277,
   1.5937656164169312,
   -1.0932706594467163,
   1.9513942003250122,
   -1.515127182006836,
   -1.5889992713928223,
   -0.6634900569915771,
   -1.4346990585327148,
   -0.4783582091331482,
   0.12198875099420547,
   0.5521020889282227,
   1.6936100721359253,
   -0.23881161212921143,
   -1.066055417060852,
   1.6314524412155151,
   2.1216933727264404,
   2.264155387878418,
   0.6348958015441895,
   -0.4276268780231476,
   -1.039345383644104,
   -1.312546968460083,
   -0.5355644822120667,
   1.4655827283859253,
   0.1723393350839615,
   -0.9214113354682922,
   -2.338468551635742,
   -2.4885592460632324
  ],
  [
   -2.160740852355957,
   -1.6410554647445679,
   0.20375847816467285,
   0.4097031354904175,
   -1.3538073301315308,
   0.3684767186641693,
   0.18203440308570862,
   1.9824373722076416,
   0.9602153897285461,
   0.7255064249038696,
   -1.2459049224853516,
   1.887252688407898,
   -2.248447895050049,
   1.361635684967041,
   -2.3466734886169434,
   0.7999828457832336,
   0.45834121108055115,
   -0.3454649746417999,
   1.4956586360931396,
   -2.970330238342285,
   -1.7295273542404175,
   0.8932737112045288,
   0.17308734357357025,
   -1.3087464570999146,
   0.8660146594047546,
   0.17146193981170654,
   -0.7596442699432373,
   0.09575824439525604,
   -0.4128429889678955,
   -0.25769278407096863,
   -2.0143661499023438,
   -0.22638656198978424,
   -0.8189491629600525,
   -1.278239130973816,
   -0.9681198000907898,
   -0.12163665145635605,
   -2.6749138832092285,
   -4.151935577392578,
   0.7107133865356445,
   -2.3268320560455322,
   -1.7308608293533325,
   1.4759328365325928,
   1.8862402439117432,
   -1.5834883451461792,
   2.487565040588379,
   -2.612152576446533,
   -1.8712459802627563,
   -0.4547698199748993,
   -0.022523468360304832,
   -0.612593412399292,
   -0.10737409442663193,
   -1.2281585931777954,
   0.2599564790725708,
   0.7214937210083008,
   -3.4212112426757812,
   0.11058015376329422,
   0.8809342384338379,
   -0.8478222489356995,
   1.1502255201339722,
   1.016754150390625,
   0.13677571713924408,
   2.062729597091675,
   0.9037477374076843,
   -0.5874856114387512,
   1.0841795206069946,
   2.427316904067993,
   -0.7820721864700317,
   -2.6931231021881104,
   -1.8357951641082764,
   -0.7126186490058899,
   0.32353004813194275,
   -0.7961717844009399,
   1.1962976455688477,
   1.646906852722168,
   0.7815197110176086,
   -0.1714784950017929,
   0.904585599899292,
   -6.7921319007873535,
   -0.6357966065406799,
   2.105255603790283,
   -0.053622014820575714,
   -0.03851134702563286,
   -0.5765753984451294,
   1.1655409336090088,
   -2.0425832271575928,
   0.791193425655365,
   1.5329283475875854,
   0.03722551837563515,
   5.935807228088379,
   -1.536840796470642,
   0.34097689390182495,
   -1.494248628616333,
   -5.4309797286987305,
   -0.13453242182731628,
   0.40549740195274353,
   -0.8805725574493408,
   0.6041706204414368,
   -0.019593453034758568,
   -0.2270718514919281,
   -0.674426257610321
  ],
  [
   -3.154329776763916,
   -0.6989015936851501,
   1.5370498895645142,
   1.2877291440963745,
   0.4393986463546753,
   1.2916274070739746,
   1.3067342042922974,
   1.4692083597183228,
   1.9097081422805786,
   -5.707829475402832,
   1.411469578742981,
   -6.231900691986084,
   -1.1499532461166382,
   0.5693615078926086,
   0.37307924032211304,
   0.050383493304252625,
   -0.4912806749343872,
   -0.9202868938446045,
   -0.13681764900684357,
   -0.7219311594963074,
   -0.7404081225395203,
   -1.5059003829956055,
   -3.2858283519744873,
   1.4998384714126587,
   1.8351213932037354,
   -0.43087106943130493,
   1.4951577186584473,
   1.2481175661087036,
   -0.4129258394241333,
   -2.1374759674072266,
   -4.275016784667969,
   0.816582977771759,
   1.3975777626037598,
   -0.7124773263931274,
   -0.9126595258712769,
   0.7898582220077515,
   -9.353425025939941,
   -5.580310344696045,
   0.8024431467056274,
   0.25465118885040283,
   -1.9738526344299316,
   2.5154740810394287,
   0.7623512744903564,
   0.6095486879348755,
   -3.266045570373535,
   0.43696513772010803,
   4.4331183433532715,
   0.7721138000488281,
   -0.6878649592399597,
   0.2202037274837494,
   0.038783494383096695,
   -1.2340443134307861,
   0.41656237840652466,
   -1.3710726499557495,
   -7.757051467895508,
   0.9312145113945007,
   -1.035752773284912,
   0.5781018733978271,
   0.3191603124141693,
   -3.0860700607299805,
   -3.7681005001068115,
   1.6104451417922974,
   -1.6024208068847656,
   1.1819275617599487,
   -0.34833571314811707,
   0.5901959538459778,
   -0.07113885134458542,
   3.9971559047698975,
   -1.2279630899429321,
   2.517989158630371,
   3.1697962284088135,
   -0.999423623085022,
   0.5956403613090515,
   -0.7446864247322083,
   0.4442473351955414,
   -1.2905277013778687,
   -3.1689138412475586,
   -8.311666488647461,
   0.4189395308494568,
   0.6561648845672607,
   0.8869419693946838,
   -0.2515689432621002,
   0.33332252502441406,
   -0.3572545647621155,
   1.1051430702209473,
   -0.7473335862159729,
   0.5691131353378296,
   -2.1389529705047607,
   -4.791689872741699,
   0.8511325120925903,
   -2.0506045818328857,
   -1.984801173210144,
   -3.9910919666290283,
   -0.2834632396697998,
   0.47935861349105835,
   1.097582459449768,
   -1.0098812580108643,
   -0.9335393309593201,
   -0.14600294828414917,
   0.40258896350860596
  ],
  [
   2.2051711082458496,
   0.5090406537055969,
   -0.7824690341949463,
   -1.3158743381500244,
   -0.990778923034668,
   2.8415005207061768,
   1.3770052194595337,
   -0.6518734097480774,
   -1.0197757482528687,
   -0.4514811038970947,
   1.0831395387649536,
   -0.8547568917274475,
   -2.145327568054199,
   1.8934398889541626,
   -0.5218157172203064,
   0.16413676738739014,
   0.7683745622634888,
   -0.667046844959259,
   0.6174229979515076,
   0.9188531637191772,
   0.2813577651977539,
   -0.3819688856601715,
   1.7128616571426392,
   -3.449965238571167,
   1.2531962394714355,
   -0.3269166648387909,
   1.7699718475341797,
   -2.8371598720550537,
   4.198347568511963,
   1.6371912956237793,
   1.4378530979156494,
   1.3769299983978271,
   1.006670594215393,
   -0.857133686542511,
   3.8572494983673096,
   -2.88588547706604,
   -0.9650960564613342,
   0.6677868962287903,
   -3.7666165828704834,
   -0.4027481973171234,
   0.9383509159088135,
   -0.22655892372131348,
   -1.0718598365783691,
   -1.271008849143982,
   0.6978726387023926,
   -0.4465615451335907,
   1.5810917615890503,
   -2.2578954696655273,
   -0.9020252823829651,
   1.1380903720855713,
   -0.3349470794200897,
   -2.111154556274414,
   1.8333531618118286,
   -4.429983615875244,
   -0.12078586965799332,
   1.163942575454712,
   -0.8172181248664856,
   -0.2593797445297241,
   -3.1355221271514893,
   0.6648725271224976,
   -1.5439765453338623,
   0.7897484302520752,
   1.0630892515182495,
   -2.3745996952056885,
   -1.1292026042938232,
   -0.4197729229927063,
   0.6979149580001831,
   -0.2107134312391281,
   0.6817007064819336,
   -1.9006510972976685,
   0.9038267135620117,
   -1.6272462606430054,
   -1.5791481733322144,
   0.9642732739448547,
   -1.3379230499267578,
   -1.4886436462402344,
   1.2569431066513062,
   -3.981025457382202,
   -0.022415287792682648,
   -1.8740873336791992,
   0.8600342869758606,
   0.10235192626714706,
   0.2801683843135834,
   1.7998391389846802,
   2.3610715866088867,
   -4.79475212097168,
   -1.2532235383987427,
   1.4545456171035767,
   -7.382680892944336,
   1.4755746126174927,
   1.0758693218231201,
   0.5801626443862915,
   1.9595533609390259,
   -0.47785869240760803,
   0.21658821403980255,
   2.7387096881866455,
   0.20166932046413422,
   1.1923290491104126,
   -0.4427351951599121,
   0.34464454650878906
  ],
  [
   0.7986148595809937,
   0.22494974732398987,
   0.35137036442756653,
   0.07025089114904404,
   1.2021583318710327,
   -0.0761827602982521,
   1.032832145690918,
   0.8598313927650452,
   -0.6366708278656006,
   0.4107781946659088,
   -0.8186970353126526,
   1.9896081686019897,
   -1.7650753259658813,
   0.6820106506347656,
   -0.8023601174354553,
   -0.15339891612529755,
   0.15917176008224487,
   0.6108424663543701,
   -0.6796693205833435,
   0.39388397336006165,
   0.15266799926757812,
   -1.0384602546691895,
   -1.6129635572433472,
   -0.9706560969352722,
   1.4273236989974976,
   0.09588942676782608,
   -0.43454423546791077,
   1.1559276580810547,
   0.6403087377548218,
   -0.10766224563121796,
   -0.03297041356563568,
   -1.4379059076309204,
   -0.7156110405921936,
   0.5518784523010254,
   0.16722160577774048,
   -0.8735890984535217,
   0.5482906699180603,
   -0.042616214603185654,
   1.2969902753829956,
   -0.5193557143211365,
   -1.2920526266098022,
   -0.6799887418746948,
   -0.43789738416671753,
   -0.02467576041817665,
   1.8404961824417114,
   -2.5250556468963623,
   0.5985392332077026,
   -0.9127206206321716,
   0.08497653901576996,
   1.0729023218154907,
   -0.5481376051902771,
   -0.35963550209999084,
   -0.07216629385948181,
   0.07287588715553284,
   1.9594453573226929,
   -0.4797380566596985,
   0.11135019361972809,
   1.4223108291625977,
   -0.47720953822135925,
   0.22031600773334503,
   1.3413561582565308,
   0.3800038695335388,
   1.7311146259307861,
   0.13689474761486053,
   -0.6927926540374756,
   1.3810540437698364,
   -0.6399879455566406,
   -0.10587681829929352,
   -0.7914760708808899,
   -0.7222298979759216,
   0.6214841604232788,
   0.7132599949836731,
   -1.0860629081726074,
   -0.35964155197143555,
   -0.7154774069786072,
   0.28194770216941833,
   0.34728673100471497,
   0.48636844754219055,
   -1.5817917585372925,
   -0.9938681721687317,
   1.1994836330413818,
   0.3291301429271698,
   0.4383023679256439,
   -0.5670238137245178,
   -0.29336175322532654,
   -0.056503962725400925,
   -0.5368613004684448,
   -0.9443684816360474,
   0.18202081322669983,
   0.16224871575832367,
   -0.22960937023162842,
   0.47790130972862244,
   -0.5878903269767761,
   -0.7784887552261353,
   0.33231404423713684,
   -1.1155768632888794,
   0.30055856704711914,
   1.4592852592468262,
   -0.16220024228096008,
   -0.4110933840274811
  ],
  [
   0.5832726359367371,
   -0.09458014369010925,
   1.9985153675079346,
   0.28238940238952637,
   -0.5491010546684265,
   -0.9983720779418945,
   0.2926161587238312,
   -0.777179479598999,
   -1.2044483423233032,
   -4.547468662261963,
   0.8120502233505249,
   1.6636618375778198,
   0.20725879073143005,
   -1.0198004245758057,
   0.10305674374103546,
   -1.827939510345459,
   -1.0858339071273804,
   0.4903011918067932,
   0.16138355433940887,
   0.858765184879303,
   -0.7465208768844604,
   -0.015622150152921677,
   1.6624598503112793,
   -0.220933735370636,
   -0.31263622641563416,
   -1.3522714376449585,
   -0.5980653166770935,
   0.5015060901641846,
   1.5547081232070923,
   0.5092726349830627,
   -1.743791937828064,
   -0.3899320662021637,
   -1.1570043563842773,
   -0.8417971730232239,
   1.262057900428772,
   0.4297434687614441,
   0.8613486886024475,
   -0.8902222514152527,
   1.5174026489257812,
   0.45901966094970703,
   -0.3402183949947357,
   -2.399841547012329,
   -1.0137929916381836,
   0.18752481043338776,
   2.2977406978607178,
   0.06483456492424011,
   1.3973274230957031,
   0.24087810516357422,
   0.060015127062797546,
   -0.053492311388254166,
   0.3950076699256897,
   0.6692833304405212,
   -0.2672973871231079,
   -0.9101645350456238,
   0.9379181861877441,
   -1.028635859489441,
   1.312678575515747,
   -1.0591179132461548,
   -0.39142411947250366,
   -2.5932791233062744,
   -1.1503808498382568,
   -5.065517425537109,
   -1.5425406694412231,
   0.24905043840408325,
   -0.8269023299217224,
   1.4624906778335571,
   -0.04594139754772186,
   1.5334162712097168,
   -0.23416045308113098,
   -1.3056563138961792,
   0.5447096824645996,
   -0.5603991746902466,
   -1.6162916421890259,
   -5.746546268463135,
   0.4694662392139435,
   -0.8077834844589233,
   1.4234459400177002,
   -0.17038707435131073,
   0.2081293761730194,
   -0.38851600885391235,
   1.563834309577942,
   -0.24573597311973572,
   -0.38546520471572876,
   -1.7952200174331665,
   0.4914797842502594,
   -0.04310394078493118,
   -1.3980298042297363,
   -0.26103511452674866,
   -1.389691710472107,
   -2.8468661308288574,
   0.7566702365875244,
   -0.2077765315771103,
   -0.4027768671512604,
   -1.3634016513824463,
   -1.644272804260254,
   1.9575390815734863,
   0.5516204833984375,
   -1.6395198106765747,
   -0.3540785312652588,
   -0.22692807018756866
  ],
  [
   0.09229360520839691,
   1.176450490951538,
   -0.0037712284829467535,
   0.5047485828399658,
   -0.5979416966438293,
   -0.6682522296905518,
   1.1439459323883057,
   -0.5176647305488586,
   0.8398239016532898,
   -0.7560760974884033,
   -1.980156660079956,
   0.8443325161933899,
   -0.8171016573905945,
   -0.7663343548774719,
   0.04184875264763832,
   -1.2256505489349365,
   -0.7935811281204224,
   1.5694864988327026,
   0.5553634762763977,
   -1.0571250915527344,
   1.1505454778671265,
   -1.5699195861816406,
   -0.08274220675230026,
   -0.8969652652740479,
   0.5781376361846924,
   -0.4558476209640503,
   -0.2373807728290558,
   0.3120634853839874,
   0.9482336044311523,
   -0.3714899718761444,
   -0.030604194849729538,
   -0.14904971420764923,
   -0.5772784948348999,
   0.20748421549797058,
   0.7024712562561035,
   -0.6256834268569946,
   0.7502055764198303,
   1.4109821319580078,
   1.2401363849639893,
   0.1685226857662201,
   -1.1728190183639526,
   -1.4426652193069458,
   0.31712523102760315,
   -0.22928324341773987,
   -0.00994669459760189,
   1.0273666381835938,
   2.2837753295898438,
   0.6756574511528015,
   -2.1578311920166016,
   2.6487784385681152,
   0.16432525217533112,
   0.6379730105400085,
   -1.2181476354599,
   0.6041529178619385,
   -1.8765846490859985,
   0.6887933015823364,
   0.5002537369728088,
   0.5303083062171936,
   0.2864731550216675,
   -0.6666510701179504,
   -1.1723532676696777,
   0.020585572347044945,
   0.4968816041946411,
   -0.6666774749755859,
   0.7909320592880249,
   -0.3688625991344452,
   -1.0224400758743286,
   0.8353307247161865,
   0.5459253787994385,
   -0.07677847892045975,
   0.6633296012878418,
   -0.1862211525440216,
   0.5371547341346741,
   0.5986769795417786,
   0.5546706914901733,
   -0.2665552496910095,
   -1.8245078325271606,
   -0.21479715406894684,
   0.7119390964508057,
   -0.3552151918411255,
   0.5508156418800354,
   -0.7049030065536499,
   0.30861908197402954,
   -0.8352708220481873,
   0.12377162277698517,
   0.1771252453327179,
   -0.19284984469413757,
   -2.175546646118164,
   -0.24021558463573456,
   -1.0462864637374878,
   0.7632278203964233,
   -0.3956568241119385,
   -0.39878612756729126,
   -0.3608052730560303,
   0.05357413366436958,
   -0.37220823764801025,
   0.24572965502738953,
   1.5092498064041138,
   -0.7866715788841248,
   -0.9070837497711182
  ],
  [
   0.022503985092043877,
   -0.4295293986797333,
   -0.11442378908395767,
   -0.3101196885108948,
   0.13740044832229614,
   -0.37797874212265015,
   -0.30066627264022827,
   0.5948566794395447,
   -0.3241039216518402,
   0.011607526801526546,
   0.20003429055213928,
   0.4221106767654419,
   0.31762102246284485,
   -0.42571961879730225,
   0.4384942650794983,
   -1.090839147567749,
   -1.8610926866531372,
   -0.6762567758560181,
   0.16563516855239868,
   0.7519264817237854,
   -0.0208963081240654,
   0.2637561857700348,
   0.22016409039497375,
   1.3412214517593384,
   0.42598769068717957,
   -0.6147210001945496,
   0.10779251158237457,
   0.0762944370508194,
   -0.022488150745630264,
   -2.7344930171966553,
   -0.5247678756713867,
   0.4105427861213684,
   0.7940734028816223,
   -0.7164084315299988,
   -3.409047842025757,
   -0.16047827899456024,
   0.6247118711471558,
   -1.7051631212234497,
   -0.6197157502174377,
   -0.03851183131337166,
   0.6404118537902832,
   1.7338062524795532,
   -0.47311466932296753,
   0.5889343619346619,
   -1.1569663286209106,
   -1.0411196947097778,
   2.2591359615325928,
   -0.30914077162742615,
   -1.2707072496414185,
   -1.488675832748413,
   -0.5844622254371643,
   0.8824217319488525,
   0.9184347987174988,
   0.6831458806991577,
   3.5566937923431396,
   0.13729709386825562,
   -0.07450917363166809,
   0.2527526319026947,
   1.3015573024749756,
   -0.2613021433353424,
   -0.8630783557891846,
   -0.1930631846189499,
   1.6563841104507446,
   0.8159919381141663,
   -1.0404372215270996,
   -0.8252702951431274,
   -0.12857383489608765,
   -0.6582054495811462,
   -1.2534171342849731,
   0.006750009022653103,
   1.2812527418136597,
   1.8337798118591309,
   0.9834505319595337,
   -0.6944138407707214,
   0.5456684231758118,
   0.14344845712184906,
   -0.7198060154914856,
   0.7275300025939941,
   -0.15840643644332886,
   -0.2767205536365509,
   0.3448601961135864,
   -0.732763946056366,
   -1.4079793691635132,
   -1.3787169456481934,
   0.5516312122344971,
   0.05509607493877411,
   -0.011283858679234982,
   0.44981980323791504,
   -0.20955374836921692,
   0.11868751794099808,
   0.10944119840860367,
   -0.8176572322845459,
   -1.0589109659194946,
   -0.028103355318307877,
   -0.4901220500469208,
   1.679538369178772,
   0.05970758944749832,
   0.6937109231948853,
   -1.1088273525238037,
   0.09280932694673538
  ],
  [
   -0.5338454246520996,
   -0.023643163964152336,
   0.8530809879302979,
   0.2292519360780716,
   -1.9261794090270996,
   -1.3582127094268799,
   0.8475668430328369,
   -2.2816343307495117,
   -0.5288001894950867,
   -1.676056981086731,
   0.23794761300086975,
   0.2490273267030716,
   2.3177855014801025,
   -0.03218384087085724,
   -0.9401395916938782,
   -1.6906288862228394,
   0.9645962119102478,
   0.008748941123485565,
   0.017560351639986038,
   -1.0355937480926514,
   0.2698390483856201,
   -0.04960169643163681,
   0.8643879890441895,
   1.6005709171295166,
   -4.141674995422363,
   -1.1714632511138916,
   0.25528475642204285,
   0.22120918333530426,
   1.4088393449783325,
   -0.4770222008228302,
   -0.34579601883888245,
   1.008998990058899,
   -0.365582138299942,
   -1.0860612392425537,
   -0.1967247873544693,
   0.7523347735404968,
   0.2703307569026947,
   0.6121742725372314,
   0.7837921977043152,
   -1.5052869319915771,
   0.02648812159895897,
   0.6028633117675781,
   -1.7401598691940308,
   -1.041486382484436,
   -0.8674338459968567,
   0.3869311511516571,
   0.8139915466308594,
   -6.879056453704834,
   0.8609410524368286,
   0.8880600929260254,
   -2.701739549636841,
   -1.6005607843399048,
   1.7734843492507935,
   -1.9649038314819336,
   0.38052666187286377,
   0.9177360534667969,
   -0.7528855204582214,
   -1.1867018938064575,
   0.23901565372943878,
   -1.7668894529342651,
   -1.93113112449646,
   1.0300781726837158,
   -4.2273077964782715,
   -0.9221206307411194,
   -1.0572787523269653,
   -0.4148009419441223,
   0.27622097730636597,
   -1.3501514196395874,
   1.0087839365005493,
   1.4244507551193237,
   0.49763867259025574,
   -0.6455826163291931,
   -0.9827495813369751,
   -1.1023023128509521,
   -0.6816583275794983,
   0.1785450577735901,
   -0.6104146838188171,
   -0.617544412612915,
   -1.1317014694213867,
   1.8452028036117554,
   -0.8078385591506958,
   1.7877604961395264,
   1.168147325515747,
   -6.540337085723877,
   -0.6107451319694519,
   -1.2053749561309814,
   -0.4314899444580078,
   0.6164650917053223,
   1.4082950353622437,
   -1.7196524143218994,
   0.11028070747852325,
   -2.4606258869171143,
   1.4428151845932007,
   -7.770180702209473,
   -2.0011796951293945,
   -0.9851440191268921,
   0.23867307603359222,
   3.6309399604797363,
   -1.3469992876052856,
   -3.921448230743408
  ],
  [
   0.6403648853302002,
   -3.2638280391693115,
   0.5056315064430237,
   -0.5015995502471924,
   0.8017577528953552,
   -1.5958497524261475,
   -1.485688328742981,
   -0.8889802694320679,
   -0.0518253892660141,
   0.12284451723098755,
   -0.7153686285018921,
   1.1795125007629395,
   0.394509881734848,
   -2.7310588359832764,
   -0.7888807058334351,
   0.11239366978406906,
   -1.8503731489181519,
   -0.15407070517539978,
   0.4055570065975189,
   0.5798938870429993,
   -0.6362472772598267,
   0.9346033930778503,
   0.2896762490272522,
   -1.5567647218704224,
   0.46873316168785095,
   1.3254592418670654,
   1.3229045867919922,
   -0.4168750047683716,
   -1.5677490234375,
   -1.5515104532241821,
   1.5453957319259644,
   0.6789027452468872,
   0.08670595288276672,
   -1.5744160413742065,
   3.0468804836273193,
   0.4458201229572296,
   0.21603505313396454,
   -0.7641765475273132,
   0.1128784567117691,
   -1.3053621053695679,
   0.7388566136360168,
   1.5575491189956665,
   -0.4561576247215271,
   0.7494906783103943,
   -0.5023847222328186,
   0.7931452393531799,
   0.9615586996078491,
   -1.8831071853637695,
   -1.8868701457977295,
   1.1649683713912964,
   -0.39335712790489197,
   -0.6052501797676086,
   0.9315183758735657,
   0.2703731656074524,
   -1.1816667318344116,
   1.0480220317840576,
   1.1470919847488403,
   -0.9421277642250061,
   -1.2786089181900024,
   -0.5423138737678528,
   -0.7985115647315979,
   1.1418529748916626,
   -0.20780789852142334,
   -1.4151911735534668,
   -1.0381845235824585,
   -0.1060120239853859,
   -2.7860710620880127,
   -0.7103148698806763,
   0.4764353334903717,
   0.04854269698262215,
   -0.003904144512489438,
   -0.6014688611030579,
   0.17451158165931702,
   -0.44469305872917175,
   -0.31454041600227356,
   -0.2698477804660797,
   -0.9982318878173828,
   -0.1334959864616394,
   -1.687404751777649,
   -0.2386387586593628,
   -1.3420413732528687,
   0.8891789317131042,
   0.10119117796421051,
   -1.981528639793396,
   0.029033318161964417,
   -0.34057483077049255,
   -0.17400796711444855,
   -0.6237636208534241,
   -1.118607521057129,
   1.1289042234420776,
   0.45316651463508606,
   0.09978482872247696,
   1.1413801908493042,
   -0.9861757159233093,
   1.750272512435913,
   -0.13287058472633362,
   1.318055272102356,
   1.6583153009414673,
   0.46292391419410706,
   0.9828338027000427
  ],
  [
   2.9877731800079346,
   -0.7233386039733887,
   -1.5559148788452148,
   0.7372092604637146,
   -1.14479660987854,
   1.8525278568267822,
   0.4321833848953247,
   -0.45184409618377686,
   1.5240534543991089,
   1.9370944499969482,
   -1.1357269287109375,
   -1.3453435897827148,
   -0.7418045401573181,
   -4.6075310707092285,
   -0.6235710978507996,
   -0.0017047957517206669,
   0.06262319535017014,
   0.18266040086746216,
   -1.3400897979736328,
   -1.589499592781067,
   -0.2989945411682129,
   2.3622853755950928,
   -1.5525285005569458,
   0.9481346011161804,
   -3.4688568115234375,
   -0.9422281980514526,
   -0.27330565452575684,
   2.079271078109741,
   -6.239675521850586,
   -2.1244237422943115,
   -1.1699273586273193,
   0.20941013097763062,
   0.2060168832540512,
   1.2228714227676392,
   1.9391072988510132,
   -2.2326931953430176,
   0.3281131088733673,
   -0.5552013516426086,
   -2.56534743309021,
   -0.3015349209308624,
   2.7304720878601074,
   -0.4414607286453247,
   0.9429438710212708,
   -0.931831955909729,
   -1.4146281480789185,
   -1.0818122625350952,
   -1.17746102809906,
   0.8729506134986877,
   -0.5293160676956177,
   1.318097472190857,
   -3.556297779083252,
   -0.9268233776092529,
   -2.013610363006592,
   -0.5730799436569214,
   0.09749735891819,
   0.9771470427513123,
   -2.9967331886291504,
   -0.5178972482681274,
   0.6917285323143005,
   1.6693426370620728,
   -1.1083052158355713,
   1.0269479751586914,
   2.766019344329834,
   0.21596726775169373,
   -1.4630993604660034,
   -0.894911527633667,
   -1.0576460361480713,
   0.46984419226646423,
   -1.299322485923767,
   -0.4143296182155609,
   -0.27749475836753845,
   -1.7837520837783813,
   1.536919355392456,
   0.8203200697898865,
   0.5323398113250732,
   -0.8457114696502686,
   0.5208512544631958,
   0.3867398798465729,
   0.10139371454715729,
   -2.1629819869995117,
   -0.8276758193969727,
   -1.3875844478607178,
   0.924612283706665,
   -2.173499822616577,
   -0.9050526022911072,
   1.2941128015518188,
   -0.9893200397491455,
   0.0883883386850357,
   0.14851363003253937,
   -0.12028147280216217,
   -0.7898445129394531,
   0.14874577522277832,
   -0.9323768019676208,
   -1.528574824333191,
   0.8224331736564636,
   0.7448874711990356,
   0.9216143488883972,
   0.7792625427246094,
   -1.959347128868103,
   -2.2544853687286377
  ],
  [
   -0.8148199319839478,
   0.03995257243514061,
   0.7220665216445923,
   0.46281594038009644,
   -1.0861424207687378,
   1.3185675144195557,
   1.4493191242218018,
   1.0864123106002808,
   0.7119534015655518,
   -2.8694167137145996,
   -1.1786537170410156,
   -0.2693146765232086,
   -1.2273069620132446,
   0.39279142022132874,
   -1.6864886283874512,
   -0.008854415267705917,
   -0.5496970415115356,
   -2.1051602363586426,
   0.3111036419868469,
   -0.9852432608604431,
   -0.20202796161174774,
   0.593025803565979,
   -0.46652257442474365,
   0.8954009413719177,
   0.15986575186252594,
   -0.5686451196670532,
   0.8740365505218506,
   0.7773489952087402,
   0.7503705620765686,
   0.3930697441101074,
   -0.9289354085922241,
   -1.343443512916565,
   1.0854960680007935,
   1.0880903005599976,
   0.8889842629432678,
   0.9412848949432373,
   0.14824178814888,
   -0.5544266700744629,
   -1.4482449293136597,
   2.41241717338562,
   0.07848089933395386,
   -0.1321382373571396,
   -2.4706740379333496,
   -0.9115530848503113,
   0.438504159450531,
   -1.0630667209625244,
   0.04517684876918793,
   0.00796404480934143,
   1.1503596305847168,
   -0.06312022358179092,
   0.4191846251487732,
   -1.7436503171920776,
   0.308754026889801,
   0.6261479258537292,
   2.902560234069824,
   -1.4140160083770752,
   -0.17095918953418732,
   -0.8624933958053589,
   0.17975753545761108,
   2.1252918243408203,
   -0.613724410533905,
   -0.3022691607475281,
   0.755064070224762,
   -0.8788259029388428,
   -0.7529680728912354,
   0.3298247754573822,
   -1.2383112907409668,
   2.128878355026245,
   1.2507133483886719,
   0.6179322600364685,
   0.7788000106811523,
   -1.3197886943817139,
   0.18662403523921967,
   0.29811495542526245,
   -1.7028908729553223,
   -1.334201693534851,
   0.6031015515327454,
   0.02412562444806099,
   -2.0971150398254395,
   -0.6362535357475281,
   2.0803582668304443,
   -1.3392163515090942,
   -0.04186174273490906,
   0.4525964558124542,
   0.8875682950019836,
   -0.5360910296440125,
   0.22563837468624115,
   0.7655532956123352,
   -0.3293265104293823,
   -1.904334306716919,
   0.5000433921813965,
   0.04596513509750366,
   -0.9640671014785767,
   -1.0717744827270508,
   0.85019850730896,
   -0.49097976088523865,
   -1.782623052597046,
   -0.005445672664791346,
   0.6300308704376221,
   -0.49354249238967896
  ],
  [
   -1.7905210256576538,
   -0.8484331369400024,
   0.3937150239944458,
   -0.5866950750350952,
   -0.16398519277572632,
   -0.05744805932044983,
   0.47774064540863037,
   2.840021848678589,
   1.1018402576446533,
   -0.2638913691043854,
   -0.9322230815887451,
   0.30242854356765747,
   -0.9902952313423157,
   -0.22066746652126312,
   -0.16899025440216064,
   -0.4124823212623596,
   -0.5337219834327698,
   -0.029576292261481285,
   -1.117850661277771,
   -1.3757779598236084,
   0.3534088134765625,
   -2.405322551727295,
   -0.7164563536643982,
   -0.11149623990058899,
   3.757718324661255,
   -0.22756196558475494,
   0.7988754510879517,
   -0.6758925914764404,
   0.12803024053573608,
   -7.275814533233643,
   -1.7415293455123901,
   0.9348309636116028,
   0.23675960302352905,
   -5.8738579750061035,
   0.7907542586326599,
   -2.4767651557922363,
   1.099798560142517,
   -0.2723366618156433,
   -0.6338576674461365,
   0.05959374085068703,
   -0.6646103858947754,
   0.05559531971812248,
   -1.6772987842559814,
   -2.2424724102020264,
   -1.4493952989578247,
   -0.4582688808441162,
   -0.5143026113510132,
   0.06183096393942833,
   -0.8278472423553467,
   0.5550472140312195,
   -3.3412904739379883,
   0.17256347835063934,
   -0.6061765551567078,
   -1.2151538133621216,
   1.6409680843353271,
   1.1372945308685303,
   -1.9899176359176636,
   -0.21143575012683868,
   0.35768434405326843,
   1.412157654762268,
   -0.10123023390769958,
   0.10109905153512955,
   0.8900898098945618,
   2.6512458324432373,
   -0.4285661578178406,
   -0.2791747450828552,
   0.24016503989696503,
   0.605937123298645,
   0.176121786236763,
   0.4243718981742859,
   -3.1880996227264404,
   1.7101086378097534,
   0.4769098162651062,
   0.5672026872634888,
   -2.0708553791046143,
   -0.4122192859649658,
   0.8925251960754395,
   -1.579872965812683,
   -0.2827528417110443,
   -1.1953225135803223,
   0.49300065636634827,
   1.4229798316955566,
   1.0591394901275635,
   -2.9111368656158447,
   0.5599124431610107,
   -0.6593919396400452,
   0.040925804525613785,
   0.09051139652729034,
   0.554965615272522,
   1.418218731880188,
   -0.27904242277145386,
   1.0924416780471802,
   0.7062193751335144,
   0.3358613848686218,
   1.0729385614395142,
   0.4915526807308197,
   -0.43415507674217224,
   -0.3822544813156128,
   -0.7512901425361633,
   -0.2540658712387085
  ],
  [
   1.372315526008606,
   -0.32761314511299133,
   -0.604356050491333,
   0.44401341676712036,
   -1.0898023843765259,
   -0.7592650055885315,
   -0.3784051835536957,
   3.4641849994659424,
   -1.3567861318588257,
   -1.2791972160339355,
   0.047087252140045166,
   2.363624334335327,
   0.8735408782958984,
   -1.0108214616775513,
   3.316636085510254,
   1.0345046520233154,
   2.0242154598236084,
   -1.2725257873535156,
   -0.322549432516098,
   -0.3673641085624695,
   0.6790241599082947,
   -0.1849522441625595,
   -0.15646404027938843,
   -1.9672223329544067,
   0.5485324859619141,
   -4.19216775894165,
   -1.19627845287323,
   0.5639703869819641,
   -0.8524987697601318,
   -1.4141079187393188,
   0.15227928757667542,
   1.544639229774475,
   0.787750780582428,
   2.511845588684082,
   0.868218183517456,
   2.1726882457733154,
   0.6345715522766113,
   0.22349298000335693,
   -1.3634461164474487,
   -1.0585155487060547,
   0.5040668249130249,
   0.500116229057312,
   0.6862831711769104,
   -7.254402160644531,
   -0.46718451380729675,
   1.0677695274353027,
   -0.9085406064987183,
   -0.18339762091636658,
   -0.45255059003829956,
   -0.03471727669239044,
   -0.378033310174942,
   0.26869264245033264,
   1.3661859035491943,
   -0.28782105445861816,
   -1.51722252368927,
   -1.7027673721313477,
   1.2969423532485962,
   0.42496052384376526,
   0.44139838218688965,
   2.070162057876587,
   -4.473393440246582,
   -0.2881959080696106,
   -0.37924671173095703,
   0.16416239738464355,
   -3.4542746543884277,
   0.2336948961019516,
   -3.665311813354492,
   2.220417022705078,
   -3.283029794692993,
   -1.0952284336090088,
   0.040359508246183395,
   -0.6906570792198181,
   0.2466762661933899,
   0.07846692204475403,
   -0.4908584952354431,
   -0.8758891820907593,
   0.6634815335273743,
   -1.0322682857513428,
   0.26664867997169495,
   0.20501118898391724,
   0.24046394228935242,
   0.27286285161972046,
   -1.6984617710113525,
   -1.8240748643875122,
   -2.041426181793213,
   -2.2594828605651855,
   -0.502614438533783,
   -0.31512147188186646,
   -0.44804275035858154,
   0.47837892174720764,
   -0.07265719026327133,
   -0.0790947899222374,
   -0.9356240630149841,
   2.081784963607788,
   0.1099882498383522,
   -1.9977902173995972,
   1.098156452178955,
   -1.6877776384353638,
   0.7775902152061462,
   2.3043336868286133
  ],
  [
   0.9403052926063538,
   0.0028300636913627386,
   -2.746628522872925,
   -3.1600379943847656,
   -1.367366075515747,
   -1.6459778547286987,
   -2.5186591148376465,
   2.1532390117645264,
   0.24970898032188416,
   3.496339797973633,
   0.954733669757843,
   -6.058221340179443,
   -0.45531055331230164,
   -0.6982434391975403,
   1.980142593383789,
   -1.2612148523330688,
   -7.002376079559326,
   0.524541437625885,
   -0.9735580682754517,
   -1.4660166501998901,
   -1.9066276550292969,
   -1.7007167339324951,
   -0.14126770198345184,
   0.9863801002502441,
   1.3662885427474976,
   1.6813820600509644,
   -2.187939405441284,
   -1.356289029121399,
   -2.5262768268585205,
   -0.19230860471725464,
   -1.0564056634902954,
   -1.3277174234390259,
   -0.9179351925849915,
   -1.5003150701522827,
   1.6101638078689575,
   -2.5635058879852295,
   -4.002340316772461,
   -4.676147937774658,
   0.2461717426776886,
   -0.6277640461921692,
   0.6565515995025635,
   0.07758728414773941,
   -0.3130991756916046,
   0.03371636942028999,
   0.6868252754211426,
   -0.04810689017176628,
   0.5517336130142212,
   -1.033349633216858,
   -1.472333550453186,
   -2.7327656745910645,
   -1.3022005558013916,
   -1.6845519542694092,
   0.5956406593322754,
   -0.20673757791519165,
   -0.6370433568954468,
   -0.6844576001167297,
   -1.4405014514923096,
   0.09487871080636978,
   0.16635264456272125,
   -1.6711640357971191,
   -2.5416259765625,
   -1.1710796356201172,
   -1.1665635108947754,
   -0.3564779758453369,
   -5.614760398864746,
   -0.36614781618118286,
   1.3091148138046265,
   -0.9987303018569946,
   -2.0632545948028564,
   -5.155436992645264,
   0.8663914203643799,
   -2.3339929580688477,
   1.2933975458145142,
   -1.3805593252182007,
   -2.2577626705169678,
   -0.6002404689788818,
   1.1440858840942383,
   -4.054280757904053,
   -0.2522124946117401,
   0.6986478567123413,
   -2.3720099925994873,
   -2.932440996170044,
   0.49136388301849365,
   0.6524656414985657,
   0.29376113414764404,
   -3.6982014179229736,
   -0.5638539791107178,
   -1.8994886875152588,
   0.7254290580749512,
   -5.656315326690674,
   -3.154810905456543,
   -0.7504208087921143,
   -2.961773633956909,
   0.4166088402271271,
   2.004859209060669,
   -0.5106788873672485,
   -0.4106932580471039,
   0.17125332355499268,
   0.9231199026107788,
   0.8817926049232483
  ],
  [
   -2.348341941833496,
   -1.99553382396698,
   -0.03385169804096222,
   -0.6694459319114685,
   -1.4502636194229126,
   -1.3965874910354614,
   0.0689753070473671,
   2.034059524536133,
   1.1517292261123657,
   0.4374205470085144,
   -0.3708125650882721,
   -1.0988242626190186,
   -0.1812368482351303,
   0.7050115466117859,
   1.1370402574539185,
   -1.3711528778076172,
   -1.0749973058700562,
   -1.185625672340393,
   1.3040261268615723,
   0.3014880120754242,
   1.2867367267608643,
   -0.874455988407135,
   -0.00514220679178834,
   -1.447939157485962,
   0.267413467168808,
   0.45018622279167175,
   -1.3696002960205078,
   0.1669071465730667,
   -0.8250719904899597,
   -0.28094202280044556,
   -0.7977667450904846,
   0.17462149262428284,
   0.3717634975910187,
   -0.04995989426970482,
   -0.20440785586833954,
   -0.40610575675964355,
   0.9685065746307373,
   -1.2997184991836548,
   -1.0317363739013672,
   -0.7301244735717773,
   0.6398561000823975,
   -0.3543888032436371,
   -2.214869976043701,
   -0.003546822350472212,
   1.4068739414215088,
   0.32910260558128357,
   0.8870839476585388,
   1.0655767917633057,
   1.4796994924545288,
   0.8165326118469238,
   -0.20478421449661255,
   -0.2016734480857849,
   0.6512125134468079,
   -0.7121689319610596,
   1.2663713693618774,
   -1.8705776929855347,
   -1.3198202848434448,
   -2.3617825508117676,
   -0.529628336429596,
   0.6894161105155945,
   -0.49277263879776,
   0.46812114119529724,
   -0.9855064749717712,
   1.4938862323760986,
   -0.22542734444141388,
   0.20114897191524506,
   -0.42102012038230896,
   0.38240477442741394,
   -0.5968636274337769,
   2.3383982181549072,
   1.2763659954071045,
   1.4010653495788574,
   -0.34441524744033813,
   0.033407099545001984,
   0.8777676224708557,
   -0.8102803230285645,
   0.37088313698768616,
   -0.017485979944467545,
   0.28987589478492737,
   -1.059820294380188,
   0.6934800744056702,
   1.442753791809082,
   0.16976265609264374,
   -0.23141027987003326,
   -1.3537676334381104,
   0.6388178467750549,
   1.1734938621520996,
   -4.1264801025390625,
   0.4714897871017456,
   1.011561393737793,
   1.4679689407348633,
   0.16989566385746002,
   -1.9530754089355469,
   0.050748493522405624,
   1.265052318572998,
   0.14802923798561096,
   -0.07101617008447647,
   -1.63063383102417,
   -0.3374115228652954,
