{
 "pi.0.weight": [
  [
   -0.1547311544418335,
   -0.058910686522722244,
   -0.1461263746023178,
   -0.2556324303150177,
   -0.3780657649040222,
   -0.3572315275669098
  ],
  [
   -0.08121317625045776,
   0.09151171892881393,
   0.22597502171993256,
   -0.41610828042030334,
   0.48043370246887207,
   0.8667186498641968
  ],
  [
   1.1332101821899414,
   0.4684898853302002,
   0.8009600043296814,
   -0.013542518950998783,
   -0.5121243000030518,
   -0.39927560091018677
  ],
  [
   -0.026503300294280052,
   0.3413439095020294,
   -0.060198087245225906,
   0.3002021908760071,
   0.12570197880268097,
   0.020729519426822662
  ],
  [
   -0.13831502199172974,
   -0.4166659712791443,
   0.07537967711687088,
   0.16914965212345123,
   -0.4773308038711548,
   0.21206043660640717
  ],
  [
   -0.4158026874065399,
   -0.010042754001915455,
   -0.20115171372890472,
   -0.08695408701896667,
   -0.6675064563751221,
   0.35828474164009094
  ],
  [
   -0.2908858358860016,
   0.06790421158075333,
   0.07217266410589218,
   0.005540309939533472,
   0.7192543148994446,
   -0.0294374730437994
  ],
  [
   0.5958448052406311,
   0.06981827318668365,
   0.28125450015068054,
   -0.14902865886688232,
   -0.02776496298611164,
   0.01125242654234171
  ],
  [
   -0.0254102423787117,
   0.49341997504234314,
   0.20354612171649933,
   0.34100404381752014,
   0.14694751799106598,
   -0.919548511505127
  ],
  [
   0.1280292421579361,
   -0.11459168046712875,
   -0.1220724806189537,
   0.24351076781749725,
   -0.08060543984174728,
   0.24021966755390167
  ],
  [
   -0.05753191560506821,
   0.012670480646193027,
   0.01193828135728836,
   -0.1534532904624939,
   -0.801835834980011,
   -0.1649574488401413
  ],
  [
   0.14800305664539337,
   0.03709790110588074,
   -0.1189131811261177,
   -0.6130044460296631,
   -1.5217622518539429,
   -0.6710869073867798
  ],
  [
   -0.10616032034158707,
   0.10002052783966064,
   0.411960244178772,
   -0.5033512115478516,
   0.39709949493408203,
   -0.6546751856803894
  ],
  [
   0.7430551648139954,
   0.2812432646751404,
   0.6075595617294312,
   0.12929309904575348,
   -0.6907939910888672,
   -0.60240238904953
  ],
  [
   0.16896040737628937,
   0.05109687149524689,
   0.16151176393032074,
   -0.15544958412647247,
   0.7267277240753174,
   0.42984989285469055
  ],
  [
   0.3679531216621399,
   0.024362947791814804,
   0.0739564597606659,
   0.022547828033566475,
   0.09322722256183624,
   -0.4441423714160919
  ],
  [
   -0.7072927951812744,
   0.08571483194828033,
   -0.3989905118942261,
   -0.04304496571421623,
   0.2929357588291168,
   0.571395218372345
  ],
  [
   0.18582770228385925,
   0.05704841390252113,
   0.21324680745601654,
   0.11983748525381088,
   -0.8116089701652527,
   0.26843491196632385
  ],
  [
   0.3518218398094177,
   0.3963267207145691,
   0.10310728847980499,
   0.6335787773132324,
   -0.5727051496505737,
   0.04128386825323105
  ],
  [
   -0.1864147037267685,
   -0.23398296535015106,
   0.3903932571411133,
   0.6972996592521667,
   0.9027268886566162,
   0.5946196913719177
  ],
  [
   0.27932605147361755,
   0.05798853561282158,
   -0.5385057330131531,
   -0.34232857823371887,
   -1.1847606897354126,
   -0.3580980896949768
  ],
  [
   0.39298564195632935,
   0.11360309273004532,
   0.1354205161333084,
   0.04047508165240288,
   -0.503698468208313,
   -0.1829681098461151
  ],
  [
   -0.029840264469385147,
   -0.2910274267196655,
   0.10401994735002518,
   0.055256105959415436,
   0.10891947150230408,
   0.24632787704467773
  ],
  [
   0.9458539485931396,
   0.06163472309708595,
   0.4459531009197235,
   0.008239056915044785,
   0.8567784428596497,
   0.17215074598789215
  ],
  [
   0.32527074217796326,
   0.33409008383750916,
   0.06540307402610779,
   0.03859103471040726,
   -0.898024320602417,
   -1.0530385971069336
  ],
  [
   -0.36561617255210876,
   0.14063312113285065,
   0.18086548149585724,
   -0.23067143559455872,
   1.2533506155014038,
   -0.4667638838291168
  ],
  [
   0.6483928561210632,
   -0.1282321661710739,
   0.09893997013568878,
   0.10504969209432602,
   -1.3352898359298706,
   0.2572252154350281
  ],
  [
   0.4319722652435303,
   0.024134457111358643,
   0.3091023862361908,
   0.3592483103275299,
   -0.38761869072914124,
   1.0069293975830078
  ],
  [
   -0.14851389825344086,
   0.050618357956409454,
   0.12008006870746613,
   0.05528959259390831,
   0.6432230472564697,
   0.07604842633008957
  ],
  [
   0.216508150100708,
   0.5054948925971985,
   0.24386923015117645,
   -0.6977752447128296,
   0.2634584605693817,
   0.9096854329109192
  ],
  [
   0.6888222098350525,
   0.710602879524231,
   0.050849549472332,
   0.00016288687766063958,
   0.4134514331817627,
   0.0991956815123558
  ],
  [
   -0.044350624084472656,
   -0.07347919791936874,
   -0.24193888902664185,
   0.0757775530219078,
   0.550497829914093,
   0.12324085831642151
  ],
  [
   0.5403615832328796,
   0.5034961700439453,
   0.3363434374332428,
   0.2500554025173187,
   -0.6490136981010437,
   -0.35236433148384094
  ],
  [
   0.8111687898635864,
   -0.04026950150728226,
   -0.1781366616487503,
   0.012420727871358395,
   -1.4013031721115112,
   0.9758709073066711
  ],
  [
   0.5578926801681519,
   -0.009005830623209476,
   0.29778602719306946,
   -0.07865513116121292,
   -0.6269549131393433,
   0.0794585719704628
  ],
  [
   0.6047088503837585,
   0.4049835205078125,
   0.20706114172935486,
   -0.32266780734062195,
   -0.6801285147666931,
   -0.1271747201681137
  ],
  [
   -0.2169555127620697,
   0.2333981841802597,
   -0.23625124990940094,
   0.3225040137767792,
   0.17338836193084717,
   0.12480849772691727
  ],
  [
   0.10783293098211288,
   0.0975632518529892,
   -0.1642632931470871,
   0.004874332807958126,
   -0.27094221115112305,
   -0.3382280468940735
  ],
  [
   0.6001417636871338,
   0.0638786256313324,
   0.004660141654312611,
   -0.5307008624076843,
   -0.04846643656492233,
   0.3477414846420288
  ],
  [
   0.26533833146095276,
   -0.10934096574783325,
   0.2239014357328415,
   -0.25403347611427307,
   -0.7860631942749023,
   0.0645257756114006
  ],
  [
   0.5369747877120972,
   -0.6216435432434082,
   -0.12833157181739807,
   -0.10022182017564774,
   -0.6662761569023132,
   0.2815844714641571
  ],
  [
   0.5858203768730164,
   0.1126507893204689,
   -0.12330811470746994,
   -0.9894831776618958,
   -0.2856047451496124,
   0.5372433662414551
  ],
  [
   0.43633610010147095,
   -0.1146136149764061,
   0.07567083090543747,
   -0.11002839356660843,
   -0.6769105792045593,
   0.1654733568429947
  ],
  [
   0.6409359574317932,
   0.44823017716407776,
   -0.08691079169511795,
   -0.2691482901573181,
   0.07861018925905228,
   0.22627712786197662
  ],
  [
   0.8197342157363892,
   0.12302416563034058,
   0.2751837968826294,
   -0.3759152293205261,
   -0.1090078130364418,
   0.9072973728179932
  ],
  [
   0.034004028886556625,
   0.7089629769325256,
   -0.10528630018234253,
   0.2815665900707245,
   -0.0756290927529335,
   -0.46425333619117737
  ],
  [
   0.10921373963356018,
   0.4746541976928711,
   0.13222017884254456,
   0.3097905218601227,
   0.34183168411254883,
   0.041778694838285446
  ],
  [
   0.09981328994035721,
   0.5483918190002441,
   -0.1384081393480301,
   -0.05786050856113434,
   0.11489175260066986,
   -0.5267204642295837
  ],
  [
   -0.07428883016109467,
   0.3153021037578583,
   0.027223797515034676,
   -0.365029901266098,
   0.14251111447811127,
   0.6908888220787048
  ],
  [
   0.22665438055992126,
   0.31087765097618103,
   -0.31571272015571594,
   -0.6413561701774597,
   0.4350875914096832,
   0.29209819436073303
  ],
  [
   0.587292492389679,
   0.2446993738412857,
   0.4299166798591614,
   0.015818819403648376,
   -1.0965157747268677,
   0.018241556361317635
  ],
  [
   0.25269123911857605,
   -0.07229655236005783,
   0.04116061329841614,
   -0.23214371502399445,
   0.3554539978504181,
   0.4262598752975464
  ],
  [
   -0.023292137309908867,
   0.1927834302186966,
   0.04243580251932144,
   0.7071801424026489,
   -0.06389066576957703,
   -0.20052577555179596
  ],
  [
   -0.044598571956157684,
   0.15348273515701294,
   -0.3070547580718994,
   -0.18865860998630524,
   0.5952094197273254,
   0.15160390734672546
  ],
  [
   0.17518112063407898,
   0.05153489485383034,
   -0.08195127546787262,
   -0.3607056438922882,
   0.361673504114151,
   0.24951595067977905
  ],
  [
   -0.3048592209815979,
   0.15565772354602814,
   0.0747988373041153,
   0.4875888526439667,
   -0.12040875852108002,
   -1.1395634412765503
  ],
  [
   0.44105732440948486,
   0.4478764533996582,
   0.18667268753051758,
   0.15883098542690277,
   -0.7256482243537903,
   -0.49394217133522034
  ],
  [
   0.0630125105381012,
   0.04232090711593628,
   -0.0823381096124649,
   -0.11136362701654434,
   -0.025054099038243294,
   0.34800949692726135
  ],
  [
   0.40246155858039856,
   0.10842244327068329,
   0.14097821712493896,
   -0.22193938493728638,
   0.12121975421905518,
   1.2591725587844849
  ],
  [
   -0.16941455006599426,
   0.14840658009052277,
   -0.18458417057991028,
   -0.36961424350738525,
   -0.30469369888305664,
   -0.16332411766052246
  ],
  [
   -0.3174607455730438,
   0.31157252192497253,
   -0.2403314858675003,
   0.37605080008506775,
   0.5115118622779846,
   0.5781397819519043
  ],
  [
   0.3397994637489319,
   0.20734132826328278,
   0.19708099961280823,
   0.4489488899707794,
   0.7062317728996277,
   0.3778476417064667
  ],
  [
   -0.3828989565372467,
   0.23029498755931854,
   0.16225309669971466,
   0.139216810464859,
   0.6885688304901123,
   -0.09768316149711609
  ],
  [
   -0.08613081276416779,
   -0.12048493325710297,
   0.2254490703344345,
   0.5620790719985962,
   0.43310847878456116,
   0.451082319021225
  ],
  [
   -0.2160319834947586,
   -0.08302515000104904,
   0.43659424781799316,
   0.5564544796943665,
   1.650474190711975,
   -0.5051705241203308
  ],
  [
   0.20184890925884247,
   -0.11006634682416916,
   0.2852571904659271,
   -0.2658047378063202,
   -1.1235615015029907,
   0.18107229471206665
  ],
  [
   0.12745393812656403,
   0.2733984887599945,
   0.04459363967180252,
   -0.08465437591075897,
   -1.087745189666748,
   0.575771689414978
  ],
  [
   0.03859594091773033,
   0.16280557215213776,
   0.32634344696998596,
   0.19528885185718536,
   -0.0427388921380043,
   0.761237621307373
  ],
  [
   -0.40468016266822815,
   0.01617610827088356,
   -0.1436021327972412,
   -0.2542705833911896,
   1.2685739994049072,
   0.6672883033752441
  ],
  [
   0.4203541874885559,
   -0.24717207252979279,
   -0.014978794381022453,
   -0.9904181957244873,
   -0.33132317662239075,
   0.12905248999595642
  ],
  [
   0.4561830461025238,
   0.523147702217102,
   0.23310066759586334,
   0.19099141657352448,
   0.3491683304309845,
   -0.9994758367538452
  ],
  [
   0.44872042536735535,
   0.1239066794514656,
   0.291300892829895,
   -0.6240065693855286,
   0.5276464223861694,
   -0.4568674862384796
  ],
  [
   -0.3217644989490509,
   0.09906063973903656,
   -0.29147884249687195,
   -0.03633163869380951,
   0.5296098589897156,
   0.23252816498279572
  ],
  [
   0.5765745043754578,
   0.2416539043188095,
   0.3787708282470703,
   0.003165798494592309,
   0.11756093055009842,
   0.587128758430481
  ],
  [
   -0.395856112241745,
   0.32894453406333923,
   -0.05212801694869995,
   0.23879967629909515,
   0.044696539640426636,
   -0.12206865102052689
  ],
  [
   0.06363788992166519,
   0.43655773997306824,
   -0.19057145714759827,
   -0.4618116021156311,
   0.9679616093635559,
   0.9988641738891602
  ],
  [
   0.3455415666103363,
   -0.1598777323961258,
   0.16434688866138458,
   -0.7273523211479187,
   -0.5871067047119141,
   -0.20297972857952118
  ],
  [
   0.25455334782600403,
   0.5346476435661316,
   -0.20162229239940643,
   0.0015208583790808916,
   -0.1373205929994583,
   -0.8950588703155518
  ],
  [
   0.24405953288078308,
   -0.09762315452098846,
   0.5327661037445068,
   0.10295017808675766,
   0.18904778361320496,
   -0.21306441724300385
  ],
  [
   -0.08333327621221542,
   -0.03185282647609711,
   -1.0920987129211426,
   0.22296229004859924,
   -0.23323985934257507,
   0.029511716216802597
  ],
  [
   0.4149409234523773,
   0.23260711133480072,
   -0.30916348099708557,
   -1.030808448791504,
   -0.3580462336540222,
   -1.1351255178451538
  ],
  [
   0.13649378716945648,
   -0.036266084760427475,
   -0.285465270280838,
   -0.3506944179534912,
   -0.5592713356018066,
   0.6289103031158447
  ],
  [
   0.704063355922699,
   -0.0372747965157032,
   0.1550106704235077,
   0.022449802607297897,
   0.5904124975204468,
   1.014710545539856
  ],
  [
   0.2576524317264557,
   -0.3947342038154602,
   0.3225952982902527,
   -0.21537935733795166,
   0.2818269431591034,
   -0.1349242776632309
  ],
  [
   0.07236295193433762,
   0.09774741530418396,
   -0.020868536084890366,
   0.010556641034781933,
   -1.5665136575698853,
   -0.7339187264442444
  ],
  [
   0.03761330619454384,
   0.3924042284488678,
   -0.1833859384059906,
   -0.4586049020290375,
   0.6339686512947083,
   0.3569622337818146
  ],
  [
   0.0900343805551529,
   0.17834307253360748,
   -0.06575429439544678,
   0.25584518909454346,
   -0.35023704171180725,
   -0.6627779603004456
  ],
  [
   -0.28167468309402466,
   -0.12021585553884506,
   -0.18477103114128113,
   0.16311649978160858,
   0.9684540629386902,
   0.21461835503578186
  ],
  [
   0.5544829368591309,
   -0.02762518636882305,
   0.17403796315193176,
   -0.18623201549053192,
   -0.3774166703224182,
   0.3857569098472595
  ],
  [
   0.1139601320028305,
   -0.13791999220848083,
   -0.2263054996728897,
   0.39236530661582947,
   -0.7391431927680969,
   0.8335275650024414
  ],
  [
   0.0672113448381424,
   -0.0472114272415638,
   0.045979324728250504,
   0.14156274497509003,
   -0.8519191145896912,
   0.10720181465148926
  ],
  [
   0.31970736384391785,
   0.13691918551921844,
   0.18030515313148499,
   -0.11623266339302063,
   -0.48974254727363586,
   0.011420137248933315
  ],
  [
   1.165083646774292,
   0.34614259004592896,
   0.56538987159729,
   -0.22093018889427185,
   -0.2346021682024002,
   -0.4559463858604431
  ],
  [
   0.058495018631219864,
   0.3944234251976013,
   -0.32496312260627747,
   0.7652031183242798,
   -0.21801500022411346,
   0.11099088937044144
  ],
  [
   -0.3425036370754242,
   0.18109171092510223,
   0.07727669924497604,
   -0.7543171048164368,
   0.7680761814117432,
   -0.4953398108482361
  ],
  [
   0.15281710028648376,
   0.1306285262107849,
   -0.2929016351699829,
   -0.3130471706390381,
   0.6836403012275696,
   -0.7139725089073181
  ],
  [
   0.12596960365772247,
   -0.2779817581176758,
   0.08597414940595627,
   0.0077972267754375935,
   0.3835376501083374,
   0.7908446788787842
  ],
  [
   -0.2236766666173935,
   0.1230589747428894,
   -0.027330342680215836,
   0.16428884863853455,
   -0.02675415575504303,
   0.7471938133239746
  ],
  [
   -0.09241827577352524,
   0.06307793408632278,
   -0.17275139689445496,
   -0.014577853493392467,
   1.0816032886505127,
   0.2130117267370224
  ],
  [
   0.27500346302986145,
   0.546760618686676,
   -0.3813759982585907,
   -0.7736821174621582,
   -0.24061831831932068,
   0.19299738109111786
  ]
 ],
 "pi.0.bias": [
  0.7597501277923584,
  -0.37412258982658386,
  -0.9797139167785645,
  -0.1495838165283203,
  -1.0891395807266235,
  -1.9508763551712036,
  -1.0797299146652222,
  0.38634192943573,
  -1.8755947351455688,
  -2.823634147644043,
  -1.266951084136963,
  -4.481245994567871,
  -3.252877712249756,
  -0.9250289797782898,
  -1.726948857307434,
  -0.7750881314277649,
  0.6627344489097595,
  -1.1456125974655151,
  -1.7787258625030518,
  -3.4060652256011963,
  -4.107779026031494,
  0.2822071313858032,
  -0.5864155888557434,
  -1.1786519289016724,
  -4.14358377456665,
  -3.739563465118408,
  -1.317389965057373,
  -0.9036184549331665,
  -0.7229854464530945,
  0.6967203617095947,
  0.6049703359603882,
  -0.9057780504226685,
  -1.26412832736969,
  -2.935527801513672,
  -0.9616476893424988,
  -1.5173739194869995,
  -0.03559119626879692,
  -0.2857501208782196,
  -1.1292444467544556,
  -1.2985626459121704,
  -2.605149030685425,
  -0.7212522625923157,
  0.047696709632873535,
  -1.014962911605835,
  -0.3691044747829437,
  -0.38727104663848877,
  -1.9338769912719727,
  -1.2836599349975586,
  -1.856444001197815,
  -1.4867628812789917,
  -1.7640000581741333,
  0.4838497042655945,
  -1.903852105140686,
  -1.0227829217910767,
  -0.7774429321289062,
  -3.533590316772461,
  0.13114629685878754,
  0.6020631194114685,
  -0.7351256012916565,
  -2.0328547954559326,
  -1.0501493215560913,
  -1.1576361656188965,
  -1.6903330087661743,
  -1.4243124723434448,
  -7.439251899719238,
  -1.7639788389205933,
  -4.946211338043213,
  0.9431923031806946,
  -2.2558975219726562,
  -0.6237955093383789,
  -3.0542821884155273,
  -3.4789395332336426,
  -0.9238842129707336,
  -2.822124719619751,
  -0.7931870818138123,
  -1.5084584951400757,
  -4.455782413482666,
  -2.065553665161133,
  -3.15144681930542,
  -2.4031364917755127,
  -2.7799203395843506,
  -3.7547736167907715,
  -0.8267024755477905,
  -2.0010175704956055,
  -6.073252201080322,
  -0.9195571541786194,
  -3.895582914352417,
  -3.227503538131714,
  -0.5678017735481262,
  -3.2124152183532715,
  -0.25123608112335205,
  -1.0917563438415527,
  -2.0749149322509766,
  -2.669732093811035,
  -3.159302234649658,
  -4.333862781524658,
  -1.06754732131958,
  -3.052299976348877,
  -2.727036237716675,
  0.7040120363235474
 ],
 "pi.2.weight": [
  [
   -0.5271483659744263,
   -0.5943007469177246,
   0.9472840428352356,
   0.19888854026794434,
   0.2702840566635132,
   0.593867838382721,
   0.1431027501821518,
   0.2160436064004898,
   -0.009595537558197975,
   -1.0417782068252563,
   0.48127782344818115,
   0.30498912930488586,
   -0.044731348752975464,
   -0.6788617372512817,
   -0.8762881755828857,
   0.3588743805885315,
   -0.880412220954895,
   0.5547826290130615,
   0.060851216316223145,
   -0.13521063327789307,
   0.5891960263252258,
   0.6527783870697021,
   0.024448981508612633,
   -0.47890159487724304,
   -2.1702725887298584,
   -1.597701072692871,
   -0.26422446966171265,
   -0.020485373213887215,
   0.11422528326511383,
   0.8036230206489563,
   0.05463852733373642,
   -0.0250397901982069,
   -0.3809373378753662,
   -0.003470327239483595,
   -0.33685022592544556,
   0.5979853272438049,
   -0.306956022977829,
   -0.5681965947151184,
   0.030746152624487877,
   -0.49357426166534424,
   0.001928017009049654,
   0.0168168768286705,
   0.5034250020980835,
   -0.2787138819694519,
   -0.7277472615242004,
   -0.003172600641846657,
   0.05207977816462517,
   0.0324413925409317,
   -0.09928534179925919,
   0.3484356999397278,
   -1.5629096031188965,
   0.466332346200943,
   -0.16905634105205536,
   -0.4511715769767761,
   0.7032118439674377,
   0.49184638261795044,
   0.6748643517494202,
   -0.27787986397743225,
   0.7214167714118958,
   0.27335190773010254,
   0.5980613827705383,
   -0.054415516555309296,
   0.40681329369544983,
   0.07320171594619751,
   4.45158052444458,
   0.37017732858657837,
   -3.7635114192962646,
   -0.09814392775297165,
   0.716924250125885,
   -0.041443679481744766,
   1.1165364980697632,
   3.504565477371216,
   0.4082399606704712,
   -1.8464552164077759,
   -0.024478275328874588,
   -1.1792641878128052,
   -0.22389744222164154,
   0.5597886443138123,
   0.3223130702972412,
   0.04885343462228775,
   -0.2890951633453369,
   -2.9521591663360596,
   0.7062384486198425,
   0.01094985194504261,
   -6.420751571655273,
   0.534068763256073,
   0.7737267017364502,
   -0.20565450191497803,
   0.003050745464861393,
   -0.9032486081123352,
   -0.3289189636707306,
   0.30773255228996277,
   3.493987560272217,
   -0.18382762372493744,
   0.759977400302887,
   1.1062707901000977,
   -0.45040571689605713,
   -0.6140810251235962,
   0.18165959417819977,
   -0.24840569496154785
  ],
  [
   0.021593190729618073,
   -0.004586552735418081,
   -0.02888672426342964,
   0.07226381450891495,
   -0.1247454360127449,
   -0.1543978750705719,
   0.09253775328397751,
   -0.18666326999664307,
   -0.2310480773448944,
   1.2012344598770142,
   -0.20722834765911102,
   -5.483847618103027,
   1.3708915710449219,
   0.28928619623184204,
   -0.33288121223449707,
   -0.18374678492546082,
   -0.044162116944789886,
   -0.26540637016296387,
   0.44650447368621826,
   0.9284024834632874,
   -11.734720230102539,
   -0.36347639560699463,
   -0.10940424352884293,
   0.06377337127923965,
   -0.5999046564102173,
   -0.8034242391586304,
   0.0019064258085563779,
   -0.20405811071395874,
   -0.03885259851813316,
   0.15093713998794556,
   0.1845867782831192,
   0.1510852575302124,
   -0.19097037613391876,
   0.24595093727111816,
   0.2800596356391907,
   -0.09315262734889984,
   0.25555992126464844,
   0.29850152134895325,
   0.2461504489183426,
   0.17456667125225067,
   -0.8960112929344177,
   0.4063602685928345,
   -0.2950417697429657,
   -0.12447310984134674,
   -0.1363498568534851,
   0.20725268125534058,
   -0.26514309644699097,
   0.4128374457359314,
   0.007235107012093067,
   0.4389738440513611,
   0.2391628473997116,
   -0.17576110363006592,
   0.025480203330516815,
   0.04284132644534111,
   -0.10664097219705582,
   0.07248406857252121,
   -0.05610347166657448,
   -0.024890653789043427,
   -0.4679778814315796,
   -0.17348963022232056,
   -0.005584634840488434,
   0.17101995646953583,
   0.046541713178157806,
   0.21029748022556305,
   0.8116757273674011,
   -0.28710734844207764,
   1.6549534797668457,
   0.47386664152145386,
   0.353770911693573,
   -0.128226175904274,
   -0.4286651909351349,
   0.2590983808040619,
   -0.3070453405380249,
   -0.09824161231517792,
   0.3397093117237091,
   -0.06139514967799187,
   1.5628889799118042,
   0.20027035474777222,
   0.6229791641235352,
   -0.29734963178634644,
   -1.4900468587875366,
   -9.891812324523926,
   -0.05289044231176376,
   -0.45923376083374023,
   -4.653246879577637,
   -0.45961904525756836,
   -0.4947793781757355,
   0.7176483273506165,
   0.1674785166978836,
   -0.8898546695709229,
   0.31656044721603394,
   -0.34005007147789,
   0.04919852316379547,
   -0.44608741998672485,
   0.3932957649230957,
   -14.739431381225586,
   0.30086609721183777,
   -0.5316556692123413,
   0.9315934777259827,
   -0.22937114536762238
  ]
 ]
}