{
 "pi.0.weight": [
  [
   1.0548769235610962,
   0.5839192867279053,
   -1.9413830041885376,
   -1.1123270988464355
  ],
  [
   0.15868182480335236,
   -0.485445499420166,
   -0.23131202161312103,
   2.7113535404205322
  ],
  [
   -0.4523265063762665,
   6.1199445724487305,
   0.34638017416000366,
   -0.175223246216774
  ],
  [
   -2.0673975944519043,
   -0.8684569001197815,
   0.029178382828831673,
   -0.003005087375640869
  ],
  [
   -0.24235911667346954,
   1.3584871292114258,
   2.182128429412842,
   -2.047687292098999
  ],
  [
   3.1146349906921387,
   3.199761390686035,
   -0.6436311602592468,
   -0.053528789430856705
  ],
  [
   -0.22288143634796143,
   4.189927101135254,
   -0.3425751030445099,
   3.314263343811035
  ],
  [
   -1.3412734270095825,
   1.1125737428665161,
   2.307048797607422,
   3.433457612991333
  ],
  [
   -5.064655780792236,
   3.71848726272583,
   1.033159852027893,
   -2.408552646636963
  ],
  [
   -3.988821506500244,
   2.6948258876800537,
   1.6446415185928345,
   1.97097647190094
  ],
  [
   1.2127822637557983,
   1.4372905492782593,
   -2.3632028102874756,
   -0.7997446656227112
  ],
  [
   -4.86406135559082,
   -3.635301351547241,
   0.6190803647041321,
   1.0629518032073975
  ],
  [
   -0.3657807409763336,
   0.22929851710796356,
   0.0380767397582531,
   -0.011456608772277832
  ],
  [
   1.7079085111618042,
   0.6033634543418884,
   -1.1593310832977295,
   -1.0175837278366089
  ],
  [
   5.481460094451904,
   -3.131864309310913,
   -1.1917909383773804,
   0.007925807498395443
  ],
  [
   -0.2551436126232147,
   1.3177576065063477,
   -0.4670802652835846,
   4.354081153869629
  ],
  [
   1.5260086059570312,
   -0.4037790298461914,
   0.8025704622268677,
   1.6241734027862549
  ],
  [
   1.3156464099884033,
   1.7928253412246704,
   -0.7231086492538452,
   -5.607423305511475
  ],
  [
   -0.22896708548069,
   0.0519019290804863,
   3.1855130195617676,
   -0.026163438335061073
  ],
  [
   -1.4473077058792114,
   -0.9198752641677856,
   1.2530591487884521,
   -3.218905210494995
  ],
  [
   -0.0018118974985554814,
   6.8876519203186035,
   -0.4565928876399994,
   -3.9792327880859375
  ],
  [
   -1.366986870765686,
   2.742342710494995,
   1.0866180658340454,
   -0.9879931807518005
  ],
  [
   -0.17457935214042664,
   -3.1984939575195312,
   4.20869255065918,
   2.2126693725585938
  ],
  [
   -0.7619203925132751,
   -0.26516634225845337,
   0.48209863901138306,
   0.11834797263145447
  ],
  [
   3.18601131439209,
   3.056002378463745,
   0.026495806872844696,
   -0.8012151718139648
  ],
  [
   -0.21063758432865143,
   -0.005392569582909346,
   0.5437753796577454,
   0.9857967495918274
  ],
  [
   0.11008170247077942,
   1.206989049911499,
   0.07440207898616791,
   -0.0020517949014902115
  ],
  [
   -0.05733853578567505,
   1.112212061882019,
   -2.5291731357574463,
   -1.0083189010620117
  ],
  [
   -1.258402705192566,
   5.2023749351501465,
   3.1678192615509033,
   -1.945861577987671
  ],
  [
   -5.1759257316589355,
   0.1718938946723938,
   -0.12534920871257782,
   0.06593803316354752
  ],
  [
   0.5883021950721741,
   -1.9621965885162354,
   2.1119019985198975,
   3.6688318252563477
  ],
  [
   0.7943132519721985,
   -1.1605005264282227,
   -3.5261805057525635,
   -0.019964290782809258
  ],
  [
   -1.1499302387237549,
   -5.4256672859191895,
   -3.719536304473877,
   -0.16639094054698944
  ],
  [
   1.676154375076294,
   -0.9425873756408691,
   1.3212238550186157,
   -1.5783621072769165
  ],
  [
   0.8736286759376526,
   -0.828857958316803,
   0.08520878106355667,
   0.22485142946243286
  ],
  [
   0.0030603837221860886,
   -0.11061359941959381,
   0.09228696674108505,
   1.9958505630493164
  ],
  [
   -0.8657202124595642,
   -4.846199035644531,
   0.3209890127182007,
   -1.288001298904419
  ],
  [
   -0.993702232837677,
   1.385948657989502,
   -3.1461493968963623,
   -1.9085851907730103
  ],
  [
   3.265373706817627,
   0.6127145886421204,
   1.2226762771606445,
   -1.2246932983398438
  ],
  [
   3.093324899673462,
   3.399912118911743,
   -0.008827008306980133,
   -0.10624703019857407
  ],
  [
   1.623357892036438,
   1.3266257047653198,
   -1.0992958545684814,
   -0.5020971894264221
  ],
  [
   1.4544464349746704,
   -7.066253662109375,
   -1.1964006423950195,
   3.4729421138763428
  ],
  [
   -1.4461629390716553,
   1.5736286640167236,
   4.210895538330078,
   -2.857424736022949
  ],
  [
   0.468586802482605,
   -0.7693711519241333,
   -0.5948662161827087,
   2.6414506435394287
  ],
  [
   0.549151599407196,
   5.827664375305176,
   -0.06504131853580475,
   -1.163553237915039
  ],
  [
   1.2729426622390747,
   1.407727599143982,
   0.3863442540168762,
   -0.4593921899795532
  ],
  [
   1.4630826711654663,
   1.0612308979034424,
   -0.11491550505161285,
   0.30226173996925354
  ],
  [
   -2.4352331161499023,
   2.8276758193969727,
   -1.768097162246704,
   -0.028050987049937248
  ],
  [
   -2.5444648265838623,
   0.21238973736763,
   -1.6793626546859741,
   -0.4746447503566742
  ],
  [
   -2.2452805042266846,
   -0.37813225388526917,
   -0.2631305158138275,
   -0.7047087550163269
  ],
  [
   -3.315061330795288,
   2.8245692253112793,
   -2.4261832237243652,
   -4.972991466522217
  ],
  [
   1.4463021755218506,
   2.401609420776367,
   -1.157186508178711,
   -1.2043521404266357
  ],
  [
   0.6482297778129578,
   1.3325637578964233,
   -0.12589895725250244,
   0.11768919974565506
  ],
  [
   -1.9158649444580078,
   6.356462001800537,
   0.22269026935100555,
   -4.611741542816162
  ],
  [
   -0.31366604566574097,
   -6.386535167694092,
   -0.5781314969062805,
   0.33777913451194763
  ],
  [
   -1.076812505722046,
   6.2027106285095215,
   -0.1964963972568512,
   0.15064211189746857
  ],
  [
   -1.411999225616455,
   -1.9617633819580078,
   -2.668975830078125,
   0.9389461278915405
  ],
  [
   -3.343550682067871,
   -3.765084981918335,
   1.6547255516052246,
   2.1358261108398438
  ],
  [
   1.4860159158706665,
   -2.354670524597168,
   1.184707522392273,
   0.17017804086208344
  ],
  [
   3.3548104763031006,
   1.0096819400787354,
   -0.6702789664268494,
   -0.9323416352272034
  ],
  [
   2.2133660316467285,
   -0.08565934747457504,
   0.8972079753875732,
   -1.7300000190734863
  ],
  [
   0.32875537872314453,
   -2.7884111404418945,
   0.8054320812225342,
   1.9066405296325684
  ],
  [
   1.265298843383789,
   -1.2841999530792236,
   -0.9447331428527832,
   0.042642876505851746
  ],
  [
   1.8764764070510864,
   -0.045513030141592026,
   2.038330078125,
   2.3442471027374268
  ],
  [
   0.49290603399276733,
   -0.5843951106071472,
   -1.8151394128799438,
   0.04231525585055351
  ],
  [
   -1.805548906326294,
   3.9248046875,
   0.9132987260818481,
   -1.1218231916427612
  ],
  [
   5.957310199737549,
   2.0438718795776367,
   0.5828341841697693,
   -1.0094411373138428
  ],
  [
   2.5421862602233887,
   6.391007423400879,
   1.9025379419326782,
   -4.1422014236450195
  ],
  [
   1.7572129964828491,
   1.2998608350753784,
   0.8423997163772583,
   -5.4140849113464355
  ],
  [
   1.074265480041504,
   -0.622965931892395,
   1.432461142539978,
   -3.116793394088745
  ],
  [
   -0.9910514950752258,
   -2.5432467460632324,
   -1.433880090713501,
   1.9087660312652588
  ],
  [
   2.979721784591675,
   2.9045464992523193,
   -0.8300328850746155,
   0.11796624213457108
  ],
  [
   -0.10114055126905441,
   0.5445963144302368,
   0.17616212368011475,
   -0.04200144484639168
  ],
  [
   1.109879970550537,
   0.9063481092453003,
   0.3474164307117462,
   -2.331930160522461
  ],
  [
   1.2332388162612915,
   2.2205731868743896,
   -0.13714133203029633,
   -0.024528181180357933
  ],
  [
   0.04950812831521034,
   0.651925265789032,
   -0.32756301760673523,
   -0.1050882562994957
  ],
  [
   4.757063865661621,
   -1.430810809135437,
   -0.6626315712928772,
   -0.38970714807510376
  ],
  [
   4.85729455947876,
   -4.318619728088379,
   -0.09087517857551575,
   2.4837117195129395
  ],
  [
   0.6855509877204895,
   3.207343578338623,
   1.9480074644088745,
   -1.0822458267211914
  ],
  [
   -4.212315559387207,
   0.2637101709842682,
   -0.016779331490397453,
   -0.023556796833872795
  ],
  [
   -2.27034068107605,
   0.5882916450500488,
   0.3991519808769226,
   -0.0016180438688024879
  ],
  [
   -0.18200993537902832,
   1.18638014793396,
   0.6196480393409729,
   2.5915234088897705
  ],
  [
   -2.7148239612579346,
   -0.04068265110254288,
   -1.2089402675628662,
   -1.868019461631775
  ],
  [
   2.586158275604248,
   5.083892345428467,
   0.880826473236084,
   -1.3371872901916504
  ],
  [
   0.30121567845344543,
   0.07775591313838959,
   2.482788562774658,
   3.060434103012085
  ],
  [
   0.06452879309654236,
   -1.612833023071289,
   1.4414840936660767,
   3.3085529804229736
  ],
  [
   -2.5188684463500977,
   0.22694306075572968,
   -0.12314648926258087,
   1.5351701974868774
  ],
  [
   -3.2869479656219482,
   -4.332060813903809,
   1.1327178478240967,
   3.186434745788574
  ],
  [
   0.673099935054779,
   6.876255989074707,
   -0.1644309014081955,
   -1.4737765789031982
  ],
  [
   0.5488079786300659,
   0.5630309581756592,
   -1.4416221380233765,
   -0.1914360076189041
  ],
  [
   0.3368246257305145,
   -3.2459428310394287,
   0.4679437279701233,
   -0.7569553852081299
  ],
  [
   1.8182669878005981,
   -0.5070609450340271,
   1.9292820692062378,
   1.0357664823532104
  ],
  [
   -0.10523299872875214,
   -0.6887898445129395,
   -2.7999606132507324,
   -0.5330032706260681
  ],
  [
   -0.5515666604042053,
   0.5727322101593018,
   -2.8234198093414307,
   -2.8120555877685547
  ],
  [
   -1.9625409841537476,
   2.7680492401123047,
   -0.4197399318218231,
   2.849716901779175
  ],
  [
   2.331214189529419,
   -0.5279958248138428,
   -0.1371661126613617,
   2.1628007888793945
  ],
  [
   3.0907537937164307,
   -1.8581957817077637,
   0.7043827176094055,
   4.56934928894043
  ],
  [
   -0.20259906351566315,
   2.736330270767212,
   -1.5742989778518677,
   -0.04805738851428032
  ],
  [
   1.4031695127487183,
   2.038119077682495,
   -2.1129097938537598,
   2.962740898132324
  ],
  [
   3.7921221256256104,
   1.834946870803833,
   -0.4506070613861084,
   0.8936418890953064
  ],
  [
   2.26118540763855,
   -0.83913654088974,
   0.46846261620521545,
   -0.33046215772628784
  ],
  [
   2.7604053020477295,
   1.2058995962142944,
   3.4389424324035645,
   -0.14800967276096344
  ],
  [
   -2.469318389892578,
   2.7886760234832764,
   -0.20622548460960388,
   1.9901840686798096
  ],
  [
   0.9332981109619141,
   2.9919965267181396,
   -0.8640002012252808,
   -2.3337526321411133
  ],
  [
   -0.17448760569095612,
   -0.7521999478340149,
   1.1035677194595337,
   2.4946963787078857
  ],
  [
   2.8667383193969727,
   -2.321442127227783,
   1.1180875301361084,
   1.4706591367721558
  ],
  [
   4.311466693878174,
   1.0954394340515137,
   -0.517951250076294,
   0.1146184429526329
  ],
  [
   0.40854209661483765,
   2.059607982635498,
   -1.0120190382003784,
   2.659583330154419
  ],
  [
   1.7532798051834106,
   -0.21812750399112701,
   0.2621994912624359,
   -0.03345908597111702
  ],
  [
   -0.1649252474308014,
   -2.0355682373046875,
   1.9775755405426025,
   -0.690025806427002
  ],
  [
   1.305503249168396,
   -0.5206201076507568,
   -2.474729061126709,
   -0.5345876216888428
  ],
  [
   0.22892805933952332,
   -3.235581636428833,
   0.0637378990650177,
   5.670340061187744
  ],
  [
   -0.9034498333930969,
   -6.365056991577148,
   1.5424004793167114,
   4.074825763702393
  ],
  [
   2.4411463737487793,
   -1.27735435962677,
   0.0541003979742527,
   0.44732993841171265
  ],
  [
   0.27895215153694153,
   2.7416162490844727,
   0.9456712007522583,
   -4.184192657470703
  ],
  [
   -0.23436252772808075,
   2.3020379543304443,
   -3.8967461585998535,
   0.7391147017478943
  ],
  [
   0.05453730374574661,
   4.118100166320801,
   4.144572734832764,
   -2.814000368118286
  ],
  [
   -2.2209529876708984,
   -2.268718719482422,
   -0.20541797578334808,
   1.2320940494537354
  ],
  [
   3.4432525634765625,
   2.8864996433258057,
   -0.2454623430967331,
   -2.4437060356140137
  ],
  [
   -0.9442764520645142,
   -0.44026923179626465,
   -2.5572221279144287,
   0.0708097591996193
  ],
  [
   0.9691417217254639,
   0.7259735465049744,
   -1.6338344812393188,
   -1.2755005359649658
  ],
  [
   -0.31935247778892517,
   1.350003957748413,
   -0.3420597314834595,
   1.2258962392807007
  ],
  [
   2.5521457195281982,
   -2.225203037261963,
   -1.0114917755126953,
   -0.5058435201644897
  ],
  [
   -0.6203311681747437,
   0.3008148670196533,
   2.7411251068115234,
   -0.010591864585876465
  ],
  [
   -3.587911605834961,
   -2.4838438034057617,
   -0.15424992144107819,
   -0.29987335205078125
  ],
  [
   -1.0659511089324951,
   -1.7286475896835327,
   1.1638683080673218,
   3.0865187644958496
  ],
  [
   -0.19966384768486023,
   -1.3056612014770508,
   2.1981353759765625,
   3.7102606296539307
  ],
  [
   0.38473063707351685,
   -1.5111178159713745,
   -0.1099357083439827,
   2.59193754196167
  ],
  [
   -3.1218037605285645,
   -3.3587982654571533,
   0.01911136321723461,
   3.757943630218506
  ],
  [
   -1.6441494226455688,
   0.1585257202386856,
   -1.9655389785766602,
   -1.4488028287887573
  ],
  [
   3.069368362426758,
   3.7379534244537354,
   -0.563481330871582,
   -2.5023815631866455
  ],
  [
   -0.7289913296699524,
   -2.557647943496704,
   -1.1515545845031738,
   2.093618392944336
  ],
  [
   3.7002108097076416,
   0.3884218633174896,
   1.8162585496902466,
   5.058603763580322
  ],
  [
   -0.02143944799900055,
   -5.472207069396973,
   0.482347309589386,
   0.14815396070480347
  ],
  [
   -0.23341640830039978,
   -0.644163191318512,
   2.7231075763702393,
   -1.004831075668335
  ],
  [
   -2.077092409133911,
   0.36502259969711304,
   1.3563792705535889,
   -0.02198021672666073
  ],
  [
   1.5134865045547485,
   -2.3248422145843506,
   -1.4004453420639038,
   -0.030131902545690536
  ],
  [
   -1.8881282806396484,
   4.88313102722168,
   -4.004647254943848,
   -3.9248552322387695
  ],
  [
   -1.5140094757080078,
   -0.5684797763824463,
   2.566136360168457,
   2.2070791721343994
  ],
  [
   -0.5770257115364075,
   2.1258797645568848,
   2.1687536239624023,
   0.5185631513595581
  ],
  [
   1.9787977933883667,
   -4.733410835266113,
   -1.7802729606628418,
   3.5935866832733154
  ],
  [
   -1.579545021057129,
   1.5293488502502441,
   -0.11234546452760696,
   1.3932796716690063
  ],
  [
   0.3822091519832611,
   -0.7549008131027222,
   1.243651032447815,
   0.7201879024505615
  ],
  [
   -0.00401259632781148,
   -0.3761622905731201,
   -0.9309576153755188,
   -0.22899901866912842
  ],
  [
   -2.2774670124053955,
   -0.9322894215583801,
   -0.6001410484313965,
   2.318659782409668
  ],
  [
   -1.1541237831115723,
   -7.281355857849121,
   -0.30933547019958496,
   0.07815498858690262
  ],
  [
   1.9798485040664673,
   -0.8586976528167725,
   0.845145046710968,
   1.068057894706726
  ],
  [
   2.596508026123047,
   1.7919509410858154,
   -1.6120525598526,
   -3.0491161346435547
  ],
  [
   -0.5001539587974548,
   0.3102916181087494,
   -1.4977922439575195,
   1.131216049194336
  ],
  [
   -0.2367650866508484,
   1.1339995861053467,
   1.564401626586914,
   1.0615525245666504
  ],
  [
   -0.6683017015457153,
   -3.1472551822662354,
   -1.942068099975586,
   2.142197847366333
  ],
  [
   -1.4875156879425049,
   -0.20575915277004242,
   0.24018923938274384,
   -0.44568920135498047
  ],
  [
   -1.273534893989563,
   -0.5805690288543701,
   -0.27549564838409424,
   2.5447330474853516
  ],
  [
   -0.18214844167232513,
   -0.9352192878723145,
   2.5706965923309326,
   0.7008970379829407
  ],
  [
   -0.9620309472084045,
   1.1016958951950073,
   0.8237411975860596,
   -0.417649507522583
  ],
  [
   -2.305264711380005,
   1.1705608367919922,
   -3.3815274238586426,
   -4.216521263122559
  ],
  [
   -4.97470760345459,
   -2.0952093601226807,
   0.6971574425697327,
   0.01411821972578764
  ],
  [
   -3.9388463497161865,
   -3.4275527000427246,
   -1.2474159002304077,
   2.739502191543579
  ],
  [
   0.8454321026802063,
   2.499258041381836,
   0.8010850548744202,
   -0.42398807406425476
  ],
  [
   1.8698978424072266,
   -3.5469565391540527,
   -0.0891534686088562,
   -0.5014130473136902
  ],
  [
   -3.994713068008423,
   -0.5010690689086914,
   0.9487855434417725,
   1.101780652999878
  ],
  [
   0.020925050601363182,
   4.2415924072265625,
   -0.3800995349884033,
   0.6893781423568726
  ],
  [
   -2.5854074954986572,
   2.280179262161255,
   -1.8377329111099243,
   -2.809307098388672
  ],
  [
   3.7968907356262207,
   -0.8624637722969055,
   -1.0997350215911865,
   2.1271133422851562
  ],
  [
   3.522568941116333,
   2.250065326690674,
   -1.0298737287521362,
   -1.4152867794036865
  ],
  [
   -1.2269091606140137,
   -0.568830132484436,
   0.8942664861679077,
   0.5525045990943909
  ],
  [
   2.279229164123535,
   0.5653775334358215,
   -0.5295231938362122,
   3.593019485473633
  ],
  [
   1.4275206327438354,
   4.110131740570068,
   -1.9836829900741577,
   -0.05548945069313049
  ],
  [
   0.5279611349105835,
   0.1847192943096161,
   0.777970016002655,
   0.9782251715660095
  ],
  [
   -0.9669933915138245,
   -1.0640188455581665,
   1.6853348016738892,
   -0.8039252161979675
  ],
  [
   0.707915723323822,
   -2.221850872039795,
   -0.9139183163642883,
   1.0762641429901123
  ],
  [
   2.7549350261688232,
   -0.461351603269577,
   -1.284517526626587,
   -2.187700033187866
  ],
  [
   0.144998237490654,
   4.00737190246582,
   5.187629699707031,
   -1.650961995124817
  ],
  [
   -1.0946391820907593,
   2.0094313621520996,
   5.05801248550415,
   -1.5994259119033813
  ],
  [
   1.2826354503631592,
   1.0699200630187988,
   1.950046420097351,
   1.698485255241394
  ],
  [
   -3.783205986022949,
   1.6632020473480225,
   -1.2892743349075317,
   -0.5142947435379028
  ],
  [
   -0.9703790545463562,
   -1.982092022895813,
   0.1919427365064621,
   0.019228631630539894
  ],
  [
   -0.5491171479225159,
   4.0163774490356445,
   0.7194260358810425,
   0.7587115168571472
  ],
  [
   -2.9439938068389893,
   0.2919452488422394,
   0.36535727977752686,
   0.38222143054008484
  ],
  [
   0.26026132702827454,
   -0.680234432220459,
   1.322157621383667,
   0.24760335683822632
  ],
  [
   2.3304190635681152,
   1.0052348375320435,
   -0.7846764326095581,
   -0.22269880771636963
  ],
  [
   -0.8494299054145813,
   1.6624571084976196,
   1.3252440690994263,
   -1.2680585384368896
  ],
  [
   3.768925189971924,
   -0.9024654626846313,
   0.4414442777633667,
   -0.08673915266990662
  ],
  [
   -0.1873149573802948,
   -0.3626713752746582,
   -2.073058843612671,
   1.3384743928909302
  ],
  [
   -0.4867640733718872,
   0.3683297634124756,
   1.8428575992584229,
   -1.0259398221969604
  ],
  [
   -1.3712759017944336,
   -0.3404969871044159,
   1.1083481311798096,
   -0.9926521182060242
  ],
  [
   0.1669432818889618,
   -0.5515072345733643,
   0.021439019590616226,
   0.904312014579773
  ],
  [
   1.2211854457855225,
   -0.11041023582220078,
   -1.4343849420547485,
   -0.9591092467308044
  ],
  [
   0.9829909205436707,
   5.199644565582275,
   2.307098150253296,
   -1.4289138317108154
  ],
  [
   -3.034235954284668,
   1.8815158605575562,
   -0.9909980893135071,
   -4.739171028137207
  ],
  [
   1.834391713142395,
   0.46560952067375183,
   2.167372941970825,
   -1.4330644607543945
  ],
  [
   0.7853991985321045,
   0.943609893321991,
   -0.18614348769187927,
   -0.1442844420671463
  ],
  [
   -2.9546866416931152,
   0.29836419224739075,
   -1.7865856885910034,
   -1.0714246034622192
  ],
  [
   2.054128408432007,
   1.6002955436706543,
   3.442099094390869,
   -0.0001285705657210201
  ],
  [
   2.1302337646484375,
   -0.48710620403289795,
   2.289139747619629,
   0.00908898189663887
  ],
  [
   -1.7473597526550293,
   -0.674846351146698,
   -2.6237144470214844,
   0.5893834233283997
  ],
  [
   0.678492546081543,
   1.607530951499939,
   -0.22043396532535553,
   -3.354111671447754
  ],
  [
   2.013702392578125,
   -2.055096387863159,
   0.3744044303894043,
   1.420013427734375
  ],
  [
   -1.3340224027633667,
   -0.15196052193641663,
   1.7335662841796875,
   0.4584866464138031
  ],
  [
   -5.303545951843262,
   -0.9399411082267761,
   0.9794702529907227,
   0.2575652301311493
  ],
  [
   2.551905632019043,
   0.3425047695636749,
   0.16044628620147705,
   -1.736534595489502
  ],
  [
   -0.9031453728675842,
   1.4805985689163208,
   2.870121717453003,
   2.721190929412842
  ],
  [
   0.4150139093399048,
   -0.5795801877975464,
   -0.9921884536743164,
   -0.8965747356414795
  ],
  [
   2.6696438789367676,
   -0.8681038618087769,
   1.523463249206543,
   1.1165721416473389
  ],
  [
   0.25045087933540344,
   0.6943152546882629,
   0.20362015068531036,
   0.7560645341873169
  ],
  [
   2.4900975227355957,
   0.7611623406410217,
   0.3545035719871521,
   -0.24792268872261047
  ],
  [
   -1.386174201965332,
   2.3909149169921875,
   0.13424156606197357,
   -0.4864117503166199
  ],
  [
   0.17167562246322632,
   2.8175864219665527,
   1.00315523147583,
   -0.6019644737243652
  ],
  [
   0.9352267980575562,
   0.9679467082023621,
   1.192491054534912,
   -0.19515599310398102
  ],
  [
   1.0816131830215454,
   -1.7620002031326294,
   -0.15471701323986053,
   -2.5036709308624268
  ],
  [
   -1.0013668537139893,
   0.43420228362083435,
   0.5134949684143066,
   0.7695919275283813
  ],
  [
   0.8002318143844604,
   -2.210503578186035,
   1.974612832069397,
   2.126390218734741
  ],
  [
   -0.3724026679992676,
   0.5131717324256897,
   1.566390037536621,
   0.6885462999343872
  ],
  [
   -1.549701452255249,
   0.6641151309013367,
   1.0875468254089355,
   -0.4019220769405365
  ],
  [
   2.452043056488037,
   -2.403059959411621,
   0.6910415887832642,
   -1.5875564813613892
  ],
  [
   0.8441960215568542,
   6.907223224639893,
   -1.710295557975769,
   -1.095903754234314
  ],
  [
   0.24793577194213867,
   -0.9620112180709839,
   3.131498098373413,
   -0.012384808622300625
  ],
  [
   -3.0546696186065674,
   0.9902917146682739,
   -2.406242847442627,
   -1.1242972612380981
  ],
  [
   -3.111208438873291,
   1.2529058456420898,
   0.20042380690574646,
   -1.1759241819381714
  ],
  [
   2.3382530212402344,
   0.7307729125022888,
   -0.34162136912345886,
   0.017054270952939987
  ],
  [
   1.5062732696533203,
   -2.1530792713165283,
   -2.5372068881988525,
   -0.33837080001831055
  ],
  [
   -0.707401692867279,
   1.7829599380493164,
   3.330437660217285,
   -2.4702415466308594
  ],
  [
   -0.21073776483535767,
   2.0677425861358643,
   -0.05711546912789345,
   2.329550266265869
  ],
  [
   2.51423716545105,
   3.6930556297302246,
   0.9636881947517395,
   1.2187340259552002
  ],
  [
   -1.2745052576065063,
   -3.4630401134490967,
   -0.011347094550728798,
   -0.9842097163200378
  ],
  [
   -0.3477487564086914,
   1.8088351488113403,
   -0.007121202535927296,
   3.570366859436035
  ],
  [
   3.2311482429504395,
   0.2119615525007248,
   -0.4872049391269684,
   -0.7657930254936218
  ],
  [
   -1.6085563898086548,
   -0.9407944083213806,
   0.8605008125305176,
   1.330378532409668
  ],
  [
   -0.15276512503623962,
   -0.17515002191066742,
   0.11395247280597687,
   1.9695113897323608
  ],
  [
   -4.5648274421691895,
   -1.7215197086334229,
   -0.5905195474624634,
   0.4541686177253723
  ],
  [
   -1.8985345363616943,
   -1.7700624465942383,
   -5.408782482147217,
   -1.154167652130127
  ],
  [
   0.8072333931922913,
   -0.6820070743560791,
   1.1626890897750854,
   1.5064425468444824
  ],
  [
   0.7027112245559692,
   3.112588405609131,
   4.220609664916992,
   -2.0819501876831055
  ],
  [
   -1.8418203592300415,
   0.8721395134925842,
   1.5890642404556274,
   0.018200218677520752
  ],
  [
   -0.4875521659851074,
   -1.5523993968963623,
   0.5968983173370361,
   2.2033863067626953
  ],
  [
   -0.7954871654510498,
   0.15326952934265137,
   -1.117788314819336,
   4.094912528991699
  ],
  [
   -0.4256361126899719,
   3.791566848754883,
   -3.6886746883392334,
   -4.282939910888672
  ],
  [
   4.127538204193115,
   1.1162066459655762,
   -0.2052074521780014,
   0.11885493993759155
  ],
  [
   -2.895047903060913,
   0.15987607836723328,
   0.39495423436164856,
   -1.6392639875411987
  ],
  [
   1.4778488874435425,
   2.0302722454071045,
   0.16706429421901703,
   -0.8239434361457825
  ],
  [
   -2.35068678855896,
   0.30000096559524536,
   1.7862647771835327,
   -1.2838339805603027
  ],
  [
   -3.44380784034729,
   2.4790849685668945,
   -0.8848721981048584,
   -3.8395040035247803
  ],
  [
   3.941434383392334,
   2.0763542652130127,
   0.8122801184654236,
   2.909116744995117
  ],
  [
   2.885348320007324,
   1.0008505582809448,
   -0.16015487909317017,
   -0.38933509588241577
  ],
  [
   1.3748433589935303,
   2.888533353805542,
   -0.04715023934841156,
   -2.193441152572632
  ],
  [
   -0.47429826855659485,
   -2.5197675228118896,
   0.02630903385579586,
   1.4439131021499634
  ],
  [
   2.0104010105133057,
   -0.7815897464752197,
   -0.5909339785575867,
   0.2327912598848343
  ],
  [
   1.0520482063293457,
   -0.937498152256012,
   0.48737627267837524,
   0.3735549747943878
  ],
  [
   1.082702398300171,
   -0.3720816373825073,
   0.533751368522644,
   1.9415373802185059
  ],
  [
   -0.04644418880343437,
   -0.358974426984787,
   1.0861051082611084,
   0.6606966853141785
  ],
  [
   -0.2660026252269745,
   -0.8927515745162964,
   0.06727826595306396,
   0.10520225763320923
  ],
  [
   0.7013316750526428,
   1.7833309173583984,
   -0.5292080640792847,
   3.108966827392578
  ],
  [
   0.08877494186162949,
   -0.22625379264354706,
   0.586728572845459,
   -1.2173219919204712
  ],
  [
   1.0250924825668335,
   -0.5318190455436707,
   -0.2827606499195099,
   2.8504345417022705
  ],
  [
   2.7379610538482666,
   -0.06258285045623779,
   1.8697149753570557,
   0.1762426197528839
  ],
  [
   6.501852512359619,
   0.8466441035270691,
   -0.7728662490844727,
   -0.04280688613653183
  ],
  [
   0.4071604311466217,
   -1.0641939640045166,
   -2.0675759315490723,
   -2.317530393600464
  ],
  [
   2.285745143890381,
   -0.6425524950027466,
   2.1523361206054688,
   -0.004224730189889669
  ],
  [
   -0.08483497053384781,
   -1.092586636543274,
   0.04154771938920021,
   0.6248267292976379
  ],
  [
   -2.279825210571289,
   0.438436359167099,
   0.4669983386993408,
   -0.11468468606472015
  ],
  [
   -0.06364288926124573,
   0.5424098968505859,
   0.10164057463407516,
   0.08272756636142731
  ],
  [
   0.24375563859939575,
   0.06743690371513367,
   4.170478820800781,
   1.0230188369750977
  ],
  [
   1.267545461654663,
   -0.03489406406879425,
   -2.1614487171173096,
   2.0759100914001465
  ],
  [
   2.1820309162139893,
   -0.7749363780021667,
   -0.37577202916145325,
   0.08389168977737427
  ],
  [
   -0.18398337066173553,
   0.35583046078681946,
   0.6508884429931641,
   -0.3053458333015442
  ],
  [
   0.8280112743377686,
   0.4598985016345978,
   -0.22928808629512787,
   5.041896820068359
  ],
  [
   0.3177315592765808,
   -0.595177173614502,
   0.12733733654022217,
   -2.922295093536377
  ],
  [
   6.2402777671813965,
   1.7523330450057983,
   -1.4168803691864014,
   -2.698190689086914
  ],
  [
   1.455090045928955,
   0.6109654903411865,
   2.7902252674102783,
   -1.0509411096572876
  ],
  [
   -0.7359062433242798,
   -3.012463331222534,
   -1.0903098583221436,
   2.3352973461151123
  ],
  [
   3.7832648754119873,
   1.3417552709579468,
   -1.9111517667770386,
   0.9062262177467346
  ],
  [
   1.8308037519454956,
   1.7829570770263672,
   1.3937159776687622,
   -0.7797720432281494
  ],
  [
   3.149017572402954,
   2.2936618328094482,
   -0.30374065041542053,
   1.573310136795044
  ],
  [
   -0.0031280722469091415,
   5.043417930603027,
   2.002412796020508,
   1.4832262992858887
  ],
  [
   -0.959506630897522,
   -3.713726758956909,
   -0.5866183638572693,
   0.07422762364149094
  ],
  [
   -1.0319949388504028,
   -0.6673263907432556,
   2.86073899269104,
   1.3766710758209229
  ],
  [
   -0.1453065723180771,
   2.29729962348938,
   -0.5401607751846313,
   -3.2456135749816895
  ],
  [
   -0.14413496851921082,
   0.6527445912361145,
   -1.3071348667144775,
   -0.5991844534873962
  ],
  [
   3.6550583839416504,
   1.1608525514602661,
   -0.18566672503948212,
   -1.3633947372436523
  ],
  [
   2.1664717197418213,
   1.3149162530899048,
   -0.31953904032707214,
   -1.1227105855941772
  ],
  [
   1.6530708074569702,
   -2.519559621810913,
   -0.7205760478973389,
   -1.6455520391464233
  ],
  [
   -1.7678183317184448,
   7.186097145080566,
   -0.10862374305725098,
   -5.653267860412598
  ],
  [
   -1.7267494201660156,
   0.8422343730926514,
   -0.18359608948230743,
   3.2627475261688232
  ],
  [
   -0.827052652835846,
   0.7231793999671936,
   1.8159667253494263,
   3.215512752532959
  ],
  [
   -0.2558828890323639,
   2.759000062942505,
   1.0609976053237915,
   -0.8267858624458313
  ],
  [
   1.0135780572891235,
   0.264790415763855,
   -1.51151442527771,
   0.8819793462753296
  ],
  [
   1.9000262022018433,
   -7.333956241607666,
   1.5928961038589478,
   3.2094178199768066
  ],
  [
   0.17232847213745117,
   0.9397755861282349,
   2.251159191131592,
   -1.8486779928207397
  ],
  [
   -2.648388624191284,
   1.9592175483703613,
   -0.5116982460021973,
   -3.105224370956421
  ],
  [
   -0.6329330205917358,
   -0.6432373523712158,
   2.4975996017456055,
   1.0755311250686646
  ],
  [
   -3.9017858505249023,
   -0.32615160942077637,
   -0.37477704882621765,
   3.323162794113159
  ],
  [
   2.9348225593566895,
   1.1837526559829712,
   3.9395034313201904,
   -0.565268337726593
  ],
  [
   0.4718068838119507,
   0.8276891708374023,
   -1.4983161687850952,
   -0.9510478377342224
  ],
  [
   -0.9986927509307861,
   -0.49051836133003235,
   0.42413848638534546,
   2.142199754714966
  ],
  [
   -0.6323931813240051,
   0.9290692806243896,
   0.7776610255241394,
   0.6433990597724915
  ],
  [
   -2.268606662750244,
   2.3768062591552734,
   -0.97483891248703,
   -3.1019482612609863
  ],
  [
   -0.6971760392189026,
   -3.0353269577026367,
   0.4458494484424591,
   0.24910946190357208
  ],
  [
   1.7696959972381592,
   -0.2798140347003937,
   1.6356574296951294,
   2.2039401531219482
  ],
  [
   0.3291493058204651,
   4.798459053039551,
   -0.8568660616874695,
   -6.304193496704102
  ],
  [
   2.4833788871765137,
   1.2590140104293823,
   2.127542495727539,
   -0.9516265392303467
  ],
  [
   0.89597487449646,
   0.3361054062843323,
   0.0040144664235413074,
   0.12113414704799652
  ],
  [
   0.40171998739242554,
   -5.672702312469482,
   -1.2899563312530518,
   5.1330060958862305
  ],
  [
   0.07092676311731339,
   0.07539871335029602,
   -2.0740952491760254,
   0.03708838298916817
  ],
  [
   0.11218006163835526,
   -1.3877755403518677,
   -2.675719976425171,
   -1.299987554550171
  ],
  [
   1.975869059562683,
   -1.1125489473342896,
   3.6042630672454834,
   4.365693092346191
  ],
  [
   0.6101498603820801,
   -0.8353493213653564,
   -0.14244979619979858,
   -0.07961462438106537
  ],
  [
   0.5483483076095581,
   1.6291919946670532,
   -2.372622013092041,
   0.14690886437892914
  ],
  [
   0.3819929361343384,
   -0.2893180549144745,
   2.1664648056030273,
   -0.020914321765303612
  ],
  [
   -2.8477320671081543,
   -0.3506535589694977,
   0.9932551383972168,
   1.1308259963989258
  ],
  [
   1.110580325126648,
   -0.5707172751426697,
   -1.2185510396957397,
   -1.9230244159698486
  ],
  [
   -1.4049028158187866,
   -1.3773608207702637,
   1.463955044746399,
   0.336065411567688
  ],
  [
   1.562782883644104,
   -3.006822347640991,
   -2.1753034591674805,
   0.03738581761717796
  ],
  [
   -0.29031628370285034,
   -0.07544496655464172,
   3.332460641860962,
   0.696894645690918
  ],
  [
   -0.5445135235786438,
   0.18179833889007568,
   0.24086998403072357,
   -0.07509899139404297
  ],
  [
   1.0592575073242188,
   0.36794528365135193,
   0.6174894571304321,
   1.9295467138290405
  ],
  [
   -4.140841484069824,
   -1.3590033054351807,
   0.014625707641243935,
   -0.9115205407142639
  ],
  [
   -0.2498420625925064,
   1.3493412733078003,
   0.38417908549308777,
   5.819658279418945
  ],
  [
   3.045647621154785,
   -0.2955591678619385,
   0.33344537019729614,
   5.547585487365723
  ],
  [
   -0.7717600464820862,
   0.7066899538040161,
   -3.8057918548583984,
   0.038304541260004044
  ],
  [
   0.3056517541408539,
   0.6565443277359009,
   0.12779290974140167,
   -0.1324699968099594
  ],
  [
   -2.9143331050872803,
   -2.980602979660034,
   0.8728823661804199,
   0.19777266681194305
  ],
  [
   0.07907818257808685,
   0.575896680355072,
   1.3108596801757812,
   3.0897536277770996
  ],
  [
   -0.9244396686553955,
   0.10772988200187683,
   1.1142362356185913,
   3.8354618549346924
  ],
  [
   0.6525548696517944,
   0.13289980590343475,
   -0.45024698972702026,
   -0.5840125679969788
  ],
  [
   -0.6690936088562012,
   -1.0640454292297363,
   3.3591175079345703,
   0.0010661691194400191
  ],
  [
   0.9686301946640015,
   -1.6100276708602905,
   1.059753179550171,
   -0.2842555642127991
  ],
  [
   0.8533009886741638,
   0.015598367899656296,
   0.3435477912425995,
   0.3167588412761688
  ],
  [
   -2.5848512649536133,
   -0.7870157361030579,
   1.1507517099380493,
   -0.6804776787757874
  ],
  [
   2.7758548259735107,
   -4.375098705291748,
   1.3960822820663452,
   4.24031925201416
  ],
  [
   -0.015815649181604385,
   -5.927900791168213,
   0.7435471415519714,
   4.905819416046143
  ],
  [
   -0.2517361044883728,
   0.7702552080154419,
   -0.1831362247467041,
   -0.3097296953201294
  ],
  [
   -1.8197746276855469,
   2.5651698112487793,
   -1.1470192670822144,
   -0.015718873590230942
  ],
  [
   0.4563082158565521,
   -0.8133783340454102,
   -1.1326415538787842,
   -4.364558219909668
  ],
  [
   2.6537179946899414,
   1.1834839582443237,
   0.027480008080601692,
   1.9102615118026733
  ],
  [
   -0.053209174424409866,
   -0.17343051731586456,
   0.9561861157417297,
   1.5811283588409424
  ],
  [
   0.2314942330121994,
   -2.2656617164611816,
   -0.5558504462242126,
   4.172122478485107
  ],
  [
   -7.460752010345459,
   0.3588806688785553,
   -0.5231000185012817,
   0.22328974306583405
  ],
  [
   0.13296332955360413,
   -0.949610710144043,
   0.48018592596054077,
   -0.6782178282737732
  ],
  [
   -0.5259360074996948,
   -0.7750901579856873,
   0.7405619025230408,
   3.0900983810424805
  ],
  [
   -1.520652174949646,
   -0.16822728514671326,
   0.7965726256370544,
   -0.25572341680526733
  ],
  [
   0.6804791688919067,
   -1.9983879327774048,
   0.8075743913650513,
   -0.2474011331796646
  ],
  [
   -0.3957403302192688,
   2.4324233531951904,
   4.5926713943481445,
   -0.8766945600509644
  ],
  [
   -0.7759560346603394,
   -3.53717303276062,
   0.28309333324432373,
   4.609591484069824
  ],
  [
   -3.215665102005005,
   1.6687544584274292,
   0.8453919887542725,
   -0.6036524772644043
  ],
  [
   1.1187926530838013,
   -0.16819708049297333,
   1.019674301147461,
   5.295385360717773
  ],
  [
   4.207888126373291,
   -0.3265821635723114,
   -1.727148175239563,
   0.4936925172805786
  ],
  [
   0.30651789903640747,
   0.07596372812986374,
   1.9506049156188965,
   2.117096424102783
  ],
  [
   -0.9630792140960693,
   3.895909547805786,
   -1.1961472034454346,
   2.7039198875427246
  ],
  [
   0.414849191904068,
   1.3775707483291626,
   0.6345426440238953,
   2.9492526054382324
  ],
  [
   -0.2918974459171295,
   -0.8884637355804443,
   2.661621570587158,
   0.19315499067306519
  ],
  [
   -0.037358760833740234,
   -0.6437311172485352,
   -0.11937281489372253,
   0.6911060810089111
  ],
  [
   2.334489345550537,
   2.491842269897461,
   3.571258068084717,
   -1.2110105752944946
  ],
  [
   1.3906718492507935,
   0.6010143160820007,
   -0.024952994659543037,
   3.3647289276123047
  ],
  [
   -0.680262565612793,
   -2.21286678314209,
   3.2291502952575684,
   0.9006864428520203
  ],
  [
   0.9089783430099487,
   1.2988792657852173,
   -0.7651193141937256,
   -2.8752009868621826
  ],
  [
   1.0633820295333862,
   0.8487924337387085,
   -2.154339075088501,
   -3.7947025299072266
  ],
  [
   -0.006848168093711138,
   -0.17777055501937866,
   2.246816396713257,
   1.4576406478881836
  ],
  [
   -0.8968479633331299,
   -0.795375406742096,
   0.07850554585456848,
   -0.910198450088501
  ],
  [
   2.4753236770629883,
   -1.4751231670379639,
   -0.7948907017707825,
   -2.10099458694458
  ],
  [
   -0.5328541398048401,
   0.2698972225189209,
   -0.8208487033843994,
   -4.659723281860352
  ],
  [
   1.2600905895233154,
   -2.0135183334350586,
   0.09791668504476547,
   -0.6713129281997681
  ],
  [
   0.4049828052520752,
   0.5870566964149475,
   -0.5245761871337891,
   -0.5271711349487305
  ],
  [
   4.012697696685791,
   -4.782267093658447,
   0.5879406929016113,
   3.079017400741577
  ],
  [
   4.269100666046143,
   0.16480283439159393,
   -0.5995093584060669,
   1.019171118736267
  ],
  [
   0.13031888008117676,
   -0.6063622236251831,
   -0.03488323464989662,
   2.9755303859710693
  ],
  [
   -1.2781741619110107,
   1.741167664527893,
   0.36827394366264343,
   -2.7593345642089844
  ],
  [
   -5.978579044342041,
   -4.479388236999512,
   1.117975115776062,
   0.2816530168056488
  ],
  [
   2.584988594055176,
   2.5744082927703857,
   0.6623423099517822,
   -0.024816779419779778
  ],
  [
   1.1668823957443237,
   -1.1687442064285278,
   0.3130282163619995,
   0.5133006572723389
  ],
  [
   1.1003748178482056,
   -0.8996076583862305,
   -2.9128310680389404,
   1.810949683189392
  ],
  [
   0.29893165826797485,
   2.0171446800231934,
   -0.9864367246627808,
   1.3915091753005981
  ],
  [
   -0.16679534316062927,
   -0.1304214596748352,
   0.3972817361354828,
   -0.6467300653457642
  ],
  [
   -2.1851367950439453,
   1.3159639835357666,
   3.4669482707977295,
   -0.9810917377471924
  ],
  [
   4.6757493019104,
   2.567985773086548,
   0.23795147240161896,
   -0.030113855376839638
  ],
  [
   0.5615290999412537,
   -6.182316780090332,
   1.031760334968567,
   3.9224002361297607
  ],
  [
   0.3941366374492645,
   6.379631042480469,
   3.92816424369812,
   -1.6238646507263184
  ],
  [
   1.0837959051132202,
   -0.5595834255218506,
   0.49266132712364197,
   0.5211395621299744
  ],
  [
   -1.4161840677261353,
   1.0225306749343872,
   0.6458420753479004,
   2.429802656173706
  ],
  [
   1.1116095781326294,
   -0.49514177441596985,
   -2.9273056983947754,
   -4.671908378601074
  ],
  [
   -0.15977369248867035,
   -0.7842121720314026,
   -0.17849302291870117,
   -3.624406099319458
  ],
  [
   -0.223981574177742,
   2.072679042816162,
   0.13613606989383698,
   -0.04280846565961838
  ],
  [
   -0.28668075799942017,
   2.3337714672088623,
   0.7401090264320374,
   -3.6740007400512695
  ],
  [
   -0.9559037685394287,
   -0.3033598065376282,
   0.9741643667221069,
   0.9702693223953247
  ],
  [
   3.3087244033813477,
   0.047189343720674515,
   1.186951756477356,
   -0.4420493543148041
  ],
  [
   -0.8030269742012024,
   2.606555223464966,
   0.4746641516685486,
   -0.9212626814842224
  ],
  [
   -0.203263521194458,
   -0.42873162031173706,
   0.4699997901916504,
   -1.4178539514541626
  ],
  [
   -2.2263684272766113,
   2.785391330718994,
   -0.6735953688621521,
   -1.3636764287948608
  ],
  [
   0.04832172766327858,
   1.1163190603256226,
   -4.612131595611572,
   -1.9398828744888306
  ],
  [
   0.9118788242340088,
   -1.3232150077819824,
   0.6882916688919067,
   0.8069880604743958
  ],
  [
   -0.048507194966077805,
   -3.729180335998535,
   -2.6950480937957764,
   -0.2052493393421173
  ],
  [
   -0.7096956968307495,
   -0.22752933204174042,
   0.6738858222961426,
   -1.0099833011627197
  ],
  [
   1.5444225072860718,
   -0.329959899187088,
   -0.9676111936569214,
   -0.8283352255821228
  ],
  [
   -3.1259498596191406,
   -0.7967424392700195,
   -1.5604026317596436,
   -2.995107650756836
  ],
  [
   0.9977267384529114,
   -0.8528802990913391,
   -0.1511569619178772,
   0.1725730150938034
  ],
  [
   4.117425441741943,
   3.3028876781463623,
   -0.6362034678459167,
   -0.6303927302360535
  ],
  [
   0.07386496663093567,
   1.0941239595413208,
   0.13037121295928955,
   3.0815882682800293
  ],
  [
   0.5122640132904053,
   0.762898862361908,
   -1.5199753046035767,
   0.43398427963256836
  ],
  [
   0.25695401430130005,
   -0.6784875392913818,
   3.9434571266174316,
   2.3518800735473633
  ],
  [
   -0.6014587879180908,
   -1.9194730520248413,
   1.9651917219161987,
   -0.31598904728889465
  ],
  [
   -0.626605212688446,
   -0.2364831268787384,
   0.6971666216850281,
   0.7194657325744629
  ]
 ],
 "pi.0.bias": [
  -1.1021112203598022,
  0.042161423712968826,
  -0.9930442571640015,
  0.6016083359718323,
  -1.9888291358947754,
  1.9982870817184448,
  -1.304378628730774,
  0.4648358225822449,
  -2.356661319732666,
  -1.3392783403396606,
  -1.8562320470809937,
  -0.9777604341506958,
  -0.9336127638816833,
  -2.536163091659546,
  1.3290363550186157,
  -1.4701064825057983,
  3.391486883163452,
  -1.2401734590530396,
  0.44308575987815857,
  -0.08440858125686646,
  -1.0354515314102173,
  -1.0563596487045288,
  3.4933440685272217,
  0.9839840531349182,
  1.6263277530670166,
  -4.755083084106445,
  3.8632354736328125,
  1.8928111791610718,
  -0.6634930372238159,
  1.2471269369125366,
  -1.784071445465088,
  0.680849552154541,
  2.2100179195404053,
  -2.365878105163574,
  -0.719635546207428,
  -5.403162956237793,
  0.041760098189115524,
  0.7782887816429138,
  -0.08524229377508163,
  -2.624516725540161,
  -0.15584474802017212,
  0.8700412511825562,
  -0.6563009023666382,
  -2.1213173866271973,
  -1.340371012687683,
  0.3703018128871918,
  -1.7162421941757202,
  -0.7933288812637329,
  -6.638865947723389,
  -5.000481128692627,
  -2.7790188789367676,
  -0.44794028997421265,
  -2.6318178176879883,
  -1.9521846771240234,
  -1.8826285600662231,
  1.474592685699463,
  -1.5833626985549927,
  -1.6303192377090454,
  2.6704254150390625,
  -0.19109083712100983,
  -0.7628784775733948,
  -2.325529098510742,
  0.3634088635444641,
  2.287888288497925,
  -1.408791422843933,
  -2.0854098796844482,
  -0.24493922293186188,
  -1.158419132232666,
  -0.3339008092880249,
  -0.5052260756492615,
  -2.400580406188965,
  2.214759349822998,
  -1.6137140989303589,
  -0.6686229109764099,
  0.5303688645362854,
  -1.2325307130813599,
  0.5385760068893433,
  0.5964292287826538,
  -2.3696484565734863,
  -1.8681074380874634,
  -2.1331489086151123,
  -3.5339298248291016,
  -1.3079688549041748,
  -3.4518725872039795,
  -0.6095343828201294,
  -0.3558010160923004,
  -3.8799495697021484,
  1.8851163387298584,
  -1.2283369302749634,
  0.08295489847660065,
  4.0169548988342285,
  -2.8554611206054688,
  -1.0879460573196411,
  -3.0132274627685547,
  0.08345573395490646,
  2.9236643314361572,
  0.6893733143806458,
  1.9216033220291138,
  -3.0449979305267334,
  -1.6556487083435059,
  3.179579257965088,
  1.0293134450912476,
  -2.3798694610595703,
  0.9712346792221069,
  0.9061656594276428,
  -2.007063627243042,
  2.064335584640503,
  -3.1167712211608887,
  -0.8591415286064148,
  1.101941704750061,
  1.7366783618927002,
  1.079450249671936,
  0.012071831151843071,
  -4.37978982925415,
  0.11061029136180878,
  6.617812156677246,
  -0.4180469214916229,
  0.39230966567993164,
  -0.2454717606306076,
  -7.293537139892578,
  2.3244495391845703,
  -0.4957157373428345,
  0.2768762409687042,
  -2.340982675552368,
  -1.335774302482605,
  -0.7099133133888245,
  1.4163144826889038,
  -1.6918954849243164,
  0.30463215708732605,
  -1.6895402669906616,
  -1.4812041521072388,
  4.544153690338135,
  1.5634734630584717,
  5.480433464050293,
  2.908452033996582,
  -1.1600724458694458,
  -0.15535607933998108,
  -2.92529559135437,
  0.9873956441879272,
  1.2393074035644531,
  -0.5666937828063965,
  3.6353542804718018,
  -3.5625195503234863,
  -3.366908550262451,
  -1.8081421852111816,
  3.665958881378174,
  -0.30233314633369446,
  -1.4808125495910645,
  -4.196593284606934,
  -0.3088875412940979,
  -2.9307639598846436,
  0.5113330483436584,
  3.8371729850769043,
  -3.3244805335998535,
  -3.062537670135498,
  -1.6197041273117065,
  -1.65786874294281,
  0.3948233127593994,
  -0.6711769700050354,
  -2.4047868251800537,
  -2.524517297744751,
  -2.191229820251465,
  -2.3657822608947754,
  1.584094524383545,
  -1.1469300985336304,
  -2.550407648086548,
  1.8734490871429443,
  -0.23723463714122772,
  0.009063364937901497,
  -1.8473825454711914,
  -1.4354567527770996,
  -1.820582628250122,
  -2.4661107063293457,
  0.4813970923423767,
  -2.8106601238250732,
  -0.05505715310573578,
  -0.1523420214653015,
  -3.823712110519409,
  2.6291568279266357,
  1.7411993741989136,
  -2.2755370140075684,
  1.559807538986206,
  -1.6841254234313965,
  -2.2903192043304443,
  2.1343512535095215,
  -1.721925139427185,
  -1.9213664531707764,
  -1.9570331573486328,
  -3.2829790115356445,
  -0.26894402503967285,
  1.0494227409362793,
  0.4564361572265625,
  0.6797958612442017,
  -0.4548000395298004,
  -3.214038610458374,
  -2.329807996749878,
  3.0139362812042236,
  0.5558549761772156,
  -0.6469699144363403,
  0.2698305547237396,
  -0.7675197124481201,
  -1.5978671312332153,
  -1.710081696510315,
  -0.739898681640625,
  -1.6074763536453247,
  -5.44086217880249,
  -2.486088514328003,
  1.0217615365982056,
  -0.6533485651016235,
  3.4648404121398926,
  -2.1126298904418945,
  2.05434513092041,
  0.5669308304786682,
  4.8793745040893555,
  0.4715316593647003,
  -1.031296730041504,
  -0.12016870826482773,
  0.3992631137371063,
  -3.000535726547241,
  -1.2943955659866333,
  -2.727308988571167,
  0.49723997712135315,
  -6.449536323547363,
  -1.1403201818466187,
  -1.9642940759658813,
  -3.746572494506836,
  1.6595001220703125,
  1.4973706007003784,
  -1.7087209224700928,
  -0.4989359676837921,
  0.0033176224678754807,
  2.7201194763183594,
  -0.11174052953720093,
  1.6045316457748413,
  -0.9007611274719238,
  -0.898502767086029,
  -1.0618826150894165,
  2.294017791748047,
  3.9911348819732666,
  1.0474227666854858,
  1.7250645160675049,
  -1.5208053588867188,
  2.3814871311187744,
  -1.9914498329162598,
  -2.3183979988098145,
  -2.6432175636291504,
  -0.25253748893737793,
  -0.7907450199127197,
  1.243255615234375,
  -0.3713485300540924,
  1.2778924703598022,
  3.4400672912597656,
  -0.05028810352087021,
  -1.4061131477355957,
  3.777414321899414,
  2.6636579036712646,
  1.2511627674102783,
  0.07533609122037888,
  0.2705968916416168,
  2.8086330890655518,
  -2.1780543327331543,
  0.14278793334960938,
  2.1783244609832764,
  -3.361051321029663,
  -3.483228921890259,
  -1.1692109107971191,
  -1.155899167060852,
  2.0868070125579834,
  2.1684622764587402,
  2.0946152210235596,
  0.7010471820831299,
  -1.0758408308029175,
  0.30255356431007385,
  2.23051118850708,
  -3.400076389312744,
  -1.3232301473617554,
  -0.9337393045425415,
  -1.5027586221694946,
  -0.745146632194519,
  -1.4146143198013306,
  1.1311113834381104,
  -0.4556918740272522,
  3.0681889057159424,
  -1.9313348531723022,
  0.8692999482154846,
  -1.65670645236969,
  -0.27860698103904724,
  0.14960038661956787,
  -1.9129754304885864,
  -1.632151484489441,
  1.9554481506347656,
  1.2483596801757812,
  0.23793630301952362,
  0.48774874210357666,
  -1.208204746246338,
  -0.03462609648704529,
  -2.6328125,
  -2.393808126449585,
  -1.5799121856689453,
  0.8724022507667542,
  -3.3350093364715576,
  1.2567665576934814,
  -1.7151634693145752,
  -1.2320023775100708,
  1.0779035091400146,
  -2.8861148357391357,
  -1.2612907886505127,
  -4.6196722984313965,
  -0.900104284286499,
  2.6961886882781982,
  -1.304680585861206,
  4.469977855682373,
  7.376669406890869,
  -1.0459613800048828,
  4.812689304351807,
  1.8263872861862183,
  -1.9001271724700928,
  -0.233056902885437,
  -5.960568428039551,
  -4.465424537658691,
  -1.378635048866272,
  0.3780336380004883,
  0.5395907163619995,
  0.08993106335401535,
  -1.1873093843460083,
  0.38220125436782837,
  -3.6568996906280518,
  3.122328281402588,
  1.9847228527069092,
  3.1572012901306152,
  -1.3038184642791748,
  -3.11357045173645,
  1.6104865074157715,
  -0.81477952003479,
  1.1476298570632935,
  -0.9967011213302612,
  -0.3131883144378662,
  -0.11146605759859085,
  -0.6371344327926636,
  -1.6825275421142578,
  -3.164628505706787,
  1.3237338066101074,
  2.3391005992889404,
  -2.134772539138794,
  0.9728844165802002,
  0.6235271692276001,
  -3.6043519973754883,
  -1.1213771104812622,
  -3.990825653076172,
  -1.8002638816833496,
  -2.2463269233703613,
  1.2342065572738647,
  2.6898162364959717,
  -0.23787203431129456,
  -0.9994665384292603,
  1.3194403648376465,
  2.181802749633789,
  -4.691934585571289,
  -2.1191394329071045,
  -2.477865219116211,
  -1.0825406312942505,
  -0.8348497748374939,
  1.277878761291504,
  3.203929901123047,
  0.06823829561471939,
  -2.2207159996032715,
  0.20532572269439697,
  -1.1095542907714844,
  -2.460787773132324,
  3.0191760063171387,
  -5.103410243988037,
  -2.841895818710327,
  -3.349900960922241,
  2.292252779006958,
  4.573892116546631,
  -0.4728313088417053,
  0.0005494437646120787,
  -0.6742133498191833,
  1.8940500020980835,
  -1.2328120470046997,
  -3.4110357761383057,
  -2.0373282432556152,
  0.7189008593559265,
  -1.1689302921295166,
  0.8118271827697754,
  -3.163741111755371,
  -0.9390102624893188,
  -2.7898213863372803,
  -2.831099033355713,
  3.3039186000823975,
  -1.7745647430419922,
  -2.530677318572998,
  0.7558404803276062,
  -3.115804672241211,
  0.30600833892822266,
  2.4531521797180176,
  -0.7920898795127869,
  1.5290477275848389,
  -2.609480619430542,
  0.8746820688247681
 ],
 "pi.2.weight": [
  [
   0.7361223697662354,
   -0.5829102993011475,
   0.09671027958393097,
   0.36116597056388855,
   1.076826810836792,
   -0.9815261960029602,
   0.37279242277145386,
   0.7554693818092346,
   -1.2278450727462769,
   1.1565923690795898,
   -0.6842381954193115,
   -0.19593927264213562,
   -0.7212099432945251,
   0.4415414035320282,
   1.0888159275054932,
   -0.09147775173187256,
   -0.8847922086715698,
   0.363442987203598,
   1.123574137687683,
   0.251268208026886,
   -0.3393419086933136,
   0.6521366834640503,
   0.9963333606719971,
   0.0057068876922130585,
   0.4253597855567932,
   4.184490203857422,
   0.6516710519790649,
   -0.022324861958622932,
   -0.7721906304359436,
   0.7421246767044067,
   -0.24040091037750244,
   0.5111215710639954,
   -1.0408910512924194,
   -0.9905255436897278,
   -0.40286827087402344,
   0.8447971343994141,
   -0.3498106002807617,
   -0.6833416223526001,
   -0.1557641178369522,
   1.4683773517608643,
   0.23576988279819489,
   0.5250794887542725,
   0.42592835426330566,
   0.4801512360572815,
   -0.08343983441591263,
   0.1167224794626236,
   0.2076764553785324,
   -1.0530009269714355,
   -1.2418677806854248,
   1.4553285837173462,
   -1.6393985748291016,
   0.7308691740036011,
   -1.087788462638855,
   -1.8907204866409302,
   -0.13776327669620514,
   0.7865439057350159,
   0.1005384549498558,
   0.47094205021858215,
   -1.137113332748413,
   0.2440280318260193,
   -0.186531201004982,
   0.978171169757843,
   -0.6306514739990234,
   0.5341933369636536,
   -0.29973044991493225,
   0.48280811309814453,
   -1.0120316743850708,
   -1.0139057636260986,
   -0.918387234210968,
   -0.28734543919563293,
   -0.9157552123069763,
   -0.46308737993240356,
   -1.2148033380508423,
   0.4619981050491333,
   0.19410143792629242,
   -0.8201246857643127,
   0.0839943215250969,
   0.12095268815755844,
   -0.3884718418121338,
   -0.19389168918132782,
   -0.27917394042015076,
   -0.2288164347410202,
   -0.41802978515625,
   1.81403648853302,
   1.1228415966033936,
   0.3539902865886688,
   -0.3716404438018799,
   0.684712290763855,
   -0.9570572376251221,
   0.1313277930021286,
   -0.21808083355426788,
   1.343130350112915,
   0.821480393409729,
   -1.3056583404541016,
   -0.880764365196228,
   -1.0625756978988647,
   0.8312501311302185,
   0.17110095918178558,
   -0.20968391001224518,
   -0.1326989233493805,
   -0.7201750874519348,
   0.9968087077140808,
   0.8617211580276489,
   0.2522902190685272,
   0.39806950092315674,
   0.9624448418617249,
   0.8611319661140442,
   0.33032774925231934,
   -0.3411330580711365,
   0.5246214270591736,
   0.31827759742736816,
   -0.7917235493659973,
   -0.7782567143440247,
   1.0574153661727905,
   -0.020590828731656075,
   -1.3775708675384521,
   -1.0104643106460571,
   -0.4560430347919464,
   -0.7700154185295105,
   2.4376251697540283,
   0.26994168758392334,
   0.5527430772781372,
   0.1435866355895996,
   -0.21368995308876038,
   -0.8548823595046997,
   0.5589916706085205,
   0.9798169732093811,
   0.7624456882476807,
   0.3157389760017395,
   -0.6175510287284851,
   0.4968043267726898,
   1.1180497407913208,
   -0.21156182885169983,
   0.8414372801780701,
   -0.5520039200782776,
   0.519805908203125,
   0.26975780725479126,
   -1.145928978919983,
   0.5963438153266907,
   0.5487402677536011,
   -0.9028344750404358,
   0.8713352680206299,
   1.6438432931900024,
   0.3166196048259735,
   -0.6523188948631287,
   -0.9370937943458557,
   -0.5204601883888245,
   0.5238558650016785,
   -0.9268326759338379,
   0.9516242742538452,
   0.699173092842102,
   0.21297436952590942,
   0.7669671773910522,
   -1.2811166048049927,
   -1.0453152656555176,
   -0.933085560798645,
   0.9547606706619263,
   0.14504197239875793,
   0.019262729212641716,
   -0.8643195033073425,
   -0.5306987762451172,
   0.30655184388160706,
   1.5024100542068481,
   0.9617182016372681,
   -0.4833470582962036,
   1.1480205059051514,
   1.0505839586257935,
   -0.7597936987876892,
   -0.42257675528526306,
   1.2117717266082764,
   -1.1630144119262695,
   0.539994478225708,
   1.3349287509918213,
   0.7892900109291077,
   -0.7280251383781433,
   0.864789605140686,
   -0.052040256559848785,
   -0.6927533149719238,
   -0.7604742646217346,
   -0.5271762013435364,
   -0.3459838032722473,
   0.5811105370521545,
   0.9344074130058289,
   -0.5208615064620972,
   -0.7026991248130798,
   -0.21079261600971222,
   0.7652817964553833,
   -0.4443182051181793,
   1.8316515684127808,
   0.6625716686248779,
   -0.4285412132740021,
   0.22512923181056976,
   -0.38148805499076843,
   -0.9326600432395935,
   1.181107521057129,
   1.1507223844528198,
   -0.16123831272125244,
   -0.4986649453639984,
   -0.799737274646759,
   -0.7088801860809326,
   0.6574829816818237,
   -0.7024367451667786,
   1.505887508392334,
   0.3552583158016205,
   -1.2374225854873657,
   1.5468851327896118,
   -0.9101905226707458,
   -0.8086910843849182,
   -0.4479965567588806,
   -0.1887701004743576,
   -1.0992369651794434,
   -0.7422066926956177,
   0.16192017495632172,
   -0.9849051237106323,
   -0.2135452926158905,
   -0.9863450527191162,
   0.9751095175743103,
   0.13035154342651367,
   0.08431314677000046,
   -0.5067362785339355,
   0.5789591670036316,
   -1.026980996131897,
   1.1047251224517822,
   0.2259480208158493,
   0.17500044405460358,
   0.04771536588668823,
   0.40822330117225647,
   -0.4576770067214966,
   0.6823241710662842,
   -0.8377189636230469,
   -0.6591680645942688,
   -0.07344962656497955,
   1.04178786277771,
   0.5662856101989746,
   -0.625271201133728,
   0.430267333984375,
   1.090949296951294,
   0.4738982021808624,
   -0.5532200336456299,
   0.6196661591529846,
   -0.2859632670879364,
   -1.3625271320343018,
   -0.4744040071964264,
   0.2997308373451233,
   0.02999771200120449,
   0.141319140791893,
   0.31520625948905945,
   -0.2469206154346466,
   -0.3327321410179138,
   -0.4212624430656433,
   0.4136787950992584,
   1.1023534536361694,
   0.28983235359191895,
   -0.018224013969302177,
   0.7151820063591003,
   -1.0631846189498901,
   0.00855089072138071,
   0.09234745055437088,
   0.19754929840564728,
   0.42570194602012634,
   -1.3415915966033936,
   -0.5344972610473633,
   0.17159464955329895,
   -2.215834856033325,
   2.655106544494629,
   -0.1477530300617218,
   1.0145539045333862,
   -0.20369575917720795,
   0.9556071162223816,
   -0.9070209860801697,
   0.8160711526870728,
   -0.7186999917030334,
   1.1449733972549438,
   -0.829820990562439,
   0.38061320781707764,
   0.5106300115585327,
   -0.6268360614776611,
   1.0536197423934937,
   0.3454720377922058,
   0.49276065826416016,
   0.5733363628387451,
   1.1225579977035522,
   -0.9167841672897339,
   1.012866497039795,
   0.28637880086898804,
   0.8040904402732849,
   -0.8098911643028259,
   1.2139142751693726,
   1.2703015804290771,
   -0.9324770569801331,
   -0.28458720445632935,
   -0.8580979108810425,
   0.4385066330432892,
   0.5080744028091431,
   0.4025416970252991,
   0.46571046113967896,
   -1.1502277851104736,
   -1.6537925004959106,
   1.0721778869628906,
   -0.6898558139801025,
   -4.2630133628845215,
   -0.7019692659378052,
   -0.5533430576324463,
   -0.24604655802249908,
   -0.6553098559379578,
   -2.4315545558929443,
   0.5153716206550598,
   -3.3057174682617188,
   0.9356289505958557,
   0.1297413855791092,
   0.36177507042884827,
   0.34960445761680603,
   -1.689851999282837,
   -0.8977552652359009,
   -0.7624371647834778,
   -0.3905932307243347,
   0.00439209071919322,
   -0.5524283647537231,
   -1.932631492614746,
   1.596881628036499,
   -0.6418741345405579,
   -0.21235553920269012,
   0.7494446039199829,
   -0.10968149453401566,
   0.19592171907424927,
   -0.6164939403533936,
   -1.7541329860687256,
   0.6599289178848267,
   1.406061053276062,
   0.8821636438369751,
   0.5504452586174011,
   -0.9309678077697754,
   0.3037928342819214,
   -0.7665616273880005,
   -0.2739551365375519,
   1.0272696018218994,
   0.6361838579177856,
   0.13040447235107422,
   -0.4481613039970398,
   -0.17407087981700897,
   1.6573243141174316,
   -0.8474391102790833,
   0.6668645739555359,
   0.4465682804584503,
   0.10935084521770477,
   0.955369770526886,
   2.793503999710083,
   -0.6776338219642639,
   -1.5037477016448975,
   -0.4437122941017151,
   1.00444495677948,
   0.5026984810829163,
   0.9484044909477234,
   -0.7632758021354675,
   0.5621574521064758,
   0.248567596077919,
   0.8910722732543945,
   -0.18178360164165497,
   0.6703557372093201,
   0.01417417824268341,
   -0.15169362723827362,
   -0.3350564241409302,
   1.08211350440979,
   -1.1193857192993164,
   -0.5722180604934692,
   0.25414106249809265,
   -0.19510364532470703,
   -0.5270602703094482,
   -0.6402526497840881,
   0.04426216334104538,
   1.7361804246902466,
   2.2904303073883057,
   0.7279416918754578,
   -0.9194805026054382,
   -0.7956673502922058,
   -1.1937025785446167,
   -0.10194188356399536,
   -0.13085967302322388,
   0.6085414290428162,
   0.7267875671386719,
   1.4262421131134033,
   -0.10498406738042831,
   -0.5821724534034729,
   0.393380731344223,
   -0.4921855032444,
   -1.3996658325195312,
   1.0192848443984985,
   -0.5020931363105774,
   -1.5114866495132446,
   0.7400755882263184,
   1.2970085144042969,
   -0.5321565270423889,
   -0.5691284537315369,
   -0.2839629054069519,
   -0.5911349654197693,
   -0.3738337755203247,
   0.27891120314598083,
   -0.872157633304596,
   -0.7111209630966187,
   -0.398194819688797
  ],
  [
   -0.5128585696220398,
   -0.2342926561832428,
   -0.7623786330223083,
   0.24551823735237122,
   0.22779622673988342,
   -0.0992644652724266,
   -1.102504014968872,
   0.2785864472389221,
   -0.2904624342918396,
   -0.2543644607067108,
   -0.4926984906196594,
   0.8534008860588074,
   -0.3963758647441864,
   -1.1299272775650024,
   -0.35115936398506165,
   -0.6051431894302368,
   -0.757737398147583,
   0.9142513275146484,
   -0.1466701626777649,
   0.7861009240150452,
   0.8532714247703552,
   -0.513057291507721,
   0.13459132611751556,
   0.4456997513771057,
   1.145206332206726,
   -2.721426248550415,
   0.235677570104599,
   -0.7330297231674194,
   0.6925904154777527,
   0.03787382319569588,
   0.7284462451934814,
   -0.813765823841095,
   -0.14450666308403015,
   0.04262580722570419,
   0.48557403683662415,
   2.732050657272339,
   0.7909179925918579,
   0.08876994252204895,
   -0.6753876805305481,
   -1.1369102001190186,
   0.34464237093925476,
   -0.5496118664741516,
   -0.6480275988578796,
   -0.7781893610954285,
   -0.9278170466423035,
   0.5106102228164673,
   -1.243046760559082,
   0.2158614993095398,
   -0.22910761833190918,
   -0.2769883871078491,
   -0.171214759349823,
   0.515504777431488,
   -1.2852064371109009,
   0.09275873750448227,
   -0.900952160358429,
   0.2744996249675751,
   -0.765143871307373,
   1.0126936435699463,
   0.05428682267665863,
   0.6330594420433044,
   0.9379481077194214,
   0.6400038003921509,
   0.6295918226242065,
   -0.5858896970748901,
   0.45421767234802246,
   -0.4789791405200958,
   -0.10102076828479767,
   -0.46984681487083435,
   -0.21817952394485474,
   0.7773885726928711,
   0.8422108888626099,
   -0.724945604801178,
   -0.19059954583644867,
   0.10711614042520523,
   0.5274084806442261,
   -0.26179999113082886,
   0.8595554828643799,
   -0.5402624011039734,
   -1.1647170782089233,
   1.2555853128433228,
   -1.3504126071929932,
   -1.689988374710083,
   -0.5551795363426208,
   -0.024324538186192513,
   -0.19168289005756378,
   -0.7967202663421631,
   1.3653149604797363,
   0.7983776926994324,
   0.755166232585907,
   -0.620401918888092,
   -1.1603182554244995,
   0.6862758994102478,
   0.4627378284931183,
   0.5818904042243958,
   -0.2872737944126129,
   0.19306837022304535,
   0.7676999568939209,
   0.9342526197433472,
   0.7151810526847839,
   -1.0189965963363647,
   0.23233070969581604,
   -0.1345159262418747,
   -0.07607927173376083,
   0.771409273147583,
   0.7773919701576233,
   0.4778237044811249,
   -0.454548716545105,
   1.8410154581069946,
   -0.7111462950706482,
   0.3400934636592865,
   -0.6473774909973145,
   0.6253862380981445,
   -0.18495957553386688,
   1.6627434492111206,
   -0.8119156360626221,
   -0.16600538790225983,
   -0.6224571466445923,
   -0.11056240648031235,
   -0.6558065414428711,
   -0.8110848665237427,
   -0.6483147144317627,
   0.8360005617141724,
   -0.913672924041748,
   -0.7530896663665771,
   0.6550893783569336,
   0.2690877914428711,
   0.03762088343501091,
   -0.8416551351547241,
   -0.6398946046829224,
   -0.6560877561569214,
   0.8563277721405029,
   0.062070947140455246,
   -0.7949215173721313,
   -0.48423686623573303,
   0.6808449625968933,
   -1.1097368001937866,
   -0.7191629409790039,
   0.23359684646129608,
   0.09410962462425232,
   -0.6357845664024353,
   -0.2990436851978302,
   -0.7664551138877869,
   -0.3864792287349701,
   -1.2935208082199097,
   0.1812719702720642,
   -0.30342936515808105,
   -0.09123454988002777,
   1.0473825931549072,
   -0.9718269109725952,
   0.0970732718706131,
   -0.1704692840576172,
   0.28734540939331055,
   -0.2560529112815857,
   -1.2537782192230225,
   -0.2798606753349304,
   0.6275308728218079,
   0.190799742937088,
   0.5491494536399841,
   0.5502690076828003,
   0.6889699101448059,
   -0.9039801359176636,
   -0.5746243000030518,
   0.07174236327409744,
   -0.07332850247621536,
   -0.8891493678092957,
   0.6034797430038452,
   0.09153634309768677,
   -0.2430175542831421,
   -0.23510634899139404,
   -0.41441604495048523,
   0.43462425470352173,
   -0.3411109447479248,
   0.28686726093292236,
   -0.17265138030052185,
   0.4914241433143616,
   -0.2695004343986511,
   -0.8315641283988953,
   0.9416387677192688,
   0.8202638030052185,
   -0.6155843138694763,
   -1.084700584411621,
   0.7200828790664673,
   -0.1810324490070343,
   -0.35228389501571655,
   0.09249787777662277,
   0.6226053237915039,
   1.3021053075790405,
   1.1795119047164917,
   1.2561475038528442,
   1.0038647651672363,
   0.6734498739242554,
   0.41980281472206116,
   -0.746550977230072,
   0.16338159143924713,
   -0.6746620535850525,
   -0.22022727131843567,
   0.8529070019721985,
   0.39274701476097107,
   -0.09413236379623413,
   -0.31235864758491516,
   -0.16299420595169067,
   -0.7015079855918884,
   0.7593843936920166,
   -0.9372304081916809,
   -0.7409589886665344,
   1.0474345684051514,
   1.3127363920211792,
   -0.1921500265598297,
   -0.19108928740024567,
   -1.0766332149505615,
   -1.3462672233581543,
   -0.4294392764568329,
   -0.5743427872657776,
   0.17742294073104858,
   -0.6812621355056763,
   0.2304931879043579,
   -0.2331659346818924,
   -0.5852957963943481,
   1.1626595258712769,
   1.0132144689559937,
   0.2084324210882187,
   0.4791332185268402,
   2.3580191135406494,
   0.8065460324287415,
   0.7321140170097351,
   1.411504864692688,
   0.6230967044830322,
   -0.5570341944694519,
   -0.7932597994804382,
   -0.05035850405693054,
   0.31301411986351013,
   0.7687514424324036,
   0.2231118232011795,
   0.7105348110198975,
   -0.20071907341480255,
   0.753659725189209,
   0.04745648056268692,
   0.7827889919281006,
   0.6961607336997986,
   -0.3516058027744293,
   -1.1334396600723267,
   0.042660798877477646,
   0.8118612170219421,
   1.3372292518615723,
   1.4319580793380737,
   1.2654979228973389,
   -0.6141773462295532,
   -0.13740962743759155,
   0.39715439081192017,
   0.09532703459262848,
   0.21253925561904907,
   0.012710641138255596,
   0.35824811458587646,
   -0.9411293864250183,
   0.8043758869171143,
   -0.7228591442108154,
   -0.885376513004303,
   -0.82887202501297,
   0.450477659702301,
   0.43283650279045105,
   -0.9200719594955444,
   0.4460850656032562,
   0.35703542828559875,
   0.32469362020492554,
   2.550931930541992,
   0.9560853838920593,
   0.2862900495529175,
   -0.9256247282028198,
   -0.38966089487075806,
   0.373688668012619,
   0.4049687683582306,
   -0.8403590321540833,
   0.44027963280677795,
   0.5748711824417114,
   -0.7606359720230103,
   -0.19339226186275482,
   0.5709633827209473,
   0.728359580039978,
   0.995286226272583,
   0.9397076964378357,
   -0.905245840549469,
   0.713903546333313,
   0.5035789608955383,
   0.6617249846458435,
   -0.6532291173934937,
   0.4004136621952057,
   0.03557345271110535,
   -0.38991162180900574,
   -0.7297050356864929,
   0.0364064984023571,
   0.6853436827659607,
   0.1339358538389206,
   0.11145669966936111,
   0.31951481103897095,
   -0.06265044212341309,
   0.6907685995101929,
   0.32583877444267273,
   -0.09514358639717102,
   -0.27941301465034485,
   -0.2550099194049835,
   0.6990892291069031,
   -0.14435844123363495,
   0.43772321939468384,
   -0.44025126099586487,
   0.8870867490768433,
   0.6002504825592041,
   -0.49362269043922424,
   1.3961846828460693,
   0.43925386667251587,
   0.745771050453186,
   -0.8984765410423279,
   0.549446165561676,
   0.02538221701979637,
   -0.364492267370224,
   -1.035286545753479,
   -0.8078160285949707,
   0.7374239563941956,
   0.7980166673660278,
   0.49625164270401,
   -5.732746601104736,
   -0.410637766122818,
   0.4760233163833618,
   -0.04354628920555115,
   0.3830873370170593,
   -0.4047850966453552,
   -0.26018840074539185,
   -2.2011685371398926,
   -0.8326053619384766,
   -0.17516402900218964,
   0.5136173963546753,
   -0.7828147411346436,
   0.366525262594223,
   0.8009035587310791,
   0.2406405508518219,
   -0.621790885925293,
   -0.09010131657123566,
   0.02348398044705391,
   -0.647017776966095,
   0.39956560730934143,
   1.0254006385803223,
   0.23240719735622406,
   0.0031824938487261534,
   0.5734733939170837,
   -1.0084154605865479,
   0.7693851590156555,
   0.2546581029891968,
   0.10614415258169174,
   -0.5540178418159485,
   1.078079104423523,
   0.7405259013175964,
   1.36061429977417,
   -0.49700528383255005,
   -0.46971818804740906,
   -0.2711927592754364,
   -1.0727697610855103,
   0.5643821954727173,
   -0.503794252872467,
   0.6043063998222351,
   -0.664847731590271,
   -1.3039110898971558,
   0.729888916015625,
   -0.9228301644325256,
   -0.3328861892223358,
   0.02758908085525036,
   -0.38832926750183105,
   -0.8587339520454407,
   -0.930862307548523,
   0.28552576899528503,
   -1.9372515678405762,
   -0.8685954213142395,
   -2.612583637237549,
   0.45032304525375366,
   -0.035676077008247375,
   -0.6725177764892578,
   0.04985163360834122,
   0.2099757045507431,
   0.1275070756673813,
   1.1137771606445312,
   0.09760721772909164,
   0.8227975368499756,
   -1.1065062284469604,
   1.0520093441009521,
   -0.5583117008209229,
   0.42488160729408264,
   -0.7736515402793884,
   -0.6190025806427002,
   -1.1200952529907227,
   0.29760536551475525,
   0.5363535284996033,
   -0.007864875718951225,
   -0.21169257164001465,
   -1.4585295915603638,
   0.26300308108329773,
   -1.6621227264404297,
   0.3154544234275818,
   0.9157259464263916,
   -0.3185080289840698,
   0.29040372371673584,
   0.011792730540037155,
   -0.27027612924575806
  ]
 ],
 "pi.2.bias": [
  -0.0026549468748271465,
  -0.07474181801080704
 ]
}